solver_type L2R_L2LOSS_SVC_DUAL
nr_class 4
label 1 0 3 2
nr_feature 3611
bias -1
w
-0.04008907864065916 0.1006236279434622 0.05222002664055683 -0.1665912134560381 
0 -0.002753899156130622 0 0 
-0.05355280253098099 0.04552772203411583 -0.3404665945826325 -0.0163983807090991 
0.1345820217385794 0.06401255183806062 -0.1374218513453984 0 
0 0 0 0 
0.1953066426782216 -0.1339908827658795 -0.03351258347977854 -0.1461478865853923 
0.41413053839201 -0.2162639548144135 -0.569428523186128 -0.1682112941337649 
0 0 0 0 
0.8647583805006392 -0.7384948404287843 -0.257402726104362 -0.2422662908628782 
0 0 0 0 
-0.06568661817403373 0.03115980156537024 0 0 
0.2328907027412769 -0.1610221328199655 -0.1556787995337036 -0.1675424410910595 
0 0 0 0 
0 0 0 0 
0.09449127724627683 -0.2018432537467264 0.2636141909675692 0.0777661048339402 
-0.1070399608554763 0.001466890604874332 0.1272295342745628 -0.03665740451958537 
0.09147773695258654 -0.08782211379323893 0 -0.01269637991784596 
0.6792907566509315 -0.3839546070051861 -0.09011126542016237 -0.07743980720970746 
0.2514803199345896 -0.05162907640557973 -0.185442178980049 -0.1718947748650899 
0.1341838336087345 -0.170860618747404 -0.01673725756384711 0 
0.2633275776658114 -0.07823351006245709 -0.3422537164187625 -0.06812272699367614 
0.05933454787809828 -0.1186039856137366 -0.1751580286516011 -0.2367900525403879 
-0.6397538019028641 1.010207228648609 -0.6054898670387002 -0.1403983043975089 
-0.08414236775434146 0.1142353165232028 -0.1161719706615362 -0.03876957574954334 
0 0 0 0 
0.2336140196391728 -0.02292345586241814 -0.1833288739663063 -0.1569530038819692 
0 0 0 0 
0 0 0 0 
-0.8019313841918951 1.000956320347894 -0.5627039539821326 -0.4783639944661866 
0 0 0 0 
-0.1812592872471061 0.1816743581348319 -0.001593552733960938 -0.01141152803337108 
0.1654937796898965 0.08248215564945531 -0.3582578105725552 -0.2489966129828715 
-0.1818917233229557 0.07176466988338796 -0.1654547385331902 -0.4539851555021406 
-0.1643358613625427 0.2665762287346283 -0.4356614566964658 -0.3157847566995127 
0 0 0 0 
0 0 0 0 
-0.2631870502743047 0.2954814254046225 -0.08081858992544066 -0.1679335171608642 
0 0 0 0 
0 0 0 0 
0.2047209137286763 -0.02193002435492828 -0.06817325826974299 -0.06689510997859408 
-0.06776349844228677 0.05114101912492146 -0.1804219957486468 -0.3161882245001301 
-0.1791506292846267 0.1686621575226405 0.09065799739226874 -0.02395119315105101 
0.2051258756267751 -0.2070855926340264 0.2269506879909017 0 
-0.2902040290865891 0.2319313674931913 0.2263001130863186 -0.04574901193516891 
-0.2185375850487887 0.004683309675376323 0.386051730994389 -0.2180724159215702 
0.01662934451118379 0.2175251162970796 -0.5773974262653734 -0.08070363367369768 
0.07537449933601453 -0.04184452963763299 -0.2454334595245508 -0.09374812390971167 
-0.05055889034219024 -0.2516152087502752 0.2865592571584749 0.2582526473284293 
0.5836150716047147 -0.6761572753002359 0.05709591351336264 -0.2911419388772977 
-0.130517299757612 0.1534632799215115 -0.02241216155560507 0 
0 0 0 0 
0 0 0 0 
0 0 0 0 
-0.4220133865351378 0.2203386429981657 0 0 
0.5525834350095271 -0.4808097986413129 -0.4280364899133005 -0.2730873099175222 
0.153740546427761 -0.2256950012647978 0 0 
-0.0490692874228329 -0.07574683522869842 -0.1425962004501305 -0.1713866379340563 
0.2097792065785009 -0.001655338701898323 -0.2295162669535145 -0.2183044518754162 
-0.05851673900469019 -0.1432494212861982 0.2278033319451686 0 
0.2339033264300129 -0.1484030793140734 -0.08140501656351951 -0.2511701113378896 
-0.004579487333720912 0.008983161505805136 0 0 
-0.1258293487731537 -0.01091646248488774 0.01925558304099753 -0.06698083993666444 
-0.3087163372521878 0.1519664026168116 0.20474400983577 -0.2022682052932228 
0.06630924044237224 -0.4357809848813613 0.1677091317906224 0 
0.1656886395563036 -0.1121398912433968 -0.1720185675726353 -0.267115501738942 
-0.1190421764280109 0.3313181771524208 -0.2534009319737577 -0.02935315124413278 
-0.1707724967706022 0.117454525386247 0.1484728883852802 -0.06896369627324996 
0 0 0 0 
0.1666761184527033 -0.2405863663332876 0 0 
-0.2980212407462758 -0.04021891332879338 0.1169675075519125 0 
0 0 0 0 
-0.4635578932398339 0.3729467238987988 -0.1210226557331204 -0.3561960367797062 
0 0 0 0 
0.23117771221929 -0.4473965971237708 0.01438734817348197 -0.2519218832942053 
0.2207610569116937 0.02412009525891325 -0.6199911243913796 -0.2806129212204886 
0 0 0 0 
0.8647583805006392 -0.7384948404287843 -0.257402726104362 -0.2422662908628782 
0 0 0 0 
0.2431609787162784 -0.2998862454961068 0 0 
0 0 0 0 
0 0 0 0 
0.137696867013464 0.04467899990457889 0 -0.008417727990649094 
0 0 0 0 
-0.2626335302595759 0.1911215464304483 -0.05643118511266983 0 
0 0 0 0 
0.2002520872744073 -0.1117359728512603 0 0 
0 -0.006597668826462806 0 0 
0.1787961661182094 -0.3033487379548624 -0.04061592280042017 0.13569936409077 
-0.007162248250950598 -0.08315367087943802 -0.0188621619443213 0.1639413975406549 
-0.2119072707171916 0.315424215675349 -0.1154925164240167 -0.0894382738262751 
0 0 0 0 
-0.1511235670186682 0.2357160888373121 -0.1153103720028117 -0.07787113227902498 
0 0 0 0 
0.04298150697254032 0.136261504389607 -0.0649479810275117 -1.734723475976807e-18 
0.1725441611470891 -0.1550732810043753 -0.1510241634203513 -0.1912286402730118 
-0.1884596539199467 0.1152352598946771 0.2030447476071674 -0.07787113227902498 
-0.2329315724723582 0.3641493906214963 -0.1967027728787058 -0.07149150936391706 
0 0 0 0 
0 0 0 0 
0 0 0 0 
0 0 0 0 
0.01532646353233186 -0.001966594391979729 0 -0.03906643919191533 
-0.06980995125111945 0.1984216412259232 -0.201859048300546 -0.2086688643245977 
0 0 0 0 
0 0.005651838694850198 0 0 
0 0 0 0 
0.03120589599748087 -0.174027158570373 -0.004764364612778201 -0.06402793811416282 
-0.05232527727721814 -0.1549496322508157 -0.2898466171180271 0.2576203434632129 
-0.2764388992201902 0.1681383062514054 -0.0413774243271384 0 
0 0 0 0 
0 0.01061627999844066 0 0 
0 0 0 0 
0 0 0 0 
0 0 0 0 
0 0 0 0 
0 0 0 0 
0.3039484794295585 -0.2839379299246818 -0.006339571278911333 -0.2226797913405377 
0 0 0 0 
0 0 0 0 
0.001358014216564389 -0.02311596060619871 0 0 
-0.1017155293837044 -0.08628693510138914 -0.1305605665387452 0.2996689679607886 
0 0 0 0 
-0.3853148675474 -0.005874515093921494 0.2551663363653562 0.219483071578886 
0.1217203517022606 -0.01070832193765385 -0.08605536424979092 -0.03876957574954333 
0 0.1031184100478627 -0.2898466171180271 -0.0006323038652163849 
0 0 0 0 
-0.2954750119929661 0.1099886833086447 0 0.2582526473284293 
0.2404473220640449 -0.3667473256054684 -0.3928157082976357 -0.1987386523497627 
0 0 0 0 
0 0 0 0 
0.03743550781697932 0.008902360470723944 0 -1.301042606982605e-18 
0.04042099407559723 0.1744591805848294 -0.3000793218368591 -0.06689510997859408 
0 0 0 0 
-0.02255255974839155 0.07986566742383754 0 0 
0.04244714986571586 -0.1865592343763123 -0.06528028326937262 0.1498344839803943 
0 0 0 0 
0.06756878972627811 0.08535173226309445 0 -0.03056519275907437 
0 0 0 0 
-0.004579487333720912 0.008983161505805136 0 0 
0.001408393333516177 -0.1952337889043199 0.1072637165380763 -0.06368046450226326 
0.1398312966356801 0.247045932383795 -0.2251583561432786 -3.469446951953614e-17 
0 0 0 0 
-0.0844816898494479 -0.004070081532165142 0 0 
0.0006825809119298878 0.0200079438004582 -0.009953031692512805 -0.01269637991784596 
-0.01468030058848153 0.08114591875655108 0 0 
-0.06568661817403373 0.03115980156537024 0 0 
0 0 0 0 
0 0 0 0 
-0.3266640406527479 0.4875526383616292 -0.2945142810032954 -0.19392968685109 
-0.1196687307187576 0.08707855212753578 -0.03271483183006144 0 
0 0 0 0 
0 0 0 0 
0 0 0 0 
0 0 0 0 
0 0 0 0 
0.37510803966684 -0.2737071752925041 -0.4227143527071843 -0.119518987599156 
0 0 0 0 
-0.02361386585400387 0.2621554778078758 -0.1379048682353202 -0.1486458646828257 
-0.07444740941843669 0.1081603780387631 -0.009953031692512803 0 
0.02814853678390189 0.004735311008808714 -0.1119229656761096 0 
0 0 0 0 
-0.1865197697949701 0.1093969144861568 0 0 
0 0 0 0 
0 0 0 0 
0 0 0 0 
0.1093587406663244 -0.07361991649422119 -0.02270314612496979 4.336808689942018e-19 
0.3162354976529063 -0.180912666246733 -0.05549020523215345 -0.1887904732704213 
-0.19144839142652 0.1966445895682533 0 0 
-0.4655765561038337 0.03679680823194272 0.1139355251416202 0.09685801766975849 
0 0 0 0 
0 0 0 0 
0 0 0 0 
-0.02191621352816945 -0.2973079233783778 -0.004927970201159924 0.3475044295197938 
0 0 0 0 
0.2388590454513963 -0.1539752820546353 -0.1835008904760406 -0.2903723825349555 
0.2047209137286763 -0.02193002435492828 -0.06817325826974299 -0.06689510997859408 
0 0 0 0 
0 0 0 0 
0 0 0 0 
0 0 0 0 
0 0 0 0 
0.108644283249768 -0.0825585505830726 0 0 
0.005299662078211389 0.07810444787880033 0 0 
-0.1625551488053325 0.1174449061558554 0 0 
0 0 0 0 
0.2059990086851276 -0.2528783547809244 0 -0.06402793811416281 
-0.06444744302196531 0.06217879148251466 -0.1002411118757095 -0.1866132528456474 
-0.5540789931048006 0.3854935901888879 -0.4891400976328301 -0.5645335275417882 
-0.8019313841918951 1.000956320347894 -0.5627039539821326 -0.4783639944661866 
-0.1523279397965455 0.08890908386969598 -0.177577225136722 -0.01308628459397216 
0.0303873181937986 -0.1940526936754534 0.04587383741400502 -0.08858023116551766 
0 0 0 0 
-0.02229973124823993 -0.3262601992843078 0.06170567730416753 -0.04523479622007516 
-0.03325695514130706 0.02170881474670901 -0.03271483183006144 0 
0 0 0 0 
0 0 0 0 
0 0 0 0 
0 0 0 0 
0 0 0 0 
0.1101969592738266 -0.1455137655684093 -0.1068510581702971 0.1018516920046567 
0 0 0 0 
0 0.02363593704733516 0 0 
0 0 0 0 
0 0 0 0 
0 0 0 0 
0 0 0 0 
0 0 0 0 
0 0 0 0 
0 0 0 0 
0 0 0 0 
0 0 0 0 
-0.5341623921243636 0.3448375744764409 -0.4431440231254454 -0.3952624759716217 
0.1767718970588101 0.1933028696066779 -0.4823410554138707 -0.1521886828705967 
0.3110991278687073 -0.2627857418392443 -0.05829611171321623 -0.01308628459397215 
0.07928595674400767 0.06853082660357354 -0.02846266297434382 0 
-0.326760068387887 0.2786178282426419 -0.1337353336042373 -0.1906365079324752 
0.2218722132372862 -0.1066968438983333 -0.03092963453246738 -0.1365840137240621 
0 0 0 0 
0.6394359073551288 -0.3198078015162357 -0.03092963453246738 -0.01437936662590662 
-0.2777413896253738 0.2909379277848184 -0.0693748851163033 -0.032560933172956 
-0.1347236768859557 -0.1795082189601609 0.289431708497777 -0.03205173990950624 
0.6551549077327992 -0.3391024397064472 -0.2492935401380518 0 
0 0 0 0 
0 0 0 0 
0 0 0 0 
0.2089457623655942 -0.009485464070691244 -0.2146723662555139 -0.1060031872635597 
0.2902298944675014 -0.3014372516234319 0.04282972831352447 -0.1172395994914716 
0 0 0 0 
0 0 0 0 
0 0 0 0 
0.1097058618942311 -0.1210113470757979 -0.186173999637564 -0.1023109408249655 
-4.946490800750234e-05 -0.1101708186210656 0.2635372898394131 0 
-0.02923815941705813 0.06186881255881239 0.066173422344764 -0.1164975170013555 
-0.2938964871273461 0.2568765862113205 -0.4606635461056723 -0.4584609040482453 
0.5623628888024147 -0.5649276158783831 0 0 
0 0 0 0 
0 0 0 0 
0 0 0 0 
0.1217203517022606 0.04646464354082619 -0.08605536424979092 -0.03876957574954333 
0.1031301750394274 -0.3788448753095774 0.2794786768052643 0 
-0.03196178815758293 0.03752918844485384 0 0 
0 0 0 0 
-0.02541918697787506 0.09599193537085335 -0.1489643862498022 -0.03972316846660665 
-0.2270039509273434 0.005651838694850198 0.2827219784510172 0 
-0.2996976597571779 0.5358573713766175 -0.2415012621998163 -0.06852212510862865 
0.1694174750368687 -0.07198189571480917 -0.4113424859901874 -0.09219686070296544 
-0.5483910357777515 0.6880694565063561 -0.09100268040483041 -0.3992538732237125 
-0.198537792627192 -0.05328470478216222 -0.6855027899052234 -0.243215048172231 
0 0 0 0 
-0.1637745593739335 0.2324128380394301 -0.01408517410143333 0 
0 0 0 0 
0 0 0 0 
0 0 0 0 
-0.03301257818069656 0.02040029821689224 0 0 
0 0 0 0 
0 0 0 0 
-0.1549155447602908 0.1346840129958424 -0.01023861569914775 0 
0 0 0 0 
0 0 0 0 
0 0 0 0 
0 0 0 0 
-0.2376806181721264 0.08345740587919188 0.02012668528127901 0 
0 0 0 0 
0 0 0 0 
0 0 0 0 
0 0 0 0 
0 0 0 0 
-0.02289573752885542 -0.01437428310783614 0 0 
-0.3924749962742244 0.4409038403757863 -0.06876207575376631 0 
0 0 0 0 
-0.1291223816918924 0.1661814856111812 -0.1337353336042373 -0.05405249420841304 
0.2164206288058294 -0.1701934026071542 -0.3666203985464552 -0.3808276398436624 
-0.4412385599496857 0.3219341417317805 -0.1187706693824884 -0.1941839412670889 
0.1042942565295473 -0.1367955202877778 0 -0.07849783294889695 
-0.2092297773514772 0.2767045215601789 -0.1153103720028117 -0.07787113227902498 
0.0977056101605711 -0.07483201552249427 -0.3230915525961348 -0.2485028282069938 
-0.3778770462988456 0.009150924273355234 0.2445980706058749 -0.08733995791762282 
-0.1511235670186682 0.2357160888373121 -0.1153103720028117 -0.07787113227902498 
0.2047209137286763 -0.02193002435492828 -0.06817325826974299 -0.06689510997859408 
0.001889496996887889 -0.2267635987083926 -0.09935393017816567 -0.2298814936385329 
-0.03838406859855311 -0.01098174592085215 -0.04471214309329424 0.05072533073218066 
0 0 0 0 
0 0 0 0 
0 0 0 0 
0 0 0 0 
0 0 0 0 
0 0 0 0 
0 0 -0.03874080777194103 0 
-0.2790344586112658 0.3433133493864034 -0.04448983454546123 -0.01962356519791479 
-0.3813589455971463 0.3573667124869625 -0.02968327282629646 -0.03972316846660665 
0 0 0 0 
0 0 0 0 
0.06138605207521017 -0.03506792855981872 -0.07919617566840585 -0.09022170207827404 
0 0 0 0 
0.06989494113922956 -0.01760896987289986 0 0 
0.1471305873093033 -0.1493604996885391 0 0 
0 0 0 0 
0 0 0 0 
0 0 0 0 
0 0 0 0 
0.02138572851937151 -0.06094712382438802 0.07884146880841104 -0.03956273915278354 
-0.01413249964730526 0 0 0 
0.2110445009279609 -0.2081528076966128 -0.1659161405183354 -0.07818670114777508 
-0.383997457125674 0.3885647792144927 -0.09356355260814483 -0.1862957394480614 
-0.0559683717272627 -0.005561312620753591 0 -0.03260662147930985 
-0.1348414329943877 0.09967562816994871 0 0 
0 0.0256978893795626 -0.08403283014865275 0 
-0.06742071649719387 0.04983781408497436 0 0 
-0.1913357384772125 0.258367576807677 -0.05154168017613339 -0.2517497948066758 
0 0 0 0 
0 0 0 0 
0 0 0 0 
0 0 0 0 
0 0 0 0 
-0.2928480296881628 0.4148406705524419 -0.1394680422414018 -0.1200900416136396 
0 0 0 0 
0 0 0 0 
-0.03396470762957471 0.06227904962308711 0 0 
0 0 0 0 
0 0 0 0 
0.02506093791232416 -0.07801658738907989 0.2494521157379798 -0.01270621136853434 
-4.946490800749801e-05 -0.3344988933643458 0.5240223012513956 0 
0 0 0 0 
-0.2422889960004452 0.1845550625770476 -3.469446951953614e-18 -0.05110845368661741 
-0.2141381147373136 0.2614068011056951 0 0 
-4.946490800749801e-05 -0.1673437840995456 0.2635372898394131 0 
0 0 0 0 
-0.2262014138385422 -0.2052076107044395 0.289431708497777 0 
0.03303334867092549 -0.0089185625991884 0 -0.03515545954675202 
0 0 0 0 
0 0 0 0 
-0.1777223267963851 0.2082036738641888 -0.186173999637564 -0.1023109408249655 
0 0 0 0 
0 0 0 0 
0 0.04075164417923852 0 0 
0.002907562001254424 0.08766919650225084 -0.01842250961483698 -1.734723475976807e-18 
0.06036427911163227 0.08150328835847703 0 0 
0.05488806914557604 -0.05271143713604841 -0.07292922717245104 -0.09402364258606494 
0 0 0 0 
0 0.1031184100478627 -0.2898466171180271 -0.0006323038652163849 
0 0 0 0 
-0.2078970653439072 -0.04721104602125831 0.2121957541046489 0 
0.1264825286982003 -0.1216643914350464 -0.1064604124492816 -0.01269637991784595 
0 0 0 0 
0 0 0 0 
0 0 0 0 
0.05815988477616543 -0.1083079111078642 0 0 
-0.1134037606593561 0.3315890586564184 -0.08448308665838927 -0.05973003207448941 
-0.02984788178091647 0.2662399707486492 -0.239469964347684 0 
0 0 0 0 
0.1271569024375309 -0.1509778190808617 0 0 
0 0 0 0 
0.07815831851572042 -0.1014438143372643 0 0 
-0.01683017282096043 -0.3654712504591333 0.2024311358360362 0 
0.002907562001254429 0 -0.01842250961483698 0 
0 0 0 0 
-0.02503149411911543 0.002908332224729935 0 -0.03911601087591945 
0 0 0 0 
-0.03675051215675587 0.01673394723194076 -0.1589903423176552 0 
0 0 0 0 
-0.1163843679593117 0.07954036661845482 0 0 
0 0 0 0 
0 0 0 0 
0.08205014917507554 0.05794520936712046 -0.06191642202374662 -0.1093221216633371 
0 0 0 0 
0 0 0 0 
0 0 0 0 
-0.1698684214743025 0.1996041120514763 0 -0.008417727990649094 
-0.4757762674326786 0.3839610236900602 -0.2250536846500069 0.04229849413959024 
-0.213007079652431 0.06202808847551555 1.734723475976807e-18 0.2191366364525099 
-0.5349951243003379 0.5082301548967064 -0.3789156503728638 -0.3611785000250506 
0 0 0 0 
0 0 0 0 
-0.03196178815758293 0.03752918844485384 0 0 
-0.004408512716971597 0.07869887405493019 -0.02667704575639143 -0.05630628613542729 
-0.05764766152477379 -0.1114968681774596 0.1595947275226808 0 
0 0.04853944488466869 0 0 
-0.007784957450987423 -0.01467648669269676 -0.01023861569914775 0 
0 0.1324227401837816 0 0 
-0.3076044261987055 0.3896753678245477 0 -0.2804792529556348 
0 0 0 0 
0 0 0 0 
0 0 0 0 
0 0 0 0 
-0.3770814783102436 -0.06456006287549421 0.09402069857982677 0.2235526804182198 
0.3856235635795228 -0.364500397101983 -0.1513383686476635 -0.2572362777720108 
0.1386995439217236 -0.1044459757366095 -0.3030237270778856 -0.06521324295861969 
0 0 0 0 
0 0 0 0 
-0.1769234896679803 0.2246212130405806 -0.2473871980855754 -0.1060031872635597 
0 0 0 0 
1.734723475976807e-18 0.0008530397746794345 -0.1036629922540679 0 
0.0856095806548164 -0.005767945245068622 0 0 
0 0 0 0 
-0.0576476615247738 -0.01133133388322245 0.1595947275226808 0 
0 0 0 0 
0.0564224209474457 -0.002753899156130622 0 -0.01270621136853434 
0 0 0 0 
-0.1039764661991843 -0.486089874220991 0.5728952159202473 0 
0 0.0151913717542612 0 0 
0.01105547156261668 0.003663139513202129 -0.007524190245920511 -0.01141152803337108 
0.5299090032547764 -0.5063714884039201 0 -0.04489475810205621 
0 0 0 0 
0 0 0 0 
0 0 0 0 
0.07815831851572042 -0.1014438143372643 0 0 
0.1756718903501342 -0.1839436246601037 -0.03296872895665435 -0.08239466797210611 
0 0 0 0 
0.3648813304185391 -0.2182239968420331 -0.08605536424979092 -0.03876957574954333 
-0.2447710734261529 0.3453981475217158 -0.1153103720028117 -0.101822325430076 
0.2543703889532231 -0.008918562599188396 -0.5936199715770487 -0.2169799460732388 
0 0 0 0 
0.1914961575830265 0.04053363344278422 -0.1153103720028117 -0.07787113227902498 
0 0 0 0 
0 0 0 0 
-0.2832434185341665 0.09881390722794844 0 0 
-0.2771116204032599 0.4235321535240846 -0.04471214309329424 0.05072533073218066 
0 0 0 0 
0 -0.1176631807767733 0 -0.06402793811416282 
0 0.0151687295849108 -0.004764364612778201 0 
0 -0.03177224705465552 0 0 
0 0 0 0 
0 0 0 0 
0.2645953599903032 -0.1825767101712917 0.04659714614172766 -0.1095666094840936 
0.09059337471436672 -0.1385772141058514 -0.1033993571112734 -0.09690373363346214 
0 0 0 0 
0.2355113820529332 -0.2149484985516499 -0.003285456130357921 0 
0 0 0 0 
0 0 0 0 
-0.144776861198393 0.2741890989539253 0 0 
0 0 0 0 
0 0 0 0 
0 0 0 0 
0 0 0 0 
0 0 0 0 
-0.01322152672493499 0.0008530397746794345 0 0 
0.08953956994070039 -0.06539149150782368 0 0 
0 0 0 0 
0 0 0 0 
0.2170980962483441 -0.1773494388388264 0 -0.02395119315105101 
0 0 0 0 
0 0 0 0 
0 0 0 0 
-0.2868172854860216 0.1558618523132184 0 0 
0 0 0 0 
0 0 0 0 
0 0 0 0 
0 0 0 0 
0 0 0 0 
0 0 0 0 
0 -0.06873463354439255 0 0 
0.3818519630530099 -0.2055450471899191 -0.09567030866377506 -0.06895666596760286 
0 0 0 0 
0 0 0 0 
0 0 0 0 
0 0 0 0 
-0.1629588389854987 -0.1944520899741607 0.211511057669685 0.1498344839803943 
-0.06836278545659712 0.06432044659454927 0 0 
0 0 0 0 
0 0 0 0 
-0.06568661817403373 0.1446813071028877 0 -0.01935535999166028 
0 0 0 0 
0 0 0 0 
0 0 0 0 
-0.1668983691439188 -0.05182820142870061 -0.001875115028479145 0.13569936409077 
0 0 0 0 
0 0 0 0 
0.1604162773596106 -0.08100639036163443 0 -0.02033586585800949 
0 0.005651838694850198 0 0 
-0.881096474581734 0.6554085291488145 0.3950976731558936 -0.05825422713598075 
0.04132270164250328 -0.1100073927351698 -0.06611594343229682 -0.02956273761257235 
0 0 0 0 
0 0 0 0 
0 0 0 0 
-0.1601237180504424 0.154035483025481 -0.0693748851163033 -0.032560933172956 
0 0 0 0 
0 0 0 0 
-0.166225645003601 0.2037792951427816 0 -0.0157940036013175 
-0.1557879357469077 0.2080141169951234 0 0 
0.04175825063276014 -0.2020375243910503 0.4575848439174356 -0.0922504989049316 
0 0 0 0 
-0.4170167054094784 0.3537751254231904 -0.01023861569914775 -0.05110845368661741 
-0.1549155447602908 0.1346840129958424 -0.01023861569914775 0 
0.1669138939067674 -0.3109193697282965 0 0.06749513078023886 
0 0 0 0 
0 0 0 0 
0 0 0 0 
0 0 0 0 
0 0 0 0 
0.03120589599748087 -0.0715327073785105 0 0 
0 0 0 0 
0 0 0 0 
0 0 0 0 
0 0 0 0 
0 0 0 0 
0 0 0 0 
0 0 0 0 
0.07815831851572042 -0.1014438143372643 0 0 
-0.05624996715737528 0.06250844701614713 0 0 
0 0 0 0 
0 0 0 0 
0 0 0 0 
0.768058392792732 -0.6024922510059711 -0.378263055568179 -0.3108403433811542 
0 0 0 0 
0 0 0 0 
0 0 0 0 
0.07401989212212329 -0.1023940214139669 0 0 
0 0 0 0 
0 0 0 0 
0 0 0 0 
0 0 0 0 
0 0 0 0 
0 0 0 0 
0 0 0 0 
0 0 0 0 
-0.09501207056936503 0.08505649817212388 0 -0.01592831033220976 
-0.09686853063129869 0.08628510459048515 0 0 
-0.03131201812711405 0.0893271967104657 -0.01408517410143333 0 
0.5108183767376666 -0.3827599615218717 -0.102878219384773 8.673617379884035e-18 
-0.2584583814186487 0.1762818963727543 0 0 
0 0 0 0 
0.2084246182012353 -0.01334790516660025 -0.08605536424979092 -0.03876957574954333 
0 0 0 0 
0.0009847782166595223 -0.3269148082649947 0.2391705763496252 -0.1144937112987866 
-0.006876575679632085 0 0 0 
0 0 0 0 
-0.1121257955636896 0.1003268502924704 0 0 
-0.1720839394576771 0.0001839969162278771 0.08180004046029662 -0.1133894669773261 
0 0 0 0 
0 0 0 0 
0 0 0 0 
0 0 0 0 
0 0 0 0 
0 0 0 0 
0 0 0 0 
0.2060811788356872 -0.2360992582048412 0 -0.196897749694139 
-0.2795088003668628 0.1750884285939225 -0.01004015335950681 0 
-0.227738318851737 0.1495327097648378 0 0 
0.08641177557745053 -0.06536973738082677 0 0 
0.09438529895384098 -0.08782211379323893 -0.01842250961483698 -0.01269637991784596 
0 0 0 0 
0 0 0 0 
0 0 0 0 
-0.08959707570629269 0.05884193982370614 0 0 
0 0 0 0 
0 0 0 0 
0 0 0 0 
0 0 0 0 
-0.1937736112221623 0.08725366014175057 0 0 
0 0 0 0 
0 0 0 0 
0 0 0 0 
0 0 0 0 
0.1603795306521191 -0.1040844880203344 0 0 
0.08637965771260087 0.07154803203539639 -0.2018493537341319 -0.1016314955297878 
-0.1668983691439188 -0.05182820142870061 -0.001875115028479145 0.13569936409077 
0 0 0 0 
0.2563343320110692 -0.1957145218996292 0 -0.01437936662590662 
0 0 0 0 
0 0 0 0 
0 0 0 0 
-0.4190688176837118 0.4268632278570441 0 -0.1365840137240621 
0.2333966427809798 0.05212501196883011 -0.7133034265420664 -0.2298814936385329 
0.01178669054318304 -0.09246160293351141 0 -0.02395119315105101 
-0.03131201812711405 0.0893271967104657 -0.01408517410143333 0 
0.06685837117345382 0.02475723126331125 -0.02817034820286665 -0.03260662147930985 
-0.03131201812711405 0.0893271967104657 -0.01408517410143333 0 
-0.03131201812711405 0.0893271967104657 -0.01408517410143333 0 
-0.03131201812711405 0.05495955504067161 -0.01408517410143333 0 
-0.03131201812711405 0.0893271967104657 -0.01408517410143333 0 
-0.03131201812711405 0.0893271967104657 -0.01408517410143333 0 
0.40429899835443 -0.393173603623535 -0.2196600424261195 -0.0433445986442538 
0.1101969592738266 -0.1455137655684093 -0.1068510581702971 0.1018516920046567 
0 0 0 0 
0 0 0 0 
-0.371151179959043 0.0895353345025551 0.3773350352701964 0 
0 0 0 0 
0 0 0 0 
0 0 0 0 
0.07925356412199173 -0.09782377346586288 0 0 
-0.01707292021186497 0.05938068313200391 0 0 
0 0 0 0 
-0.05893292698834032 0.03925178299536306 0 0 
0 0 0 0 
0 0 0 0 
0 0 0 0 
-0.0662314110148611 0.1374919739918703 0 0 
0 0 0 0 
0 0 0 0 
-0.03624872318260061 0.07558343978948896 -0.1822978736476506 0 
0 -0.007776606603964165 -0.1565568062786241 -0.09114387726873027 
0 0 0 0 
0 0 0 0 
0 0 0 0 
0.04392288609748721 -0.03003754348597419 0 0 
-0.08079206142316508 0.03642995211923903 0 0 
0 0 0 0 
0 0 0 0 
0 0 0 0 
0.00836192430778343 0.1504209901582319 0.1086245114059359 -0.03876957574954334 
0 0 0 0 
0.09272096628907799 -0.03946227606207334 0 0 
-0.195595821444283 0.2134439651392087 -0.04358358563807632 0 
0.252936416697117 -0.1585451845249035 -0.1150461417301455 -0.06236699494252584 
0.2327672362801261 -0.2961324932119471 0 0 
0 0 0 0 
0 0 0 0 
0 0 0 0 
0.2431609787162784 -0.2075156749043792 0 0 
0 0 0 0 
0 0 0 0 
0 0 0 0 
0.3486667278478726 -0.1779926366909612 -0.09567030866377506 -0.06895666596760286 
0 0 0 0 
0.05932998294870014 0 -0.01842250961483698 -0.01270621136853435 
0 0 0 0 
0 0 0 0 
0 -0.006597668826462806 0 0 
-0.2192531990408764 0.1883566052301887 -0.1394680422414018 0 
0 0 0 0 
-0.1549155447602908 0.1346840129958424 -0.01023861569914775 0 
0.03018213955581614 0 0 0 
0 0 0 0 
0 0 0 0 
0 0 0 0 
0 0 0 0 
0 0 0 0 
0 0 0 0 
0 0 0 0 
0.1120582964722624 -0.1298914117509407 0 -0.03260662147930985 
-0.8655723811816548 0.2241283242896731 0.0960978680719082 -0.5745179008750555 
0 0 0 0 
0 0 0 0 
0.22549999401486 -0.2055636291205877 -0.005930637511959579 0 
-0.1295642171509253 0.07938786547156876 0 0 
-0.1654876253422023 0.08927883356188258 -0.02241216155560507 0 
-0.09686853063129869 0.08628510459048515 0 0 
0 0 0 0 
-0.04980608084774807 -0.1274848495338159 0.2339415032656236 -0.1887904732704213 
0.127098484661422 -0.742998919464556 0.7247137714014767 -0.118489693324818 
-0.2078970653439072 -0.04721104602125831 0.2121957541046489 0 
0 0 0 0 
0 0 0 0 
-0.1622025013089785 0.1744618901862177 -0.0301166064117453 0 
0.09030329626963185 0.04621148969939835 0 0 
-0.1773877487507559 0.1199217254571082 0 0 
0.3794741112173159 -0.2119571002531911 -0.04924757224426589 -0.03911601087591945 
0 0 0 0 
0 0 0 0 
0 0 0 0 
0 0 0 0 
0.1982582982848928 -0.09351917483410908 0 -0.01437936662590662 
0 0 0 0 
0 0 0 0 
0 0 0 0 
0 0 0 0 
0.06323325954510313 -0.05361771432768302 -0.03271483183006144 0 
0 0 0 0 
0 0 0 0 
0 0 0 0 
0 0 0 0 
0.1032010697345266 -0.2463253069036111 0 0 
0 0 0 0 
-0.09018102397478274 0.1481515427161578 0 0 
0 0 0 0 
0 0 0 0 
-0.08161836329604227 0.1766925317568824 -0.05757621075494045 -0.04574901193516891 
0 0 0 0 
-0.5220772390069086 -0.573969411688919 0 0.7112482532997619 
0 0 0 0 
0 0 0 0 
0 0 0 0 
0 0 0 0 
0 0 0 0 
-0.0811014068728092 0.1125445339587092 -0.02241216155560507 0 
0 0 0 0 
0 0 0 0 
0 0 0 0 
0 0 0 0 
0 0 0 0 
0 0 0 0 
0 0 0 0 
0 0 0 0 
0.2361825029285181 -0.2650875756060889 0.03934308741739404 -0.1060031872635597 
0 0 0 0 
0 0 0 0 
0 0 0 0 
0 0 0 0 
0 0 0 0 
-0.2109764531369632 -0.06257797994950808 0.5721967035832455 0 
0 0 0 0 
0 0 0 0 
0 0 0 0 
0 0 0 0 
0 0 0 0 
0 0 0 0 
0 0 0 0 
0 0 0 0 
0 0 0 0 
0.06835904650345473 -0.1979658785914649 0.08502674949904128 -0.04334459864425381 
0 0 0 0 
-0.1313732363480675 0.06231960313074049 0 0 
-0.06568661817403373 0.03115980156537024 0 0 
0 0 0 0 
0 0 0 0 
-0.03396470762957471 0.06227904962308711 0 0 
0 0 0 0 
0 0 0 0 
0 0 0 0 
0 0 0 0 
0 0 0 0 
0 0 0 0 
-0.1391942592515576 0.08668166179384511 -0.02508349302243049 -0.1200900416136396 
-0.3032066224974918 0.3101202537194831 -0.006339571278911349 -0.07206875791721547 
0 0 0 0 
0.1923147588097228 -0.1780112186216297 -0.005930637511959579 0 
0.2223261068019863 -0.2406671091631029 0 0 
0 0 0 0 
0 0 0 0 
0 0 0 0 
0 0 0 0 
0 0 0 0 
0 0 0 0 
0 0 0 0 
-0.0008485584236780614 3.469446951953614e-18 0 0 
0 0 0 0 
0.05807603372617638 -0.1021953470655201 0 0 
0 0 0 0 
0 0 0 0 
0 0 0 0 
0 0 0 0 
0 0 0 0 
0 0 0 0 
0.03018213955581614 0 0 0 
0 0 0 0 
0.8524591601876486 -0.6374136834818289 -0.1273597233912236 -0.07429339174606427 
0 0 0 0 
0 0 0 0 
0 0 0 0 
0 0 0 0 
0 0 0 0 
0 0 0 0 
0.1713150922055419 -0.2542152196012218 0 0 
0 0 0 0 
-0.4048328211173883 -0.2006388080888849 0.6003595498969108 -0.1280069661165692 
0 0 0 0 
0 0 0 0 
0 0 0 0 
0 0 0 0 
0 0 0 0 
0 0 0 0 
0 0 0 0 
0 0 0 0 
0 0 0 0 
0 0 0 0 
0 0 0 0 
0 0 0 0 
0.1217203517022606 -0.01070832193765385 -0.08605536424979092 -0.03876957574954333 
-0.08589299460767814 0.1904051471222235 0 0 
0.07401989212212329 -0.1023940214139669 0 0 
0.04392288609748721 -0.03003754348597419 0 0 
0.3234453711520148 -0.2115995969969717 0 -0.0837188357328079 
0 0 0 0 
0.01964462880147084 -0.0241465845875887 0 0 
0 0 0 0 
-0.186675490632046 -0.1191902325792152 -0.1974814281019525 0.5310112882390068 
0 0 0 0 
0 0 0 0 
-0.2412592343775423 0.1598614445726591 0 0 
0 0 0 0 
-0.3330327302037545 0.2739244266335754 0 -0.0157940036013175 
0 0 0 0 
0 0 0 0 
0 0 0 0 
0.02489874303746795 0.02276317371971865 0 -0.002636962868036416 
0 0 0 0 
0 0 0 0 
0 0 0 0 
0 0 0 0 
0 0 0 0 
0 0 0 0 
0.1043176525591115 -0.1040213521654487 0 0 
0 0 0 0 
0 0 0 0 
-0.2356728069975053 0.1284250361967921 -0.03271483183006144 0 
-0.05624996715737528 0.06250844701614713 0 0 
0 0 0 0 
-0.1224940947015289 0.09159786315932059 0 0 
-0.1295642171509254 0.1211075242107216 -0.08879719476143094 0 
0.02669745415007399 0.09514500469286148 -0.009953031692512807 0 
-0.05069115588380025 -0.01068034573422274 -0.004764364612778201 -0.03260662147930985 
0 0 0 0 
0 0 0 0 
0 0 0 0 
0 0 0 0 
0 0 0 0 
0 0 0 0 
0 0 0 0 
0 0 0 0 
0 0 0 0 
-0.02036923441954913 0.1230285767491093 -0.05899843779371731 -0.07206875791721547 
0 0 0 0 
0 0 0 0 
0 0 0 0 
0.108644283249768 -0.0825585505830726 0 0 
0 0 0 0 
0 0 0 0 
0 0 0 0 
0 0 0 0 
0 0 0 0 
0 0 0 0 
0 0 0 0 
-0.2509451658858102 0.1812490119016437 -0.0204772313982955 -0.04267149950549953 
0 0 0 0 
0 0 0 0 
0 0 0 0 
0 0 0 0 
0 0 0 0 
0 0 0 0 
0 0 0 0 
-0.1128150730408101 0.2366599105090717 0 0 
0 0 0 0 
0 0 0 0 
0 0 0 0 
0 0.0151913717542612 0 0 
0 0 0 0 
0 0 0 0 
0.09147773695258654 -0.08782211379323894 0 -0.01269637991784596 
0 0 0 0 
0 0 0 0 
0 0 0 0 
-0.4207182619608625 0.2188936670014416 -0.03271483183006144 0 
0 0 0 0 
0 0 0 0 
0 0 0 0 
0 0 0 0 
0 0 0 0 
0 0 0 0 
0 0 0 0 
0 0 0 0 
0 0 0 0 
0 0 0 0 
0 0 0 0 
0 0 0 0 
0.6009486221233538 -0.3679000301097359 0 0 
0 0 0 0 
0.1604162773596106 -0.08100639036163443 0 -0.02033586585800949 
0 0 0 0 
0 0 0 0 
-0.1937736112221623 0.08725366014175057 0 0 
0 0 0 0 
0 0 0 0 
0 0 0 0 
0 0 0 0 
0 0 0 0 
0.0131980881051835 0.03330426138524346 0 -0.02395119315105101 
0 0 0 0 
-0.3010495312421051 0.1318151148739058 0 0 
-0.1546507165375981 0.2567316908317043 -0.06085490498255556 0 
0 0 0 0 
0 0 0 0 
0 0 0 0 
0 0 0 0 
0 0 0 0 
0 0 0 0 
0 0 0 0 
0 0 0 0 
0 0.1324227401837816 0 0 
0 0 0 0 
0.1991681634079074 -0.17470985560988 0 -0.02395119315105101 
0 0 0 0 
0 0 0 0 
0 0 0 0 
0.1063220305232387 -0.1993206250938466 0 0 
0 0 0 0 
-0.05881460953208036 0.02298927472334673 -0.03011660641174529 -0.002636962868036413 
0 0 0 0 
0 0 0 0 
0 0 0 0 
0 0 0 0 
0 0 0 0 
0 0 0 0 
0 0 0 0 
0 0 0 0 
0 0 0 0 
-0.013221526724935 0 0 0 
-0.013221526724935 0 0 0 
0 0 0 0 
0 0 0 0 
0 0 0 0 
0 0 0 0 
0 0 0 0 
0 0 0 0 
0 0 0 0 
0 0 0 0 
0 0 0 0 
0 0 0 0 
0 0 0 0 
0 0 0 0 
0 0 0 0 
0 0 0 0 
0 0 0 0 
0 0 0 0 
0 0 0 0 
0 0 0 0 
0.04392288609748721 -0.03003754348597419 0 0 
0 0 0 0 
-0.2777413896253738 0.2909379277848184 -0.0693748851163033 -0.032560933172956 
0.3047740061301381 -0.2031852497815663 -0.2352910256346387 -0.3015051508689215 
0 0 0 0 
0 0 0 0 
0.1604162773596106 -0.08100639036163443 0 -0.02033586585800949 
0.1604162773596106 -0.08100639036163443 0 -0.02033586585800949 
0.1604162773596106 -0.08100639036163443 0 -0.02033586585800949 
0 0 0 0 
0 0 0 0 
0 0 0 0 
-0.4969290909343318 -0.1450933423589454 0 0.515184939050732 
0 0 0 0 
0.1111916671866459 -0.1103623769364527 0 -0.03515545954675202 
0 0 0 0 
0 0 0 0 
0 0 0 0 
0 0 0 0 
0 0 0 0 
0 0 0 0 
0 0 0 0 
-0.1668983691439188 -0.05182820142870061 -0.001875115028479145 0.13569936409077 
0 0 0 0 
0 0 0 0 
0 0 0 0 
0 0 0 0 
0 0 0 0 
-0.3080588013464776 0.4185390697888255 -0.4561845005064404 -0.1551947673275297 
0 0 0 0 
0 0 0 0 
-0.2553917340248474 0.1598614445726591 0 0 
0 0 0 0 
0 0 0 0 
0 0 0 0 
0 0 0 0 
0 0 0 0 
0 0 0 0 
0 0 0 0 
0 0 0 0 
0 0 0 0 
0 0 -0.10599232816415 0 
0 0 0 0 
0 0 0 0 
0.03859219410272177 0 0 0 
0 0 0 0 
0.01582817630446548 -0.2019232508585855 -0.07013180697723728 0.3065010951440247 
0 0 0 0 
-0.1546507165375982 0.2719004204166153 -0.06561926959533372 0 
0.3279471494846827 -0.3057300859681819 0 -0.03515545954675202 
0 0 0 0 
0 0 0 0 
0 0 0 0 
0 0 0 0 
0 0 0 0 
0 0 0 0 
0 0 0 0 
0 0 0 0 
0 0 0 0 
0.1210575539039725 -0.02667884764855162 -0.1082224149404525 0 
0 0 0 0 
0 0 0 0 
0 0 0 0 
0.1982582982848928 -0.09351917483410908 0 -0.01437936662590662 
-0.1256141832737493 -0.007234070243623936 0.2827219784510172 -0.01437936662590662 
0 0 0 0 
0.3124375850458784 -0.1885847865680651 0 0 
0 0 0 0 
0 0 0 0 
0 0 0 0 
0 0 0 0 
0 0 0 0 
0.2325147901639582 -0.192159834711086 -0.05829611171321623 -0.01308628459397215 
0 0 0 0 
0.08886180019076378 0 -0.115953031783558 0 
0 0 0 0 
0 0 0 0 
0 0 0 0 
0 0 0 0 
-0.03922024239352368 -0.006597668826462806 0 0 
0 0 0 0 
0 0 0 0 
0 0 0 0 
-0.08959707570629269 0.05884193982370614 0 0 
0 0 0 0 
0 0 0 0 
0 0 0 0 
0 0 0 0 
0 0 0 0 
0 0 0 0 
0 0 0 0 
-1.015855146395086 -0.001435843477106696 0.6875334776234909 0 
0 0 0 0 
0 0.0151913717542612 0 0 
0 0 0 0 
-0.07523936113622921 0.06432044659454927 -0.01416589985896127 0 
0 0 0 0 
0 0 0 0 
0 0 0 0 
0 0 0 0 
0 0 0 0 
0 0 0 0 
0.04200055426519345 0.08224825267636854 -0.297879140568494 -0.06326353882470773 
0 0 0 0 
0 0 0 0 
0.08641177557745053 -0.06536973738082677 0 0 
0.08641177557745053 -0.06536973738082677 0 0 
0 0 0 0 
0.1235987086082151 -0.04259630376777177 0 0 
0 0 0 0 
0 0 0 0 
0 0.05717296547848003 0 0 
-0.1538580846340692 0.2070028552319987 -0.07779468706238413 -0.0894382738262751 
-0.1538580846340692 0.2070028552319987 -0.07779468706238413 -0.0894382738262751 
0 0 0 0 
0 0 0 0 
0 0 0 0 
0 0 0 0 
0 0 0 0 
0 0 0 0 
0 0 -0.01576886554576068 -0.04574901193516891 
0 0 0 0 
0 0 0 0 
0 0 0 0 
0.09326152849406508 0.01561569260364941 0 -0.002636962868036416 
-0.3774139887095629 -0.03897544616030943 0.2839020950393732 -0.01269637991784596 
0 0 0 0 
0 0 0 0 
0 0 0 0 
0 0 0 0 
0.003074374562146067 0.1432662845929435 5.204170427930421e-18 -0.1520256703987332 
-0.03838406859855312 -0.01098174592085215 -0.04471214309329424 0.05072533073218066 
0 0 0 0 
0.108644283249768 -0.0825585505830726 0 0 
0 0 0 0 
0 0 0 0 
0 0 0 0 
0 0 0 0 
0 0 0 0 
0 0 0 0 
0 0 0 0 
0 0 0 0 
0 0 0 0 
-0.1511235670186682 0.2413679275321623 -0.1153103720028117 -0.07787113227902498 
0 0 0 0 
0 0 0 0 
-0.05085776469185218 -0.05778735542178724 -0.06528028326937262 0.1498344839803943 
-0.05085776469185218 -0.05778735542178724 -0.06528028326937262 0.1498344839803943 
0 0 0 0 
0 0 0 0 
-0.006876575679632085 1.734723475976807e-18 0 0 
0 0 0 0 
0 0 0 0 
0 0 0 0 
0 0 0 0 
-0.1937736112221623 0.08725366014175057 0 0 
0 0 0 0 
0 0 0 0 
0 0 0 0 
0 0 0 0 
0 0 0 0 
-0.06836278545659712 0.06432044659454927 0 0 
0 0 0 0 
0 0 0 0 
0 0 0 0 
0 0 0 0 
0 0 0 0 
0 0 0 0 
0.0801671084890682 -0.01550669114177788 -0.1227906734920432 -0.09402364258606494 
0.09028772682047026 -0.1537700886780705 0.2264676035407444 -0.09402364258606494 
-0.4494030258930489 0.298761628667603 0 -0.1551947673275297 
0.1532930666761037 0.137071804314787 -0.2356841318310162 -0.07849783294889696 
-0.02984788178091647 0.03780046677387113 0 0 
0 0 0 0 
0 0 0 0 
0 0 0 0 
0 0 0 0 
0 0 0 0 
0 0 0 0 
0 0 0 0 
0.0331852352051373 -0.03030630965508853 0 0 
0 0 0 0 
0 0 0 0 
0 0 0 0 
-0.08151330506456078 0.01643051962148424 0 0 
0 0 0 0 
0 0 0 0 
0 0 0 0 
0 0 0 0 
0 0 0 0 
0 0 0 0 
0 0 0 0 
0 0 0 0 
0 -6.938893903907228e-18 0 0 
0 0 0 0 
0 0 0 0 
0 0 0 0 
0 0 0 0 
0 0 0 0 
0 0 0 0 
0 0 0 0 
0 0 0 0 
0 0 0 0 
-0.1367183542032046 0.152030018346348 -0.1822978736476505 -0.02214746476842527 
-0.04838032718355773 0.06854376780156676 -0.1200556742538605 -0.1117919263838221 
0.08560958065481643 -0.005767945245068622 0 0 
0 0 0 0 
0 0 0 0 
0 0 0 0 
0 0 0 0 
0 0 0 0 
0 0 0 0 
0 0 0 0 
0 0 0 0 
0 0 0 0 
0 0 0 0 
0 0 0 0 
0 0 0 0 
0 0 0 0 
0 0 0 0 
0 0 0 0 
0 0 0 0 
0 0 0 0 
0 0 0 0 
0 0 0 0 
0 0 0 0 
0 0 0 0 
0 0 0 0 
0 0 0 0 
0 0 0 0 
0 0 0 0 
0 0 0 0 
0 0 0 0 
0 0 0 0 
0.4754085144511582 -0.5050708010119802 -0.2997542555969732 -0.1671334239335762 
0 0 0 0 
-0.0006224496603253395 0.1171757788562218 0 0 
0 0 0 0 
0 0 0 0 
0 0 0 0 
-0.09018102397478274 0.1481515427161578 0 0 
0 0 0 0 
0 0 0 0 
-0.02255255974839155 0.07986566742383754 0 0 
0.1245390652210826 -0.4731353562716262 0.2073566180906798 1.734723475976807e-18 
0 0 0 0 
0 0 0 0 
0 0 0 0 
-0.214638628621202 0.1726128148383698 -0.02968327282629646 -0.03972316846660665 
0 0 0 0 
0 0 0 0 
0 0 0 0 
0 0 0 0 
-0.1549155447602908 0.1346840129958424 -0.01023861569914775 0 
0 0 0 0 
0 0.05313040369938326 0 0 
0 0.05313040369938326 0 0 
0 0 0 0 
0 0 0 0 
0 0 0 0 
0 0 0 0 
0 0 0 0 
0 0 0 0 
0 0 0 0 
0 0 0 0 
-0.6799149892878897 0.6587540736019235 -0.2158448440568057 -0.1257535915975902 
-0.6799149892878897 0.6587540736019235 -0.2158448440568057 -0.1257535915975902 
0 0 0 0 
0 0 0 0 
0 0 0 0 
-0.2217930253556036 0.005889166631852621 0.3783064127822755 0 
-0.235375128153291 0.05247231065036956 -0.04471214309329425 -0.1098098761429325 
0 0 0 0 
0 0 0 0 
0 0 0 0 
0.1043176525591115 -0.116987911650073 0 0 
0 -0.007776606603964165 -0.1565568062786241 -0.09114387726873027 
0 0 0 0 
0 0 0 0 
0 0 0 0 
-0.1979128372863904 0.2914102686739191 0 0 
0 0 0 0 
0 0 0 0 
0 0 0 0 
0 0 0 0 
0 0 0 0 
0 0 0 0 
0 0 0 0 
0 0 0 0 
0 0 0 0 
0 0 0 0 
-0.01971268459481666 -0.1279033262694372 0.2604850114119822 0 
0 0 0 0 
0 0 0 0 
0 0 0 0 
0 0 0 0 
0.3946702346093465 -0.2581823138401089 -0.2777758832543268 -0.3072568399377946 
0 0 0 0 
0 0 0 0 
0 0 0 0 
-0.1557879357469077 0.2080141169951234 0 0 
-0.05624996715737528 0.06250844701614713 0 0 
-0.05624996715737528 0.06250844701614713 0 0 
0.3369713232913187 -0.2357619540262276 -0.1030793385722267 -0.08365150331207764 
-0.01971268459481665 0.03925178299536306 0 0 
0 0 0 0 
0 0 0 0 
0 0 0 0 
0 0 0 0 
0 0 0 0 
0 0 0 0 
0 0 0 0 
0 0 0 0 
0 -0.002753899156130622 0 0 
0 0 0 0 
0 0 0 0 
0 0 0 0 
0 0 0 0 
0 0 0 0 
0 0.07321123662854732 -0.1589903423176552 0 
0 0.07321123662854732 -0.1589903423176552 0 
0 0 0 0 
0 0 0 0 
0 0 0 0 
0 0 0 0 
0 0 0 0 
0 0 0 0 
-0.1882074884663525 0.2487546910045337 -0.1187590595824806 -0.06896369627324996 
-0.09174380197806449 0.3157819146564379 0 0 
0 0 0 0 
0 0 0 0 
0 0 0 0 
0 0 0 0 
0 0 0 0 
0 0 0 0 
-0.1197181956267651 -0.08026523197200981 0.2308224580093516 0 
0 0 0 0 
0 0 0 0 
0 0.02363593704733516 0 0 
0.3442651245531678 -0.8690513991892375 -0.002326339586380108 -0.5015534186228947 
0 0 0 0 
0 0 0 0 
0 0 0 0 
0 0 0 0 
0 0 0 0 
0 0 0 0 
0 0 0 0 
0 0 0 0 
0 0 0 0 
0 0 0 0 
0 0 0 0 
0 0 0 0 
0 0 0 0 
0 0 0 0 
0.2278778909882468 -0.1034725428115789 0 -0.008417727990649094 
0 0 0 0 
0 0 0 0 
-0.05301383125633466 -0.537421010389838 -0.09846288800485299 -0.06388560742323354 
0.07815831851572042 -0.001278280043027168 0 0 
0 0 0 0 
0 0 0 0 
0 0 0 0 
0 0 0 0 
0 0 0 0 
-0.2270039509273434 0 0.2827219784510172 0 
0 0 0 0 
0 0 0 0 
0 0 0 0 
0 0 0 0 
0 0 0 0 
0 0 0 0 
0 0 0 0 
0 0 0 0 
-0.2270039509273434 0 0.2827219784510172 0 
-0.03922024239352368 0 0 0 
0 0 0 0 
0 0 0 0 
0 0 0 0 
0 0 0 0 
-0.1436147319325141 -0.1220937605200729 0 0.4005247377300897 
-0.5095918153393432 0.1160701516610288 0 0.2639407240060276 
0.1235987086082151 -0.04259630376777177 0 0 
0 0 0 0 
-0.1331663434822818 0.2737512714422484 -0.08448308665838927 -0.05973003207448941 
0 0 0 0 
0 0 0 0 
0.03303334867092549 -0.0089185625991884 0 -0.03515545954675202 
0 0 0 0 
0 0 0 0 
0 0 0 0 
0 0 0 0 
0 0 0 0 
0 0 0 0 
0 0 0 0 
0.3858178937109081 -0.3870606179025336 -0.1159530317835579 -0.009549964454202753 
0.04392288609748721 -0.03003754348597419 0 0 
0 0 0 0 
0 0 0 0 
0 0 0 0 
-0.0314021578866332 -0.2092189286087257 0.2255132616001147 0 
0 0 0 0 
0.01964462880147084 -0.04778252163492386 0 0 
-0.3550330642300704 0.3308182401389386 -0.06085490498255556 0 
0 0 0 0 
-0.0809717712550318 0.08782106395768394 0 0 
0.1526645727943775 -0.03261376799071043 -0.1822978736476506 0 
0.1526645727943775 -0.03261376799071043 -0.1822978736476506 0 
-0.1557879357469077 0.2080141169951234 0 0 
0 0 0 0 
0 0 0 0 
0 0 0 0 
0.2327672362801261 -0.2961324932119471 0 0 
0 0 0 0 
0 0 0 0 
0 0 0 0 
0 0 0 0 
0 0 0 0 
0 0 0 0 
0 0 0 0 
0 0 0 0 
0 0 0 0 
0.08257038278504988 -0.000519375869917349 -0.009953031692512803 0 
0 0 0 0 
0.04392288609748721 -0.03003754348597419 0 0 
0 0 0 0 
0 0 0 0 
0 0 0 0 
0 0 0 0 
0 0 0 0 
0 0 0 0 
0 0 0 0 
0 0 0 0 
0.1859688574466438 -0.1008065723798886 -0.05265886651480596 0 
0 0 0 0 
0 0 0 0 
0 0 0 0 
0 0 0 0 
0 0 0 0 
0 0 0 0 
-0.0008021949226340895 0.05960179213575815 0 0 
0.4356701422993886 -0.3948537353630028 -0.2714796836346763 -0.1819434326487919 
0 0 0 0 
0 0 0 0 
0 0 0 0 
0 0.01296655948462429 0 0 
0.1603795306521191 -0.1097363267151845 0 0 
0.242949913437169 -0.1102557025851019 -0.0099530316925128 0 
0.1603795306521191 -0.1097363267151845 0 0 
0 0 0 0 
0 0 0 0 
0 0 0 0 
0 0 0 0 
0 0 0 0 
0.1042942565295473 -0.1367955202877778 0 -0.07849783294889696 
0 0 0 0 
0.3877233862519405 -0.2135882669277551 -0.1192811134235057 0 
0 0 0 0 
0 0 0 0 
0 0 0 0 
0.05807603372617638 -0.1021953470655201 0 0 
0 0 0 0 
0.08886180019076378 0 -0.115953031783558 0 
0 0 0 0 
0 0 0 0 
0 0 0 0 
0 0 0 0 
0 0 0 0 
0 0 0 0 
0 0 -0.002797420195213733 0 
0 0 0 0 
0 0 0 0 
0 0 0 0 
0 0 0 0 
0 0 0 0 
0 0 0 0 
0 0 0 0 
0 0 0 0 
0 0 0 0 
0 0 0 0 
0.1667752161107742 -0.197143021323463 -4.336808689942018e-19 0 
0 0 0 0 
0 0 0 0 
0 0 0 0 
0 0 0 0 
0 0 0 0 
-0.08144197250177311 0.1616371300277834 0 0 
0 0 0 0 
0 0.0008530397746794345 0 0 
0 0 0 0 
-0.09760262715376394 0.09885410446409559 -0.02117142408247126 0 
0 0 0 0 
0 0 0 0 
0 0 0 0 
0 0 0 0 
0 0 0 0 
0 0 0 0 
0 0 0 0 
0 0 0 0 
0 0 0 0 
0 0 0 0 
0 0 0 0 
0 0 0 0 
0 0 0 0 
0 -0.01588612352732776 0 0 
0 -0.01588612352732776 0 0 
0 -0.01588612352732776 0 0 
0 -0.01588612352732776 0 0 
0 -0.01588612352732776 0 0 
0 -0.01588612352732776 0 0 
-0.0809717712550318 0.08782106395768394 0 0 
-0.0809717712550318 0.08782106395768394 0 0 
-0.2323129108745705 0.2884823334250746 4.336808689942018e-19 -0.1648150738886557 
0 0 0 0 
0 0 0 0 
0 0 0 0 
0 -0.002753899156130622 0 0 
0 0 0 0 
0 0 0 0 
0 0 0 0 
0.1097058618942311 -0.1237652462319285 -0.186173999637564 -0.1023109408249655 
0 0 0 0 
0 0 0 0 
0 0 0 0 
0 0 0 0 
0 0 0 0 
0 0 0 0 
0 0 0 0 
0 0 0 0 
0 0 0 0 
0 0 0 0 
0.07925356412199173 -0.09782377346586288 0 0 
-0.1885634402794191 0.1586729264998544 0 0 
0 0 -0.03874080777194103 0 
0 0 0 0 
0 0 0 0 
0 0 0 0 
-0.09686853063129869 0.08628510459048515 0 0 
-0.1128150730408101 0.2366599105090717 0 0 
0 0 0 0 
0 0 0 0 
0 0 0 0 
0 0 0 0 
0 0 0 0 
0 0 0 0 
0.02274459357660762 -0.1176631807767733 0 -0.1031439489900822 
0.0227445935766076 0 0 -0.03911601087591945 
0 0 0 0 
0 0 0 0 
0 0 0 0 
0 0 0 0 
0 0 0 0 
0 0 0 0 
0 0 0 0 
0 0 0 0 
0 0 0 0 
-0.206338091866193 0.2238351491289979 -0.006339571278911349 -0.07206875791721547 
0 0 0 0 
-0.7270193350113999 0.69864771098023 -0.2341894891458252 -0.19392968685109 
0 0 0 0 
0 0 0 0 
0 0 0 0 
0 0 0 0 
0 0 0 0 
0 0 0 0 
0 0 0 0 
0 0 0 0 
0 0 0 0 
0 0 0 0 
0 0 0 0 
0 0 0 0 
0 0 0 0 
0 0 0 0 
0 0 0 0 
0 0 0 0 
0 0 0 0 
0 0 0 0 
0 0 0 0 
0 0 0 0 
0 0 0 0 
0.3234453711520149 -0.2143534961531023 0 -0.0837188357328079 
0.3234453711520148 -0.2115995969969717 0 -0.0837188357328079 
0 0 0 0 
0 0 0 0 
0 0 0 0 
0 0 0 0 
0.07086870708403656 -0.1205300433016189 -0.07445327748772548 -0.1113451377590307 
0 0 0 0 
0 0 0 0 
0 0 0 0 
-0.1549155447602908 0.1346840129958424 -0.01023861569914775 0 
0 0 0 0 
-0.3010495312421051 0.1318151148739058 0 0 
0.3495738328589233 -0.1826262499662131 0 -0.1907575165481904 
0 0 0 0 
-0.1348414329943877 0.09967562816994871 0 0 
0 0 0 0 
0 0 0 0 
0 0 0 0 
0.2327672362801261 -0.2961324932119471 0 0 
0 0 0 0 
0 0 0 0 
0 0 0 0 
0.01964462880147084 -0.04778252163492386 0 0 
0 0 0 0 
0.3311517537393973 -0.1432494212861982 -0.03092963453246738 0 
-0.6421642245552663 0.6966438465754687 -0.002797420195213755 -0.18968899481037 
0 0 0 0 
0 0 0 0 
0 0 0 0 
-0.02255255974839155 0.07986566742383754 0 0 
0 0 0 0 
0 0 0 0 
0 0 0 0 
0 0 0 0 
-0.1128150730408101 0.2366599105090717 0 0 
0 0 0 0 
0 0 0 0 
0 0 0 0 
0 0 0 0 
0.3311517537393973 -0.1432494212861982 -0.03092963453246738 0 
0 0 0 0 
0 0 0 0 
0 0 0 0 
0.143178958399048 -0.03848205417645541 -0.01315813413894402 -0.04267149950549953 
-0.1557879357469077 0.2080141169951234 0 0 
0 0 0 0 
0 -0.04712127807492707 0 0 
0 0 0 0 
0 0 0 0 
0 0 0 0 
0 0 0 0 
0 0 0 0 
0 0 0 0 
0 0 0 0 
0 0 0 0 
0 0 0 0 
-0.0895970757062927 0.1721782859776326 -0.03176719184967294 0 
-0.0814419725017731 -0.005517979237016912 0.2604850114119822 0 
0 0 0 0 
0 0 0 0 
-0.09018102397478277 -0.01900356654864246 0.2604850114119822 0 
0 0 0 0 
0 0 0 0 
0 0 0 0 
0 0 0 0 
0 0 0 0 
0 0 0 0 
0 0 0 0 
0 0 0 0 
0 0 0 0 
0 0 0 0 
0 0 0 0 
0 0 0 0 
0 0 0 0 
0 0 0 0 
0 0 0 0 
-0.1121257955636896 0.1003268502924704 0 0 
0.2278778909882468 -0.1034725428115789 0 -0.008417727990649094 
0 0 0 0 
0 0 0 0 
0 0 0 0 
0 0 0 0 
0 0 0 0 
-0.2626335302595759 0.2382428245053753 0 0 
0 0 0 0 
0 0 0 0 
0 0 0 0 
0 0.01061627999844066 0 0 
-0.06742071649719387 0.04983781408497434 -0.1036629922540679 0 
0 0 -0.1036629922540679 0 
-0.0006224496603253464 0.1171757788562218 -0.1064604124492816 0 
0.1043176525591115 -0.116987911650073 0 0 
0.1043176525591115 -0.116987911650073 0 0 
-0.01535107815964606 -0.02990935952253726 -0.03271483183006144 0 
0 0 0 0 
0 0 0 0 
0 0 0 0 
0 0 0 0 
0 0 0 0 
0 0 0 0 
0 0 0 0 
0 0 0 0 
0 0 0 0 
0 0 0 0 
0 0 0 0 
0 0 0 0 
0 0 0 0 
0.01952483791944832 0.02714019564035994 -0.186173999637564 -0.1023109408249655 
0 0 0 0 
0 0 0 0 
0 0 0 0 
0 0 0 0 
0 0 0 0 
0 0 0 0 
0 0 0 0 
0 0 0 0 
0 0 0 0 
0 0 0 0 
0.05807603372617638 -0.1021953470655201 0 0 
0 0 0 0 
0 0 0 0 
0 0 0 0 
0 0 0 0 
0.1471305873093033 -0.1477386071268828 0 0 
0 0 0 0 
-0.08959707570629269 0.05884193982370614 0 0 
0 0 0 0 
0 0 0 0 
0 0 0 0 
0.04132270164250328 -0.1100073927351698 -0.06611594343229682 -0.02956273761257235 
0 0 0 0 
0 0 0 0 
0 0 0 0 
-0.05177048151512585 0.02555571882908481 -0.01004015335950681 0 
0 0 0 0 
0 0 0 0 
0 0 0 0 
0 0 0 0 
0 0 0 0 
0 0 0 0 
0 0 0 0 
0 0 0 0 
0 0 0 0 
0 0 0 0 
-0.1549155447602908 0.1346840129958424 -0.01023861569914775 0 
0 0 0 0 
0 0 0 0 
-0.2021841523318641 0.2930313122747557 0 0 
0 0 0 0 
0 0 0 0 
0 0 0 0 
0 0 0 0 
0 0 0 0 
0 0 0 0 
0 0 0 0 
0 0 0 0 
0 0 0 0 
0 0 0 0 
0 0 0 0 
0 0 0 0 
0 0 0 0 
0 0 0 0 
0 0 0 0 
0.03120589599748087 -0.0715327073785105 0 0 
0.3486667278478726 -0.1779926366909612 -0.09567030866377506 -0.06895666596760286 
0 0 0 0 
0 0 0 0 
0 0 0 0 
0 0 0 0 
0 0 0 0 
0 0 0 0 
0 0 0 0 
0.1572569505921364 -0.2592758422765795 0 0 
0 0 0 0 
0 0 0 0 
-0.1549155447602908 0.1346840129958424 -0.01023861569914775 0 
0.2453736060257229 0.1524067267490423 -0.4830766311834108 -0.1496702983180343 
0 0 0 0 
0 0 0 0 
0 0 0 0 
0 0 0 0 
-0.03396470762957471 0.06227904962308711 0 0 
0 0 0 0 
0 0 0 0 
0 0 0 0 
0 0 0 0 
0 0 0 0 
0.1859688574466438 -0.1008065723798886 -0.05265886651480596 0 
0 0 0 0 
0 -0.03436764166979409 0 0 
0 0 0 0 
0 0 0 0 
0 0 0 0 
0 0 0 0 
0 0 0 0 
0 0 0 0 
0 0 0 0 
-0.05730009816579186 -0.08842558345131826 0.3492582770327876 0 
0 0 0 0 
0 0 0 0 
0 0 0 0 
0 0 0 0 
0 0 0 0 
0 0 0 0 
-0.03396470762957471 0.06227904962308711 0 0 
-0.03396470762957471 0.06227904962308711 0 0 
-0.03396470762957471 0.06227904962308711 0 0 
-0.1289767781989398 0.147335547795211 -0.01513354122901783 -0.01592831033220976 
-0.03396470762957471 0.06227904962308711 0 0 
-0.03396470762957471 0.06227904962308711 0 0 
-0.03396470762957471 0.06227904962308711 0 0 
-0.03396470762957471 0.06227904962308711 0 0 
0 0 0 0 
0 0 0 0 
0 0 0 0 
0 0 0 0 
-0.1826599389521559 -0.1282931197620834 0 0.2582526473284293 
0 0 0 0 
0 0 0 0 
0 0 0 0 
0 0 0 0 
0 0 0 0 
0 0 0 0 
0 0 0 0 
0 0 0 0 
0 0 0 0 
0 0 0 0 
0 0 0 0 
0 0 0 0 
0 0 0 0 
0 0 0 0 
0 0 0 0 
0 0 0 0 
-0.1800329566473527 0.1949542740566515 -0.1394680422414018 0 
0 0 0 0 
-0.206338091866193 0.2238351491289979 -0.006339571278911349 -0.07206875791721547 
0 0 0 0 
0 0 0 0 
0 0 0 0 
0 0 0 0 
0 0 0 0 
0 0 0 0 
0 0 0 0 
0 0.1001655342942371 0 0 
0 0 0 0 
-0.08959707570629269 0.05884193982370614 0 0 
-0.08959707570629269 0.05884193982370614 0 0 
-0.08959707570629269 0.05884193982370614 0 0 
-0.08959707570629269 0.05884193982370614 0 0 
0 0 0 0 
0 0 0 0 
0 0 0 0 
-0.013221526724935 0 0 0 
0 0 0 0 
-0.06402848666094427 0.05231081105202592 -0.02241216155560507 0 
-0.06402848666094427 0.05231081105202592 -0.02241216155560507 0 
-0.1280569733218885 0.1046216221040518 -0.04482432311121014 0 
-0.3054328813863321 0.3453421233267817 -0.02241216155560507 0 
-0.06402848666094427 0.05231081105202592 -0.02241216155560507 0 
0 0 0 0 
0 0 0 0 
0 0 0 0 
0 0 0 0 
0 0 0 0 
0 0 0 0 
0 0 0 0 
0 0 0 0 
0 0 0 0 
0 0 0 0 
0 0 0 0 
0 0 0 0 
0 0 0 0 
0 0 0 0 
0 0 0 0 
0 0 0 0 
0 0 0 0 
0 0 0 0 
0 0 0 0 
0 0 0 0 
0 -0.3824292107444308 0 0.4476242718133005 
-0.5374487750602635 -0.7589717801226927 -0.2111228755679905 0.9844596376714461 
0 0 0 0 
0 0 0 0 
0 0 0 0 
0 0 0 0 
0 0 0 0 
0 0 0 0 
0 0 0 0 
0 0 0 0 
0 0 0 0 
0 0 0 0 
0 0 0 0 
0 0 0 0 
0 0 0 0 
0 0 0 0 
0 0 0 0 
0.1683393967108345 0.08248134520080821 -0.058734114342339 -0.03889886714432046 
0 0 0 0 
0 0 0 0 
0 0 0 0 
0 0 0 0 
0 0 0 0 
0 0 0 0 
0 0 0 0 
0 0 0 0 
0 0 0 0 
0 0 0 0 
0 0 0 0 
0 0 0 0 
0 0 0 0 
0 0 0 0 
0 0 0 0 
0 0 0 0 
0 0 0 0 
0.2029193544992098 -0.258332026438076 0 0 
0 0 0 0 
0 0 0 0 
-0.05764766152477379 -0.1114968681774596 0.1595947275226808 0 
-0.05764766152477379 -0.1114968681774596 0.1595947275226808 0 
-0.05764766152477379 -0.1114968681774596 0.1595947275226808 0 
-0.05764766152477379 -0.1114968681774596 0.1595947275226808 0 
-0.05764766152477379 -0.1114968681774596 0.1595947275226808 0 
0 0 0 0 
0 0 0 0 
0 0 0 0 
0 0 0 0 
0 0 0 0 
0 0 0 0 
0 0 0 0 
0 0 0 0 
0 0 0 0 
0 0 0 0 
0 0 0 0 
0.1713150922055419 -0.2070939415262947 0 0 
0 0 0 0 
0 0 0 0 
0 0 0 0 
0 0 0 0 
0.2223261068019863 -0.2406671091631029 0 0 
0.2223261068019863 -0.2406671091631029 0 0 
0 0 0 0 
0 0 0 0 
0 0 0 0 
0 0 0 0 
0 0 0 0 
0 0 0 0 
0 0 0 0 
0 0 0 0 
0 0 0 0 
0 0 0 0 
-0.06742071649719387 0.04983781408497436 0 0 
0 0 0 0 
0 0 0 0 
0 0 0 0 
0 0 0 0 
0 0 0 0 
0 0 0 0 
0 0 0 0 
0 0 0 0 
-0.2564818988628741 0.2634476819625657 -0.04448983454546123 -0.01962356519791479 
0.3044465336824822 -0.2669811554634124 0 -0.04267149950549953 
0.0553572356439406 0 -0.01639715521279494 0 
0 0 0 0 
0 0 0 0 
0 0 0 0 
0 0 0 0 
0 0 0 0 
0 0 0 0 
0 0 0 0 
0 0 0 0 
0 0 0 0 
0.07401989212212329 -0.1023940214139669 0 0 
0 0 0 0 
0 0 0 0 
0 0 0 0 
0 0 0 0 
0 0 0 0 
0 0 0 0 
0 0 0 0 
0 0 0 0 
0 0 0 0 
0 0 0 0 
0 0 0 0 
0 0 0 0 
0 0 0 0 
0 0 0 0 
0 0 0 0 
0 0 0 0 
0 0 0 0 
0 0 0 0 
0 0 0 0 
0 0 0 0 
0 0 0 0 
0 0 0 0 
0.108644283249768 -0.0825585505830726 0 0 
0 0 0 0 
0 0 0 0 
0 0 0 0 
0 0 0 0 
-0.1812592872471061 0.1816743581348319 -0.001593552733960938 -0.01141152803337108 
0 0 0 0 
0 0 0 0 
0 0 0 0 
0 0 0 0 
0 0 0 0 
0 0 0 0 
0 0 0 0 
0 0 0 0 
0 0 0 0 
0 0 0 0 
0 0 0 0 
0 0 0 0 
0 0 0 0 
0 0 0 0 
0 0 0 0 
0 0 0 0 
0 0 0 0 
0 0 0 0 
0 0 0 0 
0 0 0 0 
0 0 0 0 
0 0 0 0 
0 0 0 0 
0 0 0 0 
0 0 0 0 
-0.1192592955798975 -0.2110827166257803 0.07757936104231514 0.07111350185026404 
-0.06840153088804524 -0.153295361203993 0.1428596443116877 -0.07872098213013025 
0 0 0 0 
0 0 0 0 
0 0 0 0 
0 0 0 0 
0 0 0 0 
-0.1391942592515576 0.08668166179384512 -0.02508349302243049 0 
0 0 0 0 
-0.03922024239352368 0 0 0 
0 0 0 0 
0 0 0 0 
0 0 0 0 
-0.02255255974839155 0.07986566742383754 0 0 
0 0 0 0 
0 0 0 0 
0 0 0 0 
0 0 0 0 
0 0 0 0 
0 0 0 0 
0 0 0 0 
0 0 0 0 
0 0 0 0 
0 0 0 0 
0 0 0 0 
0 0 0 0 
0 0 0 0 
0 0 0 0 
0 0 0 0 
0 0 0 0 
0 0 0 0 
0 0 0 0 
0 0 0 0 
0 0 0 0 
0 0 0 0 
0 0 0 0 
0 0 0 0 
0 0 0 0 
0 0 0 0 
0 0 0 0 
0 0 0 0 
0.3877233862519405 -0.2135882669277551 -0.1192811134235057 0 
0.08257038278504988 -0.0005193758699173472 -0.009953031692512803 0 
0 0 0 0 
-0.1331663434822818 0.2767041471958737 -0.2898466171180271 -0.0006323038652163849 
0 0 0 0 
0 0 0 0 
0 0 0 0 
0 0 0 0 
0 0 0 0 
0 0 0 0 
0 0 0 0 
0 0 0 0 
0 0 0 0 
0 0 0 0 
0 0 0 0 
0 0 0 0 
0 0 0 0 
0 0 0 0 
0 0 0 0 
0 0 0 0 
0 0 0 0 
0 0 0 0 
0 0 0 0 
0 0 0 0 
0 0 0 0 
0 0 0 0 
0 0 0 0 
0 0 0 0 
0 0 0 0 
0 0 0 0 
0 0 0 0 
0 0 0 0 
0 0 0 0 
0 0 0 0 
0 0 0 0 
-0.03922024239352368 0 0 0 
-0.03922024239352368 0 0 0 
-0.03922024239352368 0 0 0 
0 0 0 0 
0 0 0 0 
0 0 0 0 
0 0 0 0 
0 0 0 0 
0 0 0 0 
0 0 0 0 
0 0 0 0 
0 0 0 0 
0 0 0 0 
0 0 0 0 
0 0 0 0 
0 0 0 0 
0.1923147588097228 -0.1780112186216297 -0.005930637511959579 0 
0 0 0 0 
0 0 0 0 
0 0 0 0 
0 0 0 0 
0 0 0 0 
0 0 0 0 
0 0 0 0 
0 0 0 0 
0 0 0 0 
0 0 0 0 
0 0 0 0 
0 0 0 0 
0.06989494113922956 -0.01760896987289986 0 0 
-0.08079206142316514 0.08355123019416606 0 0 
0.04392288609748721 -0.03003754348597419 0 0 
0.04392288609748721 -0.03003754348597419 0 0 
0 0 0 0 
-0.1571993333089082 0.09286453267480921 0 -8.673617379884035e-19 
-0.1571993333089082 0.08224825267636854 0 0 
-0.3813589455971463 0.3573667124869626 -0.02968327282629646 -0.03972316846660665 
0 0 0 0 
0 0 0 0 
0 0 0 0 
0 0 0 0 
-0.2564818988628741 0.2634476819625657 -0.04448983454546123 -0.01962356519791479 
-0.1513411396195388 0.1990393769057345 0 -0.1648150738886557 
0 -0.1671551092648003 0.2604850114119822 0 
0 0.03484541239920779 0 0 
0 0.03484541239920779 0 0 
0 0.03484541239920779 0 0 
0 0 0 0 
0 0 0 0 
0 0 0 0 
0 0 0 0 
0 0 0 0 
-0.1196687307187576 0.08707855212753578 -0.03271483183006144 0 
0 0 0 0 
0 0 0 0 
0 0 0 0 
0 0 0 0 
0.2713594303828479 -0.2961324932119471 0 0 
0 0 0 0 
0 0 0 0 
0 0 0 0 
0 0 0 0 
-0.2584583814186487 0.1762818963727543 0 0 
-0.2584583814186487 0.1762818963727543 0 0 
-0.2584583814186487 0.1762818963727543 0 0 
0 0 0 0 
0 0 0 0 
0 0 0 0 
0 0 0 0 
0 0 0 0 
0 0 0 0 
0 0 0 0 
-0.2199212334927979 -0.2851859696956762 0 0.4912337458996811 
0 0 0 0 
0 0 0 0 
0.1894203393605695 -0.09099929424310089 -0.1082224149404525 0 
0 0 0 0 
0 0 0 0 
0 0 0 0 
0 0 0 0 
0 0 0 0 
0 0 0 0 
0 0 0 0 
0 0 0 0 
0 0 0 0 
0 0 0 0 
0 0 0 0 
0 0 0 0 
0 0 0 0 
0 0 0 0 
0 0 0 0 
0 0 0 0 
0 0 0 0 
0 0 0 0 
0 0 0 0 
0 0 0 0 
0 0 0 0 
0 0 0 0 
0 0 0 0 
0.3877233862519405 -0.2135882669277551 -0.1192811134235057 0 
0 0 0 0 
0 0 0 0 
0 0 0 0 
0.07887306126712505 -0.1052369407907023 0 -0.03260662147930985 
0 0 0 0 
0 0 0 0 
0 0 0 0 
0 0 0 0 
0 0 0 0 
-0.09686853063129869 0.08628510459048515 0 0 
0 0 0 0 
0 0 0 0 
0 0 0 0 
0.1923147588097228 -0.1780112186216297 -0.005930637511959579 0 
0 0 0 0 
0 0 0 0 
0 0 0 0 
0 0 0 0 
0 0 0 0 
-0.1321835936886739 0.1023955336606899 0 -0.02214746476842527 
0 0 0 0 
0 0 0 0 
0 0 0 0 
0 0 0 0 
0 0 0 0 
0 0 0 0 
0 0 0 0 
0 0 0 0 
0 0 0 0 
0 0 0 0 
0 0.0151913717542612 0 0 
0 0 0 0 
0 0 0 0 
0 0 0 0 
0 0 0 0 
0 0 0 0 
0 0 0 0 
-0.206338091866193 0.2238351491289979 -0.00913699147412508 -0.07206875791721547 
0 0 0 0 
-0.1168439830890653 0.08421674960137292 0 0 
-0.1607668691865525 0.1142542930873471 0 0 
0 0 0 0 
0 0 0 0 
0 0 0 0 
0 0 0 0 
0 0 0 0 
0 0 0 0 
0 0 0 0 
0 0 0 0 
0 0 0 0 
0 0 0 0 
0 0 0 0 
0 0 0 0 
0 0 0 0 
0 0 0 0 
0 -0.002753899156130622 0 0 
0 -0.002753899156130622 0 0 
0 -0.002753899156130622 0 0 
0 -0.002753899156130622 0 0 
0 -0.002753899156130622 0 0 
0 -0.002753899156130622 0 0 
0 0 0 0 
0 0 0 0 
0 0 0 0 
0 0 0 0 
0 0 0 0 
0 0 0 0 
0 0 0 0 
0.1572569505921364 -0.2592758422765795 0 0 
0 0 0 0 
0 0.04691755232301237 0 0 
0 0 0 0 
0 0 0 0 
0 0 0 0 
0 0 0 0 
0 0 0 0 
0 0 0 0 
0 0 0 0 
0 0 0 0 
-0.2270039509273434 0 0.2827219784510172 0 
-0.2270039509273434 0 0.2827219784510172 0 
-0.03468919211762067 -0.1780112186216297 0.2767913409390576 0 
0 0 0 0 
0 0 0 0 
0 0 0 0 
0 0 0 0 
0 0 0 0 
0 0 0 0 
0 0 0 0 
0 0 0 0 
0 0 0 0 
0 0 0 0 
0 0 0 0 
0 0 0 0 
0 0 0 0 
0.5076838890794262 -0.3775572558149863 -0.05549020523215345 -0.1887904732704213 
0 0 0 0 
0 0 0 0 
0 0 0 0 
0 0 0 0 
0 0 0 0 
0 0.0151687295849108 -0.004764364612778201 0 
0 0 0 0 
0 0 0 0 
0 0 0 0 
0 0 0 0 
0 0 0 0 
0 0 0 0 
0 0 0 0 
0 0 0 0 
0 0 0 0 
0 0 0 0 
0 0 0 0 
0 0.001621892561656315 0 0 
0 0 0 0 
0 0 0 0 
0 0 0 0 
0 0 0 0 
0 0 0 0 
0 0 0 0 
0 0 0 0 
0 0 0 0 
0 0 0 0 
0 0.1151433980991737 0 -0.01935535999166028 
0 0 0 0 
0 0 0 0 
0 0 0 0 
0 0 0 0 
0 0 0 0 
-0.1331663434822818 0.1735857371480112 0 0 
0 0 0 0 
0 0 0 0 
0 0 0 0 
0 0 0 0 
-2.602085213965211e-18 0.0151913717542612 -0.002797420195213733 0 
0 0 0 0 
0 0 0 0 
0 0 0 0 
0 0 0 0 
0 0 0 0 
0 0 0 0 
0 0 0 0 
0 0 0 0 
0 0 0 0 
0 0 0 0 
0 0 0 0 
0 0 0 0 
0 0 0 0 
0 0 0 0 
0 0 0 0 
0 0 0 0 
0 0 0 0 
0 0 0 0 
0 0 0 0 
0 0 0 0 
0 0 0 0 
0 0 0 0 
0 0 0 0 
0 0 0 0 
0 0 0 0 
0 0 0 0 
0.0331852352051373 -0.02755241049895791 0 0 
0 0 0 0 
0 0 0 0 
0 0 0 0 
0 0 0 0 
0 0 0 0 
0 0 0 0 
0 0 0 0 
0 0 0 0 
-0.1979128372863904 0.2914102686739191 0 0 
0 0 0 0 
0 0 0 0 
0 0 0 0 
-0.4340922481695976 0.4856422886569018 -0.4291242492488114 -0.2224469942733059 
0 0 0 0 
0 0 0 0 
0 0 0 0 
0 0 0 0 
0 0 0 0 
0 0 0 0 
0 0 0 0 
-0.1668983691439188 -0.05182820142870061 -0.001875115028479145 0.13569936409077 
0 0 0 0 
0 0 0 0 
0 0 0 0 
0 0 0 0 
0 0.1135215055375174 0 -0.01935535999166028 
0 0 0 0 
0 0 0 0 
0 0 0 0 
0 0 0 0 
0 0 0 0 
0 0 0 0 
0 0 0 0 
0 0 0 0 
0 0 0 0 
0 0 0 0 
0 0 0 0 
0 0 0 0 
0 0 0 0 
0 0 0 0 
0 0 0 0 
0 0 0 0 
-0.0281255075732948 0.08642874141398355 0 0 
0 0 0 0 
0 0 0 0 
0 0 0 0 
0 0 0 0 
0 0 0 0 
0 0 0 0 
0 0 0 0 
0 0 0 0 
0 0 0 0 
0.01964462880147084 -0.04778252163492386 0 0 
0 0 0 0 
0 0 0 0 
0 0 0 0 
0 0 0 0 
0 0 0 0 
0 0 0 0 
0 0 0 0 
0 0 0 0 
0 0 0 0 
0 0 0 0 
0 0 0 0 
0 0 0 0 
0 0 0 0 
0 0 0 0 
0.1859688574466438 -0.1008065723798886 -0.05265886651480596 0 
0 0 0 0 
0 0 0 0 
-0.02255255974839155 0.07986566742383754 0 0 
0 0 0 0 
0 0 0 0 
0.06352872650014917 0 0 -0.004407279606031519 
0 0 0 0 
0 0 0 0 
0 0 0 0 
0 0 0 0 
0 0 0 0 
0 0 0 0 
0 0 0 0 
0 0 0 0 
0 0 0 0 
0 0 0 0 
0 0 0 0 
0 0 0 0 
0 0 0 0 
0 0 0 0 
0 0 0 0 
0 0 0 0 
0 0 0 0 
0 0 0 0 
0 0 0 0 
0 0 0 0 
0 0 0 0 
0 0 0 0 
0 0 0 0 
0 0 0 0 
0 0 0 0 
0 0 0 0 
0 0 0 0 
0 0 0 0 
-0.09686853063129869 0.08628510459048515 0 0 
0 0 0 0 
0 0 0 0 
0 0 0 0 
0 0 0 0 
0 0 0 0 
-0.08144197250177311 0.1616371300277834 0 0 
-0.08144197250177311 0.1616371300277834 0 0 
-0.248340341645692 0.1098089285990828 -0.001875115028479145 0.13569936409077 
0 0 0 0 
0 0 0 0 
0 0 0 0 
0 0 0 0 
0 0 0 0 
0 0 0 0 
0 0 0 0 
0 0 0 0 
0 0 0 0 
0 0 0 0 
0 0 0 0 
0 0 0 0 
0 0 0 0 
0 0 0 0 
0.1674068145824059 -0.1700605864033585 0 0 
0 0 0 0 
-0.0034596438569372 -0.1257275695496413 -0.03539396805199276 0.09685801766975848 
0 0 0 0 
0.1689860238520912 -0.1747098556098799 0 -0.02395119315105101 
0 0 0 0 
0 0 0 0 
0 0 0 0 
0 0 0 0 
0 0 0 0 
0 0 0 0 
0 0 0 0 
0 0 0 0 
0 0 0 0 
0 0 0 0 
0 0 0 0 
0 0 0 0 
0 0 0 0 
0 0 0 0 
0 0 0 0 
0 0 0 0 
0 0 0 0 
0 0 0 0 
0 0 0 0 
0 0 0 0 
0 0 0 0 
0 0 0 0 
0 0 0 0 
0 0 0 0 
0 0 0 0 
0 0 0 0 
0 0 0 0 
0 0 0 0 
0 0 0 0 
0.1572569505921364 -0.2592758422765795 0 0 
0.3813172939377559 -0.4451372691289044 -0.02968327282629646 -0.08461792656866282 
0 0 0 0 
0 0 0 0 
0.04392288609748721 -0.03003754348597419 0 0 
0 0 0 0 
0 0 0 0 
0 0 0 0 
0 0 0 0 
0 0 0 0 
0 0 0 0 
0 0 0 0 
0 0 0 0 
0 0 0 0 
0 0 0 0 
0 0 0 0 
0 0 0 0 
0 0 0 0 
0 0 0 0 
0 0 0 0 
0 0 0 0 
0 0 0 0 
0 0 0 0 
0 0 0 0 
0 0 0 0 
0 0 0 0 
0 0 0 0 
0 0 0 0 
0.108644283249768 -0.0825585505830726 0 0 
0.108644283249768 -0.0825585505830726 0 0 
0 0 0 0 
0 0 0 0 
0 0 0 0 
0 0 0 0 
0 0 0 0 
0 0 0 0 
-0.2517333256955613 0.2544938309639173 -0.1556787995337036 -0.1548460611732135 
0 0 0 0 
0 0 0 0 
-0.3093330886182818 0.3238223898747568 -0.03011660641174529 0 
0 0.1001655342942371 0 0 
0 0 0 0 
0 0 0 0 
0 0 0 0 
0 0 0 0 
0 0 0 0 
0 0 0 0 
0 0 0 0 
-0.095413609600078 0.1046040056307431 -0.1187590595824806 -0.09291488942430097 
0 0 0 0 
0 0 0 0 
0 0 0 0 
0 0 0 0 
0 0 0 0 
0 0 0 0 
0 0 0 0 
0 0 0 0 
0 0 0 0 
0 0 0 0 
0 0 0 0 
0 0 0 0 
0 0 0 0 
0 0 0 0 
0 0 0 0 
0 0 0 0 
0 0 0 0 
-0.1717990405677716 0 -0.03539396805199276 0.09685801766975848 
0 0 0 0 
-0.07321999204448745 0.05152619465858407 0 -0.1708192492443299 
0 0 0 0 
0 0 0 0 
0 0 0 0 
0 0 0 0 
-0.1321835936886739 0.1023955336606899 0 -0.02214746476842527 
0 0 0 0 
0 0 0 0 
0 0 0 0 
0 0 0 0 
0 0 0 0 
0 0 0 0 
0 0 0 0 
0 0 0 0 
0 0 0 0 
0 0 0 0 
0 0 0 0 
0 0 0 0 
0 0 0 0 
0 0 0 0 
0 0 0 0 
-0.206338091866193 0.2238351491289979 -0.006339571278911349 -0.07206875791721547 
-0.206338091866193 0.2238351491289979 -0.006339571278911349 -0.07206875791721547 
0 0 0 0 
0 0 0 0 
0 0 0 0 
0 0 0 0 
0 0 0 0 
0 0 0 0 
0 0 0 0 
0 0 0 0 
0 0 0 0 
0 0 0 0 
-0.1331663434822818 0.1735857371480112 0 0 
-0.2653994020789628 0.2117558967570181 -0.02630932727861396 -0.02277976863364166 
0 0 0 0 
0 0 0 0 
0 0 0 0 
0 0 0 0 
0 0 0 0 
0 0 0 0 
0 0 0 0 
0 0 0 0 
0 0 0 0 
0 0 0 0 
0 0 0 0 
0 0 0 0 
0 0 0 0 
0 0 0 0 
0 0 0 0 
0 0 0 0 
0.08257038278504988 -0.0005193758699173472 -0.009953031692512803 0 
0.1715535273432917 -0.239964220221661 -0.1659161405183354 -0.07818670114777508 
0 0 0 0 
0 0 0 0 
0 0 0 0 
0 0 0 0 
0 0 0 0 
0 0 0 0 
0 0 0 0 
0 0 0 0 
0 0 0 0 
0 0 0 0 
0 0 0 0 
0 0 0 0 
0 0 0 0 
0 0 0 0 
0 0 0 0 
0 0 0 0 
0 0 0 0 
-0.1546507165375981 0.2567316908317043 -0.06085490498255556 0 
0 0 0 0 
0 0 0 0 
0 0 0 0 
0 0 0 0 
0 0 0 0 
0 0 0 0 
0 0 0 0 
1.387778780781446e-17 0.0112439149430367 0 0 
-0.09760262715376393 0.09970714423877501 -0.02117142408247126 0 
0 0 0 0 
0.03859219410272177 0 0 0 
0 0 0 0 
0 0 0 0 
0 0 0 0 
0 0 0 0 
0 -0.006597668826462806 0 0 
0 0 0 0 
0 0 0 0 
0.1572569505921364 -0.2592758422765795 0 0 
0 0 0 0 
0 0 0 0 
0 0 0 0 
0 0 0 0 
0 0 0 0 
0 0 0 0 
0 0 0 0 
0 0 0 0 
0 0 0 0 
0 0 0 0 
0 0 0 0 
0 0 0 0 
0 0 0 0 
0 0 0 0 
0 0 0 0 
0 0 0 0 
0 0 0 0 
-0.04205934680344063 0.1598614445726591 -0.297879140568494 -0.06326353882470773 
0 0 0 0 
-0.3813589455971463 0.3573667124869626 -0.02968327282629646 -0.03972316846660665 
0 0 0 0 
0 0 0 0 
0 0 0 0 
0 0 0 0 
0 0 0 0 
0 0 0 0 
0 0 0 0 
0 0 0 0 
0 0 0 0 
0 0 0 0 
0 0 0 0 
0 0 0 0 
0 0 0 0 
0 0 0 0 
0 0 0 0 
0 0 0 0 
0 0 0 0 
0 0 0 0 
0 0 0 0 
0 0 0 0 
0 0 0 0 
0 0 0 0 
0 0 0 0 
-0.19144839142652 0.1966445895682533 0 0 
-0.19144839142652 0.1966445895682533 0 0 
0 0 0 0 
0 0 0 0 
0.09326152849406508 -0.04155727287483062 0 -0.002636962868036416 
0.09326152849406508 -0.04155727287483062 0 -0.002636962868036416 
0 0 0 0 
0 0 0 0 
0 0 0 0 
0 0 0 0 
0 0 0 0 
0 0 0 0 
0 0 0 0 
0 0 0 0 
0 0 0 0 
0 0 0 0 
0 0 0 0 
0 0 0 0 
0 0 0 0 
0 0 0 0 
0 0 0 0 
0 0 0 0 
0 0.1133363461539265 -0.03176719184967294 0 
0 0 0 0 
0 0 0 0 
0 0 0 0 
0 0 0 0 
0 0 0 0 
0 0 0 0 
0 0 0 0 
0 0 0 0 
0 0 0 0 
0 0 0 0 
0 0 0 0 
0 0 0 0 
0 0 0 0 
0 0 0 0 
0 0 0 0 
0 0 0 0 
0 0 0 0 
0 0 0 0 
0 0 0 0 
0 0 0 0 
0 0 0 0 
0 0 0 0 
0 0 0 0 
0 0 0 0 
0 0 0 0 
0 0 0 0 
-0.1350072336078924 0.2790247795889933 0 0 
0 0 0 0 
0 0 0 0 
0 0 0 0 
0 0 0 0 
0 0 0 0 
0 0 0 0 
0 0 0 0 
0 0 0 0 
0 0 0 0 
0 0 0 0 
0 0 0 0 
0 0 0 0 
0 0 0 0 
0 0 0 0 
0 0 0 0 
0 0 0 0 
0.04811207239625289 -0.002639583228946446 0 0 
0 0 0 0 
0 0 0 0 
0 0 0 0 
0 0 0 0 
0 0 0 0 
0 0 0 0 
0 0 0 0 
0 0 0 0 
0 0 0 0 
0 0 0 0 
0 0 0 0 
0 0 0 0 
0 0 0 0 
0 0 0 0 
0 0 0 0 
0 0 0 0 
0 0 0 0 
0 0 0 0 
0 0 0 0 
0 0 0 0 
0 0 0 0 
0 0 0 0 
0 0 0 0 
0 0 0 0 
0 0 0 0 
0 0 0 0 
0 0 0 0 
0 0 0 0 
0 0 0 0 
0 0 0 0 
0 0 0 0 
0 0 0 0 
0 0 0 0 
0 0 0 0 
0 0 0 0 
0 0 0 0 
0 0 0 0 
0 0 0 0 
0 0 0 0 
0 0 0 0 
0 0 0 0 
0 0.01061627999844066 0 0 
0 0 0 0 
0 0 0 0 
0 0 0 0 
0 0 0 0 
0 0 0 0 
0 0 0 0 
0 0 0 0 
0 0 0 0 
0 0 0 0 
0 0 0 0 
0 0 0 0 
0 0 0 0 
0 0 0 0 
0 0 0 0 
0 0 0 0 
0 0 0 0 
0 0 0 0 
0 0 0 0 
0 0 0 0 
0 0 0 0 
0 0 0 0 
0 0 0 0 
0 0 0 0 
0 0 0 0 
0 0 0 0 
-0.101092076165932 0.1465156561373779 0 0 
-0.101092076165932 0.1465156561373779 0 0 
0 0 0 0 
0 0 0 0 
0 0 0 0 
0 0 0 0 
0 0 0 0 
0 0 0 0 
0.1859688574466438 -0.1008065723798886 -0.05265886651480596 0 
0 0 0 0 
0 0 0 0 
0 0 0 0 
0 0 0 0 
0 0 0 0 
0 0 0 0 
0 0 0 0 
0 0 0 0 
-0.09501207056936503 0.08505649817212388 0 -0.01592831033220976 
-0.2564818988628741 0.2634476819625657 -0.04448983454546123 -0.01962356519791479 
0 0 0 0 
0 0 0 0 
0 0 0 0 
0 0 0 0 
0 0 0 0 
0 0 0 0 
0 0 0 0 
0 0 0 0 
0 0 0 0 
0 0 0 0 
0 0 0 0 
0 0 0 0 
0 0 0 0 
0 0 0 0 
0 0 0 0 
0 0 0 0 
0 0 0 0 
0 0 0 0 
0 0 0 0 
0 0 0 0 
0 0 0 0 
0 0 0 0 
0 0 0 0 
0 0 0 0 
0 0 0 0 
0 0 0 0 
0 0 0 0 
0 0 0 0 
0 0 0 0 
0 0 0 0 
0 0 0 0 
0 0 0 0 
0 0 0 0 
0 0 0 0 
0 0 0 0 
0 0 0 0 
0 0 0 0 
0 0 0 0 
0 0 0 0 
0 0 0 0 
0 0 0 0 
0 0 0 0 
0 0 0 0 
0 0 0 0 
0 0 0 0 
0 0 0 0 
0 0 0 0 
0 0 0 0 
0 0 0 0 
0 0 0 0 
0.06002445574265345 -0.09289489385128175 -0.1655010478235213 -0.2776941023252222 
0 0 0 0 
0 0 0 0 
0 0 0 0 
0 0 0 0 
0 0 0 0 
0 0 0 0 
0 0 0 0 
0 0 0 0 
0 0 0 0 
0 0 0 0 
0 0 0 0 
0 0 0 0 
0 0 0 0 
0 0.1001655342942371 0 0 
0 0 0 0 
0 0 0 0 
0.07815831851572042 -0.1014438143372643 0 0 
0 0 0 0 
0 0 0 0 
0 0 0 0 
0 0 0 0 
0 0 0 0 
0 0 0 0 
0 0 0 0 
0 0 0 0 
0 0 0 0 
0 0 0 0 
0 0 0 0 
0 0 0 0 
0 0 0 0 
0 0 0 0 
0 0 0 0 
-0.06742071649719387 0.04983781408497436 0 0 
0.0225219702166507 -0.1428274956718015 -0.1100975299689316 0.13569936409077 
0 0 0 0 
0 0 0 0 
0 0 0 0 
0.0331852352051373 -0.02755241049895791 0 0 
0.0331852352051373 -0.02755241049895791 0 0 
0.0331852352051373 -0.02755241049895791 0 0 
0 0 0 0 
-0.3657647633640955 0.4883309673341866 -0.08997861056668638 -0.400283795026818 
0 0 0 0 
0 0.0002152750712017176 -0.01673725756384711 0 
0 0 0 0 
0 0 0 0 
0 0 0 0 
0 0 0 0 
0 0 0 0 
0 0 0 0 
0 0 0 0 
-0.05309173427688264 0.1886993156759426 0 0 
0 0 0 0 
0 0 0 0 
0 0 0 0 
0 0 0 0 
0.06352872650014917 0 0 -0.004407279606031519 
0 0 0 0 
0 0 0 0 
0 0 0 0 
0 0 0 0 
0 0 0 0 
0 0 0 0 
0 0 0 0 
0 0 0 0 
0 0 0 0 
0 0 0 0 
0 0 0 0 
0 0 0 0 
0 0 0 0 
0 0 0 0 
0 0 0 0 
0 0 0 0 
0 0 0 0 
0 0 0 0 
0 0 0 0 
0 0 0 0 
0 0 0 0 
0 0 0 0 
0 0 0 0 
0 0 0 0 
0 0 0 0 
0 0 0 0 
0 0 0 0 
0 0 0 0 
0 0 0 0 
0 0 0 0 
0 0 0 0 
0 0 0 0 
0 0 0 0 
0 0 0 0 
0 0 0 0 
0 0 0 0 
0 0 0 0 
0 0 0 0 
0 0 0 0 
0 0 0 0 
0 0 0 0 
0 0 0 0 
0 0 0 0 
0 0 0 0 
0 0 0 0 
0 0 0 0 
0 0 0 0 
0 0 0 0 
0 0 0 0 
0 0 0 0 
0 0 0 0 
0 0 0 0 
0 0 0 0 
-0.2643996334521692 0.2793138612406231 -0.1187590595824806 -0.06896369627324996 
0 0 0 0 
0 0 0 0 
0 0 0 0 
0 0 0 0 
0 0 0 0 
0 0 0 0 
0 0 0 0 
0 0 0 0 
0 0 0 0 
0 0 0 0 
0 0 0 0 
0 0 0 0 
0 0 0 0 
0 0 0 0 
-0.03196178815758293 0.03752918844485384 0 0 
-0.03196178815758293 0.03752918844485384 0 0 
0 0 0 0 
0 0 0 0 
0 0 0 0 
0 0 0 0 
0 0 0 0 
0 0 0 0 
0 0 0 0 
0 0 0 0 
0 0 0 0 
0 0 0 0 
0 0 0 0 
0 0 0 0 
0 0 0 0 
0 0 0 0 
0 0 0 0 
0 0 0 0 
0 0 0 0 
0 0 0 0 
0 0 0 0 
0 0 0 0 
0 0 0 0 
0 0 0 0 
0 0 0 0 
0 0 0 0 
0 0 0 0 
0 0 0 0 
0 0 0 0 
0 0 0 0 
0 0 0 0 
0 0 0 0 
0 0 0 0 
0 0 0 0 
0 0 0 0 
0 0 0 0 
0 0 0 0 
0 0 0 0 
0 0 0 0 
0 0 0 0 
0 0 0 0 
0 0 0 0 
0 0 0 0 
0 0 0 0 
0 0 0 0 
0 0 0 0 
0 0 0 0 
0 0 0 0 
0 0 0 0 
0 0 0 0 
0 0 0 0 
-0.05730009816579186 -0.08842558345131826 0.3492582770327876 0 
0 0 0 0 
0 0 0 0 
0 0 0 0 
0 0 0 0 
0 0 0 0 
0 0 0 0 
0 0 0 0 
0 0 0 0 
0 0 0 0 
0 0 0 0 
0 0 0 0 
0 0 0 0 
0 0 0 0 
0 0 0 0 
0.08257038278504988 -0.0005193758699173472 -0.009953031692512803 0 
0.08257038278504988 -0.0005193758699173472 -0.009953031692512803 0 
0.08257038278504988 -0.0005193758699173472 -0.009953031692512803 0 
0 0 0 0 
0 0 0 0 
0 0 0 0 
0 0 0 0 
0 0 0 0 
0 0 0 0 
0 0 0 0 
0 0 0 0 
0 0 0 0 
0 0 0 0 
0 0 0 0 
0 0 0 0 
0 0 0 0 
0 0 0 0 
0 0 0 0 
0 0 0 0 
0 0 0 0 
0 0 0 0 
0 0 0 0 
0 0 0 0 
0.1552855094313066 -0.1887203277226957 0 0 
0.1552855094313066 -0.1887203277226957 0 0 
0 0 0 0 
0 0.01039087516835727 0 0 
0 0.01039087516835727 0 0 
0 0 0 0 
0 0 0 0 
0 0 0 0 
0 0 0 0 
0 0 0 0 
0 0 0 0 
0 0 0 0 
0.07925356412199173 -0.09782377346586288 0 0 
0.07925356412199173 -0.09782377346586288 0 0 
0.07925356412199173 -0.09782377346586288 0 0 
0 0 0 0 
0 0 0 0 
0 0 0 0 
0 0 0 0 
0 0 0 0 
-0.1865197697949701 0.1093969144861568 0 0 
-0.1865197697949701 0.1093969144861568 0 0 
0 0 0 0 
0 0 0 0 
0 0 0 0 
0 0 0 0 
0 0 0 0 
0 0 0 0 
0 0 0 0 
0 0 0 0 
0 0 0 0 
0 0 0 0 
0 0 0 0 
0 0 0 0 
0 0 0 0 
0 0 0 0 
0 0 0 0 
0 0 0 0 
0 0 0 0 
0 0 0 0 
0 0 0 0 
0 0 0 0 
0 0 0 0 
0 0 0 0 
0 0 0 0 
0 0 0 0 
0 0 0 0 
0 0 0 0 
-0.09686853063129869 0.08628510459048515 0 0 
0.04392288609748721 -0.03003754348597419 0 0 
0 0 0 0 
0.1471305873093033 -0.1493604996885391 0 0 
0 0 0 0 
0 0 0 0 
-4.946490800749801e-05 -0.1673437840995456 0.2635372898394131 0 
-0.03838406859855311 -0.01098174592085215 -0.04471214309329424 0.05072533073218066 
-0.03838406859855311 -0.01098174592085215 -0.04471214309329424 0.05072533073218066 
-0.03838406859855311 -0.01098174592085215 -0.04471214309329424 0.05072533073218066 
0 0 0 0 
0 0 0 0 
0 0 0 0 
0 0 0 0 
0.09147773695258654 -0.08782211379323893 0 -0.01269637991784596 
0 0 0 0 
0 0 0 0 
0 0 0 0 
0 0 0 0 
0 0 0 0 
0.04811207239625289 -0.002639583228946446 0 0 
0 0 0 0 
0 0 0 0 
0 0 0 0 
0 0 0 0 
0 0 0 0 
0 0 0 0 
0 0 0 0 
0 0 0 0 
0 0 0 0 
0 0 0 0 
0 0 0 0 
0 0 -0.002797420195213733 0 
-0.06012663269764958 0 0 0 
-0.06012663269764958 0 0 0 
0 0 0 0 
0 0 0 0 
0 0 0 0 
0 0 0 0 
0 0 0 0 
0 0 0 0 
0 0 0 0 
0 0 0 0 
0 0 0 0 
0 0 0 0 
0 0 0 0 
0 0 0 0 
0 0 0 0 
0 0 0 0 
0 0 0 0 
0 0 0 0 
0 0 0 0 
0 0 0 0 
0 0 0 0 
0 0 0 0 
0 0 0 0 
0 0 0 0 
0 0 0 0 
0 0 0 0 
0 0 0 0 
0 0 0 0 
0 0 0 0 
0 0 0 0 
0 0 0 0 
0 0 0 0 
0 0 0 0 
0 0 0 0 
0 0 0 0 
0.0564224209474457 0 0 -0.01270621136853434 
0 0 0 0 
0 0 0 0 
0 0 0 0 
0 0 0 0 
0 0 0 0 
0 0 0 0 
0 0 0 0 
0 0 0 0 
0 0 0 0 
0 0 0 0 
0 0 0 0 
0 0 0 0 
-0.06742071649719387 0.04983781408497436 0 0 
0 0 0 0 
0.07086870708403656 -0.1205300433016189 -0.07445327748772548 -0.1113451377590307 
0.07086870708403656 -0.1205300433016189 -0.07445327748772548 -0.1113451377590307 
0.07086870708403656 -0.1205300433016189 -0.07445327748772548 -0.1113451377590307 
0 0 0 0 
0 0 0 0 
0 0 0 0 
0 0 0 0 
0 0 0 0 
0 0 0 0 
0 0 0 0 
0 0 0 0 
-0.02984788178091647 0.03780046677387113 0 0 
0 0 0 0 
0 0 0 0 
0 0 0 0 
0 0 0 0 
0 0 0 0 
0 0 0 0 
0 0 0 0 
0 0 0 0 
0 0 0 0 
0 0 0 0 
0 0 0 0 
0 0 0 0 
0 0 0 0 
0 0 0 0 
0.03120589599748087 -0.0715327073785105 0 0 
0 0 0 0 
0 0 0 0 
0 0 0 0 
0 0 0 0 
-0.09686853063129869 0.08628510459048515 0 0 
-0.09686853063129869 0.08628510459048515 0 0 
0 0 0 0 
0 0 0 0 
0 0 0 0 
0 0 0 0 
0.5744315829714971 -0.2507784669476728 -0.3559071444411542 -0.446179009917901 
0 0.0151913717542612 0 0 
0 0 0 0 
0 0 0 0 
0 0 0 0 
0 0 0 0 
0 0 0 0 
0 0 0 0 
0 0 0 0 
0 0 0 0 
0 0 0 0 
0 0 0 0 
0 0 0 0 
0 0 0 0 
0 0 0 0 
0 0 0 0 
0 0 0 0 
0 0 0 0 
0 0 0 0 
0 0 0 0 
0 0 0 0 
0.1097058618942311 -0.1210113470757979 -0.186173999637564 -0.1023109408249655 
0 0 0 0 
0 0 0 0 
0 0 0 0 
0 0 0 0 
0.3696508214653443 -0.1764277743300737 -0.2198166126396602 0 
0.2322349550550685 -0.2785131017244767 0 0 
0 0 0 0 
0 0 0 0 
0 0 0 0 
0 0 0 0 
0 0 0 0 
0 0 0 0 
0 0 0 0 
0 0 0 0 
0 0 0 0 
0 0 0 0 
0 0 0 0 
0 0 0 0 
0 0 0 0 
0 0 0 0 
0 0 0 0 
0 0 0 0 
0 0 0 0 
0 0 0 0 
0 0 0 0 
0 0 0 0 
0 0 0 0 
0 0 0 0 
0 0 0 0 
0 0 0 0 
0 0 0 0 
0 0 0 0 
0 0 0 0 
0 0 0 0 
-0.1511235670186682 0.2357160888373121 -0.1153103720028117 -0.07787113227902498 
0 0 0 0 
0 0 0 0 
0 0 0 0 
0 0 0 0 
0 0 0 0 
0 0 0 0 
0 0 0 0 
0 0 0 0 
0 0 0 0 
0 0 0 0 
0 0 0 0 
0 0 0 0 
0.1795984840244292 -0.1018009807682779 0 0 
0.1795984840244292 -0.1018009807682779 0 0 
0 0 0 0 
0 0 0 0 
0 0 0 0 
0 0 0 0 
0 0 0 0 
0 0 0 0 
0 0 0 0 
0 0 0 0 
0 0 0 0 
0 0 0 0 
0 0.005651838694850198 0 0 
0 0.005651838694850198 0 0 
0 0.005651838694850198 0 0 
0 -0.006597668826462806 0 0 
0 0 0 0 
0 0 0 0 
0 0 0 0 
0 0 0 0 
0 0 0 0 
0 0 0 0 
0 0 0 0 
0 0 0 0 
0 0 0 0 
0 0 0 0 
0 0 0 0 
0 0 0 0 
0 0 0 0 
0 0 0 0 
0 0 0 0 
0 0 0 0 
0 0 0 0 
0 0 0 0 
0.04392288609748721 -0.03003754348597419 0 0 
0.04392288609748721 -0.03003754348597419 0 0 
0.04392288609748721 -0.03003754348597419 0 0 
0.04392288609748721 -0.03003754348597419 0 0 
0.04392288609748721 -0.03003754348597419 0 0 
0.04392288609748721 -0.03003754348597419 0 0 
0 0 0 0 
0 0 0 0 
0 0 0 0 
0 0 0 0 
0 0 0 0 
0 0 0 0 
0 0 0 0 
0 0 0 0 
0 0 0 0 
0 0 0 0 
0 -0.006597668826462806 0 0 
0 0 0 0 
0 0 0 0 
0 0 0 0 
0 0 0 0 
0 0 0 0 
0 0 0 0 
0 0 0 0 
0 0 0 0 
0 0 0 0 
0 0 0 0 
0 0 0 0 
0 0 0 0 
0 0 0 0 
0 0 0 0 
0 0 0 0 
0 0 0 0 
0 0 0 0 
0 0 0 0 
0 0 0 0 
0 0 0 0 
0 0 0 0 
0 0 0 0 
0 0 0 0 
0 0 0 0 
0 0 0 0 
0 0 0 0 
0 0 0 0 
0 0 0 0 
0 0 0 0 
0 0 0 0 
0 0 0 0 
0 0 0 0 
0 0 0 0 
0 0 0 0 
0 0 0 0 
0 0 0 0 
0 0 0 0 
0 0 0 0 
0 0 0 0 
0 0 0 0 
0 0 0 0 
-0.0008021949226340895 0.05960179213575815 0 0 
0 0 0 0 
0 0 0 0 
0 0 0 0 
0 0 0 0 
0 0 0 0 
0 0 0 0 
0 0 0 0 
0 0 0 0 
0 0 0 0 
0 0 0 0 
0 0 0 0 
0 0 0 0 
0 0 0 0 
0 0 0 0 
0 0 0 0 
0 0 0 0 
0 0 0 0 
0 0 0 0 
0 0 0 0 
0 0 0 0 
0 0 0 0 
0 0 0 0 
0 0 0 0 
0 0 0 0 
0 0 0 0 
0 0 0 0 
0 0 0 0 
0 0 0 0 
0 0 0 0 
0 0 0 0 
0 0 0 0 
0 0 0 0 
0 0 0 0 
0 0 0 0 
0 0 0 0 
0 0 0 0 
0 0 0 0 
0 0 0 0 
0 0 0 0 
0 0 0 0 
0 0 0 0 
0 0 0 0 
0 0 0 0 
0 0 0 0 
0 0 0 0 
0 0 0 0 
0 0 0 0 
0 0 0 0 
0 0 0 0 
0 0 0 0 
0 0 0 0 
0 0 0 0 
0 0 0 0 
0 0 0 0 
0 0 0 0 
0 0 0 0 
0 0 0 0 
0 0 0 0 
0 0 0 0 
0 0 0 0 
0 0 0 0 
0 0 0 0 
-0.1391942592515576 0.08668166179384512 -0.02508349302243049 0 
-0.1391942592515576 0.08668166179384512 -0.02508349302243049 0 
-0.02970786624199111 0.1395687534014914 -0.2534009319737579 -0.02935315124413278 
0.2327672362801261 -0.2961324932119471 0 0 
0 0 0 0 
-0.006876575679632085 0 0 0 
0 0 0 0 
0 0 0 0 
0 0 0 0 
0 0 0 0 
0 0 0 0 
0 0 0 0 
0 0 0 0 
0 0 0 0 
0 0 0 0 
0 0 0 0 
0 0 0 0 
0 0 0 0 
0 0 0 0 
0 0 0 0 
0 0 0 0 
-0.1607668691865525 0.1142542930873471 0 0 
-0.1607668691865525 0.1142542930873471 0 0 
0 0 0 0 
-0.1889132959769781 0.1081972077801994 0 0 
0 0 0 0 
0.01964462880147084 -0.04778252163492386 0 0 
0.01964462880147084 -0.04778252163492386 0 0 
-0.09760262715376394 0.09885410446409559 -0.02117142408247126 0 
0 0 0 0 
0 0 0 0 
0 0 0 0 
0 0 0 0 
0 0 0 0 
0 0 0 0 
0 0 0 0 
0 0 0 0 
0 0 0 0 
0 0 0 0 
0 0 0 0 
0 0 0 0 
0 0 0 0 
0 0 0 0 
0 0 0 0 
0 0 0 0 
0 0 0 0 
0 0 0 0 
0 0 0 0 
0 0 0 0 
0 0 0 0 
0 0 0 0 
0 0 0 0 
0 0 0 0 
0 0 0 0 
0 0 0 0 
0 0 0 0 
0 0 0 0 
0 0 0 0 
0 0 0 0 
0 0 0 0 
0 0 0 0 
0 0 0 0 
0 0 0 0 
0 0 0 0 
-0.2517333256955613 0.2544938309639173 -0.1556787995337036 -0.1548460611732135 
0 0 0 0 
0 0 0 0 
0 0 0 0 
0 0 0 0 
0 0 0 0 
0 0 0 0 
0 0 0 0 
0 0 0 0 
0 0 0 0 
0 0 0 0 
0 0 0 0 
0 0 0 0 
0 0 0 0 
0 0 0 0 
0 0 0 0 
0 0 0 0 
0 0 0 0 
-0.2711744206864627 0.2077555264945667 0 0 
-0.2711744206864627 0.2077555264945667 0 0 
0 0 0 0 
0 0 0 0 
0 0 0 0 
0 0 0 0 
0 0 0 0 
0 0 0 0 
0 0 0 0 
0 0 0 0 
0 0 0 0 
0 0 0 0 
0 0 0 0 
0 0 0 0 
0 0 0 0 
0.06989494113922956 -0.01760896987289986 0 0 
0.06989494113922956 -0.01760896987289986 0 0 
0.0400470593583131 0.02019149690097127 0 0 
0 0 0 0 
0 0 0 0 
0 0 0 0 
0 0 0 0 
0 0 0 0 
0 0 0 0 
0 0 0 0 
0 0 0 0 
0 0 0 0 
0 0 0 0 
0.1042942565295473 -0.1367955202877778 0 -0.07849783294889696 
0 0 0 0 
0 0 0 0 
0 0 0 0 
0 0 0 0 
0 0 0 0 
-0.02984788178091647 0.03780046677387113 0 0 
-0.02984788178091647 0.03780046677387113 0 0 
0 0 0 0 
0 0 0 0 
0 0 0 0 
0 0 0 0 
0 0 0 0 
0 0 0 0 
0 0 0 0 
0 0 0 0 
0 0 0 0 
0 0 0 0 
0 0 0 0 
0 0 0 0 
0 0 0 0 
0 0 0 0 
0 0 0 0 
0 0 0 0 
-0.09174380197806449 0.3157819146564379 0 0 
0 0 0 0 
0 0 0 0 
0 0 0 0 
0 0 0 0 
0 0 0 0 
0 0 0 0 
0 0 0 0 
0 0 0 0 
0 0 0 0 
0 0 0 0 
0 0 0 0 
0 0 0 0 
0 0 0 0 
0 0 0 0 
0 0 0 0 
0 0 0 0 
0 0 0 0 
0 0 0 0 
0 0 0 0 
0.1298136171078904 -0.1385772141058514 -0.1033993571112734 -0.09690373363346214 
0.1298136171078904 -0.1385772141058514 -0.1033993571112734 -0.09690373363346214 
0.1298136171078904 -0.1385772141058514 -0.1033993571112734 -0.09690373363346214 
0.1298136171078904 -0.1385772141058514 -0.1033993571112734 -0.09690373363346214 
0 0 0 0 
0 0 0 0 
-0.06836278545659712 0.06432044659454927 0 0 
-0.06836278545659712 0.06432044659454927 0 0 
0 0 0 0 
0 0 0 0 
0 0 0 0 
0 0 0 0 
0 0 0 0 
0 0 0 0 
0 0 0 0 
0 0 0 0 
0 0 0 0 
0 0 0 0 
0 0 0 0 
0 0 0 0 
-0.1668983691439188 -0.05182820142870061 -0.001875115028479145 0.13569936409077 
0 0 0 0 
0 0 0 0 
0 0 0 0 
0 0 0 0 
0 0 0 0 
0 0 0 0 
0 0 0 0 
0 0 0 0 
0 0 0 0 
0 0 0 0 
0 0 0 0 
0 0 0 0 
0 0 0 0 
0 0 0 0 
0 0 0 0 
0 0 0 0 
0 0 0 0 
-0.09760262715376394 0.09885410446409559 -0.02117142408247126 0 
