solver_type L2R_LR
nr_class 5
label 2 0 4 1 3
nr_feature 3647
bias -1
w
0.5463356371478837 -0.4811107428754467 -0.6553200628127673 -0.7289997509100212 -0.4936272904107514 
-0.2488667121055975 -0.05357258419532263 -0.3104710089318851 -0.4178483491228276 -0.292723421134406 
-0.2538480605560345 -0.279008168736747 0.1855673790327839 -0.05338681648623741 0.3815588585617187 
-0.8078707107597737 -0.01580656524545478 0.7117735794590618 -0.2922722192931044 -0.1319649946479343 
0.2034003886353145 -0.2015029838831169 0.08310043133049699 -0.2896593951024904 0.07005845705062569 
0.1794702352117416 -0.3861496499052491 0.1187528556488167 -0.2417653645936812 -0.7574354123733179 
0.8603934610608593 -0.5168456947262798 -0.6413675330567331 -0.5439809157498586 -0.5187796975609095 
0.1622731651265933 -0.2661042932809377 0.3661170200290558 -0.1095384104910523 -0.1541772648756424 
-0.1811222430025999 0.107046126656524 0.4484276297984348 -0.1320005362196273 0.1776616030215723 
0.06888449114203746 -0.3423493170368331 -0.2013220640037754 -0.2449112306119365 0.1964753285239382 
-0.1095464204452556 -0.1525500211276457 0.4015868550609116 -0.01821461268466777 -0.06528420864429017 
-0.1166106317610594 -0.05872375536639476 0.385532352076443 -0.04226068945364705 -0.06919770703028176 
-0.4710893124017607 0.5540753331234591 -0.4647070378643771 -0.4819214216883123 -0.5311655090747009 
0.2973420992825546 0.3555030271017809 -0.5006820004203474 0.1860924114835032 0.4471321470254096 
-0.5662609476167922 -0.2737713102222734 0.1811803140313139 -0.1625038151605379 0.208655712594572 
0.1218437763768554 0.2901130350966085 -0.2141989853786945 0.03624581522669724 0.08237808342482213 
0.5024261280359742 0.2449235712047722 -0.2797035430442228 -0.08229853674392548 0.2471168238477045 
0.4835000421680702 0.09223740997181135 -0.1447975833639049 -0.3973061507779 -0.1990219836960054 
0.08233307274922923 -1.028450009506293 0.621521924962349 -0.6292907029391329 -0.2899092593104696 
-0.3175534971794113 -0.1443864725093784 0.07102021661294365 0.3676170623294813 -0.4437077504930852 
-0.2061526460154825 0.02274671446986396 -0.4961620392086006 0.1735726727516769 0.09358886826956825 
-0.06014339073984622 0.07920735034971335 0.0729344712363301 0.1848992954789146 -0.57366028116889 
-0.1095464204452556 -0.1525500211276457 0.4015868550609116 -0.01821461268466777 -0.06528420864429017 
-0.3071667732903555 -0.1575980743986816 0.3377903077464712 -0.2000963943713131 0.08818674638595912 
-0.1095464204452556 -0.1525500211276457 0.4015868550609116 -0.01821461268466777 -0.06528420864429017 
-0.0822497343721991 0.08662852350412412 -0.003029506586038163 -0.006843776780512568 -0.05897979000402762 
0.410077070370207 0.7598290941775314 -0.3288427630148725 0.742566635429335 -0.1297842345056107 
-0.3019983217142228 -0.1117238403032069 0.03558655973770471 0.003775828606462164 0.4316135854117409 
-0.04280569436773199 -0.04908285585116556 -0.7140364257335611 -0.4048977180596643 0.4060609075904728 
-0.08218421027404232 -0.02370870149998165 0.09301624131127081 -0.006874601269793372 -0.05918538604600543 
0.4482699082867957 -0.3990795788183797 -0.04893017997940575 -0.3897057219864167 -0.09241960371164262 
0.1090891440723595 0.2855112912667526 -0.2507605907726811 0.6137823251870546 -0.1989686742565602 
-0.0822497343721991 0.08662852350412412 -0.003029506586038163 -0.006843776780512568 -0.05897979000402762 
-0.0822497343721991 0.08662852350412412 -0.003029506586038163 -0.006843776780512568 -0.05897979000402762 
-0.0822497343721991 0.08662852350412412 -0.003029506586038163 -0.006843776780512568 -0.05897979000402762 
0.5141758971877892 -0.1676743677202652 -0.2249434947499308 -0.07473822802010306 0.1212024737767343 
-0.228120096104525 -0.1610627690301564 -0.4160724295239172 0.1909618728339927 0.6727595773366448 
0.2241997976806211 0.06781983833351748 -0.3894883691532199 -0.5587455380487417 -0.09507764511615263 
-0.9121216569115126 0.1962482535143767 0.03908953137590883 -0.1509342583610132 0.05982798260298069 
-0.3828556332440469 -0.09513228380537032 0.01114401378461182 0.04820982422347535 0.327218520800566 
-0.2200481059405596 0.1288345935206165 -0.2114905865544992 -0.2356682023969353 -0.4338123014059071 
-0.0005376958132691668 -0.3117805047100226 0.2218532778395234 -0.162149233511135 -0.02379041248698921 
-0.3678268070380794 0.2883784259505441 -0.3028134968464862 -0.2129916101494095 -0.2147765908051654 
0.3875199151818959 0.33598633711769 -0.5172009824050786 -0.2174481336718145 -0.3991718386407798 
0.6790170224021106 0.673611906519781 -1.077398395465281 0.06318831937990661 0.9977379656214197 
0.3176375585168505 -0.04640303141232401 -0.1385149957535014 -0.01381556064742679 -0.05702771579893621 
0.3155145000812961 -0.04035578686843763 -0.1518552654108912 -0.03990323574114385 -0.0633121182802852 
1.306116366928429 -0.5148019800925566 -0.949682745005031 -0.3720976057230661 -0.5398011991664264 
-1.057649932762112 -0.04982029079090983 0.4444060094140743 -0.5837910094126754 -0.2634520925648158 
-0.3331429957054193 -0.143457364103041 -0.05480357380585267 0.05684194436881991 -0.4991746399725662 
-0.7078658106828697 -0.6775898959052571 0.459027434935554 -0.8099507351743883 -0.7194807917445353 
-0.7078658106828697 -0.6775898959052571 0.459027434935554 -0.8099507351743883 -0.7194807917445353 
-0.7078658106828697 -0.6775898959052571 0.459027434935554 -0.8099507351743883 -0.7194807917445353 
0.2253068118248649 -0.1848704189731157 0.2744941432028004 -0.09693210219871067 -0.1840166362629515 
0.1625625661913887 0.2009681986864223 -0.02598816318120024 -0.1977602606551305 0.3583610396428297 
-0.4107858777576238 -0.2934643918215468 0.5911650868391572 -0.606924001608113 -0.5974321120174692 
-0.4025840676182543 0.3665696133499262 0.08143480271322681 -0.9080732182892748 -0.3799880088205549 
-0.3541159459692329 -0.05587433452038253 0.006786609212012184 0.4051270268250531 -0.08754370725240682 
-0.7256086039846049 -0.1915181126110531 0.4883580579822435 -0.6961316567985842 0.1701473584901177 
-0.1847503917791109 -0.3098331154000545 0.4922999063893155 -0.487268328312547 -0.4156958711698715 
-0.5681309127223778 -0.06916483368849093 -0.005673187381798906 0.3111949455848647 -0.06273988548238091 
0.1095941590727676 0.16483356024511 -0.03651831575243882 0.2661025001348163 -0.2603185317672747 
0.8349110319934616 -0.1261477041141104 -0.5584939291410023 -0.3082142350960571 -0.4731821896200827 
-0.6322964958737678 0.1341089197166964 0.1700849598239611 -0.03184325083286423 -0.453588420939828 
-0.05695487500549078 -0.143359829815181 -0.04849592589303791 -0.3888299648671718 -0.1086209636752974 
-0.2341709662556148 -0.2594667184126407 -0.1047541490103713 -0.2574076937893368 -0.04335227884239995 
-0.08036160855747533 -0.05335821114510357 -0.5010047565765825 0.5580010481977601 -0.07082990033155857 
0.4277625535231693 -0.4185299586471711 -0.03802893196733562 -0.1228678351943961 -0.1193753011009683 
-0.2028387603788024 0.2609681587216729 -0.5133347994902306 -0.01038361293930324 0.06294192777314785 
-0.824016476037075 -0.1563403289459202 -0.1801819157526994 0.9521095670669857 -0.2821185566694177 
-0.5524566016069031 0.3484857460688142 -1.024654709692116 -0.00541677988235003 -0.7110145082226266 
-0.4649965486653655 -0.4686678403120212 -0.8123657368569726 0.9248861094497675 -0.6379412703685411 
0.0609135677766418 -0.01463540984203553 -0.0003513432652099211 -0.003247318243496182 -0.006296986808692836 
-0.1057244045243752 -0.1026948836028022 0.5323283952329709 -0.1786234116789233 -0.7788472289119325 
0.1827407033299254 -0.0439062295261067 -0.001054029795629763 -0.009741954730488549 -0.01889096042607851 
0.18214187663553 0.007066967300149758 -0.001283105190919694 -0.01116271246497713 -0.01927758677608664 
-0.2346134511864532 0.3484193036073449 -0.9151718116302247 -0.2542296783202402 -0.351624938926219 
-0.2926775254253008 -0.07440215319654181 0.3974617147372428 -0.1224007441362989 0.1644779601566487 
0.7183051677370292 -0.6561489293962658 -0.1768051340963306 -0.2511093015156575 -0.3430280943512425 
0.3157975991094301 -0.4490574656858758 0.1485816184792646 -0.2951519943305818 0.2147056187869273 
-0.7530254149019251 -0.06595099789704095 0.2916606442395704 0.06815272514040135 -0.1576401243893157 
-0.1885478564453835 0.03784712362347504 0.09145649288114402 -0.04377807289482768 -0.02280827100957093 
-0.3010265499723915 0.3955188927497977 -1.188172471697725 -0.2219802412805519 -0.4544698079671264 
0.0186801987168868 -0.1271856962831981 -0.01083503507591817 -0.0798246910868432 0.3323178256613474 
0.6045541615974636 -0.4594996244326537 -0.9883973261301182 0.5115851367357831 -0.5024079468673111 
0.004838229764717344 -0.4181619105532718 0.2218142105153793 -0.1261366001215931 -0.06291717064758193 
0.07932253127457721 -0.02717532031378773 -0.4044702828381322 0.1803056487322029 -0.07856088027952704 
-0.3680982890252146 0.5895787370957232 -0.4296629774157418 -0.06084492631776112 -0.2924261661626166 
-0.122972111107866 0.4684757886086515 0.4093341693948777 -0.5276908098596006 -0.07648062842942077 
-0.4007297460733457 0.2598886607281475 -0.2261414287934843 -0.2635045768785798 -0.8963798568588059 
-0.6128017448581786 0.9032512216926643 -0.8560488616163571 0.2525117595908201 -0.1126319089289093 
-0.357068531068824 0.6758415330936121 -0.3035013580886525 -0.0143347381593745 -0.008027113092803727 
-0.03371396346947445 0.05297873462084615 -0.03793884741567506 -0.06513649858893902 -0.01715030514547733 
-0.1195004719576638 0.2370491736637578 -0.1175600106600832 -0.3445426627368604 -0.1062320055622384 
-0.06708385936133097 0.05250719390092077 -0.05963602047595436 -0.1284523574268071 -0.03346600955512769 
0.3161210378722912 0.040403135353688 -0.1415790772110669 -0.08469689072348582 -0.07837960502168435 
-0.1047769323150118 0.2319715931337526 -0.7960444256147403 0.3154607290760237 0.3618513056195598 
-0.7996438978328148 0.457975080110857 -0.385934650550998 -0.226196233102698 -0.5706387739758064 
-0.07729258422738654 0.02356981071338972 -0.0009205206549113298 -0.003219417991646553 -0.009133229008128449 
0.6775487536294498 -0.2533304015968776 -0.5571297771621874 -0.208044724706557 0.02650892520629153 
0.1384652213050551 0.4859485379852628 -0.4093525713004183 -0.172286959643311 -0.1505273309882335 
-0.1240218495132823 -1.148561828405669 0.8493447640276306 -0.5590088152648025 -0.6987237987569518 
-0.01398601548669619 -0.1340013095395625 -0.1753172490542451 0.06945725911893873 0.1686643921969683 
-0.3560756071299125 0.5902613589196444 -0.8631322130951099 -0.09487820863857394 -0.6093959058917945 
-0.02576419474246218 0.007856603571129906 -0.0003068402183037766 -0.001073139330548851 -0.00304440966937615 
-0.4554732065664506 0.09071021021616144 -0.02217385019269493 -0.5226572818719288 -0.6213026232677898 
-0.07729258422738654 0.02356981071338972 -0.0009205206549113298 -0.003219417991646553 -0.009133229008128449 
-0.3049171433955423 0.6247719874938407 -0.02411190763068718 -0.03503950675468814 0.3170320596048352 
-0.06721604974081977 0.4101068486515974 -0.5280179583991458 -0.5729458778498773 -0.6227071407568037 
-0.02576419474246218 0.007856603571129906 -0.0003068402183037766 -0.001073139330548851 -0.00304440966937615 
-0.09285417877016408 0.3158768583728591 -0.1010161999040588 -0.02790641034087396 -0.0524005660270634 
0.1088187446433853 -0.1851105610987373 -0.7711951047489726 -0.4632196795681839 0.5816137471575412 
-0.4527799017863285 0.6385721993084912 -0.5642256047229643 -0.5246255576747665 -0.6639098175795024 
-0.02576419474246218 0.007856603571129906 -0.0003068402183037766 -0.001073139330548851 -0.00304440966937615 
-0.252357524419019 0.1951694069322153 -0.3061068315029141 0.09260819220692354 0.1810759804902308 
0.3028082240544412 -0.3059636112179754 0.3934053174657784 0.1908160313984385 -0.1159460407739516 
0.404567296734505 0.2305086958049326 -0.7154987166940603 -0.1510510767615417 -0.1239571690177223 
-0.05237833752606182 0.01729683763712609 -0.008538993225844647 -0.00224332663197239 -0.006685190457965218 
0.5073534797782244 -0.468278385425543 -0.2131272736813423 -0.4277727911718769 -0.898836738739795 
0.6746553976524425 -0.1402747923676755 -0.2564333903921609 -0.4162876259824899 -0.4253833849059171 
0.4156544723687766 -0.2079102389531397 -0.0569930039430187 -0.6526352642721697 -0.5471887144639389 
-0.4452893926869786 0.7145014412901375 -1.159971569615749 -0.592552396498949 1.019647702398087 
-0.2512187134257473 -0.3292876732835374 -0.01632507570882862 -0.08264171033931098 1.104829362813451 
-0.2092409391048969 0.1809481663928108 -0.6038960877806157 0.03966893777831537 -0.1468679697800414 
0.6255964441857735 -0.06222373462178227 -0.3075577428078985 -0.2022710359087763 0.1075914980449895 
-0.08169565174114379 -0.3215856809605034 -0.06031699842536711 -0.2100629529624391 -0.07106129103586173 
-0.3183155746219363 -0.3164848013781418 -0.7609294473333214 -0.1986127522479804 0.9303940259357392 
-0.1244340909012178 0.08151675304844652 -0.4342477019553527 0.1250005266255346 -0.08476684235595269 
-0.5660671776678539 -0.4774089186648331 -0.5625928521223406 -0.8065487070540557 0.9171083428913458 
0.9943392572241301 -0.4801102984282423 -0.8755447218232304 -0.1461746442878373 -0.6849691652355814 
0.114172632588475 0.06052069689849827 -0.2311398899865806 -0.2051376513489519 -0.2161597260191316 
-0.06798632174181121 0.1539329953798207 -0.1124687979735736 -0.01556209339757487 -0.04814007815874635 
-0.3030452533513289 0.4518396193459872 -0.03039410413820621 -0.5625793827839261 0.1563009528511514 
-0.07163979010538457 0.2077706955885749 -0.1493539762598983 -0.02140339783810109 -0.05433886688337912 
-0.7630108040700625 0.6259031354498439 -0.2249049269866118 -0.6360213999855852 -0.2774157863142945 
-0.5814686872639842 0.297447230770561 -0.3892935865183166 0.2602784525050292 0.1319628275697909 
-0.7448482788898019 -0.0761696794049784 0.4928763473464478 -0.4829676724834494 -0.8262631981581113 
-0.03022605291334811 -0.080883649406678 -0.1253252338083858 -0.004615364124677919 0.2942050549305654 
-0.8577558301507477 0.04582469719298515 0.3918575601972525 -0.8304178563144239 -0.09213894291980765 
-0.2200896988587129 -4.796849062320939e-05 0.3098231245373557 -0.7335053745851018 -0.5109006227384918 
0.1092458748226054 -0.3388773772162586 0.1693383733790265 0.03383404704849153 -0.6432692679134575 
-0.3548033337363765 -0.3017446965692107 0.7412198538043123 -0.4507252095276346 -0.08272805139736476 
-0.001776969329773878 -0.04237214253265935 0.02089180599490145 -0.001450519213268888 -0.009194706119530677 
-0.4173547596692727 0.3147205397154497 -0.1134523198428777 -0.6092172426607549 -0.8668270982388568 
-0.1334340771767892 0.2580387761179046 -0.5569904942847353 -0.2069801498436567 -0.1353686820722416 
-0.3040845384357289 0.3817518243275942 -0.1565882723467765 -0.1653438155613907 -0.2168968820235345 
-0.07198633668848632 0.05983036671406066 -0.09789815004542013 -0.009248517771038533 -0.004804333199615386 
-0.244911122191654 -0.4515807801413217 1.138462093164327 -0.3410038903318827 -0.2856002901782758 
-0.2395413019827035 -0.309783943381146 0.5708788978983739 -0.1255466285816729 -0.1208217982308724 
-0.06557387483314071 -0.03166864093759712 0.1087176125140479 -0.01514403404789809 -0.02792470973493371 
-0.01694457376145898 -0.02385659155881613 -0.1948636795133927 -0.02649931454714197 -0.02427171665715939 
-0.7968676049686575 -0.5010523483663185 0.5035502113728038 -0.2336394224743236 0.8003980045361651 
-0.5957406533834562 -0.2139528541595314 -0.01717959857080531 -0.513457904396468 0.1215804767833104 
0.2818893610284818 -0.4278014387446417 0.2522742553017011 -0.209679827432341 -0.8213579346898487 
-0.5456694526190743 -0.214711386986525 0.9666137416914612 -0.1495942605889926 0.001108147770437633 
0.565542465809373 -0.07382393509125791 -0.6424030097821701 -0.1066547727529014 -0.1735422844150075 
-0.1988293293131649 -0.328163561672472 -0.07723516577312306 -0.588753365314321 -0.0612866001323145 
-0.01967515515031399 -0.07774521438835333 -0.1755648457278417 -0.05517187007826001 0.06512426960767023 
-0.07970876372116924 -0.130948362612363 -0.3240482668953945 -0.1289424007029326 0.06759756081981733 
-0.7604696703459182 0.1414825948449829 0.2203350324130441 -0.3426146255770236 -0.05083042044160551 
-0.2020590878945896 -0.2928535741282707 -0.3401627547398261 0.06846788006432303 0.5675934690557616 
-0.2809847930710795 -0.1214211030173457 0.2711566798269648 -0.1201657900717514 0.2633887145684665 
-0.197078584098452 0.1274871499686023 -0.1562781408130655 0.2215320698502461 -0.2249587436600134 
-0.07250629185462626 -0.3490573313969827 -0.3497039484527423 -0.1136471184289743 0.2978346092523026 
-0.01967515515031399 -0.07774521438835333 -0.1755648457278417 -0.05517187007826001 0.06512426960767023 
-0.2587223990031666 -0.06878949194708815 0.005534070280813666 -0.2496388680322515 -0.2845689742448535 
-0.01361718925967636 -0.0492601623007219 0.0546803722281767 -0.02550785940409886 -0.007133522468109768 
0.1001852292090671 -0.002891937519621416 -0.3272277564264898 -0.07580878010644565 -0.103747930736981 
-0.07558993554052817 0.1921729042796116 0.3977663549335774 -0.1518307597364978 -0.3236852840631703 
-0.2130102671558414 -0.1549806620458802 0.2272352157521809 0.333394503951951 -0.1239943859173472 
-0.01361718925967636 -0.0492601623007219 0.0546803722281767 -0.02550785940409886 -0.007133522468109768 
-0.01432627642835311 -0.06327912391186168 0.07179401485907712 -0.02598966752027599 -0.007285943068552628 
0.1009991118783822 -0.1560904478786486 0.0686062692557981 -0.1399742281231975 -0.3929615610351695 
0.3737018112403471 -0.5390996268811888 0.02449921024516817 -0.269674995853684 -0.2927665806291377 
0.3965622940747068 -0.2140440462528662 -0.4467865035457093 -0.2196665860729763 -0.2345923295775262 
-0.1863590828738271 -0.2640516058629975 0.7215197783464037 0.2880388506119538 0.03125660749014494 
0.2292640509152961 -0.00998965112147164 0.1871247963929352 -0.3151033542608008 0.001373806803805967 
-0.1845006874018985 0.4729347321266369 -0.4113236972815394 -0.2445421053622186 -0.2714504793110635 
-1.090799733465656 -0.02672117259483514 0.9230592821812559 0.01736208833286088 -0.3624743068525435 
0.1046250132970726 0.2024104933817077 -0.4801885417094846 -0.2365227921639092 -0.1736832290394197 
-0.3641287304473604 -0.3649785164562978 -0.4190360622281386 0.3469356767790099 -0.5017329872198734 
-0.3316871353566876 0.1110784545554514 -0.5223306441404848 -0.6754435164243128 0.1173654305904736 
-0.4228514533762912 -0.6084478394894849 0.5180614956591323 -0.2805083651181273 0.5381679207382554 
-0.2269401813113438 -0.2539354288492462 0.4988082345110338 -0.1529032549223041 -0.3110584297966283 
-0.3512276227838107 -0.9813688364863018 -0.844480801299242 1.508002701622086 0.2768191881910202 
-0.4634758467696043 -0.4323454109645201 0.5160388640245442 0.242513408577968 -0.0171750928780132 
-0.5991198836084434 0.3150283239943669 -0.9798257567567863 -0.7177317295818575 -0.152043997019013 
-0.05355041782513347 0.1624274827865438 -0.1078586693467386 -0.06376771710012201 0.6892408252015381 
-0.1222921861677829 0.5208865807714077 -0.4049584279605731 -0.06209221702580756 0.1397113880300823 
0.01555841689943182 -0.0606842684360827 -0.2769170117060951 -0.6461934099149483 -0.4463887657999283 
-0.2124616140762712 -0.3609037512795147 -0.4578752077953928 -0.1273975735903365 0.7529478078076652 
-0.243974365524493 -0.2170784772806472 -0.2282041836123076 -0.118901040929223 0.3358018748234932 
0.4846501756726826 -0.1407825924173718 -0.2270586880969435 -0.05101905596973966 -0.01711832412593001 
-0.1709478645948981 -0.06155298052401352 -0.5300562629260294 -0.2186319763965534 0.5198448095111398 
-0.1228087439619688 -0.02879187446200198 -0.01415729745504276 -0.03563379643247531 0.006037628339228791 
-0.124556792955576 -0.4659831922578832 0.4603366449429835 -0.0648110682111991 -0.07058068352975312 
1.462866661268173 -0.8660365318930893 -0.131516389572223 -0.8182065992315786 -0.568386030968796 
-0.4657767481185137 0.6809996121089138 -0.2534106828632369 -0.1074825380237103 -0.1011366960462494 
0.04907294361159315 0.5184018300306101 -0.8942422517435819 -0.2002295505797392 -0.3756750068343478 
-0.04323420261335663 -0.4309667212875253 0.4446058140816987 -0.284625149366214 -0.3845656699107878 
-0.6195992882910603 -0.8145226645639942 -0.4124886730789958 0.7413992150225053 -1.098970660963466 
-0.02043157204874054 0.3742123377942211 -0.66781116091834 -0.4477839609739822 0.4907223466059235 
-0.08457588915591334 -0.3959106334966487 0.2477171235428861 -0.03825094779405199 -0.1818588922307357 
0.8000959398603739 -0.3452136753812197 -0.678285314816743 0.1266774708660288 0.5587752497358222 
-0.2427041562213702 -0.2135589193163017 0.3274063425168031 -0.4377584497728087 -0.4851859951416717 
1.375071825425584 -0.2288189115179644 -1.086785226766666 0.05215518368907823 0.04225410139692696 
0.03047006961228209 0.1187550777763834 0.4329226556881029 -0.2153952101751021 -0.1827655222786989 
-0.1324300218476094 -0.3070466730974349 0.6446567646658387 -0.2845715656632541 -1.108974273500317 
-0.42426313166102 0.05962932542375086 -0.4968467625399046 -0.01613933332557805 -0.4235321727517738 
-0.05590660445827269 0.2007720166610095 -0.2667963803542486 0.2078973664197796 -0.4546089586805663 
-0.3907615326934343 0.4578598642210144 -0.3349881054020777 -0.5847732808158456 -0.4737017403437688 
0.2234725149942491 -0.5394098587169632 -0.007035823207152987 -0.05725318525430155 -0.06713101484797727 
0.4229613391948737 0.0763606293700733 -0.8907766479884832 -0.402804383221555 0.4066264126946708 
-0.2067545534756172 0.6350773175562969 -1.07215027213973 -0.2397713854086452 0.4874760268367034 
-0.5041415072099649 0.243448175581292 0.04200290031939261 0.4256666818628972 -0.4314529959392124 
-0.6327993874326326 0.1963176167570202 0.1657016690004618 -1.120418473368894 -0.2944606362380339 
-0.3455678013115506 0.03117224031165891 -0.9366853817108507 -0.4357846718988283 0.4238235342175728 
-0.2354000835891935 -0.2300737367668808 -0.208609545686249 -0.3663964988622162 0.8024108618601208 
0.1078933762245554 -0.4148821787172474 0.04444970170331511 -0.767328660096172 -0.402541501679123 
0.06482851002280626 0.4198189564302094 -0.2948880104418547 0.0590002638557455 -0.04588455833277155 
0.4721584343632283 -0.05331092681772912 -0.6056749724316897 -0.5209609092306912 -0.3306900594484706 
-0.02232734014691084 -0.4187537235623346 0.6679258597650677 0.01834767309418576 -0.1563173300576781 
-0.2080185980899371 -0.02636831312776268 -0.9840247124316298 2.028178963382069 -0.8262260850790942 
-0.3913559423775307 -0.4133629959215263 0.418273113007927 -0.2127318644743568 0.4126989109867159 
-0.2663022198268362 -0.300787889162475 0.5898577754718912 -0.169723321745389 -0.1276360031970598 
-0.2416947841066902 -0.2019343584422244 0.3985904179406242 -0.1351137647037702 -0.07393475191527378 
-0.2428656711442962 -0.1944680615953887 0.3969312876174045 -0.1384104174186449 -0.09748768980027274 
0.5247600446940872 -0.2554275504096449 -0.3761850206981404 -0.2491170522004788 -0.7512268630098725 
-0.5745082641839094 0.03573664973270647 0.3645029199010549 -0.6142549154044475 -0.07502340280585913 
0.2903030618567051 0.1949471631570024 -0.517097831035624 0.1476833178258646 -0.1816489582843598 
0.1141976450375539 0.04190000446540844 -0.08038380941475043 -0.1932033193679979 0.06042278813873022 
-0.4339400255947866 -0.2840015501209102 -0.4073344276393868 0.07835320761503178 0.4377790357221873 
-0.1836105013582616 -0.01037646770664651 1.028468910063726 -0.01370608623380101 -0.4158299357999032 
0.06531485967853687 0.5372664502746484 -0.2398021922458285 0.1975809759276063 0.09915081768002608 
-0.3730048829346893 -0.1474097430246891 0.5600292955792097 -0.2286047415435433 0.02115839678983933 
-0.3965007241714202 -0.3817115268656731 0.4277589871229309 -0.4447388654876495 -0.005658540326774644 
-0.300262267234382 -0.07388010328002276 -0.04021985412547245 -0.1506989796812621 0.2102432319799535 
-0.09071627341166606 0.525959053969432 -0.3523968788999796 -0.4298263190337004 0.3352123193896854 
-0.3270291191394191 -0.2074813088916797 0.2372391972833076 -0.07150761337217872 -0.2000130741687886 
-0.03036573657813644 -0.1284511329077113 0.1220519445109931 -0.009685838090058364 -0.06057146957132246 
0.2357088227792195 -0.2674663635448667 0.1102249030505144 -0.2481083477410359 -0.315582776764676 
-0.7347247838817265 0.1918511546376662 0.222071267005907 -0.1361635213885456 -0.03397830793749763 
-0.3216650291507372 -0.1607908338372178 0.1329312491783443 -0.06001914765348045 0.08434011182814742 
0.3143601620647895 0.09810314289539532 -0.1257366581279226 -0.2386177506251185 0.07899249995152764 
0.05838347139937904 -0.0896190849961867 0.07087582877616547 -0.04019335992595738 -0.3499699947840928 
-0.2643017648743234 -0.6021990755962503 0.2857890453387405 -0.1309710860814187 0.03767072997729398 
0.4207859388967524 -0.1251083523142339 0.07859831633814059 -0.03849966971579385 -0.2381028449953123 
-0.3083858755600622 -0.04313538960547855 0.3184443312002254 -0.08988012516218613 -0.3516508862471685 
-0.06285835766877541 -0.1501500044332481 0.2729026864958714 -0.5092031731442058 -0.2780740511137041 
-0.1821010272270412 -0.0576895353816831 -0.4497851239113747 -0.02901379594381473 0.5640627190768863 
-0.1902404853457428 -0.3474901666383927 0.1219698434957801 -0.08242667624217406 0.5487805577489164 
-0.1073960199290719 -0.6899015527391675 0.7854914095796764 -0.2611039620742036 -0.2293752885263153 
-0.3774774999985395 -0.1415507081757274 0.4441219916553994 -0.09954682306049152 -0.2438286753505092 
-0.6443483600910034 -0.6196477029536349 -1.319991607619988 -0.4778247141937135 1.667100096673108 
-0.3650281863213705 -0.4677821790467064 -1.235495896380563 -0.1834035669326 1.039368543657204 
-0.4172224554260991 -0.06604372547754839 -0.08399520211778423 -0.1408691372903403 -0.2175804266744146 
-0.1161112062138992 -0.1063113275364389 0.2343536804478122 -0.1182881163038872 -0.1091280240924461 
-0.1689445165087349 -0.325673785606976 -0.2989493107279901 0.1471640478224691 0.1172548580092932 
-0.7211538384487178 -0.7068431438683859 -0.2108826703851125 0.7786593130037291 -0.2517004351965362 
-0.2196209626994024 0.3432418235882139 -0.733118076081835 -0.19059896324796 -0.4640695897786811 
-0.5191784196796506 1.025956057052824 0.09862788906911742 0.3345729662338335 0.7617061692139915 
-0.1415513696134975 0.1308727968303106 -0.7092893046877472 -0.1552299944243061 -0.001827152424581133 
-0.07960607468625028 -0.03802536081743221 -0.2194456624006295 -0.2669221551500195 -0.7919061066170302 
0.3308689244114709 -0.2122270133262655 -0.2759808136829031 0.1045096156393659 -0.3380255914695505 
-0.4386330054498877 0.364829903097336 0.3346640314754034 0.2345072298108653 -0.3410985471031182 
-0.8447628619532458 -0.6492366450918825 0.832430677314306 0.00336855036311097 -0.18990639672391 
-0.7755240003864394 -0.65157831098184 0.1021795950538121 0.6213427312977361 -1.237630323794749 
-0.758484063802776 -0.05474055709792006 0.7509737891393062 -0.5572777048086243 -0.2152912051808092 
-0.143780016156573 -0.1651175158867127 0.1794722945616554 -0.1367220065681628 0.253441958633767 
-0.1277275977858085 -0.1547353578259748 0.2721271663385977 -0.071255428282853 -0.04034213264913332 
-0.008057894093651244 -0.03039391176218648 0.1352353048176906 -0.04195118419536866 -0.03773932195324448 
-0.4098319580801448 -0.1358337121821111 -0.4645805127784718 -0.1041010217640043 0.5085538122521427 
1.304872025583221e-05 -0.04715432609501052 0.06666456971697693 -3.738361166458651e-05 0.0001219076658645672 
-0.1378724418341708 0.04690199672324596 0.483472795913109 -0.04687926646223743 -0.3612372873539655 
-0.4636902307683263 0.2868958937174171 0.1836924740193728 -0.1945972174791117 -0.5796496290730042 
-0.4030668130451983 -0.4003247457095582 0.8755902200161908 -0.4527764344341748 -0.8280078382688945 
-0.3632436032640303 0.4124346972777294 -0.3908645224685133 -0.1938483949644673 0.1108394857983903 
1.304872025583221e-05 -0.04715432609501052 0.06666456971697693 -3.738361166458651e-05 0.0001219076658645672 
3.914616076749655e-05 -0.1414629782850316 0.1999937091509308 -0.0001121508349937595 0.0003657229975937017 
-0.6636993417404168 0.45607728821665 -0.431999014400256 -0.02635100698708398 -0.6944243410683494 
-0.1473249906505845 0.3354195769185797 -0.02356376422880755 -0.07869190158854233 -0.1276964412915166 
0.1712174545589646 -0.1621753998265172 0.03565382257570562 -0.5300226360926669 -0.1774434309035141 
0.2460520885568791 -0.2895664190223378 -0.4932097477237093 -0.02224955662003734 0.7783014931630104 
1.304872025583221e-05 -0.04715432609501052 0.06666456971697693 -3.738361166458651e-05 0.0001219076658645672 
-0.01902340052394332 -0.05051854894140428 -0.1074382584586863 -0.01445956198916418 0.03783798465725378 
-0.3496935545698407 -0.5370574010767657 -0.7969618181735222 -0.7004406923638364 0.608322381419986 
-0.5904310917895595 -0.2417686783160621 -0.5319377411354301 -0.6310119730390732 0.4579404174471445 
-0.9636200740022103 -0.7310305939509376 0.883412465577428 -0.2237612654743361 -0.02542971329490059 
-0.4453637701898535 0.3886270765780127 -0.2672308054945109 -0.2508928638250916 -0.5115684751592897 
-0.3386989264833795 0.1265536075088847 -0.5824987404335015 -0.05064424505602568 -0.1458194895181963 
-0.4762927712158308 0.247941959508181 0.2378402488322617 -0.4746824503713145 -0.2922505922449469 
-0.1914731753313776 -0.4394900908264248 0.5771781230270521 0.5399771609364655 -0.5796369636937024 
-0.1282383557342165 0.5043856568544038 -0.6295545836592275 -0.4305057892600978 -0.4415596263560237 
0.178643917788153 0.3198929325928646 -0.3819465171707163 0.04953116478759533 -0.1432692393699729 
0.1212950257178273 -0.1775962308680207 -0.1022041057340485 -0.1081436079850815 -0.05557020971135708 
0.08977098585902099 0.1524418263686119 -0.5569220918122074 -0.06652874538675208 -0.1065605859599285 
-0.2095794474220289 0.5967132923442796 -0.5456268217381666 -0.1977260516792072 -0.03503219065829983 
-0.0004266881062122057 -0.0001841188879179452 -0.0002421579054770489 -0.0006913452554737686 -0.002464954865616064 
-0.09752586139117329 0.2158396127256957 -0.1277134255315609 -0.1134999972041807 -0.04710450551897467 
-0.01874361317888985 0.2417717157165321 -0.1735337539668761 -0.02226336866314946 -0.05214263216219854 
-1.171090777449854 0.7043668835547124 -0.55674847321487 -0.8082331225181757 -0.622566205935194 
-0.4168103153588034 0.1924274201171045 -0.7331788433378007 -0.3033917308481369 -0.1809427734393826 
-0.4713895217055947 -0.1943064687065775 -0.1727102596100256 -0.1763733637585452 0.2351458923050128 
-0.01300793638516604 0.07833934270731549 -0.006531015486227408 -0.008792479436785332 -0.01806266628004712 
-0.4283853938054998 0.2729155173873284 -0.1398981527329357 -0.6175211866725547 -0.4446122094409523 
-0.08813873221597833 0.2409659188727251 -0.3237700146771545 -0.02585704092483762 -0.05995116393032861 
-0.08813873221597833 0.2409659188727251 -0.3237700146771545 -0.02585704092483762 -0.05995116393032861 
0.1394324534238356 0.00166903411774923 -0.1414336989499179 -0.530510119540528 0.2424771135918159 
-0.1489527779722458 0.5949846509120615 -0.3053357373618637 -0.4891814881192602 -0.2089568575860918 
0.1292584383248669 0.1090318867038941 0.6069593651053644 -0.1215428224885907 -0.06294388864382491 
-0.005291592839804431 0.04427569427976409 -0.01804290337618151 -0.02460379360831712 -0.042129545004464 
-0.4973763063122061 0.2057523210083876 -0.4141919789716186 -0.08187691662725105 -0.7263491076259251 
-0.7886808826267254 -0.6621224226769773 -0.5940078361203032 0.001081045646344906 0.9506508697292222 
-0.397740034603116 -0.2220534251553598 -0.1981279510834158 -0.4568169260725691 -0.1603596818087536 
-0.2417039753071564 -0.04079672892932137 -0.06764961764520275 -0.04366384260981484 0.2288114594834647 
-0.3205642099672821 -0.1077135950743907 -0.2269764499537359 0.1076020163514968 0.1570494931439715 
-0.2829818376765507 0.6118743352789252 -0.4685781005771168 0.5265747271833101 -0.2001328420543077 
-0.09194120930449383 0.3721443994491717 -0.05828876233751666 -0.2539691425061565 -0.2803569445369109 
-0.09214266799841023 0.3994289200080381 -0.0599080393547906 -0.2560412000084432 -0.2835676554611513 
-0.2718728179914019 -0.1403716635464706 -0.7335835772508285 0.07284713511721913 -0.5318240217163407 
-0.03064706976816461 0.1240481331497239 -0.01942958744583889 -0.0846563808353855 -0.09345231484563697 
0.2440861548501798 -0.0589501646931701 -0.05014201711993597 -0.1355774171616959 -0.1539747236113285 
-0.4226682340368865 -0.1990923070864594 0.157575099881939 -0.00895698020797334 -0.1023409830487674 
0.1544594567490205 0.7843273813326473 -0.08644218292243364 -0.09957442610676792 0.3892454298949133 
0.78108866574462 0.1268129713260488 -0.3993981011686397 -0.5536947785072081 -0.2637201380008662 
-0.1692551871578342 0.2365364845631798 -0.4245137055034237 -0.03927241599570752 -0.4738471954736226 
0.2388266396050071 -0.2688514386719725 -0.3229328669488934 -0.1308893899547331 0.03177319485998084 
-0.3364887481911515 0.6821391822985312 -0.1220579730582766 0.1156740507193474 -0.4724250204116189 
-0.09299915769382278 -0.02778036275072582 -0.06229140512696687 0.1978013103662181 0.2560194823755413 
-0.06702098543911163 0.7535658765763601 -0.4305945188146946 -0.01120064940878842 -0.02508177934793784 
-0.1258916254758546 0.7263607121676044 -0.5290752446677125 -0.01266004268044389 0.2194101542254935 
-0.1412273491633285 -0.1248213592841831 0.1479340321796402 -0.4383229541737376 -0.5126183267306034 
-0.4101207533402964 -0.01844893974181672 0.4842483279465231 0.0248593741621079 -0.6261941719872498 
-0.4202241827992528 -0.2111818890768403 0.1598176720047422 -0.3117235408329082 -0.09786213896234493 
-0.3496419581059219 0.08207105105073728 -0.1434128814680936 -0.8903357203841595 -0.2739463243267254 
-0.04795262810208557 0.06667558937192863 -0.2746966775436539 -0.09196335185584031 -0.1808987553797978 
-0.108941202519829 0.1903973553597468 -0.09759933326781593 0.4986838443615443 -0.3918580133903133 
-0.4480777033118725 0.08924591103488649 -0.2832559434787703 -0.1451677981242112 0.3546589299934745 
-0.1829628794257076 0.1301066356911036 -0.2339824602166574 0.1936878657864863 -0.0349079201200323 
0.04934794469704754 -0.2660833233644385 -0.160016017176466 0.02121422268571219 -0.03985989328246169 
0.1336922225426634 0.1669811242912861 -0.1598905663276249 -0.1488854303853286 -0.1519667785406409 
-0.04902527057168932 -0.09378181608329694 0.1617689687053774 -0.08254862009535592 -0.1400667528618992 
0.6642782132649429 -0.01608512495648239 -0.2360766735059543 0.3176500166242568 -0.7727615219003997 
-0.2673116378995913 -0.3828130144772567 0.4019255556085407 -0.2630784773247146 -0.1564593130259777 
0.5881054389685498 -0.6225010342482552 -0.03523861415672092 -0.6110722134425072 -0.2830674400717827 
0.01422681653436618 -0.6520888048744142 0.4774754913528859 -0.1439769392180967 -0.1368736628743716 
-0.3203038199840464 -0.08695165944132566 0.3412031459945902 -0.1478330224092435 -0.2973242419439922 
-0.03414157836525919 -0.6052385925505275 0.3012581003926387 -0.02784826991350894 -0.01486602789140997 
0.09101393339615092 -0.08431235516724227 -0.08777533169822027 -0.009473929556049277 -0.01576393342638664 
-0.4390713878706652 -0.07303867932191019 -0.02005224379103182 -0.04275794889215582 0.1288083141921159 
0.09101393339615092 -0.08431235516724227 -0.08777533169822027 -0.009473929556049277 -0.01576393342638664 
0.02811322660415004 -0.2348951129432114 -0.08961627875314475 -0.0114190362231513 0.3331376859458356 
0.4167069357206616 -0.05542607298069931 0.1106271304737182 -0.1885748555927837 -0.2356676423452627 
-0.7595516062295763 -0.4021085171908482 0.3055045290156239 -0.1947491177687109 0.4511082926013551 
-0.2883747409231242 0.005947900035523732 -0.1093441150548432 0.08579681426272397 -0.161303176923237 
-0.3782934263798444 -0.3332754183443513 0.527047361011958 -0.01151043735263965 -0.2243116029231578 
-0.03896791416740943 0.05195730480592148 -0.8553500053167823 0.03031678542922993 0.3413546400176182 
0.2145354071852423 0.5049547089059511 0.04515781266541528 -0.1833084469608388 -0.647630417161999 
-0.6035142683496411 0.6379065471851236 -0.001141647795795693 -0.0160862713106249 -0.5217199427622483 
0.454290183387379 -0.2784648319787475 -0.2356426136559868 -0.2529422816469789 -0.1143697119706797 
0.01052250319281721 -0.474788001949683 0.5463355069735877 -0.5504658701675504 0.1574085991941864 
-0.7224638698582216 -0.2019167099716219 0.2598099681593117 -0.4196584844720294 -0.6215512252515228 
-0.4409412308448548 -0.1620763366553458 0.3933250014046473 -0.6344570759255823 -0.3168155663669629 
0.302524648414745 -0.3789121270002303 -0.2752106014152879 -0.3557112470050104 -0.2677395428133498 
-0.1421364873820107 0.08531818349226203 0.1579396436375954 -0.27481004320087 -0.4910066348865862 
-0.6462058821469541 -0.1119342289135925 -0.1399579293415109 -0.608338346228433 -0.5488560508775416 
-0.0009356406075440053 0.0117912436679632 -0.05443188370878824 -0.1085877404601138 -0.2982512048175995 
0.009179497263791667 0.2408721250619091 -0.01499753788005385 -0.01483641552116499 0.3874827301495249 
-0.1949792574444368 0.09139083812273754 0.2582273120031427 -0.1057424246427989 -0.07585164245255986 
-0.1483964635452553 0.3931321750266963 -0.5160557313840254 -0.2378389395174018 -0.09957891748694332 
-0.4672009321706485 -0.01539707924284646 0.09049329112215392 -0.04044336908630187 -0.7437477138009218 
-0.2805321046504996 -0.845579766735192 -0.05020218674515028 0.8648216873040505 -0.8608552136094401 
-0.3975356663884997 -0.5736837073154962 -0.3577725144715085 0.4155213460385976 0.1233505835682839 
-0.05001020151612948 0.0625032742886075 0.1538550846138843 -0.3460729082938447 0.4647574148776332 
-0.5628613798187413 0.04851765871611913 0.1531343176090199 -0.1487590514330609 0.1789701912627582 
-0.3488332624184328 0.1548736098232263 0.2483440563955967 0.08279965234348204 -0.7098446887298575 
-0.0947387536027386 -0.1062670414129861 -0.3674822437899315 -0.1611835947659755 0.6905417726084142 
-0.5619178436350437 0.5758418412049701 -0.5097305193821043 -0.2958351441545085 -0.2457540079807725 
0.08718424465363059 0.2180917336159346 0.1642615074850059 -0.3902523828505546 -0.03021393671167816 
0.2274794540044018 -0.4226836406388318 -0.000704625963630594 -0.00126767637817434 0.3969355054820498 
-0.1454118818522958 -0.4618589334017111 -0.669716153255676 -0.6902890585106027 0.8155095768023047 
-0.1712942776699825 0.02609771102823053 0.2564524979750725 -0.1221024273940202 -0.2082753422507316 
0.2474011583612118 -0.4574370677105803 0.1588747718784247 -0.5587271855661965 -0.1911018517680573 
-0.2782917527427043 -0.442419282646513 0.821060028694882 -0.1758459279276805 -0.1628399142324924 
-0.2206958164067347 0.5194139624570779 -0.6567437200432532 -0.1441297524111894 -0.1793202682831003 
0.2771911409226397 -0.626941962935029 -0.04351470498736446 0.2572974033640444 0.09474868799745742 
0.3450290927782199 -0.05999380878894786 0.6722026981395156 0.2610360493143961 0.004027298869299572 
-0.3162214198937845 -1.137681182167431 0.8898080043225741 -0.03807599137135516 -0.0623854447118348 
-0.02760569071440902 -0.1273506271283277 0.1917976790801563 -0.0578313007889258 -0.07237391364259071 
-0.07222933053434148 0.1054535524926699 -0.02393408511166194 -0.2666932332723487 -0.02119675732232664 
-0.02407644351144717 0.03515118416422329 -0.00797802837055398 -0.08889774442411624 -0.007065585774108881 
-0.259263230670803 0.2612915053662545 -0.2048136666355235 -0.2554197013730409 -0.6422048225074821 
-0.5035418494131442 0.447726583874169 0.0606092563659587 -0.003511021588087516 -0.8488341059943637 
-0.3446441365721469 1.324374902512393 -0.8159632628729079 -0.2242775247839548 -0.3181806037788943 
-0.5944088313277012 -0.3532550071990634 0.2497077895404792 0.1697357585659459 -0.4179568126865257 
0.3285173131864364 -0.01287180505003457 -0.06315020084736644 0.285939031064779 -0.4843318185154791 
0.4009043002426343 0.2012053949768911 -0.8917225570586663 0.5525169023490851 -0.1103590783051497 
0.5012622091812761 0.07936290775267661 -0.1815657225190518 -0.08378761048029144 0.185247847380262 
-0.07466766025856908 0.1659124263710751 0.4389355769222111 0.2090846310478943 -0.219715959777879 
-0.05227170221806073 0.1203319980220577 -0.1330734187183501 -0.0227324555742331 -0.0573281807340528 
-0.5015585300094531 0.1816582049716697 -0.1825981066567801 -0.3868190043045543 -0.04360838685430429 
-0.3406457157892199 -0.3571023576056458 -0.1046821836762698 0.6118727022046248 -0.07714689350791204 
-0.1416420886186537 0.2932029092433259 0.02958108331506887 -0.3326596717502557 -0.04425962110944853 
-0.1048014617998276 -0.07244067247264123 0.4251128042876777 -0.02486954453564955 -0.01499292509489852 
-0.4186285465526938 0.5715164617388652 -0.3346110185370053 0.3828021059935284 -0.3013328520573743 
-0.1611681639623124 0.5268292572819712 0.4273615861105683 -0.1668167710073721 -0.305739367291138 
-0.02911581857644428 0.1516695378492944 -0.4440798000482184 -0.2196719240527564 0.3772545976831185 
-0.07364160237097911 0.4009660237623365 -0.6640835240793814 -0.2881631147709363 -0.2872540186386696 
-0.07208067477309339 0.05007789647135789 -0.04534395261119957 -0.03949696984595183 -0.01942035004935785 
0.1853061524182683 -0.6358330227184316 0.4302840295488005 -0.2359844789829034 -0.3849750737821718 
-0.1001702447292528 0.0100215810271219 0.2311950850918317 -0.1569490106540057 -0.5526245301685029 
-0.7657639215184696 0.7344309960218902 -0.8249982267680694 -0.4462704319200033 -0.5537804310930041 
-0.2665257623141965 0.01608350446344349 0.3713671090628053 -0.4128938356939686 -0.4981491640179368 
0.04481622917501141 -0.4364508810499101 -0.4917692787163244 -0.2518084395111679 1.380064577128138 
0.1671615360597297 -0.01540378850913931 -0.03809319587080789 -0.001147059932942506 -0.02033127755961893 
0.4836689578883854 -0.1984663473510757 0.204840833371318 -0.01368031269852354 0.0925642659143493 
-0.2567063918730194 -0.07228618082566973 -0.2548468851394021 -0.2310589274120804 0.1249752239258967 
-0.1980102183943638 -0.1865435247494402 -0.2917168589259048 -0.101065817012935 0.5866780343991072 
-0.3915398899961551 -0.00421556203720685 -1.278325043833113 -0.3361710323093691 0.7294673234120482 
-0.1899412443139726 -0.1303189735581541 -0.01254991617022231 -0.09881843443777195 0.1243582853941338 
-0.2182742646016063 -1.0209091839331 0.5369861229529475 0.3684457169929283 0.2533583215750895 
0.670372092990465 0.150654359501383 -0.2767728418193067 0.1695968001377451 -0.4165610344017535 
0.3177550118115983 0.07984039575279457 0.03634217283030623 -0.09263310584325243 -0.01551248502925152 
0.3933658422410503 -0.002434441113078224 -0.4740532371764653 -0.0007066005344452187 -0.007545008778813201 
0.06403193708940898 0.1762137272395408 0.1770306292919312 -0.2478176342721052 -0.5211103318817467 
0.3933658422410503 -0.002434441113078224 -0.4740532371764653 -0.0007066005344452187 -0.007545008778813201 
0.3933658422410503 -0.002434441113078224 -0.4740532371764653 -0.0007066005344452187 -0.007545008778813201 
0.2680078434533109 -0.08113585622305795 -0.8957501304968628 -0.05379419529030967 0.03381245401487282 
-0.2445837748807794 -0.527136706399264 -0.3849304233779654 0.6329217720825727 -0.5418588804597431 
0.0003760047927801498 -0.2279655495507974 -0.0321945612093756 -0.2340911119692149 -0.3136358573038467 
-0.008738111557138276 -0.04378902077748263 0.06477422440919196 -0.01011870636171724 -0.05027833564261394 
-0.008738111557138276 -0.04378902077748263 0.06477422440919196 -0.01011870636171724 -0.05027833564261394 
-0.8335213359129432 0.3998764407500408 0.4453994981468909 -0.4128323016694177 -0.09995977772849232 
-0.1512625915912486 0.04963104720643946 0.0632180638260223 -0.05220384180428095 -0.07160124508671649 
0.3950176296158813 0.1182474556150204 -0.09858894498395392 -0.07970523760761643 -0.07897418345708485 
-0.9181466474566313 0.9944461453125641 0.3339423902911374 -0.2563689153063241 -0.3110563596460615 
-0.2006674905225423 0.149565849146794 0.02502153553134027 0.1904769370765033 -0.2688450711069135 
-0.03102664436723437 -0.5367309440352677 0.3209250796186388 -0.04870236510441176 -0.04075645821817848 
0.3191058054489621 -0.1069508887289104 0.1150786541760815 -0.1672397788014582 -0.157234339401689 
-0.2095161278030742 -0.08210737702076161 0.2492439220792234 -0.2362437707711294 -0.2630235243208491 
-0.1130879288229378 -0.5858416092934112 0.2136691519727629 -0.1861197042947436 0.6366833475031268 
0.1722552968712973 0.1069593300483092 0.1638771503319751 0.6887232067676524 -0.2812478940233806 
-0.2471541368194782 0.01376032559683477 0.04644410951398607 -0.1229181974681172 0.4661773709781054 
-0.1600390411441303 -0.1494748857762927 0.4453803795613136 -0.136604886406429 0.1117304335295858 
-0.03780781811853073 -0.03755131530495946 0.1196844023208987 -0.002873193381977142 -0.01246436691737606 
-0.2284368769353343 0.1838184546364454 -0.2238969524368183 -0.6541479917270652 0.0576178466719745 
-0.08064769018597201 0.09996399253761497 -0.09312476308538421 -0.08152947962595067 -0.06151478214249648 
-0.1748315812419386 0.2241053278137165 -0.1180496373276063 -0.197518184757338 -0.1448209266767885 
-0.05827719374731287 0.0747017759379055 -0.0393498791092021 -0.06583939491911264 -0.04827364222559618 
-0.2148399876153534 -0.4889374279870242 0.904981358855953 -0.6230984741887525 -0.4806710807560702 
0.231856128345493 -0.4932074992271067 -0.161069031238758 -0.1488085456425127 0.1577549669193444 
-0.08233638690927153 -0.2475414142442744 -0.6136459476659346 -0.2668813136210421 -0.1497290910416554 
-0.3181065354005937 -0.4429383677676846 -0.1899437666355916 -0.02365587053747225 0.6112289894015582 
-0.4187790344716469 0.2161381861892558 -0.1583697204156188 -0.2934861822285224 -0.4389837507797006 
0.05451905656860632 -0.2461316201556971 0.2051885804645263 -0.2168023695892362 -0.3040749182835557 
-0.3163641764901621 0.9108141222552699 -0.5694098493276981 -0.3965315251967062 -0.2432686998120041 
1.12713833132032 -0.6484413504896179 -0.1766005168759892 -0.1959142498335784 -0.3886837564154046 
0.2880198536687432 -0.8341293467163503 0.3886292813826224 -0.2342719920295053 -0.2770963767201086 
0.4975507039136606 0.09055223954245134 -0.5134612297675092 -0.1012808620612099 -0.2963786759305119 
-0.04330525943215883 -0.3342781497706289 -0.2295963758263504 0.3112343531517868 -0.2671930468515912 
0.3568046610410512 -0.01366166444850938 -0.2862313636596806 -0.007043804829054363 -0.009843967873084031 
0.6215561441023786 -0.4980463583508004 -0.2950240879227648 -0.3624205197989744 0.0629211776396032 
-0.3246565192428616 0.08662130142019694 -0.6638927261337473 -0.2753279766010749 -0.2118748413661578 
-0.04901608167744413 0.375410176928025 0.3556195735001247 0.05090430539833481 -0.01667132553962261 
0.3097679996801168 -0.7184917585164944 -0.1649927184119536 0.2437597059655365 0.01827019178990731 
-0.0004442526840463314 0.04033783184990613 -0.06897409682062715 -0.001220132211942064 -0.01137696366863642 
-0.8928611478333536 0.91546013598257 -0.6731945594071399 -0.2286321821883111 -0.1786513622551367 
-0.2904362162121583 0.2222503705931271 -0.1093156707811864 0.07021137597746457 -0.0439890125266369 
-0.3658044401962913 0.2002327745075282 -0.1232624081568454 -0.09052519950561976 -0.532381087719682 
-0.0004442526840463314 0.04033783184990613 -0.06897409682062715 -0.001220132211942064 -0.01137696366863642 
-0.0004442526840463314 0.04033783184990613 -0.06897409682062715 -0.001220132211942064 -0.01137696366863642 
-0.04156942531023797 -0.1113037315156633 0.1273885734154458 -0.04293546042005802 -0.08152542082068251 
-0.1124399715112622 -0.07175662814655394 0.2195966912528253 -0.1818381649611332 -0.09332283956941012 
-0.1124399715112622 -0.07175662814655394 0.2195966912528253 -0.1818381649611332 -0.09332283956941012 
-0.1255183294349778 -0.1758429297082315 -0.1990781166667693 0.06609926698380886 0.2577080691339017 
-0.2865383996823478 -0.2674288416150917 0.4368548143980149 -0.2188616680555134 -0.325230867497526 
-0.03397621978576571 -0.06311943888099864 -0.08701365591001892 -0.01451840708351831 0.08261506117414689 
-0.4587208556707388 0.2109457841874768 0.373308552488066 -0.2306028069348371 -0.02942233242653469 
0.2043557574563414 0.03737019893509564 1.131338955239322 -0.03863476061938867 -0.8626573377161607 
-0.2027128887790147 -0.2148442422163176 0.07580439212259242 -0.1409429323753791 -0.1490768425187661 
0.3280651821574564 -0.8315511202209604 0.5649912776257234 -0.1961744591996681 -0.08738652175748368 
0.4026556925696595 -0.1282297992284127 -0.4597414232901614 -0.04924696798486749 -0.0242958306077232 
-0.4255735348666402 -0.844026648331662 -0.4597198024738918 -0.2930829699646459 0.3448723358564144 
0.07990694758654304 -0.4163633004516643 -0.09670206702875647 -0.6688148719553706 -0.008205020517091623 
-0.4452148615398084 -0.2202673896367459 -0.08716852693309922 -0.08031756993967087 0.3763411157079701 
-0.6200771470953607 -0.08464043397781833 0.4008294467097187 -0.0631715346133314 0.1276858414594823 
-0.03512170384691893 0.2286174251220765 -0.1498848040865397 -0.09878295018468437 -0.135234771404168 
-0.7787219551843614 -0.571190828434412 -0.9959765526057348 0.1515305482932164 0.5294112391164743 
-0.1004557426775329 0.1510748444230002 -0.0006732791819543961 -0.007040283815609781 -0.1012887884717273 
-0.1004557426775329 0.1510748444230002 -0.0006732791819543961 -0.007040283815609781 -0.1012887884717273 
-0.1281930405081048 0.09657966551159813 -0.7375171921057833 -0.05736941577217943 0.466259039976007 
0.3284127685460894 -0.101676907300474 0.05007986058177685 -0.02659059411014136 -0.7690075587782661 
-0.3944114490443563 0.926099868678172 -0.8581719622890041 -0.2226602598873313 -0.2392867387448606 
-0.01714913765513575 0.3451434895280295 -0.1605914403948648 -0.01089856020993577 -0.03666081811998853 
-0.005716379218378583 0.1150478298426765 -0.05353048013162158 -0.003632853403311925 -0.01222027270666285 
-0.01381161211003691 0.1645291996231212 -0.0538936642956478 -0.02138107121547271 -0.01437389405362753 
-0.04004112797668325 0.1039827716447096 -0.02558598582938755 -0.01541276071197572 -0.07513874735510621 
-0.43394735552053 -0.1260503257162701 0.3968602115595745 -0.2091980571199805 -0.3787323911215744 
-0.3187651628974951 -0.03060462951233129 0.4809953818077226 -0.07647869709339333 -0.2418007150286222 
-0.05655623912022206 -0.1485387795819586 0.5219462816335843 -0.06127512901847839 -0.2848583919630895 
-0.4718108730867772 -0.09600787570700473 -0.5287891576870318 -0.69574527150201 0.3840151522867912 
-0.2167962304652296 -0.09538170816741946 -0.1877842626862485 -0.0268743751645647 0.1730939737477879 
0.5670817910623925 -0.2840544685556884 -0.5024818248342041 -0.2532177057806375 -0.2673768250923466 
-0.4994392210086669 0.2574565608099862 -0.6865674778414762 -0.4340938196452834 0.2090301112743462 
-0.09275547231820815 -0.598604298164751 0.08840157042491674 -0.5248221746030481 -0.5325137007191494 
-0.05848729925972299 0.228336388584877 -0.1687267262594345 -0.619559300965681 0.09538115235478598 
0.363719311979132 0.2888302717667415 0.5561104988797485 -0.03245696294628599 0.3032433853090455 
0.1176706576198084 -0.04928319988339862 -0.1080057315661805 0.3428692932033328 -0.237344313064384 
-0.5425180716254515 -0.1754440481488491 -0.1997968649727744 0.03195426352220244 0.5325187896594896 
0.03340340445840673 -0.2716418276824579 0.1561750195972591 -0.1387576585305211 0.06936642493847299 
0.006564236459951614 -0.2406718607200617 -0.1675351535865698 -0.1387582470652597 0.1288496027356929 
-0.4272064625114001 0.2746740766489569 -0.4286400731204327 0.1261554823456031 0.3564395334249471 
-0.003818530607894732 0.1302365918221281 -0.07684908606385361 -0.008935100594281566 0.03875170881399093 
-0.2164674851182617 -0.2622670572174337 0.2759607010235846 -0.1692180985750393 -0.2031974801112073 
2.07095012268192 -0.3782062100258441 -1.612585954073458 -0.2109248355445245 -0.5001756516459035 
0.643751395728252 -0.06761963907924823 -0.3869252123685177 -0.02861866579738367 -0.04350327512405257 
-0.02703032511292898 0.1298926502856791 -0.007637182606542711 -0.1616565730867744 -0.04565407419719994 
-0.02703032511292898 0.1298926502856791 -0.007637182606542711 -0.1616565730867744 -0.04565407419719994 
-0.02703032511292898 0.1298926502856791 -0.007637182606542711 -0.1616565730867744 -0.04565407419719994 
0.3415370914690684 -0.1026028589812701 -0.3252216081892606 0.7254560512598276 -0.1319906374289879 
-0.07212373218702309 -0.01211920040134602 -0.2376939249278713 0.03057036616168678 -0.5132864573741195 
-0.2246305057119399 -0.1364860440850686 -0.1288320668817531 -0.1529498009863169 -0.02013042757492844 
-0.4400547228776814 0.3145435832014503 -0.7284284474493267 0.3892730383404854 0.173333155966799 
-0.08551741225854415 -0.4062962793648783 -0.7812025407901177 -0.02348040322108344 0.3874321000979353 
-0.1991797558867111 0.02437843585317516 -0.157076776433757 0.1167683704778814 -0.5588298214192411 
-0.06783420958911257 0.4071447332378573 0.2330545349359445 -0.05255686148171967 -0.2698061262415872 
1.282166098703744 -0.7365151065805455 -0.8722429680589397 -0.6116693874050695 -0.5840406815616519 
-0.1127221638417012 -0.108564222181411 0.02848218456082274 -0.3631027439357771 -0.3413837924190686 
0.1433986521000571 -0.3727280773832589 0.6073029951893369 -0.445936164623114 -0.4949484493155401 
0.02730235481760856 -0.02063811266020556 -0.2029070933366728 -0.4173974212474195 0.2454535607225477 
0.06750738512178284 -0.223606898117355 -0.610576723435054 0.3086784668761951 0.3646052405631534 
-0.03373885438850836 -0.139535540340724 0.4962385502051016 -0.02305835200088179 -0.09981621795830367 
-0.03373885438850836 -0.139535540340724 0.4962385502051016 -0.02305835200088179 -0.09981621795830367 
-0.0103625127650587 -0.2381934642365022 0.06241430633922762 0.07578418225238867 -0.02959279138910057 
-0.02226741881286857 -0.1170256368724991 0.1608685253455079 -0.03527564066098204 -0.03387243837236346 
-0.02226741881286857 -0.1170256368724991 0.1608685253455079 -0.03527564066098204 -0.03387243837236346 
-0.02226741881286857 -0.1170256368724991 0.1608685253455079 -0.03527564066098204 -0.03387243837236346 
-0.02226741881286857 -0.1170256368724991 0.1608685253455079 -0.03527564066098204 -0.03387243837236346 
-0.3633476992838433 0.726393762453197 -0.5646796379479633 0.100153947015274 -0.3061032551541033 
-0.5139182588337544 0.1979223057200275 -0.7858301512561155 -0.1414347573115937 -0.6145047187418227 
-0.1466882647110234 -0.3660027625550812 0.73512165381142 0.2356737886901429 -0.2260949698762193 
0.1448363481982523 0.4021315276507719 0.1912616357245784 -0.2250529643032972 -0.5673097467704734 
-0.447965492286982 0.500682447450097 -0.1449246877824803 -0.1093567808983693 -0.3118573786353707 
0.299373043204245 -0.4132741107701198 0.7313078348675737 -0.2376761942433105 -0.01101720262722425 
-0.1724717629742104 -0.28229307667345 0.4715534416845755 -0.06804622561689143 -0.3169549770296941 
0.1032036228729074 -0.005223838048897802 -0.09427450960654776 -0.0001475838627030589 -0.0003464639660751761 
-0.2658481916221354 0.05386706967105254 -0.5248331401794729 -0.2384016361039545 0.01752129715611122 
-0.6626397876061763 -0.4276559055323967 0.259940761553426 0.2846135737301307 -0.4513250423971455 
-0.1928206868343201 -0.6728876339110627 0.1466731197328415 0.3883753473908266 -0.6228049781668626 
-0.01411996481552236 0.2059112509091394 -0.0595670466663605 -0.08938014726564819 -0.004086473156243985 
0.05379574661058067 0.3021706767482175 -0.8921589147556294 0.0643045145280529 -0.8143243735399585 
-0.06692983566371859 -0.02501836528373814 0.1208543835961175 -0.0888548976638851 -0.06822403095432594 
-0.7635619847452182 0.5935614178230589 -0.07424422815975422 -0.2292237976362685 -0.3099154394485197 
-0.04165476691055051 0.1515122778818014 -0.4352364504987531 0.683129408239657 -0.04997037367328821 
-0.1264447504978486 0.1925833126661353 -0.4638378030698342 -0.2742130190741061 -0.3237015425397453 
-0.00427599297342602 0.06399437461811115 -0.000226579261365838 -0.02855455863662529 7.106649748276237e-05 
-0.664927971634135 -0.04360616064196939 -0.5152324861093589 1.413563029559413 0.0403386790623738 
-0.1915122440367754 0.2686512120018948 -0.2146336244499077 -0.1743460301916029 -0.1024267755530313 
-0.09989865433608905 0.2172232545668676 -0.1899853674233772 -0.1610696294171448 -0.09079337278969642 
-0.2703377548404357 0.1911431873538721 -0.1998699531499008 0.07777613686106878 -0.1293849493538015 
-0.2152130959616128 -0.1205667183482246 0.1078665406363884 -0.1473502977158011 -0.2484366499843546 
0.3893058426789994 -0.8300135526892408 0.04747319747501878 -1.014867109206488 -0.4043885019578085 
0.873078632324084 -0.6262106498793966 -1.065019680229965 -0.400326427654238 -0.8263456838404781 
-0.4963567092625972 0.2926172489542359 0.1566630536721517 -0.04507747882482036 -0.2224200951128756 
-0.133067790434049 -0.3015283484694192 0.7238554137288279 0.02430744366430074 -0.06620754946047885 
-0.006167620358636696 0.1409449371241864 -0.05519618610473732 -0.1562170770261829 -0.02508258591483961 
-0.07378063562655195 -0.002002097521282702 0.3580607048250405 0.1972831976155634 0.1645215942455621 
-0.07378063562655195 -0.002002097521282702 0.3580607048250405 0.1972831976155634 0.1645215942455621 
-0.4128413489071964 0.1618910933905475 -0.7524732975363929 -0.3633818110132759 -0.5852518112962849 
-0.06793689318830042 0.4148722753666361 -0.1588632045952121 -0.1758153032143251 -0.01610049549919908 
-0.07357025076694071 -0.02030804360057351 0.2215991630998126 -0.197211338433621 -0.1935429395085058 
-0.3658439309156488 0.2304918565487392 0.1967028240675398 -0.3236734595232351 -0.8092143122936166 
-0.1591965108279047 -0.2129786685339564 0.5566532244317028 -0.4437797421667989 -0.2743721442713917 
-0.03281717130061394 -0.07596839426857353 0.1022494476346259 -0.08028442297823962 -0.01005985874515186 
-3.588529124700834e-05 0.003451204539042879 -0.0002499327090609848 -6.850729335169065e-05 -0.0001306829114254494 
-1.125427697883002 0.1630309404146381 0.5023792606552605 -0.6878343921761778 -0.3764302679779294 
-0.1563526837763104 -0.07592551500498482 -0.2021001049395246 0.0568660390992918 -0.04983931614007357 
-3.588529124700834e-05 0.003451204539042879 -0.0002499327090609848 -6.850729335169065e-05 -0.0001306829114254494 
0.2465763449840631 -0.2553880351484605 -0.2749969886319989 -0.03230501410183997 0.1059821070844647 
-0.004320489758546055 0.1303225222635007 -0.02290316660660982 -0.005122562866550899 -0.007550394883089387 
-0.4073413056790326 0.5440548286245575 -0.2090175008162451 0.107545433215875 -0.1311016848313999 
0.1289031642813614 0.8442628110135817 -1.421274306893024 0.4809944971270954 0.6078168407854636 
-3.588529124700834e-05 0.003451204539042879 -0.0002499327090609848 -6.850729335169065e-05 -0.0001306829114254494 
-3.588529124700834e-05 0.003451204539042879 -0.0002499327090609848 -6.850729335169065e-05 -0.0001306829114254494 
-3.588529124700834e-05 0.003451204539042879 -0.0002499327090609848 -6.850729335169065e-05 -0.0001306829114254494 
-0.4471763201981215 -0.3131299169847993 -0.04627841808319946 0.6103462064495381 -0.2986397723145163 
-0.09801284678166972 0.03174637195428082 -0.002438928197856845 -0.006443016262726002 -0.004054183896058865 
-0.3470439990575623 0.2669417161847692 -0.2088014269270457 -0.4616874458632426 -0.34331349518964 
-0.428971524163007 0.1805768447429185 -0.2994280202935884 -0.1949442288416456 -0.6641007543798476 
-1.056515028256969 -0.3367555297055673 0.2660894048281389 -0.5652816761411867 -0.3395582273019245 
-0.1700942355557441 0.5984355558508465 -0.1738792268931453 -0.1304087761003105 -0.4079973859735012 
-0.03273133581830277 -0.158818841936 0.07328034884681513 -0.03327118917994444 -0.0274088193731829 
-0.05550166072564159 -0.06480213368687343 -0.2295947779345613 -0.05725798255048701 0.4139860055351218 
-0.3904847667229914 -0.002840530563549366 0.1319635312780945 -0.1880471192145062 -0.2741480443204705 
0.08895924237275209 -0.02469690263039702 -0.2051252138452146 0.2301948407504062 -0.1641729857612582 
-0.4704170558666425 0.3228041341852774 -0.07519975794961717 -0.2040870771712483 -0.02008882742582027 
-0.3445101922626164 0.2548807654333987 -0.2750891174744605 -0.1683085245786205 -0.1987882982754897 
0.004504297788600907 -0.5949184033704624 -0.7735580908857539 -0.1620518552261221 1.305308058003523 
-0.4315665688382709 0.1846322294748453 -0.63913529036684 0.2714831898926728 0.3582783745603488 
-0.004123181513661634 -0.03587430689613643 -0.3911641554387068 -0.003574724075015413 0.5178921465919883 
-0.07745371702122368 0.1470711224808056 -0.06069079885207627 0.0189258294853655 0.07937518662649773 
0.3569136235674928 -0.06939957342395089 -0.004605748144817222 -0.164366585419481 -0.1447699724843129 
-0.05143621878995892 0.2320310590574433 -0.01899837785155377 -0.05850987038218548 -0.02683426142466392 
-0.5038312732857034 0.01132440066255685 -0.3842644938008922 -0.3328461094346336 -0.4258819047975905 
-0.1060012839968931 0.5036129150213732 -1.207998581575076 -0.2956715830513387 -0.6968484436137334 
-0.2323874995759059 -0.2171810103664005 0.5268131417791181 -0.02734173045642166 -0.04017254673758368 
-0.07404193496896155 -0.0518091088435713 0.1584308132262626 0.1444633051909485 0.1125152272921942 
0.2326279829051575 0.2155470669550442 -0.230810417198349 -0.7210191248794322 0.1271651396747258 
-0.7625569140784946 0.8820999770097863 -0.5915443807487167 -0.3712128229113708 -0.1598501819791555 
-0.3236200390747298 0.31508772967375 -0.3882713100502695 -0.3657361269807702 -0.05419927036254177 
-0.4667836680234347 0.1668695003741915 -0.002808677383740329 -0.0002535687876284388 -0.00129857859420078 
0.807254399100768 -0.4065570498541541 -0.7326760565394888 -0.491892935593657 -0.3727100900609049 
-0.001910773120193432 -0.1634330335056423 -0.0001404903840103247 0.2192391303331714 1.225854906457921e-05 
-0.3140508651566656 0.6248717968431928 -0.4297063020592122 -0.1590692248286732 -0.3284146115340579 
0.2046442325086935 -0.04967634669169509 -0.1948631887528023 -0.2128527822791246 0.06957615166910218 
-0.1326358720775027 -0.2766717006952332 0.123468076158237 0.7964066756048215 0.4699033606839109 
-0.2088938772688911 -0.5311188976210144 -1.144203520956033 0.9531956798212395 -1.10302968285553 
-0.001910773120193432 -0.1634330335056423 -0.0001404903840103247 0.2192391303331714 1.225854906457921e-05 
0.3957940108181957 -0.5271898079474877 -0.1058841392821658 0.1697762373798345 -0.03321514201728584 
0.4901362521322111 0.07415851716539523 0.3314658351688966 0.1008277433378076 -0.1146774824365459 
-0.01693604148286989 -0.05265394571413107 -0.03830867959910723 0.6702874248184393 -0.262527641761188 
-0.3830644818804256 -0.05739898313299548 -0.2906009932302238 0.2213318694493126 -0.3321554223704203 
0.3645137816708999 -0.261373180476856 -0.1000326268791187 -0.2059014105963672 -0.3818233287124298 
-0.6465197273867904 -0.0610065251854494 0.5332516826078847 -0.02564706062234081 -0.04532688821520977 
-0.04455457003938344 -0.1455964914172 0.9853529229134921 0.5006953808567081 0.120915138744928 
-0.2456821449401689 0.01781967695629068 -0.5390528021258124 -0.2943819016598809 -0.1492205669695429 
-0.05380699817735082 0.2204742401235688 -0.211453077925826 -0.1714212279805988 0.01991551630967727 
-0.03374355427953252 -0.04946456243771147 -0.01245499019113025 -0.1653979899940354 0.0117366253339486 
0.3763677117459551 -0.0138743282263279 -0.2414804179745917 0.03709324634911713 -0.01929390454335229 
-0.1677877144052624 0.1172371519945399 0.1106269001964467 0.06291838723505805 0.3721834240259012 
0.4296216266357895 0.2025890988391148 -0.04978553343624843 -0.2333885550616236 0.1522243880566293 
0.06568085241274348 -0.1655416736869119 -0.1542646356789053 0.08936550611249004 -0.1694743285855022 
-0.4743119961172602 0.1214690281629491 0.2598011814797236 -0.06668595817124422 -0.06492738653651071 
0.00858310213045298 -0.0007206476668078804 -0.03456306601362749 -0.001541027692594517 -0.03037095936324511 
0.02254360161126775 -0.0005302053194905576 -0.07566365376330884 -0.001541664604169555 -0.03081689694485387 
0.07380367592307678 -0.008167263711979705 -0.08923470856051365 -0.004164275125367455 -0.04645252511080167 
1.369468393071863 -0.7178383984992734 -0.1932355412464016 -0.1475844841872757 -0.3472029874904195 
0.08676698458218418 -0.2735276812670404 -0.1856354290365156 0.2312239365469431 0.3678192179886754 
0.411118927955042 -0.162130537210291 0.001771466062892173 -0.09453324026157449 -0.2000717262867402 
0.1370396426516806 -0.05404351240343032 0.0005904886876307047 -0.0315110800871915 -0.06669057542891341 
0.2142375490904885 -0.04301880847382722 -0.05151565131675255 -0.004829615956795663 -0.03078836856660808 
-0.02951064624536747 -0.05709835152865868 0.07701016907640203 -0.01561686917443476 -0.0581255806415851 
-0.5270954366441768 0.1550965226252599 0.2490230431334104 0.2427506801591743 -0.446844597789246 
0.00858310213045298 -0.0007206476668078804 -0.03456306601362749 -0.001541027692594517 -0.03037095936324511 
0.00858310213045298 -0.0007206476668078804 -0.03456306601362749 -0.001541027692594517 -0.03037095936324511 
-0.1639317088387151 0.1963914608371319 -0.1854514375650899 -0.2065045407275607 -0.1216035661052885 
-0.002584786039404673 0.05628689815001972 -0.03401362870919124 -0.01212237695621227 -0.001932916200088406 
-0.2016312494718795 0.3270353034513002 -0.3004645185273802 -0.7350597108650032 -0.2102477495194317 
-0.01608981987320234 0.2133217249118959 -0.1573359861597098 -0.05749559881085652 -0.02003967668325808 
-0.4029757617426565 0.1712587364544226 -0.4097757042777461 -0.1179790508674952 -0.3823005965039698 
0.07699950748870975 -0.10092764803125 0.04427506438897418 -0.1061133989376859 0.339423046752409 
0.1169811262674191 -0.1097704216514935 -0.06790591370836618 -0.0322225021296707 -0.04474613764651815 
-0.2725164150457767 -0.8314998431812601 0.2735996463240645 0.414072446464998 -0.3321054475138868 
0.3071083140604853 -0.1477475999416513 -0.001556338001017493 -0.2766711123684887 -0.1381602330181584 
-0.1609781628011076 -0.4627177106695156 0.5348726442356947 -0.4302209946317762 -0.127580246659854 
-0.0404272566339744 -0.005548624659479124 0.184520107076343 -0.2226194999244838 -0.01445641042496746 
-0.04041779138575082 -0.0003260593767830228 0.1842116930334372 -0.2229254663342113 -0.01438258984286452 
-0.2180595843667611 -0.7762646869568555 -0.2661681100012911 -0.3496909005770359 0.9314598352362871 
0.43512388384469 -0.07531279858249282 -0.2261992512421066 -0.02234921515635918 -0.03557428741212855 
-0.4918533295736759 -0.4326256146530662 -0.2393910022585899 -0.6119439468595916 0.5006019190722769 
-0.2865012480303625 -0.2806851818172703 -0.4029463876382314 0.0464204254512863 0.2802745660260064 
-0.4713462492589011 -0.2201403476463473 -0.3152919638173357 -0.6275857797897875 0.945022406348646 
0.008626335976575099 -0.2530467523370775 -0.4238463144981355 -0.2404853627846716 0.4828155901228525 
-0.1752994775793787 -0.2583964780759955 -0.1785461347572088 -0.08651473294190508 0.02274585192545637 
-0.05951839397206395 -0.06360567059231045 0.1446223902697558 -0.04044125468062816 -0.07503641552628088 
-0.1431038969651059 -0.4003884111637627 -0.05227783717696297 -0.1194076785007768 0.2314686017309176 
-0.04306550135691164 -0.1652308135778877 0.01318720587653105 -0.03357624111699709 0.01962404066045717 
0.7248774424383989 0.01787187368953204 -0.006846779440108697 -0.04679443318688319 0.2537813020218864 
-0.004320321742080774 0.0006212691285178164 -0.001957585212093549 -0.0122962521036162 -0.002610916228065371 
-0.6614648523362573 0.3448666762366383 0.05348655416592134 0.8086222398501166 -0.4895669677558533 
-0.3864478593867293 -0.1136009735930473 -0.4478749862034312 -0.6513946503325629 -0.113099614463472 
-0.05701667581162042 0.1626185907157148 -0.1047643161109922 -0.1514420826199164 -0.3050187294177193 
-0.3959139040374863 0.8346474963780247 -0.6635473251638977 -0.4951089923788271 -0.3915014572354333 
-0.122539526052736 0.07476821709582929 -0.09781398791620657 -0.08242775908946293 -0.1133592736690574 
-0.1622414586353956 0.4853611428175746 -0.1395412803768364 -0.2463328219319187 -0.1992198093911433 
-0.3111776075970065 0.6092200740192382 -0.6155018472321319 -0.2561112503165238 -0.3210482079499556 
-0.2665277961353142 0.2551531435003659 -0.3285642648750334 -0.189084629703468 -0.2666101958741962 
-0.2011112209076242 -0.004058173288691996 -0.3788452584638548 -0.03659981091394138 -0.4555068187284514 
-0.07526704520735807 -0.2390070123041034 -0.02303765895143451 -0.2212177307268769 -0.09844623416191781 
0.05999270198418192 -0.06448064396687289 -0.09454827037045507 -0.1644230635036063 -0.2084685748664566 
-0.4101563395095925 -0.5228676526078495 -1.119444719392581 -0.4631429390847641 0.9898353505968523 
-0.2509527056957108 -0.2979063886184886 -0.01592838231027739 -0.00905923551226721 0.2158639996920127 
-0.04849414995068487 -0.4910368852145421 -0.3571021002497738 -0.09540887086250428 0.3122642947020975 
0.08019338074654021 0.2644082551969537 -0.1469990479201908 -0.02973701323074225 -0.1048666007482225 
-0.08585415484227174 -0.02227803085790107 0.06477975987916233 -0.1166852886945761 -0.1252795787017365 
-0.02550397818094609 0.1340611540743422 -0.091487826959785 -0.04553345664888524 -0.03877633106159067 
-0.07651193454283828 0.4021834622230265 -0.274463480879355 -0.1366003699466557 -0.116328993184772 
-0.2289004458540122 0.02690273720010963 0.1044844638439719 -0.2588072447157611 -0.2756843489652231 
-0.341817196321983 -0.4316399430027491 0.1140559260443517 -0.4122223632878763 0.2059394842216456 
-0.03893010524983558 0.7934761774543717 -0.5367463644243603 -0.02188412412536933 0.4095918036342246 
-0.2803134679901849 -0.1090031041640991 0.3648678030210199 0.09679503460325739 0.2989080811335828 
-0.3971837260213537 -0.1611048143591638 -0.2787365615910037 -0.04859400114374005 0.8858873562026955 
-0.04902347090327171 0.08642873021143441 -0.1209606731956067 -0.02015019082972361 -0.0009056169866042595 
-0.1470704127098151 0.2592861906343032 -0.36288201958682 -0.06045057248917082 -0.002716850959812779 
-0.09804694180654341 0.1728574604228688 -0.2419213463912133 -0.04030038165944722 -0.001811233973208519 
-0.09804694180654341 0.1728574604228688 -0.2419213463912133 -0.04030038165944722 -0.001811233973208519 
-0.067127716741988 0.06705444103270768 -0.04886670103077782 0.01879839099653216 -0.0268854178289158 
-0.07082751468314999 -0.02181956770619254 -0.4217658851535081 -0.4219530669228968 -0.2535416337539414 
0.1077684303492679 -0.1073862406650384 -0.06288133762397285 -0.1344312414026693 -0.0842018162482298 
-0.06720078905557293 0.07201199950926074 -0.02040467531303968 -0.02099486164985552 -0.0269471275641273 
-0.06720078905557293 0.07201199950926074 -0.02040467531303968 -0.02099486164985552 -0.0269471275641273 
-0.1354769100585781 0.1125104278795975 -0.02143685648551676 -0.05482974642229338 -0.03761028204178021 
-0.06720078905557293 0.07201199950926074 -0.02040467531303968 -0.02099486164985552 -0.0269471275641273 
-0.134255433483976 0.1341088820654154 -0.09773340206155565 0.03759678199306431 -0.05377083565783159 
-0.134255433483976 0.1341088820654154 -0.09773340206155565 0.03759678199306431 -0.05377083565783159 
-0.5090561403270522 0.06792163094945065 -0.4756040735632346 -0.3300290602988575 -0.5553274186689754 
0.9318823040209246 -0.323960420415853 -0.9235224500982785 0.2871333782145632 -0.2513294236035298 
1.529728928811291 -0.7132093216448429 -1.089617354616856 -0.1299844550371988 -0.299945784863533 
-0.3478187954595054 -0.3862157125712508 0.6206480707006385 -0.6040871510868853 -0.2661649037839273 
-0.1966960949795689 -0.1230223477639267 0.08613826563325552 0.1574347415812874 -0.1260184050463741 
-0.1155566068961497 -0.1038522164848611 0.3986704971305889 -0.02475056890793853 -0.1114480834828325 
-0.02165803653485453 -0.02055238575177647 0.04646683809771308 -0.007106364313283633 -0.02131665788607385 
-0.03214412928384863 -0.03124272512511067 0.068419114578315 -0.01222086925425144 -0.05472316527172062 
-0.2368019597280016 -0.07090900143244219 0.1912689244375896 -0.179427234076066 0.1587671513756264 
0.04785397682411335 -0.333206377879317 0.2461336510848615 -0.1699969089040483 -0.2156382574038498 
-0.06705854869150837 0.5112028630594805 -0.5706884011117754 -0.3025760589071672 -0.3181094964184581 
0.279212626634115 -0.5481868478925986 -0.01292849651883879 -0.001708322188923504 -0.00132086456336954 
-0.4213627516261568 0.1881976618104144 -0.4766878419093732 -0.299395394204608 -0.3534783797170809 
0.2384137674415374 -0.2734182243774465 -0.3581804527294515 -0.3110279938086579 0.1538874375245498 
-0.4328910650948052 0.08782969715451855 0.04689123826929231 -0.1012881087217889 -0.2925412510996858 
-0.008556196859084956 0.117525020166722 -0.1742265566554239 -0.03033572216462642 -0.008850716497674051 
-0.008556196859084956 0.117525020166722 -0.1742265566554239 -0.03033572216462642 -0.008850716497674051 
-0.008556196859084956 0.117525020166722 -0.1742265566554239 -0.03033572216462642 -0.008850716497674051 
0.0114008338407889 -0.2589556981452548 0.3478802751501975 -0.1953808128919824 -0.3144262396767476 
-0.2132184451852259 -0.4422393557582892 0.7552764748981802 -0.1321873972260359 -0.2893823080879606 
-0.3672001049454765 -0.4319587386230116 0.1149302466152964 -0.2345097570160468 0.3977429532710314 
0.02059820469407055 0.2177753894435075 0.09738115279755567 -0.7439220028565229 -0.264345522148728 
0.8508977599124344 -0.3922720953057436 -0.4082508761902999 -0.2074765094413901 -0.1419588219167533 
0.4492003552045055 -0.1422346807753814 -0.308031028781435 -0.7970161469010755 -0.2461751378604017 
-0.8090016619979628 0.1526480562415425 0.7345919295392441 -0.4442979430457383 0.01914158101132044 
0.7271475309243114 0.08549393298417912 -0.1957231890825434 -0.213183475610063 -0.3025176516396327 
0.07785684614248835 -0.2308858057007983 0.400186688974825 -0.2939275369750986 0.03298496824053581 
0.2824241043997395 -0.1418401111361631 0.2323651804775604 -0.1434719547890717 -0.1658725100308437 
-0.1689797974972827 -0.1956771293654683 -0.05797108443443183 -0.1631564801293195 0.2696387798853574 
-0.2771004004934508 0.3149446705532235 -0.1402151516102312 -0.06280927376996195 -0.1484603032412662 
-0.3684600364172395 0.1421694730587056 0.2077874480274544 0.05590066090551698 -0.4384067609565525 
0.01656728985643846 0.2678411820725456 -0.03361558897282047 -0.01194008032793901 -0.03517321544805949 
-0.5757151225929801 0.07059738071575475 0.07840108132972368 -0.7696771639946915 -0.04263033988284303 
0.01691646637849829 -0.04880734426685594 0.1300949603447735 -0.008660004442901787 -0.03022624786628197 
0.2015746113888455 -0.03645273792158117 -0.2803046526139123 -0.01258549690822121 0.182967195282154 
-0.2715486477903105 0.6164510681676736 -0.3879926002542166 -0.1354002016646174 -0.002362243075462718 
-0.08692310388940147 -0.2477996474598448 0.3697745150127236 -0.03800430294051491 0.004188100251525729 
0.050749399135495 -0.1464220328005678 0.3902848810343203 -0.02598001332870536 -0.09067874359884591 
-0.1973248876999561 -0.03656078123108787 0.2547169138974143 -0.08633629677599454 -0.03708817560208794 
0.3721254369626693 -0.2274634210884329 0.287340335584627 -0.1902855867299847 -0.2228761616197769 
-0.2511077870497782 0.4387201858030723 -0.1045922690732837 -0.1280179616253048 -0.03315056641426308 
0.4012677473667209 -0.2453535844906775 0.1352523685749893 -0.1837124220390732 -0.06251578089115777 
-0.03529291284141605 0.1478495554733932 -0.003472040042145987 -0.008270932604314135 -0.02674492578048875 
-0.2660391950846198 0.4983256411639924 -0.506175817294368 -0.2032750072479811 -0.195357693304835 
-0.0005242134448092135 0.03995958481357806 -0.0005241027486183031 -0.005179859396157143 -0.0002140229577655328 
-0.2174700390805339 0.06637493453760472 0.3948040655911855 -0.1677944794189384 -0.2202389741416037 
0.2201052196878882 -0.4036115012144924 0.2800426561073676 -0.04519536168172122 0.1435155408466026 
0.06733290512786459 -0.6334067541159903 0.2914039781794282 0.004739009063166339 0.01696401069827286 
0.7283756794652101 -1.081735960138695 0.1328568089424967 -0.2197580693673279 -0.2108470805017607 
0.4830909552487576 -0.1141108517609258 -0.06704699463473145 -0.3622334234595579 -0.2052467251350253 
0.2051937090063765 -0.03806005189215649 -0.5941844912398899 -0.3581067779123953 0.3306503197323077 
0.8036096335573211 -0.4106820980115111 -0.8628650978382837 -0.1302674148726857 -0.7302629515229967 
-0.4088488900528238 -0.003456293401917241 -0.02533536808774738 -0.02840246814445282 0.1436391969826333 
-0.3410530374745677 -0.294160337047261 0.0796286356490096 0.7048686838568828 0.5317996034147402 
-0.006995110666949871 0.07752496916912834 -0.6182646844558294 -0.57935097462742 0.6561191458078324 
0.5396323020522793 -0.4232461291148396 -0.17224549392803 0.2529973814646585 -0.4862661952085794 
-0.1370747319537073 0.342401464483485 -0.1958407705735237 -0.2185047439177039 -0.3738679888666517 
0.1524217443471509 0.2733249127699426 -0.5538748285214824 -0.1190978695409868 -0.5146765235814762 
-0.03247014029413695 0.08497306774744581 -0.02746949766551186 -0.1266830424409722 -0.02220142272655021 
-0.03816611193609613 -0.4148550256996122 0.4748009040454952 -0.1582290373191884 -0.4898114389399053 
-0.008817649951909255 -0.0406982616386513 0.01140083409728554 -0.0008439432949446969 -0.05067813711279981 
-0.2185715688453208 -0.2997277085174502 0.5793769769509454 0.08438031523651271 0.188985908530531 
-0.06265384269029256 -0.0890127399018493 0.1210809628574833 -0.06030033902725981 -0.0682950974518087 
-0.001862548602843958 0.0478823934481556 -0.03076312039493648 -0.003300773261389426 -0.001135577152282662 
0.03623153472846014 -0.06287351397624261 -0.002447199716278226 -0.003632575932838138 -0.006454300162394858 
-0.1452908083040362 0.06216023148525224 -0.04959597256770216 -0.2197176496188939 -0.07183758076549396 
0.4697124626652456 -0.2968881450519128 -0.5867152416841305 -0.3263344889443421 -0.3793831999855627 
0.1099933604342291 0.06901368284583041 -0.3675001812026426 -0.1351150347280993 0.399130826128035 
0.1659598686325683 -0.321072598522873 -0.877792152903313 -0.3098560260397832 1.504139362221931 
0.04982772746752336 -0.2272190425685293 0.06876887695856518 -0.003612668026222712 0.1313519260354591 
-0.01805146473551346 -0.262699737096888 0.1336621530965011 -0.03685788064387454 -0.02182503563331805 
-0.1516724312634112 -0.04358731304147409 -0.1642053972414641 0.5050047608386016 -0.05839027884185315 
-0.2075457851112413 -0.2311105937691693 0.3616981452270706 -0.237457486232302 -0.5245446098389023 
-0.03126638268980238 -0.4156212972057743 0.4287901621101146 -0.01110629976457787 -0.0366132642070641 
0.4796064436611583 -0.994501817461764 0.0778223864311212 0.03217712236309933 0.4695650371216019 
-0.4109056607249909 -0.6598974991260208 0.2428759248836827 0.1558104403521343 0.09649049868609193 
-0.3061969748509043 0.3198160048363868 -0.1498417562503112 0.3587977003964666 -0.3136708465731607 
-0.8426938156392346 0.05695239716473754 -0.4054626107168129 -0.05577175626861729 0.2361624106744686 
-0.04480490027429253 0.2775330470744956 -0.0008967378055723489 -6.050168545855223e-05 0.02917250315682117 
0.420409834497937 0.2074005489448119 -0.3630787945378137 -0.08187911877845806 -0.08716357480010724 
-0.1134021210822463 -0.05108701395207053 -0.2037537851644571 -0.140282975088614 0.491225327791614 
-0.2445927456453301 0.05537119509544863 -0.3537131028407661 -0.1344226211614834 0.1928489216046592 
0.03206252452448724 0.506699298055419 -0.003545641780729821 -0.0008025085649715653 0.08710462511626979 
-0.04480490027429253 0.2775330470744956 -0.0008967378055723489 -6.050168545855223e-05 0.02917250315682117 
-0.04480490027429253 0.2775330470744956 -0.0008967378055723489 -6.050168545855223e-05 0.02917250315682117 
-0.1344147008228775 0.8325991412234867 -0.002690213416717046 -0.0001815050563756568 0.08751750947046359 
-0.08484118785615866 -0.0219684324847353 0.05981633347717404 -0.01306048420401412 -0.02285082615728579 
0.1882111846962242 -0.07242438062630763 0.1097603970257696 -0.02008268556969414 -0.3122360721520174 
-0.08484118785615866 -0.0219684324847353 0.05981633347717404 -0.01306048420401412 -0.02285082615728579 
-0.1766150984029974 -0.1000242179848214 0.131356893125861 -0.07438564798048705 -0.02344522024989852 
-0.008381540945489546 -0.005438080148262433 0.007721914161561169 -0.003216386176346205 -0.009506563959936503 
-0.1805775083578101 -0.2648161317209976 0.4188204652663692 -0.1054846569382484 -0.2327925015202431 
0.1188720413820568 -0.49673827921467 0.387573071707814 -0.4694882169134305 -0.01033465143199228 
-0.2248222390895299 0.08915749557834117 -0.1704103109834686 -0.1016416354704976 -0.2029712030275758 
-0.07286171471510794 -0.03543119312877409 0.1521797354958357 -0.01664226204064289 -0.08641477673490677 
-0.02922865468981955 0.01751001204904062 0.06146489499191198 -0.0326761311265685 -0.1024750123770004 
-0.001680415582935853 -0.07418353975164871 -0.1276401159174028 -0.05298771369279449 0.09604619021832972 
0.08559799623686792 -0.01358747549416497 -0.04069350718521493 -0.04697640552745436 -0.1411576428954231 
-0.5277268801808596 -0.4730396607097301 0.2293427612276971 -0.6406648722496313 0.8054918450041985 
0.2692712161634934 0.4084742468384004 -0.4735133085702566 0.2724629542633532 -0.1969665168461782 
-0.004583274652365327 -0.06578543585881889 0.07605021734194231 -0.004527873003866319 -0.02890818070108081 
-0.04730390483473274 -0.1308571383374605 0.1617702225805799 -0.08557812651638147 -0.05802666817914282 
-0.1931678858418956 -0.1333644519857029 -0.1243648480502052 -0.0549018344979275 0.3092875409671347 
-0.2294232092888375 -0.5736517132876768 0.8663580385620416 -0.3010342541024262 -0.3217692485939944 
-0.08011137372407136 -0.06982620726361718 0.1584952971334605 -0.07659976872996191 -0.2282519182396885 
-0.03464581357212629 -0.0254557326009155 0.04517599767193855 -0.05273717485983612 -0.2057944539894056 
-0.03464581357212629 -0.0254557326009155 0.04517599767193855 -0.05273717485983612 -0.2057944539894056 
-0.37665954821689 -0.573739594311681 0.2346697592942304 -0.326526773371909 0.1065500546104495 
-0.03444924127765595 -0.3564674076132328 0.3333132413638655 -0.05282964832767853 -0.206411242115339 
-0.03464581357212629 -0.0254557326009155 0.04517599767193855 -0.05273717485983612 -0.2057944539894056 
0.02121448738522205 -0.2013385634961896 0.3083895963125529 -0.06848727023322482 -0.09525381014104613 
0.6291770898986625 -0.3119509502133948 -0.7659721492460588 -0.1890368756417078 -0.3725593571520601 
0.02464744286720159 0.4956980385815979 -0.3149594718447482 -0.1719289607609497 -0.2587642310204544 
0.1223842324831075 -0.2721537081110487 -0.1207066331600391 -0.09724564019194894 -0.0820826275752025 
-0.09275691762521766 -0.5586764341029377 -0.173705138191548 0.7084008667537343 -0.1202586068703276 
-0.00305688702084366 0.1585983352515764 -0.0345595750296312 -0.0299143366635359 -0.007761365809209483 
-0.5299451411496049 -0.009556758511163315 -0.5661174132610174 -0.312364613428343 1.04612351041963 
-0.05575284813847383 -0.1227017242345679 -0.140094204518496 -0.07709302029420301 0.3156660177180461 
-0.09631522503056704 0.127675338089987 -0.07538871574548524 1.076337475813982 -0.2975029403057011 
-0.01974353361671586 -0.1084077783019098 0.2356888566865839 -0.05628960884741364 -0.06784945866587236 
-0.09968954207189196 0.4342623656186491 -0.05117782746460255 -0.001101518761686314 -0.02741153803367036 
0.1717703295072839 -0.004349512579656874 -0.2699497779404693 -0.04747692503846915 -0.04805577237595753 
-0.02658298579924537 0.1737612576017843 -0.001004973534990346 -0.01661248320583363 -0.02629073508607457 
-0.01455732513705972 0.1881548466378311 -0.04856205620179515 -0.0005652207087219741 -0.01132508818703373 
-0.2564155049003423 0.1653210735167706 0.04548972048972431 -0.005437941952063713 -0.03343081572378846 
-0.01738489134425003 0.2385348279671955 -0.1300726460956622 -0.035599860440613 -0.02313252772480279 
-0.01455732513705972 0.1881548466378311 -0.04856205620179515 -0.0005652207087219741 -0.01132508818703373 
0.4363335922405721 0.1272112414776052 -0.3085862954908849 -0.001962872159783789 -0.01602749886826046 
-0.06013657832486984 0.1527790221722473 0.4328560795164839 -0.5237424786195874 -0.02874359826429234 
-0.01455732513705972 0.1881548466378311 -0.04856205620179515 -0.0005652207087219741 -0.01132508818703373 
0.9416281142851017 -0.1311155128225679 -0.7585087741242464 -0.1370656859933118 -0.1865302399872194 
0.03948571883343522 0.00114342600890782 -0.5804325438051844 0.1104966440278553 0.2160684359168207 
-0.01455732513705972 0.1881548466378311 -0.04856205620179515 -0.0005652207087219741 -0.01132508818703373 
0.6636928751584863 -0.3319316379701977 -0.5302206909252816 -0.1433717759983174 0.5456594815346072 
-0.09362111359195451 -0.3133669769816645 -0.4080209030053369 -0.09149633704137029 0.684826257292262 
1.027465648834921 -0.2464826584027024 -1.125245467536694 -0.1961634916656247 0.9305898674816551 
-0.2382825282259179 -0.4057674282367382 -0.3781459408964933 -0.03544844120522073 1.054923592328997 
0.5256430904906173 0.2464883352732015 -0.2090988545520763 -0.06891327390978745 0.4615383305082061 
-0.0128805870842263 0.07285293527358387 -0.003541560686858119 -0.0002973135641430107 0.2712243870672881 
-0.4594626449411962 -0.3753570264100252 -0.1110141645591762 -0.1042152167108304 0.6524294344109766 
0.7487252640134168 -0.492674541062225 -0.0297192766519824 -0.3825209491860109 -0.1304126118956613 
-0.05816842703898351 0.3296212516647993 -0.06544674348761459 -0.186536351865444 -0.1132733908263599 
-0.06205049169654205 0.2292142062825213 -0.02400481957815681 -0.09368203932269725 -0.04022433290075447 
-0.218104793786276 0.1759594897782076 -0.06960228865082724 0.3390919212892379 0.05874957054514225 
-0.1067820670211662 0.1063393869505513 0.2094038827896191 -0.07337945764566318 -0.06953365504528669 
-0.04198464670711402 -0.6573451560669062 -0.3596067729702427 0.4523296431998601 0.1116174367130921 
-0.122396290661644 -0.4820227734674181 -0.009269612194409423 0.1715116978979861 0.3261089447905027 
-0.6591945606056354 -0.2528712933326894 0.7073558707961757 -0.3832816696671074 -0.0470346249228447 
-0.09697892434285868 -0.01075180703872282 0.1661163765625472 -0.004692190094411876 -0.1040504994307426 
-0.2873423232512457 -0.19959972014172 0.8327939119655509 -0.1936062773677479 -0.083004823491934 
-0.5033633719488596 0.3536282781443608 -0.009698120902798738 -0.1254335097708215 -0.1311464477154261 
-0.4703781978439815 0.5132360976571336 -0.1488393286206629 -0.114964436944537 -0.1262454350941905 
0.09545097132349024 0.7040384724995643 -0.3590375996398777 -0.1286996486818078 -0.1216358221635685 
-0.1524438424791419 0.3842025296185578 -0.1081964439311456 -0.1197396085481327 0.1002998917716131 
-0.4603125635952784 0.4265072053757427 -0.1070866976811608 -0.1075112664683224 -0.1035253344053809 
-0.3627387423337736 1.020982589683087 -0.6269063384574977 -0.577025919635955 -0.4528295297581927 
-0.01327114673318373 0.08161865573797754 -0.01783462571001015 -0.01481508700225777 -0.008406215255928773 
0.1604345241344402 0.5022348936710879 -0.2610018308822832 0.06898697187109654 -0.2589235253986801 
-0.2629475956500246 -0.08226191817083416 0.2927995973877175 -0.03039792027631974 -0.02074637511850313 
-0.3576835670656112 -0.249334802583521 -0.3471930790909827 -0.06879525965169271 0.8261910513732117 
0.1872015294997717 -0.7913493629100345 0.3297831238057699 -0.3872053988195611 -0.7344366507691417 
-0.05453693702181878 0.03159958277382478 0.3460752001473848 0.09647094808011575 0.03886829173920177 
-0.01572133820401595 0.256038227316041 -0.2694695175972126 -0.1067828338405409 -0.01584847517869263 
-0.172817935265622 0.6349810083477277 -0.6512989208288171 0.2988587166329779 0.2447376412930148 
-0.01010375136689334 0.2004574936471885 -0.05472598596039796 -0.08397171567183505 -0.006376524247096912 
-0.01010375136689334 0.2004574936471885 -0.05472598596039796 -0.08397171567183505 -0.006376524247096912 
-0.05200735031044071 0.2659093171048728 0.2464381600235552 -0.2787081943673237 -0.02105826976546855 
0.2767296420831898 0.01579294481585713 0.2545089931767782 -0.0977085833883454 -0.1005460125597616 
1.343507225869679 -0.4580025736939703 -0.5512735213341462 -0.259818247321961 -0.2730767970116809 
-0.04991278139143532 -0.09925728905322548 -0.3360302121630164 -0.04458343628551552 0.3867209403271468 
-0.01857464832907344 0.5671761903883045 -0.297552889219638 -0.06543711294501577 -0.08283907042248692 
0.1877708374297022 -0.1738548557274713 0.1917892350181664 -0.04946465482341233 -0.06061447176220818 
0.2731063941578353 0.1590380516524563 0.3057745380046438 -0.1064403648214613 -0.1473473477463005 
0.3566024305165749 0.314989308665446 -0.7504786525797562 0.07166914917069706 -0.02482927017490082 
0.2068732285246771 0.3540819530277288 -0.5247532738260984 0.1702074820692127 -0.3100056143216557 
0.584771976461514 0.09404060825002809 0.1487430690155761 -0.07441233972649718 -0.06712414255563778 
0.1483605585699075 -0.05979831222493862 -0.07333235693285375 -0.1718378163613713 0.09763190679342021 
-0.2166402895635305 -0.5529962201063441 0.5686492040599397 -0.5100966391017975 -0.1086909066921284 
-0.002613065543911267 -0.006619024854800499 -0.01292708645741065 -0.00462058261334875 0.01184099347672968 
-0.02674889127981265 -0.02190566383352715 -0.01379242131745977 -0.01138914994573432 0.01372251785994931 
-0.3526028036678532 0.1127804674070999 0.1289324480334647 -0.1947769149968507 -0.06742101423335475 
-0.002613065543911267 -0.006619024854800499 -0.01292708645741065 -0.00462058261334875 0.01184099347672968 
0.2161965025252204 -0.04903907713246833 -0.6174655941582271 -0.3766249238881919 0.1833683380886229 
-0.002613065543911267 -0.006619024854800499 -0.01292708645741065 -0.00462058261334875 0.01184099347672968 
-0.002613065543911267 -0.006619024854800499 -0.01292708645741065 -0.00462058261334875 0.01184099347672968 
-0.04102797379118359 -0.04081317875019008 0.08243895789257955 -0.02317735980997487 -0.02005754217539957 
-0.002613065543911267 -0.006619024854800499 -0.01292708645741065 -0.00462058261334875 0.01184099347672968 
-0.002715855538592776 0.01092163457762628 -0.04396877485676805 -0.003870689242820191 -0.02158097714644949 
-0.0009052851795309259 0.003640544859208762 -0.01465625828558935 -0.001290229747606731 -0.007193659048816495 
-0.0009052851795309259 0.003640544859208762 -0.01465625828558935 -0.001290229747606731 -0.007193659048816495 
-0.0009052851795309259 0.003640544859208762 -0.01465625828558935 -0.001290229747606731 -0.007193659048816495 
-0.0009052851795309259 0.003640544859208762 -0.01465625828558935 -0.001290229747606731 -0.007193659048816495 
-0.0009052851795309259 0.003640544859208762 -0.01465625828558935 -0.001290229747606731 -0.007193659048816495 
-0.1149014414649478 -0.01090769423621571 -0.08352755406362243 0.2208755849131093 -0.06542812309305626 
-0.0009052851795309259 0.003640544859208762 -0.01465625828558935 -0.001290229747606731 -0.007193659048816495 
-0.07595749370799472 -0.1047008406055727 -0.2566971499114803 0.1856874529066065 -0.2403116914934723 
-0.2257973418711744 -0.4153546939128082 -0.006758561848644671 0.8141808830632291 -0.2818879531281988 
0.4721189827979969 -0.08029214004642263 -0.2871056387838771 -0.1189974662074169 -0.3550578770225844 
0.5061757321241186 0.2698109947524857 0.03419305259711528 -0.08792809763629436 -0.0534729707206469 
-0.04070487061563483 -0.1126837430678537 0.4856104827196382 0.03538797966691529 -0.115565601901816 
-0.1285906605373786 0.2399729426315491 -0.3876060791571365 -0.5220861346967666 -0.1908107527632828 
0.1527412254746775 -0.422225877296565 1.326681535165478 0.06709825849058954 -0.4237496882809368 
-0.07517952357094415 0.4977996724625915 -0.04707377400546239 -0.008787015389104966 -0.01407637206196148 
-0.04446761348989495 0.301365679808934 -0.1877520618194067 -0.2720411886856416 -0.3460250856732129 
-0.42311248444608 0.2152461450010963 -0.2062137335782225 -0.08151055353700909 -0.08070085112050489 
-0.3642417229322439 -0.1104290519630397 -0.2641965800354369 -0.7296984603984716 -0.2595907205779032 
-0.1774491556810052 -0.3208952345881405 0.3053301773258781 -0.3228769650628487 -0.3412121553083123 
-0.8040561605430141 -0.3659521180208238 1.169735928149486 0.4135370566722565 -0.4020872250457741 
-0.05965479512268128 0.05517580207009407 -0.05881272150247548 -0.05681079943499573 -0.03229393006417652 
-0.02741424715082082 0.1867707956617185 -0.07802328686787931 -0.03872720923910635 -0.007722310729617755 
-0.0276674840159419 0.1496976419330096 -0.08195324825670576 -0.03884982880124725 -0.008404181369128631 
-0.2279500191513605 0.08929383898996186 -0.3352819279296497 -0.572231600617586 -0.6106220276014215 
-0.2830226584284666 0.1116936158598894 -0.004276581195266649 -0.03290960852706207 -0.03786239780717938 
-0.5593763094458171 0.6643257972464913 -0.5174177168814947 -0.4495971583014338 -0.3526226502073739 
0.001074480135447813 0.338794995277415 -0.6128468218760882 -0.5069311611159338 -0.3889017073726171 
0.3560722886941129 -0.4201406648989047 -0.3360816123973454 -0.02468930435973107 -0.08065232328674776 
0.07500104845480485 0.2785570584922819 0.4784036796506124 -0.1003122625032891 -0.02050865213282925 
-0.3884954384978487 -0.1316028237832011 0.5040096380386819 -0.08580230997106703 -0.2385695571008712 
-0.1871294309153817 -0.2044674525765151 0.542967808132032 -0.2231023878913864 0.1650796726070993 
0.1508507434707619 0.7263372416827251 -0.3450032405498863 -0.08228366603290517 0.03807004089214615 
1.092265627229604 0.0151740277814201 -0.4167011274321832 -0.1966938025258764 -0.260305504986538 
-0.3083635157067807 -0.02388020772217217 0.4905317902356906 0.03125082681614484 -0.5468504025588881 
2.839574467073239e-05 0.0156676958480883 -0.0009252421287172983 -0.0009178992291825692 0.0002214617463088468 
-0.1400152036076221 0.1481766801797621 -0.1105368490191662 -0.009632898573809692 0.1726149466979472 
-0.6263468743939177 -0.09481167722071579 -0.2823576153310651 0.1645434540981701 -0.5001611093240574 
0.01193478834521116 -0.009025388049718331 -0.00740852363005466 -0.01419046731574518 -0.005309059018547484 
-0.5527094785604102 0.5597809725344087 -0.3511776096441482 -0.3559134238840403 -0.2001354132675414 
-0.1583674484634169 0.1323669928507851 -0.02695989471447642 -0.1117403222089364 -0.05986876025266198 
-0.1257718900237116 0.1607348416275105 -0.007838553030166612 -0.1296517418016828 -0.0970596284384823 
-0.169739643129197 0.5695610887321075 -0.3185539464585285 -0.1846710678453633 -0.101856304129968 
-0.3677413950666396 0.1604942725162093 -0.2015051201070477 -0.3643459581172787 -0.185050714620002 
-0.0188600348631216 0.04883161931597364 -0.5691443912134049 -0.4198049944535466 0.07152693261825001 
-0.006505169665018191 -0.007990353258968911 0.09333850558067307 -0.004990207023108302 -0.2009071622380749 
0.04692763383886961 7.662786057635942e-07 -0.001467535600374561 -0.0001432646899862705 -0.001378269701448552 
0.03711670386816772 -0.09473471436534178 -0.1513395083773523 0.2445655945078513 -0.04615223434383334 
-0.1963719092023755 -0.06483434085257017 0.05301064693158327 -0.02391022809279695 0.1012292049527235 
-0.1941962547780217 -0.1123715280714158 0.4532781046080054 -0.03982307649337621 -0.1093722907232656 
0.3234381713135893 0.1748966318042344 0.4698816506766767 0.3680937917156059 -0.05369804869285066 
-0.01620709476647098 -0.009161596679913547 0.0663078523432713 -0.006480560023478686 -0.02240644379370077 
-0.204077859742777 -0.411729489973781 -0.1561889667878925 -0.011638480843103 0.382854261572779 
-0.1197954498067149 -0.211009908570235 0.4947234044231714 -0.08830358839213708 -0.1710968539044405 
-0.3042570500390121 -0.2250347185019966 0.1761114675503027 -0.2951699851629175 0.06045779854661934 
0.3444698270020302 -0.2459270139325586 -0.18918268499127 -0.07042010905859168 0.5253265422825695 
0.3184535496736085 -0.1489872975580573 -0.243808903636652 -0.01857784657213525 -0.09881595541236748 
-0.2156490958994311 -0.4453060366139137 0.6090099651443645 -0.2294731666109503 -0.3964416613964536 
0.7581851424695302 -0.5960178293687098 -0.6559402752131031 -0.3020389352196721 -0.4851605306616316 
0.3547447640647389 -0.407094117634825 -0.1843665238290198 -0.2816544820299188 -0.1257687927320617 
-0.3275483488234039 -0.1907104734236206 0.4203325451712094 -0.3650523039793181 -0.3643288009060612 
-0.03154152193922208 0.3516568550368058 -0.02772767371868 -0.04006908460016083 -0.008888687260862872 
-0.03433744785723041 0.6890426478437967 -0.2062823680368636 -0.1005053686892715 -0.07042952362911654 
-0.02201575344611153 0.7413873591574853 -0.357966639822721 -0.04610179883366693 -0.03160501004254229 
-0.0121551296086424 -0.02473042014616485 0.02776435589714937 -0.008884935301101573 -0.05120200089034308 
-0.1376753089982242 -0.3634749899253799 -0.03804856606009751 0.356302888054003 0.2668024134386151 
-0.2526361249436017 -0.4850074355658489 0.5530725031860261 -0.3477986999747989 -0.513262803968653 
-0.03150426686190647 -0.02809903398492771 0.07390884524835374 -0.007271362524250379 -0.005103636463723218 
0.4381370154877068 -0.48063804083623 0.1461800675503417 -0.56308706145951 -0.1770388125744158 
0.4187254937855358 -0.2655231213315318 -0.0959635757530001 0.2192159197235645 -0.08993205850270339 
-0.0889689749829818 -0.05383299128133916 0.5388245380657688 -0.00831174266611372 -0.1671038905225352 
-0.01690262841149289 -0.1543424351635625 0.268498905805326 -0.002025361544405729 -0.001955504077572836 
0.3515226748256711 0.2020853168559746 0.1047622240140036 0.8330927414399038 -0.1308003779255816 
-0.0002194052331236429 0.1997448678228548 -0.07580976175036104 -0.02980610156732633 -0.02052849705522445 
0.1453544603072393 0.06420946503443739 0.002958928145702049 -0.05725013570066379 0.07282937113358004 
0.001201388047624853 -0.01555790794635985 -0.006026253053052036 -0.02864378455972101 -0.01170956329192477 
0.1475596644574782 -0.3638587071727037 0.5855846231869927 -0.2705977433186224 -0.2812733368776207 
-0.1404411675044913 -0.04896167346614756 0.3006733725857512 -0.02510322416331641 -0.1141308728931518 
-0.5275899663141289 0.186016894288378 0.05873866049806666 -0.1577337650324308 -0.5256183617473235 
-0.2942617646141538 0.09383062541191733 -0.006666687596292331 -0.01924009140188633 -0.01217495436025862 
-0.1455953931050145 -0.1478673263791788 0.545649489654201 -0.2119296737325507 -0.2519730378777385 
-0.0009926404286571457 0.02683536949861057 -0.000299103389714249 -0.0003496934812901781 -0.001213354219075115 
-0.0009926404286571457 0.02683536949861057 -0.000299103389714249 -0.0003496934812901781 -0.001213354219075115 
-0.0848759247963516 0.06500122207633185 -0.03873050653495531 -0.03555660016766022 -0.06453820204512543 
-0.1380445790717869 0.3643715603050348 -0.1222929832629173 -0.05430656406211189 -0.02513763183572848 
-0.2258957139826868 -0.385887658635839 0.2840344690278888 -0.1777919957521908 -0.4311340863034091 
-0.02153814571471042 0.2250492610595216 -0.21303188278751 -0.3864666463252542 -0.5911864233816158 
-0.1736998162264311 0.2572612560177232 -0.1043918013365392 -0.1428475467271393 -0.05326866767318672 
-0.009879680071435928 -0.05224107958655443 0.004245060925491291 -0.1066498709594378 -0.06618678667571058 
-0.2390801909867103 -0.3826729768191844 0.2403844766313796 -0.1280774458116715 0.4024072814664142 
-0.2278725071931121 0.7753502219023191 -0.2542860930081106 -0.2455545192712283 -0.1743521364171809 
-0.07339212533261504 -0.2152457706873156 -0.06779221054851803 -0.04646703980720491 0.05236178620429775 
-0.4196669467462092 0.1356954370993316 -0.0333375602839277 -0.02422857343217252 -0.3547982381028424 
-0.1797211460018081 -0.02494863434828094 -0.003568876160515926 -0.0008182587420550027 0.2082275702691627 
-0.01587488614542225 -0.4431193102581554 -0.06134292528998408 -0.112720844869987 0.2495928587308095 
-0.2463514729691479 -0.1741515557820544 0.382342773870242 -0.05667072583212157 -0.1356906485077393 
