solver_type L2R_LR
nr_class 2
label 1 0
nr_feature 5723
bias 1
w
-0.5034550240625006 
-4.866582498891185 
-0.5339327723618619 
-1.666132482028101 
-4.367706767833357 
-0.5769884295879598 
7.337059606831258 
-0.728149353811264 
0.985478527873218 
1.348988912565157 
-0.2480403438937209 
-3.857275102653773 
0.2958709454769493 
-0.007741726511091951 
0.10706266776965 
0.02320972274477983 
-6.037717089806756 
-5.768142532353909 
2.166500294620362 
0.09844388523165598 
0.1640627679803462 
-1.092337481517755 
0.9594626770386587 
-0.01935090280507148 
-1.48648155668978 
-0.4717841592740772 
0.193197189001463 
-0.9799330054353671 
-0.5217791938476521 
-2.531598490737908 
-2.034775182584861 
-1.648474630258454 
-4.464736099253919 
3.038425812486191 
-0.3241473187353608 
-3.658652851770936 
-1.869076807803628 
1.239492457471608 
0.5774988265534649 
-0.05680783350465139 
0.3731243678718369 
-0.3842214979050781 
-1.761439502739229 
-3.25237848679305 
-0.2435854874546422 
-1.191947895253973 
-0.1623304419720224 
-0.3613251314646285 
-2.378249865154992 
-2.54706266409944 
-0.2383563292997815 
-0.1152700832218281 
-1.775247836022482 
-2.870054659739055 
1.785970649715982 
0.8191990513604357 
1.054636333045438 
-1.867104725895802 
-0.004406723599514102 
-0.0489620356092637 
-0.03079950014603636 
-0.01310268079331852 
-0.07460993354077353 
-0.9646426079313682 
-0.6585935760808788 
-0.08820589835101059 
-0.7217415125788569 
-3.110599086221505 
-1.273732835359922 
-0.185919305525225 
-0.01257890674350833 
2.546272320251879 
-2.120051392072634 
-0.2907946718908536 
-0.2987248215629574 
-0.01665845267784685 
-1.136787463322632 
-1.782504939591421 
-0.03490650710611586 
-0.05312699438530821 
-0.04082480490786987 
0.33207912466023 
-0.02756639069336499 
-0.3433608482883176 
-0.07303760580360744 
-0.2116624057250841 
-2.702911544069177 
-0.6840984231278781 
-0.5252088749357865 
-0.3034093228524982 
0.7921620598527482 
-0.2934958272422808 
0.9614167685618333 
-0.9389616644363994 
-0.2317508011193486 
-0.02417163744488064 
0.8262840253238471 
-0.04953094298326004 
1.590351658455837 
-0.03662573108613997 
-1.52074019180853 
-0.5348961659473565 
0.3185418139222589 
-2.749234166150794 
1.576345380219172 
1.373005212455205 
1.393809511836434 
-2.50982339373284 
0.05002179839736106 
0.04640314023272207 
-0.2643256475268184 
-0.6026501511764735 
-0.2897824647315091 
-0.9677897367197557 
-1.334852864355971 
-2.830092965690324 
-0.2303688436853764 
-0.02956096317942688 
-0.1832611031378832 
-0.001874411357744424 
-0.1076136180570594 
-0.01136601721307504 
-2.128323832863563 
-0.6596897388172021 
0 
-1.713095331996188 
-0.03994914696408142 
-0.004348830689787447 
-0.002488260788139234 
-0.3434379296252879 
0.2704916112251982 
-2.253920977291876 
-1.088370610584732 
-0.3799200803220612 
-0.000688233360692733 
-0.210615777483359 
1.613815031540819 
-0.01370838704021696 
-0.004348830689787447 
-0.007280708634031343 
-1.153856434127934 
-0.2328451743049867 
1.43490996804232 
0.1200610682233866 
-0.002173068546765068 
-0.5607780253400112 
-1.321048016497271 
-0.05333957170490541 
0.8001581574214227 
-0.6351834608699092 
-0.2851651235772769 
-1.357557504517757 
-0.5561415230061132 
-0.4442697724271938 
0.7509700417508725 
-0.1062139155563465 
-0.3814779633611541 
-0.04650389584815307 
-0.539312260760954 
0.1358663662113938 
0.1191507528156528 
-0.8085091868614855 
-0.2429613641820072 
-0.0003367802434239221 
-0.03189313214788843 
-0.05857121072320691 
-1.124699723124804 
-0.4591607673118816 
-0.01801430486368125 
-0.216259281099297 
-2.032711045653261 
1.015779059568731 
-0.1834736340138908 
-0.06795022934217865 
-0.04284593424712872 
-0.8562270899399484 
-0.1175942220544442 
-0.01429356438837859 
-0.07654489465482742 
-0.09340281702586216 
-0.3088532244959898 
-0.3779228531859382 
-0.1036594322548677 
-0.002265004921740903 
-0.2604656290830417 
-0.0386170873827274 
-1.015143766131541 
0.5529610326884405 
4.331643200288025 
0.6366391700918924 
9.389812077760112 
2.545252580835319 
6.115575241778797 
1.01320655426633 
12.72031165064017 
0.162531285210107 
0 
-0.3159232114563534 
-0.04993648164574495 
-0.0150935785671546 
-0.6446003018865853 
-0.02560500795670738 
-0.8096113575838765 
-0.7092494773125828 
-0.5887088299442738 
-0.05590444495856399 
-0.0150231880422291 
1.880843871009255 
-0.01632562849407874 
-0.6089540574124692 
-0.01902665747870782 
-0.07498110984227147 
-0.5087878168289622 
-0.06963082011671726 
-0.01896127212581201 
-0.6029737466928775 
-1.148217959663765 
-0.03148315768947036 
-0.4639597775947061 
-0.3075377079707157 
-0.6019427306335263 
-0.04404638781642256 
-1.702856670738515 
-0.2001849155966766 
-0.2216492417414316 
-1.246373810425447 
-0.1135073431927651 
0.298592499406943 
-1.087223488280411 
0.4771205191654744 
-0.8141164800970091 
-0.10616488659536 
0.01257856246333516 
-0.3683502503149926 
-0.02747235503515755 
0.07681351326822866 
-0.09514377581102446 
0.3163128391959099 
0.1901463109482262 
-0.08597138127126204 
-0.3098257634793625 
-0.05825283976538138 
-0.01493349555971966 
-0.009960182290175142 
-0.05207557261523914 
-0.03118230936646477 
-0.0749802074860581 
-0.2048232267408369 
-0.1853961545931635 
-0.007118269483767248 
-0.01337459503924228 
-0.001812198711655742 
-0.06759032868714042 
-0.00190884788297898 
-0.008065992541503897 
-0.002046206620435484 
-0.05051842240805777 
-0.08839257118348307 
-0.2269255105694429 
0 
4.899791880114909 
8.983111074526629 
0 
-0.01511937841816906 
-0.008309410459992429 
-0.0003176443895363754 
0 
-2.399784196710839 
0 
-0.006640840153504248 
-0.09101070750315318 
-0.0173907259062863 
-1.019678763067325 
-0.003149314378555712 
-1.165434095538625 
-1.825576280184323 
-0.02174282647719627 
-0.1942630232726988 
-0.03502173168764476 
-0.04718665215122129 
-1.023243117875996 
-0.004155794089637887 
-2.528575872165372 
-2.523451353025689 
-0.04975207753388219 
-0.009988517474527857 
-0.03037246443077939 
-0.1301236967741425 
-0.004093297447839011 
-0.3481888292310631 
-0.3218592854397074 
-0.002804262458666152 
-0.002484045812610784 
-0.003848689619410441 
-0.001196362277552052 
-0.07260544459138812 
-0.158812493296029 
-0.419177725519997 
-0.09599625213788625 
-0.01342051053499957 
-0.00598247023914074 
0.7487369491992388 
-0.6827423976473534 
-0.02107565913460123 
-0.002941870825946084 
0.1416902132734957 
-0.2552411181096444 
-0.02687924218904146 
-0.01478708674593083 
-0.01922538804454157 
-0.2363170549269321 
-0.05956815597960932 
-0.2273042085453761 
-0.07816425134630563 
-0.007795572289668025 
-0.09388010030597108 
-0.03721543742316091 
-0.00190896242483722 
-0.2808480924307972 
-0.01055820685335952 
-0.01186664677102067 
-0.0870715908347528 
-0.001816485380566175 
-0.02760990645941525 
-0.2547888374403054 
-0.5284649205703018 
-0.100468099335181 
-0.05652829484975463 
-0.001381846858993733 
-0.09339671116640891 
-0.07836434655170088 
-0.006024902575632835 
-0.00156941569666109 
-0.004551989791268209 
-0.03823783600728974 
-0.04159894666096368 
1.335074938046438 
-0.2992475119957939 
-0.2998805910627718 
-1.894256988748478 
-2.920153190633151 
-0.04036493086912739 
-0.1079842378462762 
-0.02387755404202864 
0.4803533542460017 
1.003812660962633 
0.2749107290890824 
-0.07790171392964519 
-0.09152039971937834 
-0.00695498306980317 
-0.04267019963609123 
-0.1994096128864934 
-0.00556315294602317 
-0.05218550170229257 
-0.01092240990401977 
-1.261394600982042 
-0.351076608933344 
-0.139799771229986 
-0.2627477096430682 
-0.2883976046154262 
-0.002836374291414771 
-0.009279171935043693 
-0.001837497758854832 
-0.007221599973922422 
-1.234127955359387 
-0.6750505469204081 
-0.04683536533635409 
-0.003927349326503554 
-0.01387437639415804 
-0.1171231971376546 
0.08794533059133677 
3.508308355231416 
1.43799888880958 
0.07139281476834153 
0.6469134069781872 
0.01392455637896336 
1.611337152254379 
-0.06685920081433695 
-1.140372462074881 
-0.1327601556314238 
-0.05086154120324787 
-0.2276101382553628 
0.4986783752251777 
3.060736440696642 
0.5881311441713308 
0.0005211121530686162 
1.183410858120778 
-0.004641621233136854 
-0.0004921331855842078 
-0.1166344520531038 
-0.1134429702536794 
-0.9860722483716206 
-0.00961605704888115 
-0.472161054303094 
-0.1772476745053565 
-0.0628089356659594 
-0.2412889222564389 
-0.1190880733241135 
-0.7101481265488556 
-0.0004991930553168081 
-0.002750842934839991 
-0.003168621600183234 
-0.003193290872603745 
-0.004276894758669515 
-0.004922159590762388 
-0.008386410724688174 
-0.002804262458666152 
-0.000752556726406456 
0.001544290320533011 
0.9018811872295128 
0.02776015165819063 
0.001128350474933451 
0 
-0.06809997927669487 
-1.749679685637066 
-0.6399815574259928 
-1.601655889391019 
-1.580373015951487 
-0.1706849982834046 
-0.00410417805892027 
-0.05847121349766893 
-0.112252405998664 
0.01121453571943875 
0.2898872767581483 
0.7526590752662008 
0.5275333852430157 
-0.1857453215730415 
-0.002135867823192814 
0.4471635398978578 
-0.02307524393506514 
-0.009823955894078251 
-0.006945350742528156 
-0.2340563116138032 
-0.03454351863833355 
-0.6541527774597851 
-0.2984443070766021 
-0.2800133345781915 
-0.2185596994846015 
-0.000442518893696256 
-0.01554662987079336 
-0.1770197795511859 
-0.01932718539104171 
0.6210448404521057 
3.530967346503487 
0.05002627151131739 
1.736082517828667 
0.02325692397701392 
-0.1390696141734729 
-0.1703226366512627 
-0.04836954808790075 
-0.006089335557274252 
-0.006074292794220929 
-0.003691296891432445 
-0.02600192244271295 
-0.08737579707665118 
-0.1736873612856051 
-0.01195592194541282 
-0.1119161257148123 
-0.01469432745752352 
-0.04750554598378498 
-0.09359367551868739 
-0.2523382643962164 
-0.5256886571574104 
-0.07971207845155248 
-0.04322315243170385 
-0.008553460883020458 
-0.5320885081165493 
-0.272535800168603 
-0.01439792444042081 
-0.003903036430154091 
-0.003927477693307539 
-0.2758884430166152 
-1.388925601889586 
-0.870614802411572 
-0.01986724696233884 
-0.006099422258129898 
-0.08084705735672294 
-0.1107574951155542 
0.4486605459327409 
-0.01528113734016726 
-0.22281413998375 
-0.0661112543551389 
-0.001161275272713865 
-0.009900890930555035 
-0.05256800109849111 
-0.01195674713461245 
-0.6081577525131249 
-0.2356292698867002 
-0.001047442116972504 
-0.06059037625447945 
-0.002182731097588316 
-0.01190660276962335 
-0.8084976179554556 
-0.2832137565173608 
-0.1946242988129093 
0.9924744247936096 
-0.00320521954400963 
-0.1699172566325305 
-0.1835443335178931 
0.4794462518053088 
0.002459137735299812 
1.15783990446263 
0.03868658752537422 
1.05224260996243 
-0.008349273894810806 
-0.03040379748135005 
-0.1332042197651451 
-1.174037304719356 
-0.07320880179718572 
-0.0911731336952627 
0 
2.076839076130823 
2.679938578940991 
0 
-0.02147460297563752 
0 
-0.0005842927166676488 
-0.001160870710516906 
-0.1833733217936885 
-0.01085894133183182 
-0.04087041899393611 
-0.009461364490115719 
-0.07027665690184605 
-0.1849735830159181 
-0.01855617516326815 
-0.4978005630129067 
-0.1270751970240865 
-0.04978298854752036 
-0.001118243163008031 
-0.2300466021250182 
0.3646022586776551 
0 
-0.0003938423057370199 
-0.005898233513987384 
-0.04744987197121659 
-0.2282857658043181 
-0.00541564256981602 
0 
-0.0005025391847029448 
-0.0008926729180492237 
-0.0305830050373406 
-0.1327995054769661 
-0.1030662487145233 
0 
-0.2853124460965475 
-0.2829516357709889 
-0.02855833049813286 
0.01489838638168883 
0.00119266811361137 
1.847459686881973 
0.04532161172893017 
-0.783695832564814 
-0.0001295077461192303 
-0.02440072078723899 
-0.00219943387772047 
-0.0009383284685082905 
-0.007863665081926678 
-0.5768609103423804 
-0.001237935764232995 
0.09073354423285945 
0.2663323899789204 
0.7827400833855102 
-0.02428130724698793 
-0.02606633800776875 
-0.03471209241377238 
0.002558736538054069 
0.07327376771733152 
0.04602742245315675 
0.6238660879486839 
0.0001235330739683791 
0 
-0.04394476160822819 
0.004219167825660991 
0.3996835095705271 
0.07778887358472403 
0.002055881701467142 
1.115842295522699 
0.04886238450415996 
0 
-0.04551182919576709 
-0.001620496382723761 
-0.01074670266258442 
-0.0097922094028681 
-0.04673268296464138 
-0.01448494548506222 
-0.1014175660760301 
-0.08821439196673897 
0.03276168514633961 
0.0003461299897316966 
-0.03638244729098755 
-0.0009319287532054714 
-0.06798574350327496 
-0.07490613544003155 
-0.0008598260736245942 
0.003277444726789462 
0.00040965216532687 
0 
-0.02146158547850005 
-0.005059296608939775 
-0.06265434338602274 
-0.1134860073468794 
-0.002166806749366204 
0.3432280943836892 
-0.02266477682888795 
-0.00160470509259273 
-0.001985702346244174 
-0.0003176586870228926 
-0.005639389000500745 
-0.01223825657431421 
-0.1692915003117154 
-0.4016941718083864 
-0.009451987973285402 
-0.01073994668308858 
-0.01279713241323677 
0.08610577297436928 
0.1272964024122467 
0.01711622237416577 
0.4441588117875951 
0.0002992313033039385 
-0.8064332703111161 
-0.01802904670844407 
-0.01251657470834541 
-0.003623940634100861 
-0.02499831792948452 
-0.0425589684532193 
-0.02477356235509258 
-0.02687309560887811 
-0.03268577438681985 
-0.002642400579749028 
-0.02036658720441974 
-0.003758918660262754 
-0.5331237653812791 
-0.04418624335235487 
-0.09765883996494307 
-0.02972128392675855 
-0.01043591868913583 
0.05082359420595053 
0.08834587505339858 
0.007645663509758549 
0.000739164280759548 
0.007883623768799806 
-0.05678667757026794 
-0.01249574701757257 
-0.009240453960274357 
-0.006867977800464319 
-0.02458139610202816 
-0.00758504458783691 
-0.06052128236347581 
-0.0189056583443764 
-0.01991842397108799 
-0.0009907116031790506 
-0.003416466982921861 
-0.05179491100035777 
-0.005043449961607921 
-0.006325439242751073 
-0.0008067812232195181 
-0.007168619601423823 
-0.02356495927041512 
-0.01282069073548821 
-0.03112513758194901 
-0.003017154536778456 
-0.623563536941527 
-0.2337999649501779 
-0.003235315332783061 
-0.01088325720651015 
-0.00541564256981602 
-0.05924384573352971 
0.486524489199323 
-0.09088492189896609 
-0.007682878346929695 
-0.001499075794902192 
-0.2430718834339755 
-0.1800862314078309 
-0.1006045271109723 
-0.05000292005293885 
-0.11495381738959 
-0.001306106912863669 
-0.01403801741178005 
-0.007244748288321497 
-0.004089746943392812 
0.0007347595369901333 
0.007776478289467859 
0 
-0.1199190878999158 
0.001040802428536883 
0.0004411191098217335 
0.001910784052486048 
-0.1026263983339267 
-0.0001744805152296366 
-0.1357649950631249 
-0.001834492965692145 
-1.387897434119202 
-0.01849367197035372 
-0.4027393607174494 
-0.0009202169574615581 
-0.007122403657441788 
-0.0006221529337446629 
-0.2952205465362988 
-0.7048572403744843 
-0.001172530043153346 
-0.1165832562363339 
-0.003816589891022265 
-0.0535758578553561 
-0.03407459855646552 
-0.1848511024867144 
-0.000358005722624275 
-0.0022568812427532 
0.0008751709709816411 
0 
-0.007693073500851791 
-0.000822087789726912 
-0.0004255353480812994 
-0.1024563139183231 
-0.004315009602804743 
-0.03835528814472584 
-0.004225108543865224 
-0.3906246386169595 
-0.1043965928312693 
-0.0004207592973089136 
-0.06045878723871549 
-0.009859298422402943 
-0.008459216313006905 
-0.02873212405532989 
-0.03615393954641462 
-0.0001404658902296786 
-0.1030306936019615 
-0.1857185478120918 
-0.03699808424110158 
-0.4033767538734817 
-0.03603635526648889 
-0.01234151079635 
-0.03133523660966103 
0.004529950337760187 
0.01764757043533853 
0.001044587529258987 
-0.1472504141395659 
-0.01534465099783722 
-0.01622593202381574 
-0.001940334398907068 
-0.1328241734083442 
-0.08469019169837333 
-0.01192676625953813 
-0.01075599356399835 
-0.007357515205614408 
-0.007369402188225588 
-0.0007252695895932814 
-0.03542654568584937 
-0.0007553914830095543 
-0.01148484038745991 
-0.03324691065818813 
-0.06470401436989291 
-0.004174313173284547 
-0.07705833365863636 
-0.0008438876302721422 
-0.007173452123506958 
-0.0007190938974547618 
-0.02019333252369549 
-0.08224570062541695 
-0.01295486774701038 
-0.002564778969454699 
-0.00499365341710882 
-0.01354448934994008 
-0.00219254157082379 
-0.04175322074496042 
-0.4299728650483 
-0.000752556726406456 
-0.06986488600394704 
-0.249522861791339 
-0.02015067164969864 
-0.009124635440363436 
-0.006359085702762621 
-0.07144380185367766 
-0.00227611837000433 
-0.002435385781490082 
-0.003278384376247237 
-0.08533396048312124 
-0.05568675246188899 
0.0007538418668712539 
9.422933946597192e-05 
-0.003874130513350948 
-0.01383718168997999 
-0.3090404464625267 
-0.004791591016465077 
-0.07922708414864876 
-0.0004939236676463545 
-0.03133866534813922 
-0.01968135284078223 
-0.08871678602352256 
-0.002367742857937769 
-0.1791343932736166 
-0.0004266215056132451 
-0.0004140390621093489 
-0.002875695533249677 
-0.001929709980836604 
-0.008686124685585283 
-0.02601402907506857 
-0.1629984357295809 
-0.0004911562575279314 
-0.001845603152609035 
-0.02014826195891093 
-0.003077582056610188 
-0.007874117834806273 
-0.001268711473979111 
-0.009092032055122257 
-0.0005427149107326701 
-1.337261029858362 
-0.7432095978887748 
-0.0009319287532054714 
-0.0009319287532054714 
-0.0003854490536837458 
0.007161067245165276 
0.09975536883134768 
0.0005951893731438976 
0 
-0.01364797711845972 
-0.3906735980381127 
-0.0006222562708276046 
-0.01087487463160142 
-0.0008379634402337118 
0.02003582635211808 
-0.0989575831996008 
-0.001390144749313408 
-0.1279158729220952 
0.02503499480127074 
0.4607095882003311 
-0.2564638586366276 
-0.04179975924631628 
-0.02681778585325937 
-0.008826587016258849 
-0.09180751750421268 
-0.2668480050783945 
-0.01602154549584701 
-0.04766238522464208 
-0.001756217205667814 
-0.002917477968203236 
-0.0008621103937725354 
-0.009425182681137418 
0.01630773263563576 
0.002037947875294276 
0 
-0.00115042941299849 
-0.01515571378501588 
0.09258065468592079 
-0.4703673261164431 
-0.04970983983755522 
-0.137991310205682 
-0.01412482337585123 
-0.0007151524529432547 
-0.01245077212514048 
-0.003691041116148618 
-0.01395230441317017 
-0.01209624503064133 
-0.02952555127723573 
-0.00181394935159713 
-0.002536039109916428 
-0.006417092508936203 
-0.03563647347118166 
-0.2828330685375802 
-0.003640273400217896 
-0.0002245083535109557 
0.003563760698433733 
0.007746428910706643 
0 
-0.0004376470654400757 
-0.02174584149674783 
-0.003336343380080511 
-0.003486092177729357 
-0.002603301602202403 
-0.04329861134899503 
-0.1599558132791841 
-0.07920817242869729 
-0.01465057974842156 
-0.0002834866888515402 
-0.0006766965471238154 
-0.1179602645293772 
-0.1238130941947028 
0.001974188225155738 
0.0002953841174350003 
0.001218268907774468 
9.845190628913403e-05 
0 
-0.0320435961804095 
0.003364720655928295 
0.0008684556474808486 
0.03738080482199355 
0.0002091614777721816 
0 
-0.008534614720692404 
-0.08756412136363849 
-0.007225096995894967 
-0.006695417255218036 
-0.06995330983047031 
-0.1716690100583484 
-0.3815261368515566 
-0.005234584682904943 
0.003681629063499395 
0.01686940863276129 
0 
-0.1037104550459333 
-0.004955298657912286 
-0.01280382747032347 
-0.006621663671400132 
-0.03590338346538419 
-0.1022381203981795 
-0.01822773249059011 
-0.005336854081879074 
-0.008713160512046292 
0.003790817801096957 
0.001895459655325434 
0.006281100140763218 
-0.228130895703617 
0.002218529991907798 
0.06688765553844586 
0.0004788658094879459 
0.0001383405707140389 
-0.00929746718658332 
-0.006089335557274252 
-0.004643748048273943 
-0.004105918776318658 
0.00410447675243305 
0.003458710786719675 
-0.07749635757672378 
-0.004228620099095829 
-0.0008998538851571758 
0 
2.941442671574893 
0 
-0.007936505383671796 
0 
0 
0.006767734460808379 
0.01704953298943372 
-0.4571953417907894 
-0.01455769484941292 
-0.2003619526038592 
-0.6086841335633605 
-0.001892461894933229 
-0.001393053117828771 
-0.001092319959303213 
-0.002044677140565602 
-0.04239831273243302 
-0.8242573604512653 
-0.1857466240102216 
-0.147767612131822 
-0.2474197238922426 
-0.002073113227783306 
-0.0008289987879729242 
-0.006089335557274252 
-0.1597191306637683 
-0.003842546094225481 
0.06406519031649713 
0.0005063498561722374 
0 
-0.04488071478712528 
-0.01101582111358304 
-0.01042746841364405 
0.06107166271809946 
0.001087428774189937 
0.004874508399861276 
-0.4510559123563251 
-0.001934896593847026 
-0.005564349622602484 
-0.001846181200574129 
-0.001365544300486853 
-0.3161910365963198 
-0.0004425250716310207 
0.05170869716907529 
-0.7420823128152885 
0.03727814644054705 
0.0002608632546206402 
0.008594320020361725 
-0.02910996321954068 
-0.02546682497559781 
-0.002384183815820789 
-0.03481090986200995 
-0.05011604971515612 
-0.009032853191502219 
-0.009844072112029487 
-0.04037062212966162 
-0.02891483826667376 
-0.0029524072301399 
0.000823080727500802 
0.09232124818894177 
0 
0.008176692859666181 
0.007891354784385674 
-0.01356063720762894 
-0.005186614382664667 
-0.0007054591418075502 
-0.0326324833632549 
-0.06733182026809305 
-0.005203955818494577 
-0.002321765452995665 
-0.0007640045167552114 
-0.02346088903045533 
-0.0007597699961075688 
-0.0006186262434304509 
-0.03075626357375964 
-0.1084846491962872 
-0.009711371221512806 
-0.3212285983448082 
-0.03355026122080317 
-0.0168066874682176 
-0.09608296923449519 
-0.004974841212050662 
-0.0293094050263972 
-0.01548154506798762 
-0.01356514611773588 
-0.0153021554364673 
-0.001465306101827479 
-0.1654859660062276 
-0.144415558960573 
-0.4683034378290383 
-0.2499493864434634 
-0.01405660053629507 
-0.004980833320739441 
-0.01566274392788042 
0.02966930983775378 
0.0003947807140032864 
-0.01499933625214992 
-0.06783609423918104 
-0.5657520727212788 
0.04107855753841099 
0.0007185537790624624 
0.02704835720662862 
0.000239306338388122 
-0.429946422033361 
-0.0008289987879729242 
-0.02979412065398768 
-0.0007468965670600701 
0.05597838588035447 
0.00138785178893409 
0.003653833631026003 
-0.02421727115171494 
-0.01968051945857138 
-0.099656602647997 
-0.02397539270159079 
0 
-0.3396569274792627 
-0.02229677346633365 
0 
0.1161103818896493 
0.01448468063104135 
-0.03935857119930049 
-0.001089324327889624 
-0.009004680971855229 
-0.1984877563838901 
-0.01937293811032907 
-0.01791459751488714 
-0.005724356733231102 
-0.006020672575612481 
-0.07516376289893123 
-0.0001299775647215498 
-0.004348830689787447 
-0.001615441588433313 
-0.0006941924969329717 
-0.0023174776830052 
0.001860330983101581 
0.0002325364044577516 
0 
-0.002771137807021806 
0.07628443564448772 
0.0126280119187883 
0.09555093853076768 
-0.004463872898273783 
-0.05701770329142729 
-0.00104627963212512 
-0.0005561522130973429 
-0.00443940371866631 
-0.9069525424307172 
-0.005617275049162557 
-0.00268333849886911 
-0.01023527366264177 
-0.0009245518608481558 
-0.02072966106098821 
-0.03313225364022683 
-0.004284593782448647 
-0.0002096362162957542 
0.02134235588748996 
0.02043754285282607 
-0.00616858555629517 
0 
0.0007098544776589923 
0 
0.00209330308158304 
-0.006782962357430502 
-0.000790109853787901 
-0.02180023528277743 
-0.05625924257280868 
-0.0360955169032762 
-0.01094235223697893 
-0.06330238922644017 
-0.07021437588351978 
-0.005000015454139192 
-0.02560246201658569 
-0.003395761525754946 
-0.001074111025408711 
-0.3239178656345412 
-0.0340155917748593 
-0.009131597840654595 
-0.005122837772027855 
-0.00170265010593572 
-0.005520540745109775 
-0.04233620303443976 
-0.002484045812610784 
-0.07288432580320429 
-0.002140498997086523 
-0.02963566424217939 
-0.01508612961545052 
-0.002663128864077079 
-0.004194097860814667 
-0.006641035390605034 
0.1492673981598108 
0.1021391511122508 
0.0003315192645394228 
0.4233884849979321 
0.0001102765295335211 
-0.005044705964137548 
-0.04147873835756344 
-0.009509164643752954 
-0.03751449180736174 
-0.0006755510208360034 
-0.0006040921027582892 
-0.0003020342374989155 
-0.0003766781035731598 
-0.003669658212396784 
-0.005638064389089164 
-0.1241613953610945 
-0.00671327754074434 
-0.3675366571980121 
-0.014166996397107 
0.003124789304769078 
0.0001027506882836596 
-0.05492069019677544 
-0.3765892570286899 
-0.02950956362684757 
-0.04320029611285428 
0.07477649924106987 
0.1566320996224314 
0.06547032029454855 
0.00913057730869044 
0.5719162787404443 
0.002633568755866489 
-0.0632949454910125 
-0.004861129194434428 
-0.00748375571275885 
-0.00225696153139993 
-0.00225696153139993 
-0.001403859104545798 
-0.07495486681731189 
-0.0007842229095189218 
-0.02440237989702999 
-0.0438369580045083 
-0.006260816628780906 
-0.003210215859393074 
-0.05098986637877077 
-0.01973145768931676 
-0.8655364017579915 
-0.0007896632453860096 
-0.002875695533249677 
-0.0002908628448627594 
-0.005605217233123808 
-0.0197182936224839 
-0.02258797332949142 
-9.135184027549323e-05 
-0.001538388533633591 
-0.006089335557274252 
-0.0181065533292878 
-0.0528694589880364 
-0.505979043047758 
-0.02221522816099553 
-0.004747429578994692 
-0.01055820685335952 
0.1624130333665172 
0.01813826170651298 
0.01749124571841542 
0.006025967842475777 
-0.01107601370308888 
-0.01287984883548737 
-0.04834946484670929 
-0.002985127714132905 
-0.02041741808574824 
-0.001121339962802951 
-0.005670610455268578 
-0.04289719446092854 
0.07903912819451636 
-0.03670434087452844 
-0.02594007696617243 
-0.01965618298383376 
0.7083096093799155 
-0.1144480877566048 
-0.100801889813759 
-0.03257923053661695 
-0.001207980405201264 
-0.1211696000442624 
-0.001400062031241803 
-0.004246123883151596 
-0.01227949504981274 
-0.03142543467161093 
-0.01230422962137362 
-0.03471913951809136 
-0.009276447869064203 
-0.001748511816664017 
0.01159363264556965 
0.003298857456190927 
-0.001666607221516724 
-0.01227030236868631 
0.0008120828621740819 
0 
0.002682388782437121 
-0.07884734105223218 
0.03614648480598848 
0.0008142922219483872 
0 
-0.01102178770563228 
-0.00115042941299849 
-0.01833520541135897 
-0.03763607100559595 
-0.08124337439178252 
-0.04789267204198977 
-0.07974825695309588 
-0.004486629099200876 
-0.00261371175025237 
-0.02984606372335494 
-0.05517748712617833 
-0.001828554654313294 
-0.058351644841091 
-0.002875695533249677 
-0.111722637161378 
0.02086822440405052 
0.001655447250189306 
0.02440637512525428 
-0.002350545174818409 
-0.006956583592177318 
-0.05633814011044726 
-0.07346855627053547 
-0.03936911020706708 
-0.006580875761140578 
-0.001637201685825969 
-0.004176928462787358 
-0.00488227658304412 
-0.003795452670949247 
-0.00996633250747803 
-0.0009908831248668975 
-0.004607683313929409 
-0.03172278743538975 
-0.01168061163946293 
0.0003737265979232551 
-0.007693073500851791 
-0.01035344733341537 
-0.003111515618489167 
-0.003660337259209154 
-0.005914283272891734 
-0.000467504261070229 
-0.01641814917231142 
-0.02508064623217311 
-0.02484934458362172 
-0.002172963972501298 
-0.002452176586274066 
-0.007129126077021057 
-0.000713447599778923 
0.007341938909440906 
0.0001046607905909568 
-0.06574259236954749 
-0.004550161180508999 
-0.00716884374322996 
0.9046751186599067 
0.3874331574926969 
0.06570463858945534 
-0.1129554465788401 
-0.01329165703304213 
-0.0007499883819472998 
-0.012305734881694 
-0.007451317415476093 
-0.0002792194247631459 
-0.06407040205768638 
-0.001852637568117001 
-0.01033223311350286 
-0.005948471489460005 
-0.2123215217030267 
-0.001317285464930909 
-0.007217958422878047 
-0.009988517474527857 
-0.006393821128267433 
-0.0208242814910551 
-0.01660703203802453 
-0.001816485380566175 
-0.02553099284771203 
-0.001740732898613183 
-0.1550407143403648 
-0.006089335557274252 
-0.0001584184144500352 
-0.004784711155229181 
-0.006645531327080741 
-0.005511759183085187 
-0.002495686630619551 
-0.002983285821938145 
-0.1439819120264881 
-0.004247903069678343 
0.003453913295835464 
0.005580003122971188 
0.0002876712425530892 
0 
-0.02606701161437502 
-0.03141049584282823 
-0.01625121892619995 
-0.03527512617200623 
-0.2687860863246855 
-0.004550161180508999 
-0.003761845256638177 
-0.2534146619980325 
-0.00118791450462006 
-0.008896368495717786 
-0.006338320778954208 
-0.00296856419746076 
-0.001262808081783885 
-0.02189226126037185 
-0.01166612806323266 
-0.01364332405156237 
-0.001039608041682333 
0.002517962996191675 
0 
-0.01308768383344552 
-0.001039608041682333 
-0.005484343051785585 
-0.0841492488266376 
-0.008184140063242211 
-0.2735585773421681 
-0.005605217233123808 
-0.002453104577580691 
-0.08117814692167488 
0.001221767497173632 
-0.003458365064792779 
-0.007746666823621649 
-0.005241718133852963 
-0.04009597984961255 
-0.006044839336981684 
-0.006782962357430502 
-0.006016265019934109 
-0.01097072400910628 
-0.005034106463736397 
-0.00115042941299849 
-0.1400429133860382 
-0.002044677140565602 
-0.01338918290109124 
-0.01947759258358107 
-0.002804262458666152 
-0.002895787334489855 
0.0005373780420235524 
0.0709468373516407 
0.0001788393491511955 
-0.004078563950815893 
-0.02327019515257992 
-0.03364152434850058 
-0.04678093636463328 
-0.0481180725108258 
-0.087412370901034 
-0.02134209951176659 
-0.0004433936910023162 
-0.01185539374034762 
-0.03879476925648252 
-0.1716843313782278 
-0.002343669758638487 
-0.00309444345577922 
-0.008541169279229929 
-0.01731266382819122 
-0.03505542850952476 
-0.005043449961607921 
-0.001056747390649072 
-0.002411159363911728 
-0.002704362192063489 
-0.003395958901046129 
-0.0005356857746727278 
-0.02575476892548002 
-0.01900917456484121 
-0.003299102090512444 
-0.0002642844861923942 
-0.0700578763158457 
-0.004985076638624564 
-0.00261371175025237 
-0.00525772783906074 
-0.06222194460966694 
-0.01427923680941202 
-0.007657951861127579 
-0.08955281019747383 
-0.004955820916445618 
-0.002804262458666152 
-0.02965819921234527 
-0.001139646908076745 
0.008374855118457786 
0.02311703866352382 
0.0006966364017402195 
0 
-0.03413255894290091 
-0.03947847956790938 
-0.002051874877307651 
-0.04064536106182832 
-0.001361325916765642 
-0.01639997519653384 
0.05982518484294951 
0.0001716651187407821 
-0.02521549315297759 
-0.007445804598201915 
-0.00541564256981602 
-0.2314213426485137 
-0.002777505121140405 
-0.0009944141453515653 
-0.005316279923313934 
0.0006766687754735387 
0.008753439948085886 
0 
-0.005318973613086161 
-0.002858206609905047 
0.0006789062716658883 
-0.0575440049547645 
0 
0.002452613712467759 
0.001050282107363534 
0.006173766252120524 
0.0007716562644124831 
-0.04002888547771863 
-0.004653211285241362 
-0.01099303476481253 
0.0354922417723001 
0.002343711234060641 
0.001171641987306371 
-0.0007419360016054724 
-0.0366236433810781 
-0.0191344861121702 
-0.09492858733606349 
0.3171544821134372 
0 
-0.008493234413513953 
-0.0104134118815309 
-0.06938060482261198 
-0.01914662109421141 
-0.00138814497585044 
0.01042305646205221 
0.009980356580401105 
0 
0.007882083746912216 
0.002145114204067469 
-0.1070246868630061 
0 
0.002411351722246563 
0.0007367821414807673 
0 
-0.03589143200877702 
-0.003644862862537059 
0.006080967392709444 
0.01988839371182314 
-0.08353870649749889 
-0.02106756043019744 
-0.02817407670835761 
-0.005346178894985884 
-0.001741111654571641 
-0.001962806816922417 
-0.01385634273517056 
-0.006552321298516814 
-0.01218536141276421 
0.3226000646860476 
0.005724404370040161 
0.005200783795903973 
-0.005544596461822459 
-0.09864795486963715 
-0.1523826375108344 
0.0008693295029482344 
0.0001086648092140865 
-0.01824638751565484 
0.006918347456298806 
0.0005675286386994102 
0.0007028361161439219 
-0.04199377322804723 
-0.01088311954811095 
-0.03427047219015995 
-0.03613178236472332 
0.0002129568337281027 
-0.0009219723245490219 
-0.005515077204498982 
-0.0158395706242821 
-0.002404851042173198 
-0.0432708424659969 
-0.007842206758681355 
-0.01633566202715907 
-0.008160867557400369 
-0.005034106463736397 
-0.1424795513038993 
-0.007768113177931161 
-0.02546350120356239 
0.002207147216421466 
0.003394936392025579 
0.0005942200614970235 
0 
-0.04866931803785318 
-0.02488667147908861 
-0.02646869584002321 
-0.04125654530676223 
-0.005314948840474894 
-0.03082841170188688 
-0.02881574721241764 
0.02722925991004751 
0.002165474465526898 
0.0001112194002156834 
-0.05116629542870516 
0.001204964778834486 
0.004236294193756494 
0.01522570100859263 
-0.004653211285241362 
0.004056739808035051 
0.5980924341791272 
-0.004831490327909586 
-0.3043892780902345 
-0.02130575266073017 
0.003384099700492699 
0.0001168284343253845 
-0.08558201223625751 
-0.008396915685313817 
-0.01013070155650733 
-0.01424359738055855 
-0.003403912170404407 
-0.03000356415373905 
-0.02147887110839691 
-0.007748925954775306 
-0.001326104310365366 
-0.002574109441777714 
-0.002011389707674305 
-0.001623091789620575 
-0.101475484680105 
-0.0327192238826864 
-0.01594282619440372 
-0.01628707467069375 
-0.02979412065398768 
-0.5118744041172865 
-0.01907287065449468 
-0.04983956758117482 
-0.000848950776896984 
-0.0003327295319398321 
-0.00165983186880723 
-0.0008298184222962945 
-0.00405500060105571 
0.0003479951288243507 
-0.007937633569400419 
-0.00541564256981602 
-0.07645516871040692 
-0.0178882626494186 
-0.008735732587680341 
-0.01749852109878907 
-0.03604278398493635 
-0.0775004061542249 
-0.01682707073454761 
-0.00110264614088939 
-0.02618969379609008 
-0.003818274402597674 
-0.002015286552871724 
-0.02578972989197659 
-0.0136083323707767 
-0.003160771361119775 
-0.002761110919965805 
0.0001027045829132118 
-0.03140998636369119 
-0.0005666161331034459 
-0.07523416059281118 
-0.001764528993965133 
-0.05556107939838625 
0.002238654747690902 
-0.1056458361718295 
-0.02914063546697413 
-0.0002633231371650691 
-0.01561848743987362 
0.0001012047860627828 
-0.001826695438908679 
-0.03575581435633695 
-0.02377550262281277 
-0.0101864954325747 
-0.1311185055229865 
-0.03724138128904534 
0.0008304704960090425 
0.0006289042900295934 
-0.04584717240523799 
-0.008425615363995265 
-0.0002469644895372004 
-0.1056324623077271 
-0.001740462946802614 
-0.05829588007059541 
-0.001007353278997983 
-0.006756923403832579 
-0.04238160933614225 
-0.05643964168706318 
-0.01359428774009257 
-0.4801185429553835 
-0.07953644707544011 
-0.2023889694320926 
-0.02710460795503805 
0.002323450786032812 
0.005503251999771288 
-0.04338881192556629 
-0.03532002800844261 
-0.008949384995947994 
-0.0004006083524625525 
-0.006364175003059367 
-0.002468505838644143 
-0.06262918067294537 
-0.002173186953661423 
-0.02266742671199198 
-0.003635734891424896 
1.942529548167922 
3.491583178900183 
-0.0002047840712096969 
-0.002986565180319895 
-0.008952163327887099 
-0.005385416193590984 
-0.06970165020105097 
-0.0008289987879729242 
0.00329402882632791 
0 
-0.0047234875013698 
-0.0003087419435955569 
-0.4167545357537109 
-0.3819229711298258 
-0.04074442709982455 
-0.001154673076764765 
0.0005115213649090956 
-0.0165523787230242 
-0.09297974978926221 
0.003729613511047709 
0.0006215628698822127 
0.0003107696229046612 
0 
-0.01368743443524514 
-0.01258040696058836 
-0.0002039008642315552 
-0.08230584080454337 
-0.004026707026250709 
-0.0008643517306384068 
-0.01312671534438013 
-0.03613178236472332 
-0.01638399539091284 
-0.0007338205294894585 
-0.01567312765776058 
-0.001119227010971545 
-0.07495839962542028 
-0.002205790117114474 
0.0008379647238923152 
0 
-0.001079802579177641 
-0.0007656118979878486 
-0.005070362066769521 
-0.05952427413155086 
0.0003598875743755733 
0 
-0.01210499919527356 
-0.00638909914172491 
-0.03477793172134575 
-0.020529856482887 
-0.003949270827063367 
-0.0199898739892735 
-0.001941101540402503 
-0.02132123102907802 
-0.01000193419692382 
-0.01082023407714169 
-0.002020077246155893 
-0.006175948903995749 
-0.008283616601514793 
-0.01026446225295066 
-0.0003603587449618904 
-0.000983153100906752 
-0.01974669001717342 
-0.0003090402088490416 
-0.01954560715112841 
-0.001186895897971905 
-0.006956583592177318 
-0.06013389697720483 
-0.03705720711078092 
-0.002393710495590622 
-0.06868994645747951 
-0.000883554214558644 
-0.1968857552794028 
-0.007646917193672367 
-0.001377564439773923 
0.001896508071883702 
0.0003160686477411986 
0.000328650574088375 
0 
-0.01899417513463773 
-0.01015446372266291 
-0.02596317481027802 
-0.005605217233123808 
-0.006207815892098539 
0.004312560085426349 
0.00105256650763176 
-0.1838827440702703 
-0.08075091537068427 
-0.002804262458666152 
-0.0002407335711136535 
-0.02904894731484924 
-0.1650854977525737 
-0.007091086063676946 
0.003553856708665101 
0.002375008227784632 
-0.01111162870347193 
-0.004765598524933657 
-0.001896353926743509 
0.007534141895328904 
0.002178135158281995 
0.00174300684759114 
0 
-0.04199351520003601 
0.008327510995857882 
0.1653827612068003 
9.527394911088584e-05 
-0.1389256143400594 
-0.0008221239368014111 
-0.09921866170833403 
-0.1098411921993979 
-0.006653099650352334 
-0.01959028104120383 
-0.013393365425713 
-0.001685743620872002 
-0.01036800389626287 
-0.1705370926323966 
-0.01270261374944126 
-0.01370755933165706 
-0.00747243275015155 
-0.01337459503924228 
-0.003283912473839229 
-0.08769530073340534 
-0.00142041293930472 
-0.01133092082867259 
-0.05085150619392555 
-0.00115042941299849 
-0.1194080680454869 
-0.003425902513454942 
-0.0143595830917818 
0.0008588188564006145 
0.00224795703284509 
-0.00170265010593572 
-0.006430082128908207 
-0.06643403185013169 
-0.006503983185370889 
-0.002022485504869755 
-0.02490630727109912 
-0.02108008068860693 
-0.01995101272763162 
-0.01218286545149544 
-0.005038720038267101 
-0.04706541535837078 
-0.003765155808804067 
-0.001138694400840633 
-0.03351165921137388 
-0.005339167689155199 
-0.01393279505406173 
-0.02146158547850005 
-0.0140480880922849 
0.001015816969113925 
-0.01078020111327419 
-0.002321765452995665 
-0.03157398441639225 
-0.004584363337488067 
0.001828804734346295 
0 
-0.002224643235036928 
-0.003492305409530061 
0.00343181617032792 
0 
-0.007648786062494927 
-0.0002677659431397284 
-0.008597482173469501 
-0.00209852644152839 
-0.006481535601970565 
-0.004244474317934573 
-0.07632130422857061 
-0.002804262458666152 
-0.005266170294769393 
-0.006311744816465044 
-0.004707614352760924 
-0.002999006815121907 
-0.01177832374383077 
-0.02662643482668539 
-0.006010138623699016 
-0.001286111197404025 
-0.002804262458666152 
-0.01488024692854722 
-0.008229156713546718 
0 
2.777496289210577 
0 
0 
0 
-0.00250584141939489 
-0.001206691239711728 
-0.000339884317820937 
-0.003365995049926625 
-0.06043394656918438 
0.009825465881212391 
0.0004215516385191307 
-0.001120860362288219 
-0.001648151242378944 
-0.1832462222266592 
-0.6101985811782019 
-0.4429451206717453 
-0.004341538693636121 
-0.03643984683461975 
-0.03316498839765446 
-0.001365610971614618 
-0.06323762139989438 
-0.004112456808090429 
-0.0006817863449519517 
-0.002602321025062453 
-0.0294705876091273 
-0.002777505121140405 
-0.003362913041557647 
-0.002571819166720228 
-0.01403169123483548 
-0.006478864895422915 
-0.03861568356985978 
-0.009673383186377432 
-0.08456544855360143 
-0.00686611522401359 
-0.006126398207544802 
-0.01974432334236104 
-0.02091212993078082 
-0.02586698395017136 
0.01161516008929183 
0.001451557165650784 
-0.001816485380566175 
-0.0005010616179377714 
-0.05559244569651593 
-0.09479208294246994 
-0.0223893988607215 
-0.0004728617572167166 
-0.0009667713651899189 
-0.004080483397474181 
-0.007260987345910358 
-0.02558611352611975 
-0.0008579728183226415 
0.001496648489464261 
9.738139014501962e-05 
-0.001575318989448088 
-0.0393296639762708 
-0.01993987468105082 
-0.095613986659388 
-0.001711786204460711 
0.00303076665821829 
-0.075584370141347 
-0.0005036499221789816 
-0.006732651763837766 
-0.03393715025413838 
-0.06916639750283783 
0.0006402138580949253 
0.0002090418527481713 
0.0001045196572469048 
-0.00378094683944034 
-0.008050034251591266 
-0.0001003270676160852 
-0.01734631657124835 
-0.0006326436586874644 
-0.004954808155780348 
-0.008475596405353808 
-0.09205539290141068 
-0.001816485380566175 
-0.01084969184944499 
-0.002756469543498566 
-0.009139469800891661 
-0.006856039253035254 
-0.02533235345946911 
-0.003136116500782849 
-0.000169551089172696 
-0.002303565822015983 
-0.002804262458666152 
0.03388105715265324 
0.0003199394236595981 
-0.1590325606890114 
-0.001987254959796718 
-0.0688201311321128 
-0.006685119048303797 
-0.03957688258057313 
-0.001057931220099034 
-0.01312671534438013 
-0.02457418857706248 
-0.0008066681848290271 
-0.0004204332235128826 
-0.00541564256981602 
-0.01597923861694051 
-0.00261371175025237 
-0.002267215247409167 
-0.004411405389651494 
-0.0003235915367723912 
0.003472281180105351 
0.000131830368261031 
-0.004364754197891302 
-0.01067909985420136 
-0.2433963160644382 
-0.04825125002650259 
-0.03377869872560837 
-0.01506005594629671 
-0.01312671534438013 
-0.02618969379609008 
-0.01535640114844117 
-0.1562023945048834 
-0.0003303573159490362 
0.01864974881051453 
-0.2028162906917118 
-0.03597381825960191 
-0.1288618059689949 
-0.0002617641951733192 
-0.00830244253578313 
-0.04019351989465104 
-0.1395056752766989 
-0.00565370668569813 
-0.03483638059433716 
-0.0001335719971977855 
-0.01539074695612692 
-0.0003034562912697141 
-0.003713409228591904 
-0.01152433055078184 
-0.003335300711501549 
-0.04483380089155355 
-0.00543788831435325 
-0.02065441007760555 
-0.06801945728511928 
-0.02494843260816601 
-0.01840097336331705 
-0.001816485380566175 
-0.01561848743987362 
0.002385308538540737 
0.006786846714778329 
0.009897591584955814 
-0.1481374747715937 
-0.0009630681174422065 
-0.02512207791079869 
-0.3212792907743413 
-0.0003354981652730894 
-0.001544602519648074 
-0.006658662110298474 
-0.009755087241545326 
-0.01482792119705516 
0.003351521968034413 
0.002233736250188816 
0.001116684709704612 
-0.003946344717638217 
-0.002804262458666152 
-0.0003626975736643678 
-0.003965798076556183 
-0.001368467666860543 
-0.01609388944472231 
-0.003687428958660393 
-0.0005203539234069237 
-0.06501075264060477 
-0.002434379766111603 
0.0004434406416209256 
0.00166618960892772 
-0.0700578763158457 
-0.006782962357430502 
-0.003825153606083656 
-0.006654994520219413 
-0.02505473251199655 
-0.01644280143939553 
-0.002044677140565602 
-0.04197230157368479 
-0.0198806050063492 
-0.01398795060968891 
-0.00477674697813471 
-0.001849544443459939 
-0.0007255796715225293 
-0.0009899689318718264 
-0.006839691506175161 
-0.004185874056717136 
-0.001657660890777229 
-0.01725558976360905 
-0.001968713892168968 
-0.0008062747130163409 
-0.02173948184566043 
-0.05938015091593564 
-0.005241718133852963 
-0.08913973673649857 
-0.0003511395900063786 
-0.003983148619616364 
-0.0008289987879729242 
-0.01688252660980862 
-0.0007766756670983224 
-0.001418574705109642 
-0.007777378561044823 
-0.000623618391016038 
-0.003736151162794002 
-0.001361325916765642 
-0.002863228736896205 
-0.01057467692017228 
-0.007824868958423638 
-0.006529017716688248 
-0.0008379634402337118 
-0.005721237384126695 
-0.1441721279162309 
-0.003965798076556183 
-0.009960888353074723 
0.01755355086185694 
0.003861593433832479 
0.01181577536829993 
0.00148240201733668 
-0.006378033879923975 
-0.003564580144372817 
-0.006138126280205112 
-0.001424617038829359 
-0.03891202572142369 
-0.008176846191856758 
-0.00780724586815666 
-0.0009925873071923055 
-0.003127679219012231 
-0.01505721283424679 
-0.02138413402836003 
-0.04199377322804723 
-0.00541564256981602 
-0.009427224489006167 
-0.002065880589942265 
-0.001985702346244174 
-0.007141799623089908 
-0.009147047503246936 
-0.09308547194052934 
-0.01958784605694523 
-0.3083485905114153 
-0.1667077809336728 
-0.06867438930913305 
-0.003383344127970635 
-0.01615671187825582 
-0.006140881887509555 
0.00305972550854922 
0 
-0.007033000626029204 
-0.0009488403495650781 
-0.00541564256981602 
-0.002846802742354417 
0.00717865167274523 
0.001295351349844264 
-0.02167389570630189 
-0.003196566990076079 
-0.003136116500782849 
-0.0002780546993947501 
-0.01125191145765377 
-0.03527512617200623 
-0.002777505121140405 
0.0004071155581718748 
0 
0.005501441537383452 
0 
0.02570696300134718 
-0.02914063546697413 
-0.0006876347183475749 
-0.04969331659747619 
-0.004560078077347422 
-0.05412125525086656 
-0.03410204441166737 
-0.003043505351863287 
-0.002804262458666152 
0.0008004857658255855 
0.0007274839243871963 
-0.1648714334094745 
-0.004653211285241362 
-0.001757042613074304 
0.00791803952998929 
-0.0005202381439661368 
-0.02916119808994958 
-0.007288162731011709 
0.002062960618161943 
0.0003437373479788395 
0.005553052963829561 
-0.001985702346244174 
-0.0002167803112076643 
-0.002875695533249677 
-0.0007662868101062786 
-0.00105720670957177 
-0.0004473878136426356 
-0.002484045812610784 
-0.001214001015677341 
0.01201784513626565 
0.0001706251424798437 
-0.004525577289606441 
-0.03037246443077939 
-0.06380255075673272 
-0.2431246977293525 
-0.0298817720478406 
-0.03994858484382353 
-0.03608722575675501 
-0.002534277692708894 
-0.01133218214374873 
-0.003634487186294172 
-0.04813993214812559 
-0.0003701977662660528 
-0.04813856256210756 
-0.005462670095032261 
-0.05064668916461731 
-0.0005574228925279065 
-0.001393053117828771 
-0.04720404577834916 
0.0007072717822422167 
-0.01534670106267716 
-0.06688640922351725 
-0.0004942905704458374 
-0.004471983537987769 
-0.00805122641735511 
-0.006749787420694235 
-0.006607286697775733 
-0.0006602249783540171 
-0.0003077224222720001 
-0.0373172769201245 
-0.02240929034097802 
-0.04041821936558943 
0.0003762463776542403 
0.01251662319195796 
-0.002061746259562885 
-0.002875695533249677 
-0.00328956024361475 
-0.01556288155805793 
-0.008242223867919406 
-0.003722953098665718 
-0.02106320271678899 
-0.01282970892118849 
-0.07314561881415052 
-0.005438393206164644 
-0.05189692221144822 
-0.01360891244396934 
-0.02107843713073713 
-0.02808510713130922 
0.0001091096927567432 
-0.004002858776326935 
-0.01177140019930017 
-0.002846802742354417 
-0.006494162624881873 
-0.001563275656228469 
-0.01332222470331785 
-0.0009232922276191232 
0.0004835146952760122 
-0.0006940005762720417 
-0.02821961606327503 
0.004655990136916536 
0.3322772764215445 
0.0003483428268289393 
-0.02378555006970903 
-0.002804262458666152 
0.001444690022089583 
0.0002406481599992841 
0.189074862211383 
0 
-0.0008445644458804574 
0.1189355244952434 
0.001336143940827738 
0.0006679994906241354 
0.338173907064573 
2.656475582043169 
-0.001160012823292252 
-0.01146168572578037 
-0.01331842932069036 
-0.0007093126823745919 
-0.04350433721004257 
-0.002035609262820043 
-0.003916232978679614 
-0.001830605101779858 
0.0001084049189416926 
-0.007416114071436512 
-0.01332674592359391 
-0.006697912353113795 
-0.002804262458666152 
-0.0006027263793204213 
-0.04233243335378069 
-0.01335617957017346 
-0.03219198868181478 
-0.03621738553520764 
-0.01377074051192471 
0.002386173704225666 
0.0003976747409791423 
0.0001988311084018831 
-0.004129786686691631 
-0.0009477222761477052 
-0.00134281689686947 
-0.001643893625780474 
-0.07228353090095518 
-0.00929746718658332 
-0.1014497142408505 
-0.0003847877047915093 
-0.01094262664032439 
-0.005354111097885144 
-0.0004616466508385115 
-0.005871898129651135 
-0.0004660394679236915 
-0.04405149941961246 
-0.002205790117114474 
-0.0003847877047915093 
-0.009730816154449984 
-0.0003961220140545651 
-0.001994200974018538 
-0.04184496052216816 
0.5859902807353747 
0.06775873311929798 
0.03374891368706461 
-0.02073718107610164 
0.01913894669443198 
0.002234877732028037 
-0.008896952643002744 
-0.0008716333929002069 
-0.00878256190955554 
-0.03351165921137388 
-0.017838633970812 
-0.00541564256981602 
-0.007681177003639512 
-0.006089335557274252 
-0.02108358707256487 
-0.01082023407714169 
-0.002872977045082271 
-0.01047768396795692 
-8.279864450656966e-05 
-0.009139587530794701 
-0.04915068403720538 
-0.004653211285241362 
-0.002154564248559104 
-0.002724411990852888 
-3.797485451066724e-05 
0.0003547150675628556 
0.0002364706494776579 
0.0001182335062225064 
-0.002299839063560508 
-0.0003653204720461044 
-0.05643785521887393 
-0.00261371175025237 
-0.01498659312146844 
-0.0006310453604535104 
0.0004349502728088513 
0 
-0.004653211285241362 
-0.01678138797895998 
0.0008663935662114485 
0.0001082977918302534 
-0.0431536670603869 
-0.0103584493191526 
-0.02021200781883756 
-0.200397218672851 
-0.01087487463160142 
-0.009762013182800974 
-0.01055705372410374 
-0.004974841212050662 
-0.02984676505901462 
0.006890818599392437 
-0.009698508113958131 
-0.02016541225791651 
-0.06960169910095923 
-0.001185332947351646 
-0.172365316971706 
-0.06438121095820387 
0.0125620322856089 
0 
-0.005476845471773095 
-0.03401130139764266 
0 
0.001036144705521035 
0.0001295158158636729 
-0.01847128603827265 
-0.02612833576965383 
-0.001585086191731468 
-0.001291989412320969 
-0.009132762923994679 
-0.002687339306438825 
-0.006807651263341602 
-0.1262891043444238 
-0.007982817443361477 
-0.007403103719598835 
-0.02544872950750079 
0.004664393549813077 
-0.003783513848808138 
-0.00111077381841228 
0.0005508243143977098 
-0.008065992541503897 
-0.004532101621383639 
0.01278457532399131 
0.001597680014581191 
0 
-0.001626683532898862 
-0.03846035252115815 
-0.00541564256981602 
-0.2008368176344743 
-0.01158539983197488 
-0.04346033671059442 
0.0007295728325633565 
9.119580857256563e-05 
0 
-0.003475462339439504 
-0.006113029069319867 
-0.2507932241138904 
0.006144315139780207 
0.0007679413164447122 
0.0002091511031958561 
0.0001045742074240976 
-0.004950446560021376 
0.0009890168215259858 
0.003462572960050642 
0.0004942763025934691 
0.0002471283591100325 
-0.00644215040703186 
-0.004379310706377211 
-0.002875695533249677 
-0.0004993959647200785 
-0.0004964970080163845 
-0.0009907116031790506 
-0.006956583592177318 
-0.001740384604667513 
-0.006808214474608178 
-0.001108172967496754 
-0.002453540595343496 
-0.0007944982478639382 
0.0009682587739660507 
-0.07086178067228621 
-0.009938477983831627 
-0.05558465927054109 
-0.005605217233123808 
-0.002875695533249677 
-0.000622433863535547 
-0.02424236047271646 
-0.00115042941299849 
-0.02172455557217672 
-0.0003018830875372224 
-0.002736089774159432 
-0.03184486499922155 
-0.06092848709925981 
-0.003876241041722048 
0.00183267918939256 
0.0002290762229244806 
-0.07034446971522508 
-0.01340362229930164 
-0.0009907116031790506 
0 
1.96665546009371 
0 
0 
0.00144421783450044 
8.644184064679139e-05 
0 
0 
0.0007211642403203166 
-0.05063451771810611 
-0.006128980954477574 
0.009462101664400636 
0.003204405185162978 
-0.09520430668404017 
-0.001920383199938134 
-0.05480670577533771 
-0.002890856322841766 
-0.03134591863108483 
-0.02622637398763186 
-0.02326740303806223 
-0.00488227658304412 
0.0002918745470166875 
-0.003302222848739042 
-0.01867010836987384 
-0.007333328339488028 
0.0001000862173288783 
-0.0009730666791567251 
-0.001621650320745235 
-0.0009728902098538289 
-0.06727878782312599 
-0.006239232597934197 
-0.006782962357430502 
-0.002728356248810549 
-0.005892164776065199 
-0.0006471306866545856 
-0.004653211285241362 
-0.002321765452995665 
-0.01094526983006786 
-0.007863974626606885 
-0.0003896297989229369 
-0.003316819657563277 
-0.006268327789930419 
-0.1179880690023995 
0.004036619825182801 
0.0002011824871370673 
0.0001005900418176573 
-0.01096818896273232 
-0.002719706447928969 
-0.009288403595218068 
-0.02357496639863279 
-0.0004380804834015255 
-0.000744065346997751 
-0.0002217587808579716 
-0.003219474081449822 
-0.0005546596952909067 
-0.1568076599625777 
0.003930808099215876 
0.0004913168321519424 
-0.07853535437882211 
-0.00224921874235771 
-0.0002375158403872692 
-0.01822538557841332 
-0.1052567437550375 
-0.01005556410524663 
-0.002611361271644116 
-0.05823959775022443 
-0.0002990681136367253 
-0.02704121136750709 
-0.00170265010593572 
0.0006576817570564387 
-0.06222194460966694 
-0.00115703432046705 
0.002188842379767837 
0.001999371026641246 
-0.007444231307595492 
-0.007964741771016024 
-0.001839136372193283 
-0.002284572778057999 
-0.0007931933305813255 
-0.0005681144322642155 
-0.002044677140565602 
-0.01598181003717258 
0.0004042865366508748 
0 
0.01145181939295451 
0.001908144207828845 
0.0009539244782420974 
-0.06280767879369895 
-0.000658485523937523 
-0.02323442764994677 
-0.00360876807799216 
-0.002456756749857105 
-0.001228176113199515 
-0.003080392159401878 
-0.02239925319315298 
-0.009344718021744905 
-0.002951055517579987 
-0.005000572944600077 
-0.002241689287819453 
-0.07359113010410025 
-0.01082023407714169 
-0.002035710637543518 
-0.001277651640941641 
-0.001519309293083004 
-0.00309444345577922 
-0.001330812486973834 
0.009862221843182341 
0.0007992449784017212 
0 
-0.05838059048957858 
-0.001724767250978348 
-0.007967234097639414 
-0.001563298949677519 
-0.005815531555404433 
-0.0001282018285941291 
-0.004653211285241362 
-0.102675312344063 
-0.01961884505537759 
0.002168591050862587 
0.00463159053585545 
-0.01279713241323677 
-0.006844720285447443 
-0.07720940685528468 
-0.1652211372795916 
0.001123525733754771 
-0.02107565913460123 
-0.01312671534438013 
-0.03613178236472332 
-0.01449581408138466 
-0.00279626777678433 
-0.0008667134941504108 
0.0002595499991284182 
0.0003645268092306948 
0 
-0.007333426145807909 
-0.003293872802158935 
0.001072915460801465 
0.0009821594649882504 
-0.007536447586436567 
-0.002434131374862786 
-0.003187147737964397 
-0.0003840604351076086 
-0.005224264550311584 
-0.00191273122068924 
-0.01044227660033935 
-0.0009245518608481558 
-0.0005795933658782434 
-0.01084969184944499 
-0.01777480347630044 
-0.001975880948619246 
-0.006325008101485174 
0.005363938959327103 
-0.002443785054034644 
0.115705983774359 
-0.01218901843952135 
0.004649438797279606 
0.0005811358817951302 
-0.0006748622029096878 
0.004518754854795482 
-0.01029852570619139 
-0.01412066446814605 
-0.005224264550311584 
-0.008300476885352237 
-0.0003340787972870936 
-0.0104175617783847 
-0.02146158547850005 
-0.009755087241545326 
-0.00279656915077893 
0.002273872181610619 
0.001356531287836725 
0 
0.4495250654883367 
0.05595184600044945 
-0.004494638846894125 
-0.0006280462537782134 
-0.005467346103385205 
-0.01064864843280999 
-0.07561591617226898 
-0.004653211285241362 
-0.004653211285241362 
-0.007693073500851791 
-0.007693073500851791 
-0.009755087241545326 
-0.001808176819480754 
-0.0007882418497632429 
-0.01796923619401443 
-0.003705625636270605 
-0.001509558722269407 
-0.002804262458666152 
-0.00127612355672543 
-0.01315997971582851 
-0.00261371175025237 
-0.0008228859962721755 
-0.01649654667177789 
-0.0004600992020204681 
-0.006182936437831164 
2.733524670074287 
1.356557472469993 
-0.0008289987879729242 
-0.00115042941299849 
-0.02671449534240438 
-0.03596606626263815 
-0.0002734496183807469 
-0.001657660890777229 
0.0003872170350875938 
0.001952503564717723 
0.004242970814888317 
0 
-0.02072966106098821 
-0.04282316716458734 
-0.0225258771289776 
-0.0003856263453285703 
-0.006829633700176629 
0.002580123315200679 
0.0004374550785711331 
-0.000938131820412661 
-0.002151720712374234 
0 
0.00534954765821547 
0 
0.002033473830867021 
0.01279380765080829 
-0.006957302212018288 
-0.006620076572037133 
-0.004296762290611001 
-0.001287435271580804 
-0.0004643843244909507 
0.0970555484197434 
-0.04852143382121003 
-0.04441245058294863 
-0.03410204441166737 
-0.001988336180115586 
-0.04199088386158491 
0.009444363761902722 
0.002621089741984326 
0.002665663326490727 
0.06934388480891636 
0.03450628779448985 
0.008641727681835024 
0.004318853717521903 
-0.01114674542837376 
-0.001019715034801042 
-0.02405710012003925 
-0.001756313024180022 
-0.004504942366456311 
-0.001462310845820791 
-0.00145714672710705 
-0.009988517474527857 
0.03493354998590194 
-0.08496694004833306 
0.002909955333732566 
-0.01706722341901154 
-0.009001929570710174 
-0.0002719059135554457 
-0.00063949825527862 
0.01546593916592121 
0.0002478610137602469 
-0.01768406229264999 
-0.006782962357430502 
-0.01605501551446992 
-0.01312671534438013 
-0.01118062303690066 
0.007351249593927229 
0.0005490383484338382 
0 
0.0004607103028472861 
0.007096273336775155 
0.001101204723587219 
0.002189983098045425 
0 
-0.001560062113844061 
-0.005309106254982435 
-0.0008289987879729242 
-0.00176315991456039 
-0.02709618071496481 
-0.01776319908584584 
-0.08718791993698538 
-0.02896128212135251 
-0.004924589497732331 
-0.01228020326857482 
-0.0001260077794034976 
-0.001768844681136744 
-0.02146158547850005 
-0.01010648078894043 
-0.02172455557217672 
-0.0003018830875372224 
-0.000922985362490445 
-0.05244181530902171 
-0.002205790117114474 
-0.003460568882844643 
0.004824016960198759 
0.0006722627098554416 
-0.1412849485546697 
-0.009988517474527857 
-0.0008620986011049413 
0.05888104646716495 
-0.002804262458666152 
-0.002893584753656607 
-0.001724767250978348 
-0.004653211285241362 
-0.007693073500851791 
-0.02820749282440075 
-0.004487370914484773 
-0.03846035252115815 
-0.002685200709712388 
0.002899020644407988 
0.001129299892667059 
0.002813689545102166 
0 
0.08429326195714669 
-0.03962635840259375 
-0.02476686946774518 
-0.004653211285241362 
0.0291282161776728 
0.004851359489309126 
0.003497307116796721 
0 
-0.01602154549584701 
-0.0009793669324830818 
-0.002099086187973827 
-0.002875695533249677 
0.002808848003655769 
0.0001049054488279222 
-0.005101482326577972 
-0.006089335557274252 
-0.0002074381098583596 
0.0009774182164473308 
-0.01758604407477517 
-0.006571692758074833 
9.381261112202851e-05 
-0.03846035252115815 
-0.0006082459394769948 
-0.0180737219679991 
-0.004235867245859518 
-0.1681394413322674 
-0.009988517474527857 
-0.1234262036426195 
-0.001724767250978348 
-0.008066818669658693 
-0.002561026749039095 
-0.01005556410524663 
-0.004062816388585955 
0.0003923957351462635 
0.000523436302518407 
0.003554643383348151 
0.0004443001521911053 
-4.524706212537017e-05 
-0.009400865345251067 
-0.00826124575330927 
-0.00669683247644479 
-0.008189182012308963 
-0.0505710307678722 
-0.002875695533249677 
-0.02146158547850005 
-0.0006057083636691058 
-0.02850447606223477 
0.0008531513107786295 
0.0001066425787174078 
0 
0.01049715552554876 
0.001749102934087539 
0.0008744246420255234 
0 
-0.0349789321534839 
-0.005342933788348872 
-0.0006817863449519517 
-0.01520625417628633 
-0.001724767250978348 
-0.01139989475623767 
-0.004240317942421965 
-0.004181764729225537 
-0.0009245518608481558 
0.0006961854552528512 
8.702251718524852e-05 
-0.1722363605062872 
-0.003614555886383626 
0.002005717758938516 
0.0003340269516640599 
0.0303049914060566 
-0.008050674463199497 
-0.03630869878976517 
-0.002426224912800454 
-0.02293267838969348 
-0.01196437354094075 
-0.01993987468105082 
0.0001070433617517393 
-0.01565591360129672 
-0.01360385476656138 
-0.0003341595082757297 
-0.01333172016459083 
-0.00488227658304412 
-0.0119693594486509 
-0.008143078558087366 
-0.001736129002139482 
-0.01422193191104589 
-0.01276378010756013 
-0.009350197834397628 
-0.08743826571911212 
-0.00488227658304412 
-0.002774654411640159 
-0.01435026952467267 
0.005811492940395073 
0.003832772616482958 
-0.01387455522723984 
-0.001582283335868411 
-0.004404535460519556 
-0.006455397806292224 
-0.02254877668498283 
-0.0005749367062705751 
0.0004041054949165253 
0 
0.001315175499954308 
-0.05064467188306755 
-0.003461018696468169 
-0.01048530266247514 
-0.003049198530962354 
-0.0009245518608481558 
-0.01728529765134684 
-0.001523259853458646 
-0.0001496615167238319 
-0.001418574705109642 
-0.0003340787972870936 
-0.0009764944935929598 
-0.1066803906961055 
-0.0008308377229852644 
0.001189087004003907 
0.004336525195266808 
9.907869185260757e-05 
-0.01312671534438013 
-0.0005958782570123972 
-0.00307880921678322 
-0.00210532323630427 
0.0007120031574820416 
0.007335885234680499 
0 
-0.03527512617200623 
-0.001816485380566175 
-0.0006817863449519517 
0.003922672630195428 
0.0004902977040871254 
0 
-0.009439751786540048 
0.0007284592126127718 
0.0005637347051964916 
0 
0.0005352649779244179 
0 
-0.002009828692146733 
-0.0008289987879729242 
-0.004299400016804173 
-0.05702863878554595 
-0.002401937892932507 
0 
0 
0.0003720524495046951 
0 
0.008924085332954301 
0.0008445417362163029 
-0.0004243103022679214 
-0.004653211285241362 
-0.0008724775976344453 
0.0002434957413197499 
0.0004461135874255189 
-0.01422684708430315 
-0.001769300380123594 
-0.02805825846739893 
-0.001228206073976445 
-0.00227611837000433 
-0.00170265010593572 
0.03070106525027284 
-0.1290525477871262 
-0.02353772203273034 
-0.009996687677028174 
-0.007461829775526889 
-0.002452032231937447 
-0.001363345367106585 
-0.001216901068575526 
-0.001216901068575526 
-0.000698874275323377 
-0.0003789941547530733 
0.0003949856362893971 
0.0001974865734735781 
-0.00823127771030675 
-0.0005960646645985013 
-3.50929122070727e-05 
-0.002330645406747065 
-0.001311132813024431 
0.001008487406459468 
0.0001260588433228501 
0 
-0.005580396216844355 
-0.004530396792539675 
-0.03135514185015316 
-0.001306106912863669 
-0.00541564256981602 
-0.02072966106098821 
-0.01009630844811675 
-0.004653211285241362 
-0.002041346511105614 
-0.002205790117114474 
0.001597181176797694 
0 
-0.001426011242117687 
-0.009485719175908451 
-0.008688969196750183 
-0.0002656932144858178 
0.003687231853032681 
0.007344551861560552 
0.0006985561532271596 
0.0003492620451978843 
-0.03388044818403223 
-0.001639356786232129 
-0.007811535005500942 
-0.004663653348143272 
0.001171161620461607 
0.003144399373406823 
9.759013427071663e-05 
0 
-0.01178567592583871 
-0.003404648420883533 
-0.0007804368331265822 
-0.0008755153382193432 
-0.001765487302656733 
-0.002804262458666152 
-0.00814990054332289 
0.001215174407024194 
-0.02378555006970903 
-0.004389945647141348 
-0.05988807393738176 
0.0003380263061156253 
0 
-0.0003738877749033758 
-0.01115114548582141 
-0.003783513848808138 
-0.004714294836078802 
-0.0006874720102625507 
-0.01822596356640557 
-0.0003399249212575047 
9.758905252910649e-05 
-0.0252712799500508 
-0.0107241785521779 
-0.009789318968523855 
-0.003327765932305385 
-0.09629803081609103 
-0.00488227658304412 
-0.01509176019860944 
-0.002299839063560508 
-0.0005873671484384849 
0.01186246423967326 
-0.0009410138056478774 
0.0001034530934924739 
-0.003222509514429637 
-0.08841246412674805 
-0.03720794525314371 
-0.0003243065375999326 
-0.009538306978467827 
-0.0003946653859106808 
-0.002205790117114474 
0.03834730213626016 
0 
-0.001361325916765642 
0.0008001504435937832 
0.0001000177095006037 
0.001019325443528332 
0.0001274134812629022 
0 
-0.004486629099200876 
-0.005136154901439913 
-0.0006748622029096878 
-0.004348830689787447 
-0.0004076742245451388 
-0.0004362070583309086 
0.0008576903614577675 
0.0001072098537055012 
0 
-0.0225258771289776 
-0.004343769060527799 
-0.008653165072178021 
-0.01125919644514681 
-0.01732837244424345 
-0.001724767250978348 
-0.0002013902711625508 
-0.0003847877047915093 
0.111012441659935 
0.01385826079166996 
-0.01055820685335952 
-0.002590031240826597 
-0.0135379967118066 
-0.007633266207883124 
-0.008089931308323079 
-0.003544240586546461 
-0.0006641491447167487 
-0.02424236047271646 
-0.00261371175025237 
-0.03613178236472332 
0.003270224223831109 
0.0005450015599262402 
0.0007737206625826745 
-0.0006588367910958199 
-0.01744895170570296 
0.0001000247116547818 
-0.001367525744262627 
-0.00634708980838089 
-0.007693073500851791 
0.01447427165855091 
-0.0002611457096379837 
-0.02985428238587674 
-0.00992773515461939 
-0.0003374670652651581 
-0.001162930533595182 
-0.001345700219742582 
-0.01423301886241203 
-0.00488227658304412 
0.001480848256411861 
-0.001657660890777229 
-0.0007640045167552114 
-0.003986920807690592 
-0.02173948184566043 
-0.002037343142208484 
-0.01568910885869764 
-0.0002263483735959783 
-0.001091285361411772 
-0.004653211285241362 
-0.002093126020979301 
-0.05886598858869338 
-0.0009908831248668975 
-0.0005408441441678503 
-0.005767270976794399 
-0.001935927375455614 
-0.001895541859603324 
-0.0009867493550711722 
-0.004348830689787447 
-0.002728633334685606 
-0.02235067933432041 
0.001182651966692528 
0.002382527922881764 
0.0001218782782722597 
0 
-0.004653211285241362 
0.001587196692077558 
-0.0005309878901472984 
-0.004361041816917068 
-0.006398822958101196 
-0.002721656599732543 
-0.003367515791129288 
-0.0008885520668473509 
-0.001746834492896314 
-0.0009881779877498429 
-0.01295486774701038 
-0.003015157972823192 
-0.003783513848808138 
-0.02072966106098821 
-0.001556683035662662 
-0.0007726092370890584 
-0.0003871702185340692 
-0.001371245498615531 
-0.002875695533249677 
-0.03413255894290091 
-0.008402870589826802 
-0.01469127241988828 
0.0005456820559973342 
0.0002728329623672975 
-0.01005556410524663 
-0.0001344942992406109 
-0.002992581958043896 
0.002790589680120523 
0.000764786355218567 
0.000299753555978361 
-0.008369334719930659 
-0.007444231307595492 
-0.004078563950815893 
-0.0008918709142075222 
-0.003492235016699478 
-0.00261371175025237 
-0.01187761814116993 
-0.000752556726406456 
-0.004791472149568462 
-0.00115042941299849 
-0.000785947219793974 
-0.07765773473574381 
-0.004001683657585669 
0.004102178451180913 
-0.0002487595150989583 
-0.04396938145403571 
-0.0003518863717939785 
-0.04766184692567013 
-0.005612929015531398 
-0.003907047782439939 
-0.002486702933373616 
-0.004653211285241362 
0.001042166682658512 
-0.06222194460966694 
-0.01675961538792401 
-0.001322674055702162 
-0.1279049866853583 
-0.0003235915367723912 
-0.04199351520003601 
-0.04706541535837078 
-0.0005852740437896201 
0.001875909069173635 
-0.08636970816734897 
-0.004653211285241362 
-0.007748925954775306 
-0.05668179027558757 
-0.003880325819814845 
-0.01273803328978493 
-0.004023380816219474 
-0.01360664748746859 
-0.003300093934234233 
0.01347348772038204 
0.0067306616839247 
-0.007454035622750843 
-0.01410768626163477 
-0.01312671534438013 
-0.02424236047271646 
-0.03490618619373237 
0.00334869658432051 
0.0005580865221159383 
0.0002790343901126899 
0 
-0.01441703471191687 
-0.00878256190955554 
-0.009465493999858793 
0.004481722415483206 
0.0007479967056904583 
0 
-0.006695417255218036 
-0.003136116500782849 
-0.002721656599732543 
9.01393689153868e-05 
-0.04238160933614225 
-0.001049230494231703 
-0.0009839496226411847 
0.0001054014638205938 
-0.01119722877972753 
0.2191083155917865 
0.08567385605877964 
-0.01365294057876828 
-0.0004147061035909279 
-0.001898753525063115 
-0.001724767250978348 
-0.004641621233136854 
-0.002440993429502838 
-0.01761429427848662 
-0.00723093484344246 
0.0003707961194954808 
0.0006506474226504763 
-0.01220154937529411 
-0.03427822508464886 
-0.009730816154449984 
-0.00170265010593572 
-0.0002953137150676374 
-0.003099012677861414 
-0.01558628149480688 
-0.002205790117114474 
-0.01506170873987209 
-0.0121646401506563 
-0.002307621176152906 
-0.002483047908503088 
-0.0006817863449519517 
-0.002875695533249677 
-0.0003103839645506184 
-0.001326104310365366 
-0.003086924504525643 
-0.01462718340496222 
-0.006284967083293127 
-0.001527581643693216 
0.0002205524017288717 
-0.0124531328647839 
8.98219196322692e-05 
0.0007131409641151056 
-0.01312671534438013 
0.0001869653311829895 
-0.00488227658304412 
-0.04835855039820837 
-0.04238160933614225 
-0.04628959870566361 
-0.005511766264580917 
-0.0008289987879729242 
-0.01559743106829801 
-0.01005556410524663 
-0.0003261633790050732 
-0.001597980224753514 
0.001396885428832866 
0 
-0.01324317601354479 
0.0003367994254523366 
-0.03751449180736174 
0.005337859180763941 
0.0002003092000825705 
0.0001001535135481581 
-0.0001050079899714655 
-0.005763742887043843 
-0.01737891638843001 
-0.003398041937221987 
-0.005907444601194526 
0.0001942274133579772 
9.711271758527811e-05 
-0.0008289987879729242 
0.005078237219092265 
-0.0005676234202748043 
-0.009716503732051258 
-0.03348718586463904 
-0.001657660890777229 
-0.01129732836938693 
-0.001540642412887309 
-0.0001999139292873778 
-0.006494705278767544 
0.009712351132673137 
-0.007269125035751763 
-0.00413278845560754 
-0.003136116500782849 
-0.001480143043944648 
-0.0005309878901472984 
-0.003567360465373184 
-0.00276662998442085 
-0.003965798076556183 
-0.001548635412173827 
-0.02035600094667125 
0.0007458173947686624 
0 
0.0004378308529211625 
-0.003594700670868857 
-0.01179051351512069 
-0.0049008472925732 
-0.006956583592177318 
-0.0007662773881886051 
-0.0001457573808531762 
-0.0001418534030427039 
-0.001750049229773605 
-0.01623810971071993 
-0.001859102679578821 
-0.00488227658304412 
-0.003836978913724082 
-0.008230388662072919 
-0.002410948245817676 
0.02101268988910334 
0.001500455897708 
0.0007501496441937488 
-0.002437305826952563 
-0.001180728136377957 
-0.06970399389059626 
-0.000575137765112492 
-0.002903086390039587 
0.001524956605591091 
0.0002541516482243055 
0.0001270734885177494 
0 
-0.03461793938295748 
0.0002969815641543215 
-0.001572333486149468 
-0.001538190606924871 
-0.01084969184944499 
-0.002452392465533092 
-0.003647829045700001 
-0.002307863252538192 
-0.175002849732808 
-0.002437305826952563 
-0.004102616573153126 
-0.0004143375999389761 
-0.005313806874936751 
0 
0 
0 
0 
0 
0 
0 
-0.0009923749105588556 
0 
-0.04269035653040183 
0 
0.211559633225375 
0.02635968147220537 
0 
-0.00170265010593572 
-0.0005795389704807565 
-0.01821340303340664 
-0.003149803115128327 
-0.03198867130529591 
-0.04324430551548388 
-0.0006037088729736777 
-0.002451611045522267 
-0.007693073500851791 
-0.002744469972000999 
-0.005453698514404161 
-0.000181672290347627 
-0.001462310845820791 
-0.001915838058475578 
-0.002044677140565602 
-0.006957302212018288 
-0.001124462386675896 
-0.0007695178594459234 
-0.0005950820195074308 
-0.002196363459100377 
-0.005034106463736397 
-0.1573967435395685 
-0.005610591795362307 
-0.03337286813481799 
-0.0006641491447167487 
-0.002804262458666152 
-0.01506749125268826 
-0.0121646401506563 
-0.001039608041682333 
-0.01085479853926016 
0.6023573090367834 
0.07479962950093483 
-0.000700173493758851 
-0.002067533336675774 
-0.001393053117828771 
-0.0009923130619760763 
-0.005043449961607921 
-0.002321765452995665 
-0.0007050827001230683 
-0.0002951676962928426 
-0.004653211285241362 
-0.002804262458666152 
-0.0002783325358240672 
-0.002804262458666152 
-0.000278666274429589 
-0.0005484722215525549 
0.001810330086790425 
0.001036292937404193 
0 
-0.004653211285241362 
-0.008050674463199497 
-0.004928892113741703 
-0.00570820217628986 
-0.0004018206656894707 
0.002468248869368362 
0.001195369209923079 
0 
0.02670515210814425 
0.000933192775754442 
0.004832937061693833 
-0.003527451614906718 
-0.003278659871300188 
-0.00488227658304412 
-0.0009161167473592553 
0.0001277696886298353 
-0.00100954648594151 
-0.03899834977784371 
-0.002875695533249677 
-0.002495686630619551 
-0.02478211344010259 
-0.007847131320266746 
0.004387558302423173 
-0.01151593123812874 
-0.000456633076321714 
-0.0003831188999055995 
-0.01307505554091696 
-0.0006781291196670423 
-0.001560517491574423 
0.002116430559222785 
0 
-0.0001302887695964557 
-0.004348830689787447 
-0.0004076742245451388 
-0.03449426555317696 
-0.001500265107023102 
0.01164049885096505 
-0.0001357356394784692 
-0.008050674463199497 
0.3723722786798881 
0.04636262017345305 
-0.04151495160649275 
-0.0792200004498801 
-0.02960994841690357 
-0.002657843533541009 
-0.0004724696312327052 
-0.005043449961607921 
-0.0003896297989229369 
-0.0003774585714822877 
-0.09544659144387396 
-0.03670505090543934 
-0.003640273400217896 
-0.02471010064261068 
-0.005034106463736397 
-0.002706139287090716 
0.0009874012712770895 
-0.06239771244477203 
-0.0365761987798098 
0.0007957141100776907 
-0.002804262458666152 
-0.002019467315775091 
-0.00229067403839951 
-0.0009245518608481558 
-0.03527512617200623 
-0.001441063940441318 
-0.0008800757242229452 
0.002000894013207809 
0.001000295917814126 
0.005609891140027568 
0 
-0.000637142587819747 
0.003146991047161188 
0.0003944808164403234 
0.0001972344950131361 
0 
-0.002875695533249677 
0.0008371654409552994 
0.001159949710217982 
0.00132426903821736 
-0.00145714672710705 
-0.05322975693255832 
-0.001724767250978348 
-0.01061634443678556 
-0.006375994145006459 
-0.01557703953485457 
-0.0007751228865244808 
-0.0002441955040310669 
0.0007857727385667415 
9.82205584422026e-05 
-0.11746852709379 
-0.000730045795250854 
0.0002557643747763958 
0.0002635803807892965 
-0.006782962357430502 
-0.01093117492307122 
-0.01302044428616804 
0.00188803139184052 
0 
-5.002667748317966e-05 
-0.003828568466307886 
-0.05070326567683439 
-0.04470545380374716 
-0.02284216140240723 
-0.001941082671729578 
0.0009054178369750263 
-0.03962236532555976 
-0.02642633477351804 
-0.002232901592925122 
-0.002536039109916428 
-0.0009664717030484524 
-0.001346483608907738 
-0.001652628570294923 
-0.00808877121596744 
-0.03525174345613116 
-0.005605217233123808 
-0.002111940954425227 
-0.02474787597613347 
-0.02887966090795772 
0.0008963280740956372 
0.0005120291945734589 
0 
-0.003193290872603745 
-0.007777378561044823 
-0.002280602256233143 
-0.0007104807363365862 
-0.001182045071898526 
-0.001326104310365366 
0.00215845789406319 
0.00107904570261549 
-0.00750735201442096 
-0.07996779211958778 
-0.004001452268744828 
-0.0004743083554993169 
-0.000555271749745504 
-0.0002667536136522765 
-0.008263882010578143 
-0.0006964635804239471 
-0.007643162453522525 
-0.0005903854331988912 
-0.008050674463199497 
-0.02146158547850005 
-0.01312671534438013 
-0.001115954960443943 
-0.008050674463199497 
0.004973024942354678 
0.0006215773170017511 
-0.01896005526607712 
0.001455999267902135 
0.0001335100989630361 
0 
0.0004001894764115252 
0 
-0.003965798076556183 
-0.0009801831374225388 
-0.001232160923196776 
-0.05512847652771517 
-0.006669445791315378 
0.0008052669189515412 
0.0001006571768803729 
-0.1220131498532534 
-0.004653211285241362 
-0.002291183772908716 
-0.0008292879476846989 
-0.002081794054651926 
-0.0007343872122060602 
-0.009719454002549869 
-0.0122452236199532 
-0.0002324475894687693 
-0.002205790117114474 
-0.008373352262062773 
-0.03846035252115815 
-0.01797853822355189 
-0.05599287010001881 
-0.0329318665516632 
-0.005634388757308727 
-0.01427880103297141 
-0.04838434842695179 
-0.0001095522691619976 
-0.0008450050206499418 
-0.02344181221475582 
-0.0005164952433279251 
0.001493946960489524 
0.0007469078977975259 
-5.549182610175472e-05 
-0.01491675950035076 
-0.003291224751672957 
-0.002875695533249677 
-0.001724767250978348 
0.0007196571613997868 
-0.002044677140565602 
-0.00197340526203931 
0.0003643364263049649 
-0.01009475769094142 
0.002490543291241498 
0.0003113064125874243 
0.003372769498593212 
0.0003121330642770314 
0.0001560627707924596 
0.003870433635352174 
0 
-0.001335082125234169 
-0.02957426817023035 
-0.0006297156946862283 
0.0004889106947498731 
-0.002875695533249677 
0.0001864608887866331 
-0.0003608392057540092 
0.004320985954085579 
-0.00488227658304412 
-0.002804262458666152 
-0.002999821662651775 
0.001238711977210163 
-0.04256157889551516 
-0.003882240087889322 
-0.001354851472129529 
-0.00756146015610164 
-0.00518222632439599 
-0.0001491413670277708 
-0.001177754941690901 
0.000944539427115049 
-0.004001452268744828 
-0.02891804902847594 
-0.0007125953517781524 
0 
0.0008086433378190197 
-0.02591062145422047 
-0.008696257902771336 
-0.001757042613074304 
-0.008520493200783991 
0 
0.001506781989743227 
0 
0.001989742256269496 
-0.0009870192539820021 
-0.01354448934994008 
0.0008900499694572847 
0.0001112547816878098 
0 
0.0002844667186407267 
0.02407194214953032 
0.0041810620755687 
0.002786634056170848 
0.001393094943714423 
0 
-0.00380399540469374 
-0.004653211285241362 
-0.0009319287532054714 
-0.01227114705476857 
-0.00875427972662216 
-0.007693073500851791 
0.00112242503571373 
0 
-0.004657598255670478 
0.004022814722399645 
0.0005492348607336803 
0.0002746044654834087 
-0.002254498057584091 
-0.0004374855205657736 
-0.00293374492616746 
-0.001976669114635216 
0.0005573747683950752 
0.0001086333054999416 
-0.004901496531156355 
0.001989287088809676 
-0.001323681242352812 
-0.004380078761320795 
0.2535253855360002 
0.04211112222261403 
0.02101307080199209 
-0.0003242463873990326 
-0.003037614531555925 
-0.0006928886739464648 
-0.02610008008960821 
-0.007769539386015972 
-0.0001671669166225392 
0.003810110690182844 
-0.001684356242220386 
-0.005342933788348872 
-0.001748430638182748 
-0.0008204525245471338 
-0.002437305826952563 
-0.01175188778227115 
-0.006438672701752376 
-0.00283625126960687 
-0.003640273400217896 
-0.03628407367017075 
-0.006924747487428658 
-0.001598259483077334 
0.0008056521052481637 
1.021327466784851 
1.983628619696407 
0.0576217421401274 
-0.002332539148024614 
-0.001192243731969873 
-0.002564566867390994 
-0.006655240377381034 
-0.001039608041682333 
-0.002009569936152216 
-0.00145714672710705 
-0.0007550984657964637 
0.005605539193537041 
-0.0740133872888622 
0.0008652085058342446 
0 
-0.009336393992568444 
-0.009960182290175142 
-0.02106756043019744 
-0.004348830689787447 
-0.007123530169620477 
-0.001824518978367866 
0.1341500979627538 
0.02230033964411944 
0.01113287351802096 
-0.0004991195848490466 
-0.006133582068595822 
-0.002875695533249677 
-0.0001846274966665291 
0.0009106316452518323 
0.004563422934114768 
0 
0.001601711127637159 
0.0006045763266444848 
0 
0.0007618388327523627 
0 
-0.01519485938755008 
-0.00488227658304412 
0.002306888562691953 
-0.003669658212396784 
-0.001324841433146502 
0.003265241422485753 
0.00042350196724599 
0 
-0.007693073500851791 
-0.0007830773089156653 
-0.004508080338626729 
-0.007693073500851791 
-0.007652681117969725 
-0.004308932190092324 
0.002354132869378598 
0.0002942521034546333 
9.408383938999925e-05 
-0.001323681242352812 
-0.00744437068018548 
-0.001238196817665775 
-0.006695417255218036 
-0.001981624285043173 
-0.0009908831248668975 
0.0002312194878399325 
-0.02072966106098821 
-0.0004461040412495799 
-0.001418574705109642 
-0.001949200993440212 
0.00037808788525135 
-0.000133901755545446 
-0.001776696163526252 
-0.005724356733231102 
-0.001637201685825969 
-0.002380564537762255 
-0.007864824967318496 
-0.0006817863449519517 
-0.005041033165501708 
0.0003514015590223399 
-0.008323345901218178 
-0.008424258892207244 
-0.001408236796892827 
-0.0008724775976344453 
0.0001927700916960462 
-0.002595861168482178 
-0.00154197905907956 
-7.942893493584048e-05 
0.0004260736976244527 
-0.001118258530940356 
-0.007681654684245007 
-0.001721552040609698 
0.0007635275169890555 
0.001394394331755094 
0 
0.005245201421274556 
8.783803627256334e-05 
0 
-0.0006256540271776786 
-0.002484045812610784 
-0.06682912156949511 
-0.0333061336121704 
-0.006930872574828358 
-0.0003547595000194942 
-0.001971290652818781 
-0.0001049166317045856 
-0.005526331158590704 
0.02382741425215636 
-0.05568536276370117 
-0.001097312430280074 
0.06521450715208503 
0.009248563340983075 
0.004620994493309875 
-0.006192999281519049 
-0.04405149941961246 
-0.01005556410524663 
0.1113425093917111 
-0.0001162748494243781 
-0.002198471299793803 
0.002119519343516211 
0.0003259635816565026 
0.005553446782755664 
0.0001086336200871744 
-0.005017325621757118 
-0.001418574705109642 
-0.0176912121907021 
-0.002321765452995665 
-0.0002361713188787867 
-0.00309444345577922 
-0.001354430633628292 
-0.006782962357430502 
-0.003515471140273815 
-0.002875695533249677 
-0.004348830689787447 
-0.0005794781909882734 
-0.03370941228997521 
-0.005605217233123808 
-0.009341675984574079 
-0.004912823499976062 
-0.02561263426046879 
0.0008203065478902265 
-0.007652681117969725 
-0.0003199601152875572 
-0.001362457518505964 
-0.001602329513442872 
0.02013394105605788 
0.0601721608132541 
0 
0.0007973017790245125 
0 
0.0004532179325568357 
0 
-0.0004958758123931732 
-0.002489252757374331 
-0.06008230425210032 
-0.0002354820394164096 
-0.002014375565107539 
-0.001724767250978348 
-0.004210540196070686 
-0.008050674463199497 
-0.0007240098586251279 
-0.0009249913008949263 
-0.002875695533249677 
0.0004296348736651637 
-0.060335580422506 
-0.0006079605539504418 
-0.001594764021267612 
-0.001752689620171707 
-0.002049061588614196 
-0.004348830689787447 
-0.0004076742245451388 
-0.001276828439104076 
-0.001911001962055461 
-0.004227851370008483 
-0.02358801348503223 
-0.003437098058582024 
-0.05713643682316082 
-0.001241852591225715 
-0.03527512617200623 
-0.005250470766783172 
-0.0009893004065786766 
-0.01519485938755008 
-0.0005025391847029448 
0.002463612953848231 
0.001231573494061566 
-0.02331494629943354 
-0.0009907116031790506 
-0.008287799830202379 
-0.001446647939172922 
-0.001998679163926099 
-0.0009910167677040988 
-0.008134656620065043 
-0.01199939400734144 
0.03181760893504235 
0.0005893885495686853 
-0.006148544764101206 
0.004384184927162934 
0.0007306218528816345 
0.0003652882413257505 
-0.03649392909054022 
-0.06222194460966694 
-0.02146158547850005 
-0.02262880355172131 
-0.01096542578487673 
-0.002466293421488205 
-0.01287081443003207 
-0.001003398977890733 
-0.00815859555392464 
-0.002437305826952563 
-0.001124155921931392 
0.0001445939809062188 
-0.002875695533249677 
-0.002564243035227621 
-0.009562625293691809 
-0.006978700058754271 
-0.001754797871329487 
-0.003669658212396784 
-0.0008289987879729242 
-0.00541564256981602 
-0.01486418182896643 
-0.2237850147383755 
-0.006695417255218036 
-0.006949089561612082 
0.0001721499026649672 
-0.0001635525477247445 
-0.00488227658304412 
-0.01323898279972503 
0.002200947350545571 
0.0002751060049912611 
0 
-0.02618969379609008 
-0.004653211285241362 
-0.0001716093867366974 
-0.0001270131179316455 
-0.002875695533249677 
-0.002241641242687498 
-0.01337459503924228 
-0.0002709634273077581 
-0.004078563950815893 
-0.01312671534438013 
-0.002452176586274066 
-0.01173681008391251 
-0.002804262458666152 
-0.001250649748593295 
-0.0005499709452809419 
-0.0001389026255144233 
-0.001787588309522677 
-0.00251553690272905 
-0.06216778788003093 
-0.001259981234280501 
-0.01610581151754614 
-0.02427335536651049 
-0.0008378952058937111 
-0.0003666485946286426 
-0.0007368396983175433 
0.001325363571215158 
-0.004439444822243078 
-0.00494888466204756 
0.003868451047023352 
0.0021418529306448 
0.001636122967148674 
0 
-0.018248315123236 
-0.0005025391847029448 
-0.0006849554580507504 
-0.0003070653858403387 
-0.006089335557274252 
-0.0003178913331695993 
-0.0557846558783047 
-0.0008068984604989406 
-0.003136116500782849 
-0.0004973078274350918 
-0.01284510592803835 
-0.000952878076658466 
-0.01945338599773931 
-0.002338924304613378 
-0.006782962357430502 
-0.08078425101626459 
-0.02378555006970903 
-0.00864503551952293 
0.001182644505619955 
0.0004559267951480514 
0 
0.0001852881661990661 
0.0003844839700551438 
0 
0.002760869149126976 
0.0005674050238192703 
0 
-0.009988517474527857 
-0.01592628051006691 
-0.01019681762185848 
0.0006788228985644411 
0 
-0.01519485938755008 
-0.001039608041682333 
-0.00174042280589392 
-0.001454481553053544 
-0.000827966947373889 
-0.007693073500851791 
-0.003502334715665562 
-0.0002995448591270089 
-0.002623432119337845 
-0.001883131715319318 
-0.001399186485185242 
-0.000461112507065062 
-0.01156682399231569 
-0.006336761220355126 
-0.0007322235890638031 
-0.0002699368408469478 
0.001281610655128142 
0.0001601975988997312 
0 
0 
0.001384123563751868 
0.0001730107523871359 
0 
-0.0008146924253365931 
-0.001964352151729002 
-0.01218536141276421 
-0.001418574705109642 
0.0003416899418219659 
0 
-0.03281495060795776 
0.125728735482966 
-0.00261371175025237 
-0.0003779795417450587 
-0.0001866859597523194 
-0.0002344702039969673 
-0.002804262458666152 
-0.005130371614886962 
0.002856597066657217 
0.0003570575892292251 
0 
-0.008065992541503897 
-0.000181542057137819 
-0.007652681117969725 
-0.08771110129353915 
-0.07923528864331386 
-0.004466632372893917 
-0.002232741180778857 
-0.0005563658227904539 
-0.0004147061035909279 
-0.0158184285739845 
0 
0 
-0.002012132892072827 
-0.001148899667483646 
-0.001451436220912551 
0.0001577599228531159 
0.0001233422440204054 
0.0328753619836479 
0.004107368731252926 
0.0007806191475915483 
0.003040413176490671 
0 
9.419931257228148e-05 
0 
0.002092383351240196 
0.01527202165217398 
0 
0.0005097009988605726 
0.001006483061661127 
0.000503205886035827 
-0.0002812889092455088 
-0.0008289987879729242 
0.002328422774081127 
-0.01312671534438013 
0.01791953561437928 
0.002985456067309612 
0.001492388382435211 
-5.400892667568562e-05 
-0.000568242186644121 
-0.001232160923196776 
-0.004562200820597688 
0.006600687994909949 
0.0008249774186215262 
0.0004745745195682692 
-0.003366516348061594 
-0.0548242840450526 
0.001107657392018545 
-0.008679494811760072 
-0.01207684212790693 
-0.001724767250978348 
-0.006315646224310295 
-0.0002192828097847388 
-0.003447872441474946 
-0.004348830689787447 
0.0003737826432278667 
0 
-0.009958307065313515 
-0.000886659474037545 
-0.0004253800233726351 
0.001904655134923925 
0.0002380767459091646 
0 
-0.007416114071436512 
-0.02147659828679672 
-0.002992581958043896 
-0.03475782487647032 
-0.005533891183613167 
-0.04584717240523799 
-0.0007794970014580631 
-0.006573951327817252 
-0.001137931225702566 
-0.001723781430856468 
-0.0004724696312327052 
0 
0 
0 
0 
0.3022280549827289 
0.03761603009730043 
-0.009988517474527857 
-0.0001791589703626881 
-0.003028042829554413 
-0.02146158547850005 
0.001600072296430215 
-0.01401998156338853 
-0.0005868102114515237 
-0.000367539268208172 
0.004400703144890833 
0.0004194518507881936 
-0.01135984319423867 
0.001953448214809329 
9.451232713254443e-05 
-0.04584717240523799 
-0.007693073500851791 
-0.004530396417168403 
-0.001418574705109642 
-0.008109892698059507 
0.0001052207534243471 
-0.01424714907902394 
-0.001816485380566175 
-0.005790005084878597 
-0.005448216860548322 
-0.005954073453061064 
-0.009072056932255591 
-0.004737517295555917 
-0.01306299240146467 
-0.0006153913448940835 
-0.008799819505632422 
0 
0.002759214974535594 
-0.02011487357051428 
-0.008424336160590873 
-0.002484045812610784 
-0.0009448686992176496 
-0.00104507485377568 
0.0005899863281405151 
0 
-0.003949270827063367 
-0.00115042941299849 
-0.01448494548506222 
0 
0 
0.3044898470767873 
-0.003284100988775136 
-0.0007179853972666701 
-0.01032995325918024 
-0.002751145307780346 
-0.003936991950410887 
-0.00792209016464876 
-0.05713643682316082 
-0.008512545609663063 
-0.003303562637361831 
-0.001007456931099621 
-0.00115042941299849 
-0.001289492583404363 
-0.0008146924253365931 
0.0002657687228949659 
-0.002804262458666152 
-0.004812066150917397 
-0.005603709951954567 
0.0007422686568764726 
9.278275031397303e-05 
-0.006402091031881937 
-0.002053212801245033 
-0.0003284708109142043 
-0.001013881187091527 
-0.00327873311821664 
-0.002519400619624269 
-0.01745653938072452 
-0.03527512617200623 
-0.001176466619936224 
-0.004504942366456311 
-0.00261371175025237 
-0.002215763841245163 
-0.02096521708979528 
-0.00261371175025237 
-0.002804262458666152 
-0.002804262458666152 
-0.004934247635323642 
-0.00321070816857072 
0.0003546496492141726 
0 
-0.000831298235835481 
-0.0004823840018474368 
-0.009988517474527857 
0.002493937583761268 
0.0003117292774350099 
-0.03867792472286451 
0.0004207818462357873 
-0.01040078438800723 
-0.002875695533249677 
-0.00261371175025237 
0.001105122680756129 
0.0001841843492150999 
9.209134538100077e-05 
-0.003395958901046129 
-0.0009232922276191232 
0.02419592780356052 
0.001050887878269727 
0 
-0.001376565208565557 
-0.006089335557274252 
-0.007235101545540638 
0.02755221060807674 
0.003442952419840528 
-0.02546623309344661 
-0.006089335557274252 
-0.0001434055789697862 
0.0008886483027990446 
0.0001110795770726775 
0 
-0.004045454036550631 
-0.008065992541503897 
-0.002810754206172906 
-0.05292325632620509 
-0.01017513303648566 
-0.005241718133852963 
-0.0002383330716293203 
0.05495190409572855 
0.0005312672302741095 
-0.04264225475065195 
0.001177601989736834 
0.000196263606031973 
9.813078540368061e-05 
-0.01055820685335952 
-0.01129221787898711 
-0.00184871423380146 
-0.00488227658304412 
-0.00203439008409636 
-0.0005852740437896201 
0.0004983642803878174 
0 
-0.001757042613074304 
-0.001538935612363041 
-0.002043400266932001 
-0.01725885139506769 
-0.001446647939172922 
-0.004348830689787447 
-0.01658915955952212 
-0.0008580776100647197 
0.002162704591293959 
0.0002703303653503729 
-0.06545964905724612 
-0.05440190731591137 
0.0002322424642786748 
-0.004078563950815893 
-0.01883650505799096 
-0.0002078409192391221 
-0.1731625032153102 
-0.006089335557274252 
-0.0001733252718826655 
-0.003028042829554413 
-0.01183416224697562 
-0.02803203812627533 
-0.0004181056128586779 
-0.006695417255218036 
-0.1097498457309773 
-0.0006453624725096068 
-0.00878256190955554 
-0.001883685347902716 
-0.009604600979536292 
-0.0007252695895932814 
0.0001360157379282171 
0.0003625379191580082 
0 
-0.001657660890777229 
9.905680052053355e-05 
-0.0001355162396529474 
0.0008031828480537459 
-0.003737496592162198 
-0.0001589762018121448 
-0.003949270827063367 
-0.001462310845820791 
0.02905053061167285 
-0.01032520090426346 
0.001570857018929437 
0 
-0.02378555006970903 
-0.01078057021352186 
-0.005387539275205433 
-0.006089335557274252 
0.03492325043245962 
0.006011910367939236 
0.00400595275809847 
0.002002380743158858 
0.0007035693288957542 
0.0009574941476705114 
0.0004787111525180819 
-0.0003925557004065849 
-0.0009245518608481558 
-0.01860126850332119 
-0.007285598046884717 
-0.0002800189022520423 
-0.01614989305951768 
-0.0005822316267052861 
-0.002484045812610784 
-0.0006941924969329717 
-0.0007877507825385605 
-0.002044677140565602 
-0.001314082962062823 
-0.03587549550553958 
-0.005348008733213161 
-0.0003432970050650761 
-0.005192765037737623 
-0.0002548975879722642 
-0.03079462975216733 
-0.00700342590164716 
-0.01072586004941204 
0.001933489498705305 
9.897027372354663e-05 
0.01111455347648102 
0.001388998441689665 
0 
-0.008478664800838106 
-0.0005462694402764884 
-0.0004896803124530907 
0 
0 
-0.01424714907902394 
-0.001501533223923644 
-0.006089335557274252 
-0.006669445791315378 
-0.004981284123249404 
-0.000622433863535547 
0.003992159479927577 
0.0004989812570827015 
0 
0.0003725493325718268 
0 
-0.0005857207268259126 
0.0001201345983752465 
-0.00111209000117405 
-0.002484045812610784 
-0.03968571069679479 
-0.003099012677861414 
-5.9297035672796e-05 
-0.05671927450398725 
0.0003929022827240515 
0 
-0.005043449961607921 
-0.003141022445852447 
0.0002956272182283214 
0.0001478103649432286 
-0.0006817863449519517 
-0.0006260597530161303 
-0.002671062849366843 
-0.001401434403954977 
9.749749200419519e-05 
-0.0007252695895932814 
0.003726936288783182 
0.0008419613008015472 
0.0008482229713754833 
0 
0.0003793050331580701 
0 
-0.002321765452995665 
-0.001724767250978348 
-0.0009460851254948462 
-0.0003231766339979903 
-0.007269125035751763 
-0.02006685788576679 
-0.06552820263407574 
-0.007924922795891841 
-0.0547983626279363 
0.001725672728354766 
0.0002157020599330528 
0 
-0.001393053117828771 
-0.001873738255382462 
-0.002639421685610141 
-6.278570359497172e-05 
-0.001092013126676051 
-0.00221224966847409 
-0.002264523387846238 
-0.0004544119152893563 
-0.0002329419062399979 
0.0448152868369469 
0.0004445588115216272 
0 
-0.01611139045693649 
-0.002073113227783306 
-0.0005212921663459039 
-0.004985076638624564 
-0.004070125616990319 
-0.01295486774701038 
-0.002205790117114474 
-0.00541564256981602 
0.005759595393625532 
0.0007198784861320146 
0 
-0.04094850937357235 
-0.03751449180736174 
-0.002004749073534588 
-0.007842206758681355 
0 
0 
0.5260828154597682 
0.0006070054878553247 
0.001642578765021868 
0.0002737543263188039 
0.0001368745230599572 
0 
-0.00541564256981602 
-0.001613486012654972 
-0.002451611045522267 
-0.003986920807690592 
-0.0004314650951421339 
0.009821295758614382 
0.001636553452939288 
0.0008181780233305248 
0 
0 
0.0007573863747926295 
9.467238021263749e-05 
8.915800543437966e-05 
-0.0006178410038125168 
0.0008610861593578536 
0.0001076343945730175 
0 
-0.002044677140565602 
-0.001637201685825969 
0.04816946875737988 
0.007183922621028777 
-0.02736207612480801 
-0.0001589762018121448 
-0.0220750135564552 
-0.005032822864493056 
-0.006924747487428658 
0.002216384312167499 
0.0002770357046406935 
0 
-0.004653211285241362 
-0.001526356110631142 
0.004009701118842666 
-0.07228353090095518 
-0.001735207068269856 
-0.00590750858224808 
-0.00805122641735511 
0.0008228781495080637 
-0.03351165921137388 
-0.04238160933614225 
-0.0007243249275214433 
-0.003281576859797673 
-0.0526602918930987 
-0.02626971347646125 
-0.01354448934994008 
-0.002077356437526865 
-0.002205790117114474 
-0.002452176586274066 
-0.0241986836382734 
-0.0008430578693294835 
-0.01173292718691467 
-0.005034106463736397 
-0.001408236796892827 
-0.004486629099200876 
-0.002875695533249677 
-0.002804262458666152 
-0.002804262458666152 
9.569027408859579e-05 
-0.0006876347183475749 
0.0001047484912172985 
-0.007911686204545115 
-0.001684356242220386 
-0.01066435769029379 
-0.005328595861366738 
0 
0 
0.0005337288203796891 
0.0002668565862587886 
-0.000781599408705914 
-0.00104627963212512 
-0.009139469800891661 
-0.00571595343795752 
0.002984420157716584 
0 
-0.0003788598411741805 
-0.0005494498484685097 
-0.002745765429244512 
0.000104680214834774 
-0.001012692833919122 
-0.003589312679555058 
0.0107366010149376 
0.00386074448540908 
0 
-0.00220411418795421 
9.346813206638602e-05 
0 
0 
0 
-0.006104807477449207 
0.02092376729012243 
-0.008896368495717786 
-0.0006628930578848914 
-0.01847128603827265 
-0.001724767250978348 
-0.001724767250978348 
0.001171499382431753 
0.0001464343428170829 
-0.001039608041682333 
-0.00772119929219184 
-0.02914063546697413 
-0.01542345807793503 
-0.0003194571595311753 
-0.006955313246101609 
-0.00677886542235973 
-0.002963242185241193 
-0.006089335557274252 
-0.00261371175025237 
-0.002452176586274066 
-0.0004855176465745665 
-0.002570546064573999 
-0.002804262458666152 
-0.006089335557274252 
0.0007570030931942565 
0.0003784779027832226 
-0.0008951512942838283 
-0.006089335557274252 
-0.0002715788348432751 
-0.01992136484367739 
-0.009951410587556019 
-0.006089335557274252 
0.0003512954829961887 
-0.01438218774030602 
-0.005043449961607921 
-0.000511025271526599 
-0.005034106463736397 
-0.0522774465155366 
-0.003713409228591904 
-0.03037246443077939 
-0.04207770635165517 
-0.001306106912863669 
-0.00253323336058497 
-0.0003619190209597451 
-8.821433434684625e-05 
-0.004641184305324635 
-0.001164920639323764 
-0.00261371175025237 
-0.000541880425332182 
0.0001149368546657424 
-0.007081124261988958 
-0.002605685886067939 
-0.001266095311316353 
0.002020690698714569 
0 
-0.00107902512257486 
-0.00170265010593572 
-0.0006817863449519517 
-0.0002357771536554305 
-0.009172164499856906 
-0.006956583592177318 
-0.00283625126960687 
-0.007434892450357772 
-0.01338468405351337 
-0.00541564256981602 
0.001286492282857693 
-0.002804262458666152 
-0.001013166339714298 
-0.004296762290611001 
-0.0002699368408469478 
-0.00107902512257486 
-0.001652568428151291 
-0.006695417255218036 
-0.006782962357430502 
0.0002930565304783097 
-0.001724767250978348 
-0.0008464230661009922 
-0.02506545120878725 
0.0009470276430945757 
0.0004434640132886162 
0 
0.0008666714746059657 
0.0001083325374714633 
0.0007798518898527257 
0.0003899043252856838 
-0.0006941924969329717 
-0.00261371175025237 
-0.009755087241545326 
-0.00115042941299849 
-0.03846035252115815 
-0.001418574705109642 
-0.004083410586574786 
-0.0006469899972108362 
-0.004195185078804809 
-0.002714676063828551 
-0.07514997025846692 
-0.06222194460966694 
-0.001724767250978348 
-0.001260525711361537 
-0.003225771463975204 
0.0110898505855212 
0 
-0.003645257680758229 
0.003064332634746596 
9.266558515272442e-05 
-0.004212148653515345 
0.004728892922441867 
0.0005910563820013405 
-0.001880118825823806 
-0.009421859384288269 
-0.0006328477611425931 
0.0002533556147052694 
-0.004083410586574786 
0.0008513722904107753 
0.0001064201390268559 
-0.0005751814653621793 
-0.004653211285241362 
-0.008065992541503897 
-0.002875695533249677 
-0.000738030436416355 
-0.01962531157931758 
-0.0003438437333918572 
-0.0009907116031790506 
-0.00115042941299849 
-0.0005052938518055277 
-0.005025013449152484 
0.0004475506100547058 
0.0002237705180267141 
-0.0005025369801456349 
-0.0002512617852002488 
-0.01571071152132964 
-0.0009418450155113322 
-0.00541564256981602 
-0.0002126221619514746 
-0.0004663500064101878 
-0.004653211285241362 
-0.007693073500851791 
-0.004169701468567017 
-0.007068092533416206 
-0.001039608041682333 
0.0009434292011313878 
0.000117926895461004 
0 
0.002833677750506611 
-0.1143201974533653 
-0.001757042613074304 
-0.003179146565019542 
0 
0 
0 
0.005898262350167327 
-0.004653211285241362 
-0.004348830689787447 
-0.006089335557274252 
-0.0003495356243232663 
-0.0003768425244761036 
-0.0006487523810798744 
-0.001362664872562718 
-0.004058687829123783 
-0.001777821324969955 
-0.003284100988775136 
-0.004641621233136854 
-0.0151614356704739 
-0.01618033791160339 
-0.002321765452995665 
-0.005598274514911501 
-0.003227678626255333 
-0.001816485380566175 
-0.01927443873759816 
-0.01934788120377339 
-0.003470966508033161 
-0.0005290002344233406 
-0.01793263284419927 
-0.001684356242220386 
-0.00488227658304412 
-0.006695417255218036 
-0.0009232922276191232 
0.001001136685352165 
0.0001251399582111119 
0 
-0.0008279694604557499 
0.000332788182276806 
0 
0 
0.004263851231893529 
0.001686749587117597 
0 
0.0007259736540198615 
9.074591880450031e-05 
0 
-8.654230615272882e-05 
0.0003505110414257864 
-0.00330175591451454 
-0.03018080560473751 
-0.001985702346244174 
0.0008519272873126772 
0.0001064894847899839 
0 
-0.008065992541503897 
-0.0008299689021367984 
-0.02293008493121546 
-0.003926833078739318 
-0.001081857144869114 
-0.002662667649966891 
-0.0009908831248668975 
-0.0002820877274263982 
-0.001845184981387132 
-0.001798505853571892 
-0.002777505121140405 
-0.005924460445000377 
-0.001685072519696495 
-0.001306106912863669 
-0.005598274514911501 
-0.008230388662072919 
-0.03037246443077939 
-0.001041321274508471 
-0.001724767250978348 
-0.001115739034996457 
-0.00261371175025237 
0 
0.002166432373436923 
8.628108373999257e-05 
-0.003876241041722048 
0.0004799829608986501 
-0.0009502878612942869 
-0.001169274617046947 
-0.004129786686691631 
-0.004653211285241362 
-0.004653211285241362 
-0.0004493853401506139 
-0.004201813081908476 
-0.0004142801420553267 
0.0005624459041550267 
0.001316432796734658 
-0.09883675054842023 
-0.0003725859758736688 
-0.001223385727469789 
-0.001985702346244174 
0.0005843746584500615 
-0.04380554912511907 
0.0005859396950092205 
-0.001724767250978348 
-0.0008800757242229452 
-0.006899375406025247 
-0.001215195560537817 
-0.0007578658514892255 
-0.005184898424805433 
-0.001769126603225437 
-0.0009542445967126388 
-0.0008724775976344453 
-0.001538912306178021 
-0.001416261802543614 
9.802656156840536e-05 
-0.02237075403289753 
0.001282383928180442 
0.0006411244687586184 
-0.03413255894290091 
-0.006956583592177318 
0.005746105676668553 
-0.0007913038442859785 
0.005116936337566462 
0.003562744086084042 
0.001041815453202822 
0.05324474965955762 
0.008866802236397098 
0.004431210586091879 
0.001977469707873502 
0.0002471771091395162 
-0.02293008493121546 
-0.0003425285211547157 
0.001094729514075831 
0.002810193496942477 
-0.0003744116905867409 
-0.001393053117828771 
0.002172055842526851 
-0.06222194460966694 
-0.004348830689787447 
-0.0004983337833745059 
-0.0009224847228498756 
-0.0004129217921778221 
-0.01295486774701038 
-0.001555405418794734 
-0.007693073500851791 
-0.0007280478995592344 
-0.04238160933614225 
-0.005511766264580917 
-0.03846035252115815 
-0.00872006730628901 
-0.007979627988638327 
0.0004164840939395398 
-0.02146158547850005 
0.0004776272596117822 
-0.009463931810546663 
0.0004773382335546022 
0 
-0.0008621103937725354 
-0.008647749232031477 
-0.00136177313358809 
-0.0004268870807864778 
0.001938747607907334 
0.0001342817541940145 
-0.001232160923196776 
-0.004078563950815893 
-0.001004277073445629 
-0.00227611837000433 
0.0002362135954218124 
-0.000783636614409084 
0.0002439012693736914 
-0.005034106463736397 
-0.006269243351510889 
0.0001042543265438233 
-0.0003724190659707756 
0.002227562396237271 
0 
-0.001565013925865071 
-0.02072966106098821 
-0.03693569467951166 
-0.007810653199717332 
-0.00541564256981602 
-0.004653211285241362 
-0.0005309878901472984 
0.001764432791382359 
0 
0.0001001364305866194 
-0.002745765429244512 
-0.006787653459913112 
