
\data\
ngram 1=19
ngram 2=320
ngram 3=3637

\1-grams:
-1.20171	</s>
-99	<s>	-4.294423
-1.238726	ADJ	2.535776
-1.200041	ADV	2.501644
-2.057986	AUX	-2.083168
-1.287227	CONJ	2.562729
-1.097042	DET	2.68438
-2.170537	DIG	3.467721
-3.187358	INTERJ	4.423533
-3.651102	MEAS	4.948323
-1.415427	NADJ	2.691016
-0.7346956	NOUN	2.510262
-2.322806	NUM	3.620565
-2.608045	PART	3.882035
-1.099226	PREP	2.697445
-1.09996	PRON	2.700314
-0.9384562	PUNCT	-2.844359
-1.824332	QUANT	3.098539
-0.8259097	VERB	2.600142

\2-grams:
-1.424345	<s> ADJ	0.1257563
-1.026586	<s> ADV	1.024177
-2.312255	<s> AUX	-0.1558452
-1.222127	<s> CONJ	0.9641323
-0.6679892	<s> DET	-0.01424742
-2.379493	<s> DIG	-0.0806644
-2.27517	<s> INTERJ	-0.2848611
-3.622701	<s> MEAS	-0.08675396
-1.562106	<s> NADJ	-0.1294932
-1.016599	<s> NOUN	1.419656
-2.200917	<s> NUM	-0.1639669
-1.391098	<s> PREP	-0.5235081
-0.505743	<s> PRON	0.3038511
-1.840503	<s> PUNCT	0.2777691
-1.726129	<s> QUANT	-0.401648
-1.200219	<s> VERB	-0.6888702
-3.07794	ADJ </s>
-1.518772	ADJ ADJ	-0.03376842
-1.799868	ADJ ADV	-0.2353225
-3.529929	ADJ AUX	-0.07179439
-0.9742525	ADJ CONJ	-0.7273962
-2.226291	ADJ DET	1.111454
-2.523695	ADJ DIG	0.07925725
-3.68558	ADJ INTERJ	-0.1586699
-3.716614	ADJ MEAS	-0.7307956
-1.364181	ADJ NADJ	-0.5448959
-0.3720615	ADJ NOUN	0.3983469
-2.552481	ADJ NUM	0.04711056
-3.55138	ADJ PART	-0.7571727
-1.141618	ADJ PREP	-0.3909771
-1.948359	ADJ PRON	0.2924044
-0.5757161	ADJ PUNCT	0.9930086
-2.278453	ADJ QUANT	-0.7304168
-1.918168	ADJ VERB	-0.4751635
-2.975809	ADV </s>
-0.8470224	ADV ADJ	0.808557
-1.152837	ADV ADV	1.148772
-2.379128	ADV AUX	0.8744218
-1.419915	ADV CONJ	-0.9550395
-1.235301	ADV DET	-0.004079819
-2.173825	ADV DIG	0.493813
-3.595598	ADV INTERJ	0.1959953
-3.62437	ADV MEAS	-0.3825976
-1.326984	ADV NADJ	-0.1276665
-1.60551	ADV NOUN	0.04967308
-2.321262	ADV NUM	-0.0452826
-2.94115	ADV PART	-0.9296184
-1.021894	ADV PREP	0.1814003
-1.205116	ADV PRON	-0.7439811
-0.7990414	ADV PUNCT	-0.7655582
-1.617699	ADV QUANT	-0.210695
-0.5840275	ADV VERB	0.4820342
-4.328726	AUX </s>
-3.038692	AUX ADJ	0.02798676
-0.6697612	AUX ADV	-1.621524
-3.784658	AUX AUX	0.9498705
-2.816843	AUX CONJ	-0.5222589
-2.986303	AUX DET	-0.3967397
-4.020611	AUX DIG	-0.1726678
-4.020611	AUX INTERJ	-0.2851036
-3.930786	AUX MEAS	-0.3699379
-2.249545	AUX NADJ	0.275012
-2.420241	AUX NOUN	0.2610424
-3.425636	AUX NUM	-0.2548519
-2.431099	AUX PREP	-0.8162179
-1.880793	AUX PRON	-0.7561755
-2.089427	AUX PUNCT	-0.1447035
-2.557874	AUX QUANT	-0.6917885
-0.1281355	AUX VERB	0.1503623
-4.622355	CONJ </s>
-1.091836	CONJ ADJ	1.782408
-1.048653	CONJ ADV	1.131742
-2.181184	CONJ AUX	0.006638765
-1.90261	CONJ CONJ	-0.3851826
-0.7984143	CONJ DET	0.4057789
-2.19126	CONJ DIG	-0.3221188
-3.227321	CONJ INTERJ	-1.006123
-3.832305	CONJ MEAS	0.08017918
-1.389571	CONJ NADJ	0.1636488
-0.8720402	CONJ NOUN	0.9470782
-2.267607	CONJ NUM	-0.04702735
-5.378231	CONJ PART
-1.626282	CONJ PREP	-0.2028122
-0.544794	CONJ PRON	-1.317053
-2.012228	CONJ PUNCT	-0.5084004
-1.658489	CONJ QUANT	-0.3837752
-0.9091172	CONJ VERB	-0.5931113
-4.745595	DET </s>
-0.7900029	DET ADJ	1.062953
-1.788535	DET ADV	-1.190138
-4.228965	DET AUX	-0.4540294
-4.511511	DET CONJ	-0.01920891
-3.256239	DET DET	0.4064034
-2.070078	DET DIG	0.9968803
-3.777779	DET INTERJ	-0.4502684
-3.537614	DET MEAS	0.2596073
-0.9179575	DET NADJ	0.9392862
-0.1878673	DET NOUN	0.07180262
-2.001413	DET NUM	0.2336974
-5.568416	DET PART
-2.983238	DET PREP	0.1746809
-2.701391	DET PRON	0.2580351
-2.629746	DET PUNCT	0.5864677
-1.812179	DET QUANT	0.135272
-1.938059	DET VERB	-0.1198547
-2.835968	DIG </s>
-1.608188	DIG ADJ	-0.1507963
-1.740508	DIG ADV	-0.2826707
-2.691134	DIG AUX	-0.3568723
-1.341987	DIG CONJ	0.3513918
-1.904425	DIG DET	-0.8889495
-2.281681	DIG DIG	-0.07261705
-3.040088	DIG INTERJ	0.03755629
-2.254758	DIG MEAS	-0.3441495
-1.630718	DIG NADJ	-0.07820821
-0.3580933	DIG NOUN	1.729903
-2.827013	DIG NUM	-0.1912432
-2.071605	DIG PART	-0.3707123
-0.9877787	DIG PREP	-0.7472882
-1.733306	DIG PRON	-0.3327295
-0.5919486	DIG PUNCT	2.168611
-2.06696	DIG QUANT	-0.2370536
-1.578689	DIG VERB	0.3574646
-1.010552	INTERJ </s>
-2.02339	INTERJ ADJ	-0.2509666
-1.443606	INTERJ ADV	-0.1458226
-2.891366	INTERJ AUX	-0.2993766
-1.386568	INTERJ CONJ	-0.2579712
-1.459118	INTERJ DET	-0.4590873
-2.459118	INTERJ DIG	0.2054126
-1.327325	INTERJ INTERJ	-0.09639502
-2.42133	INTERJ MEAS	-0.05562934
-1.898451	INTERJ NADJ	-0.445828
-1.190881	INTERJ NOUN	0.6062523
-3.199481	INTERJ NUM
-2.891366	INTERJ PART	-0.2375872
-1.70117	INTERJ PREP	-0.2627757
-1.178292	INTERJ PRON	-0.4642746
-0.2880569	INTERJ PUNCT	0.7105966
-2.245238	INTERJ QUANT	-0.3272727
-1.407089	INTERJ VERB	0.1792599
-1.860937	MEAS </s>
-1.321025	MEAS ADJ	-0.6047643
-1.150537	MEAS ADV	-0.3702533
-2.133938	MEAS AUX	0.2452608
-1.251698	MEAS CONJ	-0.07418537
-1.49296	MEAS DET	-0.07678616
-1.281153	MEAS DIG	-0.4251978
-2.338058	MEAS INTERJ	-0.2064912
-2.19193	MEAS MEAS	-0.6176299
-1.312752	MEAS NADJ	0.0446586
-0.6622795	MEAS NOUN	0.6739397
-2.559907	MEAS NUM	-0.4769526
-2.133938	MEAS PART	-0.3497055
-0.9298179	MEAS PREP	-0.2393396
-1.296665	MEAS PRON	-0.02908373
-0.7210575	MEAS PUNCT	0.06103694
-1.957847	MEAS QUANT	-0.2256231
-1.204519	MEAS VERB	0.409906
-3.021888	NADJ </s>
-1.544767	NADJ ADJ	0.7001925
-1.72208	NADJ ADV	0.2888391
-2.771249	NADJ AUX	-0.06349814
-1.07949	NADJ CONJ	-1.079967
-2.173319	NADJ DET	0.5617881
-2.355854	NADJ DIG	-0.8289956
-3.472968	NADJ INTERJ	0.1233455
-3.63884	NADJ MEAS	-0.6050409
-1.377715	NADJ NADJ	0.1383908
-0.3805533	NADJ NOUN	1.224783
-2.599287	NADJ NUM	-0.1325405
-5.250032	NADJ PART
-1.064593	NADJ PREP	1.396925
-1.742749	NADJ PRON	0.4520352
-0.6265323	NADJ PUNCT	0.8069592
-2.36436	NADJ QUANT	0.2629774
-1.307577	NADJ VERB	-0.4291651
-2.779269	NOUN </s>
-1.976505	NOUN ADJ	0.08157444
-1.438013	NOUN ADV	-0.8967876
-2.160787	NOUN AUX	-0.02278757
-1.030152	NOUN CONJ	0.1759958
-2.026644	NOUN DET	0.7357707
-2.67019	NOUN DIG	0.09094262
-3.496672	NOUN INTERJ	1.193541
-3.944438	NOUN MEAS	0.2421708
-1.834774	NOUN NADJ	0.8521814
-0.883633	NOUN NOUN	0.407176
-2.991143	NOUN NUM	0.8099115
-1.912515	NOUN PART	0.4690225
-0.8097425	NOUN PREP	0.4769855
-1.459483	NOUN PRON	1.432992
-0.5128505	NOUN PUNCT	0.01091003
-2.423223	NOUN QUANT	0.07232165
-0.7446023	NOUN VERB	0.1753502
-3.586793	NUM </s>
-1.405426	NUM ADJ	-0.5969898
-1.735535	NUM ADV	0.02400208
-1.981129	NUM AUX	-0.908179
-1.597789	NUM CONJ	1.188995
-2.489883	NUM DET	-0.1835873
-2.785161	NUM DIG	-0.3070495
-3.410702	NUM INTERJ	-0.598928
-3.410702	NUM MEAS	-0.2496531
-1.575364	NUM NADJ	-0.7120576
-0.3660319	NUM NOUN	2.594767
-2.47285	NUM NUM	0.002684772
-2.665975	NUM PART	-0.009230018
-0.5681624	NUM PREP	-0.496073
-1.649777	NUM PRON	-0.1068742
-1.054464	NUM PUNCT	0.3538783
-2.405903	NUM QUANT	-0.5097727
-1.273982	NUM VERB	0.5041199
-2.80097	PART </s>
-1.103374	PART ADJ	-0.2162819
-1.459588	PART ADV	-0.3852956
-2.416966	PART AUX	-0.2817105
-1.348135	PART CONJ	0.3796762
-1.989819	PART DET	0.09715056
-2.092952	PART DIG	-0.1710472
-3.301573	PART INTERJ	-0.1541468
-4.057447	PART MEAS
-1.224811	PART NADJ	0.7998524
-0.4189531	PART NOUN	0.2710299
-2.316296	PART NUM	0.1174917
-3.380754	PART PART	-0.01346436
-1.176634	PART PREP	-0.9977558
-1.943003	PART PRON	-1.03172
-0.8667376	PART PUNCT	1.441107
-1.617326	PART QUANT	-0.780813
-0.8753324	PART VERB	0.5820265
-4.111388	PREP </s>
-1.375576	PREP ADJ	-0.5347841
-1.686289	PREP ADV	0.7117567
-4.509328	PREP AUX	0.01133144
-2.264845	PREP CONJ	-0.2109673
-0.5142195	PREP DET	-0.4850903
-1.574241	PREP DIG	0.5032845
-3.832634	PREP INTERJ	-0.6661413
-3.634267	PREP MEAS	0.3985792
-1.476642	PREP NADJ	1.272637
-0.6669632	PREP NOUN	0.5542321
-1.970356	PREP NUM	-0.2379062
-5.111388	PREP PART
-2.05233	PREP PREP	-0.2354581
-0.9761599	PREP PRON	1.086682
-1.722695	PREP PUNCT	-0.9857171
-1.430901	PREP QUANT	-0.2941284
-0.7727058	PREP VERB	0.5688066
-3.546382	PRON </s>
-1.713989	PRON ADJ	0.6263549
-1.194077	PRON ADV	1.090073
-1.108934	PRON AUX	0.1885304
-1.924168	PRON CONJ	-0.249892
-1.753545	PRON DET	1.092667
-2.606409	PRON DIG	0.4274861
-3.934562	PRON INTERJ	-0.1736398
-3.7617	PRON MEAS	0.09317625
-1.701341	PRON NADJ	0.3740807
-0.9006921	PRON NOUN	0.7880168
-2.476512	PRON NUM	-0.4961516
-3.322957	PRON PART	-0.5718902
-1.470338	PRON PREP	-0.5583746
-1.655656	PRON PRON	-0.08779287
-1.288835	PRON PUNCT	1.153426
-2.079649	PRON QUANT	0.2032528
-0.2666407	PRON VERB	0.06084728
-0.2676775	PUNCT </s>
-1.53685	PUNCT ADJ	-0.5037076
-1.41114	PUNCT ADV	1.559495
-2.921263	PUNCT AUX	-0.5193732
-1.01483	PUNCT CONJ	-0.2373695
-1.385346	PUNCT DET	-0.4117577
-2.106121	PUNCT DIG	0.8743637
-3.181076	PUNCT INTERJ	-0.1369778
-3.936364	PUNCT MEAS	-0.1533364
-1.648356	PUNCT NADJ	0.8695893
-1.188141	PUNCT NOUN	1.327891
-2.682952	PUNCT NUM	0.2017014
-1.687863	PUNCT PREP	-0.4367859
-1.154333	PUNCT PRON	-1.056764
-1.742641	PUNCT PUNCT	1.445799
-2.15944	PUNCT QUANT	-0.5897222
-1.402377	PUNCT VERB	-0.8114202
-3.520983	QUANT </s>
-0.8213822	QUANT ADJ	1.407637
-1.407192	QUANT ADV	0.405159
-2.580105	QUANT AUX	-0.3481508
-1.435271	QUANT CONJ	0.3190849
-1.318223	QUANT DET	0.05426288
-2.125419	QUANT DIG	-0.2355129
-3.960316	QUANT INTERJ	-0.2503059
-3.250622	QUANT MEAS	-0.07629946
-1.248298	QUANT NADJ	1.99694
-0.4808308	QUANT NOUN	-0.4506872
-1.924386	QUANT NUM	-0.3990501
-4.84113	QUANT PART
-0.8515821	QUANT PREP	-0.7109816
-1.529355	QUANT PRON	-0.3145723
-1.124863	QUANT PUNCT	-0.2158039
-1.8012	QUANT QUANT	-0.6957221
-1.266699	QUANT VERB	-0.6638575
-3.387608	VERB </s>
-1.04793	VERB ADJ	0.6359668
-0.7853153	VERB ADV	0.407258
-3.541678	VERB AUX	-0.1502845
-1.507985	VERB CONJ	-0.05089712
-0.855273	VERB DET	0.1074452
-2.215715	VERB DIG	0.02120996
-3.663167	VERB INTERJ	-0.305342
-3.808746	VERB MEAS	0.7029777
-1.329542	VERB NADJ	0.8521338
-1.294516	VERB NOUN	0.9078903
-2.192043	VERB NUM	-0.1500142
-4.029316	VERB PART	-0.5980384
-0.8009871	VERB PREP	-0.1714234
-1.022976	VERB PRON	0.4461622
-1.136174	VERB PUNCT	0.726655
-1.578682	VERB QUANT	0.6931598
-0.9499589	VERB VERB	1.114892

\3-grams:
-2.91555	<s> ADJ </s>
-1.397978	<s> ADJ ADJ
-2.142601	<s> ADJ ADV
-3.459619	<s> ADJ AUX
-1.285704	<s> ADJ CONJ
-1.681467	<s> ADJ DET
-3.216581	<s> ADJ DIG
-1.366197	<s> ADJ NADJ
-0.2958611	<s> ADJ NOUN
-3.68033	<s> ADJ NUM
-3.68033	<s> ADJ PART
-1.23109	<s> ADJ PREP
-1.747811	<s> ADJ PRON
-0.6316035	<s> ADJ PUNCT
-2.663738	<s> ADJ QUANT
-1.804	<s> ADJ VERB
-3.328176	ADJ ADJ </s>
-1.377567	ADJ ADJ ADJ
-2.144906	ADJ ADJ ADV
-3.328176	ADJ ADJ AUX
-1.520303	ADJ ADJ CONJ
-2.888843	ADJ ADJ DET
-3.72067	ADJ ADJ DIG
-1.16308	ADJ ADJ NADJ
-0.1621158	ADJ ADJ NOUN
-2.851054	ADJ ADJ NUM
-1.402606	ADJ ADJ PREP
-2.373933	ADJ ADJ PRON
-1.018546	ADJ ADJ PUNCT
-3.085138	ADJ ADJ QUANT
-1.728839	ADJ ADJ VERB
-2.94171	ADV ADJ </s>
-1.906681	ADV ADJ ADJ
-1.608061	ADV ADJ ADV
-3.599288	ADV ADJ AUX
-0.7622733	ADV ADJ CONJ
-1.974162	ADV ADJ DET
-3.096612	ADV ADJ DIG
-3.686438	ADV ADJ INTERJ
-4.33965	ADV ADJ MEAS
-1.816554	ADV ADJ NADJ
-0.733215	ADV ADJ NOUN
-2.968582	ADV ADJ NUM
-4.33965	ADV ADJ PART
-0.9915401	ADV ADJ PREP
-1.596925	ADV ADJ PRON
-0.3628418	ADV ADJ PUNCT
-2.355123	ADV ADJ QUANT
-1.981715	ADV ADJ VERB
-0.7459666	AUX ADJ ADV
-0.9890046	AUX ADJ CONJ
-0.9890046	AUX ADJ DET
-0.5496719	AUX ADJ NOUN
-1.290035	AUX ADJ PREP
-1.113943	AUX ADJ PRON
-1.290035	AUX ADJ PUNCT
-1.209716	AUX ADJ VERB
-3.13258	CONJ ADJ </s>
-1.629243	CONJ ADJ ADJ
-1.912472	CONJ ADJ ADV
-3.194728	CONJ ADJ AUX
-1.239003	CONJ ADJ CONJ
-2.218766	CONJ ADJ DET
-3.162543	CONJ ADJ DIG
-4.099106	CONJ ADJ INTERJ
-3.706611	CONJ ADJ MEAS
-1.526199	CONJ ADJ NADJ
-0.411264	CONJ ADJ NOUN
-3.104551	CONJ ADJ NUM
-4.007641	CONJ ADJ PART
-1.166282	CONJ ADJ PREP
-2.068122	CONJ ADJ PRON
-0.4155199	CONJ ADJ PUNCT
-2.162543	CONJ ADJ QUANT
-1.932094	CONJ ADJ VERB
-3.47847	DET ADJ </s>
-1.324873	DET ADJ ADJ
-2.49106	DET ADJ ADV
-3.80069	DET ADJ AUX
-1.691449	DET ADJ CONJ
-3.19863	DET ADJ DET
-2.344324	DET ADJ DIG
-3.846447	DET ADJ INTERJ
-4.419341	DET ADJ MEAS
-1.094655	DET ADJ NADJ
-0.1255623	DET ADJ NOUN
-2.250461	DET ADJ NUM
-3.955591	DET ADJ PART
-1.916461	DET ADJ PREP
-2.56014	DET ADJ PRON
-1.241741	DET ADJ PUNCT
-2.767266	DET ADJ QUANT
-1.845965	DET ADJ VERB
-1.547293	DIG ADJ ADJ
-2.699456	DIG ADJ ADV
-1.678572	DIG ADJ CONJ
-2.607991	DIG ADJ DET
-1.364953	DIG ADJ NADJ
-0.1008099	DIG ADJ NOUN
-1.653748	DIG ADJ PREP
-2.607991	DIG ADJ PRON
-1.168658	DIG ADJ PUNCT
-2.063923	DIG ADJ VERB
-0.3631779	INTERJ ADJ NOUN
-1.176091	INTERJ ADJ PREP
-0.4357286	INTERJ ADJ PUNCT
-0.3357921	MEAS ADJ MEAS
-0.60206	MEAS ADJ NOUN
-0.6746107	MEAS ADJ PUNCT
-3.426511	NADJ ADJ </s>
-1.528884	NADJ ADJ ADJ
-2.064783	NADJ ADJ ADV
-3.517976	NADJ ADJ AUX
-1.304295	NADJ ADJ CONJ
-2.426511	NADJ ADJ DET
-2.882443	NADJ ADJ DIG
-1.321001	NADJ ADJ NADJ
-0.1973416	NADJ ADJ NOUN
-3.517976	NADJ ADJ NUM
-3.426511	NADJ ADJ PART
-1.271175	NADJ ADJ PREP
-2.209027	NADJ ADJ PRON
-0.8536397	NADJ ADJ PUNCT
-2.773299	NADJ ADJ QUANT
-1.706352	NADJ ADJ VERB
-2.772413	NOUN ADJ </s>
-1.923455	NOUN ADJ ADJ
-1.951228	NOUN ADJ ADV
-3.499412	NOUN ADJ AUX
-1.099162	NOUN ADJ CONJ
-1.923455	NOUN ADJ DET
-3.595185	NOUN ADJ DIG
-1.671182	NOUN ADJ NADJ
-0.3935615	NOUN ADJ NOUN
-2.746084	NOUN ADJ NUM
-2.935141	NOUN ADJ PART
-0.7975565	NOUN ADJ PREP
-1.451489	NOUN ADJ PRON
-0.6249303	NOUN ADJ PUNCT
-2.374473	NOUN ADJ QUANT
-1.741005	NOUN ADJ VERB
-1.468157	NUM ADJ ADJ
-2.357458	NUM ADJ ADV
-1.680765	NUM ADJ CONJ
-2.482397	NUM ADJ DIG
-1.454368	NUM ADJ NADJ
-0.09205089	NUM ADJ NOUN
-2.11442	NUM ADJ NUM
-1.544545	NUM ADJ PREP
-2.658488	NUM ADJ PRON
-1.357458	NUM ADJ PUNCT
-2.11442	NUM ADJ VERB
-2.67532	PART ADJ </s>
-1.353101	PART ADJ ADJ
-1.800259	PART ADJ ADV
-1.457836	PART ADJ CONJ
-1.408148	PART ADJ DIG
-1.212922	PART ADJ NADJ
-0.2391573	PART ADJ NOUN
-1.420048	PART ADJ PREP
-2.022107	PART ADJ PRON
-0.830222	PART ADJ PUNCT
-2.595002	PART ADJ QUANT
-1.654131	PART ADJ VERB
-3.133752	PREP ADJ </s>
-1.301243	PREP ADJ ADJ
-2.183549	PREP ADJ ADV
-3.911903	PREP ADJ AUX
-1.245385	PREP ADJ CONJ
-2.17154	PREP ADJ DET
-2.95766	PREP ADJ DIG
-3.610873	PREP ADJ MEAS
-1.142526	PREP ADJ NADJ
-0.2206446	PREP ADJ NOUN
-2.299119	PREP ADJ NUM
-3.036842	PREP ADJ PART
-1.259657	PREP ADJ PREP
-2.304448	PREP ADJ PRON
-0.8973824	PREP ADJ PUNCT
-2.531692	PREP ADJ QUANT
-2.073054	PREP ADJ VERB
-2.873785	PRON ADJ </s>
-1.45054	PRON ADJ ADJ
-1.934266	PRON ADJ ADV
-3.492437	PRON ADJ AUX
-1.213869	PRON ADJ CONJ
-2.329717	PRON ADJ DET
-2.317483	PRON ADJ DIG
-3.572756	PRON ADJ INTERJ
-1.180938	PRON ADJ NADJ
-0.2623808	PRON ADJ NOUN
-2.458812	PRON ADJ NUM
-3.492437	PRON ADJ PART
-1.04966	PRON ADJ PREP
-1.987295	PRON ADJ PRON
-0.8399597	PRON ADJ PUNCT
-2.475845	PRON ADJ QUANT
-1.798239	PRON ADJ VERB
-3.367329	PUNCT ADJ </s>
-1.406927	PUNCT ADJ ADJ
-2.288148	PUNCT ADJ ADV
-3.911397	PUNCT ADJ AUX
-0.9794312	PUNCT ADJ CONJ
-2.464239	PUNCT ADJ DET
-2.981978	PUNCT ADJ DIG
-3.133246	PUNCT ADJ INTERJ
-1.345549	PUNCT ADJ NADJ
-0.288148	PUNCT ADJ NOUN
-2.890208	PUNCT ADJ NUM
-3.610367	PUNCT ADJ PART
-1.462691	PUNCT ADJ PREP
-2.298614	PUNCT ADJ PRON
-0.6506107	PUNCT ADJ PUNCT
-2.589178	PUNCT ADJ QUANT
-1.753035	PUNCT ADJ VERB
-2.811615	QUANT ADJ </s>
-1.36537	QUANT ADJ ADJ
-1.756506	QUANT ADJ ADV
-3.000671	QUANT ADJ AUX
-0.8824962	QUANT ADJ CONJ
-2.76331	QUANT ADJ DET
-3.087821	QUANT ADJ DIG
-3.564942	QUANT ADJ INTERJ
-3.741033	QUANT ADJ MEAS
-1.237243	QUANT ADJ NADJ
-0.3687659	QUANT ADJ NOUN
-2.837943	QUANT ADJ NUM
-2.837943	QUANT ADJ PART
-1.150526	QUANT ADJ PREP
-2.263912	QUANT ADJ PRON
-0.6516582	QUANT ADJ PUNCT
-2.865972	QUANT ADJ QUANT
-1.868877	QUANT ADJ VERB
-3.000988	VERB ADJ </s>
-1.763908	VERB ADJ ADJ
-1.485929	VERB ADJ ADV
-3.813901	VERB ADJ AUX
-0.6889732	VERB ADJ CONJ
-2.180433	VERB ADJ DET
-2.256394	VERB ADJ DIG
-3.699958	VERB ADJ INTERJ
-3.910811	VERB ADJ MEAS
-1.774487	VERB ADJ NADJ
-0.901254	VERB ADJ NOUN
-2.565928	VERB ADJ NUM
-3.910811	VERB ADJ PART
-0.9172096	VERB ADJ PREP
-1.917926	VERB ADJ PRON
-0.3624217	VERB ADJ PUNCT
-1.899558	VERB ADJ QUANT
-2.162623	VERB ADJ VERB
-3.982332	<s> ADV </s>
-1.022654	<s> ADV ADJ
-1.144323	<s> ADV ADV
-2.241969	<s> ADV AUX
-1.744285	<s> ADV CONJ
-1.049858	<s> ADV DET
-2.608194	<s> ADV DIG
-3.459453	<s> ADV INTERJ
-4.158423	<s> ADV MEAS
-1.563478	<s> ADV NADJ
-1.528504	<s> ADV NOUN
-2.154101	<s> ADV NUM
-2.41806	<s> ADV PART
-1.439921	<s> ADV PREP
-0.8536093	<s> ADV PRON
-0.6826064	<s> ADV PUNCT
-1.758749	<s> ADV QUANT
-0.6052682	<s> ADV VERB
-2.607747	ADJ ADV </s>
-1.126696	ADJ ADV ADJ
-1.33951	ADJ ADV ADV
-3.267792	ADJ ADV AUX
-1.289305	ADJ ADV CONJ
-1.403627	ADJ ADV DET
-2.64914	ADJ ADV DIG
-3.172019	ADJ ADV INTERJ
-1.64914	ADJ ADV NADJ
-1.714642	ADJ ADV NOUN
-3.34811	ADJ ADV NUM
-1.115114	ADJ ADV PREP
-0.9475721	ADJ ADV PRON
-0.3620104	ADJ ADV PUNCT
-1.768327	ADJ ADV QUANT
-1.005687	ADJ ADV VERB
-2.594513	ADV ADV </s>
-0.859786	ADV ADV ADJ
-1.196573	ADV ADV ADV
-2.477543	ADV ADV AUX
-1.239009	ADV ADV CONJ
-1.264099	ADV ADV DET
-2.371088	ADV ADV DIG
-3.732816	ADV ADV INTERJ
-4.033846	ADV ADV MEAS
-1.349899	ADV ADV NADJ
-1.612242	ADV ADV NOUN
-2.528696	ADV ADV NUM
-2.857754	ADV ADV PART
-1.037553	ADV ADV PREP
-1.139253	ADV ADV PRON
-0.6502997	ADV ADV PUNCT
-1.647347	ADV ADV QUANT
-0.7172465	ADV ADV VERB
-2.729546	AUX ADV ADJ
-1.555161	AUX ADV ADV
-3.357935	AUX ADV CONJ
-3.114897	AUX ADV DET
-1.798627	AUX ADV NADJ
-2.468633	AUX ADV NOUN
-2.598267	AUX ADV PREP
-2.755875	AUX ADV PRON
-2.219632	AUX ADV PUNCT
-2.918602	AUX ADV QUANT
-0.02787637	AUX ADV VERB
-3.749814	CONJ ADV </s>
-0.8383896	CONJ ADV ADJ
-1.034228	CONJ ADV ADV
-2.175782	CONJ ADV AUX
-1.821674	CONJ ADV CONJ
-1.182199	CONJ ADV DET
-2.181612	CONJ ADV DIG
-3.874752	CONJ ADV INTERJ
-3.749814	CONJ ADV MEAS
-1.356238	CONJ ADV NADJ
-1.443389	CONJ ADV NOUN
-2.33484	CONJ ADV NUM
-2.432796	CONJ ADV PART
-1.24944	CONJ ADV PREP
-1.009648	CONJ ADV PRON
-1.111324	CONJ ADV PUNCT
-1.634203	CONJ ADV QUANT
-0.4883723	CONJ ADV VERB
-0.2098699	DET ADV ADJ
-1.598038	DET ADV ADV
-3.501128	DET ADV AUX
-2.024007	DET ADV CONJ
-2.222374	DET ADV DET
-2.094588	DET ADV DIG
-3.501128	DET ADV INTERJ
-0.8065225	DET ADV NADJ
-1.374023	DET ADV NOUN
-2.65603	DET ADV NUM
-2.046283	DET ADV PREP
-2.158705	DET ADV PRON
-1.350371	DET ADV PUNCT
-2.03873	DET ADV QUANT
-1.197932	DET ADV VERB
-2.174641	DIG ADV </s>
-1.39649	DIG ADV ADJ
-1.060698	DIG ADV ADV
-2.475671	DIG ADV AUX
-1.185637	DIG ADV CONJ
-1.434278	DIG ADV DET
-1.931603	DIG ADV DIG
-1.776701	DIG ADV NADJ
-1.475671	DIG ADV NOUN
-0.9074695	DIG ADV PREP
-0.9773606	DIG ADV PRON
-0.5048596	DIG ADV PUNCT
-1.630573	DIG ADV QUANT
-0.8846066	DIG ADV VERB
-1.211807	INTERJ ADV ADJ
-1.579784	INTERJ ADV ADV
-1.755875	INTERJ ADV DET
-1.755875	INTERJ ADV NADJ
-1.675557	INTERJ ADV NOUN
-1.211807	INTERJ ADV PREP
-0.7781513	INTERJ ADV PRON
-0.4336556	INTERJ ADV PUNCT
-1.579784	INTERJ ADV QUANT
-0.7144822	INTERJ ADV VERB
-1.505142	MEAS ADV ADJ
-1.585461	MEAS ADV ADV
-1.585461	MEAS ADV AUX
-1.585461	MEAS ADV DET
-0.3067071	MEAS ADV MEAS
-1.505142	MEAS ADV PRON
-0.8073095	MEAS ADV PUNCT
-1.585461	MEAS ADV QUANT
-1.041393	MEAS ADV VERB
-3.16888	NADJ ADV </s>
-1.018749	NADJ ADV ADJ
-1.264671	NADJ ADV ADV
-3.16888	NADJ ADV AUX
-1.234258	NADJ ADV CONJ
-1.443018	NADJ ADV DET
-2.70513	NADJ ADV DIG
-3.249198	NADJ ADV INTERJ
-1.474681	NADJ ADV NADJ
-1.647138	NADJ ADV NOUN
-3.340663	NADJ ADV NUM
-1.141988	NADJ ADV PREP
-1.159293	NADJ ADV PRON
-0.419573	NADJ ADV PUNCT
-1.663738	NADJ ADV QUANT
-0.8275945	NADJ ADV VERB
-2.881557	NOUN ADV </s>
-1.350078	NOUN ADV ADJ
-1.23422	NOUN ADV ADV
-2.368898	NOUN ADV AUX
-1.082056	NOUN ADV CONJ
-1.455084	NOUN ADV DET
-2.634212	NOUN ADV DIG
-3.213996	NOUN ADV INTERJ
-1.766063	NOUN ADV NADJ
-1.657693	NOUN ADV NOUN
-2.528254	NOUN ADV NUM
-3.669928	NOUN ADV PART
-0.9258582	NOUN ADV PREP
-1.038339	NOUN ADV PRON
-0.5280748	NOUN ADV PUNCT
-1.694168	NOUN ADV QUANT
-0.695745	NOUN ADV VERB
-0.8659816	NUM ADV ADJ
-1.249198	NUM ADV ADV
-1.784312	NUM ADV AUX
-1.398961	NUM ADV CONJ
-2.419844	NUM ADV DET
-1.453318	NUM ADV NADJ
-1.784312	NUM ADV NOUN
-1.016626	NUM ADV PREP
-1.073107	NUM ADV PRON
-0.6294096	NUM ADV PUNCT
-1.550228	NUM ADV QUANT
-0.6250882	NUM ADV VERB
-0.9041327	PART ADV ADJ
-1.143015	PART ADV ADV
-1.172978	PART ADV CONJ
-1.297917	PART ADV DET
-2.319106	PART ADV DIG
-1.277713	PART ADV NADJ
-1.665894	PART ADV NOUN
-1.188772	PART ADV PREP
-1.029071	PART ADV PRON
-0.701058	PART ADV PUNCT
-1.665894	PART ADV QUANT
-0.6516531	PART ADV VERB
-3.520872	PREP ADV </s>
-0.9281696	PREP ADV ADJ
-1.347126	PREP ADV ADV
-3.300161	PREP ADV AUX
-1.354446	PREP ADV CONJ
-1.012359	PREP ADV DET
-1.065896	PREP ADV DIG
-3.692655	PREP ADV MEAS
-1.475709	PREP ADV NADJ
-1.475709	PREP ADV NOUN
-1.671772	PREP ADV NUM
-3.520872	PREP ADV PART
-1.147872	PREP ADV PREP
-1.210255	PREP ADV PRON
-0.8592514	PREP ADV PUNCT
-1.069073	PREP ADV QUANT
-0.7889459	PREP ADV VERB
-3.031988	PRON ADV </s>
-1.502736	PRON ADV ADJ
-1.432769	PRON ADV ADV
-1.645527	PRON ADV AUX
-1.580802	PRON ADV CONJ
-1.867376	PRON ADV DET
-2.931318	PRON ADV DIG
-3.314534	PRON ADV INTERJ
-3.916594	PRON ADV MEAS
-1.666174	PRON ADV NADJ
-1.872577	PRON ADV NOUN
-2.931318	PRON ADV NUM
-2.740503	PRON ADV PART
-1.215602	PRON ADV PREP
-1.586181	PRON ADV PRON
-0.9048829	PRON ADV PUNCT
-1.895405	PRON ADV QUANT
-0.2186098	PRON ADV VERB
-2.957926	PUNCT ADV </s>
-0.9206659	PUNCT ADV ADJ
-1.043231	PUNCT ADV ADV
-2.342502	PUNCT ADV AUX
-1.491182	PUNCT ADV CONJ
-1.033863	PUNCT ADV DET
-2.182801	PUNCT ADV DIG
-3.736078	PUNCT ADV INTERJ
-3.956789	PUNCT ADV MEAS
-1.328262	PUNCT ADV NADJ
-1.499289	PUNCT ADV NOUN
-2.269952	PUNCT ADV NUM
-2.552808	PUNCT ADV PART
-1.064673	PUNCT ADV PREP
-1.096342	PUNCT ADV PRON
-0.7682957	PUNCT ADV PUNCT
-1.70771	PUNCT ADV QUANT
-0.6801262	PUNCT ADV VERB
-3.155184	QUANT ADV </s>
-0.6898013	QUANT ADV ADJ
-1.274371	QUANT ADV ADV
-2.854154	QUANT ADV AUX
-1.225765	QUANT ADV CONJ
-1.065279	QUANT ADV DET
-2.155184	QUANT ADV DIG
-1.277237	QUANT ADV NADJ
-1.604956	QUANT ADV NOUN
-3.074866	QUANT ADV NUM
-2.979093	QUANT ADV PART
-1.098279	QUANT ADV PREP
-1.464988	QUANT ADV PRON
-0.6373287	QUANT ADV PUNCT
-1.72382	QUANT ADV QUANT
-0.8423724	QUANT ADV VERB
-2.91815	VERB ADV </s>
-0.7034354	VERB ADV ADJ
-1.082064	VERB ADV ADV
-3.2636	VERB ADV AUX
-1.431877	VERB ADV CONJ
-1.188053	VERB ADV DET
-2.2216	VERB ADV DIG
-3.900422	VERB ADV INTERJ
-4.03512	VERB ADV MEAS
-1.184697	VERB ADV NADJ
-1.622126	VERB ADV NOUN
-2.2616	VERB ADV NUM
-4.231415	VERB ADV PART
-0.8712274	VERB ADV PREP
-1.431091	VERB ADV PRON
-0.9318143	VERB ADV PUNCT
-1.532321	VERB ADV QUANT
-0.706111	VERB ADV VERB
-0.5372809	<s> AUX ADV
-2.571709	<s> AUX DET
-2.964204	<s> AUX NADJ
-2.027641	<s> AUX NOUN
-2.872739	<s> AUX PREP
-1.116864	<s> AUX PRON
-2.872739	<s> AUX PUNCT
-0.2123477	<s> AUX VERB
-0.8776854	ADJ AUX ADV
-0.9190781	ADJ AUX PRON
-0.1409268	ADJ AUX VERB
-2.506505	ADV AUX ADJ
-1.004761	ADV AUX ADV
-2.506505	ADV AUX CONJ
-1.994622	ADV AUX DET
-2.506505	ADV AUX NADJ
-2.067172	ADV AUX NOUN
-2.631444	ADV AUX NUM
-2.727217	ADV AUX PREP
-0.9353787	ADV AUX PRON
-1.904445	ADV AUX PUNCT
-2.727217	ADV AUX QUANT
-0.1340533	ADV AUX VERB
-0.544068	AUX AUX ADV
-0.4637498	AUX AUX VERB
-0.5309027	CONJ AUX ADV
-2.015203	CONJ AUX NADJ
-2.918293	CONJ AUX NOUN
-3.009757	CONJ AUX PREP
-1.455894	CONJ AUX PRON
-2.140141	CONJ AUX PUNCT
-2.742201	CONJ AUX QUANT
-0.1903448	CONJ AUX VERB
-0.7596679	DET AUX PUNCT
-0.1312789	DET AUX VERB
-0.9294189	DIG AUX ADV
-1.531479	DIG AUX PUNCT
-0.07663406	DIG AUX VERB
-0.30103	INTERJ AUX NOUN
-0.60206	MEAS AUX MEAS
-0.5217417	MEAS AUX VERB
-0.7850559	NADJ AUX ADV
-2.200029	NADJ AUX NADJ
-2.200029	NADJ AUX PREP
-2.023938	NADJ AUX PRON
-1.546817	NADJ AUX PUNCT
-0.1101242	NADJ AUX VERB
-3.491222	NOUN AUX ADJ
-0.8428616	NOUN AUX ADV
-2.61616	NOUN AUX CONJ
-3.582686	NOUN AUX DET
-2.838009	NOUN AUX NADJ
-2.71307	NOUN AUX NOUN
-2.588132	NOUN AUX PREP
-2.190192	NOUN AUX PRON
-2.129494	NOUN AUX PUNCT
-2.71307	NOUN AUX QUANT
-0.08052868	NOUN AUX VERB
-0.8397473	NUM AUX ADV
-1.906694	NUM AUX PUNCT
-0.07631933	NUM AUX VERB
-0.6627578	PART AUX ADV
-0.1186898	PART AUX VERB
-0.60206	PREP AUX NOUN
-0.7781513	PREP AUX PUNCT
-0.4771213	PREP AUX VERB
-4.177811	PRON AUX </s>
-2.987479	PRON AUX ADJ
-0.63886	PRON AUX ADV
-4.269275	PRON AUX AUX
-2.845372	PRON AUX CONJ
-3.364897	PRON AUX DET
-3.876781	PRON AUX INTERJ
-4.177811	PRON AUX MEAS
-2.182175	PRON AUX NADJ
-2.421936	PRON AUX NOUN
-3.876781	PRON AUX NUM
-2.392481	PRON AUX PREP
-3.001719	PRON AUX PRON
-2.105929	PRON AUX PUNCT
-2.496569	PRON AUX QUANT
-0.1305552	PRON AUX VERB
-0.7711102	PUNCT AUX ADV
-2.526985	PUNCT AUX DET
-2.526985	PUNCT AUX DIG
-2.225955	PUNCT AUX NADJ
-2.350894	PUNCT AUX PREP
-0.982917	PUNCT AUX PRON
-1.786622	PUNCT AUX PUNCT
-0.1605621	PUNCT AUX VERB
-1.380211	QUANT AUX ADV
-1.80618	QUANT AUX DET
-1.80618	QUANT AUX NOUN
-1.438203	QUANT AUX NUM
-0.40824	QUANT AUX PRON
-0.3101734	QUANT AUX VERB
-0.997927	VERB AUX ADV
-1.365904	VERB AUX PRON
-2.019116	VERB AUX PUNCT
-0.07959704	VERB AUX VERB
-1.898408	<s> CONJ ADJ
-1.12781	<s> CONJ ADV
-2.707594	<s> CONJ AUX
-1.571931	<s> CONJ CONJ
-0.7319068	<s> CONJ DET
-2.801498	<s> CONJ DIG
-2.801498	<s> CONJ INTERJ
-4.054331	<s> CONJ MEAS
-2.043788	<s> CONJ NADJ
-1.347969	<s> CONJ NOUN
-2.591799	<s> CONJ NUM
-1.500468	<s> CONJ PREP
-0.3088343	<s> CONJ PRON
-1.413863	<s> CONJ PUNCT
-1.750679	<s> CONJ QUANT
-1.224086	<s> CONJ VERB
-0.642836	ADJ CONJ ADJ
-0.9016659	ADJ CONJ ADV
-2.298678	ADJ CONJ AUX
-2.114934	ADJ CONJ CONJ
-0.7548587	ADJ CONJ DET
-2.742376	ADJ CONJ DIG
-3.520527	ADJ CONJ INTERJ
-1.109656	ADJ CONJ NADJ
-1.168989	ADJ CONJ NOUN
-2.711342	ADJ CONJ NUM
-1.745605	ADJ CONJ PREP
-0.7893863	ADJ CONJ PRON
-2.384865	ADJ CONJ PUNCT
-1.640349	ADJ CONJ QUANT
-0.9934704	ADJ CONJ VERB
-1.559922	ADV CONJ ADJ
-0.9368007	ADV CONJ ADV
-1.839891	ADV CONJ AUX
-1.99223	ADV CONJ CONJ
-0.9962636	ADV CONJ DET
-2.789024	ADV CONJ DIG
-1.897516	ADV CONJ NADJ
-1.26706	ADV CONJ NOUN
-2.499576	ADV CONJ NUM
-1.561272	ADV CONJ PREP
-0.4236343	ADV CONJ PRON
-2.063456	ADV CONJ PUNCT
-1.731318	ADV CONJ QUANT
-0.6420801	ADV CONJ VERB
-1.210853	AUX CONJ ADV
-0.6667853	AUX CONJ AUX
-1.511883	AUX CONJ DET
-0.4906941	AUX CONJ PRON
-1.603348	AUX CONJ PUNCT
-0.6087934	AUX CONJ VERB
-1.698556	CONJ CONJ ADJ
-1.240218	CONJ CONJ ADV
-2.895837	CONJ CONJ AUX
-2.267448	CONJ CONJ CONJ
-0.9807009	CONJ CONJ DET
-2.594807	CONJ CONJ DIG
-2.267448	CONJ CONJ NADJ
-1.367563	CONJ CONJ NOUN
-2.497897	CONJ CONJ NUM
-2.020776	CONJ CONJ PREP
-0.1535045	CONJ CONJ PRON
-2.321805	CONJ CONJ PUNCT
-1.918113	CONJ CONJ QUANT
-1.548507	CONJ CONJ VERB
-0.4771213	DET CONJ DET
-0.869616	DET CONJ PRON
-1.813494	DIG CONJ ADJ
-1.013854	DIG CONJ ADV
-2.793874	DIG CONJ AUX
-2.029094	DIG CONJ CONJ
-1.175222	DIG CONJ DET
-0.6274471	DIG CONJ DIG
-2.133829	DIG CONJ NADJ
-1.078312	DIG CONJ NOUN
-2.061278	DIG CONJ NUM
-1.670072	DIG CONJ PREP
-0.6866711	DIG CONJ PRON
-2.330124	DIG CONJ PUNCT
-1.126004	DIG CONJ QUANT
-0.7790225	DIG CONJ VERB
-1.072551	INTERJ CONJ ADV
-1.732595	INTERJ CONJ CONJ
-0.5011595	INTERJ CONJ DET
-1.812913	INTERJ CONJ NADJ
-0.9378521	INTERJ CONJ NOUN
-1.636822	INTERJ CONJ PREP
-0.6368221	INTERJ CONJ PRON
-1.732595	INTERJ CONJ PUNCT
-1.812913	INTERJ CONJ QUANT
-0.9678153	INTERJ CONJ VERB
-1.403982	MEAS CONJ ADV
-0.8822398	MEAS CONJ DET
-1.308209	MEAS CONJ DIG
-1.403982	MEAS CONJ NOUN
-1.4843	MEAS CONJ PREP
-0.5812098	MEAS CONJ PRON
-0.5300573	MEAS CONJ VERB
-0.6737782	NADJ CONJ ADJ
-1.019341	NADJ CONJ ADV
-2.233777	NADJ CONJ AUX
-2.159395	NADJ CONJ CONJ
-0.807212	NADJ CONJ DET
-2.624617	NADJ CONJ DIG
-1.003609	NADJ CONJ NADJ
-0.9254118	NADJ CONJ NOUN
-2.511577	NADJ CONJ NUM
-1.82733	NADJ CONJ PREP
-0.8063193	NADJ CONJ PRON
-2.1436	NADJ CONJ PUNCT
-1.925647	NADJ CONJ QUANT
-0.9577951	NADJ CONJ VERB
-4.621856	NOUN CONJ </s>
-1.211163	NOUN CONJ ADJ
-1.22496	NOUN CONJ ADV
-2.15573	NOUN CONJ AUX
-2.102028	NOUN CONJ CONJ
-0.8888196	NOUN CONJ DET
-2.276483	NOUN CONJ DIG
-3.600667	NOUN CONJ INTERJ
-3.667614	NOUN CONJ MEAS
-1.324534	NOUN CONJ NADJ
-0.5953026	NOUN CONJ NOUN
-2.204385	NOUN CONJ NUM
-1.754389	NOUN CONJ PREP
-0.6171481	NOUN CONJ PRON
-2.227405	NOUN CONJ PUNCT
-1.683837	NOUN CONJ QUANT
-0.866973	NOUN CONJ VERB
-1.591065	NUM CONJ ADJ
-1.113943	NUM CONJ ADV
-2.557591	NUM CONJ AUX
-1.922058	NUM CONJ CONJ
-1.011281	NUM CONJ DET
-2.385808	NUM CONJ DIG
-1.304758	NUM CONJ NADJ
-1.563036	NUM CONJ NOUN
-0.6498846	NUM CONJ NUM
-1.235677	NUM CONJ PREP
-0.6952739	NUM CONJ PRON
-2.165096	NUM CONJ PUNCT
-1.133687	NUM CONJ QUANT
-0.8920946	NUM CONJ VERB
-1.369861	PART CONJ ADJ
-1.226439	PART CONJ ADV
-2.430559	PART CONJ AUX
-2.430559	PART CONJ CONJ
-1.068831	PART CONJ DET
-1.585461	PART CONJ DIG
-1.617645	PART CONJ NADJ
-0.561327	PART CONJ NOUN
-2.35024	PART CONJ PREP
-0.5642715	PART CONJ PRON
-2.522023	PART CONJ PUNCT
-1.690196	PART CONJ QUANT
-0.7821988	PART CONJ VERB
-1.552813	PREP CONJ ADJ
-0.8582817	PREP CONJ ADV
-2.209721	PREP CONJ AUX
-2.001445	PREP CONJ CONJ
-0.9188308	PREP CONJ DET
-3.022635	PREP CONJ DIG
-1.818515	PREP CONJ NADJ
-0.9327294	PREP CONJ NOUN
-2.721605	PREP CONJ NUM
-1.159312	PREP CONJ PREP
-0.6388192	PREP CONJ PRON
-1.943453	PREP CONJ PUNCT
-1.832303	PREP CONJ QUANT
-0.6264352	PREP CONJ VERB
-1.499254	PRON CONJ ADJ
-1.149059	PRON CONJ ADV
-1.915419	PRON CONJ AUX
-1.973411	PRON CONJ CONJ
-0.9611762	PRON CONJ DET
-2.248633	PRON CONJ DIG
-1.885455	PRON CONJ NADJ
-1.311424	PRON CONJ NOUN
-2.083823	PRON CONJ NUM
-1.818509	PRON CONJ PREP
-0.3227662	PRON CONJ PRON
-1.947603	PRON CONJ PUNCT
-1.663607	PRON CONJ QUANT
-0.7816517	PRON CONJ VERB
-1.316154	PUNCT CONJ ADJ
-0.9280723	PUNCT CONJ ADV
-2.155817	PUNCT CONJ AUX
-1.697029	PUNCT CONJ CONJ
-0.6711975	PUNCT CONJ DET
-2.552612	PUNCT CONJ DIG
-2.825971	PUNCT CONJ INTERJ
-3.734456	PUNCT CONJ MEAS
-1.618845	PUNCT CONJ NADJ
-1.090214	PUNCT CONJ NOUN
-2.343521	PUNCT CONJ NUM
-1.4498	PUNCT CONJ PREP
-0.509638	PUNCT CONJ PRON
-1.97706	PUNCT CONJ PUNCT
-1.607027	PUNCT CONJ QUANT
-1.004158	PUNCT CONJ VERB
-1.044319	QUANT CONJ ADJ
-1.213291	QUANT CONJ ADV
-2.428135	QUANT CONJ AUX
-2.197686	QUANT CONJ CONJ
-0.9122609	QUANT CONJ DET
-0.8069585	QUANT CONJ DIG
-3.127105	QUANT CONJ INTERJ
-1.411101	QUANT CONJ NADJ
-1.37123	QUANT CONJ NOUN
-1.352588	QUANT CONJ NUM
-2.013161	QUANT CONJ PREP
-0.6941355	QUANT CONJ PRON
-2.386742	QUANT CONJ PUNCT
-1.038969	QUANT CONJ QUANT
-0.9005049	QUANT CONJ VERB
-1.218707	VERB CONJ ADJ
-1.067608	VERB CONJ ADV
-2.217119	VERB CONJ AUX
-1.85691	VERB CONJ CONJ
-0.787284	VERB CONJ DET
-2.613477	VERB CONJ DIG
-3.972491	VERB CONJ INTERJ
-1.623865	VERB CONJ NADJ
-1.11404	VERB CONJ NOUN
-2.440026	VERB CONJ NUM
-1.631205	VERB CONJ PREP
-0.4532537	VERB CONJ PRON
-2.048488	VERB CONJ PUNCT
-1.698701	VERB CONJ QUANT
-0.7977782	VERB CONJ VERB
-1.035777	<s> DET ADJ
-1.918761	<s> DET ADV
-4.215974	<s> DET AUX
-3.863792	<s> DET DET
-2.398079	<s> DET DIG
-4.436686	<s> DET INTERJ
-4.215974	<s> DET MEAS
-1.094251	<s> DET NADJ
-0.102148	<s> DET NOUN
-2.039883	<s> DET NUM
-3.420094	<s> DET PREP
-3.047182	<s> DET PRON
-2.909549	<s> DET PUNCT
-2.249833	<s> DET QUANT
-2.475612	<s> DET VERB
-0.7709301	ADJ DET ADJ
-1.620656	ADJ DET ADV
-2.620656	ADJ DET DET
-2.841368	ADJ DET DIG
-0.9602654	ADJ DET NADJ
-0.1844938	ADJ DET NOUN
-1.992268	ADJ DET NUM
-2.921686	ADJ DET PREP
-3.013151	ADJ DET PRON
-3.013151	ADJ DET PUNCT
-2.046625	ADJ DET QUANT
-2.018596	ADJ DET VERB
-0.662889	ADV DET ADJ
-1.88878	ADV DET ADV
-3.650332	ADV DET AUX
-3.076301	ADV DET DET
-2.079206	ADV DET DIG
-3.650332	ADV DET INTERJ
-3.407294	ADV DET MEAS
-0.9161323	ADV DET NADJ
-0.2348576	ADV DET NOUN
-1.940638	ADV DET NUM
-3.252392	ADV DET PREP
-2.672608	ADV DET PRON
-2.599179	ADV DET PUNCT
-1.630178	ADV DET QUANT
-1.796026	ADV DET VERB
-0.7983546	AUX DET ADJ
-1.166331	AUX DET NADJ
-0.1810547	AUX DET NOUN
-1.041393	AUX DET VERB
-0.9355746	CONJ DET ADJ
-1.915456	CONJ DET ADV
-3.279873	CONJ DET DET
-2.25574	CONJ DET DIG
-4.392527	CONJ DET INTERJ
-4.392527	CONJ DET MEAS
-1.005386	CONJ DET NADJ
-0.1330958	CONJ DET NOUN
-2.130801	CONJ DET NUM
-3.170729	CONJ DET PREP
-2.498289	CONJ DET PRON
-2.95864	CONJ DET PUNCT
-2.074463	CONJ DET QUANT
-2.0077	CONJ DET VERB
-0.8573325	DET DET ADJ
-2.033424	DET DET ADV
-0.7216699	DET DET NADJ
-0.2480939	DET DET NOUN
-1.953105	DET DET NUM
-1.431364	DET DET PUNCT
-2.033424	DET DET QUANT
-2.124888	DET DET VERB
-1.382335	DIG DET ADJ
-1.709694	DIG DET NADJ
-0.03300026	DIG DET NOUN
-2.311754	DIG DET VERB
-1.439333	INTERJ DET ADJ
-1	INTERJ DET NADJ
-0.1119738	INTERJ DET NOUN
-1.740363	INTERJ DET PRON
-1.439333	INTERJ DET PUNCT
-1.740363	INTERJ DET VERB
-1.066947	MEAS DET ADJ
-1.243038	MEAS DET NADJ
-0.09691001	MEAS DET NOUN
-0.975138	NADJ DET ADJ
-2.144747	NADJ DET ADV
-2.79796	NADJ DET DET
-1.843717	NADJ DET DIG
-0.90309	NADJ DET NADJ
-0.1639865	NADJ DET NOUN
-1.985046	NADJ DET NUM
-2.889424	NADJ DET PRON
-2.49693	NADJ DET PUNCT
-1.868541	NADJ DET QUANT
-1.580476	NADJ DET VERB
-0.8846066	NOUN DET ADJ
-2.01258	NOUN DET ADV
-3.625364	NOUN DET AUX
-2.847213	NOUN DET DET
-1.812451	NOUN DET DIG
-3.449273	NOUN DET INTERJ
-2.780266	NOUN DET MEAS
-1.002632	NOUN DET NADJ
-0.1740381	NOUN DET NOUN
-1.809123	NOUN DET NUM
-3.545046	NOUN DET PREP
-2.564666	NOUN DET PRON
-2.64764	NOUN DET PUNCT
-1.799289	NOUN DET QUANT
-1.461011	NOUN DET VERB
-0.69897	NUM DET ADJ
-1.574031	NUM DET DET
-0.9719713	NUM DET NADJ
-0.2316086	NUM DET NOUN
-1.574031	NUM DET QUANT
-1.574031	NUM DET VERB
-0.6585413	PART DET ADJ
-1.788875	PART DET ADV
-1.788875	PART DET DIG
-0.7474824	PART DET NADJ
-0.3575113	PART DET NOUN
-1.788875	PART DET NUM
-1.788875	PART DET QUANT
-1.048512	PART DET VERB
-4.77326	PREP DET </s>
-0.77339	PREP DET ADJ
-1.793939	PREP DET ADV
-4.692942	PREP DET CONJ
-3.350014	PREP DET DET
-2.017004	PREP DET DIG
-4.1712	PREP DET INTERJ
-3.451041	PREP DET MEAS
-0.8947379	PREP DET NADJ
-0.1919815	PREP DET NOUN
-1.906677	PREP DET NUM
-2.733845	PREP DET PREP
-2.714454	PREP DET PRON
-2.779824	PREP DET PUNCT
-1.947185	PREP DET QUANT
-2.250815	PREP DET VERB
-0.5921857	PRON DET ADJ
-1.785012	PRON DET ADV
-3.357109	PRON DET DET
-1.995381	PRON DET DIG
-2.555476	PRON DET INTERJ
-3.357109	PRON DET MEAS
-0.7061539	PRON DET NADJ
-0.3254309	PRON DET NOUN
-2.001721	PRON DET NUM
-3.624665	PRON DET PREP
-3.624665	PRON DET PRON
-2.5332	PRON DET PUNCT
-1.838595	PRON DET QUANT
-1.813041	PRON DET VERB
-0.9200429	PUNCT DET ADJ
-1.909087	PUNCT DET ADV
-4.062901	PUNCT DET AUX
-3.249988	PUNCT DET DET
-2.310853	PUNCT DET DIG
-4.062901	PUNCT DET MEAS
-1.014654	PUNCT DET NADJ
-0.141007	PUNCT DET NOUN
-2.10148	PUNCT DET NUM
-3.28475	PUNCT DET PREP
-2.656361	PUNCT DET PRON
-1.856076	PUNCT DET PUNCT
-1.98372	PUNCT DET QUANT
-2.133482	PUNCT DET VERB
-0.8032443	QUANT DET ADJ
-2.164972	QUANT DET ADV
-3.244153	QUANT DET CONJ
-3.244153	QUANT DET DET
-2.164972	QUANT DET DIG
-3.068062	QUANT DET MEAS
-0.935589	QUANT DET NADJ
-0.1739307	QUANT DET NOUN
-2.503791	QUANT DET NUM
-2.590941	QUANT DET PREP
-2.314734	QUANT DET PRON
-2.314734	QUANT DET PUNCT
-1.796995	QUANT DET QUANT
-2.02667	QUANT DET VERB
-4.705526	VERB DET </s>
-0.6656757	VERB DET ADJ
-1.632725	VERB DET ADV
-4.052313	VERB DET AUX
-4.705526	VERB DET CONJ
-3.103466	VERB DET DET
-1.935411	VERB DET DIG
-3.751283	VERB DET INTERJ
-3.529435	VERB DET MEAS
-0.8225462	VERB DET NADJ
-0.2734469	VERB DET NOUN
-2.061087	VERB DET NUM
-3.057166	VERB DET PREP
-2.684337	VERB DET PRON
-2.842203	VERB DET PUNCT
-1.533799	VERB DET QUANT
-1.653988	VERB DET VERB
-2.504471	<s> DIG </s>
-1.644133	<s> DIG ADJ
-1.960403	<s> DIG ADV
-2.152288	<s> DIG AUX
-1.827777	<s> DIG CONJ
-2.203441	<s> DIG DET
-2.261433	<s> DIG DIG
-1.992587	<s> DIG MEAS
-1.550228	<s> DIG NADJ
-0.5012258	<s> DIG NOUN
-2.805501	<s> DIG NUM
-2.504471	<s> DIG PART
-0.728133	<s> DIG PREP
-2.152288	<s> DIG PRON
-0.5077403	<s> DIG PUNCT
-2.203441	<s> DIG QUANT
-1.225717	<s> DIG VERB
-2.624282	ADJ DIG </s>
-1.67004	ADJ DIG ADJ
-1.97107	ADJ DIG ADV
-1.334247	ADJ DIG CONJ
-2.022222	ADJ DIG DET
-2.543964	ADJ DIG DIG
-2.624282	ADJ DIG INTERJ
-2.448191	ADJ DIG MEAS
-1.646559	ADJ DIG NADJ
-0.3489707	ADJ DIG NOUN
-1.2721	ADJ DIG PART
-1.161884	ADJ DIG PREP
-1.811369	ADJ DIG PRON
-0.5908583	ADJ DIG PUNCT
-2.022222	ADJ DIG QUANT
-1.646559	ADJ DIG VERB
-3.012837	ADV DIG </s>
-1.651109	ADV DIG ADJ
-1.808717	ADV DIG ADV
-3.104302	ADV DIG AUX
-1.481358	ADV DIG CONJ
-2.012837	ADV DIG DET
-3.104302	ADV DIG DIG
-3.012837	ADV DIG INTERJ
-2.313867	ADV DIG MEAS
-1.757565	ADV DIG NADJ
-0.2453103	ADV DIG NOUN
-2.035114	ADV DIG PART
-1.026065	ADV DIG PREP
-2.313867	ADV DIG PRON
-0.7228026	ADV DIG PUNCT
-1.952139	ADV DIG QUANT
-1.933656	ADV DIG VERB
-0.30103	AUX DIG PUNCT
-1.528006	CONJ DIG ADJ
-1.811307	CONJ DIG ADV
-2.732126	CONJ DIG AUX
-1.641045	CONJ DIG CONJ
-2.130066	CONJ DIG DET
-2.607187	CONJ DIG DIG
-2.209247	CONJ DIG MEAS
-1.409906	CONJ DIG NADJ
-0.3039908	CONJ DIG NOUN
-2.005127	CONJ DIG PART
-0.9686976	CONJ DIG PREP
-2.063119	CONJ DIG PRON
-0.6739528	CONJ DIG PUNCT
-2.167854	CONJ DIG QUANT
-1.493243	CONJ DIG VERB
-3.043624	DET DIG </s>
-1.566503	DET DIG ADJ
-2.089382	DET DIG ADV
-2.918685	DET DIG AUX
-1.681896	DET DIG CONJ
-2.520746	DET DIG DET
-2.089382	DET DIG DIG
-3.219715	DET DIG INTERJ
-1.964443	DET DIG MEAS
-1.303262	DET DIG NADJ
-0.2284894	DET DIG NOUN
-2.406802	DET DIG NUM
-1.707832	DET DIG PART
-1.219715	DET DIG PREP
-1.907962	DET DIG PRON
-0.7795939	DET DIG PUNCT
-2.617656	DET DIG QUANT
-1.867533	DET DIG VERB
-1.934498	DIG DIG ADJ
-2.025963	DIG DIG CONJ
-1.85418	DIG DIG DIG
-1.758407	DIG DIG MEAS
-0.7883704	DIG DIG NOUN
-1.934498	DIG DIG PART
-1.39043	DIG DIG PREP
-1.934498	DIG DIG PRON
-0.1902055	DIG DIG PUNCT
-1.758407	DIG DIG VERB
-0.7403627	INTERJ DIG INTERJ
-0.7403627	INTERJ DIG NOUN
-0.8318275	INTERJ DIG PUNCT
-1.153815	MEAS DIG CONJ
-1.454845	MEAS DIG MEAS
-1.454845	MEAS DIG NADJ
-0.7144822	MEAS DIG NOUN
-0.7558749	MEAS DIG PREP
-0.4336556	MEAS DIG PUNCT
-1.454845	MEAS DIG QUANT
-1.278754	MEAS DIG VERB
-1.594235	NADJ DIG ADJ
-1.802511	NADJ DIG ADV
-2.615424	NADJ DIG AUX
-1.554726	NADJ DIG CONJ
-2.615424	NADJ DIG DIG
-2.314394	NADJ DIG MEAS
-1.469296	NADJ DIG NADJ
-0.2415928	NADJ DIG NOUN
-1.770326	NADJ DIG PART
-1.208884	NADJ DIG PREP
-1.962211	NADJ DIG PRON
-0.6963459	NADJ DIG PUNCT
-2.439333	NADJ DIG QUANT
-1.770326	NADJ DIG VERB
-2.379759	NOUN DIG </s>
-1.884909	NOUN DIG ADJ
-1.703065	NOUN DIG ADV
-2.9015	NOUN DIG AUX
-1.343329	NOUN DIG CONJ
-2.282849	NOUN DIG DET
-2.0524	NOUN DIG DIG
-2.981819	NOUN DIG INTERJ
-2.328606	NOUN DIG MEAS
-1.680789	NOUN DIG NADJ
-0.4619906	NOUN DIG NOUN
-1.902637	NOUN DIG PART
-1.068005	NOUN DIG PREP
-1.867875	NOUN DIG PRON
-0.4652832	NOUN DIG PUNCT
-2.136721	NOUN DIG QUANT
-1.172259	NOUN DIG VERB
-1.278754	NUM DIG DET
-0.30103	NUM DIG NOUN
-0.6766936	NUM DIG PUNCT
-0.9777236	NUM DIG VERB
-1.685742	PART DIG ADJ
-1.605423	PART DIG CONJ
-1.384712	PART DIG NADJ
-0.1672278	PART DIG NOUN
-1.685742	PART DIG PART
-1.685742	PART DIG PREP
-0.9075905	PART DIG PUNCT
-3.169212	PREP DIG </s>
-1.648823	PREP DIG ADJ
-1.626921	PREP DIG ADV
-2.652583	PREP DIG AUX
-1.125569	PREP DIG CONJ
-1.880772	PREP DIG DET
-2.290035	PREP DIG DIG
-3.060068	PREP DIG INTERJ
-2.446109	PREP DIG MEAS
-1.900367	PREP DIG NADJ
-0.4243609	PREP DIG NOUN
-2.81019	PREP DIG NUM
-2.652583	PREP DIG PART
-1.01431	PREP DIG PREP
-1.645095	PREP DIG PRON
-0.5169661	PREP DIG PUNCT
-2.116683	PREP DIG QUANT
-1.531437	PREP DIG VERB
-1.518968	PRON DIG ADJ
-1.659146	PRON DIG ADV
-2.680336	PRON DIG AUX
-1.619638	PRON DIG CONJ
-2.379306	PRON DIG DET
-2.600017	PRON DIG DIG
-2.7718	PRON DIG MEAS
-1.490004	PRON DIG NADJ
-0.2003286	PRON DIG NOUN
-1.702612	PRON DIG PART
-1.182025	PRON DIG PREP
-2.379306	PRON DIG PRON
-0.8950057	PRON DIG PUNCT
-2.078275	PRON DIG QUANT
-1.835238	PRON DIG VERB
-2.439135	PUNCT DIG </s>
-1.713836	PUNCT DIG ADJ
-1.762442	PUNCT DIG ADV
-2.740165	PUNCT DIG AUX
-1.542885	PUNCT DIG CONJ
-1.503376	PUNCT DIG DET
-2.364502	PUNCT DIG DIG
-2.798157	PUNCT DIG INTERJ
-2.228282	PUNCT DIG MEAS
-1.660984	PUNCT DIG NADJ
-0.4689046	PUNCT DIG NOUN
-2.798157	PUNCT DIG NUM
-2.281527	PUNCT DIG PART
-0.9222695	PUNCT DIG PREP
-1.296902	PUNCT DIG PRON
-0.5084409	PUNCT DIG PUNCT
-1.980497	PUNCT DIG QUANT
-1.571373	PUNCT DIG VERB
-1.507538	QUANT DIG ADJ
-1.892889	QUANT DIG ADV
-1.459234	QUANT DIG CONJ
-2.135927	QUANT DIG DET
-2.260866	QUANT DIG DIG
-1.561896	QUANT DIG NADJ
-0.2001682	QUANT DIG NOUN
-2.528422	QUANT DIG PART
-1.021984	QUANT DIG PREP
-2.260866	QUANT DIG PRON
-0.9386468	QUANT DIG PUNCT
-1.696595	QUANT DIG VERB
-3.04405	VERB DIG </s>
-1.423393	VERB DIG ADJ
-1.691867	VERB DIG ADV
-3.168988	VERB DIG AUX
-1.353853	VERB DIG CONJ
-1.905747	VERB DIG DET
-2.390837	VERB DIG DIG
-2.303687	VERB DIG MEAS
-1.633272	VERB DIG NADJ
-0.3205939	VERB DIG NOUN
-3.436544	VERB DIG NUM
-2.415661	VERB DIG PART
-0.8372236	VERB DIG PREP
-2.345079	VERB DIG PRON
-0.7182261	VERB DIG PUNCT
-1.80726	VERB DIG QUANT
-1.94714	VERB DIG VERB
-1.023333	<s> INTERJ </s>
-2.608793	<s> INTERJ ADJ
-1.432702	<s> INTERJ ADV
-2.909823	<s> INTERJ AUX
-1.307763	<s> INTERJ CONJ
-1.557641	<s> INTERJ DET
-1.372004	<s> INTERJ INTERJ
-2.131672	<s> INTERJ NADJ
-1.654551	<s> INTERJ NOUN
-3.001288	<s> INTERJ PREP
-1.219627	<s> INTERJ PRON
-0.2073928	<s> INTERJ PUNCT
-2.829505	<s> INTERJ QUANT
-1.557641	<s> INTERJ VERB
-0.8091855	ADJ INTERJ </s>
-1.286307	ADJ INTERJ ADV
-1.161368	ADJ INTERJ CONJ
-1.38208	ADJ INTERJ DET
-0.5873367	ADJ INTERJ NOUN
-0.91833	ADJ INTERJ PRON
-0.763428	ADJ INTERJ PUNCT
-1.462398	ADJ INTERJ QUANT
-0.4607309	ADV INTERJ </s>
-1.414973	ADV INTERJ ADJ
-0.9378521	ADV INTERJ ADV
-1.682529	ADV INTERJ DET
-1.290035	ADV INTERJ NOUN
-1.591065	ADV INTERJ PREP
-1.682529	ADV INTERJ PRON
-0.7781513	ADV INTERJ PUNCT
-1.510746	ADV INTERJ VERB
-0.30103	AUX INTERJ ADV
-1.696065	CONJ INTERJ ADV
-1.696065	CONJ INTERJ CONJ
-1.571126	CONJ INTERJ DET
-1.270096	CONJ INTERJ INTERJ
-1.218944	CONJ INTERJ NOUN
-1.872156	CONJ INTERJ PREP
-0.8944327	CONJ INTERJ PRON
-0.2386878	CONJ INTERJ PUNCT
-1.059243	CONJ INTERJ VERB
-1.511883	DET INTERJ ADV
-1.335792	DET INTERJ INTERJ
-1.335792	DET INTERJ NADJ
-0.6667853	DET INTERJ NOUN
-0.8129134	DET INTERJ PREP
-1.335792	DET INTERJ PRON
-0.4511855	DET INTERJ PUNCT
-1.431565	DET INTERJ VERB
-1	DIG INTERJ </s>
-1.176091	DIG INTERJ ADV
-1.176091	DIG INTERJ DET
-1	DIG INTERJ NOUN
-1.095773	DIG INTERJ PREP
-0.4771213	DIG INTERJ PUNCT
-1.872156	INTERJ INTERJ </s>
-1.696065	INTERJ INTERJ ADV
-1.328088	INTERJ INTERJ CONJ
-1.696065	INTERJ INTERJ DET
-0.549937	INTERJ INTERJ INTERJ
-1.963621	INTERJ INTERJ NOUN
-1.791838	INTERJ INTERJ PRON
-0.2866955	INTERJ INTERJ PUNCT
-1.571126	INTERJ INTERJ VERB
-0.39794	MEAS INTERJ DET
-0.7201593	NADJ INTERJ </s>
-1.498311	NADJ INTERJ ADJ
-1.498311	NADJ INTERJ ADV
-1.322219	NADJ INTERJ DET
-1.498311	NADJ INTERJ DIG
-1.498311	NADJ INTERJ INTERJ
-0.7579479	NADJ INTERJ NOUN
-1.498311	NADJ INTERJ PREP
-1.589775	NADJ INTERJ PRON
-0.6232493	NADJ INTERJ PUNCT
-1.498311	NADJ INTERJ QUANT
-0.6368221	NOUN INTERJ </s>
-1.611268	NOUN INTERJ ADJ
-1.414973	NOUN INTERJ ADV
-2.155336	NOUN INTERJ AUX
-1.177612	NOUN INTERJ CONJ
-1.041393	NOUN INTERJ DET
-2.075018	NOUN INTERJ DIG
-1.854306	NOUN INTERJ INTERJ
-2.155336	NOUN INTERJ MEAS
-2.075018	NOUN INTERJ NADJ
-1.025002	NOUN INTERJ NOUN
-1.310238	NOUN INTERJ PREP
-0.9650043	NOUN INTERJ PRON
-0.8031535	NOUN INTERJ PUNCT
-2.075018	NOUN INTERJ QUANT
-1.280275	NOUN INTERJ VERB
-0.4771213	NUM INTERJ </s>
-0.3521825	NUM INTERJ PREP
-0.4771213	PART INTERJ ADJ
-0.4771213	PART INTERJ PUNCT
-1.454845	PREP INTERJ ADV
-0.6097468	PREP INTERJ NOUN
-1.278754	PREP INTERJ PREP
-0.3245111	PREP INTERJ PUNCT
-0.9107768	PREP INTERJ VERB
-0.7501225	PRON INTERJ </s>
-1.352183	PRON INTERJ DET
-1.352183	PRON INTERJ INTERJ
-1.352183	PRON INTERJ MEAS
-1.271864	PRON INTERJ NADJ
-1.176091	PRON INTERJ NOUN
-0.4227636	PRON INTERJ PUNCT
-1.176091	PRON INTERJ VERB
-2.186853	PUNCT INTERJ </s>
-1.966142	PUNCT INTERJ ADJ
-2.186853	PUNCT INTERJ ADV
-2.186853	PUNCT INTERJ CONJ
-1.613959	PUNCT INTERJ DET
-1.39211	PUNCT INTERJ INTERJ
-1.966142	PUNCT INTERJ MEAS
-1.723104	PUNCT INTERJ NADJ
-0.9449524	PUNCT INTERJ NOUN
-1.225779	PUNCT INTERJ PRON
-0.2064739	PUNCT INTERJ PUNCT
-1.245982	PUNCT INTERJ VERB
-0.60206	QUANT INTERJ </s>
-0.60206	QUANT INTERJ NADJ
-0.9682082	VERB INTERJ </s>
-1.817309	VERB INTERJ ADJ
-1.295567	VERB INTERJ ADV
-1.244415	VERB INTERJ CONJ
-1.721536	VERB INTERJ DET
-1.897627	VERB INTERJ DIG
-1.897627	VERB INTERJ NADJ
-0.9199035	VERB INTERJ NOUN
-1.897627	VERB INTERJ PART
-1.084714	VERB INTERJ PREP
-1.353559	VERB INTERJ PRON
-0.3725823	VERB INTERJ PUNCT
-1.897627	VERB INTERJ VERB
-1.386202	<s> MEAS </s>
-1.562293	<s> MEAS ADJ
-1.653758	<s> MEAS ADV
-0.9602329	<s> MEAS DET
-1.261263	<s> MEAS DIG
-1.562293	<s> MEAS MEAS
-1.562293	<s> MEAS NADJ
-0.5209002	<s> MEAS NOUN
-1.261263	<s> MEAS PREP
-1.562293	<s> MEAS PRON
-1.386202	<s> MEAS PUNCT
-0.7171948	<s> MEAS VERB
-1.431364	ADJ MEAS ADJ
-1.130334	ADJ MEAS ADV
-1.255273	ADJ MEAS CONJ
-1.431364	ADJ MEAS DIG
-1.130334	ADJ MEAS NADJ
-0.6532125	ADJ MEAS NOUN
-0.6910011	ADJ MEAS PREP
-0.5862657	ADJ MEAS PUNCT
-0.8219302	ADV MEAS ADJ
-1.261263	ADV MEAS ADV
-1.562293	ADV MEAS DET
-1.386202	ADV MEAS DIG
-1.018225	ADV MEAS NADJ
-0.7493795	ADV MEAS NOUN
-0.7841416	ADV MEAS PREP
-1.386202	ADV MEAS PRON
-1.386202	ADV MEAS PUNCT
-1.562293	ADV MEAS QUANT
-0.8633229	ADV MEAS VERB
-0.2218488	AUX MEAS VERB
-1.267172	CONJ MEAS ADV
-1.09108	CONJ MEAS DIG
-1.09108	CONJ MEAS NADJ
-0.7231037	CONJ MEAS NOUN
-1.267172	CONJ MEAS NUM
-1.186853	CONJ MEAS PRON
-1.186853	CONJ MEAS PUNCT
-1.358636	CONJ MEAS VERB
-1.843513	DET MEAS ADJ
-1.098836	DET MEAS ADV
-1.098836	DET MEAS CONJ
-1.098836	DET MEAS DIG
-1.843513	DET MEAS NADJ
-0.7106557	DET MEAS NOUN
-1.053078	DET MEAS PREP
-1.67173	DET MEAS PRON
-0.5906804	DET MEAS PUNCT
-1.843513	DET MEAS VERB
-1.660391	DIG MEAS ADJ
-2.052886	DIG MEAS ADV
-1.262451	DIG MEAS CONJ
-1.262451	DIG MEAS DET
-1.961421	DIG MEAS MEAS
-1.221058	DIG MEAS NADJ
-0.5381752	DIG MEAS NOUN
-0.6942494	DIG MEAS PREP
-1.417353	DIG MEAS PRON
-0.7183831	DIG MEAS PUNCT
-1.78533	DIG MEAS QUANT
-1.961421	DIG MEAS VERB
-0.7781513	INTERJ MEAS NOUN
-0.697833	INTERJ MEAS PUNCT
-0.7781513	INTERJ MEAS VERB
-0.243038	MEAS MEAS NOUN
-0.544068	MEAS MEAS PUNCT
-1.332438	NADJ MEAS ADJ
-1.332438	NADJ MEAS CONJ
-1.332438	NADJ MEAS DET
-1.332438	NADJ MEAS DIG
-1.332438	NADJ MEAS NADJ
-0.5195251	NADJ MEAS NOUN
-1.156347	NADJ MEAS PREP
-1.156347	NADJ MEAS PRON
-0.5542872	NADJ MEAS PUNCT
-1.799035	NOUN MEAS </s>
-1.40654	NOUN MEAS ADJ
-1.40654	NOUN MEAS ADV
-1.10551	NOUN MEAS CONJ
-1.531479	NOUN MEAS DET
-1.0086	NOUN MEAS DIG
-1.531479	NOUN MEAS INTERJ
-1.531479	NOUN MEAS NADJ
-0.6468723	NOUN MEAS NOUN
-1.0086	NOUN MEAS PREP
-1.40654	NOUN MEAS PRON
-0.7533277	NOUN MEAS PUNCT
-1.40654	NOUN MEAS VERB
-0.3521825	NUM MEAS NOUN
-0.6532125	NUM MEAS PUNCT
-1.653213	PREP MEAS ADJ
-1.653213	PREP MEAS ADV
-1.744677	PREP MEAS CONJ
-1.653213	PREP MEAS DET
-0.9128498	PREP MEAS DIG
-1.653213	PREP MEAS MEAS
-1.477121	PREP MEAS NADJ
-0.7237936	PREP MEAS NOUN
-0.9542425	PREP MEAS PREP
-1	PREP MEAS PRON
-0.69897	PREP MEAS PUNCT
-1.744677	PREP MEAS VERB
-1.525045	PRON MEAS </s>
-1.224015	PRON MEAS ADJ
-0.7121314	PRON MEAS ADV
-1.348954	PRON MEAS AUX
-1.61651	PRON MEAS CONJ
-1.348954	PRON MEAS NADJ
-1.61651	PRON MEAS NOUN
-1.525045	PRON MEAS PREP
-1.348954	PRON MEAS PRON
-0.6799468	PRON MEAS PUNCT
-0.8260748	PRON MEAS VERB
-1.511883	PUNCT MEAS ADV
-1.335792	PUNCT MEAS CONJ
-1.431565	PUNCT MEAS DIG
-1.511883	PUNCT MEAS NADJ
-0.4704907	PUNCT MEAS NOUN
-1.603348	PUNCT MEAS PREP
-1.335792	PUNCT MEAS PRON
-0.5118834	PUNCT MEAS PUNCT
-1.010724	QUANT MEAS ADJ
-0.7676858	QUANT MEAS CONJ
-1.403219	QUANT MEAS NOUN
-1.403219	QUANT MEAS PREP
-0.4666558	QUANT MEAS PUNCT
-1.752048	VERB MEAS </s>
-1.011686	VERB MEAS ADJ
-0.7308592	VERB MEAS ADV
-1.67173	VERB MEAS CONJ
-1.67173	VERB MEAS DET
-1.20798	VERB MEAS DIG
-1.843513	VERB MEAS NADJ
-1.098836	VERB MEAS NOUN
-1.752048	VERB MEAS PART
-0.8769872	VERB MEAS PREP
-1.20798	VERB MEAS PRON
-0.9391351	VERB MEAS PUNCT
-1.451018	VERB MEAS QUANT
-1.575957	VERB MEAS VERB
-2.601698	<s> NADJ </s>
-1.417412	<s> NADJ ADJ
-2.207914	<s> NADJ ADV
-3.542569	<s> NADJ AUX
-1.589463	<s> NADJ CONJ
-2.622887	<s> NADJ DET
-2.719797	<s> NADJ DIG
-1.298605	<s> NADJ NADJ
-0.1602647	<s> NADJ NOUN
-2.844736	<s> NADJ NUM
-1.161239	<s> NADJ PREP
-2.461519	<s> NADJ PRON
-1.145766	<s> NADJ PUNCT
-2.844736	<s> NADJ QUANT
-1.470599	<s> NADJ VERB
-3.130584	ADJ NADJ </s>
-1.623929	ADJ NADJ ADJ
-1.967555	ADJ NADJ ADV
-2.806073	ADJ NADJ AUX
-1.332778	ADJ NADJ CONJ
-2.431614	ADJ NADJ DET
-3.005645	ADJ NADJ DIG
-1.465733	ADJ NADJ NADJ
-0.2629855	ADJ NADJ NOUN
-3.181736	ADJ NADJ NUM
-1.046206	ADJ NADJ PREP
-1.668186	ADJ NADJ PRON
-0.7487671	ADJ NADJ PUNCT
-3.005645	ADJ NADJ QUANT
-1.392861	ADJ NADJ VERB
-2.838489	ADV NADJ </s>
-1.793353	ADV NADJ ADJ
-1.626683	ADV NADJ ADV
-3.257619	ADV NADJ AUX
-0.7608619	ADV NADJ CONJ
-1.648825	ADV NADJ DET
-2.62923	ADV NADJ DIG
-3.77936	ADV NADJ INTERJ
-1.665164	ADV NADJ NADJ
-0.7586192	ADV NADJ NOUN
-3.01458	ADV NADJ NUM
-0.9904469	ADV NADJ PREP
-1.619129	ADV NADJ PRON
-0.3969812	ADV NADJ PUNCT
-2.3282	ADV NADJ QUANT
-1.509431	ADV NADJ VERB
-1.425969	AUX NADJ ADJ
-1.477121	AUX NADJ ADV
-2.079181	AUX NADJ CONJ
-0.6642079	AUX NADJ DET
-1.778151	AUX NADJ DIG
-1.90309	AUX NADJ NADJ
-1	AUX NADJ NOUN
-1.057992	AUX NADJ PREP
-0.6478175	AUX NADJ PRON
-1.477121	AUX NADJ PUNCT
-1.998863	AUX NADJ QUANT
-0.6812412	AUX NADJ VERB
-3.010936	CONJ NADJ </s>
-1.604396	CONJ NADJ ADJ
-1.864808	CONJ NADJ ADV
-2.709906	CONJ NADJ AUX
-1.272948	CONJ NADJ CONJ
-2.28666	CONJ NADJ DET
-2.864808	CONJ NADJ DIG
-3.709906	CONJ NADJ INTERJ
-1.442734	CONJ NADJ NADJ
-0.4073583	CONJ NADJ NOUN
-3.629587	CONJ NADJ NUM
-1.08821	CONJ NADJ PREP
-2.047148	CONJ NADJ PRON
-0.4908453	CONJ NADJ PUNCT
-2.294932	CONJ NADJ QUANT
-1.285841	CONJ NADJ VERB
-3.593554	DET NADJ </s>
-1.425744	DET NADJ ADJ
-2.069591	DET NADJ ADV
-2.738236	DET NADJ AUX
-1.494046	DET NADJ CONJ
-2.713694	DET NADJ DET
-2.062075	DET NADJ DIG
-4.46317	DET NADJ INTERJ
-4.070675	DET NADJ MEAS
-1.240568	DET NADJ NADJ
-0.2181797	DET NADJ NOUN
-2.246224	DET NADJ NUM
-1.226353	DET NADJ PREP
-2.043325	DET NADJ PRON
-0.9805051	DET NADJ PUNCT
-2.514373	DET NADJ QUANT
-1.189148	DET NADJ VERB
-1.488551	DIG NADJ ADJ
-1.7104	DIG NADJ ADV
-2.409369	DIG NADJ AUX
-1.273707	DIG NADJ CONJ
-2.676925	DIG NADJ DET
-2.284431	DIG NADJ DIG
-0.9133629	DIG NADJ NADJ
-0.4137343	DIG NADJ NOUN
-1.060416	DIG NADJ PREP
-1.886491	DIG NADJ PRON
-0.6100289	DIG NADJ PUNCT
-1.631218	DIG NADJ VERB
-1	INTERJ NADJ ADV
-0.4259687	INTERJ NADJ NOUN
-0.6478175	INTERJ NADJ PUNCT
-0.69897	INTERJ NADJ VERB
-0.5201559	MEAS NADJ MEAS
-1.342928	MEAS NADJ NADJ
-0.7242759	MEAS NADJ NOUN
-1.514711	MEAS NADJ PREP
-0.7242759	MEAS NADJ PUNCT
-1.247155	MEAS NADJ VERB
-2.690473	NADJ NADJ </s>
-1.664144	NADJ NADJ ADJ
-1.92611	NADJ NADJ ADV
-2.748465	NADJ NADJ AUX
-1.158994	NADJ NADJ CONJ
-2.350525	NADJ NADJ DET
-2.615839	NADJ NADJ DIG
-3.513245	NADJ NADJ INTERJ
-1.235628	NADJ NADJ NADJ
-0.370067	NADJ NADJ NOUN
-3.292533	NADJ NADJ NUM
-1.039074	NADJ NADJ PREP
-1.787383	NADJ NADJ PRON
-0.6400449	NADJ NADJ PUNCT
-2.664144	NADJ NADJ QUANT
-1.209748	NADJ NADJ VERB
-2.863025	NOUN NADJ </s>
-1.669591	NOUN NADJ ADJ
-1.727363	NOUN NADJ ADV
-2.305384	NOUN NADJ AUX
-1.035512	NOUN NADJ CONJ
-2.021388	NOUN NADJ DET
-2.57423	NOUN NADJ DIG
-3.164055	NOUN NADJ INTERJ
-3.817268	NOUN NADJ MEAS
-1.472875	NOUN NADJ NADJ
-0.6439358	NOUN NADJ NOUN
-2.97217	NOUN NADJ NUM
-0.9271263	NOUN NADJ PREP
-1.526121	NOUN NADJ PRON
-0.4968099	NOUN NADJ PUNCT
-2.305384	NOUN NADJ QUANT
-0.9393209	NOUN NADJ VERB
-1.467361	NUM NADJ ADJ
-1.7104	NUM NADJ ADV
-2.187521	NUM NADJ AUX
-1.198516	NUM NADJ CONJ
-2.312459	NUM NADJ DET
-2.488551	NUM NADJ DIG
-1.409369	NUM NADJ NADJ
-0.259381	NUM NADJ NOUN
-1.117483	NUM NADJ PREP
-1.944483	NUM NADJ PRON
-0.8353382	NUM NADJ PUNCT
-1.358217	NUM NADJ VERB
-1.423549	PART NADJ ADJ
-1.576159	PART NADJ ADV
-2.553883	PART NADJ AUX
-1.221445	PART NADJ CONJ
-2.252853	PART NADJ DET
-2.645348	PART NADJ DIG
-2.553883	PART NADJ INTERJ
-1.423549	PART NADJ NADJ
-0.348408	PART NADJ NOUN
-2.252853	PART NADJ NUM
-1.263848	PART NADJ PREP
-2.009815	PART NADJ PRON
-0.645398	PART NADJ PUNCT
-2.553883	PART NADJ QUANT
-1.155943	PART NADJ VERB
-2.935776	PREP NADJ </s>
-1.435174	PREP NADJ ADJ
-1.941605	PREP NADJ ADV
-2.769444	PREP NADJ AUX
-1.116232	PREP NADJ CONJ
-2.086561	PREP NADJ DET
-2.326537	PREP NADJ DIG
-3.509807	PREP NADJ INTERJ
-3.730519	PREP NADJ MEAS
-1.301635	PREP NADJ NADJ
-0.3098464	PREP NADJ NOUN
-2.935776	PREP NADJ NUM
-1.219216	PREP NADJ PREP
-1.769444	PREP NADJ PRON
-0.6855186	PREP NADJ PUNCT
-2.404297	PREP NADJ QUANT
-1.51969	PREP NADJ VERB
-3.676869	PRON NADJ </s>
-1.495499	PRON NADJ ADJ
-1.825737	PRON NADJ ADV
-2.655985	PRON NADJ AUX
-1.298723	PRON NADJ CONJ
-2.564215	PRON NADJ DET
-2.252966	PRON NADJ DIG
-3.585404	PRON NADJ INTERJ
-1.203387	PRON NADJ NADJ
-0.3292882	PRON NADJ NOUN
-2.395073	PRON NADJ NUM
-1.117057	PRON NADJ PREP
-2.115582	PRON NADJ PRON
-0.7135396	PRON NADJ PUNCT
-2.506223	PRON NADJ QUANT
-1.121511	PRON NADJ VERB
-3.100922	PUNCT NADJ </s>
-1.49454	PUNCT NADJ ADJ
-1.933604	PUNCT NADJ ADV
-2.60956	PUNCT NADJ AUX
-1.059924	PUNCT NADJ CONJ
-2.268413	PUNCT NADJ DET
-2.60956	PUNCT NADJ DIG
-3.498862	PUNCT NADJ INTERJ
-3.623801	PUNCT NADJ MEAS
-1.325675	PUNCT NADJ NADJ
-0.33295	PUNCT NADJ NOUN
-3.498862	PUNCT NADJ NUM
-1.279408	PUNCT NADJ PREP
-2.166423	PUNCT NADJ PRON
-0.6180481	PUNCT NADJ PUNCT
-2.896802	PUNCT NADJ QUANT
-1.358983	PUNCT NADJ VERB
-3.314078	QUANT NADJ </s>
-1.539561	QUANT NADJ ADJ
-1.815767	QUANT NADJ ADV
-2.573715	QUANT NADJ AUX
-1.04926	QUANT NADJ CONJ
-2.314078	QUANT NADJ DET
-3.013048	QUANT NADJ DIG
-3.137987	QUANT NADJ INTERJ
-3.405543	QUANT NADJ MEAS
-1.450755	QUANT NADJ NADJ
-0.3204214	QUANT NADJ NOUN
-2.410988	QUANT NADJ NUM
-0.9856984	QUANT NADJ PREP
-1.94301	QUANT NADJ PRON
-0.7147409	QUANT NADJ PUNCT
-2.77001	QUANT NADJ QUANT
-1.543226	QUANT NADJ VERB
-2.964081	VERB NADJ </s>
-1.688427	VERB NADJ ADJ
-1.324648	VERB NADJ ADV
-3.532283	VERB NADJ AUX
-0.7905799	VERB NADJ CONJ
-2.083577	VERB NADJ DET
-2.415012	VERB NADJ DIG
-3.27701	VERB NADJ INTERJ
-4.150935	VERB NADJ MEAS
-1.68905	VERB NADJ NADJ
-0.8022277	VERB NADJ NOUN
-2.645792	VERB NADJ NUM
-0.8848021	VERB NADJ PREP
-1.445923	VERB NADJ PRON
-0.4187406	VERB NADJ PUNCT
-2.011145	VERB NADJ QUANT
-1.735015	VERB NADJ VERB
-2.529905	<s> NOUN </s>
-1.916756	<s> NOUN ADJ
-1.397542	<s> NOUN ADV
-1.86628	<s> NOUN AUX
-1.481312	<s> NOUN CONJ
-1.958879	<s> NOUN DET
-2.431998	<s> NOUN DIG
-3.469424	<s> NOUN INTERJ
-4.088076	<s> NOUN MEAS
-1.743513	<s> NOUN NADJ
-0.7504247	<s> NOUN NOUN
-3.089213	<s> NOUN NUM
-1.450724	<s> NOUN PART
-1.12641	<s> NOUN PREP
-1.758461	<s> NOUN PRON
-0.9095177	<s> NOUN PUNCT
-2.448235	<s> NOUN QUANT
-0.364289	<s> NOUN VERB
-2.843954	ADJ NOUN </s>
-2.093323	ADJ NOUN ADJ
-1.551905	ADJ NOUN ADV
-2.295194	ADJ NOUN AUX
-0.989843	ADJ NOUN CONJ
-2.36938	ADJ NOUN DET
-3.103822	ADJ NOUN DIG
-3.520647	ADJ NOUN INTERJ
-4.231852	ADJ NOUN MEAS
-1.969401	ADJ NOUN NADJ
-0.9314115	ADJ NOUN NOUN
-3.29162	ADJ NOUN NUM
-2.417034	ADJ NOUN PART
-0.6880142	ADJ NOUN PREP
-1.350467	ADJ NOUN PRON
-0.4275467	ADJ NOUN PUNCT
-2.557122	ADJ NOUN QUANT
-1.039723	ADJ NOUN VERB
-2.603429	ADV NOUN </s>
-1.739168	ADV NOUN ADJ
-1.479062	ADV NOUN ADV
-1.957904	ADV NOUN AUX
-1.150594	ADV NOUN CONJ
-0.8985566	ADV NOUN DET
-2.096853	ADV NOUN DIG
-3.280123	ADV NOUN INTERJ
-1.918395	ADV NOUN NADJ
-0.9426636	ADV NOUN NOUN
-2.84079	ADV NOUN NUM
-1.792278	ADV NOUN PART
-1.020648	ADV NOUN PREP
-1.040823	ADV NOUN PRON
-0.6418833	ADV NOUN PUNCT
-2.037085	ADV NOUN QUANT
-0.790516	ADV NOUN VERB
-1.732394	AUX NOUN ADJ
-1.828167	AUX NOUN ADV
-1.908485	AUX NOUN CONJ
-1.130334	AUX NOUN DET
-1.732394	AUX NOUN NADJ
-0.9790661	AUX NOUN NOUN
-1.908485	AUX NOUN PART
-1.095572	AUX NOUN PREP
-1.063387	AUX NOUN PRON
-0.762357	AUX NOUN PUNCT
-1.732394	AUX NOUN QUANT
-0.438663	AUX NOUN VERB
-2.948696	CONJ NOUN </s>
-2.016596	CONJ NOUN ADJ
-1.426046	CONJ NOUN ADV
-1.966187	CONJ NOUN AUX
-1.328176	CONJ NOUN CONJ
-2.155568	CONJ NOUN DET
-2.677221	CONJ NOUN DIG
-3.487087	CONJ NOUN INTERJ
-4.227449	CONJ NOUN MEAS
-1.669341	CONJ NOUN NADJ
-0.7509803	CONJ NOUN NOUN
-2.90523	CONJ NOUN NUM
-1.760582	CONJ NOUN PART
-0.9463026	CONJ NOUN PREP
-1.643684	CONJ NOUN PRON
-0.5042814	CONJ NOUN PUNCT
-2.273207	CONJ NOUN QUANT
-0.6722342	CONJ NOUN VERB
-2.968258	DET NOUN </s>
-1.938635	DET NOUN ADJ
-1.42896	DET NOUN ADV
-2.043941	DET NOUN AUX
-1.133898	DET NOUN CONJ
-2.117945	DET NOUN DET
-2.897677	DET NOUN DIG
-3.610435	DET NOUN INTERJ
-4.226736	DET NOUN MEAS
-1.816015	DET NOUN NADJ
-0.899363	DET NOUN NOUN
-2.943434	DET NOUN NUM
-2.140613	DET NOUN PART
-0.810839	DET NOUN PREP
-1.44522	DET NOUN PRON
-0.6549104	DET NOUN PUNCT
-2.531254	DET NOUN QUANT
-0.5316803	DET NOUN VERB
-2.515663	DIG NOUN </s>
-1.936399	DIG NOUN ADJ
-1.057369	DIG NOUN ADV
-2.451546	DIG NOUN AUX
-0.9715951	DIG NOUN CONJ
-1.778905	DIG NOUN DET
-2.373786	DIG NOUN DIG
-3.557056	DIG NOUN INTERJ
-3.777768	DIG NOUN MEAS
-1.623822	DIG NOUN NADJ
-0.9682241	DIG NOUN NOUN
-2.858086	DIG NOUN NUM
-2.477875	DIG NOUN PART
-0.6022106	DIG NOUN PREP
-1.568051	DIG NOUN PRON
-0.5365909	DIG NOUN PUNCT
-2.234837	DIG NOUN QUANT
-1.248491	DIG NOUN VERB
-1.70757	INTERJ NOUN </s>
-2.0086	INTERJ NOUN ADJ
-2.100065	INTERJ NOUN ADV
-1.40654	INTERJ NOUN CONJ
-2.100065	INTERJ NOUN DET
-2.0086	INTERJ NOUN NADJ
-0.8325089	INTERJ NOUN NOUN
-2.0086	INTERJ NOUN PART
-1.268237	INTERJ NOUN PREP
-1.40654	INTERJ NOUN PRON
-0.4345689	INTERJ NOUN PUNCT
-0.6375323	INTERJ NOUN VERB
-2.073718	MEAS NOUN ADJ
-1.772688	MEAS NOUN ADV
-1.897627	MEAS NOUN AUX
-1.260805	MEAS NOUN CONJ
-1.9934	MEAS NOUN DET
-1.013021	MEAS NOUN MEAS
-1.772688	MEAS NOUN NADJ
-0.9275903	MEAS NOUN NOUN
-2.165183	MEAS NOUN PART
-0.9433846	MEAS NOUN PREP
-1.52965	MEAS NOUN PRON
-0.3835223	MEAS NOUN PUNCT
-1.22862	MEAS NOUN VERB
-2.661306	NADJ NOUN </s>
-2.130579	NADJ NOUN ADJ
-1.539958	NADJ NOUN ADV
-2.301805	NADJ NOUN AUX
-1.023816	NADJ NOUN CONJ
-2.143567	NADJ NOUN DET
-3.052906	NADJ NOUN DIG
-3.613001	NADJ NOUN INTERJ
-4.682189	NADJ NOUN MEAS
-1.871808	NADJ NOUN NADJ
-0.9214079	NADJ NOUN NOUN
-3.238542	NADJ NOUN NUM
-2.389328	NADJ NOUN PART
-0.7095685	NADJ NOUN PREP
-1.409167	NADJ NOUN PRON
-0.4142284	NADJ NOUN PUNCT
-2.515178	NADJ NOUN QUANT
-1.030998	NADJ NOUN VERB
-2.580858	NOUN NOUN </s>
-2.008334	NOUN NOUN ADJ
-1.498166	NOUN NOUN ADV
-2.176758	NOUN NOUN AUX
-1.007279	NOUN NOUN CONJ
-2.331422	NOUN NOUN DET
-2.674957	NOUN NOUN DIG
-3.353406	NOUN NOUN INTERJ
-3.865289	NOUN NOUN MEAS
-1.831112	NOUN NOUN NADJ
-0.940364	NOUN NOUN NOUN
-3.082637	NOUN NOUN NUM
-1.918653	NOUN NOUN PART
-0.9187447	NOUN NOUN PREP
-1.602986	NOUN NOUN PRON
-0.4192668	NOUN NOUN PUNCT
-2.564259	NOUN NOUN QUANT
-0.7644449	NOUN NOUN VERB
-3.789348	NUM NOUN </s>
-1.831596	NUM NOUN ADJ
-1.082459	NUM NOUN ADV
-2.14158	NUM NOUN AUX
-1.01619	NUM NOUN CONJ
-1.778805	NUM NOUN DET
-3.789348	NUM NOUN DIG
-3.789348	NUM NOUN INTERJ
-3.521792	NUM NOUN MEAS
-2.007687	NUM NOUN NADJ
-1.125592	NUM NOUN NOUN
-2.637185	NUM NOUN NUM
-2.430711	NUM NOUN PART
-0.6729869	NUM NOUN PREP
-1.012141	NUM NOUN PRON
-0.5621144	NUM NOUN PUNCT
-2.266519	NUM NOUN QUANT
-0.9980452	NUM NOUN VERB
-3.183649	PART NOUN </s>
-1.9532	PART NOUN ADJ
-1.440663	PART NOUN ADV
-2.262831	PART NOUN AUX
-1.084429	PART NOUN CONJ
-1.809512	PART NOUN DET
-2.706528	PART NOUN DIG
-3.359741	PART NOUN INTERJ
-1.828262	PART NOUN NADJ
-0.8238139	PART NOUN NOUN
-2.815673	PART NOUN NUM
-2.213613	PART NOUN PART
-0.8973426	PART NOUN PREP
-1.665136	PART NOUN PRON
-0.4763632	PART NOUN PUNCT
-2.280559	PART NOUN QUANT
-0.7303311	PART NOUN VERB
-2.75129	PREP NOUN </s>
-2.019548	PREP NOUN ADJ
-1.549007	PREP NOUN ADV
-2.597269	PREP NOUN AUX
-0.9031004	PREP NOUN CONJ
-1.967309	PREP NOUN DET
-2.242123	PREP NOUN DIG
-3.490187	PREP NOUN INTERJ
-4.076453	PREP NOUN MEAS
-2.025577	PREP NOUN NADJ
-0.8021634	PREP NOUN NOUN
-2.717431	PREP NOUN NUM
-1.5264	PREP NOUN PART
-0.8668233	PREP NOUN PREP
-1.491476	PREP NOUN PRON
-0.4121605	PREP NOUN PUNCT
-2.224322	PREP NOUN QUANT
-1.252234	PREP NOUN VERB
-2.938904	PRON NOUN </s>
-2.075368	PRON NOUN ADJ
-1.280722	PRON NOUN ADV
-2.051608	PRON NOUN AUX
-0.8352833	PRON NOUN CONJ
-2.019639	PRON NOUN DET
-2.867548	PRON NOUN DIG
-3.482972	PRON NOUN INTERJ
-4.386062	PRON NOUN MEAS
-1.938904	PRON NOUN NADJ
-1.05809	PRON NOUN NOUN
-2.91624	PRON NOUN NUM
-1.655683	PRON NOUN PART
-0.9127208	PRON NOUN PREP
-1.686658	PRON NOUN PRON
-0.5530741	PRON NOUN PUNCT
-2.412934	PRON NOUN QUANT
-0.6519023	PRON NOUN VERB
-2.636858	PUNCT NOUN </s>
-1.805262	PUNCT NOUN ADJ
-1.651047	PUNCT NOUN ADV
-2.296319	PUNCT NOUN AUX
-0.9867586	PUNCT NOUN CONJ
-2.313164	PUNCT NOUN DET
-2.354311	PUNCT NOUN DIG
-3.305865	PUNCT NOUN INTERJ
-4.179789	PUNCT NOUN MEAS
-1.496305	PUNCT NOUN NADJ
-0.585246	PUNCT NOUN NOUN
-3.238918	PUNCT NOUN NUM
-1.764563	PUNCT NOUN PART
-1.138055	PUNCT NOUN PREP
-1.901221	PUNCT NOUN PRON
-0.5049949	PUNCT NOUN PUNCT
-2.478352	PUNCT NOUN QUANT
-0.8832566	PUNCT NOUN VERB
-2.96762	QUANT NOUN </s>
-1.995203	QUANT NOUN ADJ
-1.210867	QUANT NOUN ADV
-2.115422	QUANT NOUN AUX
-0.9308069	QUANT NOUN CONJ
-1.873391	QUANT NOUN DET
-3.178473	QUANT NOUN DIG
-3.428351	QUANT NOUN INTERJ
-1.970974	QUANT NOUN NADJ
-1.160918	QUANT NOUN NOUN
-3.303412	QUANT NOUN NUM
-2.50178	QUANT NOUN PART
-0.6709548	QUANT NOUN PREP
-1.131929	QUANT NOUN PRON
-0.4996137	QUANT NOUN PUNCT
-2.611741	QUANT NOUN QUANT
-1.00693	QUANT NOUN VERB
-2.826958	VERB NOUN </s>
-1.749755	VERB NOUN ADJ
-1.306772	VERB NOUN ADV
-2.477415	VERB NOUN AUX
-0.9769245	VERB NOUN CONJ
-1.563429	VERB NOUN DET
-2.400003	VERB NOUN DIG
-3.613078	VERB NOUN INTERJ
-3.965261	VERB NOUN MEAS
-1.805393	VERB NOUN NADJ
-0.8711389	VERB NOUN NOUN
-2.914108	VERB NOUN NUM
-1.652449	VERB NOUN PART
-0.6659712	VERB NOUN PREP
-1.420882	VERB NOUN PRON
-0.5374094	VERB NOUN PUNCT
-2.001473	VERB NOUN QUANT
-1.197919	VERB NOUN VERB
-1.459032	<s> NUM ADJ
-2.029835	<s> NUM ADV
-1.753628	<s> NUM AUX
-2.205926	<s> NUM CONJ
-2.807986	<s> NUM DET
-1.529232	<s> NUM NADJ
-0.4277745	<s> NUM NOUN
-2.984077	<s> NUM NUM
-2.984077	<s> NUM PART
-0.3809327	<s> NUM PREP
-2.205926	<s> NUM PRON
-1.311979	<s> NUM PUNCT
-2.903759	<s> NUM QUANT
-1.289472	<s> NUM VERB
-1.378012	ADJ NUM ADJ
-1.750398	ADJ NUM ADV
-2.595496	ADJ NUM AUX
-1.419405	ADJ NUM CONJ
-1.782583	ADJ NUM NADJ
-0.5847723	ADJ NUM NOUN
-2.515178	ADJ NUM PART
-0.655977	ADJ NUM PREP
-1.17225	ADJ NUM PRON
-0.5933301	ADJ NUM PUNCT
-2.515178	ADJ NUM QUANT
-1.197556	ADJ NUM VERB
-1.532962	ADV NUM ADJ
-1.990339	ADV NUM ADV
-1.786219	ADV NUM AUX
-1.689309	ADV NUM CONJ
-2.56437	ADV NUM DET
-1.610128	ADV NUM NADJ
-0.3768494	ADV NUM NOUN
-2.8654	ADV NUM NUM
-2.8654	ADV NUM PART
-0.4174673	ADV NUM PREP
-1.8654	ADV NUM PRON
-1.503672	ADV NUM PUNCT
-2.785082	ADV NUM QUANT
-1.374038	ADV NUM VERB
-0.2498775	AUX NUM NOUN
-0.8227717	AUX NUM VERB
-2.83219	CONJ NUM </s>
-1.288121	CONJ NUM ADJ
-1.53116	CONJ NUM ADV
-1.542155	CONJ NUM AUX
-1.811	CONJ NUM CONJ
-2.531159	CONJ NUM DET
-2.83219	CONJ NUM DIG
-1.392857	CONJ NUM NADJ
-0.3873643	CONJ NUM NOUN
-2.656098	CONJ NUM NUM
-2.656098	CONJ NUM PART
-0.681433	CONJ NUM PREP
-1.701856	CONJ NUM PRON
-1.057673	CONJ NUM PUNCT
-2.178977	CONJ NUM QUANT
-1.039798	CONJ NUM VERB
-1.475336	DET NUM ADJ
-1.955811	DET NUM ADV
-2.385159	DET NUM AUX
-1.769735	DET NUM CONJ
-2.510098	DET NUM DET
-2.413188	DET NUM DIG
-3.288249	DET NUM MEAS
-1.56809	DET NUM NADJ
-0.18513	DET NUM NOUN
-1.945827	DET NUM NUM
-3.207931	DET NUM PART
-0.9893962	DET NUM PREP
-1.430917	DET NUM PRON
-1.181039	DET NUM PUNCT
-2.246856	DET NUM QUANT
-1.644796	DET NUM VERB
-1.389166	DIG NUM ADJ
-1.389166	DIG NUM CONJ
-1.389166	DIG NUM DET
-1.389166	DIG NUM NADJ
-0.4860761	DIG NUM NOUN
-1.389166	DIG NUM PREP
-0.7359536	DIG NUM PUNCT
-0.6110148	DIG NUM VERB
-0.1760913	MEAS NUM MEAS
-1.718778	NADJ NUM ADJ
-2.291673	NADJ NUM ADV
-2.463456	NADJ NUM CONJ
-1.827923	NADJ NUM NADJ
-0.3189125	NADJ NUM NOUN
-0.7487416	NADJ NUM PREP
-1.769931	NADJ NUM PRON
-0.6907496	NADJ NUM PUNCT
-1.225863	NADJ NUM VERB
-1.660865	NOUN NUM ADJ
-1.847952	NOUN NUM ADV
-1.546922	NOUN NUM AUX
-1.393694	NOUN NUM CONJ
-2.058805	NOUN NUM DET
-2.75233	NOUN NUM DIG
-1.639676	NOUN NUM NADJ
-0.3254076	NOUN NUM NOUN
-2.484774	NOUN NUM NUM
-2.660866	NOUN NUM PART
-0.8755357	NOUN NUM PREP
-1.757776	NOUN NUM PRON
-0.7340088	NOUN NUM PUNCT
-2.484774	NOUN NUM QUANT
-1.417827	NOUN NUM VERB
-1.591065	NUM NUM CONJ
-0.2900346	NUM NUM NOUN
-1.591065	NUM NUM NUM
-1.682529	NUM NUM PREP
-1.591065	NUM NUM PRON
-0.8129134	NUM NUM PUNCT
-0.8920946	NUM NUM VERB
-1.38208	PART NUM NADJ
-0.1952263	PART NUM NOUN
-1.161368	PART NUM PREP
-1.286307	PART NUM PUNCT
-1.553863	PART NUM VERB
-1.287739	PREP NUM ADJ
-1.818812	PREP NUM ADV
-2.099639	PREP NUM AUX
-1.258317	PREP NUM CONJ
-2.237942	PREP NUM DET
-3.317123	PREP NUM MEAS
-1.654365	PREP NUM NADJ
-0.3964777	PREP NUM NOUN
-3.236804	PREP NUM NUM
-2.618153	PREP NUM PART
-0.7255017	PREP NUM PREP
-1.524731	PREP NUM PRON
-0.786283	PREP NUM PUNCT
-2.618153	PREP NUM QUANT
-1.283699	PREP NUM VERB
-1.619901	PRON NUM ADJ
-1.85599	PRON NUM ADV
-1.592749	PRON NUM CONJ
-2.810232	PRON NUM DIG
-1.278754	PRON NUM NADJ
-0.09842529	PRON NUM NOUN
-2.901697	PRON NUM NUM
-1.488013	PRON NUM PREP
-2.509202	PRON NUM PRON
-1.509202	PRON NUM PUNCT
-2.729914	PRON NUM QUANT
-1.997319	PRON NUM VERB
-1.318138	PUNCT NUM ADJ
-1.686115	PUNCT NUM ADV
-1.634962	PUNCT NUM AUX
-1.723903	PUNCT NUM CONJ
-2.221228	PUNCT NUM DET
-2.765296	PUNCT NUM DIG
-1.422873	PUNCT NUM NADJ
-0.4064097	PUNCT NUM NOUN
-2.765296	PUNCT NUM NUM
-2.765296	PUNCT NUM PART
-0.5185512	PUNCT NUM PREP
-1.744107	PUNCT NUM PRON
-1.325963	PUNCT NUM PUNCT
-2.589205	PUNCT NUM QUANT
-1.121843	PUNCT NUM VERB
-1.476622	QUANT NUM ADJ
-0.9995005	QUANT NUM ADV
-1.43387	QUANT NUM AUX
-2.093922	QUANT NUM CONJ
-2.63799	QUANT NUM NADJ
-0.6765687	QUANT NUM NOUN
-2.557672	QUANT NUM PART
-0.7717025	QUANT NUM PREP
-1.660266	QUANT NUM PRON
-1.347955	QUANT NUM PUNCT
-0.4379605	QUANT NUM VERB
-1.356007	VERB NUM ADJ
-1.740456	VERB NUM ADV
-2.715632	VERB NUM AUX
-1.735376	VERB NUM CONJ
-2.715632	VERB NUM DET
-2.824776	VERB NUM DIG
-3.067815	VERB NUM INTERJ
-3.368845	VERB NUM MEAS
-1.636451	VERB NUM NADJ
-0.5754034	VERB NUM NOUN
-2.824776	VERB NUM NUM
-2.555931	VERB NUM PART
-0.2715872	VERB NUM PREP
-1.831025	VERB NUM PRON
-1.317692	VERB NUM PUNCT
-2.368845	VERB NUM QUANT
-1.766785	VERB NUM VERB
-0.9945371	ADJ PART ADJ
-1.420506	ADJ PART NADJ
-0.2743778	ADJ PART NOUN
-0.9433846	ADJ PART PREP
-0.8184459	ADJ PART PUNCT
-1.420506	ADJ PART VERB
-0.90309	ADV PART ADJ
-2.245513	ADV PART DIG
-1.099385	ADV PART NADJ
-0.4934642	ADV PART NOUN
-1.944483	ADV PART NUM
-2.336977	ADV PART PREP
-2.165195	ADV PART PUNCT
-0.3792253	ADV PART QUANT
-1.600506	DIG PART ADJ
-1.404212	DIG PART ADV
-0.8658206	DIG PART CONJ
-2.144574	DIG PART DIG
-1.404212	DIG PART NADJ
-0.6532125	DIG PART NOUN
-2.144574	DIG PART PART
-1.123385	DIG PART PREP
-2.236039	DIG PART PRON
-0.4081777	DIG PART PUNCT
-1.491362	DIG PART VERB
-0.30103	INTERJ PART PUNCT
-0.4259687	MEAS PART NADJ
-0.4259687	MEAS PART NOUN
-2.785251	NOUN PART </s>
-1.107036	NOUN PART ADJ
-1.44064	NOUN PART ADV
-2.377765	NOUN PART AUX
-1.345918	NOUN PART CONJ
-1.950618	NOUN PART DET
-2.076735	NOUN PART DIG
-3.830958	NOUN PART INTERJ
-1.231637	NOUN PART NADJ
-0.4203872	NOUN PART NOUN
-2.332953	NOUN PART NUM
-3.563402	NOUN PART PART
-1.166622	NOUN PART PREP
-1.929934	NOUN PART PRON
-0.8708488	NOUN PART PUNCT
-1.888235	NOUN PART QUANT
-0.842967	NOUN PART VERB
-1.489405	NUM PART ADJ
-1.39794	NUM PART ADV
-1.39794	NUM PART CONJ
-0.2839966	NUM PART NOUN
-1.09691	NUM PART PREP
-1.489405	NUM PART VERB
-0.39794	PART PART NOUN
-1.060698	PRON PART ADJ
-1.963788	PRON PART ADV
-1.034369	PRON PART NADJ
-0.1344841	PRON PART NOUN
-1.963788	PRON PART NUM
-1.963788	PRON PART PREP
-1.88347	PRON PART PUNCT
-1.88347	PRON PART VERB
-1.230449	VERB PART ADJ
-1.531479	VERB PART CONJ
-0.8782664	VERB PART NADJ
-0.4707811	VERB PART NOUN
-0.9874108	VERB PART PREP
-0.5537553	VERB PART PUNCT
-1.520894	<s> PREP ADJ
-1.490699	<s> PREP ADV
-2.647767	<s> PREP CONJ
-0.4736449	<s> PREP DET
-1.483202	<s> PREP DIG
-3.793895	<s> PREP MEAS
-1.343646	<s> PREP NADJ
-0.7675661	<s> PREP NOUN
-1.660356	<s> PREP NUM
-2.26885	<s> PREP PREP
-0.9948994	<s> PREP PRON
-2.617804	<s> PREP PUNCT
-1.208434	<s> PREP QUANT
-0.8031124	<s> PREP VERB
-1.341738	ADJ PREP ADJ
-1.642769	ADJ PREP ADV
-2.278027	ADJ PREP CONJ
-0.5824795	ADJ PREP DET
-1.957162	ADJ PREP DIG
-3.70535	ADJ PREP INTERJ
-4.006381	ADJ PREP MEAS
-1.466677	ADJ PREP NADJ
-0.7302635	ADJ PREP NOUN
-2.221051	ADJ PREP NUM
-2.161282	ADJ PREP PREP
-0.9935432	ADJ PREP PRON
-1.863366	ADJ PREP PUNCT
-1.309151	ADJ PREP QUANT
-0.5915742	ADJ PREP VERB
-1.411569	ADV PREP ADJ
-1.658264	ADV PREP ADV
-2.562709	ADV PREP CONJ
-0.4756823	ADV PREP DET
-1.544633	ADV PREP DIG
-4.164769	ADV PREP INTERJ
-4.256234	ADV PREP MEAS
-1.613319	ADV PREP NADJ
-0.7272564	ADV PREP NOUN
-2.045843	ADV PREP NUM
-2.237912	ADV PREP PREP
-0.9195033	ADV PREP PRON
-2.000416	ADV PREP PUNCT
-1.31168	ADV PREP QUANT
-0.7757803	ADV PREP VERB
-1.119476	AUX PREP ADJ
-1.119476	AUX PREP ADV
-0.9199035	AUX PREP DET
-1.897627	AUX PREP NADJ
-0.8369293	AUX PREP NOUN
-1.897627	AUX PREP NUM
-1.721536	AUX PREP PRON
-1.244415	AUX PREP PUNCT
-0.8562344	AUX PREP QUANT
-0.4743812	AUX PREP VERB
-1.350979	CONJ PREP ADJ
-1.47756	CONJ PREP ADV
-2.255711	CONJ PREP CONJ
-0.4555356	CONJ PREP DET
-1.406869	CONJ PREP DIG
-3.473195	CONJ PREP MEAS
-1.612857	CONJ PREP NADJ
-0.7742249	CONJ PREP NOUN
-1.86574	CONJ PREP NUM
-2.412497	CONJ PREP PREP
-0.9694042	CONJ PREP PRON
-2.010797	CONJ PREP PUNCT
-1.081378	CONJ PREP QUANT
-0.9334916	CONJ PREP VERB
-1.653213	DET PREP ADJ
-2.130334	DET PREP ADV
-0.4256114	DET PREP DET
-2.226107	DET PREP DIG
-1.493512	DET PREP NADJ
-0.5140333	DET PREP NOUN
-2.306425	DET PREP NUM
-2.306425	DET PREP PREP
-0.9640024	DET PREP PRON
-1.039253	DET PREP PUNCT
-2.130334	DET PREP QUANT
-1.607455	DET PREP VERB
-1.848189	DIG PREP ADJ
-2.067032	DIG PREP ADV
-0.5333567	DIG PREP DET
-0.906181	DIG PREP DIG
-1.751279	DIG PREP NADJ
-0.6015469	DIG PREP NOUN
-1.402326	DIG PREP NUM
-3.148082	DIG PREP PREP
-0.7391452	DIG PREP PRON
-2.207211	DIG PREP PUNCT
-1.516593	DIG PREP QUANT
-1.496007	DIG PREP VERB
-1.322219	INTERJ PREP ADJ
-1.322219	INTERJ PREP ADV
-0.3679768	INTERJ PREP DET
-0.6853972	INTERJ PREP NOUN
-0.845098	INTERJ PREP PRON
-1.498311	INTERJ PREP QUANT
-1.417992	INTERJ PREP VERB
-1.262112	MEAS PREP ADJ
-0.4737415	MEAS PREP DET
-1.725862	MEAS PREP DIG
-1.152967	MEAS PREP MEAS
-1.630089	MEAS PREP NADJ
-0.644812	MEAS PREP NOUN
-1.630089	MEAS PREP NUM
-1.028029	MEAS PREP PRON
-1.630089	MEAS PREP PUNCT
-1.630089	MEAS PREP QUANT
-1.065817	MEAS PREP VERB
-3.906685	NADJ PREP </s>
-1.131439	NADJ PREP ADJ
-1.743822	NADJ PREP ADV
-3.906685	NADJ PREP AUX
-2.375206	NADJ PREP CONJ
-0.5403556	NADJ PREP DET
-1.676236	NADJ PREP DIG
-3.826367	NADJ PREP INTERJ
-3.826367	NADJ PREP MEAS
-1.329768	NADJ PREP NADJ
-0.5365423	NADJ PREP NOUN
-2.087141	NADJ PREP NUM
-2.225444	NADJ PREP PREP
-1.042471	NADJ PREP PRON
-1.979828	NADJ PREP PUNCT
-1.441302	NADJ PREP QUANT
-0.9798284	NADJ PREP VERB
-4.933731	NOUN PREP </s>
-1.327187	NOUN PREP ADJ
-1.758942	NOUN PREP ADV
-4.541236	NOUN PREP AUX
-2.475843	NOUN PREP CONJ
-0.523806	NOUN PREP DET
-1.508416	NOUN PREP DIG
-3.745356	NOUN PREP INTERJ
-3.624782	NOUN PREP MEAS
-1.381293	NOUN PREP NADJ
-0.5570463	NOUN PREP NOUN
-1.900258	NOUN PREP NUM
-2.212347	NOUN PREP PREP
-1.021966	NOUN PREP PRON
-2.001846	NOUN PREP PUNCT
-1.503013	NOUN PREP QUANT
-0.895249	NOUN PREP VERB
-2.163314	NUM PREP ADJ
-2.24048	NUM PREP ADV
-3.194722	NUM PREP CONJ
-0.2609821	NUM PREP DET
-2.004391	NUM PREP DIG
-2.24048	NUM PREP NADJ
-1.211322	NUM PREP NOUN
-1.8523	NUM PREP NUM
-2.717601	NUM PREP PREP
-0.5254055	NUM PREP PRON
-2.796782	NUM PREP PUNCT
-1.686193	NUM PREP QUANT
-1.606451	NUM PREP VERB
-1.39794	PART PREP ADJ
-1.359022	PART PREP ADV
-0.5086383	PART PREP DET
-1.580871	PART PREP DIG
-1.647817	PART PREP NADJ
-0.5228788	PART PREP NOUN
-1.69897	PART PREP NUM
-2.425969	PART PREP PREP
-0.9736711	PART PREP PRON
-1.312025	PART PREP QUANT
-1.11776	PART PREP VERB
-1.59666	PREP PREP ADJ
-1.923396	PREP PREP ADV
-2.360088	PREP PREP CONJ
-0.447335	PREP PREP DET
-1.136506	PREP PREP DIG
-1.563052	PREP PREP NADJ
-0.5843565	PREP PREP NOUN
-1.992111	PREP PREP NUM
-1.945115	PREP PREP PREP
-1.161431	PREP PREP PRON
-1.567697	PREP PREP PUNCT
-1.209844	PREP PREP QUANT
-1.21396	PREP PREP VERB
-3.816407	PRON PREP </s>
-1.656539	PRON PREP ADJ
-1.620507	PRON PREP ADV
-2.214347	PRON PREP CONJ
-0.5308497	PRON PREP DET
-1.820772	PRON PREP DIG
-3.515377	PRON PREP INTERJ
-1.689302	PRON PREP NADJ
-0.8736551	PRON PREP NOUN
-2.139714	PRON PREP NUM
-2.064358	PRON PREP PREP
-0.7864149	PRON PREP PRON
-1.897329	PRON PREP PUNCT
-1.409016	PRON PREP QUANT
-0.5978715	PRON PREP VERB
-1.205328	PUNCT PREP ADJ
-1.588696	PUNCT PREP ADV
-3.760422	PUNCT PREP AUX
-2.083729	PUNCT PREP CONJ
-0.5467719	PUNCT PREP DET
-1.459392	PUNCT PREP DIG
-3.459393	PUNCT PREP MEAS
-1.339642	PUNCT PREP NADJ
-0.6801568	PUNCT PREP NOUN
-1.846609	PUNCT PREP NUM
-1.873932	PUNCT PREP PREP
-1.106728	PUNCT PREP PRON
-1.085103	PUNCT PREP PUNCT
-1.21822	PUNCT PREP QUANT
-1.090177	PUNCT PREP VERB
-1.610424	QUANT PREP ADJ
-2.011824	QUANT PREP ADV
-2.710794	QUANT PREP CONJ
-0.3638546	QUANT PREP DET
-1.884719	QUANT PREP DIG
-1.838638	QUANT PREP NADJ
-0.9458711	QUANT PREP NOUN
-2.007503	QUANT PREP NUM
-2.689605	QUANT PREP PREP
-0.6952248	QUANT PREP PRON
-1.802309	QUANT PREP PUNCT
-1.214557	QUANT PREP QUANT
-1.000677	QUANT PREP VERB
-3.830389	VERB PREP </s>
-1.418274	VERB PREP ADJ
-1.630118	VERB PREP ADV
-4.458777	VERB PREP AUX
-2.015515	VERB PREP CONJ
-0.5383412	VERB PREP DET
-1.665861	VERB PREP DIG
-3.884746	VERB PREP INTERJ
-3.662898	VERB PREP MEAS
-1.566961	VERB PREP NADJ
-0.7607858	VERB PREP NOUN
-2.11096	VERB PREP NUM
-1.820538	VERB PREP PREP
-1.027173	VERB PREP PRON
-1.494872	VERB PREP PUNCT
-1.530638	VERB PREP QUANT
-0.6229126	VERB PREP VERB
-4.503164	<s> PRON </s>
-2.019814	<s> PRON ADJ
-1.113998	<s> PRON ADV
-1.014519	<s> PRON AUX
-2.708444	<s> PRON CONJ
-1.915453	<s> PRON DET
-3.232097	<s> PRON DIG
-4.503164	<s> PRON INTERJ
-4.135187	<s> PRON MEAS
-1.940475	<s> PRON NADJ
-1.039619	<s> PRON NOUN
-2.649871	<s> PRON NUM
-3.725013	<s> PRON PART
-2.247891	<s> PRON PREP
-2.173427	<s> PRON PRON
-2.694728	<s> PRON PUNCT
-2.219863	<s> PRON QUANT
-0.1697973	<s> PRON VERB
-2.178429	ADJ PRON ADJ
-1.345312	ADJ PRON ADV
-0.8815547	ADJ PRON AUX
-1.86718	ADJ PRON CONJ
-2.270199	ADJ PRON DET
-2.898588	ADJ PRON DIG
-2.296528	ADJ PRON NADJ
-1.262602	ADJ PRON NOUN
-3.023527	ADJ PRON NUM
-3.1193	ADJ PRON PART
-1.82855	ADJ PRON PREP
-1.722497	ADJ PRON PRON
-0.9730182	ADJ PRON PUNCT
-2.386705	ADJ PRON QUANT
-0.2292712	ADJ PRON VERB
-1.789816	ADV PRON ADJ
-1.350611	ADV PRON ADV
-1.09393	ADV PRON AUX
-2.526702	ADV PRON CONJ
-2.121209	ADV PRON DET
-3.003823	ADV PRON DIG
-1.675122	ADV PRON NADJ
-1.048313	ADV PRON NOUN
-2.777427	ADV PRON NUM
-3.379487	ADV PRON PART
-1.849607	ADV PRON PREP
-1.631299	ADV PRON PRON
-1.765381	ADV PRON PUNCT
-2.476397	ADV PRON QUANT
-0.1698713	ADV PRON VERB
-2.447933	AUX PRON </s>
-2.447933	AUX PRON ADJ
-1.067722	AUX PRON ADV
-2.271842	AUX PRON AUX
-2.447933	AUX PRON DET
-2.271842	AUX PRON NOUN
-2.367615	AUX PRON PREP
-2.271842	AUX PRON PRON
-1.518514	AUX PRON PUNCT
-0.07318452	AUX PRON VERB
-2.058445	CONJ PRON ADJ
-1.246439	CONJ PRON ADV
-0.9853676	CONJ PRON AUX
-2.688396	CONJ PRON CONJ
-2.353286	CONJ PRON DET
-3.2025	CONJ PRON DIG
-4.378592	CONJ PRON INTERJ
-4.378592	CONJ PRON MEAS
-2.025124	CONJ PRON NADJ
-1.211471	CONJ PRON NOUN
-3.11535	CONJ PRON NUM
-3.709585	CONJ PRON PART
-2.130618	CONJ PRON PREP
-2.11142	CONJ PRON PRON
-1.916693	CONJ PRON PUNCT
-2.174472	CONJ PRON QUANT
-0.1437961	CONJ PRON VERB
-2.507953	DET PRON ADJ
-1.309518	DET PRON ADV
-1.588272	DET PRON AUX
-1.457938	DET PRON CONJ
-1.442144	DET PRON DET
-2.679736	DET PRON NADJ
-1.527574	DET PRON NOUN
-2.287242	DET PRON PART
-1.09691	DET PRON PREP
-1.71321	DET PRON PRON
-0.4810617	DET PRON PUNCT
-2.588272	DET PRON QUANT
-0.4314198	DET PRON VERB
-2.482874	DIG PRON ADJ
-1.36893	DIG PRON ADV
-0.9709902	DIG PRON AUX
-1.829661	DIG PRON CONJ
-2.306782	DIG PRON DET
-2.482874	DIG PRON DIG
-2.402555	DIG PRON NADJ
-1.336746	DIG PRON NOUN
-1.742511	DIG PRON PREP
-1.704722	DIG PRON PRON
-1.441481	DIG PRON PUNCT
-0.1585911	DIG PRON VERB
-1.845098	INTERJ PRON ADJ
-1.146128	INTERJ PRON ADV
-1.066947	INTERJ PRON AUX
-2.021189	INTERJ PRON DET
-1.845098	INTERJ PRON INTERJ
-1.720159	INTERJ PRON NADJ
-0.7781513	INTERJ PRON NOUN
-2.112654	INTERJ PRON PUNCT
-1.720159	INTERJ PRON QUANT
-0.2466723	INTERJ PRON VERB
-1.263241	MEAS PRON ADV
-1.359014	MEAS PRON AUX
-0.6264194	MEAS PRON MEAS
-1.439333	MEAS PRON NOUN
-1.359014	MEAS PRON PUNCT
-0.3424227	MEAS PRON VERB
-2.927499	NADJ PRON </s>
-1.973256	NADJ PRON ADJ
-1.402454	NADJ PRON ADV
-1.133359	NADJ PRON AUX
-1.916775	NADJ PRON CONJ
-2.167831	NADJ PRON DET
-3.319993	NADJ PRON DIG
-1.906309	NADJ PRON NADJ
-1.246257	NADJ PRON NOUN
-2.927499	NADJ PRON NUM
-1.450377	NADJ PRON PREP
-1.684461	NADJ PRON PRON
-1.279139	NADJ PRON PUNCT
-2.529559	NADJ PRON QUANT
-0.1729592	NADJ PRON VERB
-3.263107	NOUN PRON </s>
-2.335193	NOUN PRON ADJ
-1.456129	NOUN PRON ADV
-1.080088	NOUN PRON AUX
-2.314579	NOUN PRON CONJ
-2.300431	NOUN PRON DET
-3.347428	NOUN PRON DIG
-4.28399	NOUN PRON INTERJ
-4.192526	NOUN PRON MEAS
-2.326238	NOUN PRON NADJ
-1.542704	NOUN PRON NOUN
-3.263107	NOUN PRON NUM
-4.016434	NOUN PRON PART
-1.931263	NOUN PRON PREP
-1.784286	NOUN PRON PRON
-1.301825	NOUN PRON PUNCT
-2.372982	NOUN PRON QUANT
-0.1250456	NOUN PRON VERB
-2.414137	NUM PRON ADJ
-1.283804	NUM PRON ADV
-1.158865	NUM PRON AUX
-1.870069	NUM PRON CONJ
-2.414137	NUM PRON DET
-2.333819	NUM PRON NADJ
-1.511047	NUM PRON NOUN
-2.414137	NUM PRON PART
-1.673775	NUM PRON PREP
-1.238046	NUM PRON PRON
-1.183688	NUM PRON PUNCT
-2.238046	NUM PRON QUANT
-0.1786089	NUM PRON VERB
-1.835691	PART PRON ADJ
-1.835691	PART PRON ADV
-0.9062716	PART PRON AUX
-1.659599	PART PRON DET
-1.659599	PART PRON NADJ
-1.182478	PART PRON NOUN
-1.835691	PART PRON PREP
-1.835691	PART PRON PRON
-0.1544493	PART PRON VERB
-3.180986	PREP PRON </s>
-1.265801	PREP PRON ADJ
-1.481373	PREP PRON ADV
-2.192394	PREP PRON AUX
-1.452482	PREP PRON CONJ
-1.850422	PREP PRON DET
-2.122391	PREP PRON DIG
-4.231001	PREP PRON INTERJ
-3.357077	PREP PRON MEAS
-1.261327	PREP PRON NADJ
-0.4054965	PREP PRON NOUN
-2.065807	PREP PRON NUM
-2.799436	PREP PRON PART
-1.289304	PREP PRON PREP
-1.284582	PREP PRON PRON
-0.7186985	PREP PRON PUNCT
-2.038318	PREP PRON QUANT
-1.062733	PREP PRON VERB
-3.631088	PRON PRON </s>
-2.216115	PRON PRON ADJ
-1.408372	PRON PRON ADV
-0.9599156	PRON PRON AUX
-2.534178	PRON PRON CONJ
-2.233149	PRON PRON DET
-3.722553	PRON PRON DIG
-2.01304	PRON PRON NADJ
-1.28768	PRON PRON NOUN
-2.852937	PRON PRON NUM
-2.241922	PRON PRON PREP
-1.620365	PRON PRON PRON
-1.910929	PRON PRON PUNCT
-2.440757	PRON PRON QUANT
-0.1383979	PRON PRON VERB
-2.053376	PUNCT PRON ADJ
-1.212578	PUNCT PRON ADV
-0.9117286	PUNCT PRON AUX
-2.725724	PUNCT PRON CONJ
-2.076442	PUNCT PRON DET
-3.233228	PUNCT PRON DIG
-4.117835	PUNCT PRON INTERJ
-4.293926	PUNCT PRON MEAS
-1.921935	PUNCT PRON NADJ
-1.23285	PUNCT PRON NOUN
-2.887386	PUNCT PRON NUM
-3.749858	PUNCT PRON PART
-2.107817	PUNCT PRON PREP
-1.702305	PUNCT PRON PRON
-2.009495	PUNCT PRON PUNCT
-2.223888	PUNCT PRON QUANT
-0.1668696	PUNCT PRON VERB
-1.661954	QUANT PRON ADJ
-1.643855	QUANT PRON ADV
-0.7441018	QUANT PRON AUX
-1.721268	QUANT PRON CONJ
-2.430961	QUANT PRON DET
-3.033021	QUANT PRON DIG
-1.802572	QUANT PRON NADJ
-0.6316209	QUANT PRON NOUN
-1.495202	QUANT PRON PREP
-1.265866	QUANT PRON PRON
-1.237141	QUANT PRON PUNCT
-2.952703	QUANT PRON QUANT
-0.4498227	QUANT PRON VERB
-3.114579	VERB PRON </s>
-1.400946	VERB PRON ADJ
-1.005581	VERB PRON ADV
-1.520375	VERB PRON AUX
-1.467049	VERB PRON CONJ
-1.236687	VERB PRON DET
-2.165834	VERB PRON DIG
-3.583583	VERB PRON INTERJ
-3.537825	VERB PRON MEAS
-1.44792	VERB PRON NADJ
-0.7221813	VERB PRON NOUN
-2.097704	VERB PRON NUM
-3.090667	VERB PRON PART
-0.9038522	VERB PRON PREP
-1.365514	VERB PRON PRON
-0.9546266	VERB PRON PUNCT
-1.728266	VERB PRON QUANT
-0.7000791	VERB PRON VERB
-0.5852005	<s> PUNCT </s>
-1.806671	<s> PUNCT ADJ
-1.315107	<s> PUNCT ADV
-2.566339	<s> PUNCT AUX
-0.9932742	<s> PUNCT CONJ
-1.295272	<s> PUNCT DET
-1.929517	<s> PUNCT DIG
-2.499393	<s> PUNCT INTERJ
-1.753426	<s> PUNCT NADJ
-1.124382	<s> PUNCT NOUN
-2.469429	<s> PUNCT NUM
-1.54861	<s> PUNCT PREP
-0.991344	<s> PUNCT PRON
-0.6907957	<s> PUNCT PUNCT
-2.065737	<s> PUNCT QUANT
-1.172764	<s> PUNCT VERB
-0.2797618	ADJ PUNCT </s>
-1.194045	ADJ PUNCT ADJ
-1.31231	ADJ PUNCT ADV
-2.959478	ADJ PUNCT AUX
-0.8921527	ADJ PUNCT CONJ
-1.308744	ADJ PUNCT DET
-2.655807	ADJ PUNCT DIG
-3.831899	ADJ PUNCT INTERJ
-4.491943	ADJ PUNCT MEAS
-1.570312	ADJ PUNCT NADJ
-1.353332	ADJ PUNCT NOUN
-2.895568	ADJ PUNCT NUM
-1.811086	ADJ PUNCT PREP
-1.316748	ADJ PUNCT PRON
-1.921954	ADJ PUNCT PUNCT
-2.228853	ADJ PUNCT QUANT
-1.563023	ADJ PUNCT VERB
-0.2427513	ADV PUNCT </s>
-1.923728	ADV PUNCT ADJ
-1.358847	ADV PUNCT ADV
-2.849802	ADV PUNCT AUX
-1.075126	ADV PUNCT CONJ
-1.217359	ADV PUNCT DET
-2.663345	ADV PUNCT DIG
-3.326923	ADV PUNCT INTERJ
-2.118108	ADV PUNCT NADJ
-1.657243	ADV PUNCT NOUN
-2.616769	ADV PUNCT NUM
-1.675393	ADV PUNCT PREP
-0.9824456	ADV PUNCT PRON
-1.9019	ADV PUNCT PUNCT
-2.145826	ADV PUNCT QUANT
-1.330526	ADV PUNCT VERB
-0.2661716	AUX PUNCT </s>
-1.938269	AUX PUNCT ADJ
-1.426386	AUX PUNCT ADV
-2.2393	AUX PUNCT AUX
-1.160118	AUX PUNCT CONJ
-2.330764	AUX PUNCT DET
-1.394201	AUX PUNCT NADJ
-1.063208	AUX PUNCT NOUN
-1.540329	AUX PUNCT PREP
-1.261576	AUX PUNCT PRON
-1.586087	AUX PUNCT PUNCT
-1.093171	AUX PUNCT VERB
-0.832154	CONJ PUNCT </s>
-1.537198	CONJ PUNCT ADJ
-0.9701552	CONJ PUNCT ADV
-0.9444116	CONJ PUNCT CONJ
-1.010059	CONJ PUNCT DET
-2.008245	CONJ PUNCT DIG
-2.046034	CONJ PUNCT INTERJ
-1.448937	CONJ PUNCT NADJ
-0.9619452	CONJ PUNCT NOUN
-2.786397	CONJ PUNCT NUM
-1.123639	CONJ PUNCT PREP
-0.733318	CONJ PUNCT PRON
-2.184336	CONJ PUNCT PUNCT
-1.707215	CONJ PUNCT QUANT
-1.271185	CONJ PUNCT VERB
-1.483825	DET PUNCT </s>
-0.9117281	DET PUNCT ADJ
-1.416878	DET PUNCT ADV
-1.847003	DET PUNCT CONJ
-2.579598	DET PUNCT DET
-1.261976	DET PUNCT DIG
-0.9741744	DET PUNCT NADJ
-0.3732352	DET PUNCT NOUN
-2.751381	DET PUNCT NUM
-1.513788	DET PUNCT PREP
-1.705674	DET PUNCT PRON
-1.455796	DET PUNCT PUNCT
-1.756826	DET PUNCT QUANT
-1.031527	DET PUNCT VERB
-0.4655665	DIG PUNCT </s>
-2.368958	DIG PUNCT ADJ
-1.653419	DIG PUNCT ADV
-2.811317	DIG PUNCT AUX
-1.245833	DIG PUNCT CONJ
-1.590807	DIG PUNCT DET
-0.6592641	DIG PUNCT DIG
-3.715695	DIG PUNCT INTERJ
-2.846079	DIG PUNCT MEAS
-1.831839	DIG PUNCT NADJ
-0.8307894	DIG PUNCT NOUN
-2.721141	DIG PUNCT NUM
-1.611393	DIG PUNCT PREP
-1.235952	DIG PUNCT PRON
-1.358234	DIG PUNCT PUNCT
-2.192867	DIG PUNCT QUANT
-1.539654	DIG PUNCT VERB
-0.4051851	INTERJ PUNCT </s>
-2.0086	INTERJ PUNCT ADJ
-1.278222	INTERJ PUNCT ADV
-2.367622	INTERJ PUNCT AUX
-0.8566943	INTERJ PUNCT CONJ
-1.191531	INTERJ PUNCT DET
-2.098777	INTERJ PUNCT DIG
-2.171327	INTERJ PUNCT INTERJ
-2.0086	INTERJ PUNCT NADJ
-1.288441	INTERJ PUNCT NOUN
-2.61066	INTERJ PUNCT NUM
-1.890501	INTERJ PUNCT PREP
-0.7563541	INTERJ PUNCT PRON
-1.694206	INTERJ PUNCT PUNCT
-2.066592	INTERJ PUNCT QUANT
-1.393176	INTERJ PUNCT VERB
-0.2745776	MEAS PUNCT </s>
-1.934622	MEAS PUNCT ADV
-1.139879	MEAS PUNCT CONJ
-1.934622	MEAS PUNCT DET
-1.71391	MEAS PUNCT MEAS
-1.71391	MEAS PUNCT NADJ
-0.8688123	MEAS PUNCT NOUN
-1.934622	MEAS PUNCT PREP
-1.274578	MEAS PUNCT PRON
-1.169842	MEAS PUNCT PUNCT
-1.934622	MEAS PUNCT VERB
-0.3121571	NADJ PUNCT </s>
-1.344322	NADJ PUNCT ADJ
-1.377676	NADJ PUNCT ADV
-3.043726	NADJ PUNCT AUX
-0.9445632	NADJ PUNCT CONJ
-1.337221	NADJ PUNCT DET
-2.4726	NADJ PUNCT DIG
-3.303363	NADJ PUNCT INTERJ
-3.742696	NADJ PUNCT MEAS
-1.32814	NADJ PUNCT NADJ
-1.136314	NADJ PUNCT NOUN
-2.905423	NADJ PUNCT NUM
-1.800688	NADJ PUNCT PREP
-1.260179	NADJ PUNCT PRON
-1.78009	NADJ PUNCT PUNCT
-2.186393	NADJ PUNCT QUANT
-1.339575	NADJ PUNCT VERB
-0.2723701	NOUN PUNCT </s>
-1.590033	NOUN PUNCT ADJ
-1.448343	NOUN PUNCT ADV
-2.911273	NOUN PUNCT AUX
-1.036126	NOUN PUNCT CONJ
-1.446312	NOUN PUNCT DET
-2.234174	NOUN PUNCT DIG
-3.194677	NOUN PUNCT INTERJ
-4.042249	NOUN PUNCT MEAS
-1.630091	NOUN PUNCT NADJ
-1.089167	NOUN PUNCT NOUN
-2.626608	NOUN PUNCT NUM
-1.645911	NOUN PUNCT PREP
-1.150913	NOUN PUNCT PRON
-1.749993	NOUN PUNCT PUNCT
-2.13613	NOUN PUNCT QUANT
-1.362494	NOUN PUNCT VERB
-0.3188119	NUM PUNCT </s>
-2.196537	NUM PUNCT ADJ
-1.554606	NUM PUNCT ADV
-2.929133	NUM PUNCT AUX
-1.062508	NUM PUNCT CONJ
-1.361091	NUM PUNCT DET
-2.196537	NUM PUNCT DIG
-1.912541	NUM PUNCT NADJ
-0.9230911	NUM PUNCT NOUN
-1.895508	NUM PUNCT NUM
-1.459223	NUM PUNCT PREP
-1.082594	NUM PUNCT PRON
-1.677012	NUM PUNCT PUNCT
-1.988262	NUM PUNCT QUANT
-1.273054	NUM PUNCT VERB
-0.2284589	PART PUNCT </s>
-2.309896	PART PUNCT ADJ
-1.472623	PART PUNCT ADV
-2.911956	PART PUNCT AUX
-1.123081	PART PUNCT CONJ
-1.52279	PART PUNCT DET
-2.258744	PART PUNCT DIG
-2.911956	PART PUNCT INTERJ
-1.798013	PART PUNCT NADJ
-1.036895	PART PUNCT NOUN
-3.003421	PART PUNCT NUM
-1.721624	PART PUNCT PREP
-1.119565	PART PUNCT PRON
-1.721624	PART PUNCT PUNCT
-2.309896	PART PUNCT QUANT
-1.579518	PART PUNCT VERB
-0.2615883	PREP PUNCT </s>
-1.669915	PREP PUNCT ADJ
-1.537435	PREP PUNCT ADV
-1.101638	PREP PUNCT CONJ
-1.225333	PREP PUNCT DET
-2.166844	PREP PUNCT DIG
-3.020716	PREP PUNCT INTERJ
-1.656299	PREP PUNCT NADJ
-1.04627	PREP PUNCT NOUN
-2.587061	PREP PUNCT NUM
-1.888091	PREP PUNCT PREP
-1.188207	PREP PUNCT PRON
-1.775909	PREP PUNCT PUNCT
-2.141539	PREP PUNCT QUANT
-1.406422	PREP PUNCT VERB
-0.1605332	PRON PUNCT </s>
-2.1406	PRON PUNCT ADJ
-1.510087	PRON PUNCT ADV
-2.767483	PRON PUNCT AUX
-1.151286	PRON PUNCT CONJ
-1.614117	PRON PUNCT DET
-2.591392	PRON PUNCT DIG
-3.25757	PRON PUNCT INTERJ
-3.997932	PRON PUNCT MEAS
-2.171857	PRON PUNCT NADJ
-1.637149	PRON PUNCT NOUN
-2.883989	PRON PUNCT NUM
-1.799275	PRON PUNCT PREP
-1.127821	PRON PUNCT PRON
-1.764936	PRON PUNCT PUNCT
-2.335174	PRON PUNCT QUANT
-1.557023	PRON PUNCT VERB
-0.2313608	PUNCT PUNCT </s>
-1.816348	PUNCT PUNCT ADJ
-1.630103	PUNCT PUNCT ADV
-3.40462	PUNCT PUNCT AUX
-0.900489	PUNCT PUNCT CONJ
-1.280768	PUNCT PUNCT DET
-2.109053	PUNCT PUNCT DIG
-2.965287	PUNCT PUNCT INTERJ
-3.529559	PUNCT PUNCT MEAS
-1.734838	PUNCT PUNCT NADJ
-1.310324	PUNCT PUNCT NOUN
-2.559522	PUNCT PUNCT NUM
-1.851344	PUNCT PUNCT PREP
-1.237303	PUNCT PUNCT PRON
-1.799854	PUNCT PUNCT PUNCT
-2.235828	PUNCT PUNCT QUANT
-1.643068	PUNCT PUNCT VERB
-0.2474613	QUANT PUNCT </s>
-1.887284	QUANT PUNCT ADJ
-1.478471	QUANT PUNCT ADV
-3.357194	QUANT PUNCT AUX
-1.130017	QUANT PUNCT CONJ
-1.181036	QUANT PUNCT DET
-2.738543	QUANT PUNCT DIG
-1.87522	QUANT PUNCT NADJ
-1.320241	QUANT PUNCT NOUN
-2.437513	QUANT PUNCT NUM
-1.747317	QUANT PUNCT PREP
-0.9926875	QUANT PUNCT PRON
-1.717353	QUANT PUNCT PUNCT
-1.819465	QUANT PUNCT QUANT
-1.57419	QUANT PUNCT VERB
-0.2058305	VERB PUNCT </s>
-1.721767	VERB PUNCT ADJ
-1.387601	VERB PUNCT ADV
-2.954807	VERB PUNCT AUX
-1.04988	VERB PUNCT CONJ
-1.460605	VERB PUNCT DET
-2.485109	VERB PUNCT DIG
-2.993265	VERB PUNCT INTERJ
-4.424629	VERB PUNCT MEAS
-1.898289	VERB PUNCT NADJ
-1.494699	VERB PUNCT NOUN
-2.844845	VERB PUNCT NUM
-1.694654	VERB PUNCT PREP
-1.163961	VERB PUNCT PRON
-1.803972	VERB PUNCT PUNCT
-2.234297	VERB PUNCT QUANT
-1.495977	VERB PUNCT VERB
-1.287213	<s> QUANT ADJ
-1.695512	<s> QUANT ADV
-2.379759	<s> QUANT AUX
-2.004095	<s> QUANT CONJ
-1.174509	<s> QUANT DET
-2.379759	<s> QUANT DIG
-3.45894	<s> QUANT MEAS
-1.45894	<s> QUANT NADJ
-0.4134213	<s> QUANT NOUN
-1.511997	<s> QUANT NUM
-0.6197762	<s> QUANT PREP
-1.319061	<s> QUANT PRON
-1.620091	<s> QUANT PUNCT
-2.116517	<s> QUANT QUANT
-1.146128	<s> QUANT VERB
-1.066751	ADJ QUANT ADJ
-1.693434	ADJ QUANT ADV
-1.430192	ADJ QUANT CONJ
-1.422367	ADJ QUANT DET
-2.869525	ADJ QUANT DIG
-1.422367	ADJ QUANT NADJ
-0.6429251	ADJ QUANT NOUN
-2.170555	ADJ QUANT NUM
-0.4537173	ADJ QUANT PREP
-1.480359	ADJ QUANT PRON
-0.9104837	ADJ QUANT PUNCT
-1.994464	ADJ QUANT QUANT
-1.568495	ADJ QUANT VERB
-0.8708634	ADV QUANT ADJ
-1.495246	ADV QUANT ADV
-2.665874	ADV QUANT AUX
-1.418208	ADV QUANT CONJ
-1.515886	ADV QUANT DET
-2.472054	ADV QUANT DIG
-3.267934	ADV QUANT MEAS
-1.278929	ADV QUANT NADJ
-0.3766754	ADV QUANT NOUN
-2.226541	ADV QUANT NUM
-0.9038523	ADV QUANT PREP
-1.498926	ADV QUANT PRON
-1.100617	ADV QUANT PUNCT
-1.783634	ADV QUANT QUANT
-1.560364	ADV QUANT VERB
-1.770852	AUX QUANT ADJ
-0.4186695	AUX QUANT ADV
-1.469822	AUX QUANT CONJ
-1.690534	AUX QUANT NADJ
-0.925754	AUX QUANT NOUN
-1.594761	AUX QUANT PREP
-0.4384136	AUX QUANT VERB
-0.912071	CONJ QUANT ADJ
-1.415682	CONJ QUANT ADV
-2.139958	CONJ QUANT AUX
-1.77823	CONJ QUANT CONJ
-1.27367	CONJ QUANT DET
-2.628074	CONJ QUANT DIG
-3.264896	CONJ QUANT MEAS
-1.320414	CONJ QUANT NADJ
-0.4997248	CONJ QUANT NOUN
-1.401574	CONJ QUANT NUM
-0.7543515	CONJ QUANT PREP
-1.382182	CONJ QUANT PRON
-1.196711	CONJ QUANT PUNCT
-1.956688	CONJ QUANT QUANT
-1.201688	CONJ QUANT VERB
-0.3204798	DET QUANT ADJ
-1.248313	DET QUANT ADV
-2.66457	DET QUANT AUX
-1.939664	DET QUANT CONJ
-1.986121	DET QUANT DET
-3.477483	DET QUANT DIG
-3.176453	DET QUANT MEAS
-0.9635998	DET QUANT NADJ
-0.9889323	DET QUANT NOUN
-3.397165	DET QUANT NUM
-1.285753	DET QUANT PREP
-1.838994	DET QUANT PRON
-1.289962	DET QUANT PUNCT
-1.366893	DET QUANT QUANT
-1.169987	DET QUANT VERB
-2.068901	DIG QUANT ADJ
-2.068901	DIG QUANT ADV
-1.088521	DIG QUANT CONJ
-1.848189	DIG QUANT DET
-0.5694355	DIG QUANT NOUN
-0.9588874	DIG QUANT PREP
-1.246129	DIG QUANT PRON
-0.4088564	DIG QUANT PUNCT
-2.240684	DIG QUANT VERB
-0.7781513	INTERJ QUANT ADJ
-0.9542425	INTERJ QUANT DET
-0.7781513	INTERJ QUANT NOUN
-0.9542425	INTERJ QUANT NUM
-0.9542425	INTERJ QUANT PRON
-0.7781513	INTERJ QUANT PUNCT
-0.697833	MEAS QUANT MEAS
-0.7781513	MEAS QUANT PREP
-0.7781513	MEAS QUANT PUNCT
-1.015854	NADJ QUANT ADJ
-1.703829	NADJ QUANT ADV
-1.389435	NADJ QUANT CONJ
-1.402799	NADJ QUANT DET
-2.430827	NADJ QUANT DIG
-1.510008	NADJ QUANT NADJ
-0.4068893	NADJ QUANT NOUN
-2.06285	NADJ QUANT NUM
-0.6069185	NADJ QUANT PREP
-1.6775	NADJ QUANT PRON
-1.152074	NADJ QUANT PUNCT
-2.698383	NADJ QUANT QUANT
-1.6775	NADJ QUANT VERB
-1.226619	NOUN QUANT ADJ
-1.331158	NOUN QUANT ADV
-3.228785	NOUN QUANT AUX
-1.205533	NOUN QUANT CONJ
-1.543043	NOUN QUANT DET
-2.207596	NOUN QUANT DIG
-1.70374	NOUN QUANT NADJ
-0.3058004	NOUN QUANT NOUN
-2.024665	NOUN QUANT NUM
-0.8983714	NOUN QUANT PREP
-1.737424	NOUN QUANT PRON
-1.272137	NOUN QUANT PUNCT
-1.697306	NOUN QUANT QUANT
-1.274543	NOUN QUANT VERB
-0.9590414	NUM QUANT ADJ
-1.48192	NUM QUANT ADV
-1.658011	NUM QUANT CONJ
-1.658011	NUM QUANT NADJ
-0.2186787	NUM QUANT NOUN
-1.48192	NUM QUANT PREP
-1.658011	NUM QUANT PRON
-1.055951	NUM QUANT PUNCT
-1.658011	NUM QUANT QUANT
-1.658011	NUM QUANT VERB
-0.691546	PART QUANT ADJ
-1.462398	PART QUANT ADV
-2.08105	PART QUANT CONJ
-1.207126	PART QUANT NADJ
-0.2243519	PART QUANT NOUN
-1.559308	PART QUANT PREP
-1.6173	PART QUANT PUNCT
-1.6173	PART QUANT VERB
-3.116215	PREP QUANT </s>
-1.014281	PREP QUANT ADJ
-1.4526	PREP QUANT ADV
-3.555548	PREP QUANT AUX
-1.461251	PREP QUANT CONJ
-1.08868	PREP QUANT DET
-1.574409	PREP QUANT DIG
-3.254518	PREP QUANT MEAS
-1.274514	PREP QUANT NADJ
-0.4586379	PREP QUANT NOUN
-2.037034	PREP QUANT NUM
-0.977482	PREP QUANT PREP
-1.38897	PREP QUANT PRON
-0.8531173	PREP QUANT PUNCT
-2.067703	PREP QUANT QUANT
-1.734362	PREP QUANT VERB
-3.207096	PRON QUANT </s>
-1.008438	PRON QUANT ADJ
-1.224824	PRON QUANT ADV
-1.638894	PRON QUANT AUX
-1.309469	PRON QUANT CONJ
-1.51249	PRON QUANT DET
-3.126777	PRON QUANT DIG
-1.387552	PRON QUANT NADJ
-0.7797717	PRON QUANT NOUN
-2.428944	PRON QUANT NUM
-1.202774	PRON QUANT PREP
-2.031004	PRON QUANT PRON
-0.8568475	PRON QUANT PUNCT
-2.165703	PRON QUANT QUANT
-0.5107391	PRON QUANT VERB
-0.9385599	PUNCT QUANT ADJ
-1.465986	PUNCT QUANT ADV
-2.589838	PUNCT QUANT AUX
-1.811687	PUNCT QUANT CONJ
-1.489467	PUNCT QUANT DET
-2.22811	PUNCT QUANT DIG
-1.273868	PUNCT QUANT NADJ
-0.4251877	PUNCT QUANT NOUN
-1.521652	PUNCT QUANT NUM
-0.757329	PUNCT QUANT PREP
-1.61671	PUNCT QUANT PRON
-1.413747	PUNCT QUANT PUNCT
-1.873835	PUNCT QUANT QUANT
-1.07529	PUNCT QUANT VERB
-0.6472325	QUANT QUANT ADJ
-1.494004	QUANT QUANT ADV
-2.761176	QUANT QUANT AUX
-0.9318721	QUANT QUANT CONJ
-1.681995	QUANT QUANT DET
-2.761176	QUANT QUANT DIG
-1.217108	QUANT QUANT NADJ
-0.5750675	QUANT QUANT NOUN
-1.117723	QUANT QUANT PREP
-2.460146	QUANT QUANT PRON
-0.8216566	QUANT QUANT PUNCT
-2.020813	QUANT QUANT QUANT
-1.494004	QUANT QUANT VERB
-3.806022	VERB QUANT </s>
-0.7680642	VERB QUANT ADJ
-1.37039	VERB QUANT ADV
-3.901795	VERB QUANT AUX
-1.285756	VERB QUANT CONJ
-1.316063	VERB QUANT DET
-2.659894	VERB QUANT DIG
-3.982113	VERB QUANT INTERJ
-3.203962	VERB QUANT MEAS
-1.180024	VERB QUANT NADJ
-0.4716349	VERB QUANT NOUN
-2.24175	VERB QUANT NUM
-0.8051539	VERB QUANT PREP
-1.614757	VERB QUANT PRON
-1.405771	VERB QUANT PUNCT
-1.717295	VERB QUANT QUANT
-1.460321	VERB QUANT VERB
-3.030532	<s> VERB </s>
-1.477594	<s> VERB ADJ
-0.8601075	<s> VERB ADV
-3.984775	<s> VERB AUX
-1.751779	<s> VERB CONJ
-0.7199569	<s> VERB DET
-2.326763	<s> VERB DIG
-3.440707	<s> VERB INTERJ
-1.794443	<s> VERB NADJ
-1.222096	<s> VERB NOUN
-2.446956	<s> VERB NUM
-0.7347209	<s> VERB PREP
-0.8441097	<s> VERB PRON
-1.299481	<s> VERB PUNCT
-1.815983	<s> VERB QUANT
-0.8482127	<s> VERB VERB
-1.413568	ADJ VERB ADJ
-1.047966	ADJ VERB ADV
-3.053719	ADJ VERB AUX
-1.287802	ADJ VERB CONJ
-1.050833	ADJ VERB DET
-2.685742	ADJ VERB DIG
-1.518003	ADJ VERB NADJ
-1.09787	ADJ VERB NOUN
-2.53084	ADJ VERB NUM
-0.6765338	ADJ VERB PREP
-1.240805	ADJ VERB PRON
-0.9342427	ADJ VERB PUNCT
-1.849599	ADJ VERB QUANT
-0.6645525	ADJ VERB VERB
-2.944629	ADV VERB </s>
-1.347972	ADV VERB ADJ
-0.9103224	ADV VERB ADV
-4.058572	ADV VERB AUX
-1.304661	ADV VERB CONJ
-0.8180588	ADV VERB DET
-2.168871	ADV VERB DIG
-3.624917	ADV VERB INTERJ
-3.862278	ADV VERB MEAS
-1.632061	ADV VERB NADJ
-1.277227	ADV VERB NOUN
-2.127696	ADV VERB NUM
-4.602641	ADV VERB PART
-0.7651783	ADV VERB PREP
-0.9400715	ADV VERB PRON
-0.8066215	ADV VERB PUNCT
-1.427709	ADV VERB QUANT
-1.232127	ADV VERB VERB
-3.355493	AUX VERB </s>
-1.202767	AUX VERB ADJ
-0.8907476	AUX VERB ADV
-3.501621	AUX VERB AUX
-1.518445	AUX VERB CONJ
-0.8193852	AUX VERB DET
-2.225159	AUX VERB DIG
-3.547378	AUX VERB INTERJ
-4.292056	AUX VERB MEAS
-1.49816	AUX VERB NADJ
-1.39509	AUX VERB NOUN
-2.300224	AUX VERB NUM
-0.8157893	AUX VERB PREP
-0.8381081	AUX VERB PRON
-1.319491	AUX VERB PUNCT
-1.386676	AUX VERB QUANT
-0.8078936	AUX VERB VERB
-3.5883	CONJ VERB </s>
-1.314142	CONJ VERB ADJ
-0.8164368	CONJ VERB ADV
-3.88933	CONJ VERB AUX
-1.530444	CONJ VERB CONJ
-0.7793296	CONJ VERB DET
-2.419508	CONJ VERB DIG
-3.5883	CONJ VERB INTERJ
-1.620401	CONJ VERB NADJ
-1.476869	CONJ VERB NOUN
-2.336054	CONJ VERB NUM
-0.7752194	CONJ VERB PREP
-0.8222589	CONJ VERB PRON
-1.15413	CONJ VERB PUNCT
-1.473522	CONJ VERB QUANT
-0.9406723	CONJ VERB VERB
-0.659638	DET VERB ADJ
-1.197788	DET VERB ADV
-3.175512	DET VERB AUX
-1.652633	DET VERB CONJ
-1.999421	DET VERB DET
-3.351603	DET VERB DIG
-1.274235	DET VERB NADJ
-1.080924	DET VERB NOUN
-3.351603	DET VERB NUM
-0.5543355	DET VERB PREP
-1.980535	DET VERB PRON
-1.113557	DET VERB PUNCT
-1.387815	DET VERB QUANT
-0.8553655	DET VERB VERB
-1.046425	DIG VERB ADJ
-0.750999	DIG VERB ADV
-1.984277	DIG VERB CONJ
-0.7712024	DIG VERB DET
-1.762429	DIG VERB DIG
-2.63749	DIG VERB MEAS
-1.420006	DIG VERB NADJ
-1.23955	DIG VERB NOUN
-1.897127	DIG VERB NUM
-0.7566761	DIG VERB PREP
-1.248324	DIG VERB PRON
-1.167668	DIG VERB PUNCT
-1.461398	DIG VERB QUANT
-1.052029	DIG VERB VERB
-1.883856	INTERJ VERB ADJ
-1.01424	INTERJ VERB ADV
-0.7712024	INTERJ VERB DET
-1.491362	INTERJ VERB NADJ
-1.6163	INTERJ VERB NOUN
-0.9794784	INTERJ VERB PREP
-0.6784483	INTERJ VERB PRON
-0.9173304	INTERJ VERB PUNCT
-1.248324	INTERJ VERB QUANT
-0.9794784	INTERJ VERB VERB
-1.531479	MEAS VERB ADJ
-0.7185656	MEAS VERB ADV
-1.531479	MEAS VERB CONJ
-0.7185656	MEAS VERB DET
-0.7911162	MEAS VERB MEAS
-1.531479	MEAS VERB NADJ
-1.355388	MEAS VERB NOUN
-1.622944	MEAS VERB PREP
-1.230449	MEAS VERB PRON
-0.9874108	MEAS VERB PUNCT
-1.451161	MEAS VERB VERB
-3.48761	NADJ VERB </s>
-0.8100027	NADJ VERB ADJ
-0.77496	NADJ VERB ADV
-1.523822	NADJ VERB CONJ
-0.8980324	NADJ VERB DET
-2.459581	NADJ VERB DIG
-3.663701	NADJ VERB INTERJ
-3.362671	NADJ VERB MEAS
-1.104992	NADJ VERB NADJ
-1.348781	NADJ VERB NOUN
-2.232337	NADJ VERB NUM
-3.48761	NADJ VERB PART
-0.8578604	NADJ VERB PREP
-1.303865	NADJ VERB PRON
-1.094913	NADJ VERB PUNCT
-1.726685	NADJ VERB QUANT
-1.00331	NADJ VERB VERB
-3.731318	NOUN VERB </s>
-0.6841464	NOUN VERB ADJ
-0.666348	NOUN VERB ADV
-3.810499	NOUN VERB AUX
-1.749952	NOUN VERB CONJ
-0.9571655	NOUN VERB DET
-2.345711	NOUN VERB DIG
-3.703289	NOUN VERB INTERJ
-3.886219	NOUN VERB MEAS
-0.9810662	NOUN VERB NADJ
-1.437955	NOUN VERB NOUN
-2.233007	NOUN VERB NUM
-4.004319	NOUN VERB PART
-1.006032	NOUN VERB PREP
-1.245738	NOUN VERB PRON
-1.547668	NOUN VERB PUNCT
-1.643536	NOUN VERB QUANT
-1.042068	NOUN VERB VERB
-1.182478	NUM VERB ADJ
-0.8787755	NUM VERB ADV
-1.599601	NUM VERB CONJ
-1.04564	NUM VERB DET
-1.97702	NUM VERB DIG
-1.511179	NUM VERB NADJ
-1.04957	NUM VERB NOUN
-2.709615	NUM VERB NUM
-0.6878425	NUM VERB PREP
-1.065657	NUM VERB PRON
-0.9671114	NUM VERB PUNCT
-1.628565	NUM VERB QUANT
-0.892306	NUM VERB VERB
-0.9948763	PART VERB ADJ
-0.7927716	PART VERB ADV
-2.903361	PART VERB AUX
-1.773028	PART VERB CONJ
-0.5811421	PART VERB DET
-2.994826	PART VERB DIG
-1.155173	PART VERB NADJ
-1.093802	PART VERB NOUN
-1.660323	PART VERB NUM
-1.132509	PART VERB PREP
-1.235908	PART VERB PRON
-1.371882	PART VERB PUNCT
-1.699241	PART VERB QUANT
-1.064512	PART VERB VERB
-3.297296	PREP VERB </s>
-1.435961	PREP VERB ADJ
-0.912883	PREP VERB ADV
-3.701867	PREP VERB AUX
-1.328672	PREP VERB CONJ
-0.7613886	PREP VERB DET
-2.034773	PREP VERB DIG
-3.585361	PREP VERB INTERJ
-3.669682	PREP VERB MEAS
-1.696884	PREP VERB NADJ
-1.133936	PREP VERB NOUN
-2.212666	PREP VERB NUM
-3.493591	PREP VERB PART
-0.7733921	PREP VERB PREP
-0.8121772	PREP VERB PRON
-0.9737628	PREP VERB PUNCT
-1.553122	PREP VERB QUANT
-1.269638	PREP VERB VERB
-3.789657	PRON VERB </s>
-1.183909	PRON VERB ADJ
-0.7471861	PRON VERB ADV
-3.268058	PRON VERB AUX
-1.703298	PRON VERB CONJ
-0.7952626	PRON VERB DET
-2.129965	PRON VERB DIG
-3.844015	PRON VERB INTERJ
-3.829775	PRON VERB MEAS
-1.411527	PRON VERB NADJ
-1.339635	PRON VERB NOUN
-2.060588	PRON VERB NUM
-4.065864	PRON VERB PART
-0.859878	PRON VERB PREP
-1.048459	PRON VERB PRON
-1.412276	PRON VERB PUNCT
-1.624169	PRON VERB QUANT
-0.7356079	PRON VERB VERB
-3.501822	PUNCT VERB </s>
-1.184953	PUNCT VERB ADJ
-0.9540472	PUNCT VERB ADV
-1.45205	PUNCT VERB CONJ
-0.9011601	PUNCT VERB DET
-2.282462	PUNCT VERB DIG
-3.34692	PUNCT VERB INTERJ
-3.869799	PUNCT VERB MEAS
-1.357915	PUNCT VERB NADJ
-0.7538555	PUNCT VERB NOUN
-2.373792	PUNCT VERB NUM
-3.869799	PUNCT VERB PART
-0.8083462	PUNCT VERB PREP
-1.01006	PUNCT VERB PRON
-1.058224	PUNCT VERB PUNCT
-1.724706	PUNCT VERB QUANT
-1.139555	PUNCT VERB VERB
-1.061523	QUANT VERB ADJ
-0.9128698	QUANT VERB ADV
-1.315784	QUANT VERB CONJ
-0.8709053	QUANT VERB DET
-2.420726	QUANT VERB DIG
-1.460096	QUANT VERB NADJ
-1.260357	QUANT VERB NOUN
-2.341544	QUANT VERB NUM
-0.6964498	QUANT VERB PREP
-0.932175	QUANT VERB PRON
-0.9201233	QUANT VERB PUNCT
-1.889247	QUANT VERB QUANT
-1.231329	QUANT VERB VERB
-3.155991	VERB VERB </s>
-1.407803	VERB VERB ADJ
-0.8357353	VERB VERB ADV
-3.513926	VERB VERB AUX
-1.239122	VERB VERB CONJ
-1.041755	VERB VERB DET
-2.317473	VERB VERB DIG
-3.589647	VERB VERB INTERJ
-4.702301	VERB VERB MEAS
-1.750498	VERB VERB NADJ
-1.373921	VERB VERB NOUN
-2.421907	VERB VERB NUM
-4.434744	VERB VERB PART
-0.5363302	VERB VERB PREP
-1.122708	VERB VERB PRON
-0.8262185	VERB VERB PUNCT
-1.587995	VERB VERB QUANT
-1.258364	VERB VERB VERB

\end\
