solver_type L2R_LR
nr_class 2
label 2 0
nr_feature 6081
bias 1
w
-0.04537033649123226 
-0.08761958126122844 
1.255958408584124 
0.01081649495231333 
-0.6453233471379042 
-0.1031832173872225 
0.3637616496183242 
-1.452213946568083 
0.1817317214677751 
-0.2298523093092365 
-0.621339383578401 
-0.4871861294532898 
-1.452213946568083 
1.210741786064682 
-1.452213946568083 
-0.9127691135670319 
-0.3171220164752559 
-0.3895472711814852 
-0.2987204445590377 
-0.1412732090948548 
-0.2449080039649792 
-0.01427066290854241 
0.0615455328496535 
-0.1237250474243532 
-0.1005413523664187 
-0.09287694386636873 
0.1230768511155717 
-0.08826068298739966 
-0.01155356489662624 
-0.2791209744387652 
-0.3293190259966175 
-0.03328605112565355 
-0.2863718014744713 
0.07975222683546722 
-0.03048892311996486 
-0.5708861132374082 
0.1401681467478867 
-0.1042604872907834 
0.3346053043337873 
-0.003995665187497267 
0.4293588360301142 
-0.1285855878418839 
-0.2001371436363952 
-0.2555309826691036 
-0.2570661219846396 
-0.2237816968405649 
-0.01172411341248449 
-0.04283115532583526 
-0.004990354762415282 
-0.1162072233555114 
-0.1455157808401274 
-0.1876030283536916 
-0.5057028238378611 
-0.05332556494475769 
0.2971828551986418 
0.08591606824982437 
0.2971828551986418 
-0.0627926111373437 
-0.01839241304646999 
-0.02001818768530269 
-0.02735896877997933 
-0.003027989045647036 
-0.0009375002737418796 
0.2590979449834919 
-0.1480655038797543 
-0.003059546857661589 
-0.03519286664151629 
-0.4029194396859235 
-0.4029194396859235 
-0.03306845493510813 
-0.0005651363910781681 
0.1983450090080369 
-0.1838511211816965 
0.01067388111701042 
0.1528956282548834 
-0.0005905231612562009 
-0.1065400758646 
-0.09182684598570645 
-0.005490308943605925 
-0.00853830359803414 
-0.013958128615098 
-0.0184528179319151 
-0.01382576024966588 
0.02783278257155514 
-0.007007617754948108 
-0.01523445562226572 
-0.6674755573582687 
-0.01337190183777537 
-0.02043284782158131 
-0.02610772915452158 
0.2147724928788345 
-0.1398061202659948 
-0.0191522158622998 
-0.004032472308740976 
-0.1166494304764821 
-0.001912337497374414 
-0.06951175884120604 
-0.0113031771536917 
0.0251311217776065 
-0.003692905165951885 
-0.07525964162923221 
-0.03797375153500658 
-0.03754003733343356 
-0.3703707317819228 
-0.03768382937041095 
-0.03578089958460927 
0.0452852518384797 
-0.2004486018442026 
-0.02316092372130076 
-0.001528837611341993 
-0.0220187394510356 
-0.06951729203937979 
-0.09891834034718308 
-0.2672229792381339 
-0.05563215858741698 
-0.002994552364435226 
0.08459745110420652 
-0.01161133266142149 
-0.03232907993882715 
-0.000245828433305309 
-0.0767412993159409 
-0.0004720264482541399 
-0.374393355138005 
-0.04457393693732799 
0 
-0.6558123496409282 
-0.04648667264733251 
-0.0004641810205378843 
-0.001157705688814882 
-0.07812651262438151 
0.1349941397477235 
-0.1949940399439205 
-0.1284546866269653 
-0.0641872671810165 
-0.0004869430873347452 
-0.002942550226185853 
0.3477113219943982 
-0.009334735135143083 
-0.0004641810205378843 
-0.0003738139746905131 
-0.04025815467090418 
-0.1532816296259123 
0.07395985150576326 
-0.01215175077261406 
-0.000466551064707789 
-0.03751390863471946 
-0.1712632239206129 
-0.003164155344892471 
0.2001654771542865 
-0.05377918760727746 
-0.02713628651623336 
0.007745206858844941 
-0.07874530450839992 
-0.06065951285468867 
-0.01457206705254673 
-0.03908020483293968 
-0.05049300963982022 
-0.03968211362750793 
-0.008611100665728757 
0.0995244264472465 
0.04877754033017078 
0.2142385208926506 
0.07764637611837999 
-0.001468855071750382 
-0.02480357865489468 
-0.07503625430451791 
-0.04072930405028111 
-0.1004249714503774 
-0.01121085515834418 
-0.06011401314932167 
-0.02215284262454051 
0.001993352416009359 
-0.04544927967764778 
0.01397710627384652 
-0.01889822173126464 
-0.4158454124159524 
-0.04692231567009113 
-0.02325147737003938 
-0.005663334139985973 
-0.01691421047132855 
-0.01423420818151103 
-0.05049767324086703 
-0.01288477110242538 
-0.0005673339408816046 
-0.05335719060455292 
-0.02663836021408991 
-0.09970893394289354 
0.001617868607573444 
4.344252945364936 
0.4469257638599851 
0.4895949858718772 
0.4161360998525436 
1.36127895730002 
0.1795760551043488 
0.3972091373452491 
0.04567520560748903 
2.32177352429432 
0.149004661292222 
0.7305207540208621 
0.001859151059982434 
1.668912556204575 
0.6379752847901196 
-0.03323136989407021 
-0.06717391209046618 
-0.0009378726579602196 
0.1640274517720214 
0.1431631543374859 
0.1692183747487464 
-0.005869852566917589 
-0.07556785195081811 
-0.02476639596235887 
0.2491360205545874 
-0.006022835025733798 
-0.001977118561239031 
-0.02798988873660957 
-0.02174182500046828 
-0.004515407353292617 
0.01615160699218026 
-0.008297103599786011 
-0.002030835479177716 
-0.008694491083398453 
-0.05245364839823887 
-0.003803667483087555 
-0.02212921436074216 
-0.009395137641746166 
-0.1537328782240489 
-0.05046817520296045 
-0.1723032712370964 
-0.007129200941540989 
-0.00429503752943981 
-0.040218681479374 
0.0354772039365573 
0.1103412946795601 
-0.1093288535584893 
0.04926785026246751 
-0.1163686991990948 
0.02315747930968728 
0.03341930876465935 
0.01718553002345364 
0.01843294506521586 
0.1533438150026653 
0.04032994454725083 
0.1253332848011763 
0.221202681972873 
0.2248309816622091 
0.1437517498794041 
-0.001140379433128497 
-0.01247385170718787 
-0.000775687259533602 
-0.04123243949679258 
-0.004707663611256912 
-0.04158799125817776 
-0.02843433509602998 
-0.01021371947938922 
-0.002735846621842826 
-0.0006117550950704685 
-0.0004528260494351607 
-0.006510472754806969 
-0.0006671287448083931 
-0.00349582877352727 
-0.000794519224046427 
-0.006015791738187149 
-0.03493859908222042 
-0.1133225602895933 
0 
2.524035023949628 
0.6710064245469014 
0 
2.145039451854393 
0 
0 
-0.008696257486784245 
-0.0002044736625975869 
0 
0.105861913008017 
0 
-0.002475608490169973 
-0.01022319172476588 
-0.0002991981371616604 
-0.0538254082197563 
-0.0004384253736999927 
-0.04361432249227121 
-0.1095589635846283 
-0.002680209723790039 
-0.002059420629055354 
0.2800204814451314 
0.2725194523204423 
0.2262725393385046 
-0.0002394012063039842 
-0.01502268631424047 
-0.1241509642536918 
-0.002868758276055125 
-0.0003124863760900703 
-0.0005677768057779988 
-0.08574678107193291 
-0.0003312495745589137 
-0.01806803737687218 
-0.2555776549313808 
-0.0005638411946581647 
-0.0002227274807038366 
-0.007403560656642148 
-0.0002391534177535678 
-0.006202189540207582 
-0.0006327467017379789 
0.07663393682353278 
-0.006339323314124621 
-0.0603606140981331 
-0.001552700520961064 
0.01505009745782826 
-0.06659467195852639 
-0.0004572099481156471 
-0.0008405303347621281 
0.04140216915487617 
-0.05456953947986671 
-0.02223621100568405 
-0.001361556166054664 
-0.00419624479509229 
-0.02692290024925198 
-0.01282313040602353 
-0.0153556604000366 
-0.01609508714423158 
-0.005482469162221226 
-0.01687939586974347 
-0.00366447606206892 
-0.0003649919289751062 
-0.005763663042197411 
-0.000353885497692668 
-0.002929862802952086 
-0.01032852266613734 
-0.0002440154687329486 
-0.0007720219252205149 
-0.01305067551842643 
-0.04142226634453681 
-0.01017283378438826 
-0.01004436213135129 
-0.0002365811033007321 
0.004843035792073443 
-0.003174335271425223 
-0.01195288979054009 
-0.0005288881552240411 
-0.03677998133839566 
-0.002917890446661211 
0.02705802020948155 
0.1414408685871384 
-0.006078016487060957 
-0.003500718901282874 
0.04048519211594348 
-0.147096813040277 
-0.00334462497204385 
-0.009763632071841246 
-0.004971534766052962 
0.1519072333404082 
0.2112505733396839 
0.09722816624652374 
-0.04645636635318273 
-0.01200113587752364 
-0.003586798716218226 
-0.01129509671586861 
-0.01579810506564414 
-0.001218351486251117 
-0.05191353113175243 
-0.0004823098295022635 
-0.05079234011256006 
-0.03346858898684797 
-0.01163418376020814 
-0.03300538296672782 
-0.06314224437599297 
-0.006560675191390369 
-0.006338531966605524 
-0.0009202364938607825 
-0.001806961074929572 
-0.08972129948665138 
-0.07787158625945889 
-0.007757970962950693 
-0.000738586245939618 
-0.001923891130221952 
-0.004077687499721398 
0.04276468544562707 
3.006238915339962 
0.04079535375293536 
1.27333844389827 
0.3124581967609552 
0 
1.053355724746945 
0.1372211776941536 
-0.0244542685718518 
-0.02676976758366443 
-0.02208060259398476 
-0.0540734407392027 
0.02869826520887812 
3.260052923954391 
1.097415782680276 
0.01147312322773218 
0.2776518343251346 
0.7029287663707436 
0.4759858414606457 
0.003785045124982888 
-0.07418305709029308 
-0.003153416218820156 
-0.08836659185699709 
-0.001641448107366579 
-0.03815559724183606 
-0.01884886361679019 
-0.01428696660809781 
-0.00864727130017064 
-0.00864727130017064 
-0.0003592712645651894 
-0.1069820406578746 
-0.0007601157578558951 
-0.0006047179393781467 
-0.0007632097744298031 
-0.0009696046265799085 
-0.002668634559972689 
-0.0005687138662133256 
-0.0007669202561970928 
-0.0005638411946581647 
-0.0002489491021573457 
0.004843984581242496 
1.48987999110912 
0.3577050080817176 
0 
0.07779501550107792 
0.724513110661071 
0.08778131441518396 
-0.4020556486198812 
0.1490551651759169 
0.01986652356214132 
0.2145000329605621 
-0.03762527402433084 
-0.002140478392415704 
-0.02531062711617122 
-0.03989202128826753 
-0.001549712353590613 
0.03080710650410265 
0.01283781676437817 
0.8604784013848927 
0.3928174166963732 
0.4443807056059186 
-0.005924539271161913 
0.04473883913949592 
-0.01629079357733093 
-0.001943575936918281 
-0.0005722813369227178 
-0.02034379564496915 
-0.01459956803066391 
-0.02526263694475572 
0.262283926923953 
0.4088555085121247 
-0.01276987150234276 
-0.0009806049281887814 
-0.003091665936963505 
-0.01340063149539083 
-0.001388875140115893 
0.1773482763236102 
2.878878925940266 
0.2096606799764572 
0.5671704854066655 
0 
1.428293424265994 
0.1054689495053592 
0.163079348403787 
-0.09578502463680774 
-0.0002645413067880863 
-0.01481251582399661 
-0.003095150496200384 
-0.003875026546253303 
-0.01304616993713658 
-0.008062291649090085 
-0.01260602896964887 
-0.02399488091966791 
-0.01117988404956131 
-0.001379647048228998 
-0.002926236427822494 
-0.005289629592323895 
-0.02009960243188059 
-0.03425513384195694 
-0.0199240912641924 
-0.006642882579921048 
-0.005739091871859061 
-0.03126811084507697 
-0.03906449588943951 
-0.006355584688132012 
-0.0002365368036320027 
-0.001013180318722011 
-0.002567049365844384 
-0.03449037639667846 
-0.0268820588939914 
-0.02674203177264839 
-0.003090852884647118 
-0.03063021548734562 
-0.07237122248743243 
-0.01481355235651072 
-0.001246317959490118 
-0.004621616868874052 
-0.004049209668262154 
-0.001165891751222505 
-0.001096609090286014 
-0.004485233937233946 
-0.001788708732282756 
-0.1712826638053217 
-0.09140818938781473 
-0.0002925369649309076 
-0.01595000723188523 
-0.001698379194813891 
-0.001131859866811552 
-0.03957110729302869 
-0.01445614431980028 
-0.05901438444990902 
0.3392307479948485 
-0.002980504361176007 
-0.02931971205219107 
-0.01249242043212086 
0.5778290573222445 
0 
0.7753983396246068 
0.2136045142378188 
0.3938051373905967 
0.8875749948006246 
0.9158368343110123 
0.01056408747945617 
1.022126962882818 
0.01056408747945617 
-0.02426847343215671 
-0.06008912798923908 
-0.03063735529571105 
-0.004639959088315293 
-0.00202195157733691 
-0.004984962130468975 
0 
0.9190690063994782 
0.5094456196229517 
0 
1.386625729649374 
0 
0.7542327293010438 
0 
0 
-0.0003515734032966115 
-0.006361861192118075 
-0.007817897587440252 
-0.005054510775801999 
-0.003513590321769597 
-0.003221099180196954 
-0.002024576950099253 
-0.02006564706707593 
-0.002239637676683575 
-0.05218719655985174 
-0.0446677492190688 
-0.006755631163595255 
-0.0004857758049585156 
-0.01120286471187891 
0.756991322635108 
0 
0 
0 
-0.0009889153929501036 
-0.003063727662735598 
-0.02246800744067583 
-0.0002815686994676272 
0 
-0.0002822571317183871 
-0.0006997599011042363 
-0.00402419662268738 
-0.003832915843477995 
-0.02844359547145613 
0 
-0.03999554245244646 
-0.01196798494250414 
-0.007605953700626781 
0.04576572227044184 
0.00918541121625552 
0.004074592078035482 
-0.001535224812671995 
-0.001208739039100309 
-0.01760909388705853 
-0.0006398724424907077 
-0.001109707247488825 
-0.0009662997641374975 
-0.07176400292122447 
-0.0002308492221358986 
0.2145523524417924 
0 
0.04234941387604212 
0.5895760508154251 
0.003229849084358863 
0.5188866815150691 
-0.008845484625735259 
-0.01541625815530327 
0.005008237764785533 
1.541648987317317 
0 
0.002504118882392767 
0.02085910199344361 
0.00724596692521158 
0.5356896417543013 
0 
0.8501696746743608 
0.1848064616223602 
-0.03060933249317647 
-0.0007631587428594298 
-0.001236785877023386 
-0.001780822122720566 
-0.01872725505384245 
-0.001128494092834871 
-0.01170190448457611 
-0.003588180451845432 
0.1313879681082867 
0 
0.00685153399908616 
-0.0005865281275680481 
-0.007477880152824056 
-0.008812427630524523 
-0.0003125896168549055 
0.01521282451116102 
0 
0.007606412255580509 
-0.01002926919268947 
-0.002297000881535418 
-0.003897763032543532 
-0.002747849347714951 
-0.001211700293262618 
0.1055829413605535 
-0.01381268291240429 
-0.0004146300725935064 
-0.000246739431018982 
-0.0003308346210888786 
-0.00330478440399589 
-0.008919376025354796 
-0.04004822460392782 
-0.01474380338706688 
-0.007145297623138907 
-0.004265670038506417 
-0.0008095043231203761 
0.1883183170965494 
0.02818749152149477 
0.1064670373457638 
0 
0.470058531390047 
0 
0.002827833151557222 
0.06165702418198573 
0.09598849688196257 
-0.0165598516078057 
-0.005295010090130526 
-0.00868566028609479 
-0.07793646031861362 
-0.005878186248777394 
-0.003827974048922734 
-0.007744600868218074 
-0.008518606476784431 
-0.003336894222269464 
-0.02034895663682815 
-0.004638353979998905 
-0.06047217299899226 
-0.01177826635148637 
-0.004792946118531465 
-0.03621146894594958 
-0.001002975164592452 
-0.001556627267085282 
0.1809425676070577 
0 
0 
0 
0.04740759556035472 
0.01343723280234495 
0.0784681978839905 
-0.001428310854934913 
-0.001981362604558465 
-0.01144631415640916 
-0.001102138550689679 
0.01570883612874063 
-0.003408353944910205 
-0.001805923734318703 
-0.002530582367273464 
-0.002738223937615288 
-0.003265806218370878 
-0.0220638092340618 
-0.0009378726579602196 
-0.000821776224646864 
-0.0006348605082946917 
-0.004782629888210476 
-0.003181979284876401 
-0.06894513217631956 
-0.003555023366537048 
-0.001143589534735363 
-0.01544389371045146 
-0.01633338063452868 
-0.006483859632936232 
-0.002430712239741057 
-0.0002815686994676272 
-0.07167512396080478 
0.1225410135699443 
-0.01987146658118655 
-0.001763441051709204 
-0.0006667799497857118 
-0.008660381285447881 
-0.01413873934954198 
-0.01152384906878372 
-0.01152384906878372 
-0.01313634117377784 
-0.002725429981369066 
-0.004974086138349246 
-0.002440778551492146 
-0.0004481264229074815 
0.001486200076645906 
0 
-0.03679191835996823 
0.002455372724711946 
0 
0 
0.02337506974285863 
-0.0006019087945682436 
-0.003605995233969079 
-0.001588585170680944 
0.09886997888047723 
-0.001313954282845931 
-0.02751135473598109 
-0.004725644744180382 
-0.004722798354258777 
-0.000397329520005338 
-0.03716602381940613 
-0.04060366545556295 
-0.0002731543869457442 
-0.002514058230215479 
-0.00524821251685524 
0.06353747296540692 
-0.009304690295955383 
-0.04181132190859569 
-0.000212744604272954 
-0.0007465494149756091 
0.005607848801521968 
0.08416045131404191 
-0.0005839674182772401 
-0.000267873930806808 
-0.0003513062193026986 
-0.008005995640794216 
-0.009981757261044957 
-0.001893506530221291 
-0.01744827937454154 
-0.002070627713326006 
-0.0456390098745109 
-0.01618381874088097 
-0.0001926261958596704 
-0.00728395252729401 
-0.00295405215801599 
-0.02150813446201992 
-0.002571835785656445 
-0.01206555237940707 
-0.01656262770314447 
-0.0001008840445346107 
-0.01008126990397953 
-0.01092015866661261 
0.1812141912271195 
0.1151100397195452 
-0.00725118262614806 
-0.002438629319032457 
-0.005348677618338237 
0.03217143133053651 
0 
0 
0.1922860436365389 
-0.01238377439874786 
-0.0004648777081212109 
-0.03099918941121861 
-0.01811112406502104 
-0.00669757368132755 
-0.0008991399631837543 
-0.001713160326863254 
0.01013079241481462 
-0.002228995539059747 
-0.0003129054937045226 
-0.002702849688282017 
-0.0007345861759631052 
-0.01011025102302108 
-0.03167114604335296 
-0.01563715470389763 
-0.03189873066880013 
-0.003892673365470748 
-0.001448898671650516 
-0.001702104656278524 
-0.0002588459737462319 
-0.003719087011013285 
-0.01788350657892657 
-0.001356105290391069 
-0.0005508078405770345 
-0.001474555923706828 
-0.007991275407335867 
-0.003024873179843578 
-0.004656665816949334 
-0.02157819347318033 
-0.0002489491021573457 
-0.1704202083702808 
-0.02230329165850482 
-0.003728562799522812 
-0.002221688009938335 
-0.004825149260200634 
-0.01381372810371086 
-0.000267940803622567 
-0.0005573150774428612 
-0.004289746416882873 
-0.01022474797777569 
-0.01293677157036464 
0.005738298599370558 
0 
-0.01099911802057986 
-0.0200935908296118 
-0.002556921687541687 
-0.00808615632259916 
-0.0002998005678822815 
-0.007784674275571162 
-0.004886033045350921 
-0.01564992535234692 
-0.002800840230667471 
-0.00856874688995788 
-0.000240393086992377 
-0.0006176121103699753 
-0.0007573245879575186 
-0.000727376226728573 
-0.002097223552058375 
-0.001952256767960214 
-0.02415724347418682 
-0.0003479667846290248 
-0.0008962358583264239 
-0.005165406265984464 
-0.00114615369750834 
-0.001618052676584535 
-0.0005667095750902606 
-0.001071070489748705 
-0.0003540840311754063 
-0.03345706203439514 
-0.04361920825593169 
-0.0005865281275680481 
-0.0005865281275680481 
-0.0002974580808285328 
0.01418426760442247 
0.7333470998078043 
0.003745985108046041 
0.09444965440592158 
-0.01547591129461929 
-0.01919556618180733 
-0.0002068711128499359 
-0.000578639302333102 
-0.0003796936105514958 
0.1216997977454719 
0.001705888356454012 
-0.0004745835948250808 
-0.01545685548964404 
0.06806279648632207 
0 
0.3174453412017358 
0.09305937859544923 
0.02482972923297851 
-0.005376425433920948 
-0.01554654120634667 
-0.002238187672601045 
-0.002749396545091986 
-0.008765942411731507 
-0.007738008942790644 
-0.008973840567656323 
-0.001135648641375595 
-0.001429200359520557 
-0.0007008257480819461 
-0.002699080116602111 
0.0083688891892831 
0 
0.00418444459464155 
0.01862197655426452 
-0.0003191479769041148 
-0.001152361390143758 
0.1268860841960227 
-0.00541184202487383 
-0.001253707187017237 
-0.02060568906012822 
-0.001591547587794038 
-0.0004854392999905803 
-0.00135704943016777 
-0.001659425132792695 
-0.003039118975965887 
-0.009106339640529284 
-0.006034753543404891 
-0.0005055759167676353 
-0.0003090436876265011 
-0.001465051300134502 
-0.00636813683628092 
-0.05519941689181188 
-0.0004238714194873966 
-0.0001499714047687511 
0.01606329668055921 
0.06594840236166952 
-0.0002624431413604773 
-0.005001646308429901 
-0.0005405107569917968 
-0.001592019642942175 
-0.004324053418594591 
-0.01877712082331866 
-0.01478601829959888 
-0.01478601829959888 
-0.01864906960731869 
-0.0004249942374079328 
-0.0002643460929300169 
-0.02200720740802846 
-0.02972454706539742 
0.01900678164392458 
0 
0 
0 
0.02135847383289096 
0.005736964238602937 
0.014182457162681 
0.01823441916036666 
0 
0.06575202505266388 
0 
0.00911720958018333 
0.00911720958018333 
0.01129541545066986 
-0.008257266114104119 
-0.004755799039937465 
-0.0003059562608721721 
-0.005392593045837585 
-0.0008860897406150767 
-0.002776266242775491 
-0.02054684857997567 
-0.009526197506964502 
-0.004422499016364924 
0.01142380909890587 
0 
0.1046700484518185 
-0.01450268755929088 
-0.001190246444102331 
-0.01483584756970522 
-0.002457326722301652 
-0.003525162013219709 
-0.01183215669503528 
-0.001852870512590012 
-0.003492916160563271 
-0.001226976284203136 
0.01461522726497503 
0 
0.1593968125858785 
0.05661101350980949 
0.008174484261873397 
0.0430565736526689 
0 
0 
0.004087242130936699 
0.05202878412472032 
0.2265803559991188 
-0.007542526078216546 
-0.0005439826270236804 
-0.0002645413067880863 
0.01396187882458893 
0 
0.1064432351785525 
0.03987627622411132 
-0.02776776392095433 
-0.0004619877646010434 
0 
1.995656796341842 
0 
0 
0.1910806404122259 
0 
0.0640738200051566 
0.02693541616394217 
0.0009798899844674625 
-0.06818960549253303 
-0.0758841585589308 
-0.0003449672321293709 
-0.0004246616777059143 
-0.0003169216661442025 
-0.0002815565995076329 
-0.005770909350697162 
-0.07581762830773837 
-0.01974485970026782 
-0.01841005347166987 
-0.006048349204554246 
-0.0002044485836607003 
-0.0003099914778091964 
-0.0002645413067880863 
-0.02046379501555672 
-0.001067991031155695 
-0.001375072034934054 
0.08534418755105432 
0 
0.004815609716274663 
-0.08367827585979876 
-0.007196192353162281 
-0.001305947674810851 
0.1336006485035203 
0 
0.2355253623757725 
0.004162574735332929 
0.004162574735332929 
-0.001459722265755046 
-0.001483323924217025 
-0.0002500254045829169 
-0.0002500254045829169 
-0.06047265479522503 
-0.0002500254045829169 
0.150236092253599 
-0.0124353286856775 
0.432882914651881 
0 
0.02460144289326327 
0.06379132896808713 
0.0325492985920906 
0.2602881603927774 
0.005079331978250225 
-0.01538043181345088 
-0.0008857322082280167 
-0.03965750599119435 
-0.05480152867384273 
-0.0006843562795588562 
-0.0006055012780042267 
-0.003503377619679191 
-0.001499815093726879 
-0.0007258029334680667 
0.002474884289386051 
0.02099267551043838 
0.3058990913093292 
0.001237442144693026 
0 
0 
0.09466135808815546 
0.07003871414854927 
-0.006372500500191542 
-0.001279554711624844 
-0.0002293361100954582 
-0.004619451895938615 
-0.007130399557721543 
-0.001790324775544396 
-0.0005120355226740595 
-0.00019801401882662 
-0.01035249492478788 
-0.005843141475842925 
-0.0004061063295644386 
-0.00886718522120003 
-0.01181103840114668 
-0.007382811107857224 
-0.03584245250292684 
-0.009277941632737086 
-0.006304441829168506 
-0.01640044280051539 
-0.0004603248328140631 
-0.001058120434653024 
-0.001646272195040351 
-0.001754588915375225 
-0.001425638944022942 
-0.0002320244893989931 
-0.003041323928490032 
-0.02278057791827503 
-0.08084063395469415 
-0.01091035008453955 
-0.005628035333503098 
-0.0004416946701205172 
-0.003278862750878653 
0 
0 
0.008150193787679515 
0.008150193787679515 
0.09463639878715575 
-0.001017606555703576 
-0.01357843203351625 
-0.01364296713292082 
0.06205557342899361 
0 
0 
0.002292526396298665 
-0.002898611842735511 
-0.0003099914778091964 
-0.0010286682175845 
0.1774585798905897 
0 
0 
0.008740539776713468 
0.006578373616721447 
-0.008396771926004023 
0.001172362728547057 
-0.001587971765968961 
-0.0008947199479879271 
-0.004525414570713852 
-0.004205551679049914 
0 
0 
-0.004605733782039859 
0 
0.1448987236568853 
0 
0.07244936182844264 
0.1774966741033694 
-0.002686391662898362 
-0.0004312602908957383 
-0.001390504044699596 
-0.04624672198652074 
-0.01285430585747254 
-0.007263350704576834 
-0.000242122970229954 
-0.0002356248162525429 
-0.002927059231037608 
-0.0001230631686172912 
-0.0004641810205378843 
-0.0006846980864347275 
-0.0002344009056958406 
-0.0003168820343100997 
0.003431674655927711 
0 
-0.007972599266610817 
0.08828569259400494 
0 
0.00681254768129951 
0.3051848841515399 
0.04414284629700247 
-0.0004716003412466512 
-0.0003944319298960305 
-0.0007914811759830592 
0.0104026093219968 
-0.002953012462410688 
-0.000811751069412869 
-0.01210829324926139 
-0.002149095318134138 
-0.0002218870352950384 
-0.05252882830428403 
-0.001649954099332718 
-0.007079588692323929 
-0.001637628631027791 
-0.0002486882837178274 
0.01914478513301395 
0.4237073001625243 
0.0008127827486349531 
0.007979388620377651 
0.003989694310188825 
0.04457622160168621 
-0.004006650935083175 
-0.0001976427109663709 
-0.002560028994240922 
-0.0029411697380849 
-0.02562557625183721 
-0.002378117233508574 
-0.008559551745562147 
-0.004021874714751924 
-0.005854664887940769 
-0.002198057626670695 
-0.001386104076481282 
-0.0005835092682398242 
-0.004816457634013169 
-0.001294830606395561 
-0.001109165045845856 
-0.000850369343410967 
-0.0004304389052093566 
-0.001200893088799653 
-0.00525764704328624 
-0.0002227274807038366 
-0.01347745979758872 
-0.003055996170641178 
-0.03709980236245403 
-0.007250015668400085 
-0.001830557082086758 
-0.001023382896383405 
-0.005236114772723935 
0.2385767027633982 
0 
0.01283781676437817 
-0.001892908034407387 
-0.001622254662836268 
-0.00327342282358241 
-0.0009769868413526438 
-0.0002371780225395389 
-0.0001619460042423839 
-0.0001619460042423839 
-0.0001952534644374612 
-0.0002761575767944379 
-0.001566237657478282 
-0.03613129486313892 
-0.002103898028506345 
-0.009400177821071044 
-0.002322776147411131 
0.01861222638939408 
0 
0.2297034224394621 
-0.02102328798515442 
-0.00714607502497658 
-0.004776358837723517 
0.1309082724793964 
0.2966514973280992 
0.08311819510102204 
0 
0.395662590220926 
0 
0.6509602086405248 
0.05763159548897452 
0.4500793417828596 
0.2243820521704204 
-0.03311575005449678 
-0.0009223250253195978 
-0.0004915730312443712 
-0.0004915730312443712 
-0.000228155297198327 
-0.001515108750311848 
-0.0002678170687427408 
-0.001695420352034255 
-0.004704403916102658 
-0.03486229147876191 
-0.000795898877649372 
-0.01220451067404886 
-0.000970700304514848 
-0.02466498718804663 
-0.001090687774759098 
-0.0007573245879575186 
-0.0001512516069004553 
-0.001127199772391712 
-0.003052956542376179 
-0.008342377964089015 
-0.07028637488723029 
-0.0001009080181355935 
-0.0004860840540499979 
-0.0002645413067880863 
-0.002084739751573772 
-0.00237296110009657 
0.1951063292492578 
-0.001364711375279995 
-0.001017396069691163 
-0.000353885497692668 
0.2149755249261958 
0 
0.0527944021345976 
0 
0.05095759238655354 
0.05095759238655354 
-0.001509986447023476 
-0.002093407651624885 
-0.002774031028386307 
-0.0004227567327849626 
-0.001948047728597107 
-0.007320064922646278 
-0.001847900240516226 
-0.01347499307663187 
0.2470739815209561 
-0.001417579046630946 
-0.002647758938290383 
1.403505217215279 
0.01907204403376411 
-0.001729454896181873 
-0.00324739664897621 
-0.003201652182545541 
-0.001130240244478294 
-0.02613724873964017 
-0.001100169194241008 
-0.002227242057106772 
-0.001141134590267682 
-0.008301410699721661 
-0.00373846425431585 
-0.00456819803697097 
-0.002510031431375635 
-0.005691279248047456 
0.03318794227099402 
0.02845338146038597 
0.01335152335000016 
-0.008800708466941217 
-0.002300274144992438 
-0.00162789208871601 
0.003412282298964887 
0.01413380353825335 
0.1112475006149612 
0.005924671800680631 
-0.05195738460325806 
-0.0003191479769041148 
-0.001799211655869359 
-0.003164462510636635 
-0.006415570447186843 
-0.01292280903956686 
-0.003804102398010266 
-0.001029897652587107 
-0.0003895292061484715 
-0.001686062408364479 
-0.01095735163347933 
-0.000442511975558248 
-0.001945236229670896 
-0.0007573245879575186 
-0.005407562799204378 
0.0821451432476806 
0 
0.06601838758473028 
0.1352530708924194 
-0.0005038666938076742 
-0.0006878169703261897 
-0.004173437670961391 
-0.005393758591474448 
-0.002215687709913509 
-0.000678801708685026 
-0.0005716957032501501 
-0.0008488659315339163 
-0.0002432554062566697 
-0.0002706099972224844 
-0.001329751618431223 
-0.000505568346110625 
-0.005323177173755974 
-0.01268472753210599 
-0.0019121333998448 
0.002175393089887862 
-0.007202060820691747 
-0.0005564937866100893 
-0.0002362139588177012 
-0.002594971745658863 
-0.00152019214809081 
-0.001801385833818178 
-0.002603760491670533 
-0.002653395124802994 
-0.0005339034628635273 
-0.0005744937649523531 
-0.001161638501724865 
-0.0007592762112878812 
0.05694709838109468 
0 
0.003278638787424352 
-0.01278758704043946 
-0.0005357660887661554 
-0.0005267851215338656 
0.9190690063994782 
0.1436395639665784 
0 
0.2553271206920885 
0.4331709363417656 
0.2553271206920885 
-0.001794441587858994 
-0.0002305442805833202 
-0.002216623894578972 
-0.01394684204573719 
-0.003819318720074787 
-0.0001939757166367052 
-0.001293793047997568 
-0.0003949584180663321 
-0.0009843509599364929 
-0.0004941139425508502 
0.005136008236131038 
-0.0001281889907014024 
-0.001172628326431209 
-0.0003124863760900703 
-0.003568875629054832 
-0.0008079873535462933 
-0.0004760228546821854 
-0.0002440154687329486 
-0.001617890348929612 
-0.001232370572659769 
-0.04992034745739413 
-0.0002645413067880863 
-0.0001656545299898351 
-0.002445437474027549 
-0.004269843702004993 
-0.001480875090748179 
-0.0002282685334167439 
-0.00041819640795554 
0.08385090627514721 
-0.001407822868952165 
0.01672677014111442 
0.01722329402450073 
0 
0.00836338507055721 
0.04296373534199972 
-0.003204217256963667 
-0.001888708115459932 
-0.000827367284478915 
-0.0005249082002956268 
-0.005812527938167711 
-0.0005357660887661554 
-0.002956303634197797 
-0.01510633631599322 
-0.0006702319750899125 
-0.0003320378418495058 
-0.000888028267573192 
-0.0008100518964130359 
-0.0002505637198009912 
-0.002109775462580109 
-0.002891673860760565 
-0.0005885027510369132 
-0.0005045766835989799 
0.01883362467797848 
-0.001957030794318369 
-0.0005045766835989799 
-0.01673801050839655 
-0.01044971997795887 
-0.0009165331289453698 
0.006362371472118012 
-0.001127199772391712 
-0.0009921523973574172 
-0.00762686647381517 
0.01128634248666357 
-0.004940703850268001 
-0.0007508728384173854 
-0.0007679428007719074 
-0.001680759342293304 
-0.004006650935083175 
-0.0009726417327834805 
-0.003821854137222966 
-0.0005665572799873939 
-0.0003191479769041148 
-0.002692930115212142 
-0.0002815565995076329 
-0.0006747461176919352 
-0.005821138575703164 
-0.0005638411946581647 
-0.0005499545600506278 
0 
0 
0.01333641569224764 
-0.001452569518884933 
-0.007873272228565436 
-0.006080599068697214 
-0.01203802731500834 
-0.0007277993050967185 
-0.000410631997506848 
-0.0004949421082439255 
-0.0006930046239419856 
-0.003271872368332809 
-0.001943197124072977 
-0.001679215586865025 
-0.000842101090362965 
-0.000652878329319997 
-0.0007841713395675677 
-0.004195983331574876 
-0.01360347623136302 
-0.001879431739909692 
-0.0009378726579602196 
-0.0002545117121637272 
-0.001411078941682489 
-0.000324706651484465 
-0.0003354259884201505 
-0.0002043597142852046 
-0.002282177865659713 
-0.0005305374443505689 
-0.001201478261719739 
-0.0004239982690787859 
-0.01055084415269956 
-0.0003879641057808973 
-0.0003895292061484715 
-0.00124628455463412 
-0.0006792235660535715 
-0.001349437079085644 
-0.002150021451838536 
-0.003484362327947766 
-0.001341701404022399 
-0.0005638411946581647 
-0.0004326779912893993 
-0.0002444396681675067 
0.03512197110996914 
0.1191159416378245 
0 
0.104392473844252 
-0.004243312213129484 
-0.003921007284821421 
-0.001224072125721545 
-0.02054687449690179 
-0.0002626823872540719 
-0.002259595424272497 
0 
-0.004239052659608437 
-0.0005559873681370399 
-0.0002815686994676272 
-0.004630111016098061 
-0.0002578876324430404 
-0.0003578734592068326 
-0.001278620760646754 
0.0013655656395214 
0 
0.03730389308169139 
-0.006102087072930523 
-0.0004838672705770772 
0.003327500441052215 
0.001663750220526107 
0.01874959344846212 
0.002730664271042313 
0.0209594699057167 
0.04202199638149084 
-0.0004855518791900254 
-0.001400532613422804 
0.08098770035576423 
0 
0 
0.0170767888584171 
0.0170767888584171 
-0.00227594089103873 
-0.003058823929475268 
-0.002927975160280614 
0.7443166542973644 
0.03864881062505257 
0 
-0.0006680180492038343 
-0.001417143097516427 
-0.007489267643902078 
-0.002224186536841815 
-0.0004687106853980659 
0.01427939259557111 
0.01120794787919976 
0.1273342669834261 
0.04281378898179697 
0.001794803988138141 
0.01282874994851562 
0.006414374974257809 
0.004376509606610277 
-0.003297633166302031 
-0.0006075013609527088 
-0.002741643011656908 
0.061027323883705 
0.03779221513118271 
-0.001297992321200135 
-0.0007874595359481467 
-0.003608005398844863 
-0.001569754514262174 
-0.0003644662118460069 
-0.0005915632521796528 
-0.001288272183412909 
-0.0005239879071147531 
-0.0005454884225993012 
0 
0 
0.05067513028065148 
-0.04914243981681116 
-0.05013362943427931 
-0.0002968215306203572 
0.003506616189542243 
0 
0.001753308094771122 
0.02222185007896484 
0.3233378352147664 
0.005609953852222014 
-0.004045011581483206 
-0.002298025907773907 
-0.002016989325825957 
-0.01152728618239204 
0 
-0.001109051677785976 
-0.001324843622101975 
-0.001377768113374155 
-0.0005662213996638653 
-0.002547783042141625 
-0.004978934453110674 
-0.001537810188587779 
-0.001537810188587779 
-0.0005665572799873939 
-0.01156675869693326 
-0.001874548050238787 
-0.001247575051395096 
0.006721934933548408 
0.004477651269955189 
0.01359165789352136 
-0.005740772557858402 
-0.00197067859993683 
-0.002645874961216725 
-0.003295399421674247 
-0.0005105125674534049 
-0.003307132827695633 
-0.01044014133500831 
0.1047520733704623 
0 
0 
0.002178163635717145 
0.02981327289978251 
-0.005627334874525483 
0.002579649643018055 
0.008423711951035405 
0 
0.06319747009761205 
0.01820523989094135 
0.001234977914833575 
-0.0201848866153337 
-0.008027877138584084 
0.01522687209344584 
0 
0.003985996388843319 
-0.003101448068158545 
-0.000531437906673954 
-0.002711061525087354 
-0.0008605959205594589 
-0.0215258534147183 
-0.002114464479878115 
-0.001258300870733416 
-0.0005712968902271642 
-0.0005086918994398326 
-0.0003557632148714749 
-0.0008080018218614266 
-0.005667248850764769 
-0.0007111760552387824 
-0.004130227013599941 
-0.0003274988152298317 
-0.002898611842735511 
-0.008266843630309786 
-0.003548687882929342 
-0.002270202612120153 
-0.0009316284315263319 
-0.0004768885551353617 
-0.0004269754003871426 
-0.0004269754003871426 
-0.0003200888194733796 
0.002233129688683682 
-0.01257042501310162 
-0.0002815686994676272 
-0.00161867826573802 
-0.01048169470645238 
-0.0004693421990173455 
-0.001875303624926177 
-0.002488065882484827 
-0.01342652649902853 
-0.006156505843825021 
-0.0003309336510535352 
-0.0007687534395599373 
-0.0006047184914364901 
-0.0002311581768090671 
-0.003489709159982253 
-0.001765296317043634 
-0.001061439350047064 
-0.00146874197598123 
0 
0.007197797643252619 
0.03078416838330566 
-0.004036418868778749 
-0.0003725648724726076 
-0.002281641382915308 
-0.0005516926087106115 
-0.005506588502907915 
0.01127664357115797 
-0.001511748573896008 
-0.0002563433516570758 
-0.00178011617428759 
0.00079038415343457 
0.001437002797957847 
-0.0006699477754310837 
-0.01133714639704613 
-0.007144302598184737 
-0.00149385213207376 
-0.01129373473121854 
-0.005855612667755408 
0.01153933358957937 
0.1095450794371145 
0.01610611947768592 
-0.002768663056517273 
-0.001138969149962951 
0.1040092844623744 
-0.0006835529189691014 
-0.002873064539521946 
-0.001045768862540347 
-0.001377510411455678 
-0.0005694592817273942 
-0.001497500173660449 
-0.0009288640911537249 
-0.003655614418939426 
-0.002032268531400372 
-0.004654476823637674 
-0.001856084126259838 
0 
0.05972463342078577 
0.01512391404176323 
0.01512391404176323 
-0.009746787173972189 
-0.001126554655573345 
-0.003295889027785921 
-0.0002260094902137015 
-0.001233453200435239 
-0.0004836245865089215 
-0.002498964699057406 
-0.001066572150853254 
-0.003192132662863405 
-0.008534397595795587 
0.731872624004397 
2.328952624059919 
-0.0001971113888061015 
-0.000296813256621271 
-0.004730105048860444 
-0.002058367305663407 
-0.00833311210565693 
-0.0003099914778091964 
0.01368365905026188 
0.001144656111553667 
-0.0002426121415725198 
-0.0002730524159103568 
-0.006467711995732961 
0.01201139617416611 
-0.01024127131669045 
-0.0005295961355708486 
0.007020044125808416 
0.003510022062904208 
0.02259399887929408 
0 
0 
0.01129699943964704 
-0.002803658349195544 
-0.003788305273926552 
-0.0006790157590489277 
-0.0001406547455467616 
-0.003993952465081383 
-0.002715415916546298 
-0.0005903253430568982 
-0.0003844997259898308 
-0.002016989325825957 
-0.0009428383611735454 
-0.002246641073871238 
-0.008528923897831556 
-0.003346174981022196 
-0.009139498447742455 
-0.0002331219058773176 
0.002345233309020638 
-0.001138936491798961 
-0.0004889349055626955 
-0.0002811594135400098 
-0.007132375297301242 
0.00168192911811658 
-0.001942994733138199 
-0.0003496222220802042 
-0.002544436108887592 
-0.002772451618247864 
-0.0007473881114071037 
-0.002228043031293489 
-0.007088859157407959 
-0.002482587258063698 
-0.002089685901859757 
-0.0005630009574400681 
-0.000488920816524276 
-0.006988781940989239 
-0.001384561768550292 
-0.0008800504798533019 
-0.0001653711448074551 
-0.0003081716103032582 
-0.001018594719921143 
-0.00184505878254949 
-0.002952503679146359 
-0.0004080533717437571 
-0.0006878169703261897 
-0.007564160301764662 
-0.001593204070028318 
-0.0004754169497751083 
-0.01067811921226288 
-0.0002384093258390939 
-0.01034148498743666 
-0.002449822460848413 
-0.0003059133046831245 
-0.007368596438188519 
0.01077226341284328 
0 
0.003819024868713361 
0.006047460766815384 
0.005386131706421638 
-0.06041943161160949 
-0.004107647304206499 
-0.002779762323207262 
-0.001127199772391712 
-0.0008050620681102265 
0.01492235236702411 
0 
0.01098780056613023 
-0.008559674521653782 
-0.005527130168186992 
-0.0005638411946581647 
-0.0003555755368326399 
-0.001736559527723084 
-0.01601414371339226 
-0.007129543420217434 
0.03491954211236888 
-0.001017126057763985 
-0.001610559303476052 
0.03967966983000159 
0 
0.2188753245353847 
0.01034881640769725 
0.02649334199478494 
0.03136698305383064 
0.003392204266167838 
-0.0009140745717181368 
-0.0003080925707469179 
-0.01105057369639609 
-0.01228839558447868 
-0.0021179764512308 
-0.002947443591242658 
-0.001838671242449151 
-0.001068285972455538 
-0.003374703809729861 
-0.0199378007701568 
-0.001320537291715603 
-0.001962951314823979 
-0.002422270888646759 
-0.0006117550950704685 
-0.002865830143880626 
-0.001567283203881206 
-0.0009386617255814796 
-0.002775535064433799 
-0.002339648190957333 
-0.0003191479769041148 
-0.003325819076082271 
-0.0009808548890133226 
-0.003172935289409241 
0.006303207898839167 
-0.01459348788626961 
-0.01300133203941103 
-0.0009666740553536504 
-0.00105337507921531 
-0.002052308677778465 
-0.00369063172130219 
-0.003798367185646913 
-0.006303830736107439 
-0.001845289614266232 
-0.001225381344508246 
-0.001434370158259801 
-0.000415785511708446 
-0.001122977354454676 
-0.0004439138622995325 
-0.001455554612948563 
-0.001211700293262618 
-0.002392422952838601 
0.008385608299655976 
0.001787854779900702 
-0.0005120355226740595 
-0.0023775008957747 
-0.001393635293338215 
0.008917004832055264 
-0.001144887545731556 
-0.001707214157944413 
0.02302363989139018 
0.006488944162617188 
-0.008340220137092328 
-0.0004799412797762625 
-0.00104888925364212 
-0.0005593141231833237 
-0.000244544544804543 
-0.0006680180492038343 
-0.006479645809728986 
-0.0005638411946581647 
-0.000482005275836516 
-0.002083666696886037 
-0.001881210648928377 
-0.0005258022469096305 
-0.005055172592026889 
-0.00112667768456085 
-0.008877698431438649 
-0.0002016088540716593 
-0.0005638411946581647 
-0.006831224908926634 
-0.003139941577164003 
0 
1.950662905977167 
0 
0 
0.008418090682496325 
0 
-0.0002945849847333546 
-0.000686757853056364 
-0.0004217137631297082 
-0.001047778226856244 
-0.0008275769723813352 
0.06637268658433808 
-0.0004136747937934185 
-0.000702201321812819 
-0.003897139068204187 
-0.01123221879821886 
-0.004300877056424655 
-0.000535305066308976 
-0.003761878060836706 
-0.002203027713459713 
-0.0001783017191750236 
-0.01810022723920706 
-0.004574763276229429 
-0.000234990883611614 
-0.0006249229599844924 
-0.001607979808392965 
-0.0002578876324430404 
-0.0005956720410516908 
-0.0006682869429030044 
-0.00281714002577406 
-0.001370036976305673 
-0.001946535854137628 
-0.002734500311082868 
-0.01225205836897626 
-0.001266313862163037 
-0.001260668359816779 
-0.002042263740598077 
-0.002476170377508214 
-0.0007950289305770213 
0.0235145389855814 
0 
0.0117572694927907 
0.0117572694927907 
-0.04183498999690266 
-0.003580695823915509 
-0.002198241707216642 
-0.000213612906389595 
-0.0003254071487952834 
-0.00084584554191678 
-0.004058033955027856 
-0.000226024375273222 
-0.00847409311373501 
-0.001229830129694443 
-0.0002440154687329486 
0 
0.01576608193270803 
0 
0.001096758542290705 
-0.01131058156937661 
-0.0006248107146914725 
-0.007070004256271932 
-0.0009720645436765501 
-0.0002809249927943334 
0.01628296622725529 
0.001291228817284185 
-0.0004801258054120433 
-0.002034724681698074 
-0.00906045090731656 
-0.003495741348074525 
0.02311801843187027 
0 
0.001858121843631932 
-0.004142530364234957 
-0.001345504875986746 
-0.0003363216459390865 
-0.002782829212799391 
-0.0005161967999362736 
-0.001244387245952505 
-0.003324974601018343 
-0.004131527379901391 
-0.0002440154687329486 
-0.0009973219848016949 
-0.0004388104636197795 
-0.0002402534940891141 
-0.0002679958258657385 
-0.002638011865820932 
-0.0003402427972057628 
-0.0003742077677216867 
-0.0002739309312625066 
-0.0005638411946581647 
0.1575106896124944 
0 
-0.000452497007985018 
-0.01685068102097049 
-0.002299849989873501 
-0.001724182519269245 
-0.0004172111128711226 
-0.0003844997259898308 
-0.05086298521648857 
-0.0004460193596278686 
-0.0002127950863388499 
-0.0002815686994676272 
-0.01075753165064679 
-0.0003895292061484715 
-0.0008204434778364103 
-0.003657289896408016 
-0.0001851544836722744 
0.02320568633425716 
0 
0.004372252860711512 
-0.001781555103725369 
-0.005564135064196601 
0.001277914177036519 
-0.01012809282273814 
-0.004702960056940843 
-0.003939237364238843 
-0.001458453559201918 
-0.0003844997259898308 
-0.0007687534395599373 
-0.0005874459941826063 
-0.007868998466688898 
-0.0001798884011315033 
0.1262933201868517 
-0.003962686845403393 
-0.002547638985152134 
-0.0001756666725001006 
-0.0006528743453823321 
-0.005927113909645563 
-0.001164504290558885 
-0.0007223898780677329 
-0.002390222039282369 
-0.0001180388239175981 
-0.00437120702468942 
-0.0001922429868456763 
-0.0009363619666141744 
-0.0031805444533381 
-0.0006998746577518332 
-0.0006910082904888954 
-0.01353705565101403 
-0.0006168277609845833 
-0.001403667639452951 
-0.003164216195866737 
-0.004143359018698188 
-0.006750239027868086 
-0.0002440154687329486 
-0.00178011617428759 
0.009156724050441861 
0 
0.003345915679694983 
0.01003665493505089 
-0.00441477207665543 
-0.0008967426097850644 
-0.02097592332428036 
-0.0001992657684700371 
-0.0002618339702439362 
-0.001440277659074713 
-0.0004864089988956377 
-0.001024821868246594 
0 
0.0238977565025603 
0 
0.02164461376700104 
0.02164461376700104 
0.02164461376700104 
-0.000202242924611724 
-0.0003534713285504503 
-0.0004685434073734551 
-0.004004425456840113 
-0.0005638411946581647 
-0.001496566105108943 
-0.01802795911395545 
-0.0003556957710966877 
-0.005398490616959604 
-0.0009061460216395668 
0 
0 
0.002886592045649089 
-0.01055084415269956 
-0.004006650935083175 
-0.0005406361336711979 
-0.0007769606740416812 
-0.002827828280396436 
-0.002448944210106889 
-0.0002815565995076329 
-0.001414266043770644 
-0.001550411867564846 
-0.001242626093568607 
-0.003240919905129504 
-0.001237607909435157 
-0.0002421108456667606 
-0.0005605557696658091 
-0.001926316545156037 
-0.000846452218852816 
-0.000619823447633557 
-0.00168414044117486 
-0.0004391664636252806 
-0.00166912971722904 
-0.0007037673877674498 
-0.002342235694765833 
-0.0007508728384173854 
-0.002019985495434621 
-0.0002800687028347779 
-0.002019875919092415 
-0.0003099914778091964 
-0.0273998803845121 
-0.0004053632739311397 
0.5012053712848995 
0.001448054493840418 
-0.0004477677822960357 
-0.001754006616097248 
-0.0003885530245653567 
-0.003450038295187408 
-0.0002626823872540719 
-0.0006496266192771095 
-0.002612110088851519 
-0.002415203603376868 
-0.0008911749301439738 
-0.003382593568815411 
-0.0003796936105514958 
-0.0007141685247076125 
-0.01502988870108026 
-0.0003534713285504503 
-0.001675035086894808 
0.01125420898903417 
0 
0.008374412283862206 
0.005627104494517084 
0.009461299349742519 
-0.01098059018337795 
-0.00148788262095054 
-0.0005506119918358742 
-0.006928354876353324 
-0.0006573610211023413 
-0.001105809929822878 
-0.000914018062031467 
-0.002201694201470709 
-0.001881901815082293 
-0.003785726874369224 
-0.003754017422238124 
-0.0002815686994676272 
-0.0009962935457158192 
-0.0002116965676556081 
-0.000246739431018982 
-0.002052944521556481 
-0.003471288437534692 
-0.003621147244037442 
-0.002909004719251498 
-0.005788607160623307 
-0.006053588136110091 
-0.002006044484911577 
-0.0005722813369227178 
-0.001596482821199287 
-0.000683533009748524 
0.01677228819856755 
-0.003271125002059898 
-0.0003743068567090474 
-0.0002815686994676272 
-0.0005183983719833863 
0.01637106739305778 
0 
0.009641564807107263 
0.006025331490038651 
-0.002870210186471107 
-0.0004489469488962178 
-0.0003402427972057628 
-0.0004137419805128212 
-0.001942536427436773 
-0.0005249082002956268 
-0.0002578876324430404 
0.003486621184850735 
0.04591951952905963 
0.03646998022246005 
0.08076600928094504 
0.03222400287201593 
-0.0002713360368873425 
-0.001656883133233429 
-0.000264146817441748 
-0.04104396406283949 
-0.000841418471177725 
-0.0007437873273782149 
-0.0005638411946581647 
0.004726806418832073 
0 
0.0169584755626939 
-0.004951344048768175 
-0.0004855518791900254 
-0.0005657158734666453 
0.04691912162962938 
0.002622288579325912 
-0.0003243577906814485 
-0.002979309902987747 
-0.002349721741492219 
0.01786145604164233 
0 
0.07888553857088028 
0.008930728020821167 
-0.0001945740583151697 
-0.0007573245879575186 
-0.0002110097954976214 
-0.0002186307023502765 
-0.0009876924892882782 
-0.0002227274807038366 
-0.0004771763635109914 
0.06655844433662432 
0 
0.004958489402933377 
0.004958489402933377 
-0.02750858783651087 
-0.0005677768057779988 
-0.001368014631631377 
0.0238977565025603 
-0.007768741128685172 
-0.0008630417495515879 
-0.005541069732536682 
-0.01536932061995841 
-0.005167891752746755 
-0.0002833058788152154 
-0.00458414735470274 
-0.001487456522168603 
-0.0002353292082977305 
-0.008982035230295921 
-0.008435504572760417 
-0.003970959488149716 
-0.0003550810804455637 
-0.0004246616777059143 
-0.004810691273211636 
-0.02739122000326788 
0 
0.006101036134308493 
0.008271319868862485 
-0.001259060290209174 
-0.002483582261719 
-0.0002710023267717962 
-0.0008249604045080154 
-0.0004501245276498639 
-0.001098369437465011 
-0.0016952282130132 
-0.0004230371056385584 
-0.0003948674323329195 
-0.001847491651889114 
-0.0006044593200718747 
-0.0008561548295004289 
0 
0 
0.1051482834116494 
-0.002748235029062551 
-0.0007573245879575186 
-0.003373579617608267 
-0.001535988287645388 
-0.001291121727542809 
-0.001604442642211262 
-0.00264304182670076 
-0.006366066769102476 
-0.004765652563032155 
-0.004307346660444089 
-0.001025324972802016 
-0.001478382669551594 
-0.001245202821771504 
-0.003055438781458074 
0.004022437805504978 
-0.004952444407691171 
-0.0003887767515965767 
-0.0005183983719833863 
-0.001784186327607544 
-0.001276402083222158 
-0.001581763025345066 
-0.0002739004460096525 
0.03276704745475938 
-0.005526911566090334 
-0.000412233134923349 
-0.001888039642248872 
0.01472579448228981 
0 
0.00619576394360713 
0.01054027074932214 
0 
0 
0.1815657012534191 
0.3739283533782539 
0.005270135374661068 
-0.0005638411946581647 
-0.0002205692336549598 
0 
0.1161133161056111 
0 
0.004910981701258191 
0.01171665126454962 
0.01171665126454962 
0.2616806877975835 
1.710039117856323 
-0.001438519092127124 
-0.01247581680875184 
-0.000757791005365542 
-0.002648286013774545 
-0.01226204984380363 
-0.001776520311534389 
-0.0005845208799527731 
-0.001140526507757216 
0 
0.002511859531141895 
0.002511859531141895 
-0.0060987698978203 
-0.0009816421272095136 
-0.001452887584501293 
-0.0005638411946581647 
-0.000227204170694606 
-0.001849324795199655 
-0.004989951248002517 
-0.002620159694484055 
-0.003908271529894603 
-0.001398675324858228 
0.01632872214206035 
0 
0 
0.008164361071030173 
0.008164361071030173 
0.008164361071030173 
-0.0001625640552200325 
-0.000830171430415082 
-0.001161695341813575 
-0.0009720383349280894 
-0.000970736571948132 
-0.002518215742709362 
-0.0003915971838531337 
-0.0124375901525447 
-0.006727441394784132 
-0.0008107512837263949 
-0.0002509549014471408 
-0.0005091749749023907 
-0.0001725169485226141 
-0.004311821729236841 
-0.0002331219058773176 
-0.0003915971838531337 
-0.001907792302325181 
-0.0003811842969722338 
-0.0002833064804452143 
-0.0009813053040833991 
0.5676607398397908 
0.03546511425434754 
0.01795250204209285 
0.20328440065668 
0.20328440065668 
-0.0035597070197221 
0.1062956235871874 
0 
0.04258207568338639 
-0.001633593907312655 
-0.0006792769920900976 
-0.0007055049656580677 
-0.001122977354454676 
-0.0034136451303791 
-0.0002815686994676272 
-0.00128405544242357 
-0.0002645413067880863 
-0.001418130121194358 
-0.0005630009574400681 
-0.0002073388430755785 
-0.0006841662854231253 
-0.001104583756401485 
-0.002900208509063831 
-0.006340914198912051 
-0.0004855518791900254 
-0.0008809951212731332 
-0.008946181896154901 
-8.262701724514563e-05 
0 
0 
0.0075441613203728 
0.0075441613203728 
0.0075441613203728 
-0.0006717758040738119 
-0.003738124849916289 
-0.0002028688365084676 
-0.002304183988371322 
-0.0003895292061484715 
-0.001196470160865722 
-0.000329866793338679 
0.003016580606577219 
-0.0004855518791900254 
-0.00211404890606307 
0.008964734921279291 
0 
0.004482367460639645 
-0.006185159094630329 
-0.001689794333304895 
-0.01096304454296909 
-0.000578639302333102 
-0.001077525842346896 
-0.001780859278469934 
-0.0004603248328140631 
-0.003678300418091578 
0 
0.003923698032075654 
0.03704797834540372 
-0.01227025128982274 
-0.0006656836004927816 
-0.0005828093094879086 
-0.01000932475577796 
-0.0002316485028158129 
-0.009009894767473745 
-0.0009120816662375167 
0.06793289005020113 
-0.0007817273483939827 
-0.01014904085857991 
0.0005901031689655656 
0.02792446119080786 
0 
0.01396223059540393 
-0.001245134619256446 
-0.0009140474893909962 
-0.0009689193855037567 
-0.0006528213273937298 
-0.0005748571894390684 
-0.001162534364292832 
-0.0008194788403686464 
-0.003286285178722129 
-0.0004032132172015977 
-0.03684763719900937 
-0.003000600400187502 
0.04204142549930048 
0.02102071274965024 
-0.000319098597798123 
-0.0002567583662724185 
0 
0.005056714494977205 
-0.00349582877352727 
0.00183317238801858 
-0.001768563433006022 
0.01338147851071181 
0.2589590594145396 
-0.0002729221751273616 
-0.000609672400051104 
-0.0002815686994676272 
-0.00782791389521947 
-0.002556118176671257 
-0.004481397101598736 
0.001666783897323231 
0 
-0.001066801652134998 
-0.003777537707805051 
-0.005394412313182084 
0.01866941128989911 
0 
0.009334705644949554 
0 
0 
0.002419492511822552 
-0.005005436238054886 
0 
0 
0 
0.01580769894685977 
0.01580769894685977 
-0.0006941026404131379 
-0.0007573245879575186 
-0.0004555944930087744 
-0.0002597674108645629 
-0.0004587377215276843 
-0.002738223937615288 
-0.0006878169703261897 
-0.005795811327469766 
-0.0004558656415308199 
-0.006614109895344096 
-0.0003674709713094553 
-0.0002253701633538754 
-0.0005279030630288655 
0.005186556790318072 
-0.006741183131774628 
-0.003812988774198006 
-0.001996070784764175 
-0.001127199772391712 
-0.0007573245879575186 
-0.0004173648697448138 
-0.001774484764091453 
-0.0003191479769041148 
-0.001095628360388593 
-0.0002387115932474984 
-0.0004173800856347782 
-0.002857346636771802 
-0.001003577971358 
-0.0003101138620206972 
0.01379892261408486 
0 
0.006899461307042429 
-0.002738223937615288 
-0.002436418853418876 
0 
0.9630387290690823 
0 
0 
0.005903574076043149 
0 
0.0008917112065152632 
0.01216998821226383 
0.00580090986865053 
-0.01024041209942232 
-0.002442725143558943 
0.0507765569526308 
0.006331801706376863 
0.03752404009781313 
0.04961515482533802 
-0.0357558990551697 
-0.001322399626744721 
-0.001216352042724687 
-0.0007132681840288741 
-0.01586046196713601 
-0.003954529621253071 
-0.002269930330100368 
-0.0002432554062566697 
0 
0.006702149514768589 
-0.000292020675699104 
-0.004968993499168647 
0.03493180622592278 
0 
-0.00167981877538177 
-0.0004060918347218014 
-0.0008121836694436028 
-0.0008121836694436028 
-0.001351058706428273 
-0.001505780425898834 
-0.004006650935083175 
-0.0005782372868189712 
-0.0004004963808830378 
-0.0003702541759244015 
-0.0004855518791900254 
-0.0005120355226740595 
-0.0003629050301720099 
-0.0008954736043798074 
-0.0002822692453890977 
-0.0008851993746401919 
-0.0006802977242392817 
-0.005200420296197283 
0.01805785817884198 
0 
0 
0.00158974788598224 
-0.0005902344853076309 
-0.0005790988484072749 
-0.001268665233932812 
-0.002405238580509156 
0.002092662890525501 
-0.0001960881768578507 
-0.0005737875073130285 
-0.0001368223578959005 
-0.002207572919331631 
-0.0004626748739568514 
-0.003242650209722887 
0.01476866589293942 
-0.009281514759613453 
-0.0001725455414771703 
-0.001264477261078835 
-0.005538831003305433 
-0.0002798888779600331 
-0.005440656233347232 
-0.001362473665607353 
-0.0003602069935560477 
-0.005235954433105784 
-0.0004304389052093566 
0 
0.01090350627047583 
-0.0006792235660535715 
-0.05067148968480047 
-0.0002386911410482235 
0.01104284101799311 
-0.0006679211375585387 
-0.001817630925124745 
-0.0005319756184360998 
-0.0002794911877054045 
-0.0002479776707940336 
-0.0003918269264224734 
-0.0002815565995076329 
-0.002390670132455722 
0.006379036835000421 
0.0285194241886246 
0 
0.0142597120943123 
-0.01127054277373043 
-0.003203316462486663 
-0.0003736901525313843 
-0.0006032359550527988 
-0.0006032359550527988 
-0.002220735809214253 
-0.0005097350342259397 
-0.01971106641854926 
-0.003805012470817205 
-0.0004974302345695842 
-0.000327761757281535 
-0.001030672851246186 
-0.003092568873424594 
-0.0005630009574400681 
-0.001665802761171864 
-0.0008272821523057488 
-0.0008842696641304758 
-0.000652878329319997 
-0.000158608378310775 
0.113350773565344 
0 
0.04736788389389719 
0.04736788389389719 
-0.000626303135638227 
-0.009623933682283802 
-0.001140514692184965 
-0.0007598987421008075 
-0.0004961593554045474 
-0.0001714935914223327 
-0.0004855518791900254 
-0.006594530597777258 
-0.001850473623297638 
0.006674025469756041 
0.003337012734878021 
-0.0008095043231203761 
-0.0004588033562981406 
-0.002305744249161131 
-0.003876775486399827 
0 
0.01213872262460449 
-0.0004572099481156471 
-0.0003844997259898308 
-0.002016989325825957 
-0.0004457179737738311 
-0.002585433318544165 
-0.0003232383303545025 
0 
0.001365392455769124 
-0.0005521920876794041 
-0.0007215166648495031 
0 
0.00759218068425834 
0.00379609034212917 
-0.01592438593306916 
-0.0004912112628620235 
-0.0009016722397539539 
-0.0002325923031932229 
-0.0007788099472714595 
-0.0004004498731925138 
-0.002720356130712418 
-0.0002218870352950384 
-0.0002532287940485453 
-0.0009973219848016949 
-0.0007718426689571255 
-0.0003727341169512426 
-0.001354432652361956 
0 
0.05103331298580346 
-0.0002690375851061679 
0 
0.1593848406154262 
0.0623853371776668 
0.01454697963496401 
0 
0.007273489817482005 
0.02872526808608411 
0.001476824761128517 
-0.001328217163724683 
-0.0005862186557683514 
-0.0008398442124401692 
-0.0007788099472714595 
-0.001553820098042734 
-0.0002771090606853707 
-0.003359915734117193 
-0.001211700293262618 
-0.0004864089988956377 
-0.0005303919088991127 
0.006110911259026732 
0.00177443413158463 
0.01672373758067033 
0.2737996209273775 
0.003737224405928103 
0.1368998104636888 
-0.0008645229566047807 
-0.0005667888121122335 
-0.0008299480514427983 
-0.0006442012329637951 
-0.0008305306969966814 
-0.0006543827873489009 
-0.0004855518791900254 
-0.001490193193436019 
-0.0004855518791900254 
-0.0005839674182772401 
-0.0005839674182772401 
-0.0004864089988956377 
-0.0005028982188929065 
-0.005109114009504939 
-0.005998430128498661 
-0.003600491990211199 
-0.0004539588995521853 
-0.0005638411946581647 
-0.0004632774022537922 
-0.001343226810265127 
-0.0003895292061484715 
-0.0002379477093966083 
-0.003579899909934112 
-0.0001502530049458993 
-0.0002940168648096671 
1.084426319500302 
1.084426319500302 
-0.0003099914778091964 
-0.0003191479769041148 
-0.004848061973457998 
-0.001511748573896008 
-0.003574034429453585 
-0.000382227912440374 
-0.000619823447633557 
0 
0.009538906281012118 
0.03241858546204912 
-0.001649954099332718 
-0.002189476155357308 
-0.002631032958499487 
-0.0001614001340299509 
-0.001137075852808842 
0 
0 
0.06505956446153857 
0.03928855679108149 
-0.0008963332706771695 
-0.001582290472844229 
0 
0 
0 
0.006975923221462117 
0 
0.03622519091712814 
-0.0008534132017673957 
-0.002437552937370822 
-0.0006433389432012406 
-0.0003932829535181258 
-0.0001497997418091018 
0.06223145039817134 
-0.001232455847438226 
-0.002885805965394452 
-0.000841418471177725 
-0.0009478101440579844 
-0.003149032306809157 
0.06578178224965864 
0 
0.2084731912187066 
0 
0 
0.1042365956093533 
-0.002315931884598795 
-0.00178088671614004 
-0.0002935517181449616 
-0.002337179049883432 
-0.0002433437069635445 
-0.0004090126259175364 
-0.0006646796301556936 
-0.0004004198340735125 
-0.0003124863760900703 
0.04789343121931051 
0.01986991268424958 
0 
0.02394671560965526 
-0.0008177518078383041 
-0.0002098632582245568 
-0.0002233100369664648 
0.05598223515815847 
0 
-0.004006650935083175 
-0.0005768898438237602 
-0.0003844997259898308 
-0.002307020462153955 
0.04194362986708611 
0.0005620149434172378 
0.004514999746050348 
0.002257499873025174 
0.08384181532703 
0.01035896499749915 
0.02579195742158976 
0.005179482498749576 
0.02897196756559768 
-0.0008445960859521473 
-0.002416348268711519 
-0.0003099914778091964 
-0.0005782822806289001 
-0.004167481001386705 
-0.0006638887485175214 
-0.0001561660153646602 
-0.004019925245108853 
-0.0008273082300811128 
-0.001211016269932166 
-0.002278187822984632 
-0.0001065113514528629 
-0.0008827302842982632 
-0.001211700293262618 
-0.000323694155978891 
-0.001095628360388593 
-0.0002387115932474984 
-0.0003048998144343108 
-0.001250871080401193 
-0.0002331219058773176 
-0.000828026207805473 
0 
0.002996609962500297 
0.001498304981250149 
-0.0003124863760900703 
-0.0003978550018790733 
0.188211041106601 
0.01540682318450748 
-0.000541342440235439 
-0.000626303135638227 
-0.0004855518791900254 
-0.001754221783894782 
-0.0005839674182772401 
-0.002725948107575152 
-0.0002536255566718174 
-0.000609672400051104 
-0.002369901439537769 
0.01771001543445289 
0 
0.01085838358308546 
0.01684584465951564 
0.2391453715546411 
-0.01078052448491899 
-0.002341083630859529 
-0.0004855518791900254 
0.03685989364287034 
0 
0.03616481046556137 
0.01842994682143517 
-0.007738008942790644 
-0.0004195300954546079 
-0.0005662699002263007 
-0.0007573245879575186 
-0.002306257874167692 
0.02344433507658664 
0 
0.004320989407985774 
-0.001174003909894259 
-0.0002645413067880863 
-0.0001951524055444334 
0 
0.01749113559884181 
-0.002358039696781852 
-0.001241483569622379 
0 
-0.000609672400051104 
-0.0002327219411519831 
-0.0003785072022483454 
-0.001063106291907747 
-0.0007267580720068191 
-0.004441546136623711 
-0.0003124863760900703 
-0.001357659770007175 
-0.000626303135638227 
-0.001256127195788791 
-0.003783875727838543 
-0.0002798888779600331 
-0.001217694943530954 
0 
0.01456238914854762 
0.005725665947306042 
0.00662402578511378 
0.02686258838874223 
0 
-9.066355380759368e-05 
-0.001933109278230899 
-0.0002871415835680293 
-0.00111052259636729 
-0.00131088512769405 
-0.001360396213010435 
-0.0007573245879575186 
-0.001211700293262618 
-0.003121524067500495 
-0.0003894299123423997 
0.003704233432157011 
0.008741023422327904 
0 
0.07232962093112273 
0 
0 
0.03616481046556137 
0.03616481046556137 
-0.004347393947886501 
-0.0005538094842206308 
-0.0005921873597980246 
-0.000234990883611614 
-0.001795007814421538 
-0.000626303135638227 
-0.003993341980497842 
-0.0004750331051572168 
-0.005351852433873739 
-0.0002218870352950384 
0.001548761226405143 
0.005508070830100534 
0.0007743806132025717 
-0.004139603554123903 
0.02124970182720941 
0 
0.05213349065936113 
0.1294833444304317 
0.0106248509136047 
0.0106248509136047 
-0.0002856703705538023 
-0.002433727061078568 
-0.0009903961176774341 
-0.001939470923411938 
-0.001327754897716708 
-0.0006248107146914725 
0 
-0.009925168921504522 
-0.002782781273051425 
-0.0006639665977425239 
-0.0008903186530254326 
0.02028772731328222 
-0.0002432554062566697 
-0.001607829050826233 
-0.001990965711163228 
-0.0002412639105576592 
-0.001141230827738787 
-0.001393121701270752 
-0.004446137695215824 
-0.006509539262045966 
-0.0002432554062566697 
-0.00281233480444956 
-0.004850318053386211 
-0.0003190540616423871 
0 
0.02297407472704886 
0.01679481134355404 
-0.001610761480078411 
-0.00222463671368659 
-0.0005695416103833354 
-0.003600347498554572 
-0.001522919185441484 
-0.0002025833921739035 
0.0027778369875545 
0.1229683081572703 
0 
0.01651781939866587 
-0.003733684161444616 
-0.002375799123674693 
-0.00351740937274494 
-0.008407908362678924 
-0.001919352127348076 
-0.0002218870352950384 
-0.01599342069134781 
-0.000574021516350737 
-0.0001772763019668305 
-0.0004477677822960357 
-0.0002771090606853707 
-0.0004964468992154394 
-0.001330573081980249 
-0.0007923284421746265 
0.006298502835093974 
0 
0 
0.06144064386121076 
-0.002683223643720095 
-0.0006007002418627021 
-0.0007599482589984046 
0.002651500241617174 
-0.0005249082002956268 
-0.0002440154687329486 
-0.000234990883611614 
0.01008711493761369 
0.02504899495172369 
-0.001305956425701371 
0.001577005678100129 
0 
0.0007885028390500646 
0.003632565629091556 
-0.0007524549285218218 
0.02065004772774538 
-0.0003099914778091964 
-0.001285367103553465 
-0.0006612197924003186 
-0.0004718407078324935 
0 
0.002874180250152087 
0.08942686676519455 
0.003313926112420825 
0.02859764553720918 
-0.0005595203919667429 
-0.0004855518791900254 
-0.0004579281437143735 
0 
0.07704562670356792 
-0.001778119256658004 
-0.0004269273414274858 
-0.008995608595209474 
-0.0004943898347589449 
-0.000267940803622567 
-0.0004304389052093566 
0.1689151441749415 
0.007357440194113481 
-0.01192546969450685 
-0.0004437872605972356 
-0.004983701830633227 
-0.000474474268839107 
-0.0004698901360510419 
-0.0004402759147644276 
-0.0004402759147644276 
-0.0004947315443579154 
-0.0002062261255569157 
0 
0 
0.007009069223316024 
0.007009069223316024 
-0.0005024778877754688 
-0.0009278664012740907 
-0.000998075003898984 
-0.0003188916046482617 
-0.0003575064308049942 
0.005936840346879225 
0 
0.002968420173439612 
0.002968420173439612 
-0.0009665791651127145 
-0.0002654509020508291 
-0.001707145895231818 
-0.002725429981369066 
-0.0002815686994676272 
-0.001649954099332718 
-0.0007809143088844915 
-0.0004855518791900254 
-0.0005810608634252715 
-0.0002331219058773176 
0.006563406541783126 
-0.0004592478073523811 
-0.0005388224472478695 
-0.0009280064180018089 
-0.0001177137412015819 
0.001038871449807799 
0.06818215776710826 
0 
0 
0.0174146237475989 
-0.004527993199147561 
-0.000247702411061853 
-0.0008857113339207448 
-0.0008017112211838894 
0.00559325205129638 
0 
0.00279662602564819 
-0.04161009112148386 
-0.0004958172484110327 
-0.001762963278287919 
-0.00118067531743425 
-0.004657557450956537 
-0.0005638411946581647 
-0.001538329207041356 
0.007060852930462725 
-0.0003702056013397151 
-0.001417872384247442 
0.002040980383766087 
0.002109315373453749 
-0.0002523157344066119 
-0.0006289923394554449 
-0.000319098597798123 
-0.002352132462742157 
-0.0002940797671841217 
-0.0007932714632365922 
-0.001105973533957848 
0 
0.001262654404870309 
-0.01449998298895618 
-0.001367090883085946 
-0.002277702514869771 
-0.000553673733768839 
-0.003447995224795337 
-0.0002432554062566697 
-0.001096662363155004 
-0.0006717758040738119 
-0.0005623007732552108 
0 
0.06345896097773267 
0.1254038444818183 
-0.001181212887748411 
0 
0.001515281830404039 
0.001515281830404039 
-0.002592525037791467 
0.01298969113676153 
-0.0004060918347218014 
-0.0007457612404586563 
-0.0002058128383962917 
-0.0005786798713572856 
-0.0002331219058773176 
0.08551542218962156 
0.04275771109481078 
0.00820544508609926 
0 
0.00410272254304963 
0.01520722364282694 
0 
0.03765948379545899 
0.00760361182141347 
-0.0002626823872540719 
-0.001029897652587107 
-0.0004401633631025179 
-0.0002327219411519831 
-0.0004641810205378843 
-0.0001963452400780328 
-0.00447356750397234 
-0.0003269664315019923 
0.005009333822413674 
0 
0.002504666911206837 
0.002504666911206837 
-0.002631032958499487 
-0.001067368429423645 
-0.006095596221219341 
-0.001332430417440157 
-0.001390851026921527 
-0.000626303135638227 
-0.0008363259166676354 
-0.0003915971838531337 
0.232088904641241 
0 
-0.000353885497692668 
-0.0004734243533274956 
-0.001470684929221098 
-0.003167507419340796 
-0.001398268539600795 
-0.001575367412493542 
-0.0002162134528654856 
-0.001774484764091453 
-0.0003895292061484715 
-0.002016989325825957 
0.02038728689365074 
0 
0 
0.01019364344682537 
-0.00106155555644977 
-0.0009170406370635777 
0 
0.002369016928458975 
-0.0004030966949692571 
-0.005423146507240772 
-0.0005839674182772401 
0 
0.0164581406759663 
0.06601067782147624 
-0.0002777198652341985 
-0.0009369731798675681 
-0.001024225663824968 
-0.002275891560817072 
-0.0005869600908289815 
-0.003276109183949883 
-0.0006124543878724136 
-0.0002432554062566697 
0.06928087633827504 
-0.000619823447633557 
-0.00019801401882662 
-0.0005655529367502241 
-0.0007037673877674498 
-0.0005532454714690507 
-0.001410207753064692 
-0.0002631361135802178 
-0.000942050784723565 
-0.0004855518791900254 
-0.0005085267364287782 
-0.003969961576839226 
-0.000505568346110625 
0.003047123013483544 
-0.0002677225924148909 
-0.0005618673907825623 
-0.0004791712296094403 
-0.001071742462343239 
-0.0004410633115759491 
-0.0004641810205378843 
-0.0006893794809090781 
-0.001869386156024026 
0.008477270065885716 
0.001325658625982191 
0.01439816856490031 
0.004329266597322443 
0.01576108379358812 
0.002810264031287743 
-0.0004855518791900254 
-0.0004021079261467144 
-0.006472594410613773 
-0.000694763850628893 
-0.0005252387248411124 
-0.0009325800373700895 
-0.0002673979705597944 
-0.0003036738915368715 
-0.0002864088238220973 
-0.001356105290391069 
-0.001240800760963643 
-0.000319098597798123 
-0.001649954099332718 
-0.0005250908691278777 
-0.0003029559158664577 
-0.0003309894329493369 
-0.001855029899375471 
-0.0007573245879575186 
-0.004243312213129484 
-0.001690076520953628 
-0.0003938434849763865 
0 
0 
0.007797548888695049 
-0.0002798888779600331 
-0.0001044414666082104 
-0.0003857200262137655 
0 
0.01751261221225469 
0 
0.02402112268942843 
-0.001685956304119041 
-0.0006679211375585387 
-0.0006930046239419856 
-0.0004551289972736855 
-0.004137936394724171 
-0.0003895292061484715 
-0.001888442308178125 
-0.0002489491021573457 
-0.004969150421662062 
-0.0003191479769041148 
-0.0004500464483985852 
-0.005351731890983946 
-0.0008295470552363093 
0.01881986034892637 
0.009409930174463186 
-0.001466116487839703 
-0.0005557928942893308 
-0.000454733734143617 
-0.002067878038514077 
-0.0006212838250373049 
-0.0002411817816629524 
-0.0004570705670471605 
-0.01455776756933292 
-0.0004855518791900254 
0 
0.01744180472902196 
-0.005590891191437512 
-0.00148469421221438 
0.00894794241446558 
-0.0006792235660535715 
-0.001345046979132871 
-0.0005957407725840128 
0.001775251179209434 
-0.003169841642901752 
-0.007696958117538604 
-0.002582672514717731 
-0.0001851544836722744 
-0.0009140745717181368 
-0.001225381344508246 
-0.0002321561886233761 
0.01276029566015499 
-0.0004855518791900254 
-0.001258300870733416 
-0.002029809163541898 
-0.00158386168615607 
-0.00120254070096149 
-0.0002735175678388672 
-0.0005947524289753823 
-0.0005760829895726938 
0 
0.1436395639665784 
0.1436395639665784 
-0.001181530439311302 
-0.006369989735821397 
-0.0003844997259898308 
-0.001774484764091453 
-0.0007185556350522732 
0.01482489520951585 
0 
0 
0.009355676896950818 
0.007412447604757923 
-0.0006638151349553066 
-0.0007055049656580677 
-0.00208349277398059 
0.02348221639758558 
0.0423192401090514 
-0.0003059562608721721 
-0.0003402427972057628 
-0.0005252387248411124 
0 
0.00136299000970383 
-0.0005694592817273942 
-0.0002560100625915025 
-0.0004611000375358677 
0 
0.001943229292192893 
0.3265197555049255 
-0.002252472226249302 
-0.001045496046566096 
-0.0001958915756048629 
-0.0004474117595165739 
-0.000626303135638227 
-0.0005181855299616711 
-0.001999200474810275 
-0.0006686757111619901 
-0.0017566148461707 
0 
0.01908898264423419 
0 
0.0221858352712363 
-0.002984374901168182 
-0.002594343505931095 
-0.001907792302325181 
-0.0004304389052093566 
-0.001067122293481052 
-0.0002397485222179556 
-0.0009859401249115126 
-0.0002331219058773176 
-0.003754017422238124 
-0.001021718257495517 
-0.0005289650939135034 
-0.0004873455873599152 
-0.0002880136629616642 
-0.000234990883611614 
-0.0007573245879575186 
-0.0002061019086404156 
-0.0005712968902271642 
-0.007244981149714521 
-0.001615473490435495 
-0.001145620717130926 
-0.0008044714294752677 
0 
-0.003012256534291365 
0 
0.002037263049780157 
0.003990359788192647 
0.001020700874917362 
0 
0.009791646570055953 
0.006097155644300668 
-0.01021675268328036 
-0.001126085629706114 
-0.0002432554062566697 
-0.001388588875428609 
-0.0005694592817273942 
-0.002140868880683996 
-0.0002826269136358599 
-0.0003099914778091964 
-0.0007177121565297487 
-0.0002798888779600331 
-0.0001743216368195263 
-0.000617831012432573 
0.009483149553535245 
0.004741574776767623 
-0.002108363733802666 
0.001458423460822446 
0.01595057748493403 
0 
0 
0.00179361190265099 
0.00179361190265099 
0.00179361190265099 
-0.003638815105412635 
-0.0001094135271309708 
-0.001014423356367447 
-0.001032154370616525 
-0.003058828697436141 
0 
0 
0.002156457530439211 
-0.0003099914778091964 
0.01261638404386613 
0.006308192021933065 
-0.0003425725927166893 
-0.0002428535372734709 
-0.00303857683420965 
-0.000619823447633557 
-0.004422756497000364 
-0.000463953751780656 
-0.0001182250441952176 
-0.0007032814952237736 
0 
0.03815332185993288 
0.03815332185993288 
-0.000259114975641571 
-0.0008695857500175736 
-0.0003402427972057628 
-0.000630388913077977 
-0.0004021079261467144 
0.002800949924711239 
-0.0005810706926075431 
-0.0005994314630297137 
-0.0003534713285504503 
-0.0009669900439453806 
-0.004452606813905596 
0.004693683648887597 
0.002681875616422259 
-0.0009885510926487308 
-0.001295970097308337 
-0.0008910049570472919 
-0.0006878169703261897 
-0.0001488646144249972 
-0.0002029236381224632 
-0.0001751271923934458 
-0.000215728084936038 
-0.003437719456941357 
-0.0008529793253375835 
-0.0002432554062566697 
-0.00071506703806285 
-0.0004655122498020629 
-0.0003740034376864236 
0.1584927439965204 
0 
0 
0.04133281116800364 
0.04133281116800364 
-0.0004774833571073776 
-0.0002967312236059483 
-0.003085590822263814 
-0.0005645332496536354 
-0.0006917364105445112 
0.0160369584253696 
0 
0 
0.008018479212684799 
0 
-0.002243781314641572 
-0.0002519018838234198 
-0.0003282834207805014 
-0.0009973219848016949 
-0.0004617658639162195 
-0.001085762215946228 
-0.002346678260677702 
-0.00340499349060005 
-0.002948481300260066 
-0.0004774833571073776 
-0.001123412900146923 
-0.0002136697649389181 
-0.0009520418160689674 
0 
0 
0 
0 
0 
0 
0 
-0.0004172940244084567 
0 
-0.0007514381987396281 
0 
0 
0.2760041688760029 
0 
0.1380020844380014 
-0.0004304389052093566 
-0.0002297758958477135 
-0.002168508266519833 
-0.0002983670463536433 
-0.001177890405881361 
-0.002188944113112114 
-0.0004773149781850473 
-0.0004456511398620399 
-0.0005839674182772401 
0.02381331022073709 
-0.0004813125601507721 
-0.0002505423517727773 
-0.0002524493919890815 
-0.0006646796301556936 
-0.0004917129565440085 
-0.0002815565995076329 
-0.0008534132017673957 
-0.0004160362739561656 
-0.0007830004762031513 
-0.003414709465713069 
-0.0004294732878612777 
-0.0005665572799873939 
-0.002578514376835359 
-0.0006625054850113881 
-0.002895128525588149 
-0.0002162134528654856 
-0.0005638411946581647 
-0.001698182737426205 
-0.0005289650939135034 
-0.0005045766835989799 
-0.001025708898033723 
0.5179181188290791 
0 
0.2589590594145396 
-0.0005396253480082973 
-0.0004349444807586449 
-0.0004246616777059143 
-0.0003872975076712001 
-0.0009378726579602196 
-0.0005120355226740595 
-0.000869622784484324 
-0.0003201450979962464 
-0.0004855518791900254 
-0.0005638411946581647 
-0.000114969241789139 
-0.0005638411946581647 
-0.0001480727873294007 
-0.0001785553272127363 
0.01442760943983981 
0 
0.03358573078501458 
-0.0004855518791900254 
-0.0002856703705538023 
-0.0006776630540569043 
-0.001428947969363794 
-0.0004000447107919732 
0.02427152324299546 
0.0009292214523195039 
0.07849155606586396 
0 
0.01234411020230483 
-0.0004716572478427621 
-0.0002620517881870366 
-0.0002432554062566697 
-0.0003599579354650477 
0 
-0.005932440649823797 
-0.003218862479476334 
-0.0007573245879575186 
-0.0002282685334167439 
-0.0008517598080041627 
-0.002950299676577099 
0.05078243646415022 
-0.001470953357921069 
-0.0007977769883191706 
-0.0004378799149839804 
-0.010332568441816 
-0.00356316693547206 
-0.0004773142277589142 
0.02177624952278034 
-0.003249028872335912 
-0.0004641810205378843 
-0.0001963452400780328 
-0.001160301377673249 
-0.001656705433701469 
0.004183467292933524 
0.06062106925495538 
0.06062106925495538 
-0.0002601971123050873 
-0.0001360208245994326 
-0.0002856703705538023 
0.3801662000527534 
0 
0.1900831000263767 
-0.001464216020886836 
-0.002959198254494485 
-0.002489237058417936 
-0.0003455902407124956 
-0.0001520202336151671 
-0.0009378726579602196 
-0.0002822692453890977 
-0.001904710226010519 
-0.003617277429068461 
-0.00130392122614653 
-0.0004238714194873966 
-0.002227142252739077 
-0.0005665572799873939 
-0.0005474749852499881 
0.009913389771769305 
0.004956694885884652 
0.008595937838489809 
-0.0005638411946581647 
-0.00041055862559105 
-0.0002369024352527059 
-0.0002218870352950384 
-0.0005249082002956268 
-0.0002881462081042342 
-0.0003014584952492545 
0 
0 
0.03925161605302762 
0.03791356083025655 
0.02502870333400735 
0.01251435166700367 
-0.0003529424521124617 
0.05883943792625526 
0 
0 
0.02623779867296866 
0.02623779867296866 
-0.0007573245879575186 
0 
0 
0.03386312329136441 
0.01504619173451595 
-0.0008254388327480644 
-0.000626303135638227 
-0.0004004198340735125 
-0.006634647647281293 
-0.0004001475426852337 
-0.001267132673553305 
-0.0007255342551363892 
-0.0002533486817006871 
0.01061008032543603 
0 
0.005305040162718017 
-0.0002333289607266555 
-0.001939873997244643 
0 
0 
0.01274265836211453 
0.007520306933847707 
-0.004006650935083175 
-0.002229526737605511 
-0.001391476720545585 
0.01696235497087528 
-9.480343624162647e-05 
-0.001426778390562428 
-0.003752901722197078 
-0.001494300776745696 
-0.001211451350080521 
-0.0002295636626420097 
0 
0.01548480467394479 
-0.01786084558327307 
-0.001437299006499889 
-0.0006066970934935913 
-0.0003090436876265011 
-0.001244925022095745 
-0.0004954431317055686 
-0.0006012399895764499 
-0.001285124001957586 
-0.00442556028756759 
-0.001127199772391712 
-0.0004780093966192706 
-0.002206839616411027 
-0.01136315740287038 
0.008018991772208174 
0 
0.01493066358138789 
-0.0009696046265799085 
-0.001754006616097248 
-0.0003618607271792199 
-0.0003174952815109131 
-0.004090824690165535 
-0.0005712968902271642 
0 
0 
0.01848357714813083 
0.01848357714813083 
-0.0008097897599918326 
-0.00577939311702091 
-0.001236757867232675 
0.01510927201437159 
-0.0001997724660761489 
-0.0007349439090113746 
-0.002531384368881815 
-0.0002449783043997994 
-0.002772396372867712 
-0.0004223105167300737 
-0.001080816973566051 
-0.0002499773110958946 
-0.0002856703705538023 
-0.001211700293262618 
-0.0003844997259898308 
-0.0006722479157264522 
-0.0001872530650198859 
-0.0003844997259898308 
-0.0002856703705538023 
0.01696450569415664 
0 
0.00848225284707832 
0.00504578757917468 
0 
0.002328780887008024 
-0.0003534713285504503 
-0.0006781125454122381 
-0.0003658130716656625 
-0.001877415934341698 
-0.0007913443938190506 
-0.000246739431018982 
0.005288174088598833 
0.05914395505670797 
0.002644087044299416 
-0.0004855518791900254 
-0.0005938403020126464 
-0.0003736692284133736 
-0.0003633385417895224 
-0.0002974007364592529 
-0.001340177710684627 
-0.001245700293481949 
-0.0001792608498883618 
-0.0002331219058773176 
-0.002516030047747182 
-0.000609672400051104 
-0.001103661378604457 
-0.01034680834684968 
-0.003734706997172515 
-0.007559541689785973 
-0.0008976508416034057 
-0.0008337454603092701 
0.01052325364160163 
-8.758977008787359e-05 
-0.0002943660529548425 
-0.001517902799216226 
-0.0005025626386490723 
0 
0 
0.03029540840514173 
-0.0006645735551562495 
-0.003096883116905537 
-0.001091468015593469 
-0.0007573245879575186 
-0.000626303135638227 
0.004623267455562444 
-0.0002815565995076329 
-0.0005651363910781681 
0 
0.005324124016097159 
0.0307397326949876 
0 
-0.004454720918903088 
0.02676461118595298 
0 
0 
0.00590974893119151 
0.00590974893119151 
0.02297435323791903 
-0.0004768971145475639 
-0.0005636038435330371 
-0.0002024274630272288 
0.002412833461868223 
-0.0007573245879575186 
0 
-0.0004262836121050037 
0.02000910901070584 
-0.0002432554062566697 
-0.0005638411946581647 
-0.0007222387139370884 
0 
-0.003579771453055531 
-0.005011280144085146 
-0.0004224762321918232 
-0.002229508939039019 
-0.000295625905588275 
-0.0002187628465669646 
-0.0004944585071610189 
0.02994687547689893 
-0.0001997724660761489 
-0.0008911047651748245 
-0.0002158491736446144 
0.0008456299677487562 
0.01331697127577668 
0.006658485637888341 
0.007587191611191935 
-0.002239673627414327 
-0.0003519892071895312 
-0.0005657158734666453 
-0.01180083702664414 
0 
0.01242034249752435 
0.01177639824774838 
-0.000201341002280639 
0.002317145554771959 
-0.007991275407335867 
0.003315806031968087 
0 
0.001657903015984044 
0.01836840797559564 
0 
0 
0 
0.005139519028615968 
0.005139519028615968 
0.005139519028615968 
-0.001516530697205115 
-0.001310574512291026 
-0.0005865281275680481 
-0.001074578573469626 
-0.0004855518791900254 
-0.0005839674182772401 
0.004846792961137638 
0.002423396480568819 
0.06337876595164713 
0 
0 
0.0302879523252169 
0.0302879523252169 
-0.01713030090328276 
-0.000271355959807166 
-0.0008387268306978044 
0.001030474632333881 
-0.0005056318914742059 
0 
0 
0.01081090052094084 
-0.0006839722267544875 
0 
0.01993186098051644 
0.009132482406805175 
-0.00507186807906057 
-0.0003002625694058866 
0.4226272189394198 
0 
0 
0.2113136094697099 
0.2113136094697099 
0.2113136094697099 
-0.003144536173054206 
-0.0003202857984158846 
-0.0004693187740945046 
-0.001912471949668069 
-0.0005299339735348226 
-0.0002236873152223899 
0 
0.009732678418347436 
0.01969778970248715 
-0.0004664534173072907 
-0.0005921873597980246 
-0.001808682850627636 
-0.0007028286765594131 
-0.0004774833571073776 
-0.001362294783254225 
-0.003780431044901495 
-0.0008952543737678627 
-0.0004238714194873966 
-0.002138750030530881 
-0.0007798639821924128 
-0.0002635949268201712 
0.01375605886844669 
0.3580945818788712 
0.8831510216003885 
0 
0.1790472909394356 
-0.002602359722965206 
-0.001098296737879398 
-0.005042537562349849 
-0.006067220664563397 
-0.0004568092956169989 
-0.0005045766835989799 
0.001393985242214192 
-0.0007491134809069624 
0.002836932015225702 
-0.0004004198340735125 
-0.001763332817736627 
0.04840029907802165 
0.009270328225901814 
0.002716703641696222 
-0.002098367763544313 
-0.000775687259533602 
-0.0007874595359481467 
-0.0004641810205378843 
-0.001181829940488842 
-0.004137839828905862 
0.2190901588742289 
0 
0.1095450794371145 
0.1095450794371145 
-0.001958638144882556 
-0.01567521405533384 
-0.0007573245879575186 
-0.000254233356038649 
0.006773242064217548 
0 
0.03100295765194581 
0.007920429439489413 
0.003296900818498818 
-0.002546372150518856 
-0.0002432554062566697 
0 
0.06683708990577737 
-0.0002761575767944379 
-0.0008426180967287113 
0.04143559849282351 
0.002455788007015684 
-0.001801127841893122 
-0.000951549286857401 
-0.0005839674182772401 
-0.0005839674182772401 
-0.0006234754927591979 
-0.005648519156703714 
0.02370015475174135 
0 
0.01185007737587068 
0 
0.002060075831506311 
-0.004001612789728369 
-0.0005429794956891334 
-0.0003059562608721721 
-0.0004245492038566362 
-0.0003002625694058866 
-0.000505568346110625 
0 
0.003804915771659065 
-0.002351269359406404 
-0.001649954099332718 
-0.0004477677822960357 
-0.0008496250743999841 
0.01595303178491832 
-0.0001916476896108463 
-0.0002136421915994082 
-0.000242122970229954 
-0.0005716957032501501 
-0.0002503001997821658 
-0.003995427526189688 
-0.000234990883611614 
-0.000569415269492611 
0 
-0.006644783859829473 
-0.0002493487412030483 
-0.0006347838339783197 
-0.0004579281437143735 
-0.005040286527986331 
-0.001226987327374242 
-0.0001614950335188205 
0.001858442904639008 
-0.0002787807828251773 
-0.001459050548982547 
-0.0004252994480005967 
-0.005497280883458338 
0.003051070890561701 
0 
0.01360437641526396 
0.03103907301157507 
0 
-0.002792099685210009 
-0.0002227274807038366 
-0.003231936775578932 
-0.003231936775578932 
-0.0005274282836520706 
-0.0004275284773879667 
-0.0009890057741313387 
-0.0001704277809501558 
-0.0008524633739190818 
0.02684055297563397 
0.01342027648781698 
-0.001744969665398192 
-0.0004010437632478164 
-0.00232953890632493 
0.1699845140944126 
0 
0 
0.06002738670742165 
-0.005635117607448311 
-0.0008669851308680711 
-0.004311821729236841 
-0.0002798888779600331 
0.5195767535815381 
0.259788376790769 
-0.00202349753532224 
-0.0004963578300026125 
0.009340229571734585 
0 
0.04144867695234778 
0 
0.003493567400345856 
-0.0002441558973461046 
-0.0004477677822960357 
-0.002669716782178487 
-0.0005120355226740595 
-0.0001425130317275119 
-0.000652878329319997 
-0.0002071805461458668 
-0.004006650935083175 
-0.0009834678571586175 
-0.0007573245879575186 
0.003474717812015926 
-0.0004641810205378843 
-0.0005390654194909055 
-0.0009591702694059501 
-0.001127199772391712 
-0.001332306443137237 
-0.00117659418616432 
-0.001049688827517342 
0 
0.01458239733991157 
0.01458239733991157 
-0.0003535543339696226 
-0.0006234754927591979 
-0.0004555105160908124 
-0.0005396180462208385 
0.1714436199365828 
0.01212115175149342 
0.2113766415778424 
0.1066375376485433 
0.01122856696401636 
0.004120754888907611 
0.007579223407033245 
-0.0003865199705059624 
-0.0009030476941200614 
-0.004651662965006911 
-0.0001581363086445984 
-0.0006934702795056901 
-0.0005181855299616711 
-0.000626303135638227 
-0.0009137770287247102 
-0.0002856703705538023 
-0.0006412028855654907 
-0.0001577028785396301 
-0.0007573245879575186 
0.002611249893329001 
-0.0002807610558120912 
-0.0004335006602505323 
-0.0006589272246912719 
-0.0005254717992702532 
-0.0004641810205378843 
-0.0001963452400780328 
-0.0002324111018800086 
-0.0008653285820233887 
-0.0007357639068720503 
-0.0008526296784510085 
-0.0005204740988418733 
-0.000275945356405626 
-0.0007250736012509272 
-0.0003769962790700185 
-0.0005249082002956268 
-0.001790174507343083 
-0.0005254056451561728 
-0.002546372150518856 
-0.0002822571317183871 
0 
0.0116957025358245 
0.0116957025358245 
-0.002738223937615288 
-0.0009134239059330997 
-0.001397173479311961 
-0.000441965332129076 
-0.0004677031234755294 
-0.0007862261801063074 
-0.0007227060930620164 
-0.001137540920412055 
0.1909841411259245 
0 
-0.002285710257763507 
0.01717102767016155 
0 
0 
0.008585513835080775 
0.008585513835080775 
-0.0006792235660535715 
-0.002237667312083028 
-0.001211700293262618 
-0.002359562101713567 
-0.004653405426807197 
-0.0006955654016950159 
-0.000889848367994204 
-0.000556106679825434 
-0.001232860634697167 
-0.0004774833571073776 
-0.0004068200484706391 
0 
-0.0007573245879575186 
-0.0007114337339477661 
-0.001242397286602022 
-0.001019787350738416 
-0.0004485515437579282 
-0.0002761575767944379 
-0.0003099914778091964 
-0.0002815686994676272 
-0.0004794214444223168 
-0.0002798380372956646 
-0.002553571528273689 
-0.0003059562608721721 
-0.0003029168198473112 
0 
-0.001033621578293233 
-0.0002432554062566697 
-0.002006481206930829 
0.006730486295457276 
0 
0.003365243147728638 
0.003365243147728638 
-0.001676911056918699 
-0.0007687534395599373 
-0.0004855518791900254 
-0.0004008444932907057 
-0.0001849167054596997 
-0.0007573245879575186 
-0.0002634102020468336 
-0.0006117550950704685 
-0.001176217541434693 
-0.002160356294549616 
0.0238977565025603 
-0.0006930046239419856 
-0.0003844997259898308 
-0.0005744937649523531 
-0.001604442557714737 
-0.0005638411946581647 
-0.0005783789639829051 
-0.0002508672948483476 
-0.000223344834488446 
-0.0002395200628820725 
-0.001005216337845208 
-0.007790454492855873 
-0.0003475872679034298 
-0.006975009654070406 
-0.001057460516488762 
-0.0003113762364174486 
-0.0002221254098787442 
-0.001405284936069143 
0 
0.02382467892452527 
-0.0007455045887767694 
-0.0005605792165880494 
0 
0 
0.02563697482914063 
0.02252177274312117 
0.02956584488669488 
-0.001639787376771394 
-0.0002822571317183871 
-0.0005597105844061922 
-0.0003006895113867125 
-0.0002645413067880863 
-0.0002041644512723084 
-0.002064046938336874 
-0.0002166880602487545 
-0.0003402427972057628 
-0.000261439285746045 
-0.002002268530295895 
-0.0008788096626039959 
-0.01127811227658258 
-0.0003633799463437444 
-0.004006650935083175 
-0.002374350049774686 
-0.000379516043041257 
-0.001814897882076172 
0.00899577726479966 
0 
0.00449788863239983 
0.006845311738781415 
0 
0.007724053488558865 
0.002746544079745774 
0.001373272039872887 
0.008788469582711402 
0 
0.005490011543914528 
-0.0003124863760900703 
-0.002225168763906021 
-0.0008836875984845282 
0.008051548569796162 
-0.002546372150518856 
-0.0005045766835989799 
-0.003633243889554342 
-0.000285599497892306 
-0.001234576906140191 
-0.0005839674182772401 
-0.004614758862965526 
-0.0002952279492229079 
-0.0003464736261298223 
-0.0003619704787719431 
-0.0003898490424960156 
-0.001495317014457806 
-0.001392727001545241 
-0.00152911644771315 
-0.0004564638847117589 
-0.0002106945204462164 
0.008982865607743933 
0 
0.004491432803871966 
0.01017182930875281 
0 
0.005085914654376404 
0.005085914654376404 
-0.001640609450794287 
-0.0002266087847712452 
-0.0003703495765577521 
-0.0005454884225993012 
-0.0004477677822960357 
0.04144867695234778 
0.001306026547647716 
-0.000970736571948132 
-0.00451029276756593 
0.3554136989830642 
0.19954465915466 
-0.0003895292061484715 
-0.0001880870343086131 
-0.000175492184218735 
-0.0001453002713882307 
-0.0005638411946581647 
-0.0002839023574742836 
0.01605145165539624 
0 
0.008025725827698121 
-0.00349582877352727 
-0.0001910289543254022 
-0.0006234754927591979 
-0.002196315677255222 
-0.00147322718197776 
-0.0004532701933488295 
-0.0004532701933488295 
-0.0004338263710821932 
-0.0001958915756048629 
-0.004545088175987382 
0 
0 
-0.0003631153508716543 
-0.001348879566137485 
-0.0005819981948414546 
0 
0.003705074441369196 
0.09900777658543865 
0 
0.04950388829271932 
0.002769637955704959 
0.00514738467100087 
0.06567617829630934 
0.07124568917329172 
0.01586796341563012 
0.01049419133307399 
0 
0 
0.009772983485732658 
0.009772983485732658 
-0.002066060970705735 
-0.0003099914778091964 
-0.0001547402451613116 
0.02350278255360762 
0.08159070750587072 
0 
0.04079535375293536 
-0.0003693622025156653 
-0.0003658130716656625 
-0.0005099415484024399 
0.04377681614511125 
0 
0.02188840807255563 
0 
0.01667728049021796 
-0.001296861328064946 
0.001277384894884676 
0.02580436303095581 
-0.00192969064626708 
-0.001819290853033883 
-0.004908297458695194 
-0.000626303135638227 
-0.001181329216273077 
-0.0002349634714856497 
-0.001251975746169871 
0.006096918122759585 
0.001898433719244133 
-0.0004641810205378843 
-0.0004871473629301372 
-0.0004230216709359632 
-0.0004630693207986836 
0.006939865796456886 
0 
-0.0009816421272095136 
-0.002050406073463149 
-0.0003857200262137655 
-0.0011863564479688 
-0.001089916122311775 
-0.000660939296438771 
-0.0007165129602205158 
-0.001642992448531142 
-0.0002076678961620358 
-0.001400791270595413 
-0.0001520202336151671 
0 
0 
0 
0.316147410250561 
0 
0.1580737051252805 
-0.0003124863760900703 
-0.0002256358144807042 
-0.000289258083439121 
-0.001211700293262618 
0 
0.01843150273328619 
-0.00455480130665534 
-0.0001874046125394747 
-0.0002616453287124162 
0.04102938372835507 
0.01795250204209285 
0.008324439231496459 
0 
-0.0009013229276591051 
-0.000660939296438771 
-0.0005839674182772401 
-0.0005289741803026559 
-0.0004477677822960357 
-0.001483321680931898 
0 
0.002482117740573987 
-0.0002440154687329486 
-0.0005626639519721712 
-0.0007333408191021902 
-0.0003094154526198534 
-0.0006363973123274351 
-0.001501936758189236 
-0.0004653019543818423 
-0.003668359716757109 
-0.0007895251710076624 
-0.0004769229262146616 
0.008989641460827952 
0.03613398278510768 
-0.0006709217658440586 
-0.0006972376986347853 
-0.0002227274807038366 
-0.0005047752770151762 
-0.0005660507002272187 
0.01345193571864497 
-0.0007473881114071037 
-0.0003191479769041148 
-0.001452155504058985 
-0.001128494092834871 
0 
0 
0 
0.5253449259657468 
-0.0006868275212155988 
-0.0002135562517608638 
-0.002959487672839865 
-0.0002508707751013307 
-0.000946730854339522 
-0.001324074097173365 
-0.0007250736012509272 
-0.0007248037486012566 
-0.001222264903158019 
-0.0003468311894468537 
-0.0003191479769041148 
-0.0004027736024808159 
-0.0002266087847712452 
0.08311819510102204 
-0.0005638411946581647 
-0.0008193305916597402 
-0.0009954728303430353 
0.00340243965474089 
0 
0.001701219827370445 
-0.002065437308244987 
-0.0002874524530647785 
-0.0006814063879289181 
-0.001300373579105871 
-0.001388530176110051 
-0.002982173503810519 
-0.0005249082002956268 
-0.0004674833227896447 
-0.0004090126259175364 
-0.0003895292061484715 
-0.0008748632590743237 
-0.001836375347066184 
-0.0003895292061484715 
-0.0005638411946581647 
-0.0005638411946581647 
-0.0009668610674624509 
-0.0004129471113369044 
0.001719363478509641 
-0.0005384303737930613 
-0.0002732064956518409 
-0.0003124863760900703 
0.01357599561919109 
0.0008501807862867049 
0.003525464090312257 
0.001762732045156129 
-0.0007573245879575186 
-0.003280756767873026 
-0.0003895292061484715 
0.003374108039309481 
0 
0 
0.001687054019654741 
-0.0003354259884201505 
-0.0002739004460096525 
0.125274635475089 
0 
0.03152303583008071 
-0.0002507965002642702 
-0.0002645413067880863 
-0.001005274100069769 
0.06324199166660958 
0 
0.03162099583330479 
-0.01002048459484537 
-0.0002645413067880863 
-0.0004225579597102735 
0.00308168824509676 
0 
0.00154084412254838 
-0.00349582877352727 
-0.000701750033402669 
-0.0006223788570773163 
-0.0006494467332271755 
-0.001493649785142299 
-0.0007508728384173854 
-0.0001571827118847193 
0.04987079303599282 
0 
0.00374246761212803 
0 
0 
0.001871233806064015 
0.001871233806064015 
-0.001316942015411815 
-0.0004436918853531558 
-0.0002432554062566697 
-0.0005132359909619158 
-0.0002321561886233761 
0.002319732480882799 
0.001159866240441399 
-0.0005657158734666453 
-0.0004558908856780788 
-0.0008554353505800842 
-0.00130290078932894 
-0.000441965332129076 
-0.0004641810205378843 
-0.007820231828399526 
-0.0002723631401534954 
0.004919273838615225 
0.02331249398846212 
0.007111935486556367 
-0.009785962957868821 
0 
0.01104284101799311 
-0.0006930046239419856 
-0.001924621511360679 
0.002008102796385859 
-0.000187415841413044 
-0.001454575399399832 
-0.0002645413067880863 
-0.0001386801315398374 
-0.000289258083439121 
-0.000750695533739038 
-0.001246823134983935 
-0.0002116905995664582 
-0.0003059562608721721 
-0.001512006148562479 
-0.000345476879339587 
-0.0007055049656580677 
-0.0002078220280469902 
-0.0007985944938830716 
-0.0003129054937045226 
0 
0.001636954406766124 
-0.000619823447633557 
0 
-0.0001967321729123103 
0 
0.06116271600798236 
-0.0004388752259613996 
-0.0001762751938197919 
0.001132422319654368 
-0.0007473881114071037 
-0.0006646796301556936 
0.1934119115806249 
0.09670595579031246 
0.02489405948416539 
-0.001385342161704764 
-0.000379516043041257 
-0.0002811936857273678 
-0.0002811936857273678 
-0.0002645413067880863 
0.06622188722822772 
0 
0 
0 
0.02342754422178115 
0.02342754422178115 
0.003746360806135165 
0 
0 
0.009271557922717312 
-0.002003975078842958 
-0.0002218870352950384 
-0.001093644799921416 
-0.0015928599182705 
-0.0002222917318071029 
-0.01741499174058195 
-0.0006893976923600914 
-0.0002227274807038366 
-0.0002344009056958406 
-0.0007828222930546028 
-0.0002815565995076329 
-0.0003994475220856258 
-0.001201101388607364 
-0.0005352941356601648 
-0.0001953747156977724 
-0.0004039133297339333 
-0.0001652572062859378 
-0.001918663663970182 
-0.003507694612987215 
-0.0005570442308281225 
0.0184719499492216 
0.07962281262353048 
0 
0.03981140631176524 
-0.000986963993978714 
-0.0004855128847445412 
-0.0002064994234448348 
0 
0 
0.001759800115012642 
-0.0005626639519721712 
-0.0003228829575091925 
-0.0002645413067880863 
-0.0007913443938190506 
-0.0002164481762435456 
-0.0004173648697448138 
0.01883822345982159 
0.004354050309572824 
-0.00044206806795398 
0 
0.002879921148741823 
-0.0003077765647697311 
-0.0002227274807038366 
-0.0006276921793613978 
-0.0002397485222179556 
-0.0001397266817302215 
-0.002108905404181393 
0.001835890993304972 
-0.0009378726579602196 
-0.0003447156572909055 
0 
0 
0.006173341772994998 
-0.000234990883611614 
-0.0004137919549004168 
-0.005705993232092766 
-0.0008228835556630333 
0 
0.003181920290158968 
-0.0003129054937045226 
0.01751857574402974 
0 
0 
0.01108071045877606 
0.001195415260941117 
-0.0005120355226740595 
-0.000626303135638227 
-0.0004461238617968624 
-0.0001984965682360784 
-0.000259114975641571 
-0.002263252582561299 
-0.004092025626437186 
-0.0007067390169723718 
-0.001582575296231422 
0.02678825292180212 
0 
0.01339412646090106 
-0.0006790294686528571 
-0.0004246616777059143 
-0.002974855022115421 
-0.0003380716578692559 
-9.16483113219449e-05 
-0.0005144359548955558 
-0.0006950680600852792 
-0.000275797660135192 
-0.0003812068282885378 
-0.0001867994132806401 
0.1167556719398549 
0.05837783596992743 
0.002191553505117654 
-0.0006057387154900606 
-0.0002044485836607003 
-0.0001679377176590165 
-0.0003879641057808973 
-0.001261290551036495 
-0.001356105290391069 
0.007042509230413844 
-0.0002331219058773176 
-0.0002815686994676272 
0.03178491627530806 
0 
-0.000353885497692668 
-0.0008788420380547271 
-0.0009769868413526438 
-0.0002182434901537103 
-0.004978934453110674 
0 
0 
0 
0.797935453162397 
0 
0.007198102899390063 
0.02941708213990036 
0 
0 
0.01470854106995018 
0.01470854106995018 
-0.0002815686994676272 
-0.0004332974244474617 
-0.0004456511398620399 
-0.0005655529367502241 
-0.0002032445903138288 
0.02857795498771969 
0 
0.00305099749635592 
0.01428897749385984 
0.01428897749385984 
0.00610199499271184 
0 
0.001015190027868162 
0.00461279180810599 
0 
-0.0001829324946814281 
-0.0002815565995076329 
-0.0005716957032501501 
0.1460908304561266 
0 
0.08302731291334636 
-0.001134853870636935 
-0.0001762751938197919 
-0.007693560239957494 
-0.0002841450342961374 
-0.0007798639821924128 
0.01281548942736545 
0 
-0.0004855518791900254 
-0.0006358438372115912 
0.0204487751669988 
-0.0009720383349280894 
-0.001820120241148025 
-0.0003254775252639096 
-0.0004501245276498639 
-0.001411877614610555 
0 
0.01526563471042434 
0.01628610222706635 
-0.001122977354454676 
-0.0005694592817273942 
-0.0002938505618539492 
-0.0003955993091235285 
-0.0008619578258739491 
-0.0008619578258739491 
-0.007991275407335867 
-0.0008791213944855075 
-0.0002331219058773176 
0.0009956965458610874 
-0.0005744937649523531 
-0.00849853392551177 
-0.0005343962498393483 
-0.0003063684216579361 
-0.0005665572799873939 
-0.0006347838339783197 
-0.001029897652587107 
-0.0007573245879575186 
-0.0005638411946581647 
-0.0005638411946581647 
0 
0.00338507090665215 
0.001755920808752679 
-0.0002713360368873425 
-0.001242652043528756 
-0.0004664534173072907 
-0.0005918549440544583 
-0.0005918549440544583 
0 
0 
0 
0.002754288083517586 
-0.0004833728479820303 
-0.0004716003412466512 
-0.0002402534940891141 
-0.0002787709186431079 
0.0049418803939467 
-0.000346142095285916 
-0.0003756584281877045 
-0.0008518951677834595 
0 
0.001929683167542907 
-0.004029110532904809 
-0.0002932680901992138 
0.06309438902374298 
0.003526624382618174 
0.01500701594679905 
-0.0002231334438246477 
-0.002118189675607081 
0 
0.001219268027134488 
0 
0 
0 
-0.0007884717958830703 
0.02715454183718148 
0.002905258946009555 
-0.0003320378418495058 
-0.0006133757651523672 
-0.001245134619256446 
-0.000626303135638227 
-0.000626303135638227 
0.001056911422188541 
0.004684056226172381 
0 
0.00234202811308619 
0.00234202811308619 
-0.0005045766835989799 
-0.0004353967231788208 
-0.001511748573896008 
-0.0008667109144646642 
-0.0001409846145758955 
-0.00520216208392352 
-0.0007314993539720186 
-0.0002517490048183283 
-0.0002645413067880863 
-0.0003895292061484715 
-0.0005744937649523531 
-0.0001982080982064225 
-0.001031978176811285 
-0.0005638411946581647 
-0.0002645413067880863 
0 
-0.002480815841483726 
-0.0004741603211654973 
-0.0002645413067880863 
-0.0003212113561392966 
-0.0003124053573457363 
-0.0003124053573457363 
-0.0002645413067880863 
0 
-0.007831908088662017 
-0.0009378726579602196 
-0.0001755047469070674 
-0.0005665572799873939 
-0.00181525041096507 
-0.0009363619666141744 
-0.0005677768057779988 
-0.001114450996686688 
0.01712380035192977 
-0.002725429981369066 
-0.0007737527752738708 
-0.0001993010817708707 
-0.0001098198195017921 
-0.00102366448417461 
-0.0002272670507709874 
-0.0003895292061484715 
-0.004314399232924681 
0 
0.01314940191756923 
0.01314940191756923 
-0.004283435010386047 
-0.0006671123422818036 
0.008027441808004814 
-0.0005648862330876738 
0.03600187827706488 
-0.002167886326997434 
-0.0004304389052093566 
-0.000234990883611614 
-0.002269438279372282 
-0.006406916319875596 
-0.0006878169703261897 
-0.0008952543737678627 
-0.0004904547421774436 
-0.0009927075245991983 
-0.0002815686994676272 
0 
0.04571971730411931 
-0.0005638411946581647 
-0.0003951798858688987 
-0.0006433389432012406 
-0.0002106945204462164 
-0.002167886326997434 
0.00117871161242099 
-0.0006114270727858482 
-0.0003059562608721721 
-0.004006650935083175 
0 
0.002523682894589281 
-0.000626303135638227 
-0.0002181516646760774 
-0.007898651842546322 
0.00644442349623571 
0 
0.005114867675852001 
0.003785311855468293 
0 
0 
0 
0.005749437926141994 
0.005749437926141994 
-0.0003895292061484715 
-0.0002344009056958406 
-0.0004864089988956377 
-0.0003191479769041148 
-0.000609672400051104 
-0.0004477677822960357 
-0.003006138840677296 
-0.0002623331693574909 
-0.0006256902255760421 
-0.001131366882123171 
-0.01208862682797505 
-0.0006792235660535715 
-0.000626303135638227 
-0.0003254553167541429 
-0.0009808248048941662 
0.02768517597247196 
0.0270627256282034 
-0.0002573807058869246 
0.01769674141459045 
0 
-0.00108465123897141 
0.0505382788084318 
0 
0.0252691394042159 
-0.0004476105308193184 
-0.0005257944981470674 
-0.0002518067726747991 
0 
-0.003006138840677296 
0.003694575704779194 
0 
0.001847287852389597 
-0.0003616977617434967 
-0.0004855518791900254 
-0.00349582877352727 
-0.0007573245879575186 
-0.0004000646565593181 
0.01611867102022115 
-0.0127851638583409 
-0.0003351798194264856 
-0.002738223937615288 
-0.0003191479769041148 
-0.000289082210778458 
-0.0004906306815257507 
0 
0 
0.01140832972751778 
0.01140832972751778 
-0.0002054936733455686 
-0.0002054936733455686 
-0.007970520735823775 
-0.0002389165569628571 
-0.0002815686994676272 
-0.0001957089064451945 
-0.0002888837824935665 
-0.0004855518791900254 
-0.0005839674182772401 
-0.0007840380063011652 
-0.001164797445857134 
-0.0005045766835989799 
0.003747960173267837 
0 
0.01397603428372076 
-0.003356436264756231 
-0.0005657158734666453 
-0.006074093361227143 
0 
0 
0 
-0.0004855518791900254 
-0.002059420629055354 
-0.000660939296438771 
-0.0004641810205378843 
-0.0002645413067880863 
-0.0002077624628156812 
-0.0001880125109754096 
-0.0002231269315188485 
-0.004486860702866802 
-0.0005965374732643859 
