solver_type L2R_LR
nr_class 4
label 0 1 3 2
nr_feature 3693
bias -1
w
0.1427069367016281 -0.2301002841018623 -0.4150847965445635 -0.5276948442259753 
0.03085619605128414 0.1423015387578264 -0.1452711709126519 -0.0735765718305505 
-0.273277358672505 0.02636883448459679 0.003177384767493006 -0.6081019090353076 
-0.02295742248915612 0.1150460359867812 -0.1701823081170891 -0.1478672710539597 
0.01203319655398595 0.04174466274019549 -0.04328374825928399 -0.01276311762288776 
0.04455492854450652 -0.2094708708519618 -0.08401915838181151 -0.004138344438036297 
0.1585925395965975 -0.0689741291582586 -0.2330029394722395 -0.2337874901018278 
0 0 0 0 
-0.2293082449457735 0.2163390621401456 -0.01011069476929016 -0.04836922946013997 
0.02509732841193871 -0.01375076824360002 -0.01110745628440003 -0.002827812188922707 
0.03354215897417923 -0.02747494835125078 -0.01559780671247651 -0.004494001635204694 
-0.03960084171852953 0.03457327590958931 -0.06840829512428942 0.01133956238530196 
0 0 0 0 
0 0 0 0 
0.1166425039088364 -0.2458705085415956 -0.0892045553750305 -0.2073059551322362 
0.2551366105231679 -0.3134601725107624 0.04440621128497488 -0.09702799434456202 
0.07896263967504313 -0.07696092525255109 -0.04343547212813188 -0.02321163550946044 
-0.1036489295043832 0.03388683117606583 0.1736194782928134 -0.005051790012502456 
0.04919167218020873 -0.0914159170734181 0.05642806502441541 -0.04664543907996305 
0.02325831707058581 -0.133392903520559 -0.0459022584681708 0.07577669830568569 
-0.03870248171231976 -0.01902871809810539 -0.06074701715868299 0.01523260502953363 
-0.009047528610519461 0.1069375343038313 -0.5390584412608734 -0.1391477240865365 
0.1852727667315923 -0.07796780145594773 -0.2453998039769625 -0.2012016449811449 
-0.05683084038012184 -0.03155893240519435 0.1344561581838555 -0.06310456019376202 
0 0 0 0 
0.04927992491790001 -0.04087512775846332 -0.1251471587988445 -0.08567262136762632 
0 0 0 0 
0 0 0 0 
0.4991712203953512 -0.4933395708968972 -0.2903360946045848 -0.2515537325417974 
0 0 0 0 
0 0 0 0 
0.07374872050853389 -0.01462181433313679 -0.3431029332484786 -0.07473128663143494 
0.1409928949735568 -0.2698798808979655 -0.153636343470982 -0.5798298084541188 
0.3368679525256173 -0.3138748015563816 -0.3369707101137112 -0.4142760666301807 
0 0 0 0 
-0.03906128516001141 -0.08141611401665162 0.1545141286704849 -0.03427316972786894 
-0.04877249192385821 -0.06151657068882158 0.3039471607028646 -0.04386508316823032 
0 0 0 0 
0 0 0 0 
0 0 0 0 
-0.03859270033283897 0.01787109986642505 -0.09983410077980212 -0.007026545568995304 
0.1278907728511579 -0.05149094981769341 -0.3013580098769418 -0.02993422710292027 
0.09253338384479937 -0.155572401126147 -0.1315183149084545 0.1864711348212596 
0.1692837133114753 -0.03960681432111823 -0.1849808754087693 -0.128426128443982 
-0.3250354619255502 -0.0421403276465186 0.2441699460145621 -0.1721433882830026 
0.2277854743727207 -0.1604215763055462 -0.3215729990802887 -0.209707716788055 
0.1482158100150952 -0.02133866085577977 -0.2116048957621516 -0.3221500637491077 
0.152507071483533 -0.09491054134912486 -0.1150704571781408 -0.06435061392232687 
-0.2154932027121131 0.1306317046954265 -0.1197868298316811 -0.00369527743926309 
0.1153161072238343 -0.04717495781081257 -0.08586189866312954 -0.03909349069390148 
0 0 0 0 
0 0 0 0 
0.03053649889471431 -0.02230840466247111 -0.006340199692836515 -0.004513115159392015 
0.02819158651630289 -0.0509144918164299 -0.02354612746053902 -0.07132245826020901 
-0.1008302200962486 0.04766388404344575 0.04361469079599606 0.1451553356520274 
0.03608706782216373 0.01774085777448415 -0.0505657133068592 -0.03179268165718463 
-0.2274300414047384 -0.2406101875547159 0.2197529164536018 0.2601149785441327 
0.04106284999110218 -0.225321967507005 0.07163207605921189 -0.04311665046278268 
-0.08896507015704912 -0.0135605082539448 0.03218027579741916 0.07557656644413126 
-0.2980387032977448 0.1307091402844386 0.03616716688200095 -0.1437647044052838 
0.1066581136597985 -0.164783294743479 -0.004277349327258663 -0.1871042420703278 
0.0398048797436359 -0.1938935849967008 -0.1154034144654189 -0.3615557865701425 
-0.163784211129748 0.1884711287984469 -0.0322402443980529 -0.1458150294114302 
-0.07868781165240514 -0.07043243994440604 0.06517538904621326 0.03955441778070665 
-0.05925195084670818 0.09331460191905561 -0.2146818497194139 -0.02046738560728687 
-0.04431537022789261 -0.1209274072145948 0.06600693036048491 0.1358074265243825 
-0.1222645793603599 0.03252528373436571 0.07181799009649849 -0.1376786824378513 
0 0 0 0 
0.02992148770041248 -0.0302467370487128 -0.02186857583514326 -0.01427859936867094 
-0.3305333883100516 -0.06414097995162664 0.3945923326624231 -0.1559411406083572 
0 0 0 0 
0.348995111905936 -0.4022925623470567 -0.4203114758698164 -0.422704320999006 
0 0 0 0 
-0.08082446828500943 0.04752726921383123 0.07624985141292945 0.0004943292710974231 
0.03055294301055654 -0.01769622988746247 -0.003970875566995607 0.001611038991776379 
0 0 0 0 
0 0 0 0 
0 0 0 0 
0 0 0 0 
0 0 0 0 
0 0 0 0 
0.02939134654802903 -0.01967743740633193 -0.007963549676255299 0.0004292294724421624 
-0.06270291787828054 0.1592824739780371 -0.03779055369109557 -0.003342094457496495 
-0.07045020724179867 0.0720830730664854 0.05525588104924581 -0.01045848707269589 
-0.02917242514570958 -0.1433663852314509 0.1782145693067027 -0.05339920478259592 
-0.02889015368236876 -0.07193673533288129 0.1674058333043005 -0.02689535057261688 
0 0 0 0 
0.06269259090411756 -0.0505215412685574 -0.04885032670349984 -0.030121659749572 
0.1079882502223249 -0.0912629431168701 -0.2878701622093852 -0.2022826634950634 
-0.0492761522756247 0.07105572345363009 -0.005446769179212923 -0.001357366830932649 
0 0 0 0 
0.04884860903326698 -0.03203000632230257 -0.01109857925435195 -0.001565729067204931 
0 0 0 0 
-0.03778606231186753 0.06407752734432642 -0.02588139455213894 -0.01193005084479986 
0.02019380648648629 -0.05831183539754518 -0.3030732045747721 0.05445840080737437 
0.005929272592272586 -0.1087091089859898 0.03439941320127498 0.06831460744854466 
0.04559540283267911 -0.03392981120263246 -0.02699893077356429 -0.01554919849178184 
0 0 0 0 
0 0 0 0 
0 0 0 0 
0 0 0 0 
0.008039033132915398 0.05574386528640699 -0.07059824923404279 -0.02194302028635649 
0.4655061924186683 -0.3539895823281759 -0.3747926900267565 -0.3709041938341695 
0 0 0 0 
-0.1317922689785777 -0.01011287101961249 0.1196417466593483 0.07416759659580191 
0 0 0 0 
-0.1203563286314163 0.1823431700925034 -0.09610903659833381 -0.0553805260422963 
-0.0162488770939223 0.1112481403452431 -0.2335854045365021 -0.07813852166034883 
0 0 0 0 
0 0 0 0 
0 0 0 0 
0 0 0 0 
-0.09008139318508276 0.07207659686518159 0.08993592064882866 0.001960947411509539 
0.0973586479118098 -0.04955097859287276 -0.1079115437994217 -0.05902422937682566 
0 0 0 0 
0 0 0 0 
0.05402648463521555 0.0414165379569865 -0.1041112849966652 -0.06487872001968434 
0.03518720863517929 -0.01963960453637493 -0.02304187730967787 -0.007008155562050413 
0 0 0 0 
-0.08992464806694166 0.1478489921504342 -0.04639884284952728 -0.01813588606594655 
0.07983795050386266 0.04208953322419733 -0.1807086089312868 -0.1098593529342784 
0.0221289319753125 -0.01440254611337413 -0.01951124124585427 -0.00793227713135752 
0.08004923033750275 0.009648603476467635 -0.07837415779996401 -0.0417668250755565 
-0.01319369830324574 0.03535554759961033 -0.03769519388646255 -0.02254522836872281 
0.03776594505381337 -0.04747877869724786 -0.03350334434656812 -0.03522882859722502 
0.3271360298629489 -0.2876366116840444 -0.1693122428872243 -0.1256012949931216 
-0.1048103875199593 0.130945274711208 -0.04587949507944143 0.003367185253282287 
0.1405024074238644 -0.05392562675489292 -0.1351391388240729 -0.09839649421521457 
-0.03609542242892073 -0.002606570981019077 0.02169372704383704 -0.0281201628014783 
0.05114163857077365 -0.03923537367667236 -0.03315852103213779 -0.02234465968452203 
0.2900427450690168 -0.5482396704660676 -0.1375528028973153 -0.1043058037562972 
-0.03930785108875513 -0.05613741828662337 0.03498706048955752 0.01319312991674851 
0.4991712203953512 -0.4933395708968972 -0.2903360946045848 -0.2515537325417974 
0.07132657508795397 -0.07779313253805892 -0.04411233795866306 0.06840242753827684 
0.02762370130645809 -0.09148587060623861 -0.06146489767418078 0.06664499524442663 
0 0 0 0 
-0.02857984967937873 -0.0824991443170997 0.05668024870862107 0.08815664515906252 
0 0 0 0 
0.03975740609342043 -0.03967918607043608 -0.0223269191060467 -0.0158573756256307 
0.09626187479430241 -0.002684908548141046 -0.1467037536219869 -0.02323962662673162 
0.03723155945845417 -0.08005278036937424 0.05054940453265107 -0.01920343252339383 
-0.01074169913633061 0.06355725270367935 -0.01799163200927705 -0.0006727564537287932 
0.083738539518906 -0.03980165275272135 -0.1992750726786756 -0.2716583139612749 
-0.09009799930860259 0.1833558506139026 0.06042635169953256 -0.03724977646606967 
0 0 0 0 
0.06094199609298888 -0.02692061964937191 -0.03985967628566869 -0.01518782574759891 
0 0 0 0 
0 0 0 0 
0.08521594202544211 -0.068658518427438 -0.04228047421538951 -0.01907638097030434 
0.03390235897628914 -0.05258886617158706 0.05918060838143813 -0.004764741917312805 
0 0 0 0 
0 0 0 0 
0 0 0 0 
0 0 0 0 
0 0 0 0 
0.1138341743855872 -0.05876698825252739 -0.3800676834234302 -0.3321846358084562 
0 0 0 0 
0.03163145839071015 -0.09950603529720457 -0.1580443480438563 -0.3393472274017434 
-0.01890289672110384 0.05161342220448112 -0.1015947415010801 0.005089489187766029 
0.01288161832570313 -0.03230507320274076 0.02311053175387832 -0.05006415446917162 
-0.01760306093343253 0.05966831138552576 -0.0001850038290839608 0.0007468471928308519 
0 0 0 0 
-0.08135959967213141 0.05133811651420447 -0.03101327396922548 -0.0796886893587038 
-0.04753473810701751 0.05850697548311562 -0.01840375831776772 -0.01169608112772486 
-0.04753473810701751 0.05850697548311562 -0.01840375831776772 -0.01169608112772486 
-0.00425118836972652 0.03248877534429701 -0.1776856071486712 0.002241472794011622 
-0.03963373844637127 0.06524695148676846 -0.06797402082025179 -0.04253432604241317 
-0.01283994325108681 0.06548726706962368 -0.06506134376990863 -0.03872792014370673 
-0.0137945062526108 0.06023680599556865 -0.05792869506956372 -0.02904959130561935 
0.009693264117246371 -0.01211312876282476 -0.0541602589369102 -0.04704284240399843 
-0.04753473810701751 0.05850697548311562 -0.01840375831776772 -0.01169608112772486 
-0.2293082449457735 0.2163390621401456 -0.01011069476929016 -0.04836922946013997 
0.01059068684745341 0.07547900128747273 -0.1763908535195182 -0.05229657408862045 
0 0 0 0 
-0.166983968416289 0.05107649781107446 0.03715590648170347 -0.04524605342713305 
0 0 0 0 
0 0 0 0 
0 0 0 0 
0 0 0 0 
0 0 0 0 
-0.02796816106988265 -0.041360556269888 -0.01192719406490502 0.09042441080321707 
-0.03164986249684621 0.06518211394774329 -0.002187743757355951 -0.001708019230402987 
-0.1982576949126068 -0.04260555000967499 0.1075484277635016 0.1934427751019877 
0.07175784325575088 0.003209271115116296 -0.04399670993166863 -0.01454075746914669 
0 0 0 0 
-0.01657612137576486 -0.04528294661600033 0.05870330204616998 -0.01460378468296021 
0.02238761089381336 -0.01250280902886409 -0.109568489387828 0.04051809431175311 
0.07167827899453942 -0.08461928631742387 -0.07831084652839464 -0.07139647706032667 
0 0 0 0 
-0.2214166174483441 0.1253696331934391 0.0908339012760396 -0.2096658555738471 
0.109121667394473 0.0101987564444642 -0.0966674298167087 -0.06536836976980051 
0 0 0 0 
0.04123519612001703 -0.1062962294173819 0.01158041589066579 -0.06227222833439865 
0.001007344739630773 -0.003799945815386938 -0.0610920054214662 0.06652219563801581 
0.03502794625035863 -0.00359716212047894 -0.08532810224284779 -0.05731671354909865 
0.03800985167876846 -0.0190428522358017 -0.02005395533223147 -0.01042423344050038 
0.03800985167876846 -0.0190428522358017 -0.02005395533223147 -0.01042423344050038 
0.03800985167876846 -0.0190428522358017 -0.02005395533223147 -0.01042423344050038 
-0.02976244409909099 -0.03362375191153174 -0.1008988776091991 -0.004032743215772478 
-0.02976244409909099 -0.03362375191153174 -0.1008988776091991 -0.004032743215772478 
0 0 0 0 
-0.05226569545334164 0.1945464274931421 -0.05939355913665867 -0.1043486930040061 
-0.075472437361832 0.1066242865248641 -0.03207623849528882 -0.01204683947826558 
-0.0340008341670499 0.04752361761248131 -0.02100751900493691 -0.006922246723957269 
-0.1430383842361442 0.3002583589777996 -0.0591524789863642 -0.0154499807220408 
-0.0340008341670499 0.04752361761248131 -0.02100751900493691 -0.006922246723957269 
-0.0340008341670499 0.04752361761248131 -0.02100751900493691 -0.006922246723957269 
0.07444379912723326 0.006525399703339612 -0.0366477011666405 -0.01237672187397814 
0 0 0 0 
0 0 0 0 
0 0 0 0 
0.02308699933961449 -0.01292123876707299 -0.007014768058978969 -0.0039686052496577 
-0.1925462468126034 0.1269596051181626 -0.03782786433029581 -0.1026324494793945 
0 0 0 0 
-0.04105665301981683 -0.000676044473991887 -0.0895568512506919 -0.02571988987576566 
-0.04608875782299563 0.08345808974435623 -0.04064378429707088 -0.03187669040440501 
-0.1802757177078907 0.1047093495060312 -0.0809170242525797 -0.1091072714579607 
0 0 0 0 
0.1255629747338801 -0.09173483770423731 -0.07218522936783181 -0.04393357296550343 
0 0 0 0 
0.004216928778458672 -0.08180406257420153 -0.06783536102264008 0.04937683933624262 
0 0 0 0 
0 0 0 0 
0.003517985392542657 -0.1295388000777072 -0.0989613455466956 0.1063096820118589 
0.1076268688337551 -0.09752781502823232 -0.05948412676413863 -0.04852428540144156 
-0.04310743845849834 0.120064083230961 -0.05384660762589252 -0.07523758969174277 
-0.0694860676189864 0.0705210690341506 -0.0834347448997959 0.1156592351067958 
0.08019852580865654 -0.2504992662298686 0.1363339181866462 -0.09617373568325577 
0.0114878895941956 -0.1262533858727322 0.08286158420748874 -0.05773893890885901 
0.06735050280773915 -0.04684776027474601 -0.03165043527350428 -0.01348511562622146 
0.09292742931361181 -0.05695397886859643 -0.03764159930375469 -0.0127629106164796 
0.1594344602261935 -0.1228720676494733 -0.1548102910719663 -0.1036064684576911 
0.3791533619500974 -0.3051949179631132 -0.3659974759034457 -0.4288909650367174 
0 0 0 0 
-0.035390179197791 0.08035378567550369 -0.07692026401763828 -0.02710769987922571 
0 0 0 0 
0 0 0 0 
0 0 0 0 
0 0 0 0 
-0.2328906295346154 0.1385084352511746 -0.01831768922843941 0.0723137193987006 
0.0006909463219463049 -0.0834932169530581 0.03944556335936665 -0.04092672966900142 
-0.01436014764949056 -0.05668949262049804 -0.03355997072642904 0.07506288055117362 
0.2143668322372723 -0.1967568953854568 -0.1004587697770296 -0.1312394658066903 
0.01249749752945076 -0.004013702417301393 -0.005473896022265149 -0.001768555149646371 
-0.05216473576179492 0.08431040203628579 -0.01186306496306614 -0.0048493924060475 
-0.1554075052543108 0.2011053330910243 -0.03680912263650893 -0.1658791339901251 
0.06256697716478228 -0.04112093588972267 -0.03242808723901468 -0.01558560743082363 
-0.005493321174036999 0.06067295648166852 -0.2117497527007357 -0.03046111557360379 
0.05799601356361372 -0.06470852734424321 -0.03608593735177339 -0.02434628396048951 
0.2651223986748386 -0.132749489905352 -0.07007489222369181 -0.06950073659089502 
0 0 0 0 
0 0 0 0 
0 0 0 0 
0.06838168637749563 -0.04038164082234338 -0.03317734272120843 -0.01257728228829599 
0 0 0 0 
-0.03994609273786685 -0.01605790597111754 0.08056233291851866 -0.0002957640983441332 
-0.08625439865005194 0.1113382812540659 0.07321705762848987 -0.03100147389553493 
0 0 0 0 
-0.02747756910124707 -0.04670183152429085 0.0590253104006377 -0.01613751653257196 
0 0 0 0 
0 0 0 0 
-0.01741640368670059 -0.051820942274873 0.07308594935545273 -0.01410037132582355 
-0.0364790440925833 -0.03924306526894963 0.05981641450921137 -0.0305034737770836 
-0.03829504499676317 -0.04685280858809006 -0.01636574527179808 0.08143927870729928 
0 0 0 0 
0 0 0 0 
0.2973933351007809 -0.402691613022515 -0.1620848458535236 -0.233402889126053 
0.238974647510185 -0.3068991127520032 -0.3300723063529784 -0.2727952091038895 
0.1909058141592166 -0.1310798753798931 -0.06648019152531867 -0.03554160869789664 
0 0 0 0 
0.03184293356348181 -0.01702415269229055 -0.005739702036029875 -0.001140602133954907 
0.02508934977130915 -0.01779940013078205 -0.01290405918591505 -0.006454591187454508 
0.1180785515533205 -0.09343815130206203 -0.1175627504288276 -0.069615062204442 
-0.0678368571336931 0.07362048387907921 -0.004655082129763242 -0.001614815040503953 
-0.02825750483668304 -0.01492611189655824 0.06751117379010646 -0.002820587656401786 
-0.1079569627492259 0.06999458818343242 -0.1141406874973159 0.139888451200485 
-0.09071502598034654 0.07214310714973779 -0.01933065451144175 0.08803811885789992 
0 0 0 0 
0 0 0 0 
0.05014056824019156 -0.08589248043851384 0.04244504898788341 -0.03869492466518255 
0 0 0 0 
-0.04190987770550617 -0.0331365474547478 -0.01490451011661815 0.07771366998409596 
0.03443330637420378 -0.02607800113934504 -0.02210493196950436 -0.01753052873373273 
0 0 0 0 
-0.01140543723137047 0.03647715645806195 -0.02941074448856595 -0.02244238335639131 
0 0 0 0 
0.02312562152389041 -0.01993559165654735 -0.01641046986852358 -0.01068782424354977 
-0.02278314890652313 0.04815386118316492 -0.03170906859787168 -0.01017765123392883 
0.05497564871804715 0.005548507738548302 -0.04024761429731333 -0.03613506382437075 
0.07663240571815377 -0.05304779781854922 -0.04062100867139841 -0.02584149081142578 
0 0 0 0 
0 0 0 0 
-0.02376455520503898 -0.06769931153569692 0.05237851136297558 0.08376494158564086 
0.03668735981147328 -0.02581055982405698 -0.004846383129510122 -0.0009867403331755094 
0.06003864407043112 0.01887357969659327 -0.09273304388734309 -0.07301398005335671 
-0.1660642592963044 0.09300569569011131 0.04015766085244771 0.03822375548492298 
0 0 0 0 
0.04110122205198758 -0.04236725555162334 -0.02847511874410219 -0.01618224908633878 
0.2227235654127565 -0.01908200459408725 -0.2706118276544968 -0.2262962238720761 
0.3007404779839232 -0.361950710923632 -0.2005865944786248 -0.08972600685355697 
-0.2629390050587514 0.2697746797852807 -0.1649500322984424 -0.0501844801135985 
0 0 0 0 
-0.04203901595818562 0.05970803783451054 -0.005889323623505648 -0.0008938684094388382 
0.07106967945270248 -0.07516478659760584 -0.05036579396283437 -0.03102372351723969 
-0.06375760949683654 0.08477363145514712 -0.009356738398149015 -0.002253777287500443 
0 0 0 0 
-0.0428050754133151 -0.01596099424032883 0.06506660786717423 -0.006457466859096443 
0 0 0 0 
0.2890335351014238 -0.1843016489184659 -0.1980655561260751 -0.1374023411631156 
0 0 0 0 
0 0 0 0 
0 0 0 0 
0 0 0 0 
0.02509732841193871 -0.01375076824360002 -0.01110745628440003 -0.002827812188922707 
0.09889741716414012 -0.05243399455885541 -0.1444639181546033 -0.09209906231780313 
0.00298872964219682 -0.08877273094869891 -0.06957296017618361 0.03538571658098469 
0 0 0 0 
0 0 0 0 
0 0 0 0 
0 0 0 0 
0.1163675812652833 -0.08100808404697576 -0.05713778275847817 -0.02606495037059414 
0.1022808049753253 -0.07274686970510566 -0.02629070495387698 -0.006420936469344011 
0 0 0 0 
0.1181653242786199 -0.0697636263669965 -0.01783928832059763 -0.006840742862922786 
0.3922044046235528 -0.2817445897979501 -0.2095828270533879 -0.1237314337798734 
0.05593438188225778 -0.04787828413200883 -0.03208876623690732 -0.0144131820092992 
0.03234874930709761 -0.02695484484593957 -0.01500288335305306 -0.003831498665240147 
0.03934389729225498 -0.04466064142143564 -0.03144932086588937 -0.02196741904097702 
0.01885616401602717 -0.005775802304967803 -0.004263179923887096 -0.003104590831316675 
0 0 0 0 
0 0 0 0 
0 0 0 0 
0 0 0 0 
0 0 0 0 
0 0 0 0 
0.001937030443230636 0.001155742121909338 -0.0790333815619173 0.0749030035921901 
0.07844959607645058 -0.08399043294024747 -0.05103279683023704 -0.03606086287832408 
0.005709955267153332 -0.01176876490730372 0.02518904520302229 -0.01917763901328609 
0.01345887560257115 -0.0616364058619075 0.06557913857496279 -0.007394810000156272 
0 0 0 0 
0 0 0 0 
-0.03538023551936541 0.02888524523693546 0.02187576127021718 -0.004594248378362434 
-0.02974789288186777 0.04905768809597683 -0.02172869552364871 -0.003978159566999294 
0 0 0 0 
-0.02967980981551856 -0.03140752428038968 0.0722753882542843 -0.003117775920868691 
0 0 0 0 
-0.1080863330201646 0.1359049138215649 -0.01818426440089901 -0.009054334331083843 
0.05979529489767417 -0.1233610263208248 0.004164666689961351 -0.04370139362190894 
-0.05207247631414595 0.07601596877081646 -0.01879469125943529 -0.01369024839828196 
0.03745064089270982 -0.0320235402253558 -0.02353346945687936 -0.009863200690438827 
0.02763726078917256 -0.06452119368301522 0.06328585565336202 -0.005632612017770136 
0.04642872118917506 -0.04613595275569513 -0.0234291966514081 -0.03376412114431844 
-0.1095852637945623 0.001189093847656083 0.1052355581461718 -0.04551491296426996 
0 0 0 0 
0 0 0 0 
0 0 0 0 
0.001926612023961623 0.04258939899469485 -0.02956268678368847 -0.01670681699875941 
-0.06661472982538251 0.07680424490918215 -0.007115544910547104 -0.003929741576775534 
0.02335465910049186 -0.01665873105646428 -0.001500901044437209 -0.001631445792107938 
0.02308852016000857 -0.02936265282245517 -0.01954969492725859 -0.01570290968359053 
0.09874748427920647 -0.06027098123434874 -0.05097061099678223 -0.03147065994876121 
0 0 0 0 
0 0 0 0 
-0.2787859798667283 -0.02992105612994096 0.1614170387263512 0.01721808236423919 
0 0 0 0 
0.02145310566969551 -0.01197824527877101 -0.004299710206444011 -0.002183503430989902 
0 0 0 0 
0.1013232887404383 -0.1220108463311704 0.05483499507665195 -0.05940270047584893 
0.01272463989349544 -0.1011770553891155 -0.05379308729480264 0.05780415322383956 
0.07814885161102161 -0.2109222480322327 -0.006050589920279952 -0.01631018499950021 
0.3488319536245953 -0.6001738922550784 -0.1056807780534955 -0.3039486527164814 
0.0371472148440248 -0.08169821976656377 0.04905460099807529 -0.01940151645792387 
0.01311699164424063 -0.00791124558215474 -0.01090792218231053 -0.001922813262551848 
0.05625629709709853 -0.0498049464484813 -0.03108261357883496 -0.01539324724820812 
-0.1078342236103024 0.1623770963230616 -0.3049963511422203 -0.07463681361731757 
-0.02409538958101404 0.06207827326296851 -0.009463413455277077 -0.00415789976882168 
0.005504864660702118 -0.06862127113006385 -0.00681325724284086 0.05568021965779377 
-0.3411409024090776 0.2388989376035492 0.1603864019629709 -0.02102424773245089 
0.0686282572418395 -0.05072581575052301 -0.04093707502716627 -0.02800551464097226 
-0.001108371846889858 0.02415422161461222 -0.05567686578258142 -0.03244183735497421 
0.05180421747418604 -0.04241312830044684 -0.03983320647174549 -0.02972775871901529 
0.05280828723377927 -0.04359626446999963 -0.0350097808555293 -0.01957875677142833 
0.01473811284987124 0.04046871530288215 -0.0187332710494131 -0.00524600970738693 
0 0 0 0 
0 0 0 0 
0 0 0 0 
-0.07188523114139654 0.03305459000130807 -0.03320917967236497 0.06238343671865364 
-0.04317283420011254 0.05614032808522217 0.001183659286942987 -0.04096435384418299 
-0.05312314238380464 0.1023502684130141 -0.05168381838542638 -0.02841542872651615 
0.06311303683877342 -0.07891177613328286 0.09737801388233286 -0.02939398311708196 
-0.08381975541101234 -0.06627309490949561 -0.0298090202332363 0.1554273399681919 
0.0161160744421753 -0.0205804012238181 -0.01922306327322753 -0.01708971226846393 
-0.02674340211571571 -0.03095671136938413 0.08019033594995584 -0.01295876333905345 
0.001005381705768853 -0.01201850545632083 -0.01494981173346904 -0.0153347547855442 
0.2549688742392599 -0.2498369326309866 -0.09037142204453004 -0.09479795882576167 
0 0 0 0 
-0.2003104720378797 0.2193188090342305 0.1148441578806836 -0.08306615484517206 
0 0 0 0 
0 0 0 0 
0.1648603196137885 -0.1628130163339381 -0.1031756932883642 0.02428283273122738 
-0.05295200682367009 -0.03188830657124 0.1788188335942654 -0.03033931518182688 
0.05013084460717161 -0.002108904310849291 -0.0395838979553729 -0.02375480418922913 
0 0 0 0 
0 0 0 0 
0 0 0 0 
-0.03021650802296298 0.01108999978585833 0.03277321677523869 -0.05175033947517706 
0.04010268835440579 -0.02931805629579761 -0.002683915145443881 -0.002438357613739869 
0 0 0 0 
-0.07881993495980967 0.135596304506174 -0.02923077507002324 -0.01152654708987927 
0.00927946838073908 0.03960336705341834 -0.1630819343179734 -0.130237878783017 
0 0 0 0 
-0.0340434693442282 0.04598133016075728 -0.01757013495543472 -0.004469051583766235 
-0.08630385204182062 0.01793192256515538 0.08550102878600829 -0.0285425261849276 
0 0 0 0 
-0.03838723115415225 -0.04186878882280255 0.06225932089289136 -0.01815806461580263 
-0.03838723115415225 -0.04186878882280255 0.06225932089289136 -0.01815806461580263 
-0.04545570852662068 0.09279174684285822 -0.01916931128699285 -0.003319853228783937 
0 0 0 0 
0 0 0 0 
0 0 0 0 
0.005215392382527928 -0.01744004202242069 0.04588690151657586 -0.01268137363810401 
0.0353435493654513 -0.01286873286291548 -0.007852840706272426 -0.002134788419040081 
0 0 0 0 
-0.0565825262674813 0.06194973323442163 -0.05815542571624625 -0.01404393501545103 
0.01800194202723312 -0.01065810651488485 -0.00490010307908908 0.0008591449614205326 
0 0 0 0 
0 0 0 0 
0.03627757318696746 -0.08417756772852497 -0.07624858109558273 0.04406493243642305 
0 0 0 0 
-0.07391468069939992 0.1274404123659711 -0.02728362473257428 -0.004991452396626231 
-0.05708713811704238 -0.09267350091806201 0.104664581244136 -0.03164299038986308 
0 0 0 0 
0.06149816271254588 -0.06424113756979895 -0.03004210324663419 -0.01558152145254318 
0.1919455897239813 -0.1471275098942665 -0.1307485184408972 -0.07023920901750512 
0.04875891640735047 -0.04689696910729655 -0.02587659363956788 -0.01224116066613107 
0.08274803910814331 -0.08679705488684439 -0.05575535682925718 -0.04425549496465817 
-0.07671591450947185 0.1122370488016436 0.02643264575864388 -0.009114251456176167 
-0.03994609273786685 -0.01605790597111754 0.08056233291851866 -0.0002957640983441332 
0 0 0 0 
-0.04200029463677046 -0.07384763137777521 0.115249560985622 -0.03415321304903988 
0 0 0 0 
0 0 0 0 
0.01026821342073069 0.04042352789766376 -0.0430667126861451 -0.02700578080959998 
0 0 0 0 
0.01393914649451874 0.02603022409307626 -0.05287048245660839 -0.02008646753537085 
0 0 0 0 
0 0 0 0 
-0.0225699034405186 -0.02545506332579751 0.07828402331925476 0.0002720719147473248 
0 0 0 0 
0 0 0 0 
-0.01454553039780662 -0.05830932812960028 0.01402627599819752 0.05741731631808587 
-0.02409538958101404 0.06207827326296851 -0.009463413455277077 -0.00415789976882168 
0 0 0 0 
0 0 0 0 
0 0 0 0 
0 0 0 0 
-0.03599247822516993 -0.0823028520676708 0.1374386824868696 -0.02239558759107241 
0.05685564791096021 -0.02966446808512679 -0.01798418091925449 -0.007815431412023897 
0.07823193307962556 -0.1239647125797504 -0.09174247019732129 0.05377224420111161 
-0.02967980981551856 -0.03140752428038968 0.0722753882542843 -0.003117775920868691 
0 0 0 0 
0.00873322422127709 -0.3409824842671019 0.05344822661240105 -0.1699699947509676 
0 0 0 0 
0 0 0 0 
0 0 0 0 
0.1118504600744502 -0.0808346719911289 -0.1051549128203129 -0.09303105748480785 
-0.006769801467807174 0.01911712816875572 -0.05444841614871857 -0.05160382968906972 
0.1834361106694564 -0.1670526752323793 -0.09830542429512625 -0.07978411690343107 
0.06494769182570795 -0.06836494004690538 -0.05626680059397659 -0.05462091465042648 
0 0 0 0 
0.06202402815925548 -0.0362456959778512 -0.02704758375411612 -0.04390431770348199 
0 0 0 0 
-0.02409538958101404 0.06207827326296851 -0.009463413455277077 -0.00415789976882168 
-0.03843333950022872 0.06109235055811588 -0.008066862537431484 -0.002266325541664914 
0 0 0 0 
0 0 0 0 
0 0 0 0 
-0.00510210413226437 0.0532276132499044 -0.03248986355409614 -0.01835015701623225 
0.03574809947128349 -0.03036182486728308 -0.01634760451834064 -0.01546525147266022 
0.04551076403281271 -0.0189530335336335 -0.00125370923719286 0.001589728009937557 
0.0699715234708424 -0.0985142161010038 -0.05849171799287546 -0.07553148757174112 
0 0 0 0 
0.02616973194543905 -0.07528405531870519 0.02465824611389136 -0.02681688777753612 
-0.027448466516512 -0.02417784669846104 0.05871852982979348 -0.006045098705556766 
0 0 0 0 
0 0 0 0 
0 0 0 0 
0 0 0 0 
0 0 0 0 
0 0 0 0 
-0.02885715951163882 -0.03073693208645845 0.06100578461703625 -0.003039373174266744 
0.03961445995860488 -0.01918324229242783 -0.01884996268512357 -0.009240296321143839 
0.0353435493654513 -0.01286873286291548 -0.007852840706272426 -0.002134788419040081 
0.08176516844096833 -0.05531958042974101 -0.03165880038655178 -0.01528093737650704 
-0.02063212476644863 0.0450272318444869 -0.02444637721802019 -0.01463196090253017 
0.01530068966915656 0.04943697465779936 -0.03663166014357973 -0.006637217950799349 
0.0353435493654513 -0.01286873286291548 -0.007852840706272426 -0.002134788419040081 
0.0353435493654513 -0.01286873286291548 -0.007852840706272426 -0.002134788419040081 
-0.3027941200391601 0.06663886209849242 -0.003470224537646407 -0.02366806014652559 
-0.05519958111801296 0.04934154756250288 0.0576946706619171 -0.01045534900014026 
-0.03676751836942076 0.05607639139340889 -0.01387736640690779 -0.007370029944763217 
-0.03676751836942076 0.05607639139340889 -0.01387736640690779 -0.007370029944763217 
0 0 0 0 
-0.164535071931395 0.1447752927821969 -0.09180428050564315 0.04094079731099773 
0.02028466625609347 -0.01492141731041042 -0.01333994476844286 -0.005146619631394146 
0.02028466625609347 -0.01492141731041042 -0.01333994476844286 -0.005146619631394146 
0.02028466625609347 -0.01492141731041042 -0.01333994476844286 -0.005146619631394146 
0.08073449171814459 -0.05231478118676749 -0.02092048375798366 -0.006871354270261911 
0 0 0 0 
0 0 0 0 
0 0 0 0 
0 0 0 0 
0 0 0 0 
0.02188335769471555 -0.02422993315370296 -0.0196296248483466 -0.01483320472043037 
0 0 0 0 
0.02839300880507504 -0.02197752456377586 -0.01730829811586602 -0.009524778062917934 
0.08918211968591186 -0.04167940673246655 -0.1440766226697279 -0.1321886184811362 
0.06038938805334634 -0.06577201294797819 -0.04184295299889208 -0.03713344026549327 
-0.2454206979656868 0.1592483635748931 0.2111978630925027 -0.02060971051991415 
-0.22333048480743 0.04361444672265035 0.2366447635806155 -0.06499473898648236 
-0.1641241774011971 0.1409895511374764 0.05734160343188696 -0.0288520862585898 
0.0297325118245816 -0.1121048343669377 0.1332738185682521 -0.02302036288553087 
-0.0372460817922528 -0.03332261109750297 0.1537800044808053 -0.007757952443973844 
-0.03538023551936541 0.02888524523693546 0.02187576127021718 -0.004594248378362434 
0.02776611764540659 -0.1437390909060264 -0.1065939924431713 0.1242816182541019 
0.1645993915193254 -0.1215846782511235 -0.06353736746545824 -0.09365609810226765 
-0.01074169913633061 0.06355725270367935 -0.01799163200927705 -0.0006727564537287932 
-0.02009238600581524 0.05281173680497504 -0.05231670534639805 -0.03443712949556395 
-0.03282228340753952 -0.007299435619867114 -0.08792193311897895 0.04358455475452526 
0.01359899568300691 -0.01202849551194116 -0.008119241669453723 -0.003673401532425956 
0.01359899568300691 -0.01202849551194116 -0.008119241669453723 -0.003673401532425956 
0 0 0 0 
0 0 0 0 
0 0 0 0 
0 0 0 0 
0 0 0 0 
0 0 0 0 
0.02656971842675505 -0.02725523420360504 -0.01314154609297862 -0.01154948509366086 
0.04757242726165514 -0.04287425380483863 -0.03116356503827356 -0.01821584782197175 
-0.1037345207331262 -0.1531611989219765 0.08007083038921711 -0.002369273989499596 
0 0 0 0 
0.03013729109992671 -0.02247831669995444 -0.007182945812779426 0.0002647340974254982 
0 0 0 0 
0 0 0 0 
-0.03029191701641716 0.0425355844735888 0.0002300689636074247 0.0006531741369823424 
-0.01907601370208177 0.0502231732267505 -0.0370230204217192 -0.02377496673193259 
-0.003728136127533657 0.07102743755041245 -0.06706594628264803 -0.04152317424193393 
0 0 0 0 
0 0 0 0 
0 0 0 0 
0 0 0 0 
0 0 0 0 
0 0 0 0 
0 0 0 0 
0.02509732841193871 -0.01375076824360002 -0.01110745628440003 -0.002827812188922707 
0 0 0 0 
0 0 0 0 
0 0 0 0 
-0.2314775829241127 0.1540986491019894 0.02060423229385337 0.06652249966189248 
-0.01598387382814394 -0.01797954232998755 -0.0007318875013032182 0.0893143005955868 
0.007189718278953434 -0.01551002626127975 -0.01348388722991286 -0.01250575796595263 
0 0 0 0 
-0.0232135559426199 0.0397646210501291 -0.03112219693505515 -0.01530035089393097 
0.05535404527581521 -0.04560891566896138 -0.03292680241482247 -0.03602378680198999 
0.02245791586000277 -0.02464733849775323 -0.009813558824716451 -0.006467744799612088 
0 0 0 0 
0 0 0 0 
0 0 0 0 
0 0 0 0 
0 0 0 0 
0 0 0 0 
0 0 0 0 
-0.1770614553864996 0.1353555502264969 0.02314010507168046 0.05944360158668775 
0 0 0 0 
0 0 0 0 
0 0 0 0 
0.09637809255216109 -0.1129368452173416 0.008998391607422392 -0.04708116421406821 
0 0 0 0 
0.1199122442022864 -0.08323408346059345 -0.05092861629157822 -0.02686621437400697 
0.03251225746629161 -0.02391158598152113 -0.02352036972677038 -0.01436113107874698 
0 0 0 0 
0 0 0 0 
0 0 0 0 
0 0 0 0 
0 0 0 0 
0 0 0 0 
0.03852720299479363 -0.02363799623452078 -0.02197416949818767 -0.009160875447908246 
-0.02568459154020215 -0.06929230023173391 0.1040011831009103 -0.03198523158823037 
0 0 0 0 
0 0 0 0 
-0.057694978821812 0.104518870401161 -0.06571531018086407 -0.05241889480367535 
0 0 0 0 
0 0 0 0 
-0.08165968682761654 0.04027132122597948 0.08217625345592983 -0.002554783963571983 
0 0 0 0 
0 0 0 0 
0.1234975745447576 -0.1774626041252141 -0.03538414397055331 -0.09611846977399692 
0 0 0 0 
0 0 0 0 
0 0 0 0 
0.1186676579034227 -0.04638118748089309 -0.1379313675419811 -0.06955669445980556 
0 0 0 0 
-0.005964387377522896 0.02445936777813544 -0.05049684307062157 -0.04462222414019951 
0 0 0 0 
0.3204888275328974 -0.2224195580834493 -0.257702763345578 -0.1986469804291493 
0.03913599289017021 -0.03189880937363915 -0.03207243673937077 -0.02034540174088023 
0 0 0 0 
-0.002497948979328749 -0.02685220814546888 0.07112146089913704 -0.002425861329837994 
0 0 0 0 
0 0 0 0 
0.05977897081943234 -0.0327344889846556 -0.02051720263027276 -0.01363837391768391 
0 0 0 0 
-0.256355557262621 0.2697981267914777 -0.142766632696792 0.0003011218647514507 
0.01091363708076824 0.04750740388614014 -0.03638120076242556 -0.01252757485969165 
-0.03605673510111334 0.07029575940705221 -0.02268602846776471 -0.007867666241741362 
-0.0378319206526452 0.05268650230232621 -0.02683953010252024 -0.03445474396529841 
0 0 0 0 
0 0 0 0 
0 0 0 0 
0.02681820939228825 -0.0221608265393784 -0.01185280462265383 -0.01042673666364092 
0 0 0 0 
-0.027448466516512 -0.02417784669846104 0.05871852982979348 -0.006045098705556766 
-0.05857738234799785 -0.02263338206107156 0.06000263086995254 -0.01540746575207 
-0.02752479145637956 -0.0344761321139691 0.06997605010677052 -0.003905187332765477 
0.02753847441250922 -0.02193617462106674 -0.01648193987142758 -0.003795275646403224 
0 0 0 0 
0 0 0 0 
0 0 0 0 
0 0 0 0 
-0.01204576148498622 -0.08363030712478439 0.01478712969003331 0.08145193761026213 
0.0226949339553338 0.01423236486819482 -0.04627473955900606 0.07932689738129217 
0.02968880564461196 -0.01334811391940058 -0.005478807972824202 -0.002767845441721581 
0 0 0 0 
0 0 0 0 
-0.01707609398202665 0.07078355606859492 0.001037303095080355 0.00291531931016127 
0 0 0 0 
-0.02997535343589036 0.06619113745605587 -0.01830466955574683 -0.0153302332654423 
-0.02278314890652313 0.04815386118316492 -0.03170906859787168 -0.01017765123392883 
-0.03346569248041939 0.04223804698155832 -0.009586807361756444 -0.002906951424482784 
0.06009799982396862 -0.01830867594642127 -0.007386360603461506 0.0009619332102753712 
-0.006594500550676596 0.0233297948731368 -0.03791772180871841 -0.03869557317148432 
0 0 0 0 
0.06886522321466022 -0.05054450715930829 -0.03341924257610145 -0.03570114117594411 
0.0339009396061197 -0.03363067039019037 -0.02862709220837847 -0.03384028337100009 
0.02120118821357828 -0.06185108611427879 -0.1010960545289782 0.01862978461362928 
0.09211111235722072 -0.07620659682536632 -0.04534239139823658 -0.02843803273318665 
0.06731406817361379 -0.1191511882302676 0.02584762764821659 -0.03246140496042078 
-0.06344104591630975 0.1084291844376142 -0.02789147691750327 -0.01823718468992509 
0 0 0 0 
0 0 0 0 
0 0 0 0 
0.036570143329151 -0.02757599294590519 -0.02347745851004337 -0.01572389339993855 
-0.04802414122760889 0.06657711936236053 -0.004186416662399817 -0.001477220645808972 
0 0 0 0 
0 0 0 0 
0 0 0 0 
0 0 0 0 
-0.05357559805234022 -0.01563964942649461 -0.008862455528784067 0.1043440488061264 
0 0 0 0 
0 0 0 0 
0 0 0 0 
0 0 0 0 
0 0 0 0 
0 0 0 0 
0 0 0 0 
-0.05207247631414595 0.07601596877081646 -0.01879469125943529 -0.01369024839828196 
0 0 0 0 
-0.09411149227233157 0.135724006605327 -0.02468401488294094 -0.0145841168077208 
0 0 0 0 
-0.04452572247861944 0.07336884125167716 0.01317930022959393 -0.0331031384224748 
0 0 0 0 
0 0 0 0 
0.02463921778872775 -0.1048366967330647 -0.08078189831459688 0.03402921738000346 
0 0 0 0 
0 0 0 0 
0.02452361162893819 -0.2037359485151108 0.05964105504398401 -0.1253755025438568 
0.01309369691582489 -0.07254455863329251 0.03595010603863275 -0.03570603903312981 
0.1822210782514736 -0.075663329778931 -0.3003339885375774 -0.2690504880511013 
0.2545748297034341 -0.1326830679005036 -0.1980941776365809 -0.1061713870034267 
0.03698438593764151 -0.04746953607555603 -0.04031875572264419 -0.04367017169306505 
0 0 0 0 
0.07299308178758904 -0.07275658885088687 -0.04014626798610467 -0.030723563837588 
0.03187084459461144 -0.02965808252382383 -0.0177323968813131 -0.01054366153435982 
0.05257046561342729 -0.04069910453878477 -0.0239038473404963 -0.01393844884629426 
0 0 0 0 
0.009142807893358574 -0.04369832533024096 0.04043466440976193 -0.01250418364842451 
0.1711703047801619 -0.148378425710824 -0.06344169693548926 -0.1053606220301912 
0 0 0 0 
0 0 0 0 
0 0 0 0 
0 0 0 0 
-0.01803322765842009 0.1027059903470546 -0.02222666921248901 -0.00693264171254427 
0 0 0 0 
0 0 0 0 
-0.02281754173065728 -0.05516432452623618 -0.09768114712282464 -0.01803756578480897 
-0.0523768596122169 0.1285373425389214 -0.01394655448048266 -0.002224804281245836 
0.08862014259428007 -0.04571127902046576 -0.06696014364705141 -0.07501300892210558 
-0.09012592281458859 0.1919571329401475 -0.02042779401991614 -0.003370544479207357 
0 0 0 0 
0 0 0 0 
0 0 0 0 
0 0 0 0 
0.0584200298621053 0.02662515778929893 -0.09145430851154837 -0.04526751155407033 
-0.02796816106988265 -0.041360556269888 -0.01192719406490502 0.09042441080321707 
0.06708431794835847 -0.05494989670250157 -0.03119561342495303 -0.008988003270409387 
-0.04171030502954103 0.05710844653714574 -0.05377606146912396 -0.08994810707210572 
0 0 0 0 
0 0 0 0 
0 0 0 0 
0 0 0 0 
0 0 0 0 
0 0 0 0 
0 0 0 0 
0 0 0 0 
0 0 0 0 
0.004060898806418805 0.01830209969525249 -0.0212606141094121 -0.01536941698503808 
0.1281449296784877 -0.1392001226658593 -0.09459848340610619 -0.08302874370511097 
0 0 0 0 
0.09607012783933332 -0.02372561206901655 -0.1028979014732106 -0.04815335086855567 
0 0 0 0 
0 0 0 0 
0 0 0 0 
0 0 0 0 
-0.0003796418055007158 -0.03425024955193727 0.05896490505165562 -0.004879011936723726 
0 0 0 0 
0 0 0 0 
0 0 0 0 
0.03979904117819236 -0.03013451511510141 -0.02019986705587487 -0.0129229378309064 
0.03398568703716279 -0.04016507520606115 -0.03558534758392499 -0.03476268223713948 
-0.04248672538854836 0.06335904418968583 -0.01508155420675327 -0.006569259686543465 
0 0 0 0 
0 0 0 0 
0 0 0 0 
0 0 0 0 
0 0 0 0 
0.02492538431145432 -0.01501043542156808 -0.06013184465464171 -0.03660972698546737 
0.03524085271686167 -0.07287442713968677 0.03272715482902298 -0.02106649790679001 
0 0 0 0 
0.01354203625736863 -0.006341340253528078 -0.007353185976004636 -0.004235358617452364 
0 0 0 0 
0 0 0 0 
0.02239526015242251 -0.07521043321240532 0.05687981291463061 -0.01100312923216202 
-0.03121685626289901 0.04654105016154292 -0.01590667208673474 -0.008101152854150254 
-0.01148097021429058 -0.04013408944113843 0.05872747501777233 -0.002471537161175286 
0 0 0 0 
0.002544908847984492 0.04521580612573493 -0.03496790659438269 -0.02729868002197993 
0 0 0 0 
-0.09065804996586076 -0.1259329831512004 0.1667843331054183 -0.06667960586827576 
0 0 0 0 
0.04208212646215172 -0.01817722922602228 0.0007301565503230849 0.0007694337235590026 
0.01380340305176936 -0.03269298256200211 -0.01147065940109332 0.08526448213596041 
0.04055611808539189 -0.02556961008763738 -0.01525477604770563 -0.01029225765761537 
0 0 0 0 
-0.02409538958101404 0.06207827326296851 -0.009463413455277077 -0.00415789976882168 
0 0 0 0 
0 0 0 0 
0 0 0 0 
0 0 0 0 
0 0 0 0 
0 0 0 0 
0 0 0 0 
0.09449415152164853 -0.06053690889324095 -0.03085331610314096 -0.01221894235757915 
-0.02771462874274829 0.05302898648124493 -0.02554129083505707 -0.01016141243318244 
0.04242265295312408 0.03674150483248952 -0.06861630421554163 -0.04358184182191607 
0.001202835173810344 -0.1082808306839554 0.005292533495303431 0.05591623001349982 
-0.03623972523668777 -0.09121491963172887 0.02547191755067733 0.1449469088594146 
0 0 0 0 
-0.05009962214554529 0.08392860858030821 -0.01116792423323019 -0.00308344938803776 
-0.03896776674422792 0.0006482268737576539 0.03685486044146368 -0.01821635605191299 
0.05377997455065311 0.01324202992875287 -0.1170159059375539 0.01218066761409093 
0.03243625217516461 -0.02189307580066253 -0.009844382768845413 0.0002288712389361498 
0 0 0 0 
0 0 0 0 
-0.09251201393229781 -0.06028821210873465 -0.05685700831169123 0.1619522362613306 
0 0 0 0 
0 0 0 0 
0 0 0 0 
0.06423406445456685 -0.04955124387538228 -0.03230458942619764 -0.01823408438786244 
0 0 0 0 
0 0 0 0 
0 0 0 0 
0 0 0 0 
-0.03409277100538384 -0.02401739601274509 0.06690931039523831 -0.01302529108660819 
-0.0191147221637143 0.0561135196613646 -0.0243128144292188 -0.009802609537282497 
0.002329537170132145 -0.06112227185854079 -0.08414756447364176 -0.0661921399871844 
0.04971131282441884 -0.05201738339194908 -0.05541842695628221 -0.042787672660106 
0 0 0 0 
0.03277499294071047 -0.02613725726833779 -0.01069445864968956 -0.004227788657834609 
0.05386108331917129 -0.03890464841023626 -0.02540248139523492 -0.01564329798128936 
0 0 0 0 
0.1860326905803971 -0.1111044527585982 -0.1264527467980861 -0.09927571553814024 
-0.008712281231748324 0.0302320308609744 -0.01834076988968492 -0.003187918037536775 
0.05275638120373492 -0.03827309616045803 -0.01999425951011311 -0.007516904390531012 
-0.1592298931261308 0.05160833842649413 0.0005881127426387786 -0.001323825185312932 
0.005177006728627224 -0.002200396537103359 0.00594662153206712 0.00218896065468237 
0.005177006728627224 -0.002200396537103359 0.00594662153206712 0.00218896065468237 
-0.003129404499827148 -0.05797384891659201 -0.03029567079142026 0.08209463526867047 
0.108684038929142 -0.09594987189987315 -0.06290662992736512 -0.04088526107338176 
0.005177006728627224 -0.002200396537103359 0.00594662153206712 0.00218896065468237 
0.005177006728627224 -0.002200396537103359 0.00594662153206712 0.00218896065468237 
0.005177006728627224 -0.002200396537103359 0.00594662153206712 0.00218896065468237 
0.005177006728627224 -0.002200396537103359 0.00594662153206712 0.00218896065468237 
0.005177006728627224 -0.002200396537103359 0.00594662153206712 0.00218896065468237 
0 0 0 0 
-0.02540851364105636 0.0493212819317692 -0.02614252755036931 -0.01825401629333371 
0 0 0 0 
0.03524685373879431 -0.03585295593920704 -0.01359975069888215 -0.007764510225790253 
0 0 0 0 
0.0007155273533888794 0.05125734699707676 -0.0140051921040806 -0.004958978451083503 
0.02633716144885879 -0.001696084987949669 -0.0685368119450374 -0.04402969188469123 
0 0 0 0 
0 0 0 0 
0 0 0 0 
0.03659127440987057 -0.01952047863177992 -0.01828386542003154 -0.006459084942867744 
-0.04662923591860089 0.08511648033127134 -0.009156284572323408 0.000165740271551405 
-0.04670313247176358 0.1466056774181376 -0.08910596444366839 -0.03408765637508079 
-0.1916220006802617 0.02512315599152162 0.2285917270102668 -0.031140245367692 
0 0 0 0 
0 0 0 0 
0.03723787623025527 -0.03944990189032037 -0.03302445354229007 -0.02856613971291829 
0.03723787623025527 -0.03944990189032037 -0.03302445354229007 -0.02856613971291829 
0 0 0 0 
0 0 0 0 
0 0 0 0 
0 0 0 0 
-0.2175946648216928 0.27113616553001 0.05762216691495502 -0.01001704996765291 
0 0 0 0 
0 0 0 0 
0 0 0 0 
0.02213759352241589 0.001866196594019703 -0.04995404987919604 -0.02280988789553097 
0 0 0 0 
0 0 0 0 
0 0 0 0 
0 0 0 0 
0.02549208540613105 -0.05994776108201572 -0.1255177962553708 0.007238187781477366 
-0.03185640643277422 0.04641916207408893 -0.02724334339643737 -0.01498086928905762 
0 0 0 0 
0 0 0 0 
0 0 0 0 
0 0 0 0 
0 0 0 0 
0 0 0 0 
0 0 0 0 
0 0 0 0 
0 0 0 0 
0 0 0 0 
0 0 0 0 
0 0 0 0 
0 0 0 0 
-0.04223982636858457 -0.04165452712281258 -0.02468563912007365 0.07936635335867399 
0 0 0 0 
-0.1858054106024395 0.1285281904178633 0.08764513403681023 -0.03219698360265561 
-0.1379010899915968 0.2484985499635067 -0.08853995067285933 -0.03205588282336018 
-0.1381371954160703 -0.0251786351362896 0.02828102767656863 -0.01170167674159961 
-0.008053347412654427 0.04185296097014189 -0.06146531281969695 -0.0496281674241515 
-0.01153658409109161 0.05386320906790926 -0.023221532211854 -0.000862930477535803 
0.03243625217516461 -0.02189307580066253 -0.009844382768845413 0.0002288712389361498 
0.04866174217719536 -0.04668865450260948 -0.03085350648311701 -0.02074709516290233 
0 0 0 0 
0 0 0 0 
-0.01710453679066965 0.05768464335213439 -0.01675632027195606 -0.006496165278593402 
-0.03346569248041939 0.04223804698155832 -0.009586807361756444 -0.002906951424482784 
0.0161160744421753 -0.0205804012238181 -0.01922306327322753 -0.01708971226846393 
-0.04064883568385878 -0.03796738453232468 0.07091415610940596 -0.01596364909942275 
0.04791194025238213 -0.04365762898588806 -0.03253698129177142 -0.02781865180685563 
0 0 0 0 
0.03552402960377458 -0.01882545555110814 -0.02340033551577244 -0.009512261186598078 
0 0 0 0 
0 0 0 0 
-0.04610855691882654 -0.003679688003390197 0.1033130700918372 0.00305274912798149 
0.02992148770041248 -0.0302467370487128 -0.02186857583514326 -0.01427859936867094 
0 0 0 0 
0 0 0 0 
0 0 0 0 
-0.003063885817184761 -0.04626815324837807 0.06995851111541293 -0.0101538960528497 
0 0 0 0 
-0.02759297175634776 -0.03242333552812998 0.06076480840405167 -0.00700211138331596 
0 0 0 0 
0.0241608594999223 -0.02651482558767376 -0.0197848141626964 -0.01113028211823685 
0 0 0 0 
-0.04496475409186626 -0.02553220809274855 -0.01843563664316218 0.09295602292691713 
0 0 0 0 
0 0 0 0 
0 0 0 0 
0 0 0 0 
-0.05009962214554529 0.08392860858030821 -0.01116792423323019 -0.00308344938803776 
-0.04147160319478209 0.0591006689123828 -0.0110687194903519 -0.00512459275430831 
0 0 0 0 
0 0 0 0 
0.0108474200130455 -0.01847601171370769 -0.01403096485063714 -0.01049086268523767 
0.03287595650115256 -0.08828134032762713 -0.08075996742299356 0.03730687582228073 
0 0 0 0 
0 0 0 0 
0 0 0 0 
-0.001602522152091868 0.02412627179553501 -0.02799237634267918 -0.01462336960327593 
0.0309680893417923 -0.04706535746883938 -0.06463638220991716 0.07689628636139741 
-0.03346569248041939 0.04223804698155832 -0.009586807361756444 -0.002906951424482784 
0.01683724408222211 0.01223606240401649 -0.03914158982151208 -0.025629733582549 
0.001498591128121141 0.02532421021244039 -0.01437895772947943 -0.004767809229426807 
-0.03346569248041939 0.04223804698155832 -0.009586807361756444 -0.002906951424482784 
-0.1097172110330449 0.1344190421432135 -0.05116950007648124 -0.03165346567194295 
-0.03346569248041939 0.04223804698155832 -0.009586807361756444 -0.002906951424482784 
-0.03346569248041939 0.04223804698155832 -0.009586807361756444 -0.002906951424482784 
-0.03346569248041939 0.04223804698155832 -0.009586807361756444 -0.002906951424482784 
-0.03346569248041939 0.04223804698155832 -0.009586807361756444 -0.002906951424482784 
0 0 0 0 
0 0 0 0 
0 0 0 0 
0 0 0 0 
0 0 0 0 
0 0 0 0 
0 0 0 0 
0 0 0 0 
0 0 0 0 
0 0 0 0 
0 0 0 0 
0 0 0 0 
-0.02937715695665113 -0.0270988585249615 0.08826769824316756 0.0008985590641363065 
0 0 0 0 
0.05814046548116878 -0.03778880510282798 -0.009146093335954132 -0.003170243764165411 
0 0 0 0 
0 0 0 0 
-0.06015708042004576 0.08677173447823178 0.002117326932303146 0.001265627125968918 
0 0 0 0 
0 0 0 0 
0 0 0 0 
-0.02259773238476712 -0.03274530819214813 0.08151256182703623 -0.0009352542214136872 
0 0 0 0 
0 0 0 0 
0 0 0 0 
0 0 0 0 
0 0 0 0 
0 0 0 0 
0 0 0 0 
0.068608738991442 -0.05625435640229354 -0.03818891157233548 -0.02242047832763133 
0.0622633855675221 -0.02524201732063139 -0.02740488633959717 -0.002536178429385288 
0 0 0 0 
-0.04147160319478209 0.0591006689123828 -0.0110687194903519 -0.00512459275430831 
-0.02967980981551856 -0.03140752428038968 0.0722753882542843 -0.003117775920868691 
0.03524685373879431 -0.03585295593920704 -0.01359975069888215 -0.007764510225790253 
0.008763932614373686 -0.002809132091775376 -0.04319517213779803 -0.0393296320361257 
0 0 0 0 
-0.02116088055677115 -0.01577914579288419 -0.006678509033370342 0.08712533994090443 
0.04583936605848347 -0.05382960259794765 -0.05222669437881865 -0.05189578465182386 
0 0 0 0 
0 0 0 0 
0 0 0 0 
0 0 0 0 
0 0 0 0 
0.02939134654802903 -0.01967743740633193 -0.007963549676255299 0.0004292294724421624 
-0.07677073798914467 -0.09249738954644671 0.04535939884132349 0.07282584684863033 
0 0 0 0 
0 0 0 0 
0 0 0 0 
-0.04230751732033156 -0.03009688305726467 -0.02160674041116173 0.08895892064150313 
0 0 0 0 
0 0 0 0 
0 0 0 0 
-0.001575435579570212 0.01529874406780049 -0.06429000624566703 -0.05992629118097743 
0 0 0 0 
-0.07748855874901231 -0.1199657677699959 0.09964637628208689 0.0486370719079955 
-0.01832537527209475 0.09200445538374367 -0.08464866616109468 -0.1016120336117108 
0 0 0 0 
0 0 0 0 
0 0 0 0 
0.08621080100000211 -0.06324189179839561 -0.045034435261164 -0.02467554936610589 
0.03632988138281564 -0.04137567230030605 -0.03444358540712937 -0.04403819796464171 
0 0 0 0 
0 0 0 0 
0 0 0 0 
0 0 0 0 
0 0 0 0 
0 0 0 0 
0.0411455442945583 -0.0201885910529271 -0.01275489449893905 -0.002531174704271906 
0 0 0 0 
0 0 0 0 
-0.01074169913633061 0.06355725270367935 -0.01799163200927705 -0.0006727564537287932 
0 0 0 0 
0.02075955464868032 -0.01672909065764103 0.001740666730202151 0.001570612342961417 
0 0 0 0 
0 0 0 0 
0 0 0 0 
-0.02825750483668304 -0.01492611189655824 0.06751117379010646 -0.002820587656401786 
0 0 0 0 
-0.02116088055677115 -0.01577914579288419 -0.006678509033370342 0.08712533994090443 
0 0 0 0 
0 0 0 0 
-0.02997535343589036 0.06619113745605587 -0.01830466955574683 -0.0153302332654423 
0 0 0 0 
0.04562108892353749 0.01008396476339724 -0.04683076293916345 -0.01732158668101895 
0 0 0 0 
0 0 0 0 
0 0 0 0 
0 0 0 0 
0 0 0 0 
0 0 0 0 
0 0 0 0 
0 0 0 0 
0.04144081801068467 -0.02250612222076268 -0.0150735303103302 -0.001628795790548768 
0 0 0 0 
0.05744878115944858 -0.04729112282433977 -0.02939261807958086 -0.01617629807501667 
0.03751319214085762 -0.03911166196121692 -0.03462438947278103 -0.02762203493646582 
-0.0418876769606122 -0.01357482721326076 0.09072077548373196 0.0005437977401563879 
0.009060417733329175 -0.006986949482809344 -0.0097640720761947 -0.003532746730762759 
0 0 0 0 
0 0 0 0 
-0.07740671502410722 0.03123377364631191 -0.04133574140075467 0.07835188838924323 
0 0 0 0 
0.02481468721089182 -0.01582065221553768 -0.01572505226254978 -0.01177751611273988 
-0.1146901740887185 0.1332814838962232 0.03887833647813047 -0.01928169515485477 
0.06266435380520338 0.002465162657425362 -0.0491092071048868 -0.01879101611289751 
0 0 0 0 
0 0 0 0 
0 0 0 0 
0.04144081801068467 -0.02250612222076268 -0.0150735303103302 -0.001628795790548768 
0 0 0 0 
0 0 0 0 
0 0 0 0 
0 0 0 0 
0 0 0 0 
0 0 0 0 
0 0 0 0 
0 0 0 0 
-0.1201756065566954 0.01065018121062387 0.09644731657474265 -0.05565202636325731 
0 0 0 0 
-0.1073419746386633 0.0127852957493618 0.1405868533421131 -0.01403636457824098 
0.004759575743727278 -0.05762414950886287 0.04600856305053234 -0.02090721874413026 
-0.03029191701641716 0.0425355844735888 0.0002300689636074247 0.0006531741369823424 
-0.03598065644917975 0.05592097408293845 -0.03904766133371813 -0.01701495531837015 
-0.04419543151440063 0.06326712999010331 0.0004084923196829423 0.001286117697092662 
-0.04419543151440063 0.06326712999010331 0.0004084923196829423 0.001286117697092662 
-0.05439791818564266 0.1467567657436968 -0.05888228033547428 -0.02553421541412728 
0 0 0 0 
0 0 0 0 
0.02879754103232544 -0.0256521135534652 -0.01005129622857362 -0.005437778810035233 
0 0 0 0 
0 0 0 0 
0 0 0 0 
0.01032386346992675 -0.06227488655566005 0.05672029274455528 -0.01717181488966054 
0 0 0 0 
-0.005264096581651011 0.03496325798391146 -0.01976173838185653 -0.01803306995756489 
-0.02752479145637956 -0.0344761321139691 0.06997605010677052 -0.003905187332765477 
0 0 0 0 
-0.04538505821294124 0.05169237079028166 -0.009378055494425613 -0.00680656130498662 
0 0 0 0 
0 0 0 0 
0.01792884367809918 -0.01087609661540567 -0.004232821905676867 0.001053319714989241 
0 0 0 0 
-0.01429345996338519 0.06183835487864309 -0.04487983786222705 -0.01524929660457806 
-0.1169075680019485 -0.0207420408434974 0.1169103062896021 -0.08161347423956528 
-0.06698942677788507 -0.1253392166737739 0.09710731614155228 0.04514057353634145 
-0.02796816106988265 -0.041360556269888 -0.01192719406490502 0.09042441080321707 
-0.02796816106988265 -0.041360556269888 -0.01192719406490502 0.09042441080321707 
-0.02796816106988265 -0.041360556269888 -0.01192719406490502 0.09042441080321707 
-0.02796816106988265 -0.041360556269888 -0.01192719406490502 0.09042441080321707 
-0.02796816106988265 -0.041360556269888 -0.01192719406490502 0.09042441080321707 
0 0 0 0 
0.1204870400555512 -0.09443945117038141 -0.05464717162161647 -0.03647674558453298 
0.0497111183163273 -0.05596474559414308 -0.04584204472822995 -0.02475813276520535 
0.03110501713109983 -0.007190653891772984 -0.03908679988519953 -0.02724737541964314 
0 0 0 0 
0 0 0 0 
-0.02116348891313295 0.04666236466993146 -0.02864106716504849 -0.01592720098411572 
0 0 0 0 
0.02315423093986994 -0.02568856896258919 -0.01334756064142089 -0.01307961962041047 
0.02315423093986994 -0.02568856896258919 -0.01334756064142089 -0.01307961962041047 
0.1505863455548044 -0.1827959378412491 -0.1966581436457602 -0.006199393900169336 
0.02050251331576474 -0.01400210180475552 -0.005432190633823756 -0.003318512055273838 
0 0 0 0 
0 0 0 0 
0.0108474200130455 -0.01847601171370769 -0.01403096485063714 -0.01049086268523767 
0.04082236741822216 -0.04681026809371121 -0.0266422695876018 -0.03285294090520176 
0 0 0 0 
0.01094280785486063 0.05676333087712426 -0.03224376098952139 -0.01874973701880914 
0.02656971842675505 -0.02725523420360504 -0.01314154609297862 -0.01154948509366086 
0 0 0 0 
0.003512887336160983 -0.03120140642556023 -0.018899382084232 0.0788027897540258 
0.04465843163071928 -0.05138999747848734 -0.03165427658317105 0.0762716150497539 
0.02467376789293213 -0.01542226063267604 -0.01222087305086166 -0.008322550186878637 
0 0 0 0 
0.05700209128684391 -0.04760894988456481 -0.03751680336479396 -0.01761577240493888 
0.02446107068731779 -0.01309887219883926 -0.01788729091694144 -0.007550285852945397 
0 0 0 0 
0 0 0 0 
0 0 0 0 
0 0 0 0 
0 0 0 0 
-0.05449021779746211 -0.07629412750291871 0.1266824602817295 -0.01965166067814984 
-0.04203901595818562 0.05970803783451054 -0.005889323623505648 -0.0008938684094388382 
0 0 0 0 
0 0 0 0 
0.06642628855309718 -0.06086634325544564 -0.02365874950220905 -0.01427353596794689 
0 0 0 0 
0 0 0 0 
0 0 0 0 
0 0 0 0 
0.04159665636801692 -0.0306149182967928 -0.02260362885689997 -0.005907804365599153 
0 0 0 0 
0 0 0 0 
-0.07523846878359458 0.005269914052206908 0.001779480585413545 -0.073622038913536 
0.02574054039714777 -0.101699678252058 -0.02324778371177815 0.03938403544030415 
0 0 0 0 
0 0 0 0 
0 0 0 0 
0 0 0 0 
0 0 0 0 
0 0 0 0 
0 0 0 0 
0 0 0 0 
0.02142143287022398 -0.02093234483679558 -0.01967319274007563 -0.01305443272655172 
0 0 0 0 
0 0 0 0 
0.01490919653285908 0.03575672540400463 -0.02370537355585434 -0.01361428388591613 
-0.01760306093343253 0.05966831138552576 -0.0001850038290839608 0.0007468471928308519 
-0.04710866749579733 0.118095800974166 -0.02543681026916042 -0.005037064051160162 
-0.01760306093343253 0.05966831138552576 -0.0001850038290839608 0.0007468471928308519 
0 0 0 0 
0 0 0 0 
0 0 0 0 
0.1856306316670471 -0.1524531870152783 -0.0350929677465288 -0.03035159768316984 
0 0 0 0 
0 0 0 0 
0 0 0 0 
0 0 0 0 
0.03456583875820044 -0.02265018670711087 -0.007586019026891912 -0.003594698514975947 
0 0 0 0 
0 0 0 0 
0 0 0 0 
0 0 0 0 
0 0 0 0 
0 0 0 0 
0 0 0 0 
0 0 0 0 
0 0 0 0 
0 0 0 0 
0 0 0 0 
0 0 0 0 
-0.1222743062475858 0.1918206605098615 -0.03452611565512072 -0.01477003608484481 
0 0 0 0 
0.01485269884194286 -0.01426074909177678 -0.01001615736910431 -0.004234265987294222 
0 0 0 0 
0 0 0 0 
0 0 0 0 
0.02688064847598703 -0.01544712803205706 -0.006798512417201179 -0.0008744285102333367 
0 0 0 0 
0.02121305971953478 -0.00998115441568361 -0.009959534915701798 -0.005774188310435985 
0.03842996175208964 -0.02820425614048616 -0.01119383170787224 -3.535917329778649e-05 
0 0 0 0 
0 0 0 0 
0 0 0 0 
0.01908822949434868 -0.07899385405460632 0.0323033452580793 -0.02455396388466828 
0 0 0 0 
0 0 0 0 
0 0 0 0 
0 0 0 0 
0 0 0 0 
0 0 0 0 
0 0 0 0 
0 0 0 0 
0 0 0 0 
0.07205635249116227 -0.01849220463370317 -0.02581602769167236 -0.008990572408077376 
0 0 0 0 
0.04637096289989658 -0.02817573289033752 -0.01502719766780436 -0.004136341696046287 
0.02646081294786512 -0.01308990024050239 -0.01031619692745362 -0.001985350489582368 
-0.06192703052846338 0.1441522166674423 -0.07669932866089935 -0.03465501436371884 
0.0286535386981239 0.01533294252781249 -0.03384044635927481 -0.004235279408903682 
0 0 0 0 
0.01485269884194286 -0.01426074909177678 -0.01001615736910431 -0.004234265987294222 
0 0 0 0 
-0.09429927121060097 -0.09988496609020982 0.2181935543621205 -0.05041848641661938 
0 0 0 0 
0 0 0 0 
0 0 0 0 
0.01699479774699264 -0.01429065406963605 -0.01003494320656384 -0.004984710776905992 
-0.03820302737918006 -0.01958052166006343 0.08666837609997158 0.0007461649437805508 
-0.02721891225618442 0.04211036703626967 -0.04339422243953978 -0.02265503778877219 
0 0 0 0 
0 0 0 0 
0 0 0 0 
0 0 0 0 
0 0 0 0 
0 0 0 0 
0.0419614413912815 -0.05118973983574538 -0.04054305632564941 -0.0426026483989658 
0.0419614413912815 -0.05118973983574538 -0.04054305632564941 -0.0426026483989658 
0 0 0 0 
0.02839300880507504 -0.02197752456377586 -0.01730829811586602 -0.009524778062917934 
0 0 0 0 
-0.01599984549597515 0.04646939270416686 -0.01066292635316892 0.0004746963298196474 
0 0 0 0 
0 0 0 0 
0 0 0 0 
0 0 0 0 
-0.02997535343589036 0.06619113745605587 -0.01830466955574683 -0.0153302332654423 
0 0 0 0 
0 0 0 0 
0 0 0 0 
0.0108474200130455 -0.01847601171370769 -0.01403096485063714 -0.01049086268523767 
0 0 0 0 
0.1024509226616816 -0.08044668072680065 -0.04927184742221379 -0.03093485929306505 
0 0 0 0 
0 0 0 0 
0 0 0 0 
-0.03876970682005974 0.05421490969195653 -0.03875040155102766 -0.02492501607617762 
-0.03876970682005974 0.05421490969195653 -0.03875040155102766 -0.02492501607617762 
-0.118596567967122 0.2207818628043439 -0.04598468749782942 -0.07012510307903431 
-0.03876970682005974 0.05421490969195653 -0.03875040155102766 -0.02492501607617762 
0.03986534389906667 -0.04034677540591946 -0.0209519890867771 -0.01414190364205597 
0 0 0 0 
0 0 0 0 
0 0 0 0 
0 0 0 0 
0 0 0 0 
0 0 0 0 
0.04217871980902782 0.0469418423007974 -0.0787840426646034 -0.03430754942875943 
0.02646081294786512 -0.01308990024050239 -0.01031619692745362 -0.001985350489582368 
0 0 0 0 
0 0 0 0 
0.1325722426376664 -0.09472257598514094 -0.05174584385114114 -0.01751408582026047 
0.02308699933961449 -0.01292123876707299 -0.007014768058978969 -0.0039686052496577 
-0.03806433456869596 0.04062414107602977 -0.1016490942329365 0.0440924618506334 
0.04767936334823628 -0.04164321851178909 -0.01882856739330259 -0.01458378277358066 
0.05191235563548435 -0.1130474592694458 -0.05211510873269454 0.05863402745233474 
-0.04190987770550617 -0.0331365474547478 -0.01490451011661815 0.07771366998409596 
-0.04190987770550617 -0.0331365474547478 -0.01490451011661815 0.07771366998409596 
-0.04190987770550617 -0.0331365474547478 -0.01490451011661815 0.07771366998409596 
0.02073039738798681 -0.01444643118559938 -0.01957657794790633 -0.01280457753766597 
0.02073039738798681 -0.01444643118559938 -0.01957657794790633 -0.01280457753766597 
-0.03649945462112154 0.08592652571393489 -0.01735945061728062 -0.001560576598967829 
0.04387418012510735 -0.04928599264925553 -0.0392797848865087 -0.03588434579447553 
0 0 0 0 
-0.08688720811181677 -0.1293278516204935 0.06438661239512433 0.03374509442770694 
0 0 0 0 
0 0 0 0 
0 0 0 0 
0 0 0 0 
0 0 0 0 
0 0 0 0 
0 0 0 0 
0 0 0 0 
0 0 0 0 
0.02142143287022398 -0.02093234483679558 -0.01967319274007563 -0.01305443272655172 
-0.04278582607220611 0.04994294818009684 -0.03199588535296836 -0.02583956282297738 
0 0 0 0 
-0.02442284329274843 0.05108653431526301 -0.00366387314380238 0.0009740869631777197 
-0.06847023896622548 0.06429379285238648 0.02194609199909259 -0.0507634517404272 
-0.01881283389620993 -0.02719231213007818 0.06384881164132974 -0.004641559800538985 
0 0 0 0 
0 0 0 0 
0 0 0 0 
0 0 0 0 
0 0 0 0 
0 0 0 0 
0.02179829106160512 0.003275536802588252 -0.03250057190948939 -0.02087634106457428 
0 0 0 0 
0 0 0 0 
0 0 0 0 
0.03004899991198431 -0.009154337973210636 -0.003693180301730753 0.0004809666051376856 
0 0 0 0 
0 0 0 0 
0 0 0 0 
0 0 0 0 
0 0 0 0 
0 0 0 0 
0 0 0 0 
0 0 0 0 
0 0 0 0 
0 0 0 0 
0 0 0 0 
-0.03292259748650012 -0.04647159991110968 -0.04542786035441607 0.06615837057370891 
0.0177912124339325 -0.08470617537164897 0.0145387675312167 -0.05132697002251747 
0.009060417733329175 -0.006986949482809344 -0.0097640720761947 -0.003532746730762759 
0 0 0 0 
0 0 0 0 
0 0 0 0 
0 0 0 0 
0 0 0 0 
0.07076407952078692 -0.2299497304501772 0.185221092710241 -0.06613191663202006 
0.03271242194991326 -0.03102908052435721 -0.01571605157126034 -0.01263086927018357 
0.03271242194991326 -0.03102908052435721 -0.01571605157126034 -0.01263086927018357 
0.07492324506643229 -0.0534636138857893 -0.02148013253958465 -0.01736690589360818 
0.03271242194991326 -0.03102908052435721 -0.01571605157126034 -0.01263086927018357 
0.03271242194991326 -0.03102908052435721 -0.01571605157126034 -0.01263086927018357 
-0.007384911640144354 0.01895662448715648 0.02080879798435432 -0.01981393654699861 
0 0 0 0 
0.01674802925391392 -0.01265932523933333 -0.001183014101006669 -0.0008069118216319334 
0 0 0 0 
0 0 0 0 
0 0 0 0 
0 0 0 0 
-0.1139076544580746 0.1714435600046087 -0.01324133344782859 -0.002209676784466271 
0 0 0 0 
0 0 0 0 
0 0 0 0 
0 0 0 0 
0 0 0 0 
-0.05558476741835242 0.07709986291531826 -0.01762420791250903 -0.0116216975195564 
0.0346655702511864 -0.0009954925443169242 -0.05801560565957264 -0.03002182865204078 
0 0 0 0 
0 0 0 0 
0 0 0 0 
0 0 0 0 
0.07393170632673587 -0.04329590350047567 -0.03699906194076339 -0.02272608840674709 
-0.03897337552387849 -0.02985857691180398 -0.03326887886332319 0.08061821393090815 
0 0 0 0 
0 0 0 0 
0 0 0 0 
0 0 0 0 
0 0 0 0 
-0.01507868039973685 0.0444336195016516 -0.00956776358186869 -0.003897771333772854 
0 0 0 0 
0 0 0 0 
0 0 0 0 
0.0949875458772567 -0.07027720224534137 -0.03413565635693243 -0.009530390743280388 
0.04194090083068549 -0.0728118317468117 0.04185705771357882 -0.01609198826925811 
0.05239369338023294 -0.03876676136211116 -0.01200859777646077 -0.004338328673459346 
0.08185189126017343 -0.07362221148507971 -0.04447239756820415 -0.02896365046268739 
0 0 0 0 
-0.04394402946329428 0.03237471539028073 -0.03838757763124202 0.0769476887069756 
-0.04230751732033156 -0.03009688305726467 -0.02160674041116173 0.08895892064150313 
-0.04230751732033156 -0.03009688305726467 -0.02160674041116173 0.08895892064150313 
-0.07658280940571936 0.05656471789867319 0.01209234959811662 -0.04717261722957613 
0.03398912270079282 -0.03990008577954784 -0.02987876318968931 -0.0320143342985271 
0.05927421344993255 -0.05811489554806039 -0.0383308008042758 -0.03341808172209371 
-0.04926935946116905 -0.08384867622830067 -0.05118924386192957 0.1612798006657957 
0 0 0 0 
0.0589654423193991 -0.03096316535262787 -0.01712349056909103 -0.002055606088763343 
0.03740891030777393 -0.02648901858114312 -0.007638141578457902 -0.00616467199689307 
0 0 0 0 
0 0 0 0 
0 0 0 0 
0 0 0 0 
0 0 0 0 
0 0 0 0 
0 0 0 0 
0 0 0 0 
0.02312562152389041 -0.01993559165654735 -0.01641046986852358 -0.01068782424354977 
0.08276849410380943 -0.120860713714778 -0.0170150153763836 -0.06207458593126022 
0.04478947215467197 -0.03602364512625866 -0.03488130663536854 -0.02470088867747087 
0 0 0 0 
-0.03528942230511396 0.05943424905578265 -0.03390903624969858 -0.02143371224508523 
0 0 0 0 
0.1610883958738255 -0.1356708706469413 -0.10417082766857 -0.07228619526636212 
0 0 0 0 
0 0 0 0 
0.05277646879366987 -0.03753640146115451 -0.002023089359811623 0.0002520880266022904 
0 0 0 0 
0 0 0 0 
0 0 0 0 
0 0 0 0 
0 0 0 0 
0 0 0 0 
0.01739512764956984 -0.07127646054122785 -0.04502815885872131 0.07791021893415714 
0 0 0 0 
0 0 0 0 
0 0 0 0 
0 0 0 0 
0.02753847441250922 -0.02193617462106674 -0.01648193987142758 -0.003795275646403224 
0.02753847441250922 -0.02193617462106674 -0.01648193987142758 -0.003795275646403224 
0 0 0 0 
0 0 0 0 
-0.05539249886955218 -0.02229374621832228 0.05996135971209524 -0.02500839032866992 
0.03463108550421415 -0.04224795688998673 -0.03350498250573604 -0.02851679060505274 
0.01270099036481919 -0.02140434635300792 -0.01984256834271671 -0.01996761951116842 
0 0 0 0 
0 0 0 0 
0 0 0 0 
0 0 0 0 
0 0 0 0 
0 0 0 0 
0 0 0 0 
0 0 0 0 
-0.04147133543192686 0.05538548036633738 -0.03354277767593924 -0.02503728840062849 
0 0 0 0 
0 0 0 0 
0 0 0 0 
-0.02825750483668304 -0.01492611189655824 0.06751117379010646 -0.002820587656401786 
0 0 0 0 
-0.04248672538854836 0.06335904418968583 -0.01508155420675327 -0.006569259686543465 
0 0 0 0 
0.2122771520659625 -0.1551878532187127 -0.08386444004390409 -0.03370655544558267 
-0.09438429285178281 0.04634504620958952 0.01719882852107656 -0.03972259534229216 
0 0 0 0 
0 0 0 0 
0 0 0 0 
0 0 0 0 
0 0 0 0 
0.03728807105474433 -0.04902125393880812 -0.04470753767916611 -0.05073888338268792 
0.02335465910049186 -0.01665873105646428 -0.001500901044437209 -0.001631445792107938 
0.06114456859370747 -0.05719632451584374 -0.05016863766967915 -0.05581571407738159 
0 0 0 0 
0 0 0 0 
0 0 0 0 
-0.3565388872096589 0.4281354872530862 -0.02990285517158541 -0.1269289034373771 
-0.0198543094101412 -0.01943749705203723 0.073107987148432 -0.000950375936492361 
-0.0198543094101412 -0.01943749705203723 0.073107987148432 -0.000950375936492361 
-0.0198543094101412 -0.01943749705203723 0.073107987148432 -0.000950375936492361 
0 0 0 0 
-0.03146160961680355 0.05626808826458972 -0.01310239741770682 -0.0006340650749802235 
0 0 0 0 
0 0 0 0 
0.05379196799257601 -0.04283878538988557 -0.0325485396300812 -0.02490226800107151 
-0.02707606465746901 0.0759253265815088 -0.002426127422406631 0.001149316519054604 
-0.02707606465746901 0.0759253265815088 -0.002426127422406631 0.001149316519054604 
0 0 0 0 
0.01174813795822964 -0.01543220885417135 -0.01634792670316055 -0.01112789958834697 
0 0 0 0 
0 0 0 0 
0 0 0 0 
0 0 0 0 
0 0 0 0 
0 0 0 0 
0 0 0 0 
0 0 0 0 
0.03698957823064816 -0.02531303738878152 -0.02443906785407009 -0.02029460770895608 
0 0 0 0 
0 0 0 0 
0 0 0 0 
-0.0214898908170213 0.08041370334680865 -0.03042780192007296 -0.005988471650216373 
0 0 0 0 
-0.06342116051313583 0.04454048234561538 -0.04119565612651756 0.05184399538524207 
0 0 0 0 
0 0 0 0 
0 0 0 0 
0 0 0 0 
0 0 0 0 
0 0 0 0 
0 0 0 0 
0 0 0 0 
-0.04987292236730234 0.133145358029112 -0.1016347142643851 -0.05880692078950951 
0.04328703277637286 -0.0288729162833974 -0.01335214069367557 -0.0005446024621460848 
0.06504249684256015 -0.05789399583894863 -0.03077895672063319 -0.01726112304919731 
0.02768275712801134 -0.02416404800567326 -0.0122568897296215 -0.006044399418341161 
0 0 0 0 
0 0 0 0 
-0.1045320364956518 0.1445311149719047 -0.03505039027174125 -0.02846206391358146 
0 0 0 0 
0 0 0 0 
0 0 0 0 
0 0 0 0 
0 0 0 0 
0 0 0 0 
0 0 0 0 
0.03961445995860488 -0.01918324229242783 -0.01884996268512357 -0.009240296321143839 
0 0 0 0 
0 0 0 0 
-0.07960640562821689 -0.0625252443402351 0.2326995838334219 0.0002292689976598501 
0 0 0 0 
-0.02512401689534777 0.05474181777637233 -0.02279185507927205 -0.008530844683252849 
0 0 0 0 
0.00999997067544235 -0.005141770512913877 0.003463430517486986 0.001766002791106667 
0 0 0 0 
-0.07510695875231638 0.1177764547143969 -0.02474506190085617 -0.008738418672965027 
0 0 0 0 
0.01273924630519541 -0.0173441684625024 -0.004165509607066308 -0.00334036078641211 
0 0 0 0 
0 0 0 0 
0 0 0 0 
-0.2155497580437007 0.2969171446962822 -0.03172397052472135 -0.01570636743738095 
0 0 0 0 
-0.1385734128124 0.09634938688311631 0.06809797629639978 -0.03865308210341288 
0 0 0 0 
0 0 0 0 
0 0 0 0 
0 0 0 0 
0 0 0 0 
0 0 0 0 
0 0 0 0 
0 0 0 0 
0 0 0 0 
0 0 0 0 
0 0 0 0 
0.02939134654802903 -0.01967743740633193 -0.007963549676255299 0.0004292294724421624 
0.01840559550218341 -0.01745237818803977 -0.01249585879146444 -0.007540824203214254 
0 0 0 0 
0 0 0 0 
0.03961445995860488 -0.01918324229242783 -0.01884996268512357 -0.009240296321143839 
0 0 0 0 
0 0 0 0 
0 0 0 0 
0 0 0 0 
0 0 0 0 
0 0 0 0 
0 0 0 0 
0 0 0 0 
0 0 0 0 
0 0 0 0 
0 0 0 0 
0 0 0 0 
0 0 0 0 
0 0 0 0 
0 0 0 0 
0 0 0 0 
0 0 0 0 
0 0 0 0 
0 0 0 0 
0 0 0 0 
0.02887203702276711 -0.01455952380177783 -0.001973340469983598 -0.00197989351384787 
0 0 0 0 
0 0 0 0 
-0.02581719013486834 0.04853311787999791 -0.005675398725189599 -0.00131047806686178 
0 0 0 0 
0 0 0 0 
0.02939134654802903 -0.01967743740633193 -0.007963549676255299 0.0004292294724421624 
0 0 0 0 
0 0 0 0 
-2.775520874143947e-06 0.05093237917369229 -0.03773058648051861 -0.0157243938031525 
-0.03961723547947903 0.07011562146612012 -0.01888062379539504 -0.006484097482008659 
0 0 0 0 
0 0 0 0 
-0.01007227721916376 -0.03357500405314102 0.05644022023052955 -0.005477262692465307 
0 0 0 0 
0 0 0 0 
0 0 0 0 
0 0 0 0 
-0.05887505488027413 0.0803576883418519 -0.01682315336584433 -0.01085202890102618 
-0.09725794626701309 0.1162388307864119 -0.03546262096400114 -0.02537164944446756 
-0.04862897313350655 0.05811941539320593 -0.01773131048200057 -0.01268582472223378 
-0.04862897313350655 0.05811941539320593 -0.01773131048200057 -0.01268582472223378 
-0.04862897313350655 0.05811941539320593 -0.01773131048200057 -0.01268582472223378 
0.09536694521350177 -0.06044524952557675 -0.01266264405532397 -0.006058405207542442 
0.04208212646215172 -0.01817722922602228 0.0007301565503230849 0.0007694337235590026 
0.04208212646215172 -0.01817722922602228 0.0007301565503230849 0.0007694337235590026 
0.04208212646215172 -0.01817722922602228 0.0007301565503230849 0.0007694337235590026 
0.00677785258904581 -0.04644965234381877 -0.009600522092103474 0.09140333548787853 
0.04208212646215172 -0.01817722922602228 0.0007301565503230849 0.0007694337235590026 
0.04208212646215172 -0.01817722922602228 0.0007301565503230849 0.0007694337235590026 
0 0 0 0 
0 0 0 0 
0 0 0 0 
0 0 0 0 
0 0 0 0 
0 0 0 0 
0.03668735981147328 -0.02581055982405698 -0.004846383129510122 -0.0009867403331755094 
-0.05064988013749051 0.06597366308822454 -0.03297479684328226 -0.03176389258299344 
0 0 0 0 
-0.1299927620548968 0.2202724281689589 -0.10790034789589 -0.06626105787619245 
0 0 0 0 
-0.02560151822410284 -0.0455356545798971 -0.03485485394704102 0.0811789585104484 
0 0 0 0 
0.07573901049864332 -0.05562091041490914 -0.06012960363437417 -0.03962643080664519 
0.02121305971953478 -0.00998115441568361 -0.009959534915701798 -0.005774188310435985 
0 0 0 0 
0 0 0 0 
0 0 0 0 
0.05044285415610515 -0.04006234631154192 -0.03490186249041463 -0.02400244262479515 
0.03004899991198431 -0.009154337973210636 -0.003693180301730753 0.0004809666051376856 
0.03004899991198431 -0.009154337973210636 -0.003693180301730753 0.0004809666051376856 
0 0 0 0 
-0.01698030323898293 0.01588223000783077 0.06651368850957647 -0.00429194633773641 
0 0 0 0 
0 0 0 0 
0.01174813795822964 -0.01543220885417135 -0.01634792670316055 -0.01112789958834697 
0 0 0 0 
0 0 0 0 
0 0 0 0 
0 0 0 0 
-0.04534999461637637 0.06610394039651774 -0.03649195674657509 -0.02730565012021306 
0 0 0 0 
0.04846011007419606 -0.06364330480302927 -0.04291497730022208 -0.04239894673231233 
0 0 0 0 
0 0 0 0 
0 0 0 0 
0 0 0 0 
0.1415253301760981 -0.1287008158021503 -0.08292744715059121 -0.04704720542664725 
0 0 0 0 
0 0 0 0 
0.02879754103232544 -0.0256521135534652 -0.01005129622857362 -0.005437778810035233 
0 0 0 0 
0 0 0 0 
0.06722385870618761 -0.04811896448652809 -0.01118658282234664 -0.005499855492567525 
0 0 0 0 
0 0 0 0 
0 0 0 0 
0 0 0 0 
0.05213077572014118 0.04743451509948159 -0.05333716938781639 -0.0166984416856687 
-0.04495157909258542 -0.05301648707661388 -0.03743743804511025 0.05785105693727434 
0 0 0 0 
0 0 0 0 
0 0 0 0 
0 0 0 0 
-0.05468089454621219 0.08206338679552784 -0.0121223642090985 -0.003977970872084284 
-0.05468089454621219 0.08206338679552784 -0.0121223642090985 -0.003977970872084284 
-0.05468089454621219 0.08206338679552784 -0.0121223642090985 -0.003977970872084284 
-0.07176183260043466 -0.01878477694213057 0.02915016840672485 0.07373953530985482 
0.02646081294786512 -0.01308990024050239 -0.01031619692745362 -0.001985350489582368 
0.04220145611048928 -0.06878530244279724 0.04013672565584783 -0.04512544075305373 
0 0 0 0 
0 0 0 0 
0 0 0 0 
0.01999814026673876 -0.01526758259898397 -0.005859148622701494 -0.006313097384577836 
0 0 0 0 
0 0 0 0 
0 0 0 0 
-0.0602672704523075 0.1087267219296447 -0.0180746005921394 -0.01467705912845996 
-0.02997535343589036 0.06619113745605587 -0.01830466955574683 -0.0153302332654423 
-0.02997535343589036 0.06619113745605587 -0.01830466955574683 -0.0153302332654423 
0 0 0 0 
0 0 0 0 
0.0302811779186849 -0.02802671907586391 -0.03026719237712095 -0.01969273924913483 
0.0302811779186849 -0.02802671907586391 -0.03026719237712095 -0.01969273924913483 
0 0 0 0 
-0.04205241659038891 0.07951991311276509 -0.01535340866311545 -0.004156517145116057 
0 0 0 0 
0 0 0 0 
0 0 0 0 
0 0 0 0 
0 0 0 0 
0 0 0 0 
-0.02950560656236483 0.05842748958864028 -0.02525180644007646 -0.005783911243991015 
0 0 0 0 
-0.05052899871246851 -0.02080356168043431 -0.02119322003346986 0.09226111895685897 
-0.07074999739497427 0.05297216217200919 0.08603837854657923 0.002854304485225759 
-0.04300121357348972 0.07191036808507248 -0.009101769136845659 0.0004783130387350084 
-0.04300121357348972 0.07191036808507248 -0.009101769136845659 0.0004783130387350084 
0 0 0 0 
0 0 0 0 
0 0 0 0 
0 0 0 0 
0 0 0 0 
0.06394896009194603 -0.05510382831935735 -0.06718135029484322 -0.05540513468031683 
-0.04248672538854836 0.06335904418968583 -0.01508155420675327 -0.006569259686543465 
0 0 0 0 
0 0 0 0 
0.03496428360854052 -0.01691383676911792 -0.004792150367722983 -0.001860857804944023 
0 0 0 0 
0.05687996906045335 -0.003895202930322212 -0.08064738851365286 -0.0534223284985831 
0.02475341124867106 -0.01200601612058392 -0.008753962527928469 -0.0002809666130539897 
0 0 0 0 
0 0 0 0 
0 0 0 0 
0 0 0 0 
0 0 0 0 
0 0 0 0 
0 0 0 0 
0 0 0 0 
0.05313943685351011 -0.05451046840721007 -0.02628309218595725 -0.02309897018732173 
0 0 0 0 
-0.02685764517894133 -0.05267579020319665 -0.02808607470416389 0.07683143570081999 
-0.02685764517894133 -0.05267579020319665 -0.02808607470416389 0.07683143570081999 
0 0 0 0 
0 0 0 0 
0 0 0 0 
0 0 0 0 
0 0 0 0 
0 0 0 0 
0 0 0 0 
-0.027448466516512 -0.02417784669846104 0.05871852982979348 -0.006045098705556766 
0 0 0 0 
0.03143218241557139 -0.02070993963110973 -0.01466780838506161 -0.009920130708650816 
0 0 0 0 
0 0 0 0 
0.03999359810168036 -0.02415324747186121 -0.02450633838949968 -0.009825122086300741 
0.03999359810168036 -0.02415324747186121 -0.02450633838949968 -0.009825122086300741 
0 0 0 0 
-0.007346700998393394 -0.0002234506858035563 0.001137773970252804 0.000188652238743687 
-0.007346700998393394 -0.0002234506858035563 0.001137773970252804 0.000188652238743687 
-0.090809967299815 0.1165200675424574 -0.03618230201536818 -0.02731678346878636 
-0.04802414122760889 0.06657711936236053 -0.004186416662399817 -0.001477220645808972 
-0.004633806959374762 0.01500729509344821 -0.03038682255979525 -0.03134625404900789 
-0.090809967299815 0.1165200675424574 -0.03618230201536818 -0.02731678346878636 
-0.01074169913633061 0.06355725270367935 -0.01799163200927705 -0.0006727564537287932 
0 0 0 0 
0 0 0 0 
0 0 0 0 
0 0 0 0 
0 0 0 0 
0 0 0 0 
0.0133134394868768 -0.008038813873966067 -0.00575384931205926 -0.0006394194329991771 
0 0 0 0 
0 0 0 0 
0.01280064556098969 -0.09459459346453239 0.037020814952281 -0.0508035093155251 
0 0 0 0 
0 0 0 0 
0 0 0 0 
-0.008271239004576878 -0.08943479645848706 0.1205930452721011 -0.01541214847128026 
0.04144081801068467 -0.02250612222076268 -0.0150735303103302 -0.001628795790548768 
0.01406613230747585 -0.01053912403568152 -0.004086878581246232 -0.00161058959496285 
0 0 0 0 
-0.03661541670292473 -0.04864819742257537 0.09833691277064685 -0.008562980711057207 
-0.027448466516512 -0.02417784669846104 0.05871852982979348 -0.006045098705556766 
-0.07133856900592937 0.04705755785439291 0.04988014001567204 -0.00668236452437154 
0 0 0 0 
0 0 0 0 
0 0 0 0 
0 0 0 0 
0 0 0 0 
0 0 0 0 
0 0 0 0 
0 0 0 0 
0 0 0 0 
0 0 0 0 
0.02073039738798681 -0.01444643118559938 -0.01957657794790633 -0.01280457753766597 
0.02113325884165691 -0.01113440615896063 -0.01671352127718894 -0.004345795702194851 
0 0 0 0 
0 0 0 0 
0 0 0 0 
0 0 0 0 
0 0 0 0 
0 0 0 0 
0 0 0 0 
0 0 0 0 
0.03740891030777393 -0.02648901858114312 -0.007638141578457902 -0.00616467199689307 
0.03740891030777393 -0.02648901858114312 -0.007638141578457902 -0.00616467199689307 
0.03740891030777393 -0.02648901858114312 -0.007638141578457902 -0.00616467199689307 
0.03740891030777393 -0.02648901858114312 -0.007638141578457902 -0.00616467199689307 
0.03740891030777393 -0.02648901858114312 -0.007638141578457902 -0.00616467199689307 
0.03740891030777393 -0.02648901858114312 -0.007638141578457902 -0.00616467199689307 
0.03740891030777393 -0.02648901858114312 -0.007638141578457902 -0.00616467199689307 
0 0 0 0 
0 0 0 0 
-0.02721891225618442 0.04211036703626967 -0.04339422243953978 -0.02265503778877219 
0 0 0 0 
0 0 0 0 
0 0 0 0 
0 0 0 0 
0 0 0 0 
0 0 0 0 
0 0 0 0 
0 0 0 0 
-0.02774878382148456 -0.01893820591306329 0.09514014768342488 0.002375991446490748 
0 0 0 0 
0 0 0 0 
0 0 0 0 
0 0 0 0 
0 0 0 0 
0 0 0 0 
0 0 0 0 
0 0 0 0 
0 0 0 0 
0 0 0 0 
0.09496231417536641 -0.07454618308297331 -0.05963869104215146 -0.04722809817446676 
0.03314360277299663 -0.01996459003619728 -0.01061487499403681 -0.007099437640672433 
0 0 0 0 
0 0 0 0 
0 0 0 0 
0 0 0 0 
0.01485269884194286 -0.01426074909177678 -0.01001615736910431 -0.004234265987294222 
-0.02116088055677115 -0.01577914579288419 -0.006678509033370342 0.08712533994090443 
0.03934389729225498 -0.04466064142143564 -0.03144932086588937 -0.02196741904097702 
0.03552402960377458 -0.01882545555110814 -0.02340033551577244 -0.009512261186598078 
0 0 0 0 
0 0 0 0 
0 0 0 0 
0 0 0 0 
-0.0214898908170213 0.08041370334680865 -0.03042780192007296 -0.005988471650216373 
0.03456583875820044 -0.02265018670711087 -0.007586019026891912 -0.003594698514975947 
0.03456583875820044 -0.02265018670711087 -0.007586019026891912 -0.003594698514975947 
0 0 0 0 
0 0 0 0 
0 0 0 0 
-0.1067562353337967 0.09120619645653893 0.02404770388610246 -0.05199887551160657 
0 0 0 0 
0.03496428360854052 -0.01691383676911792 -0.004792150367722983 -0.001860857804944023 
0 0 0 0 
0 0 0 0 
0 0 0 0 
-0.01372709406814063 -0.04216896679907754 0.05552003576698694 -0.01078133255213407 
-0.01372709406814063 -0.04216896679907754 0.05552003576698694 -0.01078133255213407 
-0.01372709406814063 -0.04216896679907754 0.05552003576698694 -0.01078133255213407 
0 0 0 0 
0 0 0 0 
0 0 0 0 
0 0 0 0 
0 0 0 0 
0 0 0 0 
0 0 0 0 
0 0 0 0 
0 0 0 0 
0 0 0 0 
0 0 0 0 
0 0 0 0 
0 0 0 0 
0 0 0 0 
0 0 0 0 
0 0 0 0 
0 0 0 0 
0 0 0 0 
0 0 0 0 
0 0 0 0 
0 0 0 0 
-0.008153915082647111 0.02795721712656706 -0.02786064028400449 -0.02153726913416083 
0 0 0 0 
0 0 0 0 
0 0 0 0 
0 0 0 0 
0 0 0 0 
0 0 0 0 
0 0 0 0 
-0.02116088055677115 -0.01577914579288419 -0.006678509033370342 0.08712533994090443 
-0.02116088055677115 -0.01577914579288419 -0.006678509033370342 0.08712533994090443 
-0.02116088055677115 -0.01577914579288419 -0.006678509033370342 0.08712533994090443 
-0.02116088055677115 -0.01577914579288419 -0.006678509033370342 0.08712533994090443 
-0.02116088055677115 -0.01577914579288419 -0.006678509033370342 0.08712533994090443 
-0.02116088055677115 -0.01577914579288419 -0.006678509033370342 0.08712533994090443 
-0.02116088055677115 -0.01577914579288419 -0.006678509033370342 0.08712533994090443 
-0.02013527304706142 -0.08542724121098673 -0.05145277308292627 0.1337210437405822 
-0.02116088055677115 -0.01577914579288419 -0.006678509033370342 0.08712533994090443 
-0.02116088055677115 -0.01577914579288419 -0.006678509033370342 0.08712533994090443 
-0.02116088055677115 -0.01577914579288419 -0.006678509033370342 0.08712533994090443 
-0.02116088055677115 -0.01577914579288419 -0.006678509033370342 0.08712533994090443 
-0.02116088055677115 -0.01577914579288419 -0.006678509033370342 0.08712533994090443 
-0.02116088055677115 -0.01577914579288419 -0.006678509033370342 0.08712533994090443 
-0.02116088055677115 -0.01577914579288419 -0.006678509033370342 0.08712533994090443 
0.004194379643814953 -0.03368167258093203 0.07375828763208161 -0.01967003303008472 
0 0 0 0 
0 0 0 0 
0 0 0 0 
0 0 0 0 
0 0 0 0 
0 0 0 0 
-0.01200096765930289 -0.03649601587964148 0.08598938864390364 0.001466395077227765 
0 0 0 0 
0 0 0 0 
-0.07712504466089962 0.0009547316434769509 0.1146421185039979 -0.02131334443178609 
0 0 0 0 
0 0 0 0 
0.1923451071869773 -0.1551598387493102 -0.1056183533410201 -0.07855532225167641 
0.01999814026673876 -0.01526758259898397 -0.005859148622701494 -0.006313097384577836 
0 0 0 0 
0 0 0 0 
0 0 0 0 
-0.04203901595818562 0.05970803783451054 -0.005889323623505648 -0.0008938684094388382 
0 0 0 0 
0.01840559550218341 -0.01745237818803977 -0.01249585879146444 -0.007540824203214254 
0 0 0 0 
0 0 0 0 
0 0 0 0 
0 0 0 0 
0 0 0 0 
0 0 0 0 
0 0 0 0 
0 0 0 0 
0 0 0 0 
0 0 0 0 
0 0 0 0 
-0.01748191383480232 -0.05141786110870113 0.05578080376812267 -0.008830070484729726 
-0.03967004816868269 -0.009448365858117229 0.0740808181359128 -0.0006769216580939264 
-0.03967004816868269 -0.009448365858117229 0.0740808181359128 -0.0006769216580939264 
0 0 0 0 
0 0 0 0 
0 0 0 0 
-0.04277320487322669 0.07183132772080925 -0.02427663245926466 -0.02641846850928465 
0 0 0 0 
0 0 0 0 
0 0 0 0 
0 0 0 0 
0 0 0 0 
0 0 0 0 
0 0 0 0 
0 0 0 0 
0 0 0 0 
0 0 0 0 
0 0 0 0 
0 0 0 0 
0 0 0 0 
0 0 0 0 
0 0 0 0 
0 0 0 0 
0 0 0 0 
0 0 0 0 
0 0 0 0 
-0.05316739578563544 -0.02576246798422042 0.07698716746620152 -0.008144699740092468 
-0.1003034944286304 -0.03585444287010094 0.1720579759173277 -0.007242639614678845 
-0.02436985475331 -0.05141458153768561 0.0669358712376279 -0.0135824785501277 
0.02612679090185011 -0.01265265505356558 -0.01327780523348317 -0.003475408831287656 
0 0 0 0 
0.0133134394868768 -0.008038813873966067 -0.00575384931205926 -0.0006394194329991771 
0.0133134394868768 -0.008038813873966067 -0.00575384931205926 -0.0006394194329991771 
0 0 0 0 
0 0 0 0 
0 0 0 0 
-0.0432706948369949 -0.03885961561037073 -0.0314501419557644 0.08176653241893214 
0.03979904117819236 -0.03013451511510141 -0.02019986705587487 -0.0129229378309064 
0 0 0 0 
0 0 0 0 
0 0 0 0 
0 0 0 0 
0 0 0 0 
0 0 0 0 
0.036570143329151 -0.02757599294590519 -0.02347745851004337 -0.01572389339993855 
0 0 0 0 
0 0 0 0 
0 0 0 0 
0 0 0 0 
0 0 0 0 
0 0 0 0 
0 0 0 0 
0 0 0 0 
0 0 0 0 
0.01516148111967895 -0.02460356221311482 -0.01316007209280817 -0.01373350159409894 
0 0 0 0 
0 0 0 0 
0 0 0 0 
0 0 0 0 
0 0 0 0 
0 0 0 0 
0 0 0 0 
0.01737618929734824 -0.009397157354679978 -0.002278309599263923 0.000567836013091458 
0.01737618929734824 -0.009397157354679978 -0.002278309599263923 0.000567836013091458 
0.01737618929734824 -0.009397157354679978 -0.002278309599263923 0.000567836013091458 
0 0 0 0 
0 0 0 0 
-0.03682686922547343 0.06738251048484664 -0.008134365289423073 -0.003896979885085358 
0 0 0 0 
0 0 0 0 
0 0 0 0 
0 0 0 0 
-0.05558476741835242 0.07709986291531826 -0.01762420791250903 -0.0116216975195564 
0 0 0 0 
0 0 0 0 
0 0 0 0 
0 0 0 0 
0 0 0 0 
0 0 0 0 
0 0 0 0 
0 0 0 0 
0 0 0 0 
0.04128242313945518 -0.05043200143295695 -0.03191357386054905 -0.03469036497892174 
0 0 0 0 
0 0 0 0 
0 0 0 0 
0 0 0 0 
0 0 0 0 
0.03251225746629161 -0.02391158598152113 -0.02352036972677038 -0.01436113107874698 
0 0 0 0 
0 0 0 0 
0.03496428360854052 -0.01691383676911792 -0.004792150367722983 -0.001860857804944023 
0 0 0 0 
0 0 0 0 
0 0 0 0 
0 0 0 0 
0 0 0 0 
0 0 0 0 
0 0 0 0 
0 0 0 0 
0.01885616401602717 -0.005775802304967803 -0.004263179923887096 -0.003104590831316675 
0.03053649889471431 -0.02230840466247111 -0.006340199692836515 -0.004513115159392015 
0 0 0 0 
0.1160082916832217 -0.104598189631069 -0.07263839132915581 -0.0543032917867739 
0.05044285415610515 -0.04006234631154192 -0.03490186249041463 -0.02400244262479515 
0 0 0 0 
0 0 0 0 
0 0 0 0 
0 0 0 0 
0 0 0 0 
0 0 0 0 
0 0 0 0 
0 0 0 0 
0 0 0 0 
0 0 0 0 
-0.03741069139968478 -0.03449806597698515 -0.03673003121697326 0.06662270848127042 
0 0 0 0 
0 0 0 0 
0 0 0 0 
0 0 0 0 
0 0 0 0 
0 0 0 0 
0.01095398368285215 0.007192800971924034 -0.04688215365592476 -0.04756034069481217 
-0.06015708042004576 0.08677173447823178 0.002117326932303146 0.001265627125968918 
-0.06015708042004576 0.08677173447823178 0.002117326932303146 0.001265627125968918 
-0.06015708042004576 0.08677173447823178 0.002117326932303146 0.001265627125968918 
-0.06015708042004576 0.08677173447823178 0.002117326932303146 0.001265627125968918 
-0.04496475409186626 -0.02553220809274855 -0.01843563664316218 0.09295602292691713 
0 0 0 0 
0 0 0 0 
0 0 0 0 
0 0 0 0 
0 0 0 0 
0 0 0 0 
0 0 0 0 
0.03986534389906667 -0.04034677540591946 -0.0209519890867771 -0.01414190364205597 
0 0 0 0 
-0.03991371415389244 0.06601551536825308 -0.01546366883862315 -0.004464654333031394 
-0.03831945108674371 -0.03870489559731818 -0.02130362455096208 0.08532189062237953 
0.03574809947128349 -0.03036182486728308 -0.01634760451834064 -0.01546525147266022 
0 0 0 0 
0 0 0 0 
-0.04345665944843648 0.05985184288604292 -0.004492122644041754 -0.003300948907352532 
0 0 0 0 
-0.03029191701641716 0.0425355844735888 0.0002300689636074247 0.0006531741369823424 
0 0 0 0 
0 0 0 0 
0.0442429006821239 -0.02994778958107509 -0.0315202539679392 -0.01995824296502551 
0 0 0 0 
0 0 0 0 
0 0 0 0 
0 0 0 0 
0 0 0 0 
0.0940224917433001 -0.05949715687952635 -0.03095646395123016 -0.01816412669388864 
0 0 0 0 
0 0 0 0 
0 0 0 0 
0 0 0 0 
0 0 0 0 
-0.0360360272013929 -0.06221461685657063 0.06292238681073024 -0.02689547689390646 
0 0 0 0 
0.03934389729225498 -0.04466064142143564 -0.03144932086588937 -0.02196741904097702 
0.02985062668104144 -0.01157024889314613 -0.003275818149017946 -0.0006570624273935259 
0.02985062668104144 -0.01157024889314613 -0.003275818149017946 -0.0006570624273935259 
0 0 0 0 
0.01800194202723312 -0.01065810651488485 -0.00490010307908908 0.0008591449614205326 
0 0 0 0 
0 0 0 0 
0 0 0 0 
0 0 0 0 
0 0 0 0 
0 0 0 0 
0.034480415410645 -0.02341143659941031 -0.01586832035572727 -0.008455695975779404 
0 0 0 0 
0 0 0 0 
0 0 0 0 
0 0 0 0 
0.01699479774699264 -0.01429065406963605 -0.01003494320656384 -0.004984710776905992 
0.01699479774699264 -0.01429065406963605 -0.01003494320656384 -0.004984710776905992 
-0.06553780530191791 0.03614344584301945 0.05201492940583499 -0.01499300153720498 
0.02073039738798681 -0.01444643118559938 -0.01957657794790633 -0.01280457753766597 
0 0 0 0 
0 0 0 0 
0 0 0 0 
0 0 0 0 
0.03489205026367955 -0.02954676175315219 -0.01495288956009756 -0.00497646437179249 
0.02229121127200594 -0.0164387988355094 -0.007552761165676068 -0.002341836417623791 
0.02229121127200594 -0.0164387988355094 -0.007552761165676068 -0.002341836417623791 
0 0 0 0 
0 0 0 0 
0 0 0 0 
0 0 0 0 
0 0 0 0 
0.01485269884194286 -0.01426074909177678 -0.01001615736910431 -0.004234265987294222 
0 0 0 0 
0 0 0 0 
0 0 0 0 
0 0 0 0 
0 0 0 0 
0 0 0 0 
0 0 0 0 
0 0 0 0 
0 0 0 0 
0.04159665636801692 -0.0306149182967928 -0.02260362885689997 -0.005907804365599153 
0 0 0 0 
0 0 0 0 
0 0 0 0 
0 0 0 0 
0 0 0 0 
0 0 0 0 
0 0 0 0 
0 0 0 0 
0 0 0 0 
0.04006922373556194 -0.01575695672065142 -0.0142227148395889 -0.008878779141752662 
0 0 0 0 
0 0 0 0 
-0.0997584736663592 0.05894622511740286 -0.01460534894244127 0.08205993482959378 
0 0 0 0 
0 0 0 0 
-0.04419543151440063 0.06326712999010331 0.0004084923196829423 0.001286117697092662 
-0.0340434693442282 0.04598133016075728 -0.01757013495543472 -0.004469051583766235 
-0.0340434693442282 0.04598133016075728 -0.01757013495543472 -0.004469051583766235 
0 0 0 0 
0 0 0 0 
0 0 0 0 
0 0 0 0 
0 0 0 0 
0 0 0 0 
0 0 0 0 
0 0 0 0 
0 0 0 0 
0 0 0 0 
0 0 0 0 
0 0 0 0 
0 0 0 0 
0 0 0 0 
0 0 0 0 
0 0 0 0 
0 0 0 0 
0 0 0 0 
0 0 0 0 
0 0 0 0 
0.02312562152389041 -0.01993559165654735 -0.01641046986852358 -0.01068782424354977 
0 0 0 0 
-0.05031293312923842 -0.03134552653531177 0.07121584570555886 -0.01560873199269955 
0.03286660255198145 -0.08727444955638053 0.01094522169333221 -0.05409251749462691 
0.03143218241557139 -0.02070993963110973 -0.01466780838506161 -0.009920130708650816 
-0.04389010248941737 0.07123540455285396 -0.008838389814121436 -0.0006372658188147737 
-0.1024674848374152 0.04860202249178239 0.0511642410558311 -0.01604473157088478 
-0.04389010248941737 0.07123540455285396 -0.008838389814121436 -0.0006372658188147737 
0 0 0 0 
0 0 0 0 
0 0 0 0 
0 0 0 0 
0 0 0 0 
0 0 0 0 
0.04211046904891263 -0.03407155004525252 -0.02479023455296271 -0.01847610919192747 
-0.09258144576761947 0.1416572092207013 -0.01962704977662569 -0.009131844227022847 
0 0 0 0 
0 0 0 0 
0 0 0 0 
0 0 0 0 
0.02646081294786512 -0.01308990024050239 -0.01031619692745362 -0.001985350489582368 
0.02646081294786512 -0.01308990024050239 -0.01031619692745362 -0.001985350489582368 
0 0 0 0 
0 0 0 0 
0 0 0 0 
0 0 0 0 
0 0 0 0 
0 0 0 0 
0.04063293486493764 -0.03441972868278771 -0.0248969181980714 -0.01492430885573695 
0 0 0 0 
0 0 0 0 
0.02092422890139187 -0.023905009939932 -0.01251749083347211 -0.009930756232784057 
0 0 0 0 
0 0 0 0 
0 0 0 0 
0 0 0 0 
0 0 0 0 
0 0 0 0 
0 0 0 0 
0 0 0 0 
0 0 0 0 
0 0 0 0 
0 0 0 0 
-0.03351149657931044 -0.03884805034099544 0.07927431086962364 -0.002734901382205983 
0.01516148111967895 -0.02460356221311482 -0.01316007209280817 -0.01373350159409894 
0.01516148111967895 -0.02460356221311482 -0.01316007209280817 -0.01373350159409894 
0.01516148111967895 -0.02460356221311482 -0.01316007209280817 -0.01373350159409894 
0 0 0 0 
0 0 0 0 
0 0 0 0 
0 0 0 0 
0 0 0 0 
0 0 0 0 
0 0 0 0 
0.04159665636801692 -0.0306149182967928 -0.02260362885689997 -0.005907804365599153 
0.07971081319941092 -0.07781623710571878 -0.0679887418872254 -0.04656404350427078 
0 0 0 0 
0 0 0 0 
0 0 0 0 
0 0 0 0 
0 0 0 0 
0 0 0 0 
0 0 0 0 
0.04421931970850912 -0.03271761163127881 -0.01272523599653329 -0.00692006878859633 
0 0 0 0 
0 0 0 0 
0 0 0 0 
0 0 0 0 
0 0 0 0 
0 0 0 0 
0 0 0 0 
0 0 0 0 
0 0 0 0 
0 0 0 0 
0 0 0 0 
-0.04419543151440063 0.06326712999010331 0.0004084923196829423 0.001286117697092662 
-0.04419543151440063 0.06326712999010331 0.0004084923196829423 0.001286117697092662 
0.0131315131627828 0.02353489179304449 -0.03883692966963722 -0.0248525294943942 
-0.08839086302880127 0.1265342599802066 0.0008169846393658847 0.002572235394185324 
-0.04419543151440063 0.06326712999010331 0.0004084923196829423 0.001286117697092662 
-0.04419543151440063 0.06326712999010331 0.0004084923196829423 0.001286117697092662 
-0.04419543151440063 0.06326712999010331 0.0004084923196829423 0.001286117697092662 
-0.02825750483668304 -0.01492611189655824 0.06751117379010646 -0.002820587656401786 
-0.07436606175550957 -0.01860579989994844 0.1708242438819437 0.0002321614715797065 
-0.02825750483668304 -0.01492611189655824 0.06751117379010646 -0.002820587656401786 
-0.02825750483668304 -0.01492611189655824 0.06751117379010646 -0.002820587656401786 
-0.02825750483668304 -0.01492611189655824 0.06751117379010646 -0.002820587656401786 
-0.02825750483668304 -0.01492611189655824 0.06751117379010646 -0.002820587656401786 
0 0 0 0 
0.02335465910049186 -0.01665873105646428 -0.001500901044437209 -0.001631445792107938 
0 0 0 0 
0 0 0 0 
0 0 0 0 
0 0 0 0 
0 0 0 0 
0 0 0 0 
0 0 0 0 
-0.0559325439068714 -0.01055864900529389 0.08774692249269812 0.001264576060383327 
0.03893133493274961 -0.02830387200619183 -0.02017023070153947 -0.01931918765465755 
0 0 0 0 
0 0 0 0 
0 0 0 0 
0 0 0 0 
0 0 0 0 
0 0 0 0 
0 0 0 0 
0 0 0 0 
0 0 0 0 
0 0 0 0 
0 0 0 0 
0 0 0 0 
0 0 0 0 
0 0 0 0 
0 0 0 0 
0 0 0 0 
-0.05357559805234022 -0.01563964942649461 -0.008862455528784067 0.1043440488061264 
-0.0559325439068714 -0.01055864900529389 0.08774692249269812 0.001264576060383327 
0 0 0 0 
0.005342658861196171 -0.07675617145669202 0.03336582580508557 -0.03539313855625543 
-0.0875744062522692 0.002365096263323943 -0.06880215913710042 0.02103876908407099 
-0.04262282715968378 0.05538158333993781 -0.03136472109199016 -0.03681228785320335 
0 0 0 0 
0 0 0 0 
0 0 0 0 
-0.04147160319478209 0.0591006689123828 -0.0110687194903519 -0.00512459275430831 
0 0 0 0 
0.02371204513796357 -0.009699878048929505 -0.007369305925217685 -0.000715993771351468 
0.04055611808539189 -0.02556961008763738 -0.01525477604770563 -0.01029225765761537 
0.04055611808539189 -0.02556961008763738 -0.01525477604770563 -0.01029225765761537 
0 0 0 0 
0 0 0 0 
0 0 0 0 
0 0 0 0 
0 0 0 0 
0 0 0 0 
0 0 0 0 
0.03695932057240502 -0.02002029098341692 -0.003443738489928242 0.000430698176438473 
0 0 0 0 
0 0 0 0 
0 0 0 0 
0 0 0 0 
0 0 0 0 
0 0 0 0 
0 0 0 0 
0 0 0 0 
0 0 0 0 
0 0 0 0 
0 0 0 0 
-0.03029191701641716 0.0425355844735888 0.0002300689636074247 0.0006531741369823424 
-0.03029191701641716 0.0425355844735888 0.0002300689636074247 0.0006531741369823424 
-0.03029191701641716 0.0425355844735888 0.0002300689636074247 0.0006531741369823424 
0 0 0 0 
0 0 0 0 
0 0 0 0 
0 0 0 0 
0 0 0 0 
0 0 0 0 
0 0 0 0 
0 0 0 0 
0 0 0 0 
0.03975740609342043 -0.03967918607043608 -0.0223269191060467 -0.0158573756256307 
0.03975740609342043 -0.03967918607043608 -0.0223269191060467 -0.0158573756256307 
0.03975740609342043 -0.03967918607043608 -0.0223269191060467 -0.0158573756256307 
0 0 0 0 
0.0680023257447224 -0.04828593257701492 -0.03814526689510497 -0.02564402410858937 
0 0 0 0 
0 0 0 0 
0 0 0 0 
0 0 0 0 
0 0 0 0 
0 0 0 0 
0 0 0 0 
0 0 0 0 
0.03632988138281564 -0.04137567230030605 -0.03444358540712937 -0.04403819796464171 
0.03053649889471431 -0.02230840466247111 -0.006340199692836515 -0.004513115159392015 
0 0 0 0 
0.1656901308612559 -0.1413812172932834 -0.1372789739048965 -0.09136293809329232 
0.0108474200130455 -0.01847601171370769 -0.01403096485063714 -0.01049086268523767 
0.02188335769471555 -0.02422993315370296 -0.0196296248483466 -0.01483320472043037 
0.02459236400862179 -0.02872197974471609 -0.01181379933432362 -0.01061517752392296 
0.02459236400862179 -0.02872197974471609 -0.01181379933432362 -0.01061517752392296 
0.05606478374454055 -0.05135482871233869 -0.02063406898941165 -0.01274874260421935 
0 0 0 0 
0 0 0 0 
0 0 0 0 
0 0 0 0 
0.03857131626643662 -0.02969395639218023 -0.02851630391692397 -0.01119192258978086 
-0.1074275034916702 0.09429444577191158 0.03407169676989678 -0.0429984186294599 
-0.04198301521982931 -0.03948465042830034 -0.03566378827822138 0.06969111730447167 
-0.04198301521982931 -0.03948465042830034 -0.03566378827822138 0.06969111730447167 
0 0 0 0 
0.01991014995203146 -0.01508583264983513 -0.004711000740350748 -0.002150991206463918 
0 0 0 0 
0.03254102059952612 -0.03451007768572555 -0.01962951244785252 -0.01006548655199348 
0 0 0 0 
0 0 0 0 
0 0 0 0 
0 0 0 0 
0 0 0 0 
0 0 0 0 
0 0 0 0 
0 0 0 0 
0 0 0 0 
0 0 0 0 
0 0 0 0 
0 0 0 0 
0 0 0 0 
0 0 0 0 
0 0 0 0 
0 0 0 0 
0 0 0 0 
0 0 0 0 
0 0 0 0 
0.04697037218188159 -0.02278835552091206 -0.01369517229466084 -0.004659908617950287 
0.04697037218188159 -0.02278835552091206 -0.01369517229466084 -0.004659908617950287 
0 0 0 0 
-0.03960336564569208 0.04887703661194288 -0.02164945598331266 -0.01259660705866946 
0 0 0 0 
0 0 0 0 
0 0 0 0 
0 0 0 0 
0 0 0 0 
0 0 0 0 
0 0 0 0 
0.03053649889471431 -0.02230840466247111 -0.006340199692836515 -0.004513115159392015 
0 0 0 0 
0 0 0 0 
-0.04518239794142875 0.06781562497290404 -0.005404539874004529 -0.0005965253797836974 
0.02884006799668253 -0.03638141823095275 -0.02223241625741589 -0.01938775085687077 
0 0 0 0 
-0.08766338342977696 0.02918693463082755 0.05681255171367844 -0.01951543144673528 
0 0 0 0 
0 0 0 0 
0 0 0 0 
0 0 0 0 
0 0 0 0 
0 0 0 0 
0 0 0 0 
0 0 0 0 
0 0 0 0 
0 0 0 0 
0 0 0 0 
0.04117909380040344 -0.04413304927308258 -0.02970991509143772 -0.02621756727832842 
0 0 0 0 
-0.0378319206526452 0.05268650230232621 -0.02683953010252024 -0.03445474396529841 
0 0 0 0 
0 0 0 0 
0 0 0 0 
0 0 0 0 
0 0 0 0 
0 0 0 0 
0 0 0 0 
0 0 0 0 
0 0 0 0 
-0.03938144943035993 -0.0316004732575663 0.07463025523005579 -0.003561797711532001 
0 0 0 0 
0 0 0 0 
0 0 0 0 
0.02939134654802903 -0.01967743740633193 -0.007963549676255299 0.0004292294724421624 
0 0 0 0 
0 0 0 0 
0 0 0 0 
0 0 0 0 
0 0 0 0 
0 0 0 0 
0 0 0 0 
0 0 0 0 
0 0 0 0 
0 0 0 0 
0 0 0 0 
0.04281178778800583 -0.04147664796426544 -0.03722525441910415 -0.02974378852558879 
0.04281178778800583 -0.04147664796426544 -0.03722525441910415 -0.02974378852558879 
0.04281178778800583 -0.04147664796426544 -0.03722525441910415 -0.02974378852558879 
-0.05857738234799785 -0.02263338206107156 0.06000263086995254 -0.01540746575207 
-0.05857738234799785 -0.02263338206107156 0.06000263086995254 -0.01540746575207 
-0.03185640643277422 0.04641916207408893 -0.02724334339643737 -0.01498086928905762 
0 0 0 0 
0 0 0 0 
0 0 0 0 
0 0 0 0 
0 0 0 0 
0 0 0 0 
0.04151910929736064 -0.03345818131528205 0.003481333460404301 0.003141224685922833 
0 0 0 0 
0 0 0 0 
-0.1227414462268733 -0.04197926311154229 0.15847493312554 -0.05048739001342404 
0 0 0 0 
0 0 0 0 
0 0 0 0 
0 0 0 0 
0 0 0 0 
0.05199488299270822 -0.04851228117854037 -0.01478276479988882 -0.008571422047422186 
0 0 0 0 
0 0 0 0 
0 0 0 0 
0 0 0 0 
0 0 0 0 
0 0 0 0 
0 0 0 0 
0 0 0 0 
0 0 0 0 
0 0 0 0 
0 0 0 0 
0 0 0 0 
-0.04495157909258542 -0.05301648707661388 -0.03743743804511025 0.05785105693727434 
-0.04495157909258542 -0.05301648707661388 -0.03743743804511025 0.05785105693727434 
0 0 0 0 
0 0 0 0 
0 0 0 0 
0 0 0 0 
0 0 0 0 
-0.03838723115415225 -0.04186878882280255 0.06225932089289136 -0.01815806461580263 
0 0 0 0 
0 0 0 0 
0 0 0 0 
0 0 0 0 
0 0 0 0 
0 0 0 0 
0 0 0 0 
0 0 0 0 
0 0 0 0 
0 0 0 0 
0 0 0 0 
0 0 0 0 
0 0 0 0 
0 0 0 0 
0 0 0 0 
0.02945533591256936 -0.02025346518510243 -0.02501833824773831 -0.01811179502400667 
0.01133333323944048 -0.01760340524334889 -0.006316507581234494 -0.005745971431557122 
0 0 0 0 
0 0 0 0 
0 0 0 0 
0 0 0 0 
0 0 0 0 
0 0 0 0 
0 0 0 0 
0.01750187776856306 -0.01060868324178814 -0.006648537005578342 -0.001825592357146396 
0 0 0 0 
0 0 0 0 
0 0 0 0 
0 0 0 0 
0 0 0 0 
0 0 0 0 
0 0 0 0 
0 0 0 0 
0.04174888943548719 -0.03470317204135479 -0.01634376831086773 -0.007654989013304009 
0.02768275712801134 -0.02416404800567326 -0.0122568897296215 -0.006044399418341161 
0 0 0 0 
0 0 0 0 
-0.03897337552387849 -0.02985857691180398 -0.03326887886332319 0.08061821393090815 
-0.05887505488027413 0.0803576883418519 -0.01682315336584433 -0.01085202890102618 
0 0 0 0 
0 0 0 0 
0 0 0 0 
0 0 0 0 
0 0 0 0 
0.05277646879366987 -0.03753640146115451 -0.002023089359811623 0.0002520880266022904 
0 0 0 0 
0 0 0 0 
0 0 0 0 
0 0 0 0 
0 0 0 0 
0 0 0 0 
0 0 0 0 
0 0 0 0 
0 0 0 0 
-0.0214898908170213 0.08041370334680865 -0.03042780192007296 -0.005988471650216373 
-0.0214898908170213 0.08041370334680865 -0.03042780192007296 -0.005988471650216373 
-0.0214898908170213 0.08041370334680865 -0.03042780192007296 -0.005988471650216373 
0 0 0 0 
0 0 0 0 
0.04211046904891263 -0.03407155004525252 -0.02479023455296271 -0.01847610919192747 
0.04211046904891263 -0.03407155004525252 -0.02479023455296271 -0.01847610919192747 
0.04211046904891263 -0.03407155004525252 -0.02479023455296271 -0.01847610919192747 
0.04853098646616284 -0.06485097079588661 -0.02062204362661737 -0.02318884163674919 
0 0 0 0 
