solver_type L2R_LR
nr_class 4
label 1 0 2 3
nr_feature 3743
bias -1
w
-0.1521646730244942 -0.04713062516155253 0.04210311805028698 -0.3480953500528582 
-0.07389141136563393 0.04650480288893488 0.01667141223970708 -0.05147918072939864 
-0.1082023728274858 -0.003178689827044584 -0.3318290294371878 -0.6910952017020748 
-0.05560830866467944 -0.06231885166285903 -0.1169447621984042 -0.1942588661643841 
0.1481472696327332 -0.142761295882521 -0.1484728108053347 0.02604281446221792 
-0.1289967530457465 -0.08998964668043682 0.1918531208697923 -0.4150695986692178 
-0.2248345811477866 -0.2016095787693541 0.1877088421932627 -0.8548645807286569 
0 0 0 0 
0.500313831924279 -0.4198970472935605 -0.2671176290073164 -0.2078970171282432 
0.05321413359086372 0.008401866915997924 -0.04683678792362607 -0.002333147474056274 
0.02776633971337801 -0.07957166660451691 0.06640222039415025 -0.009133980001496235 
0.09133889781092744 -0.1587658932165593 0.01353466469851418 -0.07207493860488554 
0.07116913625636434 -0.03083880771491673 -0.0306922036396234 -0.0005159432191791216 
0.07116913625636434 -0.03083880771491673 -0.0306922036396234 -0.0005159432191791216 
0.2539898313970529 -0.2760685434635801 0.1718932958795413 -0.04178974516616017 
-0.001023203964861268 -0.01998650069702898 0.05494808318848537 -0.04574920087438697 
0.0002168017151030938 0.02333022858794233 -0.008138037623991155 -0.01653200033672194 
0.1174897229978112 -0.06400441731914963 -0.0394623235735018 -0.007291407812875812 
0.1624489296605891 -0.1744533493473774 -0.1178379690495095 -0.06879990780992634 
0.1183066085350835 0.1105416570680431 -0.2790798025553061 0.07078943395211015 
-0.2263227219524808 0.07304059462272104 -0.1290911660626623 -0.1938852709190064 
-0.1700362097757059 -0.2450997988037902 0.1706342193182173 -0.2616219061373052 
-0.2178281031979242 0.3638625755967427 -0.450696723335892 -0.1046328311649668 
-0.03349856199015306 -0.285618801911507 0.2930077068923718 -0.000546942496636631 
0.07116913625636434 -0.03083880771491673 -0.0306922036396234 -0.0005159432191791216 
-0.1111149651610549 0.09882733803030726 0.01893881294018234 -0.4445355071152935 
0.07116913625636434 -0.03083880771491673 -0.0306922036396234 -0.0005159432191791216 
0 0 0 0 
-0.809884309675867 0.9161705688233071 -0.8297816946884927 -0.5341091875823845 
0 0 0 0 
0 0 0 0 
-0.2155297156177758 -0.04525832848135932 0.1460786573190547 -0.09299597830547444 
-0.2560247269801973 -0.05227868889625842 -0.03341032210994046 -0.4023525700004265 
0.1672155637554018 -0.4048394548974172 0.003128776721201404 -0.0189295358829137 
-0.01082808875761804 0.04817600398305445 -0.03392128350228672 -0.0009189238355836041 
0.07807752743787809 0.01305898119523859 -0.07141267457023778 -0.003719063973599748 
-0.2977112132533053 0.4476196409111057 -0.5347037487894258 -0.3679294445406114 
0 0 0 0 
0 0 0 0 
0 0 0 0 
-0.06181770337725971 0.05544604485949921 -0.3302170294926161 -0.292901117739865 
-0.08515282201471994 -0.1655050574342187 0.07323898788886338 0.08214427019118811 
0.008099648836183498 0.1467747275732171 -0.1707257399372512 0.1207558055182126 
-0.1654446377014455 -0.07538448175451111 0.1140301400619554 -0.3536259569341858 
-0.4943072075737586 0.2229083706264547 -0.3246288319639498 -0.4747764508935265 
-0.1807291386366547 -0.05531052035080095 0.146364461289408 -0.4731462827146078 
-0.4424342071541846 -0.1517451725923316 0.2978634020100104 -0.3274630503891617 
0.09245621818142122 -0.07353201269449677 0.04170793702575852 -0.03395448049356543 
0.8257190936512705 -0.6949195338019286 -0.2093426600288247 0.1250801619603118 
-0.07553831064564703 -0.004591928819151115 0.1013128669116142 -0.01483105810383831 
0 0 0 0 
0 0 0 0 
-0.01108920388040806 -0.02821726106427196 0.0338738379900982 -0.0008485373349963754 
-0.3657783898767671 0.4536036462116538 -0.5505927470734758 -0.4256689556676864 
-0.110339594867967 -0.0658292639003176 -0.05029637367160371 -0.07692237136309271 
-0.1069586968059502 0.155567709631367 -0.110722219903451 -0.0862319507124228 
0.167208312499763 -0.07051486074628301 -0.08906829961959634 -0.2253907985246613 
-0.2345951620855285 0.01000639514888954 -0.2452675194348192 -0.3702617827824958 
-0.3317866146425386 0.1596311377708318 0.05636212551036728 -0.07476859640360492 
0.4454797282933697 -0.3562971768537319 -0.193661113765003 -0.006517890910422326 
-0.2146941131247892 0.6170200850239294 -0.5545233831752058 -0.1960700548424697 
-0.4525651430469925 -0.02681328230466133 0.02993613857763641 -0.9781064639064306 
-0.4156202387303623 0.3634664148993498 -0.1115594221414463 -0.4231938693718529 
-0.03869039820360348 -0.1913226868721929 0.249604315879217 -0.06727689888607501 
0.01885845484772077 -0.0560846700603764 -0.192054418911098 -0.3120587976830747 
0.2452332169251173 -0.6122031199532499 0.1613539238694873 -0.1955139465776559 
0.2275649917101596 -0.219733166976375 -0.08220074260910289 -0.03043805600153636 
0.5005907964920069 -0.4173338893184044 -0.2711258588938852 -0.2078594147236851 
0.05069521819226228 -0.1098969230238327 0.05765485686745993 -0.007696093195419187 
-0.2081749014989321 0.1786487206614536 -0.09703478118830879 0.1644927610999087 
0 0 0 0 
-0.6999851983941214 0.810317368266563 -0.6258568436323932 -0.3077715651647161 
0 0 0 0 
-0.006066363618457263 0.03296151082486608 -0.03113491665483728 -0.001420709035905751 
0 0 0 0 
0 0 0 0 
0 0 0 0 
0 0 0 0 
-0.2349997586448015 0.3871937592422438 -0.3891122967906818 -0.004564554853972847 
0 0 0 0 
0 0 0 0 
0 0 0 0 
0.01486076959359446 -0.09562396837385725 0.0009617733234711153 0.07578259015463082 
-0.0984476697987082 -0.0325521935511651 0.1173323233731559 -0.02600641257986077 
-0.1294339883317092 -0.03788674833439547 0.1735721317403687 -0.03258180882357715 
-0.1949043729921611 0.005968007250514092 -0.06936611622051617 0.1065615065578793 
-0.01482043596743307 0.04082099548057208 -0.03118526023718681 -0.002756162502493098 
0.05845597952842813 -0.006188327574688865 0.001688498191399337 -1.484479921929885e-05 
-0.1520677789263821 -0.07636833500794346 0.1000178253158778 -0.1218151756748336 
-0.01549856410730472 -0.02253147731027839 0.02949175955936408 -0.00377761567247855 
-0.03361213310133174 -0.04140464076488134 0.04705878915771358 -0.01575606047458019 
0.03564533800950287 -0.03482108285700077 0.005944127070328273 -0.01342745835602618 
0 0 0 0 
-0.03494675303955791 0.07499207774105185 -0.1119534457073414 -0.0622816899751185 
-0.1998194905863766 -0.01854622302576102 -0.01003331380627907 -0.2428706128094807 
0.0818848078542922 -0.1432589726318829 0.01340943609495851 0.08519340288944555 
-0.0843645863645965 0.08602123402590518 -0.07013145328965108 -0.05328864171079117 
0 0 0 0 
0 0 0 0 
0 0 0 0 
0 0 0 0 
0.1439041557577475 -0.0436119038593271 -0.1612177490255078 -0.07375506389127059 
-0.5105414930485325 0.2791415113322213 -0.3725125947298822 -0.1010449175431977 
0 0 0 0 
-0.02953660926319021 0.01331722545250343 0.03057722423562586 -0.005986801353626415 
-0.02005233061329997 -0.0555603361642365 0.06892638160991435 -0.007418146794060001 
0.06903191185061225 -0.1954980249362571 -0.1554380434369346 -0.02911626663307168 
-0.06887393971788672 -0.1351491386273541 -0.05828885529073074 -0.07277006470819403 
-0.01015246466797381 0.04987408244609429 -0.03381188710578084 -0.0002874097861988822 
0 0 0 0 
-0.08877786661074338 -0.02613703352901395 0.04885217037151046 -0.0460998749039133 
0 0 0 0 
0 0 0 0 
-0.03138157839772762 -0.007635766088545389 0.027085571882087 -0.0161238815022858 
0 0 0 0 
0 0 0 0 
-0.01214635028513455 0.05178371333717352 -0.04251347511157169 -0.1000413006748839 
-0.02383596221385972 0.06913093109480185 -0.02355555980151971 -0.002730830286990505 
0 0 0 0 
0.04925167890568792 0.01618834919512015 -0.02938588780895541 -0.006707542122196332 
0.07685892184882102 0.09296809439460438 0.1703911404609304 -0.0659117737639931 
0 0 0 0 
0.1261681064601154 -0.07577780710085581 -0.0438167991337572 -0.1293970694134594 
-0.05549815901094076 -0.04451083881443288 0.007819580383889628 -0.108568407751767 
0.05018810260514991 0.02068900290227406 -0.2310300291021894 -0.05139136836194832 
-0.1218418931579998 0.2272510425966583 -0.2434519157910414 0.0394080814492348 
0.05712689282453163 -0.1602378263135139 0.1976507988050182 -0.05784054055390794 
-0.06287871817305565 -0.1119738428317167 0.1024804793263323 0.03752891626149804 
0 0 0 0 
0 0 0 0 
0.1518850045637995 -0.005682286032598301 -0.01908494027319895 -0.006993623061362673 
-0.004353060117779261 0.05067746276081192 -0.01618839952935671 -0.0654467359221665 
0 0 0 0 
0.167723888327056 -0.1505248178082454 0.01701243368256351 -0.06662022888806134 
-0.1265280097965378 0.2487786722567695 -0.272303414204545 -0.2673418840811048 
0 0 0 0 
0.08629433731618882 -0.1492245060558278 0.05227784298213999 -0.0368233672104571 
0 0 0 0 
-0.01733649278765821 0.02013087941325773 -0.008840615031228323 -0.02529547640343261 
-0.1128099001986037 0.02921660729783473 -0.1179419313993317 -0.1238130834191738 
-0.1820249794989834 0.2064780213944488 -0.480781016453407 0.09146243299419993 
-0.007885754002697684 0.0830962233500202 -0.06532480392655574 -0.002137329197092514 
-0.1269539940562364 0.1886214836627253 -0.2302480894097055 -0.4042198204262594 
-0.2482578358579541 0.1300497680994244 -0.1186393681584184 -0.09755584954922922 
-0.1462668554206477 0.03457052812867911 -0.006845730979510483 0.04940941900459429 
-0.06795458836449621 0.1206344837273252 -0.1914703470534095 -0.09925014354976089 
-0.006052605728413003 0.006180467811740933 -0.006749775685115374 -0.001094489773599319 
-0.8072725847643436 0.9037129068401912 -0.8260645107231204 -0.5340064901405873 
-0.2385477659166764 0.1988088572633766 -0.1720438090703952 -0.2359352606019202 
-0.2312688616103466 0.45247590049755 -0.3582143374493181 -0.08059565678878478 
0 0 0 0 
0 0 0 0 
-0.07254628574126407 0.1001124091795044 -0.04063022100740384 -0.03628117394159423 
0.03007469306364622 -0.002359557683225109 -0.02132231570405894 -0.009026220115397865 
-0.01751192169319664 0.09281815419270317 -0.08929832559475115 -0.002319446389608339 
0.008542110070413944 -0.03585775524036887 -0.4391648281790467 -0.4706978774417578 
0.07374987627672859 0.01237898337374051 -0.07926224992265823 -0.008483051070489182 
-0.1023637096139157 0.3438357059518704 -0.5726638912813443 -0.4481245359134288 
-0.2987878169856616 -0.09528376156667773 0.2863589976337736 -0.2397732489367495 
-0.2315130432910123 0.101698243292855 -0.1971748261086906 -0.2034458896917449 
0.01318551444073611 -0.1137565176891494 0.09698843695372764 -0.03511486456134403 
-0.04676941892067206 -0.1006624424657824 0.1505304801472643 -0.01587083330885847 
-0.1531727304243572 -0.01373110337508852 0.0943090190636138 -0.06555632408966751 
0 0 0 0 
-0.007313513895346481 -0.02735149309957349 0.03322643364623704 -0.001839839187351146 
-0.1521598507658662 -0.1001095179557029 0.2641204290973776 -0.1778474215227493 
-0.08598489068581425 0.1228391011666993 -0.08384363156322258 -0.03788618918474425 
-0.05841840096678425 0.0833476548435023 -0.0831770678644585 -0.09498104551468575 
-0.09033000111707887 0.01882774380564653 0.04556465708082618 -0.07885118058646168 
-0.01990045085627984 0.04230256157124414 -0.03745404445974938 -0.005936889547460797 
0 0 0 0 
0 0 0 0 
-0.3228257575344426 0.02025872235086042 -0.05350690153798686 -0.1343331110029486 
-0.01356407848476097 -0.0377568368600574 0.04876377384279038 -0.003399582496982704 
0.0513469161198897 -0.3206003550564019 0.09792598567436152 -0.2941598047949689 
-0.06945520322247078 0.063468469580412 0.01953797682019252 -0.04593953973575017 
-0.06549852354166597 -0.02657580129679788 0.05936241490591145 -0.02262454061935795 
-0.01356407848476097 -0.0377568368600574 0.04876377384279038 -0.003399582496982704 
-0.01181854357079249 0.005931903507847583 0.002004963912986647 -0.003632909149822659 
-0.05036052009256629 -0.005298120845961254 0.06110492546912164 -0.008886219092303055 
0.1119526029081806 -0.07906632567650689 -0.1070991357543786 0.06614754332608819 
-0.02179969741500087 -0.0343296358766071 0.0796600180712759 -0.003918771186319815 
-0.01976172309745226 -0.1143811039527241 0.0735266682624816 0.2076553829162152 
-0.1082825492230474 -0.173442274474704 0.2355391107029053 0.1567401425578406 
0 0 0 0 
0.2471585050372943 -0.06913117016371498 -0.44024330466228 0.1438699244108575 
-0.078958781466115 -0.1150393516257286 0.01169492071149782 -0.08041485292375505 
-0.03410797385684777 0.07270951491734901 -0.03981632796069376 -0.02706406803263553 
0 0 0 0 
-0.1799826724930041 0.1175874484217462 -0.05506724966599841 -0.2077477774698174 
-0.05848582672821906 0.4138682999584458 -0.8751633845321283 -0.2084034839665281 
-0.03703759178103148 0.04590592395460871 -0.1108287323751791 -0.06283492783542853 
0.3814229979436143 -0.2809307301646262 -0.1001765788167058 -0.09065082045475142 
0.03467445938224812 -0.1095761205218918 0.0588864330813678 -0.07246526417480151 
0 0 0 0 
0 0 0 0 
0 0 0 0 
-0.02667783342905426 -0.09232257571146753 0.07190106515828514 -0.04517909342005015 
0 0 0 0 
-0.6125221766020282 -0.4903267417809339 0.3748714338162666 -0.7651309033789473 
0 0 0 0 
0.1809861730306892 -0.1714141455759954 0.01581772389029906 -0.04409735468375995 
0.05505463214257852 -0.05409407757784009 -0.02937594658228149 -0.02834599121252619 
0 0 0 0 
0 0 0 0 
0 0 0 0 
-0.02187504451806235 0.04204859033855214 -0.02152478574811543 -0.005914659586212276 
-0.07253537024811646 -0.01661567749698945 0.1204149952533656 -0.06459939828854461 
0 0 0 0 
0 0 0 0 
-0.03122728153288008 -0.0344483309532264 0.04136662103218339 -0.01675324837788095 
0 0 0 0 
-0.03698149582280622 -0.09708598086156366 0.04866139941974588 -0.1934289845355722 
-0.002512650499191617 0.03998271437949272 -0.04653951362982968 -0.004058748917478589 
0.1166642052108394 -0.03533070032485661 -0.06042057314424635 -0.04833003659588123 
0.05708483646017677 -0.1580756174049577 0.1522077743274311 -0.1024950939806236 
0.04107373513494751 -0.1510234603373635 0.07993130374240295 0.09794762428381565 
-0.0340845043378738 0.05960159112181775 0.05325017330372891 -0.004965606555565841 
0.09040137131375839 0.309423207213877 -0.7334918863875408 -0.2442058662270795 
0 0 0 0 
-0.02844037960199806 0.0005139042445039817 0.0329923926667977 -0.01707274505662526 
-0.01904492292879068 0.01124879385291187 -0.003540103892722294 -0.01507370232800836 
0 0 0 0 
0.00919541748161193 -0.1209258805615476 0.06286202471592653 -0.09066888742810274 
-0.03390184536722703 0.05303389294974163 -0.06132994728199834 -0.02732530486729225 
0.05158074132746687 0.00981678311162021 -0.144123431679092 -0.199330985914107 
-0.4070116526134278 0.1310608306127148 -0.02583998561932492 -0.1765233955575346 
-0.001785642251812596 0.03434617784833435 -0.03011657171970698 -0.001029333020031534 
0 0 0 0 
0.08707812863722127 -0.1333208313070081 0.005590015396280556 -0.04403620061563558 
-0.01613384639155438 0.04148153150642161 -0.04399822968745337 -0.003405704809838203 
-0.02849959200925438 0.08914222796789029 -0.03301826869079494 -0.005713998329072815 
-0.003140331176244291 0.07029833968082913 -0.06007023777154581 0.07253568374113009 
0.08147546018859368 0.04852976717271829 -0.1031884757611008 -0.05956929622166096 
-0.1259941596712676 0.1632496803263062 -0.1121390597289159 -0.08136048906669584 
-0.04660933700571934 0.07621025969104821 -0.06310321322934739 -0.04039197239210759 
-0.01404882863145746 0.03717204784368328 -0.03414327389601145 -0.01272041477370333 
-0.01404882863145746 0.03717204784368328 -0.03414327389601145 -0.01272041477370333 
-0.02619244720271083 -0.009346052440055565 0.02289158242394625 -0.01686921195990672 
0.1522100351538546 -0.2555856305506148 0.03973984603222139 -0.1205325823122474 
0 0 0 0 
-0.06511170200697068 -0.01355130095059082 0.03544228733323793 -0.05008177996743145 
-0.2642826730323266 0.3187932495680939 -0.2151623541440665 -0.1582815420897604 
-0.02314252078622732 0.1423343646174468 -0.08545087621111799 -0.04431347585010609 
-0.02041561811464358 0.03569573028057429 -0.01256331219036895 -0.002995889916544897 
0.005340121958760061 -0.07492105426561724 -0.1066033944963797 -0.03236403885394412 
-0.04196223979948056 0.06483400413396373 -0.03264492298035342 -0.01188118030030874 
0.0765863197122586 -0.1555995865747343 0.08846557137402125 -0.08389071974765443 
-0.093913831647802 -0.116429644910854 0.2243008494503225 -0.04678481784322017 
-0.1322217811818008 0.0201097119899985 -0.04669107771259037 0.0344512903756521 
-0.03028635972341511 0.04945335426585083 -0.05376885545247102 -0.02462226469415889 
-0.03028635972341511 0.04945335426585083 -0.05376885545247102 -0.02462226469415889 
-0.1073017953458583 0.08235985150801456 -0.003256295340337955 -0.03775391265306299 
0.1285525377693085 0.1113106716221836 -0.3602464720357552 -0.1441086485054268 
-0.6125221766020282 -0.4903267417809339 0.3748714338162666 -0.7651309033789473 
-0.05836809154098235 0.02664449290492931 -0.01483227457057723 -0.01505362734888909 
-0.07165686351407136 -0.08888496626330721 0.192771652096514 -0.01304639317734701 
-0.03786742280808865 0.0228990144753409 -0.003889715226076488 -0.005243778740250809 
-0.02768966013136383 -0.002179341205296342 0.02196589605384384 -0.00449352047437266 
0.03931119762083557 -0.1154915053400263 0.08632873581146747 -0.006232646205522819 
-0.05723786372546419 0.05288372619218998 -0.02320973028766087 -0.02080726063462439 
-0.05456302656888069 -0.02758095652170958 0.07287620733677116 -0.01435276554710324 
-0.01866165401756789 -0.03367611173367455 0.03929498602106372 -0.005404922956481598 
-0.05844438812156634 -0.09316964592624992 0.1483545523254063 -0.01289586438041069 
-0.1232994766476888 0.1324094141929588 -0.06175803362539624 -0.03731573825754216 
-0.0319337580397013 -0.129260000499489 0.2018686395487145 -0.009216739300469477 
-0.02970582161352005 -0.04396036354506856 -0.009303303833662303 0.1163307749643187 
0 0 0 0 
-0.05806477228599215 0.222703337855355 -0.1678920895948125 -0.1097053501680899 
-0.02945870687886628 0.02672312205540713 -0.02235752196908523 -0.02523518514792931 
-0.0508081547332188 0.01198095753034235 0.01952167160694378 -0.0154807133784325 
-0.04240931613016901 -0.03260170843557875 0.06695136698233757 -0.01975244113072073 
0.07714990558712982 0.03876510720034595 -0.07719766471074867 -0.01774439981489464 
-0.01772353587733141 0.03878164844271814 -0.02362899102917652 -0.002105027989999579 
0 0 0 0 
-0.1510350449428564 0.08308331127187961 0.03218537627626741 -0.1197380599962215 
-0.111203368447148 -0.1364447106888841 0.1486456693027921 -0.08104780144713089 
-0.1204790736116535 0.1804459725353761 -0.1396494870800203 -0.08342920763084546 
0.09972144920665815 -0.3540244139649562 0.235041843035979 -0.044764956795495 
0.02839970406436271 0.08341914659866445 -0.5115119514499186 -0.04350116164423314 
0.05142451465235059 -0.1155906227452629 0.06490699047516786 -0.03162956200394178 
-0.08435644338125374 0.04732664804971001 -0.02317351354123245 -0.04085194130379945 
-0.04421036151789738 0.0740153098538619 -0.05407593688876274 -0.01689366628499247 
-0.02053015773624313 0.03109430198600759 -0.01750854663965813 -0.008166745599194863 
-0.003557952144250991 0.002511178989537574 0.02064211091762638 -1.146775069095764e-05 
-0.003557952144250991 0.002511178989537574 0.02064211091762638 -1.146775069095764e-05 
-0.003557952144250991 0.002511178989537574 0.02064211091762638 -1.146775069095764e-05 
0.07749473492242152 -0.1438331090724201 0.1093204797017618 -0.0385702669726628 
-0.4500376012103892 -0.006823472485759686 0.3453855030258673 -0.1322845758088068 
-0.05831815905204796 -0.01098125201343666 0.0566868200597469 0.05546285433824191 
-0.003557952144250991 0.002511178989537574 0.02064211091762638 -1.146775069095764e-05 
-0.003557952144250991 0.002511178989537574 0.02064211091762638 -1.146775069095764e-05 
-0.1115924807146159 -0.1998423987001107 0.3376673159240345 -0.02015432610207891 
-0.03570512029725625 0.05222365732832161 -0.02065457074295572 -0.01227585304650968 
0.03361579455671922 -0.1047029522290342 0.04210428129600222 0.1625773596609939 
-0.04697907467499229 -0.105880264433729 0.004689504203476405 0.01201228332123577 
-0.003557952144250991 0.002511178989537574 0.02064211091762638 -1.146775069095764e-05 
0 0 0 0 
-0.0623745659429016 0.04235484644558631 -0.04155516415447501 0.09747919040380609 
-0.02284864482949706 -0.03117416022848292 0.07736157737593188 -0.0006570373044452941 
-0.217269550230836 0.0805663343819646 -0.01967077964684618 -0.4816574707905605 
0.00206780072607494 0.04102616497438268 -0.02755343180148061 -1.303536115094402e-05 
0.06552502982988603 -0.06303071372262588 0.002089748632876214 -0.02929959458806958 
-0.1518756571174399 0.2310135005957527 -0.1930959893740923 -0.1547532297233368 
0.1641725005472206 -0.05731372884722592 -0.06025459805990285 -0.03582079065288541 
0 0 0 0 
-0.05862963148512282 0.1424816902974615 -0.1198702228325165 -0.0336497401405683 
0 0 0 0 
-0.1964682583869283 0.407564969957719 -0.3350332874545079 -0.1232918825489033 
0 0 0 0 
0 0 0 0 
0 0 0 0 
0 0 0 0 
-0.01898211835128817 -0.05033659240349103 0.05185189519793092 -0.007384692690219143 
-0.1087888206936196 0.04951442048662718 0.08704587493272675 -0.01279704549209291 
-0.03577241093446145 -0.004729723246200376 0.03198269872985294 -0.0143357217001123 
0 0 0 0 
-0.02693461986982822 -0.04188218485447486 0.04724517288213002 -0.009382451361526533 
0 0 0 0 
0 0 0 0 
0.02185814506735535 0.05157480098697824 -0.1649436080897696 0.03161110148632947 
-0.04119846938955965 -0.04927767846969981 0.05005768824721667 -0.04511397095152898 
0 0 0 0 
-0.1172807352073801 -0.00867606054008118 -0.03172403955848036 0.1688207252658811 
0 0 0 0 
0 0 0 0 
0 0 0 0 
0.02034946887206974 -0.03837437389745905 -0.03773426962824393 0.09627810105416433 
0.1426292076483409 -0.04594170249008236 -0.101238368764026 -0.007009197778511176 
0 0 0 0 
0 0 0 0 
0 0 0 0 
0 0 0 0 
0 0 0 0 
-0.0205325982673322 -0.07965989834262521 0.04270258594324831 0.09941423262035155 
0.04062962785379422 0.1741942017637555 -0.1734791673639145 -0.0582722549077937 
0.1397818999566104 -0.06127404362824278 -0.05280474428633181 -0.03236207020676269 
-0.05835453337889737 0.1844511428965646 -0.1483216966094426 -0.06012522247317734 
-0.05931862325901138 0.05668881412953176 0.04946347781798791 -0.01902396200818129 
-0.06672105659194766 0.1005226723006247 -0.05209510082048393 -0.04496032918280173 
0 0 0 0 
0.000642922188629532 -0.017295742328397 -0.007813790028574279 0.006399973339606707 
0.02757773957163561 0.0862209986301908 -0.1285737453017134 -0.01591506994316613 
0 0 0 0 
0 0 0 0 
0.05260801520859355 -0.03646152709165481 -0.04375201817524679 -0.03468659127631062 
-0.2421900674658051 -0.03768648529448237 0.2577738779729827 -0.08987361610130856 
0.1548566920535693 -0.1216992480255241 -0.06226603048125698 -0.1654083967283723 
-0.08786261576740209 0.1561470800553146 -0.1895578999605845 -0.1012260718127289 
-0.02945049896652066 0.0468063467091955 -0.02528364948961005 -0.004448307275949121 
0.1053190638137249 0.1209645235299774 -0.2448789189939705 -0.08899699318270179 
0.07109775667025797 0.01057657913137354 -0.09818179938756545 -0.005922250733903647 
-0.04502006489085966 -0.0464313166733475 0.05999528842353494 -0.03231562194090243 
0 0 0 0 
0.08870840765027899 -0.01532401067546245 -0.04663833892631458 -0.004334537534431946 
0.02368031853148187 0.005381734679671825 -0.04350400459766715 -0.02828361070353553 
0.2086508468265955 -0.04880338344514463 -0.06141985122936024 -0.0001143456050455781 
0.1709015368411039 -0.2467472668181418 0.04004747590020138 0.08045922799341859 
-0.06652713073187094 0.07333419677255447 -0.001554925309859991 -0.008114948227596838 
0.04200912297833809 -0.2192241796993695 0.05714286208708991 0.01192821137835839 
-0.3871682881410299 0.462591150281759 -0.4622302077645436 -0.3581664280959495 
-0.02083575138856926 0.02745212073002611 -0.029139473977451 -0.01132164633449271 
0 0 0 0 
-0.326914841420525 0.2441665679230919 -0.05819117115017457 -0.2230150953730476 
0 0 0 0 
0 0 0 0 
-0.05481523272491863 0.09767386827090109 -0.03313752746790055 -0.01154443563135907 
0.1705447085263688 -0.1302690149801581 -0.1552680554374098 0.05231410178501469 
-0.1217822759926497 0.09183726880131085 -0.06484264265472121 -0.02331836513150876 
-0.07637906147709586 -0.08913548429209406 -0.02126687296215756 -0.09902348638070298 
-0.1684233051247921 0.06762271324227288 -0.001833521382387245 -0.1980908423880688 
-0.09584649499256151 0.1334135402097819 -0.1127804244162829 -0.07188537620496338 
0 0 0 0 
-0.03230012305462302 0.1160589084320737 -0.1097666889648406 -0.0949230958948758 
-0.2357803145013725 -0.117691330110918 0.11756708494359 -0.2695723855680637 
-0.1305703986820491 0.108335488158161 -0.04214616330210885 -0.06680795576468251 
-0.1117784360982229 0.006796998416164095 -0.08704831301393373 0.09142426526399237 
0.1552376674007141 -0.06969704074992743 -0.1188428398066761 0.2150910307955287 
-0.01437350953760259 0.0390137392372359 -0.03902846286885814 -0.007149706911865374 
-0.09165694566667573 0.120160813812683 -0.1086333129061307 -0.09778972576062911 
0 0 0 0 
0 0 0 0 
0.0919478306825979 -0.1586786592131664 0.0287650543872403 -0.03341549750224068 
0 0 0 0 
-0.1944211401931557 -0.1218722440199037 0.198603457500541 -0.07267019847856411 
-0.04798374852159891 0.07321487389784186 -0.03296393925254082 -0.04847588633469908 
0.07672907543967214 0.05226364155875138 -0.1401796877417687 -0.08565438617277146 
0.1331557088271978 -0.199598233823478 0.0269887229827332 0.0770734600563352 
0.2471061864296686 -0.09722303296967258 -0.09215734345285247 -0.01129084383241027 
-0.06555569497271735 -0.02308105853164817 0.1531513935374406 0.03470278891480376 
0.04036432210009805 -0.06444024077907351 -0.01029257600510324 -0.04193259985820248 
0.07490648043622659 -0.07893697651407725 0.02125345073899607 -0.01675759768063733 
-0.01247678539673454 -0.02728991375569342 0.03637933676382882 -0.005116605848682482 
0 0 0 0 
0 0 0 0 
-0.05442748946418018 0.05459485235481695 -0.09248504961031678 0.09243000786263414 
-0.2537530949022689 -0.05687969884791058 -0.2392536340598583 0.6343000075454284 
-0.0859360069562518 0.007020917974895777 -0.004396523551954562 -0.03606402537968205 
-0.004019859579289391 -0.04890207482407177 0.05306606291911564 -0.0007221826633833627 
-0.1116446816846717 -0.1253972540752565 0.2356500849339898 -0.0275784945066577 
-0.1671343190902606 0.4233215368093317 -0.407709037686432 -0.216793796752085 
-0.1747955974204183 -0.177241419698399 0.2988012030851144 -0.107436321574168 
0.07005776796321149 -0.0820932516613512 -0.004244877049766576 -0.004691145873869207 
0 0 0 0 
0 0 0 0 
-0.02834482843421501 0.07799952187097124 -0.04664712291254041 -0.006082358381259935 
-0.101701254598207 0.06481010281084842 0.03241997975321928 -0.02296659442034894 
0 0 0 0 
-0.1814939731770426 0.127471798985505 -0.1103126695479012 -0.003461277353584189 
0.2325058605200552 -0.1453023454455346 -0.316837223313105 -0.115474218195582 
0.07496205320014976 -0.04361696488580245 -0.03534212108442351 -0.002857357473229288 
0 0 0 0 
0.04834847214394503 -0.2605206981191148 0.1469060396660191 0.2411220221271984 
0 0 0 0 
0.02991828848217258 0.03753125648166498 -0.109318881178342 -0.04328511422584429 
-0.07259077970966266 0.1668801719001858 -0.09258470449685437 0.09949504347612118 
0.04779404828598467 0.01257034673646441 -0.04210774828034083 -0.01215312563011862 
-0.02222668281473761 0.03086365616617112 -0.005417545319163953 -0.001932915137998341 
0.1477065961725237 -0.05803211236513298 -0.08564576287989936 -0.06384443699736134 
-0.04253228072686758 0.0748358832160135 -0.01353408142490697 -0.006621058194068487 
0.2722169381496627 0.05752501574649893 -0.2735872649681061 0.04589338061896284 
0.06022125179552776 -0.05076928822431947 -0.0442913728294921 -0.03918621375834752 
0 0 0 0 
-0.07733099319028766 -0.06097875693014143 0.0983034466743273 -0.1243588300397897 
-0.07619129880740723 -0.02314597280466714 0.07041097753294917 -0.0331545468156216 
0 0 0 0 
-0.01548621758160006 0.0265548943663511 -0.02160056308495097 -0.01500274445847788 
0.05016597392008636 0.02131485406010264 -0.05128899182749756 -0.01601119365000528 
0 0 0 0 
0.04807204646849075 -0.1113560003208032 0.06430273712141865 -0.04383818802273678 
-0.04133915744515641 0.004120382771454866 0.05261844650183711 -0.00484326426850536 
0 0 0 0 
0 0 0 0 
0 0 0 0 
0 0 0 0 
0.0594918453193526 0.07705911057380917 -0.08321237232438686 -0.0100400363374578 
0.0613547084652756 -0.01601991252262209 0.04725553354177087 -0.02876276121670872 
0.09765720377702361 -0.01674676053185876 -0.1239069011701128 0.09464261491193762 
0 0 0 0 
-0.2200304082776167 0.03642226641896509 0.04991297506638805 -0.007020955954763914 
0 0 0 0 
0 0 0 0 
-0.03599058780378202 0.1004559744889012 -0.05815339118449521 -0.006578191690881503 
0 0 0 0 
0.01831205644153212 -0.05300657440817492 -0.04402507248135182 -0.0780595162801392 
-0.02787872257968285 0.0540422167523987 -0.03577924589353307 -0.004433398562288516 
-0.02787872257968285 0.0540422167523987 -0.03577924589353307 -0.004433398562288516 
-0.07753856998644695 -0.09832213481771157 -0.02540003290335516 -0.03237665438289348 
-0.02787872257968285 0.0540422167523987 -0.03577924589353307 -0.004433398562288516 
0.06592035440553667 -0.04160567263701582 -0.0306763035417669 -0.003528749940592566 
-0.04907001672378516 0.1496250744225387 -0.163157692829154 -0.0772911724812661 
0.1048907946129111 -0.01663939893724457 -0.04202819852035 -0.02906806637286838 
0.06592035440553667 -0.04160567263701582 -0.0306763035417669 -0.003528749940592566 
-0.0377259219169443 0.09588652856809342 -0.06782683881414732 -0.02163438215088029 
-0.02491610648101836 0.058678294813022 -0.05559983357034877 -0.0148409630363673 
-0.02491610648101836 0.058678294813022 -0.05559983357034877 -0.0148409630363673 
-0.02571317618452571 0.117908236431589 -0.1047923158122253 -0.07208380930831149 
-0.1852826357151415 -0.02334535536921952 0.1937945936865008 -0.07932340130918962 
-0.143131315269547 -0.05534476993720906 0.02917975741265117 0.05672584414283876 
-0.07702554037434978 -0.04216900364899026 0.1071328007249147 -0.05076890745323977 
-0.02491610648101836 0.058678294813022 -0.05559983357034877 -0.0148409630363673 
-0.2792485072834273 0.178935620926523 0.0004399681377698222 -0.1145347584734782 
0 0 0 0 
0 0 0 0 
0 0 0 0 
0.0709037995435281 -0.05685917019728089 -0.0494652953793292 -0.009084120971552532 
-0.04412100528283103 0.03901776746549358 -0.04268672979686931 -0.04112033518410622 
-0.01779778738336432 0.03497660672611354 -0.03242028193949205 -0.006924508765323007 
-0.02629346624318538 -0.03584730916588162 0.04464585991452425 -0.01564144173452178 
0.03515735599412941 -0.04917870547262521 0.03642562212390991 -0.02370257829831201 
-0.06233071436288306 -0.161441616397998 0.08143838411609344 -0.04726389757773943 
0 0 0 0 
-0.04575505658598084 0.1954634954324929 -0.1846832260263199 -0.04757347807641459 
-0.1584708714086031 -0.08780178836342571 0.2103677441826911 -0.06545787386728705 
0 0 0 0 
0.04384076505007697 0.04555563417166594 -0.05314261502239037 -0.007932356767908951 
0 0 0 0 
0.3265014710648767 -0.2457799042327835 -0.07899056517796568 -0.07475011739353032 
0.04269718937445395 0.0176379491252862 -0.06930867877225207 -0.02777705941112463 
0.08037554257342744 0.02065015171522062 -0.05130662885615321 -0.0005260432655587469 
-0.07223914458241953 0.02499530388578348 -0.04653052511209003 0.03214790277445406 
0 0 0 0 
-0.1299623930399655 0.1389471658320695 -0.06171103696375837 -0.07041390825718685 
-0.05712011237687439 -0.1674384639738221 0.2359086041799788 -0.02557167637684715 
0.008392057834079255 0.02262594548216038 -0.008678919041157966 -0.09011188717637796 
0 0 0 0 
0 0 0 0 
-0.04029716691332615 0.03960220778808293 -0.0415545423850922 -0.02448796416944554 
0.002071336240832673 0.07979216974513448 -0.09469434280459627 -0.03166669916833735 
0.002071336240832673 0.07979216974513448 -0.09469434280459627 -0.03166669916833735 
0.06287632652619686 -0.001431129680094739 -0.03728777343511626 -0.003927464080655985 
-0.1437094836593064 0.07641054442180074 -0.01813259510312506 -0.08060976777030135 
0 0 0 0 
0.04796927741186002 -0.004307692669316288 0.04475742437392689 -0.02097326606246081 
-0.1351959977776543 -0.3656878501326264 0.5181142677709972 -0.1441700944264901 
0.2288510639370817 -0.1929522877253052 -0.1190537907387337 -0.06200261263687457 
0.004343462279738801 0.09167129320881139 -0.1237653989643515 -0.02176942833276413 
0 0 0 0 
-0.03084313602355461 -0.1591177316964023 0.09112049079373233 0.02418486885299086 
0.07975973744197683 -0.03741019522384478 -0.01725265800772476 -0.0378992782776533 
0 0 0 0 
-0.03698973497173131 -0.09080033999659796 0.1003328316353132 -0.01252485558456295 
-0.007782410962917427 0.05276046713760307 -0.04603264434641971 -0.001894051498099385 
-0.05336505215785255 -0.107891500732239 0.1143215002073968 0.08024669509672183 
0 0 0 0 
0 0 0 0 
0 0 0 0 
-0.07628358794299286 -0.2642364149624194 0.2066071742106891 -0.1644371504770691 
0 0 0 0 
0 0 0 0 
0 0 0 0 
0 0 0 0 
-0.01867754355315521 0.04907633711453743 -0.03144921422355572 -0.004752985527127987 
0.005379498247990798 -0.1824570046291846 0.1985716468569808 -0.05818554193473058 
-0.001731080388173373 -0.0689484975620956 -0.03293943685354986 0.05302953812222357 
-0.07588466354889398 0.02658018808723114 0.0503820894012468 -0.01263158857450168 
-0.1269816694595328 0.03005933896974134 0.001231978358055528 -0.1661452717622787 
-0.06486970795699412 0.03894937505214275 0.03435591458565909 -0.01277182912937118 
0.01396279415994417 0.005701165412395192 0.01555925230039355 -0.01502730410629268 
-0.0127971076076528 -0.1886797918218475 0.09531408399268149 0.1841966679388196 
-0.1085630412415749 -0.1762817597960788 0.2755532729762928 -0.05365687120496711 
0.01175174379354718 0.00567345816627363 -0.01489841091970286 -0.02537151069404891 
-0.04765280955794707 0.067407672461216 0.1020735951781196 -0.0226710398973188 
0 0 0 0 
0.2030074640154418 -0.2645162678455959 -0.02204590009448485 0.009498895018632124 
-0.1843119684884406 0.3483511898536412 -0.2366305153544332 -0.05135277280588856 
-0.09195352052890156 0.166007270804951 -0.0542805431028799 -0.02370444585848956 
-0.03028041381388083 -0.1249041595191597 0.1065480771107475 -0.05846271237738807 
0.09869433440165926 -0.1954305913473604 0.09357545810317031 0.09155335739586377 
0 0 0 0 
0.01045002303091379 0.04034297785900193 -0.1137467541735679 -0.03586375757214458 
-0.01638660052661997 0.01569372135803148 -0.04720968107972663 0.1085901074453262 
0 0 0 0 
0 0 0 0 
0 0 0 0 
0 0 0 0 
0 0 0 0 
-0.01640316289796772 0.05334712774006033 -0.04756093503196486 -0.006444900667021592 
-0.01772353587733141 0.03878164844271814 -0.02362899102917652 -0.002105027989999579 
0.002226543742822636 0.05457285311897291 -0.1034267893015043 -0.03902380936908322 
-0.07661124976571569 -0.02062931784980884 -0.02557757966837333 0.07996844809010639 
0.03522208887588508 0.02380352866629404 -0.09310619543351437 -0.01948368210862112 
0 0 0 0 
0.01229714542342689 -0.09303575640608046 -0.02133491671433873 0.04880553649619683 
0.08728176175074938 -0.2684242918172093 0.03419946928212082 -0.0131258473992043 
0.01507980790109834 0.1136926437888684 -0.139215696780822 -0.03915596609758393 
0.07423451850556181 0.1244534052030007 -0.1806726797201714 -0.05269595408941261 
-0.0260851020004037 0.04600800012836789 -0.01751474695546004 -0.009045986626077312 
-0.0260851020004037 0.04600800012836789 -0.01751474695546004 -0.009045986626077312 
-0.01313494854972629 0.04482350351086248 -0.03973780322865923 -0.003751236674344049 
0.07407762754250088 -0.03319117683727944 -0.05731093996888222 -0.003968963210485845 
0.07407762754250088 -0.03319117683727944 -0.05731093996888222 -0.003968963210485845 
0.07407762754250088 -0.03319117683727944 -0.05731093996888222 -0.003968963210485845 
0.07407762754250088 -0.03319117683727944 -0.05731093996888222 -0.003968963210485845 
0.008142107645564934 0.0084116175465569 0.002923444065024806 1.844938871890616e-05 
-0.01082808875761804 0.04817600398305445 -0.03392128350228672 -0.0009189238355836041 
-0.06311239278739703 0.06298214475407476 0.01581183068434661 -0.02983050064176776 
-0.1377168477812809 0.1545513745503783 -0.09471982881653933 -0.07152468733251578 
0.4136915929528764 -0.3476171159133489 -0.1868020113551784 -0.04473596763525053 
0.05837539649667702 0.09222733789086472 -0.06032613328082 -0.03934843611717468 
-0.09034792180558157 -0.07115915853250507 0.2090549359892509 -0.0207435570205691 
0 0 0 0 
-0.04602982270765453 0.004143599875274333 -0.07948748897056701 -0.1052551766603486 
-0.1865339868242744 0.2917026565968669 -0.2124477090870095 -0.189463890785139 
0.07354140029304135 -0.005109732965262197 -0.1094413596849674 -0.02605554739162284 
0 0 0 0 
-0.01124387585742 -0.04593365721691153 0.0647264504708025 -0.001319545942815568 
-0.04002497577226944 -0.04717638308047613 0.0621603608848077 -0.02681028892081072 
0 0 0 0 
0 0 0 0 
0 0 0 0 
0 0 0 0 
-0.007390579475099733 -0.0636815148740997 0.07525340113939576 -0.02431108391416674 
0 0 0 0 
0 0 0 0 
0 0 0 0 
0.1876247532368651 -0.139891892709209 -0.05724346323192885 0.07467726868613651 
-0.02172129616625398 0.0892137874929914 -0.05244320583737482 -0.002520548591717127 
-0.067055157545272 -0.09899961520324399 0.1914633943993542 -0.06881225030879273 
0 0 0 0 
-0.03013479803908673 -0.1183351653432465 0.1013582133984574 0.09905455626496168 
0.00199419626962213 -0.02010065845356767 0.05283450023114426 -2.822881161601149e-05 
0 0 0 0 
0 0 0 0 
0 0 0 0 
-0.09114530195005649 0.1844977824229785 -0.1713595351560585 -0.03885111182672077 
0.01358713615340099 -0.2391994287693989 0.1016865661394493 0.07408076935726549 
0.001571993778177154 -0.1323811684350958 0.1471533127433871 -0.0313336534518129 
-0.02076163323305391 0.0488561901789729 -0.0395263622997765 -0.007750115530381774 
0 0 0 0 
-0.05142704704934099 0.01953866728479533 -0.085941445030253 -0.01434374969000755 
0 0 0 0 
0 0 0 0 
-0.004816852535528822 -0.04070116978405514 0.06791311142222954 -8.339799472800003e-06 
0 0 0 0 
0 0 0 0 
-0.0659010683537592 0.0586187852000522 -0.04595530996493725 0.0987889883948513 
0 0 0 0 
0 0 0 0 
0 0 0 0 
-0.04161438380406982 0.08697044573470268 -0.09393962246660711 0.06590250159978889 
0 0 0 0 
-0.01850061590416481 0.0006316265093779621 0.03499510012371425 -0.003636957661904706 
0.00199419626962213 -0.02010065845356767 0.05283450023114426 -2.822881161601149e-05 
-0.6448796500772831 0.8759222427068972 -0.7569916442846278 -0.4053120747580557 
-0.02576407345302895 -0.04726605443706625 0.05895309236006559 -0.006257754914855963 
-0.02610412110747396 0.1018574863066048 -0.08718491099807033 -0.005529369193953914 
-0.01414949001402051 0.03714848924352591 -0.04094996015337658 -0.01156094330847257 
-0.0515313323608748 0.09972954933005616 -0.06148581664195373 -0.01729110763281733 
0.01873739330413084 0.04585498168262857 -0.05196911238084123 -0.03985443593644258 
0.05482391671391652 -0.01180257402037548 -0.0198034816244502 -0.001113530585145666 
0 0 0 0 
-0.02678718664334689 0.007000951823659021 0.0227422169935571 -0.01689090129820463 
0.01830709018205095 -0.08002687550327449 0.113366224767355 -0.01124987267648744 
0 0 0 0 
-0.06866343215355777 0.04404757465441018 -0.01742911031516304 -0.0493671077780392 
-0.01280981543592594 0.03720823375507139 -0.01222700524379855 -0.006793419114512995 
0 0 0 0 
0 0 0 0 
0 0 0 0 
-0.05129220094239807 0.09218500374611327 -0.07872350008039966 -0.01231074940712171 
-0.0303850449190162 0.02821900993177395 0.01702144676114034 -0.007252741121307132 
0.04899098403197566 -0.05487527445344537 -0.0371149294719445 -0.0504887586087845 
0 0 0 0 
0 0 0 0 
0 0 0 0 
-0.01815454697843005 0.06671391676490093 -0.04615913242004134 -0.0004410580858330375 
0 0 0 0 
0 0 0 0 
-0.146329428011012 -0.04010468062629886 0.1782760907552764 -0.06598076418985256 
0.02469931075143386 -0.178934214080825 0.1057810726664536 0.2208265446625883 
0 0 0 0 
0 0 0 0 
0.04789657021618181 0.02061799033962303 -0.07897750816454624 -0.02699466965132392 
0.1344019066196402 -0.1322556171879622 0.03794361010993913 -0.01396783147805199 
0.02373315114908757 0.059745086466401 -0.02984078605220357 -0.007876720768172489 
-0.02360088932779475 -0.01611792304709094 0.06099470445471084 -0.01115341966504836 
0.2083738620516889 -0.1722357969146178 -0.08951766740381281 -0.01517601432799354 
0.09083407080587644 -0.03123823535779068 -0.03329954493790478 -0.0008985448507052243 
0.1802119683736525 -0.07550273033758396 -0.0066404095407087 -7.466896203359033e-05 
0.09638306932824893 -0.08804494850866566 0.04667699679240901 -0.01952884865336509 
0 0 0 0 
0 0 0 0 
0 0 0 0 
-0.1098425817219256 -0.03973842918365526 0.09661812664366917 -0.03352740795290769 
0.1948081895122796 -0.180683259629925 -0.1440618447975147 0.007961517611612923 
-0.3320870883590696 0.3678998634704952 -0.3307739069237104 -0.1382085896232783 
-0.003616677111617859 0.04017390767655707 -0.02119351064298559 -0.0001056469995328137 
0 0 0 0 
0 0 0 0 
0 0 0 0 
0.07538750409471584 -0.002785282986104327 0.005196894792325327 -0.00359876704774869 
0.2220006673917145 -0.08156340536957862 -0.03903117667028001 -0.004355838551333391 
0.0669752467481026 -0.04181520633278222 -0.03823561725678133 -0.005882477261559114 
0.0669752467481026 -0.04181520633278222 -0.03823561725678133 -0.005882477261559114 
0 0 0 0 
-0.02470801004145545 0.05070034988443457 -0.02021470584628588 -0.004295132219028158 
-0.0392788416836991 0.0825214632707036 -0.06833147334596837 -0.122414718188079 
0 0 0 0 
0 0 0 0 
0 0 0 0 
0 0 0 0 
0 0 0 0 
0 0 0 0 
0 0 0 0 
0.0842460441545 -0.01882901712773085 -0.05114172023591507 -0.003750008712738557 
0 0 0 0 
-0.01845702791200199 -0.01733357568430733 0.04331827133124404 -0.03954423799051495 
0.04461303701103946 0.002581511389130178 0.01013641473069494 -0.009766185358185485 
-0.1152106313426716 -0.2191894288277434 0.4044326761937495 -0.03691922401156247 
-0.007119875056299147 -0.03121060570911747 0.04906614282951596 -0.004305626905065122 
-0.007119875056299147 -0.03121060570911747 0.04906614282951596 -0.004305626905065122 
-0.03608805250088288 -0.1191107444207113 0.1726737900085596 -0.01195279746421556 
0 0 0 0 
0 0 0 0 
-0.04854840556080076 0.03864883280563933 0.01210198889514636 -0.01929974330032863 
-0.04881822161512434 0.1040624434650023 -0.03908799860560132 -0.02195090927513699 
-0.0285451394606725 0.0157642121995319 0.02613267669931841 -0.007370459062711431 
-0.03367091714176333 0.1118348033337741 -0.1012362664220403 -0.02364038361548799 
0 0 0 0 
0.01801283900754132 -0.07276672971036915 -0.0752841207204506 0.07888362618781082 
0.2356587370026851 -0.2086526026266646 -0.02470473644784806 -0.04822413799312082 
0.1417180950992333 -0.0945406873753398 -0.05119899814366995 -0.01245285655785669 
0.02595502744170853 0.008606585284088909 -0.0692359793878826 -0.03225668810604716 
0 0 0 0 
0.2183274325631327 -0.2005175972999117 -0.1985753136086548 0.1138322323954474 
0.04546894052195341 0.02242929631706013 -0.04470411094426421 -0.008045993345442232 
0 0 0 0 
0 0 0 0 
0 0 0 0 
0 0 0 0 
0 0 0 0 
0 0 0 0 
0 0 0 0 
0.01677928071130281 -0.130279434293332 0.09514476541510924 -0.0376238805640812 
0 0 0 0 
-0.01108920388040806 -0.02821726106427196 0.0338738379900982 -0.0008485373349963754 
0 0 0 0 
-0.04412100528283103 0.03901776746549358 -0.04268672979686931 -0.04112033518410622 
0 0 0 0 
0 0 0 0 
-0.05240929279232853 0.191015585946179 -0.1672105186751418 -0.02042334501846254 
0.1110137769992698 0.1448114575359058 -0.4469934364424256 -0.3249890590364399 
0 0 0 0 
-0.07298766948860164 0.1534239947125283 -0.1131531949383147 -0.01054540838282542 
0 0 0 0 
0 0 0 0 
0 0 0 0 
0 0 0 0 
-0.02175462408694913 -0.02334955387046222 -0.04344655704034361 0.1075681116369614 
0 0 0 0 
0 0 0 0 
0 0 0 0 
0 0 0 0 
0 0 0 0 
-0.004557126238885498 0.03338466433796288 -0.02269343339372161 -0.0005184956669564156 
-0.03478649561330888 0.007807022391224524 0.001704983576590637 -0.01321415007583062 
-0.03414051114920699 -0.02586829992257518 0.03493698631925671 -0.009218755666921494 
-0.2211380358314149 -0.3224199361171963 0.3948934514610569 -0.05290325305293754 
-0.08477336948778584 -0.1451498662106775 0.1147663236937436 0.08124858835421397 
0.06213283321157781 -0.04801356728853612 -0.04494889652661334 -0.01648584270439839 
-0.004320522803429504 -0.0243278934429133 0.02956147487891123 -0.001792353616280279 
-0.008011493221786549 -0.07455696627559391 0.07772610759742617 -0.003464171837966597 
0.03115042115471209 -0.1225018749272899 -0.01992124660593614 0.07273213461480421 
0.02198268897813836 -0.07469046298043761 0.05688854858353968 -0.05444074206098572 
0 0 0 0 
0 0 0 0 
-0.06252169945183844 0.1526199168339402 -0.1602201583304854 -0.03525253944085178 
-0.006681106201186592 0.006127302217437886 -0.006145728154888166 -0.005837256803013209 
0.06994654206430004 -0.1411051932616766 0.04633186207013128 -0.06794732777447809 
0 0 0 0 
0 0 0 0 
0 0 0 0 
-0.08962740951189689 0.03006006738834704 0.02761219373066897 -0.03389477828499846 
-0.09612309723152865 0.1359573194061587 -0.05446311402571675 -0.035891591063272 
-0.1628487292944912 0.03261708963855865 0.127779539253129 -0.03230432025656065 
0.2320601369812536 -0.05299253984048236 -0.2227814605207286 -0.1683465940718412 
-0.01479126436806381 0.1102804436013047 -0.09789330028348255 -0.004708129103688815 
-0.02208400050384365 0.02218531600067294 -0.07027310130367878 0.08026304487773198 
-0.01986684403188776 0.04836040626258824 -0.02367571681558226 -0.0009420767793936588 
-0.01986684403188776 0.04836040626258824 -0.02367571681558226 -0.0009420767793936588 
-0.06695385545522692 0.09505394890744474 -0.07754898969299832 0.09830045092539944 
-0.05825005870786015 0.09318913090360278 -0.061239465608442 -0.02607830188228384 
-0.05825005870786015 0.09318913090360278 -0.061239465608442 -0.02607830188228384 
0 0 0 0 
0.04486529374957267 -0.2798311012043257 0.06606402478586547 0.1494191723842336 
-0.0218977201643123 0.08667713376794321 -0.04048801402488177 -0.000496778145471666 
0.02917195146608328 -0.2149526131236252 0.07626702520012454 0.1827917698591012 
-0.01174525549633849 0.03680305132184893 -0.006676126919100929 -0.0002093683592727836 
-0.01174525549633849 0.03680305132184893 -0.006676126919100929 -0.0002093683592727836 
-0.01174525549633849 0.03680305132184893 -0.006676126919100929 -0.0002093683592727836 
-0.01174525549633849 0.03680305132184893 -0.006676126919100929 -0.0002093683592727836 
-0.01174525549633849 0.03680305132184893 -0.006676126919100929 -0.0002093683592727836 
-0.0367213602938119 -0.03931579544076522 0.05644315829329288 -0.0145028502264054 
-0.08595574105709378 0.1089681098384176 -0.06385631213340019 -0.02715473195026682 
0 0 0 0 
0.06382964890688916 -0.04506837262102983 -0.04262331739914804 -0.0236734104794798 
0 0 0 0 
0 0 0 0 
0 0 0 0 
-0.0003979227196421716 0.04187324096197084 -0.03193248295799676 -9.190710335770088e-06 
-0.07852212763292092 -0.04471488831027068 0.1852742992390486 -0.03048397426101161 
0.1087974266132214 -0.1698076820009045 0.0946910530022443 -0.03396241347804406 
-0.1058056439910811 -0.2592325093811996 0.2881415838034592 0.009551835091638089 
-0.01214541985060402 0.05464385604374843 -0.09178049412287892 -0.07597395837609713 
-0.02145733359174233 0.07068626793059311 -0.04659039305280056 -0.002211713941964533 
0.14329110723865 -0.03525796109904168 -0.1496967973757289 -0.0143810494535893 
0 0 0 0 
0.1824948875958927 -0.01561512094816567 -0.1687796356153128 -0.03477503273770119 
0.01266029277196372 0.00216968882177789 0.06086910157776181 -0.06430016480941086 
-0.01255850895742067 -0.03329919675296522 0.01250142116708363 0.0714807025290307 
-0.02357860270504308 0.06151647976041714 -0.1584183980844608 -0.1060827540500403 
0 0 0 0 
-0.02674331497279146 -0.09215249570440105 -0.007573837971054881 -0.119695252502897 
0 0 0 0 
0.03291403068851641 -0.07786343238634945 0.06558896285330235 -0.01673157962570248 
-0.01006367026439727 -0.03949129159355079 0.0661916155834386 -0.001072557916829799 
-0.101685031561035 0.1073759279089296 -0.07014911668047619 -0.04403403837362781 
-0.04002497577226944 -0.04717638308047613 0.0621603608848077 -0.02681028892081072 
0 0 0 0 
0 0 0 0 
0 0 0 0 
0.08591924877748709 -0.004029915943843112 -0.03928676226861461 1.704020608022348e-05 
0.05120042267315127 -0.116909397340016 0.1092230326871956 -0.01380163574220186 
0.07147736536080074 -0.004370815984053389 -0.02565966903983517 -9.921031564261791e-05 
-0.01706415156372437 -0.05448580140183257 0.0880936882548197 -0.00256666421847128 
-0.01283525699527914 0.03778480546623954 -0.02788397808966308 -0.0009745954471226632 
-0.01998469504804007 0.03650299376024548 -0.02613035908696798 -0.004330319449572698 
-0.02638632683069027 0.02334890190387666 -0.01853196420700444 -0.01331685085537718 
-0.01247678539673454 -0.02728991375569342 0.03637933676382882 -0.005116605848682482 
-0.02313332789119758 0.1699143740175109 -0.247489462993521 -0.1301065303472144 
-0.04464073109354967 0.07860084888520352 -0.03729681650967204 -0.03072462102083849 
0 0 0 0 
-0.04538711384527471 0.08101440290711412 -0.07279461395921806 -0.062389940406555 
0 0 0 0 
0 0 0 0 
-0.09951636154953729 -0.01515690317425027 0.08476645230429505 -0.03593876345532546 
-0.03208428524893246 -0.03539313893147961 0.06075766134237548 -0.00260805802430153 
0 0 0 0 
0 0 0 0 
0 0 0 0 
0 0 0 0 
0 0 0 0 
-0.02306653994915234 -0.03499130934145446 0.05717696206137591 -0.01114895100045603 
0.0001241107657204525 0.04010467916485598 -0.003290847663474306 -0.01387364783086234 
-0.02306653994915234 -0.03499130934145446 0.05717696206137591 -0.01114895100045603 
-0.0602947635766285 -0.09677166533111933 0.09928412561121504 -0.03327181113693666 
-0.003033272173577767 -0.03026414526601603 0.02571015414869706 -0.0005107181025999431 
0.05226641736921115 -0.1111896762689218 -0.00752251338164947 0.06952719812343178 
-0.1064291983108277 -0.2969807118410652 0.319922392720589 -0.134506234478501 
0 0 0 0 
-0.03040612799279656 0.09826184224486456 -0.07926063448734022 -0.003256124690728466 
-0.01795500266550062 0.03924067463091465 -0.01614458428400267 -0.001817204254877153 
0.08547810761246215 -0.04829831221430482 -0.01348620118082351 -0.005254198139756319 
0 0 0 0 
-0.0135928729149492 -0.02448189848743132 0.04626568811781347 -0.000366997557113841 
0.05265814793069511 0.137703713385817 -0.1899918273803385 -0.007004322469523497 
-0.01615861076646227 0.03217367847740961 -0.03295671515440353 -0.009320118036927139 
-0.04348425520798208 -0.001283811029416109 0.02718174393538775 -0.01421183738082263 
0 0 0 0 
-0.0445982934803012 0.1087336459527339 -0.1044127318639196 -0.01370330573167004 
-0.1335691285893617 0.01654702240777382 0.07681294154756595 -0.07233346079510476 
-0.04481859273315277 0.01119588478093622 0.01995025560135131 -0.01289916920479543 
-0.02422955066791755 -0.04150295321476483 0.04618201056285692 -0.007853322768254687 
-0.02422955066791755 -0.04150295321476483 0.04618201056285692 -0.007853322768254687 
0.009442846080143426 -0.1727145799271509 0.2016265826192504 -0.03142472507934815 
-0.03505763942553559 0.006673050768289631 0.0122607270605702 -0.008772246603838291 
-0.02422955066791755 -0.04150295321476483 0.04618201056285692 -0.007853322768254687 
0.07333469760558678 -0.02523499534271054 -0.05221107311887348 -0.01666710191567687 
0 0 0 0 
0.06284933416953123 -0.03228653012764374 -0.01879788742645496 -0.0004979914403242606 
0 0 0 0 
0 0 0 0 
0 0 0 0 
-0.006860908234702737 0.04703641175786805 -0.03188623019692011 -0.0002916603253623648 
-0.03075009375401847 -0.04634158821776779 0.0655293681544263 -0.01432628157039552 
0.009654755354157725 -0.03021252995590636 0.0411243786700544 -0.01744195409410061 
-0.03075009375401847 -0.04634158821776779 0.0655293681544263 -0.01432628157039552 
0 0 0 0 
0 0 0 0 
-0.01080854711197702 0.03528309179558187 -0.01900116134635777 -0.001664687982416609 
0 0 0 0 
-0.02781690841873569 -0.04589220747975433 0.06087664871761338 -0.009794213427239223 
0 0 0 0 
0 0 0 0 
0 0 0 0 
-0.02074178085808518 -0.04370661549743613 0.05975421187743809 -0.01098602770984897 
0 0 0 0 
0 0 0 0 
-0.02912605750414238 0.05018081659713794 -0.03876177774450962 -0.007566403439581883 
0 0 0 0 
-0.02752639121704717 -0.0473855055686268 0.06803786665240275 -0.015922774948068 
0 0 0 0 
0.06494651812958907 -0.04657368325159842 -0.03898780998185163 -0.01438575075057366 
-0.05413055152889264 0.2201422433275455 -0.1322843440253061 -0.003779565018352208 
0 0 0 0 
0 0 0 0 
0 0 0 0 
0 0 0 0 
0 0 0 0 
0.03735009823180752 -0.09710105476693333 0.0679685094011804 -0.04115839820954973 
0.0463649677799907 -0.02662999311014505 -0.0209025993940229 -0.01732005932130368 
-0.02330915231656903 -0.02508232357906694 0.0493683576334937 -0.004037189216764015 
-0.005827400314421602 -0.02394555937978688 0.06051493759988996 -0.0009402650451104692 
-0.04589596916300065 -0.1521757767636073 0.2515681677621807 -0.02638476505624033 
-0.005827400314421602 -0.02394555937978688 0.06051493759988996 -0.0009402650451104692 
-0.06639722807484173 0.03353991932875421 0.009562314009640319 0.06883330430541643 
0 0 0 0 
0 0 0 0 
0 0 0 0 
0 0 0 0 
0 0 0 0 
0 0 0 0 
0 0 0 0 
0.1243404222382027 -0.2001815599660043 0.1250780455717904 -0.04179603362023609 
-0.01037560235402395 -0.04224228289461589 0.06450688156953827 -0.0005722121143302107 
-0.01037560235402395 -0.04224228289461589 0.06450688156953827 -0.0005722121143302107 
0.004303593706226676 0.02927424016917431 -0.03151197182741905 -0.02763104612004404 
-0.01622757495419217 0.09496333905447024 -0.1203169739150113 -0.03994339744641532 
0 0 0 0 
-0.08353264582279371 0.04903942778531069 0.005208577193419779 -0.02655609257765137 
0 0 0 0 
0 0 0 0 
0.08024446144822274 -0.01962685582524318 -0.03877609053476241 -0.004730842315173801 
-0.003476603745314492 0.009141418562558149 0.01110913218134716 -0.04536999326631914 
0.167353327311057 -0.05275328710688448 -0.1058484745898217 -0.05736928790117902 
0 0 0 0 
0 0 0 0 
-0.03377629374867144 0.001167059452068148 0.008491818850943763 -0.02667138194231399 
-0.04690253510886305 -0.04596021774057034 0.008805271025240884 -0.08438133912868151 
-0.01683481988843011 0.03222638368747095 -0.03253238401358267 -0.009868009295116303 
-0.04325192468720959 0.03563030540943589 0.009126356723803419 -0.009887013800718835 
0.06606544064625657 -0.05005807916064982 -0.03489127526974544 -0.009807204554107735 
0 0 0 0 
0.07302614838928129 -0.05108750842798772 -0.008239183232300815 -0.005436010290927984 
-0.08098935890203562 0.04949476863466507 -0.05359009334249243 -0.0200369213578437 
0 0 0 0 
0 0 0 0 
0.05434947179243496 -0.04818977370105206 -0.008474771496225785 -0.005866599198344735 
0 0 0 0 
0 0 0 0 
0 0 0 0 
0 0 0 0 
-0.01251922536780583 -0.03877294112356751 0.09548323800449734 -0.00123960802248646 
0 0 0 0 
0 0 0 0 
0 0 0 0 
0 0 0 0 
0 0 0 0 
0 0 0 0 
0 0 0 0 
0 0 0 0 
0 0 0 0 
0 0 0 0 
0 0 0 0 
0.07112672342375026 -0.02586024114343198 -0.007861102060839977 -0.0007928825359840554 
-0.03156786528273046 0.05053759891398886 -0.05280404904039493 -0.02186205163791148 
-0.03551767944170175 0.04329255905747188 -0.04881522387326365 -0.03339052503756443 
-0.02629346624318538 -0.03584730916588162 0.04464585991452425 -0.01564144173452178 
-0.02629346624318538 -0.03584730916588162 0.04464585991452425 -0.01564144173452178 
-0.05486299620021765 -0.08239399101735904 0.1001639410796333 -0.02831386462160259 
-0.01944943703175832 -0.009814252377042254 0.02364261328001909 -0.0007534857408176428 
0.0547238324877195 -0.07921496030684742 0.04128978869578011 -0.01703620517882007 
0 0 0 0 
-0.001731028548298925 -0.01601973734472512 0.02505143679105454 -0.0002350150284882682 
-0.1695723609607566 0.2646314830041889 -0.2212564333732761 -0.0700639143125722 
-0.1329774696863665 0.3206636057278831 -0.338415313288533 -0.1353143367604701 
0 0 0 0 
0 0 0 0 
0 0 0 0 
0.05434947179243496 -0.04818977370105206 -0.008474771496225785 -0.005866599198344735 
0 0 0 0 
0 0 0 0 
0 0 0 0 
-0.01770596812854955 -0.02349268394547984 0.04417091841784723 -0.003384697156037566 
0.04878015385749659 -0.0495607373581477 0.05599704703920966 -0.001792356111723742 
0.001353597425869817 -0.0472382799691104 -1.265514012239143e-05 -0.05779432551030504 
-0.08679426045164701 0.01082891096841923 0.03167798237843632 -0.05702016935651381 
-0.01928540820227275 -0.03040113961457655 0.06630890273522864 -0.004607126947063973 
-0.02619094866176763 0.1138263415714062 -0.05987367952443614 -0.01311650980554069 
0.111101122616305 0.1086213506611181 -0.1886615398435074 -0.0663710806441717 
0 0 0 0 
0 0 0 0 
-0.05056517642309401 0.1245318937721218 -0.09824906716832413 -0.02755153178725535 
0 0 0 0 
0 0 0 0 
0 0 0 0 
0 0 0 0 
0 0 0 0 
-0.005311294152808984 0.03579613618046618 -0.03721997467772599 -0.002611506585359393 
0.04624181321387978 -0.02532861679752649 -0.00839442851063806 -0.0152386275505076 
-0.01478080370804234 -0.0233182436510711 0.04514459418828488 -0.002234127760696809 
0 0 0 0 
0.1032954738699256 -0.06200107320004185 -0.04287861566829633 -0.008084901017937881 
0.06424660407203155 -0.02427701732121777 -0.02903412437349808 -0.001647425603341343 
0.02950373467204767 -0.0945835379595428 0.01426667918489679 -0.07667085868401742 
-0.03597426652420971 0.004486594618043646 0.0612284633105331 -0.007594438955526806 
-0.01255422842055233 -0.0154081837982761 0.04894130201224926 -0.0004143932697004945 
0.02118356944188266 -0.1014593371138091 0.01835745355139112 -0.09757844767283982 
-0.02129694095570534 -0.05617804410186789 0.05231836085737253 -0.03964602096459413 
-0.0812781418553585 0.003733999539939617 0.1160348763397971 -0.06848576548248633 
0.2598860482452123 -0.259236443569735 -0.05427504594734209 0.07014632827235984 
0.06168241777210303 -0.04334493386035024 -0.02637455632592321 -0.02097346731040051 
-0.03904831901373998 0.03600374370094686 -0.03184960688292403 -0.02866263745317272 
0.05043613736857672 -0.03647496753195278 -0.05819268106023491 -0.04156231133050315 
0.05043613736857672 -0.03647496753195278 -0.05819268106023491 -0.04156231133050315 
0.05043613736857672 -0.03647496753195278 -0.05819268106023491 -0.04156231133050315 
-0.05312657784828565 -0.04230007992576203 0.07855119229265119 -0.0193423569351148 
0 0 0 0 
-0.01649252705104196 0.03472625618491256 -0.01686214394100188 -0.00556108384222502 
0 0 0 0 
-0.0229822668546171 -0.04051601006632255 0.05628919867395575 -0.005514768403834492 
-0.0229822668546171 -0.04051601006632255 0.05628919867395575 -0.005514768403834492 
-0.00818449488123908 0.05090358368971706 -0.04439052007249545 -0.001207041816050632 
-0.05039839446599598 -0.03327963845727169 0.06324752402373718 -0.03020149599146363 
-0.00818449488123908 0.05090358368971706 -0.04439052007249545 -0.001207041816050632 
-0.09135781970354864 0.1582004043674664 -0.1373906691187045 -0.1390449372424086 
0.05290874031206555 -0.1069948116757879 0.02153532124429054 -0.03325983123393188 
-0.0783423334960989 0.1194639613828681 -0.03008145301147263 -0.09658328925876747 
-0.0134009180649621 -0.01473589723307541 0.05639855413858391 -0.0002427373583777092 
0.06721591332209131 -0.05259187712545723 -0.02607264012846613 -0.009649467094648617 
0 0 0 0 
-0.01998469504804007 0.03650299376024548 -0.02613035908696798 -0.004330319449572698 
0 0 0 0 
0.1747130735262074 -0.06926557633944633 0.004061551271052436 -0.03323868513009318 
0.06907617803860566 -0.01559414881456463 -0.1253409178233202 -0.04543306790620145 
0.06599274164638616 -0.04834706690306177 -0.05154268998921109 -0.02887626003369125 
0.08245355818745242 -0.00156763769299653 -0.05668056054229193 -0.008731269988553992 
0 0 0 0 
-0.1265434070476596 0.09338499269348384 -0.1060221088593618 -0.1421433330323995 
0 0 0 0 
0 0 0 0 
0 0 0 0 
0 0 0 0 
-0.02562640272038711 -0.05943738749538229 0.06436130264597759 -0.01049416599978581 
-0.007640293146667145 -0.03794326554446057 0.04255779979054724 -0.002359574881324178 
0 0 0 0 
-0.02443381824721617 0.04332494875107458 -0.02407918505179044 -0.008196299487955576 
0.01759077454935688 -0.04160728079849855 -0.003201043119964588 -0.02160956456875692 
0 0 0 0 
-0.03486864325056516 0.08147646048898473 -0.04180370489867549 -0.007328618650968098 
0 0 0 0 
0 0 0 0 
0 0 0 0 
-0.02292670033663247 -0.04762726158503197 0.05841293954567592 -0.01552892867124196 
-0.001244183570795809 0.07366153900368792 -0.05961327969220269 -0.0003052794396636278 
-0.0003979227196421716 0.04187324096197084 -0.03193248295799676 -9.190710335770088e-06 
0 0 0 0 
-0.01023753893047885 0.01966643163578397 -0.01834230996148222 -0.003607414159815418 
0.09069166612049391 -0.03731233693782033 -0.04277199100333003 -0.00212866436809565 
0.04834867580866663 0.02171630943061011 -0.07669929613782597 -0.02167220726476873 
0 0 0 0 
-0.0451616194489126 -0.03494746448813663 0.06494238698669996 -0.01554848143119556 
0 0 0 0 
-0.09052032120489512 0.03204185474188496 0.0377551107177964 -0.03831247020544544 
0 0 0 0 
0 0 0 0 
-0.026693373383808 -0.04706833119504156 0.06128858599572139 -0.01042029778855908 
0.08591924877748709 -0.004029915943843112 -0.03928676226861461 1.704020608022348e-05 
0.08591924877748709 -0.004029915943843112 -0.03928676226861461 1.704020608022348e-05 
0.1003185569301723 -0.1327018283435398 -0.07698897416454607 0.007116222485989953 
0.0600313227961379 -0.03961331740069191 0.020973787654745 -0.01094583523040038 
0.08591924877748709 -0.004029915943843112 -0.03928676226861461 1.704020608022348e-05 
-0.06410315261491975 0.050157234349688 -0.1183106934718912 -0.09984648559907698 
0.01615613482933945 0.02881771446555066 -0.09409348289903977 -0.06451410822071722 
0.1542576033484616 -0.09694003696083608 -0.08121850247452744 -0.02488122121057361 
-0.01770596812854955 -0.02349268394547984 0.04417091841784723 -0.003384697156037566 
0.07147736536080074 -0.004370815984053389 -0.02565966903983517 -9.921031564261791e-05 
0 0 0 0 
0 0 0 0 
0 0 0 0 
-0.03662519151758631 -0.07286573579641871 0.09063480476906871 -0.0126136390186241 
0 0 0 0 
0 0 0 0 
-0.01772353587733141 0.03878164844271814 -0.02362899102917652 -0.002105027989999579 
0.1078335009939909 0.009576529340396451 -0.1150433436551959 -0.00924583933332263 
0.000642922188629532 -0.017295742328397 -0.007813790028574279 0.006399973339606707 
0.08309551538311127 -0.04628550554919726 -0.04089096355177649 -0.002449830308055962 
-0.008665449909199168 0.02962896293390614 -0.01648604435023909 -0.001702002028008216 
0.06677823134306246 -0.03723654470054381 -0.03335556041152803 -0.01050809115252096 
-0.02425482593015362 0.08560031266427651 -0.0752933529184303 -0.003565779638776398 
-0.04586710440854185 -0.005050480732842976 0.07189769360972501 -0.01258162621750206 
-0.01919335458259189 -0.07835034652816796 0.1100347578271968 -0.002344526398765802 
-0.04055103390509089 -0.09554640657964827 0.1295144579368337 -0.01249567332217937 
-0.02074529710363541 0.04854034245196241 -0.03673777463242563 -0.002385794509943692 
0 0 0 0 
-0.01482043596743307 0.04082099548057208 -0.03118526023718681 -0.002756162502493098 
-0.04570137646988621 0.007364275082282263 0.01681907546479872 -0.02859970162956013 
0 0 0 0 
-0.04098824871725763 -0.07567173002014109 0.0942577417563514 -0.01059786414132719 
0.08211392847473575 -0.06577753585183561 0.01781131365133711 -0.004420336000488989 
0.09980941199642679 -0.1226930819940355 0.0365013484345763 -0.03932887366628543 
0 0 0 0 
0 0 0 0 
0 0 0 0 
0.165912707092233 -0.1607049258933745 -0.08744029731495349 -0.08786973986611553 
-0.07174516396727419 -0.02100021440611642 -0.02577637003406779 0.08113387241736766 
0 0 0 0 
-0.0321126961876855 -0.08146786241369372 0.1090768835475499 -0.007513773219845326 
-0.02325221703821171 -0.08743725272730206 0.07193321510994399 0.1123625440978923 
-0.01534985902352209 -0.02370852105188339 0.03050120338800863 -0.00213526245572906 
-0.01534985902352209 -0.02370852105188339 0.03050120338800863 -0.00213526245572906 
-0.01708088757182102 -0.03972825839660851 0.05555264017906317 -0.002370277484217328 
-0.01708088757182102 -0.03972825839660851 0.05555264017906317 -0.002370277484217328 
-0.07329484306971888 -0.03644309558821956 0.06935208920714814 -0.03418348755068232 
-0.01368128298783731 -0.04237038912056039 0.05122365456485319 -0.001113052168850704 
-0.03028173465718652 -0.00185752042600313 0.02549011488779428 -0.002897603137979925 
-0.1333222566392977 0.2659321886944225 -0.2547204602883148 -0.04775250594102731 
-0.03469844931305791 0.0422421988504413 -0.03109484087120069 -0.01875368620008466 
-0.03469844931305791 0.0422421988504413 -0.03109484087120069 -0.01875368620008466 
-0.001118248424870707 -0.02799180899172022 -0.1065284494802107 -0.1058803192555586 
-0.04022796606571286 0.09435196840698834 -0.08709646513861188 -0.01990315192708349 
-0.004386730181115177 0.04204600718021897 -0.0104274523618629 -0.0004601956894201942 
-0.004386730181115177 0.04204600718021897 -0.0104274523618629 -0.0004601956894201942 
-0.1145565469093756 0.09699025845600409 -0.009509930235680274 -0.1014509660672515 
-0.004386730181115177 0.04204600718021897 -0.0104274523618629 -0.0004601956894201942 
0 0 0 0 
0.07772978206608377 -0.01397979674665127 -0.04139780135435389 -0.002013798580785298 
0 0 0 0 
0 0 0 0 
0.04631545554914424 0.01861894467716397 -0.07401601093895777 -0.006876704916637505 
0 0 0 0 
0.06452017382435071 -0.04285838171191909 -0.03182045770502547 -0.008701422469190775 
0.06452017382435071 -0.04285838171191909 -0.03182045770502547 -0.008701422469190775 
0.06019717618615036 -0.03516796375609767 -0.01870944644679475 -0.007388952955550116 
0.06019717618615036 -0.03516796375609767 -0.01870944644679475 -0.007388952955550116 
0 0 0 0 
0.07640480772506447 -0.05464370143212385 0.002778137264324948 -0.007049926269757238 
-0.07862734948074707 0.1005329799763873 0.003485801731149944 -0.01654975371769944 
0 0 0 0 
0 0 0 0 
-0.04948452225047852 -0.1023847750071742 0.1306904008937264 -0.04239375427297266 
0.2657931055914395 -0.1414270224463647 -0.08100116331884646 -0.003018952059749455 
0 0 0 0 
0 0 0 0 
-0.0727033178330127 0.08075284847551528 -0.0637121690319017 -0.04291205041363183 
0.1603101726212284 -0.1520560392593549 -0.04326645449119165 0.01168831512549316 
0 0 0 0 
0 0 0 0 
0.02922731626527812 0.0003744089637407462 -0.04321532624706831 -0.006705782355083167 
0.0536287468990321 -0.153241169064996 0.1413893023751096 -0.04130863605722904 
0 0 0 0 
0 0 0 0 
0 0 0 0 
-0.04711729963006134 0.04543373142089061 -0.04996805231810586 -0.05406971595431821 
0 0 0 0 
-0.01283525699527914 0.03778480546623954 -0.02788397808966308 -0.0009745954471226632 
0 0 0 0 
0 0 0 0 
-0.05073435854071799 0.08615969016927948 -0.07178196754915152 -0.0352688070252109 
-0.025367179270359 0.04307984508463974 -0.03589098377457576 -0.01763440351260545 
-0.025367179270359 0.04307984508463974 -0.03589098377457576 -0.01763440351260545 
-0.02005233061329997 -0.0555603361642365 0.06892638160991435 -0.007418146794060001 
0 0 0 0 
0.0607460459965091 -0.006734050304392317 -0.07635295005097401 -0.01126070729826114 
-0.05163164788615927 0.1017702646055922 -0.08735446674445099 -0.03059750265781067 
0.03823901173585961 -0.1338318247157128 0.03232864105464313 0.1036281725572236 
0 0 0 0 
0 0 0 0 
0.08587291322877309 -0.03671598924861502 -0.03047043860209209 -0.0002757585993019219 
0.09217179164330488 -0.06603660507483301 -0.1009086180346657 -0.08511652358893403 
0 0 0 0 
-0.01412565401353321 0.0292140893039993 -0.009476459907752432 -0.003115507054976015 
-0.05964354776521021 0.1352310733149332 -0.0813672616299313 -0.01749772144697356 
0.007558366858633833 -0.07925268272701876 0.09517312413822386 -0.02999253794411519 
0 0 0 0 
0 0 0 0 
0 0 0 0 
0 0 0 0 
0 0 0 0 
0 0 0 0 
0 0 0 0 
0 0 0 0 
0 0 0 0 
-0.004168455701994977 -0.03385541216205484 0.04039378547494151 -0.00177850788553462 
0 0 0 0 
-0.01974079669834455 -0.04603042685865241 0.05887778323356209 -0.00672349536866178 
0 0 0 0 
-0.04070441718398597 -0.03510240141562548 0.03679243258207774 -0.03957028988312723 
-0.107407949676404 -0.1257950062928965 0.07933028614713046 0.05700858714807729 
-0.04723940975400358 0.02003662895307621 -0.03363286422190988 0.1079567733695411 
-0.006373252528962203 0.0544905789942593 -0.0167648535480654 -0.0006246786047534 
-0.07411641812204692 -0.05916761228134242 0.1579812059020689 -0.02283037386204663 
-0.1963382295974059 0.1979077272097759 -0.01230031860605308 -0.1072187839003456 
-0.006373252528962203 0.0544905789942593 -0.0167648535480654 -0.0006246786047534 
-0.008158894780774801 0.08883675684259365 -0.04688142526777239 -0.001654011624784934 
-0.06105310609126813 0.1123472389841891 -0.1570197974352827 -0.08022462551334023 
-0.02272066968102678 0.04225608693889692 -0.03284916415099438 -0.01124174037657017 
-0.02272066968102678 0.04225608693889692 -0.03284916415099438 -0.01124174037657017 
-0.02272066968102678 0.04225608693889692 -0.03284916415099438 -0.01124174037657017 
-0.01484522905421391 0.03744088825116774 -0.02872575918474948 -0.001485371293612429 
-0.003671253106876638 -0.03322767413788437 0.05175701758208925 -0.001125074219102259 
0 0 0 0 
0 0 0 0 
0 0 0 0 
0 0 0 0 
0 0 0 0 
-0.01176731224242497 0.03078540774389483 -0.03107564927253014 -0.009865462695423381 
-0.009693935687464459 0.0256198403024484 -0.03389526045443626 -0.005474154896423555 
-0.009693935687464459 0.0256198403024484 -0.03389526045443626 -0.005474154896423555 
-0.08801855001175599 -0.2211317805800739 0.3120117860065338 -0.0458146108169377 
-0.03050981428095714 0.03377648998916778 -0.03644753261997558 -0.02307500691297945 
-0.03050981428095714 0.03377648998916778 -0.03644753261997558 -0.02307500691297945 
-0.03050981428095714 0.03377648998916778 -0.03644753261997558 -0.02307500691297945 
-0.1009878056147699 -0.1147988022470793 0.1394653995668665 -0.06519205345912182 
0 0 0 0 
-0.07474011174488124 -0.02858001878756156 0.04223741345376408 -0.04391494908135513 
-0.08402849423675642 -0.08720736863700994 0.07383592917404883 0.09679176540966558 
-0.02856952995703228 -0.04654668185147741 0.05551808116510905 -0.01267242288708081 
-0.1630499922022269 -0.02348834992229801 0.091435747829789 -0.07525546781054518 
-0.02856952995703228 -0.04654668185147741 0.05551808116510905 -0.01267242288708081 
-0.03693681905093976 0.006918176342350387 -0.006987422787293166 -0.01342249627621914 
-0.03693681905093976 0.006918176342350387 -0.006987422787293166 -0.01342249627621914 
-0.05902614584592464 -0.07995658960874776 0.1087063237501943 -0.03932072661182556 
-0.05236913025750023 -0.06673224904874683 0.1739568871752123 -0.01078611193523761 
-0.0597089657487561 -0.08919414302831841 0.146190760485628 -0.01455480727185298 
-0.01889920881780755 -0.05749120722934786 0.09459299418374993 -0.009600684880679503 
-0.01889920881780755 -0.05749120722934786 0.09459299418374993 -0.009600684880679503 
-0.04405462060847126 0.1271797750892959 -0.09224709442868922 -0.01346269566404163 
0 0 0 0 
-0.04028013421758275 0.03954353035196358 -0.0341783778112216 -0.02584344158777659 
-0.04730566990075361 -0.02855902766763475 0.08819069686366131 -0.002325498711619771 
-0.02655918618240242 0.04365334402263689 -0.01653055119283343 -0.005053025361228401 
0 0 0 0 
0 0 0 0 
0 0 0 0 
0 0 0 0 
-0.1351050285502256 0.08554608847892806 -0.09005854603270531 -0.03269271604274071 
0 0 0 0 
0.0380694882338082 0.0013820081855322 -0.09057030408804356 -0.04185275408773073 
0 0 0 0 
0 0 0 0 
0 0 0 0 
0 0 0 0 
-0.01051743241447597 -0.02360812873676352 0.06289606731514842 -0.000564730471744395 
0 0 0 0 
-0.005731476193649348 -0.04156373036971915 0.07192105931292371 -0.0004057790384849779 
-0.04010605351072378 -0.06616615881396251 0.05528545748406908 0.077024732355626 
0.04015364289828553 -0.01144086734030111 0.00707317171304354 -0.002509912228181796 
-0.005731476193649348 -0.04156373036971915 0.07192105931292371 -0.0004057790384849779 
-0.005731476193649348 -0.04156373036971915 0.07192105931292371 -0.0004057790384849779 
-0.07209370320060236 0.1062318980089198 -0.03377368858502457 -0.02388999245476615 
0 0 0 0 
0 0 0 0 
-0.01577166918915503 -0.03258093179764346 0.0403992494597611 -0.007853925211695019 
-0.01607658806077135 -0.007858332807657563 -0.01411555556157043 0.1184323707883831 
-0.0003979227196421716 0.04187324096197084 -0.03193248295799676 -9.190710335770088e-06 
0 0 0 0 
-0.03406564894520425 -0.04427116242587591 0.06468836936761599 -0.01186168817152318 
0 0 0 0 
0 0 0 0 
0.0249115731659504 0.07288452963533952 -0.05703066395764168 -0.005798388802876924 
-0.01459225214872061 0.09388012473919716 -0.04828383657463391 -0.0004068439827439087 
-0.03686265079459715 -0.1200505896280936 0.1058642766598839 0.03301666555967343 
-0.03392348312280599 0.03959805000693326 -0.03353881837108248 -0.02447981912751288 
0.01768601464114935 -0.0005001682750440669 -0.09335649632804933 -0.07372898233081515 
-0.03173442668219843 0.04354581281409509 -0.03773546103248222 -0.02495087630931778 
0.04475245782659566 0.03937296295669954 -0.07083416591141103 -0.03430560807988799 
0 0 0 0 
0.08984970085865243 0.03951721622024345 -0.09097178588676902 -0.002257034987052906 
0.1594687272507901 -0.03703059339824029 -0.1335660065487816 -0.04749806373821719 
-0.02696999953234573 0.04909461326418797 -0.05445100400672461 -0.06183147327252464 
0 0 0 0 
-0.04714340720556222 -0.06723997133479874 0.1108984399408749 -0.01701734951529524 
0 0 0 0 
0.08507311061918237 -0.02734206579573134 -0.07163068715852365 -0.0004726890992657021 
-0.06068039012358446 0.2409780643783738 -0.2235874498680201 -0.03040479676470944 
0.05495892927417138 -0.02112703201816642 -0.01805775089215115 -0.004021519794297502 
0.182366901147064 -0.1210735523126671 -0.08811315371814184 -0.06321890406719197 
0.06382964890688916 -0.04506837262102983 -0.04262331739914804 -0.0236734104794798 
0.06382964890688916 -0.04506837262102983 -0.04262331739914804 -0.0236734104794798 
-0.02576407345302895 -0.04726605443706625 0.05895309236006559 -0.006257754914855963 
-0.02576407345302895 -0.04726605443706625 0.05895309236006559 -0.006257754914855963 
-0.004390356937313005 0.05054749612037327 -0.03553513212601162 -8.771438402210125e-05 
0 0 0 0 
0 0 0 0 
-0.01577358426098851 0.05261359247454955 -0.007978165821102261 -0.002237913767328657 
-0.01577358426098851 0.05261359247454955 -0.007978165821102261 -0.002237913767328657 
0 0 0 0 
0 0 0 0 
0 0 0 0 
0 0 0 0 
-0.02259658934879061 0.05347999928760156 -0.09164635192378261 0.1074397410180042 
-0.007313513895346481 -0.02735149309957349 0.03322643364623704 -0.001839839187351146 
-0.1041299459018747 -0.208977443777392 0.1140809682049016 0.3083414962388143 
-0.1788641521820645 -0.1356872775212007 0.2840941382969271 -0.05194367153662299 
0 0 0 0 
0 0 0 0 
-0.01582501106139518 0.03406987943357365 -0.03844473036350097 -0.008315697166990675 
0 0 0 0 
0 0 0 0 
0.05977245903515382 0.01564852573263728 -0.06160982383977656 -0.0001418626497430777 
-0.0170454314594073 -0.07618925780013894 0.01418510503212905 0.1049312859968622 
0 0 0 0 
0 0 0 0 
0 0 0 0 
0.03664411577002535 -0.1360951695332041 0.08356880578737794 0.08479753305451476 
-0.1034010571943247 -0.04173936059345087 0.05608039020529577 0.0723076538437441 
-0.04612091846234326 -0.04577992179825108 0.05053570112531264 -0.04900988795111169 
-0.04612091846234326 -0.04577992179825108 0.05053570112531264 -0.04900988795111169 
-0.04612091846234326 -0.04577992179825108 0.05053570112531264 -0.04900988795111169 
-0.04612091846234326 -0.04577992179825108 0.05053570112531264 -0.04900988795111169 
-0.01434536748268395 0.05089321817956406 -0.04050311384632169 -0.002169423679634293 
-0.01434536748268395 0.05089321817956406 -0.04050311384632169 -0.002169423679634293 
-0.01551516844152066 0.02149262979825269 -0.02000925323429644 -0.005255738074866604 
0.1273920805835178 -0.03803443862994055 -0.1008891692698157 -0.01223697079316673 
0.03238573530781902 0.04531620106426735 -0.07125194279289279 -0.01472937041662091 
-0.01551516844152066 0.02149262979825269 -0.02000925323429644 -0.005255738074866604 
0 0 0 0 
-0.01196340492853742 0.0594245335289716 -0.05597218299962731 -0.001779591285909683 
0 0 0 0 
0 0 0 0 
0 0 0 0 
-0.04820998899359369 -0.02910820925335779 0.05703645485588398 -0.02876237528953441 
0 0 0 0 
-0.04048257755642974 -0.08973704235608854 0.1186319951110002 -0.01770952307851075 
-0.04746399910374999 0.03898540442179649 -0.03339181689182903 -0.04780608774498059 
0 0 0 0 
0 0 0 0 
-0.01858387853572928 -0.01621071341468422 0.05022399016676272 -0.0005104675542495801 
-0.02033419719952721 -0.03571557000235747 0.05271005923937448 -0.01096529811695468 
0 0 0 0 
-0.07790602774221148 -0.008189007034380625 0.09615845689867389 -0.01130286154292121 
0 0 0 0 
0 0 0 0 
0 0 0 0 
0.06213707107674024 -0.02648038695432842 -0.0568886805221071 -0.01026158847250622 
0 0 0 0 
0.05421102105894502 -0.02244051960741145 -0.03538251778917595 -0.01001106725821581 
-0.0377789344258104 0.1835603172729387 -0.1103462040478633 -0.08788575937288423 
0.01835279604969175 0.02544993749455269 -0.0770215184758109 -0.03196617633976754 
-0.04748110207625665 0.03229928130458211 0.04053772051805323 -0.00648041412470761 
0 0 0 0 
0 0 0 0 
0 0 0 0 
0 0 0 0 
-0.08152946375511863 0.01388669226102241 -0.06093854633462675 0.02792170673485688 
0 0 0 0 
0 0 0 0 
0 0 0 0 
-0.02964164912219182 -0.03484950188196533 0.0773699692247725 -0.002625303982499078 
-0.02892186825143498 -0.002435292554128514 0.04058055381008127 -0.006014534656658811 
-0.01268527691511577 -0.3150494442396364 0.3117731262452959 -0.06322429001301105 
-0.02282110701144669 -0.04975886992603815 0.06517234824286847 -0.01395300502556485 
0.07496205320014976 -0.04361696488580245 -0.03534212108442351 -0.002857357473229288 
0 0 0 0 
0 0 0 0 
0 0 0 0 
0.04968323888809775 -0.1353326240940068 0.08611587087458845 0.1163858101176856 
-0.03785873613215594 -0.0809718341681656 0.0609110624946173 0.1098473537759533 
-0.0001359877583683982 -0.05215843924459687 -0.01272376946295856 0.1183568102677055 
-0.0001359877583683982 -0.05215843924459687 -0.01272376946295856 0.1183568102677055 
0 0 0 0 
0.09615726739358768 -0.02912924632036799 -0.08042157272102518 -0.03602633322895853 
0 0 0 0 
0.07948992036752717 0.003009400934667536 -0.05486215532491424 -0.0008026816848476631 
0 0 0 0 
-0.00644471082113476 -0.03370672665122831 -0.07359346794720309 0.003704220621070828 
0 0 0 0 
0 0 0 0 
0.003760307403721944 -0.09348806085099874 0.04940619355086753 -0.04233951705498663 
-0.04493238392139498 -0.01256374258406334 0.0283998353105672 -0.02230486782914957 
0 0 0 0 
0.06565219150168643 -0.005240040306248453 -0.02968842874254659 -0.001008449191527402 
0 0 0 0 
0.09010598418682625 -0.03775136516879198 -0.00332020477035435 -3.733448101679517e-05 
0.002777507680293664 0.01515327670871757 -0.08229923814653883 -0.05887047018572489 
-0.08591476331119477 0.05016132494454846 0.0001407585455887039 -0.0365833575643179 
-0.04530430379341504 0.0632082667387108 -0.04676585438859787 -0.0191323244054096 
-0.004215075964958201 0.0263764440206038 -0.02150358299216034 -0.0008876539997394335 
-0.004215075964958201 0.0263764440206038 -0.02150358299216034 -0.0008876539997394335 
-0.004215075964958201 0.0263764440206038 -0.02150358299216034 -0.0008876539997394335 
-0.004215075964958201 0.0263764440206038 -0.02150358299216034 -0.0008876539997394335 
-0.004215075964958201 0.0263764440206038 -0.02150358299216034 -0.0008876539997394335 
-0.004215075964958201 0.0263764440206038 -0.02150358299216034 -0.0008876539997394335 
0 0 0 0 
-0.03868844709621784 0.1070544283905351 -0.07602077170118646 -0.04161326926609153 
-0.01694989676874629 0.05613280466127384 -0.02524499946338635 -0.005193381735296267 
-0.035243935101225 0.07491082545422152 -0.07063604581787107 -0.04511339448780732 
0 0 0 0 
0.06087035716830067 -0.03911194541533291 -0.05907253751286033 -0.03205031437628273 
-0.06241510137034711 -0.08627560351988739 0.01127360453926392 -0.1137415005897225 
0 0 0 0 
0 0 0 0 
0.01491469020914363 0.009966323760834103 -0.08214653630849558 0.09735588713605017 
0 0 0 0 
-0.07331940346037452 -0.03172220587035046 0.02818192760053198 -0.04635025847911345 
0.03375201625043273 -0.1250311003845646 -0.1596058626613044 0.1304920428357515 
0.08186172835829916 -0.0292916249921775 -0.05037002371591463 -0.001836236121408712 
0 0 0 0 
0 0 0 0 
0.003803746334357452 -0.02378582562326172 0.07740291610888235 -0.008314454294341352 
0 0 0 0 
0.0463649677799907 -0.02662999311014505 -0.0209025993940229 -0.01732005932130368 
0 0 0 0 
0.0337012949586589 -0.01763589319728499 -0.03522660536781377 -0.01181859615192862 
0 0 0 0 
-0.01295848906642554 -0.02285580797817234 0.03331378329141119 -0.0009457573830069112 
0 0 0 0 
-0.04202213667814349 -0.02292040325994989 0.05504521409165613 -0.01271742675969202 
-0.03957695022676852 0.003083685069365836 0.01555770374269464 -0.01076866343154173 
-0.08667373952456775 0.08362568504650815 -0.06537934764967358 -0.05327931489280986 
0 0 0 0 
0 0 0 0 
-0.01647451078041352 0.03401490815431327 -0.04604803851956719 0.1184231800780473 
0 0 0 0 
-0.01280530115753939 0.02833025081056173 -0.00985433977254857 -0.002032018800483469 
-0.03055599802648848 -0.02270003101165757 0.02956965983188764 -0.01053924961458963 
-0.03055599802648848 -0.02270003101165757 0.02956965983188764 -0.01053924961458963 
-0.03055599802648848 -0.02270003101165757 0.02956965983188764 -0.01053924961458963 
-0.03055599802648848 -0.02270003101165757 0.02956965983188764 -0.01053924961458963 
0 0 0 0 
0 0 0 0 
-0.03765300518229396 0.07475274092584135 -0.07622339562213433 -0.03386077238998073 
0 0 0 0 
0.09800873945297495 -0.06922220639276451 -0.0996153587639636 -0.05505484080236121 
0 0 0 0 
-0.08251334616921847 0.03214275870462175 0.01344078308052425 -0.04170517045519931 
0.06704872679750187 -0.2203621035272825 -0.03564495387839046 -0.01889462377958847 
-0.01632753885492521 0.02059669680848911 0.01075555236042027 -0.0007399646393457312 
0 0 0 0 
0 0 0 0 
-0.001235179281596375 0.04748675402582195 -0.04122650785483417 -0.000931850104449873 
-0.01205146877103275 -0.02424728818251588 0.03449628158945701 -0.0015507738454057 
-0.04141119599951268 -0.06585339427432267 0.1187615793446742 -0.01545140789343297 
-0.02179969741500087 -0.0343296358766071 0.0796600180712759 -0.003918771186319815 
0 0 0 0 
-0.03545461809068342 -0.006201294194793028 0.05994350086795867 -0.01661591684602465 
-0.01131225838959875 -0.03277447022819566 -0.02865449380816485 0.1153805153435481 
0.08549421631047718 -0.03829849192186811 -0.02772051102264414 -0.0007836994187057558 
0 0 0 0 
0 0 0 0 
0.04224161446491358 -0.07970193530329897 0.0997772193406245 -0.009528168323412013 
0 0 0 0 
0 0 0 0 
0 0 0 0 
0 0 0 0 
-0.05908231492127794 0.06895309735285031 -0.1058437663948328 -0.09829422928008794 
0.02488902873880352 -0.175325936374559 0.07124986517594446 0.09863029349045477 
-0.0109416800747343 -0.02835063839566567 0.04339449026628771 -0.002323981522327087 
-0.02194446389868942 -0.130002449682935 0.07330657524091944 0.1140274976482256 
0 0 0 0 
0 0 0 0 
0 0 0 0 
-0.01891922338903675 -0.04937305185093886 0.04646388635122148 -0.009228941862586534 
0 0 0 0 
-0.0468194190954347 0.05166620062483893 -0.05675499618619564 -0.05010275061011539 
0 0 0 0 
-0.01082808875761804 0.04817600398305445 -0.03392128350228672 -0.0009189238355836041 
0 0 0 0 
0 0 0 0 
0 0 0 0 
0 0 0 0 
-0.03089821425774534 -0.04464628207741937 0.04728191667718427 -0.01808082868831065 
0 0 0 0 
0 0 0 0 
-0.01928540820227275 -0.03040113961457655 0.06630890273522864 -0.004607126947063973 
0 0 0 0 
0 0 0 0 
-0.1859974447263844 -0.06349446987351613 0.3135280931891821 -0.04326295775963931 
0 0 0 0 
-0.05523043478020528 0.03287027657622738 -0.004760967577603636 -0.06413853739652078 
0 0 0 0 
0 0 0 0 
0 0 0 0 
0 0 0 0 
-0.01914306973613902 0.01654673816631871 -0.002150436645183966 -0.001486785097883156 
0 0 0 0 
-0.0390923340853836 0.04689427698296954 -0.02268849109144563 -0.01660142798915419 
0 0 0 0 
0.06477575476497893 -0.02887624483792509 -0.04935285860310813 -0.004413178001029289 
0 0 0 0 
0 0 0 0 
0 0 0 0 
0 0 0 0 
0 0 0 0 
0 0 0 0 
0 0 0 0 
0 0 0 0 
0 0 0 0 
-0.03841980891583274 -0.1016759163496468 0.07570530629608047 0.1134125619389411 
0 0 0 0 
0.07772978206608377 -0.01397979674665127 -0.04139780135435389 -0.002013798580785298 
0 0 0 0 
0 0 0 0 
0.07198535994826782 -0.0507448843060529 -0.01525053402458506 -0.001942747799749125 
0 0 0 0 
0.05262682094706556 -0.04293084739335449 -0.03567421875189063 -0.01921647732393351 
0 0 0 0 
-0.05237517113475658 0.09478238479469905 -0.0732107083412689 -0.02414292134705392 
0 0 0 0 
0 0 0 0 
-0.0428048271001563 0.1015843871222643 -0.08708282875451526 -0.0030635097186843 
0.05907916429585831 0.01525243245924607 -0.1144385818307603 -0.05788952597808167 
-0.008803373257015454 0.04050073834257551 -0.009828553281488491 -0.0005992024328340642 
0.0797784185786729 0.04190327784431413 -0.05977847518666424 -0.002874027890068721 
-0.04549762956583163 0.04932696497419618 -0.04766472785437276 -0.04240265224219373 
-0.0597757242599367 -0.002891090123948931 0.01824262766574104 -0.02132373754539748 
0 0 0 0 
-0.04837019924496233 -0.06732519600516507 0.01046085225197716 0.0682372012092701 
0 0 0 0 
0 0 0 0 
0 0 0 0 
0 0 0 0 
0.05269636043862787 -0.03709925585378998 -0.02353583595356259 -0.0144656413051551 
0 0 0 0 
0 0 0 0 
0 0 0 0 
-0.02676772333853211 0.05096710804224961 -0.0372920688148912 -0.01871898870263822 
-0.02676772333853211 0.05096710804224961 -0.0372920688148912 -0.01871898870263822 
0 0 0 0 
0 0 0 0 
0 0 0 0 
0 0 0 0 
-0.04833156449239709 -0.08058970560183756 0.1045543876923841 -0.01572189571982464 
0.0637885076050006 -0.0258663970241537 -0.05237897758475765 -0.01104459735622201 
0 0 0 0 
0 0 0 0 
0 0 0 0 
0 0 0 0 
0.003358167711900999 0.08933682941467412 -0.2019032603825648 -0.06039259171955257 
-0.01430818666341654 0.03967207249328293 -0.03485380643079693 -0.003003790172358151 
-0.01430818666341654 0.03967207249328293 -0.03485380643079693 -0.003003790172358151 
-0.01430818666341654 0.03967207249328293 -0.03485380643079693 -0.003003790172358151 
0.08527464140641092 -0.02151164971394399 -0.03347625104851243 -0.0005254686210679224 
0.08527464140641092 -0.02151164971394399 -0.03347625104851243 -0.0005254686210679224 
0.04557803564617033 -0.05488352485809878 0.04576219762606443 -0.01276515368419326 
0.1392032725704218 -0.05778443791052242 -0.05578320319559796 -0.004457748544240863 
-0.00471829100548496 0.02523630743571002 -0.006939909041732499 -0.0006955249378851991 
-0.01087428532976385 -0.02149790376947422 0.05382260023426234 -0.001122752547673273 
0 0 0 0 
0 0 0 0 
-0.02218357900081715 -0.03157259768176675 0.06681194814839947 -0.00916078799401903 
0 0 0 0 
0 0 0 0 
0 0 0 0 
0 0 0 0 
0 0 0 0 
0 0 0 0 
0 0 0 0 
0 0 0 0 
-0.001235179281596375 0.04748675402582195 -0.04122650785483417 -0.000931850104449873 
-0.01915209117223647 0.05140988094471454 -0.02567276317194982 -0.01006659532312621 
-0.01915209117223647 0.05140988094471454 -0.02567276317194982 -0.01006659532312621 
0.0447199672619059 0.005956361184440978 -0.07403537253499232 -0.03606536307253397 
0 0 0 0 
0 0 0 0 
0 0 0 0 
-0.02166145779282435 0.04307221504502733 -0.03727935300134685 -0.007169587288310681 
-0.01779281255267021 0.1412304746241753 -0.1852013793064091 -0.04941972188642606 
-0.02931581387171869 0.04578614816516923 -0.03041888223840951 -0.01177161390177989 
0 0 0 0 
0.02862765914117508 -0.04164138023935293 0.002773726432758737 -0.02403276700463041 
0 0 0 0 
0 0 0 0 
0 0 0 0 
-0.005311294152808984 0.03579613618046618 -0.03721997467772599 -0.002611506585359393 
-0.03656027256863759 -0.08417841258568215 0.1322283866961612 -0.01204887776582666 
0 0 0 0 
-0.04822093756504284 0.03564577098031466 0.003506050241379727 -0.02390591639123488 
0 0 0 0 
-0.01850543308810083 -0.05219759578181386 0.05835792963687039 -0.004337762367267446 
0 0 0 0 
0.06565219150168643 -0.005240040306248453 -0.02968842874254659 -0.001008449191527402 
-0.01141852694141092 -0.06854995108707543 0.04647094334487661 0.1036916307138007 
0 0 0 0 
-0.008600934906087723 0.03117239440206511 -0.008836741358171502 -0.000745941904726129 
0.07728288164337677 -0.1363588437316114 0.05139975929098385 -0.007730986285669873 
-0.009853054238940312 -0.07421056899095174 0.08007625268412291 -0.002617064454761508 
-0.009853054238940312 -0.07421056899095174 0.08007625268412291 -0.002617064454761508 
0 0 0 0 
-0.01290779597289735 0.04767929381479515 -0.05369385423934769 -0.001629179653581515 
0.04655949520468948 -0.05454900248607669 0.007772460458559772 -0.005756670975631075 
0 0 0 0 
0.1352858773130031 -0.06512951980134543 -0.04877552883809943 -0.01164719835506262 
0.03132019394737364 -0.05156100845281224 0.005981488694375562 -0.01893972103804609 
0.08199691251201205 -0.007298425122543601 -0.05902774561782692 -0.001432986919347497 
0.08199691251201205 -0.007298425122543601 -0.05902774561782692 -0.001432986919347497 
0 0 0 0 
-0.04956384796820049 -0.003533811201297696 -0.06736312196204615 0.08848348244625799 
-0.01371611809323819 0.07180420255778162 -0.06351741950697848 -0.002941941780752365 
0 0 0 0 
0 0 0 0 
0 0 0 0 
0 0 0 0 
0.09010598418682625 -0.03775136516879198 -0.00332020477035435 -3.733448101679517e-05 
0.09021108390153024 -0.006311127032514085 -0.0256239060484766 -5.586507250204771e-05 
-0.06553191847585807 -0.07345218331536914 0.1152246988610528 -0.01918110455292408 
-0.03696402068853408 0.009011308554728908 0.02661642976164743 -0.01227272509529153 
0 0 0 0 
0.03813189378853428 0.0794067997418773 -0.08564696628371554 -0.03921526459169251 
-0.01222768203576211 -0.02868161399346431 0.05932285362951453 -0.0004547834173489728 
0 0 0 0 
0 0 0 0 
-0.06551169814918628 0.09932075032111955 -0.07533172251483511 -0.03454274706772732 
-0.0167628371641634 -0.05775934136181034 0.07857568015954124 -0.005378510764116265 
0 0 0 0 
0 0 0 0 
-0.08751709464816897 -0.1648665698772279 0.241330900857421 -0.04128288473877494 
0 0 0 0 
0 0 0 0 
0 0 0 0 
0 0 0 0 
0.01788949766317056 0.1201646388984537 -0.1490244215639146 -0.01929656225936133 
-0.005637552461407379 0.05399690234813846 -0.03468069189548835 -0.0003662910313900936 
-0.005637552461407379 0.05399690234813846 -0.03468069189548835 -0.0003662910313900936 
-0.06071675788682675 0.006243688618086284 0.03731663219965182 -0.01873561142787291 
-0.02502440161235965 0.1036328043059737 -0.06500835335901582 -0.006937265115168885 
-0.005637552461407379 0.05399690234813846 -0.03468069189548835 -0.0003662910313900936 
-0.01267644253031589 0.01905247408379276 0.008057263802643681 -0.001040373727376215 
-0.02050646203894459 -0.002103316702874143 0.02064731216376696 -0.009420778254966374 
-0.04907617092132571 0.04142134894590803 0.01221010129806724 -0.0159064660486414 
0.08401355643029679 -0.01542661884715349 -0.03331709092295306 -0.0001732825752754089 
0 0 0 0 
-0.04486940061514742 -0.1070796196509983 0.1396375545444192 -0.01897003868714378 
-0.02547557692793008 0.04566666042859328 -0.04524861655926377 -0.03652666805636333 
-0.02547557692793008 0.04566666042859328 -0.04524861655926377 -0.03652666805636333 
-0.0811866993536495 -0.01674104529181622 0.01818094474600261 -0.09162538136923157 
0.07727175457025529 -0.04454650221833398 -0.03318819495598586 -0.003748263793206582 
0 0 0 0 
0 0 0 0 
0 0 0 0 
0.05702264945934206 -0.04287888608220672 -0.01988045494598604 -0.004530211244047517 
0.002952583484355574 -0.111632848789945 0.04951613927413434 -0.07280273410405703 
0 0 0 0 
0 0 0 0 
0 0 0 0 
0 0 0 0 
-0.03957037796342332 0.04538818833207779 -0.04699930741830537 -0.04224102908708229 
-0.05232692133142166 0.08968540488510707 -0.08511243705063838 -0.04506154820997681 
0 0 0 0 
0 0 0 0 
0 0 0 0 
0.07593019194739702 0.06336459130116352 -0.04568421231162439 -0.0001030447752953243 
0 0 0 0 
0 0 0 0 
-0.01131225838959875 -0.03277447022819566 -0.02865449380816485 0.1153805153435481 
0.05952515414153287 -0.1106775875305541 0.07852408850872049 -0.01049998797348437 
0 0 0 0 
0 0 0 0 
0 0 0 0 
-0.01368128298783731 -0.04237038912056039 0.05122365456485319 -0.001113052168850704 
-0.01368128298783731 -0.04237038912056039 0.05122365456485319 -0.001113052168850704 
-0.04750967345953849 -0.03235502772781836 0.05185894745716473 -0.03531317828527571 
-0.04750967345953849 -0.03235502772781836 0.05185894745716473 -0.03531317828527571 
-0.04750967345953849 -0.03235502772781836 0.05185894745716473 -0.03531317828527571 
-0.04750967345953849 -0.03235502772781836 0.05185894745716473 -0.03531317828527571 
-0.04750967345953849 -0.03235502772781836 0.05185894745716473 -0.03531317828527571 
1.884985280544479e-05 -0.0212585260688164 0.04171752906767281 -0.001470883088513933 
-0.03089821425774534 -0.04464628207741937 0.04728191667718427 -0.01808082868831065 
-0.03555380951071756 0.06592741805226061 -0.05707108397087744 -0.03152272883536253 
0 0 0 0 
0 0 0 0 
0 0 0 0 
0 0 0 0 
0 0 0 0 
0 0 0 0 
0 0 0 0 
-0.01082808875761804 0.04817600398305445 -0.03392128350228672 -0.0009189238355836041 
0.07131523277347514 -0.03349897358353211 -0.04021207218784706 -0.003435635932998973 
-0.04342101208383487 -0.01475151827834779 0.03612927417196989 -0.02510374246604511 
0 0 0 0 
0 0 0 0 
0 0 0 0 
0 0 0 0 
0 0 0 0 
0 0 0 0 
0 0 0 0 
-0.01865470992653753 0.04330638693871106 -0.0467389026387624 -0.01623529222897151 
0 0 0 0 
0 0 0 0 
0 0 0 0 
0 0 0 0 
0 0 0 0 
0 0 0 0 
-0.03280632579593544 0.1066942554801207 -0.09512187006392972 -0.01288980133404318 
0 0 0 0 
0 0 0 0 
-0.0525674229926259 0.07254263804149011 -0.05619175864773554 -0.04821269969110823 
0 0 0 0 
0 0 0 0 
0 0 0 0 
0 0 0 0 
0 0 0 0 
-0.0271124330135067 0.0490078069078114 -0.0469072940885925 -0.01757063988591781 
0 0 0 0 
0 0 0 0 
0 0 0 0 
-0.0196522632226066 -0.04260671051071956 0.06828698583344599 -0.004495804400553556 
-0.02840099589638856 0.0756087554591011 -0.05897889467476397 -0.00828913889404494 
-0.0688436706791602 -0.08524931295726178 0.08945596473654202 0.07860539119386013 
0 0 0 0 
-0.01618085540547317 -0.02436097952025496 0.03107150125288542 -0.007841182408822651 
0 0 0 0 
0 0 0 0 
0 0 0 0 
0 0 0 0 
0 0 0 0 
0 0 0 0 
0.005679521061714415 -0.0002452875745996247 0.02630814594009788 -7.713562758647502e-06 
0.005179521995804744 0.04291167141796065 -0.02586662241168597 -2.662631873892264e-05 
-0.04320709102938913 0.07295151649645876 -0.03904459440976427 -0.006718587677232135 
-0.03959087894559718 0.0537450738794195 0.001619500859071842 -0.006736120540186671 
0 0 0 0 
0 0 0 0 
0 0 0 0 
0.07112672342375026 -0.02586024114343198 -0.007861102060839977 -0.0007928825359840554 
0 0 0 0 
0 0 0 0 
0 0 0 0 
0 0 0 0 
0.0486321795721741 -0.07718298727485012 0.01408108283136134 -0.0306203559588955 
0 0 0 0 
0 0 0 0 
-0.003573484383738289 -0.0051063445462403 0.122054357198574 -0.0001137818779578576 
0.04538408373118527 -0.03729005579328312 -0.0328734548535304 -0.02805048547847213 
-0.04890053418808245 0.04585133879456706 0.006462017818022806 -0.02373138218108876 
0 0 0 0 
0 0 0 0 
0 0 0 0 
0 0 0 0 
0 0 0 0 
0 0 0 0 
-0.01130983389697405 0.04507479199826159 -0.04353224102061663 -0.001922056321600427 
0.2068815353274874 -0.1342867425994866 -0.1029848232124347 -0.05740463639758847 
0 0 0 0 
0 0 0 0 
-0.001159625647141102 -0.01695583630503786 0.04905001562757655 -1.064670305983661e-05 
0 0 0 0 
0 0 0 0 
0 0 0 0 
0.05845597952842813 -0.006188327574688865 0.001688498191399337 -1.484479921929885e-05 
0 0 0 0 
0 0 0 0 
0 0 0 0 
-0.01959092256559206 0.05801267165306929 -0.05816040490065623 -0.005220572629758545 
0 0 0 0 
-0.006640442896084665 -0.04518578569963674 0.06113833650408061 -0.0005727778263663584 
-0.006640442896084665 -0.04518578569963674 0.06113833650408061 -0.0005727778263663584 
-0.02965640579093448 -0.07518105316229132 0.1123707630031568 -0.01254685200796396 
0.06977155589048482 -0.07492643919352122 0.03342976155176081 -0.00163576620280858 
0 0 0 0 
0 0 0 0 
0 0 0 0 
0 0 0 0 
0 0 0 0 
0 0 0 0 
0 0 0 0 
0 0 0 0 
-0.02983855496532887 -0.03913823044932858 0.05001619007344207 -0.006719404464705563 
-0.08203231371608483 -0.09121288458119878 0.1602536034684515 -0.01922504541284823 
0 0 0 0 
0 0 0 0 
0 0 0 0 
0 0 0 0 
0 0 0 0 
0 0 0 0 
0 0 0 0 
-0.04695303329996922 -0.03883511760982044 0.05728010185936788 -0.02302654802772 
-0.05845321781244839 -0.0390773244025637 0.05981459889962409 -0.05013334375490596 
-0.01944943703175832 -0.009814252377042254 0.02364261328001909 -0.0007534857408176428 
0.03834510590618685 0.006197451032330712 -0.05132966916954175 -0.009283196771175504 
0 0 0 0 
0 0 0 0 
0 0 0 0 
0 0 0 0 
0 0 0 0 
0 0 0 0 
0 0 0 0 
0 0 0 0 
0 0 0 0 
-0.03208428524893246 -0.03539313893147961 0.06075766134237548 -0.00260805802430153 
0 0 0 0 
-0.02032470941615367 0.06592347974461162 -0.04664484914787074 -0.0008860799700044662 
0 0 0 0 
0 0 0 0 
-0.03374453638343208 0.02723403804911697 -0.008802914572347376 -0.01595558156278855 
-0.06095157715371124 0.1575154803950978 -0.1234472507740685 -0.02674694766113318 
0.002619383241568034 0.04533597184816729 -0.03991225361753289 -1.026459758721838e-05 
-0.01055209756908013 0.04512293016540481 -0.009045413493478092 -0.001662945348179206 
0 0 0 0 
-0.03795433038419387 -0.01894260003209551 0.05173219768366526 -0.01791565961915271 
0 0 0 0 
0 0 0 0 
-0.03302889704439959 0.07490788636181324 -0.05044799516138555 -0.006940037543100184 
0 0 0 0 
0 0 0 0 
0 0 0 0 
0 0 0 0 
0.09998562945049275 -0.08833158982621193 -0.08681824147160849 -0.07657385227931039 
-0.02944008654058155 -0.04125232433502036 0.01530328241818718 0.1039129398251063 
-0.04650917750318115 -0.03750170764099775 0.05113833798381766 -0.04391617474102009 
0.09018403440751496 -0.04040377915146198 0.009484301080963445 -0.0008718808305929754 
0 0 0 0 
0 0 0 0 
-0.007030351178764014 0.002858423690699835 -0.003439048634162778 -0.002713917578920222 
0 0 0 0 
0 0 0 0 
0 0 0 0 
0 0 0 0 
0.09702993006875155 -0.09005597820250874 -0.0311480904032333 -0.02626224249226942 
0 0 0 0 
0 0 0 0 
0 0 0 0 
0 0 0 0 
0 0 0 0 
0 0 0 0 
-0.01348702008830928 -0.01680750890066577 0.04436541749800046 -0.003322717189903022 
0 0 0 0 
0 0 0 0 
0 0 0 0 
-0.0450932629749032 0.05586799733115293 -0.03440902955718075 -0.02691697135597075 
0 0 0 0 
0 0 0 0 
-0.03095578766597082 0.04814416806944952 -0.04312849084974748 -0.02185161652738223 
0 0 0 0 
0 0 0 0 
0 0 0 0 
-0.001175246399720657 -0.06428608271861683 -0.01403011198373526 0.1190539474730477 
-0.07435298374145458 0.03938619545282483 0.05800955252837961 -0.01514990220023131 
-0.07169081428601984 -0.05505809121610331 0.1079386070598422 -0.04808541844361576 
0 0 0 0 
0 0 0 0 
0 0 0 0 
0 0 0 0 
-0.03624727858409388 -0.04333583885067445 0.07189086174196568 -0.008578381577181077 
-0.03450631444086909 0.04584533925320243 -0.04637247002498766 -0.02766424475237991 
0 0 0 0 
0 0 0 0 
0 0 0 0 
0 0 0 0 
0 0 0 0 
0 0 0 0 
0 0 0 0 
0 0 0 0 
0.06545227553323876 0.0295948848162666 -0.06301997669315899 -0.001148222396256874 
0 0 0 0 
-0.0349139613395574 -0.04856863332191624 0.06498568887010732 -0.01463438291131727 
0 0 0 0 
0 0 0 0 
0 0 0 0 
0 0 0 0 
0 0 0 0 
-0.0218886885392503 0.1049126677621375 -0.08645830966937698 -0.008115273537949544 
-0.03241621406882448 -0.01885361531459769 0.02319069118252568 -0.01465324108837014 
0.06477575476497893 -0.02887624483792509 -0.04935285860310813 -0.004413178001029289 
0.06477575476497893 -0.02887624483792509 -0.04935285860310813 -0.004413178001029289 
0.06477575476497893 -0.02887624483792509 -0.04935285860310813 -0.004413178001029289 
0.06477575476497893 -0.02887624483792509 -0.04935285860310813 -0.004413178001029289 
0.06477575476497893 -0.02887624483792509 -0.04935285860310813 -0.004413178001029289 
-0.05856715894425719 -0.03761516806061541 0.08918902941717829 -0.03823054336404462 
-0.03331559333154585 0.01467807418558573 0.02236901328383785 -0.03432366360255577 
-0.1108247107867743 0.2473951282016146 -0.1433983683444059 -0.06033500304691528 
-0.100692196718166 0.01188907295409111 0.02384478485124177 -0.06206222718283352 
-0.01014749969476828 0.02561147593233152 -0.003058152032183926 -0.0002896576203641061 
0 0 0 0 
0 0 0 0 
0 0 0 0 
0 0 0 0 
-0.05114286865175568 0.01363555334608805 0.06682620245166959 -0.02909699115310308 
-0.02002212779991527 -0.01283440063302313 0.05144199039158869 -0.0007953534767420206 
-0.07918556800588981 -0.06833669877394606 0.2468087217390424 -0.02428234144216806 
