solver_type L2R_L1LOSS_SVC_DUAL
nr_class 4
label 1 0 3 2
nr_feature 3737
bias -1
w
-0.05357996445666557 0.04520177490996272 -0.1199088075944506 -0.1488743142431426 
-0.3183897296833072 0.2944949613629767 -0.3281009169703745 -0.3207811685365877 
-0.05401824369149922 -0.04341884486253392 -0.2143775382639228 -0.3738292121671212 
0.3016694880804042 -0.1938551500854349 0.0004064646025181591 -0.055113972818083 
0.5609297904284367 -0.4 -0.1002360065727848 -0.2 
0.1555963907266468 -0.1576483589555494 -0.04895914852996583 -0.2243416611086499 
0.02931394314678562 0.05377152179982801 -0.2920762337123554 -0.2685417730371336 
0.6588452263665873 -0.704680928656514 -0.07197452498796322 -0.1342971417054253 
0.6588452263665873 -0.704680928656514 -0.07197452498796322 -0.1342971417054253 
0.1 -0.1 -0.01534087739272909 0 
0 0 0 0 
0.04078868154566277 0.04426114707943229 -0.02286596846257559 0.04345563775401604 
0 0 0 0 
0 0 0 0 
0.09545597103406496 0.03641440452631696 -0.284036612348054 -0.1652179333616131 
-0.08862171633718202 -0.029403357631632 -0.1165757993012028 0.08140779691027046 
-0.1599025538471577 0.1782839285258969 0 0 
0.1821508985509571 -0.1734401385026395 -0.1386134950837413 -0.02506041199778509 
0.4150600934776396 -0.441624277064572 0.1617749831610375 -0.005234835614429448 
0.01444277701187224 -0.1386795556717876 0.02275760084608023 0.09476516438557056 
0.1023393276377956 -0.3418686014238934 -0.1422709406417417 -0.07436635826941598 
-0.0654858355053564 -0.07074384465134456 -0.02814329501989665 -0.04375625216430996 
-0.02510541653362261 0.03457074975770254 -0.2229326059769928 -0.2418164181071423 
-0.1976462782482925 -0.325697690655988 0.2349271443545159 0.1519200100433195 
0 0 0 0 
0.07452615700452474 -0.0849780264525429 -0.00179888650961969 0.04978570710290219 
0 0 0 0 
0 0 0 0 
-0.7629970092297423 0.9975022923599186 -0.3584702500076031 -0.2775952806978536 
0 0 0 0 
-0.1 0.2 0 0 
-0.03475578924399964 0.0917604962120997 0.01198609954589338 -0.09034452459493023 
-0.2437791242131318 0.2198465965458199 -0.1042362257935056 -0.2128118671087666 
-0.2390389983221277 0.2021129005968521 -0.111851785417307 -0.1551799420844499 
0 0 0 0 
0.07186648718496466 -0.03672006925131967 -0.1 -0.04684326074894232 
-0.1169767485575663 -0.04719789807035051 0.0899712976309906 -0.0675483092026618 
0 0 0 0 
0 0 0 0 
0 0 0 0 
-0.06129269833880283 0.2723705494613227 -0.2185578228128689 -0.2749410037500475 
0.002239070320070112 -0.1518405569594095 -0.09377439720538722 0.05770460388137885 
-0.1348016877653791 0.253286614540688 -0.2450101049541221 -0.1890937840315989 
-0.06553657480241888 0.09443944650802261 -0.05658815903287665 -0.03951198188135979 
0.07780390450668488 -0.1758270926886298 0.02607293528305507 -0.08028254761673258 
-0.07535901111094728 0.01549560288675561 0.05779155001546549 -0.05912899435530137 
0.3126721411534849 -0.2815567262802363 -0.104214863118951 -0.1849239453810567 
-0.1506970841419062 0.255999429932353 -0.02477908380100616 0 
0.00866985003714482 -0.3147797741673303 0.1456334319225433 0.03921095539564523 
-0.06469732069987078 0.08650541547274125 0.0295574026449263 -0.03951198188135979 
-0.1 0.07137402101231199 -0.05658815903287665 -0.03951198188135979 
-0.1 0.07137402101231199 -0.05658815903287665 -0.03951198188135979 
-0.08379528407254547 0.1846555287567581 -0.1760080519136406 -0.1395119818813598 
-0.03345337456694111 0.08579014147842318 -0.06821652019760742 -0.08210885857325587 
-0.2604905370160958 0.01808904151252298 -0.1355904344439223 0.1538576002088343 
-0.1155039425363964 0.1716997790625354 -0.1 0 
0.03086701616120462 -0.1003406368017846 0.1455281730002009 0.1709406472799981 
-0.01147057849013827 0.1365959238399015 -0.1072687027729472 -0.07609656078712468 
-0.03558713211514826 0.06741868142605134 -0.005452593092835625 0 
0.4151525160803069 -0.4696841492308387 -0.1769272794393947 -0.138648565761062 
-0.2185055933540905 0.1851784120532488 0.1662823351732041 0 
0.05379768611891054 -0.03873925158587115 -0.2511723980960525 -0.247180378698742 
0.01408919426389709 -0.1301590427251106 -0.04365569914413624 0.06222443408273676 
0.03972783325055648 -0.2675719448963015 -0.07231462519036573 0.1821773822816662 
0.04377011476327779 -0.03826388681138872 -0.2202530819910397 -0.2643202535633971 
0.06150941609281415 -0.1559075930315938 -0.07258292493129215 -0.008243550854997252 
-0.08325528408403285 0.07102073288508391 -0.08453399232553574 -0.08205839445398429 
0 0 0 0 
-0.1971862979818315 0.2154062435872365 0.06421607163041251 0 
-0.1594857646773293 -0.10463448022631 0.167596697647681 -0.02819818285114158 
-0.04196279488681341 0.1 -0.03578392836958748 0 
-0.3045031451525322 0.2810544750284681 -0.2367120466215787 -0.2064295538994831 
-0.7565054577253554 0.9949837008056219 -0.3584702500076031 -0.2775952806978536 
0.09988584996362236 0 0 0 
-0.09995927425129784 0.09999999999999999 0 0 
0 0 0 0 
0 0 0 0 
-0.03113595265559336 0.004704276322522794 0 0 
0.001105503161278502 0.004704276322522795 -0.01553555894620184 0 
-0.03113595265559336 0.004704276322522794 0 0 
-0.03113595265559336 0.004704276322522794 0 0 
-0.03022373891249359 0.03831490605779297 0 0 
0.02488633325821995 -0.02322855481696551 0 0 
-0.0989741698502328 0.02691441004876073 -0.1588073910142431 -0.2066839456919081 
-0.2294486233727611 0.198141511383296 -0.06707185448377437 -0.1132396862623125 
0.01743090425605488 0.05003617803746754 0.04331542571171808 0 
-0.03113595265559336 0.004704276322522794 0 0 
-0.1348074036215168 0.1042137492061043 -0.01657579930120279 0 
-0.04682259952274736 0.0999946301523445 -0.0870312212971814 -0.150359979581341 
0.07332087753459307 -0.1785351340961982 0.08299757986741436 -0.09967920382904344 
-0.1311359526555934 0.1047042763225228 0 0 
0.04465692486101185 0.002492289236424901 -0.04842573196930409 0 
-0.03113595265559336 0.004704276322522794 0 0 
0.1 -0.1 0 0 
-0.01883534583794103 -0.07978863642912795 -0.2013223392880869 -0.1690220023620546 
0.04934728172828024 -0.1701143293171039 0.002505852830072198 -0.0780019303945349 
-0.1 0.1 -0.01083917900124534 -0.02533864824844211 
0 0 0 0 
0 0 0 0 
0 0 0 0 
0 -0.1 0.1 0 
0.07009077633186199 -0.01662876307800572 -0.03670551704227859 -0.01498447590758847 
0.03801192561338991 0.0925216337292504 -0.1071512354225257 -0.1524404034816935 
0 0 0 0 
0.1540186990956976 -0.1193612088763774 -0.07204419981472138 -0.09967920382904344 
0.2 -0.1 -0.08134831752641987 0 
0.1999999999999999 -0.2274612242257787 0.06507140973209591 0 
0.1892594491533173 0.003709981694646736 -0.1208293845383981 -0.003186975231070291 
0 0 0 0 
0 0 0 0 
0.03368389964473825 -0.0546841882824582 0 0 
0 0 0 0 
0.2663954414261416 -0.1367200692513197 -0.01345110856363788 -0.05776693090400901 
-0.2282875534779416 0.09999999999999999 0 -0.0190932854326371 
0 0 0 0 
0 0 0 0 
0.1344666241090004 0.01448176280636676 -0.07120334901295944 -0.1 
-0.04101017406472875 0.06518433253079751 0 0 
0 0 0 0 
0 0 0 0 
0.1125048593441236 -0.2867967516499005 0.171550990315506 0.1769425466672368 
0 0 0 0 
0.1333950752211667 -0.1006379956362034 -0.1267091750557598 -0.127076857520778 
0.2126159686504304 -0.1662443966973476 0.01217020894598503 -0.1 
0.1951678429116591 -0.1030261675452574 0.04599815573199278 -0.03010290518206231 
-0.1 0 0.1 0 
0.1454697618275776 -0.07861053677731702 0.04249966708848971 0 
0.07512909919700207 -0.126737383575566 -0.01866536319815905 -0.1565443622459839 
-0.08487544502723082 0 0.06579775508524792 0 
0 0 0 0 
-0.09547075144499734 0.1335130975929763 0.02183365940794305 -0.02943706231209837 
-0.1464853918638746 -0.2722117891777393 0.09087985593778715 0.03423828444410559 
0 0 0 0 
0.09438986334778204 0.007242820961861218 -0.2919667363975972 -0.1403981584804993 
-0.1382156496278367 0.1845806979767129 -8.673617379884035e-18 0 
0 0 0 0 
-0.1 0.1 -0.00319565172731525 0 
0 0 0 0 
0 0 0 0 
0.1388158841209216 -0.1677995271410372 -0.03417856621272874 0.04598093991432419 
0 0.05369066152116372 0 0 
0 0 0 0 
0.0775264129321281 -0.1860510197486999 -0.04719344112024688 0.06275647495287102 
0.03550885128741673 -0.1247483140801196 -0.1422190477228358 0.02058352096615216 
-0.1866769501108246 0.2839201226261404 -0.005452593092835618 0 
-0.03394632593665179 0.05130216731786588 0 0 
0 0 0 0 
0 0 0 0 
-0.191050846763872 0.1727281480503886 -0.01156762183018034 -0.1 
-0.1371784286745663 0.1604511973022761 -0.0416861325525316 -0.005429364571121279 
0 0 0 0 
0 0 0 0 
-0.05990255384715765 0.07828392852589684 0 0 
0 0 0 0 
0 0 0 0 
-0.002598318138062633 0.07858066722759817 0.03906898523614961 -0.1028827984711211 
0 0 0 0 
0.1577329631305248 -0.07268837552440818 -0.04056869505751511 -0.06439990313327373 
-0.3469983035689063 0.3374421912941563 0.03764269022825458 -0.05305446635245654 
0.2125533261566381 -0.2374267539553993 -0.001231937227453673 -0.1417442669618822 
-0.05184132293013616 0.100340530397233 0 0 
-0.1983126707171677 0.2 -0.05082145317616184 -0.01782261771833378 
-0.4362139142090886 0.3995884020907616 -0.3301185107223513 -0.3374420697751982 
0 0 0 0 
0 0 0 0 
0.2398529501786457 -0.06645164609620383 -0.1313727506542123 -0.1170413849393081 
0.01961884826768311 -0.0792856214843536 0 0 
0 0 0 0 
0.05277645762601643 -0.03885648303951052 0 0 
-0.04816598068230534 0.01425424977637084 0 -0.0004165651505256375 
0 0 0 0 
0 0 0 0 
0.1732480486067135 -0.005866644940632991 -0.0556801845870756 -0.009914310823424217 
0 0 0 0 
0.2962787341993485 -0.2704715633626852 -0.2124208965233853 -0.2078990885749349 
0.1 -0.04630933847883628 0 0 
0.1 -0.1 0 0 
0 0 0 0 
0 0 0 0 
-0.1 0.1 -0.1 -0.08311352085114636 
0.06323682574002303 0.03114029452481926 -0.1377583779661001 -0.08311352085114636 
-0.1048863433137567 0.1111379578703291 -0.1 -0.08311352085114636 
0.1207802845685378 -0.3281207279397866 0.07900615396150953 -0.06698679383874052 
-0.05058931687288602 0.1057945069753635 -0.1 -0.1831135208511464 
-0.004164604311729768 0.03677048668043195 -0.1 -0.08311352085114636 
0.1527764576260164 -0.06678741219958935 -0.09774428125456262 -0.1 
0.1598116098595646 -0.04201085738602955 -0.03156888607434648 -0.0387977226818313 
-0.1 0.1 0 -0.01356823727005987 
0 0 0 0 
0.03972063342796888 -0.1174302857882664 0.1384867420232966 -0.05770851500166309 
0.2374776151829538 -0.2599877899744756 -0.003429315746089849 -0.0334941793799803 
0 0 0 0 
0.1 -0.2000000000000001 -0.005968938739900396 0.1 
-0.06307612068157963 0.09370621602171073 1.734723475976807e-18 0 
0 0 0 0 
0 0 0 0 
0 0 0 0 
0.2480318266917783 -0.4064701844237606 -0.1134511085636378 0.042233069095991 
0 0 0 0 
-0.1130321803418693 -0.06336439695634445 -0.1423986409771304 0.07633819205599511 
0 0 0 0 
0.01521673885389409 0.03549859315491635 -0.1949067797143864 -0.08741426722485776 
0 0 0 0 
0.09857033036835702 -0.1 -0.005773114002457252 0 
0.07441968549173429 -0.01943194796992051 0 0 
0 0 0 0 
0 0 0 0 
0.2785074557108084 -0.2172242024392081 -0.1304379632358399 -0.06271937192537974 
0 0 0 0 
0.1 -0.1 -0.1 -0.1 
0.1 -0.1 -0.1 -0.1 
0 0 0 0 
-0.1475293563878631 0.2801905923264671 -0.1345722398467395 -0.02471296443787906 
0 0 0 0 
-0.3478092494359043 0.4617538655770711 -0.1515472594788166 -0.04025555016119506 
0.005165335363455398 0.01654281365602683 0.04770409964162476 -0.0480799899566806 
-0.3901694930366374 0.09576226527598065 -0.06474453880016667 0.03293730092110735 
0 0 0 0 
0.04139343212517832 -0.1817560104219619 0.2 0 
0 0 0 0 
-0.1420922246039681 0.1974614702932705 -0.0904352209168225 -0.04931963597831703 
0 0 0 0 
-0.02626100842187044 0.06238114757932153 0 0 
-0.2644847377558605 0.1453127905540633 -0.1281038800569075 -0.05305446635245654 
0 0 0 0 
0.08125122497498036 0.009622572055778662 -0.03810191208909912 0 
0.04787148669728425 0.08845588986659907 -0.04079410310052801 0 
-0.160612962664578 0.2380535898484394 -0.01247221539603823 -0.003991037941487564 
0 3.469446951953614e-18 0 0 
-0.3421012671661617 0.2816274877479764 -0.1852449125169615 0.05858952908882956 
-0.2 0.2068942951259233 -0.02071478052742081 0 
-0.410882744682361 0.2785677559416856 -0.08133181966591164 -0.299581094256656 
-0.4903191221748234 0.1862116722202417 -0.491491159491102 -0.3909092925522298 
-0.1 0.1039906950983152 -0.005732602377668872 -0.02346631943727326 
0.2 -0.2 -0.09599879465278464 -0.01278399581640042 
0.1 -0.1 -0.06136959818315237 0 
0.1 -0.1 -0.06136959818315237 0 
0.1 -0.1 -0.06136959818315237 0 
0.2368587708457824 -0.2485960607228821 -0.1447837320610367 -0.1762165718468762 
-0.003326053228945493 -0.1618287708554783 0.1299929613225455 -0.07868660349141478 
0.039570236298389 0.05130216731786588 0 0 
-0.03394632593665179 0.05130216731786588 0 0 
0.06605367406334819 -0.04869783268213412 -0.1 -0.08317816977237322 
-0.03394632593665179 0.05130216731786588 0 0 
-0.03394632593665179 0.1513021673178659 0 0 
0.5513287610406873 -0.4084445848799768 -0.1386351383669235 -0.113304669577304 
0.1 -0.1 0 0 
0.03482451653389568 -0.06282271663696354 0.0442076811732004 -0.04537017532838686 
-0.1 1.301042606982605e-18 0.1 0 
0.1669838682797155 -0.1108872978936608 -0.01851404739668961 -0.09384642209340553 
0 0 0 0 
0 0 0 0 
-0.04210126716616172 0.06140104486160777 -0.1 -0.1 
0 0 0 0 
0 0 0 0 
0 0 0 0 
0.221812130207863 -0.2353723682123819 0.02484015721208854 0.1 
-0.2 0.2 0 0 
-0.1927938552361435 0.2 0 0 
-0.1 0.1 0 0 
0 0 0 0 
-0.1 -6.938893903907228e-18 0 -0.05910450270345598 
0 0 0 0 
0 0 0 0 
-0.2086035050917323 0.2782839285258969 0 0 
0 0 0 0 
0 0.01931706763738308 -0.02185424771050856 -0.02210450701465257 
-0.06537642411927286 0.1624244752468684 -0.0904352209168225 -0.04931963597831703 
-0.1 0.1406320905788737 0 0 
0 0 0 0 
0 0 0 0 
0 0 0 0 
-0.07552662142146332 0.1453571148095633 -0.01672098979807157 -0.1033807112148974 
0.4464948386342298 -0.3589425941513465 -0.002678085599810145 -0.01901794224192661 
-0.02319071419192282 -0.03427890831247946 0.1 0 
-0.1182784563710155 0.2483933367498127 -0.07977279422672018 -0.1187724892616805 
-0.1449885386421533 0.1763563017430945 -0.1302721655567579 0.04868320290168594 
0 0 0 0 
0.1393740131605578 -0.1208633763601274 -0.05186584093744279 -0.03010290518206231 
0.1581187826597189 -0.1 -0.07171115164416539 0 
-0.06062598683944217 0.07913662363987257 -0.01083917900124534 -0.02533864824844211 
0 0 0 0 
0 0 0 0 
0 0 0 0 
0 0 0 0 
0 0 0 0 
0 0 0 0 
0 0 0 0 
0.2054897114074603 -0.2228196825554699 -0.01796521797833196 0 
0 0 0 0 
0 0 0 0 
0 0 0 0 
0.2716624285234842 -0.142370609057358 -0.005732602377668864 -0.02346631943727326 
0 0 0 0 
-0.2483700393437858 0.1066714393322444 -0.03702070123093373 -0.0004165651505256418 
0.02157424037018258 -0.004575871149586479 0 0 
0 0 0 0 
0 0 0 0 
0.07920525541541709 -0.0935912918769969 8.673617379884035e-19 0.1 
0 0 0 0 
0.1334669000165955 0.01884670919271682 -0.06010676906749198 -0.06631168704649086 
0 0 0 0 
0.190808195105638 -0.1273841495176148 -0.02980480857927607 0 
-0.01955256832439387 0.1164994409240106 0 0 
0.07707738540445427 -0.06622110617171983 0 0 
0.1825461208171676 -0.1566695690370593 0 0 
-0.1231907141919228 0.06572109168752055 0 -0.03820302779397571 
0.03942925046618516 -0.02293927854363472 -0.004263398267294356 0 
-0.2444566744074595 0.2661931536589869 -0.1756507806001375 -0.04893256648073064 
0 0 0 0 
0 0 0 0 
0 0 0 0 
0 0 0 0 
0 0 0 0 
-0.2798479590730821 0.3397088058220978 -0.1 -0.05910450270345598 
0 0 0 0 
0 0 0 0 
0 0.004674044148341035 0 0 
0 0 0 0 
0 0 0 0 
0.02088187930797145 0.0551663913036788 0 0 
-0.00366694228783712 0 0 0 
0 0 0 0 
-0.004447647134729774 0.1 0 0 
-0.1346047178423156 0.1698922314860734 0 0 
-0.2319797594084395 0.3322406381383678 -0.06656777961055674 -0.06090553718873822 
-0.1 0.1 0 0 
0.1560764838545778 -0.04535531733699832 -0.05802212703096703 -0.06663248321744743 
0 0 0 0 
0 0 0 0 
0 0 0 0 
0.06567038917621179 -0.04785563429205004 0 0 
0 0 0 0 
-0.1 -0.05864858078789843 -0.005036258411385528 0.1 
0 0 0 0 
-0.1578774627350577 0.117799647361248 0.1 0 
0.1299513988456548 -0.04366974202064652 -0.06964508626036009 -0.02904486807804705 
-0.02297720048778157 -0.02515224385344689 -0.05186584093744279 0.06989709481793768 
-0.05561401858889169 0.1373121157454091 -0.06850516834748788 0 
0 0 0 0 
0 0 0 0 
-0.003049606612302444 -0.02101685407837137 0.03843293565678176 -0.002070174076288706 
-0.2 0.1 0.1 0 
0 0 0 0 
0 0 0 0 
0.1 -0.1 -0.1 -0.01859220308972954 
-0.06572300660967165 0.03157274283450872 0.0664745825952503 0 
0.1004718453992582 -0.1 -0.03226918202781051 -0.06729348109377609 
-0.1 0.1 -0.1 -0.1 
0 0 0 0 
-0.01302913048871646 -0.0618842972613291 0.1 0 
0.07009077633186199 -0.01662876307800573 -0.03670551704227859 -0.01498447590758847 
0.06642153980700985 -0.03586789620832225 0 0 
-0.1 0.1 -0.009709969580046282 -0.02540766971255034 
-0.1455546342861843 0.1 -0.009709969580046282 -0.02540766971255034 
-0.0763141207448282 0.07018223054269855 -0.009709969580046282 -0.02540766971255034 
0.05078046313402126 -0.09937575217407693 -0.1003728843670625 0.01244474538343939 
-0.1 0.1 -0.009709969580046282 -0.02540766971255034 
0.03667463738577168 -0.073783609554082 0.05022929318769181 -0.03330675828748522 
0.07918854145811367 -0.03534054568531855 -0.009709969580046288 -0.02540766971255034 
0.008849921393138518 0.1623280734547393 -0.005732602377668872 -0.02346631943727326 
0 0 0 0 
0.1 -0.1 0 0 
-0.2111550228200036 -0.0683142919266399 0.1677640194764753 -0.1680262247542293 
0.1 -0.1 0 0 
6.938893903907228e-18 0 0 0 
-0.1876914500526741 0 -0.06991817822246865 0.1 
-0.04743497361829839 0.1436496033821249 -0.008022323637290182 0 
-0.1 0 0.1 0 
0.06258669862307052 -0.1768772484267056 0.06688671188617663 0.07902489503650248 
-0.4305804399910351 0.3741196348551731 -0.1058598898418471 -0.1320188178380768 
-0.07123888498388439 0.07063031910628763 -0.0237463097204886 0 
0 0 0 0 
0.365338693611201 -0.1755641641543619 -0.1731487247253428 -0.08387327298759417 
0.1426700693192206 -0.2191170955561412 0.1476428553037428 0.0587649357307246 
0.1 -0.1 -0.01338690154000989 0 
-0.000284410782328836 -0.06566794255280983 0.006787538382523509 -0.04091603637785214 
0.07078875865009263 -0.1785611553473473 0.1623311760009702 -0.09384642209340552 
-0.02602337498445523 0 0 -0.003186975231070291 
-0.1415648049123688 0.2014300309047881 -0.1 -0.1031869752310703 
-0.02602337498445523 0 0 -0.003186975231070291 
-0.02602337498445524 0 0 -0.003186975231070291 
0 0 0 0 
0 0 0 0 
0.06343290275316557 -0.1225881722180515 -0.05976182318533294 0.1 
0.05277645762601643 -0.03885648303951052 0 0 
0.119113218064002 -0.1313262705852693 -0.01676453192760966 0 
-0.1059515435026993 -0.05307802362334818 0.2 0 
0.1343051861539287 -0.1080026456068548 -8.673617379884035e-19 0 
-0.08487544502723081 -0.05007645697261032 -0.01123678693311266 0.006153577906594473 
0 0 0 0 
0.1022501948402949 -0.128477573609123 -0.01338690154000989 0 
0 0 0 0 
0 0 0 0 
0.1534472916677839 -0.09602835082236076 0 0 
0 0 0 0 
0.3521889943126222 -0.2616161775410266 -0.2831145886497519 -0.2162136360223423 
-0.1006076106584513 0.06155345727248576 0.1 0 
0 0 0 0 
-0.004206525762221235 0.02715137386890905 -0.005895758787061863 -0.01913055725462284 
-0.1411757631557559 0.1141311207925932 0.06355170394660822 -0.005234835614429448 
-0.03311423814621979 -0.03556259078298084 0.1 0 
0 0 0 0 
0 0 0 0 
0 0 0 0 
0.1 -0.1 0 0 
-0.004158786615325167 0.001430030904788084 0 0 
-0.07887612328079742 0.01981910672340234 -0.03011851072235128 -0.005429364571121279 
-0.1734964789929727 0.1804180167904452 0.1618176617476161 0 
-0.05415526645916284 -0.1004959796099431 -0.01289682473334166 -0.07158748342922094 
0.1 -0.1 0 0 
0.03452953869228585 -0.04186146389002768 0 0 
0.03720288975094416 0.0130711001212893 -0.06574881411934189 0 
0 0 0 0 
0.1 0 -0.1 -0.0417442669618822 
-0.1 0.1 0 0 
0 -6.938893903907228e-18 -0.01534087739272909 0 
0 0 0 0 
0 0 0 0 
0 0 0 0 
0.2424879874249966 -0.2264811319219226 1.734723475976807e-18 -0.0004165651505256375 
0.01551295254232822 -0.03889190054531676 -0.1 -0.04684326074894232 
0 0 0 0 
0.07384875599201891 -0.03094659393455909 -0.1000101150810468 0.03296156958658068 
0 0 0 0 
0 0 0 0 
0 0 0 0 
0.121591975038102 -0.1142055635535314 0 0 
0 -0.07979345472861092 0.1 0 
0.1305664821062453 -0.1835281115168087 0.1632944829577214 -0.01498447590758847 
-0.08335408840657552 -0.314699382557232 0.3011864896021664 0.07798814051659583 
-0.1130321803418693 -0.06336439695634445 -0.1423986409771304 0.07633819205599511 
0 0 0 0 
0 0 0 0 
0 0 0 0 
0.02698374521809842 -0.07665791933287118 0 0 
-0.2514961715058004 0.2482697912798515 0.1796303466788219 0 
-0.1916368344524207 0.1678154582895406 0.1 0 
-0.1 0.1 0 0 
-0.2786425980310331 -0.05328685518034378 0.108543182281894 0.1914939697341113 
-0.1 0.1 0 0 
-0.1 0.1 0 0 
-0.2193010499674223 0.1902856894938172 0.08058010711923601 0 
0 0 0 0 
-0.1983126707171677 0.2 -0.02849609195661969 0 
0 0 0 0 
0 0 0 0 
0 -0.002538529706729603 0 0 
0 0 0 0 
-0.1 0.1 -0.01156762183018034 0 
0.2718664871849645 -0.1862384914806302 0 0 
0.2 -0.1926816407189037 0 0 
0 0 0 0 
0.05811878265971888 0 -0.07171115164416539 0 
0 0 0 0 
0 0 0 0 
-0.01511117113390003 0.02831345263097135 0 0 
-0.1472235423739836 -0.03885648303951051 0.1 -0.009916301054456369 
0 0 0 0 
0 0 0 0 
0 0 0 0 
-0.2625371074480783 0.3468518182793648 -0.2284811694539801 -0.2720772783444894 
0 0 0 0 
0 0 0 0 
0 0 0 0 
0.03005197110881146 -0.2279501000183977 0.2664709361447808 0 
0.1634329027531656 -0.1225881722180515 0 0 
0.04969001285015848 0.0641321037916778 0 0 
0 0 0 0 
8.673617379884035e-18 0.02203740311620272 0 0 
-0.2114782293321809 0.1045656423548155 -0.03137793858926469 -0.09552090950376259 
0 0 0 0 
-0.2999999999999999 0.2860700661245568 -0.2 -0.1382030277939757 
-0.01402642884663033 -0.004579291676150379 -6.938893903907228e-18 -0.08387327298759417 
-0.1315470348190756 0.265601945227703 -0.1167645319276096 0 
0 0.006894295125923292 0 0 
0 0.006894295125923292 0 0 
0.09699522645686312 -0.02844625055939524 -0.0549170254421729 0 
-0.05286555555630441 0.136770486680432 0 0 
0 0 0 0 
-0.1113203505825316 0.1942551952908543 -0.06068594772499629 -0.02225904913954052 
0 0 0 0 
-0.1227123029937306 0.2048759568532744 -2.602085213965211e-18 0 
0 0 0 0 
0.06602970170769938 -0.03855695697841687 0 0 
0 0 0 0 
0 0 0 0 
0 0 0 0 
0 0 0 0 
0 0 0 0 
0.06445382712367133 -0.009447345977200618 0 0 
0 0 0 0 
0 0 0 0 
0.01858610897632623 0.03648637491173506 -0.009243524854804333 0 
-0.07023344363309707 0.1302080198220283 -0.05568018458707558 -0.009914310823424213 
0 0 0 0 
0.06441286788485173 -0.001441024049129422 -0.02221712502044528 0 
0.05250634962494962 0.03313913535703365 0 0 
-0.1 0.1453319017149447 -1.734723475976807e-18 -0.02819818285114158 
0.06047570577438326 -0.007312438981581093 -0.1 -0.0298231969602536 
-0.1549368988988626 0.3 -0.05167546883957996 -0.05195357765865214 
-0.1 0.1 0 0 
0.01551295254232822 0 0 0 
-0.1021414985163226 0.2111052865971672 0.05629654761495084 -0.0004059471959718978 
-0.02035516774606318 0.07413658455043388 0 0 
-0.02035516774606318 0.07413658455043388 0 0 
-0.02035516774606318 0.07413658455043388 0 0 
0.2547990393454216 -0.4672765557465468 -0.08938160136162455 0.102352963134047 
0 0 0 0 
0 0 0 0 
0 0 0 0 
0 0 0 0 
0 0 0 0 
0.1 -0.07161483170891936 0 0 
0 0 0 0 
-0.1 0.1 0 0 
-0.04440467945830102 -0.1160780522492846 0.1 0.07048966784947849 
0 0 0 0 
0.1150663738502167 -0.06032346510350572 -6.938893903907228e-18 -0.08387327298759417 
0.03509985272651982 -0.2052317487100453 0.09289320449229296 0 
-0.1968363150268505 0.2575649074252412 -0.01371714970083605 0 
-0.1309663116904612 0.1953821247873935 0 0 
0.3366318903141695 -0.1040284014570972 -0.01876244537161998 0 
0 0 0 0 
0.1611646936714073 -0.1330198982011991 -0.1018394284157878 0 
-0.009989556553825059 0.01931706763738307 -0.0904352209168225 -0.04931963597831703 
-0.1 0.0637306880625859 0 0 
-0.0005470112076093742 0.04639364954356924 -0.1 -0.1 
-0.1 -0.01506035097450307 -0.01156762183018034 0.1 
0 0 0 0 
0 0 0 0 
-0.3067765802162877 0.328176945219036 -0.1611162933912845 -0.1325387170379426 
0.04126080620787063 -0.2482636554405258 0.09999999999999998 -0.05511397281808302 
0 0 0 0 
0 0 0 0 
0 0 0 0 
0.04388896993985084 0 0 0 
0.1 -0.1 0 0 
0 0 0 0 
0.1 -0.1 -0.1 -0.1 
-0.1225020324161965 0.1 0 0 
-0.00366694228783712 0 0 0 
0.04929636971765164 -0.07371267112399331 0.01532532915925948 -0.03010290518206231 
0.2 -0.1528588605403027 -0.05186584093744279 -0.03010290518206231 
-0.1 0.02584663858435104 0.04813415906255723 -0.03010290518206231 
0.2321132264838724 -0.2165142205221876 -0.09806813499383707 -0.07239830130068349 
0.1133852520130184 -0.3162790577117451 -0.1378294595539217 0.05931031715765217 
0 0 0 0 
0 0 0 0 
0 0 0 0 
0 0 0 0 
0 0 0 0 
0 0 0 0 
0 0 0 0 
0 0 0 0 
0.0530360182232892 -0.08592630592142909 -0.002131699133647178 0 
0 0 0 0 
-0.2 0.2 -0.1 -0.03820302779397571 
0.4982252218055839 -0.2689349606863531 -0.04678454899224244 -0.02623334513032269 
0.4170574287493679 -0.3634412031895884 -5.177065373618284e-18 -0.08387327298759417 
-0.01132035058253157 0.09425519529085424 -0.04911832589481594 -0.02225904913954052 
0.09496002684502604 -0.03680374519437388 0 0 
0.1095722783888569 -0.1831130836732102 -0.1 0 
0.1549022886696658 -0.01473275556233809 -0.0717111516441654 0 
-0.01926879044362862 -0.00364366586282784 -0.09207226603638627 0.04687950883861265 
0 0 0 0 
0.1322414558168719 -0.06885970547518078 -0.0323000908738115 0 
0 0 0 0 
0 0 0 0 
0 0 0 0 
-0.1877176414310696 0.2 0 0 
0 0 0 0 
0.1 -0.1 0 0 
0 0 0 0 
0 0 0 0 
0 0 0 0 
0.0910230971350058 -0.01793274241203572 1.734723475976807e-18 0 
0 0 0 0 
-0.104622608494049 -0.06517419735157573 -0.0265883625334468 -0.12765424411793 
-0.002900324392177793 -0.0004656353147866679 -0.07120975879636675 -0.02064699015335081 
-0.01268420297050783 0.05549207386247842 -0.05927161458335109 0 
0 0 0 0 
0 0 0 0 
0.1 -0.0892630676344686 -0.1 -0.07436635826941598 
0 0 0 0 
-0.09446180363558308 0.1 0 0 
0.1 -0.04630933847883628 0 0 
-0.09627030939590875 -0.3 0.02297502626982431 0.1 
0 0 0 0 
0 0 0 0 
0.1 -0.09825104907999538 -0.02036965332117815 0 
0 0 0 0 
0 0 0 0 
0 0 0 0 
0 0 0 0 
-0.1 0.1 0 0 
-0.160494310311414 0.1081363297103931 0.1015424554458873 -0.04931963597831703 
0 0 0 0 
0 0 0 0 
0 0 0 0 
0.1168554404452961 -0.07129850296574414 -0.1423277504201133 -0.09834076609587823 
0 0 0 0 
0.01411414300117479 0.04237164921826774 -1.734723475976807e-18 0 
-0.07631412074482818 0.07018223054269854 0 0 
0.1532054391487104 -0.04997804378369741 0 0 
0 0 0 0 
0 0 0 0 
0 0 0 0 
0 0 0 0 
0.1 -0.1 0 0 
0 0 0 0 
0 0 0 0 
0.1 -0.1 -0.01534087739272909 0 
3.469446951953614e-18 0 -0.0207147805274208 -0.08387327298759417 
0 0 0 0 
0.05811878265971888 0 -0.07171115164416539 0 
0.05811878265971888 0 -0.07171115164416539 0 
0 0 0 0 
-0.08771764143106964 0.1 0 0 
-0.06598480674774743 0.02308350316996863 -0.1083607442168155 -0.01564886494943993 
0 0 0 0 
-0.05990255384715765 0.07828392852589684 0 0 
0.3724794874597562 -0.2733686538694712 -0.2186941052627636 -0.1491255538494804 
0.02527978419742176 0 0 0 
0.02212624425880562 -0.02171607147410316 0 0 
0.02527978419742176 0 0 0 
-0.07938959662557443 0.06898421241443548 -0.05272805194463111 -8.673617379884035e-18 
0 0 0 0 
0 0 0 0 
-0.1503621949839694 0.1644374092170192 0.04331542571171808 0 
-0.1044045797417086 0.06542516679993404 0.03417498036380254 -0.04141047091117046 
-0.2 0.2088110131162599 0 0 
0 0 0 0 
6.938893903907228e-18 0 -0.01534087739272909 0 
0 0 0 0 
0 0 0 0 
0 0 0 0 
0.2294754679947199 -0.1799886678469498 0 0 
0 0 0 0 
0 0 0 0 
0.233154224253642 -0.1170540850720804 -0.01876244537161997 0 
0 0 0 0 
0 0 0 0 
0 0 0 0 
-0.1556162705624163 -0.03556259078298084 0.2 0 
0 0 0 0 
-0.2996971087381704 0.2701206261149772 0 -0.107832759124078 
-0.04200893459089951 0.0531474646382059 0 0 
-0.05769670403992036 0.08355759389041847 0 0 
-0.07699775400734271 0.04046467845436828 0.1 0 
-0.05769670403992036 0.08355759389041846 0 0 
-0.03780421808942784 -0.003226168646021909 -0.0491888793717553 -0.1354924372757464 
0.04230329596007965 0.01194276218149912 0 0 
0.01239407229194163 0.06692883081241274 -0.03670551704227859 -0.01498447590758847 
0.01239407229194163 0.06692883081241274 -0.03670551704227859 -0.01498447590758847 
-0.0009476901313788602 -0.01644240610958153 0 0 
-0.05769670403992036 0.08355759389041847 0 0 
-0.05769670403992037 0.08355759389041847 -0.1 0 
-0.05769670403992036 0.08355759389041847 0 0 
-0.05769670403992036 0.08355759389041847 0 0 
0 0 0 0 
0 0 0 0 
0 0 0 0 
0 0 0 0 
0 0 0 0 
-0.08682927599187457 -0.1 0.1 -0.0480799899566806 
-0.08682927599187457 -0.1 0.1 -0.0480799899566806 
-0.1354031936138054 -0.1 0.2 -0.02951033215052151 
0 -0.05007645697261032 0.02296545798163942 -0.09384642209340553 
0 0 -0.1 -0.04185520798341803 
0 0 0 0 
0 0 0 0 
0 0 0 0 
0 0 0 0 
-0.1 0.1 -0.08198922841672822 -0.02437027786740309 
0 0 0 0 
0 0 0 0 
0.06591988852324321 -0.02941930553185707 0.07185701970812794 0 
-0.1036669422878371 0.09999999999999999 0 0 
0 0 0 0 
0 0 0 0 
0 0 0 0 
0 0 0 0 
0.1869445528060879 -0.1404865193053671 -0.03380438133230944 0 
0 0 0 0 
0.1299316076378111 -0.1 0 0 
-0.04335473190498 0.02501440912723339 0 0 
0 0 0 0 
-0.05397481975930411 -0.05992628558972369 -0.02586632726765704 0.1 
0.01858610897632623 0 -0.009243524854804333 0 
0 0 0 0 
0.2664215398070098 -0.1781343527360292 -0.06138321797554742 0 
0 0 0 0 
-0.05397481975930411 -0.05992628558972368 -0.02586632726765704 0.1 
0.08918444410952985 -0.2 0.09075647514519568 0 
-0.02558031450826571 0.0805680520300795 0 0 
0.0268984950541749 -0.01127518400376074 0 0 
0.07441968549173429 -0.01943194796992051 0 0 
0 0 0 0 
0 0 0 0 
0 0 0 0 
0 0 0 0 
-0.2 6.938893903907228e-18 -0.1032743636592533 -0.1137633932270042 
0 0 0 0 
0 0 0 0 
0.01461225154383087 -0.2 -0.03380438133230944 0.1 
0 0 0 0 
0 0 0 0 
0 0 0 0 
0.2 -0.1488249722595886 -0.1 -0.04128028469978272 
0.06567038917621179 -0.04785563429205004 0 0 
0 0 0 0 
0 0 0 0 
0 0 0 0 
0 0 0 0 
-0.2433569574957167 0.2569952597651435 -0.09268406762437494 -0.0834312949656562 
-0.1547624596858069 0.1784413039086762 -0.09252825774323642 -0.07800193039453492 
-0.4383059921821656 0.318623006647212 -0.0700536634974023 -0.07800193039453494 
-0.003558012185644622 0.1007468908601468 0 0 
0 0 0 0 
0 0 0 0 
0 0 0 0 
0 0 0 0 
0 0 0 0 
0.06245466204037755 0 0 0 
0 0 0 0 
0 0 0 0 
-0.06548315584523061 0.1995328635658629 -0.01453415542896484 -0.0208984420849437 
-0.2 0.2610580992219708 -0.2 -0.1549410308778741 
0 0 0 0 
0 0 0 0 
0 0 0 0 
0 0 0 0 
0.1 -0.06885970547518076 -0.01676453192760966 0 
0 0 0 0 
0 0 0 0 
0.3320807245180417 -0.2203199148799333 -0.1157535563995301 -0.05598478235655938 
0 -0.2 -0.1 0 
-0.01879305914189888 -0.06322926074575337 -0.116044254061934 -0.03326496643489485 
0 0 0 0 
-0.1 0.1 -0.1 0 
0.1 -0.02006030187118597 0 0 
6.938893903907228e-18 6.938893903907228e-18 0 0 
0.06445382712367133 -0.009447345977200618 0 0 
0 0 0 0 
0.002060272624112788 0.06465945431468145 0 0 
0.1 -0.06111749653267268 0 0 
0.1604757057743833 -0.06842993551425379 0 0 
0.1 -0.06111749653267268 0 0 
0.1 -0.06111749653267268 0 0 
0.1 -0.06111749653267268 0 0 
0.1 -0.06111749653267268 0 0 
0.1 -0.06111749653267268 0 0 
0 0 0 0 
0.1001872333309812 -0.0501645718983533 0 0 
0 0 0 0 
0.1 -0.05007645697261032 -0.07703454201836059 -0.09384642209340553 
0 0 0 0 
0 0 0 0 
0 0 0 0 
0 0 0 0 
-0.0535393131245272 0.165744310639675 -0.05905527034673259 0 
-0.2468937894839068 0.267152628080168 0.01817687232354302 0 
-0.1308769779707186 0.028615137942345 0.06423152957693742 -0.05598478235655937 
-0.0185490018962531 -0.1 0.08342420069879722 0 
-0.1474936503750504 -0.12055152616413 -0.03908222685372378 0.2 
-0.08338024130493604 0.08233354949063483 -0.2380243274897555 -0.2325929431513066 
0.1 -0.06684836786033357 0 0 
0.1832142280826155 -0.1007850009653394 0 0 
0.03675922315115608 -0.04089213792734257 -0.05585077862429183 -0.01823918286885941 
0.1133016208542806 -0.1024655572877452 -0.1595531267287223 -0.1865777295235824 
0.1981003866122272 -0.1407240682068502 0 0 
0 0 0 0 
0.1904808969184704 -0.08123581865778723 -0.005773114002457252 0 
0 0 0 0 
0.1 -0.086750788815449 0 0 
0 0 0 0 
0.09988584996362236 0 0 0 
0 0 0 0 
0 0 0 0 
-0.1 0.1 0 0 
-0.1 0.1 0 0 
-0.2193121125445892 0.2247863124047912 -0.1461081982702041 -0.1004165651505256 
0 0 0 0 
-0.1 0.1 0 -0.01356823727005987 
0 0 0 0 
0 0.04063209057887372 0 0 
0 0.04063209057887372 0 0 
0 0 0 0 
0 0 0 0 
0.1399624342111408 -0.06885970547518076 -0.01676453192760966 0 
0 0 0 0 
-0.06374756798182819 0.0826538423241744 0 0 
-0.1977498051597051 0.1715224263908771 -0.06771476962045136 -0.02423530555363692 
-0.004886343313756744 0.01113795787032915 0 0 
-0.06364043174108452 0.04387083938232225 0.06725751810185954 -0.02951033215052151 
-0.004886343313756746 -0.08886204212967089 0.1 -0.02951033215052151 
-0.004886343313756741 0.01113795787032915 -0.04534191113591652 0 
-0.004886343313756744 0.01113795787032915 0 0 
-0.004886343313756744 0.01113795787032915 0 0 
-0.004886343313756744 0.01113795787032915 0 0 
-0.004886343313756744 0.01113795787032915 0 0 
-0.004886343313756744 0.01113795787032915 0 0 
0 0 0 0 
0.09904805154821433 -0.006293783978289263 -0.05802212703096703 -0.06663248321744743 
0 0 0 0 
0 0 0 0 
0 0 0 0 
0.09027487602322262 -0.06274514712568846 0 0 
0.1442508922135449 -0.1271942821670426 -0.1048897431804842 -0.07477230546538788 
0 0 0 0 
0 0 0 0 
0 0 0 0 
0 0 0 0 
0 0 0 0 
0.1 -0.09096787970236214 0 0 
-0.1081404095209863 0.009032120297637839 0.07917061546160192 0 
0 0 0 0 
0 0 0 0 
0 0 0 0 
0 0 0 0 
-0.008089433449886585 0.06758915360180133 0 0 
0 0 0 0 
0 0 0 0 
0 0 0 0 
-0.2703359930077978 0.2375372067803808 -0.1 0 
0 0 0 0 
0 0 0 0 
0 0 0 0 
-0.3744926395736128 0.4500899342176874 -0.2095125484398302 -0.2609350193554443 
-0.1 0.04260866921216801 0 0.1 
-0.07049333082822712 0.1013440369856203 -0.06058057948995382 -0.06682589034775463 
0 0 0 0 
0 0 0 0 
-0.0494581171128259 1.040834085586084e-17 0.1 0 
0 0 0 0 
0 0 0 0 
0 0 0 0 
-0.05442759173697163 0.1 0 0 
-0.1 0.1 -0.01083917900124534 -0.02533864824844211 
0 0 0 0 
0 0 0 0 
0 0 0 0 
0 0 0 0 
0 0 0 0 
0.05872560581849867 -0.07275937411467383 0 0 
0 0 0 0 
0 0 0 0 
-0.168236037213137 0 0 0.09564246597769831 
-0.1 0 0.1 0 
0 0 0 0 
0.1015802948096609 -0.1288550834084271 -0.02509655950372895 0 
0 0 0 0 
0.1622701675068733 -0.2005139942082569 0.2 0 
0 0 0 0 
0.0961092490508379 -0.02885508340842708 0 0 
0 0 0 0 
0.06642153980700985 -0.03586789620832225 0 0 
0 0 0 0 
0 0 0 0 
-0.1333499112380298 0.07870499546756793 0 0.1 
0 0 0 0 
0 0 0 0 
0 0 0 0 
0.02397370473234118 0.0129823310181645 0 0 
0 0 0 0 
-0.02693291988442418 0.1318123351563639 0 0 
0 0 0 0 
0 0 0 0 
-0.08803606666219299 -0.01708472151332127 -0.005036258411385528 0.1 
-0.03210266805014306 0.1 0 0 
0 0 0 0 
0 0 0 0 
0 0 0 0 
0.3475180660878863 -0.3970486227623106 -0.1151219146550848 0.04401521764344064 
0 0 0 0 
0 0 0 0 
-0.02436947072753094 0.1271060355099111 -0.1 -0.1 
0 0 0 0 
0 0 0 0 
0.09988584996362236 0 0 0 
0 0 0 0 
0 0 0 0 
0 0 0 0 
0.0004718453992582232 0 0 0 
0.5770008887930929 -0.4902454092940821 -0.1420672046463179 -0.06068728642853091 
0.1 -0.08057428506168401 -0.09946592881697741 -0.01665595221186324 
0.1 -0.08057428506168401 -0.09946592881697741 -0.01665595221186324 
0.1 -0.1 0 0 
0.1 -0.1 0 0 
-4.336808689942018e-18 6.938893903907228e-18 0 -3.469446951953614e-18 
0.1221927820504373 -0.1104881907430221 -0.01426497041531739 0 
0.1 -0.1 0 0 
0.1 -0.1 0 0 
0.1 -0.1 0 0 
0.1 -0.1 0 0 
0 0 0 0 
0 0 0 0 
0 0 0 0 
0 0 0 0 
0.153319589185088 -0.1499780437836974 -0.09759098830902097 -0.02623334513032269 
0 0 0 0 
0 0 0 0 
0 0 0 0 
0 0 0 0 
0 0 0 0 
0 0 0 0 
0 0 0 0 
0 0 0 0 
0 0 0 0 
0 0 0 0 
0 0 0 0 
0 0 0 0 
0 0 0 0 
0 0 0 0 
0.08086841993928308 -0.02451773618928734 0 0 
-0.1 0.1 -0.1 -0.1 
-0.06548315584523061 0.09769106239369675 0 0 
0 0 0 0 
0.1298794767280939 -0.09137123979443325 -0.08502193746212457 -0.05598478235655938 
0.1 -0.1 -0.1 -0.1 
0 0 0 0 
-0.1159084012708262 -0.1340776249285385 -0.1 0.2 
0 0 0 0 
-0.1 -0.2999999999999999 -0.1 0.2 
-0.1 0.1 -0.1 -0.1 
-0.1412953734159082 0.06443740921701915 0.1 0 
0 0 0 0 
0 0 0 0 
0 0 0 0 
-0.0439777140861867 0.0720671688605117 0 0 
0 0 0 0 
0 0 0 0 
-0.05657343334225397 0.1 0 0 
0.01764544868180465 0.01494526267185993 -0.02099384603849047 0 
-0.1262610084218704 0.1197724783671535 0 -0.02865340552402998 
0 0 0 0 
0 0 0 0 
0.05331958918508795 -0.04997804378369743 -0.06138321797554742 0 
0.06877574313372292 -0.02443471043330914 -0.02849609195661969 -0.04545989839574208 
-0.09905630920148356 0.1 -0.03371766482679591 0 
0 0 0 0 
0 0 0 0 
0 0 0 0 
0 0 0 0 
0 0 0 0 
0 0 0 0 
0 0 0 0 
-0.05397481975930411 -0.05992628558972369 -0.02586632726765704 0.1 
0 0 0 0 
-0.1420845200935316 -0.5034930705446441 0.03736245973056758 0.3 
0 -0.05466809828505527 0.1 0 
0 -0.05466809828505527 0.1 0 
-0.09999999999999999 -0.1133166790729536 0.09496374158861448 0.1 
0 -0.05466809828505527 0.1 0 
0 0 0 0 
0.05277645762601643 -0.03885648303951052 0 0 
0 0 0 0 
-0.01069377912672034 0.0452241988062078 0 0 
0 0 0 0 
-0.2236833959976823 0.3 -0.08518066624490161 0 
0.03392388687908009 -0.2587175683960299 0.09803226660731497 0.08721600418359959 
-0.1 0.1 -0.04557059182481318 0 
0 0 0 0 
0.3282903778506652 -0.2080728901517633 -0.04805668323694914 -0.02993682614667419 
-0.2 0.2 -0.02071478052742081 0 
0.1 -0.1 -0.1 -0.08317816977237322 
0 0.00184180117216604 -0.01453415542896484 -0.0208984420849437 
0 0 0 0 
0 0 0 0 
0 0 0 0 
0 0 0 0 
0 0 0 0 
0 0 0 0 
0 0 0 0 
0 0 0 0 
0.2544607212526522 -0.2257873698400864 -0.05030273437558882 -0.005234835614429448 
0.09857033036835702 -0.1 -0.005773114002457252 0 
-0.139488204636527 0.2354046118913418 0.07463162655520063 0 
0 0 0 0 
0 0 0 0 
-0.01268420297050784 0.09176138579989253 -0.01847751148282308 0 
-0.03587491716243067 0.05748247748741307 0.08152248851717694 0 
-0.01268420297050784 0.09176138579989253 -0.01847751148282308 0 
0.1198614655229721 0.001810530430492568 0.01942505918724136 0 
0 0 0 0 
0 0 0 0 
0 0 0 0 
0 0 0 0 
-0.02849627818747488 0.1000754024914983 -0.01338690154000989 0 
0 0 0 0 
0 0 0 0 
0 0 0 0 
0 0 0 0 
-0.1 -0.05864858078789843 -0.005036258411385528 0.1 
0.06343290275316557 -0.02512670192478112 -0.02232536121954214 -0.01782261771833378 
0 0 0 0 
-0.08155570961525152 0.1 0 -0.02546624704345738 
0.1 -0.08228953091003549 -0.06670389259158686 -0.02765424411792999 
0 0 0 0 
0 0 0 0 
-0.0789433697325779 0.2252581045542765 -0.05991328194204198 -0.05046889994663102 
-0.002240276667504975 0.04039313332046016 0 0 
-0.002240276667504975 0.04039313332046016 0 0 
-0.002240276667504977 0.04039313332046015 0 0 
0 0 0 0 
0 0 0 0 
0 0 0 0 
0 0 0 0 
0 0.001748950920004641 -0.1203696533211782 -0.1 
0.09743225763294555 -0.1044857026379243 -0.02205384724047176 0 
0.1 -0.1982510490799954 0.07963034667882185 0 
0.1 -0.09825104907999536 -0.02036965332117815 0 
0.1 -0.09825104907999536 -0.02036965332117815 0 
0 0 0 0 
0 0 0 0 
0 0 0 0 
0 0 0 0 
0 0 0 0 
-0.06823603721313699 0.1 0 0 
0.06688576185378023 -0.1355625907829809 0.1 0 
0 0 0 0 
0 0 0 0 
0 -0.0315735412642204 0 0 
0 0 0 0 
0.1084741538044351 -0.01756691529365785 -0.1 -0.0298231969602536 
-0.02765247882086974 -0.1 0.1 0 
0 0 0 0 
0 0 0 0 
0.08797068136952699 -0.03757552475313163 0 0 
0.08797068136952699 -0.03757552475313163 0 0 
-0.08291810543655699 -0.01943194796992051 0.1 0 
0 0 0 0 
0 0 0 0 
0 0 0 0 
-0.2257010971456016 0.2247215896811734 -0.1264055991261513 -0.1082363612589251 
0 0 0 0 
0 0 0 0 
-0.0007160324814397961 0.06651659915764965 -0.0932124616174765 -0.04091603637785214 
0 0 0 0 
0.2692053414233259 -0.69769099562367 0.2932833090287807 -0.1688551202323465 
0.008592437493979491 0.00903212029763787 -0.05979415214511404 -0.01293858797680441 
0 0 0 0 
0 0 0 0 
0 0 0 0 
0 0 0 0 
0.04784115064412491 -0.0279328311394883 -0.01534087739272909 0 
-0.1 0.1 0 0 
0.05195048056523684 -0.06268788425459094 0 0 
0.03509932786463706 0 -0.02099384603849047 0 
0 0 0 0 
0 0 0 0 
0 0 0 0 
0 0 0 0 
0 0 0 0 
0.1 -0.1 0 0 
-0.2 0 -0.03311328811382338 0.1 
0 0 0 0 
0 0 0 0 
0 0 0 0 
0 0 0 0 
0 0 0 0 
-0.1 0.1 0 0 
0 0 0 0 
-0.1130554471939121 0.1073723689647651 0 0 
-0.1130554471939121 0.1073723689647651 0 0 
-0.05526715180666724 0.1540983035462583 -0.05991328194204198 -0.05046889994663102 
0 0 0 0 
0 0 0 0 
0 0 0 0 
-0.1 0.1 0 0 
0 0 0 0 
-0.1659890816390723 0.1183081294255576 0.1 0.1 
-0.01623914075770385 0.09390831375653126 0 0 
0 0 0 0 
0 0 0 0 
0 0 0 0 
0 0 0 0 
-0.09888588861114504 0 0 -0.0190932854326371 
0.1 0 -0.1 -0.08387327298759417 
0 0 0 0 
0 0 0 0 
0 0 0 0 
0 0 0 0 
0 0 0 0 
0 0 0 0 
0 0 0 0 
0.06456119258528413 -0.01370549364787108 0.09732191440018986 -0.01901794224192661 
0 0.02838516829108065 -0.1 -0.02982319696025359 
0.01228235856893037 0 0 0 
-0.08771764143106964 0.1 0 0 
-0.1 0.1 0 0 
0 0 0 0 
0 0 0 0 
0 0 0 0 
0 0 0 0 
-0.1014031906092426 0.1934645717278071 -0.0008810166116111004 -0.009914310823424213 
0 0 0 0 
0 0 0 0 
-0.04804951943476317 0.03731211574540906 -0.1 -0.02819818285114158 
0 0.003841582171970342 0 0 
0 0 0 0 
0.01858610897632623 0 -0.009243524854804333 0 
0.01858610897632623 0 -0.009243524854804333 0 
0 0 0 0 
0 0 0 0 
0 0 0 0 
0 0 0 0 
0 0 0 0 
0.1 -0.02733393701893469 -0.01210816535911197 0 
0 0.01931706763738307 0 0 
0 0 0 0 
-0.0255803145082657 0.0805680520300795 -0.06520026734066935 -0.003991037941487564 
-0.02558031450826571 0.0805680520300795 0 0 
-0.1291383266939103 0.2430146332253092 -0.02509655950372895 0 
-0.1255803145082657 0.1805680520300795 -0.1 -0.1 
0 0 0 0 
0 0 0 0 
0 0 0 0 
0 0 0 0 
0.04388896993985084 0 0 0 
0 0 0 0 
0 0 0 0 
0 0 0 0 
-0.03311423814621979 -0.03556259078298084 0.1 0 
0.1 -0.0892630676344686 -0.1 -0.07436635826941598 
0.1 -0.04381352192979183 -0.03492859026790409 0 
0 0 0 0 
0 0 0 0 
0 0 0 0 
0 0 0 0 
0.1 -0.05303139661477559 -0.05441351403172372 -0.005234835614429448 
0 0 -0.03644829605339176 -0.005234835614429448 
0 0 -0.07289659210678352 -0.0104696712288589 
0 0 0 0 
0 0 0 0 
0.1 -0.1 -0.01338690154000989 0 
0.07924693273503393 -0.2137701093537361 0.1 0.1 
0 0 0 0 
0.02976655636690292 -0.006278355089706743 0 0 
0 0 0 0 
0 0 0 0 
0 0 0 0 
-0.07531282485048214 0.04343118951282919 0 0 
0 0 0 0 
0 0 0 0 
0 0 0 0 
0 0 0 0 
0 0 0 0 
0 0 0 0 
-0.1 -0.01552460481857777 0.1 0 
0 0 0 0 
0 0 0 0 
0 0 0 0 
0 0 0 0 
0 0 0 0 
0 0 0 0 
0 0 0 0 
0 0 0 0 
0 0 0 0 
0 0 0 0 
0 0 0 0 
0.1 -0.1 0 0 
0.1 -0.1 0 0 
0.3 -0.2463093384788363 -0.05943233427478563 -0.0161506921733451 
-0.2036669422878372 0.2256917944078467 -0.1601012578790683 -0.06123894152797148 
0.1297665563669029 -0.09604892731842472 0 0 
-0.1 0 0.1 0 
0 0 0 0 
-0.1372347952209086 0.07953637311000113 -0.02082938453839807 0.03313249602026741 
0 0 0 0 
0 0 0 0 
0 0 0 0 
-0.09446180363558308 0.1 0 0 
0 0 0 0 
0 0 0 0 
0 0 0 0 
0 0 0 0 
0.1 -0.1 0 0 
0 0 0 0 
-0.1 0.0637306880625859 0 0 
-0.1 0.0637306880625859 0 0 
0 0 0 0 
0 0 0 0 
0 0 0 0 
-0.2 0.2 -0.0601012578790683 0 
0 0 0 0 
-0.03760893556476542 0.0617796634801939 -0.01186469752696225 0.08086944274537718 
0.09644198781435537 -0.1526137697792734 -0.1048897431804842 -0.0004059471959718978 
0.1 -0.1 -0.01534087739272909 0 
0 0 0 0 
0 0 0 0 
0 0 0 0 
0 0 0 0 
0 0 0 0 
0 0 0 0 
0 0 0 0 
0 0 0 0 
0.03692387931842039 -0.006293783978289263 0 0 
0 0 0 0 
0 0 0 0 
0 0 0 0 
0.05471817613232017 -0.0792856214843536 -0.02099384603849047 0 
0 0 0 0 
0.1 -0.09228528825828849 -0.005895758787061866 -0.01913055725462284 
0 0 0 0 
0 0 0 0 
0 0 0 0 
-0.1 0.1 0 0 
0 0 0 0 
0 0 0 0 
0.05256502638170162 -0.03534054568531854 0 0 
0 0 0 0 
-0.15360841098265 0.213117594215828 0.1 0 
0.1 -0.1 0 0 
0 0 0 0 
0 0 0 0 
0 1.734723475976807e-18 0 0 
0 0 0 0 
0 0 0 0 
-0.07337648492358795 -8.673617379884035e-19 -0.005968938739900396 0.1 
-0.01930104996742233 -0.0430929154360502 0.1 0 
0.1 -0.08068293236261694 0 -0.01365702513227645 
0 0 0 0 
0 0 0 0 
0 0 0 0 
-0.01955256832439387 0.1 0 0 
0.1 -0.1 0 0 
0.0659490766208792 -0.0555227689164445 0 0 
0 0 0 0 
-0.05048007643210304 0.1463415879095117 -0.001839428415787801 0 
0 0 0 0 
0 0 0 0 
0 0 0 0 
0 0 0 0 
0 0 0 0 
0 0 0 0 
0 0 0 0 
0 0 0 0 
0 0 0 0 
0 0 0 0 
0.0149658038189056 0 0 0 
0.1149658038189055 -0.07335819643227268 0 0 
0.0149658038189056 0 0 0 
-0.03112743843660219 -0.03769896876198472 -0.2 -0.0382030277939757 
0.0149658038189056 -3.469446951953614e-18 -0.0165757993012028 0 
0.0149658038189056 0 0 0 
0 0 0 0 
0.1346674838590615 -0.1249216903816682 -0.01321294330583777 -0.05135472632895093 
0.03466748385906153 -0.02492169038166811 0 0 
0.03466748385906153 -0.02492169038166811 0 0 
-0.01276748975923684 -0.06026223606698664 0.1 0 
0.2346674838590616 -0.2249216903816681 -0.1 -0.1 
0.06933496771812306 -0.04984338076333621 0 0 
0.03466748385906153 -0.02492169038166811 0 0 
0.03466748385906153 -0.01611067726540822 0 0 
-0.06533251614093848 0.0750783096183319 -0.1 -0.1 
-0.06160282553684721 -0.1249216903816681 0.1 0 
0 0 0 0 
0 0 0 0 
0 0 0 0 
0 0 0 0 
0 0 0 0 
0 0 0 0 
0 0 0 0 
0 0 0 0 
0.05985343224505706 0 -0.01876244537161997 0 
0 0 0 0 
0 0 0 0 
0 0 -0.0165757993012028 0 
-0.1 0.1 0 0 
-0.1331142381462198 0.06443740921701918 0.1 0 
0 0 0 0 
0.1 -0.05007645697261032 -0.07703454201836059 -0.09384642209340553 
0 0 0 0 
0.1903156017719247 -0.1627451471256885 -0.05221784316031118 -8.673617379884035e-19 
-0.2 0.2 0 0 
0 0 0 0 
0 0 0 0 
0 0 0 0 
0 0 0 0 
0 0 0 0 
-0.0341880142305406 -1.040834085586084e-17 0.05400236719921209 -0.003991037941487564 
0 -0.1 0.1 0 
0 -0.1 0.1 0 
0 0 0 0 
0 0 0 0 
0 0 0 0 
0 0 0 0 
0.05250634962494961 -0.02055152616413008 0 0 
0 0 0 0 
0.1 -0.1 0 0 
0 0 0 0 
0 0 0 0 
0 0 0 0 
0 0.0154062435872365 0 0 
-0.0439777140861867 0.08747341244774821 0 0 
0 0 0 0 
0 0 0 0 
0 0 0 0 
0 0 0 0 
0 0 0 0 
0 0 0 0 
0 0 0 0 
0.1 -0.1 0 0 
0 0 0 0 
0 0 0 0 
0 0 0 0 
0 0 0 0 
0 0 0 0 
0 0 0 0 
0 0 0 0 
0 0.05117502774041145 -0.03371766482679591 0 
0.03579911174334843 -0.04614102883970898 0.01711406586843987 -0.05598478235655938 
0 0 0 0 
0 0 0 0 
-0.1 0.0974614702932704 0 0 
-0.002393531317054665 -0.002538529706729603 0 0 
0 0 0 0 
0 0 0 0 
-0.01930104996742233 -0.0430929154360502 0.1 0 
0 0 0 0 
-0.08942899596427419 0.1 0 0 
0.05195048056523682 -0.06268788425459094 0 0 
0 0 0 0 
-0.0439777140861867 0.1720671688605117 0 0 
0 0 0 0 
0 0 0 0 
0 0 0 0 
0 0 0 0 
0 0 0 0 
0 0 0 0 
0 0 0 0 
0 0 0 0 
0 0 0 0 
0 0 0 0 
0 0.07033729091806608 0 0 
0 0 0 0 
0 0 0 0 
0.2 -0.1926798225936248 -0.04620229405639427 -0.04229539611862115 
0.1 -0.09267982259362482 0 0 
0.2105710040357258 -0.2272982075650917 -0.1 -0.074366358269416 
0.03430518615392868 -0.01703476590449265 0 0 
0.03430518615392868 -0.01703476590449265 0 0 
0.004903521287132251 -0.1170347659044926 0.1 0 
0.03430518615392868 -0.01703476590449265 0 0 
-0.08499586381349362 -0.0489765667491249 0.08344989740774128 -0.06112607900633042 
0.01512455497276921 0 -0.03420224491475207 0 
0.1 -0.1 -0.1 -0.0298231969602536 
0 0 0 0 
-0.05611103006014917 0.09999999999999999 0 0 
-0.0995281546007418 0.1 -0.03810191208909912 0 
0 0 0 0 
0 0 0 0 
0 0 0 0 
0.2 -0.1904923214392399 -0.0322359805235247 0 
0 0 0 0 
0 0 0 0 
0 0 0 0 
0 0 0 0 
-0.1453854547131357 0.1 0.04331542571171808 0 
-0.1 0.1 -0.1 -0.04824840577791496 
-0.1 0.1 0 -0.01356823727005987 
0 0 0 0 
0 0 0 0 
0 0 0 0 
0 0 0 0 
0 0 0 0 
0 0 0 0 
0 0 0 0 
0 0 0 0 
0.0219661829140666 0.0005461749498486303 -0.002678085599810138 -0.01901794224192661 
0.0659490766208792 -0.0555227689164445 0 0 
0 0 0 0 
0 0 0 0 
-0.02319071419192282 -0.03427890831247946 0.1 0 
0 0 0 0 
0 0 0 0 
0 0 0 0 
0 0.06280442799544833 0 0 
0.00720614476385651 0 0 0 
0 0 0 0 
0 0 0 0 
0 0 0 0 
0 0 0 0 
0 0 0 0 
0.1 -0.1 -0.1 -0.08317816977237322 
-0.04816122398081615 0.1 0 0 
0.2518387760191838 -0.1786445952175664 -0.1 -0.08317816977237322 
0 0 0 0 
0 0 0 0 
0 0 0 0 
0.1718664871849647 -0.1035684371116532 0 0 
0 0 0 0 
0 0 0 0 
0 0 0 0 
-0.04101017406472875 0.06518433253079751 0 0 
0 0 0 0 
0 0 0 0 
0 0 0 0 
0 0 0 0 
0 0 0 0 
0 0 0 0 
0 0 0 0 
0 0 0 0 
0 0 0 0 
0 0 0 0 
0 0 0 0 
0 0 0 0 
0 0 0 0 
0 0 0 0 
0 0 0 0 
0 0 0 0 
0.1452529639742962 -0.1063197138903236 -0.02588358921897465 -0.0004059471959718978 
0 0 0 0 
0.08750716084614207 -0.04885174710159466 0 0 
0.05250634962494961 -0.02055152616413008 0 0 
0.05250634962494961 -0.02055152616413008 0 0 
0.05250634962494961 -0.02055152616413008 0 0 
0.05250634962494961 -0.02055152616413008 -0.1080223236372902 0 
0 0 0 0 
0.07150372181252512 -0.05361525902966541 0 0 
0 0 0 0 
0 0 0 0 
-0.08942899596427419 0.1 0 0 
0 0 0 0 
-0.09831267071716775 0.1 -0.02849609195661969 0 
0 0 0 0 
0.08409159872917385 -0.124162483554702 0 0.1 
0 0 0 0 
0.1 -0.1 0 0 
-0.07358903128560543 -0.02049328849104553 -0.1076675159530846 -0.08228583320231828 
0 0.01736335896786168 0 0 
0 0.01736335896786168 0 0 
-0.08452176570212294 0.004053805938030466 -0.0932124616174765 0.05908396362214786 
0.03138663556870326 -0.03348340084235035 -0.0932124616174765 -0.04091603637785214 
0 0 0 0 
0 0 0 0 
0 0 0 0 
-0.1662284762924396 0.02887481843403831 0.2 0 
-0.03311423814621979 -0.03556259078298084 0.1 0 
-0.02985827649453794 -0.04988737751938704 0.09786399666943557 0 
-0.1331142381462198 0.06443740921701915 0.09197767636270983 0 
-0.03311423814621979 -0.03556259078298084 0.1 0 
-0.03311423814621979 -0.03556259078298084 0.1 0 
-0.03311423814621979 -0.03556259078298084 0.1 0 
-0.03311423814621979 -0.03556259078298084 0.1 0 
-0.1130291304887164 -0.0618842972613291 0.2 0 
0 0 0 0 
0.1 -0.05762835078173226 0 0 
0 0 0 0 
0 0 0 0 
-0.02244810482944776 0.06574431063967498 -0.01385443832219705 0 
0.1484277920585352 -0.1019451024745979 -0.0499892639708236 0 
0 0 0 0 
0 0 0 0 
0 0.08665267034837419 -0.01941989288076399 0 
-0.1159084012708261 -0.07581012287124501 -0.01941989288076399 0.2 
0 0 0 0 
-0.05733779092829129 -0.1 0.1 0 
0 0 0 0 
0 0 0 0 
0 0 0 0 
0 0 0 0 
0 0 0 0 
-0.07631412074482818 0.07018223054269854 0 0 
0 0 0 0 
0.1664215398070099 -0.06320183322725689 -0.01210816535911197 0 
0 0 0 0 
0 0 0 0 
-0.1 0.1 0 0 
-0.1 0.1 0 0 
-0.1405721969024189 0.1157411972143574 -0.06771476962045136 -0.02423530555363692 
0 0 0 0 
-0.1 0.1 0 0 
-0.2 0.2 -0.1657488141193418 -0.1 
0 0 0 0 
0.1 -0.1 -0.1 -0.06112607900633043 
0 0 0 0 
0 0 0 0 
0.02721111936987765 0.02495714625613588 -0.01553555894620184 0 
0 0 0 0 
0 0 0 0 
0 0 0 0 
0 0 0 0 
0 0 0 0 
0 0 0 0 
0 0 0 0 
-0.1 0.122763442217144 -0.01083917900124534 -0.02533864824844211 
0.02813749787538596 0.007318359281096374 0 0 
-0.1 0.1073183592810964 0 0 
0 0 -0.08092771292628911 -0.07559003188258785 
-0.1195525683243939 0.2 0 0 
0 0 0 0 
0 0 0 0 
0 0 0 0 
0 0 0 0 
0 0 0 0 
0 0 0 0 
0.001650899983162743 0.06546512550460645 2.168404344971009e-19 0 
0 0 0 0 
0 0 0 0 
0 0 0 0 
0 0 0 0 
0 0 0 0 
0 0 0 0 
0 0 0 0 
-0.008181135269688399 0 0 0 
-0.06339836794300226 0.09373799898294521 0 0 
0.1 -0.05832943534557041 0 0 
0 0 0 0 
0 0 0 0 
0 0 0 0 
-0.09831267071716775 0.1 -0.02849609195661969 0 
0.001687329282832259 0 -0.07469838601301398 -0.04229539611862115 
0 0.01931706763738307 0 0 
0.1664215398070099 -0.1358678962083223 3.469446951953614e-18 0 
0 0 0 0 
0 0 0 0 
0.09027487602322262 -0.06274514712568846 0 0 
0 0 0 0 
0 0 0 0 
0 0 0 0 
-0.06294381885893569 0.07936148611071075 0 0 
0 0 0 0 
0 0 0 0 
0 0 0 0 
0 0 0 0 
0 0 0 0 
0 0 0 0 
0 0.001841801172166036 -0.01453415542896484 -0.0208984420849437 
0 0 0 0 
0 0 0 0 
0 0 0 0 
0.07755189517055225 -0.03425568936032501 -0.01385443832219705 0 
0.2 -0.2 -0.1 -0.06112607900633043 
-0.1 0.1 0 0 
0 0 0 0 
0 0 0 0 
-0.1 0.1 0 0 
0 0 0 0 
0 0 0 0 
0 0 0 0 
0 0 0 0 
-0.1 0.1 -0.06574881411934189 0 
0.02662351507641207 0 0 0 
0 0 0 0 
-0.06548315584523061 0.09769106239369675 0 0 
0.02704714141296341 0.06574431063967498 -0.01385443832219705 0 
0.07755189517055225 -0.03425568936032501 -0.01385443832219705 0 
0 0 0 0 
-0.1 0.1 -0.009286682779849953 0 
0 0 0 0 
0 0 0 0 
0 0 0 0 
0 0 0 0 
0 0 0 0 
0 0 0 0 
-0.2 0.2 0 0 
0 0 0 0 
0 0 0 0 
0 0 0 0 
0 0 0 0 
-0.0992843722675993 0.05940678470909817 0 0 
0 0 0 0 
0 0 0 0 
-0.1 0.1 -0.1 -0.0668675039797326 
0 0 0 0 
0 0 0 0 
0 0 0 0 
0 0 0 0 
-0.02333600017832395 -0.04826365544052574 0.1 0 
-0.03890146540420071 0.002736567831994626 0 0 
0 0 0 0 
0.1 -0.06684836786033356 -0.01534087739272909 0 
0 0 0 0 
0 0 0 0 
0 0 0 0 
-0.02940166486679642 -0.1 0.1 0 
0 0 0 0 
0 0 0 0 
0 0 0 0 
0 0 0 0 
-0.1544275917369717 0.2 0 -0.04545989839574208 
0.3 -0.2579761879159523 -0.1058134241407853 -0.1 
-0.1999592742512978 -6.938893903907228e-18 -0.06010125787906829 -0.1831781697723733 
0 0 0 0 
0.1 -0.1 -0.05976182318533294 0 
0 0 0 0 
0 0 0 0 
0.07373899157812955 -0.07251280989113496 -0.005895758787061866 -0.01913055725462284 
0 0 0 0 
0 0 0 0 
0 0 0 0 
0 0 0 0 
0 0 0 0 
0 0 0 0 
0 0 0 0 
0 0 0 0 
0 0 0 0 
0.09769635180527422 -0.1 0 0 
0 -0.1 0.1 0 
0 0 0 0 
0 0 0 0 
0 0 0 0 
0 0 0 0 
0 0 0 0 
0 0 0 0 
-0.04380330711958234 0.06304334442009252 -0.02509655950372895 0 
0 0 0 0 
0 0 0 0 
0 0 0 0 
0 0 0 0 
0 0 0 0 
0 0 0 0 
0 0 0 0 
0 0 0 0 
0 0 0 0 
0 0 0 0 
0.1504861492205583 -0.09959772723986959 -0.09633097970388438 -0.06845019323293987 
0 0 0 0 
-0.07631412074482818 0.07018223054269854 0 0 
0 0 0 0 
0.06642153980700985 -0.03586789620832225 0 0 
0.05761904390861996 -0.1482659121853916 0.1 0 
-0.2000000000000001 6.938893903907228e-18 -0.03311328811382338 0.1 
0 0 0 0 
0.07287890435670714 -0.1 0 0 
0 0 0 0 
0 0 0 0 
0 0 0 0 
0 0 0 0 
-0.1343296108237882 -0.006504215079948476 -0.005036258411385528 0.1 
0 0 0 0 
0 0 0 0 
0 0 0 0 
0 0 0 0 
0 0 0 0 
-0.01930104996742233 -0.0430929154360502 0.1 0 
0 0 0 0 
0 0 0 0 
0 0 0 0 
0 0 0 0 
0 0 0 0 
0.0196188482676831 -0.1181775220296704 0 0 
0 0 0 0 
0 0 0 0 
0.1 -0.1 0 0 
0.1 -0.1 0 0 
0 0 0 0 
0 0 0 0 
0 0 0 0 
0 0 0 0 
0 0 0 0 
0 0 0 0 
0 0 0 0 
0 0 0 0 
0 0 0 0 
0 0 0 0 
0 0 0 0 
0 0 0 0 
0.1 -0.06739631961689541 0 0 
-0.1 -0.1 0.1 -0.009916301054456369 
0 0 0 0 
0 0 0 0 
0 0 0 0 
0 0 0 0 
0 0 0 0 
0 0 0 0 
0 0 0 0 
0 0 0 0 
0 0 0 0 
-0.01955256832439387 0.1 0 0 
-0.04807667599004802 0.1 0 0 
-0.01955256832439387 0.1 0 0 
-0.01955256832439387 0.1 0 0 
-0.01955256832439387 0.1 0 0 
-0.01955256832439387 0.1 0 0 
0 0 0 0 
-0.1 0.1 0 0 
0 0 0 0 
0 0 0 0 
0 0 0 0 
0 0 0 0 
0.03122733102018878 0 0 0 
0 0 0 0 
0 0 0 0 
-0.07631412074482818 0.07018223054269854 0 0 
0 0 0 0 
0 0 0 0 
0 0 0 0 
-0.08289686476769685 0.07475167779487285 0 0 
0 0 -0.0165757993012028 0 
0 0 0 0 
0 0 0 0 
0 0 0 0 
0 0 0 0 
0 0 0 0 
0 0 0 0 
0 0 0 0 
0 0 0 0 
0.03509932786463706 0 -0.02099384603849047 0 
-0.2 0.2 -0.06582501963619747 -0.04141047091117046 
0 0 0 0 
0 0 0 0 
0 0 0 0 
-0.1 -0.05864858078789843 -0.005036258411385528 0.1 
0 0 0 0 
0 0 0 0 
0 0 0 0 
0 0 0 0 
-0.04816598068230534 0.01425424977637084 0 -0.0004165651505256375 
0 0 0 0 
0 0 0 0 
0 0 0 0 
0 0 0 0 
0 0 0 0 
-0.03890146540420071 0.002736567831994626 0 0 
-0.03890146540420071 0.002736567831994626 0 0 
-0.03890146540420071 0.002736567831994626 0 0 
-0.1 0 0.1 0 
0 0 0 0 
0 0 0 0 
0 0 0 0 
0 0 0 0 
0 0 0 0 
0 0 0 0 
0 0 0 0 
-0.1 0.1 0 0 
0 0 0 0 
-0.03334991123802972 0.09376534644207103 0 0 
0 0 0 0 
0 0 0 0 
0 0 0 0 
0 0 0 0 
-0.1 0.1 0 -0.04545989839574208 
0 0 0 0 
0 0 0 0 
0 0 0 0 
-0.1162391407577039 0.1939083137565313 -0.1 -0.05910450270345598 
0 0 0 0 
0 0 0 0 
0 0 0 0 
0 0 0 0 
-0.04627826850757344 0.07143122851186592 0 0 
0 0 0 0 
0 0 0 0 
0.03332139299019662 -0.07445666664961173 0 0 
0.1235962690134193 -0.1372018137753001 0 0 
0.03332139299019662 -0.07445666664961173 0 0 
0.1 -0.1 0 0 
0 0 0 0 
0 0 0 0 
-0.0439777140861867 0.0720671688605117 0 0 
0 0 0 0 
0.00516798888254434 -0.00661877129950269 0 0 
0 0 0 0 
0 0 0 0 
0 0 0 0 
0 0 0 0 
0 0 0 0 
0 0 0 0 
0 0 0 0 
0.04388896993985084 0 0 0 
0 0 0 0 
0 0 0 0 
-0.04538545471313565 0 0.04331542571171808 -0.02951033215052151 
0 -0.1 0.1 -0.02951033215052151 
0 0 0 0 
0 0 0 0 
0 0 0 0 
0 0 0 0 
0 0 0 0 
0 0 0 0 
0 0 0 0 
0 0 0 0 
0 0 0 0 
0 0 0 0 
0 0 0 0 
0.01395461472938196 -0.1385422165942004 0.1 0 
0 0 0 0 
0 0 0 0 
0 0 0 0 
0 0 0 0 
0 0 0 0 
0 0 0 0 
0 0 0 0 
0 0 0 0 
0.1 -0.1 0 0 
0 0 0 0 
0 0 0 0 
0 0 0 0 
0 0 0 0 
0 0 0 0 
0.1 -0.1 -0.1 -0.01859220308972954 
0.1 -0.1 -0.1 -0.08317816977237322 
0 0 0 0 
0 0 0 0 
0 0 0 0 
0 0 0 0 
0 0 0 0 
0 0 0 0 
0 0 0 0 
-0.0115022229819904 0.07063528892665782 0 0 
0.06968643242548771 -0.08993666457889202 0 0 
0 0 0 0 
0 0 0 0 
0 0 0 0 
0 0 0 0 
0 0 0 0 
0 0 0 0 
0 0 0 0 
0 0 0 0 
0.1 -0.06684836786033356 0 0 
0 0 0 0 
0 0 0 0 
0.1 -0.1 -0.03380438133230944 0 
0 0 0 0 
0 0 0 0 
0.05393011454318009 -0.05902850428789943 0 0 
0 0 0 0 
0.1622820840284003 -0.1677504967717444 -0.06245768829073918 -0.06112607900633043 
0 0 0 0 
0 0 0 0 
0 0 0 0 
0.02368587925517182 -0.006864222515328519 -0.08288593413156013 -0.05598478235655938 
0 0 0 0 
0 0 0 0 
0 0 0 0 
0 -0.1 0.1 0 
0 0 0 0 
0 0 0 0 
0 0 0 0 
0 0 0 0 
0 0 0 0 
0 0 0 0 
0 0 0 0 
0 0 0 0 
-0.1 0.1 -0.04557059182481318 0 
0 0 0 0 
0 0 0 0 
0 0 0 0 
0 0 0 0 
0 0 0 0 
0 0 0 0 
0 0 0 0 
0 0 0 0 
0 0 0 0 
0 0 0 0 
0 0 0 0 
0 0 0 0 
0 0 0 0 
0 0 0 0 
0 0 0 0 
0 0 0 0 
0 0 0 0 
0 0 0 0 
0 0 0 0 
1.734723475976807e-18 0.04237164921826774 0 0 
0.06581198576945942 0 -0.03352541740474969 0 
0 0 0 0 
0 0 0 0 
-0.1 0.1 -0.01156762183018034 0 
0.03500081122119247 -0.02830022093746459 0 0 
0 0 0 0 
0 0 0 0 
0 0 0 0 
0 0 0 0 
0 0 0 0 
0.1 -0.06885970547518076 -0.01676453192760966 0 
-0.06339836794300226 0.09373799898294521 0 0 
0 0 0 0 
-0.1 4.336808689942018e-18 0.04778215683968882 0 
0 0 0 0 
0 0 0 0 
0 0 0 0 
0 0 0 0 
0 0 0 0 
0 0 0 0 
-0.01930104996742233 -0.158617520254628 0.1 -0.06112607900633043 
0 0 0 0 
0 0 0 0 
-0.1 0.1 -0.1 -0.1 
0 0 0 0 
0 0 0 0 
0.135099327864637 -0.2786445952175666 0.07900615396150955 0 
0 0 0 0 
0 0 0 0 
0 0 0 0 
-0.03109998405617473 -0.001489172507191369 0 0 
0 0 0 0 
0 0 0 0 
0 0 0 0 
-0.09608422244217935 0.1 -0.03425342971483795 0 
0 0 0 0 
0 0 0 0 
0 0 0 0 
0 0 0 0 
0 0 0 0 
-0.09530521247021684 0.08770229338182434 0 0 
0 0 0 0 
0 0 0 0 
0 0 0 0 
0 0 0 0 
0 0 0 0 
0 0 0 0 
0.2 -0.1 -0.08134831752641987 0 
-0.1 0.1 0 0 
0 0 0 0 
0 0 0 0 
0 0 0 0 
0.1 0 -0.1 -0.0417442669618822 
0 0 0 0 
0 0 0 0 
0 0 0 0 
0 0 0 0 
0 0 0 0 
0.1746512616573616 -0.1323559830705188 0 -0.07436635826941598 
0.02662351507641207 0 0 0 
0 0 0 0 
0 0 0 0 
-0.04210126716616172 0.06140104486160777 0 0 
-0.04210126716616172 0.06140104486160777 0 0 
-0.1421012671661617 0.1614010448616077 -0.01247221539603822 -0.003991037941487564 
0.1 -0.04630933847883628 0 0 
0 0 0 0 
0 0 0 0 
0 0 0 0 
-0.09508766374855634 0.1 0 0 
-0.09508766374855634 0.1 0 0 
-0.09508766374855634 0.1 0 0 
-0.09508766374855634 0.1 0 0 
-0.09508766374855634 0.1 0 0 
0 0 0 0 
0 0 0 0 
0 0 0 0 
0 0 0 0 
0 0 0 0 
0 0 0 0 
0 0 0 0 
0 0 0 0 
0.2728789043567071 -0.2 -0.09185139726188177 -0.09003854162596424 
0 0 0 0 
0 0 0 0 
0 0 0 0 
-0.1 0.1 0 0 
-0.1 0.1 0 0 
-0.1 0.1 0 0 
0 0 0 0 
0 0 0 0 
0 0 0 0 
0 0 0 0 
0 0 0 0 
0 0 0 0 
0.1 -0.1 -0.02232536121954214 -0.01782261771833378 
0.1 -0.1 -0.02232536121954214 -0.01782261771833378 
0.1 -0.1 -0.02232536121954214 -0.01782261771833378 
-0.1159084012708262 0.03753720678038082 0 0.1 
-0.01590840127082616 -0.06246279321961919 0 0.1 
-0.01590840127082616 -0.06246279321961919 0 0.1 
-0.01590840127082616 -0.06246279321961919 0 0.1 
-0.01590840127082616 -0.06246279321961919 0 0.1 
0 0 0 0 
0 0 0 0 
0 0 0 0 
0 0 0 0 
0 0 0 0 
0 0 0 0 
0 0 0 0 
0 0 0 0 
0 0 0 0 
0 0 0 0 
-0.04101017406472874 0.06518433253079751 0 0 
0.1 -0.09999999999999999 1.301042606982605e-18 0 
0 0 0 0 
0 0 0 0 
0 0 0 0 
0 0 0 0 
0.01971462523309258 -0.01146963927181736 -0.002131699133647178 0 
-0.04493216943146666 0.01189318953232268 -0.02810388005690747 -0.05305446635245654 
-0.06339836794300226 0.09373799898294521 0 0 
0 0 0 0 
0 0 0 0 
0 0 0 0 
0 0 0 0 
0 0 0 0 
0 0 0 0 
0 0 0 0 
0 0 0 0 
0 0 0 0 
0 0 0 0 
0 0 0 0 
0 0 0 0 
0 0 0 0 
0 0 0 0 
0 0 0 0 
0 0 0 0 
0 0 0 0 
0 0 0 0 
-0.04816598068230534 0.03357131741375391 0 -0.0004165651505256375 
-0.04816598068230534 0.01425424977637084 0 -0.0004165651505256375 
0 0 0 0 
0 0 0 0 
0.03122733102018878 0 0 0 
0 0 0 0 
0 0 0 0 
0 0 0 0 
0.1 0.004474992649877919 0 0 
0 0 0 0 
0 0 0 0 
0.07150372181252512 -0.05361525902966541 0 0 
0 0 0 0 
0 0 0 0 
0 0 0 0 
0 0 0 0 
0 0 0 0 
0 0 0 0 
0 0 0 0 
0 0 0 0 
0 0 0 0 
0 0 0 0 
0 0 0 0 
0 0 0 0 
0.002250194840294921 -0.02847757360912294 0 0 
0 0 0 0 
0 0 0 0 
-0.08319694841866605 0.1 0 0 
-0.08319694841866605 0.1 0 0 
0 0 0 0 
0 0 0 0 
0 0 0 0 
-0.1262610084218704 0.1197724783671535 0 0 
0 0 0 0 
-0.01930104996742233 -0.0430929154360502 0.1 0 
-0.01930104996742233 -0.0430929154360502 0.1 0 
0 0 0 0 
0 0 0 0 
0 0 0 0 
-0.05990255384715765 0.07828392852589684 0 0 
0 0 0 0 
0 0 0 0 
0 0 0 0 
0 0 0 0 
-0.1083175732306504 0.1028600618095762 -0.03371766482679591 0 
0 0 0 0 
0 0 0 0 
0 0 0 0 
0 0 0 0 
-0.00415878661532516 0.009144742646499587 -0.005895758787061866 -0.01913055725462284 
-0.1 0.1 0 0 
-0.1 0.1 0 0 
-0.1 0.1 0 0 
0 0 0 0 
0 0 0 0 
0.08797068136952699 -0.03757552475313163 0 0 
0.03452953869228585 -0.04186146389002768 0 0 
0.03452953869228585 -0.04186146389002768 0 0 
0 0 0 0 
-0.02940166486679642 -0.1 0.1 0 
-0.02940166486679642 -0.1 0.1 0 
0 0 0 0 
0 0 0 0 
0 0 0 0 
0 0 0 0 
0.09979594133851956 -0.05201288412262128 0 0 
0 0 0 0 
-0.1 0.1 0 0 
0 0 0 0 
0 0 0 0 
0 0 0 0 
0 0 0 0 
0 0 0 0 
0 0 0 0 
0 0 0 0 
0 0 0 0 
0 0 0 0 
0.05603709738242241 -0.06876034908837786 0 0 
0.05277645762601643 -0.03885648303951052 0 0 
0 0 0 0 
0 0 0 0 
-0.1 -0.01552460481857777 0.1 0 
0 0 0 0 
0 0 0 0 
0.1 -0.1 -0.007106795507707041 0 
0 0 0 0 
0 0 0 0 
0 0 0 0 
0 0 0 0 
0 0 0 0 
0 0 0 0 
0.0004718453992582232 0 0 0 
0 0 0 0 
-0.1436900538499379 -0.1150603509745031 0 0.2 
0 0 0 0 
0 0 0 0 
0 0 0 0 
0 0 0 0 
0.1 -0.1 0 0 
0.1 -0.1 0 0 
0 0 0 0 
0 0 0 0 
0 0 0 0 
0 0 0 0 
0 0 0 0 
0 0 0 0 
0 0 0 0 
0 0 0 0 
0 0 0 0 
0.1 -0.1 0 0 
0.1 -0.1 0 0 
0.1 -0.1 0 0 
0 0 0 0 
0 0 0 0 
0 0 0 0 
0 0 0 0 
0 0 0 0 
0 0 0 0 
0 0 0 0 
0.1 -0.09228528825828849 -0.005895758787061866 -0.01913055725462284 
0 0 0 0 
0 0 0 0 
0 0 0 0 
0 0 0 0 
0 0 0 0 
0 0 0 0 
0 0 0 0 
0 0 0 0 
0 0 0 0 
0 0 0 0 
0 0 0 0 
0 0 0 -0.004357534022301704 
0 0 0 0 
-0.07670309306507296 0.1 -0.05991328194204198 -0.05046889994663102 
0 0 0 0 
0 0 0 0 
0 0 0 0 
0 0 0 0 
0 0 0 0 
0 0 0 0 
0 0 0 0 
0 0 0 0 
-0.1 0.1 -0.02082938453839807 0 
0 0 0 0 
0 0 0 0 
0 0 0 0 
0 0 0 0 
-0.1 0.1 0 0 
0 0 0 0 
0 0 0 0 
0 0 0 0 
0 0 0 0 
0 0 0 0 
0.08797068136952697 -0.03757552475313163 0 0 
0.08797068136952699 -0.03757552475313163 0 0 
-0.01202931863047302 0.06242447524686839 -0.01247221539603822 -0.003991037941487564 
0.175941362739054 -0.07515104950626325 0 0 
0.08797068136952699 -0.03757552475313163 0 0 
0.08797068136952699 -0.03757552475313163 0 0 
0.08797068136952699 -0.03757552475313163 0 0 
0.003432800884489249 -0.03427890831247946 0.1 0 
-0.05132422700695818 -0.1709989775637992 0.2 -0.009908558178725393 
-0.02319071419192282 -0.03427890831247946 0.1 0 
-0.02319071419192282 -0.03427890831247946 0.1 0 
-0.02319071419192282 -0.03427890831247946 0.1 0 
-0.02319071419192282 -0.03427890831247946 0.1 0 
0 0 0 0 
-0.1 0.1 -0.01156762183018034 0 
-0.1 0.1 -0.01156762183018034 0 
0 0 0 0 
0 0 0 0 
0 0 0 0 
0.0004718453992582232 0 0 0 
0 0 0 0 
-0.0439777140861867 0.0720671688605117 0 0 
-0.1316691641388607 0.0720671688605117 0.1 0 
-0.0439777140861867 0.0720671688605117 0 0 
-0.0439777140861867 0.0720671688605117 0 0 
0.1 -0.1 0 0 
0 0 0 0 
0 0 0 0 
0 0 0 0 
0 0 0 0 
0 0 0 0 
0 0 0 0 
0 0 0 0 
0.1 -0.08884888540858206 0 0 
0.1 -0.08884888540858206 0 0 
0 0 0 0 
0 0 0 0 
0 0 0 0 
0.1 -0.08977057222871797 0 0 
0 0 0 0 
0.005076818054829547 -0.003159856945161787 0 0 
0 -0.1 0.1 0 
0 0 0 0 
0 0 0 0 
0 0 0 0 
0 0 0 0 
0 0 0 0 
0 0 0 0 
0 0 0 0 
0 0 0 0 
0 0 0 0 
-0.1 -0.1 0.1 -0.009916301054456369 
0 0 0 0 
0 0 0 0 
0 0 0 0 
-0.1 0.1 0 0 
0 0 0 0 
0 0 0 0 
0 0 0 0 
0 0 0 0 
0 0 0 0 
-0.03720924271544904 -0.03218454171045944 0.1 0 
0 0 0 0 
0 0 0 0 
0 0 0 0 
0 0 0 0 
0 0 0 0 
0 0 0 0 
0 0 0 0 
0 0 0 0 
0 0 0 0 
0 0 0 0 
0.1 -0.05797618791595229 -0.008069142886222661 0 
0 0 0 0 
0 0 0 0 
0 0 0 0 
0 0 0 0 
0 0 0 0 
0 0 0 0 
0 0 0 0 
0 0 0 0 
0 0 0 0 
-0.04057219690241887 0.01574119721435742 0 0 
0 0 0 0 
0 0 0 0 
0 0 0 0 
0 0 0 0 
0 0 0 0 
0 0 0 0 
-0.1 -0.01552460481857777 0.1 0 
0 0 0 0 
0 0 0 0 
0 0 0 0 
0 0 0 0 
0 0 0 0 
0 0 0 0 
0 0 0 0 
0 0 0 0 
0.1 -0.1 -0.1 -0.08317816977237322 
0.01551295254232822 0 0 0 
0 0 0 0 
0 0 0 0 
0 0 0 0 
0 0 0 0 
0 0 0 0 
-0.008089433449886585 0.06758915360180133 0 0 
-0.1 0.1 0 0 
0 0 0 0 
0 0 0 0 
0 0 0 0 
0 0 0 0 
-0.1306071930330751 0 0.1 0 
-0.08724964409810027 -0.1 0.1 0 
0 0 0 0 
0 0 0 0 
0 0 0 0 
0 0 0 0 
0 0 0 0 
0 0 0 0 
0 0 0 0 
0.1 -0.06885970547518076 -0.01676453192760966 0 
0.01818355677052692 0.0272656323560001 -0.0499892639708236 0 
0 0 0 0 
0 0 0 0 
0 0 0 0 
0 0 0 0 
0 0 0 0 
0 0 0 0 
0 0 0 0 
0 0 0 0 
0 0 0 0 
0 0 0 0 
0 0 0 0 
0.03500081122119247 -0.02830022093746459 0 0 
0.03500081122119247 -0.02830022093746459 0 0 
0.03500081122119247 -0.02830022093746459 0 0 
0.1197146252330926 -0.06154609624442768 -0.07916624115200777 -0.09384642209340553 
0 0 0 0 
-0.1 0.1 -0.0207147805274208 0 
-0.1 0.1 -0.0207147805274208 0 
0 0 0 0 
0 0 0 0 
0 0 0 0 
0 0 0 0 
0 0 0 0 
-0.02819748138239765 0.0145425122146579 -0.0237463097204886 -3.469446951953614e-18 
0 0 0 0 
0 0 0 0 
0 0 0 0 
0 0 0 0 
0 0 0 0 
0 0 0 0 
0.06245466204037756 0 0 0 
0 0 -0.04872659453540385 0 
0 0 0 0 
0 0 0 0 
0 0 0 0 
0 0 0 0 
0 0 0 0 
0 0 0 0 
0 0 0 0 
0 0 0 0 
0.003255961651681854 -0.0143247867364062 -0.002136003330564437 0 
0.003255961651681854 -0.0143247867364062 -0.002136003330564437 0 
0.003255961651681854 -0.0143247867364062 -0.002136003330564437 0 
-0.1 0.1 0 0 
0 0 0 0 
0 0 0 0 
0 0 0 0 
0 0 0 0 
0 0 0 0 
0 0 0 0 
0 0 0 0 
0 0 0 0 
0 0 0 0 
0 0 0 0 
0 0 0 0 
0 0 0 0 
0 0 0 0 
0 0 0 0 
0 0 0 0 
0 0 0 0 
0 0 0 0 
0 0 0 0 
0 0 0 0 
0 0 0 0 
0 0 0 0 
0 0 0 0 
0 0 0 0 
0 0 0 0 
0.2 -0.1478588882701323 -0.05272805194463111 0 
0 0 0 0 
0 0 0 0 
0 0 0 0 
0 0 0 0 
0 0 0 0 
0 0 0 0 
0 0 0 0 
0.1 -0.1 -0.007106795507707041 0 
0.1 -0.1 -0.007106795507707041 0 
0 0 0 0 
0 0 0 0 
0 0 0 0 
0.1 -0.1 -0.05221784316031118 0 
0.1 -0.1 -0.05221784316031118 0 
0.1 -0.1 -0.05221784316031118 0 
0.1 -0.1 -0.05221784316031118 0 
0 0 0 0 
0 0 0 0 
0 0 0 0 
0 0 0 0 
0 0 0 0 
0 0 0 0 
0 0 0 0 
0 0 0 0 
0 0 0 0 
0 0 0 0 
0 0 0 0 
0 0 0 0 
0 0 0 0 
0 0 0 0 
-0.05493689889886266 0.2000000000000001 -0.1285580482748174 -0.09556299284828423 
0 0 0 0 
0 0 0 0 
0.1 -0.1 -0.1 -0.1 
0 -0.1586485807878984 -0.1050362584113855 0 
0 0 0 0 
0 0 0 0 
0 0 0 0 
0 0 0 0 
0.1 -0.1 0 0 
0 0 0 0 
0 0 0 0 
0.1 -0.1 -0.01345110856363788 -0.05776693090400901 
0 0 0 0 
0 0 0 0 
0 0 0 0 
0 0 0 0 
0 0 0 0 
0 0 0 0 
0.1 -0.06169969033508284 0 0 
-0.07631412074482818 0.07018223054269854 0 0 
-0.07631412074482818 0.07018223054269854 0 0 
-0.07631412074482818 0.07018223054269854 0 0 
-0.07631412074482818 0.07018223054269854 0 0 
-0.07631412074482818 0.07018223054269854 0 0 
0 0 0 0 
0 0 0 0 
0 0 0 0 
0 0 0 0 
0 0 0 0 
0 0 0 0 
0 0 0 0 
0 0 0 0 
-0.02626100842187044 0.01977247836715353 0 0 
-0.02626100842187044 0.01977247836715353 0 0 
0 0 0 0 
0 0 0 0 
0 0 0 0 
0 0 0 0 
-0.1 0.1 -0.00802232363729018 0 
0 0 0 0 
0 0 0 0 
0.1 -0.1 0 0 
0.1 -0.1 0 0 
0.1 -0.1 0 0 
0.1 -0.1 -0.09599879465278464 -0.01278399581640042 
0 0 0 0 
0 0 0 0 
-0.1 0.1 -0.1 -0.0668675039797326 
-0.0992843722675993 0.05940678470909817 0 0 
-0.1992843722675993 0.04434643373459511 0 0.1 
-0.05397481975930411 -0.05992628558972369 -0.02586632726765704 0.1 
0 0 0 0 
0 0 0 0 
0.1 -0.1 -0.04620229405639427 -0.04229539611862115 
0 0 0 0 
0 0 0 0 
0 0 0 0 
0 0 0 0 
0.04540409755281898 -0.01369207475880736 -0.01490240428963804 0 
0 0 0 0 
0 0 0 0 
0 0 0 0 
0 0 0 0 
0 0 0 0 
0 0 0 0 
0 0 0 0 
0 0 0 0 
0 0 0 0 
0 0 0 0 
0 0 0 0 
0 0 0 0 
0 0 0 0 
0 0 0 0 
0.1 -0.1 0 0 
0 0 0 0 
0 0 0 0 
0 0 0 0 
0 0 0 0 
0 0 0 0 
0 0 0 0 
0.1 -0.07161483170891936 0 0 
0 0 0 0 
0 0 0 0 
0.1 -0.06169969033508284 0 0 
0.07238784277091739 -0.09034999409167854 -0.01490240428963804 0 
0.04540409755281898 -0.01369207475880736 -0.01490240428963804 0 
0.04540409755281898 -0.01369207475880736 -0.01490240428963804 0 
0.04540409755281898 -0.01369207475880736 -0.01490240428963804 0 
0.0458759429520772 -0.01369207475880736 -0.01490240428963804 0 
0 0 0 0 
0 0 0 0 
0.1 0 -0.1 -0.02201185948340417 
-0.0494581171128259 0.1 0 0 
0 0 0 0 
0 0 0 0 
0 0 0 0 
0 0 0 0 
-0.1 0.1 0 0 
0 0 0 0 
0 0 0 0 
0 0 0 0 
0 0 0 0 
0 0 0 0 
0 0 0 0 
0 0 0 0 
0 0 0 0 
0 0 0 0 
0 0 0 0 
0 0 0 0 
0 0 0 0 
0 0 0 0 
0 0 0 0 
0.1 -0.05303139661477559 -0.01796521797833196 0 
0 0 0 0 
0 0 0 0 
0 0 0 0 
0 0 0 0 
0 0 0 0 
-0.1 0.1 0 0 
0 0 0 0 
0 0 0 0 
0 0 0 0 
0 0 0 0 
0 0 0 0 
0 0 0 0 
0.06539528215768439 -0.03010776851392659 0 0 
0 0 0 0 
0 0 0 0 
-0.1 -0.01506035097450307 0 0.1 
0 0 0 0 
0 0 0 0 
0.1 -0.02793092916007881 0 0 
0.2 -0.1279309291600788 0 0 
0.1 -0.02793092916007881 0 0 
-0.003049606612302444 -0.02101685407837137 0.03843293565678176 -0.002070174076288706 
0 0 0 0 
0 0 0 0 
0 0 0 0 
-0.01673152695685136 0.1 0 0 
-0.01673152695685136 0.1 0 0 
0 0 0 0 
0 0 0 0 
0 0 0 0 
0 0 0 0 
0 0 0 0 
0 0 0 0 
0 0 0 0 
0 0 0 0 
0 0 0 0 
0 0 0 0 
-0.08538774845616913 -0.1 0 0.1 
-0.004164604311729768 0.03677048668043196 0 0 
-0.004164604311729768 0.03677048668043196 0 0 
-0.004164604311729768 0.03677048668043196 0 0 
-0.004164604311729768 0.03677048668043196 0 0 
-0.004164604311729768 0.09782858590240272 0 0 
-0.004164604311729768 0.03677048668043196 0 0 
0 0 0 0 
0 0 0 0 
0 0 0 0 
-0.07301625478190157 -0.07665791933287118 0.1 0 
0 0 0 0 
0 0 0 0 
0 0 0 0 
0 0 0 0 
0 0 0 0 
0 0 0 0 
0 0 0 0 
0 0 0 0 
0 0 0 0 
0 0 0 0 
0 0 0 0 
0 0 0 0 
0 0 0 0 
0 0 0 0 
0 0 0 0 
0 0 0 0 
0 0 0 0 
0 0 0 0 
0 0 0 0 
0 0 0 0 
0 0 0 0 
0 0 0 0 
0 0 0 0 
0 0 0 0 
0 0 -0.04534191113591651 0 
0 0 -0.04534191113591651 0 
0 0 0 0 
0 0 0 0 
0 0 0 0 
0 0 0 0 
0 0 0 0 
0 0 0 0 
0 0 0 0 
0 0 0 0 
0 0 0 0 
0 0 0 0 
0 0 0 0 
0 0 0 0 
0 0 0 0 
0 0 0 0 
0 0 0 0 
0 0 0 0 
0 0 0 0 
0 0 0 0 
0 0 0 0 
0 0 0 0 
0 0 0 0 
0 0 0 0 
0 0 0 0 
0 0 0 0 
-0.0927938552361435 0.1 0 0 
-0.0927938552361435 0.1 0 0 
-0.0927938552361435 0.1 0 0 
-0.1 0.1 -0.03371766482679591 0 
-0.1 0.1 -0.03371766482679591 0 
-0.1 0.1 -0.03371766482679591 0 
0 0 0 0 
0 0 0 0 
0 0 0 0 
0 0 0 0 
0 0 0 0 
0 0 0 0 
0 0 0 0 
0 0 0 0 
0 0 0 0 
0 0 0 0 
0 0 0 0 
0 0.1 0 0 
0 0 0 0 
0 0 0 0 
0.05277645762601643 -0.03885648303951052 0 0 
0.05277645762601643 -0.03885648303951052 0 0 
0.05277645762601643 -0.03885648303951052 0 0 
0 0 0 0 
0 0 0 0 
0 0 0 0 
0.04388896993985084 0 0 0 
-0.05611103006014917 0.09999999999999999 0 0 
0 0 0 0 
0 0 0 0 
0 0 0 0 
0 0 0 0 
0 0 0 0 
0 0 0 0 
0 0 0 0 
-0.03720924271544904 -0.03218454171045944 0.1 0 
-0.03720924271544904 -0.03218454171045944 0.1 0 
0 0 0 0 
0 0 0 0 
0 0 0 0 
0 0 0 0 
0 0 0 0 
0 0 0 0 
0.1 -0.1 -0.1 -0.1 
0.1 -0.09999999999999999 -0.1 -0.1 
0 0 0 0 
0 0 0 0 
0 0 0 0 
0.1 -0.1 -0.1 0 
0 0 0 0 
-0.09888588861114504 0.1 -0.1 -0.0190932854326371 
0 0 0 0 
0 0 0 0 
0 0 0 0 
0 0 0 0 
-0.09627030939590875 -0.1 0.1 0 
-0.09627030939590875 -0.1 0.1 0 
0 0 0 0 
0 0 0 0 
0 0 0 0 
0 0 0 0 
0 -0.1 0.1 0 
0 0 0 0 
0 0 0 0 
0 0 0 0 
0.05195048056523684 -0.06268788425459094 0 0 
0 0 0 0 
0 0 0 0 
0 0 0 0 
0 0 0 0 
0 0 0 0 
0 0 0 0 
0.1 -0.04226645652770689 0 0 
0 0 0 0 
0 0 0 0 
0 0 0 0 
0 0 0 0 
-0.1 0.1 0 0 
0 0 0 0 
0.09988584996362236 0 0 0 
0.09988584996362236 0 0 0 
0 0 0 0 
0.09857033036835702 -0.1 -0.005773114002457252 0 
0 0 0 0 
0 0 0 0 
-0.1 0 0.1 0 
-0.1 0 0.1 0 
-0.1 0.1 0 0 
0.1004718453992582 -0.1 0 0 
0.0004718453992582232 0 0 0 
0.0004718453992582232 0 0 0 
0.0004718453992582232 0 0 0 
0.0004718453992582232 0 0 0 
0.06594907662087922 -0.05084872476810347 0 0 
0 0.004674044148341035 0 0 
0 0 0 0 
0 0 0 0 
0 0 0 0 
-0.1 0.1 0 0 
0 0 0 0 
0 0 0 0 
0 0 0 0 
0 0 0 0 
0 0 0 0 
0 0 0 0 
0 0 0 0 
0.1 -0.1 0 0 
0 0 0 0 
0 0 0 0 
0 0 0 0 
0 0 0 0 
0 0 0 0 
0 0 0 0 
0 0 0 0 
0 0 0 0 
-0.06339836794300226 0.09373799898294521 0 0 
-0.06339836794300226 0.09373799898294521 0 0 
-0.06339836794300226 0.09373799898294521 0 0 
-0.06339836794300226 0.09373799898294521 0 0 
-0.06339836794300226 0.09373799898294521 0 0 
-0.06339836794300226 0.09373799898294521 0 0 
0.1 -0.1 0 0 
0.1 -0.1 0 0 
0 0 0 0 
0 0 0 0 
-0.1 0.1 0 0 
0 0 0 0 
0 0 0 0 
0 0 0 0 
0 0 0 0 
-0.08769145005267413 0.1 0 0 
0 0 0 0 
0 0 0 0 
0.08950777468947402 -0.1727593741146738 -0.001684193919293602 0 
0 0 0 0 
0 0 0 0 
0 0 0 0 
0 0 0 0 
0 0 0 0 
0 0 0 0 
0 0 0 0 
0 0 0 0 
0 0 0 0 
0 0 0 0 
0 0 0 0 
0 0 0 0 
0.1 -0.08228953091003549 -0.06670389259158686 -0.02765424411792999 
0.1 -0.08228953091003549 -0.06670389259158686 -0.02765424411792999 
0 0 0 0 
0 0 0 0 
0 0 0 0 
0 0 0 0 
0 0 0 0 
0 0 0 0 
0 0 0 0 
0 0 0 0 
0 0 0 0 
0 0 0 0 
0 0 0 0 
0 0 0 0 
0 0 0 0 
0 0 0 0 
0 0 0 0 
0 0 0 0 
0 0 0 0 
-0.1 0.1 0 0 
-0.1 0.1 0 0 
0 0 0 0 
0 0 0 0 
0 0 0 0 
-0.1746369601467976 0.2000000000000001 -0.02536837344479938 0 
-0.1 0.1 0 0 
-0.1 0.1 0 0 
0 0 0 0 
-0.1 0.06207637636884977 -0.0281201401979344 -0.01484788044864472 
0.06047570577438328 -0.007312438981581106 0 0 
0 0 0 0 
0 0 0 0 
0 0 0 0 
0 0 0 0 
0 0 0 0 
0 0 0 0 
0 0 0 0 
0 0 0 0 
0 0 0 0 
0 0 0 0 
0 0 0 0 
0 0 0 0 
0 0 0 0 
0 0 -0.00319565172731525 0 
0 0 0 0 
0 0 0 0 
0 0 0 0 
0.01971462523309258 -0.01146963927181736 -0.002131699133647178 0 
0.01971462523309258 -0.01146963927181736 -0.002131699133647178 0 
0.01971462523309258 -0.01146963927181736 -0.002131699133647178 0 
0 0 0 0 
0 0 0 0 
0 0 0 0 
0 0 0 0 
0 0 0 0 
0 0 0 0 
0 0 0 0 
0 0 0 0 
0 0 0 0 
0 0 0 0 
0 0 0 0 
0 0 0 0 
0 0 0 0 
0 0 0 0 
0 0 0 0 
0 0 0 0 
0 0 0 0 
0 0 0 0 
0 0 0 0 
0 0 0 0 
0 0 0 0 
0 0 0 0 
0 0 0 0 
0 0 0 0 
0 0 0 0 
0 0 0 0 
0 0 0 0 
0 0 0 0 
-0.0185490018962531 -0.1 0.1 0 
0 0 0 0 
0 0 0 0 
0 0 0 0 
0 0 0 0 
0 0 0 0 
0 0 0 0 
0.008592437493979489 0.0164994409240106 -0.05979415214511404 -0.01293858797680441 
0 0 0 0 
0 0 0 0 
0 0 0 0 
0.01512455497276921 0 -0.03420224491475207 0 
0.01512455497276921 0 -0.03420224491475207 0 
0 0 0 0 
0 0 0 0 
-0.1 0.1 -0.1 0 
0 0 0 0 
0 0 0 0 
0 0 0 0 
0 0 0 0 
0 0 0 0 
0 0 0 0 
0 0 0 0 
0 0 0 0 
0 0 0 0 
0 0 0 0 
0 0 0 0 
0 0 0 0 
0 0 0 0 
0 0 0 0 
0 0.01931706763738307 0 0 
0 0.01931706763738307 0 0 
0 0 0 0 
0 0 0 0 
0 0 0 0 
0 0 0 0 
0 0 0 0 
0 0 0 0 
0 0 0 0 
0 0 0 0 
0 0 0 0 
0 0 0 0 
0 0 0 0 
0 0 0 0 
0 0 0 0 
-0.09530521247021684 0.08770229338182434 0 0 
0 0 0 0 
0 0 0 0 
-0.1 0.1 0 0 
0 0 0 0 
0 0 0 0 
0 0 0 0 
0 0 0 0 
0 0 0 0 
0 0 0 0 
0 0 0 0 
0 0 0 0 
0 0 0 0 
0 0 0 0 
0 0 0 0 
0 0 0 0 
0 0 0 0 
0 0 0 0 
0.1 -0.1 0 0 
0 0 0 0 
0.135099327864637 -0.07864459521756649 -0.02099384603849047 0 
0.03509932786463706 0 -0.02099384603849047 0 
0 0 0 0 
0 0 0 0 
0 0 0 0 
0 0 0 0 
0 0 0 0 
0 0 0 0 
0 0 0 0 
0 0 0 0 
0 0 0 0 
0 0 0 0 
0 0 0 0 
0.0416976946062312 0 0 0 
0 0 0 0 
0 0 0 0 
0 0 0 0 
0 0 0 0 
0 0 0 0 
0 0 0 0 
0 0 0 0 
0.06567038917621179 -0.04785563429205004 0 0 
0 0 0 0 
0 0 0 0 
0 0 0 0 
0 0 0 0 
-0.05990255384715765 0.07828392852589684 0 0 
-0.05990255384715765 0.07828392852589684 0 0 
0 0 0 0 
0 0 0 0 
0 0 0 0 
0 0 0 0 
0 0 0 0 
0 0 0 0 
0 0 0 0 
0 0 0 0 
0 0 0 0 
0 0 0 0 
0 0 0 0 
0 0 0 0 
0 0 0 0 
0 0 0 0 
0 0 0 0 
0 0 0 0 
0 0 0 0 
-0.1 0.1 -0.1 0 
-0.06548315584523061 0.09769106239369675 0 0 
-0.1 0.1 -0.02082938453839807 0 
0 0 0 0 
0 0 0 0 
0 0 0 0 
0 0 0 0 
0 0 0 0 
0 0 0 0 
0 0 0 0 
0 0 0 0 
0 0 0 0 
0 0 0 0 
0 0 0 0 
0 0 0 0 
0 0 0 0 
0 0 0 0 
0 0 0 0 
0 0 0 0 
0 0.0164994409240106 0 0 
0.09630994750189976 -0.08993666457889202 0 0 
0.02662351507641207 0 0 0 
0 0.001841801172166036 -0.01453415542896484 -0.0208984420849437 
0 0 0 0 
0 0 0 0 
0 0 0 0 
0 0 0 0 
0 0 0 0 
0 0 0 0 
0 0 0 0 
0 0 0 0 
-0.1 0.1 -0.00802232363729018 0 
-0.1 0.1 -0.00802232363729018 0 
0 0 0 0 
0 0 0 0 
0 0 0 0 
0.05872560581849867 -0.07275937411467383 0 0 
0.05872560581849867 -0.07275937411467383 0 0 
0.05872560581849867 -0.07275937411467383 0 0 
0 0 0 0 
0 0 0 0 
0 0 0 0 
0 0 0 0 
0 0 0 0 
0.03122733102018878 0 0 0 
0 0 0 0 
0 0 0 0 
-0.1 0.1 0 0 
0 0 0 0 
0 0 0 0 
0 0 0 0 
0 0 0 0 
0 0 0 0 
0 0 0 0 
0.06968643242548771 -0.08993666457889202 0 0 
0 0 0 0 
0.0659490766208792 -0.0555227689164445 0 0 
0 0 0 0 
0 0 0 0 
0 0 0 0 
0 0 0 0 
0 0 0 0 
0 0 0 0 
0 0 0 0 
0 0 0 0 
0 0 0 0 
0 0 0 0 
0 0 0 0 
0 0 0 0 
0 0 0 0 
0 0 0 0 
0.1 -0.1 0 0 
0.1 -0.1 0 0 
0 0 0 0 
0 0 0 0 
0 0 0 0 
0 0 0 0 
0 0 0 0 
0 0 0 0 
0 0 0 0 
0 0 0 0 
0 0 0 0 
0 0 0 0 
0 0 0 0 
0 0 0 0 
0 0 0 0 
0 0 0 0 
0 0 0 0 
0 0 0 0 
0 0 0 0 
0 0 0 0 
0 0 0 0 
0 0 0 0 
0.1 -0.1 0 0 
0 0 0 0 
0 0 0 0 
0 0 0 0 
0.05256502638170162 -0.03534054568531854 0 0 
0.05256502638170162 -0.03534054568531854 0 0 
0.1 -0.1 0 0 
0.1 -0.1 0 0 
0 0 0 0 
0.1 -0.1 -0.03380438133230944 0 
0 0 0 0 
0 0 0 0 
0 0 0 0 
0 0 0 0 
0 0 0 0 
0 0 0 0 
0 0 0 0 
0 0 0 0 
0 0 0 0 
0 0 0 0 
0 0 0 0 
0 0 0 0 
0 0 0 0 
0 0 0 0 
0 0 0 0 
0 0 0 0 
0 0 0 0 
-0.01069377912672034 0.03790402139983261 0 0 
0 0 0 0 
0 0 0 0 
0 0 0 0 
0 0 0 0 
0 0 0 0 
0 0 0 0 
0 0 0 0 
0 0 0 0 
0 0 0 0 
0 0 0 0 
0 0 0 0 
0 0 0 0 
-0.09683631502685053 0.05756490742524122 0 0 
0 0 0 0 
0 0 0 0 
0 0 0 0 
0 0 0 0 
0 0 0 0 
0 0 0 0 
0 0 0 0 
0 0 0 0 
0 0 0 0 
0 0 0 0 
0 0 0 0 
0 0 0 0 
0 0 0 0 
0 0 0 0 
0 0 0 0 
0 0 0 0 
0 0 0 0 
0 0 0 0 
0 0 0 0 
0 0 0 0 
0 0 0 0 
0 0 0 0 
0 0 0 0 
0 0 0 0 
0 0 0 0 
0 0 0 0 
0.1 -0.1 0 0 
0 0 0 0 
0 0 0 0 
0 0 0 0 
0 0 0 0 
0 0 0 0 
0 0 0 0 
0 0 0 0 
0 0 0 0 
0 0 0 0 
0 0 0 0 
0.1 -0.06739631961689541 0 0 
0 0 0 0 
0 0 0 0 
0 0 -0.0165757993012028 0 
0 0 0 0 
0 0 0 0 
0 0 0 0 
0 0 0 0 
0 0 0 0 
0 0 0 0 
0 0 0 0 
0 0 0 0 
0 0 0 0 
0 0.1 0 0 
0 0.1 0 0 
0 0 0 0 
0 0 0 0 
0 0.01319555453981729 0 0 
0 0 0 0 
0 0 0 0 
0 0 0 0 
0.2183208651102116 -0.1457974853746876 -0.05802212703096703 -0.06663248321744743 
0 0 0 0 
0 0 0 0 
0 0 0 0 
0 0 0 0 
0 -0.1586485807878984 -0.06446859268617115 0.08384930782665491 
0 0 0 0 
0 0 0 0 
0.1 -0.1 0 0 
0 0 0 0 
0 0 0 0 
-0.1 -0.08044433691879399 0 0.1 
-0.1 -0.08044433691879399 0 0.1 
-0.1 -0.08044433691879399 0 0.1 
0 0 0 0 
0 0 0 0 
0 0 0 0 
0 0 0 0 
0 0 0 0 
0 0 0 0 
0.1 -0.07864459521756649 0 0 
0 0 0 0 
0.05393011454318009 -0.05902850428789943 0 0 
0.05393011454318009 -0.05902850428789943 0 0 
0.05393011454318009 -0.05902850428789943 0 0 
0 0 0 0 
0 0 0 0 
0 0 0 0 
0 0 0 0 
0 0 0 0 
0 0 0 0 
-0.04304140360148678 0.03677073925424662 0 0 
0 0 0 0 
0 0 0 0 
0 0 0 0 
0 0 0 0 
0 0 0 0 
0.1 -0.1 0 0 
-0.1 0.1 0 0 
0 0 0 0 
0 0 0 0 
0 0 0 0 
0 0 0 0 
0 0 0 0 
0 0 0 0 
0 0 0 0 
0 0 0 0 
0 0 0 0 
0 0 0 0 
0 0 0 0 
0 0 0 0 
0 0 0 0 
0 0 0 0 
0 0 0 0 
0 0 0 0 
0 0 0 0 
0 0 0 0 
0.06212417222979395 0 -0.05802212703096703 -0.06663248321744743 
0.06212417222979395 0 -0.05802212703096703 -0.06663248321744743 
0.06212417222979395 0 -0.05802212703096703 -0.06663248321744743 
0 0 0 0 
0 0 0 0 
0 0 0 0 
0 0 0 0 
0 0 0 0 
-0.1 -0.1 0.1 0 
0 0 0 0 
0 0 0 0 
0 1.301042606982605e-18 0 0 
0 0 0 0 
-0.1 0.1 -0.1 -0.0009158259852143696 
0 0 0 0 
0 0 0 0 
0 0 0 0 
0 0 0 0 
0 0 0 0 
0 0 0 0 
0 0 0 0 
0 0 0 0 
0 0 0 0 
0 0 0 0 
0 0 0 0 
0.2 -0.1478588882701323 0 0 
0.1 -0.04785888827013222 0 0 
0.1 -0.04785888827013222 0 0 
0 0 0 0 
0 0 0 0 
0 0 0 0 
0 0 0 0 
0 0 0 0 
0 0 0 0 
0 0 0 0 
0 0 0 0 
0 0 0 0 
0 0 0 0 
0 0 0 0 
0 0 0 0 
0 0 0 0 
0 0 0 0 
0 0 0 0 
0 0 0 0 
0 0 0 0 
0 0 0 0 
0 0 0 0 
0 0 0 0 
0 0 0 0 
0 0 0 0 
0 0 0 0 
0 0 0 0 
0 0 0 0 
0 0 0 0 
0 0 0 0 
-0.1 0.1 -0.01247221539603822 -0.003991037941487564 
-0.1 0.1 -0.01247221539603822 -0.003991037941487564 
0 0 0 0 
0 0 0 0 
0 0 0 0 
0 0 0 0 
0 0 0 0 
0 0 0 0 
0 0 0 0 
0 0 0 0 
0 0 0 0 
0 0 0 0 
0 0 -0.03910646235617959 0 
0.1 -0.1 0 0 
0 0 0 0 
0 0.1 -0.01371714970083605 0 
0 0 0 0 
0 0 0 0 
0 0 0 0 
0 0 0 0 
0 0 0 0 
0 0 0 0 
0 0 0 0 
0 0 0 0 
0 0 0 0 
0 0 0 0 
0 0 0 0 
0 0 0 0 
0 0 0 0 
0 -0.1 0.1 0 
0 -0.1 0.1 0 
0 -0.1 0.1 0 
0 0 0 0 
0 0 0 0 
0 0 0 0 
0 0 0 0 
0 0 0 0 
0 0 0 0 
0 0 0 0 
0 0 0 0 
0.1 -0.1 0 0 
0.1 -0.1 0 0 
-0.02333600017832395 -0.04826365544052574 0.1 0 
-0.02333600017832395 -0.04826365544052574 0.1 0 
0 0 0 0 
0 0 0 0 
0 0 0 0 
0 0 0 0 
0 0 0 0 
0 0 0 0 
0 0 0 0 
0 0 0 0 
0 0 0 0 
0 0 0 0 
0.03692387931842039 -0.006293783978289263 0 0 
0.03692387931842039 -0.006293783978289263 0 0 
0 0 0 0 
0 0 0 0 
0 0 0 0 
0 0 0 0 
0 0 0 0 
0 0 0 0 
0 0 0 0 
0 0 0 0 
0 0 0 0 
0 0 0 0 
0 0 0 0 
0 0 0 0 
0 0 0 0 
0 0 0 0 
0 0 0 0 
0 0 0 0 
0 0 0 0 
0 0 0 0 
0 0 0 0 
0 0 0 0 
0.1 -0.1 0 -0.01365702513227645 
0.1 -0.1 0 -0.01365702513227645 
-0.1 0.1 0 0 
-0.1 0.1 0 0 
0 0 0 0 
0 0 0 0 
0 0 0 0 
0 0 0 0 
0 0 0 0 
0 0 0 0 
0 0 0 0 
0 0 0 0 
0 0 0 0 
0 0 0 0 
0 0 0 0 
0 0 0 0 
0 0 0 0 
-0.1 0.04672593458149311 0 0 
0 0 0 0 
0 0 0 0 
0 0 0 0 
0 0 0 0 
0 0 0 0 
0 0 0 0 
0.1 -0.1 0 0 
0 0 0 0 
0 0 0 0 
0 0 0 0 
0.09857033036835702 -0.1 -0.005773114002457252 0 
0.09857033036835702 -0.1 -0.005773114002457252 0 
0 0 0 0 
0 0 0 0 
0 0 0 0 
0.07009077633186199 -0.01662876307800573 -0.03670551704227859 -0.01498447590758847 
0 0 0 0 
0 0 0 0 
0 0 0 0 
0 0 0 0 
0 0 0 0 
0 0 0 0 
0 0 0 0 
0 0 0 0 
0 0 0 0 
0 0 0 0 
0 0 0 0 
0 0 0 0 
0 0 0 0 
0 0 0 0 
0 0 0 0 
0 0 0 0 
0 0 0 0 
0 0 0 0 
0.1 -0.08977057222871797 0 0 
0.1 -0.08977057222871797 0 0 
0.1 -0.08977057222871797 0 0 
0 0 0 0 
0 0 0 0 
0 0 -0.02814298029187208 0 
0 0 0 0 
0 0 0 0 
0 0 0 0 
0 0 0 0 
0 0 0 0 
0 0 0 0 
0 0 0 0 
0 0 0 0 
0 0 0 0 
0 0 0 0 
0 0 0 0 
0 0 0 0 
0 0 0 0 
0 0 0 0 
-0.1 -0.05864858078789843 -0.005036258411385528 0.1 
-0.1 -0.05864858078789843 -0.005036258411385528 0.1 
0 0 0 0 
0 0 0 0 
0 0 0 0 
0 0 0 0 
0 0 0 0 
0 0 0 0 
0 0 0 0 
0 0 0 0 
0 0 0 0 
0 0 0 0 
0 0 0 0 
0.1 -0.1 -0.04620229405639427 -0.04229539611862115 
0 0 0 0 
0.1 -0.06169969033508284 0 0 
0 0 0 0 
0 0 0 0 
0 0 0 0 
0 0 0 0 
0 0 0 0 
0 0 0 0 
0 0 0 0 
0 0 0 0 
0 0 0 0 
0 0 0 0 
0 0 0 0 
0 0.07899014906744345 0 0 
0 0 0 0 
0 0 0 0 
0 0 0 0 
0 0 0 0 
0 0 0 0 
0 0 0 0 
0 0 0 0 
0 0 0 0 
0 0 0 0 
0 0 0 0 
0 0 0 0 
0 0 0 0 
0 0 0 0 
0 0 0 0 
-0.1 0.1 -0.01655010259225875 0 
-0.02819748138239764 0.0145425122146579 -0.0237463097204886 0 
-0.02819748138239764 0.0145425122146579 -0.0237463097204886 0 
0 0 0 0 
0 0 0 0 
0 0 0 0 
0 0 0 0 
0 0 0 0 
0 0 0 0 
0 0 0 0 
0 0 0 0 
0 0 0 0 
0 0 0 0 
0 0 0 0 
0 0 0 0 
0 0 0 0 
0 0 0 0 
0 0 0 0 
0 0 0 0 
0 0 0 0 
0 0 0 0 
0.1 -0.04630933847883628 0 0 
0.1 -0.1 0 0 
0 0 0 0 
0 0 0 0 
0 0 0 0 
0 0 0 0 
0 0 0 0 
0 0 0 0 
0 -0.1 0.1 0 
0 0 0 0 
0.1 -0.1 0 0 
0.1 -0.1 0 0 
0.1 -0.1 0 0 
0.1 -0.06885970547518076 -0.01676453192760966 0 
0.1 -0.06885970547518076 -0.01676453192760966 0 
0 0 0 0 
0 0 0 0 
0 0 0 0 
0 0 0 0 
0 0 0 0 
0 0 0 0 
0 0 0 0 
0 0 0 0 
0 0 0 0 
0 0 0 0 
0 0 0 0 
0 0 0 0 
0 0 0 0 
-0.1 0.1 0 0 
-0.1 0.1 0 0 
0 0 0 0 
0 0 0 0 
0 0 0 0 
0 0 0 0 
0 0 0 0 
-0.09446180363558308 0.1 0 0 
0 0 0 0 
0 0 0 0 
0 0 0 0 
0 0 0 0 
0 0 0 0 
0 0 0 0 
0 0 0 0 
0 0 0 0 
0 0 0 0 
0 0 0 0 
0.1 -0.07335819643227269 0 0 
0.1 -0.07335819643227269 0 0 
0.1 -0.07335819643227269 0 0 
0.1 -0.07335819643227269 0 0 
0 0 0 0 
0 0 0 0 
0 0 0 0 
0 0 0 0 
0 0 0 0 
0 0 0 0 
0 0 0 0 
0 0 0 0 
0 0 0 0 
0 0 0 0 
-0.1 0.1069319689702673 0 0 
0 0 0 0 
0 0 0 0 
-0.02852410766565416 0 0 0 
0 0 0 0 
0 0 0 0 
0 0 0 0 
-0.1 0.06207637636884977 -0.0281201401979344 -0.01484788044864472 
-0.1 0.06207637636884977 -0.0281201401979344 -0.01484788044864472 
-0.1 0.06207637636884977 -0.0281201401979344 -0.01484788044864472 
0 0 0 0 
0 0 0 0 
0 0 0 0 
0 0 0 0 
0 0 0 0 
0 0 0 0 
0 0 0 0 
0 0 0 0 
0 0 0 0 
0 0 0 0 
0 0 0 0 
0 0 0 0 
0 0 0 0 
0 0 0 0 
0 0 0 0 
0 0 0 0 
0 0 0 0 
0 0 0 0 
0 0 0 0 
0 0 0 0 
0 0 0 0 
0 0 0 0 
0 0 0 0 
0 0 0 0 
0 0 0 0 
0 0 0 0 
0 0 0 0 
0 0 0 0 
0 0 0 0 
0 0 0 0 
0 0 0 0 
0 0 0 0 
0 -0.1 0.1 0 
0 0 0 0 
0 0 0 0 
0.1 -0.09096787970236214 0 0 
0.1 -0.09096787970236214 0 0 
0 0 0 0 
0 0 0 0 
0 0 0 0 
0 0 0 0 
0 0 0 0 
0 0 0 0 
0 0 0 0 
0 0 0 0 
0 0 0 0 
0 0 0 0 
0 0 0 0 
0 0 0 0 
0 0 0 0 
0 0 0 0 
0 0 0 0 
0 0 0 0 
0 0 0 0 
0 0 0 0 
0 0 0 0 
0 0 0 0 
0 0 0 0 
0.07186648718496466 -0.03672006925131967 0 0 
0.07186648718496466 -0.03672006925131967 0 0 
0.07186648718496466 -0.03672006925131967 0 0 
0.07186648718496466 -0.03672006925131967 0 0 
0.07186648718496466 -0.03672006925131967 0 0 
0 0 0 0 
0 0 0 0 
0 0 0 0 
0 0 0 0 
0 0 0 0 
0 0 0 0 
0 0 0 0 
0 0 0 0 
0 0 0 0 
0 0 0 0 
0 0 0 0 
-0.1 0.1 0 0 
-0.1 0.1 0 0 
0 0 0 0 
0 0 0 0 
0 0 0 0 
0 0 0 0 
0 0 0 0 
0 0 0 0 
0 0 0 0 
0 0 0 0 
0 0 0 0 
0 0 0 0 
0 0 0 0 
0 0 0 0 
0 0 0 0 
0 0 0 0 
-0.004158786615325167 0.001430030904788084 0 0 
-0.004158786615325167 0.001430030904788084 0 0 
0 0 0 0 
0 0 0 0 
0 0 0 0 
0 0 0 0 
0 0 0 0 
0 0 0 0 
0 0 0 0 
0 0 0 0 
-0.02250203241619645 0.1 -0.1 0 
0 0 0 0 
0 0 0 0 
0 0 0 0 
0 0 0 0 
0 0 0 0 
0 0 0 0 
0 0 0 0 
0 0 0 0 
0 0 0 0 
0 0 0 0 
0 0 0 0 
0 0 0 0 
0 0 0 0 
0 0 0 0 
0 0 0 0 
0 0 0 0 
0 0 0 0 
0 0 0 0 
0 0 0 0 
-0.1 -0.1 0 0.1 
0 0 0 0 
0 0 0 0 
0 0 0 0 
0 0 0 0 
0 0 0 0 
0 0 0 0 
0 0 0 0 
0 0 0 0 
0.08054576201335047 -0.07548889607482308 -0.002678085599810145 -0.01901794224192661 
0 0 0 0 
0 0 0 0 
0 0 0 0 
0 0 0 0 
0 0.01544508293604764 0 0 
0 0.01544508293604764 0 0 
0 0 0 0 
0 0 0 0 
0 0 0 0 
0 0 0 0 
0 0 0 0 
0 0 0 0 
0 0 0 0 
0 0 0 0 
0 0 0 0 
0 0 0 0 
0 0 0 0 
0 0 0 0 
0 0 0 0 
0 0 0 0 
0 0 0 0 
0 0 0 0 
0 0 0 0 
0 0 0 0 
0 0 0 0 
0 0 0 0 
0 0 0 0 
0.09395231162478389 0 0 0 
0 0 0 0 
0 0 0 0 
0.0567490139085415 -0.1 0 0 
0.0567490139085415 -0.1 0 0 
0.0567490139085415 -0.1 0 0 
0 0 0 0 
0 0 0 0 
0 0 0 0 
0 0 0 0 
0 0 0 0 
0 0 0 0 
0 0 0 0 
0 0 0 0 
0 0 0 0 
-0.08538774845616913 -0.1 0 0.1 
-0.1 0.1 0 0 
-0.1 0.1 -0.1 0 
0 0 0 0 
0 0 0 0 
0 0 0 0 
0 0 0 0 
0 0 0 0 
0 0 0 0 
0 0 0 0 
0 0 0 0 
0 0 0 0 
0 0 0 0 
-0.1 0.1 -0.1 -0.1 
0 0 0 0 
0 0 0 0 
0 0 0 0 
0 0 0 0 
0 0 0 0 
0 0 0 0 
0 0 0 0 
0 0 0 0 
0 0 0 0 
0 0 0 0 
0 0 0 0 
0 0 0 0 
0.1 -0.1 -0.1 -0.1 
0 0 0 0 
0 0 0 0 
0 0 0 0 
0 0 0 0 
0 0 0 0 
0 0 0 0 
0 0 0 0 
0 0 0 0 
0 0 0 0 
0.1 -0.1 0 0 
0 0 0 0 
0 0 0 0 
0.03078216887097529 -0.1 -0.001684193919293602 0 
0.03078216887097529 -0.1 -0.001684193919293602 0 
0 0 0 0 
0 0 0 0 
0 0 0 0 
0 0 0 0 
0 0 0 0 
0 0 0 0 
0 0 0 0 
0 0 0 0 
0 0 0 0 
0.1 -0.02733393701893468 -0.01210816535911197 0 
0 0 0 0 
0.06968643242548771 -0.08993666457889202 0 0 
0.1393728648509754 -0.179873329157784 0 0 
0.06968643242548771 -0.08993666457889202 0 0 
0 0 0 0 
0 0 0 0 
0 0 0 0 
0 0 0 0 
0 0 0 0 
0.06899976222033662 -0.07267622886536851 0 0 
