solver_type L2R_L1LOSS_SVC_DUAL
nr_class 4
label 1 0 3 2
nr_feature 3724
bias -1
w
-0.04613726669470974 0.03036434440614856 0.03059814897909592 -0.2614371165894133 
0 0 0 0 
-0.1202880084622187 0.03792407783317044 -0.4414130884735352 -0.2027515498719802 
0.09386803198992762 0.0916870316116692 -0.1231291872952827 0 
0 0 0 0 
0.2360315888440864 -0.2543254550381932 -0.0896902571883815 -0.1867938897221816 
0.3400459850229298 -0.2593829169975084 -0.2085301572427553 -0.1109087487992098 
0 0 0 0 
0.4787006802451503 -0.5042554411230213 -0.1382556435022064 -0.1393885970777056 
0 0 0 0 
-0.0190092845339672 0 0 0 
0.1361882670140594 -0.1265316229619477 -0.1047955592215716 -0.1170951069310466 
0 0 0 0 
0 0 0 0 
-0.02542634115744989 -0.1207715482611923 0.1249111603918894 -0.2138721195592783 
0.0218473776730686 -0.01582552783110812 0.09327963892099952 -0.005778147579102934 
0.08887356303826771 -0.1 -0.004795559221571641 -0.01709510693104663 
0.3910923352062352 -0.3293821301206573 -0.03567436606566708 -0.01928389458309833 
0.1032973812122782 -0.1 -0.06087169779210078 -0.06136313564326069 
0.145867654855576 -0.08799288928016799 -0.01489967015906412 0 
0.09439889576795496 -0.001996269388628563 -0.1250730005372644 -0.1 
0.0007511816226240379 -0.02241750554208955 -0.2369818553665713 -0.2698248832876385 
-0.4422455541171332 0.5421620072859903 -0.2670328153421372 -0.1031679801421027 
0.0563945307448206 -0.006251954080229117 -0.04796803705071753 0 
0 0 0 0 
0.1357823599340762 0.02425918909197854 -0.1332472028729969 -0.1643561646410853 
0 0 0 0 
0 0 0 0 
-0.4467704486178604 0.5629386577447707 -0.2053922308414309 -0.1965800283439736 
0 0 0 0 
-0.1 0.1 -0.00695886076101627 0 
0.1075387873538009 0.004889603452065796 -0.2144967418257328 -0.1926047354722491 
-0.1628588473890197 0.1858775894255897 -0.268089487307441 -0.3828132730894459 
-0.08127980647839515 0.1251769135786555 -0.3239023922710047 -0.3312413576035865 
0 0 0 0 
0 0 0 0 
-0.104326404773758 0.1263836728871487 -0.1529899783896089 -0.1774356208131472 
0 0 0 0 
0 0 0 0 
0.1 -0.1 -0.01730528128027352 -0.009453506054474375 
-0.05674902436168267 0.03406169993969786 -0.1642865679441281 -0.204044553102889 
-0.08480994154334276 -0.01239091793024913 -0.006720361079000474 -0.003323454082035161 
0.1119210562467587 -0.1845754047526705 0.04783666243395355 0 
-0.2398416562120423 0.3005095129185363 0.04126792797618187 -0.005356767794154393 
-0.2391023896915289 0.142014086212028 0.06775485206470808 -0.2686887057465665 
0.01707433108200528 0.06369211022114946 -0.2406052281812153 -0.1333074253498126 
0.16291512649292 -0.003466384818462278 -0.1488342248799333 -0.09389115726521978 
-0.01615096734886555 -0.1577145392638106 0.09501694486988591 0.1 
0.3165677651662021 -0.5921757987322357 -0.01946511063284113 -0.2333216053692565 
-0.104335408964743 0.1505814395096377 0 0 
0 0 0 0 
0 0 0 0 
0 0 0 0 
-0.1878913631119764 0.1825257187285643 -0.00562921426448556 0 
0.3591107600249655 -0.2139103775597763 -0.2132301348930883 -0.2 
0.2006004694831016 -0.2227222636086852 0 0 
0.2298416716552884 -0.2252332961371027 -0.1186384295516339 -0.1348559222716976 
-0.0031670003311136 0.02526685639242398 -0.1595805911877484 -0.1828669788577775 
0.002716428890518333 -0.1 0.02148400405851356 0 
0.1927458511878413 -0.2322272006025278 -0.1225518034133116 -0.1721762657962596 
-0.06282897178153986 0.03731460987043136 0 0 
-0.1187613047965584 0.02372862953810479 -0.08348823806417378 -0.01984786337542883 
-0.1584137789071114 0.1141515240379415 0.03995358444039557 -0.1046107415527731 
0.1140089059816754 -0.07497367343692456 0.0834958131102729 0 
0.1403330530098632 -0.04473731330755056 -0.1924957122588315 -0.2414313882971551 
-0.1150699445988576 0.2391555013915627 -0.1006442129920821 -0.1 
-0.005409238820487713 0.02340430003187886 -0.02184760874726615 -0.0883138412561585 
0 0 0 0 
0.1 -0.1 -0.01323013489308829 0 
0.03799386293477159 -0.1076368566356807 0.04165920957232135 -0.07787475958794911 
0 0 0 0 
-0.414490656303842 0.3550974199042627 -0.1559041297025293 -0.2086589983560528 
0 0 0 0 
0.4902021270075468 -0.5151135085085358 -0.09871123942056782 -0.1473664984989971 
-0.0396461326582504 0.07921808932647059 -0.1510187239669708 -0.1 
0 0 0 0 
0.4787006802451503 -0.5042554411230213 -0.1382556435022064 -0.1393885970777056 
0 0 0 0 
0.1061445221837002 -0.1717431953347366 0 0 
0 0 0 0 
0 0 0 0 
0.07445330099873608 0 0 0 
-0.01060744449131597 0 0 0 
-0.08039024598293121 0.1654344304405766 -0.05859160307903722 0 
0 0 0 0 
0.02901263731741298 -0.03478448238308837 0 0 
0 -0.0105002531383305 0 0 
0.1092066096994759 -0.2016096617144893 -0.008780001606681961 0.0978112123479483 
0.009297392669743061 -0.06521062872901962 0.0454314206144639 -0.03076514005790308 
-0.1657647503466914 0.2494861908707557 -0.07441522798981184 -0.08282983647112434 
0 0 0 0 
-0.09670261878772177 0.1 -0.02261071263103363 -0.01228374798482398 
0.005457678727947862 0 0 0 
-0.06078485491716559 0.07061786987934263 -0.03739185026981622 0 
0.05205037337459724 -0.02786935176382296 -0.1063795632706452 -0.01504386034212113 
-0.1030102374267384 0.1002497129537608 0.03022082510177952 -0.01228374798482398 
-0.09999999999999999 0.1 -0.001752211503640633 0 
0 0 0 0 
0 0 0 0 
0 0 0 0 
0 0 0 0 
0 -1.387778780781446e-17 -0.04353321868497429 -0.02067957594244691 
-0.1686044746482389 0.1798110808957857 -0.09397240625838464 -0.1490053977402508 
0 0 0 0 
-0.003381882780634602 0.01285816582094382 0 0 
0 0 0 0 
0.1084271322576752 -0.1192907697534663 -0.01880898845772378 -0.04734598737126641 
0.07948042953231017 -0.1943540416511935 -0.1 0.1 
-0.1 0.1 -0.1 -0.00102299055045646 
0 0 0 0 
-0.02015181954425304 0.03806950639785368 0 0 
0 0 0 0 
0 0 0 0 
0 0 0 0 
0 0 0 0 
0 0 0 0 
0.157975501123969 -0.1288598454273802 -0.07900396445040803 -0.1630053531996009 
0 0 0 0 
0 0 0 0 
0.05166352678727398 -0.01575028741140276 0 0 
-0.09169755431280216 -0.1425978130844231 -0.009358343979250139 0.2 
0 0 0 0 
-0.1003493009866279 -0.0425623101828984 0.08224552453672694 0.1 
0.08152163633210628 -0.002516169149693057 -0.01775447546327305 0 
-0.02151246186312471 0.1 -0.1 0 
0 0.01230531341213695 0 0 
-0.1453576035625508 0.005013695018016438 0 0.1 
0.06235715916944244 -0.1430537466249598 -0.3013460594323164 -0.1174626122887347 
0 0 0 0 
0 0 0 0 
0.01460434074682885 0.04920065787567575 0 0 
0.1468876692390644 0.003972567792642018 -0.02293449554475908 -0.009453506054474375 
0 0 0 0 
-0.02853718672332958 0.02952282373297138 0 0 
-0.009816250091084021 -0.1505138091292443 -0.00467917198962507 0.1 
0 0 0 0 
-0.01534354589868906 0.0864397310828266 0 0 
0 0 0 0 
-0.06282897178153986 0.03731460987043136 0 0 
0.04688734143557863 -0.1313131486429718 7.806255641895632e-18 -0.09412989897968371 
-0.0595064954075564 0.2249202829359609 -0.2000000000000001 -0.07013437021617053 
0 0 0 0 
-0.01936849417729942 0.05732204817021293 0 0 
0.06507128003124048 -0.01827695264572682 -0.01169379645479792 -0.01709510693104663 
0.0149870924279231 0.02715277325785332 0 0 
-0.0190092845339672 0 0 0 
0 0 0 0 
0 0 0 0 
-0.08415326910981892 0.144111732664813 -0.1684321301856343 -0.1 
-0.1 0.09999999999999999 -0.002062910139314447 0 
0 0 0 0 
0 0 0 0 
0 0 0 0 
0 0 0 0 
0 0 0 0 
0.1053837946609895 0.009656727053947588 -0.1713401827070768 -0.1282299802924134 
0 0 0 0 
-0.07442815235682967 0.121204248285918 -0.1775881685261644 -0.08163014811860717 
0.002084143999982597 0.05233429723350019 0 0 
0.07952991104528855 0.0116744832988784 -0.02491179860534476 0 
0 0 0 0 
-0.1 0.1 -0.04159292504223999 -0.008846907325716372 
0 0 0 0 
0 0 0 0 
0 0 0 0 
0.0292804030744008 -0.1060048890828152 0.02691612462100944 0 
0 0 -0.08872218399652423 -0.1 
-0.1 0.1 -0.006898237233226268 0 
0.00293267349968878 -0.07094109041761328 0.00559998204260505 0.1 
0 0 0 0 
0 0 0 0 
0 0 0 0 
-0.02882643533165825 -0.1391524768759737 -0.03169233021507464 0.03220406745612889 
0 0 0 0 
0.08039094539987959 -0.06766678633537201 -0.1752220732441224 -0.1526164345521486 
0.1 -0.1 -0.01730528128027352 -0.009453506054474375 
0 0 0 0 
0 0 0 0 
0 0 0 0 
0 0 0 0 
0 0 0 0 
0.09800915909684944 -0.09625363187487132 0 0 
-0.01687753672513305 0.01579491058666434 8.673617379884035e-19 0 
-0.07309669002358896 0.08756594582856184 0 0 
0 0 0 0 
0.1863872282732208 -0.160408529397823 -0.01880898845772379 -0.04734598737126641 
-0.1218033193927761 0.1818874402964691 -0.1260853942860804 -0.1446185840937343 
-0.3165288134849618 0.2337593900402057 -0.2247209831780127 -0.2540297404484906 
-0.4467704486178604 0.5629386577447707 -0.2053922308414309 -0.1965800283439736 
7.806255641895632e-18 0.01025366128527222 -0.07892075073123181 -0.03796970276248272 
-0.02837474733117242 -0.07420317009783958 -0.01436880508654665 -0.0774356208131472 
0 0 0 0 
-0.02528788748621743 -0.1935634193192904 -0.1211833588793522 -0.06243916474971672 
-0.02801974592197811 0.04043044073189486 -0.002062910139314447 0 
-0.005332938583501695 0 0 0 
0 0 0 0 
0 0 0 0 
0 0 0 0 
0 0 0 0 
0.01072669889291566 -0.07400175392591873 -0.06124805360317003 -0.00788284348483839 
0 0 0 0 
0 0.04454402109463307 0 0 
0 0 0 0 
0 0 0 0 
0 0 0 0 
0 0 0 0 
0 0 0 0 
0 0 0 0 
0 0 0 0 
0 0 0 0 
0 0 0 0 
-0.2770484067590496 0.280879239008675 -0.2919163563169785 -0.2776367800218312 
0.1476457666124484 0.005750291922968713 -0.2315918521856715 -0.1638933532407576 
0.2 -0.2 -0.03353416201393104 0 
0.03443582829631011 0.1006668964110034 -0.0137639755405861 0 
-0.09999999999999999 0.1498206826537696 -0.1 -0.1717554883042837 
0.2320473265708205 -0.1882562097032705 0 -0.07175548830428373 
0 0 0 0 
0.2877321518914263 -0.2537773419273702 0 0 
0 0 0 0 
-0.04929148124126352 -0.1 0.09520444077842838 -0.01709510693104663 
0.1 -0.1 0 0 
0 0 0 0 
0 0 0 0 
0 0 0 0 
-0.003807038247601736 0.01731694979417545 -0.1 -0.06243916474971672 
0.227783861635535 -0.2605078980829007 -0.03819139911907967 -0.08127886338972104 
0 0 0 0 
0 0 0 0 
0 0 0 0 
0.1 -0.09082888181464763 -0.1 -0.1 
-0.0005393302689853895 -0.06090196235320344 0.1 0 
0.03314431264579159 0.07804018620594882 -0.008095845349666734 -0.04388310054659254 
-0.2889808058151023 0.2214161226662099 -0.2143402865291425 -0.2174733742014251 
0.08099071546603281 -0.09498630498198356 0 -0.02780187716227371 
0 0 0 0 
0 0 0 0 
0 0 0 0 
0.08098230606312087 0.03658186849710351 -0.01775447546327305 0 
0.1434430673546924 -0.2496217141866603 0.1 0 
-0.05126378308233979 0.04291348065164859 0 0 
0 0 0 0 
-0.06282897178153984 0.03731460987043135 -0.07970285448593259 -0.03428416074734074 
-0.1033818827806346 0.01285816582094382 0.1 0 
-0.1404830077118013 0.2108727633199259 -0.1 -0.03843740821106963 
0.1211844887568969 -0.106021536376246 -0.2696829869900111 -0.1382997916051744 
-0.4179343045093933 0.5650033002073633 -0.1050934038132808 -0.1255070713383784 
-0.2370888357367673 0.126940646972724 -0.5752870269799286 -0.3859172272350634 
0 0.0001948897619014361 0 0 
-0.1445148134737455 0.1604110330935967 0 0 
0 0 0 0 
0 0 0 0 
0 0 0 0 
-0.006287852430492766 0.01723922045373549 0 0 
0 0 0 0 
0 0 0 0 
-0.09433261473953428 0.1 0 0 
0 0 0 0 
0 0 0 0 
0 0 0 0 
0 0 0 0 
-0.149106181613318 0.01270992296889566 0 -0.005577316009061292 
0 0 0 0 
0 0 0 0 
0 0 0 0 
0 0 0 0 
-0.005332938583501695 0 0 0 
-0.0359541219693405 0.05732204817021293 0 0 
-0.1832802529251011 0.2 -0.04068408344237658 0 
0 0 0 0 
-0.1 0.1 -0.1 -0.1 
-0.1 0.112305313412137 -0.2994728703271423 -0.2883138412561586 
-0.3184070599008494 0.2679579029983913 -0.224706323985231 -0.2630941018461262 
0.09052470429406903 -0.08460674958433603 0 -0.04055964646455738 
-0.2371856264995231 0.2722264621582585 -0.02261071263103363 -0.01228374798482398 
0.0860912310737289 -0.03770345047259951 -0.1391140117065179 -0.2024546934970678 
-0.1701723979611468 -0.01309119221401287 0.003596433859559055 -0.1188665532333094 
-0.09670261878772177 0.1 -0.02261071263103363 -0.01228374798482398 
0.1 -0.1 -0.01730528128027352 -0.009453506054474375 
0.03332086912507826 -0.3634510567341465 -0.1432816184661705 -0.1778747595879491 
-0.06122975521488538 0 -0.03456385795178789 0.1 
0 0 0 0 
0 0 0 0 
0 0 0 0 
0 0 0 0 
0 0 0 0 
0 0 0 0 
0.0630036270851332 0 -0.008780001606681959 -0.002188787652051704 
-0.1285371867233296 0.1295228237329714 -0.06041548202099447 -0.05113770568477017 
-0.1 0.1 -0.04346086929566746 -0.03428416074734075 
0 0 0 0 
0 0 0 0 
-0.03243373519245378 0.07773675584170855 -0.005629214264485556 -0.03796970276248272 
0 0 0 0 
0.057975501123969 -0.02885984542738025 0 0 
0.1 -0.07639915513738825 0 0 
0 0 0 0 
0 0 0 0 
0 0 0 0 
0 0 0 0 
0.07149440612242075 -0.05073084101542738 0.01447405910564273 -0.01511241299639059 
0 0 0 0 
0.1719802540780219 -0.111896883562997 -0.1 -0.1 
-0.09999999999999999 0.1 -0.08891994488258688 -0.08599781661322703 
-0.02749929250337627 0.003071365898954882 0 0 
-0.06451488335003432 0.04484617002854165 0 0 
-0.04312460344582766 0.06730604608164413 -0.02149297635281255 0 
-0.03225744167501716 0.02242308501427083 0 0 
-0.3383773317333522 0.2244369984788517 -0.1784239868046046 -0.2651742336220411 
0 0 0 0 
0 0 0 0 
0 0 0 0 
0 0 0 0 
0 0 0 0 
-0.2302345150414971 0.2867702550242047 -0.1 -0.005577316009061297 
0 0 0 0 
0 0 0 0 
-0.01975281117672053 0.04514850020497104 0 0 
0 0 0 0 
0 0 0 0 
0.006007998190307146 -0.03224297154424897 0.1 -0.002454693497067769 
3.469446951953614e-18 -0.2 0.2 0 
0 0 0 0 
-0.06758360049139631 0.07671761507109781 -0.006898237233226268 -0.03585407228809371 
-0.1306211833858388 0.1573220481702129 0 0 
0 -0.1 0.1 0 
0 0 0 0 
-0.1 -0.1 0.1 0 
0.07322379553830281 -0.05228945764291237 -0.00860267330927765 -0.01511241299639059 
0 0 0 0 
0 0 0 0 
-0.08547046362081086 0.1101043983581656 -0.1 -0.1 
0 0 0 0 
0 0 0 0 
-0.09102143366264648 0.09872506065966784 0 0 
-0.06942061511435826 0.1656533495128583 -0.008780920410472008 0 
0.009684719206024008 0.04550655191294029 0 0 
-0.04737146269349977 0.01769469452598071 -0.04557951023505844 -0.0490793876584367 
0 0 0 0 
-0.02151246186312471 0.1 -0.1 0 
0 0 0 0 
-0.05181715769379396 -0.04781811911647842 0.064 -9.148184389710072e-05 
0.1022561038956123 -0.06079059865462153 -0.02523345365808876 -0.01709510693104663 
0 0 0 0 
0 0 0 0 
0 0 0 0 
0.03414126582863433 -0.03123294174760505 0 0 
-0.1367342467031507 0.2394640603595937 -0.04838313763200407 -0.01898750131690148 
-0.04077964636811676 0.04927218282713085 -0.02703974180874349 0 
0 0 0 0 
0.02374418825026955 -0.01917601930591489 0 0 
0 0 0 0 
0.07606266635000193 -0.06314273240101893 0 0 
-0.02222497330369864 -0.1 0.1 0 
0.02806342305081232 0 -0.008780920410472008 0 
0 0 0 0 
0.08865328620873178 -0.05522909588984428 0 -0.03217808232054263 
0 0 0 0 
-0.00508508589229302 -0.002589695772595177 -3.469446951953614e-18 0 
0 0 0 0 
-0.02506239133043655 0.04521110885813292 -0.00562921426448556 0 
0 0 0 0 
0 0 0 0 
0.08093746168557624 -0.036769376475827 -0.1017095089430965 -0.1342841607473408 
0 0 0 0 
0 0 0 0 
0 0 0 0 
-0.1010151589000343 0.1462226580726299 0 0 
-0.243133698058763 0.2017174666680835 -0.2013074675302028 -0.1271006484297124 
-0.08870875703983264 0.005013695018016428 0 0.06782191767945739 
-0.1803902459829312 0.2536166087286265 -0.1585916030790372 -0.1 
0 0 0 0 
0 0 0 0 
-0.05126378308233979 0.04291348065164859 0 0 
-0.1103678852891685 0.167449415373885 -0.05107934749476081 0 
-0.04910618161331799 -0.08729007703110435 0.1 0 
-0.00646260450252412 0.07194198387120694 0 0 
0.005667385260465722 0.02360084486261176 0 0 
0 0.06108644212277427 0 0 
-0.1 0.1 0 -0.09214900593127491 
0 0 0 0 
0 0 0 0 
0 0 0 0 
0 0 0 0 
-0.2612297552148853 -0.07338551283968997 -0.0182854387419142 0.2810124986830986 
0.3995512041828725 -0.4434231427772055 -0.1282344487482042 -0.2120847408580375 
0.2253913840977312 -0.1436657213977026 -0.125233744418658 0 
0 0 0 0 
0 0 0 0 
-0.1974613905879232 0.2082164345415162 -0.1020629101393145 -0.1004088675121994 
0 0 0 0 
-0.07329301981252419 0.02443699847885162 -0.0131193693625258 0 
0.08527876038093644 -0.03282975723574929 0 0 
0 0 0 0 
-0.07030171338492493 -0.02855983336034384 0.1 0 
0 0 0 0 
0.06956362160495884 -0.02475005796489379 4.336808689942018e-19 -0.002454693497067769 
0 0 0 0 
-0.08298186700326581 -0.1 0.1 0 
0 0.009048778421256912 0 0 
-8.673617379884035e-19 0.001011549214496876 -0.01536647247663394 0 
0.1954999657089641 -0.1761615632626383 0 0 
0 0 0 0 
0 0 0 0 
0 0 0 0 
0.07606266635000193 -0.06314273240101893 0 0 
0.1 -0.1 -0.04346086929566747 -0.04572839844129746 
0 0 0 0 
0.1815216363321063 -0.1025161691496931 -0.01775447546327305 0 
-0.1462518270163026 0.2205064701947672 -0.0293310737100341 -0.01560720206685914 
0.1732237955383028 -0.05260265751109075 -0.1086026733092777 -0.07746542420348007 
0 0 0 0 
0.1462077774610354 -0.08647203784152815 -0.02261071263103363 -0.01228374798482398 
0 0 0 0 
0 0 0 0 
-0.1176838568217483 0.09911323611877484 -0.0006442129920821008 0 
-0.1823107676152479 0.2267412354906386 -0.03456385795178789 0.1 
0 0 0 0 
0.03661178592614814 -0.1 -0.01880898845772379 -0.04734598737126641 
0 0.06127025954642867 0 0 
0.00393493084035292 -0.04454714733578364 0 0 
0 0 0 0 
0 0 0 0 
0.04473337439995208 -0.07489939354027675 0.0826947187197265 -0.02089774374843108 
0.05078859771523102 -0.08313960178956642 -0.05967540317759323 -0.08127886338972104 
0 0 0 0 
0.1 -0.1 0 0 
0 0 0 0 
0 0 0 0 
-0.09662138664489056 0.1429134806516486 0 0 
0 0 0 0 
0 0 0 0 
0 0 0 0 
0 0 0 0 
0 0 0 0 
-0.01909960139974764 0.004429811535248612 0 0 
0.1138538434974715 -0.1065120263314954 0 0 
0 0 0 0 
0 0 0 0 
0.1572145573326883 -0.1448013320492975 -0.006720361079000473 -0.003323454082035161 
0 0 0 0 
0 0 0 0 
0 0 0 0 
-0.1524092612192702 0.1134015324036986 0 0 
0 0 0 0 
0 0 0 0 
0 0 0 0 
0 0 0 0 
0 0 0 0 
0 0 0 0 
0.006144522183700262 -0.02719917424010355 0 0 
0.1559369368257167 -0.1684934937870352 -0.05395332306555219 -0.02629791512837704 
0 0 0 0 
0 0 0 0 
0 0 0 0 
0 0 0 0 
0 0 0 0 
-0.07063820516874161 -0.1282247977271718 0.08691321629475723 0.1 
-0.01001068751792663 0.02901397808129646 0 0 
0 0 0 0 
0 0 0 0 
-0.05717432881349843 0.09999999999999999 0 0 
0 0 0 0 
0 0 0 0 
0 0 0 0 
-0.1 -0.07721716962085226 0 0.1 
0 0 0 0 
0 0 0 0 
0.1 -0.09887207659698964 0 0 
-0.003381882780634602 0.01285816582094382 0 0 
-0.3503366295976138 0.4452444449775576 0.05728607500652494 0 
0.1 -0.1 -0.06517707740663681 -0.04491180500192938 
0 0 0 0 
0 0 0 0 
0 0 0 0 
0.04379560040954891 -0.04013058856800013 -0.07522207324412239 -0.05261643455214862 
0 0 0 0 
0 0 0 0 
-0.1116383043469452 0.1354475276599257 0 0 
-0.07794731434159941 0.1 0 0 
-0.1312549625385996 -0.03560177458379084 0.07738928736896636 -0.01228374798482399 
0 0 0 0 
-0.2455963978218741 0.2429134806516486 0 -0.03585407228809371 
-0.09433261473953428 0.1 0 0 
0 -0.2 -0.01089055739751015 0 
0 0 0 0 
0 0 0 0 
0 0 0 0 
0 0 0 0 
0 0 0 0 
0.07181534633152703 -0.080561029299895 0 0 
0 0 0 0 
0 0 0 0 
0 0 0 0 
0 0 0 0 
0 0 0 0 
0 0 0 0 
0 0 0 0 
0.07606266635000193 -0.06314273240101893 0 0 
-0.07704840675904956 0.04541510142350417 0 0 
0 0 0 0 
0 0 0 0 
0 0 0 0 
0.6054576787279479 -0.4767901272028298 -0.2660095118641412 -0.2672616157952482 
0 0 0 0 
0 0 0 0 
0 0 0 0 
0.05857195492798217 -0.07266196615405335 0 0 
0 0 0 0 
0 0 0 0 
0 0 0 0 
0 0 0 0 
0 0 0 0 
0 0 0 0 
0 0 0 0 
0 0 0 0 
-0.06860300468594083 0.09043430371050243 0 0 
-0.05408740548962175 0.08756594582856184 0 0 
-0.06355562341465169 0.0925070864206448 0 0 
0.3940888805531449 -0.3351584640860953 -1.734723475976807e-17 0 
-0.1 0.1 0 0 
0 0 0 0 
0.231297078679179 -0.1025161691496931 -0.01775447546327305 0 
0 0 0 0 
-0.04270249478935653 -0.1139022442340942 0.01972967885623982 -0.1 
0 0.005304570299746841 0 0 
0 0 0 0 
-0.01162301928889697 0.0816028798215937 0 0 
-0.1918916242806298 0.04769224411503953 0.01812741911976972 -0.0861532905531595 
0 0 0 0 
0 0 0 0 
0 0 0 0 
0 0 0 0 
0 0 0 0 
0 0 0 0 
0 0 0 0 
0.1 -0.1 -0.0622970550808522 -0.09999999999999998 
-0.1283334406706175 0.1346753220009947 -0.004983055130114099 0 
-0.1197528111767205 0.1283169834750047 0 0 
0.07198025407802189 -0.05956955926810514 0 0 
0.11693698608908 -0.1 -0.01357647963204365 -0.01709510693104663 
0 0 0 0 
0 0 0 0 
0 0 0 0 
-0.06565841432500025 0.04948619087075574 0 0 
0 0 0 0 
0 0 0 0 
0 0 0 0 
0 0 0 0 
-0.1 0.08316848327003375 0 0 
0 0 0 0 
0 0 0 0 
0 0 0 0 
0 0 0 0 
0.09661811721936542 -0.0871418341790562 0 0 
0.04842952325238782 -0.01917303697083923 -0.1194720220490781 -0.1079171582015302 
-0.1 -0.07721716962085226 0 0.1 
0 0 0 0 
0.1954999657089641 -0.1761615632626383 0 0 
0 0 0 0 
0 0 0 0 
0 0 0 0 
-0.1745525533778211 0.2018990725997462 0 -0.07175548830428373 
0.1310415828770599 -0.01521905632680463 -0.2 -0.2 
-0.04278544266731173 0.05519866795070247 -0.006720361079000472 -0.003323454082035161 
-0.06355562341465169 0.0925070864206448 0 0 
0.01420680190447514 0.07998005852565665 0 0 
-0.06355562341465169 0.0925070864206448 0 0 
-0.06355562341465169 0.0925070864206448 0 0 
0.03644437658534832 -0.007492913579355213 0 0 
-0.06355562341465169 0.0925070864206448 0 0 
-0.06355562341465169 0.0925070864206448 0 0 
0.3686313052153364 -0.3107613891763258 -0.1434436964805327 -0.09412989897968371 
0.01072669889291566 -0.07400175392591873 -0.06124805360317003 -0.00788284348483839 
0 0 0 0 
0 0 0 0 
-0.1808932398075297 -0.0247074011111706 0.1697864384125555 0 
0 0 0 0 
0 0 0 0 
0 0 0 0 
0.07117072585743743 -0.07537644725992027 0 0 
0 0.02093144021446966 0 0 
0 0 0 0 
-0.06084970663171415 0.05230792587035931 0 0 
0 0 0 0 
0 0 0 0 
0 0 0 0 
-0.004013959763599749 0.09538064475036695 0 -0.02550707133837836 
0 0 0 0 
0 0 0 0 
0 -0.01048817436619548 -0.07308387537899055 0 
0.06700778549365771 -0.1 -0.1 -0.1 
0 0 0 0 
0 0 0 0 
0 0 0 0 
0.02901263731741298 -0.03478448238308836 0 0 
-0.0667397550815841 0.060815004334376 0 0 
0 0 0 0 
0 0 0 0 
0 0 0 0 
0.06974931822579419 0.04635041175503489 0.04325196134260054 -0.002188787652051704 
0 0 0 0 
0.07445330099873608 0 0 0 
-0.1535084588598841 0.1938918521131305 0 0 
0.1970669854528247 -0.1233622117529024 -0.08065192974012683 -0.01898750131690148 
0.1 -0.1 0 0 
0 0 0 0 
0 0 0 0 
0 0 0 0 
0.1 -0.1 0 0 
0 0 0 0 
0 0 0 0 
0 0 0 0 
0.1 -0.1 -0.05395332306555219 -0.02629791512837704 
0 0 0 0 
0.09762704465577116 -0.02475005796489379 -0.008780920410472008 -0.002454693497067769 
0 0 0 0 
0 0 0 0 
0 -0.0105002531383305 0 0 
-0.149211402284769 0.1063601450721031 -0.1 -0.005577316009061292 
0 0 0 0 
-0.09433261473953428 0.1 0 0 
0.09313495390168455 -0.0759717847031977 0 0 
0 0 0 0 
0 0 0 0 
0 0 0 0 
0 0 0 0 
0 0 0 0 
0 0 0 0 
0 0 0 0 
0.08957064489174024 -0.09741013209567811 0 0 
-0.5600814690537691 0.2971225665576231 0.1159200992774804 -0.2005717615243569 
0 0 0 0 
0 0 0 0 
0.1559369368257167 -0.1684934937870352 -0.008407611715617673 0 
-0.09454232127205216 0.07978365319544141 -0.009144603527035626 0 
-0.05794226975265413 0.07909012965345731 -0.009144603527035626 0 
-0.05408740548962175 0.08756594582856184 0 0 
0 0 0 0 
-0.167532933030144 0.0354475276599257 0.01817605323670204 -0.1 
0.3746565902337909 -0.6736162431838488 0.2634043708146938 -0.08732826564242348 
-0.05181715769379396 -0.04781811911647842 0.064 -9.148184389710072e-05 
0 0 0 0 
0 0 0 0 
6.938893903907228e-18 0.02360084486261176 -0.03021356158744447 0 
0.05631591601241757 0.003678951536562081 0 0 
-0.08495833557111332 0.06414809136638669 0 0 
0.1753085923766566 -0.07230016521239173 -0.1 -0.03217808232054263 
0 0 0 0 
0 0 0 0 
0 0 0 0 
0 0 0 0 
0.1 -0.1 0 0 
0 0 0 0 
0 0 0 0 
0 0 0 0 
0 0 0 0 
-0.006462604502524128 0.06692828885319051 -0.002062910139314447 0 
0 0 0 0 
0 0 0 0 
0 0 0 0 
0 0 0 0 
0 0 0 0 
0 0 0 0 
0 0 0 0 
0 0 0 0 
0 0 0 0 
-0.05135851004318556 0.1349986466163748 -0.0278953837385068 -0.003167980142102688 
0 0 0 0 
-0.1 -0.1 -0.009479333160390957 0.1 
0 0 0 0 
0 0 0 0 
0 0 0 0 
-0.1 0.1 0 -0.03585407228809371 
0 0 0 0 
0 0 0 0 
-0.03375564768316367 0.0696747921226292 0 0 
0 0 0 0 
0 0 0 0 
0 0 0 0 
0 0 0 0 
0 0 0 0 
0 0 0 0 
0 0 0 0 
0 0 0 0 
-0.06393335818767311 -0.09999999999999999 0 -0.06243916474971672 
0 0 0 0 
0 0 0 0 
0 0 0 0 
0 0 0 0 
0 0 0 0 
-0.1 -0.1 0.1 0 
0 0 0 0 
0 0 0 0 
0 0 0 0 
0 0 0 0 
0 0 0 0 
0 0 0 0 
0 0 0 0 
0 0 0 0 
0 0 0 0 
0 0 0 0 
0.06463507906545768 -0.05553231275458049 0 -0.09412989897968371 
0 0 0 0 
-0.0380185690679344 0 0 0 
-0.0190092845339672 0 0 0 
0 0 0 0 
0 0 0 0 
-0.01975281117672053 0.04514850020497104 0 0 
0 0 0 0 
0 0 0 0 
0 0 0 0 
0 0 0 0 
0 0 0 0 
0 0 0 0 
-0.02903868816693443 0.07478816865003751 -0.04412048673374453 0 
-0.1540874054896217 0.1998712592406987 -0.00213160707639486 -0.06300535319960084 
0 0 0 0 
0.1 -0.1 -0.008407611715617673 0 
0.1 -0.1 0 0 
0 0 0 0 
0 0 0 0 
0 0 0 0 
0 0 0 0 
0 0 0 0 
0 0 0 0 
0 0 0 0 
-0.031418855319058 0.002518649336853608 0 0 
0 0 0 0 
0.09549996570896409 -0.07616156326263823 0 0 
0 0 0 0 
0 0 0 0 
0 0 0 0 
0 0 0 0 
0 0 0 0 
0 0 0 0 
0.09313495390168455 -0.0759717847031977 0 0 
0 0 0 0 
0.3718153463315271 -0.3641322916869434 -0.05216333756604644 0 
0 0 0 0 
0 0 0 0 
0 0 0 0 
0 0 0 0 
0 0 0 0 
0 0 0 0 
0.1196097540170688 -0.1227222636086852 0 0 
0 0 0 0 
-3.469446951953614e-18 -0.2371986566006527 0.2 -0.1 
0 0 0 0 
0 0 0 0 
0 0 0 0 
0 0 0 0 
0 0 0 0 
0 0 0 0 
0 0 0 0 
0 0 0 0 
0 0 0 0 
0 0 0 0 
0 0 0 0 
0 0 0 0 
0 0 0 0 
-0.0199718132176304 0.07114015457261974 0 0 
0.05857195492798217 -0.07266196615405335 0 0 
0.02901263731741298 -0.03478448238308836 0 0 
0.1 -0.1 0 0 
0 0 0 0 
0.05587834237350255 -0.03310815980948204 0 0 
0 0 0 0 
-0.1426192970622054 -0.2611343529416526 -0.1419362092962152 0.3726384821593139 
0 0 0 0 
0 0 0 0 
-0.1 0.1 -0.0006442129920820939 0 
0 0 0 0 
-0.2 0.2 -0.04159292504223999 -0.008846907325716372 
0 0 0 0 
0 0 0 0 
0 0 0 0 
0.0345651515346594 -0.01130733178560749 0 0 
0 0 0 0 
0 0 0 0 
0 0 0 0 
0 0 0 0 
0 0 0 0 
0 0 0 0 
0.0993339152476226 -0.06425456448021974 -0.002923075785722265 0 
0 0 0 0 
0 0 0 0 
-0.1762558117497304 0.1717752022728282 -0.002062910139314447 0 
-0.07704840675904956 0.04541510142350417 0 0 
0 0 0 0 
0 0 0 0 
-0.1431246034458277 0.2083599588235142 -0.03063757987984817 1.734723475976807e-18 
0.02013036849938133 0.117530722714128 -0.009144603527035626 0 
-0.06298440915334196 0.09927910861228331 -0.009144603527035626 0 
0 0 0 0 
0 0 0 0 
0 0 0 0 
0 0 0 0 
0 0 0 0 
0 0 0 0 
0 0 0 0 
0 0 0 0 
0 0 0 0 
0 0 0 0 
0 0.0345318711697476 -0.00213160707639486 -0.06300535319960084 
0 0 0 0 
0 0 0 0 
0 0 0 0 
0.09800915909684944 -0.09625363187487132 0 0 
0 0 0 0 
0 0 0 0 
0 0 0 0 
0 0 0 0 
0 0 0 0 
0 0 0 0 
0 0 0 0 
-0.1886652294790685 0.2 0 -0.0114442376939567 
0 0 0 0 
0 0 0 0 
0 0 0 0 
0 0 0 0 
0 0.001011549214496889 0 0 
0 0 0 0 
0 0 0 0 
0 0 0 0 
-0.04535760356255079 0.1 0 0 
0 0 0 0 
0 0 0 0 
0 0 0 0 
0 0.009048778421256912 0 0 
0 0 0 0 
0 0 0 0 
0.08887356303826771 -0.1 -0.004795559221571641 -0.01709510693104663 
0 0 0 0 
0 0 0 0 
0 0 0 0 
-0.2 0.2 -0.002062910139314447 0 
0 0 0 0 
0 0 0 0 
0 0 0 0 
0 0 0 0 
0 0 0 0 
0 0 0 0 
0 0 0 0 
0 0 0 0 
0 0 0 0 
0 0 0 0 
0 0 0 0 
0 0 0 0 
0.1 -0.06040852939782294 -0.09321950553535971 0 
0 0 0 0 
0.1 -0.09887207659698964 0 0 
0 0 0 0 
0 0 0 0 
-0.1 0.08316848327003375 0 0 
0 0 0 0 
0 0 0 0 
0 0 0 0 
0 0 0 0 
0 0 0 0 
-0.02073275700891113 0.05519866795070247 -0.006720361079000473 -0.003323454082035161 
0 0 0 0 
-0.1 0.1 0 0 
-0.1 0.1 0 0 
0 0 0 0 
0 0 0 0 
0 0 0 0 
0 0 0 0 
0 0 0 0 
0 0 0 0 
0 0 0 0 
0 0 0 0 
0 0.06108644212277427 0 0 
0 0 0 0 
0.1503495112343728 -0.1207731167524952 -0.006720361079000473 -0.003323454082035161 
0 0 0 0 
0 0 0 0 
0 0 0 0 
0.02374418825026955 -0.0282247977271718 0 0 
0 0 0 0 
0.04457583905258601 -0.04032130986690395 -0.03021356158744447 0 
0 0 0 0 
0 0 0 0 
0 0 0 0 
0 0 0 0 
0 0 0 0 
0 0 0 0 
0 0 0 0 
0 0 0 0 
0 0 0 0 
-0.01909960139974764 0.004429811535248611 0 0 
-0.01909960139974764 0.004429811535248612 0 0 
0 0 0 0 
0 0 0 0 
0 0 0 0 
0 0 0 0 
0 0 0 0 
0 0 0 0 
0 0 0 0 
0 0 0 0 
0 0 0 0 
0 0 0 0 
0 0 0 0 
0 0 0 0 
0 0 0 0 
0 0 0 0 
0 0 0 0 
0 0 0 0 
0 0 0 0 
0 0 0 0 
0 0 0 0 
0.02901263731741298 -0.03478448238308836 0 0 
0 0 0 0 
-0.1 0.1 -0.07522207324412239 -0.05261643455214862 
-0.1 0.1 -0.07522207324412239 -0.05261643455214862 
0.2649503002332115 -0.2565328140030927 -0.1861126306416325 -0.2526164345521485 
0 0 0 0 
0 0 0 0 
0.1 -0.09887207659698964 0 0 
0.1 -0.09887207659698964 0 0 
0.1 -0.09887207659698964 0 0 
0 0 0 0 
0 0 0 0 
0 0 0 0 
-0.1 -0.1 0 0.1 
0 0 0 0 
0.1492864618883048 -0.1154321900439313 -0.00860267330927765 -0.01511241299639059 
0 0 0 0 
0 0 0 0 
0 0 0 0 
0 0 0 0 
0 0 0 0 
0 0 0 0 
0 0 0 0 
-0.1 -0.07721716962085226 0 0.1 
0 0 0 0 
0 0 0 0 
0 0 0 0 
0 0 0 0 
0 0 0 0 
-0.2512637830823398 0.3429134806516485 -0.2 -0.1 
0 0 0 0 
0 0 0 0 
-0.1 0.09999999999999999 -0.0006442129920820939 0 
0 0 0 0 
0 0 0 0 
0 0 0 0 
0 0 0 0 
0 0 0 0 
0 0 0 0 
0 0 0 0 
0 0 0 0 
0 0 0 0 
0.04930985826627416 0 -0.01650418688972708 0 
0 0 0 0 
0 0 0 0 
0.04977544234707261 0 0 0 
0 0 0 0 
0 -0.2 -0.03826098516106714 0.05092061234156328 
0 0 0 0 
-0.1 0.1612702595464287 0 0 
0.2928335495553716 -0.224065606379974 -0.00860267330927765 -0.01511241299639059 
0 0 0 0 
0 0 0 0 
0 0 0 0 
0 0 0 0 
0 0 0 0 
0 0 0 0 
0 0 0 0 
0 0 0 0 
0 0 0 0 
0 0 0 0 
0 0 0 0 
0.08998931248207334 -0.05455728430575194 -0.05216333756604644 0 
0 0 0 0 
0 0 0 0 
0 0 0 0 
0.1 -0.1 0 0 
-0.05408740548962175 -0.01243405417143817 0.1 0 
0 0 0 0 
0.1 -0.1 0 0 
0 0 0 0 
0 0 0 0 
0 0 0 0 
0 0 0 0 
0 0 0 0 
0 0 0 0 
0.1993339152476226 -0.1946479843082767 -0.03353416201393104 0 
0 0 0 0 
0.1 -0.03021282881178357 0 0 
0 0 0 0 
0 0 0 0 
0 0 0 0 
0 0 0 0 
-0.04921140228476899 0.006360145072103101 0 0 
0 0 0 0 
0 0 0 0 
0 0 0 0 
-0.06565841432500025 0.04948619087075574 0 0 
0 0 0 0 
0 0 0 0 
0 0 0 0 
0 0 0 0 
0 0 0 0 
0 0 0 0 
0 0 0 0 
-0.2 -0.1 0.2 -0.0005717615243568795 
0 0 0 0 
0 0.009048778421256912 0 0 
0 0 0 0 
-0.01001068751792662 0.03431854838104333 -0.03226879210812274 0 
0 0 0 0 
0 0 0 0 
0 0 0 0 
0 0 0 0 
0 0 0 0 
0 0 0 0 
0 0.02320987279717023 -0.1 -0.1 
0 0 0 0 
0 0 0 0 
0.07198025407802189 -0.05956955926810514 0 0 
0.07198025407802189 -0.05956955926810514 0 0 
0 0 0 0 
0.1 -0.04905388512837638 0 0 
0 0 0 0 
0 0 0 0 
-0.0005393302689853895 0.03909803764679656 0 0 
-0.1 0.1 -0.06600761627419419 -0.08282983647112434 
-0.1 0.1 -0.06600761627419419 -0.08282983647112434 
0 0 0 0 
0 0 0 0 
0 0 0 0 
0 0 0 0 
0 0 0 0 
0 0 0 0 
0 0 -0.0229123286083927 -0.003167980142102688 
0 0 0 0 
0 0 0 0 
0 0 0 0 
0 0 0 0 
0.04403650878360064 -0.001223272220107395 0 0 
-0.06037488507651217 -2.081668171172169e-17 0.09520444077842838 -0.01709510693104663 
0 0 0 0 
0 0 0 0 
0 0 0 0 
0 0 0 0 
0.01329850630291455 0.1390451154444927 -0.07687235737401316 -0.1 
-0.09264861053394342 0.001899072599746259 -0.03456385795178789 0.1 
0 0 0 0 
0.09800915909684944 -0.09625363187487132 0 0 
0 0 0 0 
0 0 0 0 
0 0 0 0 
0 0 0 0 
0 0 0 0 
0 0 0 0 
0 0 0 0 
0 0 0 0 
0 0 0 0 
-0.1000845015683564 0.1128581658209438 -0.02261071263103363 -0.01228374798482398 
0 0 0 0 
0 0 0 0 
-0.04415783576608377 -0.1 -0.00467917198962507 0.1 
-0.04415783576608377 -0.1 -0.00467917198962507 0.1 
0 0 0 0 
0 0 0 0 
-1.084202172485504e-18 0.00530457029974683 0 0 
0 0 0 0 
0 0 0 0 
0 0 0 0 
0 0 0 0 
-0.1 0.08316848327003375 0 0 
0 0 0 0 
0 0 0 0 
0 0 0 0 
0 0 0 0 
0 0 0 0 
-0.01001068751792663 0.02901397808129646 0 0 
0 0 0 0 
0 0 0 0 
0 0 0 0 
0 0 0 0 
0 0 0 0 
0 0 0 0 
-0.03225744167501716 0.04012343945405217 -0.03826098516106714 -0.04907938765843672 
-0.02385723558621224 -0.08116289003820891 0.06173901483893288 -0.04907938765843672 
-0.2 0.2 -0.1 -0.1 
0.02125029013378828 0.1518072592281407 -0.2 -0.04158263701501384 
0 0.02674123549063857 0 0 
0 0 0 0 
0 0 0 0 
0 0 0 0 
0 0 0 0 
0 0 0 0 
0 0 0 0 
0 0 0 0 
0.05593693682571675 -0.06849349378703515 0 0 
0 0 0 0 
0 0 0 0 
0 0 0 0 
-0.01757658493402318 0.02462355274007974 0 0 
0 0 0 0 
0 0 0 0 
0 0 0 0 
0 0 0 0 
0 0 0 0 
0 0 0 0 
0 0 0 0 
0 0 0 0 
-0.062837710638116 0.003798145199492539 0 0 
-0.031418855319058 0.001899072599746263 0 0 
-0.031418855319058 0.001899072599746263 0 0 
0 0 0 0 
0 0 0 0 
0 0 0 0 
0 0 0 0 
0 0 0 0 
0 0 0 0 
0 0 0 0 
-0.1 0.109509985675461 -0.07308387537899055 0 
0.0145559128688208 0.03236003955361873 -0.06708545272487489 -0.09728951394694159 
0.02040977733040972 0.004828666148104031 0 0 
0 0 0 0 
0 0 0 0 
0 0 0 0 
0 0 0 0 
0 0 0 0 
0 0 0 0 
0 0 0 0 
0 0 0 0 
0 0 0 0 
0 0 0 0 
0 0 0 0 
0 0 0 0 
0 0 0 0 
0 0 0 0 
0 0 0 0 
0 0 0 0 
0 0 0 0 
0 0 0 0 
0 0 0 0 
0 0 0 0 
0 0 0 0 
0 0 0 0 
0 0 0 0 
0 0 0 0 
0 0 0 0 
0 0 0 0 
0 0 0 0 
0 0 0 0 
0.1677425583249829 -0.3106527715949414 -0.1622970550808522 -0.1114442376939567 
0 0 0 0 
-0.04924844811477987 0.1 0 0 
0 0 0 0 
0 0 0 0 
0 0 0 0 
-0.02554669900126393 0.1 0 0 
0 0 0 0 
0 0 0 0 
-0.02853718672332958 0.02952282373297138 0 0 
0.08465645410131095 -0.1040502832417124 0.02691612462100945 0 
0 0 0 0 
0 0 0 0 
0 0 0 0 
0.09350912480581353 -0.07241519513750955 -0.04346086929566746 -0.03428416074734075 
0 0 0 0 
0 0 0 0 
0 0 0 0 
0 0 0 0 
-0.09433261473953428 0.1 0 0 
0 0 0 0 
0 0 0 0 
0 0 0 0 
0 0 0 0 
0 0 0 0 
0 0 0 0 
0 0 0 0 
0 0 0 0 
0 0 0 0 
0 0 0 0 
0 0 0 0 
0 0 0 0 
-0.1 0.1 -0.1 -0.1 
-0.1 0.1 -0.1 -0.1 
0 0 0 0 
0 0 0 0 
0 0 0 0 
-0.0663126722733763 -0.1062453199067877 0.148293462059743 1.734723475976807e-18 
-0.1040151978821972 0.05519866795070247 -0.04128421903078837 0.02492105761368111 
0 0 0 0 
0 0 0 0 
0 0 0 0 
0.09933391524762261 -0.09464798430827662 0 0 
0.06700778549365771 -0.1 -0.1 -0.1 
0 0 0 0 
0 0 0 0 
0 0 0 0 
-0.1 0.1 0 0 
0 0 0 0 
0 0 0 0 
0 0 0 0 
0 0 0 0 
0 0 0 0 
0 0 0 0 
0 0 0 0 
0 0 0 0 
0 0 0 0 
0 0 0 0 
-0.01163830434694518 -0.06455247234007433 0.1 0 
0 0 0 0 
0 0 0 0 
0 0 0 0 
0 0 0 0 
0.2584080781482002 -0.1146082796757726 -0.2013404154841484 -0.1449118050019294 
0 0 0 0 
0 0 0 0 
0 0 0 0 
-0.07794731434159941 0.1 0 0 
-0.07704840675904956 0.04541510142350417 0 0 
-0.07704840675904956 0.04541510142350417 0 0 
0.2700939343361496 -0.2547275181464502 -0.08763208219433592 -0.09848369305603658 
-0.01163830434694518 0.0354475276599257 0 0 
0 0 0 0 
0 0 0 0 
0 0 0 0 
0 0 0 0 
0 0 0 0 
0 0.001011549214496889 0 0 
0 0 0 0 
0 0 0 0 
0 0 0 0 
0 0 0 0 
0 0 0 0 
0 0 0 0 
0 0 0 0 
0 0 0 0 
-0.06856300133518757 0.1 -0.1 -0.08864850648869492 
-0.06856300133518757 0.1 -0.1 -0.08864850648869492 
0 0 0 0 
0 0 0 0 
0 0 0 0 
0 0 0 0 
0 0 0 0 
0 0 0 0 
-0.01600963065106646 0.09179174677454999 -0.09947287032714225 -0.0883138412561585 
0 0.1 0 0 
0 0 0 0 
0 0 0 0 
0 0 0 0 
0 0 0 0 
0 0 0 0 
0 0 0 0 
-0.1 0 0.09793708986068556 0 
0 0 0 0 
0 0 0 0 
0 0.04454402109463307 0 0 
0.6047668327808204 -0.7383301511820328 -0.07582306533207894 -0.1972916427040407 
0 0 0 0 
0 0 0 0 
0 0 0 0 
0 0 0 0 
0 0 0 0 
0 0 0 0 
0 0 0 0 
0 0 0 0 
0 0 0 0 
0.08152163633210628 -0.002516169149693057 -0.01775447546327305 0 
0 0 0 0 
0 0 0 0 
0 0 0 0 
0 0 0 0 
0 0 0 0 
0.1 -0.1 0 0 
0 0 0 0 
0 0 0 0 
0.01772748622260895 -0.4068650556826309 0.002701898572187927 -0.004172674716326149 
0.05486713457839497 -0.004412488730258426 0 0 
0 0 0 0 
0 0 0 0 
0 0 0 0 
0 0 0 0 
0 0 0 0 
-0.1 0 0.1 0 
0 0 0 0 
0 0 0 0 
0 0 0 0 
0 0 0 0 
0 0 0 0 
0 0 0 0 
0 0 0 0 
0 0 0 0 
-0.1 0 0.1 0 
-0.04921140228476899 0.0168603982104336 0 0 
0 0 0 0 
0 0 0 0 
0 0 0 0 
0 0 0 0 
-0.1 -0.1 0 0.1 
-0.2 0 0 0.02824451169571629 
0.1 -0.04905388512837638 0 0 
0 0 0 0 
-0.121195531771607 0.1941943812559315 -0.04838313763200407 -0.01898750131690148 
0 0 0 0 
0 0 0 0 
0.07322379553830281 -0.05228945764291237 -0.00860267330927765 -0.01511241299639059 
0 0 0 0 
0 0 0 0 
0 0 0 0 
0 0 0 0 
0 0 0 0 
0 0 0 0 
0 0 0 0 
0.1693788166141612 -0.07289078064157065 0 0 
0.02901263731741298 -0.03478448238308836 0 0 
0 0 0 0 
0 0 0 0 
0 0 0 0 
-0.006597116363005653 -0.1 0.09121999839331806 -0.002188787652051704 
0 0 0 0 
0.05587834237350255 -0.07765218090411512 0 0 
-0.1045000342910359 0.1238384367373618 0 0 
0 0 0 0 
-0.03062118338583881 0.05732204817021295 0 0 
0.1 -0.09049001432453904 -0.07308387537899055 0 
0.1 -0.09049001432453904 -0.07308387537899055 0 
-0.07794731434159941 0.1 0 0 
0 0 0 0 
0 0 0 0 
0 0 0 0 
0.1 -0.1 0 0 
0 0 0 0 
0 0 0 0 
0 0 0 0 
0 0 0 0 
0 0 0 0 
0 0 0 0 
0 0 0 0 
0 0 0 0 
0 0 0 0 
0.1 -0.01957497865152638 0 0 
0 0 0 0 
0.02901263731741298 -0.03478448238308836 0 0 
0 0 0 0 
0 0 0 0 
0 0 0 0 
0 0 0 0 
0 0 0 0 
0 0 0 0 
0 0 0 0 
0 0 0 0 
0.1 -0.06546812883025241 0 0 
0 0 0 0 
0 0 0 0 
0 0 0 0 
0 0 0 0 
0 0 0 0 
0 0 0 0 
-0.05157047674761217 0.06439822541620917 0 0 
0.2 -0.2 -0.1 -0.1 
0 0 0 0 
0 0 0 0 
0 0 0 0 
0 0.03039341982805691 -0.002923075785722265 0 
0.1 -0.1 0 0 
0.2 -0.1195749786515264 0 0 
0.1 -0.1 0 0 
0 0 0 0 
0 0 0 0 
0 0 0 0 
0 0 0 0 
0 0 0 0 
0.1 -0.1 0 -0.04055964646455738 
0 0 0 0 
0.1 -0.1 -0.03624198519026515 0 
0 0 0 0 
0 0 0 0 
0 0 0 0 
0.09549996570896409 -0.07616156326263823 0 0 
0 0 0 0 
0.1 -0.03021282881178357 0 0 
0 0 0 0 
0 0 0 0 
0 0 0 0 
0 0 0 0 
0 0 0 0 
0 0 0 0 
-0.001701420041234312 0.0005198997610644955 -0.007318525073991316 0 
0 0 0 0 
0 0 0 0 
0 0 0 0 
0 0 0 0 
0 0 0 0 
0 0 0 0 
0 0 0 0 
0 0 0 0 
0 0 0 0 
0 0 0 0 
0.1558783423735026 -0.1540513360415034 0 0 
0 0 0 0 
0 0 0 0 
0 0 0 0 
0 0 0 0 
0 0 0 0 
0 0 0 0 
-0.08547046362081084 0.1 0 0 
0 0 0 0 
0 0 0 0 
0 0 0 0 
-0.1 0.1 0 0 
0 0 0 0 
0 0 0 0 
0 0 0 0 
0 0 0 0 
0 0 0 0 
0 0 0 0 
0 0 0 0 
0 0 0 0 
0 0 0 0 
0 0 0 0 
0 0 0 0 
0 0 0 0 
0 0 0 0 
0.00196746542017646 -0.02227357366789182 0 0 
0.00196746542017646 -0.02227357366789182 0 0 
0.00196746542017646 -0.02227357366789182 0 0 
0.00196746542017646 -0.02227357366789182 0 0 
0.00196746542017646 -0.02227357366789182 0 0 
0.00196746542017646 -0.02227357366789182 0 0 
-0.03062118338583881 0.05732204817021295 0 0 
-0.03062118338583881 0.05732204817021295 0 0 
-0.1306211833858388 0.1623357431882294 -3.469446951953614e-18 -0.04395651694721486 
0 0 0 0 
0 0 0 0 
0 0 0 0 
0 0 0 0 
0 0 0 0 
0 0 0 0 
0 0 0 0 
0.1 -0.09082888181464761 -0.1 -0.1 
0 0 0 0 
0 0 0 0 
0 0 0 0 
0 0 0 0 
0 0 0 0 
0 0 0 0 
0 0 0 0 
0 0 0 0 
0 0 0 0 
0 0 0 0 
0 0 0 0 
0.07117072585743743 -0.07537644725992027 0 0 
-0.04202449887603101 0.07114015457261977 0 0 
0.0630036270851332 0 -0.008780001606681959 -0.002188787652051704 
0 0 0 0 
0 0 0 0 
0 0 0 0 
-0.05408740548962175 0.08756594582856184 0 0 
-0.04535760356255079 0.1 0 0 
0 0 0 0 
0 0 0 0 
0 0 0 0 
0 0 0 0 
0 0 0 0 
0 0 0 0 
0.1016441714363945 -0.1 -0.01880898845772379 -0.07952406969180903 
0.06503238551024637 0 0 -0.03217808232054263 
0 0 0 0 
0 0 0 0 
0 0 0 0 
0 0 0 0 
0 0 0 0 
0 0 0 0 
0 0 0 0 
0 0 0 0 
0 0 0 0 
-0.1 0.1 -0.00213160707639486 -0.06300535319960084 
0 0 0 0 
-0.1 0.1 -0.1 -0.1 
0 0 0 0 
0 0 0 0 
0 0 0 0 
0 0 0 0 
0 0 0 0 
0 0 0 0 
0 0 0 0 
0 0 0 0 
0 0 0 0 
0 0 0 0 
0 0 0 0 
0 0 0 0 
0 0 0 0 
0 0 0 0 
0 0 0 0 
0 0 0 0 
0.005457678727947862 0 0 0 
0 0 0 0 
0 0 0 0 
0 0 0 0 
0 0 0 0 
0.1 -0.1 0 0 
0.1 -0.1 0 0 
0 0 0 0 
0 0 0 0 
0 0 0 0 
0 0 0 0 
0.1 -0.1 -0.08072954277451039 -0.06726161579524807 
0 0 0 0 
0 0 0 0 
0 0 0 0 
-0.09433261473953428 0.1 0 0 
0 0 0 0 
-0.02554669900126393 0.1 0 0 
-0.1 0.1 0 0 
0.1 -0.1 -0.01089055739751015 -0.1 
0 0 0 0 
-0.06451488335003432 0.04484617002854165 0 0 
0 0 0 0 
0 0 0 0 
0 0 0 0 
0.1 -0.1 0 0 
0 0 0 0 
0 0 0 0 
0 0 0 0 
0.05587834237350255 -0.07765218090411512 0 0 
0 0 0 0 
0.1 -0.1 0 0 
-0.3297380754515284 0.38716251218734 -0.04346835948400692 -0.09999999999999999 
0 0 0 0 
0 0 0 0 
0 0 0 0 
-0.02853718672332958 0.02952282373297138 0 0 
0 0 0 0 
0 0 0 0 
0 0 0 0 
0 0 0 0 
-0.04535760356255079 0.1 0 0 
0 0 0 0 
0 0 0 0 
0 0 0 0 
0 0 0 0 
0 0 0 0 
0.1 -0.1 0 0 
0 0 0 0 
0 0 0 0 
0 0 0 0 
-0.006484501064928976 0.02952282373297139 0 -0.0114442376939567 
-0.07794731434159941 0.1 0 0 
0 0 0 0 
0.0196097540170688 -0.02272226360868516 0 0 
0 0 0 0 
0 0 0 0 
0 0 0 0 
0 0 0 0 
0 0 0 0 
0 0 0 0 
0 0 0 0 
0 0 0 0 
0 0 0 0 
-0.07701743955523078 0.1494861908707558 0 0 
-0.08547046362081086 0 0.1 0 
0 0 0 0 
0 0 0 0 
-0.02554669900126394 0 0.1 0 
0 0 0 0 
0 0 0 0 
0 0 0 0 
0 0 0 0 
0 0 0 0 
0 0 0 0 
0 0 0 0 
0 0 0 0 
0 0 0 0 
0 0 0 0 
0 0 0 0 
0 0 0 0 
0 0 0 0 
0 0 0 0 
0 0 0 0 
-0.01162301928889697 0.0816028798215937 0 0 
0.1 -0.1 0 0 
0 0 0 0 
0 0 0 0 
0 0 0 0 
0 0 0 0 
0 0 0 0 
-0.1 0.1 0 0 
0 0 0 0 
0 0 0 0 
0 0 0 0 
-0.02015181954425304 0.03806950639785368 0 0 
-0.1055504614875413 0.04686008349312244 -0.0131193693625258 0 
-0.07329301981252417 0.02443699847885162 -0.0131193693625258 0 
-0.1242428879685384 0.1249568982399161 -0.02043789443651713 0 
0.09933391524762261 -0.09464798430827662 0 0 
0.09933391524762261 -0.09464798430827662 0 0 
0.09933391524762261 -0.09464798430827662 0 0 
0 0 0 0 
0 0 0 0 
0 0 0 0 
0 0 0 0 
0 0 0 0 
0 0 0 0 
0 0 0 0 
0 0 0 0 
0 0 0 0 
0 0 0 0 
0 0 0 0 
0 0 0 0 
0 0 0 0 
0.07445330099873608 0.009171118185352378 -0.1 -0.1 
0 0 0 0 
0 0 0 0 
0 0 0 0 
0 0 0 0 
0 0 0 0 
0 0 0 0 
0 0 0 0 
0 0 0 0 
0 0 0 0 
0 0 0 0 
0.09549996570896409 -0.07616156326263823 0 0 
0 0 0 0 
0 0 0 0 
0 0 0 0 
0 0 0 0 
0.1 -0.07138546011937182 0 0 
0 0 0 0 
-0.06565841432500025 0.04948619087075574 0 0 
0 0 0 0 
0 0 0 0 
0 0 0 0 
0.1 -0.1 -0.06517707740663681 -0.04491180500192938 
0 0 0 0 
0 0 0 0 
0 0 0 0 
-0.00858062949389698 0.006358338525989894 -0.004983055130114099 0 
0 0 0 0 
0 0 0 0 
0 0 0 0 
0 0 0 0 
0 0 0 0 
0 0 0 0 
0 0 0 0 
0 0 0 0 
0 0 0 0 
0 0 0 0 
-0.09433261473953428 0.1 0 0 
0 0 0 0 
0 0 0 0 
-0.1139863233001976 0.1734446650519169 0 0 
0 0 0 0 
0 0 0 0 
0 0 0 0 
0 0 0 0 
0 0 0 0 
0 0 0 0 
0 0 0 0 
0 0 0 0 
0 0 0 0 
0 0 0 0 
0 0 0 0 
0 0 0 0 
0 0 0 0 
0 0 0 0 
0 0 0 0 
0 0 0 0 
0.07181534633152703 -0.080561029299895 0 0 
0.1 -0.1 -0.05395332306555219 -0.02629791512837704 
0 0 0 0 
0 0 0 0 
0 0 0 0 
0 0 0 0 
0 0 0 0 
0 0 0 0 
0 0 0 0 
0 0 0 0 
0 0 0 0 
0 0 0 0 
-0.09433261473953428 0.1 0 0 
-0.09433261473953428 0.1 0 0 
-0.0357606598115521 0.02733803384594665 -0.1087117222698975 -0.07175548830428373 
0 0 0 0 
0 0 0 0 
0 0 0 0 
0 0 0 0 
-0.01975281117672053 0.04514850020497104 0 0 
0 0 0 0 
0 0 0 0 
0 0 0 0 
0 0 0 0 
0 0 0 0 
0.1 -0.06546812883025241 0 0 
0 0 0 0 
0.1 -0.1 0 0 
0 0 0 0 
0 0 0 0 
0 0 0 0 
0 0 0 0 
0 0 0 0 
0 0 0 0 
0 0 0 0 
0 0 0 0 
-0.02385723558621224 -0.09886324447799023 0.1 0 
0 0 0 0 
0 0 0 0 
0 0 0 0 
0 0 0 0 
0 0 0 0 
0 0 0 0 
-0.01975281117672053 0.04514850020497104 0 0 
-0.01975281117672053 0.04514850020497104 0 0 
-0.01975281117672053 0.04514850020497104 0 0 
-0.08835581586266135 0.1355828039154735 0 0 
-0.01975281117672053 0.04514850020497104 0 0 
-0.01975281117672053 0.04514850020497104 0 0 
-0.01975281117672053 0.04514850020497104 0 0 
-0.01975281117672053 0.04514850020497104 0 0 
0 0 0 0 
0 0 0 0 
0 0 0 0 
0 0 0 0 
-0.1 -0.1 0 0.1 
0 0 0 0 
0 0 0 0 
0 0 0 0 
0 0 0 0 
0 0 0 0 
0 0 0 0 
0 0 0 0 
0 0 0 0 
0 0 0 0 
0 0 0 0 
0 0 0 0 
0 0 0 0 
0 0 0 0 
0 0 0 0 
0 0 0 0 
0 0 0 0 
0 0 0 0 
-0.1 0.1 -0.1 -0.005577316009061292 
0 0 0 0 
-0.1 0.1 -0.00213160707639486 -0.06300535319960084 
0 0 0 0 
0 0 0 0 
0 0 0 0 
0 0 0 0 
0 0 0 0 
0 0 0 0 
0 0 0 0 
0 0 0 0 
-0.02119553177160696 0.05873024367076051 0 0 
0 0 0 0 
-0.06565841432500025 0.04948619087075574 0 0 
-0.06565841432500025 0.04948619087075574 0 0 
-0.06565841432500025 0.04948619087075574 0 0 
-0.06565841432500025 0.04948619087075574 0 0 
0 0 0 0 
0 0 0 0 
0 0 0 0 
-0.01909960139974764 0.004429811535248612 0 0 
0 0 0 0 
-0.03375564768316367 0.04874335190815956 0 0 
-0.03375564768316367 0.04874335190815956 0 0 
-0.06751129536632734 0.09748670381631912 0 0 
-0.1969533732681302 0.2390484151705101 0 0 
-0.03375564768316367 0.04874335190815956 0 0 
0 0 0 0 
0 0 0 0 
0 0 0 0 
0 0 0 0 
0 0 0 0 
0 0 0 0 
0 0 0 0 
0 0 0 0 
0 0 0 0 
0 0 0 0 
0 0 0 0 
0 0 0 0 
0 0 0 0 
0 0 0 0 
0 0 0 0 
0 0 0 0 
0 0 0 0 
0 0 0 0 
0 0 0 0 
0 0 0 0 
-0.0778986912835022 -0.1 0 0.1 
-0.1778986912835022 -0.2 -0.1 0.2 
0 0 0 0 
0 0 0 0 
0 0 0 0 
0 0 0 0 
0 0 0 0 
0 0 0 0 
0 0 0 0 
0 0 0 0 
0 0 0 0 
0 0 0 0 
0 0 0 0 
0 0 0 0 
0 0 0 0 
0 0 0 0 
0 0 0 0 
-0.0004625623103656757 0.04982068265376961 0.09744518617779424 0 
0 0 0 0 
0 0 0 0 
0 0 0 0 
0 0 0 0 
0 0 0 0 
0 0 0 0 
0 0 0 0 
0 0 0 0 
0 0 0 0 
0 0 0 0 
0 0 0 0 
0 0 0 0 
0 0 0 0 
0 0 0 0 
0 0 0 0 
0 0 0 0 
0 0 0 0 
0.1 -0.07325876450936142 0 0 
0 0 0 0 
0 0 0 0 
-0.04910618161331799 -0.08729007703110435 0.1 0 
-0.04910618161331799 -0.08729007703110435 0.1 0 
-0.04910618161331799 -0.08729007703110435 0.1 0 
-0.04910618161331799 -0.08729007703110435 0.1 0 
-0.04910618161331799 -0.08729007703110435 0.1 0 
0 0 0 0 
0 0 0 0 
0 0 0 0 
0 0 0 0 
0 0 0 0 
0 0 0 0 
0 0 0 0 
0 0 0 0 
0 0 0 0 
0 0 0 0 
0 0 0 0 
0 0 0 0 
0.1 -0.1 0 0 
0 0 0 0 
0 0 0 0 
0 0 0 0 
0 0 0 0 
0.1 -0.1 0 0 
0.1 -0.1 0 0 
0 0 0 0 
0 0 0 0 
0 0 0 0 
0 0 0 0 
0 0 0 0 
0 0 0 0 
0 0 0 0 
0 0 0 0 
0 0 0 0 
0 0 0 0 
-0.03225744167501716 0.02242308501427083 0 0 
0 0 0 0 
0 0 0 0 
0 0 0 0 
0 0 0 0 
0 0 0 0 
0 0 0 0 
0 0 0 0 
0 0 0 0 
-0.1 0.1 -0.06041548202099447 -0.05113770568477017 
0.1 -0.07906855978553037 0 -0.0114442376939567 
0.05315723115261618 -0.02385705516289284 0 0 
0 0 0 0 
0 0 0 0 
0 0 0 0 
0 0 0 0 
0 0 0 0 
0 0 0 0 
0 0 0 0 
0 0 0 0 
0 0 0 0 
0.05857195492798217 -0.07266196615405335 0 0 
0 0 0 0 
0 0 0 0 
0 0 0 0 
0 0 0 0 
0 0 0 0 
0 0 0 0 
0 0 0 0 
0 0 0 0 
0 0 0 0 
0 0 0 0 
0 0 0 0 
0 0 0 0 
0 0 0 0 
0 0 0 0 
0 0 0 0 
0 0 0 0 
0 0 0 0 
0 0 0 0 
0 0 0 0 
0 0 0 0 
0 0 0 0 
0 0 0 0 
0.09800915909684944 -0.09625363187487132 0 0 
0 0 0 0 
0 0 0 0 
0 0 0 0 
0 0 0 0 
-0.1 0.1 -0.00695886076101627 0 
0 0 0 0 
0 0 0 0 
0 0 0 0 
0 0 0 0 
0 0 0 0 
0 0 0 0 
0 0 0 0 
0 0 0 0 
0 0 0 0 
0 0 0 0 
0 0 0 0 
0 0 0 0 
0 0 0 0 
0 0 0 0 
0 0 0 0 
0 0 0 0 
0 0 0 0 
0 0 0 0 
0 0 0 0 
0 0 0 0 
0 0 0 0 
0 0 0 0 
0 0 0 0 
0 0 0 0 
0 0 0 0 
0 0 0 0 
-0.1663828090697824 -0.1 -0.004679171989625073 0 
-0.1222249733036987 0 0 -0.1 
0 0 0 0 
0 0 0 0 
0 0 0 0 
0 0 0 0 
0 0 0 0 
-0.02903868816693443 0.0545912495529411 -0.04412048673374453 0 
0 0 0 0 
-0.04921140228476899 0.0168603982104336 0 0 
0 0 0 0 
0 0 0 0 
0 0 0 0 
-0.02853718672332958 0.02952282373297138 0 0 
0 0 0 0 
0 0 0 0 
0 0 0 0 
0 0 0 0 
0 0 0 0 
0 0 0 0 
0 0 0 0 
0 0 0 0 
0 0 0 0 
0 0 0 0 
0 0 0 0 
0 0 0 0 
0 0 0 0 
0 0 0 0 
0 0 0 0 
0 0 0 0 
0 0 0 0 
0 0 0 0 
0 0 0 0 
0 0 0 0 
0 0 0 0 
0 0 0 0 
0 0 0 0 
0 0 0 0 
0 0 0 0 
0 0 0 0 
0 0 0 0 
-0.06856300133518757 0.1 -0.1 -0.08864850648869492 
-0.06856300133518757 0.1 -0.1 -0.08864850648869492 
0 0 0 0 
0 0 0 0 
0.1 -0.1 -0.03624198519026515 0 
0.1 -0.01957497865152638 0 0 
0 0 0 0 
-0.1215124618631247 0.2 -0.1 0 
0 0 0 0 
0 0 0 0 
0 0 0 0 
0 0 0 0 
0 0 0 0 
0 0 0 0 
0 0 0 0 
0 0 0 0 
0 0 0 0 
0 0 0 0 
0 0 0 0 
0 0 0 0 
0 0 0 0 
0 0 0 0 
0 0 0 0 
0 0 0 0 
0 0 0 0 
0 0 0 0 
0 0 0 0 
0 0 0 0 
0 0 0 0 
0 0 0 0 
0 0 0 0 
0 0 0 0 
0 0 0 0 
0 0 0 0 
0 0 0 0 
0 0 0 0 
0 0 0 0 
0 0 0 0 
0 0 0 0 
0 0 0 0 
0 0 0 0 
-0.04921140228476899 0.0168603982104336 0 0 
-0.04921140228476899 0.0168603982104336 0 0 
-0.04921140228476899 0.0168603982104336 0 0 
0 0 0 0 
0 0 0 0 
0 0 0 0 
0 0 0 0 
0 0 0 0 
0 0 0 0 
0 0 0 0 
0 0 0 0 
0 0 0 0 
0 0 0 0 
0 0 0 0 
0 0 0 0 
0 0 0 0 
0 0 0 0 
0 0 0 0 
0.1 -0.1 -0.008407611715617673 0 
0 0 0 0 
0 0 0 0 
0 0 0 0 
0 0 0 0 
0 0 0 0 
0 0 0 0 
0 0 0 0 
0 0 0 0 
0 0 0 0 
0 0 0 0 
0 0 0 0 
0 0 0 0 
0.057975501123969 -0.02885984542738025 0 0 
-0.0863495090986529 0.08252571872856432 0 0 
0.02901263731741298 -0.03478448238308836 0 0 
0.02901263731741298 -0.03478448238308836 0 0 
0 0 0 0 
-0.120151819544253 0.1380695063978537 0 0 
-0.1 0.1 0 0 
-0.1 0.1 -0.04346086929566746 -0.03428416074734075 
0 0 0 0 
0 0 0 0 
0 0 0 0 
0 0 0 0 
0 0 0 0 
0 0 0 0 
-0.1 0.1 0 -0.04395651694721486 
0 -0.1 0.1 0 
0 0.03959147060217707 0 0 
0 0.03959147060217707 0 0 
0 0.03959147060217707 0 0 
0 0 0 0 
0 0 0 0 
0 0 0 0 
0 0 0 0 
0 0 0 0 
-0.1 0.1 -0.002062910139314447 0 
-0.1 0.1 -0.002062910139314447 0 
0 0 0 0 
0 0 0 0 
0 0 0 0 
0 0 0 0 
0.1497754423470726 -0.1 0 0 
0 0 0 0 
0 0 0 0 
0 0 0 0 
0 0 0 0 
-0.1 0.1 0 0 
-0.1 0.1 0 0 
-0.1 0.1 0 0 
0 0 0 0 
0 0 0 0 
0 0 0 0 
0 0 0 0 
0 0 0 0 
0 0 0 0 
0 0 0 0 
0.00597526831475783 -0.1410549639241687 -0.006720361079000473 0.09667654591796485 
0 0 0 0 
0 0 0 0 
0.1 -0.0835712623870484 -0.05216333756604644 0 
0 0 0 0 
0 0 0 0 
0 0 0 0 
0 0 0 0 
0 0 0 0 
0 0 0 0 
0 0 0 0 
0 0 0 0 
0 0 0 0 
0 0 0 0 
0 0 0 0 
0 0 0 0 
0 0 0 0 
0 0 0 0 
0 0 0 0 
0 0 0 0 
0 0 0 0 
0 0 0 0 
0 0 0 0 
0 0 0 0 
0 0 0 0 
0 0 0 0 
0 0 0 0 
0 0 0 0 
0.1 -0.1 -0.03624198519026515 0 
0 0 0 0 
0 0 0 0 
0 0 0 0 
0.03701559084665805 -0.04177480412958677 0 0 
0 0 0 0 
0 0 0 0 
0 0 0 0 
0 0 0 0 
0 0 0 0 
0 0 0 0 
-0.05408740548962175 0.08756594582856184 0 0 
0 0 0 0 
0 0 0 0 
0 0 0 0 
0.1 -0.1 -0.008407611715617673 0 
0 0 0 0 
0 0 0 0 
0 0 0 0 
0 0 0 0 
0 0 0 0 
-0.1 0.1 0 0 
0 0 0 0 
0 0 0 0 
0 0 0 0 
0 0 0 0 
0 0 0 0 
0 0 0 0 
0 0 0 0 
0 0 0 0 
0 0 0 0 
0 0 0 0 
0 0.009048778421256912 0 0 
0 0 0 0 
0 0 0 0 
0 0 0 0 
0 0 0 0 
0 0 0 0 
0 0 0 0 
-0.1017014200412343 0.1005198997610645 -0.009450132150386174 -0.06300535319960084 
0 0 0 0 
-0.05973467347404762 0.06521551761691169 0 0 
-0.08874731079146062 0.1 0 0 
0 0 0 0 
0 0 0 0 
0 0 0 0 
0 0 0 0 
0 0 0 0 
0 0 0 0 
0 0 0 0 
0 0 0 0 
0 0 0 0 
0 0 0 0 
0 0 0 0 
0 0 0 0 
0 0 0 0 
0 0 0 0 
0 0 0 0 
0 0 0 0 
0 0 0 0 
0 0 0 0 
0 0 0 0 
0 0 0 0 
0 0 0 0 
0 0 0 0 
0 0 0 0 
0 0 0 0 
0 0 0 0 
0 0 0 0 
0 0 0 0 
0.1 -0.1 0 0 
0 0 0 0 
-0.00646260450252412 0.06692828885319051 0 0 
0 0 0 0 
0 0 0 0 
0 0 0 0 
0 0 0 0 
0 0 0 0 
0 0 0 0 
0 0 0 0 
0 0 0 0 
-0.1 0 0.1 0 
-0.1 0 0.1 0 
0 -0.1 0.09159238828438233 0 
0 0 0 0 
0 0 0 0 
0 0 0 0 
0 0 0 0 
0 0 0 0 
0 0 0 0 
0 0 0 0 
0 0 0 0 
0 0 0 0 
0 0 0 0 
0 0 0 0 
0 0 0 0 
0 0 0 0 
0.1 -0.1 -0.08182394676329798 -0.1 
0 0 0 0 
0 0 0 0 
0 0 0 0 
0 0 0 0 
0 0 0 0 
0 0.06127025954642867 0 0 
0 0 0 0 
0 0 0 0 
0 0 0 0 
0 0 0 0 
0 0 0 0 
0 0 0 0 
0 0 0 0 
0 0 0 0 
0 0 0 0 
0 0 0 0 
0 0 0 0 
0 0 0 0 
0 0 0 0 
0 0.005013695018016438 0 0 
0 0 0 0 
0 0 0 0 
0 0 0 0 
0 0 0 0 
0 0 0 0 
0 0 0 0 
0 0 0 0 
0 0 0 0 
0 0 0 0 
-0.03816504427953123 0.1050136950180165 0 0 
0 0 0 0 
0 0 0 0 
0 0 0 0 
0 0 0 0 
0 0 0 0 
-0.1 0.1 0 0 
0 0 0 0 
0 0 0 0 
0 0 0 0 
0 0 0 0 
-0.001701420041234312 0.009568678182321405 -0.007318525073991316 0 
0 0 0 0 
0 0 0 0 
0 0 0 0 
0 0 0 0 
0 0 0 0 
0 0 0 0 
0 0 0 0 
0 0 0 0 
0 0 0 0 
0 0 0 0 
0 0 0 0 
0 0 0 0 
0 0 0 0 
0 0 0 0 
0 0 0 0 
0 0 0 0 
0 0 0 0 
0 0 0 0 
0 0 0 0 
0 0 0 0 
0 0 0 0 
0 0 0 0 
0 0 0 0 
0 0 0 0 
0 0 0 0 
0 0 0 0 
0 0 0 0 
0.05593693682571675 -0.06849349378703515 0 0 
0 0 0 0 
0 0 0 0 
0 0 0 0 
0 0 0 0 
0 0 0 0 
0 0 0 0 
0 0 0 0 
0 0 0 0 
-0.1 0.1 0 0 
0 0 0 0 
0 0 0 0 
0 0 0 0 
-0.2 0.2 -0.1260853942860804 -0.1744842138775638 
0 0 0 0 
0 0 0 0 
0 0 0 0 
0 0 0 0 
0 0 0 0 
0 0 0 0 
0 0 0 0 
-0.1 -0.07721716962085226 0 0.1 
0 0 0 0 
0 0 0 0 
0 0 0 0 
0 0 0 0 
-0.03816504427953123 0.1 0 0 
-0.03816504427953123 0.1 0 0 
0 0 0 0 
0 0 0 0 
0 0 0 0 
0 0 0 0 
0 0 0 0 
0 0 0 0 
0 0 0 0 
0 0 0 0 
0 0 0 0 
0 0 0 0 
0 0 0 0 
0 0 0 0 
0 0 0 0 
0 0 0 0 
0 0 0 0 
0 0 0 0 
-0.01534354589868906 0.0864397310828266 0 0 
0 0 0 0 
0 0 0 0 
0 0 0 0 
0 0 0 0 
0 0 0 0 
0 0 0 0 
0 0 0 0 
0 0 0 0 
0 0 0 0 
0 0 0 0 
0.05587834237350255 -0.07765218090411512 0 0 
0 0 0 0 
0 0 0 0 
0 0 0 0 
0 0 0 0 
0 0 0 0 
0 0 0 0 
0 0 0 0 
0 0 0 0 
0 0 0 0 
0 0 0 0 
0 0 0 0 
0 0 0 0 
0 0 0 0 
0 0 0 0 
0.1 -0.06546812883025241 0 0 
0 0 0 0 
0 0 0 0 
-0.02853718672332958 0.02952282373297138 0 0 
0 0 0 0 
0 0 0 0 
0.1 -0.09512828933095789 -0.00153587244175958 0 
0 0 0 0 
0 0 0 0 
0 0 0 0 
0 0 0 0 
0 0 0 0 
0 0 0 0 
0 0 0 0 
0 0 0 0 
0 0 0 0 
0 0 0 0 
0 0 0 0 
0 0 0 0 
-0.1 0.1 -0.1 -0.1 
0 0 0 0 
0 0 0 0 
0 0 0 0 
0 0 0 0 
0 0 0 0 
0 0 0 0 
0 0 0 0 
0 0 0 0 
0 0 0 0 
0 0 0 0 
0 0 0 0 
0 0 0 0 
0 0 0 0 
0 0 0 0 
0 0 0 0 
0 0 0 0 
0 0 0 0 
0 0 0 0 
-0.05408740548962175 0.08756594582856184 0 0 
0 0 0 0 
0 0 0 0 
0 0 0 0 
0 0 0 0 
0 0 0 0 
-0.08547046362081084 0.1 0 0 
-0.08547046362081084 0.1 0 0 
-0.1854704636208109 0.02278283037914774 0 0.1 
0 0 0 0 
0 0 0 0 
0 0 0 0 
0 0 0 0 
0 0 0 0 
0 0 0 0 
0 0 0 0 
0 0 0 0 
0 0 0 0 
0 0 0 0 
0 0 0 0 
0 0 0 0 
0 0 0 0 
0 0 0 0 
0 0 0 0 
0.1 -0.1 0 0 
0 0 0 0 
0 -0.09411711156237602 -0.03533844315812225 0.1 
0 0 0 0 
0 0 0 0 
0.05721455733268828 -0.04480133204929753 -0.006720361079000473 -0.003323454082035161 
0 0 0 0 
0 0 0 0 
0 0 0 0 
0 0 0 0 
0 0 0 0 
0 0 0 0 
0 0 0 0 
0 0 0 0 
0 0 0 0 
0 0 0 0 
0 0 0 0 
0 0 0 0 
0 0 0 0 
0 0 0 0 
0.005457678727947862 0 0 0 
0.005457678727947862 0 0 0 
0.005457678727947862 0 0 0 
0.005457678727947862 0 0 0 
0 0 0 0 
0 0 0 0 
0 0 0 0 
0 0 0 0 
0 0 0 0 
0 0 0 0 
0 0 0 0 
0 0 0 0 
0 0 0 0 
0 0 0 0 
0 0 0 0 
0.1 -0.1 0 0 
0.1954999657089641 -0.1761615632626383 -0.04346086929566746 -0.03428416074734075 
0 0 0 0 
0 0 0 0 
0.02901263731741298 -0.03478448238308836 0 0 
0 0 0 0 
0 0 0 0 
0 0 0 0 
0 0 0 0 
0 0 0 0 
0 0 0 0 
0 0 0 0 
0 0 0 0 
0.1 -0.09512828933095789 -0.00153587244175958 0 
0 0 0 0 
0 0 0 0 
0 0 0 0 
0 0 0 0 
0 0 0 0 
0 0 0 0 
0 0 0 0 
0 0 0 0 
0 0 0 0 
0 0 0 0 
0 0 0 0 
0 0 0 0 
0 0 0 0 
0 0 0 0 
0 0 0 0 
0.09800915909684944 -0.09625363187487132 0 0 
0.09800915909684944 -0.09625363187487132 0 0 
0 0 0 0 
0 0 0 0 
0 0 0 0 
0 0 0 0 
0 0 0 0 
0 0 0 0 
-0.1 0.1 -0.1 -0.1 
0 0 0 0 
0 0 0 0 
-0.1 0.1 -0.03021356158744447 0 
-0.02119553177160696 0.05873024367076051 0 0 
0 0 0 0 
0 0 0 0 
0 0 0 0 
0 0 0 0 
0 0 0 0 
0 0 0 0 
0 0 0 0 
-0.04278544266731173 0.05519866795070247 -0.1061932314061427 -0.09163729533819366 
0 0 0 0 
0 0 0 0 
0 0 0 0 
0 0 0 0 
0 0 0 0 
0 0 0 0 
0 0 0 0 
0 0 0 0 
0 0 0 0 
0 0 0 0 
0 0 0 0 
0 0 0 0 
0 0 0 0 
0 0 0 0 
0 0 0 0 
0 0 0 0 
0 0 0 0 
0 0 0 0 
-0.1 -0.04393779421614565 -0.03533844315812225 0.1 
0 0 0 0 
-0.1 0.1 -0.02608539428608038 -0.07448421387756377 
0 0 0 0 
0 0 0 0 
0 0 0 0 
0 0 0 0 
0 0 0 0 
0 0 0 0 
0 0 0 0 
0 0 0 0 
0 0 0 0 
0 0 0 0 
0 0 0 0 
0 0 0 0 
0 0 0 0 
0 0 0 0 
0 0 0 0 
0 0 0 0 
0 0 0 0 
0 0 0 0 
0 0 0 0 
0 0 0 0 
-0.1 0.1 -0.00213160707639486 -0.06300535319960084 
-0.1 0.1 -0.00213160707639486 -0.06300535319960084 
0 0 0 0 
0 0 0 0 
0 0 0 0 
0 0 0 0 
0 0 0 0 
0 0 0 0 
0 0 0 0 
0 0 0 0 
0 0 0 0 
0 0 0 0 
0 0 0 0 
-0.1 0.1 0 0 
-0.2215124618631247 0.2 0 0 
0 0 0 0 
0 0 0 0 
0 0 0 0 
-0.1 0.1 -0.1 -0.08389537023232005 
0 0 0 0 
0 0 0 0 
0 0 0 0 
0 0 0 0 
0 0 0 0 
0 0 0 0 
0 0 0 0 
0 0 0 0 
0 0 0 0 
0 0 0 0 
0 0 0 0 
0 0 0 0 
0.1 -0.01957497865152638 0 0 
0.1 -0.1 -0.1 -0.1 
0 0 0 0 
0 0 0 0 
0 0 0 0 
0 0 0 0 
0 0 0 0 
0 0 0 0 
0 0 0 0 
0 0 0 0 
0 0 0 0 
0 0 0 0 
0 0 0 0 
0 0 0 0 
0 0 0 0 
0 0 0 0 
0 0 0 0 
0 0 0 0 
0 0 0 0 
-0.1 0.1 0 0 
0 0 0 0 
0 0 0 0 
0 0 0 0 
0 0 0 0 
0 0 0 0 
0 0 0 0 
0 0 0 0 
0 0.03743986218526909 0 0 
-0.1 0.1 0 0 
0 0 0 0 
0.04977544234707261 0 0 0 
0.04977544234707261 0 0 0 
0.04977544234707261 0 0 0 
0 0 0 0 
0 0 0 0 
0 0 0 0 
0 0 0 0 
0 0 0 0 
0 -0.0105002531383305 0 0 
0 0 0 0 
0 0 0 0 
0.1 -0.1 0 0 
0 0 0 0 
0 0 0 0 
0 0 0 0 
0 0 0 0 
0 0 0 0 
0 0 0 0 
0 0 0 0 
0 0 0 0 
0 0 0 0 
0 0 0 0 
0 0 0 0 
0 0 0 0 
0 0 0 0 
0 0 0 0 
0 0 0 0 
0 0 0 0 
0 0 0 0 
0 0.02320987279717023 -0.1006442129920821 -0.1 
0 0 0 0 
-0.1 0.1 -0.04346086929566746 -0.03428416074734075 
0 0 0 0 
0 0 0 0 
0 0 0 0 
0 0 0 0 
0 0 0 0 
0 0 0 0 
0 0 0 0 
0 0 0 0 
0 0 0 0 
0 0 0 0 
0 0 0 0 
0 0 0 0 
0 0 0 0 
0 0 0 0 
0 0 0 0 
0 0 0 0 
0 0 0 0 
0 0 0 0 
0 0 0 0 
0 0 0 0 
0 0 0 0 
0 0 0 0 
0 0 0 0 
-0.1 0.1 -0.006898237233226268 0 
-0.1 0.1 -0.006898237233226268 0 
0 0 0 0 
0 0 0 0 
0.04457583905258602 -0.04032130986690396 0 0 
0.04457583905258602 -0.04032130986690396 0 0 
0 0 0 0 
0 0 0 0 
0 0 0 0 
0 0 0 0 
0 0 0 0 
0 0 0 0 
0 0 0 0 
0 0 0 0 
0 0 0 0 
0 0 0 0 
0 0 0 0 
0 0 0 0 
0 0 0 0 
0 0 0 0 
0 0 0 0 
0 0 0 0 
-0.01135902523023054 0.1 0 0 
0 0 0 0 
0 0 0 0 
0 0 0 0 
0 0 0 0 
0 0 0 0 
0 0 0 0 
0 0 0 0 
0 0 0 0 
0 0 0 0 
0 0 0 0 
0 0 0 0 
0 0 0 0 
0 0 0 0 
0 0 0 0 
0 0 0 0 
0 0 0 0 
0 0 0 0 
0 0 0 0 
0 0 0 0 
0 0 0 0 
0 0 0 0 
0 0 0 0 
0 0 0 0 
0 0 0 0 
0 0 0 0 
0 0 0 0 
0 0 0 0 
-0.1 0.1 0 0 
0 0 0 0 
0 0 0 0 
0 0 0 0 
0 0 0 0 
0 0 0 0 
0 0 0 0 
0 0 0 0 
0 0 0 0 
0 0 0 0 
0 0 0 0 
0 0 0 0 
0 0 0 0 
-0.1 0.1 0 0 
0 0 0 0 
0 0 0 0 
0 0 0 0 
0 0 0 0 
0.1 -0.1 0 0 
0 0 0 0 
0 0 0 0 
0 0 0 0 
0 0 0 0 
0 0 0 0 
0 0 0 0 
0 0 0 0 
0 0 0 0 
0 0 0 0 
0 0 0 0 
0 0 0 0 
0 0 0 0 
0 0 0 0 
0 0 0 0 
0 0 0 0 
0 0 0 0 
0 0 0 0 
0 0 0 0 
0 0 0 0 
0.05951699228819874 -0.02777353784174147 0 0 
0 0 0 0 
0 0 0 0 
0 0 0 0 
0 0 0 0 
0 0 0 0 
0 0 0 0 
0 0 0 0 
0 0 0 0 
0 0 0 0 
0 0 0 0 
0 0 0 0 
0 0 0 0 
0 0 0 0 
0 0 0 0 
0 0 0 0 
0 0 0 0 
0 0 0 0 
0 0 0 0 
0 0 0 0 
0 0 0 0 
0 0 0 0 
0 0 0 0 
0 0 0 0 
-0.02015181954425304 0.03806950639785368 0 0 
0 0 0 0 
0 0 0 0 
0 0 0 0 
0 0 0 0 
0 0 0 0 
0 0 0 0 
0 0 0 0 
0 0 0 0 
0 0 0 0 
0 0 0 0 
0 0 0 0 
0 0 0 0 
0 0 0 0 
0 0 0 0 
0 0 0 0 
0 0 0 0 
0 0 0 0 
0 0 0 0 
0 0 0 0 
0 0 0 0 
0 0 0 0 
0 0 0 0 
0 0 0 0 
0 0 0 0 
0 0 0 0 
0 0 0 0 
-0.05699316165009879 0.08672233252595846 0 0 
-0.05699316165009879 0.08672233252595846 0 0 
0 0 0 0 
0 0 0 0 
0 0 0 0 
0 0 0 0 
0 0 0 0 
0 0 0 0 
0 0 0 0 
0.1 -0.06546812883025241 0 0 
0 0 0 0 
0 0 0 0 
0 0 0 0 
0 0 0 0 
0 0 0 0 
0 0 0 0 
0 0 0 0 
0 0 0 0 
-0.06860300468594083 0.09043430371050243 0 0 
-0.1 0.1 -0.06041548202099447 -0.05113770568477017 
-0.1 0.1 -0.06041548202099447 -0.05113770568477017 
0 0 0 0 
0 0 0 0 
0 0 0 0 
0 0 0 0 
0 0 0 0 
0 0 0 0 
0 0 0 0 
0 0 0 0 
0 0 0 0 
0 0 0 0 
0 0 0 0 
0 0 0 0 
0 0 0 0 
0 0 0 0 
0 0 0 0 
0 0 0 0 
0 0 0 0 
0 0 0 0 
0 0 0 0 
0 0 0 0 
0 0 0 0 
0 0 0 0 
0 0 0 0 
0 0 0 0 
0 0 0 0 
0 0 0 0 
0 0 0 0 
0 0 0 0 
0 0 0 0 
0 0 0 0 
0 0 0 0 
0 0 0 0 
0 0 0 0 
0 0 0 0 
0 0 0 0 
0 0 0 0 
0 0 0 0 
0 0 0 0 
0 0 0 0 
0 0 0 0 
0 0 0 0 
0 0 0 0 
0 0 0 0 
0 0 0 0 
0 0 0 0 
0 0 0 0 
0 0 0 0 
0 0 0 0 
0 0 0 0 
0 0 0 0 
0 0 0 0 
0 0 0 0 
0 0 0 0 
0.1 -0.1 -0.1 -0.1 
0 0 0 0 
0 0 0 0 
0 0 0 0 
0 0 0 0 
0 0 0 0 
0 0 0 0 
0 0 0 0 
0 0 0 0 
0 0 0 0 
0 0 0 0 
0 0 0 0 
0 0 0 0 
0 0 0 0 
0 0 0 0 
-0.02119553177160696 0.05873024367076051 0 0 
0 0 0 0 
0 0 0 0 
0.07606266635000193 -0.06314273240101893 0 0 
0 0 0 0 
0 0 0 0 
0 0 0 0 
0 0 0 0 
0 0 0 0 
0 0 0 0 
0 0 0 0 
0 0 0 0 
0 0 0 0 
0 0 0 0 
0 0 0 0 
0 0 0 0 
0 0 0 0 
0 0 0 0 
0 0 0 0 
-0.03225744167501716 0.02242308501427083 0 0 
0 -0.1607884320079007 -0.05216333756604645 0.1 
0 0 0 0 
0 0 0 0 
0 0 0 0 
0.05593693682571675 -0.06849349378703515 0 0 
0.05593693682571675 -0.06849349378703515 0 0 
0.05593693682571675 -0.06849349378703515 0 0 
0 0 0 0 
-0.1 0.1 -0.1 -0.1 
0 0 0 0 
0 0.06045042378074925 -0.01489967015906412 0 
0 0 0 0 
0 0 0 0 
0 0 0 0 
0 0 0 0 
0 0 0 0 
0 0 0 0 
0 0 0 0 
0 0 0 0 
-0.04313369805876304 0.1 0 0 
0 0 0 0 
0 0 0 0 
0 0 0 0 
0 0 0 0 
0.1 -0.09512828933095789 -0.00153587244175958 0 
0 0 0 0 
0 0 0 0 
0 0 0 0 
0 0 0 0 
0 0 0 0 
0 0 0 0 
0 0 0 0 
0 0 0 0 
0 0 0 0 
0 0 0 0 
0 0 0 0 
0 0 0 0 
0 0 0 0 
0 0 0 0 
0 0 0 0 
0 0 0 0 
0 0 0 0 
0 0 0 0 
0 0 0 0 
0 0 0 0 
0 0 0 0 
0 0 0 0 
0 0 0 0 
0 0 0 0 
0 0 0 0 
0 0 0 0 
0 0 0 0 
0 0 0 0 
0 0 0 0 
0 0 0 0 
0 0 0 0 
0 0 0 0 
0 0 0 0 
0 0 0 0 
0 0 0 0 
0 0 0 0 
0 0 0 0 
0 0 0 0 
0 0 0 0 
0 0 0 0 
0 0 0 0 
0 0 0 0 
0 0 0 0 
0 0 0 0 
0 0 0 0 
0 0 0 0 
0 0 0 0 
0 0 0 0 
0 0 0 0 
0 0 0 0 
0 0 0 0 
0 0 0 0 
0 0 0 0 
0 0 0 0 
0 0 0 0 
-0.1 0.1 -0.09947287032714225 -0.0883138412561585 
0 0 0 0 
0 0 0 0 
0 0 0 0 
0 0 0 0 
0 0 0 0 
0 0 0 0 
0 0 0 0 
0 0 0 0 
0 0 0 0 
0 0 0 0 
0 0 0 0 
0 0 0 0 
0 0 0 0 
0 0 0 0 
0 0 0 0 
0 0 0 0 
-0.05126378308233979 0.04291348065164859 0 0 
-0.05126378308233979 0.04291348065164859 0 0 
0 0 0 0 
0 0 0 0 
0 0 0 0 
0 0 0 0 
0 0 0 0 
0 0 0 0 
0 0 0 0 
0 0 0 0 
0 0 0 0 
0 0 0 0 
0 0 0 0 
0 0 0 0 
0 0 0 0 
0 0 0 0 
0 0 0 0 
0 0 0 0 
0 0 0 0 
0 0 0 0 
0 0 0 0 
0 0 0 0 
0 0 0 0 
0 0 0 0 
0 0 0 0 
0 0 0 0 
0 0 0 0 
0 0 0 0 
0 0 0 0 
0 0 0 0 
0 0 0 0 
0 0 0 0 
0 0 0 0 
0 0 0 0 
0 0 0 0 
0 0 0 0 
0 0 0 0 
0 0 0 0 
0 0 0 0 
0 0 0 0 
0 0 0 0 
0 0 0 0 
0 0 0 0 
0 0 0 0 
0 0 0 0 
0 0 0 0 
0 0 0 0 
0 0 0 0 
0 0 0 0 
0 0 0 0 
0 0 0 0 
0 0 0 0 
-0.02385723558621224 -0.09886324447799023 0.1 0 
-0.02385723558621224 -0.09886324447799023 0.1 0 
0 0 0 0 
0 0 0 0 
0 0 0 0 
0 0 0 0 
0 0 0 0 
0 0 0 0 
0 0 0 0 
0 0 0 0 
0 0 0 0 
0 0 0 0 
0 0 0 0 
0 0 0 0 
0 0 0 0 
0 0 0 0 
0.1 -0.01957497865152638 0 0 
0.1 -0.01957497865152638 0 0 
0.1 -0.01957497865152638 0 0 
0 0 0 0 
0 0 0 0 
0 0 0 0 
0 0 0 0 
0 0 0 0 
0 0 0 0 
0 0 0 0 
0 0 0 0 
0 0 0 0 
0 0 0 0 
0 0 0 0 
0 0 0 0 
0 0 0 0 
0 0 0 0 
0 0 0 0 
0 0 0 0 
0 0 0 0 
0 0 0 0 
0 0 0 0 
0 0 0 0 
0 0 0 0 
0 0 0 0 
0 0 0 0 
0 0 0 0 
0.1 -0.1 0 0 
0.1 -0.1 0 0 
0 0 0 0 
0 0.03743986218526909 0 0 
0 0.03743986218526909 0 0 
0 0 0 0 
0 0 0 0 
0 0 0 0 
0 0 0 0 
0 0 0 0 
0 0 0 0 
0 0 0 0 
0.07117072585743743 -0.07537644725992027 0 0 
0.07117072585743743 -0.07537644725992027 0 0 
0.07117072585743743 -0.07537644725992027 0 0 
0 0 0 0 
0 0 0 0 
0 0 0 0 
0 0 0 0 
0 0 0 0 
-0.1 0.1 -0.04159292504223999 -0.008846907325716372 
-0.1 0.1 -0.04159292504223999 -0.008846907325716372 
0 0 0 0 
0 0 0 0 
0 0 0 0 
0 0 0 0 
0 0 0 0 
0 0 0 0 
0 0 0 0 
0 0 0 0 
0 0 0 0 
0 0 0 0 
0 0 0 0 
0 0 0 0 
0 0 0 0 
0 0 0 0 
0 0 0 0 
0 0 0 0 
0 0 0 0 
0 0 0 0 
0 0 0 0 
0 0 0 0 
0 0 0 0 
0 0 0 0 
0 0 0 0 
0 0 0 0 
0 0 0 0 
0 0 0 0 
0 0 0 0 
-0.05408740548962175 0.08756594582856184 0 0 
0 0 0 0 
0.02901263731741298 -0.03478448238308836 0 0 
0 0 0 0 
0.1 -0.07639915513738825 0 0 
0 0 0 0 
0 0 0 0 
0 0 0 0 
0 -0.1 0.1 0 
-0.06122975521488538 0 -0.03456385795178789 0.1 
-0.06122975521488538 0 -0.03456385795178789 0.1 
-0.06122975521488538 0 -0.03456385795178789 0.1 
0 0 0 0 
0 0 0 0 
0 0 0 0 
0 0 0 0 
0.08887356303826771 -0.1 -0.004795559221571641 -0.01709510693104663 
0 0 0 0 
0 0 0 0 
0 0 0 0 
0 0 0 0 
0 0 0 0 
0 0 0 0 
0.1 -0.1 0 0 
0 0 0 0 
0 0 0 0 
0 0 0 0 
0 0 0 0 
0 0 0 0 
0 0.001011549214496889 0 0 
0 0.001011549214496889 0 0 
0 0.001011549214496889 0 0 
0 0 0 0 
0 0 0 0 
0 0 0 0 
0 0 0 0 
-0.001701420041234312 0.0005198997610644955 -0.007318525073991316 0 
-0.02834053808889337 0.01723922045373549 0 0 
-0.02834053808889337 0.01723922045373549 0 0 
0 0 0 0 
0 0 0 0 
0 0 0 0 
0 0 0 0 
0 0 0 0 
0 0 0 0 
0 0 0 0 
0 0 0 0 
0 0 0 0 
0 0 0 0 
0 0 0 0 
0 0 0 0 
0 0 0 0 
0 0 0 0 
0 0 0 0 
0 0 0 0 
0 0 0 0 
0 0 0 0 
0 0 0 0 
0 0 0 0 
0 0 0 0 
0 0 0 0 
0 0 0 0 
0 0 0 0 
0 0 0 0 
0 0 0 0 
0 0 0 0 
0 0 0 0 
0 0 0 0 
0 0 0 0 
0 0 0 0 
0 0 0 0 
0 0 0 0 
0 0 0 0 
0 0 0 0 
0 0 0 0 
0.06956362160495884 -0.02475005796489379 0 -0.002454693497067769 
0 0 0 0 
0 0 0 0 
0 0 0 0 
0 0 0 0 
0 0 0 0 
0 0 0 0 
0 0 0 0 
0 0 0 0 
0 0 0 0 
0 0 0 0 
0 0 0 0 
0 0 0 0 
-0.03225744167501716 0.02242308501427083 0 0 
0 0 0 0 
0.1 -0.1 -0.08072954277451039 -0.06726161579524807 
0.1 -0.1 -0.08072954277451039 -0.06726161579524807 
0.1 -0.1 -0.08072954277451039 -0.06726161579524807 
0 0 0 0 
0 0 0 0 
0 0 0 0 
0 0 0 0 
0 0 0 0 
0 0 0 0 
0 0 0 0 
0 0 0 0 
0 0 0 0 
0 0 0 0 
0 0.02674123549063857 0 0 
0 0 0 0 
0 0 0 0 
0 0 0 0 
0 0 0 0 
0 0 0 0 
0 0 0 0 
0 0 0 0 
0 0 0 0 
0 0 0 0 
0 0 0 0 
0 0 0 0 
0 0 0 0 
0 0 0 0 
0 0 0 0 
0.07181534633152703 -0.080561029299895 0 0 
0 0 0 0 
0 0 0 0 
0.1 -0.1 0 0 
0 0 0 0 
0 0 0 0 
-0.05408740548962175 0.08756594582856184 0 0 
-0.05408740548962175 0.08756594582856184 0 0 
0 0 0 0 
0 0 0 0 
0 0 0 0 
0 0 0 0 
0.1 -0.1 -0.1 -0.1 
0 0.009048778421256912 0 0 
0 0 0 0 
0 0 0 0 
0 0 0 0 
0 0 0 0 
0 0 0 0 
0 0 0 0 
0 0 0 0 
0 0 0 0 
0 0 0 0 
0 0 0 0 
0 0 0 0 
0 0 0 0 
0 0 0 0 
0 0 0 0 
0 0 0 0 
0 0 0 0 
0 0 0 0 
0 0 0 0 
0 0 0 0 
0 0 0 0 
0 0 0 0 
0 0 0 0 
0.1 -0.09082888181464763 -0.1 -0.1 
0 0 0 0 
0 0 0 0 
0 0 0 0 
0 0 0 0 
0.1 -0.1 0 0 
0.1 -0.1 0 0 
0 0 0 0 
0 0 0 0 
0 0 0 0 
0 0 0 0 
0 0 0 0 
0 0 0 0 
0 0 0 0 
0 0 0 0 
0 0 0 0 
0 0 0 0 
0 0 0 0 
0 0 0 0 
0 0 0 0 
0 0 0 0 
0 0 0 0 
0 0 0 0 
0 0 0 0 
0 0 0 0 
0 0 0 0 
0 0 0 0 
0 0 0 0 
0 0 0 0 
0 0 0 0 
0 0 0 0 
0 0 0 0 
0 0 0 0 
0 0 0 0 
0 0 0 0 
0 0 0 0 
0 0 0 0 
-0.09670261878772177 0.1 -0.02261071263103363 -0.01228374798482398 
0 0 0 0 
0 0 0 0 
0 0 0 0 
0 0 0 0 
0 0 0 0 
0 0 0 0 
0 0 0 0 
0 0 0 0 
0 0 0 0 
0 0 0 0 
0 0 0 0 
0 0 0 0 
0 0 0 0 
0.1 -0.1 0 0 
0.1 -0.1 0 0 
0 0 0 0 
0 0 0 0 
0 0 0 0 
0 0 0 0 
0 0 0 0 
0 0 0 0 
0 0 0 0 
0 0 0 0 
0 0 0 0 
0 0 0 0 
0 0 0 0 
0 0 0 0 
-0.003381882780634602 0.01285816582094382 0 0 
-0.003381882780634602 0.01285816582094382 0 0 
-0.003381882780634602 0.01285816582094382 0 0 
0 -0.0105002531383305 0 0 
0 0 0 0 
0 0 0 0 
0 0 0 0 
0 0 0 0 
0 0 0 0 
0 0 0 0 
0 0 0 0 
0 0 0 0 
0 0 0 0 
0 0 0 0 
0 0 0 0 
0 0 0 0 
0 0 0 0 
0 0 0 0 
0 0 0 0 
0 0 0 0 
0 0 0 0 
0 0 0 0 
0.02901263731741298 -0.03478448238308836 0 0 
0.02901263731741298 -0.03478448238308836 0 0 
0.02901263731741298 -0.03478448238308836 0 0 
0.02901263731741298 -0.03478448238308836 0 0 
0.02901263731741298 -0.03478448238308836 0 0 
0.02901263731741298 -0.03478448238308836 0 0 
0 0 0 0 
0 0 0 0 
0 0 0 0 
0 0 0 0 
0 0 0 0 
0 0 0 0 
0 0 0 0 
0 0 0 0 
0 0 0 0 
0 0 0 0 
0 -0.0105002531383305 0 0 
0 0 0 0 
0 0 0 0 
0 0 0 0 
0 0 0 0 
0 0 0 0 
0 0 0 0 
0 0 0 0 
0 0 0 0 
0 0 0 0 
0 0 0 0 
0 0 0 0 
0 0 0 0 
0 0 0 0 
0 0 0 0 
0 0 0 0 
0 0 0 0 
0 0 0 0 
0 0 0 0 
0 0 0 0 
0 0 0 0 
0 0 0 0 
0.09549996570896409 -0.07616156326263823 0 0 
0 0 0 0 
0 0 0 0 
0 0 0 0 
0 0 0 0 
0 0 0 0 
0 0 0 0 
0 0 0 0 
0 0 0 0 
0 0 0 0 
0 0 0 0 
0 0 0 0 
0 0 0 0 
0 0 0 0 
0 0 0 0 
0 0 0 0 
0 0 0 0 
0 0 0 0 
0 0 0 0 
0 0 0 0 
0 0 0 0 
0 0 0 0 
0 0 0 0 
0 0 0 0 
0 0 0 0 
0 0 0 0 
-0.05157047674761217 0.06439822541620917 0 0 
0 0 0 0 
0 0 0 0 
0 0 0 0 
0 0 0 0 
0 0 0 0 
0 0 0 0 
0 0 0 0 
0 0 0 0 
0 0 0 0 
0 0 0 0 
0 0 0 0 
0 0 0 0 
0 0 0 0 
0 0 0 0 
0 0 0 0 
0 0 0 0 
0 0 0 0 
0 0 0 0 
0 0 0 0 
0 0 0 0 
0 0 0 0 
0 0 0 0 
0 0 0 0 
0 0 0 0 
0 0 0 0 
0 0 0 0 
0 0 0 0 
0 0 0 0 
0 0 0 0 
0 0 0 0 
0 0 0 0 
0 0 0 0 
0 0 0 0 
0 0 0 0 
0 0 0 0 
0 0 0 0 
0 0 0 0 
0 0 0 0 
0 0 0 0 
0 0 0 0 
0 0 0 0 
0 0 0 0 
0 0 0 0 
0 0 0 0 
0 0 0 0 
0 0 0 0 
0 0 0 0 
0 0 0 0 
0 0 0 0 
0 0 0 0 
0 0 0 0 
0 0 0 0 
0 0 0 0 
0 0 0 0 
0 0 0 0 
0 0 0 0 
0 0 0 0 
0 0 0 0 
0 0 0 0 
0 0 0 0 
0 0 0 0 
0 0 0 0 
0 0 0 0 
0 0 0 0 
0 0 0 0 
0 0 0 0 
-0.02903868816693443 0.0545912495529411 -0.04412048673374453 0 
-0.02903868816693443 0.0545912495529411 -0.04412048673374453 0 
-0.08542132052291704 0.1 -0.1 -0.1 
0.1 -0.1 0 0 
0.1 -0.1 0 0 
0 0 0 0 
0 0.005304570299746841 0 0 
0 0 0 0 
0 0 0 0 
0 0 0 0 
0 0 0 0 
0 0 0 0 
0 0 0 0 
0 0 0 0 
0 0 0 0 
0 0 0 0 
0 0 0 0 
0 0 0 0 
0 0 0 0 
0 0 0 0 
0 0 0 0 
0 0 0 0 
-0.08874731079146062 0.1 0 0 
-0.08874731079146062 0.1 0 0 
0 0 0 0 
0 0 0 0 
-0.1 0.08000183995834356 0 0 
0 0 0 0 
0.05587834237350255 -0.07765218090411512 0 0 
0.05587834237350255 -0.07765218090411512 0 0 
-0.1 0.1 0 0 
0 0 0 0 
0 0 0 0 
0 0 0 0 
0 0 0 0 
0 0 0 0 
0 0 0 0 
0 0 0 0 
0 0 0 0 
0 0 0 0 
0 0 0 0 
0 0 0 0 
0 0 0 0 
0 0 0 0 
0 0 0 0 
0 0 0 0 
0 0 0 0 
0 0 0 0 
0 0 0 0 
0 0 0 0 
0 0 0 0 
0 0 0 0 
0 0 0 0 
0 0 0 0 
0 0 0 0 
0 0 0 0 
0 0 0 0 
0 0 0 0 
0 0 0 0 
0 0 0 0 
0 0 0 0 
0 0 0 0 
0 0 0 0 
0 0 0 0 
0 0 0 0 
0 0 0 0 
-0.1 0.1 -0.1 -0.1 
0 0 0 0 
0 0 0 0 
0 0 0 0 
0 0 0 0 
0 0 0 0 
0 0 0 0 
0 0 0 0 
0 0 0 0 
0 0 0 0 
0 0 0 0 
0 0 0 0 
0 0 0 0 
0 0 0 0 
0 0 0 0 
0 0 0 0 
0 0 0 0 
0 0 0 0 
-0.1 0.08417127078891723 0 0 
-0.1 0.08417127078891723 0 0 
0 0 0 0 
0 0 0 0 
0 0 0 0 
0 0 0 0 
0 0 0 0 
0 0 0 0 
0 0 0 0 
0 0 0 0 
0 0 0 0 
0 0 0 0 
0 0 0 0 
0 0 0 0 
0 0 0 0 
0.057975501123969 -0.02885984542738025 0 0 
0.057975501123969 -0.02885984542738025 0 0 
0.05797550112396899 -0.002118609936741683 0 0 
0 0 0 0 
0 0 0 0 
0 0 0 0 
0 0 0 0 
0 0 0 0 
0 0 0 0 
0 0 0 0 
0 0 0 0 
0 0 0 0 
0 0 0 0 
0.1 -0.1 0 -0.04055964646455738 
0 0 0 0 
0 0 0 0 
0 0 0 0 
0 0 0 0 
0 0 0 0 
0 0 0 0 
0 0 0 0 
0 0 0 0 
0 0.02674123549063857 0 0 
0 0.02674123549063857 0 0 
0 0.02674123549063857 0 0 
0 0 0 0 
0 0 0 0 
0 0 0 0 
0 0 0 0 
0 0 0 0 
0 0 0 0 
0 0 0 0 
0 0 0 0 
0 0 0 0 
0 0 0 0 
0 0 0 0 
0 0 0 0 
0 0 0 0 
0 0 0 0 
0 0 0 0 
0 0 0 0 
0 0 0 0 
0 0.1 0 0 
0 0 0 0 
0 0 0 0 
0 0 0 0 
0 0 0 0 
0 0 0 0 
0 0 0 0 
0 0 0 0 
0 0 0 0 
0 0 0 0 
0 0 0 0 
0 0 0 0 
0 0 0 0 
0 0 0 0 
0 0 0 0 
0 0 0 0 
0 0 0 0 
0 0 0 0 
0 0 0 0 
0 0 0 0 
0 0 0 0 
0 0 0 0 
0.1 -0.1 -0.05967540317759323 -0.08127886338972104 
0.1 -0.1 -0.05967540317759323 -0.08127886338972104 
0.1 -0.1 -0.05967540317759323 -0.08127886338972104 
0.1 -0.1 -0.05967540317759323 -0.08127886338972104 
0 0 0 0 
0 0 0 0 
0 0 0 0 
-0.01001068751792663 0.02901397808129646 0 0 
-0.01001068751792663 0.02901397808129646 0 0 
0 0 0 0 
0 0 0 0 
0 0 0 0 
0 0 0 0 
0 0 0 0 
0 0 0 0 
0 0 0 0 
0 0 0 0 
0 0 0 0 
0 0 0 0 
0 0 0 0 
0 0 0 0 
-0.1 -0.07721716962085226 0 0.1 
0 0 0 0 
0 0 0 0 
0 0 0 0 
0 0 0 0 
0 0 0 0 
0 0 0 0 
0 0 0 0 
0 0 0 0 
0 0 0 0 
0 0 0 0 
0 0 0 0 
0 0 0 0 
0 0 0 0 
0 0 0 0 
0 0 0 0 
0 0 0 0 
0 0 0 0 
-0.1 0.1 0 0 
