solver_type L2R_LR
nr_class 4
label 0 1 3 2
nr_feature 3587
bias -1
w
0.1708152300285379 0.2869958311791613 -0.5404001842996696 -0.248752738807742 
-0.2634546102152093 -0.06648092919846618 -0.09319449992173122 -0.8551073557189107 
-0.3594588315953131 0.4309652454236388 -0.3190057843570698 -0.4610155343992806 
0.01653288710326986 0.1592714304466044 -0.1213364225654518 -0.03449799296046637 
0.1447115460143872 -0.4560016016014624 -0.2258368204891132 0.03358372506704443 
0.0891533602474411 0.349566341117182 -0.5136073441225034 -0.08269193835191775 
0 0 0 0 
-0.333186937287893 0.3495417096531727 -0.6763991014011363 -0.1127439374991055 
0.03704690787803706 -0.008115074992545624 -0.04572664454096903 -0.02047352306945436 
0.03545812609055639 -0.02112034728853854 -0.0063577164612747 -0.0001618064601972386 
-0.2931741384815713 0.3649085978100616 -0.02896560304999109 0.2835544389362736 
0 0 0 0 
0 0 0 0 
0.1986214763692797 -0.424876518852657 -0.3337546469667863 -0.2853553582962849 
0.4096899127870069 -0.8654656748800635 0.526338876824918 -0.3107001899888123 
0.3293514748948093 -0.3107924619991942 -0.1928584465925414 -0.06613922954038542 
0.03695580929646796 -0.07773117631809467 0.4903865002080058 -0.03347151428450228 
0.01535190299343057 -0.1218846119276983 -0.0133087216759097 -0.2614651601659141 
-0.02284924698611439 -0.4233548740036219 -0.09563450768386446 0.3248468633239221 
-0.1101931119547201 -0.02765865660806052 -0.2180273485376632 -0.01840782314454042 
0.06305881713500766 0.09882552638027871 -0.9945727075021109 -0.4239103817510104 
0.5233021002680961 -0.2214481343376206 -0.6647470293957464 -0.7039886320365737 
0.1202698031464045 -0.1849892557043898 0.3465680193587064 -0.2329201666866435 
0 0 0 0 
0.1024456382820965 -0.24709850834609 -0.4132659908294333 -0.4202104632519916 
0 0 0 0 
0 0 0 0 
0.2499746235434328 -0.7584274846616057 -0.1960801850767772 0.06850814539935271 
0 0 0 0 
0 0 0 0 
0 0 0 0 
-0.02783313102069775 0.03081056806303633 -0.4949875422329383 -0.1849098189427074 
0.8232261671272868 -0.7661495904512752 -0.5854617914406776 -0.958090665411248 
0 0 0 0 
0.07430244061158105 -0.4392412990439509 0.533154666955958 -0.165507105398356 
-0.02628658675756007 -0.05621847772019412 0.42320353786513 -0.317764865269349 
0 0 0 0 
0 0 0 0 
0 0 0 0 
-0.1778649294391945 0.03720989915221298 -0.2307330071753272 -0.02869102651687718 
0.213314223896401 -0.1220015370955874 -0.8258837385902895 -0.1635373685170711 
0.1009701767458909 -0.2833243669973717 -0.3489332634103202 0.5895533869192053 
0.172855373749787 0.1469340636601873 -0.4776020353232791 -0.4194139828507688 
-0.5497704641209507 -0.2321076588198372 0.3311908822103005 -0.1217911098891987 
0.3161250365171187 -0.1835968418167907 -0.3669410517075991 -0.3307273712718019 
0.7033546240672979 -0.3387049174521439 -0.6326612682196072 -0.9969373107825913 
0.5292044441337459 -0.3013193490100808 -0.3633903997195503 -0.2397356393852933 
-0.4806483043477508 0.2104809172503602 -0.2490184174679158 0.04244369652857859 
0.3086962771502574 -0.07595162886252757 -0.2070319120229986 -0.141915637414656 
0 0 0 0 
0.03340868406524122 -0.0257703736260955 -0.03249567114145675 -0.005127411658601834 
0.1067181941039847 -0.07304718087387931 -0.02205891928597036 -0.01789806389482167 
-0.07847980988879846 -0.08608087720278285 0.1728958986786693 -0.2040624072583108 
-0.3942561677434823 0.1569962626431935 -0.1435008875597056 0.8035226865952287 
0 0 0 0 
0 0 0 0 
-0.5740203611822832 -0.7863211292366776 0.8479161357429638 0.4067287936208291 
0.09623733887391117 -0.6197297827273748 0.2490175653624049 -0.1324951631901089 
-0.1977988117857871 -0.1341494588786689 0.1073537055050471 0.1714714385549123 
-0.6579909392294963 0.3365691628924343 0.08599462478333253 -0.4760694846850133 
0.0357664912007175 -0.1279669623537445 -0.02368622087892202 -0.5245550238303537 
0.2665899256067752 -0.5071175335139687 -0.3691900445740371 -0.3853918738649343 
-0.4408032680130162 0.332842881337691 0.1318372991507168 -0.389026085307432 
-0.5033486029169618 0.009491301965078622 0.5072511609326058 0.1902909879668122 
-0.5470355434236843 0.5105413744813698 -0.08058857830179303 0.2839800129224113 
-0.004526575457218619 -0.4366929585854062 0.2304017434030272 0.4631242801338126 
-0.1966324853173837 0.07007016416192177 0.2482779799363657 -0.3512796024933491 
0 0 0 0 
0.03356155003581741 -0.03553739485957102 -0.01879076177581461 -0.006355366887519594 
-0.5941635897240055 -0.5859673310504675 1.082502349048374 -0.3941297912272293 
0 0 0 0 
0.8028489740589277 -0.6700018100907013 -0.6011461980610606 -0.7122903893571456 
-0.1195550045402703 0.04837144822299299 0.2166395461334251 -0.01541419388546886 
0.1340319180269859 -0.07905327058425567 -0.01017503901218965 -0.001004533115768629 
0 0 0 0 
0 0 0 0 
0 0 0 0 
0 0 0 0 
0 0 0 0 
0.1430087534148941 -0.09633157790374457 -0.04608721219304399 -0.01029672777675848 
-0.4741059741013636 0.849996504584612 -0.1696804524181237 -0.01775330712598625 
0.1047959574244699 0.1315414040027185 0.2135100523544105 -0.04564259563579294 
0.06656135584520145 -0.621250764404031 0.6178688504169748 -0.1817477393943727 
-0.2100778515780544 -0.1749873495681781 0.8168924742009414 -0.05831368280572018 
0 0 0 0 
0.2517861533355799 -0.1258410173191314 -0.2519715847179759 -0.06696061564781265 
0.2079212354907498 -0.2125687060610613 -0.4012934321780672 -0.4601469802081177 
-0.2203523837040832 0.223918044132667 -0.04613976171128058 -0.05221882718857195 
0 0 0 0 
0.07307035142633234 -0.07569288098979397 -0.02294145616015271 -0.01320074545622174 
0 0 0 0 
-0.1734192750896576 0.2873316693083222 -0.1344939097864353 -0.06892915892724853 
0.06322454188789645 -0.3138092610875353 0.06260092660906481 0.3264283832312645 
0.02923261895813782 -0.007202859275425615 -0.04613856192829791 -0.005067366651817147 
0 0 0 0 
0 0 0 0 
0 0 0 0 
0 0 0 0 
0.346137534896696 -0.04135356006173275 -0.3895319258291741 -0.08526255261791041 
0.8475077547769673 -0.3833507492117039 -0.7370425763342682 -0.6290305652664886 
0 0 0 0 
-0.414542443929459 -0.1475204861314318 0.3402064146950977 0.4533906563789397 
0 0 0 0 
-0.1534134566723506 0.3401049111920221 -0.3317371977422178 -0.1069567463371954 
-0.4358332199266003 0.6275475733308555 -0.6406239241313323 -0.2629479288658805 
0 0 0 0 
0 0 0 0 
0 0 0 0 
0 0 0 0 
-0.1186402407573094 0.162854572978146 0.2736520768505737 -0.00514927227983892 
0.2819319810143632 -0.1617741483368488 -0.3417381881121123 -0.1098858589137645 
0 0 0 0 
0 0 0 0 
0.1851425112358597 -0.005436350403319874 -0.3369069230888574 -0.2558333077535337 
0.01289984071147313 -0.001087399716039861 -0.02116816242665966 -0.001660797102493412 
0 0 0 0 
-0.1806433765695951 0.369829754086031 -0.1584352669143684 -0.08159761304163547 
0.369747747282836 0.06407988272836504 -0.6726110683990308 -0.2843001604358477 
0.01148032674099403 -0.001086614268476159 -0.01942047267685153 -0.0009229116364913735 
0.1902593270875946 -0.03520333333451125 -0.2789429724028251 -0.1860917851946818 
-0.1583172573371936 0.254373822476414 -0.1361179784781959 -0.07008777240489794 
0.251442272433828 -0.3345413579544891 -0.16469479091814 -0.1994694540060919 
0.934988378166748 -0.7291384118737022 -0.4877521676511704 -0.4404477390213439 
-0.3063685142972985 0.3693591843858539 -0.4038520273641235 0.08415165222991983 
0.1938766880637898 0.04357579440073769 -0.3371734489408929 -0.3505175628108658 
-0.002680349300037348 -0.3318617547526457 0.2070191496242323 -0.07266999376709381 
0.04372385655121633 -0.01283408818057792 -0.0778999561417961 -0.01367626847451309 
0.2972285825699607 -0.9423378031498348 0.08754078131449065 0.1291531367792994 
-0.1590714574720612 -0.1663814178667758 0.2512844685349193 0.2252873507283573 
0.4556220864612281 -0.4809190460836288 -0.3891924558581003 -0.7343106054624792 
-0.003402223323456998 -0.08190269606530397 -0.05868379559670608 0.1421109938154521 
-0.05273862763391501 -0.212942996415638 -0.2606006278779346 0.4230084139356178 
0 0 0 0 
-0.04554479933707092 -0.3285957425940637 0.209923825850641 0.2429380222677849 
0 0 0 0 
0.1503545401077875 -0.1018380434216895 -0.08803133935058827 -0.06093557993404276 
-0.1064840934226412 0.3500606805952816 -0.2959393990738403 0.151202216051329 
-0.0165152248606037 -0.2417603439950879 0.2967837084108555 -0.06217650708356273 
-0.006755088128585437 0.1770990661669294 -0.0637134367802636 -0.001892617003550868 
-0.24769204915683 0.192086925703103 0.07727970856561965 -0.687505218382191 
-0.21372735180421 0.4092075257518938 0.1710189023235939 -0.2005599127335746 
0 0 0 0 
0.4122628883228366 -0.2708776083938106 -0.2768921941265338 -0.1811077360772698 
0 0 0 0 
0 0 0 0 
0.448925997261715 -0.3128734856499205 -0.2788095932734376 -0.2240663064619245 
0.1572430711690925 -0.1682533190203381 0.1568733663609477 -0.02911690309407361 
0 0 0 0 
0 0 0 0 
0 0 0 0 
0 0 0 0 
0 0 0 0 
0 0 0 0 
0.2429715464350193 -0.1734227181059267 -0.4611400000707194 -1.038863398963383 
-0.1544964657267202 0.3044754732213988 -0.2453813765132021 -0.04035575100193859 
0.09626848050192981 -0.1246668930055464 0.07932180013537164 -0.1187046538761864 
-0.04360526678477718 0.1048513835816763 -0.01460849450385045 -0.001837948082540161 
0 0 0 0 
-0.3177600791827687 0.1736344354503098 -0.1120200857070025 -0.2759634109903552 
-0.1199246822243907 0.1300047563634556 -0.03366702153725144 -0.01757719708636877 
-0.1199246822243907 0.1300047563634556 -0.03366702153725144 -0.01757719708636877 
0.002746632083091213 -0.02792028727127805 -0.5724461194585884 0.06943075264200525 
-0.1975532306368972 0.2139069449656617 -0.1554661469953283 -0.09792712700894618 
0.07407874244033014 0.1052121803726144 -0.1366792384248075 -0.05510245977078387 
-0.2639819476455013 0.2219552383595751 -0.09170032529325853 -0.05210780715483852 
0.1822254467623777 -0.2184504696758631 -0.1530855751162723 -0.1735620777364601 
-0.1199246822243907 0.1300047563634556 -0.03366702153725144 -0.01757719708636877 
-0.8258817197803586 0.5684294976716102 -0.01131584235369169 -0.3030328173992953 
-0.05752558918556552 0.2598862314737539 -0.5243302851844506 -0.04596499721399169 
0 0 0 0 
-0.4918697092137699 0.1779427220563465 0.2648850811988021 0.08445467054717863 
0 0 0 0 
0 0 0 0 
0 0 0 0 
0 0 0 0 
0 0 0 0 
-0.09302828600213731 -0.1528243554786985 -0.02531088615170381 0.3043064225300992 
-0.06594884273584926 0.2385147278347156 -0.03019949624762449 -0.02217701367475362 
-0.4056605265863136 -0.35948661189306 0.3918153202327578 0.346474748788146 
0.1781594833544589 0.008283384664552982 -0.1229361515519791 -0.05017597098731955 
0 0 0 0 
-0.2029794931559259 -0.1183930432113869 0.2129390421841488 -0.07019235771961133 
-0.1169182663842189 0.1492402737931906 -0.3962151771319229 0.1635125375461396 
0.147439406308444 -0.1600721956308148 -0.1799676827608324 -0.1070075779468381 
0 0 0 0 
-0.3236416969539582 0.3989132880420643 0.0382867225054568 -0.790200798722649 
0.2779716383923848 -0.07787360272722738 -0.3498279052443375 -0.4012946588171883 
0 0 0 0 
0.2842454073739608 -0.3977102985620233 -0.04452030274339889 -0.2431524665207866 
0.06519826685409899 -0.008549891125138931 -0.3180185588492027 0.04894208021923447 
0.005535090434231907 0.1436099402083364 -0.4357957820145366 -0.2318171688773594 
0.1975637059318724 -0.05597009916386941 -0.1514715835803772 -0.09954948090734606 
0.1975637059318724 -0.05597009916386941 -0.1514715835803772 -0.09954948090734606 
0.1975637059318724 -0.05597009916386941 -0.1514715835803772 -0.09954948090734606 
0 0 0 0 
0 0 0 0 
0.1391390361303424 0.2634324198543043 -0.07198663226185767 -0.3338474977845534 
-0.2066215979803046 0.2497302865190764 -0.102088418000988 -0.03606327277680874 
-0.02714740688031677 0.0332684800855603 -0.05890267932722959 -0.01516750301811132 
-0.3258869159630134 0.7912683464581846 -0.2622803340630062 -0.0820343870545336 
-0.02714740688031677 0.0332684800855603 -0.05890267932722959 -0.01516750301811132 
-0.02714740688031677 0.0332684800855603 -0.05890267932722959 -0.01516750301811132 
0.4895648823091447 -0.0553769211122571 -0.2513273161648283 -0.09411962792293889 
0 0 0 0 
0 0 0 0 
0 0 0 0 
0.02644297114215231 -0.01245136826268059 -0.01316860989408363 -0.01090632668585636 
-0.4664222103469091 0.3453742576321066 -0.1055472263420926 -0.4623113394887355 
0 0 0 0 
-0.2858365737269402 0.03760605830206927 -0.08204726128882944 0.003996302756288316 
-0.01029750659603294 0.220710924409562 -0.2502890475398948 -0.1756667131553032 
-0.2727212565011473 0.1314859934340746 -0.2732412813333396 -0.4578956157869608 
0 0 0 0 
0.707131171534833 -0.3653918597539722 -0.4887743666100143 -0.2292282238358257 
0 0 0 0 
-0.06518043901036252 -0.1819849688841169 -0.2272180784732678 0.2592825573002162 
0 0 0 0 
0 0 0 0 
0.2509294490963154 -0.5849566580443717 -0.1957974080627038 0.5445905911182425 
0.3491369397768824 -0.3286226560022877 -0.2173384442458651 -0.197609397110389 
-0.0988721782658518 0.5032563904610452 -0.1572064326993087 -0.2801021688073237 
-0.2370330292289325 0.3125789647476184 -0.2964653799714529 0.6791858500519259 
0.08375113201230092 -0.6257137038969978 0.29627007745319 -0.174033494365113 
-0.04971979294225311 -0.2615023432911456 0.3967223274113301 -0.04763787301145335 
0.2160322771087341 -0.1424025470774894 -0.09965393370426459 -0.07078677035317885 
0.2227617670678795 -0.09703892536048973 -0.06912238382159622 -0.01509638608639248 
0.3984415352103401 -0.2990837207841893 -0.4029808108480709 -0.1903750188809201 
1.106720897390741 -0.5732379313297009 -0.764503090835461 -0.8987939053047151 
0.5624374057167916 -0.4296067664420013 -0.209341508993774 -0.268556390727002 
0 0 0 0 
-0.3608627824347974 0.4787813029493436 -0.3305717651319193 -0.04335736460473363 
0 0 0 0 
0 0 0 0 
0 0 0 0 
0 0 0 0 
-0.3176188902730075 0.1970758637572606 -0.3784743879491757 0.04178906750981543 
-0.0142876442907599 -0.5260696516922644 0.4523091440783625 -0.1075825190003369 
-0.008113032174412983 -0.2656781868190233 -0.08392800246533359 0.4396873890027926 
0.8038012550169 -0.584833673456039 -0.4597002855730744 -0.4580101857503831 
0.02062639090072841 -0.001450367030048487 -0.02480478572595366 -0.01375698562845751 
-0.2931308782415574 0.3667889035392177 -0.05369483064618882 -0.02053018928714525 
-0.3878950520655973 0.3769327102448561 0.0804764927239783 -0.2859230030940837 
0.1734702097571885 -0.06888074612888768 -0.06993490444954144 -0.02808164794219979 
-0.02523058828893399 0.494359994311958 -0.7374854645604669 0.1512926854480049 
0.2746571173197929 -0.5125116796946854 -0.1177778047357852 -0.17099344251169 
0.8434073616368358 -0.3225244784058174 -0.367290492974449 -0.3944868338506493 
0 0 0 0 
0 0 0 0 
0 0 0 0 
0.1919969933045393 -0.1409635772714365 -0.1307808463768207 -0.03845126538979017 
0 0 0 0 
-0.01968556614175637 -0.1696588031267729 0.2447050145247762 -0.02738441140910638 
-0.05821056506662348 0.3150715687339352 -0.03000409898464653 -0.1499898724411182 
0 0 0 0 
-0.1195186171312818 -0.2510196180224283 0.2277187409723866 -0.06632967367725788 
0 0 0 0 
0 0 0 0 
-0.0700018457279369 -0.1599821726358526 0.2017224894863725 -0.05840174037107659 
-0.1734150445472196 -0.1789921705820557 0.3095201812908178 -0.1284742069205882 
-0.2431037600085766 -0.1375811841875391 -0.01192146209913575 0.5461990291016197 
0 0 0 0 
0 0 0 0 
0.7466539783989538 -1.112068273314833 -0.2474007632673319 -0.8116035556488714 
0.1331253497679455 -0.6329990891805892 -0.2932751298994655 -0.4665811787612161 
0.5661541234622383 -0.4274504460898241 -0.1992496499126079 -0.1513681389413129 
0 0 0 0 
0.1460638367542258 -0.07936296600495635 -0.05656447177142859 -0.06064036544657081 
0.1623848235087451 -0.09414803956001072 -0.09918867930749647 -0.09419185147627322 
0.2912235487689131 -0.1175604961258208 -0.3768203032859709 -0.08608159804517128 
-0.2606985830827314 0.1809796452956444 -0.01301338797710218 -0.004372461100267533 
-0.09120623162893893 -0.008976731868774807 0.1694236022774926 -0.001247649461836837 
-0.1609740678711616 0.1082704706470479 -0.391065858292367 0.4325391163700352 
-0.2000371660519192 0.08642317768873202 -0.1409750923798431 0.1494350810137265 
0 0 0 0 
0 0 0 0 
0.2286672861678314 -0.2931719189622587 -0.04860722237983785 -0.1759417298336214 
0 0 0 0 
-0.1785406739640734 -0.08811894120059234 -0.06845019599798152 0.3052642382400996 
0.07733521784828169 -0.02342654161575003 -0.02848222661290156 -0.03945472482811294 
0 0 0 0 
0.03970931931549974 0.01582439650282171 -0.2639933945532625 -0.1688328795436284 
0 0 0 0 
0.01615022015071508 -0.006839240155933316 -0.009324069118864619 -0.003701657533405927 
-0.0281254072445601 0.1411896445061221 -0.1238473832822486 -0.01705779495353276 
0.09718313729839077 -0.008346358330162573 -0.1127152502744971 -0.2121179429672375 
0.3950714522312662 -0.242042608390663 -0.22249818137364 -0.2094468745322597 
0 0 0 0 
0 0 0 0 
0.1459667301272488 -0.3576798238962997 -0.0009900875444961476 0.2214193692676428 
0.1049016779900256 -0.07264081280184097 -0.02691874704206437 -0.0006179675179372002 
0.2036969856930941 0.02411690524919175 -0.1607958213260965 -0.1224029697682185 
-0.4821974916931665 0.2642294744315291 -0.01269900787738231 0.108298821978338 
0 0 0 0 
0.08744126787399628 -0.05800367948552035 -0.02605916434869331 -0.002525963570191581 
0.1118356167206991 0.648707079625082 -0.478071140390217 -0.3147370717262375 
0.1414112907954767 -0.5334013238769473 0.08237490974882079 0.3905581346059048 
-0.5027719273866693 0.6351072186668331 -0.6402478634862212 -0.1694169171089349 
0 0 0 0 
-0.09365406830323385 0.1298786367329418 -0.03449888915701495 -0.008206980848782594 
0.3502473541906016 -0.2694573925777657 -0.1848705169261735 -0.09502935266111866 
-0.03420053834279243 0.05820126678417179 -0.04024033376941655 -0.05138806540943269 
0 0 0 0 
-0.09268067493616963 -0.00952531549307307 0.1669665078618226 -0.0164231966480578 
0 0 0 0 
0.7797090872729625 -0.3306516599520596 -0.5871483573468677 -0.3685583923963116 
0 0 0 0 
0 0 0 0 
0 0 0 0 
0 0 0 0 
0.03704690787803706 -0.008115074992545624 -0.04572664454096903 -0.02047352306945436 
0.4132471991548886 -0.2740280220447656 -0.4062290333183581 -0.1721807815201628 
-0.01488939342077188 -0.3164161925382969 -0.2433201757392794 0.2965237347298446 
0 0 0 0 
0 0 0 0 
0 0 0 0 
0 0 0 0 
0.5503354423233213 -0.3042179222787312 -0.3112663464567669 -0.1685716960916143 
0.3693149897591994 -0.2952239939536004 -0.100250718648747 -0.1814094538405975 
0 0 0 0 
0.3024421541439571 -0.1139293704962883 -0.04104237180298834 -0.0285128728972866 
1.016708915004183 -0.6884747595118641 -0.7117522010004184 -0.4455739868494697 
0.1707922398561847 -0.1995714166432735 -0.08528010099327668 -0.01683815585699991 
0.1414454289015849 -0.1797644490121819 -0.06939429185399032 -0.01055202457653575 
0.132792740746801 -0.09109695626339881 -0.09662835501870926 -0.04435140484301969 
0.05034703095170298 -0.005484608964852998 -0.0286379131077969 -0.01561544317773971 
0 0 0 0 
0 0 0 0 
0 0 0 0 
0 0 0 0 
0 0 0 0 
0 0 0 0 
0.1154363819131023 -0.112106682696388 -0.2505480095880199 0.5370270900866911 
0.6916030195714697 -0.6258404718971423 -0.1540521720587162 -0.146132550403584 
0.1147070211897576 -0.1288304376164728 0.1491361954613273 -0.06485769325225069 
0.0104204223258498 -0.210736296456226 0.2424215010273409 -0.03806064386290155 
0 0 0 0 
0 0 0 0 
-0.5807769465339118 0.2498881944305345 0.7482319223182027 -0.03165993915308592 
-0.08086901339286515 0.1489561760789249 -0.05605411241082038 -0.01309214353003514 
0 0 0 0 
-0.07093434610802923 -0.1322681284834704 0.2541235291348979 -0.01813246709285492 
0 0 0 0 
-0.2730072804225087 0.3059896482667693 -0.04588764424547837 -0.02145810073317162 
0.07912664992439905 -0.31415527526385 -0.006481792724800574 -0.1192136723751649 
-0.3435317875509502 0.4094979690796412 -0.06953232046966788 -0.09944325196428405 
0.3368924971583808 -0.263721499122948 0.3256082506149806 -0.02953632674271395 
0.2096408788241388 -0.2192484589548007 -0.05573526121165227 -0.1307938334816935 
-0.2239848223465876 -0.172545370702126 0.3211487758149072 -0.2879234465879719 
0 0 0 0 
0 0 0 0 
0 0 0 0 
-0.1171057618896128 0.2631775810229559 -0.2193142588165867 -0.0330028162282427 
-0.09353308932252084 0.0895278418332532 -0.002701905571719932 -0.0005623309744742144 
0.08247449440770582 -0.04819177612455156 -0.02773672970003214 -0.02386736786259603 
0 0 0 0 
0.316202914718014 -0.1711472589904187 -0.175257127506247 -0.1279236335004707 
0 0 0 0 
0 0 0 0 
-1.153456450646753 0.05361797158501575 0.5731955112649467 0.09037709147458514 
0 0 0 0 
0.05067350434146212 -0.05143405917190851 -0.006642240662497812 -0.00497059887441363 
0 0 0 0 
0.005183688309241373 -0.2796042982416369 0.3198131510187665 -0.1561922109477056 
0.05228682705605725 -0.327350219543893 -0.09611093780347782 0.3951779128176821 
-0.0009128637325119624 -0.5726863719185906 0.2819744696043953 0.1610183191192725 
0.3601693239666546 -1.108522564530339 0.2412467407234643 -0.250353512845461 
0.05804754585490136 -0.2193105714450222 0.2744255102165275 -0.009796655490496809 
0.002382714682029703 -0.0001669131392127072 -0.02111974717233284 -0.000331487611162325 
0.1652670876473505 -0.1573699489311132 -0.07159190311597409 -0.07265945515700412 
-0.1617337460982524 0.2717901102345902 -0.5718507740643682 -0.1519469667913907 
-0.0803372679855735 0.1932726363107411 -0.02714409236138794 -0.03989027477837753 
0.08264195286747486 -0.2825756863416654 -0.1050957962636642 0.4762366823906989 
-0.9916124660493306 0.6774686648514168 0.251898191280514 -0.084210615510059 
0.1690857486286611 -0.07677675049242612 -0.04612123293082776 -0.04124651299904961 
-0.1672262697987231 0.2379532496383768 -0.180292872751333 -0.07085722057417955 
0.1935877706588408 -0.1053742142567702 -0.1028210214398914 -0.1250130179375329 
0.11134311740732 -0.07259949962880863 -0.05006809866460341 -0.02511905237146927 
-0.07158587247233118 0.1954400194783918 -0.02737178589867386 -0.03980982584668406 
0 0 0 0 
0 0 0 0 
0 0 0 0 
-0.28602492252607 0.1161162481161008 -0.1287597218555566 0.2281056510598453 
-0.1679799533025815 0.3247700448723911 0.09871159372520122 -0.1054003163125698 
-0.1074131356111231 0.205721330470952 -0.2150048630590239 -0.1422296484958041 
0.1168958409828804 -0.1316447190959298 0.2425274478933175 -0.118026022559148 
-0.3570813479281467 -0.1762378824011847 -0.136900391995963 0.6105284764801993 
0.0001817115015915853 -0.004073386969428647 -0.004201463387014892 -0.002161063412648887 
-0.03557502589085568 -0.1099019000539141 0.2569398215519256 -0.01010368641741619 
-0.002306315085626988 -0.002875805353037757 -0.00846656400854234 -0.002870525695463546 
0.9115245999041367 -0.6509209265298915 -0.2641315012632716 -0.271331894181261 
0 0 0 0 
-0.30608924901815 0.2581542408132743 0.3841249588217635 -0.2918666818806597 
0 0 0 0 
0 0 0 0 
0.3260060996429572 -0.2940056356122742 -0.2304049033186747 0.03044614275765009 
-0.176699494883865 -0.01320757171594677 0.4408378192952909 -0.1503951029609932 
0.1538363119977784 0.01952003356866816 -0.1711092239618648 -0.09226255151862064 
0 0 0 0 
0 0 0 0 
0 0 0 0 
-0.1922240763182967 0.2444057613017788 0.1827290460731491 -0.08074981000581603 
0.09332996608055685 -0.0662886451625337 -0.02906079118839792 -0.0257828824863094 
0 0 0 0 
-0.3595805070555119 0.6004580609083285 -0.1308697254294446 -0.04228376413422328 
0.4111837140620451 -0.07010482797162279 -0.4985063532290719 -0.2830323811334454 
0 0 0 0 
-0.02412583691019535 0.07215675140362621 -0.04550607832648779 -0.002339584339369531 
-0.05538743961204472 -0.1959544188682337 0.1340396539639791 -0.1746132660610731 
0 0 0 0 
-0.09887007886316296 -0.233020908830429 0.4459255075918216 -0.01102294743329888 
-0.09887007886316296 -0.233020908830429 0.4459255075918216 -0.01102294743329888 
-0.07824591613362955 0.1545195394995807 -0.05433914922016793 -0.05029896709855134 
0 0 0 0 
0 0 0 0 
0 0 0 0 
0.3926660710614155 -0.3655129237180688 -0.06531792115932117 -0.1067294647248161 
0.1967951920731509 -0.03356787779779401 -0.007054560295233207 -0.001828434009555245 
0 0 0 0 
-0.08033365049752061 0.1195167499832187 -0.4047397695432194 -0.1352699647599769 
0.01160524976967696 -0.004382452892898568 -0.01053877036324834 -0.0003090916857005221 
0 0 0 0 
0 0 0 0 
0.2045872497956347 -0.3911772229453098 -0.2146780896619499 0.2860988137837182 
0 0 0 0 
-0.1795503923481585 0.2002896223026917 -0.09792222266933943 -0.03557860220777525 
-0.1848587151066982 -0.5495820697103473 0.5295327789559512 -0.07784522763736729 
0.295222065825329 -0.3001186968119529 -0.150694463668358 -0.06217864997544935 
0.5085549730066384 -0.3571361274406661 -0.339491429758822 -0.1286103601867707 
0.250570440275336 -0.2260231900410779 -0.1415462768601957 -0.05303539441782758 
0.4156288166816426 -0.3832031940840224 -0.2657656783152826 -0.2104296206178423 
-0.07177580355328519 0.1798957744372836 -0.04267260292404845 -0.01777361801165998 
-0.01968556614175637 -0.1696588031267729 0.2447050145247762 -0.02738441140910638 
0 0 0 0 
-0.5952945050406445 -0.03136278080126042 0.6404174792455261 -0.009253196406998334 
0 0 0 0 
0 0 0 0 
-0.08788346263139914 0.3330283640686644 -0.1758233270031726 -0.1743183007974025 
0 0 0 0 
0.241545698973127 0.1018527254014777 -0.3848339818834331 -0.07147141603095745 
0 0 0 0 
0 0 0 0 
-0.02515483080162405 -0.1672357005474425 0.2433043795526453 -0.02729689582778351 
0 0 0 0 
0 0 0 0 
0.05666256626357619 -0.3563677664983097 -0.0447924545569353 0.1121613068719342 
-0.0803372679855735 0.1932726363107411 -0.02714409236138794 -0.03989027477837753 
0 0 0 0 
0 0 0 0 
0 0 0 0 
0.04766401982970218 -0.4477487636654779 0.4588933976445935 -0.182688821870747 
0.1063491941801432 -0.01243735978551121 -0.02631165950728794 -0.02916870335117263 
0.08737857771948676 -0.3361568232705271 -0.3135230593257796 0.4107925964110373 
-0.07093434610802923 -0.1322681284834704 0.2541235291348979 -0.01813246709285492 
0 0 0 0 
0.06803261377628171 -0.9913394845644679 0.2500489064056656 -0.5752494588746268 
0 0 0 0 
0 0 0 0 
0 0 0 0 
0.5719507971356541 -0.3609773150324952 -0.3727114702664672 -0.3107338748078331 
-0.1865368278455539 0.2383632773368731 -0.1049963937446032 -0.04866719760338749 
0.5048188355164737 -0.2798132893585095 -0.2132604913849752 -0.1460904066870553 
0.166439909682285 -0.1489345977420164 -0.121685432122552 -0.07760438256646225 
0 0 0 0 
-0.2419015425063578 0.3430840986198016 -0.1525125888057751 -0.1620925269753798 
0 0 0 0 
-0.0803372679855735 0.1932726363107411 -0.02714409236138794 -0.03989027477837753 
-0.02625401717439913 0.06781818618485454 -0.03856312421798785 -0.03129643298967803 
0 0 0 0 
0 0 0 0 
0 0 0 0 
-0.05767600784731697 0.1975666788690343 -0.07918107885533959 -0.09803715071722696 
0.1275022790067029 -0.1239892723836087 -0.04901543268410415 -0.06281348456078847 
0.08163240013244155 -0.006737518851223644 -0.003973476755976853 -0.0001480194602774384 
0.5130322396514495 -0.5676010624035609 -0.2766515809881767 -0.2660773703356692 
0 0 0 0 
0.1333557236948094 -0.2837222683056527 0.05021854192555483 -0.08587916869155458 
-0.02945892918975893 -0.1220696794320787 0.1555186870857145 -0.04265073317247794 
0 0 0 0 
0 0 0 0 
0 0 0 0 
0 0 0 0 
0 0 0 0 
0 0 0 0 
-0.0315369058802608 -0.184946143210629 0.09946830222757445 -0.01632533108179104 
0.03363046485626302 -0.006682781318707337 -0.005552896446444692 -0.008976261593158705 
0.04322071657229255 0.3896175655878786 -0.1231287527604345 -0.04386345585371886 
0.3757473156548958 -0.193275814408436 -0.08650455916007076 -0.03965392296260298 
-0.07798478982487989 0.23941158467542 -0.02382620859821374 -0.006555166964099 
0.2060802487051852 0.0008844822122217862 -0.1260682233811919 -0.009297147152944473 
0.1967951920731509 -0.03356787779779401 -0.007054560295233207 -0.001828434009555245 
0.1967951920731509 -0.03356787779779401 -0.007054560295233207 -0.001828434009555245 
-0.1976710632461085 -0.03461985439708116 0.03215151350731624 0.3545451227758856 
-0.1282974992881168 0.1089941776493057 0.1258426283718435 -0.03109246371879673 
-0.2284632013787247 0.2998890848604673 -0.01089953353563169 -0.001356312870560043 
-0.2284632013787247 0.2998890848604673 -0.01089953353563169 -0.001356312870560043 
0 0 0 0 
-0.3652262188804243 0.5197900427498283 -0.1119294316446394 0.3208466496033041 
0.04059890240914982 -0.01313996238047752 -0.06043350730126282 -0.01567162659302606 
0.04059890240914982 -0.01313996238047752 -0.06043350730126282 -0.01567162659302606 
0.1733916431559508 -0.1042369186438763 -0.1570618623199721 -0.06002303143604576 
0.182374346268139 -0.1375254719659419 -0.05621601120161036 -0.03478454587232361 
0 0 0 0 
0 0 0 0 
0 0 0 0 
0 0 0 0 
0 0 0 0 
0.0134645557210702 -0.006063080068177166 -0.04018138098698938 -0.003888296730326892 
0 0 0 0 
0.1065907451771466 -0.06833587959562519 -0.05266257788969203 -0.06133391365595534 
0.1815328323469501 0.01922040269281423 -0.5087905121620468 -0.5807045336878006 
0.3465185443698435 -0.4230015870012199 -0.2024694170197525 -0.2201136779710795 
-0.783843935252386 0.5922612174152547 0.6166413512014793 -0.1057113845855726 
-0.4930328107742299 -0.1709290049747634 0.5469274340011595 -0.3606482530726476 
-0.2226605086967867 0.1148120407780684 -0.009497726793844193 -0.06667645500144923 
0.3126784914748147 -0.4816561891152514 0.3800747073047181 -0.1023512285510757 
0.1306228102292104 -0.2837497901752027 0.3740916386603778 -0.02514518281556797 
-0.5807769465339118 0.2498881944305345 0.7482319223182027 -0.03165993915308592 
0.1167813956519219 -0.4542376720415895 -0.3227029496847631 0.5878132559961512 
0.2522592064448875 -0.1622328476153526 -0.07887629766617982 -0.2087288244599363 
-0.006755088128585437 0.1770990661669294 -0.0637134367802636 -0.001892617003550868 
-0.07919707158253297 0.1400958352551159 -0.1734558266495763 -0.1594101156282214 
-0.008982841238737105 -0.09327322779742052 -0.3116513150348142 0.05151139681627617 
-6.95642592966686e-05 -0.0002244076705012815 -0.004386285785321388 -0.0002946797227918634 
-6.95642592966686e-05 -0.0002244076705012815 -0.004386285785321388 -0.0002946797227918634 
0 0 0 0 
0 0 0 0 
0 0 0 0 
0 0 0 0 
0 0 0 0 
0 0 0 0 
0.04845190145801129 -0.05245052390138594 -0.03226880704084303 -0.0406011433821034 
0.04271042204562438 -0.02543657038055408 -0.06588054752117788 -0.01714153908735716 
-0.3543282857957665 -0.7206781344139745 0.2777356041134758 0.1234849531332319 
0 0 0 0 
0.03913101518936773 -0.03925522248869312 -0.009980641054547677 -0.001699707013945197 
0 0 0 0 
0 0 0 0 
-0.002193930455745494 0.03239503701259155 -0.02449735186799942 -0.009354652114372339 
-0.1031824616182279 0.1245052186125513 -0.1879718986542364 -0.208866510006108 
-0.08428951741492305 0.2191488099787427 -0.2702245790917806 -0.2546666987146159 
0 0 0 0 
0 0 0 0 
0 0 0 0 
0 0 0 0 
0 0 0 0 
0 0 0 0 
0 0 0 0 
0.03704690787803706 -0.008115074992545624 -0.04572664454096903 -0.02047352306945436 
0 0 0 0 
0 0 0 0 
0 0 0 0 
-0.6277929426823433 0.2712853344683666 0.01469402654880122 0.4564680909874155 
-0.01069930958243474 -0.1016713710013437 -0.03622499885101637 0.1387509106582178 
0.00803310306974139 -0.007911813784214296 -0.02270519806709626 -0.005253446929773319 
0 0 0 0 
0.115877840582158 -0.0894847099772963 -0.1514307209690877 -0.04564725999954914 
0.1136016212785748 -0.06347782227183411 -0.03115899425931771 -0.01541031791905553 
0.01166047074239772 -0.005976502353287537 -0.003397940805955856 -0.001498666993217615 
0 0 0 0 
0 0 0 0 
0 0 0 0 
0 0 0 0 
0 0 0 0 
0 0 0 0 
0 0 0 0 
-0.9846264302482907 0.5279043010414869 0.4185315498618809 0.157311406335925 
0 0 0 0 
0 0 0 0 
0.3065112561925231 -0.3004442088220528 -0.03278592605499309 -0.2010496951839931 
0 0 0 0 
0.3080199667369662 -0.1752274052360719 -0.09362172130713772 -0.02764902767666614 
0.04391878572302226 -0.008130101791517639 -0.05742725640581901 -0.009549920486037663 
0 0 0 0 
0 0 0 0 
0 0 0 0 
0 0 0 0 
0 0 0 0 
0 0 0 0 
0.1137929141258973 -0.05006012093686003 -0.06315618151245422 -0.06870194266549841 
-0.1763247380871267 -0.2012970673520808 0.3453845746177139 -0.1989966203609992 
0 0 0 0 
0 0 0 0 
-0.3472694775331115 0.6263505222581787 -0.2417536867686427 -0.1309597697946893 
0 0 0 0 
0 0 0 0 
-0.2396694553177559 0.07076414357374926 0.3115638309274457 -0.005910437887997711 
0 0 0 0 
0 0 0 0 
0.4765762507737168 -0.6529215596991026 0.02664460807972934 -0.1944057701556095 
0 0 0 0 
0 0 0 0 
0 0 0 0 
0.3990905037367634 0.03529805979684263 -0.5761909744459206 -0.1022088679235401 
0 0 0 0 
-0.1567940637148115 0.1837556171540603 -0.2183107799924053 -0.1866605000376727 
0 0 0 0 
0.7408081355195043 -0.3239615865292541 -0.7549348147294768 -0.6939863710498564 
0.05582092639077878 -0.01878820073415594 -0.05108053156522149 -0.02281788957966174 
0 0 0 0 
0.1372942349841723 -0.1915233596045171 0.1667739212699416 -0.1702220261715783 
0 0 0 0 
0 0 0 0 
0.2479797664802568 -0.07874029888598806 -0.08614940191324465 -0.04431572693478498 
0 0 0 0 
-0.9629671176731809 1.03100797551877 -0.4896720537592899 0.11206066594059 
-0.02741675472596847 0.3699523177697439 -0.08395905959757315 -0.03120343886403522 
-0.2196184661263678 0.452004971247409 -0.0398114120548865 -0.02440255926230971 
-0.1542554441410832 0.261654530572668 -0.07802853870774414 -0.2149984908242681 
0 0 0 0 
0 0 0 0 
0 0 0 0 
0.08368607150324872 -0.1025201478876603 -0.01721061815109696 -0.05128417759629905 
0 0 0 0 
-0.02945892918975893 -0.1220696794320787 0.1555186870857145 -0.04265073317247794 
-0.3725084569137269 -0.02969196561444943 0.2463435618713313 -0.02574262372174515 
-0.2334799477353604 -0.09484235988975151 0.3760844182927096 -0.01314409385731682 
0.06955294830742276 -0.04912166150295019 -0.06956537489762819 -0.003431603546642807 
0 0 0 0 
0 0 0 0 
0 0 0 0 
0 0 0 0 
0.06956280349191971 -0.3703248068362046 -0.07605369990098847 0.206550437191694 
0.2011276906543734 0.05719102314956403 -0.3419141721130556 0.07453061322858674 
0.02834222902598578 -0.005253932131264806 -0.00200496725237309 -8.995900439627685e-05 
0 0 0 0 
0 0 0 0 
-0.05956925813158023 0.2901141213203204 -0.02243708373639815 -0.01134132345877589 
0 0 0 0 
-0.1074842485619966 0.2042351893166932 -0.06030952585757513 -0.07715858718025433 
-0.0281254072445601 0.1411896445061221 -0.1238473832822486 -0.01705779495353276 
-0.03200660788704694 0.02580622977158024 -0.01574298190141714 -0.04203341329506036 
0.09482952011330248 -0.002330654009882671 -0.008194556323471679 -0.0001171459094167789 
-0.1061219461435886 0.1757530010229314 -0.1692787756651086 -0.1845295478050664 
0 0 0 0 
0.1498678060766564 -0.04533701660498769 -0.03430338574912516 -0.0183459482027326 
0.06292811693711271 -0.01204376309992561 -0.0245167535968199 -0.0104397190446419 
-0.07897850747517268 -0.1207200243942825 -0.2751607978853574 0.1672672394783975 
0.2286366305140435 -0.1826163315112719 -0.1027324226051952 -0.07905509708482324 
-0.05067545242458062 -0.2237897393901607 0.2355767946827347 -0.09474378863413677 
-0.1394908564490435 0.2300414190882734 -0.07605250775899228 -0.1191920004753147 
0 0 0 0 
0 0 0 0 
0 0 0 0 
0.07521627044730457 -0.01170196889764574 -0.06803616730310397 -0.003387125847884198 
-0.209385964994511 0.1987700628325127 -0.008278208580871674 -0.01008908321393527 
0 0 0 0 
0 0 0 0 
0 0 0 0 
0 0 0 0 
-0.04654414022622004 -0.280465266787001 -0.09226438433138101 0.6382437188371664 
0 0 0 0 
0 0 0 0 
0 0 0 0 
0 0 0 0 
0 0 0 0 
0 0 0 0 
0 0 0 0 
-0.2498777192477163 0.2796193323466994 -0.03503343131265293 -0.09123627111550146 
0 0 0 0 
-0.3435317875509502 0.4094979690796412 -0.06953232046966788 -0.09944325196428405 
0 0 0 0 
-0.03153447288434023 0.1841652418798129 -0.1198098350629158 -0.07087535545135154 
0 0 0 0 
0 0 0 0 
0.1094911248109178 -0.4560284652875039 -0.3040793589889124 0.08506465717787348 
0 0 0 0 
-0.5435653157374822 -0.4164114725774554 0.5437636430173597 0.3447705961294424 
-0.1624647043597865 -0.08704713061821141 0.4513804412609825 -0.05198972674709872 
0.2122560294912165 0.2311550137496984 -0.8167734722874365 -0.6247656141741894 
0.3096874860930665 0.1772911898320682 -0.4927815999822697 -0.1971042808031243 
0.0620520860563688 -0.08484590176421208 -0.04287410134485936 -0.02400553599914927 
0 0 0 0 
0.3136171257527288 -0.2543136556840595 -0.1580769219906387 -0.06497744867021793 
0.05793943099889978 -0.03085191306587453 -0.04561949065190449 -0.01245924171940106 
0.1344873171652944 -0.1085966815056902 -0.06278243423915258 -0.04998256889002247 
0 0 0 0 
0.1946797877391144 -0.1822041871906372 -0.02906524587373696 -0.09005241415162199 
0.6346791280772142 -0.4854813535813146 -0.2610541455312081 -0.3087594734880849 
0 0 0 0 
0 0 0 0 
0 0 0 0 
0 0 0 0 
-0.1576756899629063 0.4317190404451802 -0.06709701174533753 -0.02112530167049621 
0 0 0 0 
0 0 0 0 
-0.4034893646719198 -0.02905314505855917 -0.3733927882469092 0.03087932947794463 
0.416030743036181 -0.1932100389794844 -0.2349951396706257 -0.3196828046198321 
-0.2680832783860693 0.647354381576167 -0.1755094198807855 -0.05291671373755732 
0 0 0 0 
0 0 0 0 
0 0 0 0 
0.06733765815472684 0.04151818557229293 -0.2897228053010181 -0.1291017766573014 
-0.09302828600213731 -0.1528243554786985 -0.02531088615170381 0.3043064225300992 
0.07091625218111278 -0.04224069457707708 -0.0127154329225494 -0.0003236129203944772 
-0.625901904116574 0.5014571932162791 0.2444142611258867 -0.1408554438161104 
0 0 0 0 
0 0 0 0 
0 0 0 0 
0 0 0 0 
0 0 0 0 
0 0 0 0 
0 0 0 0 
0 0 0 0 
0 0 0 0 
0.1326062991779071 -0.04940106182849478 -0.03057323611042944 -0.04144359942447806 
0.5470651381007605 -0.481717874721043 -0.3579527849698577 -0.278285887868962 
0 0 0 0 
0.4242365170543361 -0.1009817747444427 -0.2670011515899224 -0.1004736904469906 
0 0 0 0 
0 0 0 0 
0 0 0 0 
0 0 0 0 
-0.1080932668170387 -0.04246139859391443 0.1833740459958606 -0.01094298275682168 
0 0 0 0 
0 0 0 0 
0 0 0 0 
0.1950514212155358 -0.1363203261500479 -0.08532599609909694 -0.07048509634142855 
0.09890340293537203 -0.1153070532417282 -0.148687915420584 -0.0926612523081714 
-0.09483070373608347 0.1868069748525169 -0.1088598870093609 -0.0287349639528315 
0 0 0 0 
0 0 0 0 
0 0 0 0 
0 0 0 0 
0 0 0 0 
0.1006515223354362 0.05761596381056264 -0.1873185095622596 -0.08055530232297242 
0.05667200735172209 -0.1683361901830539 0.1821640195546073 -0.07924441289591833 
0 0 0 0 
0.04137972433390413 -0.003043427828634267 -0.008328601171462714 -0.003731080146674968 
0.308448400711255 -0.1859981660655444 -0.1038604403453856 -0.08012289914450446 
0 0 0 0 
0.1267513645455 -0.2972804685433135 0.1326396307329137 -0.1295145894935473 
-0.057040127083204 0.1667393195063674 -0.04591876695147806 -0.0225622257198033 
-0.03700617054012847 -0.1825230406312985 0.09806766725544352 -0.01623781550046817 
0 0 0 0 
0.269842660840762 0.2341865408975769 -0.2867422891832055 -0.2138078315570243 
0 0 0 0 
-0.8193377642742149 -0.5277885380174173 1.01246235918392 -0.2678770392139236 
0 0 0 0 
0.3409455285685757 -0.1664328986399081 -0.04674516797147273 -0.03507130271110041 
0.04077897417338572 -0.0916147236995823 -0.04557456012959848 0.139678693434947 
0.1415651745104662 -0.04681079214241754 -0.02553805038554192 -0.02741398956798755 
0 0 0 0 
-0.0803372679855735 0.1932726363107411 -0.02714409236138794 -0.03989027477837753 
0 0 0 0 
0 0 0 0 
0 0 0 0 
0 0 0 0 
0 0 0 0 
0 0 0 0 
0 0 0 0 
0.2896945143643684 -0.1755281069883813 -0.1356268346138302 -0.03873772698991662 
-0.1108782764446064 0.1576018437016711 -0.1113787394971781 -0.09227538663045219 
0.6685692847206668 -0.2470409251759265 -0.3795625579422111 -0.2226623321209769 
-0.005277462753523212 -0.3279377477448313 -0.04603095871241795 0.1324228518940782 
0.006766818444686711 -0.3005570415298517 0.1004393893449303 0.2186804250755282 
0 0 0 0 
-0.09795710453432001 0.2529700032688972 -0.08487554171859721 -0.01083562328890563 
-0.1005329774931388 -0.02585879813202429 0.2000147090391656 -0.06756325609722101 
0.3271385648037785 -0.08573193960978648 -0.438198591688928 -0.1277669857258593 
0 0 0 0 
0 0 0 0 
-0.5614499812984286 -0.1854930803634093 -0.2344245247824829 0.7088284548711707 
0 0 0 0 
0 0 0 0 
0 0 0 0 
0.1637700579563224 -0.1562858867427821 -0.04922251918412535 -0.04885885578757836 
0 0 0 0 
0 0 0 0 
0 0 0 0 
0 0 0 0 
-0.1910349319649535 -0.03959163809194974 0.4542872110134047 -0.00393359898057531 
0.07863952019600245 0.06991878183260596 -0.1572450831893179 -0.2071985752515424 
-0.1619232554508536 -0.08150624759675063 -0.1644339985996974 -0.1284888652442558 
0.2618135316710606 -0.1822115734486339 -0.2540006994275609 -0.1127064470585723 
0 0 0 0 
0.09434513578907947 -0.04177067163988189 -0.02159290890413682 -0.01261096807553617 
0.0442544845159375 -0.01986153921082872 -0.0342777698231892 -0.01440619401306408 
0 0 0 0 
0.5852341489647845 -0.326095976346674 -0.3916241072209062 -0.4468720431971188 
0.04980450902880731 -0.04051140149298163 -0.06245120722054812 -0.04674394501444457 
0.08213774757995657 -0.03686333519372913 -0.02263547642603052 -0.01754116287267628 
-0.6408348690724035 0.30587518915996 -0.1909695043213807 0.06906861493494297 
0.03546140538372322 -0.04334990080682349 -0.0004370708737231437 -0.008834011934819891 
0.03546140538372322 -0.04334990080682349 -0.0004370708737231437 -0.008834011934819891 
-0.08104921060384994 -0.2312222311048176 -0.2246248722777646 0.421853826280482 
0.3048586839142371 -0.2414639729328087 -0.1602892637558727 -0.09073175034657963 
0.03546140538372322 -0.04334990080682349 -0.0004370708737231437 -0.008834011934819891 
0.03546140538372322 -0.04334990080682349 -0.0004370708737231437 -0.008834011934819891 
0.03546140538372322 -0.04334990080682349 -0.0004370708737231437 -0.008834011934819891 
0.03546140538372322 -0.04334990080682349 -0.0004370708737231437 -0.008834011934819891 
0.03546140538372322 -0.04334990080682349 -0.0004370708737231437 -0.008834011934819891 
0 0 0 0 
0.003465140833483319 0.04811948676928087 -0.1036261235618459 -0.04995426186535185 
0 0 0 0 
0.03724769133694525 -0.03725457101062435 -0.002345755987362091 -0.0008749512425632177 
0 0 0 0 
-0.08104329048754109 0.2823128106176971 -0.03000333577045214 -0.01331698397308205 
-0.03130844696975492 0.1916552626557528 -0.3231910166809748 -0.1389067258681228 
0 0 0 0 
0 0 0 0 
0 0 0 0 
0.2241387169288734 -0.06013450775855859 -0.1845839329594514 -0.04740168097914405 
-0.232130772336157 0.4060918503129626 -0.0711230874127593 -0.005905448071152212 
-0.04159114268282223 0.3688599529182408 -0.4215462405916251 -0.2335670519270058 
-0.9425892068029769 0.1812671492641262 0.8773724239589115 -0.2196005517772513 
0 0 0 0 
0 0 0 0 
0.1814353190833015 -0.1267803499759637 -0.2203936140349557 -0.2338992883696919 
0 0 0 0 
0 0 0 0 
0 0 0 0 
0 0 0 0 
-0.4783671279496392 0.527484566559429 0.1668213912508718 -0.1133631868871929 
0 0 0 0 
0 0 0 0 
0 0 0 0 
0.0374029291300247 -0.06973924413669716 -0.09452817522266367 -0.0765452477628564 
0 0 0 0 
0 0 0 0 
0 0 0 0 
0 0 0 0 
0.09899487588425167 -0.2156290903502673 -0.5272421879685909 0.05607069938229843 
-0.227983088520294 0.1857402320238956 -0.03376778610748861 -0.01941434998853466 
0 0 0 0 
0 0 0 0 
0 0 0 0 
0 0 0 0 
0 0 0 0 
0 0 0 0 
0 0 0 0 
0 0 0 0 
0 0 0 0 
0 0 0 0 
0 0 0 0 
0 0 0 0 
0 0 0 0 
-0.2915982871605923 -0.2265366760158664 -0.05889331658066808 0.3906746785242947 
0 0 0 0 
-0.7016868203271782 0.5067939004610832 0.2351034532435686 -0.2388290442337891 
-0.5790497870570772 0.9448363410293094 -0.5073203355125099 -0.2495668584922997 
-0.4265242795162726 -0.1858749430165155 0.2081756026321498 -0.04628913107336383 
0.01748128671580974 0.09456272511991654 -0.3948183405898746 -0.2398274944121102 
-0.05515379992182128 0.2079826974565904 -0.07413097898593141 -0.006511303866307207 
0.06868313957620112 -0.04437309942924395 -0.01764018475136934 -0.001370533003793964 
0.1355930496222799 -0.1627123658378918 -0.06246416916497084 -0.04954544273488943 
0.06868313957620112 -0.04437309942924395 -0.01764018475136934 -0.001370533003793964 
0 0 0 0 
0 0 0 0 
-0.04037819963455195 0.1386483418814891 -0.2190752400308942 -0.1060779679375483 
-0.03200660788704694 0.02580622977158024 -0.01574298190141714 -0.04203341329506036 
0.0001817115015915853 -0.004073386969428647 -0.004201463387014892 -0.002161063412648887 
-0.2273724550791897 -0.1195761102205266 0.3511022338735604 -0.05055889865174128 
0.09338153909556574 -0.1069687532158573 -0.03280888482156317 -0.05696954759917059 
0 0 0 0 
0.1260992056342229 -0.05796400813107174 -0.07667484171732035 -0.06068069302121328 
0 0 0 0 
0 0 0 0 
0.005196698740713015 -0.08950122390768839 0.3301428710851358 -8.501417325677114e-06 
0.03356155003581741 -0.03553739485957102 -0.01879076177581461 -0.006355366887519594 
0 0 0 0 
0 0 0 0 
0 0 0 0 
0.1784945171496465 -0.2994969414930319 0.1807482675202813 -0.09795047114566134 
0 0 0 0 
-0.177544705305994 -0.1021072930610447 0.3924639849197778 -0.04884212923648533 
0 0 0 0 
0.0228598297236331 -0.04272377934548898 -0.03076188044678314 -0.01626080035656381 
0 0 0 0 
-0.1536629011771105 -0.1531328720982497 -0.1298522097033324 0.2683414741528006 
0 0 0 0 
0 0 0 0 
0 0 0 0 
-0.09795710453432001 0.2529700032688972 -0.08487554171859721 -0.01083562328890563 
-0.1794741910999879 0.2164618064335161 -0.04318573867375844 -0.02089576975869741 
0 0 0 0 
0 0 0 0 
0.009655944133708991 -0.03560963299225418 -0.007050214913006858 -0.01198810588682362 
0.07489733957171396 -0.2338533073316576 -0.2737287903899859 0.178716936461846 
0 0 0 0 
0 0 0 0 
-0.03043384141276603 0.03906212622187073 -0.08772820744570924 -0.04791457216698301 
0.3824796224693879 -0.2700713333568205 -0.3742941758877492 0.200207225945649 
-0.03200660788704694 0.02580622977158024 -0.01574298190141714 -0.04203341329506036 
0.01762778333440371 0.02509442136845866 -0.04444242358814332 -0.04347772511239394 
0.05493308125249674 -0.007487023733481836 -0.02552961405372239 -0.04993964245315104 
-0.03200660788704694 0.02580622977158024 -0.01574298190141714 -0.04203341329506036 
-0.2657304734670559 0.2709669177553361 -0.2116093824259014 -0.1980497920149329 
-0.03200660788704694 0.02580622977158024 -0.01574298190141714 -0.04203341329506036 
-0.03200660788704694 0.02580622977158024 -0.01574298190141714 -0.04203341329506036 
-0.03200660788704694 0.02580622977158024 -0.01574298190141714 -0.04203341329506036 
-0.03200660788704694 0.02580622977158024 -0.01574298190141714 -0.04203341329506036 
0 0 0 0 
0 0 0 0 
0 0 0 0 
0 0 0 0 
0 0 0 0 
0 0 0 0 
0 0 0 0 
0 0 0 0 
0 0 0 0 
0 0 0 0 
0 0 0 0 
-0.01912357722627369 -0.1903298568510797 0.3363695297017797 -0.0006066760740576838 
0 0 0 0 
0.1555751823314877 -0.1240748719737495 -0.03356098770456218 -0.005588566392350829 
0 0 0 0 
0 0 0 0 
-0.3280867095011238 0.3534426557033879 -0.0007624985276161619 -2.127356469301361e-05 
0 0 0 0 
0 0 0 0 
0 0 0 0 
0.02651888446527451 -0.1636160616288252 0.2625858610336997 -0.004845288602159527 
0 0 0 0 
0 0 0 0 
0 0 0 0 
0 0 0 0 
0 0 0 0 
0 0 0 0 
0 0 0 0 
0.2504455147038151 -0.2151296535605504 -0.2611753607288594 -0.1602937712292467 
0.3201893977674883 -0.0459257082427021 -0.1979368391493514 -0.01433962596218929 
0 0 0 0 
-0.1794741910999879 0.2164618064335161 -0.04318573867375844 -0.02089576975869741 
-0.07093434610802923 -0.1322681284834704 0.2541235291348979 -0.01813246709285492 
0.03724769133694525 -0.03725457101062435 -0.002345755987362091 -0.0008749512425632177 
0.2509906710040722 -0.1559181704164415 -0.3382832662710193 -0.1781436701577346 
0 0 0 0 
-0.04616071496615796 -0.05832147019452023 -0.03578792797729322 0.1475849225930378 
0.1309539803108557 -0.1211094336085901 -0.1142119681816454 -0.1739280578192757 
0 0 0 0 
0 0 0 0 
0 0 0 0 
0 0 0 0 
0 0 0 0 
0.1430087534148941 -0.09633157790374457 -0.04608721219304399 -0.01029672777675848 
-0.3762240972387664 -0.4504205280446141 0.3793857593472366 0.4847395653688742 
0 0 0 0 
0 0 0 0 
0 0 0 0 
-0.1070879016192742 -0.1387044209337988 -0.1905538760690986 0.2766633508447595 
0 0 0 0 
0 0 0 0 
0 0 0 0 
0.03862570518467312 0.02262387520993848 -0.3125439438621249 -0.3346834570033922 
0 0 0 0 
-0.3215467414191815 -0.3256249823058863 0.3278368692427308 0.1588184897547033 
0.8450173793413209 -0.01932970028524525 -0.3356666079072139 -0.5281926520124733 
0 0 0 0 
0 0 0 0 
0 0 0 0 
0.0860946029830246 -0.07752504518251792 -0.1027054981419152 -0.08554938394398179 
0 0 0 0 
0 0 0 0 
0 0 0 0 
0 0 0 0 
0 0 0 0 
0.08348594864209023 -0.041916081641547 -0.01603332366330939 -0.01529554229756468 
0 0 0 0 
0 0 0 0 
-0.006755088128585437 0.1770990661669294 -0.0637134367802636 -0.001892617003550868 
0 0 0 0 
0.1136876443142525 -0.06985033273722918 -0.001984885751270958 -0.007534630117720183 
0 0 0 0 
0 0 0 0 
0 0 0 0 
-0.09120623162893893 -0.008976731868774807 0.1694236022774926 -0.001247649461836837 
0 0 0 0 
-0.04616071496615796 -0.05832147019452023 -0.03578792797729322 0.1475849225930378 
0 0 0 0 
0 0 0 0 
-0.1074842485619966 0.2042351893166932 -0.06030952585757513 -0.07715858718025433 
0 0 0 0 
0.4487676514290551 -0.1005490474780963 -0.2138533756074205 -0.07410340977226407 
0 0 0 0 
0 0 0 0 
0 0 0 0 
0 0 0 0 
0 0 0 0 
0 0 0 0 
0 0 0 0 
0 0 0 0 
0.3143250938379538 -0.1322216749857514 -0.1680084856908294 -0.02307719041835705 
0 0 0 0 
0.07048520116993338 -0.04238319699444739 -0.03566506890526804 -0.03562497196330217 
0.05614475727310996 -0.0444458724323426 -0.04889571356121559 -0.02546123547988779 
-0.1912463757436962 -0.03885012895051605 0.4868692307159515 -0.003295839266107565 
-0.000870840276144768 0.0007610850441080548 -0.00283442696381708 -1.498433665779724e-05 
0 0 0 0 
0 0 0 0 
-0.355302381426143 0.03636061631854644 -0.1457268188977483 0.4828457587287954 
0 0 0 0 
0.1610400773407131 -0.04544704538092598 -0.07636276976093939 -0.03640949777669428 
-0.4028479186472234 0.4286859144259071 0.083232300179663 -0.1402618597808473 
0.1860914486819953 0.002251068677803603 -0.2657928742667189 -0.1252941557584118 
0 0 0 0 
0 0 0 0 
0 0 0 0 
0.3143250938379538 -0.1322216749857514 -0.1680084856908294 -0.02307719041835705 
0 0 0 0 
0 0 0 0 
0 0 0 0 
0 0 0 0 
0 0 0 0 
0 0 0 0 
0 0 0 0 
0 0 0 0 
-0.3408725445851946 0.0279072044759434 0.2838280323204876 -0.1841211361467795 
0 0 0 0 
-0.3036631340803698 -0.0252565823457436 0.3554779410707676 -0.1467392855023317 
0.08450867705197823 -0.2134972303015026 0.01327869093267274 -0.1722845948249325 
-0.002193930455745494 0.03239503701259155 -0.02449735186799942 -0.009354652114372339 
-0.2072626274344691 0.3680950589407475 -0.2419067769560276 -0.03549209792523089 
-0.03624326994263618 0.09287451623057484 -0.0003795475691399616 -2.791242000208648e-05 
-0.03624326994263618 0.09287451623057484 -0.0003795475691399616 -2.791242000208648e-05 
-0.1732846433565705 0.4311265745576647 -0.2724126105066666 -0.09955233326622166 
0 0 0 0 
0 0 0 0 
0.1041095983887722 -0.04701109662814991 -0.02492872725972376 -0.01387696261086444 
0 0 0 0 
0 0 0 0 
0 0 0 0 
-0.05689076887565064 -0.1001028165499172 0.3797495986273626 -0.01992731019683395 
0.01507219005870541 0.06493671911525495 -0.03009398147705008 -0.03278240800790666 
-0.2334799477353604 -0.09484235988975151 0.3760844182927096 -0.01314409385731682 
0 0 0 0 
-0.1495257774716466 0.1677893648372944 -0.02342046094535496 -0.02661244501939062 
0 0 0 0 
0 0 0 0 
0.03172902693957746 -0.004800298728427983 -0.01277583179493236 -0.0002865491420179044 
0 0 0 0 
0.3523590782560313 0.01073618084971701 -0.2232445652643137 -0.08414936548567503 
-0.1239232287426096 -0.1209149408220971 0.2086724573981084 -0.4463102381867559 
0.1096355400248297 -0.5022512408933129 0.4224364037298716 0.1352179369256738 
-0.09302828600213731 -0.1528243554786985 -0.02531088615170381 0.3043064225300992 
-0.09302828600213731 -0.1528243554786985 -0.02531088615170381 0.3043064225300992 
-0.09302828600213731 -0.1528243554786985 -0.02531088615170381 0.3043064225300992 
-0.09302828600213731 -0.1528243554786985 -0.02531088615170381 0.3043064225300992 
-0.09302828600213731 -0.1528243554786985 -0.02531088615170381 0.3043064225300992 
0 0 0 0 
0.410049150071937 -0.2415428260073691 -0.1214824035104917 -0.0922867817419656 
0.1960128730924905 -0.1969914408713181 -0.1779545302943002 -0.0562165846075852 
0.2759540414288109 -0.2139550594496216 -0.1427323743221207 -0.05390201072940382 
0 0 0 0 
0 0 0 0 
0.03828314673928359 -0.03441226129485632 -0.0852410381209804 -0.09275319545468312 
0 0 0 0 
0.1084567070813952 -0.1064694216112066 -0.05410332908275065 -0.05002952953302968 
0.1084567070813952 -0.1064694216112066 -0.05410332908275065 -0.05002952953302968 
0.1648621916408547 -0.1051568900924217 -0.5320850537899859 0.3121757401540183 
0.1844519772898409 -0.1353355799255594 -0.05436844670584613 -0.1641975063788874 
0 0 0 0 
0 0 0 0 
0.009655944133708991 -0.03560963299225418 -0.007050214913006858 -0.01198810588682362 
0.3447983099660554 -0.2808184330855723 -0.1955724159599016 -0.1809531664148573 
0 0 0 0 
0.05191494042590904 0.2973341261447496 -0.1509077368239829 -0.1315597671262526 
0.04845190145801129 -0.05245052390138594 -0.03226880704084303 -0.0406011433821034 
0 0 0 0 
-0.0305279990388913 -0.06145128726377923 -0.04333824703775901 0.1452261452804408 
0.05295794960319893 -0.1033673689053262 -0.0593715707010684 0.1299306029828762 
0.01563271592726665 -0.003129817069259003 -0.007550319060465781 -0.002358777312596904 
0 0 0 0 
0.2428130196176112 -0.1893540333900204 -0.1651166954304516 -0.09427871886404326 
0.09241366830454684 -0.03826950800146817 -0.0517082477027478 -0.06596497827670558 
0 0 0 0 
0 0 0 0 
0 0 0 0 
0 0 0 0 
0 0 0 0 
-0.230364349068516 -0.2647436319612033 0.4095854460423023 -0.0674780223638243 
-0.09365406830323385 0.1298786367329418 -0.03449888915701495 -0.008206980848782594 
0 0 0 0 
0 0 0 0 
0.1613403476713743 -0.1640320119332132 -0.04477023496761488 -0.02237529750680657 
0 0 0 0 
0 0 0 0 
0 0 0 0 
0 0 0 0 
0.1469701645556999 -0.1206525226646816 -0.06588824442845494 -0.008359309647981738 
0 0 0 0 
0 0 0 0 
-0.3048378171963161 -0.02191453772847418 0.04710915971204264 -0.271381351903025 
0.2315110169056642 -0.4568173428384553 -0.3884798540567325 0.2188780774418713 
0 0 0 0 
0 0 0 0 
0 0 0 0 
0 0 0 0 
0 0 0 0 
0 0 0 0 
0 0 0 0 
0 0 0 0 
0.08998426111509825 -0.02696466448734068 -0.05390158078623205 -0.01278610564463511 
0 0 0 0 
0 0 0 0 
0.0003135189382450776 0.09672128179015863 -0.07203575090966947 -0.01138786856857783 
-0.04360526678477718 0.1048513835816763 -0.01460849450385045 -0.001837948082540161 
-0.2919326367458317 0.5856430823692301 -0.05522049405996272 -0.004617882582938036 
-0.04360526678477718 0.1048513835816763 -0.01460849450385045 -0.001837948082540161 
0 0 0 0 
0 0 0 0 
0 0 0 0 
0.766290224918402 -0.624347238125895 -0.1747224051998279 -0.174995196082382 
0 0 0 0 
0 0 0 0 
0 0 0 0 
0 0 0 0 
0.1366202246223052 -0.04915662450768205 -0.005136206519966715 -0.002149583648615817 
0 0 0 0 
0 0 0 0 
0 0 0 0 
0 0 0 0 
0 0 0 0 
0 0 0 0 
0 0 0 0 
0 0 0 0 
0 0 0 0 
0 0 0 0 
0 0 0 0 
0 0 0 0 
-0.2099664156874098 0.4362338091038707 -0.1727719291912001 -0.08638003726503113 
0 0 0 0 
0.0783662308723691 -0.03807619501482423 -0.06051017176803392 -0.02329573522898974 
0 0 0 0 
0 0 0 0 
0 0 0 0 
0.09640910348176743 -0.01155423667390855 -0.02182732849264347 -0.005334722858338753 
0 0 0 0 
0.03129997105069293 -0.001229220283287341 -0.01584104359837906 -0.00159796776848804 
0.23686677292991 -0.1942529249354663 -0.08032396123847059 -0.01180415678191088 
0 0 0 0 
0 0 0 0 
0 0 0 0 
0.0636371282170056 -0.3919326253773317 0.2635390990900195 -0.02511669286210174 
0 0 0 0 
0 0 0 0 
0 0 0 0 
0 0 0 0 
0 0 0 0 
0 0 0 0 
0 0 0 0 
0 0 0 0 
0 0 0 0 
0.3131633345060361 -0.08068210021378418 -0.1100160512146789 -0.06101370347027009 
0 0 0 0 
0.1823789705355198 -0.09101469819427913 -0.06776059706637054 -0.0216625320184842 
0.1734712125280427 -0.08363435233143034 -0.06710630669676837 -0.02145902673230866 
0.02819230652636005 0.3315891756199904 -0.3576867673946848 -0.1819190230722518 
0.2478267900220952 -0.1178304170671485 -0.1331573076524034 -0.02047474892302991 
0 0 0 0 
0.0783662308723691 -0.03807619501482423 -0.06051017176803392 -0.02329573522898974 
0 0 0 0 
-0.3193721406774118 -0.2324226525926371 0.6612801100809286 -0.183887911097411 
0 0 0 0 
0 0 0 0 
0 0 0 0 
0.01573882158684197 -0.01115137041706557 -0.003614368925705588 -0.0003237778212779134 
-0.1489742360875171 -0.1253027472019282 0.3228493316425795 -0.004918043493351846 
-0.002821680238313575 0.02543326632824981 -0.1399123151828882 -0.03601464333747584 
0 0 0 0 
0 0 0 0 
0 0 0 0 
0 0 0 0 
0 0 0 0 
0 0 0 0 
0.2842221924215369 -0.2550104712906265 -0.2183315125608027 -0.2082453491762632 
0.2842221924215369 -0.2550104712906265 -0.2183315125608027 -0.2082453491762632 
0 0 0 0 
0.1065907451771466 -0.06833587959562519 -0.05266257788969203 -0.06133391365595534 
0 0 0 0 
-0.04369317935650603 0.1425715066929749 -0.05282439288113096 -0.01306600127134155 
0 0 0 0 
0 0 0 0 
0 0 0 0 
0 0 0 0 
-0.1074842485619966 0.2042351893166932 -0.06030952585757513 -0.07715858718025433 
0 0 0 0 
0 0 0 0 
0 0 0 0 
0.009655944133708991 -0.03560963299225418 -0.007050214913006858 -0.01198810588682362 
0 0 0 0 
0.5053737071854715 -0.3053174774491653 -0.2647806830598569 -0.2028332437760788 
0 0 0 0 
0 0 0 0 
0 0 0 0 
-0.2014686213990215 0.2388771834056418 -0.2719602956797516 -0.1204019960071235 
-0.2014686213990215 0.2388771834056418 -0.2719602956797516 -0.1204019960071235 
-0.3694313265206304 0.6290992418533959 -0.2828340346625012 -0.3272480853916532 
-0.2014686213990215 0.2388771834056418 -0.2719602956797516 -0.1204019960071235 
0 0 0 0 
0 0 0 0 
0 0 0 0 
0 0 0 0 
0 0 0 0 
0 0 0 0 
0.2536104718119825 0.136086798792894 -0.3727289462640109 -0.214586340126978 
0.1734712125280427 -0.08363435233143034 -0.06710630669676837 -0.02145902673230866 
0 0 0 0 
0 0 0 0 
0.4711817223926798 -0.3320709599819068 -0.1992759797679505 -0.08156025812838948 
0.02644297114215231 -0.01245136826268059 -0.01316860989408363 -0.01090632668585636 
-0.0935723927415566 0.02582988036713582 -0.4396822436121086 0.1336684610290437 
0.04154498889461628 -0.04540921509458871 -0.01479267858584422 -0.01206494016350577 
0.1670292879877699 -0.4039125762480998 -0.11027666762531 0.3880516723196489 
-0.1785406739640734 -0.08811894120059234 -0.06845019599798152 0.3052642382400996 
-0.1785406739640734 -0.08811894120059234 -0.06845019599798152 0.3052642382400996 
-0.1785406739640734 -0.08811894120059234 -0.06845019599798152 0.3052642382400996 
0.04624172661649692 -0.009884149778772684 -0.04043373289147958 -0.01482405710674506 
0.04624172661649692 -0.009884149778772684 -0.04043373289147958 -0.01482405710674506 
-0.4331332458969878 0.6673252465714002 -0.1058432142321011 -0.01595013662800443 
0.3140541565212781 -0.2221640891776273 -0.2441509530365821 -0.09304408696169933 
0 0 0 0 
-0.3209908921958511 -0.673628071159377 0.1752291705404278 0.2685553061796327 
0 0 0 0 
0 0 0 0 
0 0 0 0 
0 0 0 0 
-0.1071059011616333 0.2986409061484847 -0.02171530728761134 -0.01101029655456166 
0 0 0 0 
0 0 0 0 
0 0 0 0 
0 0 0 0 
0.08998426111509825 -0.02696466448734068 -0.05390158078623205 -0.01278610564463511 
-0.201717257692962 0.2193544582121756 -0.1801234186230671 -0.1139829654248122 
0 0 0 0 
-0.0006241575237719245 0.08005358860592098 -0.02934429297810948 -0.01657462026470146 
-0.05726941850150118 0.08908823452456348 0.06991666902727958 -0.2297023789138454 
0.0864976885865518 -0.1926675216340237 0.05095013448999192 -0.07093719079240991 
0 0 0 0 
0 0 0 0 
0 0 0 0 
0 0 0 0 
0 0 0 0 
0.165447015993426 -0.06863444011980624 -0.1306158691198786 -0.06097519027074105 
0 0 0 0 
0 0 0 0 
0 0 0 0 
0.04741476005665124 -0.001165327004941335 -0.004097278161735839 -5.857295470838947e-05 
0 0 0 0 
0 0 0 0 
0 0 0 0 
0 0 0 0 
0 0 0 0 
0 0 0 0 
0 0 0 0 
0 0 0 0 
0 0 0 0 
0 0 0 0 
-0.2378379662954334 -0.1259228843736469 -0.1445275863341547 0.3630439108613299 
-0.1250548354185173 -0.2519410763315243 0.2852769036957863 -0.09159055317492722 
-0.000870840276144768 0.0007610850441080548 -0.00283442696381708 -1.498433665779724e-05 
0 0 0 0 
0 0 0 0 
0 0 0 0 
0 0 0 0 
0 0 0 0 
0.3801361637545607 -0.7790979047039838 0.4713120890681821 -0.3205114633221328 
0.1558790665754546 -0.1783509995963757 -0.06715943541829462 -0.08670925431390884 
0.1558790665754546 -0.1783509995963757 -0.06715943541829462 -0.08670925431390884 
0.2887005919348634 -0.2320273846857802 -0.1235340782261237 -0.1261920653542446 
0.1558790665754546 -0.1783509995963757 -0.06715943541829462 -0.08670925431390884 
0.1558790665754546 -0.1783509995963757 -0.06715943541829462 -0.08670925431390884 
-0.048840088226715 0.005282725150011127 0.1526501973199766 -0.02034888124057692 
0 0 0 0 
0.01085547167285104 -0.01809686903798215 -0.001324061488365778 -0.001915514623713367 
0 0 0 0 
0 0 0 0 
0 0 0 0 
0 0 0 0 
-0.1427597494681691 0.2501171445405962 -0.09041988331282579 -0.04969107525103163 
0 0 0 0 
0 0 0 0 
0 0 0 0 
0 0 0 0 
0 0 0 0 
-0.2274595779432941 0.30481080393458 -0.03986572938263005 -0.1125448460321358 
0.1506696949505395 -0.07027935985886996 -0.1740572395542799 -0.07561019625671624 
0 0 0 0 
0 0 0 0 
0 0 0 0 
0 0 0 0 
0.1851493379874371 -0.08037262948374387 -0.1416065366509088 -0.09500147963218791 
-0.3290483642517439 -0.0314575698663081 -0.1071636946797604 0.5141421917184734 
0 0 0 0 
0 0 0 0 
0 0 0 0 
0 0 0 0 
0 0 0 0 
0.05622047723330668 0.01962641006030299 -0.06629985391801999 -0.05516380085227406 
0 0 0 0 
0 0 0 0 
0 0 0 0 
0.2231444796109181 -0.1479181166519474 -0.07557867735648469 -0.01898157697818333 
0.09926131106002747 -0.1533476901207625 0.1116141462710111 -0.02494643715926257 
0.1539073575114171 -0.125309658121505 -0.02363789916428335 -0.01397651036681751 
0.2578831504935309 -0.1769147417254809 -0.1536072046300978 -0.05295312466459723 
0 0 0 0 
-0.07428612221071805 0.08286817431160193 -0.1596353112595418 0.130527127639505 
-0.1070879016192742 -0.1387044209337988 -0.1905538760690986 0.2766633508447595 
-0.1070879016192742 -0.1387044209337988 -0.1905538760690986 0.2766633508447595 
-0.2375297572596322 0.1821508663707599 0.01714522689994299 -0.1558878355195283 
0.1650583764063067 -0.1571800040429445 -0.1242194014550868 -0.1573942262000148 
0.1950450097875084 -0.1705883231171233 -0.1313184999488739 -0.1579789365733688 
-0.2495003258730311 -0.2493947086503018 -0.2067698144571404 0.597362871241417 
0 0 0 0 
0.1249686457439373 -0.05731308652696024 -0.07991259978562563 -0.00682015880833323 
0.1591936249868343 -0.1066659450668154 -0.02314347362828262 -0.02942758111765236 
0 0 0 0 
0 0 0 0 
0 0 0 0 
0 0 0 0 
0 0 0 0 
0 0 0 0 
0 0 0 0 
0 0 0 0 
0.01615022015071508 -0.006839240155933316 -0.009324069118864619 -0.003701657533405927 
-0.1017120505080928 -0.2107241542618421 0.003907415431229294 -0.1272023313547193 
0.1968793332959997 -0.1327410248042866 -0.1332772197113899 -0.1437947986593121 
0 0 0 0 
-0.2688870718791638 0.2410185771315077 -0.1185317116944258 -0.1446675449451436 
0 0 0 0 
0.4795959848659188 -0.4165640628570143 -0.3235456325610848 -0.2537003745113749 
0 0 0 0 
0 0 0 0 
0.2675706653240875 -0.1514945226141635 -0.07285977209116298 -0.03126350185506162 
0 0 0 0 
0 0 0 0 
0 0 0 0 
0 0 0 0 
0 0 0 0 
0 0 0 0 
0.0025531128155861 -0.1934808299998806 -0.1489047223101058 0.5857358759256139 
0 0 0 0 
0 0 0 0 
0 0 0 0 
0 0 0 0 
0.06955294830742276 -0.04912166150295019 -0.06956537489762819 -0.003431603546642807 
0.06955294830742276 -0.04912166150295019 -0.06956537489762819 -0.003431603546642807 
0 0 0 0 
0 0 0 0 
-0.2744679620255583 -0.0309390801592441 0.1953072258701762 -0.09599260471412376 
0.0764891098203606 -0.1272433173640311 -0.05547078308734341 -0.05616874220401213 
0.009280307332112046 -0.01816648272822473 -0.007685396786813812 -0.008503254159929474 
0 0 0 0 
0 0 0 0 
0 0 0 0 
0 0 0 0 
0 0 0 0 
0 0 0 0 
0 0 0 0 
0 0 0 0 
-0.2272261115583014 0.2598867384789605 -0.219406523456204 -0.1278166164209742 
0 0 0 0 
0 0 0 0 
0 0 0 0 
-0.09120623162893893 -0.008976731868774807 0.1694236022774926 -0.001247649461836837 
0 0 0 0 
-0.09483070373608347 0.1868069748525169 -0.1088598870093609 -0.0287349639528315 
0 0 0 0 
0.4504894111461068 -0.2750451412447422 -0.2500310732288858 -0.06874248653065425 
-0.141287825485273 -0.05166278703176302 0.0871565119741631 -0.112370057617313 
0 0 0 0 
0 0 0 0 
0 0 0 0 
0 0 0 0 
0 0 0 0 
0.08414233190840911 -0.07852978191607597 -0.1078335774781366 -0.0866091403571506 
0.08247449440770582 -0.04819177612455156 -0.02773672970003214 -0.02386736786259603 
0.2471346803237377 -0.1229720905634439 -0.1790682679028546 -0.1219588817206761 
0 0 0 0 
0 0 0 0 
0 0 0 0 
-0.4308561129549526 0.5391795063904712 -0.1831553672848708 -0.313393502701635 
-0.1020439305817716 -0.02103953306848703 0.3290911168117543 -0.00333024761115003 
-0.1020439305817716 -0.02103953306848703 0.3290911168117543 -0.00333024761115003 
-0.1020439305817716 -0.02103953306848703 0.3290911168117543 -0.00333024761115003 
0 0 0 0 
-0.07791081943229634 0.1481436985392573 -0.05294819428688995 -0.0129765547657725 
0 0 0 0 
0 0 0 0 
0.03137609861369255 -0.01669516042799373 -0.02110482997033648 -0.03211584384249451 
-0.1071059011616333 0.2986409061484847 -0.02171530728761134 -0.01101029655456166 
0 0 0 0 
0.001907170415150365 -0.003748925959317721 -0.005181710021207539 -0.002178714149724016 
0 0 0 0 
0 0 0 0 
0 0 0 0 
0 0 0 0 
0 0 0 0 
0 0 0 0 
0 0 0 0 
0 0 0 0 
0 0 0 0 
0.1369013806858385 -0.01561828936893706 -0.04869254210513693 -0.06852468080909525 
0 0 0 0 
0 0 0 0 
0 0 0 0 
-0.1206724754801328 0.3859409682634904 -0.08581452679624672 -0.04033009999978184 
0 0 0 0 
-0.2547317945840003 0.2165742405991589 -0.2154076123074517 -0.1011146592405961 
0 0 0 0 
0 0 0 0 
0 0 0 0 
0 0 0 0 
0 0 0 0 
0 0 0 0 
0 0 0 0 
0 0 0 0 
-0.3162719542686901 0.5737241847311364 -0.2844686936651523 -0.1154382914898669 
0.04159188315087865 -0.01779077196707737 -0.01763786885703542 -0.0008938020590545806 
0.1803411734889892 -0.1152463624958683 -0.09513043784437536 -0.06152029030739682 
0.1045415990791973 -0.1223470440857921 -0.04102877340674365 -0.04987365487599093 
0 0 0 0 
0 0 0 0 
-0.8179547071007439 0.7885648631401314 -0.04804074834874823 -0.0323414898414168 
0 0 0 0 
0 0 0 0 
0 0 0 0 
0 0 0 0 
0 0 0 0 
0 0 0 0 
0 0 0 0 
0.03363046485626302 -0.006682781318707337 -0.005552896446444692 -0.008976261593158705 
0 0 0 0 
0 0 0 0 
-0.1119633589911581 -0.3481600175904629 0.5860170557638301 -0.02958301159643455 
0 0 0 0 
-0.03253980273073017 0.1606219815625256 -0.06274129071038602 -0.02613396320847471 
0.0475366430300531 -0.008526784828164349 -0.0007217764487868133 -0.0003310269042142361 
0 0 0 0 
-0.1754131315922837 0.3685510071527359 -0.1359455713136682 -0.04259059588014889 
0 0 0 0 
0.04465162554999299 -0.07409550677087504 -0.009148186808162267 -0.009143255557621773 
0 0 0 0 
0 0 0 0 
0 0 0 0 
-0.8385639408350424 0.9248966598168864 -0.0787323829833875 -0.1540018088807008 
0 0 0 0 
-0.2540949874432488 0.03306113447973988 0.3911571514029783 -0.09191719602356753 
0 0 0 0 
0 0 0 0 
0 0 0 0 
0 0 0 0 
0 0 0 0 
0 0 0 0 
0 0 0 0 
0 0 0 0 
0 0 0 0 
0 0 0 0 
0 0 0 0 
0.1430087534148941 -0.09633157790374457 -0.04608721219304399 -0.01029672777675848 
0 0 0 0 
0 0 0 0 
0 0 0 0 
0.3614741571475114 -0.2323771413290701 -0.3318383174634746 -0.2171233923355861 
0 0 0 0 
0 0 0 0 
0 0 0 0 
0 0 0 0 
0 0 0 0 
0 0 0 0 
0 0 0 0 
0 0 0 0 
0 0 0 0 
0 0 0 0 
0 0 0 0 
0 0 0 0 
0 0 0 0 
0 0 0 0 
0 0 0 0 
0 0 0 0 
0 0 0 0 
0 0 0 0 
0 0 0 0 
0 0 0 0 
0.07716436881685346 -0.06556658566083537 -0.003487487274025989 -0.01190337332040608 
0 0 0 0 
0 0 0 0 
0.09783202466561244 0.004354999352631841 -0.02097688854698623 -0.01125750567895396 
0 0 0 0 
0 0 0 0 
0.1430087534148941 -0.09633157790374457 -0.04608721219304399 -0.01029672777675848 
0 0 0 0 
0 0 0 0 
-0.0721819922375754 0.198571580439458 -0.1084295329299165 -0.0519773304658137 
-0.1058124570938384 0.2052543617581654 -0.1028766364834718 -0.04300106887265499 
0 0 0 0 
0 0 0 0 
-0.03492819384962661 -0.1196465768527482 0.1541180521135835 -0.04256321759115507 
0 0 0 0 
0 0 0 0 
-0.2982338828337637 0.2608255447625992 -0.1026459025551394 -0.1383814136646795 
-0.5453852564272135 0.5458561399553088 -0.03300031428573436 -0.009252257053877819 
-0.2726926282136067 0.2729280699776544 -0.01650015714286718 -0.004626128526938909 
-0.2726926282136067 0.2729280699776544 -0.01650015714286718 -0.004626128526938909 
-0.2726926282136067 0.2729280699776544 -0.01650015714286718 -0.004626128526938909 
0.4634988102420148 -0.2618950657321317 -0.09465811264000672 -0.04420094481751093 
0.3409455285685757 -0.1664328986399081 -0.04674516797147273 -0.03507130271110041 
0.3409455285685757 -0.1664328986399081 -0.04674516797147273 -0.03507130271110041 
0.3409455285685757 -0.1664328986399081 -0.04674516797147273 -0.03507130271110041 
0.1753993589470624 -0.2038620361893384 -0.0645997495261651 0.4042523248624054 
0.3409455285685757 -0.1664328986399081 -0.04674516797147273 -0.03507130271110041 
0.3409455285685757 -0.1664328986399081 -0.04674516797147273 -0.03507130271110041 
0 0 0 0 
0 0 0 0 
0 0 0 0 
0 0 0 0 
0 0 0 0 
0 0 0 0 
0.1049016779900256 -0.07264081280184097 -0.02691874704206437 -0.0006179675179372002 
-0.4863987804623354 0.4680669480539283 -0.1577566322129592 -0.1537429071255965 
0 0 0 0 
-0.4061262784794565 0.683986272375711 -0.5365018991305196 -0.3198039707440308 
0 0 0 0 
-0.05758824628725554 -0.2965260896561914 -0.278769710371733 0.3980578125064776 
0.2939949445178386 -0.1351252239563546 -0.2531349274306254 -0.193553755391622 
0.03129997105069293 -0.001229220283287341 -0.01584104359837906 -0.00159796776848804 
0 0 0 0 
0 0 0 0 
0 0 0 0 
0.2030464060647206 -0.08689168590759888 -0.1350703156020664 -0.05656560275460988 
0.04741476005665124 -0.001165327004941335 -0.004097278161735839 -5.857295470838947e-05 
0.04741476005665124 -0.001165327004941335 -0.004097278161735839 -5.857295470838947e-05 
0 0 0 0 
0.2146983190626499 -0.08770923607464896 0.1910049005526061 -0.04742823261162435 
0 0 0 0 
0 0 0 0 
0.001907170415150365 -0.003748925959317721 -0.005181710021207539 -0.002178714149724016 
0 0 0 0 
0 0 0 0 
0 0 0 0 
0 0 0 0 
-0.2912913002736947 0.3838298511557223 -0.2436504295632669 -0.1460753264399962 
0 0 0 0 
0.1116069252223632 -0.1743085670409895 -0.09393786915906852 -0.06571504586774916 
0 0 0 0 
0 0 0 0 
0.08441668483717389 -0.09655636350388275 -0.1057809541009883 -0.05224352976529451 
0 0 0 0 
0.7240061902198039 -0.5492093619897951 -0.423052038228636 -0.1664484689351365 
0 0 0 0 
0 0 0 0 
0.1041095983887722 -0.04701109662814991 -0.02492872725972376 -0.01387696261086444 
0 0 0 0 
0 0 0 0 
0.2116198720940103 -0.1456879936757203 -0.04897766632803473 -0.01851603141275887 
0 0 0 0 
0 0 0 0 
0 0 0 0 
0 0 0 0 
0.2909483837526994 0.1552088042128157 -0.1744556559805036 -0.05210398245659303 
-0.1920796909122001 -0.2641299070014376 -0.1576333368594754 0.3366348900399447 
0 0 0 0 
0 0 0 0 
0 0 0 0 
0 0 0 0 
-0.2861941336464927 0.2710540522244199 -0.06703345853144657 -0.0710197279969399 
-0.2861941336464927 0.2710540522244199 -0.06703345853144657 -0.0710197279969399 
-0.2861941336464927 0.2710540522244199 -0.06703345853144657 -0.0710197279969399 
-0.4377325858016385 -0.09150126622202942 -0.0009585199008588122 0.3173062527983613 
0.1734712125280427 -0.08363435233143034 -0.06710630669676837 -0.02145902673230866 
0.1161012294942095 -0.1992794105223109 0.1149493825598466 -0.1034772770570787 
0 0 0 0 
0 0 0 0 
0 0 0 0 
0.01835691898889273 -0.01244457941302739 -0.003008579014446532 -0.03061326153692534 
0 0 0 0 
0 0 0 0 
0 0 0 0 
-0.1096781790177421 0.2366302263292847 -0.08480687772557455 -0.08651323929462666 
-0.1074842485619966 0.2042351893166932 -0.06030952585757513 -0.07715858718025433 
-0.1074842485619966 0.2042351893166932 -0.06030952585757513 -0.07715858718025433 
0 0 0 0 
0 0 0 0 
0.1179174030137485 -0.1016106083744372 -0.2489853953742825 -0.149054225251222 
0.1179174030137485 -0.1016106083744372 -0.2489853953742825 -0.149054225251222 
0 0 0 0 
-0.1311173056767873 0.3005689760478613 -0.1199701918938129 -0.04092745126366323 
0 0 0 0 
0 0 0 0 
0 0 0 0 
0 0 0 0 
0 0 0 0 
0 0 0 0 
-0.2483273699610545 0.4807916987875539 -0.04061199955611228 -0.002779934500397874 
0 0 0 0 
-0.32448285527914 -0.05880911094565434 -0.09273136541214524 0.3457695596731831 
-0.0598813148378548 -0.02233597202670453 0.1841860916787398 -0.009236993871346917 
-0.02661260403262611 0.08469012267417181 -0.08122029388172815 -0.00200383314939427 
-0.02661260403262611 0.08469012267417181 -0.08122029388172815 -0.00200383314939427 
0 0 0 0 
0 0 0 0 
0 0 0 0 
0 0 0 0 
0 0 0 0 
0.1957501119137862 -0.0745324974514766 -0.218345790169288 -0.1432452683926903 
-0.09483070373608347 0.1868069748525169 -0.1088598870093609 -0.0287349639528315 
0 0 0 0 
0 0 0 0 
0.08693968913954368 -0.03329325350506207 -0.009786632152305255 -0.007906229158090692 
0 0 0 0 
0.2989314751087677 -0.1841204213722844 -0.2571234251870076 -0.2844132164221939 
0.08181111691585426 -0.06631763126456187 -0.04670822531913098 -0.004710531719384209 
0 0 0 0 
0 0 0 0 
0 0 0 0 
0 0 0 0 
0 0 0 0 
0 0 0 0 
0 0 0 0 
0 0 0 0 
0.09690380291602259 -0.1049010478027719 -0.06453761408168605 -0.08120228676420679 
0 0 0 0 
-0.0287394230751414 -0.2642278197889749 -0.05912321673937992 0.4534443746312501 
-0.0287394230751414 -0.2642278197889749 -0.05912321673937992 0.4534443746312501 
0 0 0 0 
0 0 0 0 
0 0 0 0 
0 0 0 0 
0 0 0 0 
0 0 0 0 
0 0 0 0 
-0.02945892918975893 -0.1220696794320787 0.1555186870857145 -0.04265073317247794 
0 0 0 0 
0.1509277928277219 -0.07714781405720555 -0.07039310752665737 -0.1012644985698576 
0 0 0 0 
0 0 0 0 
0.06032861147980247 -0.01111983360145812 -0.03588802668186965 -0.001892869905819441 
0.06032861147980247 -0.01111983360145812 -0.03588802668186965 -0.001892869905819441 
0 0 0 0 
-0.002087353684424035 5.139249555954038e-05 -0.0002714911601133576 -0.0001006044276048458 
-0.002087353684424035 5.139249555954038e-05 -0.0002714911601133576 -0.0001006044276048458 
-0.411103222687473 0.4181245210446883 -0.1884016272039388 -0.1240720486387475 
-0.209385964994511 0.1987700628325127 -0.008278208580871674 -0.01008908321393527 
0.07359371303042871 -0.1260997072928628 -0.1313826660923771 -0.1685307785262364 
-0.411103222687473 0.4181245210446883 -0.1884016272039388 -0.1240720486387475 
-0.006755088128585437 0.1770990661669294 -0.0637134367802636 -0.001892617003550868 
0 0 0 0 
0 0 0 0 
0 0 0 0 
0 0 0 0 
0 0 0 0 
0.01320388558992412 -0.007114146353234795 -0.02371166553377628 -0.004272694469740195 
0 0 0 0 
0 0 0 0 
-0.155987573055539 -0.3671226419896987 0.3253119458945538 -0.2127459239564064 
0 0 0 0 
0 0 0 0 
0 0 0 0 
0.1995295356544531 -0.4700496859282454 0.3557154368718917 -0.07735709888644461 
0.3143250938379538 -0.1322216749857514 -0.1680084856908294 -0.02307719041835705 
0.02137924582135048 -0.01179061293539186 -0.01144793380970643 -0.002736964388792834 
0 0 0 0 
-0.07784123052285633 -0.1451917423873565 -0.04792665441797176 -0.2509971901478312 
-0.02945892918975893 -0.1220696794320787 0.1555186870857145 -0.04265073317247794 
-0.1478319336988387 0.07974200821428984 0.06549188272352427 -0.06267910333282353 
0 0 0 0 
0 0 0 0 
0 0 0 0 
0 0 0 0 
0 0 0 0 
0 0 0 0 
0 0 0 0 
0 0 0 0 
0 0 0 0 
0 0 0 0 
0.04624172661649692 -0.009884149778772684 -0.04043373289147958 -0.01482405710674506 
0.1061832547283082 -0.02300871850725079 -0.1937548800347843 -0.04355277938330353 
0 0 0 0 
0 0 0 0 
0 0 0 0 
0 0 0 0 
0 0 0 0 
0 0 0 0 
0 0 0 0 
0 0 0 0 
0.1591936249868343 -0.1066659450668154 -0.02314347362828262 -0.02942758111765236 
0.1591936249868343 -0.1066659450668154 -0.02314347362828262 -0.02942758111765236 
0.1591936249868343 -0.1066659450668154 -0.02314347362828262 -0.02942758111765236 
0.1591936249868343 -0.1066659450668154 -0.02314347362828262 -0.02942758111765236 
0.1591936249868343 -0.1066659450668154 -0.02314347362828262 -0.02942758111765236 
0.1591936249868343 -0.1066659450668154 -0.02314347362828262 -0.02942758111765236 
0.1591936249868343 -0.1066659450668154 -0.02314347362828262 -0.02942758111765236 
0 0 0 0 
0 0 0 0 
-0.002821680238313575 0.02543326632824981 -0.1399123151828882 -0.03601464333747584 
0 0 0 0 
0 0 0 0 
0 0 0 0 
0 0 0 0 
0 0 0 0 
0 0 0 0 
0 0 0 0 
0 0 0 0 
-0.03326871080522869 -0.1070260947008763 0.265406385560468 -0.007233160721952648 
0 0 0 0 
0 0 0 0 
0 0 0 0 
0 0 0 0 
0 0 0 0 
0 0 0 0 
0 0 0 0 
0 0 0 0 
0 0 0 0 
0 0 0 0 
0.1309036133487454 -0.05016274230407944 -0.09197349930012624 -0.03122261259686422 
0.09058113094307554 -0.01129758057826276 -0.02035447856597941 -0.02798963342968238 
0 0 0 0 
0 0 0 0 
0 0 0 0 
0 0 0 0 
0.0783662308723691 -0.03807619501482423 -0.06051017176803392 -0.02329573522898974 
-0.04616071496615796 -0.05832147019452023 -0.03578792797729322 0.1475849225930378 
0.1260992056342229 -0.05796400813107174 -0.07667484171732035 -0.06068069302121328 
0 0 0 0 
0 0 0 0 
0 0 0 0 
0 0 0 0 
-0.1206724754801328 0.3859409682634904 -0.08581452679624672 -0.04033009999978184 
0.1366202246223052 -0.04915662450768205 -0.005136206519966715 -0.002149583648615817 
0.1366202246223052 -0.04915662450768205 -0.005136206519966715 -0.002149583648615817 
0 0 0 0 
0 0 0 0 
0 0 0 0 
-0.5788357360089479 0.405663629585871 0.1468455492485339 -0.2087868409759537 
0 0 0 0 
0.08693968913954368 -0.03329325350506207 -0.009786632152305255 -0.007906229158090692 
0 0 0 0 
0 0 0 0 
0 0 0 0 
-0.0317778178617442 -0.1377110354325602 0.2792849857882528 -0.04571460348828898 
-0.0317778178617442 -0.1377110354325602 0.2792849857882528 -0.04571460348828898 
-0.0317778178617442 -0.1377110354325602 0.2792849857882528 -0.04571460348828898 
0 0 0 0 
0 0 0 0 
0 0 0 0 
0 0 0 0 
0 0 0 0 
0 0 0 0 
0 0 0 0 
0 0 0 0 
0 0 0 0 
0 0 0 0 
0 0 0 0 
0 0 0 0 
0 0 0 0 
0 0 0 0 
0 0 0 0 
0 0 0 0 
0 0 0 0 
0 0 0 0 
0 0 0 0 
0 0 0 0 
0 0 0 0 
0.03532531104974589 0.0004563015144820265 -0.1585971930500148 -0.1047370341393888 
0 0 0 0 
0 0 0 0 
0 0 0 0 
0 0 0 0 
0 0 0 0 
0 0 0 0 
0 0 0 0 
-0.04616071496615796 -0.05832147019452023 -0.03578792797729322 0.1475849225930378 
-0.04616071496615796 -0.05832147019452023 -0.03578792797729322 0.1475849225930378 
-0.04616071496615796 -0.05832147019452023 -0.03578792797729322 0.1475849225930378 
-0.04616071496615796 -0.05832147019452023 -0.03578792797729322 0.1475849225930378 
-0.04616071496615796 -0.05832147019452023 -0.03578792797729322 0.1475849225930378 
-0.04616071496615796 -0.05832147019452023 -0.03578792797729322 0.1475849225930378 
-0.04616071496615796 -0.05832147019452023 -0.03578792797729322 0.1475849225930378 
-0.1256122816046467 -0.1732756529264685 -0.1563480076739008 0.5013591662225617 
-0.04616071496615796 -0.05832147019452023 -0.03578792797729322 0.1475849225930378 
-0.04616071496615796 -0.05832147019452023 -0.03578792797729322 0.1475849225930378 
-0.04616071496615796 -0.05832147019452023 -0.03578792797729322 0.1475849225930378 
-0.04616071496615796 -0.05832147019452023 -0.03578792797729322 0.1475849225930378 
-0.04616071496615796 -0.05832147019452023 -0.03578792797729322 0.1475849225930378 
-0.04616071496615796 -0.05832147019452023 -0.03578792797729322 0.1475849225930378 
-0.04616071496615796 -0.05832147019452023 -0.03578792797729322 0.1475849225930378 
0.05483108996216367 -0.09021303231080996 0.3014434293984097 -0.001452813234659268 
0 0 0 0 
0 0 0 0 
0 0 0 0 
0 0 0 0 
0 0 0 0 
0 0 0 0 
-0.02459284188614136 -0.1879067542717493 0.3349688947296489 -0.0005191604927348145 
0 0 0 0 
0 0 0 0 
-0.2798795466226079 -0.04604142858560577 0.6736789086977026 -0.1118422566270348 
0 0 0 0 
0 0 0 0 
0 0 0 0 
0.4335585626265039 -0.1947300868397716 -0.2424875018153559 -0.15291682101398 
0.03412498222596037 -0.01358435862027584 -0.008965759955755059 -0.0317923314584156 
0 0 0 0 
0 0 0 0 
0 0 0 0 
-0.09365406830323385 0.1298786367329418 -0.03449888915701495 -0.008206980848782594 
0 0 0 0 
0.009579199774281863 -0.008904050955383254 -0.01064679867374191 -0.00799383247291667 
0.009579199774281863 -0.008904050955383254 -0.01064679867374191 -0.00799383247291667 
0 0 0 0 
0 0 0 0 
0 0 0 0 
0 0 0 0 
0 0 0 0 
0 0 0 0 
0 0 0 0 
0 0 0 0 
0 0 0 0 
0 0 0 0 
0 0 0 0 
-0.01157914223029898 -0.380230656479686 0.3315752663931235 -0.02172956701421754 
-0.1367124788926803 -0.03297649168271236 0.2010845416732576 -0.01072732700921084 
0 0 0 0 
0 0 0 0 
0 0 0 0 
-0.1741671622949785 0.3898656660810387 -0.1820419504546201 -0.2111879172171293 
0 0 0 0 
0 0 0 0 
0 0 0 0 
0 0 0 0 
0 0 0 0 
0 0 0 0 
0 0 0 0 
0 0 0 0 
0 0 0 0 
0 0 0 0 
0 0 0 0 
0 0 0 0 
0 0 0 0 
0 0 0 0 
0 0 0 0 
0 0 0 0 
0 0 0 0 
0 0 0 0 
0 0 0 0 
-0.4271182100847993 -0.0582585354528283 0.3975229751436002 -0.02279067674046727 
-0.5871234773036901 -0.07370229564022424 0.8656287104444055 -0.03293101650313882 
-0.3230086116960271 -0.1052696320809782 0.3725942478838764 -0.0366676393513317 
0.01377068098761789 -0.001848484760147915 -0.01833373546284258 -0.001645812765835615 
0 0 0 0 
0.01320388558992412 -0.007114146353234795 -0.02371166553377628 -0.004272694469740195 
0.01320388558992412 -0.007114146353234795 -0.02371166553377628 -0.004272694469740195 
0 0 0 0 
0 0 0 0 
0 0 0 0 
-0.2034503051271168 -0.154579076792932 -0.2144011692517362 0.4385940673733926 
0.1950514212155358 -0.1363203261500479 -0.08532599609909694 -0.07048509634142855 
0 0 0 0 
0 0 0 0 
0 0 0 0 
0 0 0 0 
0 0 0 0 
0 0 0 0 
0.07521627044730457 -0.01170196889764574 -0.06803616730310397 -0.003387125847884198 
0 0 0 0 
0 0 0 0 
0 0 0 0 
0 0 0 0 
0 0 0 0 
0 0 0 0 
0 0 0 0 
0 0 0 0 
0 0 0 0 
0.06423714826322634 -0.08586727852965234 -0.03388355959904926 -0.03394503917190902 
0 0 0 0 
0 0 0 0 
0 0 0 0 
0 0 0 0 
0 0 0 0 
0 0 0 0 
0 0 0 0 
-0.005469264659867669 0.002423102579330441 -0.001400634972130932 8.751558132286932e-05 
-0.005469264659867669 0.002423102579330441 -0.001400634972130932 8.751558132286932e-05 
-0.005469264659867669 0.002423102579330441 -0.001400634972130932 8.751558132286932e-05 
0 0 0 0 
0 0 0 0 
-0.1014102481195725 0.2818646286415391 -0.02976242537390134 -0.01334300173993373 
0 0 0 0 
0 0 0 0 
0 0 0 0 
0 0 0 0 
-0.2274595779432941 0.30481080393458 -0.03986572938263005 -0.1125448460321358 
0 0 0 0 
0 0 0 0 
0 0 0 0 
0 0 0 0 
0 0 0 0 
0 0 0 0 
0 0 0 0 
0 0 0 0 
0 0 0 0 
0.1363189210415122 -0.1392597406732451 -0.04269616139811695 -0.02820540277660512 
0 0 0 0 
0 0 0 0 
0 0 0 0 
0 0 0 0 
0 0 0 0 
0.04391878572302226 -0.008130101791517639 -0.05742725640581901 -0.009549920486037663 
0 0 0 0 
0 0 0 0 
0.08693968913954368 -0.03329325350506207 -0.009786632152305255 -0.007906229158090692 
0 0 0 0 
0 0 0 0 
0 0 0 0 
0 0 0 0 
0 0 0 0 
0 0 0 0 
0 0 0 0 
0.05034703095170298 -0.005484608964852998 -0.0286379131077969 -0.01561544317773971 
0.1067181941039847 -0.07304718087387931 -0.02205891928597036 -0.01789806389482167 
0 0 0 0 
0.7801680184705673 -0.6049813203265514 -0.2412310072318602 -0.1522732940153139 
0.2030464060647206 -0.08689168590759888 -0.1350703156020664 -0.05656560275460988 
0 0 0 0 
0 0 0 0 
0 0 0 0 
0 0 0 0 
0 0 0 0 
0 0 0 0 
0 0 0 0 
0 0 0 0 
0 0 0 0 
0 0 0 0 
-0.1527491787824271 -0.0965409180979829 -0.1507716211611145 0.3429883316474024 
0 0 0 0 
0 0 0 0 
0 0 0 0 
0 0 0 0 
0.2237836256929303 -0.1455302965801183 -0.137019859118224 -0.1681458718298967 
-0.3280867095011238 0.3534426557033879 -0.0007624985276161619 -2.127356469301361e-05 
-0.3280867095011238 0.3534426557033879 -0.0007624985276161619 -2.127356469301361e-05 
-0.3280867095011238 0.3534426557033879 -0.0007624985276161619 -2.127356469301361e-05 
-0.3280867095011238 0.3534426557033879 -0.0007624985276161619 -2.127356469301361e-05 
-0.1536629011771105 -0.1531328720982497 -0.1298522097033324 0.2683414741528006 
0 0 0 0 
0 0 0 0 
0 0 0 0 
0 0 0 0 
0 0 0 0 
0 0 0 0 
0 0 0 0 
0.03340868406524122 -0.0257703736260955 -0.03249567114145675 -0.005127411658601834 
0 0 0 0 
-0.0281709980971825 0.1156777303570109 -0.04285270535938508 -0.006970885127173831 
-0.1318502830932867 -0.182884818514129 -0.09216909009152206 0.2208357713370975 
0.1275022790067029 -0.1239892723836087 -0.04901543268410415 -0.06281348456078847 
-0.09069521923023877 0.1960668907756775 -0.01128550071513375 -0.000992394394645865 
0 0 0 0 
-0.002193930455745494 0.03239503701259155 -0.02449735186799942 -0.009354652114372339 
0 0 0 0 
0 0 0 0 
0.1568071089614513 -0.07511869735247906 -0.1396015693985357 -0.09491152062779164 
0 0 0 0 
0 0 0 0 
0 0 0 0 
0 0 0 0 
0 0 0 0 
0.4741376273837697 -0.2339878241342871 -0.08478080871231088 -0.03506736519520267 
0 0 0 0 
0 0 0 0 
0 0 0 0 
0 0 0 0 
0 0 0 0 
-0.1892301780934756 -0.3168480170807734 0.4873185285584965 -0.07123984539611039 
0 0 0 0 
0.132792740746801 -0.09109695626339881 -0.09662835501870926 -0.04435140484301969 
0.1168465710232603 -0.03964629933747819 -0.003046520343851782 -0.009504161158457633 
0.1168465710232603 -0.03964629933747819 -0.003046520343851782 -0.009504161158457633 
0 0 0 0 
0.01160524976967696 -0.004382452892898568 -0.01053877036324834 -0.0003090916857005221 
0.1357405688125724 -0.2317239494300269 -0.05112973230867118 -0.0770918237266115 
0 0 0 0 
0 0 0 0 
0 0 0 0 
0 0 0 0 
0 0 0 0 
0.05577869338122027 -0.02160564986981985 -0.04550486545223381 -0.01218638269489923 
0 0 0 0 
0 0 0 0 
0 0 0 0 
0.01573882158684197 -0.01115137041706557 -0.003614368925705588 -0.0003237778212779134 
0.01573882158684197 -0.01115137041706557 -0.003614368925705588 -0.0003237778212779134 
-0.2398971839881285 -0.1078520244511754 0.4940352758861045 -0.0894695029468391 
0.04624172661649692 -0.009884149778772684 -0.04043373289147958 -0.01482405710674506 
0 0 0 0 
0 0 0 0 
0 0 0 0 
0 0 0 0 
0.2269796690715614 -0.2061130885339575 -0.04318178649053925 -0.05321516954694125 
0.0785186608374157 -0.07562012886928658 -0.01814568241668204 -0.0271743364442718 
0 0 0 0 
0.1656264595298977 -0.04104122404013869 -0.002779363038919775 -0.0001112896461180455 
0 0 0 0 
0 0 0 0 
0 0 0 0 
0 0 0 0 
0 0 0 0 
0 0 0 0 
0 0 0 0 
0 0 0 0 
0 0 0 0 
0 0 0 0 
0 0 0 0 
0 0 0 0 
0 0 0 0 
0.1469701645556999 -0.1206525226646816 -0.06588824442845494 -0.008359309647981738 
0 0 0 0 
0 0 0 0 
0 0 0 0 
0 0 0 0 
0 0 0 0 
0 0 0 0 
0 0 0 0 
0 0 0 0 
0 0 0 0 
0.08164700200239591 -0.006713829248140339 -0.04447895670617596 -0.01721341094622775 
0 0 0 0 
0 0 0 0 
-0.5154681085082934 0.3475550884545413 -0.02219761020130342 0.5458860147331351 
0 0 0 0 
0 0 0 0 
-0.03624326994263618 0.09287451623057484 -0.0003795475691399616 -2.791242000208648e-05 
-0.02412583691019535 0.07215675140362621 -0.04550607832648779 -0.002339584339369531 
-0.02412583691019535 0.07215675140362621 -0.04550607832648779 -0.002339584339369531 
0 0 0 0 
0 0 0 0 
0 0 0 0 
0 0 0 0 
0 0 0 0 
0 0 0 0 
0 0 0 0 
0 0 0 0 
0 0 0 0 
0 0 0 0 
0 0 0 0 
0 0 0 0 
0 0 0 0 
0 0 0 0 
0 0 0 0 
0 0 0 0 
0.01615022015071508 -0.006839240155933316 -0.009324069118864619 -0.003701657533405927 
0 0 0 0 
-0.5793045438590102 -0.01068408003483987 0.5390300442711374 -0.004618421097277298 
-0.3667090327395273 -0.04123953109436405 0.2635198201227482 -0.04196708985926202 
0.1509277928277219 -0.07714781405720555 -0.07039310752665737 -0.1012644985698576 
-0.1183730045090797 0.2018116876463685 -0.09002680436219017 -0.0200283701603456 
-0.4908814614228066 0.1721197220319191 0.1563167575091411 -0.04577099388209074 
-0.1183730045090797 0.2018116876463685 -0.09002680436219017 -0.0200283701603456 
0 0 0 0 
0 0 0 0 
0 0 0 0 
0 0 0 0 
0 0 0 0 
0 0 0 0 
0.0556733285478937 -0.01146929563891995 -0.02928731196985291 -0.007671359203752178 
-0.1359317588504789 0.3434644440527951 -0.0677846986152852 -0.03067652115214519 
0 0 0 0 
0 0 0 0 
0 0 0 0 
0 0 0 0 
0.1734712125280427 -0.08363435233143034 -0.06710630669676837 -0.02145902673230866 
0.1734712125280427 -0.08363435233143034 -0.06710630669676837 -0.02145902673230866 
0 0 0 0 
0 0 0 0 
0 0 0 0 
0 0 0 0 
0 0 0 0 
0 0 0 0 
0.2551977522013812 -0.1783373658960587 -0.1873243364354403 -0.2140329721071421 
0 0 0 0 
0 0 0 0 
0.1889488268936367 -0.1752888600349047 -0.05709555889457077 -0.04309078296733237 
0 0 0 0 
0 0 0 0 
0 0 0 0 
0 0 0 0 
0 0 0 0 
0 0 0 0 
0 0 0 0 
0 0 0 0 
0 0 0 0 
0 0 0 0 
0 0 0 0 
-0.1817812890745495 -0.128683642978561 0.2865691485700276 -0.03125976426117605 
0.06423714826322634 -0.08586727852965234 -0.03388355959904926 -0.03394503917190902 
0.06423714826322634 -0.08586727852965234 -0.03388355959904926 -0.03394503917190902 
0.06423714826322634 -0.08586727852965234 -0.03388355959904926 -0.03394503917190902 
0 0 0 0 
0 0 0 0 
0 0 0 0 
0 0 0 0 
0 0 0 0 
0 0 0 0 
0 0 0 0 
0.1469701645556999 -0.1206525226646816 -0.06588824442845494 -0.008359309647981738 
0.2024406476283953 -0.07657922160139219 -0.1737706407575166 -0.03688226495617581 
0 0 0 0 
0 0 0 0 
0 0 0 0 
0 0 0 0 
0 0 0 0 
0 0 0 0 
0 0 0 0 
0.06300658587160592 -0.04155188515753248 -0.01686043942060921 -0.01887196712303559 
0 0 0 0 
0 0 0 0 
0 0 0 0 
0 0 0 0 
0 0 0 0 
0 0 0 0 
0 0 0 0 
0 0 0 0 
0 0 0 0 
0 0 0 0 
0 0 0 0 
-0.03624326994263618 0.09287451623057484 -0.0003795475691399616 -2.791242000208648e-05 
-0.03624326994263618 0.09287451623057484 -0.0003795475691399616 -2.791242000208648e-05 
0.1687155931210992 0.03929736905813121 -0.1341695737358984 -0.04598733068273404 
-0.07248653988527236 0.1857490324611497 -0.0007590951382799232 -5.582484000417297e-05 
-0.03624326994263618 0.09287451623057484 -0.0003795475691399616 -2.791242000208648e-05 
-0.03624326994263618 0.09287451623057484 -0.0003795475691399616 -2.791242000208648e-05 
-0.03624326994263618 0.09287451623057484 -0.0003795475691399616 -2.791242000208648e-05 
-0.09120623162893893 -0.008976731868774807 0.1694236022774926 -0.001247649461836837 
-0.08600953288822591 -0.09847795577646319 0.4995664733626284 -0.001256150879162515 
-0.09120623162893893 -0.008976731868774807 0.1694236022774926 -0.001247649461836837 
-0.09120623162893893 -0.008976731868774807 0.1694236022774926 -0.001247649461836837 
-0.09120623162893893 -0.008976731868774807 0.1694236022774926 -0.001247649461836837 
-0.09120623162893893 -0.008976731868774807 0.1694236022774926 -0.001247649461836837 
0 0 0 0 
0.08247449440770582 -0.04819177612455156 -0.02773672970003214 -0.02386736786259603 
0 0 0 0 
0 0 0 0 
0 0 0 0 
0 0 0 0 
0 0 0 0 
0 0 0 0 
0 0 0 0 
-0.2167134883988691 -0.02592311798164868 0.2633427787854539 -0.0005893333365715452 
0.05131546000134159 -0.02793779711531989 -0.02971443390791012 -0.03275449558790457 
0 0 0 0 
0 0 0 0 
0 0 0 0 
0 0 0 0 
0 0 0 0 
0 0 0 0 
0 0 0 0 
0 0 0 0 
0 0 0 0 
0 0 0 0 
0 0 0 0 
0 0 0 0 
0 0 0 0 
0 0 0 0 
0 0 0 0 
0 0 0 0 
-0.04654414022622004 -0.280465266787001 -0.09226438433138101 0.6382437188371664 
-0.2167134883988691 -0.02592311798164868 0.2633427787854539 -0.0005893333365715452 
0 0 0 0 
0.03383612854625753 -0.1755751207314555 0.09869663783819581 -0.06340021904583988 
-0.5155247276836818 0.1280881170423103 -0.2031129372227204 0.2873346764903006 
-0.3234450367714818 0.3922180240437479 -0.04547960036324499 -0.04930021354964409 
0 0 0 0 
0 0 0 0 
0 0 0 0 
-0.1794741910999879 0.2164618064335161 -0.04318573867375844 -0.02089576975869741 
0 0 0 0 
0.1415651745104662 -0.04681079214241754 -0.02553805038554192 -0.02741398956798755 
0.1415651745104662 -0.04681079214241754 -0.02553805038554192 -0.02741398956798755 
0 0 0 0 
0 0 0 0 
0.1430087534148941 -0.09633157790374457 -0.04608721219304399 -0.01029672777675848 
0 0 0 0 
0 0 0 0 
0 0 0 0 
0 0 0 0 
0.1122569787196819 -0.03591732303739126 -0.01257961389879764 -0.0005105977188251405 
0 0 0 0 
0 0 0 0 
0 0 0 0 
0 0 0 0 
0 0 0 0 
0 0 0 0 
0 0 0 0 
0 0 0 0 
0 0 0 0 
0 0 0 0 
0 0 0 0 
-0.002193930455745494 0.03239503701259155 -0.02449735186799942 -0.009354652114372339 
-0.002193930455745494 0.03239503701259155 -0.02449735186799942 -0.009354652114372339 
-0.002193930455745494 0.03239503701259155 -0.02449735186799942 -0.009354652114372339 
0 0 0 0 
0 0 0 0 
0 0 0 0 
0 0 0 0 
0 0 0 0 
0 0 0 0 
0 0 0 0 
0 0 0 0 
0.1503545401077875 -0.1018380434216895 -0.08803133935058827 -0.06093557993404276 
0.1503545401077875 -0.1018380434216895 -0.08803133935058827 -0.06093557993404276 
0.1503545401077875 -0.1018380434216895 -0.08803133935058827 -0.06093557993404276 
0 0 0 0 
0.2261440632750265 -0.0888497829548513 -0.1384292748297613 -0.1046516244177418 
0 0 0 0 
0 0 0 0 
0 0 0 0 
0 0 0 0 
0 0 0 0 
0 0 0 0 
0 0 0 0 
0 0 0 0 
0.0860946029830246 -0.07752504518251792 -0.1027054981419152 -0.08554938394398179 
0.1067181941039847 -0.07304718087387931 -0.02205891928597036 -0.01789806389482167 
0 0 0 0 
0.4538452511456866 -0.2887632292787764 -0.410522003580912 -0.2034683092218064 
0.009655944133708991 -0.03560963299225418 -0.007050214913006858 -0.01198810588682362 
0.0134645557210702 -0.006063080068177166 -0.04018138098698938 -0.003888296730326892 
0.01510201775246397 -0.03295784683190812 -0.001624068691760585 -0.001158613477649411 
0.01510201775246397 -0.03295784683190812 -0.001624068691760585 -0.001158613477649411 
0.09364163383866399 -0.1110738304010325 -0.02316488987978236 -0.01444687451519402 
0 0 0 0 
0 0 0 0 
0 0 0 0 
0 0 0 0 
0.08836817509996107 -0.01346408525532187 -0.0887049249386604 -0.00291999505073071 
-0.643142359750277 0.5497665744657926 0.08634851586966025 -0.1130028483909579 
-0.2369671260192887 -0.126683969417755 -0.1416931593703376 0.3630588951979876 
-0.2369671260192887 -0.126683969417755 -0.1416931593703376 0.3630588951979876 
0 0 0 0 
0.008907758007477094 -0.007380345862848786 -0.0006542903696021731 -0.0002035052861755306 
0 0 0 0 
0.1503993513130643 -0.1510845253885522 -0.1134084477277038 -0.02831374058733768 
0 0 0 0 
0 0 0 0 
0 0 0 0 
0 0 0 0 
0 0 0 0 
0 0 0 0 
0 0 0 0 
0 0 0 0 
0 0 0 0 
0 0 0 0 
0 0 0 0 
0 0 0 0 
0 0 0 0 
0 0 0 0 
0 0 0 0 
0 0 0 0 
0 0 0 0 
0 0 0 0 
0.1922017114003993 -0.08205265347766504 -0.04414764754268666 -0.006800879601725506 
0.1922017114003993 -0.08205265347766504 -0.04414764754268666 -0.006800879601725506 
0 0 0 0 
-0.05244041092272056 0.07272333581324883 -0.06099745781730685 -0.04334239835818009 
0 0 0 0 
0 0 0 0 
0 0 0 0 
0 0 0 0 
0 0 0 0 
0 0 0 0 
0 0 0 0 
0.1067181941039847 -0.07304718087387931 -0.02205891928597036 -0.01789806389482167 
0 0 0 0 
0 0 0 0 
-0.1143118018380245 0.1499039213431501 -0.02735940722683852 -0.009039990146981272 
0 0 0 0 
-0.3192224625672461 -0.009102864697762001 0.3997857458805411 -0.06324177462187083 
0 0 0 0 
0 0 0 0 
0 0 0 0 
0 0 0 0 
0 0 0 0 
0 0 0 0 
0 0 0 0 
0 0 0 0 
0 0 0 0 
0 0 0 0 
0.2689156036837511 -0.2400393502989051 -0.08712859212168038 -0.1033106762952949 
0 0 0 0 
-0.1542554441410832 0.261654530572668 -0.07802853870774414 -0.2149984908242681 
0 0 0 0 
0 0 0 0 
0 0 0 0 
0 0 0 0 
0 0 0 0 
0 0 0 0 
0 0 0 0 
0 0 0 0 
-0.1405351369532707 -0.1304916161814618 0.2587470570824745 -0.03470477049933685 
0 0 0 0 
0 0 0 0 
0.1430087534148941 -0.09633157790374457 -0.04608721219304399 -0.01029672777675848 
0 0 0 0 
0 0 0 0 
0 0 0 0 
0 0 0 0 
0 0 0 0 
0 0 0 0 
0 0 0 0 
0 0 0 0 
0 0 0 0 
0 0 0 0 
0 0 0 0 
0.07109875652737846 -0.02827553846038281 -0.07250614848335024 -0.02071771172298756 
0.07109875652737846 -0.02827553846038281 -0.07250614848335024 -0.02071771172298756 
0.07109875652737846 -0.02827553846038281 -0.07250614848335024 -0.02071771172298756 
-0.3725084569137269 -0.02969196561444943 0.2463435618713313 -0.02574262372174515 
-0.3725084569137269 -0.02969196561444943 0.2463435618713313 -0.02574262372174515 
-0.227983088520294 0.1857402320238956 -0.03376778610748861 -0.01941434998853466 
0 0 0 0 
0 0 0 0 
0 0 0 0 
0 0 0 0 
0 0 0 0 
0 0 0 0 
0.2273752886285051 -0.1397006654744584 -0.003969771502541916 -0.01506926023544037 
0 0 0 0 
0 0 0 0 
-0.3229689572704409 -0.3615743310938796 0.53684789002027 -0.2191400379346311 
0 0 0 0 
0 0 0 0 
0 0 0 0 
0 0 0 0 
0 0 0 0 
0.04810316300979629 -0.0553514400486065 -0.003669817475727869 -0.002790465866276585 
0 0 0 0 
0 0 0 0 
0 0 0 0 
0 0 0 0 
0 0 0 0 
0 0 0 0 
0 0 0 0 
0 0 0 0 
0 0 0 0 
-0.1920796909122001 -0.2641299070014376 -0.1576333368594754 0.3366348900399447 
-0.1920796909122001 -0.2641299070014376 -0.1576333368594754 0.3366348900399447 
0 0 0 0 
0 0 0 0 
0 0 0 0 
0 0 0 0 
-0.09887007886316296 -0.233020908830429 0.4459255075918216 -0.01102294743329888 
0 0 0 0 
0 0 0 0 
0 0 0 0 
0 0 0 0 
0 0 0 0 
0 0 0 0 
0 0 0 0 
0 0 0 0 
0 0 0 0 
0 0 0 0 
0 0 0 0 
0 0 0 0 
0 0 0 0 
0 0 0 0 
0 0 0 0 
0 0 0 0 
0 0 0 0 
0.07170120827525973 -0.009961110207165176 -0.06468050257093437 -0.03745827854912187 
0.04685946990706688 -0.08248714817598894 -0.007204689251808608 -0.0137634975159527 
0 0 0 0 
0 0 0 0 
0 0 0 0 
0 0 0 0 
0 0 0 0 
0 0 0 0 
0.1093510534982842 -0.06553491771907173 -0.01636429005202757 -0.01265657711531461 
0 0 0 0 
0 0 0 0 
0 0 0 0 
0 0 0 0 
0 0 0 0 
0 0 0 0 
0 0 0 0 
0.1259208449005478 -0.134137657021184 -0.05247670721645008 -0.05261061926478377 
0.1045415990791973 -0.1223470440857921 -0.04102877340674365 -0.04987365487599093 
0 0 0 0 
0 0 0 0 
-0.3290483642517439 -0.0314575698663081 -0.1071636946797604 0.5141421917184734 
-0.2982338828337637 0.2608255447625992 -0.1026459025551394 -0.1383814136646795 
0 0 0 0 
0 0 0 0 
0 0 0 0 
0 0 0 0 
0 0 0 0 
0.1892044344517184 -0.1134183275993392 -0.01234960032312906 -0.007967766626071888 
0 0 0 0 
0 0 0 0 
0 0 0 0 
0 0 0 0 
0 0 0 0 
0 0 0 0 
0 0 0 0 
0 0 0 0 
0 0 0 0 
-0.1206724754801328 0.3859409682634904 -0.08581452679624672 -0.04033009999978184 
-0.1206724754801328 0.3859409682634904 -0.08581452679624672 -0.04033009999978184 
-0.1206724754801328 0.3859409682634904 -0.08581452679624672 -0.04033009999978184 
0 0 0 0 
0 0 0 0 
0.0556733285478937 -0.01146929563891995 -0.02928731196985291 -0.007671359203752178 
0.0556733285478937 -0.01146929563891995 -0.02928731196985291 -0.007671359203752178 
0.0556733285478937 -0.01146929563891995 -0.02928731196985291 -0.007671359203752178 
0.2607994050091338 -0.3026955877436314 -0.03978883069016598 -0.04726457878260822 
0 0 0 0 
-0.04715774230566861 -0.05618777967895764 0.2211423679757877 -0.006024519792690863 
-0.09483070373608347 0.1868069748525169 -0.1088598870093609 -0.0287349639528315 
0 0 0 0 
0 0 0 0 
0 0 0 0 
0 0 0 0 
0 0 0 0 
0 0 0 0 
0 0 0 0 
0 0 0 0 
0 0 0 0 
0 0 0 0 
0 0 0 0 
0 0 0 0 
0 0 0 0 
0 0 0 0 
0 0 0 0 
0 0 0 0 
0 0 0 0 
0 0 0 0 
0.04465162554999299 -0.07409550677087504 -0.009148186808162267 -0.009143255557621773 
0.04465162554999299 -0.07409550677087504 -0.009148186808162267 -0.009143255557621773 
0.04465162554999299 -0.07409550677087504 -0.009148186808162267 -0.009143255557621773 
0 0 0 0 
0.1460638367542258 -0.07936296600495635 -0.05656447177142859 -0.06064036544657081 
0 0 0 0 
0 0 0 0 
0 0 0 0 
0 0 0 0 
-0.1014102481195725 0.2818646286415391 -0.02976242537390134 -0.01334300173993373 
-0.1014102481195725 0.2818646286415391 -0.02976242537390134 -0.01334300173993373 
0 0 0 0 
0 0 0 0 
0 0 0 0 
-0.1734192750896576 0.2873316693083222 -0.1344939097864353 -0.06892915892724853 
0 0 0 0 
0 0 0 0 
-0.0007372216536153508 -0.0002742918121491317 -0.001228547207834975 -0.007587773593110483 
-0.0315369058802608 -0.184946143210629 0.09946830222757445 -0.01632533108179104 
0 0 0 0 
0 0 0 0 
0 0 0 0 
0.02834222902598578 -0.005253932131264806 -0.00200496725237309 -8.995900439627685e-05 
0 0 0 0 
0 0 0 0 
0 0 0 0 
0 0 0 0 
0 0 0 0 
0 0 0 0 
0 0 0 0 
0 0 0 0 
-0.1386260213975403 -0.02723437312278781 0.4566578014910989 -0.01287730415146438 
-0.1600052672188908 -0.01544376018739594 0.4681057353008053 -0.01014033976267155 
0 0 0 0 
0 0 0 0 
0 0 0 0 
0 0 0 0 
0 0 0 0 
0 0 0 0 
0 0 0 0 
0 0 0 0 
0 0 0 0 
0 0 0 0 
0 0 0 0 
0 0 0 0 
0 0 0 0 
0.2695508005223761 -0.3005282045759808 -0.0400165242274519 -0.04718412985091475 
0 0 0 0 
0 0 0 0 
0 0 0 0 
0 0 0 0 
0.01254796057466185 0.1813280382894734 -0.1088697674525857 -0.05377270774287919 
0 0 0 0 
0 0 0 0 
0.05131546000134159 -0.02793779711531989 -0.02971443390791012 -0.03275449558790457 
0 0 0 0 
0 0 0 0 
-0.1600052672188908 -0.01544376018739594 0.4681057353008053 -0.01014033976267155 
-0.05510358922886524 -0.08808457298923691 0.441186988258741 -0.01075830728060875 
-0.1600052672188908 -0.01544376018739594 0.4681057353008053 -0.01014033976267155 
0 0 0 0 
0 0 0 0 
0 0 0 0 
0 0 0 0 
0 0 0 0 
-0.177544705305994 -0.1021072930610447 0.3924639849197778 -0.04884212923648533 
0.01166047074239772 -0.005976502353287537 -0.003397940805955856 -0.001498666993217615 
0 0 0 0 
0.05636654170412236 -0.01659324798282416 -0.0246065497220615 -0.002974685362238625 
0 0 0 0 
0 0 0 0 
0 0 0 0 
-0.1655461696215134 -0.03742913754943031 -0.01785458155469236 0.4393236275735058 
0 0 0 0 
0 0 0 0 
0 0 0 0 
0 0 0 0 
0 0 0 0 
0 0 0 0 
0 0 0 0 
0 0 0 0 
0 0 0 0 
0 0 0 0 
0.5622949849363176 -0.3382963854254786 -0.343315240507684 -0.1787302582380672 
0.1568071089614513 -0.07511869735247906 -0.1396015693985357 -0.09491152062779164 
0.02897908996578349 -0.02332502494353715 -0.03674314389772596 -0.01691318794542088 
