solver_type L2R_LR
nr_class 4
label 1 0 3 2
nr_feature 3617
bias -1
w
0.03064195144517964 -0.04440551716425603 -0.01453715581100208 -0.003881797307777738 
-0.3130380804492735 0.2089860913426929 -0.9075311833770935 -0.3913768486537245 
0.3286022515835884 -0.06413445205896424 -0.2368561515387002 -0.07697794116034755 
0 0 0 0 
0.4794292107439061 -0.4082995986421976 -0.436900319462917 -0.5651367536570179 
0.8713260121774586 -0.6371603256134413 -0.828045698409401 -0.5099374813149483 
0 0 0 0 
0.903844972782363 -0.7670449659590414 -0.5113084840712346 -0.4706924433733808 
0 0 0 0 
-0.03195035407958906 0.02203104516411494 -0.002884475351046844 -0.001825128409552051 
0.3381810626250306 -0.2485744530562359 -0.2298240446182698 -0.2220923427288504 
0 0 0 0 
0 0 0 0 
-0.1940433776034588 -0.3048816051035053 0.754021492131524 0.08553591962339967 
0.01950795100795055 -0.08594118344459943 0.09680514634099743 -0.174528106189746 
0.2053432347199915 -0.2418166802886084 -0.02253633994501726 -0.04157400872200584 
0.8614675398989637 -0.7274000826609214 -0.2512609555136748 -0.2317920444495314 
0.396847790701391 -0.2399972183920906 -0.1671933118034711 -0.1048380422363483 
0.2040860169498406 -0.1818817988129067 -0.1225008292953728 -0.1054010396432873 
0.2906343989905708 -0.1482473132815855 -0.3787538267503597 -0.2108122068896335 
0.0648435680853157 -0.1945610848632892 -0.6073307759195354 -1.114139695880318 
-1.030193024635303 1.413783928128104 -0.8637816240376386 -0.3497004929666404 
-0.07242848798753115 0.188545177392886 -0.1874505362416512 -0.170087883702992 
0 0 0 0 
0.4400753135197185 -0.2013843443229873 -0.3576071878682407 -0.6183242980352412 
0 0 0 0 
0 0 0 0 
-1.006238291130497 1.077425713982438 -0.6696734036206647 -0.4231671622473665 
0 0 0 0 
0 0 0 0 
-0.1437716949708049 0.2019351883201871 -0.07096573758798501 -0.07496248737613637 
0.1809291668087027 0.1413993607580754 -0.8459517224703921 -0.6645711317517347 
-0.3498573872365996 0.6759110922099212 -0.612370309967927 -0.3881769297056963 
0 0 0 0 
0 0 0 0 
-0.3950647758849543 0.375172348907732 -0.2891873398916162 -0.5929110847862128 
0 0 0 0 
0 0 0 0 
0 0 0 0 
-0.2370449714438806 0.173709877872511 -0.4841438554894346 -0.7646882600344402 
-0.187642684573281 0.03342812421660675 0.2532324463006989 -0.1018205457302107 
0.2824847130492919 -0.2921779583852162 0.136947113730721 -0.09844904386945846 
-0.5290078790540105 0.270466407609432 0.2815542129743142 -0.1097894919842935 
-0.5674514938573533 0.1832875561500133 0.5761809573750102 -0.8671555553980714 
-0.1577588878591198 0.4636586638207851 -0.8758409421304826 -0.5686798537026685 
0.07376197108939467 0.01800128625347073 -0.4801191419535098 -0.5411319541806535 
0.02059455759465145 -0.3181932203467854 0.2016496704449617 0.3003310270609896 
0.7204640898179475 -0.91687333496599 -0.05260755914270011 -0.6230953375229087 
-0.2609849845385174 0.3230371561453005 -0.05733961803842792 -0.04981919791389895 
0 0 0 0 
0 0 0 0 
0 0 0 0 
-0.5396212695119662 0.4289469982554525 -0.1003848578218254 -0.0518438178163884 
0.62767405640273 -0.5206156369610957 -0.53507660035416 -0.4255515145088136 
0 0 0 0 
0 0 0 0 
-0.01248447072534099 0.01190098591017733 -0.307626965680352 -0.2876368461691571 
0.3323304137431698 -0.127087814889391 -0.07579167814488132 -0.360112937898136 
-0.1095652358129518 -0.2200848520923694 0.114561510499297 -0.08036414820602984 
0.3440405214063214 -0.4696289191890846 -0.1140383963362282 -0.4583372222903143 
-0.02872464334954299 0.03213511044969089 -0.00275171367118837 -0.003033899803889662 
-0.0962579875513388 -0.2358012552383235 -0.1545225803055483 -0.09591758297019204 
-0.6881950067460367 0.5979007773606865 -0.06173222726003264 -0.5530542099812813 
-0.1927189951574175 0.1151425299910626 0.08284215392570721 -0.07107451085692851 
0.09187086370320038 0.03857828815962218 -0.4815577691262101 -0.7652813036324501 
-0.02475543815200665 0.115846052309331 -0.3441876825858514 -0.1036463453536242 
-0.01087466561235144 0.0002022973938077361 -0.167762001427973 -0.3528911094034475 
0 0 0 0 
0.2392130890400881 -0.2502755577675198 -0.05346502849505957 -0.02460429814703444 
-0.2694859984814671 -0.1967249640541519 0.03459814722663239 -0.1694283967938152 
0 0 0 0 
-1.018928773207822 0.7835859372690638 0.06511383690180576 -0.5738991057964322 
0.1979358324274129 -0.2520067318285075 -0.03670580268294465 -0.1584149743029166 
-0.1922510880812003 0.4848958893706227 -0.5369394837686274 -0.2773471414417135 
0.3715109225087531 -0.6442547895541868 -0.1323708074764107 -0.598462549284924 
0 0 0 0 
0.5214131335291342 -0.5039267179323584 -0.01376849810679304 -0.01133096526903137 
0 0 0 0 
0 0 0 0 
0.1040649979764131 -0.002017042563301091 -0.01777411778657152 -0.007685503792689301 
-0.03201051116211934 0.008287803676485173 -9.34179212068027e-05 -0.0001971413336848335 
-0.01547859277824791 0.1282960286920882 -0.1026344885710497 -0.1237281537621547 
0 0 0 0 
0.3477970636453933 -0.2196865530209751 -0.0382409706658417 -0.01715755263707144 
0.04873447264104921 -0.04641807986446656 -0.006160534242149833 -0.004369955070891907 
0.2565751080388474 -0.4322210398181466 -0.1900536094930206 0.06978834503284324 
-0.02896640677063094 0.03337228253316606 -0.1704897374060226 -0.1886434027898292 
-0.311707666290565 0.4931927238561097 -0.2369429678948384 -0.2428658505386372 
0 0 0 0 
-0.2189695220789576 0.2984796765231603 -0.06512011294997631 -0.02704926593338458 
0.07668373438285896 -0.04916911888487907 -0.05474308802164237 -0.01155028771221583 
0.04154400120251948 0.08185824387115165 -0.2113662045630077 -0.0808575234675151 
-0.2574167581282579 0.1604923511543632 0.2507277509368186 -0.09052732317244008 
-0.1447360907227409 0.2146061963167308 -0.1123359854136323 -0.07800077598452829 
0 0 0 0 
0 0 0 0 
0 0 0 0 
0 0 0 0 
0.1447947186692394 -0.08034905592840152 -0.1461935510142392 -0.04566206112633248 
0.02209326173851023 0.1544909306218452 -0.3581658897463162 -0.4111667491345868 
0 0 0 0 
-0.08726590453284643 0.08639800348346452 -0.003428552867522667 -0.0001109490623233302 
0 0 0 0 
0.2505122813228267 -0.3443941733922412 -0.06215375932100377 -0.09998118424695211 
0.0691101948296305 -0.3392100924058998 -0.4389435812216066 0.2287994642294119 
-0.1838895395715873 0.1816623929799483 -0.1383014803262008 -0.06153194859046685 
0 0 0 0 
-0.01272989467163959 0.009809475522242426 -0.005605748124296476 -0.001130388344678541 
0 0 0 0 
0 0 0 0 
0 0 0 0 
0 0 0 0 
0 0 0 0 
0.2804579578796452 -0.1132205993369567 -0.1887367793450794 -0.3039296269102856 
0 0 0 0 
0 0 0 0 
0.09276228840546209 -0.07925810082059019 -0.008383488590099776 -0.003883254803673763 
-0.2978169219516603 -0.1459681006288202 -0.1413306028067336 0.5819037803200823 
0 0 0 0 
-0.5190297174758708 -0.09188754690154101 0.1566019998834262 0.2661701340844205 
0.1829076519660941 -0.08946119351682538 -0.08448747254638206 -0.08481435771790345 
-0.08329129214082784 0.168464577232018 -0.33958671284912 -0.07019355480254186 
-0.01875407276938608 0.02583909224151325 -0.001285930600358475 -0.001569614963350816 
-0.274309651604153 -0.01110024025848503 -0.04770303406789526 0.3816922182345473 
0.4215647426337074 -0.6492023251526239 -0.6837121884190057 -0.2107283755686923 
0 0 0 0 
0 0 0 0 
-0.080116869589863 0.1825725616261505 -0.1149516007231574 -0.07056779049256985 
0.07349732352748356 0.1821616185538587 -0.3551642428761685 -0.1225592642678149 
0 0 0 0 
-0.1292097433618092 0.1341756717031652 -0.001463282539569807 -0.001078535972185814 
-0.1041966885354602 -0.1557859819450683 -0.1165825338592509 0.1581176442406443 
0 0 0 0 
-0.06366015153124789 0.2001001013116487 -0.04284726796721403 -0.1033228086257735 
0 0 0 0 
-0.02872464334954299 0.03213511044969089 -0.00275171367118837 -0.003033899803889662 
-0.02799656066264844 -0.1464078815755494 0.1971726869493031 -0.219949852175553 
-0.06449156919517923 0.3698569679321981 -0.2689959875824728 -0.06679457622875891 
0 0 0 0 
-0.001648396862565251 -0.01552466336394888 -0.01958532456108595 -0.0264516718043693 
-0.06100821212009522 0.09392091051687408 -0.08543441215037141 -0.06242428580352726 
-0.0390592595571946 0.08300993430068736 -0.06887072728196253 -0.02455238465086531 
-0.01511325083275105 0.00745163213887975 -7.509626015938668e-05 -6.450831271278249e-05 
0 0 0 0 
0 0 0 0 
-0.588468725499258 0.7611166516558522 -0.19681609596798 -0.07958516772517563 
-0.196040863416265 0.2227668616076464 -0.1761829566787995 -0.06698819521439918 
0 0 0 0 
0 0 0 0 
0 0 0 0 
0 0 0 0 
0 0 0 0 
0 0 0 0 
-0.06679532276004693 0.3649218592868832 -0.6704392841011769 -0.4123756988945947 
-0.1294056549956498 0.1972572293546713 -0.03806561837365021 -0.07135713813779744 
0.2602967491726872 -0.1781555603264035 -0.1765334061217294 -0.06680866409858049 
0 0 0 0 
-0.3006862064389995 0.2391938978043664 -0.1185105361301817 -0.09141400328482896 
0 0 0 0 
0 0 0 0 
0 0 0 0 
0.3645064254522476 -0.4094084606808046 0.1826323658720691 -0.04703903440960348 
-0.02194691428974609 0.1588930720244479 -0.1250813722813273 -0.2095632022717801 
-0.4362433301332004 0.5098359640145443 -0.0339078062915766 -0.01158714248161044 
-0.5324025130741961 0.08276312270130637 0.01678041450398817 0.06120174547522023 
0 0 0 0 
0 0 0 0 
0 0 0 0 
-0.0980344799709864 -0.4119340167677196 0.007319298519279495 0.5074415852672284 
0 0 0 0 
0.07869233022966449 -0.005070121071304569 -0.4139406035458781 -0.5076038068977839 
0.3246241740556966 -0.1861403104876315 -0.08953464649978937 -0.06962721678616607 
-0.004073297407047441 -0.0287875972714767 0.000340180683267817 6.989741916159776e-05 
0 0 0 0 
0 0 0 0 
0 0 0 0 
0 0 0 0 
0.1886257328220799 -0.1653063216651478 -0.01255260951940731 -0.005126884371372987 
-0.05221419139514406 0.06522329807338446 -0.0337347753866241 -0.01590080754654686 
-0.1259567515823535 0.168909926658234 -0.00707385757431111 -0.003774315272161325 
0 0 0 0 
0.3875978818740581 -0.3985347119876282 -0.1358154999441175 -0.1951438520183441 
-0.139852190465355 0.2177169621008241 -0.1815798691379885 -0.3551212876582115 
-0.3459999772695213 0.1209738894924669 0.01433612001612697 -0.08386334977414715 
-0.4831990335134227 0.5595730170665472 -0.6265033678743989 -1.210398803952096 
0.04733609132591468 0.06329831301094663 -0.2697331403662781 -0.06470463507200544 
0.0549634101479298 -0.1735358776348428 0.02397563355195349 -0.2520784965534699 
0 0 0 0 
0.107909700281673 -0.4203731534945196 -0.2727609313445787 -0.1626574417071491 
-0.09285285454531508 0.09066636710928608 -0.07913552796026634 -0.03473090774243035 
-0.02003996283752424 0.02193930824902504 -0.004685029918335413 -0.00351617390437979 
0 0 0 0 
0 0 0 0 
0 0 0 0 
0 0 0 0 
0.007907195092670148 -0.003704200547741969 -0.003606780810138283 -0.0003672462875746388 
0.005114161319491897 0.02275068441835958 -0.003818209873467086 -0.0003485043683704924 
0 0 0 0 
0 0 0 0 
0 0 0 0 
0 0 0 0 
0 0 0 0 
0 0 0 0 
0 0 0 0 
0 0 0 0 
0 0 0 0 
0.0460301980768284 -0.1536440518894074 -0.2894216286019568 -0.1103998674635802 
0.267623893538283 0.1269352888601004 -0.5418590829344008 -0.3103499356659533 
0.3262419008191055 -0.2720423450414793 -0.09869767040516123 -0.07907985286010415 
0.03094107289415107 0.1020953320323041 -0.1235228277220396 -0.04314680591174527 
-0.1780888750585574 0.2312498915325066 -0.1011785826091261 -0.1106432350262173 
0.437983118830672 -0.2520558286241929 -0.1503448562206869 -0.1624938568561967 
0 0 0 0 
0.6967505236690229 -0.3854807858579669 -0.2034538774572595 -0.1809231137997393 
-0.2526833079319996 0.2598693670930992 -0.1008997493806557 -0.09403394043109389 
-0.101558587728178 -0.1629482481497814 0.1906650951148546 -0.1299040953557221 
0.1005641665155058 -0.03216256316959958 -0.04520719603386848 -0.01963628552396728 
0 0 0 0 
0 0 0 0 
0 0 0 0 
-0.04265085916753877 0.1957863192781358 -0.3102051275217061 -0.154591630349396 
0.5697585184819393 -0.5801211638784827 -0.01896143151914804 -0.182069670583728 
0 0 0 0 
0 0 0 0 
0 0 0 0 
0.1524785187145273 -0.1488724513500159 -0.1882718587144119 -0.1320800992785033 
-0.1393240821809491 -0.05172331293816267 0.3997895648099213 -0.003440079348240228 
-0.06001453360558247 0.2899427052638055 -0.03185742354781165 -0.2591899512505427 
0.3604043429096301 -0.2064985980769026 -0.259917384277872 -0.1570995575846313 
-0.5375043569420176 0.5124178492955987 -0.7156196684134219 -0.7603071341201033 
0.1805052155698108 -0.1271865777542375 -0.07897527622106916 -0.04716151274179204 
0 0 0 0 
0 0 0 0 
0 0 0 0 
0.1887120489798135 -0.0773000671829365 -0.07702810699671263 -0.08184902687830614 
0.1035437603906526 -0.3197806765971764 0.158617677550074 -0.1012847477882042 
-0.13710276139824 0.1511674238462858 -0.02222882883183906 -0.04010814544474142 
0 0 0 0 
-0.18543050187335 0.187847962319087 -0.262846962390965 -0.07741150096860989 
-0.3786588451161103 0.0622204624827376 0.5134586163962485 -0.001265413094110349 
-0.4134056126438159 0.5969986954909544 -0.2395504285761716 -0.2317203232764655 
0.1423142696953636 0.04982460759608744 -1.046230541536223 -0.4582820463113793 
-0.576791208590568 0.7210613854774744 -0.1593959834984361 -0.1655421563884927 
-0.1633574135446498 -0.3398244932170094 -1.166279664524512 -0.2884018978188897 
0.007035554467001236 0.001993465030691845 -0.002119211973322088 -7.823928621061122e-05 
-0.4072884103503187 0.5253782305646872 -0.07121754558631181 -0.04118393802000735 
0 0 0 0 
0 0 0 0 
0 0 0 0 
0.01188509766199217 0.06528622609632348 -0.04444354751906551 -0.07669911926144531 
0 0 0 0 
0 0 0 0 
-0.2002428239970791 0.206720846489291 -0.02612504104066017 -0.003184142961649001 
0 0 0 0 
0 0 0 0 
0 0 0 0 
0 0 0 0 
-0.3919110865022943 0.1169144782004239 0.08881541773573225 -0.1669771691324904 
0 0 0 0 
0 0 0 0 
0 0 0 0 
0 0 0 0 
-0.02003996283752424 0.02193930824902504 -0.004685029918335413 -0.00351617390437979 
-0.104883645986672 0.1548944759795765 -0.03723010874807442 -0.01753090295611423 
-0.4762189425857896 0.4960342259454427 -0.1445788957877258 -0.05054121031360537 
0 0 0 0 
-0.06048091450257752 0.04750460566749203 -0.05698836497672984 -0.02162877189678182 
0.01767922744894099 -0.005634854022814047 -0.3793266761247893 -0.381117812571805 
-0.5862053844535595 0.5467139721296748 -0.3576525221778791 -0.4612324202471483 
0.0846775830168497 -0.03232863820286601 -0.05041261950872675 -0.03251675802815131 
-0.3977798091327198 0.5097423651054797 -0.1126409825649814 -0.07481792369630119 
0.2872143439534968 -0.4085863944272181 -0.1441276835715793 -0.3231445527340617 
-0.6704659882248069 0.1515236656527196 0.2411945860205184 -0.387705531059708 
-0.2181027342154608 0.2933351924981906 -0.06502204895795349 -0.02654700727550298 
0.3205508766486492 -0.2149279077591082 -0.08919446581652156 -0.06955731936700446 
-0.2574152801479405 -0.505667711417609 0.4918574652938623 -0.4983505152652474 
-0.1400234363819137 -0.056053842901326 -0.07930554293298295 0.1077127350062086 
0 0 0 0 
0 0 0 0 
0 0 0 0 
0 0 0 0 
0 0 0 0 
0 0 0 0 
0.06116547819467529 -0.0162518371766622 -0.08055328138534795 -0.0427057679637873 
-0.4295604279952628 0.4333469381425842 -0.08845573456611854 -0.05554458612302952 
-0.3462902258819096 0.2865516257741585 -0.02188787371939099 -0.006610951560601831 
0 0 0 0 
0 0 0 0 
0.2947632224609631 -0.06845982037707615 -0.3131776135438584 -0.2313136672062474 
0 0 0 0 
0.1296684238472904 -0.102676784632289 -0.02029329595421406 -0.03067221322102709 
0.1388980277873033 -0.1085912725552624 -0.00652121392275695 -0.005472525118596961 
0 0 0 0 
0 0 0 0 
0 0 0 0 
0 0 0 0 
0.3909822821215685 -0.2038750078580857 -0.1239459868478536 -0.2853104609273852 
-0.07679111079156949 0.09354592278370742 -0.004847270027557277 -0.002949403102903285 
0.2366794810383959 -0.2072725036833323 -0.1802767105466765 -0.1091697846126891 
-0.4289524699853573 0.4631003257173555 -0.1750871286546671 -0.2419882728355219 
-0.06457405111411409 -0.01636951225399286 -0.003815345441504779 -0.01266117870209378 
-0.1252984859313928 0.07603101124104625 -0.002651176098630413 -0.003943764320666244 
-0.0871193725540146 0.1099968256470162 -0.1143820780508793 -0.01711892529770204 
-0.06264924296569641 0.03801550562052312 -0.001325588049315207 -0.001971882160333122 
-0.3699352806766958 0.3868934472434591 -0.2803583137706023 -0.2732283479590359 
0 0 0 0 
0 0 0 0 
0 0 0 0 
0 0 0 0 
0 0 0 0 
-0.4052730697887073 0.5543042883610928 -0.2990845466543864 -0.1753193144889796 
0 0 0 0 
0 0 0 0 
-0.09379329652623099 0.123771581399755 -0.01850868317658633 -0.006600453655771754 
0 0 0 0 
0 0 0 0 
-0.1097419925246183 0.01841861891360363 0.3768122337163774 -0.004957470401018491 
-0.1546211104281011 -0.2559190843147568 0.7459550857979066 -0.01865613405235628 
0 0 0 0 
-0.3171079799349278 0.333053688057782 -0.07886172902213245 -0.09354677124055336 
-0.2301277090000519 0.2645552798741823 -0.05856784144668958 -0.05985127392430967 
-0.1207792874906038 -0.0872217949023263 0.4043901481087699 -0.002101290580249266 
0 0 0 0 
-0.2223818066522645 -0.09692870889542379 0.2366891608084643 -0.008867616506218708 
0.1562571888903257 -0.1228436650841145 -0.07714515150758167 -0.0615113846141861 
0 0 0 0 
0 0 0 0 
-0.1245360165960417 0.2008539902064531 -0.2043955751081835 -0.1643239570206 
0 0 0 0 
0 0 0 0 
-0.1138098401798659 0.1465298503186451 -0.02584403691591454 -0.01702980771427931 
-0.07933259117774903 0.1606373043224217 -0.07020520430054716 -0.03182123597203116 
0.06031749341406915 0.1568394820189646 -0.1091304286899077 -0.04586740794316849 
-0.2484590410619494 0.2828598083617745 -0.2417239785107022 -0.202109504259362 
0 0 0 0 
-0.08329129214082784 0.168464577232018 -0.33958671284912 -0.07019355480254186 
0 0 0 0 
-0.5887046320732311 -0.4111726227252174 0.9115182550342582 -0.03400915078628096 
0.03259162364489681 0.02678860791224597 -0.2169574935203313 -0.2031985973640959 
0 0 0 0 
0 0 0 0 
0 0 0 0 
0.2285203089964856 -0.2296316564501072 -0.03581907957111435 -0.02948544470081288 
-0.2753964227114663 0.4336308571090651 -0.1147619377843241 -0.08995217790273205 
-0.08864822111109666 0.1569539243831837 -0.1036014844864953 -0.0328456766092682 
0.3059405578503164 -0.2960607157951176 -0.01652402430298618 -0.02290305538422165 
0 0 0 0 
0.1012291900784625 -0.06562431014042772 -0.009131640393517952 -0.008131021137852032 
-0.09712651090409163 -0.2550494359987741 0.3008333124003806 -0.02627104740548563 
0.04506776489932499 -0.0064903406630064 -0.04318377461639826 -0.01394507071401498 
0.000117205067261851 0.01482425435776289 -0.0008320105936293839 4.051306556886842e-06 
0.1882989600297076 -0.05441212140264892 -0.05606707399870826 -0.03460214957640426 
0 0 0 0 
0.01172362200202183 -2.031989051460605e-05 -0.3223017121706341 -0.1130986016313422 
0 0 0 0 
-0.2308410329529495 0.1955836688154851 -0.06735537518375129 -0.03000368615151806 
0 0 0 0 
0 0 0 0 
0.4755167018369996 -0.2937973409672417 -0.3325345873004005 -0.2572719202000511 
0 0 0 0 
0 0 0 0 
0 0 0 0 
-0.1407238387633216 0.1812083189929958 -0.01988484657918445 -0.01077988589832257 
-0.6933671844190773 0.6274829012415871 -0.4860455947667494 -0.03371642731908765 
-0.1766879627681075 0.06655052764252385 -0.09558300494804961 0.3574349100340116 
-0.388354802547435 0.4095138976611641 -0.3780180834110499 -0.3033528379559375 
0 0 0 0 
0 0 0 0 
-0.13710276139824 0.1511674238462858 -0.02222882883183906 -0.04010814544474142 
-0.1020767742096593 0.2279892739186484 -0.2259979049151637 -0.182589776152298 
-0.1549785399374891 -0.1114046414842118 0.2656660857533017 -0.03900133933912936 
-0.02248484027396234 0.04681292920237033 -0.01885261795785205 -0.00144224745478072 
-0.06949139102387064 0.04055437939107517 -0.03196589359688148 -0.008516873241922768 
-0.01396128063834324 0.05524881381288566 -0.01390366075963222 -0.001446758673593753 
-0.05001207679045775 0.06379585958946121 -0.009795160785375094 -0.008783537640842536 
0 0 0 0 
0 0 0 0 
0 0 0 0 
0 0 0 0 
-0.6296779511265982 -0.2633355289615467 0.04798674705997572 0.4842876701440588 
0.5046605531638125 -0.3745672010720876 -0.08608364190618781 -0.2854683373310969 
0.3838653680632312 -0.1523324751965912 -0.3717750169892846 -0.1307706768925227 
0 0 0 0 
0 0 0 0 
-0.2126602781849048 0.3093363468692955 -0.2362922978544593 -0.1828986527517859 
0 0 0 0 
-0.09880092058123352 0.08575089345927943 -0.1030803976859722 -0.03426592205773496 
0.09182089158404459 -0.0209015719232688 -0.03834280603706822 -0.02318147484898049 
0 0 0 0 
-0.1784417926410104 -0.05527652271089076 0.2648500553973694 -0.03902389363509369 
0 0 0 0 
0.1346577818344049 -0.101244492075857 -0.02047034696424088 -0.005760254556327948 
0 0 0 0 
-0.07430106662113313 -0.5114104172498715 0.6485822723723788 -0.002381795511340463 
-0.06943718720574382 0.09896510200456082 -0.0119879854914063 -0.02238063899138354 
0.05194038356883274 0.03453910128323673 -0.1256805340602813 -0.0903399169631614 
0.5165834809964911 -0.4938269035056475 -0.03799937405253894 -0.0671789748292029 
0 0 0 0 
0 0 0 0 
0 0 0 0 
0.1003624022149658 -0.06047982611545796 -0.009229704385540782 -0.008633279795733631 
0.3072510915000649 -0.2923888817844059 -0.1203291678604513 -0.1401178187394984 
0 0 0 0 
0.6836021515235636 -0.573135108885349 -0.07845393412699325 -0.08178781772459659 
-0.3883379314100427 0.5556938147113254 -0.1680414203514719 -0.1766529737172846 
0.2770570527545096 -0.1627796062360881 -0.3207182163265433 -0.1369669438062493 
0 0 0 0 
0.3075365461631965 -0.03637173912667644 -0.1352022154788099 -0.06404341305666782 
0 0 0 0 
0 0 0 0 
-0.22864882662569 0.138333667594563 -0.0574675273989057 -0.04618620635114111 
-0.3679643830107936 0.3415805151168194 -0.08958030303143959 0.09085874255955047 
0 0 0 0 
0.1228464631816243 -0.2314531218603014 -0.05292530036083649 -0.0974573943475719 
-0.006564881853876432 0.01164850783068643 -0.007117189445899398 5.177587276860153e-06 
0.09121722318093509 -0.1201892088690022 -0.01977930924345356 -0.004730002197130332 
0 0 0 0 
0 0 0 0 
0.1900902306436121 -0.1285124150771649 0.02421660615478131 -0.3099101806201316 
-0.0006485501877740487 -0.006040727708848844 -0.0899538278381071 -0.06696188034794252 
0 0 0 0 
0.2711505325175823 -0.2186018877523447 -0.03743280059850369 -0.003694940494368445 
0 0 0 0 
0 0 0 0 
-0.1855376909314322 0.2826793046089925 -0.03005828863102568 -0.04140785420999207 
0 0 0 0 
0 0 0 0 
0 0 0 0 
0 0 0 0 
-0.1545464960768442 0.1172812447158769 -0.01937730765491819 -0.04796616055627057 
0.2002390985876051 -0.183472078326657 -0.02952920037968437 -0.05581542690509764 
0 0 0 0 
0 0 0 0 
0.2044583110282502 -0.1959238778279626 -0.05732766857842535 -0.06310483208025802 
0 0 0 0 
0 0 0 0 
0 0 0 0 
-0.07996274259168126 0.05023695518727342 -0.01145908342313015 -0.003375898116209472 
0 0 0 0 
0 0 0 0 
0 0 0 0 
0 0 0 0 
0 0 0 0 
0 0 0 0 
0.05313837326189762 0.00136780361831258 -0.0130172933282307 -0.01143923540351782 
0.4876344315743224 -0.364913229473632 -0.1571827343782455 -0.1315049233182407 
0 0 0 0 
0 0 0 0 
0 0 0 0 
0 0 0 0 
-0.2051691238624641 -0.3233964112516537 0.3997123325398794 0.2706548769534054 
-0.02009989937770738 0.02036101248843349 -0.002094783682456431 -0.001539867559381206 
0 0 0 0 
0 0 0 0 
-0.09325601663383695 0.1747286317577896 -0.02287760867491324 -0.07940229538894364 
0 0 0 0 
0 0 0 0 
0 0 0 0 
-0.1868317382023702 -0.1178152950895523 -0.05453780349410021 0.2338556312162405 
0 0 0 0 
0 0 0 0 
0.214197433004937 -0.1687149889070418 -0.05211209040750348 -0.05525115173601407 
-0.08726590453284643 0.08639800348346452 -0.003428552867522667 -0.0001109490623233302 
-1.148461196157076 1.262951892363012 0.1659924822094834 -0.3369785598482238 
0.08073925446042766 -0.05802141581077191 -0.05981946076981517 -0.02761449961956667 
0 0 0 0 
0 0 0 0 
0 0 0 0 
0.006890358926514985 0.01993585208689727 -0.1329881880589543 -0.1152288540138539 
0 0 0 0 
0 0 0 0 
-0.2369377107570381 0.3068575959529347 -0.0386462329866321 -0.1452302755079171 
-0.06461715894571833 0.1053250501438344 -0.0007005524393417098 3.295169176029914e-05 
0.2261290712858575 -0.5196721323531792 0.5397933574641948 -0.07537885624825497 
0 0 0 0 
-0.5352269120839719 0.5332347130477146 -0.0685708968485596 -0.1166696345635706 
-0.2002428239970791 0.206720846489291 -0.02612504104066017 -0.003184142961649001 
0.08916777411603979 -0.3837455531270927 -0.1206913737627717 0.190236254995315 
0 0 0 0 
0 0 0 0 
0 0 0 0 
0 0 0 0 
0 0 0 0 
0.1342306999950788 -0.1245895593626262 -0.002111269514267882 -0.002528967486657062 
0 0 0 0 
0 0 0 0 
0 0 0 0 
-0.0002815375114426149 0.001740320575152988 6.012869949144481e-05 3.426483916577549e-06 
0 0 0 0 
0 0 0 0 
0 0 0 0 
0.1012291900784625 -0.06562431014042772 -0.009131640393517952 -0.008131021137852032 
-0.2118649191161812 0.2114299995351198 -0.03628563769816902 -0.02458413268022576 
0 0 0 0 
0 0 0 0 
0 0 0 0 
1.229532404166373 -0.981333898022043 -0.5947057595048469 -0.5580629504460363 
0 0 0 0 
0 0 0 0 
0 0 0 0 
0.08060437325490377 -0.2098978812894996 -0.006561804192389709 -0.0181346886996816 
0 0 0 0 
0 0 0 0 
0 0 0 0 
0 0 0 0 
0 0 0 0 
0 0 0 0 
0 0 0 0 
0 0 0 0 
-0.08020990624502441 0.1005190993716155 -0.03288713623179777 -0.0454727803905061 
-0.1108435007496025 0.1614582945193542 -0.006998761314151724 -0.003709806959448543 
-0.09297853542323974 0.1624793887275309 -0.02164472323915373 -0.0009777225722190147 
0.5005588961826326 -0.4443329664936199 -0.1546515848604765 -0.1343955321339201 
-0.2717697737536286 0.2783627160616654 -0.01125144587118659 -0.02751241555613754 
0 0 0 0 
0.3265712447457658 -0.1440102219336189 -0.09665103013232956 -0.1100259635128485 
0 0 0 0 
0.1785471301600524 -0.5268393250547015 0.2160961517307411 -0.1338449172451687 
-0.006692444068179287 0.01576883745485801 -0.001129276390021658 -0.001560286962268422 
0 0 0 0 
-0.1161900217417942 0.1652347649058808 -0.01053572279373837 -0.02890445745196807 
-0.3250869278495195 0.07359403548412523 0.1004518942993945 -0.2435243458013996 
0 0 0 0 
0 0 0 0 
0 0 0 0 
0 0 0 0 
0 0 0 0 
0 0 0 0 
0 0 0 0 
0.298398754694111 -0.2540339998121608 -0.1149872269350323 -0.1462040368232713 
-0.3032682926965018 0.2904454960649722 -0.06588793675435325 -0.02955627051497731 
-0.2906569816124311 0.2773235994209186 -0.04870065727697782 -0.02925367327975698 
0.1253429668634357 -0.1153439556435758 -0.02997716916403077 -0.01866594609610291 
0.2504109996193165 -0.2483070209516148 -0.06572011456141552 -0.05551907943602082 
0 0 0 0 
0 0 0 0 
0 0 0 0 
-0.1968906185717745 0.1958394752203318 -0.02399142558652627 -0.06747977568047964 
0 0 0 0 
0.03253787046422488 -0.005680045368916239 -0.03362930963832687 -0.009534303166793297 
0 0 0 0 
0 0 0 0 
-0.1968636850862001 0.1535520180211636 -0.03019197410039149 -0.02265321962398523 
0 0 0 0 
0 0 0 0 
0 0 0 0 
0 0 0 0 
0.2403089172064526 -0.1268703777279686 -0.02082477988844991 -0.006445702351658439 
0.006196884376166852 0.2760080678347127 -0.3221318292191649 -0.2158656335083952 
-0.1691278470920354 -0.1375391921397572 -0.05163036041118993 0.2361185099709614 
-0.01286215305982467 0.01585490699215151 -0.007321125368215898 -0.002927831471501136 
0.4430581560879545 -0.3364627335384187 -0.04917988851990122 -0.0478317122183658 
0 0 0 0 
0 0 0 0 
0 0 0 0 
-0.4264652701597871 0.5192262340931886 -0.04667995479375962 -0.1033725570559738 
0.2558127499672163 -0.03850191442750043 -0.6543089050013926 -0.4860736826580508 
-0.03299495023284807 0.05291912417825678 -0.1020772405972328 -0.08392718354324169 
-0.09297853542323974 0.1624793887275309 -0.02164472323915373 -0.0009777225722190147 
0.1067656759211129 0.04937394690645625 -0.1477030951016384 -0.1028018604730419 
-0.09297853542323974 0.1624793887275309 -0.02164472323915373 -0.0009777225722190147 
-0.09297853542323974 0.1624793887275309 -0.02164472323915373 -0.0009777225722190147 
0.05307298191531259 0.0229162060408172 -0.0611676886287387 -0.05887457460777491 
-0.09297853542323974 0.1624793887275309 -0.02164472323915373 -0.0009777225722190147 
-0.09297853542323974 0.1624793887275309 -0.02164472323915373 -0.0009777225722190147 
0.6523151646668586 -0.5251610533682385 -0.3341148668570945 -0.1506235489535845 
0 0 0 0 
0 0 0 0 
-0.4381988625161802 -0.09022453349072013 0.5964928806369008 -0.07511814431989761 
0 0 0 0 
0 0 0 0 
0 0 0 0 
0.1757843146599954 -0.1828989622731233 -0.004434128778435233 -0.007823591811933095 
-0.1004132779937365 0.1334152371369638 -0.003305409486559806 -0.009995118109889276 
0 0 0 0 
-0.1972772237613462 0.1721103664592602 -0.0170122870447836 -0.04452620911304237 
0 0 0 0 
0 0 0 0 
0 0 0 0 
-0.2048715582128809 0.2744164736021604 -0.03144264860342407 -0.06039825781495568 
0 0 0 0 
0 0 0 0 
0.200046321247792 -0.08987319753970216 -0.03374294995157536 -0.001531694872471432 
0.05516806044910946 -0.04791088894160673 -0.1544964943720443 -0.07402889310170377 
0 0 0 0 
0 0 0 0 
0 0 0 0 
0.0767100778661378 -0.06617330668756986 -0.007673612316111802 -0.008073593634505973 
-0.02324600248159478 0.02956073515090811 -0.01147862399668006 -0.0113077995453156 
0 0 0 0 
0 0 0 0 
0 0 0 0 
-0.06308638407980185 0.2153179077410911 0.1454096241414596 -0.2027012186336215 
0 0 0 0 
0.1792061248026163 -0.1529446286046898 -0.03300788646382768 -0.06834649033051295 
-0.3610664714798423 0.4045659224216197 -0.1043240746776053 -0.06638963530576357 
0.5049742796034595 -0.3228268833887761 -0.118445182316467 -0.03381121863625975 
0.2872427623889558 -0.334597649760181 -0.001173783308493605 -0.0002803169186175549 
0 0 0 0 
0 0 0 0 
0 0 0 0 
0.4695550239011058 -0.4500520393130927 -0.001302814525158963 5.711463452899709e-05 
0 0 0 0 
0 0 0 0 
0 0 0 0 
0.3255493959712841 -0.1889949034059376 -0.1444566832667601 -0.1290014666391889 
0 0 0 0 
0.1490835952885503 -0.06332931557460737 -0.04911696576963705 -0.01582352796256519 
0 0 0 0 
0 0 0 0 
0.04873447264104921 -0.04641807986446656 -0.006160534242149833 -0.004369955070891907 
-0.3080593530287145 0.2608606887584787 -0.1900301542529909 -0.1423687212840492 
0 0 0 0 
-0.2002428239970791 0.206720846489291 -0.02612504104066017 -0.003184142961649001 
0.105626719695471 -0.04352554986672328 -0.00134963341821812 -0.0001287524011970235 
0 0 0 0 
0 0 0 0 
0 0 0 0 
0 0 0 0 
0.000117205067261851 0.01482425435776289 -0.0008320105936293839 4.051306556886842e-06 
0.000117205067261851 0.01482425435776289 -0.0008320105936293839 4.051306556886842e-06 
0.000117205067261851 0.01482425435776289 -0.0008320105936293839 4.051306556886842e-06 
0.1703760198069595 -0.1827145116142853 -0.03302812040978172 -0.01527946354318503 
-0.9808045078891713 -0.08955902910504158 1.103503339964019 -0.1622068463871921 
0.000117205067261851 0.01482425435776289 -0.0008320105936293839 4.051306556886842e-06 
0.000117205067261851 0.01482425435776289 -0.0008320105936293839 4.051306556886842e-06 
0.3691378758892982 -0.3508673597170844 -0.05697959990626673 -0.01452874605977875 
-0.04724046267787347 0.03898702792008529 -0.07332849486563121 -0.0136862832114045 
-0.1200691118068643 0.1133547360909083 -0.06730429140319698 -0.02441847412114804 
-0.1108435007496025 0.1614582945193542 -0.006998761314151724 -0.003709806959448543 
0 0 0 0 
-0.01473565335663458 -0.1440707830769009 0.1341211548885183 -0.2412810456061139 
0.2438788082652567 -0.8172803600718725 0.8844148532641618 -0.2236703509444588 
-0.5887046320732311 -0.4111726227252174 0.9115182550342582 -0.03400915078628096 
0 0 0 0 
0 0 0 0 
-0.2289873237212897 0.2463915487675293 -0.04652525818184873 -0.0214974751400803 
-0.01627004734397577 0.1185687350304453 -0.06620419367661627 -0.01437082211588059 
-0.1191081192589173 0.09045542922622786 -0.01433251750486931 -0.04693915900990313 
0.773225679321291 -0.6298558181118801 -0.08140018731623667 -0.03797870099089651 
0 0 0 0 
0 0 0 0 
0 0 0 0 
-0.004073297407047441 -0.0287875972714767 0.000340180683267817 6.989741916159776e-05 
0.2563537965350498 -0.1562887888955394 -0.02585523543816296 -0.03725887499631973 
0 0 0 0 
0 0 0 0 
0 0 0 0 
0 0 0 0 
-0.04309752233675869 0.0272297332424463 -0.08115675981228862 -0.08527669883490142 
0 0 0 0 
0 0 0 0 
0 0 0 0 
0 0 0 0 
0.1353193252565427 -0.159064213520089 -0.03679324033076164 -0.05573859620071632 
0 0 0 0 
-0.006599895233845784 0.03160950121474577 -0.001354867622379606 1.483800776728257e-05 
0 0 0 0 
0 0 0 0 
-0.1519478055464573 0.2805252707898876 -0.1013226038407231 -0.00928038758318178 
0 0 0 0 
-0.2967928807944198 -0.377585331474896 -0.08844906225565875 0.5733956056676998 
0 0 0 0 
0 0 0 0 
0 0 0 0 
0 0 0 0 
0 0 0 0 
-0.2325054789524061 0.2710260653923551 -0.03777868224979877 -0.02687215386280743 
0 0 0 0 
0 0 0 0 
0 0 0 0 
0 0 0 0 
0 0 0 0 
0 0 0 0 
-0.2183130264760127 0.191186068395099 -0.04832634820260619 -0.01606901295288433 
0 0 0 0 
0.02153372107725822 -0.2421571517357509 0.2082814719389501 -0.1171759111436983 
0 0 0 0 
0 0 0 0 
0 0 0 0 
0 0 0 0 
0 0 0 0 
-0.3560989925595952 -0.02071661524419033 0.6487657303836514 -0.002445710788266226 
-0.03223530155753969 0.02696619241605292 -0.007629544268731731 -0.002989401507924966 
0 0 0 0 
0 0 0 0 
0 0 0 0 
0 0 0 0 
0 0 0 0 
0 0 0 0 
0 0 0 0 
0.1182531495965383 -0.2569059614107655 0.1924660106012112 -0.0866654789396563 
0 0 0 0 
-0.0302265016655021 0.0149032642777595 -0.0001501925203187734 -0.000129016625425565 
-0.01511325083275105 0.00745163213887975 -7.509626015938668e-05 -6.450831271278249e-05 
0 0 0 0 
0 0 0 0 
-0.09379329652623099 0.123771581399755 -0.01850868317658633 -0.006600453655771754 
0 0 0 0 
0 0 0 0 
0 0 0 0 
0 0 0 0 
0 0 0 0 
0 0 0 0 
-0.1166514581880516 0.1476346288940255 -0.1434433336465085 -0.05690926148873512 
-0.4506242256730312 0.502773955537503 -0.04299880022100386 -0.05237538784843279 
0 0 0 0 
0.2069356352189981 -0.189773288007153 -0.04342153820115193 -0.01202934068728392 
0.2684791302349385 -0.2848347473511381 -0.009580830797553536 -0.003299135831390322 
0 0 0 0 
0 0 0 0 
0 0 0 0 
0 0 0 0 
0 0 0 0 
0 0 0 0 
0 0 0 0 
-0.0208647123760958 0.01666160173075851 -0.001620028610053649 -0.0002368032962277991 
0 0 0 0 
0.1867043595529047 -0.1801739446428793 -0.02332465308173826 -0.01057283722204607 
0 0 0 0 
0 0 0 0 
0 0 0 0 
0 0 0 0 
0 0 0 0 
0 0 0 0 
0.105626719695471 -0.04352554986672328 -0.00134963341821812 -0.0001287524011970235 
0 0 0 0 
1.217098467003178 -1.015255878125541 -0.2017472941886944 -0.211894226409693 
0 0 0 0 
0 0 0 0 
0 0 0 0 
0 0 0 0 
0 0 0 0 
0 0 0 0 
0.2958587505068945 -0.3108536339099634 -0.02446044176818337 -0.03451361611333831 
0 0 0 0 
-0.5153409945555986 -0.4339150991540688 0.7332029180027809 -0.2579043061481482 
0 0 0 0 
0 0 0 0 
0 0 0 0 
0 0 0 0 
0 0 0 0 
0 0 0 0 
0 0 0 0 
0 0 0 0 
0 0 0 0 
0 0 0 0 
0 0 0 0 
0 0 0 0 
0 0 0 0 
0.06505126490157206 0.002648265511545441 -0.02099384839355577 -0.03063926152926679 
0.09282426547604609 -0.1235350894750695 -0.007582346242193159 -0.01834438095716639 
0.0767100778661378 -0.06617330668756986 -0.007673612316111802 -0.008073593634505973 
0.3575640131276605 -0.2411596949837214 -0.0694689767990634 -0.1716341823304773 
0 0 0 0 
0.07185093837418388 -0.02555281145678983 -0.009787514172066926 -0.02519436918402801 
0 0 0 0 
-0.1242331635090223 -0.6115303696474629 -0.4825011916052628 0.9325069669286481 
0 0 0 0 
-0.2272958132566906 0.2068425355562181 -0.04665195687029162 -0.02726229436660761 
0 0 0 0 
-0.466827608956502 0.4662454193744711 -0.1541767546362898 -0.2036936086178336 
0 0 0 0 
0 0 0 0 
0 0 0 0 
0.1089930937614305 -0.07890188140118937 -0.01011712793613681 -0.002250932058458744 
0 0 0 0 
0 0 0 0 
0 0 0 0 
0 0 0 0 
0 0 0 0 
0 0 0 0 
0.2116210107363141 -0.1840644774858733 -0.02646301140225091 -0.003819441967518467 
0 0 0 0 
0 0 0 0 
-0.3124903053210582 0.2462122899085133 -0.05155957248902711 -0.01664854398025144 
-0.2118649191161812 0.2114299995351198 -0.03628563769816902 -0.02458413268022576 
0 0 0 0 
-0.1632375120108983 0.1354399578934007 -0.08270344882581228 -0.02350639821117936 
-0.1942108709920562 0.1409727583472831 -0.06697080899046624 -0.008546478882526277 
0.1152088240831704 0.1244836481539546 -0.05744988153234123 -0.04417018112391006 
-0.06580855175754452 0.02136747405432551 -0.02637493572240104 -0.01092218101905782 
0 0 0 0 
-0.04482477482445409 -0.1342190121638148 0.2371224889253308 -0.1009836844976532 
0 0 0 0 
0 0 0 0 
0 0 0 0 
0 0 0 0 
0 0 0 0 
0 0 0 0 
0 0 0 0 
0 0 0 0 
-0.1124438696565118 0.2854629746598851 -0.06185354434713744 -0.05055895685382834 
0 0 0 0 
0 0 0 0 
0 0 0 0 
0.1886257328220799 -0.1653063216651478 -0.01255260951940731 -0.005126884371372987 
-0.004073297407047441 -0.0287875972714767 0.000340180683267817 6.989741916159776e-05 
0 0 0 0 
0 0 0 0 
0 0 0 0 
0 0 0 0 
0 0 0 0 
0 0 0 0 
-0.1882570778332547 0.2788119492215527 -0.1490015472875172 -0.2407302644195719 
0 0 0 0 
0 0 0 0 
0 0 0 0 
-0.00598706120076329 0.008486173950640084 -0.0004254807922815794 -5.643762458192313e-05 
0 0 0 0 
0 0 0 0 
0 0 0 0 
-0.04843492953319214 0.1315118807627066 -0.00782945979918662 -0.001299708765250643 
0 0 0 0 
0 0 0 0 
0 0 0 0 
-0.06943718720574382 0.09896510200456082 -0.0119879854914063 -0.02238063899138354 
0 0 0 0 
0 0 0 0 
0.1530483246005449 -0.1608859896768791 -0.06188997231924008 -0.04638250380270493 
0 0 0 0 
0 0 0 0 
0 0 0 0 
-0.4983686196854864 0.3924142873853754 -0.07860411716949188 -0.03487524481386501 
0 0 0 0 
0 0 0 0 
0 0 0 0 
0 0 0 0 
0 0 0 0 
0 0 0 0 
0 0 0 0 
0 0 0 0 
0 0 0 0 
0 0 0 0 
0 0 0 0 
0 0 0 0 
0.2726327520992367 -0.04618838696832336 -0.1549813574601147 -0.009150248641078629 
0 0 0 0 
0.214197433004937 -0.1687149889070418 -0.05211209040750348 -0.05525115173601407 
0 0 0 0 
0 0 0 0 
-0.1968636850862001 0.1535520180211636 -0.03019197410039149 -0.02265321962398523 
0 0 0 0 
0 0 0 0 
0 0 0 0 
0 0 0 0 
0 0 0 0 
0 0 0 0 
0.09227117566510927 -0.03463217181623172 -0.04108444948420652 -0.04161161814535619 
0 0 0 0 
-0.2800555932094737 0.2012282189902765 -0.0302777689668857 -0.01880623186098068 
-0.1876199099856323 0.2717829277275976 -0.1044925039425911 -0.04078783122593891 
0 0 0 0 
0 0 0 0 
0 0 0 0 
0 0 0 0 
0 0 0 0 
0 0 0 0 
0 0 0 0 
0 0 0 0 
-0.01396128063834324 0.05524881381288566 -0.01390366075963222 -0.001446758673593753 
0 0 0 0 
0.2584417568992511 -0.2122703690982661 -0.04139334977981512 -0.04170342481915192 
0 0 0 0 
0 0 0 0 
0 0 0 0 
0.174301851389893 -0.2298085258377237 -0.01281405508397446 -0.003878666858757429 
0 0 0 0 
-0.002514339613731586 -0.04111990703249171 -0.05298274927828518 -0.02859669282726077 
0 0 0 0 
0 0 0 0 
0 0 0 0 
0 0 0 0 
0 0 0 0 
0 0 0 0 
0 0 0 0 
0 0 0 0 
-0.1175669111403449 0.09001300362757836 -0.01613236050439851 -0.0470327264337134 
-0.1176629962695861 0.08807160259034873 -0.01467953873320833 -0.04701871292355841 
0 0 0 0 
0 0 0 0 
0 0 0 0 
0 0 0 0 
0 0 0 0 
0 0 0 0 
0 0 0 0 
0 0 0 0 
0 0 0 0 
0 0 0 0 
0 0 0 0 
0 0 0 0 
0 0 0 0 
0 0 0 0 
0 0 0 0 
0 0 0 0 
0 0 0 0 
0 0 0 0 
0.0767100778661378 -0.06617330668756986 -0.007673612316111802 -0.008073593634505973 
0 0 0 0 
-0.2526833079319996 0.2598693670930992 -0.1008997493806557 -0.09403394043109389 
0.5267372952484229 -0.4128174051745545 -0.3488411572581051 -0.3702581462496718 
0 0 0 0 
0 0 0 0 
0.214197433004937 -0.1687149889070418 -0.05211209040750348 -0.05525115173601407 
0.214197433004937 -0.1687149889070418 -0.05211209040750348 -0.05525115173601407 
0.214197433004937 -0.1687149889070418 -0.05211209040750348 -0.05525115173601407 
0 0 0 0 
0 0 0 0 
0 0 0 0 
-0.5266726973152083 -0.03113834606994165 -0.03691231733007662 0.7748551917844638 
0 0 0 0 
0.2574863789687882 -0.1884679752245422 -0.08627679190109962 -0.06964240575203813 
0 0 0 0 
0 0 0 0 
0 0 0 0 
0 0 0 0 
0 0 0 0 
0 0 0 0 
0 0 0 0 
-0.1691278470920354 -0.1375391921397572 -0.05163036041118993 0.2361185099709614 
0 0 0 0 
0 0 0 0 
0 0 0 0 
0 0 0 0 
0 0 0 0 
-0.481806249339336 0.6139939851395103 -0.5377713948493102 -0.3388897459182872 
0 0 0 0 
0 0 0 0 
-0.3040869240482601 0.3003884583399255 -0.05149922689784889 -0.03021169746951089 
0 0 0 0 
0 0 0 0 
0 0 0 0 
0 0 0 0 
0 0 0 0 
0 0 0 0 
0 0 0 0 
0 0 0 0 
0 0 0 0 
0.1529216574175769 -0.07465221791800482 -0.1304486284466238 -0.05485189856596972 
0 0 0 0 
0 0 0 0 
0.08395684076639365 -0.01654207207626722 -0.003368415387982224 -0.006555537214241564 
0 0 0 0 
-0.06854766439952567 -0.2462007737830693 -0.11420805689168 0.3884435063263669 
0 0 0 0 
-0.1941847918395088 0.283431435558284 -0.1116096933884905 -0.04078265363866205 
0.5521411125113113 -0.4519930439785343 -0.1088254717015609 -0.1051350238706621 
0 0 0 0 
0 0 0 0 
0 0 0 0 
0 0 0 0 
0 0 0 0 
0 0 0 0 
0 0 0 0 
0 0 0 0 
0 0 0 0 
0.1850126774036506 -0.1197953033573759 -0.1497366402644171 -0.08868458584117901 
0 0 0 0 
0 0 0 0 
0 0 0 0 
0.2563537965350498 -0.1562887888955394 -0.02585523543816296 -0.03725887499631973 
-0.1458826447978165 -0.01900803537691211 0.4840331725114565 -0.04212314598755529 
0 0 0 0 
0.2918383846353175 -0.2265079184903019 -0.06040913942366198 -0.02638499422101627 
0 0 0 0 
0 0 0 0 
0 0 0 0 
0 0 0 0 
0 0 0 0 
0 0 0 0 
0.3530471561389744 -0.2793151668158952 -0.08355801843593566 -0.01429172493225665 
0 0 0 0 
0.148472616973192 -0.03339045356367236 -0.08292237823788115 -0.000994426701526648 
0 0 0 0 
0 0 0 0 
0 0 0 0 
0 0 0 0 
-0.07112680646390923 0.03254156907384303 -0.01317948623542144 -0.01439289149068812 
0 0 0 0 
0 0 0 0 
0 0 0 0 
-0.1840284655119498 0.1799845682281803 -0.01667030021831037 -0.0645519442089785 
0 0 0 0 
0 0 0 0 
0 0 0 0 
0 0 0 0 
0 0 0 0 
0 0 0 0 
0 0 0 0 
-0.3729662346669666 -0.1097532552220037 0.3066461828797129 -0.0251592190017686 
0 0 0 0 
-0.06943718720574382 0.09896510200456082 -0.0119879854914063 -0.02238063899138354 
0 0 0 0 
-0.01520766504610314 0.0256056146906489 -0.009670661562739385 -0.001682843757331265 
0 0 0 0 
0 0 0 0 
0 0 0 0 
0 0 0 0 
0 0 0 0 
0 0 0 0 
0.01839466533265737 0.08196771761835865 -0.2587258101013709 -0.1316772852957891 
0 0 0 0 
0 0 0 0 
0.1253429668634357 -0.1153439556435758 -0.02997716916403077 -0.01866594609610291 
0.1124808138036111 -0.09948904865142426 -0.03729829453224667 -0.02159377756760405 
0 0 0 0 
0.09595187570704361 -0.04708334225593318 -0.006879697742528086 -0.009040125723976078 
0 0 0 0 
0 0 0 0 
-0.007057756046105222 0.02801603332604038 0.0001382401814535405 3.749936809616637e-05 
-0.2029553203948637 0.2516240064812016 -0.107076898158683 -0.1607383898194082 
-0.2029553203948637 0.2516240064812016 -0.107076898158683 -0.1607383898194082 
0 0 0 0 
0 0 0 0 
0 0 0 0 
0 0 0 0 
0 0 0 0 
0 0 0 0 
-0.00180312331529532 0.00241183255180508 -0.007871130496785733 -0.00259038051662362 
0 0 0 0 
0 0 0 0 
0 0 0 0 
0.09924161661211275 -0.04888980262958678 -0.0103747693862206 -0.002310504976699638 
-0.3764050399270011 -0.03344651550908154 0.2880181117673009 -0.05769017464532458 
0 0 0 0 
0 0 0 0 
0 0 0 0 
0 0 0 0 
-0.01601052245931368 0.2257190971547466 -0.16710083674438 -0.3056580503075362 
-0.1562543908290674 -0.05064200953584773 -0.08117437862089003 0.1074997339788199 
0 0 0 0 
0.1886257328220799 -0.1653063216651478 -0.01255260951940731 -0.005126884371372987 
0 0 0 0 
0 0 0 0 
0 0 0 0 
0 0 0 0 
0 0 0 0 
0 0 0 0 
0 0 0 0 
0 0 0 0 
0 0 0 0 
-0.3053686387483072 0.3797331959816551 -0.06845060182547616 -0.02665795633782631 
0 0 0 0 
0 0 0 0 
-0.1059742430599725 -0.1512164203538129 -0.06825921479949247 0.291030916787903 
-0.1059742430599725 -0.1512164203538129 -0.06825921479949247 0.291030916787903 
0 0 0 0 
0 0 0 0 
-0.006596358938938077 0.01771023849208764 -0.002582098161211841 -0.001574300472423402 
0 0 0 0 
0 0 0 0 
0 0 0 0 
0 0 0 0 
-0.1968636850862001 0.1535520180211636 -0.03019197410039149 -0.02265321962398523 
0 0 0 0 
0 0 0 0 
0 0 0 0 
0 0 0 0 
0 0 0 0 
0.002693721103212532 -0.001996045445562193 0.0003958816315373331 9.70722863370614e-05 
0 0 0 0 
0 0 0 0 
0 0 0 0 
0 0 0 0 
0 0 0 0 
0 0 0 0 
0.1505917609693925 -0.2323243123894659 0.3285527053431702 -0.006054717081395722 
0.1439483517233925 -0.02783365378167595 -0.0396302060029108 -0.006072401803102066 
-0.3477891872985855 0.3052194885100979 -0.1881375010557523 -0.2223840466936797 
0.06379187352132701 0.3224104791753968 -0.4566296543192057 -0.2442637805612531 
-0.02873851691797712 0.03552198301979358 -0.0006664709515354186 -0.0002238989723381604 
0 0 0 0 
0 0 0 0 
0 0 0 0 
-0.291301351338542 0.2454643536320701 -0.1749663697269496 -0.2196348409804494 
0 0 0 0 
0 0 0 0 
0 0 0 0 
0.1927269870482179 -0.2203238432319503 -0.02726320692248749 -0.006385253986829454 
0 0 0 0 
0 0 0 0 
0 0 0 0 
0.1098572237491125 -0.1340367952378882 -0.004739179667062446 -0.007945300002914799 
0 0 0 0 
0 0 0 0 
0 0 0 0 
0 0 0 0 
0 0 0 0 
0 0 0 0 
0 0 0 0 
0 0 0 0 
-0.05296266096192046 0.03097529740105248 -0.008021554354326884 -0.0034555077495435 
-0.01623095444715365 0.005411833365478272 -0.001868835687907089 -0.0002130010273886935 
-0.01623095444715365 0.005411833365478272 -0.001868835687907089 -0.0002130010273886935 
0 0 0 0 
0 0 0 0 
0 0 0 0 
0 0 0 0 
0 0 0 0 
0 0 0 0 
0 0 0 0 
-0.06968970183293756 0.2559788582481863 -0.1171913176739671 -0.1365788697066972 
0.1005694153432789 -0.08281966810350652 -0.1464337201958598 -0.109577408526516 
0.02585134988158543 0.004308248913565014 -0.03332643136397959 -0.02070531427433779 
0 0 0 0 
0 0 0 0 
0 0 0 0 
0 0 0 0 
0 0 0 0 
0 0 0 0 
0 0 0 0 
0 0 0 0 
0 0 0 0 
0 0 0 0 
0 0 0 0 
0 0 0 0 
0 0 0 0 
0 0 0 0 
0 0 0 0 
0 0 0 0 
0 0 0 0 
0 0 0 0 
0 0 0 0 
0 0 0 0 
0 0 0 0 
0 0 0 0 
0 0 0 0 
0 0 0 0 
0 0 0 0 
0 0 0 0 
0.1439863235048284 -0.05712955394190637 -0.01497801271334172 -0.004311320875416554 
0 0 0 0 
0.5221384515006039 -0.6661230418827616 -0.429942470962572 -0.1414179213087759 
0 0 0 0 
-0.09297184227903206 0.25126371445602 -0.006691691491042486 6.694857673521411e-07 
0 0 0 0 
0 0 0 0 
0 0 0 0 
-0.006599895233845784 0.03160950121474577 -0.001354867622379606 1.483800776728257e-05 
0 0 0 0 
0 0 0 0 
-0.1292097433618092 0.1341756717031652 -0.001463282539569807 -0.001078535972185814 
0.06944033346378606 -0.1905821364585453 0.2794076427756383 -0.01227353549786665 
0 0 0 0 
0 0 0 0 
0 0 0 0 
0.05587134158316886 -0.08049109562398005 -0.05350542952148304 -0.02178463095439474 
0 0 0 0 
0 0 0 0 
0 0 0 0 
0 0 0 0 
-0.2002428239970791 0.206720846489291 -0.02612504104066017 -0.003184142961649001 
0 0 0 0 
-0.1351457549516354 0.1741449532891802 -0.0065685072389984 -0.00770788737349745 
-0.1351457549516354 0.1741449532891802 -0.0065685072389984 -0.00770788737349745 
0 0 0 0 
0 0 0 0 
0 0 0 0 
0 0 0 0 
0 0 0 0 
0 0 0 0 
0 0 0 0 
0 0 0 0 
0 0 0 0 
-0.7038510918034301 0.779129347513081 -0.1366536083777372 -0.0339516739511255 
-0.7038510918034301 0.779129347513081 -0.1366536083777372 -0.0339516739511255 
0 0 0 0 
0 0 0 0 
0 0 0 0 
-0.2742684753427633 -0.07920901349324047 0.5352844470277244 -0.06569254425885944 
-0.2587841467185352 0.06101601101180081 -0.1555928223761208 -0.02042834569341274 
0 0 0 0 
0 0 0 0 
0 0 0 0 
0.212611275356331 -0.1918269515938515 -0.01651336687222251 -0.003573200410432726 
0.05516806044910946 -0.04791088894160673 -0.1544964943720443 -0.07402889310170377 
0 0 0 0 
0 0 0 0 
0 0 0 0 
-0.2669344319019558 0.2649058105706149 -0.08402137156590583 -0.1100546723180227 
0 0 0 0 
0 0 0 0 
0 0 0 0 
0 0 0 0 
0 0 0 0 
0 0 0 0 
0 0 0 0 
0 0 0 0 
0 0 0 0 
-0.111257767593885 -0.07554657189147992 0.3315716026376247 -0.05105811616535316 
0 0 0 0 
0 0 0 0 
0 0 0 0 
0 0 0 0 
0.3205664061316163 -0.1547895377556732 -0.4670294514470313 -0.4769532900734896 
0 0 0 0 
0 0 0 0 
0 0 0 0 
-0.06461715894571833 0.1053250501438344 -0.0007005524393417098 3.295169176029914e-05 
-0.2118649191161812 0.2114299995351198 -0.03628563769816902 -0.02458413268022576 
-0.2118649191161812 0.2114299995351198 -0.03628563769816902 -0.02458413268022576 
0.4388287600429425 -0.3251435753157982 -0.3022692973176715 -0.2315894500469303 
-0.07741594465638772 0.09315071752095057 -0.009993335051511995 -0.03450327269324615 
0 0 0 0 
0 0 0 0 
0 0 0 0 
0 0 0 0 
0 0 0 0 
-0.00598706120076329 0.008486173950640084 -0.0004254807922815794 -5.643762458192313e-05 
0 0 0 0 
0 0 0 0 
0.03064195144517964 -0.04440551716425603 -0.01453715581100208 -0.003881797307777738 
0 0 0 0 
0 0 0 0 
0 0 0 0 
0 0 0 0 
0 0 0 0 
-0.06389635261216481 0.1193662469185543 -0.3142088783134964 -0.10463904116746 
-0.06389635261216481 0.1193662469185543 -0.3142088783134964 -0.10463904116746 
0 0 0 0 
0 0 0 0 
-0.02050075206761317 0.02015163067009593 -0.004283882978512706 -0.003029505694766114 
0 0 0 0 
-0.004073297407047441 -0.0287875972714767 0.000340180683267817 6.989741916159776e-05 
0 0 0 0 
-0.0789971109345631 0.1051541776768909 -0.1537743817099011 -0.1130621077747062 
-0.01152840314713892 0.1190375318896595 -0.02160259305619091 -8.312584765473338e-05 
0 0 0 0 
0 0 0 0 
0 0 0 0 
0 0 0 0 
0 0 0 0 
-0.3390923139666165 0.1039642734927727 0.3560637999061638 -0.0181703035331336 
0 0 0 0 
0 0 0 0 
0.001280263633869178 0.05524248223757826 -0.0005516097465966205 -5.115549995745184e-05 
0.5113425948839142 -0.9000055050579558 0.1200320830306416 -0.3955780313364096 
0 0 0 0 
0 0 0 0 
0 0 0 0 
0 0 0 0 
0 0 0 0 
0 0 0 0 
0 0 0 0 
0 0 0 0 
0.1957698050259188 -0.1053161005089769 -0.07716634717816616 -0.08188652624640232 
0 0 0 0 
0 0 0 0 
0 0 0 0 
0 0 0 0 
0 0 0 0 
0.1106648932102589 -0.03362654377804687 -0.01641925016419192 -0.007700341800456583 
0 0 0 0 
0 0 0 0 
-0.01168269325486926 -0.7514354213110245 0.06880765059997905 0.1720929095555599 
0.07776593737494118 -0.009496191367106731 -0.009947670749450264 -0.008153575433816363 
0 0 0 0 
0 0 0 0 
0 0 0 0 
0 0 0 0 
0 0 0 0 
-0.2913929405832638 -0.02417754100072692 0.5168871692637712 -0.001154464031787019 
0 0 0 0 
0 0 0 0 
0.01827732259653907 -0.01776696906327934 1.522757633186806e-05 4.159388727672511e-05 
0.01827732259653907 -0.01776696906327934 1.522757633186806e-05 4.159388727672511e-05 
0 0 0 0 
0 0 0 0 
0 0 0 0 
0 0 0 0 
-0.2913929405832638 -0.02417754100072692 0.5168871692637712 -0.001154464031787019 
-0.1198612791049584 0.07895964893830959 -0.007018951993271603 -0.01002293641979622 
0 0 0 0 
0 0 0 0 
0 0 0 0 
0 0 0 0 
-0.2139431654152718 -0.1629204022058808 -0.01333960857132131 0.4667916559217413 
-0.4895922103627208 0.09410667366731211 -0.04924299096959431 0.3802951450592364 
0.09595187570704361 -0.04708334225593318 -0.006879697742528086 -0.009040125723976078 
0 0 0 0 
-0.2334266633060851 0.3154632218717353 -0.1220970237394361 -0.08220466986694765 
0 0 0 0 
0 0 0 0 
0.1562571888903257 -0.1228436650841145 -0.07714515150758167 -0.0615113846141861 
0 0 0 0 
0 0 0 0 
0 0 0 0 
0 0 0 0 
0 0 0 0 
0 0 0 0 
0 0 0 0 
0.74288065834863 -0.6345041490139659 -0.09198135008652983 -0.008212211446466026 
0.0767100778661378 -0.06617330668756986 -0.007673612316111802 -0.008073593634505973 
0 0 0 0 
0 0 0 0 
0 0 0 0 
-0.04663984120325926 -0.26867602107528 0.3057722944688295 -0.06152699870350043 
0 0 0 0 
0.0705706747403147 -0.08079529369436808 -0.009235904425470306 -0.02514321368407056 
-0.2726853241863563 0.3699716991463837 -0.139068602895516 -0.07887308400412252 
0 0 0 0 
-0.03858336314619203 0.0570328368908901 -0.006082445402411272 -0.00537568505197557 
0.2666609652313979 -0.1595700398959125 -0.03041831321472311 9.619509315001232e-05 
0.2707342626384453 -0.1307824426244358 -0.03075849389799093 2.629767398841455e-05 
-0.06461715894571833 0.1053250501438344 -0.0007005524393417098 3.295169176029914e-05 
0 0 0 0 
0 0 0 0 
0 0 0 0 
0.2872427623889558 -0.334597649760181 -0.001173783308493605 -0.0002803169186175549 
0 0 0 0 
0 0 0 0 
0 0 0 0 
0 0 0 0 
0 0 0 0 
0 0 0 0 
0 0 0 0 
0 0 0 0 
0 0 0 0 
0.139913026097781 -0.08591715121338309 -0.0146378320300739 -0.004241423456254956 
0 0 0 0 
0.0767100778661378 -0.06617330668756986 -0.007673612316111802 -0.008073593634505973 
0 0 0 0 
0 0 0 0 
0 0 0 0 
0 0 0 0 
0 0 0 0 
0 0 0 0 
0 0 0 0 
0 0 0 0 
0.2083433827761062 -0.09129298920744579 -0.03006585548424642 -0.00369044237744635 
0 0 0 0 
0 0 0 0 
0 0 0 0 
0 0 0 0 
0 0 0 0 
0 0 0 0 
-0.09949161698185031 0.1196522045571408 -0.003349262199948828 -0.00203936817823488 
0.3235417695907401 -0.3240889669093305 -0.3159337882855086 -0.3389822108652774 
0 0 0 0 
0 0 0 0 
0 0 0 0 
-0.000990264620016933 0.007762474107978208 -0.009949644530028397 -0.0002462415570857414 
0.327574821739299 -0.2132683812114331 -0.01739622702092724 -0.006334753289335108 
0.4715611452441274 -0.2703979351533395 -0.03237423973426896 -0.01064607416475166 
0.327574821739299 -0.2132683812114331 -0.01739622702092724 -0.006334753289335108 
0 0 0 0 
0 0 0 0 
0 0 0 0 
0 0 0 0 
0 0 0 0 
0.1077180849946573 -0.05692874651327249 -0.0474008142365169 -0.02877041325740559 
0 0 0 0 
0.1509701008421649 -0.08399661931462558 -0.1517801734088915 -0.0231014657217476 
0 0 0 0 
0 0 0 0 
0 0 0 0 
0.1867043595529047 -0.1801739446428793 -0.02332465308173826 -0.01057283722204607 
0 0 0 0 
0.148472616973192 -0.03339045356367236 -0.08292237823788115 -0.000994426701526648 
0 0 0 0 
0 0 0 0 
0 0 0 0 
0 0 0 0 
0 0 0 0 
0 0 0 0 
-0.07088022750054888 0.05606961360411005 -0.06497298663065224 -0.0719330064339786 
0 0 0 0 
0 0 0 0 
0 0 0 0 
0 0 0 0 
0 0 0 0 
0 0 0 0 
0 0 0 0 
0 0 0 0 
0 0 0 0 
0 0 0 0 
0.1834375404525151 -0.1574088428525724 -0.05573932007085668 -0.03590132162889394 
0 0 0 0 
0 0 0 0 
0 0 0 0 
0 0 0 0 
0 0 0 0 
-0.1059133159261792 0.1754019593347715 -0.009833850853627387 -0.02069074708574765 
0 0 0 0 
-0.1141174270361505 0.1082871520644982 -0.1323860104700654 -0.1029732513796927 
-0.0368834998072581 0.02920964212552813 -0.004697768921709867 -0.0009474476327121606 
0 0 0 0 
-0.1720644738021997 0.1723931548920016 -0.05603988765948991 -0.04385959352978583 
0 0 0 0 
0 0 0 0 
0 0 0 0 
0 0 0 0 
0 0 0 0 
0 0 0 0 
0 0 0 0 
0 0 0 0 
0 0 0 0 
0 0 0 0 
0 0 0 0 
0 0 0 0 
0 0 0 0 
0.04560861159046754 -0.06009460443450111 -0.009889654621726779 -0.002365001098565166 
0.04560861159046754 -0.06009460443450111 -0.009889654621726779 -0.002365001098565166 
0.04560861159046754 -0.06009460443450111 -0.009889654621726779 -0.002365001098565166 
0.04560861159046754 -0.06009460443450111 -0.009889654621726779 -0.002365001098565166 
0.04560861159046754 -0.06009460443450111 -0.009889654621726779 -0.002365001098565166 
0.04560861159046754 -0.06009460443450111 -0.009889654621726779 -0.002365001098565166 
-0.03858336314619203 0.0570328368908901 -0.006082445402411272 -0.00537568505197557 
-0.03858336314619203 0.0570328368908901 -0.006082445402411272 -0.00537568505197557 
-0.09632429655839371 0.1397187881678342 -0.0332316176786573 -0.01462723539293245 
0 0 0 0 
0 0 0 0 
0 0 0 0 
0.03064195144517964 -0.04440551716425603 -0.01453715581100208 -0.003881797307777738 
0 0 0 0 
0 0 0 0 
0 0 0 0 
0.1831204701597069 -0.1932779685142719 -0.202809014525414 -0.135961896586281 
0 0 0 0 
0 0 0 0 
0 0 0 0 
0 0 0 0 
0 0 0 0 
0 0 0 0 
0 0 0 0 
0 0 0 0 
0 0 0 0 
0 0 0 0 
0.1757843146599954 -0.1828989622731233 -0.004434128778435233 -0.007823591811933095 
-0.1681325119814412 0.2076636548264345 -0.07152694354803008 -0.06347021160339104 
0.06116547819467529 -0.0162518371766622 -0.08055328138534795 -0.0427057679637873 
0 0 0 0 
0 0 0 0 
0 0 0 0 
-0.1108435007496025 0.1614582945193542 -0.006998761314151724 -0.003709806959448543 
-0.04843492953319214 0.1315118807627066 -0.00782945979918662 -0.001299708765250643 
0 0 0 0 
0 0 0 0 
0 0 0 0 
0 0 0 0 
0 0 0 0 
0 0 0 0 
0.3924024013634183 -0.3532257879263628 -0.05437948058882654 -0.09918850536616124 
0.269555938181794 -0.1217726660660614 -0.001454180227990062 -0.001731111018589333 
0 0 0 0 
0 0 0 0 
0 0 0 0 
0 0 0 0 
0 0 0 0 
0 0 0 0 
0 0 0 0 
0 0 0 0 
0 0 0 0 
-0.3128800573399478 0.3730517633195889 -0.0353944696730293 -0.04723576076395663 
0 0 0 0 
-0.6497446367184566 0.756347465598904 -0.1040636616421844 -0.05021573345674936 
0 0 0 0 
0 0 0 0 
0 0 0 0 
0 0 0 0 
0 0 0 0 
0 0 0 0 
0 0 0 0 
0 0 0 0 
0 0 0 0 
0 0 0 0 
0 0 0 0 
0 0 0 0 
0 0 0 0 
0 0 0 0 
0 0 0 0 
0 0 0 0 
0.07668373438285896 -0.04916911888487907 -0.05474308802164237 -0.01155028771221583 
0 0 0 0 
0 0 0 0 
0 0 0 0 
0 0 0 0 
0.3882059645728402 -0.2855652121479774 -0.08400613261006548 -0.175515979638255 
0.3575640131276605 -0.2411596949837214 -0.0694689767990634 -0.1716341823304773 
0 0 0 0 
0 0 0 0 
0 0 0 0 
0 0 0 0 
0.1690731523571976 -0.1816937799487948 -0.1206978161036048 -0.1660161102782951 
0 0 0 0 
0 0 0 0 
0 0 0 0 
-0.2002428239970791 0.206720846489291 -0.02612504104066017 -0.003184142961649001 
-0.2800555932094737 0.2012282189902765 -0.0302777689668857 -0.01880623186098068 
0.3031481718102464 -0.2149182975703136 -0.09849302468368069 -0.1933515619155267 
0 0 0 0 
-0.1252984859313928 0.07603101124104625 -0.002651176098630413 -0.003943764320666244 
0 0 0 0 
0 0 0 0 
0 0 0 0 
0.2872427623889558 -0.334597649760181 -0.001173783308493605 -0.0002803169186175549 
0 0 0 0 
0 0 0 0 
0 0 0 0 
0.0705706747403147 -0.08079529369436808 -0.009235904425470306 -0.02514321368407056 
0 0 0 0 
0.2941088170302883 -0.1754754880595213 -0.07246392795527458 -0.03206722726343973 
-0.4211680340772043 0.5104246011175781 -0.1234463679503086 -0.09741125812208327 
0 0 0 0 
0 0 0 0 
0 0 0 0 
-0.1292097433618092 0.1341756717031652 -0.001463282539569807 -0.001078535972185814 
0 0 0 0 
0 0 0 0 
0 0 0 0 
0 0 0 0 
-0.04843492953319214 0.1315118807627066 -0.00782945979918662 -0.001299708765250643 
0 0 0 0 
0 0 0 0 
0 0 0 0 
0 0 0 0 
0.2941088170302883 -0.1754754880595213 -0.07246392795527458 -0.03206722726343973 
0 0 0 0 
0 0 0 0 
0 0 0 0 
0.128781630771855 -0.06854452602430257 -0.1012520383059424 -0.1430846684433361 
-0.06461715894571833 0.1053250501438344 -0.0007005524393417098 3.295169176029914e-05 
0 0 0 0 
0.1518446661098568 -0.1412473590894665 -0.001611708888700057 -0.004911729825897214 
0 0 0 0 
0 0 0 0 
0 0 0 0 
0 0 0 0 
0 0 0 0 
-0.01100546963956644 0.01579913690549507 -0.002232192653949607 -0.001979510093271447 
0 0 0 0 
0 0 0 0 
0 0 0 0 
-0.2497608902038165 0.3824798383468259 -0.08613948064637626 -0.06997641184096333 
-0.1397551388636764 0.006704669922341016 0.3317310868355093 -0.03724559055785466 
0 0 0 0 
0 0 0 0 
-0.04044171817134307 -0.1370877881976847 0.3402100700667571 -0.01654000546433973 
0 0 0 0 
0 0 0 0 
0 0 0 0 
0 0 0 0 
0 0 0 0 
0 0 0 0 
0 0 0 0 
0 0 0 0 
0 0 0 0 
0 0 0 0 
0 0 0 0 
0 0 0 0 
0 0 0 0 
0 0 0 0 
0 0 0 0 
-0.1161900217417942 0.1652347649058808 -0.01053572279373837 -0.02890445745196807 
0.1106648932102589 -0.03362654377804687 -0.01641925016419192 -0.007700341800456583 
0 0 0 0 
0 0 0 0 
0 0 0 0 
0 0 0 0 
0 0 0 0 
-0.1433307396133948 0.2041464209590789 -0.03148326486458666 -0.1040240096121196 
0 0 0 0 
0 0 0 0 
0 0 0 0 
-0.01272989467163959 0.009809475522242426 -0.005605748124296476 -0.001130388344678541 
-0.1245666637396718 0.09455675695427442 -0.09970821681357755 -0.03529035658535592 
-0.06191742077397541 0.0565412513337513 -0.09838262876426235 -0.0333184744250228 
-0.2142824519093162 0.3563921307557582 -0.1653084834056549 -0.1038745232371469 
0.212611275356331 -0.1918269515938515 -0.01651336687222251 -0.003573200410432726 
0.212611275356331 -0.1918269515938515 -0.01651336687222251 -0.003573200410432726 
-0.005701751119681658 -0.0006408831987525006 -0.06483971507482869 -0.01964221336331706 
0 0 0 0 
0 0 0 0 
0 0 0 0 
0 0 0 0 
0 0 0 0 
0 0 0 0 
0 0 0 0 
0 0 0 0 
0 0 0 0 
0 0 0 0 
0 0 0 0 
0 0 0 0 
0 0 0 0 
0.1458786234806815 -0.1172629501352701 -0.1896267263367915 -0.132065261270736 
0 0 0 0 
0 0 0 0 
0 0 0 0 
0 0 0 0 
-0.02561566514068748 0.0136215492779324 -0.000616223697743781 -0.001436798989591277 
-0.02561566514068748 0.0136215492779324 -0.000616223697743781 -0.001436798989591277 
-0.02561566514068748 0.0136215492779324 -0.000616223697743781 -0.001436798989591277 
-0.02561566514068748 0.0136215492779324 -0.000616223697743781 -0.001436798989591277 
-0.02561566514068748 0.0136215492779324 -0.000616223697743781 -0.001436798989591277 
0 0 0 0 
0.1867043595529047 -0.1801739446428793 -0.02332465308173826 -0.01057283722204607 
0 0 0 0 
0 0 0 0 
0 0 0 0 
0 0 0 0 
0.1270037034105491 -0.08237613801967501 -0.02419643911237463 -0.006068415029640811 
-0.0007862573641533952 0.001665761810021088 -0.002597914482283251 -0.0003344076611278678 
-0.1840284655119498 0.1799845682281803 -0.01667030021831037 -0.0645519442089785 
0 0 0 0 
0 0 0 0 
0 0 0 0 
0.08073925446042766 -0.05802141581077191 -0.05981946076981517 -0.02761449961956667 
0 0 0 0 
0 0 0 0 
0 0 0 0 
-0.01261131108407064 0.0131218966440536 -0.01718727947737543 -0.0003025972352203321 
0 0 0 0 
0 0 0 0 
0 0 0 0 
0 0 0 0 
0 0 0 0 
0 0 0 0 
0 0 0 0 
0 0 0 0 
0 0 0 0 
0 0 0 0 
-0.2002428239970791 0.206720846489291 -0.02612504104066017 -0.003184142961649001 
0 0 0 0 
0 0 0 0 
-0.3288044528412607 0.3967077798885262 -0.07778711623586353 -0.01177287710952481 
0 0 0 0 
0 0 0 0 
0 0 0 0 
0 0 0 0 
-0.0002815375114426149 0.001740320575152988 6.012869949144481e-05 3.426483916577549e-06 
-0.0002815375114426149 0.001740320575152988 6.012869949144481e-05 3.426483916577549e-06 
0 0 0 0 
0 0 0 0 
0 0 0 0 
0 0 0 0 
0 0 0 0 
0 0 0 0 
0 0 0 0 
0 0 0 0 
0 0 0 0 
0.1342306999950788 -0.1245895593626262 -0.002111269514267882 -0.002528967486657062 
0.3255493959712841 -0.1889949034059376 -0.1444566832667601 -0.1290014666391889 
0 0 0 0 
0 0 0 0 
0 0 0 0 
0 0 0 0 
0 0 0 0 
0 0 0 0 
0 0 0 0 
0.2585085642137582 -0.3157162512493502 -0.002345438052536362 -0.01021688549314846 
0 0 0 0 
0 0 0 0 
-0.1204890100063188 0.1845819434684548 -0.09626526641386234 -0.01720776830115719 
-0.2002428239970791 0.206720846489291 -0.02612504104066017 -0.003184142961649001 
0.03790367553996439 0.26034954270353 -0.428972194028503 -0.1711706906912118 
0 0 0 0 
0 0 0 0 
0 0 0 0 
0 0 0 0 
-0.09379329652623099 0.123771581399755 -0.01850868317658633 -0.006600453655771754 
0 0 0 0 
0 0 0 0 
0 0 0 0 
0 0 0 0 
0 0 0 0 
0.200436187683436 -0.08758878865970382 -0.02645907467410814 -0.003323196089871711 
0 0 0 0 
0.1460515173385523 -0.1395631826867137 -0.03952296538958496 -0.05789685203555589 
0 0 0 0 
0 0 0 0 
0 0 0 0 
0 0 0 0 
0 0 0 0 
0 0 0 0 
0 0 0 0 
0 0 0 0 
0.006643409245999966 -0.2044906586077899 0.368182911346081 1.768472170634347e-05 
0 0 0 0 
0 0 0 0 
0 0 0 0 
0 0 0 0 
0 0 0 0 
0 0 0 0 
-0.09379329652623099 0.123771581399755 -0.01850868317658633 -0.006600453655771754 
-0.09379329652623099 0.123771581399755 -0.01850868317658633 -0.006600453655771754 
-0.09379329652623099 0.123771581399755 -0.01850868317658633 -0.006600453655771754 
-0.2182209765374721 0.2698471222771428 -0.09558312357764238 -0.05839993836613654 
-0.09379329652623099 0.123771581399755 -0.01850868317658633 -0.006600453655771754 
-0.09379329652623099 0.123771581399755 -0.01850868317658633 -0.006600453655771754 
-0.09379329652623099 0.123771581399755 -0.01850868317658633 -0.006600453655771754 
-0.09379329652623099 0.123771581399755 -0.01850868317658633 -0.006600453655771754 
0 0 0 0 
0 0 0 0 
0 0 0 0 
0.003509649131523261 9.16793997801698e-05 -0.001292898782084194 -2.361954702697862e-05 
-0.2139803976942066 -0.168827255556779 -0.02219834907909096 0.3835878169108418 
0 0 0 0 
0 0 0 0 
0 0 0 0 
0 0 0 0 
0 0 0 0 
0 0 0 0 
0 0 0 0 
0 0 0 0 
0 0 0 0 
0 0 0 0 
0 0 0 0 
0 0 0 0 
0 0 0 0 
0 0 0 0 
0 0 0 0 
0 0 0 0 
-0.2369325465648052 0.2283191196846356 -0.1768506680175695 -0.1279758297933611 
0 0 0 0 
-0.3128800573399478 0.3730517633195889 -0.0353944696730293 -0.04723576076395663 
0 0 0 0 
0 0 0 0 
0 0 0 0 
0 0 0 0 
0 0 0 0 
0 0 0 0 
0 0 0 0 
0 0 0 0 
-0.0492228206388639 0.1118988189428864 -0.02299478080474734 -0.005632092600957088 
0 0 0 0 
-0.1840284655119498 0.1799845682281803 -0.01667030021831037 -0.0645519442089785 
-0.1840284655119498 0.1799845682281803 -0.01667030021831037 -0.0645519442089785 
-0.1840284655119498 0.1799845682281803 -0.01667030021831037 -0.0645519442089785 
-0.1840284655119498 0.1799845682281803 -0.01667030021831037 -0.0645519442089785 
0 0 0 0 
0 0 0 0 
0 0 0 0 
-0.1176629962695861 0.08807160259034873 -0.01467953873320833 -0.04701871292355841 
0 0 0 0 
-0.09520870115141156 0.1084011861298632 -0.0297755038415291 -0.01592958812020599 
-0.09520870115141156 0.1084011861298632 -0.0297755038415291 -0.01592958812020599 
-0.182510207210153 0.2130981717119843 -0.06315778849319649 -0.03222642252798662 
-0.5438744330976307 0.584068614956699 -0.1145815720706642 -0.03772540164952702 
-0.09520870115141156 0.1084011861298632 -0.0297755038415291 -0.01592958812020599 
0 0 0 0 
0 0 0 0 
0 0 0 0 
0 0 0 0 
0 0 0 0 
0 0 0 0 
0 0 0 0 
0 0 0 0 
0 0 0 0 
0 0 0 0 
0 0 0 0 
0 0 0 0 
0 0 0 0 
0 0 0 0 
0 0 0 0 
0 0 0 0 
0 0 0 0 
0 0 0 0 
0 0 0 0 
0 0 0 0 
-0.1678418666731188 -0.2617676985674305 -0.0717535052581636 0.4354621827932781 
-0.4952954815652835 -0.5521735774693965 -0.2638122019417392 0.8087254496487991 
0 0 0 0 
0 0 0 0 
0 0 0 0 
0 0 0 0 
0 0 0 0 
0 0 0 0 
0 0 0 0 
0 0 0 0 
0 0 0 0 
0 0 0 0 
0 0 0 0 
0 0 0 0 
0 0 0 0 
0 0 0 0 
0 0 0 0 
0.07438204444223569 -0.03183191523013192 0.1928260218559029 -0.007833500987781891 
0 0 0 0 
0 0 0 0 
0 0 0 0 
0 0 0 0 
0 0 0 0 
0 0 0 0 
0 0 0 0 
0 0 0 0 
0 0 0 0 
0 0 0 0 
0 0 0 0 
0 0 0 0 
0 0 0 0 
0 0 0 0 
-0.08445730536426571 -0.2139508290078799 0.4734656310626192 -0.01318380471907094 
0 0 0 0 
0 0 0 0 
0 0 0 0 
0.2585042454709787 -0.2990756667403874 -0.001840254260029024 -0.0005042158909557154 
0 0 0 0 
0 0 0 0 
0 0 0 0 
-0.1549785399374891 -0.1114046414842118 0.2656660857533017 -0.03900133933912936 
-0.1549785399374891 -0.1114046414842118 0.2656660857533017 -0.03900133933912936 
-0.1549785399374891 -0.1114046414842118 0.2656660857533017 -0.03900133933912936 
-0.1549785399374891 -0.1114046414842118 0.2656660857533017 -0.03900133933912936 
-0.1549785399374891 -0.1114046414842118 0.2656660857533017 -0.03900133933912936 
0 0 0 0 
0 0 0 0 
0 0 0 0 
0 0 0 0 
0 0 0 0 
0 0 0 0 
0 0 0 0 
0 0 0 0 
0 0 0 0 
0 0 0 0 
0 0 0 0 
0.1480873818040852 -0.1408186775490202 -0.02318891356275113 -0.0296717837066027 
0 0 0 0 
0 0 0 0 
0 0 0 0 
0 0 0 0 
0.2684791302349385 -0.2848347473511381 -0.009580830797553536 -0.003299135831390322 
0.2684791302349385 -0.2848347473511381 -0.009580830797553536 -0.003299135831390322 
0 0 0 0 
0 0 0 0 
0 0 0 0 
0 0 0 0 
0 0 0 0 
0 0 0 0 
0 0 0 0 
0 0 0 0 
0 0 0 0 
0 0 0 0 
-0.06264924296569641 0.03801550562052312 -0.001325588049315207 -0.001971882160333122 
0 0 0 0 
0 0 0 0 
0 0 0 0 
0 0 0 0 
0 0 0 0 
0 0 0 0 
0 0 0 0 
0 0 0 0 
-0.3003506846334535 0.299171266439419 -0.08699245202654872 -0.0544660501508437 
0.2551460317805618 -0.2053609275791444 -0.06857360982816997 -0.1403330869940436 
0.2156916384187508 -0.1177395786357726 -0.01368594173308978 3.614189901791085e-05 
0 0 0 0 
0 0 0 0 
0.003509649131523261 9.16793997801698e-05 -0.001292898782084194 -2.361954702697862e-05 
0 0 0 0 
0 0 0 0 
0 0 0 0 
0 0 0 0 
0 0 0 0 
-0.004073297407047441 -0.0287875972714767 0.000340180683267817 6.989741916159776e-05 
0.08875096806899865 -0.1523226867465462 -0.007242165558925342 -0.01827448353800479 
-0.004073297407047441 -0.0287875972714767 0.000340180683267817 6.989741916159776e-05 
-0.004073297407047441 -0.0287875972714767 0.000340180683267817 6.989741916159776e-05 
0 0 0 0 
0 0 0 0 
0 0 0 0 
0 0 0 0 
0 0 0 0 
0 0 0 0 
0 0 0 0 
0 0 0 0 
0 0 0 0 
0 0 0 0 
0 0 0 0 
0 0 0 0 
0 0 0 0 
0 0 0 0 
0 0 0 0 
0 0 0 0 
0 0 0 0 
0 0 0 0 
0 0 0 0 
0 0 0 0 
0.1886257328220799 -0.1653063216651478 -0.01255260951940731 -0.005126884371372987 
0 0 0 0 
0 0 0 0 
0 0 0 0 
0 0 0 0 
-0.1437716949708049 0.2019351883201871 -0.07096573758798501 -0.07496248737613637 
0 0 0 0 
0 0 0 0 
0 0 0 0 
0 0 0 0 
0 0 0 0 
0 0 0 0 
0 0 0 0 
0 0 0 0 
0 0 0 0 
0 0 0 0 
0 0 0 0 
0 0 0 0 
0 0 0 0 
0 0 0 0 
0 0 0 0 
0 0 0 0 
0 0 0 0 
0 0 0 0 
0 0 0 0 
0 0 0 0 
0 0 0 0 
0 0 0 0 
0 0 0 0 
0 0 0 0 
0 0 0 0 
-0.3881385034495987 -0.1761043671064241 0.03587018301210617 0.1274419179458638 
-0.2821642603896263 -0.02488794675261118 0.1041293978115986 -0.1635889988420393 
0 0 0 0 
0 0 0 0 
0 0 0 0 
0 0 0 0 
0 0 0 0 
-0.09941763739661796 0.1187743487084024 -0.1315305721278038 -0.04999570616572967 
0 0 0 0 
-0.1198612791049584 0.07895964893830959 -0.007018951993271603 -0.01002293641979622 
0 0 0 0 
0 0 0 0 
0 0 0 0 
-0.1292097433618092 0.1341756717031652 -0.001463282539569807 -0.001078535972185814 
0 0 0 0 
0 0 0 0 
0 0 0 0 
0 0 0 0 
0 0 0 0 
0 0 0 0 
0 0 0 0 
0 0 0 0 
0 0 0 0 
0 0 0 0 
0 0 0 0 
0 0 0 0 
0 0 0 0 
0 0 0 0 
0 0 0 0 
0 0 0 0 
0 0 0 0 
0 0 0 0 
0 0 0 0 
0 0 0 0 
0 0 0 0 
0 0 0 0 
0 0 0 0 
0 0 0 0 
0 0 0 0 
0 0 0 0 
0 0 0 0 
0.1509701008421649 -0.08399661931462558 -0.1517801734088915 -0.0231014657217476 
0.1439863235048284 -0.05712955394190637 -0.01497801271334172 -0.004311320875416554 
0 0 0 0 
-0.2748356379946877 0.3759870202153102 -0.3920721088933983 -0.124669143674876 
0 0 0 0 
0 0 0 0 
0 0 0 0 
0 0 0 0 
0 0 0 0 
9.608512924120724e-05 0.001941401037229631 -0.001452821771190183 -1.401351015498011e-05 
0 0 0 0 
0 0 0 0 
0 0 0 0 
0 0 0 0 
0 0 0 0 
0 0 0 0 
0 0 0 0 
0 0 0 0 
0 0 0 0 
0 0 0 0 
0 0 0 0 
0 0 0 0 
0 0 0 0 
0 0 0 0 
0 0 0 0 
0 0 0 0 
0 0 0 0 
0 0 0 0 
0 0 0 0 
0 0 0 0 
0 0 0 0 
0 0 0 0 
0 0 0 0 
0 0 0 0 
0 0 0 0 
0 0 0 0 
-0.1198612791049584 0.07895964893830959 -0.007018951993271603 -0.01002293641979622 
-0.1198612791049584 0.07895964893830959 -0.007018951993271603 -0.01002293641979622 
-0.1198612791049584 0.07895964893830959 -0.007018951993271603 -0.01002293641979622 
0 0 0 0 
0 0 0 0 
0 0 0 0 
0 0 0 0 
0 0 0 0 
0 0 0 0 
0 0 0 0 
0 0 0 0 
0 0 0 0 
0 0 0 0 
0 0 0 0 
0 0 0 0 
0 0 0 0 
0 0 0 0 
0.2069356352189981 -0.189773288007153 -0.04342153820115193 -0.01202934068728392 
0 0 0 0 
0 0 0 0 
0 0 0 0 
0 0 0 0 
0 0 0 0 
0 0 0 0 
0 0 0 0 
0 0 0 0 
0 0 0 0 
0 0 0 0 
0 0 0 0 
0 0 0 0 
0.1296684238472904 -0.102676784632289 -0.02029329595421406 -0.03067221322102709 
-0.1422721323005944 0.1407594651996232 -0.005181727516644895 -0.005813589895210317 
0.0767100778661378 -0.06617330668756986 -0.007673612316111802 -0.008073593634505973 
0.0767100778661378 -0.06617330668756986 -0.007673612316111802 -0.008073593634505973 
0 0 0 0 
-0.2026131795153152 0.2026858216605653 -0.06729909167666449 -0.04341300205080375 
-0.1898832848436757 0.1928763461383229 -0.06169334355236801 -0.0422826137061252 
-0.3194587507918157 0.2649891706840471 -0.01762816692033746 -0.006084909360975683 
0 0 0 0 
0 0 0 0 
0 0 0 0 
0 0 0 0 
-0.3003506846334535 0.299171266439419 -0.08699245202654872 -0.0544660501508437 
-0.04584660903544747 0.05647081674135671 -0.009473947086628338 -0.00865566042991303 
-0.03384182293749728 -0.1686972894124305 0.3415649376891367 -0.01655484347210701 
-0.009260983126321783 0.02537341624719305 -0.0242951037490216 -0.00421548886789889 
-0.009260983126321783 0.02537341624719305 -0.0242951037490216 -0.00421548886789889 
-0.009260983126321783 0.02537341624719305 -0.0242951037490216 -0.00421548886789889 
0 0 0 0 
0 0 0 0 
0 0 0 0 
0 0 0 0 
0 0 0 0 
0 0 0 0 
0 0 0 0 
0 0 0 0 
0.3666824657957754 -0.3478530331635562 -0.003434642745320105 -0.006893021006677196 
0 0 0 0 
0 0 0 0 
0 0 0 0 
0 0 0 0 
-0.2717697737536286 0.2783627160616654 -0.01125144587118659 -0.02751241555613754 
-0.2717697737536286 0.2783627160616654 -0.01125144587118659 -0.02751241555613754 
-0.2717697737536286 0.2783627160616654 -0.01125144587118659 -0.02751241555613754 
0 0 0 0 
0 0 0 0 
0 0 0 0 
0 0 0 0 
0 0 0 0 
0 0 0 0 
0 0 0 0 
-0.274130472161333 -0.08513817523913558 -0.09654051538539123 0.7280844070617417 
0 0 0 0 
0 0 0 0 
0.182318956300438 -0.1177992579118137 -0.1501325218959545 -0.08878165812751607 
0 0 0 0 
0 0 0 0 
0 0 0 0 
0 0 0 0 
0 0 0 0 
0 0 0 0 
0 0 0 0 
0 0 0 0 
0 0 0 0 
0 0 0 0 
0 0 0 0 
0 0 0 0 
0 0 0 0 
0 0 0 0 
0 0 0 0 
0 0 0 0 
0 0 0 0 
0 0 0 0 
0 0 0 0 
0 0 0 0 
0 0 0 0 
0 0 0 0 
0 0 0 0 
0 0 0 0 
0.1509701008421649 -0.08399661931462558 -0.1517801734088915 -0.0231014657217476 
0 0 0 0 
0 0 0 0 
0 0 0 0 
0.06479773222432619 -0.0636129262235624 -0.001504350026142182 -0.00878731180058913 
-0.004430282773133195 0.006127956970784011 -0.006819568152291503 -0.0009952008411438259 
0 0 0 0 
0 0 0 0 
0 0 0 0 
0 0 0 0 
0 0 0 0 
-0.1108435007496025 0.1614582945193542 -0.006998761314151724 -0.003709806959448543 
0 0 0 0 
0 0 0 0 
0 0 0 0 
0.2069356352189981 -0.189773288007153 -0.04342153820115193 -0.01202934068728392 
0 0 0 0 
0 0 0 0 
0 0 0 0 
0 0 0 0 
9.608512924120724e-05 0.001941401037229631 -0.001452821771190183 -1.401351015498011e-05 
-0.1505406796277072 0.1938849547342991 -0.02473948022360814 -0.09432255367456038 
0 0 0 0 
0 0 0 0 
0 0 0 0 
0 0 0 0 
0 0 0 0 
0 0 0 0 
0 0 0 0 
0 0 0 0 
0 0 0 0 
0 0 0 0 
-0.06943718720574382 0.09896510200456082 -0.0119879854914063 -0.02238063899138354 
0 0 0 0 
0 0 0 0 
0 0 0 0 
0 0 0 0 
0 0 0 0 
0 0 0 0 
-0.3722732461962566 0.4216389282855758 -0.09562863282337936 -0.1177924790618481 
0.05829743839956743 -0.06145074553848164 -0.01145055918951183 -0.003924764861800541 
0.0107829869552549 -0.01731113965233472 -0.007978663204739014 -0.008195301825487677 
-0.0659270909108829 0.04886216703523515 -0.0003050508886272131 -0.0001217081909817039 
0 0 0 0 
0 0 0 0 
0 0 0 0 
0 0 0 0 
0 0 0 0 
0 0 0 0 
0 0 0 0 
0 0 0 0 
0 0 0 0 
0 0 0 0 
0 0 0 0 
0 0 0 0 
0 0 0 0 
0 0 0 0 
0.03064195144517964 -0.04440551716425603 -0.01453715581100208 -0.003881797307777738 
0.03064195144517964 -0.04440551716425603 -0.01453715581100208 -0.003881797307777738 
0.03064195144517964 -0.04440551716425603 -0.01453715581100208 -0.003881797307777738 
0.03064195144517964 -0.04440551716425603 -0.01453715581100208 -0.003881797307777738 
0.03064195144517964 -0.04440551716425603 -0.01453715581100208 -0.003881797307777738 
0.03064195144517964 -0.04440551716425603 -0.01453715581100208 -0.003881797307777738 
0 0 0 0 
0 0 0 0 
0 0 0 0 
0 0 0 0 
0 0 0 0 
0 0 0 0 
0 0 0 0 
0.2585085642137582 -0.3157162512493502 -0.002345438052536362 -0.01021688549314846 
0 0 0 0 
-0.01059051589720812 0.02059779466678293 -0.001177392768234369 -0.0008463575437368703 
0 0 0 0 
0 0 0 0 
0 0 0 0 
0 0 0 0 
0 0 0 0 
0 0 0 0 
0 0 0 0 
0 0 0 0 
-0.2913929405832638 -0.02417754100072692 0.5168871692637712 -0.001154464031787019 
-0.2913929405832638 -0.02417754100072692 0.5168871692637712 -0.001154464031787019 
0 0 0 0 
0 0 0 0 
0 0 0 0 
0 0 0 0 
0 0 0 0 
0 0 0 0 
0 0 0 0 
0 0 0 0 
0 0 0 0 
0 0 0 0 
0 0 0 0 
0 0 0 0 
0 0 0 0 
0.4142964158434543 -0.3509428919900965 -0.09117356598975065 -0.1979760597901697 
0 0 0 0 
0 0 0 0 
0 0 0 0 
0 0 0 0 
0 0 0 0 
-0.006564881853876432 0.01164850783068643 -0.007117189445899398 5.177587276860153e-06 
0 0 0 0 
0 0 0 0 
0 0 0 0 
0 0 0 0 
0 0 0 0 
0 0 0 0 
0 0 0 0 
0 0 0 0 
0 0 0 0 
0 0 0 0 
0 0 0 0 
0 0 0 0 
-0.01189432437675422 0.02621513453558739 -0.01767522518961768 -0.0005958899110438503 
0 0 0 0 
0 0 0 0 
0 0 0 0 
0 0 0 0 
0 0 0 0 
0 0 0 0 
0 0 0 0 
0 0 0 0 
0 0 0 0 
-0.09003709017784012 0.1934921341544973 -0.04047773760437154 -0.07993367698727472 
0 0 0 0 
0 0 0 0 
0 0 0 0 
0 0 0 0 
0 0 0 0 
-0.1915443458538599 0.2075224429832922 -0.05248539604427831 -0.0544755888723341 
0 0 0 0 
0 0 0 0 
0 0 0 0 
0 0 0 0 
-0.1288303760620526 0.1475522669705476 -0.07222214864175637 -0.092937357289275 
0 0 0 0 
0 0 0 0 
0 0 0 0 
0 0 0 0 
0 0 0 0 
0 0 0 0 
0 0 0 0 
0 0 0 0 
0 0 0 0 
0 0 0 0 
0 0 0 0 
0 0 0 0 
0 0 0 0 
0 0 0 0 
0 0 0 0 
0 0 0 0 
0 0 0 0 
0 0 0 0 
0 0 0 0 
0 0 0 0 
0 0 0 0 
0 0 0 0 
0 0 0 0 
0 0 0 0 
0 0 0 0 
0 0 0 0 
0.1620850356030382 -0.1759183260676943 -0.01272605111148541 -0.002503456679051716 
0 0 0 0 
0 0 0 0 
0 0 0 0 
0 0 0 0 
0 0 0 0 
0 0 0 0 
0 0 0 0 
0 0 0 0 
-0.2669344319019558 0.2649058105706149 -0.08402137156590583 -0.1100546723180227 
0 0 0 0 
0 0 0 0 
0 0 0 0 
-0.3951499354887464 0.4174114513711202 -0.4315086670704106 -0.350849697156574 
0 0 0 0 
0 0 0 0 
0 0 0 0 
0 0 0 0 
0 0 0 0 
0 0 0 0 
-0.1691278470920354 -0.1375391921397572 -0.05163036041118993 0.2361185099709614 
0 0 0 0 
0 0 0 0 
0 0 0 0 
0 0 0 0 
-0.07814276580108591 0.1672769996189099 -0.02280251241475386 -0.07933778707623086 
0 0 0 0 
0 0 0 0 
0 0 0 0 
0 0 0 0 
0 0 0 0 
0 0 0 0 
0 0 0 0 
0 0 0 0 
0 0 0 0 
0 0 0 0 
0 0 0 0 
0 0 0 0 
0 0 0 0 
0 0 0 0 
0 0 0 0 
-0.02378436511379957 0.0398416903553964 -0.001688537579413969 -0.001299913150756529 
0 0 0 0 
0 0 0 0 
0 0 0 0 
0 0 0 0 
0 0 0 0 
0 0 0 0 
0 0 0 0 
0 0 0 0 
0 0 0 0 
0.0705706747403147 -0.08079529369436808 -0.009235904425470306 -0.02514321368407056 
0 0 0 0 
0 0 0 0 
0 0 0 0 
0 0 0 0 
0 0 0 0 
0 0 0 0 
0 0 0 0 
0 0 0 0 
0 0 0 0 
0 0 0 0 
0 0 0 0 
0 0 0 0 
0 0 0 0 
0 0 0 0 
0.200436187683436 -0.08758878865970382 -0.02645907467410814 -0.003323196089871711 
0 0 0 0 
0 0 0 0 
-0.1292097433618092 0.1341756717031652 -0.001463282539569807 -0.001078535972185814 
0 0 0 0 
0 0 0 0 
0.07975381399076027 -0.02213890302083617 -0.07014022537320216 -0.01402362533950819 
0 0 0 0 
0 0 0 0 
0 0 0 0 
0 0 0 0 
0 0 0 0 
0 0 0 0 
0 0 0 0 
0 0 0 0 
0 0 0 0 
0 0 0 0 
0 0 0 0 
0 0 0 0 
0 0 0 0 
0 0 0 0 
0 0 0 0 
0 0 0 0 
0 0 0 0 
0 0 0 0 
0 0 0 0 
0 0 0 0 
0 0 0 0 
0 0 0 0 
0 0 0 0 
0 0 0 0 
0 0 0 0 
0 0 0 0 
0 0 0 0 
-0.1108435007496025 0.1614582945193542 -0.006998761314151724 -0.003709806959448543 
0 0 0 0 
0 0 0 0 
0 0 0 0 
0 0 0 0 
0 0 0 0 
0 0 0 0 
-0.1059133159261792 0.1754019593347715 -0.009833850853627387 -0.02069074708574765 
-0.1059133159261792 0.1754019593347715 -0.009833850853627387 -0.02069074708574765 
-0.1059133159261792 0.1754019593347715 -0.009833850853627387 -0.02069074708574765 
-0.2750411630182146 0.03786276719501428 -0.06146421126481732 0.2154277628852137 
0 0 0 0 
0 0 0 0 
0 0 0 0 
0 0 0 0 
0 0 0 0 
0 0 0 0 
0 0 0 0 
0 0 0 0 
0 0 0 0 
0 0 0 0 
0 0 0 0 
0 0 0 0 
0 0 0 0 
0 0 0 0 
0.194572698411936 -0.1791996229711446 -0.05633423639743286 -0.08685826471481371 
0 0 0 0 
-0.07077828781240271 -0.1515373077520553 -0.09378742186270664 0.1860573122909605 
0 0 0 0 
0.1568883346108276 -0.1399572219600661 -0.04038389704486481 -0.04164456983711649 
0 0 0 0 
0 0 0 0 
-0.05229491011944663 0.08093069061172931 -0.03935363237422283 -0.004808495080699087 
0 0 0 0 
0 0 0 0 
0 0 0 0 
0 0 0 0 
0 0 0 0 
0 0 0 0 
0 0 0 0 
0 0 0 0 
0 0 0 0 
0 0 0 0 
0 0 0 0 
0.07668373438285896 -0.04916911888487907 -0.05474308802164237 -0.01155028771221583 
0.07668373438285896 -0.04916911888487907 -0.05474308802164237 -0.01155028771221583 
0.07668373438285896 -0.04916911888487907 -0.05474308802164237 -0.01155028771221583 
0.07668373438285896 -0.04916911888487907 -0.05474308802164237 -0.01155028771221583 
0 0 0 0 
0 0 0 0 
0 0 0 0 
0 0 0 0 
0 0 0 0 
0 0 0 0 
0 0 0 0 
0 0 0 0 
0 0 0 0 
0 0 0 0 
0 0 0 0 
0.2585085642137582 -0.3157162512493502 -0.002345438052536362 -0.01021688549314846 
0.4843674925936312 -0.5634353825817813 -0.05680132428137 -0.07354420110879613 
0 0 0 0 
0 0 0 0 
0.0767100778661378 -0.06617330668756986 -0.007673612316111802 -0.008073593634505973 
0 0 0 0 
0 0 0 0 
0 0 0 0 
0 0 0 0 
0 0 0 0 
0 0 0 0 
0 0 0 0 
0 0 0 0 
0 0 0 0 
0 0 0 0 
0 0 0 0 
0 0 0 0 
0 0 0 0 
0 0 0 0 
0 0 0 0 
0 0 0 0 
0 0 0 0 
0 0 0 0 
0 0 0 0 
0 0 0 0 
0 0 0 0 
0 0 0 0 
0 0 0 0 
0 0 0 0 
0.1886257328220799 -0.1653063216651478 -0.01255260951940731 -0.005126884371372987 
0.1886257328220799 -0.1653063216651478 -0.01255260951940731 -0.005126884371372987 
0 0 0 0 
0 0 0 0 
0 0 0 0 
0 0 0 0 
0 0 0 0 
0 0 0 0 
-0.2624969068612537 0.2868243815980405 -0.1693128004871334 -0.1352424973344546 
0 0 0 0 
0 0 0 0 
0 0 0 0 
-0.3673222764857078 0.3515021801724857 -0.04012430165807467 -0.0160318029893165 
-0.02346325270352135 0.056128118773321 -0.0008160303559323115 -2.255429596433189e-05 
0 0 0 0 
0 0 0 0 
0 0 0 0 
0 0 0 0 
0 0 0 0 
0 0 0 0 
0 0 0 0 
-0.110935686566267 0.1171822169552798 -0.1759563743031295 -0.1498335640506334 
0 0 0 0 
0 0 0 0 
0 0 0 0 
0 0 0 0 
0 0 0 0 
0 0 0 0 
0 0 0 0 
0 0 0 0 
0 0 0 0 
0 0 0 0 
0 0 0 0 
0 0 0 0 
0 0 0 0 
0 0 0 0 
0 0 0 0 
0 0 0 0 
0 0 0 0 
-0.2288193722038719 -0.07825551774387692 -0.08550058662858337 0.1885752645578911 
0 0 0 0 
-0.1594656630819053 0.1666504230481003 -0.1082319271090489 -0.2074960825968293 
0 0 0 0 
0 0 0 0 
0 0 0 0 
-0.1505406796277072 0.1938849547342991 -0.02473948022360814 -0.09432255367456038 
0 0 0 0 
0 0 0 0 
0 0 0 0 
0 0 0 0 
0 0 0 0 
0 0 0 0 
0 0 0 0 
0 0 0 0 
0 0 0 0 
0 0 0 0 
0 0 0 0 
0 0 0 0 
0 0 0 0 
0 0 0 0 
0 0 0 0 
-0.3128800573399478 0.3730517633195889 -0.0353944696730293 -0.04723576076395663 
-0.3128800573399478 0.3730517633195889 -0.0353944696730293 -0.04723576076395663 
0 0 0 0 
0 0 0 0 
0 0 0 0 
0 0 0 0 
0 0 0 0 
0 0 0 0 
0 0 0 0 
0 0 0 0 
0 0 0 0 
0 0 0 0 
0 0 0 0 
-0.1915443458538599 0.2075224429832922 -0.05248539604427831 -0.0544755888723341 
-0.5461556051129988 0.482650180047283 -0.01242144100823651 -0.2210929879296856 
0 0 0 0 
0 0 0 0 
0 0 0 0 
-0.03153597526403933 0.02075690207971436 -0.03112128367329187 -0.008201363568199954 
0 0 0 0 
0 0 0 0 
0 0 0 0 
0 0 0 0 
0 0 0 0 
0 0 0 0 
0 0 0 0 
0 0 0 0 
0 0 0 0 
0 0 0 0 
0 0 0 0 
0 0 0 0 
0.1439863235048284 -0.05712955394190637 -0.01497801271334172 -0.004311320875416554 
0.2404883090866737 -0.260865768196514 -0.1463276609445505 -0.08028482143435874 
0 0 0 0 
0 0 0 0 
0 0 0 0 
0 0 0 0 
0 0 0 0 
0 0 0 0 
0 0 0 0 
0 0 0 0 
0 0 0 0 
0 0 0 0 
0 0 0 0 
0 0 0 0 
0 0 0 0 
0 0 0 0 
0 0 0 0 
0 0 0 0 
0 0 0 0 
-0.1876199099856323 0.2717829277275976 -0.1044925039425911 -0.04078783122593891 
0 0 0 0 
0 0 0 0 
0 0 0 0 
0 0 0 0 
0 0 0 0 
0 0 0 0 
0 0 0 0 
-0.1009170684395873 0.1325966824370965 -0.03615865002671637 -0.03566101240695859 
-0.2098147614729546 0.2067472810424995 -0.0608357205732226 -0.04530929982037959 
0 0 0 0 
0.07943970340681962 -0.01325538340337527 -0.002260859436826499 -0.006612704088059642 
0.07943970340681962 -0.01325538340337527 -0.002260859436826499 -0.006612704088059642 
0 0 0 0 
0 0 0 0 
0 0 0 0 
0.007907195092670148 -0.003704200547741969 -0.003606780810138283 -0.0003672462875746388 
0.007907195092670148 -0.003704200547741969 -0.003606780810138283 -0.0003672462875746388 
0.007907195092670148 -0.003704200547741969 -0.003606780810138283 -0.0003672462875746388 
0.04873447264104921 -0.04641807986446656 -0.006160534242149833 -0.004369955070891907 
0 0 0 0 
0 0 0 0 
0.2585085642137582 -0.3157162512493502 -0.002345438052536362 -0.01021688549314846 
0 0 0 0 
0 0 0 0 
0 0 0 0 
0 0 0 0 
0 0 0 0 
0 0 0 0 
0 0 0 0 
0 0 0 0 
0 0 0 0 
0 0 0 0 
0 0 0 0 
0 0 0 0 
0 0 0 0 
0 0 0 0 
0 0 0 0 
0 0 0 0 
0 0 0 0 
-0.01901786308035755 0.09593390703625383 -0.2436844234192944 -0.1166569659562715 
0 0 0 0 
-0.3194587507918157 0.2649891706840471 -0.01762816692033746 -0.006084909360975683 
0 0 0 0 
0 0 0 0 
0 0 0 0 
0 0 0 0 
0 0 0 0 
0 0 0 0 
0 0 0 0 
0 0 0 0 
0 0 0 0 
0 0 0 0 
0 0 0 0 
0 0 0 0 
0 0 0 0 
0 0 0 0 
0 0 0 0 
0 0 0 0 
0 0 0 0 
0 0 0 0 
0 0 0 0 
0 0 0 0 
0 0 0 0 
0 0 0 0 
-0.4362433301332004 0.5098359640145443 -0.0339078062915766 -0.01158714248161044 
-0.4362433301332004 0.5098359640145443 -0.0339078062915766 -0.01158714248161044 
0 0 0 0 
0 0 0 0 
0.106299372658218 -0.07690583595562717 -0.01051300956767415 -0.002348004344795805 
0.106299372658218 -0.07690583595562717 -0.01051300956767415 -0.002348004344795805 
0 0 0 0 
0 0 0 0 
0 0 0 0 
0 0 0 0 
0 0 0 0 
0 0 0 0 
0 0 0 0 
0 0 0 0 
0 0 0 0 
0 0 0 0 
0 0 0 0 
0 0 0 0 
0 0 0 0 
0 0 0 0 
0 0 0 0 
-0.06573242469186666 0.2024952701186457 -0.06946918042806589 -0.005424467631984824 
0 0 0 0 
0 0 0 0 
0 0 0 0 
0 0 0 0 
0 0 0 0 
0 0 0 0 
0 0 0 0 
0 0 0 0 
0 0 0 0 
0 0 0 0 
0 0 0 0 
0 0 0 0 
0 0 0 0 
0 0 0 0 
0 0 0 0 
0 0 0 0 
0 0 0 0 
0 0 0 0 
0 0 0 0 
0 0 0 0 
0 0 0 0 
0 0 0 0 
0 0 0 0 
0 0 0 0 
0 0 0 0 
-0.03796293773067407 0.0873129492225817 -0.01682945753598819 -0.001474074835688544 
-0.05229491011944663 0.08093069061172931 -0.03935363237422283 -0.004808495080699087 
0 0 0 0 
0 0 0 0 
0 0 0 0 
0 0 0 0 
0 0 0 0 
0 0 0 0 
0 0 0 0 
0 0 0 0 
0 0 0 0 
0 0 0 0 
0 0 0 0 
0 0 0 0 
0 0 0 0 
0 0 0 0 
0 0 0 0 
0.05164327382447007 -0.02717905859641972 -0.01728395221682835 -0.02153015966230313 
0 0 0 0 
0 0 0 0 
0 0 0 0 
0 0 0 0 
0 0 0 0 
0 0 0 0 
0 0 0 0 
0 0 0 0 
0 0 0 0 
0 0 0 0 
0 0 0 0 
0 0 0 0 
0 0 0 0 
0 0 0 0 
0 0 0 0 
0 0 0 0 
0 0 0 0 
0 0 0 0 
0 0 0 0 
-0.01683710324683801 0.01457941302523519 -0.002809379090887458 -0.001760620096839268 
0 0 0 0 
0 0 0 0 
0 0 0 0 
0 0 0 0 
0 0 0 0 
0 0 0 0 
0 0 0 0 
0 0 0 0 
0 0 0 0 
0 0 0 0 
0 0 0 0 
0 0 0 0 
0 0 0 0 
0 0 0 0 
0 0 0 0 
0 0 0 0 
0 0 0 0 
0 0 0 0 
0 0 0 0 
0 0 0 0 
-0.01272989467163959 0.009809475522242426 -0.005605748124296476 -0.001130388344678541 
0 0 0 0 
0 0 0 0 
0 0 0 0 
0 0 0 0 
0 0 0 0 
0 0 0 0 
0 0 0 0 
0 0 0 0 
0 0 0 0 
0 0 0 0 
0 0 0 0 
0 0 0 0 
0 0 0 0 
0 0 0 0 
0 0 0 0 
0 0 0 0 
0 0 0 0 
0 0 0 0 
0 0 0 0 
0 0 0 0 
0 0 0 0 
0 0 0 0 
0 0 0 0 
0 0 0 0 
0 0 0 0 
-0.1644022264206303 0.1983538899442631 -0.03889355811793176 -0.005886438554762404 
-0.1644022264206303 0.1983538899442631 -0.03889355811793176 -0.005886438554762404 
0 0 0 0 
0 0 0 0 
0 0 0 0 
0 0 0 0 
0 0 0 0 
0 0 0 0 
0.200436187683436 -0.08758878865970382 -0.02645907467410814 -0.003323196089871711 
0 0 0 0 
0 0 0 0 
0 0 0 0 
0 0 0 0 
0 0 0 0 
0 0 0 0 
0 0 0 0 
0 0 0 0 
-0.08020990624502441 0.1005190993716155 -0.03288713623179777 -0.0454727803905061 
-0.3003506846334535 0.299171266439419 -0.08699245202654872 -0.0544660501508437 
0 0 0 0 
0 0 0 0 
0 0 0 0 
0 0 0 0 
0 0 0 0 
0 0 0 0 
0 0 0 0 
0 0 0 0 
0 0 0 0 
0 0 0 0 
0 0 0 0 
0 0 0 0 
0 0 0 0 
0 0 0 0 
0 0 0 0 
0 0 0 0 
0 0 0 0 
0 0 0 0 
0 0 0 0 
0 0 0 0 
0 0 0 0 
0 0 0 0 
0 0 0 0 
0 0 0 0 
0 0 0 0 
0 0 0 0 
0 0 0 0 
0 0 0 0 
0 0 0 0 
0 0 0 0 
0 0 0 0 
0 0 0 0 
0 0 0 0 
0 0 0 0 
0 0 0 0 
0 0 0 0 
0 0 0 0 
0 0 0 0 
0 0 0 0 
0 0 0 0 
0 0 0 0 
0 0 0 0 
0 0 0 0 
0 0 0 0 
0 0 0 0 
0 0 0 0 
0 0 0 0 
0 0 0 0 
0 0 0 0 
0.2672272260823559 -0.2584360827754352 -0.2050371110610168 -0.2759761312813014 
0 0 0 0 
0 0 0 0 
0 0 0 0 
0 0 0 0 
0 0 0 0 
0 0 0 0 
0 0 0 0 
0 0 0 0 
0 0 0 0 
0 0 0 0 
0 0 0 0 
0 0 0 0 
0 0 0 0 
-0.02346325270352135 0.056128118773321 -0.0008160303559323115 -2.255429596433189e-05 
0 0 0 0 
0 0 0 0 
0.1012291900784625 -0.06562431014042772 -0.009131640393517952 -0.008131021137852032 
0 0 0 0 
0 0 0 0 
0 0 0 0 
0 0 0 0 
0 0 0 0 
0 0 0 0 
0 0 0 0 
0 0 0 0 
0 0 0 0 
0 0 0 0 
0 0 0 0 
0 0 0 0 
0 0 0 0 
0 0 0 0 
-0.08948071805579032 0.05957796071063453 -0.005585294848368737 -0.002497924359959271 
0.01319110920840259 -0.2553384500515709 -0.2017628823071444 0.1473368518434453 
0 0 0 0 
0 0 0 0 
0 0 0 0 
0.1620850356030382 -0.1759183260676943 -0.01272605111148541 -0.002503456679051716 
0.1620850356030382 -0.1759183260676943 -0.01272605111148541 -0.002503456679051716 
0.1620850356030382 -0.1759183260676943 -0.01272605111148541 -0.002503456679051716 
0 0 0 0 
-0.06654914660658529 0.07599468427290434 -0.02358164812956842 -0.01291335301943047 
0 0 0 0 
0.002674238449613892 -0.001317986997622717 -0.001603936308088881 5.022075939454358e-05 
0 0 0 0 
0 0 0 0 
0 0 0 0 
0 0 0 0 
0 0 0 0 
0 0 0 0 
0 0 0 0 
0 0 0 0 
-0.1345852707651844 0.2567873248545174 -0.008907736707579514 -0.01666304516608028 
0 0 0 0 
0 0 0 0 
0 0 0 0 
0 0 0 0 
0 0 0 0 
0.07975381399076027 -0.02213890302083617 -0.07014022537320216 -0.01402362533950819 
0 0 0 0 
0 0 0 0 
0 0 0 0 
0 0 0 0 
0 0 0 0 
0 0 0 0 
0 0 0 0 
0 0 0 0 
0 0 0 0 
0 0 0 0 
0 0 0 0 
0 0 0 0 
0 0 0 0 
0 0 0 0 
0 0 0 0 
0 0 0 0 
0 0 0 0 
0 0 0 0 
0 0 0 0 
0 0 0 0 
0 0 0 0 
0 0 0 0 
0 0 0 0 
0 0 0 0 
0 0 0 0 
0 0 0 0 
0 0 0 0 
0 0 0 0 
0 0 0 0 
0 0 0 0 
0 0 0 0 
0 0 0 0 
0 0 0 0 
0 0 0 0 
0 0 0 0 
0 0 0 0 
0 0 0 0 
0 0 0 0 
0 0 0 0 
0 0 0 0 
0 0 0 0 
0 0 0 0 
0 0 0 0 
0 0 0 0 
0 0 0 0 
0 0 0 0 
0 0 0 0 
0 0 0 0 
0 0 0 0 
0 0 0 0 
0 0 0 0 
0 0 0 0 
0 0 0 0 
-0.2678240211770945 0.2571394389153459 -0.1355724772582646 -0.1081889942135169 
0 0 0 0 
0 0 0 0 
0 0 0 0 
0 0 0 0 
0 0 0 0 
0 0 0 0 
0 0 0 0 
0 0 0 0 
0 0 0 0 
0 0 0 0 
0 0 0 0 
0 0 0 0 
0 0 0 0 
0 0 0 0 
-0.13710276139824 0.1511674238462858 -0.02222882883183906 -0.04010814544474142 
-0.13710276139824 0.1511674238462858 -0.02222882883183906 -0.04010814544474142 
0 0 0 0 
0 0 0 0 
0 0 0 0 
0 0 0 0 
0 0 0 0 
0 0 0 0 
0 0 0 0 
0 0 0 0 
0 0 0 0 
0 0 0 0 
0 0 0 0 
0 0 0 0 
0 0 0 0 
0 0 0 0 
0 0 0 0 
0 0 0 0 
0 0 0 0 
0 0 0 0 
0 0 0 0 
0 0 0 0 
0 0 0 0 
0 0 0 0 
0 0 0 0 
0 0 0 0 
0 0 0 0 
0 0 0 0 
0 0 0 0 
0 0 0 0 
0 0 0 0 
0 0 0 0 
0 0 0 0 
0 0 0 0 
0 0 0 0 
0 0 0 0 
0 0 0 0 
0 0 0 0 
0 0 0 0 
0 0 0 0 
0 0 0 0 
0 0 0 0 
0 0 0 0 
0 0 0 0 
0 0 0 0 
0 0 0 0 
0 0 0 0 
0 0 0 0 
0 0 0 0 
0 0 0 0 
0 0 0 0 
0.006643409245999966 -0.2044906586077899 0.368182911346081 1.768472170634347e-05 
0 0 0 0 
0 0 0 0 
0 0 0 0 
0 0 0 0 
0 0 0 0 
0 0 0 0 
0 0 0 0 
0 0 0 0 
0 0 0 0 
0 0 0 0 
0 0 0 0 
0 0 0 0 
0 0 0 0 
0 0 0 0 
0.1439863235048284 -0.05712955394190637 -0.01497801271334172 -0.004311320875416554 
0.1439863235048284 -0.05712955394190637 -0.01497801271334172 -0.004311320875416554 
0 0 0 0 
0 0 0 0 
0 0 0 0 
0 0 0 0 
0 0 0 0 
0 0 0 0 
0 0 0 0 
0 0 0 0 
0 0 0 0 
0 0 0 0 
0 0 0 0 
0 0 0 0 
0 0 0 0 
0 0 0 0 
0 0 0 0 
0 0 0 0 
0 0 0 0 
0 0 0 0 
0 0 0 0 
0 0 0 0 
0 0 0 0 
0 0 0 0 
0.2267230230023191 -0.2019566427354803 -0.01049151390399611 -0.03232978436638475 
0.2267230230023191 -0.2019566427354803 -0.01049151390399611 -0.03232978436638475 
0 0 0 0 
-0.05117141557250454 0.08753213331941685 -0.02413975573679061 -0.0317857333027453 
-0.05117141557250454 0.08753213331941685 -0.02413975573679061 -0.0317857333027453 
0 0 0 0 
0 0 0 0 
0 0 0 0 
0 0 0 0 
0 0 0 0 
0 0 0 0 
0 0 0 0 
0.1757843146599954 -0.1828989622731233 -0.004434128778435233 -0.007823591811933095 
0.1757843146599954 -0.1828989622731233 -0.004434128778435233 -0.007823591811933095 
0.1757843146599954 -0.1828989622731233 -0.004434128778435233 -0.007823591811933095 
0 0 0 0 
0 0 0 0 
0 0 0 0 
0 0 0 0 
-0.275070541298312 0.225572348526434 -0.1178943124324379 -0.08997720429523767 
-0.275070541298312 0.225572348526434 -0.1178943124324379 -0.08997720429523767 
0 0 0 0 
0 0 0 0 
0 0 0 0 
0 0 0 0 
0 0 0 0 
0 0 0 0 
0 0 0 0 
0 0 0 0 
0 0 0 0 
0 0 0 0 
0 0 0 0 
0 0 0 0 
0 0 0 0 
0 0 0 0 
0 0 0 0 
0 0 0 0 
0 0 0 0 
0 0 0 0 
0 0 0 0 
0 0 0 0 
0 0 0 0 
0 0 0 0 
0 0 0 0 
0 0 0 0 
0 0 0 0 
0 0 0 0 
0 0 0 0 
0 0 0 0 
-0.1108435007496025 0.1614582945193542 -0.006998761314151724 -0.003709806959448543 
0.0767100778661378 -0.06617330668756986 -0.007673612316111802 -0.008073593634505973 
0 0 0 0 
0.1388980277873033 -0.1085912725552624 -0.00652121392275695 -0.005472525118596961 
0 0 0 0 
0 0 0 0 
-0.1207792874906038 -0.0872217949023263 0.4043901481087699 -0.002101290580249266 
-0.1400234363819137 -0.056053842901326 -0.07930554293298295 0.1077127350062086 
-0.1400234363819137 -0.056053842901326 -0.07930554293298295 0.1077127350062086 
-0.1400234363819137 -0.056053842901326 -0.07930554293298295 0.1077127350062086 
0 0 0 0 
0 0 0 0 
0 0 0 0 
0 0 0 0 
0.2053432347199915 -0.2418166802886084 -0.02253633994501726 -0.04157400872200584 
0 0 0 0 
0 0 0 0 
0 0 0 0 
0 0 0 0 
0 0 0 0 
0 0 0 0 
0.05164327382447007 -0.02717905859641972 -0.01728395221682835 -0.02153015966230313 
0 0 0 0 
0 0 0 0 
0 0 0 0 
0 0 0 0 
-0.00598706120076329 0.008486173950640084 -0.0004254807922815794 -5.643762458192313e-05 
-0.00598706120076329 0.008486173950640084 -0.0004254807922815794 -5.643762458192313e-05 
-0.00598706120076329 0.008486173950640084 -0.0004254807922815794 -5.643762458192313e-05 
0 0 0 0 
0 0 0 0 
0 0 0 0 
0 0 0 0 
-0.05939318885630877 0.04858716496598681 -0.06023416315035007 -0.07055671829789147 
-0.1093037634287516 0.1445153057719247 -0.01208997623827573 -0.008370742614925375 
-0.1093037634287516 0.1445153057719247 -0.01208997623827573 -0.008370742614925375 
0 0 0 0 
0 0 0 0 
0 0 0 0 
0 0 0 0 
0 0 0 0 
0 0 0 0 
0 0 0 0 
0 0 0 0 
0 0 0 0 
0 0 0 0 
0 0 0 0 
0 0 0 0 
0 0 0 0 
0 0 0 0 
0 0 0 0 
0 0 0 0 
0 0 0 0 
0 0 0 0 
0 0 0 0 
0 0 0 0 
0 0 0 0 
0 0 0 0 
0 0 0 0 
0 0 0 0 
0 0 0 0 
0 0 0 0 
0 0 0 0 
0 0 0 0 
0 0 0 0 
0 0 0 0 
0 0 0 0 
0 0 0 0 
0 0 0 0 
0.1040158303892253 -0.05683897491160098 -0.005933191153238794 -0.001878457248550211 
0 0 0 0 
0 0 0 0 
0 0 0 0 
0 0 0 0 
0 0 0 0 
0 0 0 0 
0 0 0 0 
0 0 0 0 
0 0 0 0 
0 0 0 0 
0 0 0 0 
0 0 0 0 
-0.06264924296569641 0.03801550562052312 -0.001325588049315207 -0.001971882160333122 
0 0 0 0 
0.1690731523571976 -0.1816937799487948 -0.1206978161036048 -0.1660161102782951 
0.1690731523571976 -0.1816937799487948 -0.1206978161036048 -0.1660161102782951 
0.1690731523571976 -0.1816937799487948 -0.1206978161036048 -0.1660161102782951 
0 0 0 0 
0 0 0 0 
0 0 0 0 
0 0 0 0 
0 0 0 0 
0 0 0 0 
0 0 0 0 
0 0 0 0 
-0.02873851691797712 0.03552198301979358 -0.0006664709515354186 -0.0002238989723381604 
0 0 0 0 
0 0 0 0 
0 0 0 0 
0 0 0 0 
0 0 0 0 
0 0 0 0 
0 0 0 0 
0 0 0 0 
0 0 0 0 
0 0 0 0 
0 0 0 0 
0 0 0 0 
0 0 0 0 
0 0 0 0 
0.1342306999950788 -0.1245895593626262 -0.002111269514267882 -0.002528967486657062 
0 0 0 0 
0 0 0 0 
0 0 0 0 
0 0 0 0 
-0.1108435007496025 0.1614582945193542 -0.006998761314151724 -0.003709806959448543 
-0.1108435007496025 0.1614582945193542 -0.006998761314151724 -0.003709806959448543 
0 0 0 0 
0 0 0 0 
0 0 0 0 
0 0 0 0 
0.1339688494498691 -0.03470775182454994 -0.1316861071247377 -0.07208420090602016 
-0.06943718720574382 0.09896510200456082 -0.0119879854914063 -0.02238063899138354 
0 0 0 0 
0 0 0 0 
0 0 0 0 
0 0 0 0 
0 0 0 0 
0 0 0 0 
0 0 0 0 
0 0 0 0 
0 0 0 0 
0 0 0 0 
0 0 0 0 
0 0 0 0 
0 0 0 0 
0 0 0 0 
0 0 0 0 
0 0 0 0 
0 0 0 0 
0 0 0 0 
0 0 0 0 
0 0 0 0 
0.1524785187145273 -0.1488724513500159 -0.1882718587144119 -0.1320800992785033 
0 0 0 0 
0 0 0 0 
0 0 0 0 
0 0 0 0 
0 0 0 0 
0.1830005943847338 -0.07648913647748509 -0.09335111915310254 -0.003088181077995605 
0.08060341307706261 -0.03459677955528397 -0.02137535318780354 -0.01789127006601874 
0 0 0 0 
0 0 0 0 
0 0 0 0 
0 0 0 0 
-0.05229491011944663 0.08093069061172931 -0.03935363237422283 -0.004808495080699087 
0 0 0 0 
0 0 0 0 
0 0 0 0 
0 0 0 0 
0 0 0 0 
0 0 0 0 
0 0 0 0 
0 0 0 0 
0 0 0 0 
0 0 0 0 
0 0 0 0 
0 0 0 0 
0 0 0 0 
0 0 0 0 
0 0 0 0 
0 0 0 0 
0 0 0 0 
0 0 0 0 
0 0 0 0 
0 0 0 0 
0 0 0 0 
0 0 0 0 
-0.2181027342154608 0.2933351924981906 -0.06502204895795349 -0.02654700727550298 
0 0 0 0 
0 0 0 0 
0 0 0 0 
0 0 0 0 
0 0 0 0 
0 0 0 0 
0 0 0 0 
0 0 0 0 
0 0 0 0 
0 0 0 0 
0 0 0 0 
0 0 0 0 
0.1371768527544464 -0.04048958166756901 -0.04563993214002378 -0.02178091091828184 
0.1371768527544464 -0.04048958166756901 -0.04563993214002378 -0.02178091091828184 
0 0 0 0 
0 0 0 0 
0 0 0 0 
0 0 0 0 
0 0 0 0 
0 0 0 0 
0 0 0 0 
0 0 0 0 
0 0 0 0 
0 0 0 0 
-0.08726590453284643 0.08639800348346452 -0.003428552867522667 -0.0001109490623233302 
-0.08726590453284643 0.08639800348346452 -0.003428552867522667 -0.0001109490623233302 
-0.08726590453284643 0.08639800348346452 -0.003428552867522667 -0.0001109490623233302 
0.04873447264104921 -0.04641807986446656 -0.006160534242149833 -0.004369955070891907 
0 0 0 0 
0 0 0 0 
0 0 0 0 
0 0 0 0 
0 0 0 0 
0 0 0 0 
0 0 0 0 
0 0 0 0 
0 0 0 0 
0 0 0 0 
0 0 0 0 
0 0 0 0 
0 0 0 0 
0 0 0 0 
0 0 0 0 
0 0 0 0 
0 0 0 0 
0 0 0 0 
0.0767100778661378 -0.06617330668756986 -0.007673612316111802 -0.008073593634505973 
0.0767100778661378 -0.06617330668756986 -0.007673612316111802 -0.008073593634505973 
0.0767100778661378 -0.06617330668756986 -0.007673612316111802 -0.008073593634505973 
0.0767100778661378 -0.06617330668756986 -0.007673612316111802 -0.008073593634505973 
0.0767100778661378 -0.06617330668756986 -0.007673612316111802 -0.008073593634505973 
0.0767100778661378 -0.06617330668756986 -0.007673612316111802 -0.008073593634505973 
0 0 0 0 
0 0 0 0 
0 0 0 0 
0 0 0 0 
0 0 0 0 
0 0 0 0 
0 0 0 0 
0 0 0 0 
0 0 0 0 
0 0 0 0 
0 0 0 0 
0.04873447264104921 -0.04641807986446656 -0.006160534242149833 -0.004369955070891907 
0 0 0 0 
0 0 0 0 
0 0 0 0 
0 0 0 0 
0 0 0 0 
0 0 0 0 
0 0 0 0 
0 0 0 0 
0 0 0 0 
0 0 0 0 
-0.01286215305982467 0.01585490699215151 -0.007321125368215898 -0.002927831471501136 
0 0 0 0 
0 0 0 0 
0 0 0 0 
0 0 0 0 
0 0 0 0 
0 0 0 0 
0 0 0 0 
0 0 0 0 
0.1867043595529047 -0.1801739446428793 -0.02332465308173826 -0.01057283722204607 
0 0 0 0 
0 0 0 0 
0 0 0 0 
0 0 0 0 
0 0 0 0 
0 0 0 0 
0 0 0 0 
0 0 0 0 
0 0 0 0 
0 0 0 0 
0 0 0 0 
0 0 0 0 
0 0 0 0 
0 0 0 0 
0 0 0 0 
0 0 0 0 
0 0 0 0 
0 0 0 0 
0 0 0 0 
0 0 0 0 
0 0 0 0 
0 0 0 0 
0 0 0 0 
-0.09949161698185031 0.1196522045571408 -0.003349262199948828 -0.00203936817823488 
0 0 0 0 
0 0 0 0 
0 0 0 0 
0 0 0 0 
0 0 0 0 
0 0 0 0 
0 0 0 0 
0 0 0 0 
0 0 0 0 
0 0 0 0 
0 0 0 0 
0 0 0 0 
0 0 0 0 
0 0 0 0 
0 0 0 0 
0 0 0 0 
0 0 0 0 
0 0 0 0 
0 0 0 0 
0 0 0 0 
0 0 0 0 
0 0 0 0 
0 0 0 0 
0 0 0 0 
0 0 0 0 
0 0 0 0 
0 0 0 0 
0 0 0 0 
0 0 0 0 
0 0 0 0 
0 0 0 0 
0 0 0 0 
0 0 0 0 
0 0 0 0 
0 0 0 0 
0 0 0 0 
0 0 0 0 
0 0 0 0 
0 0 0 0 
0 0 0 0 
0 0 0 0 
0 0 0 0 
0 0 0 0 
0 0 0 0 
0 0 0 0 
0 0 0 0 
0 0 0 0 
0 0 0 0 
0 0 0 0 
0 0 0 0 
0 0 0 0 
0 0 0 0 
0 0 0 0 
0 0 0 0 
0 0 0 0 
0 0 0 0 
0 0 0 0 
0 0 0 0 
0 0 0 0 
0 0 0 0 
0 0 0 0 
0 0 0 0 
0 0 0 0 
0 0 0 0 
0 0 0 0 
-0.09941763739661796 0.1187743487084024 -0.1315305721278038 -0.04999570616572967 
-0.09941763739661796 0.1187743487084024 -0.1315305721278038 -0.04999570616572967 
-0.05664417474226582 0.1140377340217983 -0.2056062877184248 -0.02482958065075454 
0.2872427623889558 -0.334597649760181 -0.001173783308493605 -0.0002803169186175549 
0 0 0 0 
-0.006692444068179287 0.01576883745485801 -0.001129276390021658 -0.001560286962268422 
0 0 0 0 
0 0 0 0 
0 0 0 0 
0 0 0 0 
0 0 0 0 
0 0 0 0 
0 0 0 0 
0 0 0 0 
0 0 0 0 
0 0 0 0 
0 0 0 0 
0 0 0 0 
0 0 0 0 
0 0 0 0 
-0.0659270909108829 0.04886216703523515 -0.0003050508886272131 -0.0001217081909817039 
-0.0659270909108829 0.04886216703523515 -0.0003050508886272131 -0.0001217081909817039 
0 0 0 0 
0 0 0 0 
-0.07068794139065333 0.04090924508473359 -0.002984456053584435 -0.001557992546459846 
0 0 0 0 
0.0705706747403147 -0.08079529369436808 -0.009235904425470306 -0.02514321368407056 
0.0705706747403147 -0.08079529369436808 -0.009235904425470306 -0.02514321368407056 
-0.1720644738021997 0.1723931548920016 -0.05603988765948991 -0.04385959352978583 
0 0 0 0 
0 0 0 0 
0 0 0 0 
0 0 0 0 
0 0 0 0 
0 0 0 0 
0 0 0 0 
0 0 0 0 
0 0 0 0 
0 0 0 0 
0 0 0 0 
0 0 0 0 
0 0 0 0 
0 0 0 0 
0 0 0 0 
0 0 0 0 
0 0 0 0 
0 0 0 0 
0 0 0 0 
0 0 0 0 
0 0 0 0 
0 0 0 0 
0 0 0 0 
0 0 0 0 
0 0 0 0 
0 0 0 0 
0 0 0 0 
0 0 0 0 
0 0 0 0 
0 0 0 0 
0 0 0 0 
0 0 0 0 
0 0 0 0 
0 0 0 0 
0 0 0 0 
-0.2319046355036334 0.2443844458414554 -0.1295240314068009 -0.1292479118707123 
0 0 0 0 
-0.0008667878634967419 0.005144484024969773 -9.806399202282859e-05 -0.0005022586578815989 
0 0 0 0 
0 0 0 0 
0 0 0 0 
0 0 0 0 
0 0 0 0 
0 0 0 0 
0 0 0 0 
0 0 0 0 
0 0 0 0 
0 0 0 0 
0 0 0 0 
0 0 0 0 
0 0 0 0 
0 0 0 0 
-0.03736885398916917 0.06021134409227408 -0.00666887448958965 -0.001410196731162968 
-0.03736885398916917 0.06021134409227408 -0.00666887448958965 -0.001410196731162968 
0 0 0 0 
0 0 0 0 
0 0 0 0 
0 0 0 0 
0 0 0 0 
0 0 0 0 
0 0 0 0 
0 0 0 0 
0 0 0 0 
0 0 0 0 
0 0 0 0 
0 0 0 0 
0 0 0 0 
0.1296684238472904 -0.102676784632289 -0.02029329595421406 -0.03067221322102709 
0.1296684238472904 -0.102676784632289 -0.02029329595421406 -0.03067221322102709 
0.1009299069293133 -0.06715480161249539 -0.02095976690574948 -0.03089611219336525 
0 0 0 0 
0 0 0 0 
0 0 0 0 
0 0 0 0 
0 0 0 0 
0 0 0 0 
0 0 0 0 
0 0 0 0 
0 0 0 0 
0 0 0 0 
0.1077180849946573 -0.05692874651327249 -0.0474008142365169 -0.02877041325740559 
0 0 0 0 
0 0 0 0 
0 0 0 0 
0 0 0 0 
0 0 0 0 
0 0 0 0 
-0.02873851691797712 0.03552198301979358 -0.0006664709515354186 -0.0002238989723381604 
-0.02873851691797712 0.03552198301979358 -0.0006664709515354186 -0.0002238989723381604 
0 0 0 0 
0 0 0 0 
0 0 0 0 
0 0 0 0 
0 0 0 0 
0 0 0 0 
0 0 0 0 
0 0 0 0 
0 0 0 0 
0 0 0 0 
0 0 0 0 
0 0 0 0 
0 0 0 0 
0 0 0 0 
0 0 0 0 
-0.01152840314713892 0.1190375318896595 -0.02160259305619091 -8.312584765473338e-05 
0 0 0 0 
0 0 0 0 
0 0 0 0 
0 0 0 0 
0 0 0 0 
-0.03059227135762028 0.04243993575658509 -0.03978876908033251 -0.005994585463742244 
0 0 0 0 
0 0 0 0 
0 0 0 0 
0 0 0 0 
0 0 0 0 
0 0 0 0 
0 0 0 0 
0 0 0 0 
0 0 0 0 
0 0 0 0 
0 0 0 0 
0 0 0 0 
0.1192127289171844 -0.08500037664715843 -0.0829348758448355 -0.0569389439281463 
0.1192127289171844 -0.08500037664715843 -0.0829348758448355 -0.0569389439281463 
0.1192127289171844 -0.08500037664715843 -0.0829348758448355 -0.0569389439281463 
0.1192127289171844 -0.08500037664715843 -0.0829348758448355 -0.0569389439281463 
0 0 0 0 
0 0 0 0 
0.002693721103212532 -0.001996045445562193 0.0003958816315373331 9.70722863370614e-05 
0.002693721103212532 -0.001996045445562193 0.0003958816315373331 9.70722863370614e-05 
0 0 0 0 
0 0 0 0 
0 0 0 0 
0 0 0 0 
0 0 0 0 
0 0 0 0 
0 0 0 0 
0 0 0 0 
0 0 0 0 
0 0 0 0 
0 0 0 0 
-0.1691278470920354 -0.1375391921397572 -0.05163036041118993 0.2361185099709614 
0 0 0 0 
0 0 0 0 
0 0 0 0 
0 0 0 0 
0 0 0 0 
0 0 0 0 
0 0 0 0 
0 0 0 0 
0 0 0 0 
0 0 0 0 
0 0 0 0 
0 0 0 0 
0 0 0 0 
0 0 0 0 
0 0 0 0 
0 0 0 0 
0 0 0 0 
-0.1720644738021997 0.1723931548920016 -0.05603988765948991 -0.04385959352978583 
