solver_type L2R_LR
nr_class 4
label 1 0 3 2
nr_feature 3605
bias -1
w
0.0319639204083598 -0.04715734380717815 -0.01545575188851541 -0.003822279152634177 
-0.3108636001729132 0.2058505631470987 -0.9346799768561973 -0.3908324487719193 
0.3257155371730397 -0.07535159441169988 -0.2330525228741348 -0.07546259069904437 
0 0 0 0 
0.463800386704677 -0.3936142097710726 -0.4077048118151335 -0.5636500399135239 
0.8761477155284781 -0.6449090054336087 -0.832360226657281 -0.5083305121886487 
0 0 0 0 
0.9002849936374453 -0.767312120898677 -0.5216638679161608 -0.4714102058877493 
0 0 0 0 
-0.0311657027749231 0.02178907239412366 -0.003132294711992372 -0.001750140032029053 
0.3448879776461689 -0.2526242446523642 -0.2293757587707167 -0.2217229164712454 
0 0 0 0 
0 0 0 0 
-0.1896625158969333 -0.2980363475145179 0.8443493600052647 0.08325874840217516 
0.007943175573699102 -0.07885951968613333 0.09427013517607948 -0.1793751530669092 
0.2031618236558486 -0.2406246148493453 -0.02131537458948332 -0.04160434161085838 
0.8609821929756967 -0.7304711788192001 -0.2475176463396681 -0.2316169105589698 
0.3826399827981481 -0.2402881200633157 -0.1655878743646774 -0.1045128350965245 
0.2043511799360214 -0.1820474322323673 -0.1303530404919014 -0.1050570099918264 
0.2877156043719632 -0.1447024307230875 -0.3921860038833873 -0.2108115946871885 
0.06551175766095181 -0.1944693587056437 -0.6022652527087249 -1.116006442128264 
-1.029081256304136 1.406675910469173 -0.8574542339875202 -0.3486735030639087 
-0.07047922204870806 0.1793887210851471 -0.1935795678957561 -0.1759597108451931 
0 0 0 0 
0.4470706647636754 -0.2115896832762295 -0.3740271702726893 -0.621490180641313 
0 0 0 0 
0 0 0 0 
-1.041823384127884 1.124082033180859 -0.6882504631422408 -0.4318865938076121 
0 0 0 0 
0 0 0 0 
-0.1426724303236628 0.1986512380096524 -0.07065267679188363 -0.07465414458407396 
0.1720927093118937 0.145071343303251 -0.8526244574046868 -0.6646071188265811 
-0.359117200174312 0.6858801440031871 -0.6215591102045877 -0.3920915474392417 
0 0 0 0 
0 0 0 0 
-0.3933422137894546 0.3721256900089078 -0.2974617104567895 -0.5930139612594002 
0 0 0 0 
0 0 0 0 
0 0 0 0 
-0.2378802851107522 0.168100773086778 -0.4867755125119949 -0.7627535366267517 
-0.1822812457247035 0.0276499177275346 0.2528042809665395 -0.1012268644883508 
0.2856331967954776 -0.2861654540096166 0.1814775489472464 -0.09857097178385851 
-0.5413931349399873 0.2754080531550699 0.2782316364206459 -0.1087155012955171 
-0.5555172666552294 0.1740362745507957 0.5905360314714972 -0.864623431414426 
-0.1645119634158346 0.4659840074116515 -0.8917105661576056 -0.5659480962755655 
0.07284108676431557 0.01528337414565514 -0.4921875436323277 -0.5398317282394268 
0.03742692740569599 -0.3230425591400376 0.255382072674574 0.3008038631100923 
0.716833965454269 -0.9175952409181348 -0.06496431913016881 -0.6294937632377942 
-0.2616038793104383 0.3258025361613536 -0.05813890985245022 -0.04976170864443259 
0 0 0 0 
0 0 0 0 
0 0 0 0 
-0.5368763916632234 0.4268602811404535 -0.09832544126693796 -0.05171075847212351 
0.6257700821786211 -0.5170793599161323 -0.5401420593580898 -0.4262415464405986 
0 0 0 0 
-0.01835454945495096 0.01750085879773545 -0.3036138565703932 -0.2877212015688402 
0.3346629514941181 -0.130945353493306 -0.07965782692088401 -0.3589358012055547 
-0.1052126240275403 -0.2210597978526194 0.1238827885814664 -0.07919539107698186 
0.3475563663608066 -0.4672404918036627 -0.07689552949745594 -0.4586504030217586 
-0.02783285692265168 0.03242816247358037 -0.002918317274338172 -0.002923525756566207 
-0.1039125043567727 -0.2327292087510925 -0.1619704397680741 -0.1005110895576044 
-0.6861445221937494 0.6076055973057952 -0.04900009057031251 -0.5531561726162514 
-0.1888790435322407 0.110642362712685 0.08452225514641663 -0.06879879891856407 
0.09592322965687332 0.0451529784608586 -0.4619623263859385 -0.7648496083486416 
-0.02760076966045959 0.1155368584085376 -0.3486983068546636 -0.1035786742080348 
-0.01493628685664561 0.007495084525836315 -0.1346844138816226 -0.3574955554265702 
0 0 0 0 
0.2396610539392414 -0.2473113234661355 -0.0544042515366821 -0.02454822222755974 
-0.2670619964149273 -0.1966531034267475 0.03689935012559523 -0.1678415939975326 
0 0 0 0 
-1.022107188959679 0.781226060799003 0.05669013457744939 -0.5756722670206207 
0 0 0 0 
0.1972888472456521 -0.2523752595640921 -0.01971529446906797 -0.1581771726284827 
-0.1877637421966683 0.484283452919019 -0.5342355517547176 -0.2772291135598104 
0.3739953766545321 -0.6383749822938818 -0.1364534579365657 -0.5962532978515412 
0 0 0 0 
0.525133504209385 -0.5089584859833779 -0.01245994601995163 -0.01298464021471553 
0 0 0 0 
0 0 0 0 
0.1039608967362196 -0.0007430269154012469 -0.01946860459761521 -0.007779285782443766 
-0.03142956478338247 0.008457422678464197 -0.0001049873063334543 -0.0001867020146324078 
-0.01405757627368649 0.1261076443981698 -0.1033833654696505 -0.1237552900217641 
0 0 0 0 
0.3435800567886033 -0.2157352323799827 -0.03917510837423212 -0.01749748134336759 
0.04991399395907752 -0.04689859833615802 -0.00580980668194906 -0.004312678913261315 
0.2542391639400377 -0.4215351244161852 -0.1858105920943202 0.06914193558943825 
-0.0161451998079231 0.02345192193647589 -0.1908739868058249 -0.1865893544332126 
-0.3075953909401996 0.4893608449087063 -0.2394020248476733 -0.2426925071894992 
0 0 0 0 
-0.2209208762170227 0.3014812527490136 -0.06379153210156895 -0.0270044202398866 
0.07756988666358003 -0.05140073131034491 -0.0514283048624796 -0.01120537505466024 
0.03341438622020952 0.08441997938832434 -0.212618394796371 -0.08054869375464745 
-0.2536143179129782 0.1686992874735851 0.2992544547259428 -0.09035837915974507 
-0.1462883761349744 0.2149654576701071 -0.1094616740618281 -0.07826706522966656 
0 0 0 0 
0 0 0 0 
0 0 0 0 
0 0 0 0 
0.1388868411393676 -0.07793684857657579 -0.1465441428223707 -0.04517018983213676 
0.03033255806967114 0.1502289899140675 -0.3386680240660817 -0.4098824774621143 
0 0 0 0 
-0.08804128032508013 0.08771356282616349 -0.003335389578661246 -0.0001118566743142453 
0 0 0 0 
0.2510061775931045 -0.3449699601871732 -0.05952391392724818 -0.09940841000632787 
0.07033352182309356 -0.3394380316819332 -0.4429635837991143 0.2284856506234193 
-0.1828008407284196 0.1805626313215265 -0.1362597008001041 -0.0612844689748479 
0 0 0 0 
-0.01243919576328617 0.009117595381140087 -0.005006515749790693 -0.001073588647359336 
0 0 0 0 
0 0 0 0 
0 0 0 0 
0 0 0 0 
0 0 0 0 
0.2792309654324698 -0.1076008541742313 -0.1996126973946022 -0.3036475271404404 
0 0 0 0 
0 0 0 0 
0.09433639002986195 -0.0818120711391586 -0.007558183590479597 -0.003830953053909592 
-0.2952132569834616 -0.1491725834426387 -0.1359924600230258 0.5846726294650908 
0 0 0 0 
-0.5142409720792284 -0.08981828803318893 0.1519684289586359 0.2665372738819102 
0.1837576185281789 -0.08641105532892815 -0.08829961439110147 -0.08479304294736999 
-0.0847989445476989 0.1699080427528319 -0.3417004627908311 -0.07047504757189452 
-0.01834601488663621 0.02549973574927197 -0.001149427793290179 -0.001531390579980803 
-0.2748176314899983 -0.008759598014342538 -0.05140181912567643 0.3816677149087723 
0.421215908997055 -0.6454750297044314 -0.6811936452456615 -0.2111148651772186 
0 0 0 0 
0 0 0 0 
-0.0774887906549418 0.1791545922995873 -0.1206334580745043 -0.07021606869767066 
0.07286985652409125 0.1826595248735212 -0.3692919407687061 -0.1224812907516829 
0 0 0 0 
-0.1301131933852779 0.1332554798965423 -0.001368456867850169 -0.001074087491221467 
-0.1026489636405847 -0.1512375753983735 -0.1171741669677558 0.1597793404712963 
0 0 0 0 
-0.06471505902931686 0.2059877865542395 -0.04610787214922935 -0.1032238796527049 
0 0 0 0 
-0.02783285692265168 0.03242816247358037 -0.002918317274338172 -0.002923525756566207 
-0.03342941137578183 -0.1355581208271188 0.191072682757031 -0.219904777285352 
-0.05618528892078127 0.3626278243819611 -0.2817491127024194 -0.06563315950337001 
0 0 0 0 
-0.001934618973191812 -0.007448932217403182 -0.02137868854160505 -0.02605906891690888 
-0.05197937310884951 0.08067000387680097 -0.07860663720401534 -0.06217388951238935 
-0.0400133584465605 0.08368514250811135 -0.06757632189696461 -0.02450853933717872 
-0.01479142317047224 0.007217437639924454 -0.000100177943535825 -6.171579447601666e-05 
0 0 0 0 
0 0 0 0 
-0.5875038498425953 0.7558365649705311 -0.1920943170110032 -0.0797736774062263 
-0.1971892666201041 0.2263467042172067 -0.1752225481043222 -0.06696157043109843 
0 0 0 0 
0 0 0 0 
0 0 0 0 
0 0 0 0 
0 0 0 0 
0 0 0 0 
-0.07402205959708424 0.3787755340283696 -0.6737485104580462 -0.4111427635774487 
-0.1322435965114945 0.1980256717153052 -0.03837272902576237 -0.07112966193538967 
0.2742235061690694 -0.1920875012684217 -0.1672140161721202 -0.06431380655317678 
0 0 0 0 
-0.3008254880146025 0.239569114468959 -0.1193649613892746 -0.09153105858063941 
0 0 0 0 
0 0 0 0 
0 0 0 0 
0.3727554621273554 -0.4169958135546673 0.1839119411511278 -0.04670012995760346 
-0.0196474177921817 0.1607203656762143 -0.1296259338390487 -0.209148088006019 
-0.432741287947122 0.5044123139179695 -0.02955198893934186 -0.01151650356012164 
-0.5323139874437131 0.07907895542832734 0.01818965235953827 0.06167778935371485 
0 0 0 0 
0 0 0 0 
0 0 0 0 
-0.09521801984106129 -0.4158515862107646 0.006672429332548056 0.507403744670351 
0 0 0 0 
0.08127598852782154 -0.007672202731386289 -0.4206694114694878 -0.5073560822740616 
0.325657069053947 -0.1846216505028257 -0.09679800855503572 -0.0696240112960449 
-0.002749259719351072 -0.03011674173928033 0.0001846315041323888 6.769873201936541e-05 
0 0 0 0 
0 0 0 0 
0 0 0 0 
0 0 0 0 
0.1886694615062691 -0.1652169869202226 -0.01347440637341578 -0.005143319324983757 
-0.0503532723718943 0.06117415293403475 -0.03550408563488254 -0.01571104622442036 
-0.1248769243425899 0.1684773622227491 -0.00845534331864467 -0.003753257255344311 
0 0 0 0 
0.3652504567058681 -0.3847958092572079 -0.1437408019502571 -0.2052265805111308 
-0.1388613127173601 0.2219473021427553 -0.1798169318809652 -0.3547971928640514 
-0.3381392505079566 0.1073062128577891 0.01775598491388868 -0.08218517474824283 
-0.4779042086462355 0.5585767080029751 -0.6375688811085747 -1.218810986905611 
0.04862973735370281 0.0618737381887748 -0.2747871856731527 -0.06477448910886202 
0.05290235907100121 -0.1704351088818884 0.01501620764508606 -0.2560358511649491 
0 0 0 0 
0.1115120142674938 -0.4273639718351181 -0.2634637127458642 -0.1723954591198925 
-0.09395551493668333 0.08965795840165934 -0.08140734494056406 -0.03480035178963005 
-0.02250578374186094 0.02575529474291074 -0.004870334817135879 -0.003381014368958271 
0 0 0 0 
0 0 0 0 
0 0 0 0 
0 0 0 0 
0.008263453729551194 -0.002815875040491734 -0.003536007879689483 -0.0003676248637820374 
0.006650525643711293 0.02164359176324061 -0.004108901133418958 -0.0003490028232033557 
0 0 0 0 
0 0 0 0 
0 0 0 0 
0 0 0 0 
0 0 0 0 
0 0 0 0 
0 0 0 0 
0 0 0 0 
0 0 0 0 
0.05293162146862042 -0.1688932504559948 -0.2857735392635316 -0.1082722489092769 
0.2588746446673822 0.1270939624856575 -0.547479875973928 -0.3071711516215348 
0.3260289884263705 -0.2678513898428308 -0.1006329865894795 -0.07892200785625986 
0.02843028701127641 0.1051465077793547 -0.1259936427934957 -0.04308419083667369 
-0.176346458082265 0.2295870950228308 -0.09836264854734314 -0.1101838769991616 
0.436032474584846 -0.2511891348788321 -0.1498760926671971 -0.1625121964221709 
0 0 0 0 
0.6873896736746151 -0.3768852742685969 -0.2109941115393172 -0.1910239813942303 
-0.2527172151070868 0.2589550657035036 -0.09886182380314694 -0.09414880356450268 
-0.1061033339005627 -0.1592375092351793 0.18402356166903 -0.1299698494167739 
0.1013067401362693 -0.03070197245847605 -0.04956134360050711 -0.01985917229889962 
0 0 0 0 
0 0 0 0 
0 0 0 0 
-0.05228938491889416 0.2016873072251094 -0.3202382519316918 -0.1540794229610115 
0.5710220557199902 -0.5796496930925228 -0.01886658116446278 -0.1807616771998029 
0 0 0 0 
0 0 0 0 
0 0 0 0 
0.1542894608636146 -0.1499789610341558 -0.1895466067317579 -0.1316956930377232 
-0.1391329903787675 -0.04837320863120528 0.394127953114853 -0.00338157923480484 
-0.06341653463614191 0.2904881708409657 -0.06121320530880225 -0.2579245321739523 
0.3616925737019639 -0.2180365260295549 -0.2538309813375593 -0.1567791950139049 
-0.5331939752153759 0.5076638109089605 -0.7151489723451723 -0.7591015664000165 
0.180137308094099 -0.1243975398062106 -0.07584037734157319 -0.0473622745579439 
0 0 0 0 
0 0 0 0 
0 0 0 0 
0.1898126050176584 -0.07483328153604948 -0.08200532213430584 -0.08182726391679229 
0.1000312996968079 -0.3170646531975311 0.1516598417894128 -0.1009594231505173 
-0.1393713753999965 0.1522997699140454 -0.02672460466557744 -0.04478189268098566 
0 0 0 0 
-0.1927077702057515 0.1914496914441682 -0.2648119624133418 -0.07726016673623892 
-0.3781908700314309 0.06341041962457666 0.5132967551732295 -0.001267945003881968 
-0.4157137761514644 0.6029838766857127 -0.2658240273058418 -0.231433248918155 
0.1487736402914908 0.04894380360843571 -1.071026967661985 -0.4589176482433137 
-0.5742805185975018 0.7224801019392556 -0.176903522888057 -0.1628819334807897 
-0.1696464833972243 -0.3764259159925353 -1.010853865307614 -0.2911164693198454 
0.007049740245302888 -0.0003959310545465396 -0.002345432879866194 -7.263606761379331e-05 
-0.4036348217155082 0.5244866610056492 -0.07462255431210781 -0.04112890298682739 
0 0 0 0 
0 0 0 0 
0 0 0 0 
0.00767049790297929 0.07280802354281095 -0.04866862203217895 -0.07788605042856904 
0 0 0 0 
0 0 0 0 
-0.2193706119350324 0.2197883879020189 -0.02577101591720498 -0.00244104713283652 
0 0 0 0 
0 0 0 0 
0 0 0 0 
0 0 0 0 
-0.3943355904254287 0.1178922422255185 0.08814891427830913 -0.1668482304250333 
0 0 0 0 
0 0 0 0 
0 0 0 0 
0 0 0 0 
-0.02250578374186094 0.02575529474291074 -0.004870334817135879 -0.003381014368958271 
0.07383534623600801 -0.01561435959032507 -0.0649411901968581 -0.02734036343829964 
-0.4750059161194915 0.4887827011535577 -0.144426549283432 -0.05024804721807148 
0 0 0 0 
-0.05944873797325652 0.04685192476067312 -0.05448823633375296 -0.02113940965648358 
0.01872232905774078 -0.005115029917811396 -0.3777813927548734 -0.3805549504087398 
-0.5813360304917514 0.5354146291189819 -0.3639943203824826 -0.4602105551308288 
0.08528563294557806 -0.03093643011011991 -0.05665679272588798 -0.03243116865889584 
-0.4035455428284079 0.5138563250008773 -0.1150053433403997 -0.07492669592941043 
0.2878746096880815 -0.4098696540938571 -0.1533759016782527 -0.3224152872794684 
-0.6616342607490768 0.1397140676011355 0.2387995307885772 -0.3867784155953593 
-0.2201370797661158 0.2964998083240777 -0.06364216495950205 -0.02652448797545254 
0.3229078093345959 -0.2147383922421061 -0.09661337705090332 -0.06955631256402554 
-0.3012779409968184 -0.4543380573347781 0.444499542550009 -0.5286225499120192 
-0.1402578099295599 -0.05566522561137993 -0.07863626439462607 0.1078256701305347 
0 0 0 0 
0 0 0 0 
0 0 0 0 
0 0 0 0 
0 0 0 0 
0 0 0 0 
0.06233034744161137 -0.01643567822759447 -0.07715667544331992 -0.04258054667924902 
-0.4315836250626227 0.4338980321026345 -0.08684448778137532 -0.05549665003317784 
-0.3473394716550476 0.2869129954968724 -0.02046872329993031 -0.006489742083660818 
0 0 0 0 
0 0 0 0 
0.2932103529840303 -0.06509984212763784 -0.3157203051032826 -0.2325487366929528 
0 0 0 0 
0.1287058795340849 -0.1021216264752213 -0.01984416978752564 -0.03081335855198807 
0.1428945280701395 -0.1137493261229214 -0.006036453477591607 -0.005438006995915212 
0 0 0 0 
0 0 0 0 
0 0 0 0 
0 0 0 0 
0.3096470840590281 -0.1012545356058661 -0.194912672329567 -0.3004147139717124 
-0.07690086000382031 0.09461477092737472 -0.005791776010442532 -0.002945237388640775 
0.2359471394826684 -0.2066880093785556 -0.1807226401543102 -0.1090594710572782 
-0.4284631708616483 0.4651568583259094 -0.1755411855770075 -0.2417957021922532 
-0.06853457626197472 -0.01587144228637939 -0.003407412967116699 -0.01261447754454123 
-0.1294530464369991 0.07595131613474579 -0.002208243009930804 -0.003822443117563331 
-0.08798039272977051 0.1116976583645552 -0.1177329788801243 -0.01694042438704002 
-0.06472652321849953 0.03797565806737289 -0.001104121504965402 -0.001911221558781665 
-0.3623679646307693 0.375819668655558 -0.2850461991756664 -0.2729861538311065 
0 0 0 0 
0 0 0 0 
0 0 0 0 
0 0 0 0 
0 0 0 0 
-0.4060258432893934 0.554530219844046 -0.3012397830735911 -0.1764376282231733 
0 0 0 0 
0 0 0 0 
-0.09361283142847537 0.1240812412612799 -0.01875063558400839 -0.006578768711190738 
0 0 0 0 
0 0 0 0 
-0.1097276890604947 0.02058795241274843 0.3687852080384884 -0.004893872790574702 
-0.1543381863139431 -0.2547017460299305 0.7382190047563265 -0.01812907997396756 
0 0 0 0 
-0.3076002904038233 0.3224923981287895 -0.07756943754198471 -0.09313735450754201 
-0.2351315556151442 0.2695122567521325 -0.05903554454937961 -0.05943192036977101 
-0.1212602899826805 -0.08435740314328498 0.3989430225639177 -0.002088294449589177 
0 0 0 0 
-0.2239023381908362 -0.09747526869177284 0.2307286925578938 -0.008877439812325789 
0.1660526121883881 -0.1317562210575529 -0.07373589343801819 -0.06077906230626744 
0 0 0 0 
0 0 0 0 
-0.1291962508787201 0.2115077502376743 -0.2057513710522384 -0.164276495179118 
0 0 0 0 
0 0 0 0 
-0.1121706825933075 0.1455182939967608 -0.02594085328010229 -0.01689227013264222 
-0.07690293256839292 0.1600823303242673 -0.06999298608752437 -0.03160902290549468 
0.06736323546595166 0.1528828434397518 -0.1073138002244647 -0.04524678706054688 
-0.2746625245661235 0.2868687710409811 -0.2382706312067183 -0.2015156459198515 
0 0 0 0 
-0.0847989445476989 0.1699080427528319 -0.3417004627908311 -0.07047504757189452 
0 0 0 0 
-0.587981782271653 -0.4016762717365369 0.9484814325222082 -0.03353785727234369 
0.03336587426968458 0.02464111598196731 -0.219634729184094 -0.2032299656987014 
0 0 0 0 
0 0 0 0 
0 0 0 0 
0.2370999799989741 -0.2415444074982609 -0.03668767825911133 -0.02914137000461165 
-0.2830885356666454 0.4435835141361393 -0.1204391534259367 -0.09424011080139483 
-0.08800260403812361 0.157535120386151 -0.1164122060228856 -0.03289683557739586 
0 0 0 0 
0.3156197009783542 -0.3055260433858328 -0.01643046624842682 -0.0226620208448582 
0 0 0 0 
0.1000087612218818 -0.06496361267435059 -0.009211733826020869 -0.008074727592732174 
-0.09871693036682991 -0.2531939020204458 0.2905811321308416 -0.02611483850201154 
0.04547894323646687 -0.005742458397459901 -0.04278728554371881 -0.01390591020078682 
0.000121034459740545 0.01357496536694321 -0.0009327148578127467 4.163414657150529e-06 
0.1897531695296814 -0.05599732155944913 -0.05637158550743806 -0.03432532464465058 
0 0 0 0 
0.0134215811285675 -0.004909355719969423 -0.3314951961790253 -0.1127804085006558 
0 0 0 0 
-0.2308040384759505 0.1955122066173793 -0.06453312143032761 -0.02993003243952221 
0 0 0 0 
0 0 0 0 
0.4782363441206793 -0.2972846398654183 -0.3409234533698315 -0.2582944638210318 
0 0 0 0 
0 0 0 0 
0 0 0 0 
-0.1320145512293542 0.1740784998219958 -0.02110543090889238 -0.01082187896343897 
-0.6960028884362034 0.6328370489822795 -0.4857942655728104 -0.03336163341583759 
-0.1736003383591304 0.06986094930982796 -0.1009576756061804 0.3575896831031943 
-0.4051529319755727 0.4145667520481235 -0.3768452670780239 -0.3029694875695909 
0 0 0 0 
0 0 0 0 
-0.1393713753999965 0.1522997699140454 -0.02672460466557744 -0.04478189268098566 
-0.1022035908300351 0.2281766579691116 -0.2317324080636756 -0.1824001621217742 
-0.1570946094940838 -0.109901857431281 0.2655221480169099 -0.03879490336378204 
-0.02182037661219605 0.04644306402768045 -0.01809314425562648 -0.00137843023870428 
-0.08197460330359498 0.04580557830053682 -0.03143820638653181 -0.007743656664713001 
-0.01369231964435594 0.05591077965467911 -0.01489117818658049 -0.001400748792102256 
-0.04895721573562325 0.06378004644584272 -0.0104966802540812 -0.008471709632059128 
0 0 0 0 
0 0 0 0 
0 0 0 0 
0 0 0 0 
-0.6274352795602988 -0.2682235123780283 0.04598034812119962 0.4855656069264281 
0.4932423927206842 -0.3682520294870136 -0.03501200154442775 -0.2845344096104539 
0.4064229455784066 -0.1700461341982399 -0.3559368151611884 -0.1269627607730289 
0 0 0 0 
0 0 0 0 
-0.209698666840516 0.3101153688156909 -0.2450739315100953 -0.1826061926134211 
0 0 0 0 
-0.0996173503851009 0.08738685852556821 -0.1057884413411947 -0.03434763030094864 
0.09071552781638142 -0.01931937886882634 -0.03819934444022301 -0.02313240189077313 
0 0 0 0 
-0.1796293808915817 -0.05644038530379304 0.2647788848749524 -0.03881693627240775 
0 0 0 0 
0.1352060225505159 -0.1029772934991517 -0.02081841497166993 -0.005674997058778705 
0 0 0 0 
-0.07228380344076617 -0.5129106518495457 0.6566006196554831 -0.002308792837581928 
-0.06850560271289588 0.09737093527131327 -0.01249607445145866 -0.02217242870126618 
0.05576880633302814 0.02759370997754435 -0.1237535040750699 -0.08997818968761795 
0.5210206028365814 -0.4976129755684424 -0.03872504940567763 -0.0671456068480903 
0 0 0 0 
0 0 0 0 
0 0 0 0 
0.09922496477097498 -0.05998216824941471 -0.009361100968087769 -0.008554659857166235 
0.3089532174825205 -0.2898581676379613 -0.1159509838523624 -0.1401289607321514 
0 0 0 0 
0.6918051886644981 -0.5795189216544111 -0.0832428275298395 -0.08176780521955722 
-0.3899147287006021 0.558464594436808 -0.1665595018166955 -0.1767739162320776 
0.2854702009698178 -0.1714263673976553 -0.324114284922874 -0.1360434714745432 
0 0 0 0 
0.2908631917060872 -0.02828026267604157 -0.133038815208479 -0.06353874886918995 
0 0 0 0 
0 0 0 0 
-0.2258085285685577 0.1332021721343797 -0.05660864978269495 -0.04623475321718844 
-0.3638331525543997 0.3366877251808086 -0.08987988634749938 0.09108923114381083 
0 0 0 0 
0.1236282980873427 -0.2327992626533947 -0.05111229721200254 -0.09686998629209254 
-0.006621204803105601 0.01167058045381809 -0.006453684218410832 5.613889893556754e-06 
0.09072769137414288 -0.1196447751268029 -0.01903921019399618 -0.00467458758880806 
0 0 0 0 
0 0 0 0 
0.1941131460647272 -0.1273240536821465 0.01865264722067367 -0.3096457417181225 
0.0004716185995159866 -0.006057666651149571 -0.08678778109284829 -0.06718712097104949 
0 0 0 0 
0.2717223424788883 -0.2160661010812098 -0.03626209146691818 -0.003615551193860362 
0 0 0 0 
0 0 0 0 
-0.1875642755701164 0.2838045824866275 -0.03564717176208693 -0.04601723572352522 
0 0 0 0 
0 0 0 0 
0 0 0 0 
0 0 0 0 
-0.1545123452645918 0.1186270158251621 -0.01841255351193655 -0.04779600753977426 
0.1996622405687203 -0.1830847779858308 -0.03001363699873715 -0.05583904983339928 
0 0 0 0 
0 0 0 0 
0.2051679483073774 -0.1951061257057689 -0.05999057408327294 -0.0631057833399704 
0 0 0 0 
0 0 0 0 
0 0 0 0 
-0.08152252015212992 0.04823707669994533 -0.01032003481324839 -0.00324257203601851 
0 0 0 0 
0 0 0 0 
0 0 0 0 
0 0 0 0 
0 0 0 0 
0 0 0 0 
0.05059510084910862 0.001638486750472142 -0.01205743196587084 -0.01308949715788845 
0.4858355184902329 -0.3643571152654599 -0.1553912053839469 -0.1309946054054247 
0 0 0 0 
0 0 0 0 
0 0 0 0 
0 0 0 0 
-0.207480580933998 -0.3278920438361075 0.4034398751504543 0.2723288491149156 
-0.01925172397035263 0.01827302997572071 -0.002414207456660635 -0.001477515480328859 
0 0 0 0 
0 0 0 0 
-0.09381489747033964 0.1778312033314604 -0.02471650771524306 -0.07943055640977073 
0 0 0 0 
0 0 0 0 
0 0 0 0 
-0.1860426058143589 -0.1190778273163114 -0.05301069753998999 0.2338635468832772 
0 0 0 0 
0 0 0 0 
0.2144272783312662 -0.1675164334643207 -0.056713724456531 -0.05531622724000603 
-0.08804128032508013 0.08771356282616349 -0.003335389578661246 -0.0001118566743142453 
-1.130384133837595 1.255399787921255 0.1554415235467652 -0.3354666287648113 
0.08059731021619139 -0.05656650743127843 -0.05749729174891507 -0.02777139065847719 
0 0 0 0 
0 0 0 0 
0 0 0 0 
0.006531504043538 0.02015000262562959 -0.12986057028143 -0.1153485351297058 
0 0 0 0 
0 0 0 0 
-0.2368286676444492 0.3098444557618965 -0.04121215031479414 -0.1451519272294287 
-0.06106176260516597 0.09961868306288245 -0.0005963482717209238 3.256998107198069e-05 
0.2336825710190336 -0.5250948012622985 0.549219714862788 -0.07459401019901644 
0 0 0 0 
-0.5549007579185901 0.5487351593609586 -0.07517949142586952 -0.1203899765527489 
-0.2193706119350324 0.2197883879020189 -0.02577101591720498 -0.00244104713283652 
0.08794605876363529 -0.3786847902822782 -0.1365474991725799 0.1903693175856726 
0 0 0 0 
0 0 0 0 
0 0 0 0 
0 0 0 0 
0 0 0 0 
0.1339990843088674 -0.1238412779875966 -0.001957932496834804 -0.002544037604128896 
0 0 0 0 
0 0 0 0 
0 0 0 0 
-0.0001517853614143808 0.001242446606251977 -7.43419865488628e-06 4.272290498678541e-06 
0 0 0 0 
0 0 0 0 
0 0 0 0 
0.1000087612218818 -0.06496361267435059 -0.009211733826020869 -0.008074727592732174 
-0.2120959782899173 0.2110677296226865 -0.03615047467144646 -0.02461930007955515 
0 0 0 0 
0 0 0 0 
0 0 0 0 
1.233785024811432 -0.9836133838867195 -0.6014154790672607 -0.5570650563650738 
0 0 0 0 
0 0 0 0 
0 0 0 0 
0.08571629531356849 -0.2169438510643702 -0.007532499883305115 -0.01820475072587073 
0 0 0 0 
0 0 0 0 
0 0 0 0 
0 0 0 0 
0 0 0 0 
0 0 0 0 
0 0 0 0 
0 0 0 0 
-0.08050649083802917 0.09989645685942303 -0.03246922278143507 -0.04548007868084508 
-0.1100855011721177 0.1612599245828246 -0.008355165375108844 -0.003691541460868294 
-0.09170950121997021 0.1607653052480069 -0.02479515144227481 -0.0009528604348409972 
0.4917338001193093 -0.4389289296572353 -0.1593277841271752 -0.1438255000943877 
-0.2708750116369104 0.2772936238867652 -0.01050858470548757 -0.02740896454028958 
0 0 0 0 
0.3176439206042053 -0.1390035071696999 -0.1023992970561353 -0.1098949090756467 
0 0 0 0 
0.1793437491976476 -0.5294778286706868 0.2147416056808945 -0.1335407180886653 
-0.006574667494013306 0.01554674126770893 -0.001330807420715479 -0.001500833793601121 
0 0 0 0 
-0.1176530190296539 0.1664985593469127 -0.01259857243600134 -0.02894713103819964 
-0.326621064529967 0.07458463580948742 0.1012623239189886 -0.2432393233538478 
0 0 0 0 
0 0 0 0 
0 0 0 0 
0 0 0 0 
0 0 0 0 
0 0 0 0 
0 0 0 0 
0.29780202902983 -0.2523483375019894 -0.113878508265092 -0.1463877558406231 
-0.3196166794600797 0.2946774527440653 -0.06463814405460787 -0.02938304523348581 
-0.3071440625717763 0.2818025149567874 -0.0477348110831732 -0.02908989084250269 
0.1252496348417574 -0.1149637850902774 -0.02904081398144823 -0.01865569396107423 
0.2486407668923154 -0.2463670732468052 -0.06410266013320214 -0.0555102518116452 
0 0 0 0 
0 0 0 0 
0 0 0 0 
-0.197893652635675 0.1999363439809229 -0.02416408993477496 -0.06743062948834644 
0 0 0 0 
0.02313395527051552 0.005514854954590185 -0.03801183455236598 -0.01014631938782371 
0 0 0 0 
0 0 0 0 
-0.2135312311433009 0.1577212736955075 -0.02898417549916481 -0.02251112213131195 
0 0 0 0 
0 0 0 0 
0 0 0 0 
0 0 0 0 
0.2390105831690232 -0.1221399129396625 -0.0231107251690851 -0.006450935279516171 
0.003514702107083975 0.2814285711683221 -0.3274648402649838 -0.2161885034408029 
-0.1688845297590012 -0.1386309064954465 -0.04982921362946654 0.2360319033852643 
-0.01315269304627182 0.0171647388972116 -0.006291624265932345 -0.002928700178400205 
0.4496664952734742 -0.34722489958283 -0.04719558878063047 -0.04716823812663599 
0 0 0 0 
0 0 0 0 
0 0 0 0 
-0.426063002974893 0.5202004144214672 -0.04716390747689841 -0.1033430775658094 
0.4023251255186657 -0.1482772121868007 -0.5720078938935439 -0.3184453146053753 
-0.04526147436492232 0.06342719602473518 -0.1058733914539997 -0.08936367878961944 
-0.09170950121997021 0.1607653052480069 -0.02479515144227481 -0.0009528604348409972 
0.108537423294188 0.05003465869979443 -0.1515675544037659 -0.1027472714314313 
-0.09170950121997021 0.1607653052480069 -0.02479515144227481 -0.0009528604348409972 
-0.09170950121997021 0.1607653052480069 -0.02479515144227481 -0.0009528604348409972 
0.0566714116910064 0.01932030921054832 -0.06383005327379819 -0.05876346137351023 
-0.09170950121997021 0.1607653052480069 -0.02479515144227481 -0.0009528604348409972 
-0.09170950121997021 0.1607653052480069 -0.02479515144227481 -0.0009528604348409972 
0.6629444433788947 -0.5431684408233202 -0.338470208592526 -0.1500617797570478 
0 0 0 0 
0 0 0 0 
-0.4351380005261285 -0.09946988786563936 0.6062462724759025 -0.07466814142068112 
0 0 0 0 
0 0 0 0 
0 0 0 0 
0.1746637849955945 -0.1840671282373798 -0.004628514242310118 -0.007863156970289262 
-0.1016880991903841 0.1358347815108592 -0.003459952405356202 -0.009990101234377982 
0 0 0 0 
-0.1954085732084313 0.172216097234194 -0.01683203255175083 -0.04451245460805488 
0 0 0 0 
0 0 0 0 
0 0 0 0 
-0.2038464954588968 0.2764730239494413 -0.03512277221422845 -0.06053946436584191 
0 0 0 0 
0 0 0 0 
0.2020609345220535 -0.09010877875433945 -0.03183415070117075 -0.00147346720009143 
0.05551853133067849 -0.04814606147117225 -0.1568560150478964 -0.07427138387320167 
0 0 0 0 
0 0 0 0 
0 0 0 0 
0.07729732444103332 -0.06661395017995633 -0.007461651565340101 -0.008084409820573589 
-0.0208865774287841 0.02802661504213655 -0.01096374293150635 -0.01111668702532652 
0 0 0 0 
0 0 0 0 
0 0 0 0 
-0.06032215357454279 0.214100118697117 0.1415578494408064 -0.2027809231046034 
0 0 0 0 
0.1798895955404546 -0.150272332525145 -0.03551268873846374 -0.06811634789723207 
-0.3606052862545845 0.4041539952913777 -0.1036528741151304 -0.06613223398613748 
0.5056319521644371 -0.3219799979610487 -0.1175912642343525 -0.03313280933815746 
0.2884682224364601 -0.3380486500657367 -0.001072975072135201 -0.0002739246616600531 
0 0 0 0 
0 0 0 0 
0 0 0 0 
0.4756747349937874 -0.4560207641908374 -0.001160038811942655 5.578025173223517e-05 
0 0 0 0 
0 0 0 0 
0 0 0 0 
0.3258080160383125 -0.1881324542434563 -0.1411844042034507 -0.1285094211293085 
0 0 0 0 
0.1487210453786229 -0.06156240808943344 -0.04814994862687334 -0.01575862810693135 
0 0 0 0 
0 0 0 0 
0.04991399395907752 -0.04689859833615802 -0.00580980668194906 -0.004312678913261315 
-0.3052684130289566 0.2586367624033709 -0.1898060876563473 -0.1423631722130445 
0 0 0 0 
-0.2193706119350324 0.2197883879020189 -0.02577101591720498 -0.00244104713283652 
0.1070673569944933 -0.04337650662171245 -0.002001894400890243 -0.0001284358703011011 
0 0 0 0 
0 0 0 0 
0 0 0 0 
0 0 0 0 
0.000121034459740545 0.01357496536694321 -0.0009327148578127467 4.163414657150529e-06 
0.000121034459740545 0.01357496536694321 -0.0009327148578127467 4.163414657150529e-06 
0.000121034459740545 0.01357496536694321 -0.0009327148578127467 4.163414657150529e-06 
0.167738906889316 -0.1837994933179199 -0.03531445896680385 -0.01527488984740464 
-0.9809008806540984 -0.09933885552431086 1.100271928886613 -0.1596682255882843 
0.000121034459740545 0.01357496536694321 -0.0009327148578127467 4.163414657150529e-06 
0.000121034459740545 0.01357496536694321 -0.0009327148578127467 4.163414657150529e-06 
0.3689569277913908 -0.3559607715242275 -0.05793905020159876 -0.01446120987330524 
-0.04511308349354154 0.03510073082281033 -0.06948258105402921 -0.0132873456038281 
-0.120484544962154 0.1116815375903429 -0.0658807977529645 -0.02428760172024338 
-0.1100855011721177 0.1612599245828246 -0.008355165375108844 -0.003691541460868294 
0 0 0 0 
-0.01039914039796983 -0.1474550146562985 0.1192530657987917 -0.2409591726656022 
0.2345735944081861 -0.808484794790439 0.8638803819927866 -0.2199877528085015 
-0.587981782271653 -0.4016762717365369 0.9484814325222082 -0.03353785727234369 
0 0 0 0 
0 0 0 0 
-0.2251769260204307 0.237243849284309 -0.04448621353895125 -0.02127135481164359 
-0.01723124563961672 0.1241832237250461 -0.06781101395062498 -0.01584268948705594 
-0.1188245913741856 0.08937133371714895 -0.01403679070774829 -0.04679883204751589 
0.7759557180997263 -0.6337870802408472 -0.07896625850601913 -0.03765363951537722 
0 0 0 0 
0 0 0 0 
0 0 0 0 
-0.002749259719351072 -0.03011674173928033 0.0001846315041323888 6.769873201936541e-05 
0.2563494077109603 -0.1563509317691106 -0.02463399759547361 -0.03678472913700739 
0 0 0 0 
0 0 0 0 
0 0 0 0 
0 0 0 0 
-0.04323071012509846 0.02986275245725418 -0.08651694924957454 -0.08509309374213031 
0 0 0 0 
0 0 0 0 
0 0 0 0 
0 0 0 0 
0.1364697263469885 -0.1573327142229123 -0.04185011305570098 -0.05553183005646266 
0 0 0 0 
-0.006417071784180537 0.03121818786756073 -0.001694402853895563 1.708202961962389e-05 
0 0 0 0 
0 0 0 0 
-0.1500566735186037 0.2761299499778989 -0.1034011844721699 -0.009045307208942591 
0 0 0 0 
-0.2986077543441721 -0.3659573106935892 -0.09676936355246667 0.5734032528335096 
0 0 0 0 
0 0 0 0 
0 0 0 0 
0 0 0 0 
0 0 0 0 
-0.2334408099967548 0.2728507259817003 -0.03633842008322028 -0.02674815198820462 
0 0 0 0 
0 0 0 0 
0 0 0 0 
0 0 0 0 
0 0 0 0 
0 0 0 0 
0 0 0 0 
0 0 0 0 
0.01124582365811574 -0.2394794695997178 0.2095409771074243 -0.1159271653223319 
0 0 0 0 
0 0 0 0 
0 0 0 0 
0 0 0 0 
0 0 0 0 
-0.3503237470864491 -0.02022138087908096 0.6422946859081133 -0.002393214097491747 
-0.03165800771360634 0.02666995096565876 -0.008902953205774011 -0.002887479794352182 
0 0 0 0 
0 0 0 0 
0 0 0 0 
0 0 0 0 
0 0 0 0 
0 0 0 0 
0 0 0 0 
0 0 0 0 
0.1203935221739157 -0.2612361880401572 0.1882630702413869 -0.08613739994329254 
0 0 0 0 
-0.02958284634094448 0.01443487527984891 -0.00020035588707165 -0.0001234315889520333 
-0.01479142317047224 0.007217437639924454 -0.000100177943535825 -6.171579447601666e-05 
0 0 0 0 
0 0 0 0 
-0.09361283142847537 0.1240812412612799 -0.01875063558400839 -0.006578768711190738 
0 0 0 0 
0 0 0 0 
0 0 0 0 
0 0 0 0 
0 0 0 0 
0 0 0 0 
-0.118618827058829 0.1488434793699426 -0.1504173336744968 -0.05663892199701567 
-0.4473137996827135 0.4996377646723618 -0.04476250706405101 -0.05253520087935255 
0 0 0 0 
0.2088083908797299 -0.1933110758691671 -0.04279953416328987 -0.01198018901184628 
0.274312869653533 -0.2902070976033835 -0.008839623348296608 -0.003220795433362815 
0 0 0 0 
0 0 0 0 
0 0 0 0 
0 0 0 0 
0 0 0 0 
0 0 0 0 
0 0 0 0 
-0.02156371076882702 0.01535693643853529 -0.001663004017363411 -0.0002606001460072308 
0 0 0 0 
0.1933170875625139 -0.1908739678137194 -0.02256159118515686 -0.0103835089896286 
0 0 0 0 
0 0 0 0 
0 0 0 0 
0 0 0 0 
0 0 0 0 
0 0 0 0 
0.1070673569944933 -0.04337650662171245 -0.002001894400890243 -0.0001284358703011011 
0 0 0 0 
1.219180171224837 -1.010878807829267 -0.2110183515352896 -0.2118351394792818 
0 0 0 0 
0 0 0 0 
0 0 0 0 
0 0 0 0 
0 0 0 0 
0 0 0 0 
0.2958883029725413 -0.308101944035059 -0.02814406203769642 -0.03424612149186201 
0 0 0 0 
-0.5054230786890076 -0.4399780351274238 0.7361433330395463 -0.2561864005391072 
0 0 0 0 
0 0 0 0 
0 0 0 0 
0 0 0 0 
0 0 0 0 
0 0 0 0 
0 0 0 0 
0 0 0 0 
0 0 0 0 
0 0 0 0 
0 0 0 0 
0 0 0 0 
0.1969103115744507 -0.1035757942261397 -0.08200799012516913 -0.08186434276896978 
0.06764411692891896 -0.002502943412338851 -0.02044051805924656 -0.03078078857091609 
0.09396407447162171 -0.1265936258465293 -0.008086394395702282 -0.01840784692192883 
0.07729732444103332 -0.06661395017995633 -0.007461651565340101 -0.008084409820573589 
0.356018348286513 -0.2376046254170252 -0.08068010000946356 -0.1711485323169766 
0 0 0 0 
0.07209269266814654 -0.02638694296759677 -0.01092699196907338 -0.0250747679728519 
0 0 0 0 
-0.1276447172822511 -0.6096522318959267 -0.4802685156181861 0.9332593790951949 
0 0 0 0 
-0.228223171737642 0.2066720124472176 -0.04574790240196717 -0.02728153389993537 
0 0 0 0 
-0.4662433373388083 0.4676680216958791 -0.1586634189084482 -0.2036646623236817 
0 0 0 0 
0 0 0 0 
0 0 0 0 
0.1089669233981092 -0.07941015339575537 -0.009280314462343266 -0.002281962440517112 
0 0 0 0 
0 0 0 0 
0 0 0 0 
0 0 0 0 
0 0 0 0 
0 0 0 0 
0.2096301461976174 -0.1843862041587923 -0.02873898807138289 -0.003848448658423816 
0 0 0 0 
0 0 0 0 
-0.3108756155407186 0.2441705636586848 -0.0542081690863286 -0.01669419363853722 
-0.2120959782899173 0.2110677296226865 -0.03615047467144646 -0.02461930007955515 
0 0 0 0 
-0.1520496993470284 0.1255290566068132 -0.08252293238850532 -0.02343477247065578 
-0.1923333099454948 0.1386384294746048 -0.06434688021461389 -0.008265670463176089 
0.1124745880779263 0.1241652212913906 -0.0582133234463508 -0.04362195125476864 
-0.06575747952559233 0.02289106053818527 -0.02495904701346598 -0.01094025323292871 
0 0 0 0 
0 0 0 0 
0 0 0 0 
0 0 0 0 
0 0 0 0 
0 0 0 0 
0 0 0 0 
0 0 0 0 
0 0 0 0 
-0.09766532940386473 0.2757649546950509 -0.05877629859465168 -0.05011291584096212 
0 0 0 0 
0 0 0 0 
0 0 0 0 
0.1886694615062691 -0.1652169869202226 -0.01347440637341578 -0.005143319324983757 
-0.002749259719351072 -0.03011674173928033 0.0001846315041323888 6.769873201936541e-05 
0 0 0 0 
0 0 0 0 
0 0 0 0 
0 0 0 0 
0 0 0 0 
0 0 0 0 
-0.2209505763974207 0.2994985280858061 -0.1467890626769001 -0.2398027362646596 
0 0 0 0 
0 0 0 0 
0 0 0 0 
-0.005326129544903939 0.00666223737408719 -0.0004662267756196579 -5.180334001414255e-05 
0 0 0 0 
0 0 0 0 
0 0 0 0 
-0.04819290017011989 0.1315048125725822 -0.008922567096509491 -0.001235343042539561 
0 0 0 0 
0 0 0 0 
0 0 0 0 
-0.06850560271289588 0.09737093527131327 -0.01249607445145866 -0.02217242870126618 
0 0 0 0 
0 0 0 0 
0.1507789599438493 -0.1607741520842577 -0.06088139977412087 -0.04642437034774623 
0 0 0 0 
0 0 0 0 
0 0 0 0 
-0.4975656805028025 0.3899666901744874 -0.08230781866357527 -0.03500602151924807 
0 0 0 0 
0 0 0 0 
0 0 0 0 
0 0 0 0 
0 0 0 0 
0 0 0 0 
0 0 0 0 
0 0 0 0 
0 0 0 0 
0 0 0 0 
0 0 0 0 
0 0 0 0 
0.273634910207233 -0.04494247884368834 -0.1462891172968381 -0.009071202534890428 
0 0 0 0 
0.2144272783312662 -0.1675164334643207 -0.056713724456531 -0.05531622724000603 
0 0 0 0 
0 0 0 0 
-0.2135312311433009 0.1577212736955075 -0.02898417549916481 -0.02251112213131195 
0 0 0 0 
0 0 0 0 
0 0 0 0 
0 0 0 0 
0 0 0 0 
0 0 0 0 
0.09559477160137057 -0.03958349156345978 -0.04252264816559103 -0.0415102743501826 
0 0 0 0 
-0.2782394962646212 0.1989199120494938 -0.03087400256227218 -0.0188572002760351 
-0.1895394431144957 0.2713015995707704 -0.1133027622647095 -0.04039572025059738 
0 0 0 0 
0 0 0 0 
0 0 0 0 
0 0 0 0 
0 0 0 0 
0 0 0 0 
0 0 0 0 
0 0 0 0 
-0.01369231964435594 0.05591077965467911 -0.01489117818658049 -0.001400748792102256 
0 0 0 0 
0.2609746314816788 -0.212695422987335 -0.04374356279062796 -0.04160358146953632 
0 0 0 0 
0 0 0 0 
0 0 0 0 
0.1827634383509956 -0.2370833120696922 -0.01161397633332211 -0.003766167828687066 
0 0 0 0 
-0.002600887420184921 -0.04063173972754892 -0.05034301793331327 -0.02842226951320963 
0 0 0 0 
0 0 0 0 
0 0 0 0 
0 0 0 0 
0 0 0 0 
0 0 0 0 
0 0 0 0 
0 0 0 0 
0 0 0 0 
-0.1178120519601383 0.09080298106646616 -0.01576544294635932 -0.04688858546314982 
-0.1180015986627484 0.08967978846990954 -0.01413312793825275 -0.04687723762066609 
0 0 0 0 
0 0 0 0 
0 0 0 0 
0 0 0 0 
0 0 0 0 
0 0 0 0 
0 0 0 0 
0 0 0 0 
0 0 0 0 
0 0 0 0 
0 0 0 0 
0 0 0 0 
0 0 0 0 
0 0 0 0 
0 0 0 0 
0 0 0 0 
0 0 0 0 
0 0 0 0 
0.07729732444103332 -0.06661395017995633 -0.007461651565340101 -0.008084409820573589 
0 0 0 0 
-0.2527172151070868 0.2589550657035036 -0.09886182380314694 -0.09414880356450268 
0.5281706755068073 -0.4111338883041605 -0.3611617017557274 -0.3700552553985959 
0 0 0 0 
0 0 0 0 
0.2144272783312662 -0.1675164334643207 -0.056713724456531 -0.05531622724000603 
0.2144272783312662 -0.1675164334643207 -0.056713724456531 -0.05531622724000603 
0.2144272783312662 -0.1675164334643207 -0.056713724456531 -0.05531622724000603 
0 0 0 0 
0 0 0 0 
0 0 0 0 
-0.5290288833800108 -0.02973081941131465 -0.04279476692605858 0.7745584607337306 
0 0 0 0 
0.26606137341027 -0.1967198337319034 -0.08294762726403906 -0.06885378989899961 
0 0 0 0 
0 0 0 0 
0 0 0 0 
0 0 0 0 
0 0 0 0 
0 0 0 0 
0 0 0 0 
-0.1688845297590012 -0.1386309064954465 -0.04982921362946654 0.2360319033852643 
0 0 0 0 
0 0 0 0 
0 0 0 0 
0 0 0 0 
0 0 0 0 
-0.3119295623820966 0.4772751210774 -0.4513132192257709 -0.1547321042088103 
0 0 0 0 
0 0 0 0 
-0.3051240317414623 0.3012867833745924 -0.0515396784124097 -0.03022677128857614 
0 0 0 0 
0 0 0 0 
0 0 0 0 
0 0 0 0 
0 0 0 0 
0 0 0 0 
0 0 0 0 
0 0 0 0 
0 0 0 0 
0.163974569240586 -0.08356485781721543 -0.1213701633543242 -0.05240067173386462 
0 0 0 0 
0 0 0 0 
0.07426200248658676 -0.01590934077586477 -0.003504717285164568 -0.006348265818310057 
0 0 0 0 
-0.08596383528427487 -0.2436092609588659 -0.1137667533811956 0.3887323718706341 
0 0 0 0 
-0.1961606479176013 0.2829721800245885 -0.1197564464831203 -0.04039010636070382 
0.5530648764304633 -0.4521333499095703 -0.1102407034826702 -0.1055449409580929 
0 0 0 0 
0 0 0 0 
0 0 0 0 
0 0 0 0 
0 0 0 0 
0 0 0 0 
0 0 0 0 
0 0 0 0 
0 0 0 0 
0.1841944020529915 -0.1225427463977066 -0.1545356029552325 -0.08878075909676068 
0 0 0 0 
0 0 0 0 
0 0 0 0 
0.2563494077109603 -0.1563509317691106 -0.02463399759547361 -0.03678472913700739 
-0.1438856831675082 -0.01939415038787285 0.4836429817813083 -0.04163235892744341 
0 0 0 0 
0.3540189205186322 -0.2345049660422488 -0.06158494916613761 -0.032573146110175 
0 0 0 0 
0 0 0 0 
0 0 0 0 
0 0 0 0 
0 0 0 0 
0.3502033144798238 -0.2771143523998387 -0.08375502693138297 -0.01440709376675046 
0 0 0 0 
0.1473523545662005 -0.03410796795998004 -0.08731757967752296 -0.0009981133674707271 
0 0 0 0 
0 0 0 0 
0 0 0 0 
0 0 0 0 
-0.06802743209761179 0.03084266274657136 -0.0124328539177465 -0.0143098451517932 
0 0 0 0 
0 0 0 0 
0 0 0 0 
-0.1847409595894032 0.1827716050837113 -0.01787246566884261 -0.06450192930994623 
0 0 0 0 
0 0 0 0 
0 0 0 0 
0 0 0 0 
0 0 0 0 
0 0 0 0 
0 0 0 0 
-0.3745550002646729 -0.1092270798400067 0.2966245228223857 -0.02468327700396287 
0 0 0 0 
-0.06850560271289588 0.09737093527131327 -0.01249607445145866 -0.02217242870126618 
0 0 0 0 
-0.01473262015154325 0.02292994159323827 -0.01009230216284861 -0.001612707798709918 
0 0 0 0 
0 0 0 0 
0 0 0 0 
0 0 0 0 
0 0 0 0 
0 0 0 0 
0.005995529370101184 0.09066732029725263 -0.2617160016300591 -0.1368887494588825 
0 0 0 0 
0 0 0 0 
0.1252496348417574 -0.1149637850902774 -0.02904081398144823 -0.01865569396107423 
0.1120969417954855 -0.09779904619306581 -0.03533243824738058 -0.02158439413947443 
0 0 0 0 
0.08837470155018282 -0.04239192655623874 -0.008176116502823252 -0.01045205842794411 
0 0 0 0 
0 0 0 0 
-0.007097706556792371 0.02874251269009026 2.667990863298997e-06 3.707885217748945e-05 
-0.2033789846255576 0.2507621711008986 -0.1052119628703143 -0.1608154416949862 
-0.2033789846255576 0.2507621711008986 -0.1052119628703143 -0.1608154416949862 
0 0 0 0 
0 0 0 0 
0 0 0 0 
0 0 0 0 
0 0 0 0 
0 0 0 0 
-0.001732893513852764 0.001934373651268463 -0.007297485371184371 -0.002513993718602804 
0 0 0 0 
0 0 0 0 
0 0 0 0 
0.09896023112801691 -0.04644047189827297 -0.009480402385128582 -0.002339683244209566 
-0.370045646447988 -0.04173441314000776 0.2909608502877851 -0.05740228473950105 
0 0 0 0 
0 0 0 0 
0 0 0 0 
0 0 0 0 
-0.01642917368090977 0.2311537556588091 -0.1818634932091579 -0.3053276802973173 
-0.157226852768586 -0.05073202727940525 -0.08039162465496429 0.1075847508724214 
0 0 0 0 
0.1886694615062691 -0.1652169869202226 -0.01347440637341578 -0.005143319324983757 
0 0 0 0 
0 0 0 0 
0 0 0 0 
0 0 0 0 
0 0 0 0 
0 0 0 0 
0 0 0 0 
0 0 0 0 
0 0 0 0 
-0.3081783600911959 0.3842133711502412 -0.0669775545381633 -0.02663634464976678 
0 0 0 0 
0 0 0 0 
-0.1042146713758166 -0.152518660089379 -0.06548341541434499 0.2924146997080943 
-0.1042146713758166 -0.152518660089379 -0.06548341541434499 0.2924146997080943 
0 0 0 0 
0 0 0 0 
-0.006385120791403277 0.01666993386426554 -0.002963122428822053 -0.001512181636084849 
0 0 0 0 
0 0 0 0 
0 0 0 0 
0 0 0 0 
-0.2135312311433009 0.1577212736955075 -0.02898417549916481 -0.02251112213131195 
0 0 0 0 
0 0 0 0 
0 0 0 0 
0 0 0 0 
0 0 0 0 
0.002908985713299873 -0.004227168807392132 0.0002027559136486157 9.479965586994344e-05 
0 0 0 0 
0 0 0 0 
0 0 0 0 
0 0 0 0 
0 0 0 0 
0 0 0 0 
0.003793876843535422 0.07831532800834916 -0.165961210506566 -0.1082057135189098 
0.07899595624589098 -0.1546342532637811 0.256271128140328 -0.1062716324161832 
-0.148660961052665 0.155762922604334 -0.08029223266761751 -0.02317784621013308 
0.05773051469280956 0.3292002189531696 -0.4743707145556655 -0.2451907239426325 
-0.02722349851571931 0.03291161146729791 -0.0005937353438541009 -0.0002133268024213606 
0 0 0 0 
0 0 0 0 
0 0 0 0 
0 0 0 0 
0 0 0 0 
0 0 0 0 
0 0 0 0 
0.1919914228602802 -0.2233820048291817 -0.02966255306901157 -0.006307463428750284 
0 0 0 0 
0 0 0 0 
0 0 0 0 
0.1126508918824661 -0.1383108102676009 -0.004917438821705157 -0.007976093626462601 
0 0 0 0 
0 0 0 0 
0 0 0 0 
0 0 0 0 
0 0 0 0 
0 0 0 0 
0 0 0 0 
0 0 0 0 
-0.05708185650674365 0.03310111430173944 -0.008155174421722641 -0.003383489167029344 
-0.01696904283902618 0.004933198331974684 -0.001755360260338222 -0.0002409192581133738 
-0.01696904283902618 0.004933198331974684 -0.001755360260338222 -0.0002409192581133738 
0 0 0 0 
0 0 0 0 
0 0 0 0 
0 0 0 0 
0 0 0 0 
0 0 0 0 
0 0 0 0 
-0.07911040432462567 0.266948790933854 -0.1189447936207081 -0.1417424395394455 
0.09811488528679768 -0.08065643715263469 -0.1429552666609293 -0.1098574243560061 
0.02496400170569438 0.006084722132128369 -0.03256429470735358 -0.02069631864279697 
0 0 0 0 
0 0 0 0 
0 0 0 0 
0 0 0 0 
0 0 0 0 
0 0 0 0 
0 0 0 0 
0 0 0 0 
0 0 0 0 
0 0 0 0 
0 0 0 0 
0 0 0 0 
0 0 0 0 
0 0 0 0 
0 0 0 0 
0 0 0 0 
0 0 0 0 
0 0 0 0 
0 0 0 0 
0 0 0 0 
0 0 0 0 
0 0 0 0 
0 0 0 0 
0 0 0 0 
0 0 0 0 
0 0 0 0 
0 0 0 0 
0 0 0 0 
0.5213356304627719 -0.6669260396695654 -0.4253470000401613 -0.1414830353621591 
0 0 0 0 
-0.09021182309287845 0.2424717070580634 -0.006307652529785116 2.092115336375629e-06 
0 0 0 0 
0 0 0 0 
0 0 0 0 
-0.006417071784180537 0.03121818786756073 -0.001694402853895563 1.708202961962389e-05 
0 0 0 0 
0 0 0 0 
-0.1301131933852779 0.1332554798965423 -0.001368456867850169 -0.001074087491221467 
0.06534984005779365 -0.1853733004204405 0.2770606343172959 -0.01262745965870953 
0 0 0 0 
0 0 0 0 
0 0 0 0 
0.06003475468359733 -0.0892719613536648 -0.0528825878989758 -0.0215146678759984 
0 0 0 0 
0 0 0 0 
0 0 0 0 
0 0 0 0 
-0.2193706119350324 0.2197883879020189 -0.02577101591720498 -0.00244104713283652 
0 0 0 0 
-0.1320985646659133 0.1746397640388269 -0.007281145373344429 -0.007701098808061085 
-0.1320985646659133 0.1746397640388269 -0.007281145373344429 -0.007701098808061085 
0 0 0 0 
0 0 0 0 
0 0 0 0 
0 0 0 0 
0 0 0 0 
0 0 0 0 
0 0 0 0 
0 0 0 0 
-0.7024128315075181 0.7696460973620018 -0.1322415702892123 -0.03383182925744273 
-0.7024128315075181 0.7696460973620018 -0.1322415702892123 -0.03383182925744273 
0 0 0 0 
0 0 0 0 
0 0 0 0 
-0.2668564106379029 -0.07591460817584653 0.5920998191434778 -0.06507791090384424 
-0.2574051543549356 0.06057715958976216 -0.1559175731677581 -0.02026365034304135 
0 0 0 0 
0 0 0 0 
0 0 0 0 
0.2104809933780884 -0.1907534829497136 -0.01694032622647162 -0.003618515837342293 
0.05551853133067849 -0.04814606147117225 -0.1568560150478964 -0.07427138387320167 
0 0 0 0 
0 0 0 0 
0 0 0 0 
-0.2697016072428881 0.2684683354635241 -0.09286728864641171 -0.1099025200872112 
0 0 0 0 
0 0 0 0 
0 0 0 0 
0 0 0 0 
0 0 0 0 
0 0 0 0 
0 0 0 0 
0 0 0 0 
0 0 0 0 
0 0 0 0 
-0.1105450434830045 -0.07586950673518089 0.3290669968764554 -0.05055607389390138 
0 0 0 0 
0 0 0 0 
0 0 0 0 
0 0 0 0 
0.3232526119028241 -0.1523554191273375 -0.47233202029912 -0.4768766381300134 
0 0 0 0 
0 0 0 0 
0 0 0 0 
-0.06106176260516597 0.09961868306288245 -0.0005963482717209238 3.256998107198069e-05 
-0.2120959782899173 0.2110677296226865 -0.03615047467144646 -0.02461930007955515 
-0.2120959782899173 0.2110677296226865 -0.03615047467144646 -0.02461930007955515 
0.4453646673632954 -0.3329662394719362 -0.2964793555854049 -0.2310775759073338 
-0.07746714715174195 0.09447483615146464 -0.01020898531595339 -0.034515288369523 
0 0 0 0 
0 0 0 0 
0 0 0 0 
0 0 0 0 
0 0 0 0 
-0.005326129544903939 0.00666223737408719 -0.0004662267756196579 -5.180334001414255e-05 
0 0 0 0 
0 0 0 0 
0.0319639204083598 -0.04715734380717815 -0.01545575188851541 -0.003822279152634177 
0 0 0 0 
0 0 0 0 
0 0 0 0 
0 0 0 0 
0 0 0 0 
-0.06436664301958564 0.1193717496096319 -0.3236261021760701 -0.1043200757950282 
-0.06436664301958564 0.1193717496096319 -0.3236261021760701 -0.1043200757950282 
0 0 0 0 
0 0 0 0 
-0.0231437708286913 0.02323471763779007 -0.004644453901046197 -0.002901650650802597 
0 0 0 0 
-0.002749259719351072 -0.03011674173928033 0.0001846315041323888 6.769873201936541e-05 
0 0 0 0 
-0.08266069747499555 0.1071533608226104 -0.1557045144499394 -0.1131615455229073 
-0.01174697364887246 0.1168798778263796 -0.02104501685056597 -8.116977882905569e-05 
0 0 0 0 
0 0 0 0 
0 0 0 0 
0 0 0 0 
0 0 0 0 
0 0 0 0 
-0.3405864742208617 0.1066893749817086 0.3475092064626146 -0.01823711569280215 
0 0 0 0 
0 0 0 0 
0.001136331633511159 0.05457620854301268 -0.0007575247578618643 -4.907669144068368e-05 
0.5047219854008834 -0.9035597099633977 0.1138567487206765 -0.4016617745822398 
0 0 0 0 
0 0 0 0 
0 0 0 0 
0 0 0 0 
0 0 0 0 
0 0 0 0 
0 0 0 0 
0 0 0 0 
0 0 0 0 
0 0 0 0 
0 0 0 0 
0 0 0 0 
0 0 0 0 
0.1103779685204002 -0.03196121478296198 -0.01777420174371965 -0.00779636781206339 
0 0 0 0 
0 0 0 0 
-0.007410983227216502 -0.75514873299073 0.0903019204628608 0.173130344027408 
0.07747398982438396 -0.01150214054686264 -0.009954996967978318 -0.008096760501357891 
0 0 0 0 
0 0 0 0 
0 0 0 0 
0 0 0 0 
0 0 0 0 
-0.2901495897063508 -0.02430314320158683 0.5166321447518908 -0.001156088329567723 
0 0 0 0 
0 0 0 0 
0.01922014209625991 -0.019922363237434 -7.479859272772199e-05 4.075729768033079e-05 
0.01922014209625991 -0.019922363237434 -7.479859272772199e-05 4.075729768033079e-05 
0 0 0 0 
0 0 0 0 
0 0 0 0 
0 0 0 0 
-0.2901495897063508 -0.02430314320158683 0.5166321447518908 -0.001156088329567723 
-0.1179414260566893 0.07774126108272938 -0.006623047235797441 -0.009997166238531889 
0 0 0 0 
0 0 0 0 
0 0 0 0 
0 0 0 0 
-0.2130661628547513 -0.1628420967623098 -0.0129810827879629 0.4667764992434383 
-0.4868700414866636 0.0926024630651745 -0.04833609166722479 0.3802300231011168 
0.08837470155018282 -0.04239192655623874 -0.008176116502823252 -0.01045205842794411 
0 0 0 0 
-0.2320981679885555 0.3104440422209442 -0.1223802803530436 -0.08128040106791823 
0 0 0 0 
0 0 0 0 
0.1660526121883881 -0.1317562210575529 -0.07373589343801819 -0.06077906230626744 
0 0 0 0 
0 0 0 0 
0 0 0 0 
0 0 0 0 
0 0 0 0 
0 0 0 0 
0 0 0 0 
0.7414168024885383 -0.6239063754125714 -0.09719838947479915 -0.007907669374350995 
0.07729732444103332 -0.06661395017995633 -0.007461651565340101 -0.008084409820573589 
0 0 0 0 
0 0 0 0 
0 0 0 0 
-0.04047877355846088 -0.2794046907844415 0.3167734724480773 -0.06116732335762359 
0 0 0 0 
0.07095636103463537 -0.08096315151060945 -0.01016946721121151 -0.02502569128141121 
-0.2670973671888922 0.3577212556438162 -0.1463729381553539 -0.07818819378051557 
0 0 0 0 
-0.04378844862820603 0.06287730547011312 -0.006739108794547867 -0.005139767781775011 
0.2693047363364795 -0.1608521044986127 -0.02838749639943842 9.367868193431309e-05 
0.2720539960558306 -0.1307353627593324 -0.02857212790357081 2.597994991494768e-05 
-0.06106176260516597 0.09961868306288245 -0.0005963482717209238 3.256998107198069e-05 
0 0 0 0 
0 0 0 0 
0 0 0 0 
0.2884682224364601 -0.3380486500657367 -0.001072975072135201 -0.0002739246616600531 
0 0 0 0 
0 0 0 0 
0 0 0 0 
0 0 0 0 
0 0 0 0 
0 0 0 0 
0 0 0 0 
0 0 0 0 
0 0 0 0 
0.1397412693871785 -0.08650730065859778 -0.01465666253048206 -0.00415107322702478 
0 0 0 0 
0.07729732444103332 -0.06661395017995633 -0.007461651565340101 -0.008084409820573589 
0 0 0 0 
0 0 0 0 
0 0 0 0 
0 0 0 0 
0 0 0 0 
0 0 0 0 
0 0 0 0 
0 0 0 0 
0.2239818885109439 -0.1001625081642666 -0.02668512957042439 -0.003032874402201979 
0 0 0 0 
0 0 0 0 
0 0 0 0 
0 0 0 0 
0 0 0 0 
0 0 0 0 
-0.100285633136063 0.1210485072224058 -0.003523480725905353 -0.002040624681722742 
0.3236083996794095 -0.3214154230236869 -0.3160436172227324 -0.3389379252921474 
0 0 0 0 
0 0 0 0 
0 0 0 0 
-0.0008508471804710305 0.006367278790921327 -0.01179866184491127 -0.0002299328210815239 
0.3270518634941033 -0.209853475765826 -0.01977533559042385 -0.006339078605201926 
0.4695423926006328 -0.2662440346851435 -0.0346166296250383 -0.01055785056424607 
0.3270518634941033 -0.209853475765826 -0.01977533559042385 -0.006339078605201926 
0 0 0 0 
0 0 0 0 
0 0 0 0 
0 0 0 0 
0 0 0 0 
0.1075609198051669 -0.05523120071299105 -0.05356373192206503 -0.02880518634195296 
0 0 0 0 
0.150922177419052 -0.0830953606266001 -0.1547230701089668 -0.02332265588851698 
0 0 0 0 
0 0 0 0 
0 0 0 0 
0.1933170875625139 -0.1908739678137194 -0.02256159118515686 -0.0103835089896286 
0 0 0 0 
0.1473523545662005 -0.03410796795998004 -0.08731757967752296 -0.0009981133674707271 
0 0 0 0 
0 0 0 0 
0 0 0 0 
0 0 0 0 
0 0 0 0 
0 0 0 0 
-0.06975646424240524 0.0571145994388457 -0.06318120364565354 -0.07202417678770841 
0 0 0 0 
0 0 0 0 
0 0 0 0 
0 0 0 0 
0 0 0 0 
0 0 0 0 
0 0 0 0 
0 0 0 0 
0 0 0 0 
0 0 0 0 
0.1868101523275125 -0.1601416122109348 -0.05654635298256993 -0.03576720060756266 
0 0 0 0 
0 0 0 0 
0 0 0 0 
0 0 0 0 
0 0 0 0 
-0.1118045510181735 0.1850253457559779 -0.009482789117524393 -0.0210912537570104 
0 0 0 0 
-0.03651074660184343 0.02894722735525255 -0.004279425573683797 -0.0009187699191081701 
0 0 0 0 
-0.1717504906215818 0.1720040369145094 -0.0563031964269417 -0.04371418444022827 
0 0 0 0 
0 0 0 0 
0 0 0 0 
0 0 0 0 
0 0 0 0 
0 0 0 0 
0 0 0 0 
0 0 0 0 
0 0 0 0 
0 0 0 0 
0 0 0 0 
0 0 0 0 
0 0 0 0 
0.04536384568707144 -0.05982238756340146 -0.009519605096998091 -0.00233729379440403 
0.04536384568707144 -0.05982238756340146 -0.009519605096998091 -0.00233729379440403 
0.04536384568707144 -0.05982238756340146 -0.009519605096998091 -0.00233729379440403 
0.04536384568707144 -0.05982238756340146 -0.009519605096998091 -0.00233729379440403 
0.04536384568707144 -0.05982238756340146 -0.009519605096998091 -0.00233729379440403 
0.04536384568707144 -0.05982238756340146 -0.009519605096998091 -0.00233729379440403 
-0.04378844862820603 0.06287730547011312 -0.006739108794547867 -0.005139767781775011 
-0.04378844862820603 0.06287730547011312 -0.006739108794547867 -0.005139767781775011 
-0.1001358587923627 0.1453367997802153 -0.03371778908942054 -0.01406137849348649 
0 0 0 0 
0 0 0 0 
0 0 0 0 
0.0319639204083598 -0.04715734380717815 -0.01545575188851541 -0.003822279152634177 
0 0 0 0 
0 0 0 0 
0 0 0 0 
0.1862533812719744 -0.197136304841334 -0.2050023586202733 -0.1355179721903574 
0 0 0 0 
0 0 0 0 
0 0 0 0 
0 0 0 0 
0 0 0 0 
0 0 0 0 
0 0 0 0 
0 0 0 0 
0 0 0 0 
0 0 0 0 
0.1746637849955945 -0.1840671282373798 -0.004628514242310118 -0.007863156970289262 
-0.1692098688800879 0.20974286283414 -0.07069318678678002 -0.06352582542251389 
0.06233034744161137 -0.01643567822759447 -0.07715667544331992 -0.04258054667924902 
0 0 0 0 
0 0 0 0 
0 0 0 0 
-0.1100855011721177 0.1612599245828246 -0.008355165375108844 -0.003691541460868294 
-0.04819290017011989 0.1315048125725822 -0.008922567096509491 -0.001235343042539561 
0 0 0 0 
0 0 0 0 
0 0 0 0 
0 0 0 0 
0 0 0 0 
0 0 0 0 
0.396045240114731 -0.3546067808899474 -0.05236484324494233 -0.0985195994405542 
0.2724169420273883 -0.1218075182365528 -0.001252546032939789 -0.001649613148461676 
0 0 0 0 
0 0 0 0 
0 0 0 0 
0 0 0 0 
0 0 0 0 
0 0 0 0 
0 0 0 0 
0 0 0 0 
0 0 0 0 
-0.3133837641852575 0.3731115878188258 -0.03562717690391677 -0.04744766630254219 
0 0 0 0 
-0.6506263988751241 0.7489259237338567 -0.1016842155227524 -0.05050123146941176 
0 0 0 0 
0 0 0 0 
0 0 0 0 
0 0 0 0 
0 0 0 0 
0 0 0 0 
0 0 0 0 
0 0 0 0 
0 0 0 0 
0 0 0 0 
0 0 0 0 
0 0 0 0 
0 0 0 0 
0 0 0 0 
0 0 0 0 
0 0 0 0 
0.07756988666358003 -0.05140073131034491 -0.0514283048624796 -0.01120537505466024 
0 0 0 0 
0 0 0 0 
0 0 0 0 
0 0 0 0 
0.3879822686948727 -0.2847619692242033 -0.09613585189797896 -0.1749708114696108 
0.356018348286513 -0.2376046254170252 -0.08068010000946356 -0.1711485323169766 
0 0 0 0 
0 0 0 0 
0 0 0 0 
0 0 0 0 
0.1687010390850429 -0.1812916027133413 -0.1182600664362262 -0.1661500116086714 
0 0 0 0 
0 0 0 0 
0 0 0 0 
-0.2193706119350324 0.2197883879020189 -0.02577101591720498 -0.00244104713283652 
0 0 0 0 
-0.2782394962646212 0.1989199120494938 -0.03087400256227218 -0.0188572002760351 
0.30296160668287 -0.2122838103926394 -0.1108965441353362 -0.1931013280322779 
0 0 0 0 
-0.1294530464369991 0.07595131613474579 -0.002208243009930804 -0.003822443117563331 
0 0 0 0 
0 0 0 0 
0 0 0 0 
0.2884682224364601 -0.3380486500657367 -0.001072975072135201 -0.0002739246616600531 
0 0 0 0 
0 0 0 0 
0 0 0 0 
0.07095636103463537 -0.08096315151060945 -0.01016946721121151 -0.02502569128141121 
0 0 0 0 
0.2924522509545224 -0.174331468636522 -0.07199077380097288 -0.03193431481014536 
-0.415837083387313 0.5076735558769817 -0.1290453114928473 -0.09667981273604896 
0 0 0 0 
0 0 0 0 
0 0 0 0 
-0.1301131933852779 0.1332554798965423 -0.001368456867850169 -0.001074087491221467 
0 0 0 0 
0 0 0 0 
0 0 0 0 
0 0 0 0 
-0.04819290017011989 0.1315048125725822 -0.008922567096509491 -0.001235343042539561 
0 0 0 0 
0 0 0 0 
0 0 0 0 
0 0 0 0 
0.2924522509545224 -0.174331468636522 -0.07199077380097288 -0.03193431481014536 
0 0 0 0 
0 0 0 0 
0 0 0 0 
0.1351753182277991 -0.07686355404445049 -0.09790003112878848 -0.1432799906980248 
-0.06106176260516597 0.09961868306288245 -0.0005963482717209238 3.256998107198069e-05 
0 0 0 0 
0.150700690287227 -0.1390226282134391 -0.001669912691258368 -0.004891620907456636 
0 0 0 0 
0 0 0 0 
0 0 0 0 
0 0 0 0 
0 0 0 0 
-0.01095452087033646 0.01576552929335912 -0.00252123641182106 -0.001908220238356895 
0 0 0 0 
0 0 0 0 
0 0 0 0 
-0.2510119040812435 0.386153431707196 -0.09110160323467402 -0.06978393982649338 
-0.1448824473494361 0.01468100286933238 0.3297931930748844 -0.03713203928138879 
0 0 0 0 
0 0 0 0 
-0.03949496811544306 -0.1391261550190848 0.3375815793385132 -0.01602370349475876 
0 0 0 0 
0 0 0 0 
0 0 0 0 
0 0 0 0 
0 0 0 0 
0 0 0 0 
0 0 0 0 
0 0 0 0 
0 0 0 0 
0 0 0 0 
0 0 0 0 
0 0 0 0 
0 0 0 0 
0 0 0 0 
0 0 0 0 
-0.1176530190296539 0.1664985593469127 -0.01259857243600134 -0.02894713103819964 
0.1103779685204002 -0.03196121478296198 -0.01777420174371965 -0.00779636781206339 
0 0 0 0 
0 0 0 0 
0 0 0 0 
0 0 0 0 
0 0 0 0 
-0.1413920219161738 0.200532812218797 -0.03240472879744911 -0.1043950720220816 
0 0 0 0 
0 0 0 0 
0 0 0 0 
-0.01243919576328617 0.009117595381140087 -0.005006515749790693 -0.001073588647359336 
-0.127833127001757 0.09641528923768856 -0.1026131372724763 -0.03534008194062215 
-0.06310660378325747 0.05843963117031567 -0.1015090157675109 -0.03342886038184048 
-0.2122998972792466 0.3507842558452353 -0.1661801345030215 -0.1041205814168194 
0.2104809933780884 -0.1907534829497136 -0.01694032622647162 -0.003618515837342293 
0.2104809933780884 -0.1907534829497136 -0.01694032622647162 -0.003618515837342293 
-0.008845190860092824 0.0002932951752799432 -0.06837414232777471 -0.01976733708055526 
0 0 0 0 
0 0 0 0 
0 0 0 0 
0 0 0 0 
0 0 0 0 
0 0 0 0 
0 0 0 0 
0 0 0 0 
0 0 0 0 
0 0 0 0 
0 0 0 0 
0 0 0 0 
0 0 0 0 
0.147872389079434 -0.1187607731665951 -0.1912410095856534 -0.1316786110081036 
0 0 0 0 
0 0 0 0 
0 0 0 0 
0 0 0 0 
-0.02560167888210785 0.01394066334917044 -0.0006076606854411833 -0.001390514911215615 
-0.02560167888210785 0.01394066334917044 -0.0006076606854411833 -0.001390514911215615 
-0.02560167888210785 0.01394066334917044 -0.0006076606854411833 -0.001390514911215615 
-0.02560167888210785 0.01394066334917044 -0.0006076606854411833 -0.001390514911215615 
-0.02560167888210785 0.01394066334917044 -0.0006076606854411833 -0.001390514911215615 
0 0 0 0 
0.1933170875625139 -0.1908739678137194 -0.02256159118515686 -0.0103835089896286 
0 0 0 0 
0 0 0 0 
0 0 0 0 
0 0 0 0 
0.1312853446694958 -0.08761275682020735 -0.02286475046951481 -0.006005594662553852 
-0.0006943831422018699 0.0006039529697685802 -0.002611433313577087 -0.0003169116252373545 
-0.1847409595894032 0.1827716050837113 -0.01787246566884261 -0.06450192930994623 
0 0 0 0 
0 0 0 0 
0 0 0 0 
0.08059731021619139 -0.05656650743127843 -0.05749729174891507 -0.02777139065847719 
0 0 0 0 
0 0 0 0 
0 0 0 0 
-0.01247261688830336 0.01287493778727785 -0.01690333297143467 -0.0002931543909831258 
0 0 0 0 
0 0 0 0 
0 0 0 0 
0 0 0 0 
0 0 0 0 
0 0 0 0 
0 0 0 0 
0 0 0 0 
0 0 0 0 
0 0 0 0 
-0.2193706119350324 0.2197883879020189 -0.02577101591720498 -0.00244104713283652 
0 0 0 0 
0 0 0 0 
-0.3305259865766357 0.3972978551967775 -0.07707101583103275 -0.01170569075220899 
0 0 0 0 
0 0 0 0 
0 0 0 0 
0 0 0 0 
-0.0001517853614143808 0.001242446606251977 -7.43419865488628e-06 4.272290498678541e-06 
-0.0001517853614143808 0.001242446606251977 -7.43419865488628e-06 4.272290498678541e-06 
0 0 0 0 
0 0 0 0 
0 0 0 0 
0 0 0 0 
0 0 0 0 
0 0 0 0 
0 0 0 0 
0 0 0 0 
0 0 0 0 
0.1339990843088674 -0.1238412779875966 -0.001957932496834804 -0.002544037604128896 
0.3258080160383125 -0.1881324542434563 -0.1411844042034507 -0.1285094211293085 
0 0 0 0 
0 0 0 0 
0 0 0 0 
0 0 0 0 
0 0 0 0 
0 0 0 0 
0 0 0 0 
0.2591090582627472 -0.3139570373339122 -0.002425055893271521 -0.01020361502009684 
0 0 0 0 
0 0 0 0 
-0.2193706119350324 0.2197883879020189 -0.02577101591720498 -0.00244104713283652 
0.03068055256019732 0.2629127563187273 -0.4181207139614169 -0.1696837764185009 
0 0 0 0 
0 0 0 0 
0 0 0 0 
0 0 0 0 
-0.09361283142847537 0.1240812412612799 -0.01875063558400839 -0.006578768711190738 
0 0 0 0 
0 0 0 0 
0 0 0 0 
0 0 0 0 
0 0 0 0 
0.2157184347813927 -0.09734663312377488 -0.02314912169073491 -0.002665249538419941 
0 0 0 0 
0.1483809129109766 -0.1414449960374586 -0.03903490183152338 -0.05781060093866924 
0 0 0 0 
0 0 0 0 
0 0 0 0 
0 0 0 0 
0 0 0 0 
0 0 0 0 
0 0 0 0 
0.01047555618385602 -0.1949739232047574 0.4211282171419287 2.285954394496889e-05 
0 0 0 0 
0 0 0 0 
0 0 0 0 
0 0 0 0 
0 0 0 0 
0 0 0 0 
-0.09361283142847537 0.1240812412612799 -0.01875063558400839 -0.006578768711190738 
-0.09361283142847537 0.1240812412612799 -0.01875063558400839 -0.006578768711190738 
-0.09361283142847537 0.1240812412612799 -0.01875063558400839 -0.006578768711190738 
-0.2177553655135246 0.2694550859171923 -0.09475874882922231 -0.05835212648096601 
-0.09361283142847537 0.1240812412612799 -0.01875063558400839 -0.006578768711190738 
-0.09361283142847537 0.1240812412612799 -0.01875063558400839 -0.006578768711190738 
-0.09361283142847537 0.1240812412612799 -0.01875063558400839 -0.006578768711190738 
-0.09361283142847537 0.1240812412612799 -0.01875063558400839 -0.006578768711190738 
0 0 0 0 
0 0 0 0 
0 0 0 0 
0.003480260474603937 -0.001032029831102489 -0.001388155908448506 -2.199713146282733e-05 
-0.2150155479192347 -0.1664009798896388 -0.02565095503724373 0.3834706456179505 
0 0 0 0 
0 0 0 0 
0 0 0 0 
0 0 0 0 
0 0 0 0 
0 0 0 0 
0 0 0 0 
0 0 0 0 
0 0 0 0 
0 0 0 0 
0 0 0 0 
0 0 0 0 
0 0 0 0 
0 0 0 0 
0 0 0 0 
0 0 0 0 
-0.2372409809313448 0.2277940996567995 -0.1773732337386008 -0.1280533270612513 
0 0 0 0 
-0.3133837641852575 0.3731115878188258 -0.03562717690391677 -0.04744766630254219 
0 0 0 0 
0 0 0 0 
0 0 0 0 
0 0 0 0 
0 0 0 0 
0 0 0 0 
0 0 0 0 
-0.05257850952524549 0.1168537625000683 -0.02686896464092874 -0.005556454555760872 
0 0 0 0 
-0.1847409595894032 0.1827716050837113 -0.01787246566884261 -0.06450192930994623 
-0.1847409595894032 0.1827716050837113 -0.01787246566884261 -0.06450192930994623 
-0.1847409595894032 0.1827716050837113 -0.01787246566884261 -0.06450192930994623 
-0.1847409595894032 0.1827716050837113 -0.01787246566884261 -0.06450192930994623 
0 0 0 0 
0 0 0 0 
0 0 0 0 
-0.1180015986627484 0.08967978846990954 -0.01413312793825275 -0.04687723762066609 
0 0 0 0 
-0.09524196420452725 0.1080687171155885 -0.02859904210418028 -0.01583928083471847 
-0.09524196420452725 0.1080687171155885 -0.02859904210418028 -0.01583928083471847 
-0.1822204746795033 0.2133215591906853 -0.06073409208805004 -0.03204618653321898 
-0.5437093768378523 0.5831078333950953 -0.1122931051710105 -0.03754213782545935 
-0.09524196420452725 0.1080687171155885 -0.02859904210418028 -0.01583928083471847 
0 0 0 0 
0 0 0 0 
0 0 0 0 
0 0 0 0 
0 0 0 0 
0 0 0 0 
0 0 0 0 
0 0 0 0 
0 0 0 0 
0 0 0 0 
0 0 0 0 
0 0 0 0 
0 0 0 0 
0 0 0 0 
0 0 0 0 
0 0 0 0 
0 0 0 0 
0 0 0 0 
0 0 0 0 
0 0 0 0 
-0.1688621220727944 -0.2585921978581088 -0.08241392809331616 0.4360301174361171 
-0.495582050231747 -0.5431227763805453 -0.2948921591483805 0.8096902559299376 
0 0 0 0 
0 0 0 0 
0 0 0 0 
0 0 0 0 
0 0 0 0 
0 0 0 0 
0 0 0 0 
0 0 0 0 
0 0 0 0 
0 0 0 0 
0 0 0 0 
0 0 0 0 
0 0 0 0 
0 0 0 0 
0 0 0 0 
0.07200425076432493 -0.02978870673542747 0.1816560802951112 -0.007657388725793385 
0 0 0 0 
0 0 0 0 
0 0 0 0 
0 0 0 0 
0 0 0 0 
0 0 0 0 
0 0 0 0 
0 0 0 0 
0 0 0 0 
0 0 0 0 
0 0 0 0 
0 0 0 0 
0 0 0 0 
0 0 0 0 
0 0 0 0 
0 0 0 0 
0 0 0 0 
0.2612447239207408 -0.3051370385984388 -0.001666710415989302 -0.0004872514640814137 
0 0 0 0 
0 0 0 0 
-0.1570946094940838 -0.109901857431281 0.2655221480169099 -0.03879490336378204 
-0.1570946094940838 -0.109901857431281 0.2655221480169099 -0.03879490336378204 
-0.1570946094940838 -0.109901857431281 0.2655221480169099 -0.03879490336378204 
-0.1570946094940838 -0.109901857431281 0.2655221480169099 -0.03879490336378204 
-0.1570946094940838 -0.109901857431281 0.2655221480169099 -0.03879490336378204 
0 0 0 0 
0 0 0 0 
0 0 0 0 
0 0 0 0 
0 0 0 0 
0 0 0 0 
0 0 0 0 
0 0 0 0 
0 0 0 0 
0 0 0 0 
0 0 0 0 
0.1479368724046653 -0.1389625740823396 -0.02665878085057044 -0.02942219931642474 
0 0 0 0 
0 0 0 0 
0 0 0 0 
0 0 0 0 
0.274312869653533 -0.2902070976033835 -0.008839623348296608 -0.003220795433362815 
0.274312869653533 -0.2902070976033835 -0.008839623348296608 -0.003220795433362815 
0 0 0 0 
0 0 0 0 
0 0 0 0 
0 0 0 0 
0 0 0 0 
0 0 0 0 
0 0 0 0 
0 0 0 0 
0 0 0 0 
0 0 0 0 
-0.06472652321849953 0.03797565806737289 -0.001104121504965402 -0.001911221558781665 
0 0 0 0 
0 0 0 0 
0 0 0 0 
0 0 0 0 
0 0 0 0 
0 0 0 0 
0 0 0 0 
0 0 0 0 
-0.3014704316773448 0.3006425522060922 -0.08547603091352515 -0.05442256254195638 
0.2574945701984338 -0.2047762784261694 -0.06630225445039727 -0.140515671211283 
0.2183802490764886 -0.1180015183673302 -0.01286303551985279 3.535782784714573e-05 
0 0 0 0 
0 0 0 0 
0.003480260474603937 -0.001032029831102489 -0.001388155908448506 -2.199713146282733e-05 
0 0 0 0 
0 0 0 0 
0 0 0 0 
0 0 0 0 
0 0 0 0 
-0.002749259719351072 -0.03011674173928033 0.0001846315041323888 6.769873201936541e-05 
0.09121481475227064 -0.1567103675858096 -0.007901762891569892 -0.01834014818990946 
-0.002749259719351072 -0.03011674173928033 0.0001846315041323888 6.769873201936541e-05 
-0.002749259719351072 -0.03011674173928033 0.0001846315041323888 6.769873201936541e-05 
0 0 0 0 
0 0 0 0 
0 0 0 0 
0 0 0 0 
0 0 0 0 
0 0 0 0 
0 0 0 0 
0 0 0 0 
0 0 0 0 
0 0 0 0 
0 0 0 0 
0 0 0 0 
0 0 0 0 
0 0 0 0 
0 0 0 0 
0 0 0 0 
0 0 0 0 
0 0 0 0 
0 0 0 0 
0 0 0 0 
0.1886694615062691 -0.1652169869202226 -0.01347440637341578 -0.005143319324983757 
0 0 0 0 
0 0 0 0 
0 0 0 0 
0 0 0 0 
-0.1426724303236628 0.1986512380096524 -0.07065267679188363 -0.07465414458407396 
0 0 0 0 
0 0 0 0 
0 0 0 0 
0 0 0 0 
0 0 0 0 
0 0 0 0 
0 0 0 0 
0 0 0 0 
0 0 0 0 
0 0 0 0 
0 0 0 0 
0 0 0 0 
0 0 0 0 
0 0 0 0 
0 0 0 0 
0 0 0 0 
0 0 0 0 
0 0 0 0 
0 0 0 0 
0 0 0 0 
0 0 0 0 
0 0 0 0 
0 0 0 0 
0 0 0 0 
0 0 0 0 
-0.3890997295330861 -0.1724877104494801 0.0312590195456896 0.1290315102135758 
-0.2848850581572694 -0.01996905036010107 0.09674243496003458 -0.1633831894945184 
0 0 0 0 
0 0 0 0 
0 0 0 0 
0 0 0 0 
0 0 0 0 
-0.1016208862483503 0.1199849544698837 -0.1367051096272053 -0.04998586306688813 
0 0 0 0 
-0.1179414260566893 0.07774126108272938 -0.006623047235797441 -0.009997166238531889 
0 0 0 0 
0 0 0 0 
0 0 0 0 
-0.1301131933852779 0.1332554798965423 -0.001368456867850169 -0.001074087491221467 
0 0 0 0 
0 0 0 0 
0 0 0 0 
0 0 0 0 
0 0 0 0 
0 0 0 0 
0 0 0 0 
0 0 0 0 
0 0 0 0 
0 0 0 0 
0 0 0 0 
0 0 0 0 
0 0 0 0 
0 0 0 0 
0 0 0 0 
0 0 0 0 
0 0 0 0 
0 0 0 0 
0 0 0 0 
0 0 0 0 
0 0 0 0 
0 0 0 0 
0 0 0 0 
0 0 0 0 
0 0 0 0 
0 0 0 0 
0 0 0 0 
0.150922177419052 -0.0830953606266001 -0.1547230701089668 -0.02332265588851698 
0.1424905291065295 -0.05639055891931744 -0.01484129403461445 -0.004218771959044145 
0 0 0 0 
-0.2761420515346371 0.3765429940348513 -0.3939968985456628 -0.1247672001598905 
0 0 0 0 
0 0 0 0 
0 0 0 0 
0 0 0 0 
0 0 0 0 
0.0001895467026100297 0.001123192596556614 -0.001632315008106574 -1.134784248372784e-05 
0 0 0 0 
0 0 0 0 
0 0 0 0 
0 0 0 0 
0 0 0 0 
0 0 0 0 
0 0 0 0 
0 0 0 0 
0 0 0 0 
0 0 0 0 
0 0 0 0 
0 0 0 0 
0 0 0 0 
0 0 0 0 
0 0 0 0 
0 0 0 0 
0 0 0 0 
0 0 0 0 
0 0 0 0 
0 0 0 0 
0 0 0 0 
0 0 0 0 
0 0 0 0 
0 0 0 0 
0 0 0 0 
-0.1179414260566893 0.07774126108272938 -0.006623047235797441 -0.009997166238531889 
-0.1179414260566893 0.07774126108272938 -0.006623047235797441 -0.009997166238531889 
-0.1179414260566893 0.07774126108272938 -0.006623047235797441 -0.009997166238531889 
0 0 0 0 
0 0 0 0 
0 0 0 0 
0 0 0 0 
0 0 0 0 
0 0 0 0 
0 0 0 0 
0 0 0 0 
0 0 0 0 
0 0 0 0 
0 0 0 0 
0 0 0 0 
0 0 0 0 
0.2088083908797299 -0.1933110758691671 -0.04279953416328987 -0.01198018901184628 
0 0 0 0 
0 0 0 0 
0 0 0 0 
0 0 0 0 
0 0 0 0 
0 0 0 0 
0 0 0 0 
0 0 0 0 
0 0 0 0 
0 0 0 0 
0 0 0 0 
0 0 0 0 
0.1287058795340849 -0.1021216264752213 -0.01984416978752564 -0.03081335855198807 
-0.1408734609012453 0.1402930037648931 -0.005205470505101175 -0.005671360255580964 
0.07729732444103332 -0.06661395017995633 -0.007461651565340101 -0.008084409820573589 
0.07729732444103332 -0.06661395017995633 -0.007461651565340101 -0.008084409820573589 
0 0 0 0 
-0.214357204334745 0.2117469660322175 -0.06895360730992028 -0.04889442310572419 
-0.2019180085714589 0.2026293706510774 -0.06394709156012959 -0.04782083445836485 
-0.3219517943851857 0.2668189933802771 -0.01684659034040316 -0.005987839561386037 
0 0 0 0 
0 0 0 0 
0 0 0 0 
0 0 0 0 
-0.3014704316773448 0.3006425522060922 -0.08547603091352515 -0.05442256254195638 
-0.04473822676351292 0.05632292500738809 -0.01015038330294946 -0.008354023045072836 
-0.03307789633126253 -0.1703443428866455 0.3392759821924088 -0.01604078552437839 
-0.008959600574688821 0.02520702286794854 -0.02191552900855169 -0.004087798554660424 
-0.008959600574688821 0.02520702286794854 -0.02191552900855169 -0.004087798554660424 
-0.008959600574688821 0.02520702286794854 -0.02191552900855169 -0.004087798554660424 
0 0 0 0 
0 0 0 0 
0 0 0 0 
0 0 0 0 
0 0 0 0 
-0.2193261842381812 0.1910467781249935 -0.05143381610130309 -0.01614882124321297 
0 0 0 0 
0 0 0 0 
0 0 0 0 
0 0 0 0 
0.3580929430074372 -0.3489316002754025 -0.003207942110911316 -0.006678125518100447 
0 0 0 0 
0 0 0 0 
0 0 0 0 
0 0 0 0 
-0.2708750116369104 0.2772936238867652 -0.01050858470548757 -0.02740896454028958 
-0.2708750116369104 0.2772936238867652 -0.01050858470548757 -0.02740896454028958 
-0.2708750116369104 0.2772936238867652 -0.01050858470548757 -0.02740896454028958 
0 0 0 0 
0 0 0 0 
0 0 0 0 
0 0 0 0 
0 0 0 0 
0 0 0 0 
0 0 0 0 
-0.2739147107600836 -0.09167827389981607 -0.1045031257231296 0.7278743891928287 
0 0 0 0 
0 0 0 0 
0.1812854163396916 -0.1183155775903144 -0.1547383588688811 -0.08887555875263063 
0 0 0 0 
0 0 0 0 
0 0 0 0 
0 0 0 0 
0 0 0 0 
0 0 0 0 
0 0 0 0 
0 0 0 0 
0 0 0 0 
0 0 0 0 
0 0 0 0 
0 0 0 0 
0 0 0 0 
0 0 0 0 
0 0 0 0 
0 0 0 0 
0 0 0 0 
0 0 0 0 
0 0 0 0 
0 0 0 0 
0 0 0 0 
0 0 0 0 
0 0 0 0 
0.150922177419052 -0.0830953606266001 -0.1547230701089668 -0.02332265588851698 
0 0 0 0 
0 0 0 0 
0 0 0 0 
0.0636677298943754 -0.06170601668184485 -0.001383801461318285 -0.008859733158997267 
-0.004291996165971236 0.005590566942584179 -0.007308338057667777 -0.0009496561108048886 
0 0 0 0 
0 0 0 0 
0 0 0 0 
0 0 0 0 
-0.1100855011721177 0.1612599245828246 -0.008355165375108844 -0.003691541460868294 
0 0 0 0 
0 0 0 0 
0 0 0 0 
0.2088083908797299 -0.1933110758691671 -0.04279953416328987 -0.01198018901184628 
0 0 0 0 
0 0 0 0 
0 0 0 0 
0 0 0 0 
0.0001895467026100297 0.001123192596556614 -0.001632315008106574 -1.134784248372784e-05 
-0.1492463918089974 0.195054783042109 -0.0264255741570077 -0.09394758503099554 
0 0 0 0 
0 0 0 0 
0 0 0 0 
0 0 0 0 
0 0 0 0 
0 0 0 0 
0 0 0 0 
0 0 0 0 
0 0 0 0 
0 0 0 0 
-0.06850560271289588 0.09737093527131327 -0.01249607445145866 -0.02217242870126618 
0 0 0 0 
0 0 0 0 
0 0 0 0 
0 0 0 0 
0 0 0 0 
0 0 0 0 
-0.3723652345883681 0.4229845054356821 -0.09399064310964229 -0.1181414794528574 
0.05317769339826315 -0.05787743541799019 -0.01188613305339469 -0.004611897740688557 
0.01528443132790491 -0.02085763221017744 -0.007750576144735139 -0.008197346476746928 
-0.06201289311312842 0.0457563179697789 -0.0002889245793950378 -0.0001129366561733387 
0 0 0 0 
0 0 0 0 
0 0 0 0 
0 0 0 0 
0 0 0 0 
0 0 0 0 
0 0 0 0 
0 0 0 0 
0 0 0 0 
0 0 0 0 
0 0 0 0 
0 0 0 0 
0 0 0 0 
0 0 0 0 
0.0319639204083598 -0.04715734380717815 -0.01545575188851541 -0.003822279152634177 
0.0319639204083598 -0.04715734380717815 -0.01545575188851541 -0.003822279152634177 
0.0319639204083598 -0.04715734380717815 -0.01545575188851541 -0.003822279152634177 
0.0319639204083598 -0.04715734380717815 -0.01545575188851541 -0.003822279152634177 
0.0319639204083598 -0.04715734380717815 -0.01545575188851541 -0.003822279152634177 
0.0319639204083598 -0.04715734380717815 -0.01545575188851541 -0.003822279152634177 
0 0 0 0 
0 0 0 0 
0 0 0 0 
0 0 0 0 
0 0 0 0 
0 0 0 0 
0 0 0 0 
0.2591090582627472 -0.3139570373339122 -0.002425055893271521 -0.01020361502009684 
0 0 0 0 
-0.01021119321155235 0.02030649472496637 -0.001264847263703268 -0.0008108425720656404 
0 0 0 0 
0 0 0 0 
0 0 0 0 
0 0 0 0 
0 0 0 0 
0 0 0 0 
0 0 0 0 
0 0 0 0 
-0.2901495897063508 -0.02430314320158683 0.5166321447518908 -0.001156088329567723 
-0.2901495897063508 -0.02430314320158683 0.5166321447518908 -0.001156088329567723 
-0.08134119882662091 -0.2176142190707539 0.4738326105886009 -0.01313627734141401 
0 0 0 0 
0 0 0 0 
0 0 0 0 
0 0 0 0 
0 0 0 0 
0 0 0 0 
0 0 0 0 
0 0 0 0 
0 0 0 0 
0 0 0 0 
0 0 0 0 
0 0 0 0 
0 0 0 0 
0.4130938701549402 -0.3436919482417552 -0.1000739448997068 -0.1976315844458973 
0 0 0 0 
0 0 0 0 
0 0 0 0 
0 0 0 0 
0 0 0 0 
-0.006621204803105601 0.01167058045381809 -0.006453684218410832 5.613889893556754e-06 
0 0 0 0 
0 0 0 0 
0 0 0 0 
0 0 0 0 
0 0 0 0 
0 0 0 0 
0 0 0 0 
0 0 0 0 
0 0 0 0 
0 0 0 0 
0 0 0 0 
-0.0116091834006437 0.02613656930271408 -0.01682829699192321 -0.0005675876666386399 
0 0 0 0 
0 0 0 0 
0 0 0 0 
0 0 0 0 
0 0 0 0 
0 0 0 0 
0 0 0 0 
0 0 0 0 
0 0 0 0 
-0.0906326577005111 0.19675033499425 -0.04144462676363044 -0.07993642828193336 
0 0 0 0 
0 0 0 0 
0 0 0 0 
0 0 0 0 
0 0 0 0 
-0.1913431069869382 0.2066349512820193 -0.05229643575483175 -0.054292152587996 
0 0 0 0 
0 0 0 0 
0 0 0 0 
0 0 0 0 
-0.1274870731160065 0.1472438528881695 -0.07085954065718418 -0.09286624185158145 
0 0 0 0 
0 0 0 0 
0 0 0 0 
0 0 0 0 
0 0 0 0 
0 0 0 0 
0 0 0 0 
0 0 0 0 
0 0 0 0 
0 0 0 0 
0 0 0 0 
0 0 0 0 
0 0 0 0 
0 0 0 0 
0 0 0 0 
0 0 0 0 
0 0 0 0 
0 0 0 0 
0 0 0 0 
0 0 0 0 
0 0 0 0 
0 0 0 0 
0 0 0 0 
0 0 0 0 
0 0 0 0 
0 0 0 0 
0.1600275024519204 -0.1762246610220036 -0.01420680118049615 -0.002485184276116106 
0 0 0 0 
0 0 0 0 
0 0 0 0 
0 0 0 0 
0 0 0 0 
0 0 0 0 
0 0 0 0 
0 0 0 0 
-0.2697016072428881 0.2684683354635241 -0.09286728864641171 -0.1099025200872112 
0 0 0 0 
0 0 0 0 
0 0 0 0 
-0.3955728684974853 0.415089466848077 -0.4303146593774304 -0.351489113614595 
0 0 0 0 
0 0 0 0 
0 0 0 0 
0 0 0 0 
0 0 0 0 
0 0 0 0 
0 0 0 0 
-0.1688845297590012 -0.1386309064954465 -0.04982921362946654 0.2360319033852643 
0 0 0 0 
0 0 0 0 
0 0 0 0 
0 0 0 0 
-0.07902347429986741 0.1706137656915359 -0.02461632977170724 -0.07936884061529471 
0 0 0 0 
0 0 0 0 
0 0 0 0 
0 0 0 0 
0 0 0 0 
0 0 0 0 
0 0 0 0 
0 0 0 0 
0 0 0 0 
0 0 0 0 
0 0 0 0 
0 0 0 0 
0 0 0 0 
0 0 0 0 
0 0 0 0 
0 0 0 0 
-0.02584663574071964 0.04289421829509241 -0.001908096248502006 -0.001479926809645927 
0 0 0 0 
0 0 0 0 
0 0 0 0 
0 0 0 0 
0 0 0 0 
0 0 0 0 
0 0 0 0 
0 0 0 0 
0 0 0 0 
0.07095636103463537 -0.08096315151060945 -0.01016946721121151 -0.02502569128141121 
0 0 0 0 
0 0 0 0 
0 0 0 0 
0 0 0 0 
0 0 0 0 
0 0 0 0 
0 0 0 0 
0 0 0 0 
0 0 0 0 
0 0 0 0 
0 0 0 0 
0 0 0 0 
0 0 0 0 
0 0 0 0 
0.2157184347813927 -0.09734663312377488 -0.02314912169073491 -0.002665249538419941 
0 0 0 0 
0 0 0 0 
-0.1301131933852779 0.1332554798965423 -0.001368456867850169 -0.001074087491221467 
0 0 0 0 
0 0 0 0 
0.05779128475103777 -0.01551439141194999 -0.07099319660933481 -0.01078172486713609 
0 0 0 0 
0 0 0 0 
0 0 0 0 
0 0 0 0 
0 0 0 0 
0 0 0 0 
0 0 0 0 
0 0 0 0 
0 0 0 0 
0 0 0 0 
0 0 0 0 
0 0 0 0 
0 0 0 0 
0 0 0 0 
0 0 0 0 
0 0 0 0 
0 0 0 0 
0 0 0 0 
0 0 0 0 
0 0 0 0 
0 0 0 0 
0 0 0 0 
0 0 0 0 
0 0 0 0 
0 0 0 0 
0 0 0 0 
0 0 0 0 
-0.1100855011721177 0.1612599245828246 -0.008355165375108844 -0.003691541460868294 
0 0 0 0 
0 0 0 0 
0 0 0 0 
0 0 0 0 
0 0 0 0 
-0.1118045510181735 0.1850253457559779 -0.009482789117524393 -0.0210912537570104 
-0.1118045510181735 0.1850253457559779 -0.009482789117524393 -0.0210912537570104 
-0.2806890807771747 0.04639443926053146 -0.05931200274699093 0.2149406496282539 
0 0 0 0 
0 0 0 0 
0 0 0 0 
0 0 0 0 
0 0 0 0 
0 0 0 0 
0 0 0 0 
0 0 0 0 
0 0 0 0 
0 0 0 0 
0 0 0 0 
0 0 0 0 
0 0 0 0 
0 0 0 0 
0.1809570386222372 -0.166320619262096 -0.06857800869092678 -0.09786459480793742 
0 0 0 0 
-0.07145180905641596 -0.1508706376196151 -0.09478398398037731 0.185959510697727 
0 0 0 0 
0.1566565342065366 -0.1392021746263422 -0.04192629989387011 -0.04154284433125458 
0 0 0 0 
0 0 0 0 
-0.05238286371199927 0.07985046276508763 -0.03956602518463756 -0.004820028736887859 
0 0 0 0 
0 0 0 0 
0 0 0 0 
0 0 0 0 
0 0 0 0 
0 0 0 0 
0 0 0 0 
0 0 0 0 
0 0 0 0 
0 0 0 0 
0 0 0 0 
0.07756988666358003 -0.05140073131034491 -0.0514283048624796 -0.01120537505466024 
0.07756988666358003 -0.05140073131034491 -0.0514283048624796 -0.01120537505466024 
0.07756988666358003 -0.05140073131034491 -0.0514283048624796 -0.01120537505466024 
0.07756988666358003 -0.05140073131034491 -0.0514283048624796 -0.01120537505466024 
0 0 0 0 
0 0 0 0 
0 0 0 0 
0 0 0 0 
0 0 0 0 
0 0 0 0 
0 0 0 0 
0 0 0 0 
0 0 0 0 
0 0 0 0 
0 0 0 0 
0.2591090582627472 -0.3139570373339122 -0.002425055893271521 -0.01020361502009684 
0.4875370308878559 -0.568842632253902 -0.05664461481821599 -0.07340737107113639 
0 0 0 0 
0 0 0 0 
0.07729732444103332 -0.06661395017995633 -0.007461651565340101 -0.008084409820573589 
0 0 0 0 
0 0 0 0 
0 0 0 0 
0 0 0 0 
0 0 0 0 
0 0 0 0 
0 0 0 0 
0 0 0 0 
0 0 0 0 
0 0 0 0 
0 0 0 0 
0 0 0 0 
0 0 0 0 
0 0 0 0 
0 0 0 0 
0 0 0 0 
0 0 0 0 
0 0 0 0 
0 0 0 0 
0 0 0 0 
0 0 0 0 
0 0 0 0 
0 0 0 0 
0.1886694615062691 -0.1652169869202226 -0.01347440637341578 -0.005143319324983757 
0.1886694615062691 -0.1652169869202226 -0.01347440637341578 -0.005143319324983757 
0 0 0 0 
0 0 0 0 
0 0 0 0 
0 0 0 0 
0 0 0 0 
0 0 0 0 
-0.26452519655936 0.2875318679473878 -0.1713499588496396 -0.1351585614679861 
0 0 0 0 
0 0 0 0 
-0.3677678833677414 0.3485082821947265 -0.03843489166404987 -0.01584189239672574 
-0.02253477139749786 0.05346147212748795 -0.0007432631419574482 -2.20329086257152e-05 
0 0 0 0 
0 0 0 0 
0 0 0 0 
0 0 0 0 
0 0 0 0 
0 0 0 0 
0 0 0 0 
-0.1106385209058278 0.1158104508508893 -0.1787823918688358 -0.1496059472071737 
0 0 0 0 
0 0 0 0 
0 0 0 0 
0 0 0 0 
0 0 0 0 
0 0 0 0 
0 0 0 0 
0 0 0 0 
0 0 0 0 
0 0 0 0 
0 0 0 0 
0 0 0 0 
0 0 0 0 
0 0 0 0 
0 0 0 0 
0 0 0 0 
0 0 0 0 
-0.2283579675793198 -0.07816124805428842 -0.08626458064604901 0.1884575018980836 
0 0 0 0 
-0.1593183385699214 0.1666563113837952 -0.1059468909721178 -0.2075704083060635 
0 0 0 0 
0 0 0 0 
0 0 0 0 
0 0 0 0 
-0.1492463918089974 0.195054783042109 -0.0264255741570077 -0.09394758503099554 
0 0 0 0 
0 0 0 0 
0 0 0 0 
0 0 0 0 
0 0 0 0 
0 0 0 0 
0 0 0 0 
0 0 0 0 
0 0 0 0 
0 0 0 0 
0 0 0 0 
0 0 0 0 
0 0 0 0 
0 0 0 0 
0 0 0 0 
-0.3133837641852575 0.3731115878188258 -0.03562717690391677 -0.04744766630254219 
-0.3133837641852575 0.3731115878188258 -0.03562717690391677 -0.04744766630254219 
0 0 0 0 
0 0 0 0 
0 0 0 0 
0 0 0 0 
0 0 0 0 
0 0 0 0 
0 0 0 0 
0 0 0 0 
0 0 0 0 
0 0 0 0 
-0.1913431069869382 0.2066349512820193 -0.05229643575483175 -0.054292152587996 
-0.546648733326315 0.4872403739336754 -0.02147945013875281 -0.2208030796404752 
0 0 0 0 
0 0 0 0 
0 0 0 0 
-0.03110672407924222 0.02103127630306071 -0.02910775515294921 -0.007913881658740188 
0 0 0 0 
0 0 0 0 
0 0 0 0 
0 0 0 0 
0 0 0 0 
0 0 0 0 
0 0 0 0 
0 0 0 0 
0 0 0 0 
0 0 0 0 
0 0 0 0 
0 0 0 0 
0.1424905291065295 -0.05639055891931744 -0.01484129403461445 -0.004218771959044145 
0.2396091023470144 -0.2604706172664353 -0.1476281384236517 -0.0802003490594046 
0 0 0 0 
0 0 0 0 
0 0 0 0 
0 0 0 0 
0 0 0 0 
0 0 0 0 
0 0 0 0 
0 0 0 0 
0 0 0 0 
0 0 0 0 
0 0 0 0 
0 0 0 0 
0 0 0 0 
0 0 0 0 
0 0 0 0 
0 0 0 0 
0 0 0 0 
-0.1895394431144957 0.2713015995707704 -0.1133027622647095 -0.04039572025059738 
0 0 0 0 
0 0 0 0 
0 0 0 0 
0 0 0 0 
0 0 0 0 
0 0 0 0 
0 0 0 0 
-0.100948298447491 0.135579840435899 -0.0364872589184449 -0.03566755743102373 
-0.2090450336743321 0.2059327086946978 -0.06073198914269239 -0.0451128866237705 
0 0 0 0 
0.069624720570977 -0.01088295020966577 -0.002134967038776115 -0.006404200856440394 
0 0 0 0 
0 0 0 0 
0.008263453729551194 -0.002815875040491734 -0.003536007879689483 -0.0003676248637820374 
0.008263453729551194 -0.002815875040491734 -0.003536007879689483 -0.0003676248637820374 
0.008263453729551194 -0.002815875040491734 -0.003536007879689483 -0.0003676248637820374 
0.04991399395907752 -0.04689859833615802 -0.00580980668194906 -0.004312678913261315 
0 0 0 0 
0 0 0 0 
0.2591090582627472 -0.3139570373339122 -0.002425055893271521 -0.01020361502009684 
0 0 0 0 
0 0 0 0 
0 0 0 0 
0 0 0 0 
0 0 0 0 
0 0 0 0 
0 0 0 0 
0 0 0 0 
0 0 0 0 
0 0 0 0 
0 0 0 0 
0 0 0 0 
0 0 0 0 
0 0 0 0 
0 0 0 0 
0 0 0 0 
0 0 0 0 
-0.02030963379608193 0.09470996209339289 -0.2435168124718967 -0.116349448900453 
0 0 0 0 
-0.3219517943851857 0.2668189933802771 -0.01684659034040316 -0.005987839561386037 
0 0 0 0 
0 0 0 0 
0 0 0 0 
0 0 0 0 
0 0 0 0 
0 0 0 0 
0 0 0 0 
0 0 0 0 
0 0 0 0 
0 0 0 0 
0 0 0 0 
0 0 0 0 
0 0 0 0 
0 0 0 0 
0 0 0 0 
0 0 0 0 
0 0 0 0 
0 0 0 0 
0 0 0 0 
0 0 0 0 
0 0 0 0 
0 0 0 0 
0 0 0 0 
-0.432741287947122 0.5044123139179695 -0.02955198893934186 -0.01151650356012164 
-0.432741287947122 0.5044123139179695 -0.02955198893934186 -0.01151650356012164 
0 0 0 0 
0 0 0 0 
0.1060579376848093 -0.07518298458836324 -0.009483070375991881 -0.002376762096387056 
0.1060579376848093 -0.07518298458836324 -0.009483070375991881 -0.002376762096387056 
0 0 0 0 
0 0 0 0 
0 0 0 0 
0 0 0 0 
0 0 0 0 
0 0 0 0 
0 0 0 0 
0 0 0 0 
0 0 0 0 
0 0 0 0 
0 0 0 0 
0 0 0 0 
0 0 0 0 
0 0 0 0 
0 0 0 0 
0 0 0 0 
-0.06627094449184026 0.2033818266234846 -0.07322913756583141 -0.005282010516547146 
0 0 0 0 
0 0 0 0 
0 0 0 0 
0 0 0 0 
0 0 0 0 
0 0 0 0 
0 0 0 0 
0 0 0 0 
0 0 0 0 
0 0 0 0 
0 0 0 0 
0 0 0 0 
0 0 0 0 
0 0 0 0 
0 0 0 0 
0 0 0 0 
0 0 0 0 
0 0 0 0 
0 0 0 0 
0 0 0 0 
0 0 0 0 
0 0 0 0 
0 0 0 0 
0 0 0 0 
0 0 0 0 
-0.03675933883438549 0.08637494412952729 -0.01904988801472849 -0.001419059891709895 
-0.05238286371199927 0.07985046276508763 -0.03956602518463756 -0.004820028736887859 
0 0 0 0 
0 0 0 0 
0 0 0 0 
0 0 0 0 
0 0 0 0 
0 0 0 0 
0 0 0 0 
0 0 0 0 
0 0 0 0 
0 0 0 0 
0 0 0 0 
0 0 0 0 
0 0 0 0 
0 0 0 0 
0 0 0 0 
0.05126067382019192 -0.02578720934014633 -0.01824890569353522 -0.02163063774073518 
0 0 0 0 
0 0 0 0 
0 0 0 0 
0 0 0 0 
0 0 0 0 
0 0 0 0 
0 0 0 0 
0 0 0 0 
0 0 0 0 
0 0 0 0 
0 0 0 0 
0 0 0 0 
0 0 0 0 
0 0 0 0 
0 0 0 0 
0 0 0 0 
0 0 0 0 
0 0 0 0 
0 0 0 0 
-0.01637427960445086 0.0145716347541992 -0.003032116768456548 -0.001688424237553036 
0 0 0 0 
0 0 0 0 
0 0 0 0 
0 0 0 0 
0 0 0 0 
0 0 0 0 
0 0 0 0 
0 0 0 0 
0 0 0 0 
0 0 0 0 
0 0 0 0 
0 0 0 0 
0 0 0 0 
0 0 0 0 
0 0 0 0 
0 0 0 0 
0 0 0 0 
0 0 0 0 
0 0 0 0 
0 0 0 0 
0 0 0 0 
-0.01243919576328617 0.009117595381140087 -0.005006515749790693 -0.001073588647359336 
0 0 0 0 
0 0 0 0 
0 0 0 0 
0 0 0 0 
0 0 0 0 
0 0 0 0 
0 0 0 0 
0 0 0 0 
0 0 0 0 
0 0 0 0 
0 0 0 0 
0 0 0 0 
0 0 0 0 
0 0 0 0 
0 0 0 0 
0 0 0 0 
0 0 0 0 
0 0 0 0 
0 0 0 0 
0 0 0 0 
0 0 0 0 
0 0 0 0 
0 0 0 0 
0 0 0 0 
0 0 0 0 
-0.1652629932883178 0.1986489275983888 -0.03853550791551637 -0.005852845376104495 
-0.1652629932883178 0.1986489275983888 -0.03853550791551637 -0.005852845376104495 
0 0 0 0 
0 0 0 0 
0 0 0 0 
0 0 0 0 
0 0 0 0 
0 0 0 0 
0.2157184347813927 -0.09734663312377488 -0.02314912169073491 -0.002665249538419941 
0 0 0 0 
0 0 0 0 
0 0 0 0 
0 0 0 0 
0 0 0 0 
0 0 0 0 
0 0 0 0 
0 0 0 0 
-0.08050649083802917 0.09989645685942303 -0.03246922278143507 -0.04548007868084508 
-0.3014704316773448 0.3006425522060922 -0.08547603091352515 -0.05442256254195638 
0 0 0 0 
0 0 0 0 
0 0 0 0 
0 0 0 0 
0 0 0 0 
0 0 0 0 
0 0 0 0 
0 0 0 0 
0 0 0 0 
0 0 0 0 
0 0 0 0 
0 0 0 0 
0 0 0 0 
0 0 0 0 
0 0 0 0 
0 0 0 0 
0 0 0 0 
0 0 0 0 
0 0 0 0 
0 0 0 0 
0 0 0 0 
0 0 0 0 
0 0 0 0 
0 0 0 0 
0 0 0 0 
0 0 0 0 
0 0 0 0 
0 0 0 0 
0 0 0 0 
0 0 0 0 
0 0 0 0 
0 0 0 0 
0 0 0 0 
0 0 0 0 
0 0 0 0 
0 0 0 0 
0 0 0 0 
0 0 0 0 
0 0 0 0 
0 0 0 0 
0 0 0 0 
0 0 0 0 
0 0 0 0 
0 0 0 0 
0 0 0 0 
0 0 0 0 
0 0 0 0 
0 0 0 0 
0 0 0 0 
0 0 0 0 
0.2669055561276527 -0.2581855526731842 -0.2046481417358627 -0.2759203341343163 
0 0 0 0 
0 0 0 0 
0 0 0 0 
0 0 0 0 
0 0 0 0 
0 0 0 0 
0 0 0 0 
0 0 0 0 
0 0 0 0 
0 0 0 0 
0 0 0 0 
0 0 0 0 
0 0 0 0 
-0.02253477139749786 0.05346147212748795 -0.0007432631419574482 -2.20329086257152e-05 
0 0 0 0 
0 0 0 0 
0.1000087612218818 -0.06496361267435059 -0.009211733826020869 -0.008074727592732174 
0 0 0 0 
0 0 0 0 
0 0 0 0 
0 0 0 0 
0 0 0 0 
0 0 0 0 
0 0 0 0 
0 0 0 0 
0 0 0 0 
0 0 0 0 
0 0 0 0 
0 0 0 0 
0 0 0 0 
0 0 0 0 
0 0 0 0 
-0.0901142004883614 0.05806966018396817 -0.004726254464492555 -0.002413124081056447 
0.01240088658069038 -0.2569464840857609 -0.2045675724983476 0.1471563446326337 
0 0 0 0 
0 0 0 0 
0 0 0 0 
0.1600275024519204 -0.1762246610220036 -0.01420680118049615 -0.002485184276116106 
0.1600275024519204 -0.1762246610220036 -0.01420680118049615 -0.002485184276116106 
0.1600275024519204 -0.1762246610220036 -0.01420680118049615 -0.002485184276116106 
0 0 0 0 
-0.06516335390204857 0.07584591732019444 -0.02585062142852967 -0.01245461645824029 
0 0 0 0 
0.002887108041040833 -0.003210176733217563 -0.001758563233433682 4.890603885839701e-05 
0 0 0 0 
0 0 0 0 
0 0 0 0 
0 0 0 0 
0 0 0 0 
0 0 0 0 
0 0 0 0 
-0.1352900815039545 0.2598226562620082 -0.0100535383372983 -0.01655568216537453 
0 0 0 0 
0 0 0 0 
0 0 0 0 
0 0 0 0 
0.05779128475103777 -0.01551439141194999 -0.07099319660933481 -0.01078172486713609 
0 0 0 0 
0 0 0 0 
0 0 0 0 
0 0 0 0 
0 0 0 0 
0 0 0 0 
0 0 0 0 
0 0 0 0 
0 0 0 0 
0 0 0 0 
0 0 0 0 
0 0 0 0 
0 0 0 0 
0 0 0 0 
0 0 0 0 
0 0 0 0 
0 0 0 0 
0 0 0 0 
0 0 0 0 
0 0 0 0 
0 0 0 0 
0 0 0 0 
0 0 0 0 
0 0 0 0 
0 0 0 0 
0 0 0 0 
0 0 0 0 
0 0 0 0 
0 0 0 0 
0 0 0 0 
0 0 0 0 
0 0 0 0 
0 0 0 0 
0 0 0 0 
0 0 0 0 
0 0 0 0 
0 0 0 0 
0 0 0 0 
0 0 0 0 
0 0 0 0 
0 0 0 0 
0 0 0 0 
0 0 0 0 
0 0 0 0 
0 0 0 0 
0 0 0 0 
0 0 0 0 
0 0 0 0 
0 0 0 0 
0 0 0 0 
0 0 0 0 
0 0 0 0 
0 0 0 0 
-0.2672950551123643 0.2550126254772315 -0.1368560919749657 -0.1080631028759191 
0 0 0 0 
0 0 0 0 
0 0 0 0 
0 0 0 0 
0 0 0 0 
0 0 0 0 
0 0 0 0 
0 0 0 0 
0 0 0 0 
0 0 0 0 
0 0 0 0 
0 0 0 0 
0 0 0 0 
0 0 0 0 
-0.1393713753999965 0.1522997699140454 -0.02672460466557744 -0.04478189268098566 
-0.1393713753999965 0.1522997699140454 -0.02672460466557744 -0.04478189268098566 
0 0 0 0 
0 0 0 0 
0 0 0 0 
0 0 0 0 
0 0 0 0 
0 0 0 0 
0 0 0 0 
0 0 0 0 
0 0 0 0 
0 0 0 0 
0 0 0 0 
0 0 0 0 
0 0 0 0 
0 0 0 0 
0 0 0 0 
0 0 0 0 
0 0 0 0 
0 0 0 0 
0 0 0 0 
0 0 0 0 
0 0 0 0 
0 0 0 0 
0 0 0 0 
0 0 0 0 
0 0 0 0 
0 0 0 0 
0 0 0 0 
0 0 0 0 
0 0 0 0 
0 0 0 0 
0 0 0 0 
0 0 0 0 
0 0 0 0 
0 0 0 0 
0 0 0 0 
0 0 0 0 
0 0 0 0 
0 0 0 0 
0 0 0 0 
0 0 0 0 
0 0 0 0 
0 0 0 0 
0 0 0 0 
0 0 0 0 
0 0 0 0 
0 0 0 0 
0 0 0 0 
0 0 0 0 
0 0 0 0 
0.01047555618385602 -0.1949739232047574 0.4211282171419287 2.285954394496889e-05 
0 0 0 0 
0 0 0 0 
0 0 0 0 
0 0 0 0 
0 0 0 0 
0 0 0 0 
0 0 0 0 
0 0 0 0 
0 0 0 0 
0 0 0 0 
0 0 0 0 
0 0 0 0 
0 0 0 0 
0 0 0 0 
0.1424905291065295 -0.05639055891931744 -0.01484129403461445 -0.004218771959044145 
0.1424905291065295 -0.05639055891931744 -0.01484129403461445 -0.004218771959044145 
0.1424905291065295 -0.05639055891931744 -0.01484129403461445 -0.004218771959044145 
0 0 0 0 
0 0 0 0 
0 0 0 0 
0 0 0 0 
0 0 0 0 
0 0 0 0 
0 0 0 0 
0 0 0 0 
0 0 0 0 
0 0 0 0 
0 0 0 0 
0 0 0 0 
0 0 0 0 
0 0 0 0 
0 0 0 0 
0 0 0 0 
0 0 0 0 
0 0 0 0 
0 0 0 0 
0 0 0 0 
0.2265987886067334 -0.1988429216802371 -0.01157139174555994 -0.03216802182297712 
0.2265987886067334 -0.1988429216802371 -0.01157139174555994 -0.03216802182297712 
0 0 0 0 
-0.0512848587993758 0.08946787418343491 -0.02591620907882876 -0.03182008733351535 
-0.0512848587993758 0.08946787418343491 -0.02591620907882876 -0.03182008733351535 
0 0 0 0 
0 0 0 0 
0 0 0 0 
0 0 0 0 
0 0 0 0 
0 0 0 0 
0 0 0 0 
0.1746637849955945 -0.1840671282373798 -0.004628514242310118 -0.007863156970289262 
0.1746637849955945 -0.1840671282373798 -0.004628514242310118 -0.007863156970289262 
0.1746637849955945 -0.1840671282373798 -0.004628514242310118 -0.007863156970289262 
0 0 0 0 
0 0 0 0 
0 0 0 0 
0 0 0 0 
0 0 0 0 
-0.2752238091324947 0.2256284511197885 -0.1187573007038335 -0.0901405436694238 
-0.2752238091324947 0.2256284511197885 -0.1187573007038335 -0.0901405436694238 
0 0 0 0 
0 0 0 0 
0 0 0 0 
0 0 0 0 
0 0 0 0 
0 0 0 0 
0 0 0 0 
0 0 0 0 
0 0 0 0 
0 0 0 0 
0 0 0 0 
0 0 0 0 
0 0 0 0 
0 0 0 0 
0 0 0 0 
0 0 0 0 
0 0 0 0 
0 0 0 0 
0 0 0 0 
0 0 0 0 
0 0 0 0 
0 0 0 0 
0 0 0 0 
0 0 0 0 
0 0 0 0 
0 0 0 0 
0 0 0 0 
-0.1100855011721177 0.1612599245828246 -0.008355165375108844 -0.003691541460868294 
0.07729732444103332 -0.06661395017995633 -0.007461651565340101 -0.008084409820573589 
0 0 0 0 
0.1428945280701395 -0.1137493261229214 -0.006036453477591607 -0.005438006995915212 
0 0 0 0 
0 0 0 0 
-0.1212602899826805 -0.08435740314328498 0.3989430225639177 -0.002088294449589177 
-0.1402578099295599 -0.05566522561137993 -0.07863626439462607 0.1078256701305347 
-0.1402578099295599 -0.05566522561137993 -0.07863626439462607 0.1078256701305347 
-0.1402578099295599 -0.05566522561137993 -0.07863626439462607 0.1078256701305347 
0 0 0 0 
0 0 0 0 
0 0 0 0 
0 0 0 0 
0.2031618236558486 -0.2406246148493453 -0.02131537458948332 -0.04160434161085838 
0 0 0 0 
0 0 0 0 
0 0 0 0 
0 0 0 0 
0 0 0 0 
0.05126067382019192 -0.02578720934014633 -0.01824890569353522 -0.02163063774073518 
0 0 0 0 
0 0 0 0 
0 0 0 0 
0 0 0 0 
-0.005326129544903939 0.00666223737408719 -0.0004662267756196579 -5.180334001414255e-05 
-0.005326129544903939 0.00666223737408719 -0.0004662267756196579 -5.180334001414255e-05 
-0.005326129544903939 0.00666223737408719 -0.0004662267756196579 -5.180334001414255e-05 
0 0 0 0 
0 0 0 0 
0 0 0 0 
0 0 0 0 
-0.05898147040311066 0.04987291761685626 -0.05836346620572552 -0.07069381315031525 
-0.1175744068164898 0.1546798608726342 -0.01425398787588985 -0.009785190482789329 
-0.1175744068164898 0.1546798608726342 -0.01425398787588985 -0.009785190482789329 
0 0 0 0 
0 0 0 0 
0 0 0 0 
0 0 0 0 
0 0 0 0 
0 0 0 0 
0 0 0 0 
0 0 0 0 
0 0 0 0 
0 0 0 0 
0 0 0 0 
0 0 0 0 
0 0 0 0 
0 0 0 0 
0 0 0 0 
0 0 0 0 
0 0 0 0 
0 0 0 0 
0 0 0 0 
0 0 0 0 
0 0 0 0 
0 0 0 0 
0 0 0 0 
0 0 0 0 
0 0 0 0 
0 0 0 0 
0 0 0 0 
0 0 0 0 
0 0 0 0 
0 0 0 0 
0 0 0 0 
0 0 0 0 
0 0 0 0 
0.1032421021421561 -0.05581994969197353 -0.00536266308315452 -0.001852717906144528 
0 0 0 0 
0 0 0 0 
0 0 0 0 
0 0 0 0 
0 0 0 0 
0 0 0 0 
0 0 0 0 
0 0 0 0 
0 0 0 0 
0 0 0 0 
0 0 0 0 
0 0 0 0 
-0.06472652321849953 0.03797565806737289 -0.001104121504965402 -0.001911221558781665 
0 0 0 0 
0.1687010390850429 -0.1812916027133413 -0.1182600664362262 -0.1661500116086714 
0.1687010390850429 -0.1812916027133413 -0.1182600664362262 -0.1661500116086714 
0.1687010390850429 -0.1812916027133413 -0.1182600664362262 -0.1661500116086714 
0 0 0 0 
0 0 0 0 
0 0 0 0 
0 0 0 0 
0 0 0 0 
0 0 0 0 
0 0 0 0 
0 0 0 0 
-0.02722349851571931 0.03291161146729791 -0.0005937353438541009 -0.0002133268024213606 
0 0 0 0 
0 0 0 0 
0 0 0 0 
0 0 0 0 
0 0 0 0 
0 0 0 0 
0 0 0 0 
0 0 0 0 
0 0 0 0 
0 0 0 0 
0 0 0 0 
0 0 0 0 
0 0 0 0 
0 0 0 0 
0.1339990843088674 -0.1238412779875966 -0.001957932496834804 -0.002544037604128896 
0 0 0 0 
0 0 0 0 
0 0 0 0 
0 0 0 0 
-0.1100855011721177 0.1612599245828246 -0.008355165375108844 -0.003691541460868294 
-0.1100855011721177 0.1612599245828246 -0.008355165375108844 -0.003691541460868294 
0 0 0 0 
0 0 0 0 
0 0 0 0 
0 0 0 0 
0.1331803225346355 -0.03341146474883518 -0.1291311232320634 -0.07254972389357268 
-0.06850560271289588 0.09737093527131327 -0.01249607445145866 -0.02217242870126618 
0 0 0 0 
0 0 0 0 
0 0 0 0 
0 0 0 0 
0 0 0 0 
0 0 0 0 
0 0 0 0 
0 0 0 0 
0 0 0 0 
0 0 0 0 
0 0 0 0 
0 0 0 0 
0 0 0 0 
0 0 0 0 
0 0 0 0 
0 0 0 0 
0 0 0 0 
0 0 0 0 
0 0 0 0 
0.1542894608636146 -0.1499789610341558 -0.1895466067317579 -0.1316956930377232 
0 0 0 0 
0 0 0 0 
0 0 0 0 
0 0 0 0 
0.1799391017281624 -0.07546696270883567 -0.09796205602119802 -0.003063065599358618 
0.08576671624194274 -0.03582539861176197 -0.02171202433978789 -0.01772448521218307 
0 0 0 0 
0 0 0 0 
0 0 0 0 
0 0 0 0 
-0.05238286371199927 0.07985046276508763 -0.03956602518463756 -0.004820028736887859 
0 0 0 0 
0 0 0 0 
0 0 0 0 
0 0 0 0 
0 0 0 0 
0 0 0 0 
0 0 0 0 
0 0 0 0 
0 0 0 0 
0 0 0 0 
0 0 0 0 
0 0 0 0 
0 0 0 0 
0 0 0 0 
0 0 0 0 
0 0 0 0 
0 0 0 0 
0 0 0 0 
0 0 0 0 
0 0 0 0 
0 0 0 0 
0 0 0 0 
0 0 0 0 
-0.2201370797661158 0.2964998083240777 -0.06364216495950205 -0.02652448797545254 
0 0 0 0 
0 0 0 0 
0 0 0 0 
0 0 0 0 
0 0 0 0 
0 0 0 0 
0 0 0 0 
0 0 0 0 
0 0 0 0 
0 0 0 0 
0 0 0 0 
0 0 0 0 
0.1380106030235211 -0.04016565123604722 -0.04274902686616628 -0.02152776814393787 
0.1380106030235211 -0.04016565123604722 -0.04274902686616628 -0.02152776814393787 
0 0 0 0 
0 0 0 0 
0 0 0 0 
0 0 0 0 
0 0 0 0 
0 0 0 0 
0 0 0 0 
0 0 0 0 
0 0 0 0 
0 0 0 0 
-0.08804128032508013 0.08771356282616349 -0.003335389578661246 -0.0001118566743142453 
-0.08804128032508013 0.08771356282616349 -0.003335389578661246 -0.0001118566743142453 
-0.08804128032508013 0.08771356282616349 -0.003335389578661246 -0.0001118566743142453 
0.04991399395907752 -0.04689859833615802 -0.00580980668194906 -0.004312678913261315 
0 0 0 0 
0 0 0 0 
0 0 0 0 
0 0 0 0 
0 0 0 0 
0 0 0 0 
0 0 0 0 
0 0 0 0 
0 0 0 0 
0 0 0 0 
0 0 0 0 
0 0 0 0 
0 0 0 0 
0 0 0 0 
0 0 0 0 
0 0 0 0 
0 0 0 0 
0 0 0 0 
0.07729732444103332 -0.06661395017995633 -0.007461651565340101 -0.008084409820573589 
0.07729732444103332 -0.06661395017995633 -0.007461651565340101 -0.008084409820573589 
0.07729732444103332 -0.06661395017995633 -0.007461651565340101 -0.008084409820573589 
0.07729732444103332 -0.06661395017995633 -0.007461651565340101 -0.008084409820573589 
0.07729732444103332 -0.06661395017995633 -0.007461651565340101 -0.008084409820573589 
0.07729732444103332 -0.06661395017995633 -0.007461651565340101 -0.008084409820573589 
0 0 0 0 
0 0 0 0 
0 0 0 0 
0 0 0 0 
0 0 0 0 
0 0 0 0 
0 0 0 0 
0 0 0 0 
0 0 0 0 
0 0 0 0 
0 0 0 0 
0.04991399395907752 -0.04689859833615802 -0.00580980668194906 -0.004312678913261315 
0 0 0 0 
0 0 0 0 
0 0 0 0 
0 0 0 0 
0 0 0 0 
0 0 0 0 
0 0 0 0 
0 0 0 0 
0 0 0 0 
0 0 0 0 
-0.01315269304627182 0.0171647388972116 -0.006291624265932345 -0.002928700178400205 
0 0 0 0 
0 0 0 0 
0 0 0 0 
0 0 0 0 
0 0 0 0 
0 0 0 0 
0 0 0 0 
0 0 0 0 
0 0 0 0 
0 0 0 0 
0 0 0 0 
0 0 0 0 
0 0 0 0 
0 0 0 0 
0 0 0 0 
0 0 0 0 
0 0 0 0 
0 0 0 0 
0 0 0 0 
0 0 0 0 
0 0 0 0 
0 0 0 0 
0 0 0 0 
0 0 0 0 
0 0 0 0 
0 0 0 0 
0 0 0 0 
0 0 0 0 
0 0 0 0 
0 0 0 0 
-0.100285633136063 0.1210485072224058 -0.003523480725905353 -0.002040624681722742 
0 0 0 0 
0 0 0 0 
0 0 0 0 
0 0 0 0 
0 0 0 0 
0 0 0 0 
0 0 0 0 
0 0 0 0 
0 0 0 0 
0 0 0 0 
0 0 0 0 
0 0 0 0 
0 0 0 0 
0 0 0 0 
0 0 0 0 
0 0 0 0 
0 0 0 0 
0 0 0 0 
0 0 0 0 
0 0 0 0 
0 0 0 0 
0 0 0 0 
0 0 0 0 
0 0 0 0 
0 0 0 0 
0 0 0 0 
0 0 0 0 
0 0 0 0 
0 0 0 0 
0 0 0 0 
0 0 0 0 
0 0 0 0 
0 0 0 0 
0 0 0 0 
0 0 0 0 
0 0 0 0 
0 0 0 0 
0 0 0 0 
0 0 0 0 
0 0 0 0 
0 0 0 0 
0 0 0 0 
0 0 0 0 
0 0 0 0 
0 0 0 0 
0 0 0 0 
0 0 0 0 
0 0 0 0 
0 0 0 0 
0 0 0 0 
0 0 0 0 
0 0 0 0 
0 0 0 0 
0 0 0 0 
0 0 0 0 
0 0 0 0 
0 0 0 0 
0 0 0 0 
0 0 0 0 
0 0 0 0 
0 0 0 0 
0 0 0 0 
-0.1016208862483503 0.1199849544698837 -0.1367051096272053 -0.04998586306688813 
-0.1016208862483503 0.1199849544698837 -0.1367051096272053 -0.04998586306688813 
-0.05596508451791508 0.1108668459527248 -0.2118998834021391 -0.02427527674892047 
0.2884682224364601 -0.3380486500657367 -0.001072975072135201 -0.0002739246616600531 
0 0 0 0 
-0.006574667494013306 0.01554674126770893 -0.001330807420715479 -0.001500833793601121 
0 0 0 0 
0 0 0 0 
0 0 0 0 
0 0 0 0 
0 0 0 0 
0 0 0 0 
0 0 0 0 
0 0 0 0 
0 0 0 0 
0 0 0 0 
0 0 0 0 
0 0 0 0 
0 0 0 0 
0 0 0 0 
0 0 0 0 
-0.06201289311312842 0.0457563179697789 -0.0002889245793950378 -0.0001129366561733387 
-0.06201289311312842 0.0457563179697789 -0.0002889245793950378 -0.0001129366561733387 
0 0 0 0 
-0.06999306153377705 0.04062658400499296 -0.003262022797599945 -0.001499447150006377 
0 0 0 0 
0.07095636103463537 -0.08096315151060945 -0.01016946721121151 -0.02502569128141121 
0.07095636103463537 -0.08096315151060945 -0.01016946721121151 -0.02502569128141121 
-0.1717504906215818 0.1720040369145094 -0.0563031964269417 -0.04371418444022827 
0 0 0 0 
0 0 0 0 
0 0 0 0 
0 0 0 0 
0 0 0 0 
0 0 0 0 
0 0 0 0 
0 0 0 0 
0 0 0 0 
0 0 0 0 
0 0 0 0 
0 0 0 0 
0 0 0 0 
0 0 0 0 
0 0 0 0 
0 0 0 0 
0 0 0 0 
0 0 0 0 
0 0 0 0 
0 0 0 0 
0 0 0 0 
0 0 0 0 
0 0 0 0 
0 0 0 0 
0 0 0 0 
0 0 0 0 
0 0 0 0 
0 0 0 0 
0 0 0 0 
0 0 0 0 
0 0 0 0 
0 0 0 0 
0 0 0 0 
0 0 0 0 
0 0 0 0 
-0.2333864855852157 0.2439281247298871 -0.1294238572971801 -0.1291630836969157 
0 0 0 0 
-0.0007837964509068386 0.004981444424935886 -0.000149367142066899 -0.0004799322644340606 
0 0 0 0 
0 0 0 0 
0 0 0 0 
0 0 0 0 
0 0 0 0 
0 0 0 0 
0 0 0 0 
0 0 0 0 
0 0 0 0 
0 0 0 0 
0 0 0 0 
0 0 0 0 
0 0 0 0 
0 0 0 0 
0 0 0 0 
-0.03719145031984561 0.06048368678392242 -0.00760426856676479 -0.001352621419594359 
-0.03719145031984561 0.06048368678392242 -0.00760426856676479 -0.001352621419594359 
0 0 0 0 
0 0 0 0 
0 0 0 0 
0 0 0 0 
0 0 0 0 
0 0 0 0 
0 0 0 0 
0 0 0 0 
0 0 0 0 
0 0 0 0 
0 0 0 0 
0 0 0 0 
0 0 0 0 
0.1287058795340849 -0.1021216264752213 -0.01984416978752564 -0.03081335855198807 
0.1287058795340849 -0.1021216264752213 -0.01984416978752564 -0.03081335855198807 
0.1014823810183656 -0.06921001500792338 -0.02043790513137974 -0.03102668535440943 
0 0 0 0 
0 0 0 0 
0 0 0 0 
0 0 0 0 
0 0 0 0 
0 0 0 0 
0 0 0 0 
0 0 0 0 
0 0 0 0 
0 0 0 0 
0.1075609198051669 -0.05523120071299105 -0.05356373192206503 -0.02880518634195296 
0 0 0 0 
0 0 0 0 
0 0 0 0 
0 0 0 0 
0 0 0 0 
-0.02722349851571931 0.03291161146729791 -0.0005937353438541009 -0.0002133268024213606 
-0.02722349851571931 0.03291161146729791 -0.0005937353438541009 -0.0002133268024213606 
0 0 0 0 
0 0 0 0 
0 0 0 0 
0 0 0 0 
0 0 0 0 
0 0 0 0 
0 0 0 0 
0 0 0 0 
0 0 0 0 
0 0 0 0 
0 0 0 0 
0 0 0 0 
0 0 0 0 
0 0 0 0 
0 0 0 0 
0 0 0 0 
-0.01174697364887246 0.1168798778263796 -0.02104501685056597 -8.116977882905569e-05 
0 0 0 0 
0 0 0 0 
0 0 0 0 
0 0 0 0 
0 0 0 0 
0 0 0 0 
-0.03113871097414435 0.04360374321750081 -0.04192610155245947 -0.005995477771070454 
0 0 0 0 
0 0 0 0 
0 0 0 0 
0 0 0 0 
0 0 0 0 
0 0 0 0 
0 0 0 0 
0 0 0 0 
0 0 0 0 
0 0 0 0 
0 0 0 0 
0 0 0 0 
0.1184130446562053 -0.08379892773387895 -0.08016473385705085 -0.0571899547325176 
0.1184130446562053 -0.08379892773387895 -0.08016473385705085 -0.0571899547325176 
0.1184130446562053 -0.08379892773387895 -0.08016473385705085 -0.0571899547325176 
0.1184130446562053 -0.08379892773387895 -0.08016473385705085 -0.0571899547325176 
0 0 0 0 
0 0 0 0 
0.002908985713299873 -0.004227168807392132 0.0002027559136486157 9.479965586994344e-05 
0.002908985713299873 -0.004227168807392132 0.0002027559136486157 9.479965586994344e-05 
0 0 0 0 
0 0 0 0 
0 0 0 0 
0 0 0 0 
0 0 0 0 
0 0 0 0 
0 0 0 0 
0 0 0 0 
0 0 0 0 
0 0 0 0 
0 0 0 0 
0 0 0 0 
-0.1688845297590012 -0.1386309064954465 -0.04982921362946654 0.2360319033852643 
0 0 0 0 
0 0 0 0 
0 0 0 0 
0 0 0 0 
0 0 0 0 
0 0 0 0 
0 0 0 0 
0 0 0 0 
0 0 0 0 
0 0 0 0 
0 0 0 0 
0 0 0 0 
0 0 0 0 
0 0 0 0 
0 0 0 0 
0 0 0 0 
0 0 0 0 
-0.1717504906215818 0.1720040369145094 -0.0563031964269417 -0.04371418444022827 
