solver_type L2R_LR
nr_class 5
label 2 0 4 1 3
nr_feature 3654
bias -1
w
0.6241614346878782 -0.5052131226481263 -0.6748784382957315 -0.7371708567274137 -0.5890142030502925 
-0.2437922281865237 -0.05783075835476906 -0.3238414863044127 -0.417888959245963 -0.235455902684746 
-0.2323912330355376 -0.2928812806324606 0.1854059189473386 -0.01284941981657019 0.335176275504941 
-0.7373706936267308 0.008531015965704479 0.7372974135877735 -0.2876427692325816 -0.0856401823361066 
0.2047706830827123 -0.1917409142104822 0.09528505866923298 -0.3119472805408054 0.03349830980514643 
0.2374736378473099 -0.3730981782370071 0.1230564659894448 -0.1359046502562026 -0.8316093240437504 
0.8464117876485948 -0.527225708152084 -0.6453815241994784 -0.5305218782870937 -0.5609941782332768 
0.1935225320976801 -0.1648068312737891 0.3713018420438241 -0.1129640349045443 -0.1198338863186034 
-0.1737812331243062 0.1267591923766726 0.4595988881361442 -0.34783042178069 0.214425968831827 
0.09733356927461966 -0.2774804375401507 -0.2054191672196849 -0.2087281904686877 0.06553114423635646 
-0.0786896500672211 -0.1815490582400542 0.40349046651912 -0.01050546081196763 -0.06179806964622761 
-0.0869668545575242 -0.07712841141856142 0.381526831125542 -0.02307332894267759 -0.06529615646159313 
-0.4760975747017404 0.5512633395227485 -0.4878457594401748 -0.493373720485953 -0.5424295836981134 
0.218041751950425 0.2747135509581804 -0.4879163071553295 0.1068609375240574 0.41722576781205 
-0.5490871412472805 -0.3903264389516205 0.1891641586354436 -0.1508914938631876 0.2170410938305802 
0.09204535066694601 0.3130061414747117 -0.1960887069903322 -0.02259865974263429 0.0325120120315746 
0.2953033071414092 0.06956496483348218 -0.1640085609339824 -0.2815096399488589 0.1574237929375068 
0.4664571856316491 0.1601101108298151 -0.1752069084498531 -0.529890319615099 -0.09329501555194207 
0.03052759961026536 -0.9543397582310106 0.6063660374425872 -0.5794680741388698 -0.3578937644935138 
-0.3128725749800945 -0.126280910548939 0.0923587316770372 0.3749753666625339 -0.6357063653709906 
-0.2579575875619693 0.08920473002116942 -0.4725047760802148 0.2069086250263469 0.07389058975619994 
-0.09408486167416048 0.1080315543901405 0.06950856476143072 0.2129308871367533 -0.3965862701061863 
-0.0786896500672211 -0.1815490582400542 0.40349046651912 -0.01050546081196763 -0.06179806964622761 
-0.2220787280452514 -0.06884651290875855 0.2889197234647025 -0.2386549344287502 0.1810471745530718 
-0.0786896500672211 -0.1815490582400542 0.40349046651912 -0.01050546081196763 -0.06179806964622761 
-0.04977378144351632 0.08513610197536481 -0.003426729792111615 -0.006375116856479492 -0.06016692745208298 
0.5078607388803043 0.6368882600302799 -0.3176619254897206 0.735745459363699 -0.1443636911208541 
-0.2697502901726774 -0.1137221556513578 0.06451556765470921 0.1129674207320558 0.5015046193317618 
-0.0280402311619227 -0.03939290205175424 -0.6668734463221198 -0.482611970283867 0.4093674895469946 
-0.04958630375450733 -0.01128316846626972 0.101359540186466 -0.006540629156706159 -0.0603602862214948 
0.3921896367266313 -0.4292908797110875 0.01882140392863882 -0.3706744284098537 -0.1663078110250119 
0.1124788931864557 0.2930947920825914 -0.2656929756373178 0.505769132318333 -0.1829968398062403 
-0.04977378144351632 0.08513610197536481 -0.003426729792111615 -0.006375116856479492 -0.06016692745208298 
-0.04977378144351632 0.08513610197536481 -0.003426729792111615 -0.006375116856479492 -0.06016692745208298 
-0.04977378144351632 0.08513610197536481 -0.003426729792111615 -0.006375116856479492 -0.06016692745208298 
0.5022135828103835 -0.2163114457369021 -0.2076054162457002 -0.01266288419845208 0.08739485125075198 
-0.2256591653896768 -0.1790936838431454 -0.3697357624706224 0.1469693662260075 0.6692348628708241 
0.1249614662734263 0.111384568826755 -0.4925111568417521 -0.4630978646223636 0.09438236455889747 
-0.9863725063494059 0.2921318454991469 -0.001268339552073557 -0.1010641637217322 0.04752516982667687 
-0.4704202741013107 -0.1367840924275274 0.02929551309989943 0.0129842945901363 0.2395874459834744 
-0.2315726673896626 0.1403939565551143 -0.191541704760917 -0.2416807383087631 -0.425472726841391 
-0.001142248375000368 -0.2895571179517798 0.2085206149583745 -0.2979804663313664 0.05982055630958837 
-0.3553090167560651 0.3387056196081956 -0.3089954207451832 -0.1848420914938244 -0.1842131198148145 
0.435066168702999 0.3360361262949434 -0.4649376209022252 -0.234214879057912 -0.3393003483146592 
0.6251875440106771 0.6760261550481869 -1.065477839060439 0.07930070476743352 0.9846760695761818 
0.09182140574428593 -0.1348419018341282 -0.03744882008507921 -0.06853372732729821 -0.1386718854552163 
-0.1880944827679358 -0.08491359640783104 -0.1080024949468252 -0.2703545366012808 -0.3502134401366165 
1.087563139887317 -0.6080224431136863 -0.8724919598630579 -0.4693476703011865 -0.7067450897109898 
-1.097088387330394 -0.1183380384971353 0.5314834568841599 -0.5980025132168287 -0.1129868354101886 
-0.360966742506974 -0.09401863919778268 -0.04753176121208075 0.1256859376371506 -0.4041631840283291 
0.1901436039445117 -0.2042287760113128 0.2896962212146581 -0.1134098130107651 -0.2139901473616558 
0.1727044355214819 0.1831421914254737 -0.09072174444071315 0.04059983989395451 0.457701836765278 
-0.4636463857478891 -0.3033227007228591 0.5810521798047439 -0.6132535798677435 -0.580945004730432 
-0.3686360202106325 0.2799957380368654 -0.04379144474278325 -0.631635468044692 -0.3229941266883448 
-0.2879659774091679 -0.09766711534540437 0.0749498695531422 0.3883884468716778 -0.1629102506686272 
-0.7418431740538184 -0.2188665226332952 0.416754131247444 -0.7339410013957619 0.2307600133487941 
-0.1708675706660849 -0.3159468419797463 0.5117398980082636 -0.5010006713159935 -0.4750784806459968 
-0.5518224318885107 -0.1418391329546336 0.06165927374964031 0.217512316105416 -0.09067929902884947 
0.01694576088144224 0.09732787919890648 -0.01643400564144674 0.2369832519636251 -0.1745044863374393 
0.8352952612612902 -0.1554911860259015 -0.5978756577501705 -0.415912486512499 -0.4899503191508462 
-0.5717283616687955 0.1131420078791435 0.2589073178502658 -0.03541651222010132 -0.5173513325789388 
0.01769509641180771 -0.06991289902453467 -0.1711236088149418 -0.2370485485578112 0.09255728595111472 
-0.6881581612362668 -0.6752031340559984 0.4437185964831865 -0.7920991292276746 -0.6720070751399673 
-0.6881581612362668 -0.6752031340559984 0.4437185964831865 -0.7920991292276746 -0.6720070751399673 
-0.6881581612362668 -0.6752031340559984 0.4437185964831865 -0.7920991292276746 -0.6720070751399673 
-0.2145809262201251 -0.1936622325703398 -0.08661638220554198 -0.2816846432183068 -0.03068041394474386 
-0.03410038692252262 0.128908901708771 -0.5548574218131646 0.6351355005255364 -0.09549257153782068 
0.4044526809549546 -0.4964936990633168 -0.03679278578107962 -0.1368874741421806 -0.1323882822597683 
-0.2255619509836805 0.2586456750742535 -0.4978905536522392 0.07320613145771787 0.3038169728104257 
-0.8233181872173641 -0.1443880150134498 -0.1052270174314558 1.001649197536777 -0.1989383174854057 
-0.5405350362147892 0.4931847942737687 -1.21982106752757 0.09326631695750387 -0.6789504805802514 
-0.4567833497445187 -0.4846812570605733 -0.8189400672751667 0.9468085182200202 -0.6565816728223312 
0.05799742201619021 -0.0264975913327143 -0.0002454339030274668 -0.004973774813529069 -0.01285316168335557 
-0.09840881545445418 -0.1235870827295879 0.6077465694541154 -0.1586237317637444 -0.8600685712993948 
0.1739922660485707 -0.07949277399814308 -0.0007363017090824002 -0.01492132444058721 -0.03855948505006672 
0.1728903904488543 -0.06253071021721035 -0.001101804725197621 -0.01662531887035145 -0.03898661064107795 
-0.3223254116032714 0.3307327218114244 -1.000300076139108 -0.3197125408249633 -0.3773283398825907 
-0.2911405755710467 -0.01261914415145005 0.3835188167183212 -0.09364671479440459 0.1820294196049387 
0.6751385246705753 -0.710931632638076 -0.1894821075974981 -0.2854185207437349 -0.3174680925587036 
0.1845191468800128 -0.4221889596150349 0.1088955547460922 -0.3252945417719535 0.2823789850126703 
-0.766116478592379 -0.03341873084660651 0.2650985933504577 -0.01926547997147636 0.03314414066454013 
-0.1788349937960157 0.002258673998742446 0.09547585681296591 -0.05436051483062877 -0.02963879858362151 
-0.2542408344565674 0.4283979368834044 -1.203843428259839 -0.1569769814906415 -0.4765520226457417 
-0.01022981968484651 -0.1568138062217061 -0.03432434169078269 -0.168150304432472 0.3469468397676949 
0.6991547771772908 -0.4274580067558819 -1.033680292524962 0.5797914104885949 -0.4642838994774526 
-0.0003457951896541063 -0.3998660792274404 0.2314977865203086 -0.1170399420340041 -0.06499826327406028 
0.1211824055452014 0.1032044516161273 -0.4951600546295649 0.2635776292656827 0.09834905393071734 
-0.3561414189896928 0.5566378926336294 -0.4332227748578609 -0.03846355347096037 -0.288085486525187 
-0.0292690913539582 0.6272992383288075 0.44994310978475 -0.4759405631782486 0.11672962648184 
-0.3916258208138312 0.24823370272792 -0.2508244747671082 -0.3060043967301587 -0.9102018663918221 
-0.4391711753365427 0.7980081488449648 -0.7018114676405665 0.3045237510865837 -0.09408260015848532 
-0.3238620414207925 0.6165110552901004 -0.2769829280491489 -0.09838210258319188 -0.1185960305383279 
-0.04337636510585777 0.06355585397608336 -0.04925924875742407 -0.06330315963627962 -0.01673165065228668 
-0.1376548423699486 0.2130999454489257 -0.1280649930154741 -0.3047420226992616 -0.1070132236635924 
-0.0859236404751067 0.06232055304254806 -0.06922731553719412 -0.1254362741619489 -0.03266629237908317 
0.2872439521063841 0.04657242798006918 -0.1212157794700814 -0.08271830309799268 -0.07907487864273996 
-0.1036133537203542 0.23675310533496 -0.7486090978755543 0.3137629926806368 0.412288927773474 
-0.7763561277274516 0.4811959184870823 -0.3814893710625334 -0.1778640664445328 -0.5714849436504467 
-0.06155152559013972 0.01240732187044112 -0.001050578905836062 -0.006664024132617616 -0.006689337252807801 
0.6263150474798418 -0.2304217321470488 -0.5181658142897712 -0.2068051703728728 0.04729523034386428 
0.1504871248095801 0.5488548377495306 -0.4665975890306287 -0.09522325020351913 -0.1477602626601773 
-0.1101462531369223 -1.074072848081351 0.9318558503982508 -0.3817788299061102 -0.6457237565758903 
0.03712493966421092 -0.1210845690489394 -0.2387414251107575 0.1703801878308723 0.2526573627570158 
-0.382473455924392 0.5310993286103481 -0.843716105747591 -0.05765537121955926 -0.5629709480698009 
-0.02051717519671325 0.004135773956813707 -0.0003501929686120205 -0.002221341377539205 -0.002229779084269267 
-0.4517864855354756 0.1541965665766215 -0.02116749893921235 -0.6321618517212756 -0.6321208153396943 
-0.06155152559013972 0.01240732187044112 -0.001050578905836062 -0.006664024132617616 -0.006689337252807801 
-0.1840816386600778 0.6483437544239936 -0.02954195735858667 -0.03112894286954863 0.3077047184605162 
-0.07049265087472883 0.4274260139103321 -0.545743360749771 -0.5472770104745728 -0.5805306689847232 
-0.02051717519671325 0.004135773956813707 -0.0003501929686120205 -0.002221341377539205 -0.002229779084269267 
-0.08458322639331169 0.343607825192311 -0.1127578085386926 -0.03133058644130596 -0.04622747984944631 
-0.0258063665769597 -0.278906308932802 -0.7502086138135132 -0.4653713987566395 0.5294618759286576 
-0.4624468366756838 0.7419275862338207 -0.6630906004341615 -0.5000707925431919 -0.6939188378641268 
-0.02051717519671325 0.004135773956813707 -0.0003501929686120205 -0.002221341377539205 -0.002229779084269267 
-0.1349157110458574 0.1682839621206189 -0.3166688293601643 0.333818345265557 0.1192167669055042 
0.3598861662449634 -0.3280745127969119 0.4357390239034342 0.04367582267190905 -0.1079479698661104 
0.4190824112087447 0.2207666798772215 -0.5244610950205565 -0.1633764153257404 -0.1306953591075999 
0.6873502214586361 -0.5302453730609593 -0.2791915810832693 -0.4675279709189573 -0.8630923040941965 
0.7441449595435992 -0.213693121843676 -0.2577413110236248 -0.3284308017650597 -0.4841950908415015 
0.422508109497391 -0.183400414040497 -0.03593330024091585 -0.6800985477856568 -0.5796916454821512 
-0.4491763566434249 0.721666212368969 -1.17861257057563 -0.5550491825312613 1.024275409825293 
-0.2580434159439436 -0.2287352808815378 -0.1402610374416174 0.01011336303766653 1.154213461268019 
-0.1731885689990951 0.1581051411547774 -0.6194668923787874 -0.04648386214020582 -0.1531607030059448 
0.5497486937332255 -0.03171855136218967 -0.3116953632840726 -0.211837968725365 0.08140416431552427 
-0.09110143043858528 -0.3416158631660594 -0.06250929602119371 -0.2298387747987016 -0.02032384948784411 
-0.2670812393287829 -0.2632485782304119 -0.7786268500874943 -0.1803442950964294 0.9162536138352904 
-0.1452380178374402 -0.006312838376782031 -0.4301742097353256 0.1027671318761754 -0.08952928218865827 
-0.6092527980835346 -0.5231992089276105 -0.523526633069581 -0.7379612649256684 0.914711296693336 
1.006884330898081 -0.5337667432316899 -0.89898318667667 -0.2773313573590633 -0.7260363384962734 
0.019522374525335 0.01272170848720796 -0.2094356760832388 -0.3063030573098336 -0.2754034993581057 
-0.06127388197392028 0.1622516420693116 -0.1102528500604863 -0.01524330409349095 -0.0467864630258015 
-0.280603543374635 0.50876938176166 0.007022066570360778 -0.2002647290560626 -0.0597213328296744 
-0.06537105278691431 0.1899492400787558 -0.1587707753296429 -0.0193462767107971 -0.05408265637134282 
-0.7598964707219275 0.6085809078286304 -0.2401161665076476 -0.6435941622570467 -0.2305310344782892 
-0.4674794387618632 0.3508728671640676 -0.3641126907316076 0.2220114459114127 0.05740821822446029 
-0.7578315114391269 0.0203467721130083 0.436402399083952 -0.5596327817733207 -0.9279459729176088 
-0.0254195939294398 -0.08428092167833014 -0.09044245870517922 -0.004074106587401155 0.2499911483058513 
-0.8537550873172775 0.05701939546362269 0.3652481843117495 -0.8422486627809368 -0.01790485789448044 
-0.3052038454313883 -0.01181190237049702 0.3543285528467305 -0.7410653888737017 -0.5489079249823989 
0.1048382234430195 -0.3819931355732264 0.2865402873371669 -0.005955437836746652 -0.6554308318051925 
-0.2953532717076943 -0.3764230156803914 0.7166113731128521 -0.4714236549975467 -0.1510484316716363 
-0.002401230445564666 -0.044054356456098 0.01906722115567438 -0.001116593768328703 -0.01027723843490819 
-0.414281865505101 0.3482031302378176 -0.1616592879217352 -0.6202010234267312 -0.7211978027450999 
-0.1072820092906703 0.369615511967463 -0.4624455304321785 -0.02218458184868378 -0.1111619154968086 
-0.3107388978490447 0.4702335427501793 -0.1500416039690396 -0.164259345782382 -0.2635734496422637 
-0.06370703454878042 0.03769737218960105 -0.07910678732373583 -0.01109544038610766 -0.009381434223019017 
-0.2835212001455202 -0.4207121797184783 1.212074868756724 -0.301011402321991 -0.328991922275293 
-0.2591264240849654 -0.2683240751479595 0.5535541725225031 -0.128276763011511 -0.1125695529595621 
-0.05562973082009196 -0.02729050092607113 0.119329644676975 -0.0130598770229696 -0.0369997987288766 
-0.01814862842059366 -0.06159290184786739 -0.1575562187830739 -0.02074573053824869 -0.03158435976951171 
-0.7512992961662879 -0.5543404336221009 0.5250921367577744 -0.3054642488955996 0.6566261497277082 
-0.6540085285034113 -0.2627409827726293 -0.04052020406796226 -0.4657555060431533 0.1352566294972097 
0.2725263618183985 -0.5303197442212452 0.3469321938433722 -0.5742290117005034 -0.8505928001941714 
-0.4998772288778291 -0.1258453293644772 0.9569834934077107 -0.1363618324867188 -0.05674340675098378 
0.5432441703598705 -0.1053451549069398 -0.5937305455824803 -0.03167762017457749 -0.162646121662511 
-0.2165586352337205 -0.2198969354950578 -0.2551845233408145 -0.6945347566766271 -0.05979141988080012 
-0.01940771047465428 -0.08249114962571072 -0.1793725973811234 -0.04607357458234955 0.06375019714607214 
-0.07387948855919856 -0.1251157331003003 -0.3328151304688321 -0.1091710996990303 0.05577046393522245 
-0.800965139404981 0.3243666732293225 0.2282562885120896 -0.3708205619932515 -0.04499990945280934 
-0.2117185262741352 -0.4027639777811201 -0.3020648358910157 0.008914784464754855 0.5039278561110606 
-0.2898981306992862 -0.1437742604012664 0.2602063402371115 -0.1591907072111556 0.1592477773485448 
-0.2260342672137522 0.1869315484431175 -0.1166165227535585 0.1666595405479121 -0.08544585019929989 
0.005283575231225158 -0.2822520656049653 -0.3842749436467536 -0.1000084236829301 0.3519598336235172 
-0.01940771047465428 -0.08249114962571072 -0.1793725973811234 -0.04607357458234955 0.06375019714607214 
-0.2650205200283228 -0.0286384661899305 0.07120574711455757 -0.421871367370113 -0.3855900417386616 
-0.01491957058764586 -0.05456086613211299 0.05423277806630056 -0.01576429952533265 -0.007312849601539379 
0.177542519269698 -0.02013692820524513 -0.4036095299998169 -0.1607929734319462 0.02079779127385518 
-0.04015278812550133 0.1871558150402491 0.3849237847903854 -0.151361275775348 -0.30082325961017 
-0.257325066629339 -0.137905787016818 0.232619995055318 0.3958113617154729 -0.1209736447930927 
-0.01491957058764586 -0.05456086613211299 0.05423277806630056 -0.01576429952533265 -0.007312849601539379 
-0.01568723307964793 -0.07076018881137319 0.07209527786620573 -0.01615636782620147 -0.007455536120846594 
0.1542748338307448 -0.05794775919997212 0.0004650009328519321 -0.107289308094987 -0.3860977207448952 
0.4123944384254593 -0.5028669797729323 -0.01290821180001351 -0.2733627383284776 -0.3150133612955527 
0.4453368279565722 -0.3207349713068051 -0.4673874139765072 -0.2359864813666099 -0.1783720868574012 
-0.2804009049472838 -0.2608894961721292 0.7701147153464691 0.04081604439633368 -0.02268709815766751 
0.2001978681160559 0.002476446572393268 0.2463887834067309 -0.2769659851909627 0.09142555843907126 
-0.380039724255612 0.3746832691455725 -0.3537648804656765 -0.2559084112487738 -0.2962832683564335 
-1.050315305856731 -0.1472953896123099 0.9921934858830628 0.1565886285741097 -0.3093511762195327 
0.06529466200490452 0.1244527839591027 -0.3468174423482418 -0.315978433383474 -0.1806682408016835 
-0.1885766385405843 -0.2766131904908172 -0.4913468111898859 0.5228833737798734 -0.3091285530901982 
-0.2331827761803928 0.002206320249136944 -0.452806456819477 -0.7892172159545151 0.03641239752808034 
-0.460591596084436 -0.634251678875244 0.542067887546626 -0.3156639531913341 0.4128063400054061 
-0.2228556277738743 -0.2506091022838841 0.4950327263404877 -0.1418811976007472 -0.3325327842890432 
-0.4736624615038419 -0.6171323269802184 -0.1209316326912402 0.2440235597955437 -0.1493959957321688 
-0.5967252432523138 -0.4447693053746188 0.6795822805503566 0.1461547732339264 -0.02902942032208245 
-0.4769648052451836 0.4100498923056183 -0.9926446363896676 -0.6391107913394712 -0.1282060514459744 
-0.03008005135391637 0.3389589523585509 -0.178453598087225 -0.04222008682750376 0.8508499302944208 
-0.1039898608208484 0.5691902137592292 -0.410231716641371 -0.05568679804425123 0.1553040989673989 
-0.0222508128275265 -0.1243444148197649 -0.2369579889302385 -0.6208640812339367 -0.4241675990672846 
-0.198450063839714 -0.5650881922862458 -0.614400234261636 -0.1319181297175825 0.7732611134613399 
-0.2179805391408603 -0.1892467261427124 -0.2028616138931668 -0.1028996236684639 0.3559183240734029 
0.4378460097944245 -0.1389543773756752 -0.2173616201344717 -0.05444189972574377 -0.01752354522749138 
-0.2115421122357598 -0.0188772783428589 -0.4900988696375282 -0.2265559786910751 0.5371658573443023 
-0.1125456230671051 -0.01878723352326227 -0.0100518548975276 -0.03618145120566426 0.004673726446091179 
-0.1159908151002118 -0.4809126101281144 0.5081037472981011 -0.09951225165497195 -0.06866612023864092 
1.471267075889466 -0.7776392108209724 -0.1324913533090794 -0.7464758528986103 -0.6258918226117087 
-0.5296109011624687 0.67991586211244 -0.2764331875997916 -0.1273915580611277 -0.08389376970224226 
0.04988378464174735 0.4721372035658049 -0.8455541699531369 -0.2215036794293055 -0.3650259742238366 
0.01141389826046184 -0.3911735282590673 0.4425363743488377 -0.2758158211930997 -0.5093749681309777 
-0.631449065497281 -0.7435421802989944 -0.4505256401093055 0.7682453618458536 -1.065406556832184 
0.007498247077283572 0.3508258092452903 -0.6608326624291677 -0.5083056549279282 0.3991614980094164 
-0.08679249791128639 -0.4049966116813113 0.1903543168223561 0.06845547235997579 -0.174187803084506 
0.881022887507499 -0.3627848332301077 -0.6494767212092961 0.1767448661605289 0.5647458557464743 
-0.2658318785656805 -0.3658688879723564 0.4127159699198784 -0.5171729152185666 -0.5451402957798519 
1.333374079819292 -0.204446669948511 -1.021113205328831 0.0223293821875893 -0.03498426946687883 
0.01018206692848814 0.02310561923667094 0.3931295641419512 -0.2110210049225713 -0.1675138082375833 
-0.2292842785308729 -0.3708385356269515 0.5495040596849531 -0.3915928620594241 -1.081693550604324 
-0.4042099509795588 0.3065323536258506 -0.4919023620980268 -0.2442716956370037 -0.4479823537395189 
-0.03006381592247764 0.08386762103800351 -0.217864045172619 0.08551899666258139 -0.4149557671120206 
-0.4120208244610921 0.4552789810865421 -0.3420852552636587 -0.5847012852990556 -0.4696791181923877 
0.227041681115334 -0.5015106533394668 -0.005956704699843467 -0.0728002062470504 -0.05186269250541121 
0.404773832161139 0.008042842883801455 -0.7314923623319393 -0.4175855942509541 0.3161083602258867 
-0.2069386738619074 0.5805242532236395 -1.009453646572871 -0.2017710219173035 0.5126536155716506 
-0.5364577177012031 0.178186086875438 0.07088387352145188 0.4082091135007095 -0.5504760417618827 
-0.6397873843892452 0.2605253997591038 0.1099816742897996 -0.9508280990109679 -0.3796992307195799 
-0.5168983429256254 0.07724168216896009 -0.9689718323071913 -0.4379915062727209 0.5354227613131446 
-0.1796588742901933 -0.1831238711981294 -0.2402522645759403 -0.417020806057573 0.5974231443522523 
0.1870019368284194 -0.3774199832778021 -0.02701647458480102 -0.75285795499834 -0.3243743284976426 
-0.2668285951316723 0.3640062132140011 -0.1835764556355598 0.03814474480108415 0.1415923841975021 
0.4602617833350519 -0.1207708861058508 -0.6387672976952896 -0.565626197500214 -0.2107637558910608 
0.07565599102642727 -0.3175749852489637 0.6365204650834438 -0.1087990430966583 -0.2045753763921607 
-0.195687713406882 -0.07654441959169395 -0.9642144579562538 2.128032449797715 -0.8561246004686364 
-0.4694476749776774 -0.2029067328786414 0.448751148736763 0.2028410016024441 0.459418179920067 
-0.2713549590978582 -0.3342608521354607 0.6239923742833176 -0.1748318272441008 -0.1484514051321742 
-0.2398966381489843 -0.2183577325730399 0.4249535382830429 -0.1354184093478464 -0.1042834126359592 
-0.2413506377854339 -0.2099656488466535 0.4237281342121215 -0.1389268388098385 -0.1296583552478635 
0.4965052826975289 -0.2969515199894298 -0.3596771150736476 -0.2981928445362932 -0.7580749243127591 
-0.4464044981530734 0.01025202428391939 0.3666865403733003 -0.636702022698279 -0.01812316902741663 
0.2308812312341331 0.1861371390001261 -0.6806619106219314 0.1936607105969653 0.118141715528151 
0.1063120230282519 -0.01010877480949288 -0.1210877410473464 -0.1844091195986583 0.01511221978292525 
-0.4284766241106127 -0.2100279287265014 -0.3103476748680211 0.1488058814797879 0.5234954156740446 
-0.1759878123285908 0.1365832984650034 0.8840020623722347 -0.03522814812025611 -0.4342622325216366 
0.04492123828934722 0.5735469516129441 -0.2403432159954509 0.2743032407879652 -0.01030897758427194 
-0.3742651621320459 -0.09794103755133726 0.5243573861137606 -0.1971173570423535 -0.0006448679539481361 
-0.3137823322229878 -0.387362186786088 0.4525795023958423 -0.4598976403311654 0.04378258488387173 
-0.4430454515088486 -0.07085277537524641 -0.03906989369716492 -0.2737931262647547 0.1050927350380022 
-0.07352930985424178 0.3752754580698547 -0.360127097418137 -0.4677090559617802 0.271546844618444 
-0.3221234097605606 -0.2241776911467309 0.2551051989804347 -0.07874786291479659 -0.1857233764847538 
-0.03343710108153012 -0.1079604579014636 0.1145084400788434 -0.01088254767482024 -0.05920485660405984 
0.2841072526305443 -0.3620274790333353 0.09760387235438645 -0.282412385726887 -0.325382949141743 
-0.7623733761784786 0.1287873332258898 0.4203435351569181 -0.08466977950030466 -0.02972697553261495 
-0.2298933735779992 -0.1379838853067732 0.09489375625429648 -0.0313667229401858 0.1209049818038327 
0.4554124577491789 0.08024410801889777 -0.1468283870519839 -0.1456238025947259 0.2170958894716926 
0.1672873745636325 -0.0620853177737245 0.003927882606715741 -0.008683686783819013 -0.2095821345655511 
-0.05657646408303126 -0.512962530910217 0.1136732151618841 -0.02302407313354685 0.4472748578368582 
0.4942311407385212 -0.1160047468871876 0.05981168865607016 -0.01413517065812429 -0.1413329937405713 
-0.1988294152810078 -0.02554472227494214 0.2883515759155764 -0.06908611310835694 -0.2570403321403331 
-0.08077171151025481 -0.0614773331437613 0.2126446730081503 -0.5324398345375687 -0.1665852800469418 
-0.2012943395709129 -0.06096287972624725 -0.3136200351615146 -0.05315134118485244 0.4153036500939979 
-0.2092638285738193 -0.3808638420149423 0.4519405568289411 -0.09979792036253352 0.09683975380444282 
0.03671069266372375 -0.6738716813831069 0.6769827705496817 -0.2139782939105898 -0.1865178453174142 
-0.3939115056239617 -0.144637135565851 0.4431041979579305 -0.1169167173090967 -0.2144446516595717 
-0.6666027831064031 -0.6817075561973326 -1.313593534149875 -0.4731471072487206 1.636152455328879 
-0.4520726468757065 -0.5118760518589405 -1.122232301967847 -0.4390680691715744 0.994387105948302 
-0.4526838194616153 -0.05517000462884414 -0.08954609382700701 -0.1793993070508076 -0.1890588940833305 
-0.1003342069035159 -0.0984056238625957 0.2353287472098896 -0.1175657418865189 -0.1133269344219752 
-0.1532379402497179 -0.2190049422687944 -0.3164465327378023 0.1721787199843036 0.1615805171982044 
-0.7613229657615059 -0.6923458611624055 -0.1918329916302207 0.7734761655738315 -0.2749657917572028 
-0.2264294597528541 0.2909712564430016 -0.7027496893742 -0.1721866862710951 -0.5080841980484823 
-0.6162628245342106 0.9568084641234466 0.1232523399929691 0.3346709887492792 0.793017536956045 
-0.1601402345808956 0.1725367621183236 -0.6765762215291236 -0.2183213762854279 -0.07595901570870076 
-0.1720813573380946 -0.04357560339679121 -0.1742963254133697 -0.1597072289912636 -0.9088091028002522 
0.2360243964454277 -0.2206775074745951 -0.2882084868891452 0.09909211496271883 -0.3962338352923064 
-0.428564447658008 0.6488581123476139 0.07370959777068409 0.2844659574363768 -0.4171602591068862 
-0.8591879381555064 -0.6123390370745559 0.7921403793305534 0.03107625628041251 -0.1912853882153722 
-0.5822211944398048 -0.5313335633918972 0.0157886256666713 0.6065461263118099 -0.8006044594172683 
-0.6757551219642269 -0.01396923400588303 0.7014860702785563 -0.5673226839333257 -0.2261544151648524 
-0.1405858905018956 -0.1639485015606777 0.1684728494947342 -0.1571117261204575 0.2565949145376357 
-0.1104167033341169 -0.1540674471835234 0.2755740277825055 -0.071144915977277 -0.060151246666314 
-0.01000100642124781 -0.03495235918417809 0.1437022718007737 -0.03917930459506733 -0.05950742683695914 
-0.3561084665416394 -0.08650340143934794 -0.3740184784070373 -0.06274633609196111 0.4192809077596896 
0.0001008096222965422 -0.03580843684850326 0.08199320740756362 -2.141204053867728e-05 9.838548864416341e-05 
-0.01025956368955928 -0.08965438022340007 0.08068159237499933 -0.009198482086120036 0.001075391462008357 
-0.44269318867348 0.4461771590365826 0.08991826101968414 -0.2725135734294361 -0.5851252245105651 
-0.4290315822137782 -0.354001161922946 0.8344583314520531 -0.5376477013331226 -0.8409690603155915 
-0.3568225161133052 0.4815384740692776 -0.4883248155867291 -0.1717250497507979 0.03040090349466896 
0.0001008096222965422 -0.03580843684850326 0.08199320740756362 -2.141204053867728e-05 9.838548864416341e-05 
0.0003024288668896269 -0.1074253105455098 0.2459796222226908 -6.423612161603183e-05 0.0002951564659324903 
-0.7062384759093437 0.4189447228032347 -0.4025307141068924 -0.0900656456240719 -0.6646672108357854 
-0.2465396147231576 0.3665382924494424 -0.1706345412073962 -0.3453746073955118 -0.249405014076379 
0.1721019504305845 -0.07647686508238856 0.05909924457858803 -0.4166927130953585 -0.2280274302183133 
0.0984541784393629 -0.34980531703289 -0.4494131197240008 -0.0884617526637011 0.6919430764591467 
0.0001008096222965422 -0.03580843684850326 0.08199320740756362 -2.141204053867728e-05 9.838548864416341e-05 
-0.01889982853570303 0.03142658181317934 -0.114444323118006 -0.0119252859334222 0.05612592795083251 
-0.3046107953301378 -0.657419102848485 -0.7868204647992867 -0.710882263641996 0.5781964373318975 
-0.6637856680702447 -0.223236790379218 -0.570448584565874 -0.6357944730587713 0.4967575929552234 
-0.8476538109201495 -0.7500528099515358 0.9159666364461669 -0.0804459420316493 -0.2115412258515881 
-0.4781970529548459 0.353267172678482 -0.215648587225397 -0.2236371820909724 -0.5040466842127085 
-0.3574625477738302 0.09767744169014968 -0.5760436574019641 -0.06800332449473949 -0.1700577624115345 
-0.4903552562158632 0.3688556872061086 0.1441735789431403 -0.2674381632493041 -0.2456208516483684 
-0.3213881481748141 -0.3304616816405082 0.6341723863599628 0.3970322101581489 -0.6290747977041625 
-0.1402371992088165 0.5279906624183747 -0.6135181027260105 -0.3712025434497571 -0.4252993811088417 
0.2102320167388559 0.3250395927104275 -0.3988476926115793 0.08885699497613736 -0.1426869454821125 
0.1567034285886288 -0.2569075780191887 -0.1542780663749757 -0.1211834158700714 -0.06694972241052576 
0.1113654599609895 0.1687257783812181 -0.6002860626894679 0.1473154509025145 0.117385645563947 
-0.2119513933452884 0.5968182089959789 -0.5668266383543143 -0.1756619457012561 -0.0363462439231703 
-0.001381198252129484 -0.0004802508332146661 -0.0003948775173539123 -0.0008063180544342526 -0.002781015135586117 
-0.1208622762261682 0.2004192529173024 -0.1148680328297137 -0.1593452670540648 -0.06759476240298433 
-0.02761234395831971 0.2145590433626108 -0.1780688973275276 -0.02442377172384306 -0.05643098832912995 
-1.153856248876888 0.6884004736166942 -0.5415569784557106 -0.8215981805224117 -0.6410293205854817 
-0.3553987665350407 0.1714230823655581 -0.7202233437656803 -0.2733746897075464 -0.2274541270761272 
-0.5084921735347663 -0.2155111878754199 -0.1492537688824807 -0.1755475061981714 0.1708388937181238 
-0.01614752400472828 0.08844958780318753 -0.008674894152754787 -0.008842109378553769 -0.0184556543247796 
-0.3939326336736773 0.2842495331255822 -0.1051889052654208 -0.60020761621971 -0.4631632463374943 
-0.08937914665074438 0.2377237049249825 -0.3207493955827271 -0.02863623728012986 -0.05633313709662484 
-0.08937914665074438 0.2377237049249825 -0.3207493955827271 -0.02863623728012986 -0.05633313709662484 
0.2198799954536753 -0.004181519648152859 -0.08152645460428661 -0.4421647604887595 0.2285270822525651 
-0.07793574580449811 0.5795649333908061 -0.3544316459520037 -0.5269582602678958 -0.2203630988891553 
0.1243652107804473 0.1420059556288298 -0.0308977642032429 -0.04285355001601689 -0.02065573436445464 
-0.005425957380368877 0.04691674087081107 -0.02152636781753831 -0.01495940163052814 -0.04656019289931949 
-0.4590443759058767 0.2054054798813116 -0.3695919981825826 -0.1889400014525842 -0.6079633594548866 
-0.4135389920631328 -0.5850308699314349 -0.7080917710485485 0.06927237886199117 1.081647486196404 
-0.4383453594016178 -0.1849949193840422 -0.204961406646088 -0.3835132002061651 -0.1370501036871192 
-0.339256442870529 -0.04105222047566072 -0.0572520007045773 -0.05062454895856001 0.246811489850654 
-0.3116627018274055 -0.04901000810069892 -0.1162327389914494 0.148958220477997 -0.1215281094791221 
-0.3150124203153626 0.6319966280794399 -0.4764591922765433 0.4901089212081863 -0.1830925899160694 
-0.09738779948001211 0.3792879625632026 -0.07262097355787357 -0.273913184297738 -0.2634221850502571 
-0.09795406622821234 0.4010396745543037 -0.07420867812664839 -0.2749275851985591 -0.2668744890940098 
-0.2763118710648366 -0.1157914779298429 -0.7311176269352699 -0.03651972914623717 -0.5391717050013483 
-0.03246259982667071 0.1264293208544009 -0.02420699118595785 -0.09130439476591268 -0.08780739501675233 
0.3000318797767954 -0.1367650715392411 -0.05269564991976044 -0.1498836676555498 -0.1161862674161743 
-0.3252101218346442 -0.08852325819719249 0.1270353669647429 0.1608398499082996 -0.08401349802003463 
0.1771008238993234 0.9429728765432623 -0.168050879090973 -0.02694031160704216 0.3895858390177294 
0.8281470194831266 0.2815357204256496 -0.4521346175023021 -0.5219845299119829 0.0125026448011412 
-0.1936609157048506 0.2037462726638624 -0.4011524749218816 -0.04205114114145132 -0.4827122804179081 
0.2102338658473082 -0.2503032070623398 -0.2750567322795318 -0.1159744077789983 0.02655453767871512 
-0.3075864830031532 0.6802625177691854 -0.1094488973837319 0.1323354254760529 -0.4784120676785964 
-0.08273659497775424 -0.01359695239438579 -0.1324262263321991 0.1061332505998814 0.2262200708407826 
-0.07015505481887888 0.752652134928553 -0.4167512340290924 -0.01078491751973283 -0.02570179389236685 
-0.1421403057354787 0.7291998084131477 -0.5154939136085972 -0.01192655208969937 0.2310437289326428 
-0.116183004549455 -0.08323069237064934 0.1546189188388075 -0.4046082170742425 -0.503745397862703 
-0.4575694332616536 0.03959532774905349 0.4568803064534679 0.10525678763714 -0.6364441807696434 
-0.323546574551655 -0.1899497798086379 0.19432802869971 -0.3423784283919677 -0.1299414560524077 
-0.3428795159861743 0.0898108519627514 -0.1639321744402706 -0.8995745734004337 -0.2424691407377269 
-0.142027415841724 0.04727102017006596 -0.1652094648723235 0.5023842879126291 -0.2291791455475054 
-0.6353933558405715 0.1212698835956393 -0.3591911187469303 -0.1357820414292955 0.3606563588325918 
-0.1675975992240411 0.2841847264304906 -0.2759481986842953 0.3520300108805884 0.0934293266999327 
0.06224321728021847 -0.3475845974137756 -0.1648216776868506 -0.05070875332197368 -0.03068438664209596 
0.1186775403930564 0.2081874265584738 -0.1379577070523371 -0.1557903472105685 -0.1712334988158145 
-0.06067340539858068 -0.1044212894130864 0.1800628509457784 -0.04505934375475913 -0.1564788773911298 
0.5965244324313536 0.02584934694396429 -0.2260886186005261 0.3811105123627214 -0.7036860944447294 
-0.287536789243367 -0.5251065079610213 0.4242086977860536 -0.2616015412692219 -0.1449851251378715 
0.5873434986277533 -0.6146098080298488 0.01421493227344826 -0.595616889541861 -0.4117822457920132 
0.01084369760026969 -0.6358420696110748 0.462262686971719 -0.1284976580416526 -0.1467407723682725 
-0.2255216504066933 0.04997880519905711 0.2808833307438047 -0.1406802673734769 -0.319241732357492 
-0.08305984729240654 -0.7627838559520894 0.45422365332213 -0.06913471372509414 -0.05966768194141159 
0.09782293362187938 -0.09010811644294327 -0.1141346645976072 -0.01018405466887252 -0.01587367410990436 
-0.4800435780096216 -0.03012759094667399 -0.05829298614928072 -0.1402024285076604 0.1673002672334259 
0.09782293362187938 -0.09010811644294327 -0.1141346645976072 -0.01018405466887252 -0.01587367410990436 
0.03048053976480289 -0.2291524936949937 -0.1169719808398092 -0.01210130687696503 0.3819853912713437 
0.3759054305143946 -0.1186815764173655 0.262863177918095 -0.3458030081788185 -0.3818830456629985 
-0.7135093421663457 -0.3999013629085363 0.3179005045602052 -0.132599856077469 0.3803943684832603 
-0.2215467294750555 -0.05301260401002494 -0.09808137721829366 0.09704931612440372 -0.1448147311441203 
-0.4317852855966051 -0.3529680291267884 0.5244501418414677 -0.03790009969022255 -0.1737365324453674 
-0.0454826324386568 0.1062965855697788 -0.9130471093356416 0.1555007691983858 0.3941145919137436 
0.05732017737818393 0.3982854511038573 0.1183367038615256 -0.2040531661314053 -0.6523777350913332 
-0.5631585289133322 0.6204838341070894 -0.001139753919725564 -0.02093991603206237 -0.5171443295300663 
0.5417934482914584 -0.1111890031322417 -0.3108255306682328 -0.1657808781729956 -0.08458040643663475 
-0.0150059906271086 -0.4066736545779794 0.5682347969433509 -0.453789445162354 0.09973641865029416 
-0.7108242436979628 -0.0557951437166629 0.1999637296910402 -0.455768784299115 -0.6616546254388649 
-0.4522324578148284 -0.09353290361095988 0.4097956124222405 -0.6011461123426859 -0.3371803870084681 
0.2587904165900999 -0.4505809089997694 -0.3002204598112535 -0.4287812150895007 -0.1687817981503313 
-0.2600322655759043 0.1691771851549391 0.1837416986358732 -0.2990624500220752 -0.6132662736645146 
-0.6346201673441084 -0.08336728215910374 -0.1038737546855882 -0.603753292725559 -0.6256926708671978 
-0.1403412517821357 0.031470372530414 -0.02948982356014388 -0.07020824245762775 -0.4628994797562146 
-0.1835782123425707 0.4616948174892819 -0.02013089865902806 -0.04370722868015681 0.258902479425388 
-0.2020694769784491 0.0597225114227426 0.2804672823890643 -0.1105374127894375 -0.07404589147822489 
-0.1382871762195938 0.3803987038289398 -0.5162171634948571 -0.2503698979725886 -0.09516406210066601 
-0.47387068751332 -0.00979536231180923 0.1108533209181961 -0.06266845366175583 -0.7277009517735055 
-0.2737721195319817 -0.9077587151678238 -0.1632889195295954 1.035244976791508 -0.8666726429611732 
-0.3907021393530062 -0.6094791630080038 -0.4569517290186888 0.7338497866578704 -0.01224170852423024 
-0.09806764992913534 0.06672923678233904 0.1404815936517242 -0.2924060467956303 0.4581281272287884 
-0.5545907959645706 0.07341101605642954 0.1789671572535674 -0.1703607239473079 0.1866730253460123 
-0.4305511088229068 0.09541405435727704 0.3093296711857025 0.02494673891962673 -0.5400603530540125 
-0.1063139657258788 -0.108014989578872 -0.3738097914711839 -0.1958221014970271 0.7188877759079135 
-0.5329416096076087 0.4459413668894515 -0.5027823807175387 -0.1103603577891932 -0.3375205467528998 
0.3378483389947108 0.1055883243559836 0.142287996077948 -0.3867422146592085 -0.2869010793865723 
0.3005117421580654 -0.3765550035838655 -0.002111482480128874 -0.005392512001066278 -0.08072004021958727 
0.02890982337377732 -0.5890353828664212 -0.7704283681608878 -0.68185387681973 0.751121555216252 
-0.1808098782363765 0.05630631162917116 0.2509800960064661 -0.1381210241659326 -0.1822305291247265 
0.2109299476046153 -0.4804516473708034 0.182139810536781 -0.5073898413198161 -0.178899667270677 
-0.2380968251606418 -0.4236362177240001 0.8357827172200427 -0.1329288007495806 -0.1697432699765671 
-0.2889545054549902 0.08500313792863547 -0.3589256569073509 -0.2872193511497049 -0.2577713490267972 
0.3206499435683374 -0.6254890818387396 -0.06227197896322544 0.2411804428577872 0.06507957495403237 
0.3320418983386852 -0.05449714995784331 0.7219334959568248 0.2511104028673529 -0.02621855727400313 
-0.4069180210409044 -1.224393126477962 0.8145027470027881 -0.1712864810110379 -0.01920252513049487 
-0.03496734607358497 -0.08822783313437629 0.1558138424522819 -0.05968038472782363 -0.06621536414725263 
-0.08136058238809572 0.1340506634959835 -0.0208589167195338 -0.2118268992138273 -0.02153181862059311 
-0.02712019412936524 0.04468355449866118 -0.006952972239844599 -0.07060896640460912 -0.007177272873531037 
-0.1473299313161623 0.3137269381396171 -0.3676545022086523 -0.2003159632841484 -0.5620421995638931 
-0.5127952084111286 0.4694195716465189 0.1359629820411027 0.06713696413034417 -0.8848269888957496 
-0.2875250650525705 1.274633071700793 -0.8145480558433831 -0.2258732499284089 -0.3406160841704775 
-0.5402040697965648 -0.3696631241203437 0.2281078328996601 0.2978052855928069 -0.497607047232796 
0.299230386282042 -0.1005155672193411 -0.01750868277725789 0.3334288515092314 -0.3034193976981309 
0.3888362751681838 0.1758428851568196 -0.8311697064406548 0.5594559853932275 -0.1279616662720162 
0.4795060759472367 0.07795153734883727 -0.1440374157394193 -0.1080167676976333 0.1354783935159925 
-0.1239758862120002 0.2053114880913562 0.3810399965165084 0.2401043133478724 -0.02651522996878209 
-0.05975269922542841 0.09394939395136288 -0.1049156293610011 -0.02777274025227511 -0.07586972186457527 
-0.4696466505605475 0.332934994978413 -0.4071860583152773 -0.3438972378992858 0.1056383399048222 
-0.2952377033398885 -0.1963710332127407 -0.2445681426352291 0.8121613065066444 0.0844147521165776 
-0.1180436254132746 0.2455806257016858 0.05858084813779414 -0.3500686812403696 -0.08907102734155867 
-0.09145580460493445 -0.06496047354193471 0.420690917295317 -0.03106891487389198 -0.01789559176207858 
-0.4071567544770158 0.5306223957113019 -0.3444949086318736 0.385120502242099 -0.2930974274808654 
-0.1390929772111131 0.5013420338061921 0.4239399008395364 -0.1902927463350872 -0.2924092677482014 
-0.05056752631893738 0.1685594170285654 -0.4411958594926248 -0.2016174015079978 0.3502864765008458 
-0.122976031371653 0.4211668569598284 -0.6340742031584377 -0.295930856231845 -0.2664989488091458 
-0.08671156706086397 0.05592275883999441 -0.04304982332121917 -0.03462842070179393 -0.01927851867968333 
0.2761081275099542 -0.606929600769301 0.3748167178066802 -0.1677199068772428 -0.2482298840924772 
-0.07302311778737809 -0.03725885825456747 0.2044751609699246 -0.239512562028088 -0.5557109091600925 
-0.7848197930312519 0.7403385439358423 -0.8008936465224172 -0.3928040219867388 -0.5614009641033787 
-0.2794347241692925 0.04325365169389864 0.4168818557306174 -0.5194264385549984 -0.5170653945140917 
-0.03003532710329615 -0.4926366155646327 -0.4770020001062477 -0.2494929923307583 1.344323283881547 
0.32553629061748 -0.001675061309297633 -0.1035125214312369 -0.0001102651199102871 -0.003273492721040679 
0.6691642607741025 -0.2014335891077161 0.1715734486102853 -0.0004277324070492833 0.09659289251473963 
-0.08942790987591719 -0.06852879386265512 -0.2616677939831421 -0.2547050590931575 0.06715745524553247 
-0.2089230580861562 -0.1875816165261764 -0.2730143020889725 -0.08243434197137922 0.5522589697633347 
-0.3537698101917257 -0.07605580409327624 -1.292003394019568 -0.2804413089289995 0.8297462758088107 
-0.1962128947784971 -0.1173077793508212 -0.01343004608454837 -0.0800323893335131 0.0954951112480007 
-0.2575835046486655 -0.9359508829001859 0.5739473325072463 0.1724892229280045 0.1581938436630874 
0.658219351769512 0.32965575295602 -0.3078764495791549 0.1779042331343529 -0.2844507288755297 
0.3896259123640196 0.03710796805898554 0.09818370372477675 -0.1116007137703536 -0.1166660132005444 
0.3839408646459146 -0.002207830313212367 -0.4674643945195687 -0.0007110913255464592 -0.01261350167084535 
0.06102289692375549 0.2333609273883798 0.1321524377549111 -0.2183363796403853 -0.4862918806606052 
0.3839408646459146 -0.002207830313212367 -0.4674643945195687 -0.0007110913255464592 -0.01261350167084535 
0.3839408646459146 -0.002207830313212367 -0.4674643945195687 -0.0007110913255464592 -0.01261350167084535 
0.316198228173886 -0.06343078874372882 -0.8294980936045613 -0.05748785755841963 0.03772591585208175 
-0.2560582131636355 -0.5901339961400645 -0.3775568280274187 0.5780845234633228 -0.5644673144577191 
0.04634196612890377 -0.247425221681586 -0.0003565495317586305 -0.1800303042204622 -0.3540402993015235 
-0.01163589504364762 -0.04514382329071622 0.06454928720700087 -0.01216581639042041 -0.04890279911236736 
-0.01163589504364762 -0.04514382329071622 0.06454928720700087 -0.01216581639042041 -0.04890279911236736 
-0.9171188999692824 0.3994821392131227 0.4638489199449882 -0.4201271872226268 -0.1652267001111439 
-0.1476739557730774 0.04770398062967445 0.0628942743682351 -0.04009727798764093 -0.07659251546623715 
0.3904270924509211 0.1046266127253955 -0.08937334624300708 -0.08460551406781812 -0.08762871327478393 
-0.8934436661130395 1.044789603485335 0.3593123686922369 -0.1366936295335059 -0.2393377440683745 
-0.2658749814346881 0.07488236736449824 0.08301320173903406 0.05041367053804535 -0.2536013483625958 
-0.03701724402598254 -0.5300620170170057 0.3301014575929968 -0.05324595059535241 -0.04476718469016091 
0.3321769805843473 -0.1025217063426897 0.09453913326586075 -0.1780523972769491 -0.1765246658523683 
-0.204709624837226 -0.08870328207841877 0.2402420762851187 -0.240676152993293 -0.2674906883450582 
-0.09968645023277181 -0.5206075089718017 0.1252899952190348 -0.1742240406581733 0.591981727574915 
-0.02548122070706711 -0.05427624558304912 0.4079153637226222 0.7749428817221181 -0.3826080490080247 
-0.3419951525010767 0.01755986248103148 0.06283357652259761 -0.1325674888588203 0.4069769546008256 
-0.1635910939013537 -0.1347195155544491 0.4434701957169185 -0.1493439796073742 0.1206665924810375 
-0.02501309588177336 -0.02961851732037593 0.1035324445117876 -0.003383386054875216 -0.01113912278926889 
-0.1887324545692163 0.1087943269698832 -0.267786916012125 -0.8693541873047824 0.1447860078979445 
-0.06427089264379908 0.1063832507900977 -0.1071684090109219 -0.07117170155521603 -0.06757846349562163 
-0.1504023948460255 0.246807313050267 -0.121744610752124 -0.1842376057220105 -0.1574251514624227 
-0.05013413161534185 0.08226910435008901 -0.04058153691737466 -0.06141253524067015 -0.05247505048747424 
-0.2606502195792283 -0.5589405960392063 0.9826183940932111 -0.7913937312368144 -0.4661485807919123 
0.2369545695054034 -0.4955590649306896 -0.2087350202127337 -0.1363410732660066 0.1731636695545368 
-0.1076184747823728 -0.2498456891737236 -0.4466181108949323 -0.3014665350859758 -0.2132555536097226 
-0.3090239636764282 -0.4165496453291182 -0.2541656270148626 -0.02603679677481107 0.5988806596626757 
-0.3947161128213343 0.2448410168076388 -0.1547160743647106 -0.2458566570476968 -0.4643434160061976 
0.136436450538017 -0.3269750199203091 0.07381833875611032 -0.2685811638622642 -0.1488697763139806 
-0.273147526690699 1.021789012025396 -0.6101611717315559 -0.424207067180542 -0.2027935087491954 
1.15811334039932 -0.6475323898272933 -0.1976298523900174 -0.2151079865071761 -0.4075653389810136 
0.206134367383708 -0.8579638895529282 0.3928840497663079 -0.2128162884310344 -0.2310102794106009 
0.567881308625211 0.1178021992656466 -0.5287706199960138 -0.09228164068309101 -0.3098502729568107 
-0.1751259321800198 0.09355883583574687 -0.3240476904560191 0.1794921499030641 -0.3047023220247363 
0.3963541531130111 -0.01931874998982779 -0.2833259165927935 -0.005265793231801571 -0.009259417121018323 
0.6259940715581134 -0.5127409081640292 -0.2527072894247804 -0.4608369452634521 -0.03716203593793165 
-0.2555967173126041 0.07004818987913636 -0.9083134844221945 -0.2250234907441819 -0.02162769425428399 
-0.05146602138703072 0.3449401064266783 0.2965155797487712 0.06916894514767838 0.009838263494856607 
0.2763601543160029 -0.7455173153937122 -0.1879886334768421 0.2410246337780347 0.006539134595392011 
-0.0008544023165634033 0.04611689514914771 -0.07854592321793336 -0.001163953447591487 -0.01192118279538341 
-0.782573055780781 0.9202330727937407 -0.6691837889325715 -0.1424091443757211 -0.2260331959621789 
-0.3403063227574846 0.1908843379862719 -0.05688457255029275 0.1236613240266744 -0.1574714507475007 
-0.3636324879645365 0.2086692721734809 -0.1554638746128518 -0.1408637821924298 -0.4617517244905648 
-0.0008544023165634033 0.04611689514914771 -0.07854592321793336 -0.001163953447591487 -0.01192118279538341 
-0.0008544023165634033 0.04611689514914771 -0.07854592321793336 -0.001163953447591487 -0.01192118279538341 
-0.04097135773585403 -0.1028274028302063 0.1210963839639738 -0.04279839922824006 -0.09597868239424116 
-0.1134645193819683 -0.06835868856152606 0.2171001639182448 -0.1854019381559621 -0.1136891705701941 
-0.1134645193819683 -0.06835868856152606 0.2171001639182448 -0.1854019381559621 -0.1136891705701941 
-0.03497409828677567 -0.1226875572272101 -0.1897094247765552 0.3897676408168059 0.3217383630562814 
-0.3570188515474919 -0.1289824324487783 0.4682087626943976 -0.2478635613806542 -0.4316979848042482 
-0.2791732633005754 -0.3267542226612857 -0.09312950144024701 -0.02378362575651156 0.2303935572017646 
-0.4397943304959757 0.3158134654396156 0.2765512246551621 -0.2270047982613446 -0.02809593397502964 
0.1419888065150971 -0.02824059972219834 1.062287732850257 -0.04681924562958494 -0.7352058556979161 
-0.2104925209823499 -0.2201395826033481 0.09790332812105618 -0.1404042476991978 -0.1415993125000464 
0.357617746900793 -0.7585636962878956 0.494569081493186 -0.1574779997885444 -0.06443897574636351 
0.6580205163601358 -0.05593662175878946 -0.5489476551238981 -0.02711339317992217 0.04213555222288906 
-0.4393049781271551 -0.6539026304554895 -0.5784194801812248 0.004828083367803111 0.4966079618250753 
0.0416198696462413 -0.3609334614177113 -0.1276893374572773 -0.6918055299270131 -0.03694217221022185 
-0.4065310604565685 -0.2003893257436683 -0.07722333240049943 -0.08447135417927269 0.2996564723399462 
-0.5519923820651397 -0.07786984497939209 0.2112528789458329 -0.035002503162375 0.2789070716103551 
-0.04860023937261584 0.1742999283256313 -0.1182848153179748 -0.135921042212336 -0.1374392715526613 
-0.6617919350305079 -0.5343618309518658 -0.9997298185691924 0.1141927049934475 0.6641481907950972 
-0.1115224727553926 0.1544614853843267 -0.0005530387846533827 -0.007779979063430832 0.01782628618603169 
-0.1115224727553926 0.1544614853843267 -0.0005530387846533827 -0.007779979063430832 0.01782628618603169 
-0.1474336783667265 0.02297428546260321 -0.5546681343132135 -0.07960050123568629 0.2278534119926612 
0.2499132692414056 -0.08952092542971922 0.04470957639506411 0.0002612752158708057 -0.7952911821010393 
-0.3630193978778348 0.9236518631669979 -0.8604614358288847 -0.2216263004542374 -0.2434792489208337 
-0.01939592512593656 0.3512659076155413 -0.165215445631185 -0.01711949400044142 -0.04200602501002892 
-0.006465308375312186 0.1170886358718471 -0.05507181521039498 -0.005706498000147139 -0.01400200833667631 
-0.01415473706799645 0.1634727255179532 -0.05548126830992706 -0.02450870719042465 -0.01606454576932797 
-0.03803245037047941 0.1051240162713511 -0.02543643960912503 -0.02005597639937183 -0.06805360121998974 
-0.4142093096097543 -0.0890948019965554 0.4029107587194948 -0.2165597159735783 -0.3570273800916938 
-0.308353126055519 -0.07591801020572377 0.5777748728968479 -0.08247091064111452 -0.2537401199436213 
-0.06151393963733231 -0.1446493285717634 0.5168279609085064 -0.04677329003796913 -0.2655371821740325 
-0.393902062758932 -0.1339856747251012 -0.6036108311047287 -0.6231168731127316 0.4503814744126113 
-0.2168851613009359 -0.1290344989095487 -0.1438187625167382 -0.05469951524128274 0.1357502384601331 
0.6315983066351591 -0.1320092403259149 -0.6462209376902808 -0.2352548879963296 -0.2049990519962396 
-0.4783318758142969 0.3331850779899494 -0.7650110460769823 -0.4656522422155574 0.5676792085397406 
-0.1764518819071154 -0.5129864691879304 0.1042599549522271 -0.5795589573934237 -0.5298043042477136 
-0.1413260187360788 0.2472917146991391 -0.1491419343957683 -0.5637118889937609 -0.001636987593010074 
0.3779430429959645 0.3965705662011789 0.5066188025393744 0.001981481825193143 0.3676734856225672 
0.03413109080694228 -0.07276023734765823 0.0004433177455654097 0.2166549607445875 -0.3589822529504457 
-0.4910679393084008 -0.1142325112379456 -0.2182737751321797 0.00375589086049246 0.6780053097395785 
0.01467284279856491 -0.2303164778105688 0.1805075806398871 -0.1376952505536478 0.05258981461959827 
-0.0667101738606259 -0.3457683347689638 -0.1490667532675209 -0.01153239187172909 0.09971419017063883 
-0.4282155051991945 0.3138639805229272 -0.3456194918716817 0.1295747063374111 0.2254884877975332 
-0.003714883609289261 0.1047149395907605 -0.06539926707846286 -0.009993557097867404 -0.0461364055811335 
-0.2082407689579957 -0.2993670644714845 0.3043186341296265 -0.1659077650030365 -0.294456187808135 
1.993894682019255 -0.3181125614988394 -1.592180623530157 -0.2388608200001023 -0.5164159126914729 
0.6206405491287371 -0.06559707059703616 -0.398376764052589 -0.03271329631891935 -0.05862584869825821 
-0.03088655223526076 0.09175615640821014 -0.008447228541387257 -0.1747890290790672 -0.04533883644858473 
-0.03088655223526076 0.09175615640821014 -0.008447228541387257 -0.1747890290790672 -0.04533883644858473 
-0.03088655223526076 0.09175615640821014 -0.008447228541387257 -0.1747890290790672 -0.04533883644858473 
0.2977203092249231 -0.1307655557318131 -0.3107689380433479 0.6927849129759559 -0.1362600882948382 
0.07852286746876662 -0.1397294128329412 -0.3133552539580972 0.1008175032419352 -0.4923091421557197 
-0.2907544299438286 0.1160660594457381 -0.1675626753517253 -0.225218076008446 -0.06446380947400801 
-0.4351131153555896 0.2948305870653604 -0.6388932449151838 0.3321964717059824 0.06919550349900351 
0.1760867405072246 -0.395105158267666 -0.8268932728692843 -0.04102786355482017 0.3043092076937835 
-0.3483621091954975 0.02822107171941982 -0.1251816394830559 0.1151638790582673 -0.5560366534495822 
0.003878132066956052 0.3170023949209019 0.2487753883411064 -0.05897467911479381 -0.3558302923499259 
1.309307645852511 -0.7471987529881148 -0.8588904620371496 -0.6618312223721671 -0.6127329277049877 
-0.1384891963090553 -0.1231160692386838 0.04352332754639498 -0.3747445487345242 -0.3432596339430918 
0.1361860049647911 -0.3213036408910028 0.5011264826150632 -0.383944666388909 -0.4152847507428565 
-0.04076045981098528 0.00962990728722005 -0.2022871806923881 -0.3849681978489911 0.276543458591643 
0.1089391369628669 -0.2434352958793381 -0.6332760358657056 0.3649161183405241 0.3074529013951428 
-0.03178136282797556 -0.1291337541757814 0.4890967875137667 -0.02295544059108024 -0.09132241739061366 
-0.03178136282797556 -0.1291337541757814 0.4890967875137667 -0.02295544059108024 -0.09132241739061366 
-0.06404331498633595 -0.07601180894732229 -0.05165446423465732 0.2085822171040186 -0.08968713314842233 
-0.02852397378146287 -0.108237617925954 0.1575978205266709 -0.03936648161651975 -0.0394585813758396 
-0.02852397378146287 -0.108237617925954 0.1575978205266709 -0.03936648161651975 -0.0394585813758396 
-0.02852397378146287 -0.108237617925954 0.1575978205266709 -0.03936648161651975 -0.0394585813758396 
-0.02852397378146287 -0.108237617925954 0.1575978205266709 -0.03936648161651975 -0.0394585813758396 
-0.4202021248979154 0.8127026432221462 -0.6258666861887825 0.1443697760801497 -0.3324403630413622 
-0.4924166974383098 0.07878706873987469 -0.8212098699189655 -0.1323026584316164 -0.6338282849459078 
-0.1389530394307335 -0.365506304405868 0.7270942879679961 0.2630997625507522 -0.2374601926694477 
-0.09222423760265176 0.2827014161417271 0.2969977426145663 -0.2656457168129938 -0.5713544320448195 
-0.5170211367143482 0.4671029784507934 -0.1685449182684833 -0.2250986624567987 -0.3950137946079846 
0.225392462947486 -0.4264766960959048 0.7495730280667224 -0.2451763964885352 -0.004765688363641014 
-0.1616195927820993 -0.2781635894344301 0.4556610272361245 -0.07309333096545209 -0.2919762692579391 
0.08259247024150858 -0.004801500225353384 -0.1000671600596632 -0.0001781044771488591 -0.0003365395468597649 
-0.1258817158144628 0.06404993203836015 -0.4920586002244177 -0.2437111795960306 -0.0006619375156698992 
-0.6824801215206645 -0.4291918440090173 0.2474497692557246 0.326132383851685 -0.4447253508842035 
-0.2568877606713355 -0.6808864436836377 0.204701932542131 0.3765315462952395 -0.7160914395825014 
-0.009186950066801277 0.09604243874332605 -0.1040778351249148 -0.05648884351781037 -0.01069264216629309 
0.03551565060967145 0.2958692127058344 -0.9100185837913894 0.068307770153055 -0.7601104868017829 
-0.06396265557741128 -0.07012496142897068 0.1220131452228632 -0.0812770088732752 -0.07511232861224652 
-1.011138979943984 0.4979914750387077 -0.07118465633667441 -0.2464292614844957 -0.3492150692347152 
-0.03739666024883678 0.01058419615806254 -0.4236541686249744 0.7134023431506274 -0.05455287800605123 
-0.07511768841160893 0.2133899469802614 -0.5044344067976155 -0.2331944483324903 -0.3070370196030675 
-0.001277971382298253 0.01644824020737604 -0.0003510286988478774 -0.01628513279999748 4.462001100175282e-05 
-0.6430617989348192 -0.06502910488162503 -0.5260390370860207 1.277825024116558 0.02955340624174801 
-0.2034125475498688 0.2787197100002264 -0.2112869431800813 -0.1966074093140641 -0.1052819630825493 
-0.08116295152418591 0.2282119166980966 -0.2004162064446461 -0.1882179029921285 -0.0922676289796667 
-0.3123140326995892 0.2157170213918591 -0.2237288681059158 0.3501034912954603 -0.07375691506978407 
-0.200235971988013 -0.1390319649854595 0.107540807912949 -0.1503315570701071 -0.266941674555584 
0.3857930942591342 -0.7616930574833173 0.08130395804598475 -0.9709932968820678 -0.4270256538458267 
0.8302605525233848 -0.6529526321669263 -1.070313948944664 -0.4009355689251962 -0.8260070527846141 
-0.20277141919686 0.2791411490584103 0.06344689319862065 0.03346845846540877 -0.4779654426811343 
-0.1618883938760014 -0.300861437328704 0.7105203014009421 0.08929969019444117 -0.06192389937191168 
-0.0127269371769305 0.1314460367996693 -0.03357719828972007 -0.1283601917700659 -0.02513714363521056 
0.0544489616436236 0.0476448262577344 0.2222425954920832 0.04593844810844801 0.2429406846226199 
0.0544489616436236 0.0476448262577344 0.2222425954920832 0.04593844810844801 0.2429406846226199 
-0.4369934601050105 0.1326230924330152 -0.7277923339603743 -0.3801319040392929 -0.6136422470639787 
-0.06300428618297942 0.4226614752178352 -0.166598361040684 -0.1619916049191623 -0.01378437387876159 
-0.01812469065295522 -0.008975714732909649 0.2010847573847045 -0.1877376072487638 -0.188525269290143 
-0.2946332262560961 0.4727403273799443 0.2388458547153813 -0.2760890826296801 -0.5858218284222758 
-0.09871543158933449 0.157541400256056 -0.1979058494559235 -0.1712259021594613 0.009470787454769983 
-0.03375236880662679 -0.07548311514790843 0.09383702274429827 -0.06452961632078262 -0.008753424317418872 
-9.357113272892712e-05 0.001914998485371878 -0.000271298801532356 -7.611835610633029e-05 -0.0001385603506042204 
-0.9993463977493426 0.1374430092984082 0.4649913486787426 -0.6424823446441884 -0.412119452154009 
-0.1441955256556263 -0.07261938934221106 -0.1772634348267209 0.03951673727087637 -0.05195741192436065 
-9.357113272892712e-05 0.001914998485371878 -0.000271298801532356 -7.611835610633029e-05 -0.0001385603506042204 
0.25074274082418 -0.2654627834818 -0.2165888265794971 -0.03267051494388135 0.1094720973676721 
-0.009543324883801149 0.5407533197091372 -0.2709970954096421 -0.003795642513795156 -0.02845998906736388 
-0.3904945162683152 0.5381521410889636 -0.1810423917366414 0.1528252029426989 -0.1504877099751551 
0.1384743895692058 0.9536513152932792 -1.378420878852004 0.5775609782416377 0.5226268614491704 
-9.357113272892712e-05 0.001914998485371878 -0.000271298801532356 -7.611835610633029e-05 -0.0001385603506042204 
-9.357113272892712e-05 0.001914998485371878 -0.000271298801532356 -7.611835610633029e-05 -0.0001385603506042204 
-9.357113272892712e-05 0.001914998485371878 -0.000271298801532356 -7.611835610633029e-05 -0.0001385603506042204 
-0.4964835519823118 -0.2950123803702056 -0.05277896223256336 0.3833551012625347 -0.2697389371718809 
-0.07561236941080865 0.03609567507794775 -0.003844785336878836 -0.003249341684933677 -0.002980491651808157 
-0.3617183164305401 0.2930371452205651 -0.1791745991714323 -0.3715526453701164 -0.3398404808243049 
-0.4676728528091081 0.2490758629359085 -0.3171173846766399 -0.2127606528870156 -0.6938700297356956 
-1.050067163021075 -0.2965602181402817 0.2748006774950961 -0.6395497913909598 -0.3492373983301844 
-0.1590919419330777 0.6130153129673664 -0.01121302368520727 -0.06674366859455527 -0.3639282143385505 
-0.05109719009947727 -0.01418469685479843 -0.08113558285189648 -0.05591451374909874 -0.1210424003419185 
-0.05736880224051941 0.07770475335484796 -0.2325789982646529 -0.06128686754275112 0.6339514327391194 
-0.3606647792702461 -0.0452336544963727 0.1714672247773177 -0.1907704678596275 -0.3090149357766309 
0.05656942493238366 -0.02200733067328113 -0.1535811629856579 0.2294718543918175 -0.1543814578577403 
-0.4827017749433422 0.263362932859175 -0.01876259448977944 -0.1951986273611539 -0.02519836246195663 
-0.3410068782409418 0.2115883444445125 -0.2536265731028976 -0.1640514536699253 -0.219261386992216 
-0.01846974752463164 -0.4988457060976509 -0.8337564466902999 -0.1734889930377062 1.325661778083796 
-0.4020169167507092 0.2183817925448711 -0.6244470327200985 0.2731824839448099 0.3193794190299636 
-0.003746369908043173 -0.04188276964764365 -0.3594258821716194 -0.003624855072762524 0.4693917534309684 
-0.05327543665391136 0.1739425967153901 -0.05070548133218335 -0.04057112288940706 0.02058616407301453 
0.3571900764661207 -0.07290318902231378 -0.008993311245926889 -0.1746690112220739 -0.1653855430630994 
-0.06076038400888122 0.2522486163843241 -0.01896548430044091 -0.06473947388283256 -0.03470938187773119 
-0.4989569029444738 -0.005041134637132412 -0.3460951926577143 -0.3466890022102178 -0.4204315870417461 
-0.01597881852589328 0.5217361211066146 -1.254306487866323 -0.2442574046603156 -0.690034389502444 
-0.2202839666011121 -0.2350970006388332 0.5442824660053642 -0.025823564934074 -0.04848972738050293 
-0.1127294641802921 -0.09259012530975944 0.2001656372550878 0.1644487844082524 0.04981710747317992 
0.1977865372245631 0.08357819524344365 -0.221497951723538 -0.8122943014768309 0.08661375091395666 
-0.7774697792674671 0.944541797851025 -0.6256803953649482 -0.3605884401585832 -0.2496236079247754 
-0.3500708452097349 0.3596825795617512 -0.3890476816536468 -0.3756465458446051 -0.0442484191883944 
-0.4288738209879021 0.1779956881113437 -0.002697942890025715 -0.0001978790760260535 -0.001062289267347818 
0.7781778776451259 -0.3766200510463393 -0.6912864736273047 -0.5248350250949743 -0.3630314708697175 
-0.000935987196287374 -0.1789415257621122 -5.953291450881082e-05 0.2581142353945353 -5.243952415564692e-05 
-0.4016564075813087 0.5345584196395438 -0.4088035030087144 -0.1552209272698389 -0.3655790366881773 
0.06484686071924657 -0.2365363318524355 0.1020602726229068 -0.30790766488321 -0.09559527436291226 
-0.2475397631935998 -0.23048996117194 0.2276406480291676 0.6488563871279341 0.4638398209504822 
-0.2175856337514347 -0.3967653940353949 -1.183775914103273 1.002061514916123 -1.043463255739234 
-0.000935987196287374 -0.1789415257621122 -5.953291450881082e-05 0.2581142353945353 -5.243952415564692e-05 
0.4067601475059914 -0.4319639142317492 -0.1038989787267844 0.2211125890015503 -0.03066357533081287 
0.5102418699094418 0.0266435347345013 0.3424668848213413 0.04020279560812727 -0.02492115581222901 
-0.07567449140210966 -0.1303660131756367 -0.06943636757470201 0.6993684926068594 -0.2594922986588389 
-0.4393072915762674 -0.01704807502709989 -0.2796835825047888 0.3286296306837287 -0.4028841794658028 
0.3280481310528617 -0.2403911450112105 -0.2328586721802645 -0.267353744487477 -0.4362046948373401 
-0.5885104515173051 -0.05165300417953395 0.556300166454866 -0.01744490036156397 -0.04626088909794803 
-0.04700244554335424 -0.04599394168337601 0.7895773995389276 0.4798485876552867 0.2567575845085887 
-0.3108694508406755 -0.02845867289331179 -0.4556494111214459 -0.3069085688851196 -0.2743479255304129 
-0.07770430465847172 0.1501078647219479 -0.185014399991842 -0.1544016420193512 0.004337317015902161 
-0.06399808089929789 -0.03682387642792104 -0.008263555528998755 -0.1228461869873773 0.01515184112997271 
0.4690259452208433 -0.05192881387896452 -0.3835531809403642 -0.03956279590958235 -0.04701070721515736 
-0.0526178043665872 0.04072458987063735 0.03448669835861254 0.2606938765552286 0.3300022382939644 
0.4054705774833464 0.2337812577051764 0.03040376058602476 -0.2677457616525648 0.1467582233256092 
0.03356501781146801 -0.1975107393551758 -0.1459438209232818 0.06377700969557661 -0.2697507709312451 
-0.4568815674255451 -0.3503937125100471 0.3395404232623128 -0.2052860400896721 -0.0843191397921408 
0.009232279283604181 -0.0005946347607181934 -0.02348628543109319 -0.001671321950615079 -0.02821123673455009 
0.02308746427602206 -0.0001746375782426736 -0.05598777012313658 -0.001671266315726392 -0.02893589858227514 
0.05365428563663283 -0.007521798598515568 -0.07011245521464267 -0.004872845710160415 -0.04193830704981509 
1.321951183677222 -0.7367131226746635 -0.340326082048252 -0.102301416742033 -0.3157468502602489 
0.0711797089344081 -0.2456326672776497 -0.1735411864453298 0.3337768287352759 0.3450933372167225 
0.3538409793362052 -0.1653718058799568 0.05927819818092161 -0.0981027570300997 -0.2028110591861601 
0.1179469931120684 -0.05512393529331892 0.01975939939364059 -0.03270091901003323 -0.06760368639538671 
0.1730309114202249 -0.03416738576815596 -0.05059188917263924 -0.003568989200922146 -0.02858383441325017 
-0.02613477923124224 -0.06186134204404543 0.08420113718984196 -0.01584498749286923 -0.05760219805616186 
-0.5796727537297087 -0.02222861629104504 0.2850097340281669 0.05878906356258962 -0.5299087144987672 
0.009232279283604181 -0.0005946347607181934 -0.02348628543109319 -0.001671321950615079 -0.02821123673455009 
0.009232279283604181 -0.0005946347607181934 -0.02348628543109319 -0.001671321950615079 -0.02821123673455009 
-0.1333860347144055 0.2322390685265653 -0.1885283487598998 -0.2074084766244277 -0.1048685712555349 
-0.003931943042820475 0.04187429926184925 -0.03117111029148063 -0.0132921346970004 -0.002362222637419175 
-0.2024141712160928 0.297277240869647 -0.2863958472782083 -0.6785499577448981 -0.2109248813487122 
-0.02130714910854703 0.1706198781153211 -0.1390580784849449 -0.05820769627663044 -0.01779569645959214 
-0.3583426633222561 0.175915925332127 -0.4235014736399514 -0.142326341724873 -0.3846067850434724 
0.06496478398820943 -0.09642151183922924 0.0250166435429117 -0.1172049080775759 0.3439006622233854 
0.1099254421732131 -0.09132751367711528 -0.06824247379265043 -0.03330244615282227 -0.05268112437979979 
-0.2503145337023716 -0.8446827910611205 0.3616600422732077 0.289564211236874 -0.3596700300173301 
0.2052341116123638 -0.1674387409046737 0.09764252981835442 -0.2453182609449456 -0.3120101294489235 
-0.1831512030551032 -0.5126126380792687 0.6446841588111621 -0.4565855671086503 -0.2154916555385798 
-0.03589339436897621 -0.00690749722332109 0.1270306632793066 -0.1969336397237169 -0.008622164113370055 
-0.03865096193430551 0.09073391296937564 0.0669912003929372 -0.1980335428557509 -0.00911907848455107 
-0.2394315760303308 -0.7676441755507539 -0.2429433345725077 -0.3158869444337816 0.8776259486847556 
0.4157496882163474 -0.07768694651550971 -0.2191238978122377 -0.02679266469434748 -0.04323012083275662 
-0.5522406402487787 -0.4223696863779174 -0.287866348662306 -0.5710661907925705 0.5736533611142584 
-0.3267249720630929 -0.2571475167944865 -0.5253949401522663 0.0757329624010889 0.3906126320111969 
-0.4830934944069886 -0.1961460277312672 -0.3365628907946649 -0.6168757991170483 0.9413680543477473 
0.08142854729053665 -0.2935321886247082 -0.3521823603637941 -0.2335342421149548 0.5420958181056338 
-0.1705757268684147 -0.2577948648611103 -0.1785058346175161 -0.09389212517844051 0.02316540021161641 
-0.05564305678826812 -0.06982234510935209 0.175371299064601 -0.07626080384937226 -0.09081916782996015 
-0.1396277218535439 -0.4415921310583538 -0.01189218066138114 -0.1406882526646744 0.1307463069509193 
-0.03637850362307699 -0.1863969381516083 0.0268868071106885 -0.05015219352882022 -0.0157369301428655 
0.3336287473648419 0.3942340304184667 -0.3186807907196389 0.8916062122545055 0.2195016684356966 
-0.001748550497223971 0.003522463533012628 -0.006080740756842764 -0.001831363472402386 -0.0005990220602175114 
-0.6519006259353923 0.5863088959114309 -0.04321636004267133 0.6402172692339189 -0.6076196627017973 
-0.3433969433499875 -0.1767663969663585 -0.4788040696328341 -0.5833813802894743 0.01295848668219094 
-0.05318732214338137 0.1762842789697227 -0.1259086096281016 -0.0823330814317759 -0.291121639301732 
-0.3906803118882602 0.8307053218236864 -0.7031842705436365 -0.4952067657666315 -0.3573347974799232 
-0.123693630177554 0.08649578719780597 -0.1041442480749578 -0.08412877657828176 -0.108093634687797 
-0.1577501177237992 0.5081860898341215 -0.1231096010153951 -0.2230810625756219 -0.1718266423808825 
-0.3172975931681486 0.59844528712943 -0.6051570873379697 -0.2489052564221822 -0.3210961972416638 
-0.2612180370292271 0.2395573886326132 -0.3033250993498103 -0.1813374434766159 -0.2365747596178679 
-0.2496067715579334 -0.001615790184445883 -0.3791088586872506 -0.04730857348838252 -0.4580819554386403 
-0.06418128995647016 -0.2086172986701066 -0.01769950639765446 -0.2394207890661044 -0.1013164129747766 
0.02622735402010658 -0.008268115787033382 -0.09614124366219801 -0.1721048281822143 -0.2242456423746449 
-0.4482199130267887 -0.5175987727476419 -1.084525497914271 -0.4103736212443094 0.9131259663988164 
-0.1228991692312826 -0.4506804025762829 -0.3619964931075138 -0.09273621487648161 0.3269644768892018 
0.05732529555927219 0.2441761064150422 -0.1400004426964866 -0.0342153427140453 -0.1115660894550434 
-0.08984826447772631 -0.02954238237902142 0.06835481588666556 -0.1186463834692089 -0.1281757827778947 
-0.02624444974841612 0.1337113660498715 -0.09151500063632673 -0.04864531821259761 -0.03960439394367289 
-0.07873334924524836 0.4011340981496146 -0.2745450019089801 -0.1459359546377928 -0.1188131818310187 
-0.2323261446175205 0.01418803567945173 0.113467559944817 -0.258798258312905 -0.2793146431062427 
-0.3124509089254734 -0.4453538765454834 0.04911867905332878 -0.2637351791800965 0.2760606965074691 
-0.03512882859958927 0.8050566029041148 -0.5748101055917243 -0.01637385786313822 0.4404046647044608 
-0.2757762341500321 -0.06798892003263593 0.3608534903600276 0.07126123923201226 0.3829775985474431 
-0.4735017245356221 -0.2006047819657761 -0.2739312508298832 -0.1240055405913073 0.7494994623310053 
-0.04836790765389734 0.06444114524207488 -0.1162636578346983 -0.02550053580928596 -0.001646678658220204 
-0.145103722961692 0.1933234357262246 -0.3487909735040948 -0.07650160742785786 -0.004940035974660614 
-0.09673581530779468 0.1288822904841498 -0.2325273156693965 -0.05100107161857191 -0.003293357316440409 
-0.09673581530779468 0.1288822904841498 -0.2325273156693965 -0.05100107161857191 -0.003293357316440409 
-0.07269364335495074 0.05646619061033226 -0.04619243276245667 0.02954127040420174 -0.0313534614294872 
0.03858962611349968 -0.01725578536056169 -0.397307298762662 -0.3434635380290497 -0.2037976241494306 
0.0764035497594351 -0.1045802657591337 -0.06344078556331273 -0.1201047321966021 -0.09788554019911236 
-0.07289192828279392 0.07038375527277189 -0.02047797004029752 -0.02230325880894655 -0.03145046370960566 
-0.07289192828279392 0.07038375527277189 -0.02047797004029752 -0.02230325880894655 -0.03145046370960566 
-0.1202391086690979 0.1192992394317298 -0.02253191526825217 -0.0437079511232882 -0.03765334493070912 
-0.07289192828279392 0.07038375527277189 -0.02047797004029752 -0.02230325880894655 -0.03145046370960566 
-0.1453872867099015 0.1129323812206645 -0.09238486552491335 0.05908254080840348 -0.0627069228589744 
-0.1453872867099015 0.1129323812206645 -0.09238486552491335 0.05908254080840348 -0.0627069228589744 
-0.5523535114456444 0.09493762406263118 -0.4440978245616706 -0.373470446234669 -0.5735902622789062 
0.8542260038409415 -0.2237697026746599 -0.9883922703876507 0.2775390298796861 -0.08178895608531503 
1.468974941257442 -0.7087283453983324 -0.9910559341012318 -0.1224762360460516 -0.3420422015091928 
-0.379626476461936 -0.4014810296089871 0.6304793703865257 -0.5854858341927102 -0.2761625220676683 
-0.204292982100407 -0.1368366516532238 0.1067926450318969 0.1701333381893464 -0.1411662989758595 
-0.1086667698551673 -0.09909567078221738 0.3799182341769928 -0.02676854532631225 -0.1257569862828131 
-0.02402755569939318 -0.02216126534654028 0.06027463125731446 -0.008004193346751501 -0.03070547309944536 
-0.03589352716912819 -0.03173953429011917 0.08241244236152102 -0.01547641856971078 -0.07241003710064337 
-0.2272480491415574 -0.09109112727728046 0.1876200542924901 -0.1849904315092809 0.1417490804650687 
0.03625746887999401 -0.3855189736266423 0.228116671998693 -0.1834506221183918 -0.2049384128386472 
-0.07651061122295014 0.4945550463622324 -0.5459405244173254 -0.3103946025342179 -0.3705368082171923 
0.367994945291404 -0.4889482824552908 -0.01350554177739675 -0.001637727162073642 -0.001584666208066103 
-0.499638394904513 0.09283958759244541 -0.4490599893766961 -0.4111595358173011 -0.398978268612562 
0.2664197653102591 -0.1658947484594939 -0.3672332850492088 -0.3202024176672206 0.1272451999523987 
-0.4673518122381453 0.1228200442701719 0.007609856570438029 -0.3163432878231801 -0.3286852231086773 
-0.008518714468342459 0.1031925293337705 -0.1663372902123074 -0.01470960636395408 -0.006016153854818623 
-0.008518714468342459 0.1031925293337705 -0.1663372902123074 -0.01470960636395408 -0.006016153854818623 
-0.008518714468342459 0.1031925293337705 -0.1663372902123074 -0.01470960636395408 -0.006016153854818623 
0.007217755668006026 -0.2545214759954505 0.3476085633434592 -0.1768918870150539 -0.2749875215070244 
-0.1484934522488009 -0.3767705404176251 0.7203923900110224 -0.1547226839410744 -0.3734137769241765 
-0.5697551918828764 -0.3006200957748012 0.2109404327452233 -0.4831421950169436 -0.08100699240362805 
0.02889422541426612 0.1741260745070833 0.02568498381911824 -0.8074563264533493 -0.1597476013285197 
0.7438502343062532 -0.3409414418040246 -0.4620072770649017 -0.1948237758652367 -0.1512032456745673 
0.4480228192125834 -0.05707439651285962 -0.2197633816253831 -0.4987210246998736 -0.2465827679056631 
-0.8618579511829997 0.1828724961646863 0.7543398174575491 -0.4283165671366381 0.0209500312485544 
0.6469625483100349 0.08439969266855125 -0.1795087308359652 -0.1835262293260715 -0.3142060455728688 
0.1115012463498991 -0.2325605958777607 0.457106808731554 -0.2829186006426582 0.009556270804708882 
0.3283375136409615 -0.05629698514098731 0.1016375597123027 -0.151654145742736 -0.1686375322898841 
-0.1206630561869483 -0.09530970852082112 -0.2398207662579266 -0.1609565439830319 0.2961584906498539 
-0.2338317194231206 0.3367393878493175 -0.1582469551163301 -0.06400290411403749 -0.1398821423988764 
-0.4675143259334534 0.1129012095646582 0.2612049462114022 0.02760196110439943 -0.4951641609198151 
0.009853700662024874 0.27828923353531 -0.003723318528187185 -0.01229060956122557 -0.03342370162934497 
-0.5969454533253972 0.1095755740706279 0.1247033738166866 -0.914701307040376 -0.1231780029799575 
0.01029951914545427 -0.05169169171414677 0.1656869937617677 -0.0086935118549753 -0.0252598164727569 
0.1632051632858692 -0.03487960123722821 -0.2059922203236421 -0.01501486376635726 0.1225176855656916 
-0.3022496776934107 0.5909933710038803 -0.3779968073691892 -0.1408326944129349 0.003815045428982484 
-0.1105808845944251 -0.2372263661714638 0.4803796231878206 -0.03964624885118957 0.008933191802956392 
0.03089855743636271 -0.1550750751424403 0.4970609812853036 -0.0260805355649259 -0.07577944941827071 
-0.1805944065262644 -0.03301430699657705 0.2412040912612738 -0.08642392030500966 -0.03256906715571563 
0.3178836556430491 -0.3653684202400378 0.3132462619778655 -0.1595072148864656 -0.223152094407492 
-0.195154345676491 0.3071770197278548 -0.04407272678959347 -0.05841403479562946 -0.02848672425124503 
0.3333029661490648 -0.1669368408268114 0.1138491899511674 -0.1912826908186016 -0.05654209401783147 
-0.03645660290866425 0.1225801658253994 -0.002939473704962231 -0.007696632267373135 -0.02729958988075063 
-0.2755393636546118 0.4522699548443405 -0.4993512588779604 -0.1654548423286544 -0.2049668632485777 
-0.001158286460306992 0.03518957776625534 -0.0005771417476670019 -0.004319087421597799 -0.0002404692632966196 
-0.009747341878562894 -0.09395222544366907 0.177868197880011 -0.007700091951530617 -0.001460924834443408 
0.2272482444781897 -0.4690784440279612 0.1313930452224431 -0.1511432775149613 0.1306516482531678 
0.1418351110500562 -0.4289566173083005 0.2476827698096135 0.1988062342042228 0.009213015200672268 
0.6697149089298153 -1.044713799791817 0.1635251387847381 -0.144908163128193 -0.2757448320102647 
0.5175148111265618 -0.131004443789125 -0.03138512842826015 -0.3371486929608637 -0.2222975501768185 
0.4765940575361464 0.04937938732150237 -0.6101678675181338 -0.296541503153628 0.2555620772901757 
0.7453115083311945 -0.4157070050134535 -0.7931967096975461 -0.1755695592204954 -0.7483289049696831 
-0.3910318915165183 -0.002671494860719595 -0.0235790379187269 -0.02440906828662173 0.1279233037524541 
-0.2380023136867782 -0.2857031309678364 0.109322569798018 0.8595753975976659 0.4798326117354411 
-0.01703248993686005 0.2030157550353399 -0.7832928950591117 -0.6147601770374564 0.7129496915751854 
0.605769597093793 -0.36405527567765 -0.05598477203170006 0.1834511286635375 -0.5074805268477117 
-0.220202944333991 0.3961749218738062 -0.2051093204005219 -0.2700483455746112 -0.4996106913088471 
0.1743066612842829 0.2872593514384186 -0.4797153926764738 -0.1531321242291047 -0.5673680726857245 
-0.0331399252776334 0.08675786936343503 -0.03618369039790324 -0.1366075717137884 -0.02223911412221432 
0.05599522138589284 -0.374716951771902 0.2918403666552413 -0.1272875920934777 -0.3201738437637617 
-0.009206655302128277 -0.05389554780535757 0.02755352099250421 -0.000879943553449802 -0.05656350637258014 
-0.2036691577719019 -0.3005277730964358 0.6247542137272245 0.1101511080545443 0.1383369769722557 
-0.06268468419511301 -0.08657320163634673 0.1223641739217111 -0.06499187607327774 -0.07515694862324829 
-0.006044323370997712 0.04884501561151458 -0.04572245719378049 -0.003649336469160391 -0.00231360041063987 
0.05571008384963722 -0.07030615072445093 -0.005153137487457221 -0.004188606639852549 -0.008272120778408354 
-0.1475565012553252 0.03710183020928991 -0.04178614758949587 -0.2462323304515801 -0.0912619537588574 
0.4790787472381367 -0.3488658096589821 -0.5771981341733816 -0.3591032719145214 -0.3525628435415925 
0.12752965548672 -0.02317717117259985 -0.3167132490037382 -0.1292648383962174 0.4705596803705154 
0.1250671496851515 -0.3043233690965597 -0.8816356959599947 -0.4754984976937604 1.475696431785294 
0.05460640689599328 -0.2041735596632108 0.03065255711774228 -0.002623899721351925 0.09567151887665579 
-0.00653971142461149 -0.240652881253146 0.1428186205406503 -0.03085130079612071 -0.02252337033502499 
-0.1815603844933949 -0.1323495636194125 -0.1739298843409871 0.2993972835355947 -0.04653525227340161 
-0.2201226194351451 -0.3107570109062213 0.3524962805119558 -0.216821241369155 -0.5377679104108655 
-0.02617636092404333 -0.3619274606417786 0.4077668341313789 -0.00940609593115139 -0.03148908347698133 
0.4706087762591312 -0.9423253782667131 -0.04451555176376765 -0.01960061430871236 0.507576626121231 
-0.4115902935922313 -0.6742354952847716 0.2044258454323674 0.1201872882130249 0.09612156039602049 
-0.2783040350076572 0.4179058766037858 -0.1484433855362327 0.3270735291852765 -0.2530123296773195 
-0.9815953371736015 0.04578355918960619 -0.3197408546081272 -0.1581061650221753 0.1545037304944086 
-0.02642160352844385 0.270198995789651 -0.0004388737429347845 -6.546221187584061e-05 0.03052391943240303 
0.07521813159769977 0.1839330831230382 -0.2476170561608651 -0.1523261367992865 -0.3075561680788063 
-0.09289978390148644 -0.06427237794537322 -0.2864656139786148 -0.1332165109499574 0.5481376872244914 
-0.2332638789710598 0.06233690065581497 -0.3358739659731399 -0.1893435577956781 0.1678691708682891 
0.09031513670604127 0.5379622512821244 -0.002054211300178256 -0.0006006075164190258 0.09111775313184181 
-0.02642160352844385 0.270198995789651 -0.0004388737429347845 -6.546221187584061e-05 0.03052391943240303 
-0.02642160352844385 0.270198995789651 -0.0004388737429347845 -6.546221187584061e-05 0.03052391943240303 
-0.07926481058533143 0.8105969873689528 -0.001316621228804354 -0.000196386635627522 0.09157175829720905 
-0.02642160352844385 0.270198995789651 -0.0004388737429347845 -6.546221187584061e-05 0.03052391943240303 
-0.06594344552473061 -0.01891862611609015 0.05143058388139852 -0.008479853474363428 -0.01837694706077842 
0.1687381810771067 -0.1073119188237311 0.126061315780355 -0.06129460984586144 -0.3852501814517973 
-0.06594344552473061 -0.01891862611609015 0.05143058388139852 -0.008479853474363428 -0.01837694706077842 
-0.1634498155874919 -0.1018914099994498 0.1348843588078679 -0.07607146293772066 -0.02662152678346404 
-0.00809927431878448 -0.005993247597006496 0.01003122642749263 -0.001995937775666826 -0.0128214759455097 
-0.219914819950642 -0.3756642946981827 0.4181801706844596 -0.1807994673986293 -0.1318786833305442 
0.06118418636847314 -0.5750152567233815 0.3507208311219326 -0.4711379200420032 0.02162010229020211 
-0.1883632556504325 0.08418994347817778 -0.1463798961705147 -0.1125776892663548 -0.2015805782190838 
-0.06139832523498372 -0.03309752390566006 0.1685525020150485 -0.01435097817364061 -0.0930641788828989 
-0.02927383869840128 0.02356199492177823 0.06031311694213027 -0.03408002509272674 -0.1103155922464995 
-0.002142321720273776 -0.09396442715428174 -0.07096375104375287 -0.04422571366812225 0.1251528392503402 
0.1162336688653358 -0.03505042012763311 -0.06160879733062482 -0.1131779540153376 -0.1005579972512049 
-0.5326282264186734 -0.4847580474143506 0.2962184512041149 -0.6632465625856585 0.8627618050121539 
0.3218354098323117 0.433408847584738 -0.4839987686655052 0.3034062768729041 -0.06232851124175215 
-0.006034407937837417 -0.06310906304021215 0.08307883096976082 -0.004073200404729742 -0.04112053678749575 
-0.04661346829511075 -0.1289763353836079 0.1594023269767766 -0.07023890667576914 -0.05408523968886318 
-0.159838975107077 -0.1347847938906853 -0.07948020289771901 -0.04890776077218532 0.2985820254982389 
-0.2424754412978385 -0.6091925181809839 0.9190865100428256 -0.338960509641662 -0.3263198269220777 
-0.09189002348417555 -0.07605580755599785 0.1613987999746787 -0.07681886624728755 -0.2273833925360173 
-0.05311241180386207 -0.03266821801022431 0.05404158351910329 -0.05492343005168034 -0.1997406383500841 
-0.05311241180386207 -0.03266821801022431 0.05404158351910329 -0.05492343005168034 -0.1997406383500841 
-0.2426853081936088 -0.524222244237862 0.1149793934009751 -0.3407197548181297 0.1479473791728606 
-0.0525499787368351 -0.3219260293351279 0.3684003934548362 -0.05541996695236034 -0.2003207146583196 
-0.05311241180386207 -0.03266821801022431 0.05404158351910329 -0.05492343005168034 -0.1997406383500841 
0.008837779932570936 -0.1748546835305932 0.3085729835833921 -0.0666218377413756 -0.1152390600952301 
0.5803455830553602 -0.3046280217057575 -0.7288274531085117 -0.1981775722412757 -0.3184658274618714 
0.03157624780121375 0.4605170317819415 -0.6590431621926952 -0.1880723507124776 -0.2429924463004227 
0.1226842409979141 -0.2761479169487924 -0.1126458024098853 -0.1057898026278788 -0.09892974043192047 
-0.08117486138322808 -0.4858092767369206 -0.1779786267825464 0.6640526310987219 -0.1035047808120931 
-0.003500154606455578 0.1172028589980232 -0.02576085398063582 -0.06656221616985586 -0.009310583085656656 
-0.6230224767351513 -0.09532359373621788 -0.5254947875784776 -0.3054703867980778 0.9330346190068277 
-0.05362614437590642 -0.1183069857697714 -0.1597764267408056 -0.07139766880392129 0.2895307084269748 
-0.1488360225965366 0.007899614984113483 -0.04233939481351121 0.9137686005161602 -0.2852650185010286 
-0.01913951851190225 -0.09977443670555453 0.225602568535055 -0.04995184470296026 -0.06463509178383958 
-0.02472722124321748 0.4048479709042399 -0.0393350389568391 -0.0009738608171799123 -0.05569054721825151 
0.1750225571827872 -0.01836207297083682 -0.2456987871647616 -0.04243529693668417 -0.05040090241125175 
-0.03060819305147246 0.1454720806721046 0.0176936641870284 -0.0110348671082248 -0.04642661264643552 
-0.01767858914479218 0.1599320592073937 -0.03826894131435999 -0.0006829066457006837 -0.02620259108916145 
-0.2393122444976307 0.133046773594275 0.07765255092783679 -0.007466422791034192 -0.05983506895774723 
-0.02081376841936557 0.2110749655142725 -0.1289691029294668 -0.03053956479297104 -0.0361566688303163 
-0.01767858914479218 0.1599320592073937 -0.03826894131435999 -0.0006829066457006837 -0.02620259108916145 
0.4068958357860306 0.1066373183071969 -0.3070359178880462 -0.00241625708125129 -0.03174981632345607 
-0.05401482036009803 0.1162143237786344 0.4508985191724038 -0.5495818792562848 -0.03785219625571189 
-0.01767858914479218 0.1599320592073937 -0.03826894131435999 -0.0006829066457006837 -0.02620259108916145 
0.9673237333266593 -0.1430695234500715 -0.8315533339547773 -0.1334544272063767 -0.1675770111697241 
0.03901330586474492 0.02838645912094063 -0.5757555682713474 0.1344963540477911 0.1653589513919026 
-0.01767858914479218 0.1599320592073937 -0.03826894131435999 -0.0006829066457006837 -0.02620259108916145 
0.7950039964907758 -0.3080015608977261 -0.6456454643496004 -0.1342983390294923 1.001197849271157 
-0.07072466099324973 -0.3088373388763001 -0.4066256901889954 -0.08808964310519984 0.6823083895309343 
0.9841093500416237 -0.2524226797370564 -1.058135976394978 -0.1498732790898678 0.7396113856211182 
-0.4375668555345031 -0.3465240076506087 -0.4439113276792392 0.01572737312322648 1.014861142114931 
0.5591124847511602 0.2020083827488493 -0.1652464382221398 -0.06739150556914827 0.5065786192157493 
0.06649465837772466 -0.0004287717302196921 -0.003124642523040681 -0.0002992737505355667 0.3370306081250226 
-0.3898998255901615 -0.3659586248684777 -0.1072973199635266 -0.105542034558806 0.6745823526395605 
1.066549399416004 -0.5107616866182276 -0.0868540263519398 -0.3173298775901474 -0.05049973991265712 
-0.06496777924058536 0.2560706409058744 -0.04924457310567722 -0.2283080608089499 -0.1125091126828872 
-0.06561593985092605 0.2835303685192336 -0.01995387139243568 -0.09445884627526385 -0.0405215385584722 
-0.2106794071315631 0.1946699128334124 -0.1241121527946303 0.3495286631489445 0.05554441829502875 
-0.1091149039673203 0.08103785920719096 0.2237560072902237 -0.08415297722793155 -0.07847714481620414 
-0.05198701658197848 -0.6611631068971173 -0.4088950308088547 0.4726979867267646 0.04757038921951701 
-0.09741195235161386 -0.1131328842292307 -0.04621419366936372 0.2039208218866864 0.1547704036353274 
-0.7001282840159307 -0.2057232778068303 0.6042559193651904 -0.327699394450066 0.001454455842180881 
-0.09206300785332311 -0.01960873306695219 0.1450083198444512 -0.003616653491319666 -0.07024713954776758 
-0.3551166331521978 -0.2154734579324905 0.8000217820009704 -0.1856354980494963 0.05311800789743146 
-0.391051527185592 0.3136120086001301 -0.01040079033048287 -0.1232750246937754 -0.1814275742469455 
-0.4214056644533393 0.5227527961964571 -0.140780123706903 -0.1118732665590099 -0.1573141373392578 
0.1367120978529827 0.6599726041239469 -0.3386703407446968 -0.1215147700824795 -0.1618304434226764 
-0.1225385036640318 0.5048627541569384 -0.1025267394529937 -0.1055827405398357 0.1161570061851841 
-0.4085270977511938 0.4482109289864544 -0.1011366743459679 -0.095207007240853 -0.1328530829290445 
-0.3673343311342831 0.963960237274076 -0.6833235111436937 -0.619787462348701 -0.4130084584090692 
-0.0160864681028751 0.08420057421224374 -0.01859889978808573 -0.00851172557144121 -0.008311276951042878 
0.09986957903622147 0.610430482067685 -0.2474522867408038 0.01834747282253763 -0.325980924924708 
-0.2018205709337921 -0.0748408673433815 0.2539074734216948 -0.02100111240958033 -0.02061021975476932 
-0.3010853696798473 -0.2130942913089642 -0.3589114215489923 -0.05331821268705056 0.8252538655520076 
0.1625020457982581 -0.8011834216304593 0.3001610258655039 -0.377917059379934 -0.7378336824940001 
-0.1402550766673539 -0.006818841939155901 0.3232121927873621 0.111939947334169 0.02202295118179066 
-0.01687990950654535 0.2981303542946129 -0.3110564325038488 -0.1014817297074074 -0.01364536775200654 
-0.1668444667879506 0.6315034040380171 -0.6391362966299367 0.268264223396284 0.2514718908858816 
-0.01098743122267037 0.2504000476544696 -0.1053417848074478 -0.07906492197168966 -0.004626775550097891 
-0.05871845716465034 0.3157156188690991 0.2010197787087792 -0.2575066002230443 -0.01670711276238675 
0.2854564259288745 0.05613170258982528 0.2262871934161232 -0.09529497799880894 -0.1092124864653818 
1.355939679509406 -0.4293694553969462 -0.5743762374369562 -0.2779649298023204 -0.3100846903471229 
-0.03667617560145597 -0.09699292622969619 -0.3415399698656449 -0.04097501551929237 0.3984022563427358 
-0.01262331786439499 0.5618022373292678 -0.3275872338671072 -0.06214240376200742 -0.09562342537172133 
0.1744013729023111 -0.2280155832381218 0.2031110393625494 -0.04720954058053041 -0.05872883781663109 
0.5771799012416136 0.0704583691404651 0.3012448447586046 -0.1135320233336779 -0.06768852093991425 
0.2807925779700697 0.2787819544992428 -0.5660722265716285 -0.1171885187880897 -0.1180113345152092 
0.3371476529678056 0.3011766026258595 -0.346145352921047 -0.001785313449281698 -0.3103361203366458 
0.08351289129632009 -0.06748673014884229 0.1982994658426816 -0.065705065728111 -0.05497341870523462 
0.1727474286259022 -0.1148647630823105 -0.1145450495054 -0.1632196547005583 0.2583823550923333 
-0.2234868294546805 -0.5471590958089716 0.4554341837354661 -0.4648197696813698 0.08153854294722525 
-0.0547655069510567 0.2114447495526705 -0.3492160089763807 -0.09698153789777622 0.1660407203222599 
-0.1161968147963412 -0.4134735661118755 0.3438875470881717 0.2404021592392543 0.1009851295023562 
-0.005495277812826601 -0.008821435284628597 -0.01625881950649129 -0.003506493235718794 0.01216747442444126 
-0.05678961776678026 -0.03580617713527353 -0.0206243161918499 -0.0181567291884291 0.02193379192302264 
-0.3282820375534757 0.1263830729789425 0.1406444606173444 -0.1846169287925881 -0.04372971269195947 
-0.005495277812826601 -0.008821435284628597 -0.01625881950649129 -0.003506493235718794 0.01216747442444126 
0.2810907686172287 -0.02258935887489748 -0.6313338805105014 -0.3616687710167487 0.2074569787336813 
-0.005495277812826601 -0.008821435284628597 -0.01625881950649129 -0.003506493235718794 0.01216747442444126 
-0.005495277812826601 -0.008821435284628597 -0.01625881950649129 -0.003506493235718794 0.01216747442444126 
-0.04911053912984428 -0.04305600067524096 0.08203764787237593 -0.01730379846963174 -0.0371932207133018 
-0.005495277812826601 -0.008821435284628597 -0.01625881950649129 -0.003506493235718794 0.01216747442444126 
-0.006416808538402687 0.009242588644491475 -0.03908397917419737 -0.004256726771802107 -0.02374736112324113 
-0.002138936179467562 0.003080862881497158 -0.01302799305806579 -0.001418908923934036 -0.007915787041080377 
-0.002138936179467562 0.003080862881497158 -0.01302799305806579 -0.001418908923934036 -0.007915787041080377 
-0.002138936179467562 0.003080862881497158 -0.01302799305806579 -0.001418908923934036 -0.007915787041080377 
-0.002138936179467562 0.003080862881497158 -0.01302799305806579 -0.001418908923934036 -0.007915787041080377 
-0.002138936179467562 0.003080862881497158 -0.01302799305806579 -0.001418908923934036 -0.007915787041080377 
-0.1340985906912192 -0.01077315905708807 -0.07030809369197302 0.2264309436623193 -0.08206649886410504 
-0.002138936179467562 0.003080862881497158 -0.01302799305806579 -0.001418908923934036 -0.007915787041080377 
-0.1409703865067073 -0.1641153010080099 -0.3060449949059896 0.201829150607908 -0.3136698807856198 
-0.2699876603889848 -0.4291025442207826 0.02446357042386043 1.045898155170278 -0.261279886774139 
0.3870786921565392 -0.07530981145672778 -0.2409918578277706 -0.131852052955031 -0.3484732839279804 
0.2165547936529914 -0.1504977540500693 0.163984184289663 -0.1065002574133649 -0.1587335137674095 
-0.04653846353464455 -0.1009694876095745 0.4677904947799172 0.02954153313370438 -0.1073503723505094 
-0.1206340485046711 0.1316771927026869 -0.22253653756792 -0.5432292150532972 -0.2274557241424559 
0.1573435657470227 -0.4148162913764361 1.306017755841295 0.04563715957379601 -0.4116310537205624 
-0.08362488030232994 0.4775568752561446 -0.05027482206702515 -0.01091230418237905 -0.01540509784196109 
-0.02252272858157979 0.3546195470315325 -0.1952657053008577 -0.2479845682425867 -0.3761216628611881 
-0.4058615363466015 0.2063375645100082 -0.2081663097265258 -0.09004465869291048 -0.06420183977559812 
-0.2726938146744922 -0.07968483048567773 -0.2639459024135006 -0.5830789933534999 -0.2313993473392288 
-0.2307649278713965 -0.332365112331091 0.3662441059381173 -0.3244432771242673 -0.3974834361325895 
-0.6609494316205446 -0.2074793970597679 1.115381913012112 0.5264840745436024 -0.3297543392137558 
-0.06058269624096028 0.05149041202824621 -0.05888137490071654 -0.05558098207538179 -0.03039499309502074 
-0.03233132483116281 0.2943714763504214 -0.1135530189655834 -0.02921918478323378 -0.005504049355629216 
-0.03310768258217923 0.2377402731895407 -0.1148439579051487 -0.02940893132989517 -0.006266087070003218 
-0.1987804535955036 0.06058168579865821 -0.3264113598603244 -0.5547172966869098 -0.5947779595903681 
-0.277088111160036 0.1324214169668425 -0.004508998557980355 -0.027992450629292 -0.04010445505914809 
-0.5393373687086855 0.6653195765467217 -0.550582803405913 -0.4501646379443612 -0.3490954336846577 
-0.002297981078476757 0.2912818056197674 -0.5864040325944173 -0.540886932887213 -0.4198766251335697 
0.3174085966891172 -0.4581270754082666 -0.4185224097734489 -0.07493097713612351 -0.1514535020921928 
0.05643476896737472 0.2686100046113815 0.4814760699209529 -0.1071140078292678 0.01119112156256051 
-0.3714556750019126 -0.1563727171543183 0.5456684431819295 -0.08133970586373217 -0.3088141266681208 
-0.1754850873568655 -0.2108823539086022 0.5378650283988162 -0.1767605424458378 0.1599611040253158 
0.1618205144059235 0.5735537916996055 -0.3191047639825348 -0.1018528765474909 -0.006206361587515023 
1.061162670086877 0.07136594459464232 -0.3849850251668695 -0.1971165385837647 -0.2338801228056986 
-0.4048661703174856 -0.03202339325524818 0.305568889648463 0.1588563484324888 -0.09124708277352389 
-0.0005520949111776403 0.002693304780121287 -0.000322781746128104 -0.002420999861511155 -4.413822946520812e-05 
-0.1695079703563996 0.1142055550285283 -0.1237342227785543 -0.00762960766487576 0.1656420522305417 
-0.5843638812651386 -0.1264103314607519 -0.2762749381775799 0.1726609817584285 -0.5917884905147975 
0.01031995291610014 0.01390623207317021 -0.008783859346781643 -0.01411058257165597 -0.008766685909796224 
-0.562947181434823 0.5558831554505491 -0.3286547933756324 -0.4012702513301351 -0.2560992639641002 
-0.1758119359621183 0.1566571927483147 -0.05689803790353583 -0.1509033691656124 -0.09762237062610281 
-0.1494178922674236 0.1668665012455078 -0.007504217192412428 -0.1720189805612354 -0.1166733836897317 
-0.1464374707423507 0.6021357402525506 -0.2583605381300432 -0.1956537591108142 -0.1022419676820346 
-0.3607808626843508 0.1551484366561107 -0.1938370709788811 -0.3548334850981834 -0.2176066875927344 
-0.05669129226134128 0.05043664149174162 -0.5696232449439005 -0.4206767255914025 0.0867507857510047 
-0.03810300604219402 -0.005775928343070406 0.142756874380425 -0.00546415651168017 -0.2112575060784745 
0.03395994507340909 3.985440117703308e-05 -0.002013347202340141 -0.0001484554416703156 -0.001930230012085884 
0.04524926419165806 -0.1239177237865778 -0.2593098111008831 0.4102028892582127 -0.03591586662052841 
-0.1758773577607619 -0.06090601071353665 0.067651229977039 -0.02196972067071649 0.09124506213074488 
-0.4143973790834968 -0.2847207433744559 0.7662277132643897 -0.1581582844008529 -0.2987387232593608 
0.3290700934144358 0.1382909946712665 0.4917441435563696 0.3903199971887305 -0.06401787891159291 
-0.01919271268896591 -0.01337342933820395 0.07961875898183057 -0.008907031815514575 -0.02911127481570406 
-0.2180257469030167 -0.4297639025594557 -0.1017372584571859 -0.09321954978799056 0.321224419519379 
-0.1929191462170425 -0.09771341864105125 0.4710373444490438 -0.1088839464326692 -0.2182519159247009 
-0.3861802457373836 -0.08733668367547545 0.008940367781357138 0.02174416346089822 0.1882031436446245 
0.5403619908853177 -0.1666925626206499 -0.3555893740696275 -0.04077964718315454 0.7935642036149803 
0.3216351375419034 -0.1576344857751092 -0.234941785358664 -0.02777553225218374 -0.1116102819465145 
-0.2125276542141711 -0.4004647137294874 0.5692782418335438 -0.2292554269213873 -0.382381256949232 
0.7395238168160728 -0.5955347902383435 -0.6877453297702035 -0.3000238810815865 -0.4413908051221963 
0.3735042811696876 -0.4244406655503336 -0.2240736525011864 -0.2727673296684491 -0.1325673189988597 
-0.3096008726591187 -0.01773907406304915 0.2382013957097217 -0.29794977394713 -0.3715216344613612 
-0.04425980611476865 0.2542990044378932 -0.009552713391595696 -0.04063560122095206 -0.005993743563644799 
-0.03047765012113799 0.692057744165731 -0.1840618157914891 -0.07873437232157307 -0.1010239166203796 
-0.01797390760481528 0.7430762859261475 -0.3389833783986188 -0.02411319410591524 -0.04899947285806842 
-0.01185609828910435 -0.02798807055265036 0.03499993456234342 -0.01223873217902951 -0.05182416038968186 
-0.1308725145939499 -0.3521032418745922 -0.03314758356131409 0.326641489869297 0.281929177490567 
-0.2412016169567089 -0.461244871062777 0.4978930410415414 -0.3634880684366237 -0.3350933677162611 
-0.03082199830787475 -0.02961432087773314 0.06777625232013651 -0.006114550819312505 -0.005624100508351758 
0.4226952533822534 -0.4650235109094205 0.09786342698931361 -0.5602345146744681 -0.1480567136542115 
0.4041660151615015 -0.2596216541369138 -0.1903841859787539 0.3271248085303182 -0.0895932196770409 
-0.1190271579238111 -0.08720138401535293 0.482263097446256 0.02660583363441623 -0.1668456918421515 
-0.01897375213621572 -0.1578661695655179 0.2445162487216757 -0.0009348327891502856 -0.001257113267413542 
-0.02152109655430746 -0.1322491476689549 -0.3035468165347966 0.5738095659107696 -0.1654391582472978 
-0.001097525794362679 0.237489018236327 -0.0705153638771718 -0.03022559685453758 -0.0135886769228465 
0.1219738730590055 0.06860488563482316 0.0114169343086045 -0.05518399408229469 0.02932406929543351 
0.002937015557503868 -0.01141061224140467 -0.007751399475611436 -0.02894492820965322 -0.007958887818374696 
0.2190474038937833 -0.2795915723595253 0.606711032828231 -0.2200185708925581 -0.3071581581435187 
-0.3395867700774347 -0.1060417732382872 0.5509010964475866 -0.2876713142117452 -0.2132025792925827 
-0.1218794314483185 -0.04872579099079759 0.303324605294176 -0.024232474648107 -0.1178608874633355 
-0.4466499447086393 0.453604440913378 0.09308803710755557 -0.2603103862351741 -0.4736578632734894 
-0.2267789310652283 0.1136887030549181 -0.01081411286233416 -0.009614330793431306 -0.008552013171615394 
-0.5468584381374321 -0.365562780163821 0.5658836154258648 -0.3143437090352897 -0.4991245977407024 
-0.0006676086929675274 0.03344001983157129 -0.000280959768884169 -0.0002839824208477974 -7.865780401075908e-05 
-0.0006676086929675274 0.03344001983157129 -0.000280959768884169 -0.0002839824208477974 -7.865780401075908e-05 
-0.08644304707879982 0.08087189148934917 -0.03292876253468984 -0.03331752614258341 -0.08200464004302935 
-0.1411747293913903 0.3888316056803345 -0.1210208093845155 -0.0462430278389985 -0.03222071573697669 
-0.2109439738268656 -0.4134812935111528 0.2512340829307066 -0.2142792576898028 -0.4128619255453088 
0.02176376725688743 0.1953084834533585 -0.1741635039127696 -0.4277727409213465 -0.6362869950779965 
-0.1979421859111486 0.2837420341641297 -0.1049669920646824 -0.14037623768478 -0.1109774581643256 
-0.002357490924502102 0.0218351096129123 0.01662884194501836 -0.1331427518664272 -0.06269976547545122 
-0.244144187273152 -0.1724760509056447 0.1548755462452398 -0.1212725518200777 0.4333610279286216 
-0.1830252690070926 0.8583846945100588 -0.2236858121885791 -0.2324053743330917 -0.1530436483173521 
-0.07233784159608035 -0.2331577473257871 -0.0005772967104186676 -0.05729072495498948 -0.01736420715051723 
-0.1240792152347076 -0.06140248743127261 -0.0180627082017361 -0.01461100449299427 -0.3144723838345359 
-0.1841543981574129 -0.02408190583207974 -0.002901184489119499 -0.0009274345905237715 0.1855578784608165 
-0.03656793506917876 -0.3812888758672244 -0.04967981057816755 -0.1064008715298231 0.2484585404363653 
-0.2523229291963151 -0.1714514366565508 0.3937793055646744 -0.04470388731595459 -0.1462390485549645 
