
\data\
ngram 1=19
ngram 2=319
ngram 3=3956

\1-grams:
-1.043216	</s>
-99	<s>	-4.402849
-1.575325	ADJ	2.409385
-1.247347	ADV	2.556294
-1.759253	AUX	-3.121338
-1.492676	CONJ	2.608576
-1.292706	DET	2.426526
-1.836107	DIG	2.669414
-2.142537	INTERJ	2.973336
-3.103755	MEAS	3.090793
-1.590251	NADJ	2.421482
-0.6616609	NOUN	2.394821
-2.595566	NUM	3.427239
-2.20367	PART	-3.011089
-1.109132	PREP	2.414999
-1.022617	PRON	2.45759
-0.9477466	PUNCT	-3.231929
-1.944052	QUANT	2.532432
-0.8127469	VERB	2.42561

\2-grams:
-1.626593	<s> ADJ	-0.01959419
-1.053575	<s> ADV	0.3729982
-1.952016	<s> AUX	-1.533752
-1.428725	<s> CONJ	0.3773079
-1.530487	<s> DET	-1.739685
-1.866938	<s> DIG	-0.06560612
-1.150061	<s> INTERJ	-0.2489405
-2.955024	<s> MEAS	0.7591996
-1.556317	<s> NADJ	-0.5351291
-0.7059726	<s> NOUN	0.1851296
-2.790083	<s> NUM	-0.3857505
-5.726181	<s> PART	-0.4072516
-1.486184	<s> PREP	-0.6727397
-0.7374926	<s> PRON	-0.6746674
-0.9472949	<s> PUNCT	0.3400064
-1.61602	<s> QUANT	0.1129375
-0.8368264	<s> VERB	-0.6889768
-1.422595	ADJ </s>
-1.564676	ADJ ADJ	-1.83046
-1.901174	ADJ ADV	0.6147442
-2.619362	ADJ AUX	-0.4385651
-1.316632	ADJ CONJ	-0.7853804
-2.326502	ADJ DET	-0.9935772
-2.309764	ADJ DIG	-0.6177356
-3.224784	ADJ INTERJ	0.08915532
-3.285032	ADJ MEAS	-0.5614184
-1.710863	ADJ NADJ	-2.114213
-0.2848975	ADJ NOUN	0.2988138
-2.332228	ADJ NUM	-0.8567877
-4.43116	ADJ PART	-0.6782049
-0.7148644	ADJ PREP	-1.027456
-1.918053	ADJ PRON	-0.9353056
-1.043029	ADJ PUNCT	0.9680595
-2.159706	ADJ QUANT	-0.7865143
-1.807394	ADJ VERB	-0.4283867
-1.275801	ADV </s>
-1.603246	ADV ADJ	-0.982265
-1.349304	ADV ADV	0.8720951
-2.161901	ADV AUX	-0.4739559
-1.389135	ADV CONJ	-1.040955
-1.346244	ADV DET	-0.4867978
-2.505882	ADV DIG	-1.224488
-3.12399	ADV INTERJ	-0.01398039
-3.102721	ADV MEAS	-1.646854
-1.857953	ADV NADJ	-0.1447215
-1.54021	ADV NOUN	1.224229
-2.735543	ADV NUM	-0.4550469
-3.162542	ADV PART	-0.1331241
-0.95575	ADV PREP	0.619669
-0.8574671	ADV PRON	-0.3499141
-0.7843509	ADV PUNCT	0.2653542
-1.735578	ADV QUANT	-0.540858
-0.5193786	ADV VERB	0.1721067
-2.044018	AUX </s>
-3.247232	AUX ADJ	-0.5040357
-0.7888213	AUX ADV	-1.347253
-4.326414	AUX AUX	-0.1281263
-2.937248	AUX CONJ	-0.8154874
-2.384406	AUX DET	-0.5423883
-4.004194	AUX DIG	-1.146376
-3.879256	AUX INTERJ	-0.7064142
-3.353286	AUX MEAS	-0.7071773
-2.706278	AUX NADJ	-0.4616218
-2.029748	AUX NOUN	-1.536663
-4.285021	AUX NUM	-0.2772602
-2.777411	AUX PREP	-0.6552786
-1.146288	AUX PRON	-2.900098
-2.307713	AUX PUNCT	-1.746902
-2.980061	AUX QUANT	-1.06969
-0.1358635	AUX VERB	-0.6735783
-1.765428	CONJ </s>
-1.622737	CONJ ADJ	1.537497
-1.130144	CONJ ADV	-1.362505
-1.728599	CONJ AUX	-0.8317087
-1.858112	CONJ CONJ	0.04516554
-1.071788	CONJ DET	-1.718533
-2.276811	CONJ DIG	-0.6804721
-3.648509	CONJ INTERJ	-1.15099
-3.807662	CONJ MEAS	-0.7530094
-1.619956	CONJ NADJ	-1.26739
-0.7989984	CONJ NOUN	0.6119947
-2.349209	CONJ NUM	-1.577077
-5.276721	CONJ PART
-1.52373	CONJ PREP	-0.5159197
-0.452763	CONJ PRON	-0.4784603
-2.407449	CONJ PUNCT	-0.04980612
-1.935075	CONJ QUANT	-0.6806762
-0.7531174	CONJ VERB	0.5359039
-1.854541	DET </s>
-0.9933584	DET ADJ	0.6315484
-2.310802	DET ADV	-0.7686503
-4.139748	DET AUX	-0.63851
-4.037086	DET CONJ	-1.889183
-3.201896	DET DET	-0.04912913
-2.150595	DET DIG	1.528944
-2.776345	DET INTERJ	-0.6702355
-3.333568	DET MEAS	-0.2881203
-0.966873	DET NADJ	-0.9903078
-0.1353839	DET NOUN	0.1654677
-2.000639	DET NUM	-0.8950474
-4.889871	DET PART	-0.1563493
-2.699539	DET PREP	0.0751009
-2.830118	DET PRON	-0.6963043
-2.947863	DET PUNCT	-0.705462
-2.356162	DET QUANT	-0.8726845
-1.979647	DET VERB	-0.5087566
-0.9214255	DIG </s>
-2.220989	DIG ADJ	-0.801927
-2.081357	DIG ADV	-0.1759114
-2.475043	DIG AUX	-0.5713553
-1.411215	DIG CONJ	-0.2091014
-2.681359	DIG DET	-0.2043877
-1.143471	DIG DIG	0.923214
-3.24956	DIG INTERJ	-2.804762
-2.407576	DIG MEAS	-1.378894
-1.748364	DIG NADJ	-1.190444
-0.6577169	DIG NOUN	0.9304619
-2.93993	DIG NUM	-0.4364192
-2.758199	DIG PART	0.2262874
-1.450979	DIG PREP	-0.4263372
-2.008512	DIG PRON	-1.387563
-0.3589214	DIG PUNCT	0.5454607
-2.984742	DIG QUANT	-1.844436
-1.682534	DIG VERB	-0.1766534
-1.096054	INTERJ </s>
-2.355422	INTERJ ADJ	-1.008135
-0.3992887	INTERJ ADV	-1.413555
-2.764156	INTERJ AUX	-0.8627041
-2.373759	INTERJ CONJ	-0.4550462
-2.534893	INTERJ DET	-0.8970857
-3.179705	INTERJ DIG	-0.200553
-1.404434	INTERJ INTERJ	-0.8929915
-3.024055	INTERJ MEAS	-1.851987
-2.143104	INTERJ NADJ	-0.671221
-0.6887544	INTERJ NOUN	-2.722803
-3.767042	INTERJ NUM	-0.4127869
-4.943133	INTERJ PART
-2.947498	INTERJ PREP	-0.759262
-1.029002	INTERJ PRON	-1.297268
-0.8947303	INTERJ PUNCT	1.387101
-2.793914	INTERJ QUANT	-0.6721638
-1.509523	INTERJ VERB	-0.1591005
-0.7855019	MEAS </s>
-2.143105	MEAS ADJ	-0.720753
-1.851621	MEAS ADV	-0.3878678
-2.940562	MEAS AUX	0.3037298
-2.182614	MEAS CONJ	-0.8634941
-2.274384	MEAS DET	-0.322358
-0.9413521	MEAS DIG	-1.046956
-2.805863	MEAS INTERJ	-0.5377446
-2.835826	MEAS MEAS	-0.3162177
-2.013472	MEAS NADJ	-0.4634187
-0.2761762	MEAS NOUN	-1.192134
-3.145811	MEAS NUM	-0.459867
-3.981954	MEAS PART
-1.694153	MEAS PREP	-1.141237
-1.712441	MEAS PRON	-1.609939
-1.076698	MEAS PUNCT	-0.218653
-2.566981	MEAS QUANT	-0.4798459
-1.738916	MEAS VERB	-0.6685233
-1.258349	NADJ </s>
-2.100264	NADJ ADJ	-0.1425092
-1.911763	NADJ ADV	-0.4834409
-2.582131	NADJ AUX	-0.6182815
-1.505343	NADJ CONJ	-0.5819094
-2.137671	NADJ DET	0.6540983
-1.950851	NADJ DIG	-0.7499883
-3.194385	NADJ INTERJ	-0.2797775
-2.854934	NADJ MEAS	-0.8409413
-1.632569	NADJ NADJ	-1.041427
-0.2289061	NADJ NOUN	0.2566772
-2.665469	NADJ NUM	-0.3177378
-3.963936	NADJ PART	-0.9828786
-1.210646	NADJ PREP	-0.6059666
-1.809853	NADJ PRON	-0.7815256
-0.8574755	NADJ PUNCT	0.7978849
-2.554401	NADJ QUANT	-0.4503415
-1.447634	NADJ VERB	0.4689603
-1.175118	NOUN </s>
-2.130356	NOUN ADJ	1.214121
-1.534967	NOUN ADV	0.4712238
-1.999189	NOUN AUX	-1.163089
-1.292396	NOUN CONJ	-0.1105595
-2.27285	NOUN DET	0.5257726
-1.695855	NOUN DIG	0.5192819
-3.265945	NOUN INTERJ	-0.614589
-2.963108	NOUN MEAS	-1.657559
-1.960844	NOUN NADJ	1.032725
-0.6704752	NOUN NOUN	0.07430172
-3.126464	NOUN NUM	0.001987457
-1.548059	NOUN PART	0.03673363
-0.8628122	NOUN PREP	-1.378465
-1.597808	NOUN PRON	0.5172272
-0.5471903	NOUN PUNCT	0.03742504
-2.635696	NOUN QUANT	-0.2264533
-0.9725415	NOUN VERB	0.03810596
-1.409487	NUM </s>
-1.665337	NUM ADJ	-0.9185838
-1.721475	NUM ADV	-0.4560661
-2.54563	NUM AUX	-0.115966
-1.391123	NUM CONJ	-1.569615
-2.704783	NUM DET	-1.613668
-1.651264	NUM DIG	-0.6654727
-3.027715	NUM INTERJ	-0.7543974
-2.099178	NUM MEAS	-0.5300769
-1.760139	NUM NADJ	-1.157482
-0.3164025	NUM NOUN	-1.211813
-2.155659	NUM NUM	-0.6242993
-3.410932	NUM PART	-0.2261381
-0.7704504	NUM PREP	-0.4738715
-1.429038	NUM PRON	-0.9017999
-1.066867	NUM PUNCT	-0.2876754
-2.598018	NUM QUANT	-0.6011789
-1.384603	NUM VERB	-0.3944972
-2.335458	PART </s>
-2.501789	PART ADJ	-0.7133747
-2.947502	PART ADV	-0.5320526
-3.978911	PART AUX	-0.3322463
-2.799215	PART CONJ	0.001349688
-3.840608	PART DET	0.1796304
-3.183031	PART DIG	-0.2745151
-3.501789	PART MEAS	-0.6307448
-0.08741494	PART NADJ	-3.282109
-0.8279623	PART NOUN	-1.207957
-2.840608	PART NUM	-1.049963
-2.368783	PART PREP	-0.9282612
-3.313799	PART PRON	-1.16771
-2.086121	PART PUNCT	-1.218682
-2.489304	PART QUANT	-1.114932
-2.362173	PART VERB	-1.855154
-1.797701	PREP </s>
-1.219267	PREP ADJ	-1.504683
-1.63283	PREP ADV	-1.243479
-3.842995	PREP AUX	-0.6907183
-2.034874	PREP CONJ	-0.1616273
-0.7020624	PREP DET	-1.337664
-1.869087	PREP DIG	1.140291
-3.839814	PREP INTERJ	-1.412253
-3.827315	PREP MEAS	-1.061026
-1.800298	PREP NADJ	-0.2249026
-0.6542695	PREP NOUN	0.1992259
-2.255962	PREP NUM	-1.990568
-3.893749	PREP PART	-1.776302
-2.141796	PREP PREP	-0.4624541
-0.9136366	PREP PRON	0.3972864
-1.659621	PREP PUNCT	1.118486
-1.708331	PREP QUANT	-0.741468
-0.5771288	PREP VERB	0.09058237
-1.601236	PRON </s>
-1.997881	PRON ADJ	-1.949757
-1.062985	PRON ADV	0.3906293
-0.8836848	PRON AUX	0.1771212
-2.038277	PRON CONJ	-0.2446399
-1.99231	PRON DET	-0.1144881
-2.565982	PRON DIG	-0.4307833
-3.41469	PRON INTERJ	-1.957923
-3.148178	PRON MEAS	-0.7037716
-2.066057	PRON NADJ	-2.011176
-0.7551817	PRON NOUN	0.2160234
-2.833112	PRON NUM	-1.020859
-4.701322	PRON PART	-0.06813979
-1.151732	PRON PREP	-1.028607
-1.970961	PRON PRON	0.5393715
-1.228273	PRON PUNCT	0.6007457
-2.548901	PRON QUANT	-1.673125
-0.402748	PRON VERB	0.1336679
-0.2835569	PUNCT </s>
-1.959893	PUNCT ADJ	0.2181649
-1.258738	PUNCT ADV	0.4820023
-2.434715	PUNCT AUX	-0.8362489
-1.475257	PUNCT CONJ	0.3285313
-2.095699	PUNCT DET	-1.041254
-1.414062	PUNCT DIG	0.5237994
-3.13792	PUNCT INTERJ	-0.3615005
-3.087927	PUNCT MEAS	-1.328351
-1.810561	PUNCT NADJ	-0.3758793
-0.7678754	PUNCT NOUN	0.1523151
-3.074211	PUNCT NUM	-0.8032467
-1.941164	PUNCT PREP	-0.7509518
-1.344891	PUNCT PRON	-0.2773781
-1.930313	PUNCT PUNCT	1.228092
-2.166737	PUNCT QUANT	-0.9939959
-1.18073	PUNCT VERB	0.5349398
-1.243659	QUANT </s>
-1.088499	QUANT ADJ	-0.8145981
-1.666817	QUANT ADV	-0.7613978
-2.776128	QUANT AUX	-0.1132123
-1.67549	QUANT CONJ	-0.05793595
-1.621132	QUANT DET	-1.159475
-2.369294	QUANT DIG	-1.223032
-3.108192	QUANT INTERJ	-1.466123
-3.610137	QUANT MEAS	-0.3196036
-1.203246	QUANT NADJ	-1.270361
-0.3810427	QUANT NOUN	0.7613926
-2.453196	QUANT NUM	-1.542123
-4.606503	QUANT PART	-0.7170835
-1.113981	QUANT PREP	-0.7700982
-1.22019	QUANT PRON	-0.9702854
-1.169043	QUANT PUNCT	-0.8866539
-1.820432	QUANT QUANT	-2.405299
-1.066726	QUANT VERB	-0.6844711
-1.63478	VERB </s>
-1.372318	VERB ADJ	-0.5045142
-1.040149	VERB ADV	0.1612463
-2.971022	VERB AUX	-0.6822038
-1.375078	VERB CONJ	-0.02175236
-0.8107837	VERB DET	-0.6681547
-2.21915	VERB DIG	1.194039
-3.32992	VERB INTERJ	-0.3995342
-3.424115	VERB MEAS	-0.7582387
-1.772573	VERB NADJ	0.9951253
-1.004147	VERB NOUN	0.25353
-2.455024	VERB NUM	-1.578803
-4.565349	VERB PART	-0.7636689
-0.8765771	VERB PREP	-1.512438
-0.6506163	VERB PRON	0.1402836
-1.275734	VERB PUNCT	0.4382205
-1.587303	VERB QUANT	-0.2613602
-1.077053	VERB VERB	-0.6798511

\3-grams:
-1.266347	<s> ADJ </s>
-2.042962	<s> ADJ ADJ
-2.248557	<s> ADJ ADV
-3.716904	<s> ADJ AUX
-1.779387	<s> ADJ CONJ
-2.461632	<s> ADJ DET
-2.762662	<s> ADJ DIG
-2.871806	<s> ADJ INTERJ
-2.623483	<s> ADJ MEAS
-1.289743	<s> ADJ NADJ
-0.5278073	<s> ADJ NOUN
-2.734633	<s> ADJ NUM
-0.508087	<s> ADJ PREP
-1.425092	<s> ADJ PRON
-0.826707	<s> ADJ PUNCT
-1.372119	<s> ADJ QUANT
-1.791592	<s> ADJ VERB
-1.105031	ADJ ADJ </s>
-2.229761	ADJ ADJ ADJ
-1.595516	ADJ ADJ ADV
-1.805885	ADJ ADJ AUX
-1.067242	ADJ ADJ CONJ
-3.046655	ADJ ADJ DET
-3.042674	ADJ ADJ DIG
-3.343704	ADJ ADJ INTERJ
-1.945764	ADJ ADJ NADJ
-0.5895468	ADJ ADJ NOUN
-2.189889	ADJ ADJ NUM
-0.6633684	ADJ ADJ PREP
-2.603341	ADJ ADJ PRON
-0.5668212	ADJ ADJ PUNCT
-3.042674	ADJ ADJ QUANT
-1.700251	ADJ ADJ VERB
-1.138189	ADV ADJ </s>
-2.025584	ADV ADJ ADJ
-1.422186	ADV ADJ ADV
-2.854888	ADV ADJ AUX
-1.189776	ADV ADJ CONJ
-1.919129	ADV ADJ DET
-2.873371	ADV ADJ DIG
-2.563001	ADV ADJ INTERJ
-1.992061	ADV ADJ NADJ
-0.5780432	ADV ADJ NOUN
-2.743737	ADV ADJ NUM
-0.6059954	ADV ADJ PREP
-1.433695	ADV ADJ PRON
-0.6847483	ADV ADJ PUNCT
-2.30568	ADV ADJ QUANT
-1.594618	ADV ADJ VERB
-1.569455	AUX ADJ </s>
-0.8750613	AUX ADJ ADJ
-1.778151	AUX ADJ ADV
-1.569455	AUX ADJ DET
-0.4993976	AUX ADJ NOUN
-1	AUX ADJ PREP
-1.569455	AUX ADJ PRON
-1.778151	AUX ADJ PUNCT
-0.5109795	AUX ADJ VERB
-1.590089	CONJ ADJ </s>
-1.646018	CONJ ADJ ADJ
-1.779969	CONJ ADJ ADV
-2.856357	CONJ ADJ AUX
-1.839967	CONJ ADJ CONJ
-2.402099	CONJ ADJ DET
-2.9703	CONJ ADJ DIG
-3.06721	CONJ ADJ INTERJ
-3.36824	CONJ ADJ MEAS
-1.898418	CONJ ADJ NADJ
-0.143319	CONJ ADJ NOUN
-2.691547	CONJ ADJ NUM
-3.66927	CONJ ADJ PART
-1.029784	CONJ ADJ PREP
-2.177909	CONJ ADJ PRON
-1.26615	CONJ ADJ PUNCT
-2.192149	CONJ ADJ QUANT
-1.734772	CONJ ADJ VERB
-1.668968	DET ADJ </s>
-1.128914	DET ADJ ADJ
-2.520869	DET ADJ ADV
-2.993443	DET ADJ AUX
-1.90035	DET ADJ CONJ
-2.875344	DET ADJ DET
-2.020749	DET ADJ DIG
-3.68568	DET ADJ INTERJ
-4.289897	DET ADJ MEAS
-1.533391	DET ADJ NADJ
-0.113246	DET ADJ NOUN
-1.773499	DET ADJ NUM
-3.900514	DET ADJ PART
-1.683347	DET ADJ PREP
-2.735165	DET ADJ PRON
-1.610976	DET ADJ PUNCT
-2.913132	DET ADJ QUANT
-1.939285	DET ADJ VERB
-1.120086	DIG ADJ </s>
-2.028571	DIG ADJ ADJ
-2.125481	DIG ADJ ADV
-1.882443	DIG ADJ CONJ
-1.749818	DIG ADJ DET
-2.518845	DIG ADJ DIG
-1.749818	DIG ADJ NADJ
-0.170636	DIG ADJ NOUN
-2.727541	DIG ADJ NUM
-1.019971	DIG ADJ PREP
-2.074329	DIG ADJ PRON
-1.288209	DIG ADJ PUNCT
-1.666843	DIG ADJ VERB
-0.9542425	INTERJ ADJ </s>
-1.633469	INTERJ ADJ ADJ
-1.742613	INTERJ ADJ CONJ
-1.985651	INTERJ ADJ DET
-1.985651	INTERJ ADJ DIG
-1.985651	INTERJ ADJ INTERJ
-1.546318	INTERJ ADJ NADJ
-0.4606062	INTERJ ADJ NOUN
-1.156347	INTERJ ADJ PREP
-1.031408	INTERJ ADJ PRON
-0.6481917	INTERJ ADJ PUNCT
-2.077985	INTERJ ADJ QUANT
-1.357262	INTERJ ADJ VERB
-0.4409091	MEAS ADJ </s>
-1.329123	MEAS ADJ ADJ
-1.537819	MEAS ADJ MEAS
-0.5166298	MEAS ADJ NOUN
-0.9397401	MEAS ADJ PREP
-1.537819	MEAS ADJ PRON
-1.329123	MEAS ADJ PUNCT
-1.329123	MEAS ADJ VERB
-1.308792	NADJ ADJ </s>
-1.543893	NADJ ADJ ADJ
-1.815368	NADJ ADJ ADV
-2.395152	NADJ ADJ AUX
-1.460653	NADJ ADJ CONJ
-1.654789	NADJ ADJ DET
-2.21906	NADJ ADJ DIG
-3.094122	NADJ ADJ INTERJ
-1.399516	NADJ ADJ NADJ
-0.22022	NADJ ADJ NOUN
-2.492062	NADJ ADJ NUM
-1.100685	NADJ ADJ PREP
-1.815368	NADJ ADJ PRON
-1.236789	NADJ ADJ PUNCT
-2.21906	NADJ ADJ QUANT
-1.455632	NADJ ADJ VERB
-1.185107	NOUN ADJ </s>
-2.078828	NOUN ADJ ADJ
-1.857509	NOUN ADJ ADV
-2.467597	NOUN ADJ AUX
-1.355653	NOUN ADJ CONJ
-1.7208	NOUN ADJ DET
-1.531744	NOUN ADJ DIG
-3.147544	NOUN ADJ INTERJ
-3.691612	NOUN ADJ MEAS
-2.019514	NOUN ADJ NADJ
-0.3741754	NOUN ADJ NOUN
-2.762193	NOUN ADJ NUM
-3.992642	NOUN ADJ PART
-0.8239971	NOUN ADJ PREP
-1.784469	NOUN ADJ PRON
-0.7190619	NOUN ADJ PUNCT
-2.193301	NOUN ADJ QUANT
-1.745897	NOUN ADJ VERB
-1.409803	NUM ADJ </s>
-1.244993	NUM ADJ ADJ
-1.745595	NUM ADJ CONJ
-1.745595	NUM ADJ NADJ
-0.1489981	NUM ADJ NOUN
-1.925667	NUM ADJ NUM
-1.362378	NUM ADJ PREP
-2.125807	NUM ADJ PRON
-1.280708	NUM ADJ PUNCT
-2.523746	NUM ADJ QUANT
-1.426836	NUM ADJ VERB
-1.684845	PART ADJ </s>
-1.781755	PART ADJ ADJ
-1.684845	PART ADJ ADV
-1.781755	PART ADJ CONJ
-2.082785	PART ADJ DIG
-1.874089	PART ADJ NADJ
-0.1610989	PART ADJ NOUN
-1.128543	PART ADJ PREP
-1.304634	PART ADJ PRON
-1.383815	PART ADJ PUNCT
-1.874089	PART ADJ QUANT
-1.484706	PART ADJ VERB
-1.574852	PREP ADJ </s>
-2.200964	PREP ADJ ADJ
-2.646677	PREP ADJ ADV
-2.16067	PREP ADJ AUX
-2.163981	PREP ADJ CONJ
-3.213199	PREP ADJ DET
-3.377056	PREP ADJ DIG
-4.155207	PREP ADJ INTERJ
-2.049697	PREP ADJ NADJ
-0.03837514	PREP ADJ NOUN
-3.166202	PREP ADJ NUM
-2.110863	PREP ADJ PREP
-2.899935	PREP ADJ PRON
-1.979116	PREP ADJ PUNCT
-3.581176	PREP ADJ QUANT
-2.287445	PREP ADJ VERB
-1.255011	PRON ADJ </s>
-1.96144	PRON ADJ ADJ
-1.894982	PRON ADJ ADV
-3.162153	PRON ADJ AUX
-1.557388	PRON ADJ CONJ
-2.156759	PRON ADJ DET
-2.809971	PRON ADJ DIG
-3.166134	PRON ADJ INTERJ
-1.679637	PRON ADJ NADJ
-0.2505299	PRON ADJ NOUN
-2.402486	PRON ADJ NUM
-0.6852133	PRON ADJ PREP
-1.971822	PRON ADJ PRON
-1.255011	PRON ADJ PUNCT
-2.861124	PRON ADJ QUANT
-1.646942	PRON ADJ VERB
-1.581459	PUNCT ADJ </s>
-1.031308	PUNCT ADJ ADJ
-2.285961	PUNCT ADJ ADV
-3.479086	PUNCT ADJ AUX
-1.10691	PUNCT ADJ CONJ
-2.060784	PUNCT ADJ DET
-2.686694	PUNCT ADJ DIG
-3.479086	PUNCT ADJ INTERJ
-2.302994	PUNCT ADJ MEAS
-1.541568	PUNCT ADJ NADJ
-0.3894631	PUNCT ADJ NOUN
-2.855836	PUNCT ADJ NUM
-0.7219934	PUNCT ADJ PREP
-1.88139	PUNCT ADJ PRON
-1.021506	PUNCT ADJ PUNCT
-2.534603	PUNCT ADJ QUANT
-1.376652	PUNCT ADJ VERB
-1.339626	QUANT ADJ </s>
-1.379175	QUANT ADJ ADJ
-2.172303	QUANT ADJ ADV
-3.451057	QUANT ADJ AUX
-1.587734	QUANT ADJ CONJ
-3.098874	QUANT ADJ DET
-3.150027	QUANT ADJ DIG
-1.939174	QUANT ADJ NADJ
-0.1423858	QUANT ADJ NOUN
-2.797844	QUANT ADJ NUM
-1.372781	QUANT ADJ PREP
-2.451057	QUANT ADJ PRON
-1.309607	QUANT ADJ PUNCT
-3.354147	QUANT ADJ QUANT
-1.310392	QUANT ADJ VERB
-1.481473	VERB ADJ </s>
-1.996428	VERB ADJ ADJ
-1.612576	VERB ADJ ADV
-3.267133	VERB ADJ AUX
-0.9359652	VERB ADJ CONJ
-2.309537	VERB ADJ DET
-2.568163	VERB ADJ DIG
-3.228504	VERB ADJ INTERJ
-3.696482	VERB ADJ MEAS
-1.868386	VERB ADJ NADJ
-0.7636595	VERB ADJ NOUN
-2.839904	VERB ADJ NUM
-0.3384995	VERB ADJ PREP
-1.808232	VERB ADJ PRON
-0.8950783	VERB ADJ PUNCT
-2.070655	VERB ADJ QUANT
-1.986259	VERB ADJ VERB
-0.882417	<s> ADV </s>
-1.813078	<s> ADV ADJ
-1.1183	<s> ADV ADV
-1.856941	<s> ADV AUX
-1.476462	<s> ADV CONJ
-1.365217	<s> ADV DET
-2.753351	<s> ADV DIG
-2.815694	<s> ADV INTERJ
-2.294275	<s> ADV MEAS
-1.506292	<s> ADV NADJ
-1.596359	<s> ADV NOUN
-2.321427	<s> ADV NUM
-3.006609	<s> ADV PART
-1.561069	<s> ADV PREP
-0.8597381	<s> ADV PRON
-0.9048043	<s> ADV PUNCT
-1.868635	<s> ADV QUANT
-0.5048934	<s> ADV VERB
-0.9934309	ADJ ADV </s>
-1.796468	ADJ ADV ADJ
-0.9779372	ADJ ADV ADV
-2.146983	ADJ ADV AUX
-1.187777	ADJ ADV CONJ
-1.30403	ADJ ADV DET
-2.5302	ADJ ADV DIG
-2.495438	ADJ ADV INTERJ
-3.308351	ADJ ADV MEAS
-1.65034	ADJ ADV NADJ
-1.314915	ADJ ADV NOUN
-2.710272	ADJ ADV NUM
-3.007321	ADJ ADV PART
-1.100178	ADJ ADV PREP
-0.8643062	ADJ ADV PRON
-0.6556212	ADJ ADV PUNCT
-1.996597	ADJ ADV QUANT
-0.8925432	ADJ ADV VERB
-1.156996	ADV ADV </s>
-1.648924	ADV ADV ADJ
-1.220452	ADV ADV ADV
-1.892433	ADV ADV AUX
-1.398772	ADV ADV CONJ
-1.228243	ADV ADV DET
-2.602539	ADV ADV DIG
-2.909246	ADV ADV INTERJ
-4.188	ADV ADV MEAS
-1.849543	ADV ADV NADJ
-1.500917	ADV ADV NOUN
-2.725602	ADV ADV NUM
-2.650181	ADV ADV PART
-0.9003101	ADV ADV PREP
-0.9000862	ADV ADV PRON
-0.7559932	ADV ADV PUNCT
-1.814169	ADV ADV QUANT
-0.6201504	ADV ADV VERB
-1.831754	AUX ADV </s>
-2.731438	AUX ADV ADJ
-1.974137	AUX ADV ADV
-3.638509	AUX ADV AUX
-2.77419	AUX ADV CONJ
-2.847422	AUX ADV DET
-3.496225	AUX ADV DIG
-3.935558	AUX ADV INTERJ
-4.236588	AUX ADV MEAS
-2.236588	AUX ADV NADJ
-2.451258	AUX ADV NOUN
-3.935558	AUX ADV NUM
-2.236588	AUX ADV PREP
-2.388398	AUX ADV PRON
-2.385329	AUX ADV PUNCT
-2.838648	AUX ADV QUANT
-0.02501328	AUX ADV VERB
-1.48743	CONJ ADV </s>
-1.265306	CONJ ADV ADJ
-1.21908	CONJ ADV ADV
-1.76738	CONJ ADV AUX
-1.722499	CONJ ADV CONJ
-1.299999	CONJ ADV DET
-2.250674	CONJ ADV DIG
-3.286771	CONJ ADV INTERJ
-1.904153	CONJ ADV NADJ
-1.38951	CONJ ADV NOUN
-2.576371	CONJ ADV NUM
-2.518379	CONJ ADV PART
-1.153232	CONJ ADV PREP
-0.8483866	CONJ ADV PRON
-1.124406	CONJ ADV PUNCT
-1.875151	CONJ ADV QUANT
-0.3967971	CONJ ADV VERB
-1.537819	DET ADV </s>
-0.5690179	DET ADV ADJ
-1.950823	DET ADV ADV
-2.403121	DET ADV AUX
-1.662758	DET ADV CONJ
-1.624969	DET ADV DET
-2.160083	DET ADV DIG
-2.972575	DET ADV INTERJ
-1.033595	DET ADV NADJ
-1.306211	DET ADV NOUN
-2.403121	DET ADV NUM
-1.433084	DET ADV PREP
-1.859052	DET ADV PRON
-0.9141001	DET ADV PUNCT
-2.084362	DET ADV QUANT
-0.5147538	DET ADV VERB
-1.044351	DIG ADV </s>
-1.600001	DIG ADV ADJ
-1.404775	DIG ADV ADV
-2.089021	DIG ADV AUX
-1.404775	DIG ADV CONJ
-1.544953	DIG ADV DET
-1.753229	DIG ADV DIG
-1.889449	DIG ADV NADJ
-1.469233	DIG ADV NOUN
-0.768529	DIG ADV PREP
-1.044351	DIG ADV PRON
-0.6782443	DIG ADV PUNCT
-1.992111	DIG ADV QUANT
-0.6549851	DIG ADV VERB
-2.35072	INTERJ ADV </s>
-3.096687	INTERJ ADV ADJ
-2.514461	INTERJ ADV ADV
-3.066723	INTERJ ADV AUX
-2.931061	INTERJ ADV CONJ
-2.987542	INTERJ ADV DET
-4.242815	INTERJ ADV DIG
-3.464664	INTERJ ADV INTERJ
-2.698747	INTERJ ADV NADJ
-1.93425	INTERJ ADV NOUN
-4.242815	INTERJ ADV NUM
-3.012366	INTERJ ADV PREP
-2.128871	INTERJ ADV PRON
-0.02612104	INTERJ ADV PUNCT
-3.201422	INTERJ ADV QUANT
-1.6232	INTERJ ADV VERB
-0.4771213	MEAS ADV </s>
-1.130334	MEAS ADV ADV
-1.528274	MEAS ADV CONJ
-1.431364	MEAS ADV DET
-1.620607	MEAS ADV DIG
-1.829304	MEAS ADV NOUN
-1.431364	MEAS ADV PREP
-0.8293038	MEAS ADV PRON
-0.9842057	MEAS ADV PUNCT
-0.7686059	MEAS ADV VERB
-0.9927008	NADJ ADV </s>
-1.437637	NADJ ADV ADJ
-1.311924	NADJ ADV ADV
-2.203554	NADJ ADV AUX
-1.333345	NADJ ADV CONJ
-1.407674	NADJ ADV DET
-2.738667	NADJ ADV DIG
-2.629523	NADJ ADV INTERJ
-1.634375	NADJ ADV NADJ
-1.519307	NADJ ADV NOUN
-2.680675	NADJ ADV NUM
-2.981705	NADJ ADV PART
-0.9752393	NADJ ADV PREP
-0.9334579	NADJ ADV PRON
-0.7721904	NADJ ADV PUNCT
-1.624724	NADJ ADV QUANT
-0.6106375	NADJ ADV VERB
-1.087846	NOUN ADV </s>
-1.722614	NOUN ADV ADJ
-1.306867	NOUN ADV ADV
-2.198848	NOUN ADV AUX
-1.079821	NOUN ADV CONJ
-1.481483	NOUN ADV DET
-2.666327	NOUN ADV DIG
-2.920561	NOUN ADV INTERJ
-3.985954	NOUN ADV MEAS
-2.023348	NOUN ADV NADJ
-1.487816	NOUN ADV NOUN
-3.019812	NOUN ADV NUM
-3.7751	NOUN ADV PART
-0.8208209	NOUN ADV PREP
-0.9743834	NOUN ADV PRON
-0.6062405	NOUN ADV PUNCT
-1.872846	NOUN ADV QUANT
-0.7884666	NOUN ADV VERB
-0.8510372	NUM ADV </s>
-1.656172	NUM ADV ADJ
-1.264965	NUM ADV ADV
-2.469085	NUM ADV AUX
-1.136647	NUM ADV CONJ
-1.770115	NUM ADV DET
-2.260389	NUM ADV DIG
-1.871006	NUM ADV NADJ
-1.408387	NUM ADV NOUN
-1.088874	NUM ADV PREP
-0.9376064	NUM ADV PRON
-0.5606003	NUM ADV PUNCT
-1.867025	NUM ADV QUANT
-0.8406964	NUM ADV VERB
-1.045374	PART ADV </s>
-1.342423	PART ADV ADJ
-1.099385	PART ADV ADV
-1.434756	PART ADV CONJ
-1.643453	PART ADV DET
-1.099385	PART ADV NADJ
-1.643453	PART ADV NOUN
-0.7683914	PART ADV PREP
-1.041393	PART ADV PRON
-0.90309	PART ADV PUNCT
-0.6434527	PART ADV VERB
-1.358297	PREP ADV </s>
-2.003279	PREP ADV ADJ
-1.354719	PREP ADV ADV
-2.504874	PREP ADV AUX
-0.7649698	PREP ADV CONJ
-1.488204	PREP ADV DET
-1.432566	PREP ADV DIG
-3.22978	PREP ADV INTERJ
-2.243353	PREP ADV NADJ
-1.388517	PREP ADV NOUN
-2.302331	PREP ADV NUM
-3.343724	PREP ADV PART
-0.8902524	PREP ADV PREP
-0.8727254	PREP ADV PRON
-0.7829803	PREP ADV PUNCT
-1.809698	PREP ADV QUANT
-0.7906906	PREP ADV VERB
-1.504395	PRON ADV </s>
-2.112461	PRON ADV ADJ
-1.549675	PRON ADV ADV
-2.189174	PRON ADV AUX
-1.586443	PRON ADV CONJ
-2.070149	PRON ADV DET
-3.33732	PRON ADV DIG
-3.091593	PRON ADV INTERJ
-4.100969	PRON ADV MEAS
-2.243442	PRON ADV NADJ
-1.859885	PRON ADV NOUN
-3.03629	PRON ADV NUM
-3.85395	PRON ADV PART
-0.6119236	PRON ADV PREP
-0.626449	PRON ADV PRON
-0.8122755	PRON ADV PUNCT
-1.357713	PRON ADV QUANT
-0.7183859	PRON ADV VERB
-1.985981	PUNCT ADV </s>
-1.681081	PUNCT ADV ADJ
-1.71335	PUNCT ADV ADV
-2.113519	PUNCT ADV AUX
-1.321801	PUNCT ADV CONJ
-1.648483	PUNCT ADV DET
-2.82997	PUNCT ADV DIG
-3.51746	PUNCT ADV INTERJ
-3.556968	PUNCT ADV MEAS
-2.354143	PUNCT ADV NADJ
-1.578375	PUNCT ADV NOUN
-2.987093	PUNCT ADV NUM
-2.71782	PUNCT ADV PART
-1.514637	PUNCT ADV PREP
-1.375125	PUNCT ADV PRON
-1.379501	PUNCT ADV PUNCT
-2.188106	PUNCT ADV QUANT
-0.1457817	PUNCT ADV VERB
-1.284613	QUANT ADV </s>
-1.244495	QUANT ADV ADJ
-1.100196	QUANT ADV ADV
-1.045192	QUANT ADV AUX
-1.421866	QUANT ADV CONJ
-1.399397	QUANT ADV DET
-2.012546	QUANT ADV DIG
-2.965218	QUANT ADV INTERJ
-1.611621	QUANT ADV NADJ
-1.462107	QUANT ADV NOUN
-1.841476	QUANT ADV NUM
-0.9992731	QUANT ADV PREP
-1.357673	QUANT ADV PRON
-0.9794	QUANT ADV PUNCT
-2.043581	QUANT ADV QUANT
-0.5207018	QUANT ADV VERB
-1.359806	VERB ADV </s>
-1.32763	VERB ADV ADJ
-1.266495	VERB ADV ADV
-2.71823	VERB ADV AUX
-1.467035	VERB ADV CONJ
-1.000875	VERB ADV DET
-2.547932	VERB ADV DIG
-3.454626	VERB ADV INTERJ
-4.333669	VERB ADV MEAS
-1.738623	VERB ADV NADJ
-1.371423	VERB ADV NOUN
-2.86171	VERB ADV NUM
-3.785619	VERB ADV PART
-0.8397643	VERB ADV PREP
-0.6960173	VERB ADV PRON
-1.020191	VERB ADV PUNCT
-1.636181	VERB ADV QUANT
-0.7230108	VERB ADV VERB
-2.510651	<s> AUX </s>
-3.391464	<s> AUX ADJ
-1.381164	<s> AUX ADV
-3.011253	<s> AUX CONJ
-1.719367	<s> AUX DET
-3.789404	<s> AUX INTERJ
-2.17662	<s> AUX MEAS
-3.391464	<s> AUX NADJ
-2.17662	<s> AUX NOUN
-3.191325	<s> AUX PREP
-0.117399	<s> AUX PRON
-3.488374	<s> AUX PUNCT
-2.789404	<s> AUX QUANT
-0.8089465	<s> AUX VERB
-0.3899203	ADJ AUX ADV
-2.381253	ADJ AUX NOUN
-1.26773	ADJ AUX PRON
-2.58995	ADJ AUX PUNCT
-0.2803194	ADJ AUX VERB
-1.952235	ADV AUX </s>
-3.375481	ADV AUX ADJ
-0.9916654	ADV AUX ADV
-2.977541	ADV AUX CONJ
-1.503324	ADV AUX DET
-2.977541	ADV AUX DIG
-2.562567	ADV AUX NADJ
-1.807279	ADV AUX NOUN
-3.074451	ADV AUX NUM
-3.375481	ADV AUX PREP
-0.6002344	ADV AUX PRON
-2.033058	ADV AUX PUNCT
-2.773421	ADV AUX QUANT
-0.243221	ADV AUX VERB
-0.09691001	AUX AUX VERB
-1.98939	CONJ AUX </s>
-3.354725	CONJ AUX ADJ
-1.107816	CONJ AUX ADV
-2.965343	CONJ AUX CONJ
-2.68836	CONJ AUX DET
-2.961362	CONJ AUX NADJ
-2.132058	CONJ AUX NOUN
-2.961362	CONJ AUX PREP
-1.154334	CONJ AUX PRON
-2.910209	CONJ AUX PUNCT
-3.563422	CONJ AUX QUANT
-0.08255283	CONJ AUX VERB
-0.9542425	DET AUX ADV
-0.7501225	DET AUX NOUN
-0.1618508	DET AUX VERB
-0.9616036	DIG AUX ADV
-2.264791	DIG AUX DET
-2.473487	DIG AUX NADJ
-0.8824224	DIG AUX PRON
-2.473487	DIG AUX PUNCT
-0.1300784	DIG AUX VERB
-1.032849	INTERJ AUX DET
-0.1297589	INTERJ AUX PRON
-0.8567576	INTERJ AUX VERB
-0.5316663	MEAS AUX ADV
-0.7403627	MEAS AUX PRON
-0.3424227	MEAS AUX VERB
-2.068186	NADJ AUX </s>
-0.9688012	NADJ AUX ADV
-1.913284	NADJ AUX DET
-2.311224	NADJ AUX NADJ
-1.658011	NADJ AUX NOUN
-1.015657	NADJ AUX PRON
-0.1272427	NADJ AUX VERB
-1.919683	NOUN AUX </s>
-3.579735	NOUN AUX ADJ
-0.7459502	NOUN AUX ADV
-2.993469	NOUN AUX CONJ
-2.199523	NOUN AUX DET
-4.123803	NOUN AUX DIG
-3.579735	NOUN AUX INTERJ
-2.812049	NOUN AUX NADJ
-2.011533	NOUN AUX NOUN
-3.08241	NOUN AUX PREP
-1.27285	NOUN AUX PRON
-2.495414	NOUN AUX PUNCT
-2.933471	NOUN AUX QUANT
-0.1362704	NOUN AUX VERB
-1.099385	NUM AUX ADV
-0.9444827	NUM AUX PRON
-1.643453	NUM AUX PUNCT
-0.1184079	NUM AUX VERB
-0.05799195	PART AUX VERB
-1.623813	PREP AUX ADV
-1.623813	PREP AUX CONJ
-1.623813	PREP AUX DET
-1.434569	PREP AUX NOUN
-1.832509	PREP AUX PREP
-1.23443	PREP AUX PRON
-1.434569	PREP AUX PUNCT
-0.108233	PREP AUX VERB
-2.045516	PRON AUX </s>
-3.220332	PRON AUX ADJ
-0.7501222	PRON AUX ADV
-4.334276	PRON AUX AUX
-2.902912	PRON AUX CONJ
-3.260296	PRON AUX DET
-4.179374	PRON AUX DIG
-4.033246	PRON AUX INTERJ
-4.276284	PRON AUX MEAS
-2.653034	PRON AUX NADJ
-2.044559	PRON AUX NOUN
-4.280265	PRON AUX NUM
-2.695074	PRON AUX PREP
-2.454279	PRON AUX PRON
-2.23687	PRON AUX PUNCT
-3.012056	PRON AUX QUANT
-0.104053	PRON AUX VERB
-2.184691	PUNCT AUX </s>
-2.661813	PUNCT AUX ADJ
-0.9405268	PUNCT AUX ADV
-1.485721	PUNCT AUX DET
-3.402175	PUNCT AUX INTERJ
-3.402175	PUNCT AUX MEAS
-3.402175	PUNCT AUX NADJ
-1.716434	PUNCT AUX NOUN
-3.402175	PUNCT AUX PREP
-0.5053737	PUNCT AUX PRON
-2.858107	PUNCT AUX PUNCT
-3.004235	PUNCT AUX QUANT
-0.2939487	PUNCT AUX VERB
-1.286307	QUANT AUX </s>
-1.161368	QUANT AUX ADV
-1.462398	QUANT AUX DET
-0.860338	QUANT AUX PRON
-2.064458	QUANT AUX PUNCT
-1.855762	QUANT AUX QUANT
-0.1723634	QUANT AUX VERB
-2.222717	VERB AUX </s>
-1.032385	VERB AUX ADV
-1.979678	VERB AUX DET
-3.000868	VERB AUX DIG
-2.699838	VERB AUX NADJ
-2.187954	VERB AUX NOUN
-2.602928	VERB AUX PREP
-1.131636	VERB AUX PRON
-2.602928	VERB AUX PUNCT
-2.699838	VERB AUX QUANT
-0.0969642	VERB AUX VERB
-2.261554	<s> CONJ </s>
-1.932495	<s> CONJ ADJ
-1.008108	<s> CONJ ADV
-2.242668	<s> CONJ AUX
-1.760038	<s> CONJ CONJ
-0.9667446	<s> CONJ DET
-2.750413	<s> CONJ DIG
-3.233525	<s> CONJ INTERJ
-3.069668	<s> CONJ MEAS
-2.122375	<s> CONJ NADJ
-1.178689	<s> CONJ NOUN
-2.762478	<s> CONJ NUM
-1.279282	<s> CONJ PREP
-0.313815	<s> CONJ PRON
-2.32148	<s> CONJ PUNCT
-1.916507	<s> CONJ QUANT
-0.9211536	<s> CONJ VERB
-2.076437	ADJ CONJ </s>
-0.8896494	ADJ CONJ ADJ
-1.199392	ADJ CONJ ADV
-1.809893	ADJ CONJ AUX
-1.857249	ADJ CONJ CONJ
-1.103804	ADJ CONJ DET
-2.469433	ADJ CONJ DIG
-1.081775	ADJ CONJ NADJ
-0.8857851	ADJ CONJ NOUN
-2.87149	ADJ CONJ NUM
-1.688559	ADJ CONJ PREP
-0.6512569	ADJ CONJ PRON
-2.731311	ADJ CONJ PUNCT
-1.835774	ADJ CONJ QUANT
-0.670613	ADJ CONJ VERB
-2.029229	ADV CONJ </s>
-1.979363	ADV CONJ ADJ
-1.171118	ADV CONJ ADV
-1.746755	ADV CONJ AUX
-1.99434	ADV CONJ CONJ
-1.306483	ADV CONJ DET
-2.530107	ADV CONJ DIG
-2.098937	ADV CONJ NADJ
-1.015096	ADV CONJ NOUN
-2.815717	ADV CONJ NUM
-1.910109	ADV CONJ PREP
-0.272284	ADV CONJ PRON
-2.678333	ADV CONJ PUNCT
-2.060019	ADV CONJ QUANT
-0.7723088	ADV CONJ VERB
-2.088136	AUX CONJ ADJ
-1.133894	AUX CONJ ADV
-0.7763822	AUX CONJ AUX
-1.490057	AUX CONJ CONJ
-1.347773	AUX CONJ DET
-1.87944	AUX CONJ NADJ
-1.486076	AUX CONJ NOUN
-1.87944	AUX CONJ PREP
-0.4160382	AUX CONJ PRON
-0.6488034	AUX CONJ VERB
-1.614386	CONJ CONJ </s>
-2.155176	CONJ CONJ ADJ
-0.8734254	CONJ CONJ ADV
-2.373232	CONJ CONJ AUX
-1.780717	CONJ CONJ CONJ
-0.9648445	CONJ CONJ DET
-3.03599	CONJ CONJ DIG
-3.43393	CONJ CONJ INTERJ
-2.354748	CONJ CONJ NADJ
-1.268092	CONJ CONJ NOUN
-2.257838	CONJ CONJ NUM
-2.044764	CONJ CONJ PREP
-0.2664647	CONJ CONJ PRON
-2.392537	CONJ CONJ PUNCT
-2.010684	CONJ CONJ QUANT
-1.11901	CONJ CONJ VERB
-1.056905	DET CONJ ADV
-0.8567658	DET CONJ DET
-1.454845	DET CONJ NADJ
-0.6766936	DET CONJ NOUN
-1.454845	DET CONJ PREP
-0.6766936	DET CONJ PRON
-0.5517549	DET CONJ VERB
-1.963284	DIG CONJ </s>
-2.018801	DIG CONJ ADJ
-1.44741	DIG CONJ ADV
-1.727756	DIG CONJ AUX
-2.08247	DIG CONJ CONJ
-0.9314717	DIG CONJ DET
-0.9552519	DIG CONJ DIG
-2.935255	DIG CONJ MEAS
-2.215096	DIG CONJ NADJ
-1.158917	DIG CONJ NOUN
-2.724402	DIG CONJ NUM
-0.6516714	DIG CONJ PREP
-0.5394922	DIG CONJ PRON
-2.516126	DIG CONJ PUNCT
-2.306866	DIG CONJ QUANT
-1.043161	DIG CONJ VERB
-1.871573	INTERJ CONJ </s>
-1.871573	INTERJ CONJ ADJ
-1.108145	INTERJ CONJ ADV
-2.269513	INTERJ CONJ AUX
-1.871573	INTERJ CONJ CONJ
-0.9794784	INTERJ CONJ DET
-2.060817	INTERJ CONJ DIG
-1.725445	INTERJ CONJ INTERJ
-1.6163	INTERJ CONJ NADJ
-0.846267	INTERJ CONJ NOUN
-2.060817	INTERJ CONJ NUM
-1.725445	INTERJ CONJ PREP
-0.353059	INTERJ CONJ PRON
-1.725445	INTERJ CONJ QUANT
-1.065393	INTERJ CONJ VERB
-1.100371	MEAS CONJ </s>
-0.9002315	MEAS CONJ ADV
-0.9542425	MEAS CONJ DET
-1.197281	MEAS CONJ NOUN
-0.4014005	MEAS CONJ PRON
-1.197281	MEAS CONJ QUANT
-0.845098	MEAS CONJ VERB
-1.956693	NADJ CONJ </s>
-1.680487	NADJ CONJ ADJ
-1.298152	NADJ CONJ ADV
-1.937038	NADJ CONJ AUX
-1.981517	NADJ CONJ CONJ
-1.228941	NADJ CONJ DET
-2.157608	NADJ CONJ DIG
-1.437449	NADJ CONJ NADJ
-0.8527626	NADJ CONJ NOUN
-2.759668	NADJ CONJ NUM
-1.903757	NADJ CONJ PREP
-0.6754071	NADJ CONJ PRON
-2.575143	NADJ CONJ PUNCT
-2.021634	NADJ CONJ QUANT
-0.3816977	NADJ CONJ VERB
-1.791965	NOUN CONJ </s>
-1.670417	NOUN CONJ ADJ
-1.168773	NOUN CONJ ADV
-1.473604	NOUN CONJ AUX
-2.027128	NOUN CONJ CONJ
-1.121867	NOUN CONJ DET
-2.384981	NOUN CONJ DIG
-4.017672	NOUN CONJ INTERJ
-4.232506	NOUN CONJ MEAS
-1.429875	NOUN CONJ NADJ
-0.5792393	NOUN CONJ NOUN
-2.585073	NOUN CONJ NUM
-1.785262	NOUN CONJ PREP
-0.6636967	NOUN CONJ PRON
-2.622413	NOUN CONJ PUNCT
-1.992051	NOUN CONJ QUANT
-0.6521985	NOUN CONJ VERB
-2.254928	NUM CONJ </s>
-2.200917	NUM CONJ ADJ
-1.367632	NUM CONJ ADV
-2.020844	NUM CONJ AUX
-1.798996	NUM CONJ CONJ
-1.344151	NUM CONJ DET
-2.200917	NUM CONJ DIG
-0.3132743	NUM CONJ NADJ
-1.456573	NUM CONJ NOUN
-1.300685	NUM CONJ NUM
-2.497966	NUM CONJ PREP
-0.8281841	NUM CONJ PRON
-1.777806	NUM CONJ QUANT
-0.8905107	NUM CONJ VERB
-1.491362	PART CONJ </s>
-1.583695	PART CONJ ADJ
-1.139179	PART CONJ ADV
-1.792392	PART CONJ AUX
-1.491362	PART CONJ CONJ
-1.01424	PART CONJ DET
-1.194313	PART CONJ DIG
-1.792392	PART CONJ NADJ
-0.7132105	PART CONJ NOUN
-1.583695	PART CONJ PREP
-0.60206	PART CONJ PRON
-1.491362	PART CONJ PUNCT
-1.792392	PART CONJ QUANT
-0.9173304	PART CONJ VERB
-1.862529	PREP CONJ </s>
-1.470418	PREP CONJ ADJ
-0.8430664	PREP CONJ ADV
-2.185835	PREP CONJ AUX
-1.968582	PREP CONJ CONJ
-1.447556	PREP CONJ DET
-3.24274	PREP CONJ DIG
-3.64068	PREP CONJ INTERJ
-2.298258	PREP CONJ NADJ
-0.4976653	PREP CONJ NOUN
-2.987468	PREP CONJ NUM
-1.265017	PREP CONJ PREP
-0.9034875	PREP CONJ PRON
-2.686438	PREP CONJ PUNCT
-2.385408	PREP CONJ QUANT
-0.6096759	PREP CONJ VERB
-1.77192	PRON CONJ </s>
-2.016173	PRON CONJ ADJ
-1.194826	PRON CONJ ADV
-2.029138	PRON CONJ AUX
-1.721577	PRON CONJ CONJ
-0.8817581	PRON CONJ DET
-3.723743	PRON CONJ DIG
-3.179675	PRON CONJ INTERJ
-2.143959	PRON CONJ NADJ
-1.159669	PRON CONJ NOUN
-2.98338	PRON CONJ NUM
-1.455399	PRON CONJ PREP
-0.4544635	PRON CONJ PRON
-2.16744	PRON CONJ PUNCT
-1.891234	PRON CONJ QUANT
-0.5756032	PRON CONJ VERB
-1.455837	PUNCT CONJ </s>
-1.801727	PUNCT CONJ ADJ
-1.079011	PUNCT CONJ ADV
-1.771684	PUNCT CONJ AUX
-1.636948	PUNCT CONJ CONJ
-1.04076	PUNCT CONJ DET
-2.519649	PUNCT CONJ DIG
-3.759573	PUNCT CONJ INTERJ
-3.817565	PUNCT CONJ MEAS
-1.899985	PUNCT CONJ NADJ
-0.8128756	PUNCT CONJ NOUN
-2.906789	PUNCT CONJ NUM
-1.740977	PUNCT CONJ PREP
-0.4110739	PUNCT CONJ PRON
-2.291595	PUNCT CONJ PUNCT
-1.689535	PUNCT CONJ QUANT
-0.8795463	PUNCT CONJ VERB
-1.372853	QUANT CONJ </s>
-0.9412295	QUANT CONJ ADJ
-1.256759	QUANT CONJ ADV
-1.767304	QUANT CONJ AUX
-1.974913	QUANT CONJ CONJ
-1.228228	QUANT CONJ DET
-1.144055	QUANT CONJ DIG
-1.898073	QUANT CONJ NADJ
-1.383489	QUANT CONJ NOUN
-0.5524605	QUANT CONJ NUM
-2.019116	QUANT CONJ PREP
-0.8482262	QUANT CONJ PRON
-2.767304	QUANT CONJ PUNCT
-1.405576	QUANT CONJ QUANT
-0.9906031	QUANT CONJ VERB
-1.708357	VERB CONJ </s>
-1.625309	VERB CONJ ADJ
-1.163848	VERB CONJ ADV
-2.215702	VERB CONJ AUX
-1.793701	VERB CONJ CONJ
-1.008209	VERB CONJ DET
-2.920123	VERB CONJ DIG
-3.575628	VERB CONJ INTERJ
-4.388121	VERB CONJ MEAS
-2.022786	VERB CONJ NADJ
-1.113729	VERB CONJ NOUN
-2.512241	VERB CONJ NUM
-1.386365	VERB CONJ PREP
-0.2991221	VERB CONJ PRON
-2.180176	VERB CONJ PUNCT
-2.018751	VERB CONJ QUANT
-0.9304862	VERB CONJ VERB
-2.368949	<s> DET </s>
-1.100681	<s> DET ADJ
-2.144608	<s> DET ADV
-3.511964	<s> DET AUX
-4.210934	<s> DET CONJ
-3.470571	<s> DET DET
-2.344646	<s> DET DIG
-2.909904	<s> DET MEAS
-0.8648741	<s> DET NADJ
-0.1543145	<s> DET NOUN
-1.27694	<s> DET NUM
-3.281515	<s> DET PREP
-2.77957	<s> DET PRON
-3.09699	<s> DET PUNCT
-2.384859	<s> DET QUANT
-2.271414	<s> DET VERB
-1.752475	ADJ DET </s>
-1.192613	ADJ DET ADJ
-2.674113	ADJ DET ADV
-2.484869	ADJ DET DIG
-1.206115	ADJ DET NADJ
-0.09393393	ADJ DET NOUN
-1.928567	ADJ DET NUM
-2.183839	ADJ DET PRON
-2.882809	ADJ DET PUNCT
-2.183839	ADJ DET QUANT
-1.736681	ADJ DET VERB
-1.941847	ADV DET </s>
-1.141053	ADV DET ADJ
-2.381486	ADV DET ADV
-4.191046	ADV DET CONJ
-3.191046	ADV DET DET
-2.327723	ADV DET DIG
-4.191046	ADV DET INTERJ
-2.960597	ADV DET MEAS
-0.8209028	ADV DET NADJ
-0.139218	ADV DET NOUN
-2.022254	ADV DET NUM
-3.982349	ADV DET PART
-3.111864	ADV DET PREP
-2.395166	ADV DET PRON
-3.029678	ADV DET PUNCT
-2.40217	ADV DET QUANT
-2.023728	ADV DET VERB
-2.243038	AUX DET </s>
-1.298555	AUX DET ADJ
-2.038918	AUX DET ADV
-2.038918	AUX DET DIG
-1.201645	AUX DET NADJ
-0.1524273	AUX DET NOUN
-2.09691	AUX DET NUM
-0.8314183	AUX DET VERB
-1.942603	CONJ DET </s>
-1.212252	CONJ DET ADJ
-2.449361	CONJ DET ADV
-3.47985	CONJ DET AUX
-3.622134	CONJ DET CONJ
-3.220213	CONJ DET DET
-2.186789	CONJ DET DIG
-3.822273	CONJ DET MEAS
-1.09522	CONJ DET NADJ
-0.09263823	CONJ DET NOUN
-1.966148	CONJ DET NUM
-3.058845	CONJ DET PREP
-2.596963	CONJ DET PRON
-3.029881	CONJ DET PUNCT
-2.652011	CONJ DET QUANT
-1.989764	CONJ DET VERB
-1.989005	DET DET </s>
-1.159701	DET DET ADJ
-2.290035	DET DET ADV
-2.290035	DET DET DIG
-1.085915	DET DET NADJ
-0.108191	DET DET NOUN
-1.892095	DET DET NUM
-2.081338	DET DET PART
-1.892095	DET DET PUNCT
-2.290035	DET DET VERB
-2.268344	DIG DET </s>
-1.001172	DIG DET ADJ
-2.268344	DIG DET ADV
-1.967314	DIG DET DET
-1.870404	DIG DET DIG
-1.268344	DIG DET NADJ
-0.146128	DIG DET NOUN
-1.527981	DIG DET NUM
-1.967314	DIG DET PRON
-1.666284	DIG DET PUNCT
-1.967314	DIG DET QUANT
-1.666284	DIG DET VERB
-1.40824	INTERJ DET ADJ
-2.10721	INTERJ DET DIG
-1.046512	INTERJ DET NADJ
-0.07986036	INTERJ DET NOUN
-1.70927	INTERJ DET NUM
-2.10721	INTERJ DET VERB
-0.8168943	MEAS DET </s>
-1.206277	MEAS DET ADJ
-1.414973	MEAS DET NADJ
-0.1597008	MEAS DET NOUN
-1.414973	MEAS DET VERB
-2.036287	NADJ DET </s>
-1.146318	NADJ DET ADJ
-2.513408	NADJ DET ADV
-3.057476	NADJ DET CONJ
-2.459397	NADJ DET DET
-1.695748	NADJ DET DIG
-2.756446	NADJ DET INTERJ
-2.279325	NADJ DET MEAS
-0.9782947	NADJ DET NADJ
-0.1316483	NADJ DET NOUN
-1.827027	NADJ DET NUM
-2.848779	NADJ DET PREP
-2.455416	NADJ DET PRON
-2.659536	NADJ DET PUNCT
-2.459397	NADJ DET QUANT
-1.814438	NADJ DET VERB
-1.900766	NOUN DET </s>
-1.095425	NOUN DET ADJ
-2.187398	NOUN DET ADV
-3.549126	NOUN DET AUX
-3.641459	NOUN DET CONJ
-2.582984	NOUN DET DET
-1.569123	NOUN DET DIG
-2.920737	NOUN DET INTERJ
-3.452216	NOUN DET MEAS
-1.19024	NOUN DET NADJ
-0.1177622	NOUN DET NOUN
-2.005058	NOUN DET NUM
-2.850156	NOUN DET PREP
-2.358794	NOUN DET PRON
-2.789458	NOUN DET PUNCT
-1.989818	NOUN DET QUANT
-1.841556	NOUN DET VERB
-0.8932827	NUM DET ADJ
-1.491362	NUM DET NADJ
-0.1111505	NUM DET NOUN
-1.190332	NUM DET NUM
-0.5316663	PART DET ADJ
-0.3424227	PART DET NOUN
-1.644349	PREP DET </s>
-1.130178	PREP DET ADJ
-2.579867	PREP DET ADV
-4.160529	PREP DET CONJ
-3.31543	PREP DET DET
-2.146719	PREP DET DIG
-4.764746	PREP DET INTERJ
-3.566902	PREP DET MEAS
-0.9866254	PREP DET NADJ
-0.1164775	PREP DET NOUN
-2.080513	PREP DET NUM
-2.601451	PREP DET PREP
-2.890656	PREP DET PRON
-3.092628	PREP DET PUNCT
-2.58873	PREP DET QUANT
-2.034172	PREP DET VERB
-1.659267	PRON DET </s>
-1.002701	PRON DET ADJ
-2.389646	PRON DET ADV
-3.769857	PRON DET AUX
-3.769857	PRON DET CONJ
-3.171778	PRON DET DET
-2.292736	PRON DET DIG
-2.991706	PRON DET INTERJ
-2.157073	PRON DET MEAS
-1.072628	PRON DET NADJ
-0.1367929	PRON DET NOUN
-1.810816	PRON DET NUM
-2.894796	PRON DET PREP
-3.171778	PRON DET PRON
-2.840438	PRON DET PUNCT
-1.864061	PRON DET QUANT
-1.866767	PRON DET VERB
-1.889933	PUNCT DET </s>
-1.033621	PUNCT DET ADJ
-2.286346	PUNCT DET ADV
-3.741191	PUNCT DET CONJ
-3.343251	PUNCT DET DET
-2.16716	PUNCT DET DIG
-3.532495	PUNCT DET MEAS
-1.078433	PUNCT DET NADJ
-0.1188215	PUNCT DET NOUN
-1.877868	PUNCT DET NUM
-2.96304	PUNCT DET PREP
-2.5651	PUNCT DET PRON
-2.050995	PUNCT DET PUNCT
-2.326218	PUNCT DET QUANT
-2.172989	PUNCT DET VERB
-1.848386	QUANT DET </s>
-1.071777	QUANT DET ADJ
-2.374356	QUANT DET ADV
-3.010757	QUANT DET DET
-2.617393	QUANT DET DIG
-1.24173	QUANT DET NADJ
-0.08911977	QUANT DET NOUN
-2.344392	QUANT DET NUM
-2.617393	QUANT DET PREP
-2.265211	QUANT DET PRON
-3.010757	QUANT DET PUNCT
-2.675385	QUANT DET QUANT
-2.219454	QUANT DET VERB
-2.007748	VERB DET </s>
-0.8796293	VERB DET ADJ
-2.200397	VERB DET ADV
-4.316008	VERB DET AUX
-4.064196	VERB DET CONJ
-3.192623	VERB DET DET
-2.173216	VERB DET DIG
-2.462136	VERB DET INTERJ
-3.73786	VERB DET MEAS
-0.9527183	VERB DET NADJ
-0.1532728	VERB DET NOUN
-2.23271	VERB DET NUM
-2.656635	VERB DET PREP
-3.029166	VERB DET PRON
-2.983569	VERB DET PUNCT
-2.277444	VERB DET QUANT
-1.94428	VERB DET VERB
-0.9249059	<s> DIG </s>
-2.349495	<s> DIG ADJ
-2.443176	<s> DIG ADV
-2.631502	<s> DIG AUX
-2.277943	<s> DIG CONJ
-3.029442	<s> DIG DET
-0.8725898	<s> DIG DIG
-3.57351	<s> DIG INTERJ
-2.362656	<s> DIG MEAS
-2.179935	<s> DIG NADJ
-0.9565095	<s> DIG NOUN
-3.276461	<s> DIG NUM
-3.57351	<s> DIG PART
-2.061626	<s> DIG PREP
-2.631502	<s> DIG PRON
-0.2345555	<s> DIG PUNCT
-3.4766	<s> DIG QUANT
-1.859599	<s> DIG VERB
-0.9580858	ADJ DIG </s>
-2.246881	ADJ DIG ADJ
-1.945851	ADJ DIG ADV
-2.302015	ADJ DIG AUX
-1.331892	ADJ DIG CONJ
-2.246881	ADJ DIG DET
-2.121943	ADJ DIG DIG
-2.691397	ADJ DIG INTERJ
-2.900094	ADJ DIG MEAS
-1.900094	ADJ DIG NADJ
-0.4010945	ADJ DIG NOUN
-2.356026	ADJ DIG PART
-1.100753	ADJ DIG PREP
-1.92237	ADJ DIG PRON
-0.5686666	ADJ DIG PUNCT
-1.538366	ADJ DIG VERB
-1.295416	ADV DIG </s>
-1.814328	ADV DIG ADJ
-1.901479	ADV DIG ADV
-2.332842	ADV DIG AUX
-1.576967	ADV DIG CONJ
-2.433733	ADV DIG DET
-2.010623	ADV DIG DIG
-2.031812	ADV DIG MEAS
-1.788774	ADV DIG NADJ
-0.2202373	ADV DIG NOUN
-2.3786	ADV DIG NUM
-3.031812	ADV DIG PART
-1.341616	ADV DIG PREP
-2.156751	ADV DIG PRON
-0.7925128	ADV DIG PUNCT
-2.429752	ADV DIG QUANT
-1.576967	ADV DIG VERB
-0.4231103	AUX DIG </s>
-1.021189	AUX DIG ADV
-0.8124929	AUX DIG PRON
-0.8124929	AUX DIG PUNCT
-0.7201593	AUX DIG VERB
-1.058501	CONJ DIG </s>
-1.824818	CONJ DIG ADJ
-2.085731	CONJ DIG ADV
-2.41309	CONJ DIG AUX
-1.747978	CONJ DIG CONJ
-2.61721	CONJ DIG DET
-1.784701	CONJ DIG DIG
-2.236999	CONJ DIG MEAS
-1.91824	CONJ DIG NADJ
-0.3697278	CONJ DIG NOUN
-2.471082	CONJ DIG NUM
-1.189075	CONJ DIG PREP
-1.954452	CONJ DIG PRON
-0.552004	CONJ DIG PUNCT
-2.202237	CONJ DIG QUANT
-1.424085	CONJ DIG VERB
-1.449538	DET DIG </s>
-1.248211	DET DIG ADJ
-2.124148	DET DIG ADV
-2.563481	DET DIG AUX
-1.532073	DET DIG CONJ
-2.496534	DET DIG DET
-2.08636	DET DIG DIG
-2.743553	DET DIG INTERJ
-2.051598	DET DIG MEAS
-1.581964	DET DIG NADJ
-0.2004962	DET DIG NOUN
-1.850271	DET DIG NUM
-3.132936	DET DIG PART
-1.452331	DET DIG PREP
-2.262451	DET DIG PRON
-0.9506972	DET DIG PUNCT
-2.943692	DET DIG QUANT
-1.678874	DET DIG VERB
-0.7016993	DIG DIG </s>
-3.207082	DIG DIG ADJ
-2.390188	DIG DIG ADV
-3.261093	DIG DIG AUX
-1.935929	DIG DIG CONJ
-2.992248	DIG DIG DET
-0.8385499	DIG DIG DIG
-3.596465	DIG DIG INTERJ
-2.381915	DIG DIG MEAS
-2.805161	DIG DIG NADJ
-0.3279673	DIG DIG NOUN
-3.805161	DIG DIG NUM
-3.596465	DIG DIG PART
-2.156801	DIG DIG PREP
-2.176772	DIG DIG PRON
-0.8420817	DIG DIG PUNCT
-3.805161	DIG DIG QUANT
-2.358003	DIG DIG VERB
-1.462398	INTERJ DIG </s>
-1.253702	INTERJ DIG DET
-1.462398	INTERJ DIG DIG
-1.253702	INTERJ DIG MEAS
-0.4412087	INTERJ DIG NOUN
-0.462398	INTERJ DIG PUNCT
-1.462398	INTERJ DIG VERB
-0.6676903	MEAS DIG </s>
-1.718383	MEAS DIG ADV
-2.438542	MEAS DIG AUX
-1.171371	MEAS DIG CONJ
-1.578204	MEAS DIG DIG
-0.9542425	MEAS DIG MEAS
-0.7001582	MEAS DIG NOUN
-1.003176	MEAS DIG PREP
-2.08636	MEAS DIG PRON
-0.665854	MEAS DIG PUNCT
-1.496534	MEAS DIG VERB
-1.02355	NADJ DIG </s>
-2.503295	NADJ DIG ADJ
-2.202265	NADJ DIG ADV
-2.590446	NADJ DIG AUX
-1.615269	NADJ DIG CONJ
-2.39856	NADJ DIG DET
-1.828685	NADJ DIG DIG
-2.544688	NADJ DIG MEAS
-1.964904	NADJ DIG NADJ
-0.1792	NADJ DIG NOUN
-3.243658	NADJ DIG NUM
-2.314239	NADJ DIG PART
-1.343291	NADJ DIG PREP
-2.026174	NADJ DIG PRON
-0.9981453	NADJ DIG PUNCT
-1.863447	NADJ DIG VERB
-1.043044	NOUN DIG </s>
-2.485121	NOUN DIG ADJ
-1.970763	NOUN DIG ADV
-2.189083	NOUN DIG AUX
-1.362858	NOUN DIG CONJ
-2.624355	NOUN DIG DET
-1.79874	NOUN DIG DIG
-3.251038	NOUN DIG INTERJ
-2.853098	NOUN DIG MEAS
-1.400596	NOUN DIG NADJ
-1.010572	NOUN DIG NOUN
-3.236797	NOUN DIG NUM
-2.431494	NOUN DIG PART
-1.227237	NOUN DIG PREP
-1.874461	NOUN DIG PRON
-0.2425794	NOUN DIG PUNCT
-3.094691	NOUN DIG QUANT
-1.416829	NOUN DIG VERB
-0.5623873	NUM DIG </s>
-2.329123	NUM DIG ADJ
-1.423876	NUM DIG ADV
-1.93974	NUM DIG AUX
-1	NUM DIG CONJ
-2.139879	NUM DIG DET
-1.884607	NUM DIG DIG
-1.634729	NUM DIG NADJ
-0.8943664	NUM DIG NOUN
-2.537819	NUM DIG PART
-1.148653	NUM DIG PREP
-2.139879	NUM DIG PRON
-0.5532918	NUM DIG PUNCT
-2.537819	NUM DIG QUANT
-1.440909	NUM DIG VERB
-1.189244	PART DIG </s>
-1.189244	PART DIG DIG
-1.39794	PART DIG NADJ
-0.3767507	PART DIG NOUN
-0.4685211	PART DIG PUNCT
-1.344053	PREP DIG </s>
-2.107481	PREP DIG ADJ
-1.660323	PREP DIG ADV
-2.852209	PREP DIG AUX
-1.540455	PREP DIG CONJ
-2.709541	PREP DIG DET
-1.895294	PREP DIG DIG
-3.107481	PREP DIG INTERJ
-2.153239	PREP DIG MEAS
-1.721875	PREP DIG NADJ
-0.3283901	PREP DIG NOUN
-2.494698	PREP DIG NUM
-2.72727	PREP DIG PART
-1.565902	PREP DIG PREP
-1.849803	PREP DIG PRON
-0.4817574	PREP DIG PUNCT
-2.576002	PREP DIG QUANT
-2.301301	PREP DIG VERB
-0.8526294	PRON DIG </s>
-2.154645	PRON DIG ADJ
-1.764674	PRON DIG ADV
-2.174849	PRON DIG AUX
-1.03617	PRON DIG CONJ
-2.154645	PRON DIG DET
-2.13534	PRON DIG DIG
-2.895008	PRON DIG MEAS
-1.953	PRON DIG NADJ
-0.8086481	PRON DIG NOUN
-2.266619	PRON DIG PART
-0.9905629	PRON DIG PREP
-1.798098	PRON DIG PRON
-0.437126	PRON DIG PUNCT
-2.593978	PRON DIG QUANT
-1.204812	PRON DIG VERB
-0.8044218	PUNCT DIG </s>
-2.475893	PUNCT DIG ADJ
-2.580851	PUNCT DIG ADV
-2.741595	PUNCT DIG AUX
-1.346924	PUNCT DIG CONJ
-2.917686	PUNCT DIG DET
-0.8738327	PUNCT DIG DIG
-3.121806	PUNCT DIG INTERJ
-2.519746	PUNCT DIG MEAS
-2.30391	PUNCT DIG NADJ
-0.8478214	PUNCT DIG NOUN
-3.167563	PUNCT DIG NUM
-4.024896	PUNCT DIG PART
-1.886909	PUNCT DIG PREP
-2.259973	PUNCT DIG PRON
-0.3242961	PUNCT DIG PUNCT
-3.362138	PUNCT DIG QUANT
-1.954489	PUNCT DIG VERB
-1.450102	QUANT DIG </s>
-2.262595	QUANT DIG ADJ
-2.262595	QUANT DIG ADV
-2.262595	QUANT DIG AUX
-1.568202	QUANT DIG CONJ
-2.471292	QUANT DIG MEAS
-2.262595	QUANT DIG NADJ
-0.1278831	QUANT DIG NOUN
-1.869232	QUANT DIG PART
-1.450102	QUANT DIG PREP
-1.138853	QUANT DIG PUNCT
-1.39211	QUANT DIG VERB
-0.9114186	VERB DIG </s>
-1.793737	VERB DIG ADJ
-1.871964	VERB DIG ADV
-2.90768	VERB DIG AUX
-1.170715	VERB DIG CONJ
-2.38171	VERB DIG DET
-1.282956	VERB DIG DIG
-3.752778	VERB DIG INTERJ
-2.497506	VERB DIG MEAS
-1.943218	VERB DIG NADJ
-0.5114807	VERB DIG NOUN
-3.451748	VERB DIG NUM
-2.798536	VERB DIG PART
-1.213702	VERB DIG PREP
-1.648974	VERB DIG PRON
-0.5220737	VERB DIG PUNCT
-2.462744	VERB DIG QUANT
-1.978261	VERB DIG VERB
-1.336455	<s> INTERJ </s>
-2.359641	<s> INTERJ ADJ
-0.3539974	<s> INTERJ ADV
-2.755675	<s> INTERJ AUX
-2.461031	<s> INTERJ CONJ
-2.53256	<s> INTERJ DET
-3.429997	<s> INTERJ DIG
-2.16323	<s> INTERJ INTERJ
-2.98391	<s> INTERJ MEAS
-2.20755	<s> INTERJ NADJ
-0.6552789	<s> INTERJ NOUN
-3.813214	<s> INTERJ NUM
-3.107065	<s> INTERJ PREP
-0.9946581	<s> INTERJ PRON
-0.8935694	<s> INTERJ PUNCT
-2.914672	<s> INTERJ QUANT
-1.494977	<s> INTERJ VERB
-0.2286525	ADJ INTERJ </s>
-1.775831	ADJ INTERJ ADV
-1.683497	ADJ INTERJ CONJ
-1.386448	ADJ INTERJ INTERJ
-1.984527	ADJ INTERJ NADJ
-1.139429	ADJ INTERJ NOUN
-1.109466	ADJ INTERJ PRON
-1.006804	ADJ INTERJ PUNCT
-1.984527	ADJ INTERJ QUANT
-1.331315	ADJ INTERJ VERB
-0.2327803	ADV INTERJ </s>
-2.019532	ADV INTERJ ADJ
-1.815412	ADV INTERJ ADV
-1.819393	ADV INTERJ AUX
-1.718502	ADV INTERJ CONJ
-1.873404	ADV INTERJ DET
-2.116442	ADV INTERJ INTERJ
-2.208775	ADV INTERJ NADJ
-1.271344	ADV INTERJ NOUN
-2.417472	ADV INTERJ PREP
-1.055744	ADV INTERJ PRON
-0.9476497	ADV INTERJ PUNCT
-1.819393	ADV INTERJ QUANT
-1.271344	ADV INTERJ VERB
-0.2167091	AUX INTERJ </s>
-0.9374317	AUX INTERJ NOUN
-0.845098	AUX INTERJ VERB
-0.60206	CONJ INTERJ </s>
-1.643453	CONJ INTERJ AUX
-1.434756	CONJ INTERJ DET
-1.434756	CONJ INTERJ INTERJ
-1.041393	CONJ INTERJ NOUN
-0.7140337	CONJ INTERJ PRON
-0.60206	CONJ INTERJ PUNCT
-1.045374	CONJ INTERJ VERB
-0.2200412	DET INTERJ </s>
-1.975223	DET INTERJ ADV
-1.812496	DET INTERJ CONJ
-1.812496	DET INTERJ INTERJ
-2.715585	DET INTERJ NADJ
-1.373163	DET INTERJ NOUN
-2.506889	DET INTERJ PREP
-2.715585	DET INTERJ PRON
-0.5308941	DET INTERJ PUNCT
-2.016616	DET INTERJ VERB
-0.3810721	DIG INTERJ </s>
-1.703291	DIG INTERJ ADJ
-1.703291	DIG INTERJ CONJ
-1.402261	DIG INTERJ INTERJ
-1.494595	DIG INTERJ NADJ
-1.050079	DIG INTERJ NOUN
-1.494595	DIG INTERJ PREP
-1.494595	DIG INTERJ PRON
-0.5419234	DIG INTERJ PUNCT
-1.494595	DIG INTERJ VERB
-1.132159	INTERJ INTERJ </s>
-2.693601	INTERJ INTERJ ADJ
-2.459518	INTERJ INTERJ ADV
-2.459518	INTERJ INTERJ CONJ
-3.028973	INTERJ INTERJ DIG
-0.08952965	INTERJ INTERJ INTERJ
-2.497307	INTERJ INTERJ NADJ
-2.033549	INTERJ INTERJ NOUN
-1.875942	INTERJ INTERJ PRON
-1.176972	INTERJ INTERJ PUNCT
-2.033549	INTERJ INTERJ VERB
-0.1346986	MEAS INTERJ </s>
-0.3096302	NADJ INTERJ </s>
-1.61066	NADJ INTERJ ADJ
-1.799904	NADJ INTERJ ADV
-1.61066	NADJ INTERJ CONJ
-1.410521	NADJ INTERJ DIG
-1.410521	NADJ INTERJ INTERJ
-1.133539	NADJ INTERJ NADJ
-1.163502	NADJ INTERJ NOUN
-1.268237	NADJ INTERJ PRON
-0.9874108	NADJ INTERJ PUNCT
-1.195687	NADJ INTERJ VERB
-0.1928591	NOUN INTERJ </s>
-2.07888	NOUN INTERJ ADJ
-1.953941	NOUN INTERJ ADV
-1.857031	NOUN INTERJ CONJ
-2.203818	NOUN INTERJ DET
-1.953941	NOUN INTERJ DIG
-1.68094	NOUN INTERJ INTERJ
-1.387209	NOUN INTERJ NADJ
-1.011933	NOUN INTERJ NOUN
-2.116668	NOUN INTERJ PREP
-1.556001	NOUN INTERJ PRON
-1.075275	NOUN INTERJ PUNCT
-2.556001	NOUN INTERJ QUANT
-1.589859	NOUN INTERJ VERB
-0.1199753	NUM INTERJ </s>
-1.161368	NUM INTERJ NOUN
-1.161368	NUM INTERJ PUNCT
-0.255907	PREP INTERJ </s>
-1.626994	PREP INTERJ ADJ
-1.626994	PREP INTERJ ADV
-1.136721	PREP INTERJ INTERJ
-0.9905925	PREP INTERJ NOUN
-0.7942979	PREP INTERJ PUNCT
-1.237612	PREP INTERJ VERB
-0.09447698	PRON INTERJ </s>
-2.34733	PRON INTERJ ADJ
-1.694118	PRON INTERJ CONJ
-2.34733	PRON INTERJ INTERJ
-2.34733	PRON INTERJ NADJ
-1.502232	PRON INTERJ NOUN
-1.606967	PRON INTERJ PRON
-1.25042	PRON INTERJ PUNCT
-1.34733	PRON INTERJ VERB
-1.154902	PUNCT INTERJ </s>
-2.490274	PUNCT INTERJ ADJ
-0.4388986	PUNCT INTERJ ADV
-2.045758	PUNCT INTERJ CONJ
-2.490274	PUNCT INTERJ DET
-1.769551	PUNCT INTERJ INTERJ
-1.49485	PUNCT INTERJ NADJ
-0.7798919	PUNCT INTERJ NOUN
-2.39794	PUNCT INTERJ PREP
-1.065502	PUNCT INTERJ PRON
-0.692504	PUNCT INTERJ PUNCT
-1.568636	PUNCT INTERJ QUANT
-1.853872	PUNCT INTERJ VERB
-0.1357967	QUANT INTERJ </s>
-1.523697	QUANT INTERJ INTERJ
-1.523697	QUANT INTERJ NADJ
-1.431364	QUANT INTERJ NOUN
-1.732394	QUANT INTERJ PRON
-1.130334	QUANT INTERJ PUNCT
-1.732394	QUANT INTERJ QUANT
-1.334454	QUANT INTERJ VERB
-0.3259993	VERB INTERJ </s>
-2.64197	VERB INTERJ ADJ
-1.796872	VERB INTERJ ADV
-1.863818	VERB INTERJ CONJ
-2.64197	VERB INTERJ DET
-2.64197	VERB INTERJ DIG
-2.097902	VERB INTERJ INTERJ
-1.863818	VERB INTERJ NADJ
-0.6249363	VERB INTERJ NOUN
-1.863818	VERB INTERJ PREP
-1.600577	VERB INTERJ PRON
-0.8031205	VERB INTERJ PUNCT
-2.64197	VERB INTERJ QUANT
-1.480602	VERB INTERJ VERB
-1.255982	<s> MEAS </s>
-1.532188	<s> MEAS ADJ
-1.407249	<s> MEAS ADV
-2.189381	<s> MEAS AUX
-1.912399	<s> MEAS CONJ
-1.611369	<s> MEAS DET
-1.106219	<s> MEAS DIG
-2.578764	<s> MEAS INTERJ
-2.38952	<s> MEAS MEAS
-1.532188	<s> MEAS NADJ
-0.3333782	<s> MEAS NOUN
-2.48643	<s> MEAS NUM
-1.657127	<s> MEAS PREP
-0.9182287	<s> MEAS PRON
-1.569977	<s> MEAS PUNCT
-1.809737	<s> MEAS QUANT
-1.1854	<s> MEAS VERB
-0.6571075	ADJ MEAS </s>
-1.021189	ADJ MEAS DIG
-0.20412	ADJ MEAS NOUN
-1.526339	ADJ MEAS PUNCT
-0.8113196	ADV MEAS </s>
-2.434569	ADV MEAS ADJ
-1.480326	ADV MEAS DIG
-2.434569	ADV MEAS MEAS
-0.1011216	ADV MEAS NOUN
-2.133539	ADV MEAS PUNCT
-2.434569	ADV MEAS VERB
-0.8939466	AUX MEAS </s>
-0.6509085	AUX MEAS DIG
-0.217253	AUX MEAS NOUN
-1.672098	AUX MEAS PUNCT
-0.3381718	CONJ MEAS </s>
-1.4843	CONJ MEAS CONJ
-0.5300573	CONJ MEAS DIG
-0.7439371	CONJ MEAS NOUN
-0.3421212	DET MEAS </s>
-1.137173	DET MEAS ADV
-1.418	DET MEAS CONJ
-1.137173	DET MEAS DIG
-2.158362	DET MEAS NADJ
-0.7604225	DET MEAS NOUN
-1.012234	DET MEAS PREP
-1.760422	DET MEAS PRON
-1.380211	DET MEAS PUNCT
-1.857332	DET MEAS VERB
-0.7683085	DIG MEAS </s>
-1.944746	DIG MEAS ADJ
-1.482128	DIG MEAS ADV
-1.697727	DIG MEAS CONJ
-1.944746	DIG MEAS DET
-1.080427	DIG MEAS DIG
-1.463644	DIG MEAS NADJ
-0.5673936	DIG MEAS NOUN
-1.366734	DIG MEAS PREP
-1.998757	DIG MEAS PRON
-0.5257921	DIG MEAS PUNCT
-2.542825	DIG MEAS QUANT
-1.940765	DIG MEAS VERB
-0.8051347	INTERJ MEAS </s>
-1.019969	INTERJ MEAS ADV
-0.8051347	INTERJ MEAS DIG
-1.220108	INTERJ MEAS NADJ
-0.37501	INTERJ MEAS NOUN
-1.618048	INTERJ MEAS PRON
-1.220108	INTERJ MEAS PUNCT
-1.618048	INTERJ MEAS QUANT
-0.544068	MEAS MEAS </s>
-0.247019	MEAS MEAS NOUN
-0.8696294	NADJ MEAS </s>
-1.385209	NADJ MEAS DIG
-2.339452	NADJ MEAS NADJ
-0.09765601	NADJ MEAS NOUN
-2.339452	NADJ MEAS PRON
-2.339452	NADJ MEAS PUNCT
-0.7713025	NOUN MEAS </s>
-2.507256	NOUN MEAS ADJ
-2.56239	NOUN MEAS ADV
-2.56239	NOUN MEAS CONJ
-2.507256	NOUN MEAS DET
-1.115146	NOUN MEAS DIG
-3.160469	NOUN MEAS INTERJ
-2.6164	NOUN MEAS NADJ
-0.1777451	NOUN MEAS NOUN
-2.420106	NOUN MEAS PREP
-2.56239	NOUN MEAS PRON
-1.208645	NOUN MEAS PUNCT
-3.160469	NOUN MEAS QUANT
-2.23105	NOUN MEAS VERB
-0.2514369	NUM MEAS </s>
-2.093422	NUM MEAS ADJ
-1.440209	NUM MEAS ADV
-1.495343	NUM MEAS CONJ
-1.884725	NUM MEAS DIG
-2.093422	NUM MEAS INTERJ
-1.695482	NUM MEAS NADJ
-1.280508	NUM MEAS NOUN
-0.9965117	NUM MEAS PREP
-2.093422	NUM MEAS PRON
-0.9794784	NUM MEAS PUNCT
-1.280508	NUM MEAS VERB
-1.079181	PART MEAS DIG
-0.07918125	PART MEAS NOUN
-0.6578574	PREP MEAS </s>
-1.848189	PREP MEAS CONJ
-0.5057665	PREP MEAS DIG
-0.4502491	PREP MEAS NOUN
-1.450249	PREP MEAS PREP
-1.246129	PREP MEAS PUNCT
-0.7535038	PRON MEAS </s>
-2.312812	PRON MEAS ADJ
-1.960629	PRON MEAS ADV
-2.613842	PRON MEAS CONJ
-2.215902	PRON MEAS DET
-2.069774	PRON MEAS DIG
-2.613842	PRON MEAS INTERJ
-2.613842	PRON MEAS NADJ
-0.4421154	PRON MEAS NOUN
-1.136721	PRON MEAS PREP
-2.215902	PRON MEAS PRON
-0.5151981	PRON MEAS PUNCT
-1.409722	PRON MEAS VERB
-1.688265	PUNCT MEAS </s>
-2.540267	PUNCT MEAS ADJ
-0.6043887	PUNCT MEAS DIG
-2.447933	PUNCT MEAS NADJ
-0.175511	PUNCT MEAS NOUN
-2.150884	PUNCT MEAS PRON
-1.40654	PUNCT MEAS PUNCT
-2.09575	PUNCT MEAS VERB
-0.2527253	QUANT MEAS </s>
-1.021753	QUANT MEAS ADV
-0.6863809	QUANT MEAS NOUN
-0.620918	VERB MEAS </s>
-2.149835	VERB MEAS ADJ
-1.949696	VERB MEAS ADV
-2.339078	VERB MEAS CONJ
-0.4305034	VERB MEAS DIG
-2.339078	VERB MEAS NADJ
-0.5083606	VERB MEAS NOUN
-2.246745	VERB MEAS PREP
-2.547775	VERB MEAS PRON
-1.506382	VERB MEAS PUNCT
-2.003707	VERB MEAS VERB
-1.220386	<s> NADJ </s>
-2.396242	<s> NADJ ADJ
-2.083026	<s> NADJ ADV
-3.406966	<s> NADJ AUX
-2.135899	<s> NADJ CONJ
-2.083026	<s> NADJ DET
-2.469114	<s> NADJ DIG
-2.787177	<s> NADJ INTERJ
-1.980997	<s> NADJ MEAS
-1.753753	<s> NADJ NADJ
-0.6122454	<s> NADJ NOUN
-3.009026	<s> NADJ NUM
-1.709446	<s> NADJ PREP
-1.669906	<s> NADJ PRON
-0.2524911	<s> NADJ PUNCT
-2.494921	<s> NADJ QUANT
-1.522831	<s> NADJ VERB
-1.164132	ADJ NADJ </s>
-2.127518	ADJ NADJ ADJ
-1.64428	ADJ NADJ ADV
-2.419405	ADJ NADJ AUX
-1.59279	ADJ NADJ CONJ
-2.186832	ADJ NADJ DET
-2.384643	ADJ NADJ DIG
-3.100646	ADJ NADJ INTERJ
-1.355571	ADJ NADJ NADJ
-0.4015025	ADJ NADJ NOUN
-2.900507	ADJ NADJ NUM
-0.9228212	ADJ NADJ PREP
-1.850226	ADJ NADJ PRON
-0.5839787	ADJ NADJ PUNCT
-2.720435	ADJ NADJ QUANT
-1.650397	ADJ NADJ VERB
-0.8961938	ADV NADJ </s>
-2.056133	ADV NADJ ADJ
-1.639968	ADV NADJ ADV
-2.565439	ADV NADJ AUX
-1.457968	ADV NADJ CONJ
-1.63602	ADV NADJ DET
-2.658193	ADV NADJ DIG
-2.600201	ADV NADJ INTERJ
-3.470686	ADV NADJ MEAS
-1.652033	ADV NADJ NADJ
-0.6673893	ADV NADJ NOUN
-2.701659	ADV NADJ NUM
-0.921607	ADV NADJ PREP
-1.401773	ADV NADJ PRON
-0.5776354	ADV NADJ PUNCT
-2.077322	ADV NADJ QUANT
-0.9834632	ADV NADJ VERB
-1.116026	AUX NADJ </s>
-1.922206	AUX NADJ ADJ
-1.776078	AUX NADJ ADV
-1.342423	AUX NADJ CONJ
-0.8287846	AUX NADJ DET
-2.019116	AUX NADJ DIG
-1.718086	AUX NADJ NADJ
-0.7235492	AUX NADJ NOUN
-0.8016323	AUX NADJ PREP
-0.8016323	AUX NADJ PRON
-1.579784	AUX NADJ PUNCT
-1.507233	AUX NADJ QUANT
-0.9679638	AUX NADJ VERB
-1.425307	CONJ NADJ </s>
-2.009294	CONJ NADJ ADJ
-2.038583	CONJ NADJ ADV
-1.916177	CONJ NADJ AUX
-1.87966	CONJ NADJ CONJ
-2.038583	CONJ NADJ DET
-2.650862	CONJ NADJ DIG
-3.463355	CONJ NADJ INTERJ
-1.876172	CONJ NADJ NADJ
-0.1914699	CONJ NADJ NOUN
-2.8939	CONJ NADJ NUM
-1.097442	CONJ NADJ PREP
-1.935655	CONJ NADJ PRON
-1.047254	CONJ NADJ PUNCT
-2.048802	CONJ NADJ QUANT
-1.235094	CONJ NADJ VERB
-1.63158	DET NADJ </s>
-2.055242	DET NADJ ADJ
-2.147576	DET NADJ ADV
-2.641403	DET NADJ AUX
-1.876704	DET NADJ CONJ
-2.800788	DET NADJ DET
-2.045777	DET NADJ DIG
-3.980996	DET NADJ INTERJ
-4.316368	DET NADJ MEAS
-1.530088	DET NADJ NADJ
-0.1319192	DET NADJ NOUN
-2.202845	DET NADJ NUM
-1.086601	DET NADJ PREP
-1.731623	DET NADJ PRON
-1.478569	DET NADJ PUNCT
-2.804905	DET NADJ QUANT
-1.596412	DET NADJ VERB
-1.316505	DIG NADJ </s>
-2.459804	DIG NADJ ADJ
-2.598106	DIG NADJ ADV
-1.877947	DIG NADJ CONJ
-2.158774	DIG NADJ DET
-1.982682	DIG NADJ DIG
-3.200166	DIG NADJ INTERJ
-3.200166	DIG NADJ MEAS
-1.582118	DIG NADJ NADJ
-0.1507544	DIG NADJ NOUN
-1.681652	DIG NADJ PREP
-2.355068	DIG NADJ PRON
-0.855774	DIG NADJ PUNCT
-2.802226	DIG NADJ QUANT
-1.838438	DIG NADJ VERB
-0.9675205	INTERJ NADJ </s>
-2.498999	INTERJ NADJ ADJ
-2.197969	INTERJ NADJ ADV
-2.101059	INTERJ NADJ AUX
-2.101059	INTERJ NADJ CONJ
-1.544757	INTERJ NADJ DET
-2.101059	INTERJ NADJ INTERJ
-0.8969394	INTERJ NADJ NADJ
-0.6633088	INTERJ NADJ NOUN
-1.845787	INTERJ NADJ PREP
-0.9739546	INTERJ NADJ PRON
-0.6181858	INTERJ NADJ PUNCT
-1.800029	INTERJ NADJ QUANT
-0.9739546	INTERJ NADJ VERB
-0.6067551	MEAS NADJ </s>
-1.458757	MEAS NADJ CONJ
-1.667453	MEAS NADJ DET
-1.667453	MEAS NADJ MEAS
-1.01424	MEAS NADJ NADJ
-0.506085	MEAS NADJ NOUN
-1.366423	MEAS NADJ PREP
-0.7923917	MEAS NADJ PUNCT
-1.366423	MEAS NADJ VERB
-0.8810876	NADJ NADJ </s>
-1.999583	NADJ NADJ ADJ
-1.762536	NADJ NADJ ADV
-2.371545	NADJ NADJ AUX
-1.251183	NADJ NADJ CONJ
-1.632457	NADJ NADJ DET
-1.82548	NADJ NADJ DIG
-2.908664	NADJ NADJ INTERJ
-1.139451	NADJ NADJ NADJ
-0.437535	NADJ NADJ NOUN
-2.400508	NADJ NADJ NUM
-1.159615	NADJ NADJ PREP
-1.692644	NADJ NADJ PRON
-0.8290805	NADJ NADJ PUNCT
-2.331427	NADJ NADJ QUANT
-1.24277	NADJ NADJ VERB
-0.9830253	NOUN NADJ </s>
-1.986055	NOUN NADJ ADJ
-1.9241	NOUN NADJ ADV
-2.295859	NOUN NADJ AUX
-1.347898	NOUN NADJ CONJ
-1.926618	NOUN NADJ DET
-1.718101	NOUN NADJ DIG
-2.971814	NOUN NADJ INTERJ
-3.383995	NOUN NADJ MEAS
-1.436234	NOUN NADJ NADJ
-0.4463933	NOUN NADJ NOUN
-3.065236	NOUN NADJ NUM
-3.140957	NOUN NADJ PART
-0.9840328	NOUN NADJ PREP
-1.768571	NOUN NADJ PRON
-0.6781311	NOUN NADJ PUNCT
-2.508934	NOUN NADJ QUANT
-1.210081	NOUN NADJ VERB
-0.9607368	NUM NADJ </s>
-1.828499	NUM NADJ ADJ
-1.886491	NUM NADJ ADV
-2.221862	NUM NADJ AUX
-1.527469	NUM NADJ CONJ
-2.221862	NUM NADJ DET
-1.828499	NUM NADJ NADJ
-0.2210438	NUM NADJ NOUN
-2.032619	NUM NADJ NUM
-1.316615	NUM NADJ PREP
-1.83248	NUM NADJ PRON
-1.129529	NUM NADJ PUNCT
-1.240227	NUM NADJ VERB
-3.031158	PART NADJ </s>
-3.840343	PART NADJ ADV
-4.493556	PART NADJ AUX
-4.095616	PART NADJ CONJ
-3.753193	PART NADJ NADJ
-0.001158473	PART NADJ NOUN
-3.263107	PART NADJ PREP
-4.192526	PART NADJ PRON
-3.472366	PART NADJ PUNCT
-4.192526	PART NADJ QUANT
-3.564137	PART NADJ VERB
-1.137645	PREP NADJ </s>
-1.854046	PREP NADJ ADJ
-1.847885	PREP NADJ ADV
-2.574205	PREP NADJ AUX
-1.383873	PREP NADJ CONJ
-1.663047	PREP NADJ DET
-2.079355	PREP NADJ DIG
-3.273175	PREP NADJ INTERJ
-3.875235	PREP NADJ MEAS
-1.18063	PREP NADJ NADJ
-0.2501799	PREP NADJ NOUN
-2.657751	PREP NADJ NUM
-1.333656	PREP NADJ PREP
-1.643511	PREP NADJ PRON
-1.015796	PREP NADJ PUNCT
-2.563481	PREP NADJ QUANT
-1.590804	PREP NADJ VERB
-1.124385	PRON NADJ </s>
-2.042882	PRON NADJ ADJ
-1.914339	PRON NADJ ADV
-2.534726	PRON NADJ AUX
-1.607958	PRON NADJ CONJ
-2.052641	PRON NADJ DET
-2.599184	PRON NADJ DIG
-3.098015	PRON NADJ INTERJ
-1.531741	PRON NADJ NADJ
-0.2979805	PRON NADJ NOUN
-2.417341	PRON NADJ NUM
-1.062121	PRON NADJ PREP
-1.704868	PRON NADJ PRON
-0.7780638	PRON NADJ PUNCT
-3.098015	PRON NADJ QUANT
-1.273669	PRON NADJ VERB
-0.8658808	PUNCT NADJ </s>
-1.705165	PUNCT NADJ ADJ
-2.123259	PUNCT NADJ ADV
-2.139859	PUNCT NADJ AUX
-1.601468	PUNCT NADJ CONJ
-2.579191	PUNCT NADJ DET
-2.49487	PUNCT NADJ DIG
-3.327379	PUNCT NADJ INTERJ
-2.377989	PUNCT NADJ MEAS
-1.79718	PUNCT NADJ NADJ
-0.2479087	PUNCT NADJ NOUN
-3.424289	PUNCT NADJ NUM
-1.554325	PUNCT NADJ PREP
-1.992926	PUNCT NADJ PRON
-1.016686	PUNCT NADJ PUNCT
-2.429752	PUNCT NADJ QUANT
-1.128722	PUNCT NADJ VERB
-1.352909	QUANT NADJ </s>
-2.15304	QUANT NADJ ADJ
-1.929769	QUANT NADJ ADV
-2.683097	QUANT NADJ AUX
-1.523396	QUANT NADJ CONJ
-2.54043	QUANT NADJ DET
-2.984127	QUANT NADJ DIG
-1.862823	QUANT NADJ NADJ
-0.1749416	QUANT NADJ NOUN
-2.896977	QUANT NADJ NUM
-1.166782	QUANT NADJ PREP
-1.84146	QUANT NADJ PRON
-0.9802837	QUANT NADJ PUNCT
-2.73425	QUANT NADJ QUANT
-1.547434	QUANT NADJ VERB
-1.12708	VERB NADJ </s>
-1.934512	VERB NADJ ADJ
-1.309468	VERB NADJ ADV
-2.71503	VERB NADJ AUX
-0.8393049	VERB NADJ CONJ
-1.841395	VERB NADJ DET
-1.245329	VERB NADJ DIG
-2.909295	VERB NADJ INTERJ
-4.19933	VERB NADJ MEAS
-1.703092	VERB NADJ NADJ
-0.6015251	VERB NADJ NOUN
-2.909295	VERB NADJ NUM
-3.386417	VERB NADJ PART
-0.8914063	VERB NADJ PREP
-1.659001	VERB NADJ PRON
-0.7872897	VERB NADJ PUNCT
-2.210325	VERB NADJ QUANT
-1.267872	VERB NADJ VERB
-1.131655	<s> NOUN </s>
-2.166512	<s> NOUN ADJ
-1.616072	<s> NOUN ADV
-2.219208	<s> NOUN AUX
-1.7017	<s> NOUN CONJ
-2.234389	<s> NOUN DET
-1.219341	<s> NOUN DIG
-3.069308	<s> NOUN INTERJ
-2.444385	<s> NOUN MEAS
-1.852322	<s> NOUN NADJ
-0.6421554	<s> NOUN NOUN
-3.055446	<s> NOUN NUM
-2.699992	<s> NOUN PART
-0.6276171	<s> NOUN PREP
-1.637944	<s> NOUN PRON
-0.7001523	<s> NOUN PUNCT
-2.163293	<s> NOUN QUANT
-1.052275	<s> NOUN VERB
-1.205666	ADJ NOUN </s>
-2.218125	ADJ NOUN ADJ
-1.72261	ADJ NOUN ADV
-1.832398	ADJ NOUN AUX
-1.343377	ADJ NOUN CONJ
-2.499535	ADJ NOUN DET
-2.30324	ADJ NOUN DIG
-3.212609	ADJ NOUN INTERJ
-3.994997	ADJ NOUN MEAS
-2.286927	ADJ NOUN NADJ
-0.8561562	ADJ NOUN NOUN
-3.338956	ADJ NOUN NUM
-0.6055602	ADJ NOUN PART
-0.9255687	ADJ NOUN PREP
-1.577477	ADJ NOUN PRON
-0.5952219	ADJ NOUN PUNCT
-2.975026	ADJ NOUN QUANT
-1.294599	ADJ NOUN VERB
-1.054846	ADV NOUN </s>
-1.792982	ADV NOUN ADJ
-1.150456	ADV NOUN ADV
-1.809582	ADV NOUN AUX
-1.130815	ADV NOUN CONJ
-1.655668	ADV NOUN DET
-2.315861	ADV NOUN DIG
-2.900192	ADV NOUN INTERJ
-3.696072	ADV NOUN MEAS
-1.95374	ADV NOUN NADJ
-0.8107111	ADV NOUN NOUN
-2.917921	ADV NOUN NUM
-2.411642	ADV NOUN PART
-0.8871864	ADV NOUN PREP
-1.30735	ADV NOUN PRON
-0.7371503	ADV NOUN PUNCT
-2.285295	ADV NOUN QUANT
-0.772181	ADV NOUN VERB
-1.196295	AUX NOUN </s>
-2.017912	AUX NOUN ADJ
-1.073949	AUX NOUN ADV
-2.786939	AUX NOUN AUX
-1.477121	AUX NOUN CONJ
-1.382851	AUX NOUN DET
-2.451567	AUX NOUN DIG
-1.934937	AUX NOUN NADJ
-0.400139	AUX NOUN NOUN
-1.199755	AUX NOUN PREP
-1.23976	AUX NOUN PRON
-1.332877	AUX NOUN PUNCT
-1.881692	AUX NOUN QUANT
-0.7651863	AUX NOUN VERB
-1.106203	CONJ NOUN </s>
-2.045812	CONJ NOUN ADJ
-1.243527	CONJ NOUN ADV
-1.771571	CONJ NOUN AUX
-1.45674	CONJ NOUN CONJ
-2.096771	CONJ NOUN DET
-2.324178	CONJ NOUN DIG
-3.714818	CONJ NOUN INTERJ
-4.284274	CONJ NOUN MEAS
-1.674084	CONJ NOUN NADJ
-0.6160595	CONJ NOUN NOUN
-3.150547	CONJ NOUN NUM
-2.533928	CONJ NOUN PART
-0.9508293	CONJ NOUN PREP
-1.718453	CONJ NOUN PRON
-0.7032481	CONJ NOUN PUNCT
-2.475936	CONJ NOUN QUANT
-0.718088	CONJ NOUN VERB
-1.300731	DET NOUN </s>
-2.128534	DET NOUN ADJ
-1.313973	DET NOUN ADV
-1.718409	DET NOUN AUX
-1.207083	DET NOUN CONJ
-2.354167	DET NOUN DET
-2.000906	DET NOUN DIG
-3.458922	DET NOUN INTERJ
-4.077795	DET NOUN MEAS
-1.859896	DET NOUN NADJ
-0.5684901	DET NOUN NOUN
-2.759402	DET NOUN NUM
-1.928982	DET NOUN PART
-0.791652	DET NOUN PREP
-1.360782	DET NOUN PRON
-0.8011641	DET NOUN PUNCT
-2.876542	DET NOUN QUANT
-0.8664287	DET NOUN VERB
-0.654738	DIG NOUN </s>
-1.640517	DIG NOUN ADJ
-1.438955	DIG NOUN ADV
-2.558431	DIG NOUN AUX
-1.314933	DIG NOUN CONJ
-1.237554	DIG NOUN DET
-1.638578	DIG NOUN DIG
-3.269635	DIG NOUN INTERJ
-2.313101	DIG NOUN MEAS
-1.478245	DIG NOUN NADJ
-0.7049692	DIG NOUN NOUN
-3.477911	DIG NOUN NUM
-3.176881	DIG NOUN PART
-1.025299	DIG NOUN PREP
-2.017823	DIG NOUN PRON
-0.6781996	DIG NOUN PUNCT
-2.77231	DIG NOUN QUANT
-1.457359	DIG NOUN VERB
-1.530103	INTERJ NOUN </s>
-2.41553	INTERJ NOUN ADJ
-1.944749	INTERJ NOUN ADV
-2.490951	INTERJ NOUN AUX
-2.975625	INTERJ NOUN CONJ
-2.23319	INTERJ NOUN DET
-3.140435	INTERJ NOUN DIG
-3.02393	INTERJ NOUN INTERJ
-2.245779	INTERJ NOUN NADJ
-0.3510175	INTERJ NOUN NOUN
-3.555409	INTERJ NOUN NUM
-2.209056	INTERJ NOUN PREP
-0.995263	INTERJ NOUN PRON
-0.4546938	INTERJ NOUN PUNCT
-2.205161	INTERJ NOUN QUANT
-1.563297	INTERJ NOUN VERB
-0.4587875	MEAS NOUN </s>
-2.705778	MEAS NOUN ADJ
-2.501658	MEAS NOUN ADV
-2.751536	MEAS NOUN AUX
-2.664386	MEAS NOUN CONJ
-3.006808	MEAS NOUN DET
-2.34405	MEAS NOUN DIG
-3.404748	MEAS NOUN INTERJ
-0.5868524	MEAS NOUN MEAS
-2.501658	MEAS NOUN NADJ
-1.562763	MEAS NOUN NOUN
-2.404748	MEAS NOUN PART
-2.174299	MEAS NOUN PREP
-2.705778	MEAS NOUN PRON
-0.5148865	MEAS NOUN PUNCT
-1.529687	MEAS NOUN VERB
-1.260945	NADJ NOUN </s>
-2.478343	NADJ NOUN ADJ
-1.645024	NADJ NOUN ADV
-2.349531	NADJ NOUN AUX
-1.46869	NADJ NOUN CONJ
-2.400815	NADJ NOUN DET
-2.280188	NADJ NOUN DIG
-3.054324	NADJ NOUN INTERJ
-3.48836	NADJ NOUN MEAS
-2.109055	NADJ NOUN NADJ
-0.3293298	NADJ NOUN NOUN
-3.534118	NADJ NOUN NUM
-3.217294	NADJ NOUN PART
-0.913654	NADJ NOUN PREP
-1.677232	NADJ NOUN PRON
-0.6722074	NADJ NOUN PUNCT
-2.996999	NADJ NOUN QUANT
-1.438561	NADJ NOUN VERB
-1.060729	NOUN NOUN </s>
-2.062539	NOUN NOUN ADJ
-1.684567	NOUN NOUN ADV
-2.142872	NOUN NOUN AUX
-1.227309	NOUN NOUN CONJ
-2.622234	NOUN NOUN DET
-1.415374	NOUN NOUN DIG
-3.348698	NOUN NOUN INTERJ
-3.463497	NOUN NOUN MEAS
-1.929601	NOUN NOUN NADJ
-0.6985244	NOUN NOUN NOUN
-3.233704	NOUN NOUN NUM
-2.165372	NOUN NOUN PART
-1.083676	NOUN NOUN PREP
-1.749555	NOUN NOUN PRON
-0.4211397	NOUN NOUN PUNCT
-2.815012	NOUN NOUN QUANT
-1.123328	NOUN NOUN VERB
-1.183401	NUM NOUN </s>
-2.186968	NUM NOUN ADJ
-1.150076	NUM NOUN ADV
-1.901898	NUM NOUN AUX
-1.139512	NUM NOUN CONJ
-2.021451	NUM NOUN DET
-2.605538	NUM NOUN DIG
-3.059796	NUM NOUN INTERJ
-2.069936	NUM NOUN NADJ
-1.191921	NUM NOUN NOUN
-2.851521	NUM NOUN NUM
-2.742376	NUM NOUN PART
-0.5085341	NUM NOUN PREP
-0.945853	NUM NOUN PRON
-0.7303203	NUM NOUN PUNCT
-2.894986	NUM NOUN QUANT
-1.139914	NUM NOUN VERB
-1.557147	PART NOUN </s>
-2.775323	PART NOUN ADJ
-1.757411	PART NOUN ADV
-2.095035	PART NOUN AUX
-0.7838637	PART NOUN CONJ
-2.940133	PART NOUN DET
-2.711654	PART NOUN DIG
-3.753047	PART NOUN INTERJ
-1.610032	PART NOUN NADJ
-0.7629298	PART NOUN NOUN
-3.150987	PART NOUN NUM
-2.823628	PART NOUN PART
-1.165897	PART NOUN PREP
-2.241163	PART NOUN PRON
-0.3673509	PART NOUN PUNCT
-3.54435	PART NOUN QUANT
-1.128249	PART NOUN VERB
-1.1976	PREP NOUN </s>
-2.339092	PREP NOUN ADJ
-1.585472	PREP NOUN ADV
-2.256687	PREP NOUN AUX
-1.263461	PREP NOUN CONJ
-2.139852	PREP NOUN DET
-1.926591	PREP NOUN DIG
-3.358479	PREP NOUN INTERJ
-4.623297	PREP NOUN MEAS
-2.126921	PREP NOUN NADJ
-0.8396934	PREP NOUN NOUN
-3.215057	PREP NOUN NUM
-1.200477	PREP NOUN PART
-1.013852	PREP NOUN PREP
-1.595051	PREP NOUN PRON
-0.3552059	PREP NOUN PUNCT
-2.881358	PREP NOUN QUANT
-1.340086	PREP NOUN VERB
-1.384212	PRON NOUN </s>
-2.604579	PRON NOUN ADJ
-1.685967	PRON NOUN ADV
-2.007492	PRON NOUN AUX
-1.51422	PRON NOUN CONJ
-2.366856	PRON NOUN DET
-2.700415	PRON NOUN DIG
-3.143517	PRON NOUN INTERJ
-4.161742	PRON NOUN MEAS
-2.323793	PRON NOUN NADJ
-0.9342228	PRON NOUN NOUN
-3.303549	PRON NOUN NUM
-2.395117	PRON NOUN PART
-1.229232	PRON NOUN PREP
-1.875061	PRON NOUN PRON
-0.4316351	PRON NOUN PUNCT
-2.477924	PRON NOUN QUANT
-0.4993555	PRON NOUN VERB
-1.269573	PUNCT NOUN </s>
-2.044326	PUNCT NOUN ADJ
-1.799971	PUNCT NOUN ADV
-1.861248	PUNCT NOUN AUX
-1.336824	PUNCT NOUN CONJ
-2.687	PUNCT NOUN DET
-1.555599	PUNCT NOUN DIG
-3.374411	PUNCT NOUN INTERJ
-2.97735	PUNCT NOUN MEAS
-1.986411	PUNCT NOUN NADJ
-0.7489326	PUNCT NOUN NOUN
-3.557133	PUNCT NOUN NUM
-2.29523	PUNCT NOUN PART
-0.6017563	PUNCT NOUN PREP
-2.385969	PUNCT NOUN PRON
-0.6490278	PUNCT NOUN PUNCT
-2.900224	PUNCT NOUN QUANT
-0.8059015	PUNCT NOUN VERB
-1.003793	QUANT NOUN </s>
-1.856406	QUANT NOUN ADJ
-1.421129	QUANT NOUN ADV
-2.070385	QUANT NOUN AUX
-1.049364	QUANT NOUN CONJ
-2.224022	QUANT NOUN DET
-3.020218	QUANT NOUN DIG
-2.879767	QUANT NOUN INTERJ
-4.158521	QUANT NOUN MEAS
-2.092195	QUANT NOUN NADJ
-0.9316632	QUANT NOUN NOUN
-3.345608	QUANT NOUN NUM
-2.921732	QUANT NOUN PART
-0.6683515	QUANT NOUN PREP
-1.020534	QUANT NOUN PRON
-0.6661795	QUANT NOUN PUNCT
-1.987526	QUANT NOUN QUANT
-1.095845	QUANT NOUN VERB
-1.282182	VERB NOUN </s>
-1.992543	VERB NOUN ADJ
-1.394293	VERB NOUN ADV
-2.551937	VERB NOUN AUX
-1.148398	VERB NOUN CONJ
-2.092104	VERB NOUN DET
-2.125135	VERB NOUN DIG
-3.423676	VERB NOUN INTERJ
-4.013502	VERB NOUN MEAS
-1.978072	VERB NOUN NADJ
-0.7773007	VERB NOUN NOUN
-3.251741	VERB NOUN NUM
-1.36341	VERB NOUN PART
-0.821632	VERB NOUN PREP
-1.78419	VERB NOUN PRON
-0.4345	VERB NOUN PUNCT
-2.62631	VERB NOUN QUANT
-1.31275	VERB NOUN VERB
-1.930391	<s> NUM </s>
-1.54504	<s> NUM ADJ
-2.138667	<s> NUM ADV
-2.55364	<s> NUM AUX
-2.173429	<s> NUM CONJ
-2.55364	<s> NUM DET
-1.973857	<s> NUM DIG
-1.460219	<s> NUM MEAS
-1.284127	<s> NUM NADJ
-0.2116126	<s> NUM NOUN
-2.173429	<s> NUM NUM
-1.051213	<s> NUM PREP
-1.562414	<s> NUM PRON
-1.420101	<s> NUM PUNCT
-2.55364	<s> NUM QUANT
-1.191913	<s> NUM VERB
-0.7325091	ADJ NUM </s>
-1.835691	ADJ NUM ADJ
-1.487917	ADJ NUM ADV
-2.275023	ADJ NUM AUX
-1.345604	ADJ NUM CONJ
-2.877083	ADJ NUM DET
-2.002022	ADJ NUM DIG
-2.333015	ADJ NUM INTERJ
-2.877083	ADJ NUM MEAS
-2.178113	ADJ NUM NADJ
-0.9476643	ADJ NUM NOUN
-2.877083	ADJ NUM PART
-0.952804	ADJ NUM PREP
-1.13279	ADJ NUM PRON
-0.4870318	ADJ NUM PUNCT
-1.173792	ADJ NUM VERB
-1.656646	ADV NUM </s>
-1.67244	ADV NUM ADJ
-1.957676	ADV NUM ADV
-2.594077	ADV NUM AUX
-1.626683	ADV NUM CONJ
-2.204695	ADV NUM DET
-2.501744	ADV NUM DIG
-1.49102	ADV NUM MEAS
-1.480554	ADV NUM NADJ
-0.2416723	ADV NUM NOUN
-2.404834	ADV NUM NUM
-1.046899	ADV NUM PREP
-1.228742	ADV NUM PRON
-1.12608	ADV NUM PUNCT
-2.594077	ADV NUM QUANT
-1.3878	ADV NUM VERB
-0.3424227	AUX NUM NOUN
-0.5316663	AUX NUM VERB
-1.473425	CONJ NUM </s>
-1.797119	CONJ NUM ADJ
-1.431364	CONJ NUM ADV
-2.040157	CONJ NUM AUX
-1.511883	CONJ NUM CONJ
-2.734551	CONJ NUM DET
-2.345168	CONJ NUM DIG
-2.642217	CONJ NUM INTERJ
-2.130334	CONJ NUM NADJ
-0.2526081	CONJ NUM NOUN
-2.642217	CONJ NUM NUM
-2.734551	CONJ NUM PART
-1.018968	CONJ NUM PREP
-1.591065	CONJ NUM PRON
-0.9890046	CONJ NUM PUNCT
-2.734551	CONJ NUM QUANT
-1.165096	CONJ NUM VERB
-1.500066	DET NUM </s>
-1.652443	DET NUM ADJ
-1.819194	DET NUM ADV
-2.377348	DET NUM AUX
-1.551772	DET NUM CONJ
-2.838079	DET NUM DET
-1.348277	DET NUM DIG
-2.394382	DET NUM MEAS
-1.883837	DET NUM NADJ
-0.2281292	DET NUM NOUN
-1.580134	DET NUM NUM
-3.282595	DET NUM PART
-1.36744	DET NUM PREP
-1.120224	DET NUM PRON
-1.284466	DET NUM PUNCT
-2.329924	DET NUM QUANT
-1.380702	DET NUM VERB
-0.9479023	DIG NUM </s>
-1.10551	DIG NUM ADJ
-2.0086	DIG NUM ADV
-1.355388	DIG NUM CONJ
-2.0086	DIG NUM DIG
-1.70757	DIG NUM NADJ
-0.5243003	DIG NUM NOUN
-1.079181	DIG NUM PREP
-1.799904	DIG NUM PRON
-0.6863809	DIG NUM PUNCT
-0.9479023	DIG NUM VERB
-0.09691001	INTERJ NUM NOUN
-0.1760913	MEAS NUM </s>
-0.8318698	NADJ NUM </s>
-2.322143	NADJ NUM ADJ
-1.489447	NADJ NUM ADV
-2.322143	NADJ NUM AUX
-1.384712	NADJ NUM CONJ
-2.322143	NADJ NUM DET
-1.240805	NADJ NUM DIG
-1.932761	NADJ NUM INTERJ
-1.92878	NADJ NUM MEAS
-1.986772	NADJ NUM NADJ
-0.5838965	NADJ NUM NOUN
-2.22981	NADJ NUM NUM
-0.9568085	NADJ NUM PREP
-1.354748	NADJ NUM PRON
-0.6919907	NADJ NUM PUNCT
-2.322143	NADJ NUM QUANT
-1.354748	NADJ NUM VERB
-1.052467	NOUN NUM </s>
-1.996949	NOUN NUM ADJ
-1.549791	NOUN NUM ADV
-2.218798	NOUN NUM AUX
-0.9035276	NOUN NUM CONJ
-2.39887	NOUN NUM DET
-0.8666155	NOUN NUM DIG
-2.788253	NOUN NUM INTERJ
-1.664511	NOUN NUM MEAS
-1.917768	NOUN NUM NADJ
-0.7768412	NOUN NUM NOUN
-2.996949	NOUN NUM NUM
-1.06753	NOUN NUM PREP
-1.565585	NOUN NUM PRON
-0.6095594	NOUN NUM PUNCT
-2.695919	NOUN NUM QUANT
-1.422918	NOUN NUM VERB
-0.9542425	NUM NUM </s>
-1.732394	NUM NUM ADJ
-1.293061	NUM NUM ADV
-1.334454	NUM NUM CONJ
-2.033424	NUM NUM NADJ
-0.8159398	NUM NUM NOUN
-2.033424	NUM NUM NUM
-1.079181	NUM NUM PREP
-1.079181	NUM NUM PRON
-0.90309	NUM NUM PUNCT
-0.5215404	NUM NUM VERB
-0.7403627	PART NUM CONJ
-0.1663314	PART NUM NOUN
-1.740363	PART NUM PREP
-1.138303	PART NUM PUNCT
-1.531666	PART NUM VERB
-1.828561	PREP NUM </s>
-1.817565	PREP NUM ADJ
-2.322715	PREP NUM ADV
-3.118595	PREP NUM AUX
-1.781136	PREP NUM CONJ
-2.821546	PREP NUM DET
-2.606712	PREP NUM DIG
-2.574527	PREP NUM MEAS
-1.863323	PREP NUM NADJ
-0.1050209	PREP NUM NOUN
-2.875557	PREP NUM NUM
-1.119682	PREP NUM PREP
-1.786157	PREP NUM PRON
-1.402592	PREP NUM PUNCT
-2.817565	PREP NUM QUANT
-2.118595	PREP NUM VERB
-1.907718	PRON NUM </s>
-2.115994	PRON NUM ADJ
-2.150756	PRON NUM ADV
-0.9511841	PRON NUM CONJ
-1.814964	PRON NUM DIG
-1.907718	PRON NUM MEAS
-1.56718	PRON NUM NADJ
-0.1347683	PRON NUM NOUN
-2.38484	PRON NUM NUM
-1.360706	PRON NUM PREP
-2.627878	PRON NUM PRON
-1.798574	PRON NUM PUNCT
-2.928908	PRON NUM QUANT
-2.275695	PRON NUM VERB
-2.461648	PUNCT NUM </s>
-1.762679	PUNCT NUM ADJ
-2.022316	PUNCT NUM ADV
-0.8132886	PUNCT NUM CONJ
-2.553982	PUNCT NUM DET
-2.063709	PUNCT NUM DIG
-1.784955	PUNCT NUM MEAS
-1.859589	PUNCT NUM NADJ
-0.3241362	PUNCT NUM NOUN
-2.461648	PUNCT NUM NUM
-1.090581	PUNCT NUM PREP
-1.572347	PUNCT NUM PRON
-1.292857	PUNCT NUM PUNCT
-2.762679	PUNCT NUM QUANT
-0.8678089	PUNCT NUM VERB
-1.575366	QUANT NUM </s>
-1.7902	QUANT NUM ADJ
-1.184159	QUANT NUM ADV
-2.179583	QUANT NUM AUX
-1.513218	QUANT NUM CONJ
-2.179583	QUANT NUM NADJ
-0.4037516	QUANT NUM NOUN
-0.7350664	QUANT NUM PREP
-1.388279	QUANT NUM PRON
-1.133006	QUANT NUM PUNCT
-0.8142476	QUANT NUM VERB
-1.567542	VERB NUM </s>
-1.439564	VERB NUM ADJ
-1.560283	VERB NUM ADV
-3.118992	VERB NUM AUX
-1.697388	VERB NUM CONJ
-2.613842	VERB NUM DET
-2.914872	VERB NUM DIG
-2.918853	VERB NUM INTERJ
-2.972864	VERB NUM MEAS
-1.731602	VERB NUM NADJ
-0.6521242	VERB NUM NOUN
-3.118992	VERB NUM NUM
-0.2827943	VERB NUM PREP
-1.630441	VERB NUM PRON
-1.154261	VERB NUM PUNCT
-2.562689	VERB NUM QUANT
-1.6477	VERB NUM VERB
-0.1760913	<s> PART NOUN
-0.845098	ADJ PART DIG
-0.845098	ADJ PART NADJ
-0.247019	ADJ PART NOUN
-0.845098	ADJ PART PUNCT
-1.472574	ADV PART </s>
-1.15818	ADV PART ADJ
-2.166967	ADV PART CONJ
-1.773604	ADV PART DIG
-1.530566	ADV PART NADJ
-0.9363309	ADV PART NOUN
-1.676694	ADV PART NUM
-0.7176522	ADV PART PREP
-2.074634	ADV PART PUNCT
-0.3001167	ADV PART QUANT
-2.375664	ADV PART VERB
-0.20412	DET PART ADJ
-0.60206	DET PART NADJ
-1.190332	DIG PART </s>
-1.287242	DIG PART ADJ
-1.212608	DIG PART ADV
-1.190332	DIG PART CONJ
-1.588272	DIG PART DIG
-1.792392	DIG PART NADJ
-0.4194797	DIG PART NOUN
-1.076388	DIG PART PREP
-0.8011656	DIG PART PUNCT
-1.076388	DIG PART VERB
-1.230449	NADJ PART ADJ
-0.06908092	NADJ PART NOUN
-2.386005	NOUN PART </s>
-2.623111	NOUN PART ADJ
-3.049889	NOUN PART ADV
-3.976855	NOUN PART AUX
-2.912176	NOUN PART CONJ
-3.875964	NOUN PART DET
-3.398842	NOUN PART DIG
-3.514236	NOUN PART MEAS
-0.08164295	NOUN PART NADJ
-0.8317376	NOUN PART NOUN
-2.875964	NOUN PART NUM
-2.669138	NOUN PART PREP
-3.344485	NOUN PART PRON
-2.192017	NOUN PART PUNCT
-3.921721	NOUN PART QUANT
-2.395957	NOUN PART VERB
-0.7781513	NUM PART CONJ
-0.7781513	NUM PART NOUN
-0.7781513	NUM PART PUNCT
-0.4807254	PREP PART PREP
-0.1851583	PREP PART PUNCT
-0.8704849	PRON PART </s>
-0.8704849	PRON PART ADJ
-1.079181	PRON PART NADJ
-0.20412	PRON PART NOUN
-0.09233363	QUANT PART CONJ
-1.40654	VERB PART </s>
-0.6661775	VERB PART NADJ
-0.3651475	VERB PART NOUN
-0.8084611	VERB PART PREP
-0.8084611	VERB PART PUNCT
-2.277525	<s> PREP </s>
-2.014699	<s> PREP ADJ
-1.50706	<s> PREP ADV
-3.954218	<s> PREP AUX
-2.40399	<s> PREP CONJ
-0.5011295	<s> PREP DET
-2.01972	<s> PREP DIG
-3.954218	<s> PREP INTERJ
-2.92281	<s> PREP MEAS
-2.077712	<s> PREP NADJ
-0.83488	<s> PREP NOUN
-2.551957	<s> PREP NUM
-2.400942	<s> PREP PREP
-1.141974	<s> PREP PRON
-0.8166269	<s> PREP PUNCT
-1.725049	<s> PREP QUANT
-0.6601381	<s> PREP VERB
-1.844632	ADJ PREP </s>
-2.311184	ADJ PREP ADJ
-1.234979	ADJ PREP ADV
-4.494454	ADJ PREP AUX
-2.523642	ADJ PREP CONJ
-0.9505098	ADJ PREP DET
-2.357733	ADJ PREP DIG
-4.285758	ADJ PREP INTERJ
-4.494454	ADJ PREP MEAS
-2.180587	ADJ PREP NADJ
-1.193858	ADJ PREP NOUN
-3.032056	ADJ PREP NUM
-2.409878	ADJ PREP PREP
-1.458424	ADJ PREP PRON
-2.17327	ADJ PREP PUNCT
-2.046521	ADJ PREP QUANT
-0.1693385	ADJ PREP VERB
-1.638299	ADV PREP </s>
-1.502727	ADV PREP ADJ
-1.704751	ADV PREP ADV
-4.280516	ADV PREP AUX
-1.907604	ADV PREP CONJ
-0.7405933	ADV PREP DET
-1.563678	ADV PREP DIG
-3.882576	ADV PREP INTERJ
-3.768632	ADV PREP MEAS
-1.839607	ADV PREP NADJ
-0.4866207	ADV PREP NOUN
-2.511508	ADV PREP NUM
-2.79979	ADV PREP PART
-2.305084	ADV PREP PREP
-0.995465	ADV PREP PRON
-1.948583	ADV PREP PUNCT
-1.756444	ADV PREP QUANT
-0.6496813	ADV PREP VERB
-1.850033	AUX PREP </s>
-1.645913	AUX PREP ADJ
-1.549003	AUX PREP ADV
-0.4997852	AUX PREP DET
-2.039277	AUX PREP DIG
-1.645913	AUX PREP NADJ
-0.9362194	AUX PREP NOUN
-1.151063	AUX PREP PRON
-1.168792	AUX PREP PUNCT
-1.13403	AUX PREP QUANT
-0.5947608	AUX PREP VERB
-1.558753	CONJ PREP </s>
-0.8531321	CONJ PREP ADJ
-1.662758	CONJ PREP ADV
-3.768268	CONJ PREP AUX
-2.40654	CONJ PREP CONJ
-0.7284575	CONJ PREP DET
-2.129779	CONJ PREP DIG
-3.768268	CONJ PREP INTERJ
-2.052265	CONJ PREP NADJ
-0.5926113	CONJ PREP NOUN
-2.637934	CONJ PREP NUM
-2.456514	CONJ PREP PREP
-1.084321	CONJ PREP PRON
-1.61598	CONJ PREP PUNCT
-0.7862231	CONJ PREP QUANT
-1.146054	CONJ PREP VERB
-1.793441	DET PREP </s>
-2.191381	DET PREP ADJ
-2.053078	DET PREP ADV
-2.140229	DET PREP CONJ
-0.3199542	DET PREP DET
-2.793441	DET PREP DIG
-2.01529	DET PREP NADJ
-0.5227623	DET PREP NOUN
-2.584745	DET PREP NUM
-2.195362	DET PREP PREP
-1.196844	DET PREP PRON
-1.309141	DET PREP PUNCT
-1.91838	DET PREP QUANT
-1.431713	DET PREP VERB
-1.543378	DIG PREP </s>
-2.066257	DIG PREP ADJ
-2.074375	DIG PREP ADV
-3.497621	DIG PREP AUX
-2.719469	DIG PREP CONJ
-0.7069837	DIG PREP DET
-1.200956	DIG PREP DIG
-1.357742	DIG PREP NADJ
-0.3261867	DIG PREP NOUN
-2.798651	DIG PREP NUM
-1.538579	DIG PREP PREP
-1.18165	DIG PREP PRON
-2.218867	DIG PREP PUNCT
-2.058288	DIG PREP QUANT
-1.18165	DIG PREP VERB
-1.694605	INTERJ PREP </s>
-1.393575	INTERJ PREP ADJ
-1.485909	INTERJ PREP ADV
-0.3328774	INTERJ PREP DET
-1.694605	INTERJ PREP DIG
-1.694605	INTERJ PREP NADJ
-0.8816918	INTERJ PREP NOUN
-1.092545	INTERJ PREP PRON
-1.393575	INTERJ PREP QUANT
-0.8495072	INTERJ PREP VERB
-1.333559	MEAS PREP </s>
-1.986772	MEAS PREP CONJ
-0.856438	MEAS PREP DET
-1.388693	MEAS PREP DIG
-0.8254037	MEAS PREP NADJ
-0.6157039	MEAS PREP NOUN
-1.778075	MEAS PREP PREP
-0.9867718	MEAS PREP PRON
-0.6157039	MEAS PREP VERB
-1.738226	NADJ PREP </s>
-1.652312	NADJ PREP ADJ
-1.728467	NADJ PREP ADV
-1.767573	NADJ PREP CONJ
-0.5554422	NADJ PREP DET
-1.722476	NADJ PREP DIG
-3.585799	NADJ PREP MEAS
-1.406822	NADJ PREP NADJ
-0.5557663	NADJ PREP NOUN
-2.45226	NADJ PREP NUM
-2.088869	NADJ PREP PREP
-0.9728034	NADJ PREP PRON
-1.899163	NADJ PREP PUNCT
-1.763631	NADJ PREP QUANT
-0.7938278	NADJ PREP VERB
-1.817529	NOUN PREP </s>
-0.8842552	NOUN PREP ADJ
-1.693257	NOUN PREP ADV
-3.741652	NOUN PREP AUX
-1.907115	NOUN PREP CONJ
-0.6969457	NOUN PREP DET
-1.793595	NOUN PREP DIG
-3.948412	NOUN PREP INTERJ
-3.948412	NOUN PREP MEAS
-1.726902	NOUN PREP NADJ
-0.5955142	NOUN PREP NOUN
-2.542911	NOUN PREP NUM
-2.250715	NOUN PREP PREP
-0.8785092	NOUN PREP PRON
-2.00598	NOUN PREP PUNCT
-1.789021	NOUN PREP QUANT
-0.7832254	NOUN PREP VERB
-2.151461	NUM PREP </s>
-2.543571	NUM PREP ADJ
-2.106879	NUM PREP ADV
-2.605719	NUM PREP CONJ
-0.6639022	NUM PREP DET
-2.46439	NUM PREP DIG
-2.151461	NUM PREP NADJ
-1.298059	NUM PREP NOUN
-0.280804	NUM PREP NUM
-2.489214	NUM PREP PREP
-0.8942366	NUM PREP PRON
-2.719663	NUM PREP PUNCT
-2.106879	NUM PREP QUANT
-1.425196	NUM PREP VERB
-1.66812	PART PREP ADJ
-1.911158	PART PREP ADV
-0.223183	PART PREP DET
-1.66812	PART PREP NADJ
-0.7808238	PART PREP NOUN
-1.098244	PART PREP PRON
-2.212188	PART PREP PUNCT
-1.66812	PART PREP QUANT
-1.170795	PART PREP VERB
-1.843512	PREP PREP </s>
-2.008664	PREP PREP ADJ
-1.60429	PREP PREP ADV
-2.436799	PREP PREP AUX
-2.454527	PREP PREP CONJ
-0.4532624	PREP PREP DET
-1.7012	PREP PREP DIG
-1.766553	PREP PREP NADJ
-0.6040342	PREP PREP NOUN
-2.454527	PREP PREP NUM
-2.419765	PREP PREP PREP
-0.9649203	PREP PREP PRON
-1.48063	PREP PREP PUNCT
-1.375346	PREP PREP QUANT
-0.9404225	PREP PREP VERB
-1.879511	PRON PREP </s>
-2.206315	PRON PREP ADJ
-1.772074	PRON PREP ADV
-4.610293	PRON PREP AUX
-2.473572	PRON PREP CONJ
-0.8008004	PRON PREP DET
-2.123862	PRON PREP DIG
-3.765195	PRON PREP INTERJ
-4.309263	PRON PREP MEAS
-2.05399	PRON PREP NADJ
-0.7970788	PRON PREP NOUN
-2.780989	PRON PREP NUM
-2.256184	PRON PREP PREP
-0.5672843	PRON PREP PRON
-1.605327	PRON PREP PUNCT
-1.531293	PRON PREP QUANT
-0.5321261	PRON PREP VERB
-1.854334	PUNCT PREP </s>
-1.836921	PUNCT PREP ADJ
-1.230145	PUNCT PREP ADV
-1.682209	PUNCT PREP CONJ
-0.6651497	PUNCT PREP DET
-1.922598	PUNCT PREP DIG
-3.594696	PUNCT PREP INTERJ
-3.68703	PUNCT PREP MEAS
-1.946336	PUNCT PREP NADJ
-0.5991708	PUNCT PREP NOUN
-2.543544	PUNCT PREP NUM
-2.099846	PUNCT PREP PREP
-1.352279	PUNCT PREP PRON
-0.8461207	PUNCT PREP PUNCT
-1.083816	PUNCT PREP QUANT
-0.9209844	PUNCT PREP VERB
-2.164353	QUANT PREP </s>
-2.158444	QUANT PREP ADJ
-1.612702	QUANT PREP ADV
-2.797227	QUANT PREP CONJ
-0.4847259	QUANT PREP DET
-2.580518	QUANT PREP DIG
-3.517949	QUANT PREP INTERJ
-2.083193	QUANT PREP NADJ
-1.144014	QUANT PREP NOUN
-2.384223	QUANT PREP NUM
-2.881548	QUANT PREP PREP
-0.310838	QUANT PREP PRON
-2.328706	QUANT PREP PUNCT
-1.94489	QUANT PREP QUANT
-1.405462	QUANT PREP VERB
-1.761061	VERB PREP </s>
-1.845138	VERB PREP ADJ
-1.701388	VERB PREP ADV
-3.96498	VERB PREP AUX
-2.116221	VERB PREP CONJ
-0.7003111	VERB PREP DET
-2.01541	VERB PREP DIG
-3.66395	VERB PREP INTERJ
-3.933946	VERB PREP MEAS
-1.791362	VERB PREP NADJ
-0.680976	VERB PREP NOUN
-2.543255	VERB PREP NUM
-1.918644	VERB PREP PREP
-1.05483	VERB PREP PRON
-1.681931	VERB PREP PUNCT
-1.846728	VERB PREP QUANT
-0.4334021	VERB PREP VERB
-2.051378	<s> PRON </s>
-2.397009	<s> PRON ADJ
-1.351005	<s> PRON ADV
-0.7873792	<s> PRON AUX
-2.999606	<s> PRON CONJ
-2.391144	<s> PRON DET
-3.472449	<s> PRON DIG
-4.15883	<s> PRON INTERJ
-2.748655	<s> PRON MEAS
-1.981706	<s> PRON NADJ
-0.6055797	<s> PRON NOUN
-3.370459	<s> PRON NUM
-2.243505	<s> PRON PREP
-2.395937	<s> PRON PRON
-2.365438	<s> PRON PUNCT
-2.900124	<s> PRON QUANT
-0.302783	<s> PRON VERB
-1.694661	ADJ PRON </s>
-2.416197	ADJ PRON ADJ
-1.416197	ADJ PRON ADV
-0.7753839	ADJ PRON AUX
-1.939075	ADJ PRON CONJ
-1.911047	ADJ PRON DET
-2.990228	ADJ PRON DIG
-3.291258	ADJ PRON INTERJ
-2.160924	ADJ PRON NADJ
-1.154537	ADJ PRON NOUN
-1.868012	ADJ PRON PREP
-2.012504	ADJ PRON PRON
-1.253831	ADJ PRON PUNCT
-2.638045	ADJ PRON QUANT
-0.2320732	ADJ PRON VERB
-2.129595	ADV PRON </s>
-2.290657	ADV PRON ADJ
-0.6189363	ADV PRON ADV
-0.4855862	ADV PRON AUX
-2.959664	ADV PRON CONJ
-2.675502	ADV PRON DET
-3.462339	ADV PRON DIG
-4.281883	ADV PRON INTERJ
-4.679823	ADV PRON MEAS
-1.99274	ADV PRON NADJ
-1.197807	ADV PRON NOUN
-3.63843	ADV PRON NUM
-2.422144	ADV PRON PREP
-2.030488	ADV PRON PRON
-2.440523	ADV PRON PUNCT
-3.202702	ADV PRON QUANT
-0.4877436	ADV PRON VERB
-2.600342	AUX PRON </s>
-3.004035	AUX PRON ADJ
-1.026311	AUX PRON ADV
-2.661612	AUX PRON AUX
-3.879096	AUX PRON CONJ
-3.481156	AUX PRON DET
-2.765152	AUX PRON NADJ
-1.763485	AUX PRON NOUN
-3.879096	AUX PRON NUM
-2.924853	AUX PRON PREP
-2.949677	AUX PRON PRON
-2.703005	AUX PRON PUNCT
-3.281017	AUX PRON QUANT
-0.05758235	AUX PRON VERB
-1.998785	CONJ PRON </s>
-2.32866	CONJ PRON ADJ
-1.512766	CONJ PRON ADV
-0.6887091	CONJ PRON AUX
-2.99722	CONJ PRON CONJ
-2.561595	CONJ PRON DET
-3.677837	CONJ PRON DIG
-4.237144	CONJ PRON INTERJ
-4.241126	CONJ PRON MEAS
-2.434371	CONJ PRON NADJ
-1.252505	CONJ PRON NOUN
-3.708871	CONJ PRON NUM
-2.264595	CONJ PRON PREP
-2.357046	CONJ PRON PRON
-2.239321	CONJ PRON PUNCT
-2.843569	CONJ PRON QUANT
-0.1746425	CONJ PRON VERB
-1.732394	DET PRON </s>
-2.263873	DET PRON ADJ
-1.418775	DET PRON ADV
-0.9254162	DET PRON AUX
-1.640623	DET PRON CONJ
-1.962843	DET PRON DET
-2.661813	DET PRON DIG
-2.059753	DET PRON NADJ
-0.7641856	DET PRON NOUN
-1.329374	DET PRON PREP
-1.786751	DET PRON PRON
-1.013453	DET PRON PUNCT
-0.3553877	DET PRON VERB
-2.065455	DIG PRON </s>
-2.241546	DIG PRON ADJ
-1.111213	DIG PRON ADV
-1.042889	DIG PRON AUX
-1.810183	DIG PRON DET
-2.342438	DIG PRON DIG
-2.287304	DIG PRON NADJ
-0.8541567	DIG PRON NOUN
-2.639487	DIG PRON PREP
-1.188468	DIG PRON PRON
-2.065455	DIG PRON PUNCT
-2.73182	DIG PRON QUANT
-0.2406788	DIG PRON VERB
-3.011253	INTERJ PRON </s>
-2.872951	INTERJ PRON ADJ
-1.494387	INTERJ PRON ADV
-1.07361	INTERJ PRON AUX
-3.015234	INTERJ PRON CONJ
-2.914343	INTERJ PRON DET
-3.404617	INTERJ PRON DIG
-3.215373	INTERJ PRON INTERJ
-2.57192	INTERJ PRON NADJ
-0.7514802	INTERJ PRON NOUN
-2.613313	INTERJ PRON PREP
-2.738252	INTERJ PRON PRON
-2.710223	INTERJ PRON PUNCT
-3.015234	INTERJ PRON QUANT
-0.1606069	INTERJ PRON VERB
-0.8545396	MEAS PRON </s>
-1.366423	MEAS PRON ADJ
-1.570543	MEAS PRON ADV
-1.190332	MEAS PRON AUX
-1.759787	MEAS PRON MEAS
-1.424415	MEAS PRON NOUN
-1.759787	MEAS PRON PUNCT
-0.1867276	MEAS PRON VERB
-1.367499	NADJ PRON </s>
-2.12926	NADJ PRON ADJ
-1.285889	NADJ PRON ADV
-0.922884	NADJ PRON AUX
-2.117361	NADJ PRON CONJ
-2.208441	NADJ PRON DET
-2.539435	NADJ PRON DIG
-3.175836	NADJ PRON INTERJ
-1.846714	NADJ PRON NADJ
-0.9645768	NADJ PRON NOUN
-1.250994	NADJ PRON PREP
-1.879383	NADJ PRON PRON
-1.617377	NADJ PRON PUNCT
-2.406809	NADJ PRON QUANT
-0.2670956	NADJ PRON VERB
-1.612952	NOUN PRON </s>
-2.531738	NOUN PRON ADJ
-1.387188	NOUN PRON ADV
-0.6083521	NOUN PRON AUX
-2.205028	NOUN PRON CONJ
-2.393235	NOUN PRON DET
-1.469414	NOUN PRON DIG
-3.547451	NOUN PRON INTERJ
-2.221978	NOUN PRON MEAS
-2.368323	NOUN PRON NADJ
-1.158658	NOUN PRON NOUN
-2.658887	NOUN PRON NUM
-4.316478	NOUN PRON PART
-1.952884	NOUN PRON PREP
-1.900892	NOUN PRON PRON
-1.691709	NOUN PRON PUNCT
-2.673916	NOUN PRON QUANT
-0.2901513	NOUN PRON VERB
-1.681241	NUM PRON </s>
-2.459393	NUM PRON ADJ
-1.50515	NUM PRON ADV
-0.8911908	NUM PRON AUX
-2.459393	NUM PRON CONJ
-2.10721	NUM PRON DET
-2.459393	NUM PRON NADJ
-1.570091	NUM PRON NOUN
-2.362483	NUM PRON PREP
-1.097665	NUM PRON PRON
-1.699725	NUM PRON PUNCT
-2.551726	NUM PRON QUANT
-0.1760913	NUM PRON VERB
-0.8808136	PART PRON ADV
-0.7346855	PART PRON AUX
-0.1818436	PART PRON VERB
-1.421229	PREP PRON </s>
-1.381932	PREP PRON ADJ
-1.612345	PREP PRON ADV
-2.023487	PREP PRON AUX
-1.652631	PREP PRON CONJ
-2.361334	PREP PRON DET
-2.976542	PREP PRON DIG
-3.099114	PREP PRON INTERJ
-4.217803	PREP PRON MEAS
-1.647928	PREP PRON NADJ
-0.3527502	PREP PRON NOUN
-3.08063	PREP PRON NUM
-4.217803	PREP PRON PART
-1.141319	PREP PRON PREP
-1.799502	PREP PRON PRON
-0.5833118	PREP PRON PUNCT
-2.913682	PREP PRON QUANT
-1.391636	PREP PRON VERB
-1.890692	PRON PRON </s>
-2.173011	PRON PRON ADJ
-1.50889	PRON PRON ADV
-0.5907556	PRON PRON AUX
-2.586939	PRON PRON CONJ
-1.811055	PRON PRON DET
-3.188999	PRON PRON DIG
-2.887969	PRON PRON INTERJ
-3.791059	PRON PRON MEAS
-2.096453	PRON PRON NADJ
-1.170923	PRON PRON NOUN
-2.813335	PRON PRON NUM
-1.498803	PRON PRON PREP
-1.490029	PRON PRON PRON
-2.217027	PRON PRON PUNCT
-2.813335	PRON PRON QUANT
-0.2807148	PRON PRON VERB
-2.05109	PUNCT PRON </s>
-2.403862	PUNCT PRON ADJ
-1.362148	PUNCT PRON ADV
-0.4323217	PUNCT PRON AUX
-3.201964	PUNCT PRON CONJ
-2.685819	PUNCT PRON DET
-3.889939	PUNCT PRON DIG
-4.283302	PUNCT PRON INTERJ
-3.713847	PUNCT PRON MEAS
-2.530578	PUNCT PRON NADJ
-1.273594	PUNCT PRON NOUN
-3.044841	PUNCT PRON NUM
-2.580841	PUNCT PRON PREP
-2.368147	PUNCT PRON PRON
-2.388195	PUNCT PRON PUNCT
-2.879215	PUNCT PRON QUANT
-0.2995845	PUNCT PRON VERB
-2.115246	QUANT PRON </s>
-2.319366	QUANT PRON ADJ
-1.5654	QUANT PRON ADV
-0.717035	QUANT PRON AUX
-2.559699	QUANT PRON CONJ
-2.474268	QUANT PRON DET
-3.222456	QUANT PRON DIG
-2.150574	QUANT PRON NADJ
-0.8843985	QUANT PRON NOUN
-3.620396	QUANT PRON NUM
-2.287958	QUANT PRON PREP
-1.835067	QUANT PRON PRON
-1.981907	QUANT PRON PUNCT
-2.880034	QUANT PRON QUANT
-0.2274357	QUANT PRON VERB
-1.370254	VERB PRON </s>
-1.998436	VERB PRON ADJ
-0.9014186	VERB PRON ADV
-1.584083	VERB PRON AUX
-1.780883	VERB PRON CONJ
-1.66293	VERB PRON DET
-2.870257	VERB PRON DIG
-3.17826	VERB PRON INTERJ
-4.224365	VERB PRON MEAS
-2.152189	VERB PRON NADJ
-0.7461105	VERB PRON NOUN
-2.528883	VERB PRON NUM
-4.923335	VERB PRON PART
-0.7824691	VERB PRON PREP
-1.827538	VERB PRON PRON
-1.092336	VERB PRON PUNCT
-2.25813	VERB PRON QUANT
-0.523281	VERB PRON VERB
-1.29451	<s> PUNCT </s>
-1.466872	<s> PUNCT ADJ
-1.514804	<s> PUNCT ADV
-1.960663	<s> PUNCT AUX
-1.951208	<s> PUNCT CONJ
-1.86985	<s> PUNCT DET
-1.931401	<s> PUNCT DIG
-2.994788	<s> PUNCT INTERJ
-2.805124	<s> PUNCT MEAS
-1.226691	<s> PUNCT NADJ
-0.443319	<s> PUNCT NOUN
-2.949031	<s> PUNCT NUM
-1.944096	<s> PUNCT PREP
-1.12733	<s> PUNCT PRON
-2.053766	<s> PUNCT PUNCT
-1.494404	<s> PUNCT QUANT
-0.5420894	<s> PUNCT VERB
-0.2140616	ADJ PUNCT </s>
-1.912232	ADJ PUNCT ADJ
-1.5514	ADJ PUNCT ADV
-2.377422	ADJ PUNCT AUX
-1.351716	ADJ PUNCT CONJ
-1.946189	ADJ PUNCT DET
-1.617907	ADJ PUNCT DIG
-3.291236	ADJ PUNCT INTERJ
-3.865267	ADJ PUNCT MEAS
-2.064206	ADJ PUNCT NADJ
-1.063349	ADJ PUNCT NOUN
-2.876262	ADJ PUNCT NUM
-2.105599	ADJ PUNCT PREP
-1.224537	ADJ PUNCT PRON
-2.276995	ADJ PUNCT PUNCT
-1.99898	ADJ PUNCT QUANT
-1.071302	ADJ PUNCT VERB
-0.3097426	ADV PUNCT </s>
-2.354135	ADV PUNCT ADJ
-1.690173	ADV PUNCT ADV
-2.527634	ADV PUNCT AUX
-1.544099	ADV PUNCT CONJ
-1.997449	ADV PUNCT DET
-2.750777	ADV PUNCT DIG
-3.485771	ADV PUNCT INTERJ
-4.544247	ADV PUNCT MEAS
-2.495265	ADV PUNCT NADJ
-0.4994354	ADV PUNCT NOUN
-3.129694	ADV PUNCT NUM
-1.813174	ADV PUNCT PREP
-1.323837	ADV PUNCT PRON
-2.61464	ADV PUNCT PUNCT
-2.435925	ADV PUNCT QUANT
-1.285039	ADV PUNCT VERB
-0.1629919	AUX PUNCT </s>
-2.50939	AUX PUNCT ADJ
-1.462814	AUX PUNCT ADV
-2.019116	AUX PUNCT AUX
-1.127022	AUX PUNCT CONJ
-2.019116	AUX PUNCT DET
-2.320146	AUX PUNCT NADJ
-1.347018	AUX PUNCT NOUN
-1.676694	AUX PUNCT PREP
-1.180267	AUX PUNCT PRON
-2.417056	AUX PUNCT PUNCT
-2.718086	AUX PUNCT QUANT
-1.417056	AUX PUNCT VERB
-0.6630979	CONJ PUNCT </s>
-1.981422	CONJ PUNCT ADJ
-1.074952	CONJ PUNCT ADV
-2.14415	CONJ PUNCT AUX
-0.7606605	CONJ PUNCT CONJ
-1.486572	CONJ PUNCT DET
-1.62924	CONJ PUNCT DIG
-2.884512	CONJ PUNCT MEAS
-1.981422	CONJ PUNCT NADJ
-1.033254	CONJ PUNCT NOUN
-2.486572	CONJ PUNCT NUM
-1.495346	CONJ PUNCT PREP
-0.7739224	CONJ PUNCT PRON
-2.282452	CONJ PUNCT PUNCT
-1.981422	CONJ PUNCT QUANT
-0.8955075	CONJ PUNCT VERB
-0.9655235	DET PUNCT </s>
-1.302269	DET PUNCT ADJ
-1.892095	DET PUNCT ADV
-1.804944	DET PUNCT CONJ
-1.947228	DET PUNCT DET
-1.266554	DET PUNCT DIG
-1.105974	DET PUNCT NADJ
-0.3521825	DET PUNCT NOUN
-1.244277	DET PUNCT PREP
-1.732394	DET PUNCT PRON
-1.369216	DET PUNCT PUNCT
-2.336611	DET PUNCT QUANT
-0.9950787	DET PUNCT VERB
-0.697687	DIG PUNCT </s>
-2.152657	DIG PUNCT ADJ
-1.820976	DIG PUNCT ADV
-2.732282	DIG PUNCT AUX
-1.62962	DIG PUNCT CONJ
-1.708801	DIG PUNCT DET
-0.3270685	DIG PUNCT DIG
-3.635372	DIG PUNCT INTERJ
-2.966365	DIG PUNCT MEAS
-2.390957	DIG PUNCT NADJ
-0.7687237	DIG PUNCT NOUN
-3.568425	DIG PUNCT NUM
-1.653604	DIG PUNCT PREP
-2.001343	DIG PUNCT PRON
-2.517733	DIG PUNCT PUNCT
-2.946162	DIG PUNCT QUANT
-1.30824	DIG PUNCT VERB
-0.4256063	INTERJ PUNCT </s>
-1.962082	INTERJ PUNCT ADJ
-1.240231	INTERJ PUNCT ADV
-1.884089	INTERJ PUNCT AUX
-1.77198	INTERJ PUNCT CONJ
-1.76064	INTERJ PUNCT DET
-2.504374	INTERJ PUNCT DIG
-2.468658	INTERJ PUNCT INTERJ
-2.316048	INTERJ PUNCT MEAS
-2.007049	INTERJ PUNCT NADJ
-1.07393	INTERJ PUNCT NOUN
-3.094199	INTERJ PUNCT NUM
-2.215933	INTERJ PUNCT PREP
-0.4725615	INTERJ PUNCT PRON
-2.516963	INTERJ PUNCT PUNCT
-2.079959	INTERJ PUNCT QUANT
-1.316853	INTERJ PUNCT VERB
-0.7297046	MEAS PUNCT </s>
-1.583577	MEAS PUNCT ADJ
-1.544068	MEAS PUNCT ADV
-2.39607	MEAS PUNCT AUX
-2.002706	MEAS PUNCT CONJ
-2.060698	MEAS PUNCT DET
-1.079721	MEAS PUNCT DIG
-2.060698	MEAS PUNCT MEAS
-2.060698	MEAS PUNCT NADJ
-0.4359739	MEAS PUNCT NOUN
-1.604766	MEAS PUNCT PREP
-1.759668	MEAS PUNCT PRON
-1.951553	MEAS PUNCT PUNCT
-2.206826	MEAS PUNCT QUANT
-0.6804866	MEAS PUNCT VERB
-0.3450959	NADJ PUNCT </s>
-1.454965	NADJ PUNCT ADJ
-1.745855	NADJ PUNCT ADV
-2.514098	NADJ PUNCT AUX
-1.554447	NADJ PUNCT CONJ
-2.30149	NADJ PUNCT DET
-1.865628	NADJ PUNCT DIG
-2.85262	NADJ PUNCT INTERJ
-3.24001	NADJ PUNCT MEAS
-1.162133	NADJ PUNCT NADJ
-0.5940377	NADJ PUNCT NOUN
-3.004481	NADJ PUNCT NUM
-1.739225	NADJ PUNCT PREP
-1.495873	NADJ PUNCT PRON
-1.681301	NADJ PUNCT PUNCT
-2.313667	NADJ PUNCT QUANT
-1.363561	NADJ PUNCT VERB
-0.2159837	NOUN PUNCT </s>
-2.08879	NOUN PUNCT ADJ
-1.10758	NOUN PUNCT ADV
-2.555012	NOUN PUNCT AUX
-1.485335	NOUN PUNCT CONJ
-2.219187	NOUN PUNCT DET
-1.890807	NOUN PUNCT DIG
-3.078857	NOUN PUNCT INTERJ
-3.031099	NOUN PUNCT MEAS
-1.968117	NOUN PUNCT NADJ
-0.881344	NOUN PUNCT NOUN
-3.03048	NOUN PUNCT NUM
-2.026355	NOUN PUNCT PREP
-1.38589	NOUN PUNCT PRON
-1.848612	NOUN PUNCT PUNCT
-2.360678	NOUN PUNCT QUANT
-1.428342	NOUN PUNCT VERB
-0.1515681	NUM PUNCT </s>
-2.469167	NUM PUNCT ADJ
-1.49913	NUM PUNCT ADV
-2.42341	NUM PUNCT AUX
-1.211222	NUM PUNCT CONJ
-1.867107	NUM PUNCT DET
-1.810626	NUM PUNCT DIG
-3.12238	NUM PUNCT MEAS
-2.061682	NUM PUNCT NADJ
-1.280395	NUM PUNCT NOUN
-2.469167	NUM PUNCT NUM
-1.904896	NUM PUNCT PREP
-1.382017	NUM PUNCT PRON
-2.344229	NUM PUNCT PUNCT
-2.72444	NUM PUNCT QUANT
-1.406376	NUM PUNCT VERB
-0.5553308	PART PUNCT </s>
-2.49485	PART PUNCT ADJ
-2.286154	PART PUNCT ADV
-0.214955	PART PUNCT CONJ
-2.49485	PART PUNCT DIG
-2.286154	PART PUNCT NADJ
-1.348722	PART PUNCT NOUN
-2.49485	PART PUNCT PREP
-1.716699	PART PUNCT PRON
-2.09691	PART PUNCT PUNCT
-2.49485	PART PUNCT QUANT
-1.79588	PART PUNCT VERB
-0.3759201	PREP PUNCT </s>
-1.639327	PREP PUNCT ADJ
-1.574209	PREP PUNCT ADV
-2.693685	PREP PUNCT AUX
-1.585346	PREP PUNCT CONJ
-2.227029	PREP PUNCT DET
-2.177055	PREP PUNCT DIG
-4.015904	PREP PUNCT INTERJ
-3.471836	PREP PUNCT MEAS
-1.953322	PREP PUNCT NADJ
-0.4518304	PREP PUNCT NOUN
-3.112814	PREP PUNCT NUM
-1.517594	PREP PUNCT PREP
-1.721438	PREP PUNCT PRON
-2.216564	PREP PUNCT PUNCT
-2.617964	PREP PUNCT QUANT
-1.184035	PREP PUNCT VERB
-0.08090132	PRON PUNCT </s>
-2.870995	PRON PUNCT ADJ
-1.249887	PRON PUNCT ADV
-2.774085	PRON PUNCT AUX
-1.691456	PRON PUNCT CONJ
-2.480675	PRON PUNCT DET
-2.870995	PRON PUNCT DIG
-3.658692	PRON PUNCT INTERJ
-4.533753	PRON PUNCT MEAS
-2.724193	PRON PUNCT NADJ
-1.700606	PRON PUNCT NOUN
-3.221999	PRON PUNCT NUM
-2.283333	PRON PUNCT PREP
-1.502749	PRON PUNCT PRON
-2.650092	PRON PUNCT PUNCT
-2.861655	PRON PUNCT QUANT
-1.642773	PRON PUNCT VERB
-0.6367413	PUNCT PUNCT </s>
-1.739287	PUNCT PUNCT ADJ
-1.760476	PUNCT PUNCT ADV
-2.429483	PUNCT PUNCT AUX
-1.531856	PUNCT PUNCT CONJ
-2.38809	PUNCT PUNCT DET
-0.8016054	PUNCT PUNCT DIG
-2.952362	PUNCT PUNCT INTERJ
-2.865212	PUNCT PUNCT MEAS
-1.472835	PUNCT PUNCT NADJ
-0.552496	PUNCT PUNCT NOUN
-3.605574	PUNCT PUNCT NUM
-1.987526	PUNCT PUNCT PREP
-1.693087	PUNCT PUNCT PRON
-0.9810345	PUNCT PUNCT PUNCT
-1.924333	PUNCT PUNCT QUANT
-1.125567	PUNCT PUNCT VERB
-0.2140859	QUANT PUNCT </s>
-2.291378	QUANT PUNCT ADJ
-1.507236	QUANT PUNCT ADV
-2.630197	QUANT PUNCT AUX
-1.454105	QUANT PUNCT CONJ
-1.820331	QUANT PUNCT DET
-2.931227	QUANT PUNCT DIG
-3.069529	QUANT PUNCT INTERJ
-2.121361	QUANT PUNCT NADJ
-1.133141	QUANT PUNCT NOUN
-3.127521	QUANT PUNCT NUM
-2.159706	QUANT PUNCT PREP
-0.9157145	QUANT PUNCT PRON
-2.265049	QUANT PUNCT PUNCT
-2.309861	QUANT PUNCT QUANT
-1.109892	QUANT PUNCT VERB
-0.2209609	VERB PUNCT </s>
-2.19716	VERB PUNCT ADJ
-1.666167	VERB PUNCT ADV
-2.360702	VERB PUNCT AUX
-1.064716	VERB PUNCT CONJ
-2.136253	VERB PUNCT DET
-2.156456	VERB PUNCT DIG
-3.478676	VERB PUNCT INTERJ
-3.851062	VERB PUNCT MEAS
-2.188304	VERB PUNCT NADJ
-0.9135796	VERB PUNCT NOUN
-3.428988	VERB PUNCT NUM
-1.887274	VERB PUNCT PREP
-1.363519	VERB PUNCT PRON
-2.171115	VERB PUNCT PUNCT
-2.239794	VERB PUNCT QUANT
-1.167886	VERB PUNCT VERB
-1.158102	<s> QUANT </s>
-1.395442	<s> QUANT ADJ
-1.636161	<s> QUANT ADV
-2.846663	<s> QUANT AUX
-1.825473	<s> QUANT CONJ
-1.894967	<s> QUANT DET
-2.813662	<s> QUANT DIG
-3.385053	<s> QUANT INTERJ
-2.995082	<s> QUANT MEAS
-1.359375	<s> QUANT NADJ
-0.4522109	<s> QUANT NOUN
-2.803197	<s> QUANT NUM
-1.616886	<s> QUANT PREP
-0.7456576	<s> QUANT PRON
-0.9769678	<s> QUANT PUNCT
-2.393023	<s> QUANT QUANT
-0.9083272	<s> QUANT VERB
-1.770852	ADJ QUANT </s>
-1.524561	ADJ QUANT ADJ
-1.845486	ADJ QUANT ADV
-1.935662	ADJ QUANT CONJ
-1.386848	ADJ QUANT DET
-2.651666	ADJ QUANT DIG
-1.321252	ADJ QUANT NADJ
-0.5909678	ADJ QUANT NOUN
-2.236692	ADJ QUANT NUM
-1.226784	ADJ QUANT PREP
-1.687878	ADJ QUANT PRON
-1.475574	ADJ QUANT PUNCT
-2.505538	ADJ QUANT QUANT
-0.3399117	ADJ QUANT VERB
-0.789508	ADV QUANT </s>
-1.299969	ADV QUANT ADJ
-1.94438	ADV QUANT ADV
-2.597592	ADV QUANT AUX
-1.711807	ADV QUANT CONJ
-1.754437	ADV QUANT DET
-2.597592	ADV QUANT DIG
-2.421501	ADV QUANT INTERJ
-1.355331	ADV QUANT NADJ
-0.4487584	ADV QUANT NOUN
-2.54644	ADV QUANT NUM
-0.9911438	ADV QUANT PREP
-1.391779	ADV QUANT PRON
-0.8443446	ADV QUANT PUNCT
-2.107107	ADV QUANT QUANT
-1.470285	ADV QUANT VERB
-2.045323	AUX QUANT </s>
-1.200225	AUX QUANT ADJ
-0.6931404	AUX QUANT ADV
-1.39211	AUX QUANT CONJ
-1.39211	AUX QUANT DET
-1.836627	AUX QUANT NADJ
-0.8692317	AUX QUANT NOUN
-1.647383	AUX QUANT PREP
-1.501255	AUX QUANT PRON
-0.3640817	AUX QUANT VERB
-1.487654	CONJ QUANT </s>
-0.9005199	CONJ QUANT ADJ
-1.582369	CONJ QUANT ADV
-2.226552	CONJ QUANT AUX
-1.93364	CONJ QUANT CONJ
-1.45109	CONJ QUANT DET
-2.511788	CONJ QUANT DIG
-1.540645	CONJ QUANT NADJ
-0.4259369	CONJ QUANT NOUN
-1.941913	CONJ QUANT NUM
-1.003739	CONJ QUANT PREP
-1.179349	CONJ QUANT PRON
-1.069084	CONJ QUANT PUNCT
-1.608698	CONJ QUANT QUANT
-1.162372	CONJ QUANT VERB
-1.354013	DET QUANT </s>
-0.5910805	DET QUANT ADJ
-1.5023	DET QUANT ADV
-1.696436	DET QUANT CONJ
-2.038858	DET QUANT DET
-2.737828	DET QUANT DIG
-1.176727	DET QUANT NADJ
-0.5038177	DET QUANT NOUN
-3.135768	DET QUANT NUM
-1.114579	DET QUANT PREP
-1.755557	DET QUANT PRON
-1.235401	DET QUANT PUNCT
-1.20635	DET QUANT QUANT
-1.387581	DET QUANT VERB
-1.676694	DIG QUANT </s>
-1.379645	DIG QUANT ADJ
-1.676694	DIG QUANT ADV
-1.379645	DIG QUANT CONJ
-1.977724	DIG QUANT DET
-1.278754	DIG QUANT DIG
-1.379645	DIG QUANT NADJ
-0.2575643	DIG QUANT NOUN
-1.199572	DIG QUANT PREP
-1.769027	DIG QUANT PRON
-1.379645	DIG QUANT PUNCT
-1.023481	DIG QUANT VERB
-1.450249	INTERJ QUANT </s>
-1.246129	INTERJ QUANT ADJ
-0.6720979	INTERJ QUANT NADJ
-0.2741579	INTERJ QUANT NOUN
-1.450249	INTERJ QUANT PREP
-1.246129	INTERJ QUANT PRON
-1.639493	INTERJ QUANT PUNCT
-1.547159	INTERJ QUANT VERB
-0.5118834	MEAS QUANT </s>
-0.8129134	MEAS QUANT NADJ
-0.4149733	MEAS QUANT NOUN
-1.164353	NADJ QUANT </s>
-1.340444	NADJ QUANT ADJ
-1.712055	NADJ QUANT ADV
-1.988262	NADJ QUANT CONJ
-1.796376	NADJ QUANT DET
-2.432778	NADJ QUANT DIG
-2.432778	NADJ QUANT INTERJ
-1.270406	NADJ QUANT NADJ
-0.2912261	NADJ QUANT NOUN
-2.043395	NADJ QUANT NUM
-1.067443	NADJ QUANT PREP
-1.42399	NADJ QUANT PRON
-1.12296	NADJ QUANT PUNCT
-1.942504	NADJ QUANT QUANT
-1.319255	NADJ QUANT VERB
-1.049529	NOUN QUANT </s>
-1.065676	NOUN QUANT ADJ
-1.121792	NOUN QUANT ADV
-3.48728	NOUN QUANT AUX
-1.712763	NOUN QUANT CONJ
-1.482958	NOUN QUANT DET
-1.995918	NOUN QUANT DIG
-3.08934	NOUN QUANT INTERJ
-1.661205	NOUN QUANT NADJ
-0.4433284	NOUN QUANT NOUN
-2.78831	NOUN QUANT NUM
-1.292765	NOUN QUANT PREP
-1.008713	NOUN QUANT PRON
-1.157882	NOUN QUANT PUNCT
-2.311188	NOUN QUANT QUANT
-1.105263	NOUN QUANT VERB
-1.046997	NUM QUANT </s>
-0.8507019	NUM QUANT ADJ
-1.290035	NUM QUANT ADV
-1.591065	NUM QUANT DET
-1.290035	NUM QUANT NADJ
-0.30103	NUM QUANT NOUN
-1.382368	NUM QUANT PREP
-1.290035	NUM QUANT PUNCT
-2.091667	PART QUANT </s>
-1.012486	PART QUANT ADJ
-2.091667	PART QUANT ADV
-0.9777236	PART QUANT NADJ
-0.1546509	PART QUANT NOUN
-1.882971	PART QUANT PREP
-1.278754	PART QUANT VERB
-1.372275	PREP QUANT </s>
-1.22963	PREP QUANT ADJ
-2.008179	PREP QUANT ADV
-3.369141	PREP QUANT AUX
-1.753703	PREP QUANT CONJ
-1.526311	PREP QUANT DET
-1.879084	PREP QUANT DIG
-3.36516	PREP QUANT INTERJ
-0.9786613	PREP QUANT NADJ
-0.2938307	PREP QUANT NOUN
-2.144399	PREP QUANT NUM
-3.758524	PREP QUANT PART
-1.125548	PREP QUANT PREP
-1.613112	PREP QUANT PRON
-1.150979	PREP QUANT PUNCT
-1.681663	PREP QUANT QUANT
-1.799903	PREP QUANT VERB
-1.453584	PRON QUANT </s>
-1.244769	PRON QUANT ADJ
-1.208931	PRON QUANT ADV
-1.95798	PRON QUANT AUX
-1.574763	PRON QUANT CONJ
-1.493093	PRON QUANT DET
-2.615173	PRON QUANT DIG
-1.175826	PRON QUANT NADJ
-0.417372	PRON QUANT NOUN
-2.56004	PRON QUANT NUM
-1.095981	PRON QUANT PREP
-1.798279	PRON QUANT PRON
-1.468959	PRON QUANT PUNCT
-1.815312	PRON QUANT QUANT
-0.7531062	PRON QUANT VERB
-1.792253	PUNCT QUANT </s>
-0.6023849	PUNCT QUANT ADJ
-2.007442	PUNCT QUANT ADV
-2.97123	PUNCT QUANT AUX
-2.230867	PUNCT QUANT CONJ
-2.119971	PUNCT QUANT DET
-2.452715	PUNCT QUANT DIG
-1.133641	PUNCT QUANT NADJ
-0.3703654	PUNCT QUANT NOUN
-2.479868	PUNCT QUANT NUM
-1.600162	PUNCT QUANT PREP
-1.514863	PUNCT QUANT PRON
-1.207801	PUNCT QUANT PUNCT
-1.850656	PUNCT QUANT QUANT
-1.147104	PUNCT QUANT VERB
-1.698142	QUANT QUANT </s>
-1.357603	QUANT QUANT ADJ
-1.923451	QUANT QUANT ADV
-1.476293	QUANT QUANT AUX
-0.4701329	QUANT QUANT CONJ
-2.422282	QUANT QUANT DET
-1.789912	QUANT QUANT NADJ
-0.3547803	QUANT QUANT NOUN
-1.605388	QUANT QUANT PREP
-2.090942	QUANT QUANT PRON
-1.573203	QUANT QUANT PUNCT
-2.418301	QUANT QUANT QUANT
-1.573203	QUANT QUANT VERB
-1.394256	VERB QUANT </s>
-1.093338	VERB QUANT ADJ
-1.708817	VERB QUANT ADV
-3.840527	VERB QUANT AUX
-1.771811	VERB QUANT CONJ
-1.506361	VERB QUANT DET
-2.555292	VERB QUANT DIG
-3.194264	VERB QUANT INTERJ
-4.175899	VERB QUANT MEAS
-1.155554	VERB QUANT NADJ
-0.3458957	VERB QUANT NOUN
-2.506648	VERB QUANT NUM
-0.9396921	VERB QUANT PREP
-1.613743	VERB QUANT PRON
-1.488897	VERB QUANT PUNCT
-1.693956	VERB QUANT QUANT
