solver_type L2R_LR
nr_class 4
label 0 1 2 3
nr_feature 3626
bias -1
w
0.1165194182629801 0.09578438968530747 -0.2845987013281599 -0.4320002149599333 
0.0712587179957944 -0.1750348928035744 -0.5963589544120018 -0.2364288567118002 
-0.8492270537872443 0.6315471309437053 -0.6950394938612384 0.6475934829359824 
-0.6527599843703618 0.5610389615410526 0.05841893022217568 -0.163031826961373 
0.1452484976355756 0.2545755735840005 0.05284974610899419 -0.2814378958456688 
-0.2565842133687707 0.2137391198780063 -0.1796376720190103 -0.3632758114263916 
0 0 0 0 
0.05488944622695761 0.4728761935823054 -0.9882691796418129 -2.101340356997677 
-0.1951872086774951 -0.03628663027362932 0.3802919847653868 -0.1974999460707487 
0.1700956965378276 -0.1443888663479576 -0.03136721164585887 -0.009036422662563017 
0.3321771145087806 -0.6934227465209358 0.2430105823202086 0.06872009875718964 
0.03563197568374295 -0.0267153986721126 -0.0004810679537299268 -0.002504822467907468 
0.6008360320991041 -0.09851607816718021 -0.02350445548161141 -0.4477372710322321 
-0.1621785249885313 -0.1327768251540903 0.172244833005636 0.1185025806855308 
0.4833071943736374 0.1024595443014851 -0.4685412299153418 -0.1884509867987328 
0.2619831924990624 0.174868562807158 -0.2028510866808369 -0.2022091608705687 
-0.84258308926197 0.9205276644441192 -0.1134953208933026 -0.4402990515844865 
-0.2331727401232788 0.6687279337657512 -0.359099264551438 0.08374878451222488 
0.3148527422241753 -0.1590024436908495 -0.4238610902626944 -0.4437687266294507 
-0.1211826884076615 0.3389944172570812 -0.7408546619001986 0.2156333822191832 
0.2491725921508574 -0.01284213901194499 -0.718357201931782 -0.2495492476379235 
1.183781536043391 -0.8403744195357994 -0.9079181430759589 -0.7588323616268912 
-0.2459080932998592 -0.5826443628814235 0.4105942825408504 0.8002075946448839 
0.03563197568374295 -0.0267153986721126 -0.0004810679537299268 -0.002504822467907468 
-0.183466996370696 -0.03075450685553287 0.001385870510541856 0.08357490455973982 
0.03563197568374295 -0.0267153986721126 -0.0004810679537299268 -0.002504822467907468 
0.3792144820437918 -0.6039213924118978 -0.6661544808612821 -0.2814147057606374 
1.456746958115682 -1.507253770239237 -1.000766325357381 -2.288056252563605 
-0.6156675370732934 0.2984898124182231 -0.1865710679116414 -0.216128682500809 
0.0827844541071945 -0.008425826635846144 -0.0007577339624213162 -0.0300501432016056 
0.3964695773676107 -0.1033241202518961 -0.1847786716452507 -0.07937805469217168 
0.01893454695351548 -0.1674057277726905 0.2149647184450154 -0.2167117992666499 
0.2516403622891824 -0.4825420796275611 -0.4907955407721747 0.1143956693524092 
0.0827844541071945 -0.008425826635846144 -0.0007577339624213162 -0.0300501432016056 
-0.03431758251026944 0.09623097461324458 -0.002450819230197795 0.08223847309477014 
-0.6756697831112921 0.6093847099799008 0.3450806429808033 -0.9710768284927046 
0.0827844541071945 -0.008425826635846144 -0.0007577339624213162 -0.0300501432016056 
0.0827844541071945 -0.008425826635846144 -0.0007577339624213162 -0.0300501432016056 
0.0827844541071945 -0.008425826635846144 -0.0007577339624213162 -0.0300501432016056 
0.6151335203031075 -0.7022254481172198 -0.08418820961240714 -0.8246138080929604 
0.5682949044287215 -0.5848334155247502 -0.04705294775073407 -0.006582783873760774 
-0.3450345009717385 0.2265261923866034 -0.7848731847754765 0.6408441257889179 
-0.3526713871502749 -0.3923639514861129 0.4150654338525486 0.141346742364056 
-0.2908289335818381 0.100363401834896 0.005762900338602356 0.16100005004778 
-0.03455270669251193 0.0003698747248327781 -0.1368749541071658 -0.1090907028510627 
-0.4820233126341585 0.2244375475835662 0.0158142120428339 0.3334448286472306 
0.1158009433615781 -0.02148662899181794 -0.7399787859993676 0.4380840242928744 
-1.439464018612957 0.9499151088698882 0.1570215032614483 0.7511199143432423 
-0.3956599993511807 0.3842778116960338 -0.3266100767976825 -0.0656033375609964 
0 0 0 0 
-0.0573167380843362 0.1490391423778739 -0.04786550283462859 -0.06234220543552922 
0 0 0 0 
0.6497060437962583 0.1128872074779653 -0.5825004586720923 -0.5011598842378907 
-0.617706594899328 0.2105972078688121 0.9986998956046991 0.07144676375494308 
0 0 0 0 
-0.3369776605973853 0.4643280783597474 -0.3113078139361956 0.6426055047298529 
0.1301529136490615 0.1056610170452395 -0.3011567888482197 -0.5693189305689091 
1.235143525450583 -0.642410203656838 -0.3986109182703275 -0.587082282479789 
-0.6300262260516986 0.4152227976149766 -0.1000147480066024 0.2646649068321934 
0.9228840236248955 -0.5882305074630773 -0.1637025787334636 -0.4485893793013813 
-0.1139126876509726 -0.146548407713269 0.0008904370843859505 0.09292099877699361 
0.1693177649434771 -0.4495043365681051 0.1973090945521194 0.604721147824087 
-0.2527792565005922 0.3598956377794326 -0.7917613628977401 0.06560839738837568 
-0.3867541636968022 0.3144857857273465 -0.368900823106976 0.1704266101640116 
-0.3669005902176273 -0.3482353495710491 0.7762253092816466 0.007812532423702955 
-0.4735377762558126 0.6167888041559233 -0.1452703062828931 0.03663311535294848 
0 0 0 0 
0.5829716255907762 -0.4455045259607316 -0.3435754430358664 0.3346838405993158 
-0.5663923896759737 -0.1641691874049919 -0.04997882923859782 0.852482301331834 
0.05951938177413875 -0.008183858093228535 -0.01151180672505895 -0.09043903958043642 
1.156378517316263 -0.7696054664595505 -0.4036760378328551 -0.6699691837457069 
0 0 0 0 
0.2898614882908279 -0.05305220948728104 0.1226058692690821 -0.6581753280313931 
0.491543659539215 -0.4838665043433826 -0.4435152003737908 0.3253701795861197 
0 0 0 0 
0.06018304443168999 -0.02872047014724199 -0.02498941785666072 -0.003894990690646892 
-0.2656046065283534 0.6417911760813212 0.3699821461260071 -0.2606925304868032 
0.06018304443168999 -0.02872047014724199 -0.02498941785666072 -0.003894990690646892 
0.06095225161101361 -0.02848665830278421 -0.02483051149399456 -0.00632937147376708 
-0.2543677568693239 -0.04176608439832741 0.01713237665290544 -0.1460128521842168 
0.0789865876189616 -0.3510766581099249 0.3004458701294731 -0.2154776408466604 
-0.03179620095764916 0.338040833971911 -0.09145697254722014 -0.1972143921565619 
-0.1864631295997276 -0.1480634658557469 -0.03230350190981211 0.58710414657998 
0.2334214127509866 0.1638315446509683 -0.4847691130018981 0.1514083906804354 
0.3280729666507179 -0.09784433979673884 -0.1073766387878816 -0.1548114714767681 
-0.7367723974794785 -0.3853991564535754 0.9468415533879754 0.5545282741631379 
0.6403524198674717 -0.07649414906911783 -0.7143916596737983 -0.8617862098928977 
-0.5493880137310881 0.5456551018178675 -0.07978683991558429 0.1749360134879897 
0.09254868319742326 -0.03413703810852518 -0.02992966402638738 -0.07217840489892442 
0.478112902716814 -0.5582710603632305 0.1138165903458394 -0.09588219297259662 
-0.5834184556521778 0.1805803034535604 0.4466926504969397 0.06630814998142628 
0.1705396843775139 -0.5644359542019769 0.1554097648045467 0.05892325447798387 
0.4291994089777582 0.2457126931689199 -0.9603109814181272 -0.3334356809227776 
0.3677544258765191 -0.2495794347724128 -0.09480325801228365 -0.3277050377814605 
-0.1063627589496175 -0.04483152835791151 -0.006465738729945962 0.3273683210950001 
-0.4394572250372203 0.5687153244932363 -0.05752522449832709 -0.04913878044433748 
0.007874478720954535 -0.0005380122053888551 -1.561134921676164e-05 -0.00880612693858749 
0.0306278823801297 -0.003432444573321911 -0.006266527992449027 -0.03222894835052442 
0.3799137758115239 -0.448770473852922 0.2487732010093775 -0.2569714367165792 
0.07550183902513759 -0.6873171230074092 -0.4551896841276365 0.5174116213627558 
-0.0001607371071212366 0.001962792672954154 0.001611582226167462 -0.00911376384512937 
0.07857581891325327 0.2018412680737423 -0.2428493987036985 -0.1341430615528535 
-0.1479403242681253 0.3219389116320697 -0.1784397524118919 -0.05593841534900243 
-0.3743043244170011 0.08398680362705051 -0.2468715898975055 0.3439414093630429 
0.1314904678102347 -0.3928409958566715 -0.01383062525600944 0.3730320492984672 
-0.6043335609233906 0.6866522462867295 0.1786178842997187 -0.158057663751314 
-0.0001607371071212366 0.001962792672954154 0.001611582226167462 -0.00911376384512937 
-1.347732211205065 0.8524235952772139 0.2788727320587014 0.1692553201780083 
-0.0001607371071212366 0.001962792672954154 0.001611582226167462 -0.00911376384512937 
-0.4230470909111691 0.5309517886810037 -0.1881449341988271 -0.03183932014417986 
0.5790784111623923 -0.2914631830786866 -0.421527446493532 -0.4025905209113407 
-0.0001607371071212366 0.001962792672954154 0.001611582226167462 -0.00911376384512937 
-0.06045833106982963 0.0554867905907303 -0.01917900860366939 -0.01606491746969307 
-0.06592972593447011 0.2474208339300328 -0.7264968587552909 0.003264846892229223 
0.04912328847251327 -0.127149155407476 -0.1671689151922114 -0.2098143290777535 
-0.0001607371071212366 0.001962792672954154 0.001611582226167462 -0.00911376384512937 
0.5620287526813037 -0.4996044536100873 -0.1696108445771224 -0.140027952569107 
0.9942041344431627 -0.3419437629800671 -0.4390554778527156 -0.4133087538706783 
0.1613159751689781 -0.08259279229390507 0.1147725342282805 -0.1041483534218367 
-0.5808587285505425 0.8454647654434642 -0.1676357515368143 -0.07308932849661648 
-0.1451416456900927 -0.3433286479756978 0.2983657113616415 -0.1490833466889206 
0.6012999941311223 -0.2662008727798283 -0.4612090315232824 -0.3464382453320562 
0.4564274577405737 -0.7489930630490738 -0.2484090378530728 -0.1313277987055319 
0.2967392534232254 -0.07730808894370203 -0.1050359738523396 -0.1161264644190814 
-0.06308304861118924 -0.02481999341122518 -0.7265490122980144 0.6688497710611401 
0.006949423419333963 -0.0007638655349161852 -0.00034949048389163 -0.0165514082049299 
0.01786396295033551 -0.003279713040543986 -0.0005017087478044744 -0.01073351403449576 
-0.2547829737933048 0.4465435721427534 0.06354342186775151 -0.4541087983174265 
-0.254736690360335 -0.3575858879203315 0.5706488072104809 -0.09812759671600661 
0 0 0 0 
-0.6300026415619873 0.1343942821398362 -0.2395761774473782 0.8704878004333274 
-0.2052976180830412 0.220752079736098 -0.2201100414784133 0.3949478975005797 
0.1571681906189739 -0.0433915488483936 -0.02031578367955403 -0.07350374790023116 
0.1106558686431146 0.2418523681858455 -0.2556378173856783 -0.08532384737927093 
0.1819854351707478 -0.04879395261329753 -0.0304068427691428 -0.08588470468316439 
-0.1651624271607972 -0.1828340895220497 0.6609948607495439 -0.3406466640281812 
-0.01899896344277746 0.4153401208416902 -0.2278261015450234 -0.2206049152867016 
0.04903449554471824 -0.1973576952202191 -0.3641045921133759 0.3870893978456596 
0 0 0 0 
0.4899457504462714 -0.2191110079846517 -0.7005708450405831 -0.1372898121714243 
-0.5892103852737706 0.2393742305027813 0.1321224893276733 0.9095583148234462 
-0.004896179138935905 -0.2784671289674498 0.1841704300179133 0.3811305849193712 
-0.1687819176923945 0.115925732417316 0.4768991744332295 -0.07243762241802253 
0 0 0 0 
0 0 0 0 
0.6115111483277884 -0.9903741826540089 -0.2793132869208368 0.3414409737422 
0.3533068283201937 -0.5114391026417221 0.3202649720024905 -0.2721536763412175 
-0.2557639372349824 0.4038352851983156 0.02527797805505993 -0.1587701739589452 
0.01461756211018397 -0.004540623751701557 -0.009036139557947829 -0.03293694909717342 
-0.2872058051470751 -0.1100065889334019 -0.1008843371771355 0.5699949829937371 
0 0 0 0 
0 0 0 0 
0.1769533159655732 -0.1363100367029372 -0.006583528621793026 -0.01931348780002724 
-0.6565211119738845 0.9669789229736465 -0.2132404816663351 0.3784223785725569 
0.4872250790414521 -0.1330547327583085 -0.6188904775467924 -0.1243855946936013 
-0.1836954066246748 -0.1238335617617097 -0.1992695807630664 0.5940290467885536 
-0.02167612367880226 0.01941490150892189 -0.005345925654614425 -0.02066234079164691 
0.09264389322572586 0.1122134506219435 -0.1863091446583027 -0.1396505006061192 
-0.01935232898785733 0.1155174713830735 -0.1778532198566763 -0.144606590426505 
0 0 0 0 
0.05319691415067358 -0.09516981689638404 -0.01454019488107607 0.2692936909591927 
0.4118367709698902 -0.2696187303609162 -0.3899450494567235 0.1015474496502222 
0.4154806529952961 -0.3772277104322394 -0.08904063167412088 0.3554327830195937 
0.3442460787689585 -0.1719432013529356 -0.111556485829894 0.3228247400623525 
0.05759966377157688 -0.06945348132995445 -0.1322527164058911 0.005446418616945004 
0 0 0 0 
0 0 0 0 
0 0 0 0 
0.2784084065457024 -0.7203646203602712 0.2876882703689606 -0.1049642573062237 
0 0 0 0 
-0.1746052222828866 0.6978860225702915 -0.1907297789235888 -0.5310496966060732 
-0.1821464481026555 0.4064870583394065 -0.05689377990143683 -0.1623566955271427 
0 0 0 0 
0 0 0 0 
0 0 0 0 
0.02117371016942656 -0.00902008196535657 -0.003692165115379443 -0.02521002783359386 
-0.02094443764472258 -0.3331419096292772 0.3224560891397831 -0.05202732815894567 
0.08663048306930451 -0.4047472214013717 0.2808648898836886 -0.02172698410085859 
-0.2278836768884346 -0.3571428087012765 0.2583456288879588 0.3053075907209708 
0.9945546686126155 -0.5943228180189986 -0.3657681684415081 -0.317212084752629 
-0.1541041307176582 0.2487880834009912 -0.04161097233297179 -0.1202006099057239 
-0.4737807815374673 0.6568017374253806 -0.5401274157649573 0.4721966761636716 
-0.2016578408190304 -0.1008227153463236 0.2412905831122719 0.270552965314884 
0.5290683708687099 -0.4946813665676457 -0.09568220582761093 -0.1779145889303432 
0 0 0 0 
-0.5595806313971403 -0.2214437572491661 -0.4169267552669695 0.67352594116497 
0.1503865811259523 -0.4135396115038152 0.59869784658855 -0.2518102792803448 
0 0 0 0 
-0.4694685188120054 0.2410483572123353 0.2845489875839737 -0.1631777677728357 
-0.5208543716506039 0.09809178887465064 0.3830693067251508 0.06926498707304003 
-0.009521612566282756 0.1202292326805378 -0.2339297726753139 -0.2620089127021413 
-0.3756245350973278 0.4692938907069954 -0.128263464550105 -0.003098393910052316 
-0.01536975826586883 0.1663673167291897 -0.3834311244808281 -0.2760166586221381 
-0.4724667838089831 0.6259917495911272 0.1392817872391709 -0.2335717238161204 
0.1467982003382999 -0.6696063138947808 -0.2434734997133156 -1.61696647817878 
0.1467982003382999 -0.6696063138947808 -0.2434734997133156 -1.61696647817878 
0.1640167885881647 -0.06935159723582396 -0.08862792322038925 -0.01145039387224153 
0 0 0 0 
0 0 0 0 
0.1088721640799215 -0.05385744077806183 -0.03255911990225247 -0.05497791242432309 
0 0 0 0 
0 0 0 0 
-0.1418494471486215 0.1031278920816108 0.1909421238916003 -0.1104143137100793 
-0.2344017388975916 -0.2744136795742147 0.4515321691486537 -0.01245440121515075 
-0.7555995505217926 0.3681631014852531 0.3835070989701299 -0.03821476269289308 
-0.3024927519523208 -0.02892380290968798 0.328120754531753 -0.09258115172325095 
0.1340047870441939 -0.02642176379170389 -0.031014257999451 -0.1684820496195311 
-0.439642474048461 0.7937962754186622 -0.3306690309152234 -0.2637345616169635 
0.06822843760806838 0.1283779220016258 -0.1191861658077705 -0.01671246412016116 
-0.126219154228706 0.7193047106351724 -0.592074518022743 -0.507993902700947 
0.8984937549421113 -0.6823859745346446 -0.1970892781927266 -0.173821419276932 
-0.1306125169899732 0.06911139073348628 -0.09957262864449745 -0.3722497708294751 
0.3271191985959961 -0.46980343783936 0.4416185992398717 -0.102989776335282 
-0.1470601518546792 -0.09492015192946669 -0.147449372577964 0.4963886771356624 
0.3958486885900687 -0.168068060404929 -0.07353227873371451 -0.0547646474223682 
-0.08921872762554707 -0.3986991359741467 0.04345371959612526 0.2662309471792969 
-0.1298242398236454 0.1135197007775861 -0.1236000359291782 0.05392136442624802 
-0.5705566287208346 -0.009078000178508214 0.5801493036808097 -0.01989589868914177 
-0.2328590805643753 -0.2118523385636899 0.5402420806503214 -0.04109512984316298 
0.0661822445992751 -0.3414689286249741 0.3893531750667474 -0.1265552112644284 
-0.661521701447508 0.3784028355557405 -0.1521260870933944 0.9551620067178865 
0.1491524207901859 -0.1139146295123139 -0.1921384859931015 -0.4369663127431699 
0.3719693716652451 -0.04609001825426045 -0.393079845158981 -0.3491849295819443 
0.06179934769358146 -0.006055618370916774 -0.005184252488201761 -0.01146328484949986 
0.1808487706833886 -0.1214139414064892 -0.03302502505167125 -0.02942359834361945 
-0.4826361683762742 0.2357696306695535 -0.07212195104905214 0.2441077654309572 
0.8040612519983377 -0.7487693069669901 -0.1102952375459646 -0.4677628818440286 
0.5071790634201525 -0.2921098528386431 -0.194415035929472 -0.7548757709381712 
0.5403699106024699 -0.0655015563860349 -0.7823167928012824 -0.0598785874687669 
0.4271566372817389 -0.08712115392001739 -0.2401949826127726 -0.3745963811784474 
0.007050106678030163 0.2309510349019628 -0.07264959015628722 -0.1063033899461538 
0 0 0 0 
0 0 0 0 
0.005307149791176359 -0.001114287414289056 -0.001908657358710158 -0.003576396115057287 
0.1587452825435666 0.03871753590086931 -0.08291405190480294 -0.1465034259793555 
-0.04750052540240142 0.5778581118060681 -0.3301231077736379 -0.4464473165427244 
0.3326120812094767 -0.1508989959385162 -0.05316602036236339 -0.1305829536454538 
-0.2636206318603323 0.1906519023578686 -0.04187804042265582 -0.01370912915701388 
0.262348783163492 -0.2656078233191779 -0.1527334623319844 -0.2189432779438295 
0.4607659114263066 -0.1656230327822382 -0.3025359907362071 -0.07268914307374041 
0.5164211324426076 -0.3287649396208085 -0.1852724465060474 -0.04265587104194555 
-0.4652786907050275 0.8535651339953572 0.05989521392562469 -0.4314700572769481 
0.6825669108784509 -0.2221296435466067 -0.3591883302843924 -0.2575494334329382 
0.1300425868694767 -0.2915931482244384 -0.02678690909104012 -0.3660429798441965 
0.007655278842531541 -0.007503852695727248 -0.01145238914633098 -0.008603246599749573 
0.1186312033562773 -0.024547102659624 -0.6165214399742472 0.3592919352978535 
0.1052423610686674 -0.1095249181703313 -0.01379280830807155 -0.03920828351007414 
0 0 0 0 
0.1260399278344166 -0.08706314560395395 -0.0137803882955684 -0.03062995391451281 
0.1511466359200937 -0.0551235527269037 -0.1614916816531751 -0.1065033134207283 
0 0 0 0 
0 0 0 0 
-0.4719208093833499 0.7399770659634521 0.004178122834995524 -0.2166469706259908 
0 0 0 0 
0.1487585137091137 -0.09812413862187902 -0.121725013649687 -0.004635926707160635 
0 0 0 0 
-0.0878152409149932 0.2658087295067229 -0.08047912492350506 -0.06637190465509123 
0.5261669885967898 -0.298713661107966 -0.2542662452498293 -0.1886438564524751 
0 0 0 0 
0 0 0 0 
0.0758257577048906 -0.1055315354298557 -0.01329749664763401 -0.01886433989013723 
0 0 0 0 
-0.09850612328227407 0.1081439642388231 -0.02022516407768714 -0.0435657885750516 
0.3734974543373664 -0.08815041787911987 0.06088735783775832 -0.2811505012888469 
0.3253930577994787 0.3193068721766066 -0.3751995057134306 -0.2534425452972995 
0 0 0 0 
0.01549814536000703 -0.001035112603955641 -0.02355786252441953 -0.009381066432708411 
0.3467520325581452 -0.1899923712587726 -0.2267320182895264 -0.03734945354249208 
0.2917833765680041 -0.3811759290576248 -0.05259673945641406 -0.4034849835207391 
-0.2544272191813903 0.3983223222279434 -0.1350143432197953 -0.04853097791152606 
0.1945872607735211 -0.1035798053607473 -0.0462601992192858 -0.02531400574948988 
-0.864711412387573 0.9664869263308383 0.7936081114250327 -0.6500594989081241 
-0.292994432289113 0.6102545329524195 -0.9586452433883567 0.1970555296337074 
0.1170808000347238 -0.07518026748522147 -0.02442499045455128 -0.02446991592873769 
0.1909459341655624 -0.02340738743194401 -0.007138676674738066 -0.1562883891629559 
0.5144846944113124 -0.1495248233151338 -0.4219775559265063 0.1885871805092749 
0.08819355605027464 -0.1910749797596416 0.1109862891478664 -0.1378141732828479 
0 0 0 0 
0 0 0 0 
0 0 0 0 
0.1430301834556653 -0.07370225069950809 -0.1105162533812323 -0.02046718941203371 
0 0 0 0 
0.03952376173363251 -0.01517088646525305 -0.002695859410762293 -0.003671316775794126 
0.02369998397458949 0.1342121756855621 -0.2294372792259012 -0.165622154191366 
0.02021482363193032 -0.07865148736046473 0.3797406842489515 -0.2128137035418161 
0.392212815160305 -0.321589714537769 -0.2756762337746619 -0.2690903228259205 
0 0 0 0 
0 0 0 0 
-0.3980681720872292 -0.0001547565348852444 0.6035847095867196 -0.3184701925067302 
0.4044725811065738 -0.2691238146777769 -0.04936655342753356 -0.04760696145903787 
0.0436579170170701 -0.1902408060847332 -0.235098954150211 -0.02531682935622056 
-0.1998011654793273 -0.2324999408225083 0.5586443596166027 -0.009468574543929877 
0 0 0 0 
0.04747618324637626 -0.002981791847911292 -0.09377939864079136 -0.00409534610200373 
0.1526898927017039 0.03539079686991498 -0.1154975468300265 -0.0239135447897008 
0.0206618803727465 -0.01186005208840329 -0.003906160196384142 -0.02287782311991848 
0.4933612602076762 0.2298039428830567 -0.35429008693803 -0.9617162541465681 
0.4535350030310967 -0.2138850340386759 -0.007310464877031977 -0.2629203892198642 
-0.04851720872459394 0.06341127757580731 0.2768804589259244 -0.0674065215548857 
0.7303541843184422 -0.3231212247973252 -0.3256076369172843 -0.3637382731657897 
0.6122303204759645 -0.3181309454713728 -0.1598780315304038 -0.1787427497849347 
-0.2961526061937583 0.4202560561726228 -0.1275187576234904 0.09055569968309399 
-0.2599454660881553 0.05977212050691112 -0.4146289134834976 -0.1498352599822423 
0.3301220103295985 -0.1095109601863428 -0.1847875410077973 0.01331182178009473 
0.6092257236623777 -0.7519733259847982 -0.3017767994706876 -0.002984517173478411 
0.345716744577324 -0.2213030787567661 -0.1396541539382962 -0.04741238331107557 
0.0007672729895599762 0.0001736693237305787 0.0001702054337542223 -0.002850934406998648 
0.1004071981096157 -0.005165932354682533 -0.01296557843987114 -0.04475895761063876 
-0.3602967176154871 -0.009218242169641953 -0.007435494643300425 0.5803978128279704 
0.007202805884167971 -0.1470462367313247 0.08866260746847245 -0.2505875760215758 
1.381129625577431 -1.013935595726138 -0.6756250108454948 -0.6045769420698325 
0.1079258164493023 -0.2310745748173142 -0.009440726989039491 -0.004966328328607571 
-0.002684953277046353 0.04002304319109901 -0.01078437934187194 -0.03548673071602415 
0.1812713679681144 -0.2608424110254715 0.1168417288060097 -0.05493759843949488 
0.1111622237599885 0.002711472363764253 -0.09551622461047996 -0.1035927606571412 
0.1111622237599885 0.002711472363764253 -0.09551622461047996 -0.1035927606571412 
-0.2366975158683212 -0.02158774750515291 0.05001567784421319 0.3118817963850585 
0.3374727030507961 0.1338661534790506 -0.3103874151136772 -0.2501513310341204 
0.01420147936705228 -0.001895574092752358 -0.003518242386890811 -0.006603666464525597 
0.7150316711534367 -1.033468834499108 0.5453931442886635 -0.7714250167340861 
0.2955090734432563 -0.129338344212423 -0.1497080492360989 -0.1607804074448975 
0.07728957614714492 -0.04544443710889994 -0.008549320974046211 -0.02003824790125855 
0 0 0 0 
0.2161104212798574 -0.1027732184317759 -0.311518219428571 -0.1408975140699362 
0.606724863554519 -0.3936134817361234 -0.4063641921994849 -0.1632701999861344 
0.1020154273998585 -0.05182924682119083 -0.1243579915280171 -0.004720629398813626 
0.1087084912342357 -0.07680998165588082 -0.1277345708002793 -0.007745512153034121 
-0.2031056078252153 0.6445586608398461 -0.2399484364349612 0.0151886650820845 
0.1020154273998585 -0.05182924682119083 -0.1243579915280171 -0.004720629398813626 
0.1020154273998585 -0.05182924682119083 -0.1243579915280171 -0.004720629398813626 
0.02974219051955937 -0.09972877315635396 -0.03113870971696809 0.1750211386551484 
-0.3420133264265948 0.787233123973912 -0.2826377616626763 -0.3133697976782778 
-0.4358045775708082 0.4082145275922608 0.2533095985966347 -0.1586650941518557 
0.1871484727559605 0.3204153296768378 -0.655201004288836 -0.3962725103924897 
-0.05370093196689081 -0.09250543962835232 -0.01745342835641467 0.1168930445259759 
0.4628757583235947 -0.491888041912123 -0.4115233524770902 -0.1057951892018728 
-0.7039991785741749 -0.65473991937753 -0.2308385535025299 1.138435625460336 
-0.7039991785741749 -0.65473991937753 -0.2308385535025299 1.138435625460336 
-0.1296596265890233 -0.2015107999133893 0.3820627370849506 0.2391431920746312 
0.3823069543494784 -0.1757667736159659 -0.06298296989702377 -0.01843160575588667 
0.3823069543494784 -0.1757667736159659 -0.06298296989702377 -0.01843160575588667 
0.3823069543494784 -0.1757667736159659 -0.06298296989702377 -0.01843160575588667 
0.4357712932512308 -0.2015279262056524 -0.2373632077590861 -0.2355113564510436 
-0.5858289433700499 0.5230834638433671 -0.4682114939611046 0.3616940194712275 
-0.003580310920625215 0.1143781315254056 -0.2283350775644832 -0.3472138159246559 
0.1349584986461162 -0.08176715787500072 -0.01128807817850042 -0.05293041026433257 
-0.8564805873639888 -0.1238181622617683 -0.05241422283092832 1.018229612524206 
0.1603994490232292 -0.02643174940505772 -0.0009922321893757787 -0.08029235672248147 
0.2606861705364714 -0.07565152032914775 -0.02274449679145659 -0.1010621570889681 
-0.3760473239021944 0.5384500068779319 -0.04240706958991108 -0.008816303435965315 
0.2552422909078607 -0.3234574903375605 -0.1839389628921752 0.1517389663737422 
0.04551710905065719 0.1145584303541448 -0.1138842238522004 -0.160625697315137 
-0.1997332127779528 0.7612720491967876 -0.263241644397529 -0.3047621896098384 
-0.404045408660706 -0.009954393247899086 0.3873929233677494 -0.05388757045329774 
-0.4721597037128316 -0.3671601944468141 0.1708969844958681 0.2247301360543628 
0 0 0 0 
0.3465772145287073 -0.2258260516771474 -0.1922060840001326 -0.087315926222264 
0 0 0 0 
0 0 0 0 
0.1507429669202502 -0.9325082162829776 -0.03627879997309183 0.5226754327789001 
0 0 0 0 
0 0 0 0 
0.3805305141112654 -0.09028109652753492 -0.1727938116928329 -0.1913911566189567 
0.454898149911643 -0.9497983240190944 -0.1995659913101396 0.07811765257357921 
0.7394950921590483 -0.1365955759394807 -0.5076118829429008 -0.5716986641458891 
0.1910874947927653 -0.4453139367224642 0.01641382780179046 0.01506497964777826 
0.1681932089956977 -0.1658607960273242 -0.1427424478063282 -0.009174374689886012 
0.2744541736031469 -0.1632443374262187 -0.1551454376707254 -0.198991750392063 
0.1916603980311742 -0.119396818872216 -0.06188237630547966 -0.1903748229879594 
0.04550702042041968 0.1982753758108239 -0.1380366506921182 -0.4734581896048639 
-0.01638317221684904 -0.4573334812867948 0.2770898524630161 -0.2035729450705638 
0.6604152321741715 -0.6585758477026917 -0.4307195129214242 -0.4629405684811115 
-0.09822745504120109 -0.1700473942251129 -0.3880680833537172 0.5807198569824084 
-0.01254700882006837 -0.2310609953753748 0.2580696799482073 -0.3733363845283512 
-0.01155121769071403 -0.08992007430520949 -0.06783794820454173 0.2599739326208953 
0.6360859701442443 -0.3750805322354782 -0.1529674795443387 -0.2935197547174752 
0.1096294424410872 -0.02803421117925766 -0.09451495074968633 -0.02557172043486433 
-0.053915225271088 0.1227445001962245 -0.04061689214155594 -0.03069691984921851 
0.1512612526395455 -0.03634108889479268 -0.1112000580596853 -0.02898134696897347 
0.06297350651675432 -0.02028378155440423 -0.04965397685048378 -0.03135788742776162 
-0.1460172496402589 -0.4588396717820643 0.3479568972980474 0.1702733129237829 
0.09372583235472889 0.3088687562589786 -0.1586581514559417 -0.06585467655116684 
-0.1319340871513809 0.203952622887613 -0.1253427512605603 0.1661791933829228 
-0.5894969513093693 0.2513967167925366 0.07686690314749679 -0.1513140070771861 
0.2406592129973424 -0.1382659371366251 -0.07939950440350682 -0.007824400016065356 
-0.04849085247700926 -0.1879829356168226 0.04692137338559302 0.7155834618853096 
0 0 0 0 
0.9605725385017698 -0.6925575951388498 -0.3895566736276502 -0.3630568821113206 
-0.5140316728443596 -0.1199600239352866 -0.02564429114245826 0.6988763955125888 
0.002966338933195192 -0.0005920278166677635 -0.001633157329992219 -0.01542267720846704 
0.1246841852952133 -0.1278273999416611 -0.08022279506488379 -0.08646703544673665 
0.07019840589029948 -0.06343246177259111 -0.02479403840177333 -0.01372473663072369 
-0.1947422206834949 0.406150998868072 -0.2300265724068462 0.300885535040942 
0.4172588946364829 -0.3058973833335168 -0.03312284825254367 -0.1074945976288417 
0.01072327461777337 0.1158247184420698 -0.07570064744421533 -0.1028456212919707 
0.4356892903640406 -0.3381061672174725 -0.04073447547120372 -0.1222078484974899 
-0.1696093232096409 0.4196494378994775 -0.425458411398246 -0.391582966216002 
0.0007524635193460298 -0.1839924391122439 0.4677540682569811 -0.1518841162568128 
0.03898788775305997 -0.02511895062194016 -0.005075415691586899 -0.01758856580180244 
0.02298144316077443 -0.004656940241456704 -0.01030332144831415 -0.02250408413348416 
0.02298144316077443 -0.004656940241456704 -0.01030332144831415 -0.02250408413348416 
0.03365041308626619 0.02544587339322619 -0.1772087806327788 0.01248882105462418 
0.72163380814591 -0.7045982176517377 -0.07479417848079407 -0.464026763257493 
0.8978461999411811 -0.2048305281285923 -0.5561963906760021 0.01655376751739625 
0.1938785799022306 -0.0002267008647606848 -0.09236064188987593 -0.03966221080721376 
0.719969241653164 -1.414763007582876 1.09577285207422 -0.3355281669404714 
-0.01802125577326896 0.1332099258244679 -0.1731889898568101 -0.04523074152196096 
-0.3616365382381688 -0.1437919245211397 -0.0647557342559299 0.5296920502948863 
0.121821214690442 0.09301244625286254 0.5227368129973137 -0.3693612142747767 
-0.06211640883329029 0.1679019496040336 -0.03132946386710801 -0.06722106295253463 
-0.2723083377673977 0.225759410920785 0.09013001372681938 -0.2275063758344604 
-0.2010990986940557 0.3602622956676403 -0.1025464894516578 0.1397803688263791 
-0.2400646035656732 0.1467340586614634 -0.2864745478023901 0.08003419957851818 
0 0 0 0 
-0.3610934425491847 -0.1056856392604509 0.370583864504848 -0.1754462363818031 
0.454978425820001 -0.2834391085306514 -0.1535804230914793 -0.211118523236123 
0.5362344582917501 0.2343520099523928 -0.4997129191286345 -0.4992008518605524 
0.04565946548725046 -0.007730410153028118 -0.1259338870452309 -0.006827408708714333 
-0.05636207276304527 0.06345302165906558 -0.07815017248813487 -0.0441539216948053 
-0.1102915855482784 0.2741592272613042 -0.2933917699192501 -0.3496907583238957 
0.9471792087357932 -0.6705721970452554 -0.2326487911006767 -0.2633057428672513 
0.2394307509020308 -0.1702208332944801 -0.2103155991236175 -0.1393999092109578 
0.06727138017073993 -0.01895889825058142 -0.04241997585602107 -0.1018587921306416 
0.03977727136598011 -0.01179140229074451 -0.00184311207974011 -0.0304628190843578 
0 0 0 0 
0.1298126550443904 -0.09447334079974204 -0.02032121048369267 -0.06883907353811748 
0.2535739020476848 -0.7169364564388871 -0.1206760748774545 0.7329659933332693 
0 0 0 0 
-0.02804869278763731 -0.2940264081638777 0.4114907595503128 -0.04711179372866738 
0 0 0 0 
-0.1425586797646528 -0.06867410342213018 -0.049595533766105 0.4523445018009879 
-0.8399536556102342 -0.411914295977197 1.367358113701434 0.3322535934066062 
0.08285538497049195 -0.05243465613355022 -0.02104714209339665 -0.06785114859145916 
0 0 0 0 
-0.4572604162771752 -0.2897737719668782 0.4212678282344388 0.2978568981183317 
0 0 0 0 
0 0 0 0 
0.02175290745541161 -0.002371200349591087 -0.008914436925982002 -0.08676605279094302 
0.03128351956726756 -0.01685499809294635 -0.009786345668375409 -0.008411389257994766 
0.01246526597149907 0.05110034630154572 -0.01631012381665612 -0.08754341816779812 
0 0 0 0 
0 0 0 0 
0.08797969786577733 -0.1937863921483639 -0.1960796619359269 0.2410211506885507 
-0.2715806042165845 0.294703460018043 -0.02789596013227566 -0.002830091703931969 
-0.1992810585710229 0.4705857848236131 -0.1867408833304456 -0.1693752679872824 
0.3255668911314576 -0.8455514792315926 -0.7382971868003299 0.3498653098285915 
-0.3142115147064847 0.3259506472320499 -0.2578878244565627 0.1932822623366464 
0.03333800211873278 -0.02214759756189496 -0.003265228853129581 -0.01565706944473647 
0 0 0 0 
0 0 0 0 
0.3289268814574396 -0.1702837737070468 -0.02396898215548121 -0.1443027208380076 
-0.2798541312954693 0.7036897788553679 -0.2652154104594269 -0.1380480364789203 
0.5453021260704216 -0.2143236936395608 -0.1214671805772111 -0.09449814544309178 
0 0 0 0 
0 0 0 0 
0.8626496004029494 -0.4926216136359948 -0.320086754895026 -0.5340272549248624 
-0.3795734888118833 -0.2650797901632518 0.5156122931857066 -0.02965857049569598 
-0.2503486372052938 -0.1387611598505659 0.3469293091647811 -0.01420414695563962 
-0.2503486372052938 -0.1387611598505659 0.3469293091647811 -0.01420414695563962 
0.1521010079710379 -0.36102254387634 0.2148891312179217 -0.06850993374022761 
0 0 0 0 
0.2755957478146879 -0.1822249835677227 -0.005680413228109835 -0.02095298576694106 
0 0 0 0 
-0.6979362014712842 -0.006472028918076626 -0.03320313903545945 0.2926296710638474 
-0.01771285548373712 -0.7909558045138169 -0.1578650455536861 0.7294578769207968 
-0.1936198843093572 0.02833858018916543 -0.4080752863501816 0.3294613758971984 
0.001886954689428885 -0.00055405184307926 -0.0003821264427554199 -0.0001501804806229699 
0.2002595829907036 -0.1179061915871187 -0.1104407301114727 -0.01232257709128169 
0.1158588258320327 -0.03951806872565251 -0.009629650780870934 -0.04010008602721516 
-0.3455964809429038 -0.2285537672233162 0.4970298695164651 -0.09001395548555512 
0 0 0 0 
0 0 0 0 
0.7721917045704634 -0.6148577748797506 -0.3550759498983667 0.2277363928370414 
-0.07219859834841831 0.4246982715280311 -0.05879399294460487 -0.1613554767867409 
0.1014852486714722 -0.1107473518027534 -0.1907526376933067 0.3263352865220971 
-0.4444836430180358 -0.02770630616880934 0.6271502599337224 -0.003111286562817782 
-0.2392767893771653 -0.1273126117260182 0.2183591331986113 0.03282156140572344 
-0.2786776296104288 -0.09775965737842705 0.5042668283168104 -0.03412801601691163 
-0.02425243845535624 -0.3992003994659034 0.466562226026104 -0.3237959260598737 
-0.4444836430180358 -0.02770630616880934 0.6271502599337224 -0.003111286562817782 
-0.4444836430180358 -0.02770630616880934 0.6271502599337224 -0.003111286562817782 
0 0 0 0 
0.0508670204851283 -0.01809794734655324 -0.001721037443232058 -0.02366090351209681 
0.0508670204851283 -0.01809794734655324 -0.001721037443232058 -0.02366090351209681 
0 0 0 0 
-0.05038809766948718 0.2805759157725535 -0.07049935700949514 -0.1600715683945479 
0 0 0 0 
0.1518476974023281 -0.2899043415279225 -0.04817700841534659 0.1172714096020472 
0.1274202882828181 -0.5929846658635052 -0.009726104104300668 0.1309995859967797 
0 0 0 0 
0 0 0 0 
-0.08005222709752428 0.2336241399158039 -0.04547038975271513 -0.01468223854632084 
0.09162662253786041 -0.004993014919658549 -0.006369938590988287 -0.03879860778522241 
0.05764488339349842 -0.004075994099503294 -0.002846596730194293 -0.005847404655071541 
0 0 0 0 
0 0 0 0 
-0.06333417456972593 0.0928989078443673 -0.0343490387073294 -0.02952383760609272 
-0.8104372903232172 0.6559997386291072 -0.02852818611644863 0.1985990329514849 
0.04568257944416833 -0.02397383476352231 -0.02259151317096321 -0.01090977061151253 
0.04568257944416833 -0.02397383476352231 -0.02259151317096321 -0.01090977061151253 
0.08618490782507673 -0.03007435761072767 -0.02298570559985222 -0.05154827910252553 
-0.7990242542146265 0.5840364652530738 0.4779423619599005 -0.09418954159925963 
-0.6108844766882789 0.7207991036841102 0.09260021934884016 -0.1490115089565996 
-0.03659266311904509 0.1847667471321106 -0.1118926676981783 -0.04154738010339297 
-0.03659266311904509 0.1847667471321106 -0.1118926676981783 -0.04154738010339297 
-0.05780462996606035 0.3857893471884048 -0.3417971618567356 -0.04904936778084554 
-0.03659266311904509 0.1847667471321106 -0.1118926676981783 -0.04154738010339297 
0.01363480979917976 0.08055909214012433 -0.1463443111384223 -0.03217526079171922 
-0.08031234699374563 -0.07369307187335862 -0.04762355355013562 0.4046372251950308 
0 0 0 0 
-0.4269215535552024 0.2987876376830035 -0.3758090821072386 0.6373079051327656 
0.3208799479370001 -0.1442934958326448 -0.140797761524665 -0.03220069626741417 
-0.08276817492522462 -0.2863254223796887 0.7527751769338045 -0.07414132816607259 
-0.1614560569670771 -0.6844624833514471 -0.09965460843512769 0.5057598287529858 
0.2966278457644301 -0.1365787166568976 -0.009966444352914883 -0.1221526257581599 
0.5452999679410273 -0.3050278467527842 -0.3147594225952 -0.1879973993993007 
-0.1066995650456965 0.06849550593195278 0.2001037129243627 -0.2636472888240729 
0 0 0 0 
0.1326311886820929 -0.01762815337908228 -0.1454843126755148 0.008804872618613482 
-0.001562902291193362 0.3555512943146367 -0.1096390540851822 -0.2353470090151389 
0 0 0 0 
-0.4375221843265391 0.6173625284184044 -0.08926883433641486 -0.09878779987101335 
0.02414056484291895 0.1427813207925512 -0.05020758799341267 -0.3122642499684787 
0.01650741607266346 -0.009880427816989806 -0.001568504438376675 -0.01726194292549016 
0.01650741607266346 -0.009880427816989806 -0.001568504438376675 -0.01726194292549016 
0.2878614667299071 -0.1033831284408156 -0.03094444673208703 -0.04879813385304328 
0 0 0 0 
0.0250589773172233 -0.009992456771067762 -0.00201683979374312 -0.04654934821438296 
0.0250589773172233 -0.009992456771067762 -0.00201683979374312 -0.04654934821438296 
0.0250589773172233 -0.009992456771067762 -0.00201683979374312 -0.04654934821438296 
0.0250589773172233 -0.009992456771067762 -0.00201683979374312 -0.04654934821438296 
-0.3756154946431204 0.2934653239805884 0.1586352112583726 -0.1130447918202184 
0.2709061920125436 -0.1701524300954122 -0.04285549101536155 -0.07655834679051526 
0.06096314521412097 -0.1601727977236508 0.1139567932057419 -0.06441118327188163 
-0.2173816354710416 0.274735919549214 -0.145084973475274 0.04620620978393965 
0.02181250291901566 -0.003319376692967986 -0.1522700870327714 -0.04827612118075079 
-0.1876324564913542 -0.04395524036741995 -0.01770262470183243 0.1703942918672048 
0.05142748111484034 -0.1620505724097695 -0.01615383694221627 0.0110929299746178 
-0.1583626733570764 0.3923481306622617 -0.1490419825934571 -0.04794478904950525 
-0.1571459076955334 0.2193396161281384 -0.07269855051021183 -0.05409098411024987 
0.2097675918869073 -0.2996690986808503 0.1940605149369403 -0.2691641723842878 
0 0 0 0 
0 0 0 0 
0.1036882222381136 -0.05837628316296116 -0.009513129700033674 -0.01110528203816776 
0 0 0 0 
0 0 0 0 
0 0 0 0 
0 0 0 0 
0.3526146773690395 -0.5714852229461377 -0.1656210770581974 0.4209631968387392 
-0.2348452656662766 0.1662976907056012 -0.4263330411645739 0.7343417397322638 
0 0 0 0 
0.4010314761144352 -0.1667452137111181 -0.1298465471779075 -0.131623790792023 
-0.5628178683439516 0.1703025590604368 -0.1634464837107393 0.5567618737437786 
0.1329893867675322 -0.04727196993282083 -0.01240978964099823 -0.005154926445473195 
0 0 0 0 
0 0 0 0 
-0.21101241722717 -0.4503048469328523 0.1595244411513465 0.4061511616991104 
0.211179493597222 -0.121490367092624 -0.1427785309964284 -0.1108077085308425 
0.1029867017961715 -0.3738567650432418 0.2671658038475361 -0.02281645317071756 
0.1466079401091415 -0.044303303232135 -0.07342465986280644 -0.0157655009558659 
0.03914067235327705 0.04313391835642825 0.2399421737874368 -0.5901844033648208 
0.05957740348367845 -0.00387060325338403 -0.00648018070094697 -0.004874493934980264 
0.6162622484651004 -0.4193590751388309 -0.2504165344997988 -0.3546554750181439 
0.08173459930709645 -0.004003146828379476 -0.006679426762371357 -0.008226940934532261 
0.2022064777053149 0.1366600781117395 -0.122191173394488 -0.1435607961343839 
0.05957740348367845 -0.00387060325338403 -0.00648018070094697 -0.004874493934980264 
-0.4343920981149488 0.1716230845467344 0.4207893049718936 0.2824376458885295 
0.03988427261995906 -0.02661873354525769 -0.006947376492114938 -0.01997513340843881 
0.03710155626285996 -0.02608581747780262 -0.007016853408675268 -0.01412045819934953 
-0.4739010634404269 0.3748062448640621 -0.02358463713204088 0.1175617685487147 
-0.3041761550634939 -0.07584476938563478 0.3086831548979417 -0.02590952801026213 
0.0006551813214350794 -0.0004814029699306391 6.270643439328788e-05 -0.0001544564255670994 
0 0 0 0 
-0.2430640030853269 -0.1299804784428114 -0.1420080719835049 0.6618054525765177 
0.05617091698553624 -0.01109560721872753 -0.05505537838557639 -0.01631993415480167 
0.05338820062843714 -0.01056269115127246 -0.05512485530213673 -0.01046525894571239 
-0.2322950579238734 0.2496284548775255 0.1609045140324315 -0.3253007362553431 
0.05480703930131939 -0.02614159649373979 -0.02010369483576904 -0.01622202580779142 
0.1080911230464261 -0.06380531233339891 -0.03305230192878054 -0.02725213827793945 
-1.222130865866687 0.6815626973242109 0.8741539520200349 -0.1735254879673276 
0.07085361912256258 -0.06927351522346123 0.4472514544808726 -0.04798224203264579 
0.09012954128338539 -0.03011048727085695 -0.0005333237034932253 -0.01941652690074066 
0.09012954128338539 -0.03011048727085695 -0.0005333237034932253 -0.01941652690074066 
-0.7864259339489768 0.960241866557703 -0.4174516435314773 -0.007488163169113202 
0.09012954128338539 -0.03011048727085695 -0.0005333237034932253 -0.01941652690074066 
0.09012954128338539 -0.03011048727085695 -0.0005333237034932253 -0.01941652690074066 
0.09012954128338539 -0.03011048727085695 -0.0005333237034932253 -0.01941652690074066 
0.14867224078614 -0.09037013118184332 -0.06131475455515768 -0.06067571859168561 
0.02975535623475778 -0.03839774360608125 -0.1399052280398634 0.07916081495644717 
-0.2103233153158264 -0.1318704817725044 -0.3616198915725139 0.6572016378159184 
0.09012954128338539 -0.03011048727085695 -0.0005333237034932253 -0.01941652690074066 
0.09012954128338539 -0.03011048727085695 -0.0005333237034932253 -0.01941652690074066 
0.09012954128338539 -0.03011048727085695 -0.0005333237034932253 -0.01941652690074066 
-0.2750712918685003 0.6267064684250199 -0.5481032322479229 0.4041931061317708 
0.2433521950081988 -0.1818610982295017 -0.01698380246213987 -0.02808610191383103 
-0.3725212428098379 -0.08708804151495421 -0.3067342153717945 0.7609965053697412 
0.3723164298455903 0.1473919363217906 -0.5648606937757797 -0.4814612556706464 
0.7373444340476376 -0.3308708996450651 -0.4962827176216628 -0.3236287502400156 
0.2311332317059656 -0.1043149111040943 -0.09752111345509384 -0.07155094635471509 
-0.09802060017167824 -0.1415693211746558 0.1318352571352807 -0.02342027228581577 
-0.4107988991688259 0.3780253217781916 0.4213983981674262 0.2399101878679241 
-0.3274984800446737 -0.1110124510441424 0.4521459930030576 -0.1241327126004948 
-0.7421689048706879 -0.1128270677001586 0.4516012402353163 0.2887385236953965 
0.2706350200516975 -0.2636572416460266 -0.1713651141423072 -0.1916670187414093 
0.2335753518860645 -0.2549631030289011 -0.1707556084381104 -0.1676273949216467 
-0.05968011452574485 0.1254775814171206 -0.0472165060875074 -0.1241384221758873 
-1.024540050264257 0.7238252665358824 0.1598420866309544 0.3248953004862983 
0 0 0 0 
-0.2940233013254214 0.4212394586708454 -0.05577578397879655 -0.0307322363347584 
0 0 0 0 
0.02015503788603133 -0.01240798799405354 -0.002745742111956409 -0.0111157819310718 
0.1930125262513387 0.2263332982228636 -0.3297023696140616 -0.2046633091032013 
-0.2684813911580002 0.319097146066352 -0.2055800951784376 -0.01433510718436204 
-0.6572110997032732 -0.01817973190448662 -0.003567481913533529 0.606875280569808 
0.1353715064611148 -0.2353026296556119 0.1204936725358823 -0.04615321286093675 
0.06717728441903807 0.1583539380493661 -0.1635780406160471 -0.1377576693117333 
-0.8917519134698614 0.3689721351756018 -0.04552085476919565 0.4884101030931662 
-0.4464528975670164 -0.1085252853754771 0.4028243543162582 -0.02590990835259815 
-0.01372333788512611 0.02765274717314388 -0.07653459304330094 -0.03114390548244112 
-0.05649627090507826 0.08526322175973108 -0.08683217944369326 -0.05228748891576918 
0.03851391566104151 -0.0007007458871927284 -0.0003954108990473828 -0.01511827301386732 
0.7519255745730967 -0.2561115073333942 -0.2077041095449512 -0.202433731471582 
-0.1453814130860018 -0.03740355191069928 0.2057753734021577 -0.4860686918287721 
0.385687304695303 -0.1563174610325135 -0.06599684415854072 -0.1458295244239879 
1.646156252435757 -1.143718776331464 -0.3454317364601833 -0.4933942859442925 
0.03851391566104151 -0.0007007458871927284 -0.0003954108990473828 -0.01511827301386732 
0.0343367390633964 0.03675535854804735 -0.002183996296679514 -0.08278925368186064 
-0.7362176008200196 0.3458756085331227 0.6296383997828457 -0.08475517411291801 
0.1379854985877657 -0.09765778829112234 -0.03225071848103177 -0.02344242571703607 
0.04648139999699201 -0.004048147093514758 -0.0005262119389739133 -0.0415822874841803 
0.2347617168739669 0.03679318142662399 0.1698276167619122 -0.2161835965528912 
0 0 0 0 
-0.1444663105602942 0.2524623396145388 -0.04744852958710532 -0.08367511697552135 
-0.1751733742288302 -0.461500243872521 -0.2679379563299767 0.8982147865620869 
0 0 0 0 
0.1317313320150859 -0.192295959015234 -0.05507156461209991 0.1992408602347953 
0 0 0 0 
0.3458726741554039 -0.2674026108705246 0.3155077251942678 -0.3092823672202018 
-0.2260961475179491 0.008828099821769186 -0.2518454062813635 0.3917791874946379 
0.4049459560174224 -0.299703772117645 -0.2167085573394958 -0.1712692521957253 
-0.1136023976068268 -0.1853180340436949 0.1768840090272253 -0.03882917204580663 
0 0 0 0 
0 0 0 0 
0 0 0 0 
-0.1945567383647648 0.333551800254471 -0.1847143198501821 -0.03273300574611682 
-0.110197379991082 0.278350306973693 -0.1478940154815973 -0.1069336170883415 
0 0 0 0 
0 0 0 0 
0 0 0 0 
0 0 0 0 
0.1531680347447884 0.05115631113038947 0.1577766569416789 -0.2785861119445102 
0 0 0 0 
0 0 0 0 
0.02553067059731143 -0.01048168004838877 -0.008362033444689883 -0.01294084269308663 
0.02158675103638968 -0.07891305645612606 -0.01097081627848237 0.1904721313378726 
0.2312173647650448 -0.1781710159905102 -0.2154404967729784 0.04955710513597981 
-0.120177924316916 0.08065933959363461 -0.06636032191235394 0.142694587737326 
0.1560690457369936 -0.2467613234111008 -0.01079805798692813 0.3396575730858486 
-0.2630922151129986 0.2503425547308486 -0.004407962376345985 -0.001718084154410099 
0 0 0 0 
-0.01651185769824441 0.06849271889767188 -0.005385780407691006 -0.07516408971605264 
0 0 0 0 
0.268175595546509 -0.1258090627518941 -0.1005154400042411 -0.1077918428187683 
0 0 0 0 
0.06645996830027442 -0.01680287064012374 -0.05047241798481879 -0.002947380393644014 
0 0 0 0 
0 0 0 0 
0.01458897558083704 -0.01208435320395085 -0.01233684950977255 -0.02943620366121981 
-0.2486194562363269 -0.4107597189261232 0.6135312149278664 -0.1044826471213182 
-0.6421199987421965 1.110339707008326 -0.2329748217450124 -0.02704979191256011 
0.4929610997506403 -0.2840628357077724 -0.05079854467302582 -0.1290315635639143 
0 0 0 0 
0 0 0 0 
0 0 0 0 
0 0 0 0 
0.07459399644607598 -0.08269795266841512 -0.06748909932276388 -0.014714032812789 
0.03015073924037807 -0.02359289641576167 -0.01484602542073708 -0.02636785154651915 
0.2514928197206699 -0.3557740617149755 0.2334787023715465 -0.1396934895872086 
0.2721476132775689 -0.3626947215441532 0.2454202055240858 -0.1322072153928523 
-0.07457228307669986 0.1382200558750474 -0.04067702615585488 -0.06101899117543656 
-0.1805872204744936 0.1962046715696218 -0.3027053814763477 0.6699862794370069 
-0.1158844814148095 -0.08524684537277483 -0.05308242851068102 0.1193122187807584 
0.03485205635882634 0.1892273485373787 -0.1990237415109061 -0.07556404830026758 
-0.3425726244283199 0.4348421016545657 -0.002424781498728429 -0.03710212755457094 
-0.5977126085064038 1.006538488841157 -0.06089131408775592 -0.1051123352179885 
-0.504016565340174 0.475931175303889 0.2227414269899559 -0.1518717243748722 
0.2105770101417609 -0.2840177737071232 -0.1297427295149296 0.1327547589004624 
0 0 0 0 
0 0 0 0 
0.0506114037211005 -0.04527567007126942 -0.02538857613281965 -0.0003583303848799667 
0.04859414534551849 -0.01556920132733626 -0.00247833158344019 -0.03516299637130399 
0.04859414534551849 -0.01556920132733626 -0.00247833158344019 -0.03516299637130399 
0.04859414534551849 -0.01556920132733626 -0.00247833158344019 -0.03516299637130399 
-0.8820752489450302 0.7839570564299262 -0.3371395275362992 0.5947661135019262 
0.1235514873852289 -0.09093609201634964 -0.01318154683559597 -0.1060812615758045 
0.01083340399967746 -0.003768318931188449 -0.001400555744554231 -0.001046546695276253 
0.1462646694599949 -0.04734204715418091 -0.07035485844093183 -0.002755137394076124 
0.2605238143028031 -0.1702719569027957 -0.09604877034957854 -0.02470237444553235 
0.2605238143028031 -0.1702719569027957 -0.09604877034957854 -0.02470237444553235 
0.1065833634579643 -0.02042533873477006 -0.03850795644377056 -0.03851019267330741 
-0.280850609174143 0.186411968053804 -0.09046135213070616 -0.1086778292624645 
-0.009763185971133724 0.04133246025778534 -0.0288056420155844 -0.03508237682420427 
-0.009763185971133724 0.04133246025778534 -0.0288056420155844 -0.03508237682420427 
-0.009763185971133724 0.04133246025778534 -0.0288056420155844 -0.03508237682420427 
-0.1886443354153147 0.3103731573282814 -0.08027668449919323 -0.0882076658470337 
-0.009763185971133724 0.04133246025778534 -0.0288056420155844 -0.03508237682420427 
-0.1124165290768352 0.01530082397665739 -0.4760632982155305 0.418111611615094 
-0.4962228732005808 -0.003360187912765569 -0.02118942989372714 0.3469476720303499 
0.02722119187481854 -0.0141493054131378 -0.005960674339079124 -0.03045427861203763 
-0.06754810619612214 -0.05231898313159565 0.1989157576372617 -0.0733300464488683 
0.01927769464356368 -0.01067110453353303 -0.0188147513670199 -0.004871465051936508 
0 0 0 0 
0 0 0 0 
0 0 0 0 
-0.1972497400647913 -0.1103406324001245 0.3082444581283259 -0.0497459531741012 
-0.2138660811146795 0.2802276999017506 -0.02879788305442277 -0.008898188473182534 
-0.3970187402675985 -0.4096308274062955 0.777181650549094 -0.04141727210379188 
0.006432098610033144 -0.0008334308621545602 -0.0002065428477850403 -0.003260379593010119 
-0.2717912470257172 -0.1243246745314556 -0.2217611550838707 0.2646818770098873 
0.1921178884771674 -0.1224048062544523 -0.09498429908051964 -0.05626480337870728 
-0.260344040058154 0.4711988863734924 -0.04451351316720806 -0.2636293920945707 
0.01927769464356368 -0.01067110453353303 -0.0188147513670199 -0.004871465051936508 
0.01927769464356368 -0.01067110453353303 -0.0188147513670199 -0.004871465051936508 
0.01927769464356368 -0.01067110453353303 -0.0188147513670199 -0.004871465051936508 
0.01927769464356368 -0.01067110453353303 -0.0188147513670199 -0.004871465051936508 
0.1094715134058371 -0.01574306280676691 -0.02278924255009069 -0.02771683061310185 
0.179466695339278 -0.112198367123234 -0.05904375078058006 -0.04868165226239401 
-0.2041836454982598 0.5259630206846455 -0.2936371124560736 -0.1369227028361551 
0 0 0 0 
-0.5568760552873054 -0.4569348620307547 0.5661352473130206 0.1670496699603191 
-0.07043192861215042 0.1930443352158871 -0.03752178850093132 -0.1169833349971908 
-0.09786910335441742 0.2008239303917575 -0.07094598301554153 -0.06673611545142602 
-0.2845091865691539 0.2472778967033417 -0.1926161057882395 0.5214495114947437 
-0.05311673441625104 0.1432190119206902 -0.02172933571076271 -0.05192016928665733 
0.2377082279106758 -0.1415433252543815 -0.1014679595777915 -0.086256824287374 
0.07644484642288653 -0.06749353552773138 -0.0488972637092449 -0.01888831182112903 
0.1325581178882927 0.4750961031657235 -0.5076014589997463 -0.1052828631420034 
0.1233795898885682 -0.1080046688506353 -0.02353178095351081 -0.001502715179074059 
-0.1167189764659564 -0.5706894191446769 -0.02927689024517526 0.0571132749914202 
0 0 0 0 
0.06819852788441218 -0.01114298731164871 -0.001648193005071839 -0.002202336608314311 
0.2930659804000518 -0.3699418934888454 0.08015704635177463 -0.06895133053056034 
0 0 0 0 
0 0 0 0 
0 0 0 0 
0.06871510197672413 -0.02976964431880587 -0.08691899942834416 -0.007287032387749521 
0.05559323798626481 -0.009292897290765165 -0.002700259827451576 -0.07002476299440412 
0.01281355294885111 -0.003904977404206373 -0.0005059000768478236 -0.009646763497269424 
-0.03293873288077138 0.3447037853113216 -0.1504726277299994 -0.05385330531633844 
-0.1369948835747625 -0.1573504150240697 0.2696619209458979 -0.1144905093159755 
0.007788961621787518 -0.003401888908210028 -0.0004872944013710468 -0.008724507079333674 
0.1806923063316755 -0.1057582327585748 -0.02115266854804912 -0.07491585336969836 
-0.3323600100073457 0.2275449286867834 -0.09419970623233613 0.4484461137219699 
-0.1099411387646689 0.3137377922840822 -0.03926095180633768 -0.02535018472944813 
0 0 0 0 
0.3400920210611174 -0.2190531265147856 -0.1352410378232668 -0.05840728459133535 
-0.2211849077867876 -0.2496135935135306 0.02091891862014283 0.4877670931709838 
0.1971295028396484 0.1740930905475263 -0.2445642080570761 -0.08142217081887518 
0 0 0 0 
-0.6427552510727839 0.2264369984469672 0.6470406983190785 0.003065714861771422 
-0.363063911734632 0.4631234502118757 0.06209583791750085 -0.5892170633555426 
-0.3158483969123707 0.1780209674610571 -0.01477746906324683 -0.009694692540082444 
0.04884053821415734 0.1835727101953154 -0.1748759107839868 -0.226658480560557 
-1.47038813513738 0.6380990319889548 0.8452595433299869 0.3079954389975758 
-0.7607534165980208 -0.00855479448809645 0.2736293984513277 0.5197823525252941 
0 0 0 0 
0 0 0 0 
0 0 0 0 
0 0 0 0 
0.1191007567968359 -0.005774124228593181 -0.1100083465043964 -0.02081989006362811 
0 0 0 0 
0.02149706029467297 -0.002489625740710893 -0.00189324137151592 -0.05268592475721159 
0.1655677737618109 -0.1766559251384387 -0.1553899198236607 -0.01614933576733721 
-0.3574654547861255 0.6400422473629537 -0.295273244018979 -0.04173559783399196 
0.008950460386295961 -0.003306986165570947 -0.01608068591304943 -0.01145730470849588 
0.005147860257610257 -0.004197543071284011 -0.007019134479009517 -0.002951049445431826 
0.005530877915249432 -0.004378106974680307 -0.001669169328738815 -0.005017107064862983 
0.1802184661496373 -0.09176491936490626 -0.03769290651783701 -0.02055932415975657 
0.007639552161503082 -0.01132048766903467 -0.01198735902588092 -0.01288479545628992 
0 0 0 0 
0.02072665010641038 -0.008369048781892744 -0.004056066329839317 -0.00938119225193047 
0.4759114880682638 -0.2895886495295643 -0.156953191148893 -0.2423130915650161 
-0.2332225662856858 0.2124842083294604 -0.1495841578163455 0.2181069857877891 
0.4797331168196582 -0.03837098922202808 -0.2852093893447098 -0.3266750815254638 
0.09728425877665513 -0.03999308774165276 -0.001592953711244679 -0.002738905576874882 
0.09728425877665513 -0.03999308774165276 -0.001592953711244679 -0.002738905576874882 
0.09728425877665513 -0.03999308774165276 -0.001592953711244679 -0.002738905576874882 
-0.01019977941189839 0.09294231439603881 -0.02726765387965036 -0.04247960371990108 
0.09728425877665513 -0.03999308774165276 -0.001592953711244679 -0.002738905576874882 
0.09728425877665513 -0.03999308774165276 -0.001592953711244679 -0.002738905576874882 
0.09728425877665513 -0.03999308774165276 -0.001592953711244679 -0.002738905576874882 
0.09728425877665513 -0.03999308774165276 -0.001592953711244679 -0.002738905576874882 
0 0 0 0 
0.2510856799573466 -0.02345437210365047 -0.03718736164898965 -0.1969465667198129 
0 0 0 0 
0 0 0 0 
0 0 0 0 
0.0125359627825106 -0.3683051000116243 0.2822050707790357 -0.05787357453165796 
-0.1052276165580059 0.5570173117101468 -0.3586785883238953 -0.08267269985967711 
0.09307097181421543 -0.05245469375700981 -0.03689753118717416 -0.05310816098623342 
0 0 0 0 
0.005291272997312132 -0.001976067142661065 -0.00105229111142498 -0.006354738486008097 
0 0 0 0 
0 0 0 0 
0.267877434960897 -0.08539664371219763 -0.1384820197242812 -0.06806680854387222 
0.4554802810917001 -0.4108443804897541 -0.01596146001595485 -0.5136818856772362 
0 0 0 0 
0 0 0 0 
0 0 0 0 
0.001780439037962024 -0.0001871348240803176 7.640599284404251e-06 -0.006515747098097329 
0 0 0 0 
0 0 0 0 
0 0 0 0 
0.06115683639995427 -0.02722937378236374 -0.02397891686939087 -0.01806124177957487 
0 0 0 0 
0 0 0 0 
0 0 0 0 
0.3295959043335596 -0.1125256973372807 -0.1308240598518761 -0.08130945107385951 
0.1466602818743329 0.06856439767223399 -0.01677147776712859 -0.2310814070817823 
0 0 0 0 
-0.3612956581382439 0.5281559967261911 -0.05520443533545486 -0.04557267111923227 
0.02528276821575712 -0.01698840743377161 -0.003833508338174006 -0.02469531856516187 
0.05395352225834512 -0.02931268331269142 -0.02721938344511182 -0.0529398631049782 
0 0 0 0 
0.1746875882343878 -0.08738681239022594 -0.0360237371890982 -0.01554221709489359 
0 0 0 0 
0.03242281536281429 -0.01087986666117188 -0.0145898367735102 -0.01305555272202346 
0.01918850128197221 -0.02005118293702235 -0.01690514562261016 -0.008139109540562623 
0.0010242790780267 -0.0003283362889599331 -0.0003189396661891968 -0.005933542107695173 
0.0005942724637374183 -0.0005635651020541874 0.0001875312423558492 -0.003197573679655166 
0.0005942724637374183 -0.0005635651020541874 0.0001875312423558492 -0.003197573679655166 
0.06168046929432209 -0.04763876797621171 -0.02841784126950517 -0.00869018749012012 
0.0005942724637374183 -0.0005635651020541874 0.0001875312423558492 -0.003197573679655166 
0.0005942724637374183 -0.0005635651020541874 0.0001875312423558492 -0.003197573679655166 
0.0005942724637374183 -0.0005635651020541874 0.0001875312423558492 -0.003197573679655166 
0.0005942724637374183 -0.0005635651020541874 0.0001875312423558492 -0.003197573679655166 
0.0005942724637374183 -0.0005635651020541874 0.0001875312423558492 -0.003197573679655166 
0.04475368789184542 -0.0273531078864621 -0.007240405583120298 -0.0229283783988191 
0.0005942724637374183 -0.0005635651020541874 0.0001875312423558492 -0.003197573679655166 
-0.5438810360275123 0.3662046565344906 0.3171659734829446 -0.09098148703225128 
0.1949416383087705 -0.07732276400307175 -0.009000360540271824 -0.03057898357969617 
0 0 0 0 
0.4169454731630466 -0.1571738166509055 -0.2022753903388837 -0.04964390106823478 
-0.3310751448699399 0.3654391071326025 -0.07748539658664845 -0.0406702536682836 
-0.08346170156319098 0.1409162668546281 -0.008921235302377494 -0.0119934773772311 
-0.01682915312976448 0.1306803616291131 -0.03418900360029089 -0.1169555393396163 
-0.1968920256261173 0.02373401120781802 0.1693173318879164 -0.03725455907464568 
0.135718652653871 -0.02163123000625805 -0.003380211428113399 -0.01513750532951177 
-0.06040472118297522 -0.1115655930845688 0.3557972555839586 -0.02925867641335423 
-0.07921510620611022 -0.4014443709595194 0.2676923363127804 0.4124978124889437 
0.05104559375992299 0.1674299818509432 -0.03032828948225548 -0.04151712533719813 
0.1369282839280017 -0.02180318868466495 -0.00445164228069872 -0.01926548236646747 
0 0 0 0 
-0.1156665668948802 0.2548566614919037 -0.09512476654433229 -0.03747735558551266 
0 0 0 0 
0 0 0 0 
0.366102922531045 -0.3490646580264576 -0.1056663081252089 -0.258910518792089 
-0.2843126834945316 0.0008389738172307655 -0.2561290628289163 0.3145457910269543 
-0.3088271032911696 0.3677171718378987 -0.2252054104826028 -0.3000263589570745 
-0.06763552850647606 0.1457822257842538 -0.2736325422797793 -0.2576364885352426 
-0.1702139764349184 0.1971494259505521 -0.22747263133927 -0.2487064177784029 
-0.1230812860245914 -0.1797615882678884 0.3251428470637136 -0.06254344898375282 
-0.2647416350882245 0.5055226216589059 -0.1460931902892111 -0.0382224965605283 
-0.6692709091576622 0.7253739767301026 -0.2810158236882044 0.2087943402060055 
0 0 0 0 
0 0 0 0 
-0.1401274710770289 0.1480235560179712 -0.0335095665563927 -0.0351013500184577 
-0.1653892924340749 -0.07719429709722152 -0.09085098402329216 0.4455153663976379 
-0.06850500321416894 0.1597704597636831 -0.06128416546138824 -0.04731512690243973 
-0.557456514009728 0.1122643681809979 0.1271902424388422 0.3321923518765235 
0.05653084946132873 -0.02251486043820837 -0.03390156662242932 -0.004144920880719162 
0.05653084946132873 -0.02251486043820837 -0.03390156662242932 -0.004144920880719162 
0.05653084946132873 -0.02251486043820837 -0.03390156662242932 -0.004144920880719162 
0.05653084946132873 -0.02251486043820837 -0.03390156662242932 -0.004144920880719162 
-0.0268442844732674 0.023628978394573 -0.01511365169027594 -0.005013644523674931 
0 0 0 0 
-0.1986700193980468 -0.3714896326778788 0.410113442429992 -0.4717621508510039 
0.1749236353712335 -0.2335804075245615 -0.02330317803751111 -0.01077247947994823 
0.07171479991252529 -0.02926153463570171 -0.0278104373452784 -0.06899449509723662 
-0.1632574302208523 -0.1340030873761111 -0.2374929783357733 0.1138655853990109 
-0.1553912904590148 -0.2291480550794549 0.2952544290909891 -0.04734357647640307 
0.01178793616486381 -0.01093330361994308 -0.0211307842289329 -0.003285845754626021 
0.3852194620061933 -0.2753803262702021 -0.2040801082270875 -0.04775584095545603 
0.1967554624679013 -0.006715052012729802 -0.1361786182686597 -0.1056871976146438 
0 0 0 0 
0 0 0 0 
-0.02999080786530882 -0.008737923969872385 -0.05098489294775923 -0.1141180074648812 
0 0 0 0 
0.05971464322552694 -0.01428136230591098 -0.01839289366135027 -0.001262836971229867 
0 0 0 0 
0 0 0 0 
0 0 0 0 
0 0 0 0 
0.1555487323380164 -0.1174222215482085 -0.02866812718270672 -0.0651185877013076 
0.1555487323380164 -0.1174222215482085 -0.02866812718270672 -0.0651185877013076 
0.1555487323380164 -0.1174222215482085 -0.02866812718270672 -0.0651185877013076 
0.1555487323380164 -0.1174222215482085 -0.02866812718270672 -0.0651185877013076 
0.1555487323380164 -0.1174222215482085 -0.02866812718270672 -0.0651185877013076 
0.1555487323380164 -0.1174222215482085 -0.02866812718270672 -0.0651185877013076 
0.1555487323380164 -0.1174222215482085 -0.02866812718270672 -0.0651185877013076 
0.1555487323380164 -0.1174222215482085 -0.02866812718270672 -0.0651185877013076 
0 0 0 0 
-0.03773692214807218 0.09861600365411023 -0.01693511602759688 -0.02560379947831433 
0 0 0 0 
0.1472894608940499 -0.05627886220459594 -0.1192183155218351 -0.08413084202759888 
0 0 0 0 
-0.5409821743173419 0.4737096552251762 0.2980437707566137 -0.07151610937190123 
0 0 0 0 
0.1921169937658763 -0.01845273550589573 -0.05934686230582015 -0.00762991422474243 
0.07960415480751852 -0.07424547263043188 0.0955874516234641 -0.227837215433063 
0.1439388471531808 -0.09744711171020853 -0.04583698029361812 -0.01241922897377081 
-1.782633888182491 -0.02827073686910535 1.960109627431617 -0.1204498710415023 
0 0 0 0 
0.4174852418453116 -0.1441489370050005 -0.07014789073179652 -0.2841363760843574 
-0.02106973547225913 0.1124641952487277 -0.1273950680282444 -0.04543244378794509 
-0.3733089229767235 0.3906950310271835 -0.1369749484768935 -0.03080544462319854 
-0.1600189199047394 0.3463720566997893 -0.1598456247218256 -0.06580444139528453 
-0.1810651330616213 0.5944261720194473 -0.1893568797871039 -0.3354079587905685 
0.04005592085783293 -0.01290086923522568 -0.005674059232158328 -0.04007365438018032 
0.01617940467150458 -0.08512968443745511 -0.1118967754560111 -0.08469372058779014 
0.1362618824102343 -0.05575667586686451 -0.1830218846637381 0.1467209060782115 
-0.3103098245060498 0.236560264169471 -0.1556955338226117 0.3120775177217331 
0.1730651470620934 -0.1048412094246144 -0.2839184187737709 0.2444635947354154 
0 0 0 0 
0 0 0 0 
-0.3863082679314794 -0.231512504001169 0.7312650541009754 0.2027553052211348 
0.4149129837705271 -0.2186813406245782 -0.1487190246155716 -0.08785911728200453 
0.8721500578336424 -0.5692892371416365 -0.2464343426098579 -0.2356597828280458 
0.06645996830027442 -0.01680287064012374 -0.05047241798481879 -0.002947380393644014 
-0.1164745116431674 -0.08036545361779394 -0.05759882128129173 0.4649877313129271 
0.1403572055494652 -0.1110237023150195 -0.05221444842997533 -0.2027512977428021 
0.1692102403155405 -0.05890491536872053 -0.09936820906758734 -0.02068448368472322 
-0.3639012978961996 -0.09623811105497954 0.3596831848687119 -0.2246182398122031 
0.1111119505627181 -0.03958488420303991 -0.0636352518850325 -0.03128287093225265 
0.0891379817935101 -0.02629827521077877 -0.0659950824984671 -0.009690445299762481 
-0.3113699892558676 0.1415215906191225 0.2884662152479273 -0.1909769875723554 
0.1230746678823249 -0.1151578037051192 -0.03536750892964986 0.001798078178678967 
-0.2408550105136689 0.3311918713148171 0.1333413057689065 -0.6064841212769153 
0 0 0 0 
0 0 0 0 
0 0 0 0 
0 0 0 0 
0 0 0 0 
0.07355669250585492 0.2707757640214877 -0.2117938992724929 -0.06999917236178585 
0 0 0 0 
0.406812130354858 -0.3621271626799118 0.3380568938699232 -0.1790360123841991 
-0.3666982089105703 -0.02939310503707694 0.5832752343550633 -0.04241242008604828 
0.04721784411068212 -0.2219366815308434 -0.01770036579193503 0.02538448169405568 
-0.4019565730161659 -0.1012723925536625 0.3857904437888058 0.2047227089708169 
0 0 0 0 
-0.03731981791268696 0.05887166851586173 -0.01204694829800598 -0.04964040092529466 
0 0 0 0 
0 0 0 0 
0.3876962787084809 -0.1771638784655973 -0.1461622770194653 -0.3249693893722788 
0.2484594907646275 -0.02587809080345461 -0.08518617831023541 -0.2018205639065762 
0.2487700773863387 -0.2798136468728932 -0.04087930614666286 -0.0160097390894724 
0.2487700773863387 -0.2798136468728932 -0.04087930614666286 -0.0160097390894724 
0 0 0 0 
0.09628547579102723 -0.0144613867462293 -0.006663996188528792 -0.03426194222027691 
0 0 0 0 
0 0 0 0 
0 0 0 0 
0 0 0 0 
0.5872862174368304 -0.3048727315637687 -0.2744902154637883 -0.1352928153190555 
0 0 0 0 
-0.1185319842845542 0.3327685877051867 -0.1303507944452309 -0.00935556076602048 
-0.1757915035638114 -0.09029031813982434 -0.04616585747625342 0.4003554259651192 
-0.0004418043721368427 0.1277625675035075 -0.005248634008960993 -0.008918429945518743 
0 0 0 0 
-0.02039944294920881 0.0362667713284497 -0.01307596777934548 -0.03673147113557255 
0 0 0 0 
0.2135703900125851 -0.1519798196953423 -0.2292804305599052 -0.2060221648459715 
0.1608031643383195 -0.1527626905970388 -0.01670305142703658 -0.01367487023041044 
0.3719703212818498 0.05664230442485244 -0.2219412117503501 -0.178552631610208 
0.007580510613506114 -0.001012079638394058 -0.0002525726683899284 -0.005005295217320072 
0.007580510613506114 -0.001012079638394058 -0.0002525726683899284 -0.005005295217320072 
-0.1550970104645559 0.2669367765721803 -0.08287781656428701 -0.02018857362194618 
0.01694304516085009 -0.02161020559196869 -0.003242470831559758 -0.0154140768130362 
-0.2651140440073764 -0.1526041192182458 -0.1073748447978111 0.7088049498446027 
0.3325775921758214 -0.07641921980401963 -0.2104310911295216 -0.2400631345848022 
0.08744314654795041 -0.05272553604027232 -0.02601910323202453 -0.04602292000826475 
0.01549814536000703 -0.001035112603955641 -0.02355786252441953 -0.009381066432708411 
-0.06967129029170774 0.2495698470201811 -0.02989409625790236 -0.0631250778256449 
-0.04635313004299172 0.2282630947059172 -0.1687963402016913 -0.09542097711372423 
0 0 0 0 
0.02735428754964879 -0.007255861344622545 -0.01715710448449908 -0.03379100916618148 
0 0 0 0 
-0.1675884505469363 -0.3362320637577694 -0.05937978736706036 0.8048582408543604 
0 0 0 0 
-0.2050375126976472 -0.0788781276054175 0.2630802830996475 -0.1017292043900409 
0.2358591475647679 -0.114871273248705 -0.06569203013343319 -0.05997632348002354 
0.01509074780589451 -0.002259946335063929 -0.007805825842593207 -0.04319154696105841 
0.07352753237638235 -0.02252288854341328 -0.01056529042883062 -0.07551315661147073 
-0.1875041726495036 -0.05163792739891854 0.6888565110803552 -0.01915861361021629 
0.2425178164116436 -0.09504158137489306 -0.1255282457487618 -0.1593844580643939 
0 0 0 0 
0 0 0 0 
0 0 0 0 
0.1734665337180816 -0.06289651481251998 -0.05456012234590382 -0.05704053488330301 
-0.088120890977319 -0.1317977605621037 0.1981078427440474 -0.08135329696267166 
0.2445982368001823 -0.05483396100994289 -0.05019156464328314 -0.0731057701048848 
-0.3033033137123891 0.05484469930196768 0.3658571732902844 -0.1524917253916023 
0.09836418815807063 -0.07634703681238794 -0.04456255616708604 -0.07331434320907249 
0 0 0 0 
-0.08633031521849686 -0.2107929740503011 0.1911226482795784 0.01960775142545859 
-0.04286637418050727 -0.1355179534319078 0.2076541954791155 -0.04546743056163403 
0 0 0 0 
-0.3063142748140916 0.5045779981194958 -0.1883352612730627 -0.1223801916469906 
0 0 0 0 
0.01854202916656272 -0.007976328997917309 -0.001726343895068544 -0.03163808428311533 
0.4394032995051863 -0.2393366246515617 -0.08108519423307672 -0.06910074408722602 
0.04855151763955592 -0.03378127665739711 -0.01020715949997636 -0.03649986645361646 
0.04855151763955592 -0.03378127665739711 -0.01020715949997636 -0.03649986645361646 
0.04538607404170372 -0.004331142303760502 -0.002702193832818721 -0.008765311656666365 
0.04538607404170372 -0.004331142303760502 -0.002702193832818721 -0.008765311656666365 
0.181828462534565 -0.06976916548165399 -0.1077838075435927 -0.0178959956581013 
0.5640382929780048 -0.3080328523617196 -0.06263774701599518 -0.3213479075236462 
0.4415334119551423 -0.3829268433261123 -0.05308098247026577 -0.04359094706818068 
0 0 0 0 
0.04234292566529248 -0.009412729890392631 -0.004891414701741849 -0.03379155573540901 
0 0 0 0 
0 0 0 0 
-0.07132605425673588 -0.103659980849067 -0.04843136473448459 0.3046274000173334 
0.1357611574976381 -0.03766696856591838 -0.007579169046520422 -0.01085348715331649 
-0.4162884420093637 0.6493354034869429 -0.3259715328996705 -0.2051356220726847 
0 0 0 0 
-0.1447141100918584 0.2182301238118223 -0.01193183234617437 -0.01419798047200972 
0 0 0 0 
-0.08930360005364174 0.01030178035061536 -0.03701787291423345 0.02058156580101103 
0.4407882595138194 0.003452024686504084 -0.6390086865628525 0.0896197091312626 
-0.4346068349557071 -0.2455124606236446 0.5413517185291253 -0.02756453300158487 
0 0 0 0 
-0.01065377570735061 -0.3647541336597189 0.2824578435949333 -0.01898807852398371 
0.3416479153250879 -0.1746010569206536 -0.09680296446461555 -0.05057748932320415 
0 0 0 0 
0 0 0 0 
-0.09066436150588611 0.1444382031284887 -0.0008373526448789719 -0.007947013563693902 
0 0 0 0 
-0.8291446834865533 0.8464014215091074 -0.01930950644253026 -0.01434855079077231 
0 0 0 0 
0.06915383662080787 -0.05615926554747165 -0.01659755090424124 -0.02334755932220071 
-0.2195911431551287 -0.1132973842465591 0.4156028424901657 -0.02060143205230509 
0.4493560463974868 -0.1569380665546278 -0.3807464788800183 -0.1058192897190158 
0.05047872801356081 -0.3485719154601974 0.2308693524183285 -0.01823571434532768 
0.1510416119517072 -0.1054941292201559 -0.1396342273535537 -0.00493500829354398 
0.05273590766598122 -0.2553119287661336 -0.3097112502594822 0.4756830870223577 
0.1510416119517072 -0.1054941292201559 -0.1396342273535537 -0.00493500829354398 
0.07459399644607598 -0.08269795266841512 -0.06748909932276388 -0.014714032812789 
0.07459399644607598 -0.08269795266841512 -0.06748909932276388 -0.014714032812789 
-0.1136767318310741 -0.05957626631903142 0.500601655217228 0.1045309451954538 
-0.3389602424124261 0.4833812117078242 -0.2076188910827113 -0.01238413700103305 
0 0 0 0 
0 0 0 0 
0.08110057391708804 -0.0273483129811152 -0.01037181823172494 -0.09091867717620447 
0.1036882222381136 -0.05837628316296116 -0.009513129700033674 -0.01110528203816776 
0.1027112105915981 -0.03716775209409134 -0.0007312620087800607 -0.008634258206687458 
0 0 0 0 
0 0 0 0 
0 0 0 0 
0 0 0 0 
0 0 0 0 
0 0 0 0 
0.2122189801786834 -0.06755994193942944 -0.1148370694281212 -0.02494637964420954 
0.3843709974767198 -0.1589548568583216 -0.02763316381612812 -0.03692666567760739 
0.05255828197460915 -0.008624361862418502 -0.006327012207972372 -0.004795051694952467 
0 0 0 0 
0 0 0 0 
-0.200116503620738 -0.3259308506770963 0.5902652350361101 -0.08733522374838272 
-0.1744768367671116 -0.2282831946467604 0.5282741082421428 -0.1424287820442377 
0.00642693268979932 -0.006623066375458014 -0.001303066720175764 -0.005131092102844575 
-0.3583136290592114 1.124173804358856 -0.9714153349459399 -0.8294939784947309 
-0.3504101295208846 0.08232817896619232 0.2092973937965773 -0.178685522840319 
0.1199082137080374 0.04776637027305422 -0.1816662121905313 -0.12919806341836 
0.2357744465313933 -0.1631544451790552 -0.02776337703293234 -0.03520240548501978 
0.1201142042542111 -0.1430009934379462 -0.004123268784779397 -0.01538675672525095 
-0.4597971352588389 0.6675411274880197 -0.1261107700115488 -0.09608034726309118 
-0.1016910402043856 0.04428867626156325 -0.0007294460799274426 -0.003560402434164097 
-0.1016910402043856 0.04428867626156325 -0.0007294460799274426 -0.003560402434164097 
-5.286239321900497e-05 0.04160301473807693 -0.003770480170378478 -0.02613622699927355 
-0.4418167550102005 -0.4169139231282319 0.5495991920153472 0.07665804971581397 
0.09628547579102723 -0.0144613867462293 -0.006663996188528792 -0.03426194222027691 
0.09628547579102723 -0.0144613867462293 -0.006663996188528792 -0.03426194222027691 
0 0 0 0 
-0.8286295158336704 0.5964512263625161 0.3379630068421884 0.2361488136071421 
-0.07977812105088707 0.3576433257558894 -0.1815624460226808 -0.04518665297746732 
-0.2080707423758589 -0.03388645787286763 -0.001723003470884368 0.1769069838641234 
-0.2080707423758589 -0.03388645787286763 -0.001723003470884368 0.1769069838641234 
0 0 0 0 
0.07328450561691276 -0.03898872591525975 -0.03284110866044425 -0.05875006025930297 
0 0 0 0 
-0.02656844112859885 0.1116328740431823 -0.1182667787671271 -0.3875449794358242 
-0.02656844112859885 0.1116328740431823 -0.1182667787671271 -0.3875449794358242 
0.04374803401469048 -0.0434102528044198 -0.02769040798602338 -0.01522742929576473 
0 0 0 0 
0 0 0 0 
-0.1424631742695903 0.2572898855272528 -0.05094538138246488 -0.03787061108212654 
0 0 0 0 
-2.087701806594055e-05 0.0880021761005584 -0.1171365469858727 -0.08645600610707339 
0 0 0 0 
-0.1010337888518454 -0.2824154193667268 -0.01222551567376561 0.4493675712536755 
-0.1010337888518454 -0.2824154193667268 -0.01222551567376561 0.4493675712536755 
-0.1010337888518454 -0.2824154193667268 -0.01222551567376561 0.4493675712536755 
0.1092805320211041 -0.7316708023759027 0.7451204607535749 0.02522029074230751 
0.09568125453102666 -0.2768985672014243 0.06934925004778358 -0.04416350142346092 
-0.3697955506458006 -0.1256536456131274 0.1593700774344818 0.5284418515212622 
0 0 0 0 
0.09203908634637546 -0.02410333959119108 -0.0003354372536423158 -0.01224492773363112 
0.04810586508664819 -0.008534110422673064 -0.001193844542415793 -0.0009244491520553635 
-0.06172242658316235 0.1699580382689632 -0.5482612397287451 -0.1418369496938151 
0.5711452928185103 -0.786368171032266 -0.3248713369310743 -0.1110580283901373 
0.4331597041870566 -0.3623549537901753 -0.07487341516886159 -0.2664812253390479 
0.4331597041870566 -0.3623549537901753 -0.07487341516886159 -0.2664812253390479 
0.4331597041870566 -0.3623549537901753 -0.07487341516886159 -0.2664812253390479 
0.4331413506136791 -0.3620984904462237 -0.07464888861193672 -0.266509644040903 
0 0 0 0 
0 0 0 0 
0 0 0 0 
0 0 0 0 
-0.01102205588302782 0.07563572851450635 -0.05230918057328364 -0.1162147524284895 
-0.01102205588302782 0.07563572851450635 -0.05230918057328364 -0.1162147524284895 
-0.5483823538902964 0.2767417098966181 -0.1315374311869723 0.4531619859816822 
0 0 0 0 
0.008177389163671819 -0.001672966229483003 -0.002254444141845196 -0.004328396995460525 
0.06108619683058467 -0.04707520287415752 -0.02860537251186103 -0.005492613810464954 
0 0 0 0 
-0.1154109824810606 0.4446393302762466 -0.03237804419485345 -0.1178200956133329 
-0.4758267945237231 0.9351821639355336 -0.05831289227965655 -0.1364260394611816 
0 0 0 0 
0 0 0 0 
0.048937751440786 -0.1089972701373853 -0.002572290167338607 -0.1334900718547622 
0.002926561482445679 -0.0009243302813005639 0.0001298476385460524 -0.003120231038108424 
0 0 0 0 
0 0 0 0 
0.1351409705021155 -0.1389614302050187 0.2971377576082206 -0.1601392173207571 
0 0 0 0 
-0.2653346258056761 -0.02854110945345581 0.2426153965519335 -0.01923216276606015 
-0.4098665157225239 -0.1016671880679324 0.4222070415406209 -0.05064402261343287 
-0.1936859196443315 -0.02658697714971919 0.1950726832675584 -0.0431200442070975 
-0.07802345312848297 -0.009852321008003036 -0.3254287269919084 0.2788357261549778 
0.1882163734682572 -0.07752460608527359 -0.4903408009538843 0.1640611531768688 
0.4151203714173851 -0.1452330620141434 -0.1648675885928624 -0.1006277294562218 
0 0 0 0 
0.1952116215559375 -0.1105745291285911 -9.338634082678696e-05 -0.004954250041911676 
0.6640886028648512 -0.4890887799100785 -0.2709368265744913 -0.2396463632401904 
0 0 0 0 
0.01786396295033551 -0.003279713040543986 -0.0005017087478044744 -0.01073351403449576 
0 0 0 0 
-0.3300751270705675 0.1862184118287992 0.5304124585109677 -0.3157951650178809 
0.05598326215222794 -0.04002955521311154 -0.006316769688448928 -0.02205372864717004 
0 0 0 0 
-0.1991870439745526 -0.0979893894523489 0.572394960629302 -0.07923779562263081 
0 0 0 0 
0.3049074267095563 -0.1622493450710312 -0.1833503686588599 -0.02234370429956914 
0 0 0 0 
0.03726377947439767 -0.07933945714993493 -0.01891576106748259 -0.001126378235872455 
0.03726377947439767 -0.07933945714993493 -0.01891576106748259 -0.001126378235872455 
0.2174308107567119 -0.2237357676309249 -0.1428960000840647 0.1709097654185359 
0 0 0 0 
0 0 0 0 
0 0 0 0 
0.004552173405928137 -0.000269006255969278 3.45168669187658e-05 -0.00362651783357981 
0.3416479153250879 -0.1746010569206536 -0.09680296446461555 -0.05057748932320415 
0 0 0 0 
0 0 0 0 
0 0 0 0 
0 0 0 0 
0.02553611649891779 -0.01345597760162787 -0.01693660982604591 -0.03512782637294996 
0.0327174904112781 -0.01812144313109279 -0.02827815317609927 -0.00949170771117977 
0.05606566496129255 -0.04225387447506253 -0.03323176280928366 -0.03799112709761561 
-0.09813209849859468 -0.4388790607723138 1.099029779366818 -0.3019654270665699 
-0.2573298358731551 -0.1303556180688638 0.3330152536312735 -0.07783365076483187 
-0.0692256106002072 -0.1578974106598797 -0.1273089821901584 0.5458516105253451 
-0.1485266288765299 -0.04911873695886638 -0.03820015816232464 0.2849581591649684 
-0.1485266288765299 -0.04911873695886638 -0.03820015816232464 0.2849581591649684 
-0.1485266288765299 -0.04911873695886638 -0.03820015816232464 0.2849581591649684 
0 0 0 0 
-0.171013795287667 -0.2188009093650601 0.5002478427947797 -0.02315593679516851 
0.02571453234681021 -0.01368202811275768 -0.005051075292000448 -0.008432367422365356 
0.05992686374766148 -0.01832823101575863 -0.006679653116345497 -0.06570864934261061 
-0.003837663018489518 -0.1525830924683431 -0.002058238140913352 0.07198114403186531 
0.1581609010446795 0.15753887374636 -0.08628005746922267 -0.09718380420226903 
0.0196676921055379 -0.03657262345571614 -0.005535790491303847 -0.002207111573478343 
0 0 0 0 
0.02470991110456543 -0.007713863819810369 -0.0004151574280993601 -0.01329869204604047 
0.1788851307931745 -0.1233699292863959 -0.05758668964359082 -0.01782736152107674 
0 0 0 0 
0.1847874826294899 -0.08459102894758176 -0.03555277418802433 -0.007952456395525527 
0.8151339022927895 -0.3756251803650499 -0.1672618321566019 -0.04718590079321047 
0.07391182200713592 -0.01446240124919466 -0.01210579123246442 -0.05205406533297605 
0.03951742395823975 -0.01156371407017769 -0.008287986262535825 -0.03021832480210486 
0.3993711346115141 -0.5867869140324455 0.2666979547791417 -0.5399312301924926 
0.1812987366230481 -0.06254324139306985 -0.1352806838442379 -0.02971409595952021 
-0.2791410122748518 -0.08458449692849331 -0.1384469338844947 0.2841707420472579 
-0.2204649976425322 -0.04237713979374132 0.2770205492162193 -0.03032186569374373 
0 0 0 0 
-0.1540656975563046 -0.041796941754863 0.1459026590102014 0.06383859983223145 
0 0 0 0 
0 0 0 0 
0 0 0 0 
-0.09029173092435652 0.136609832202038 -0.01894025008325288 -0.03245718033347366 
0 0 0 0 
0 0 0 0 
-0.3898977422077516 0.1093537037999659 0.1463083499339747 0.03541630512469003 
-0.06273507937070191 0.2720079606246152 -0.07322711822373537 -0.01173531849338394 
0.1624942880027679 -0.1051084131298441 -0.08180836457090586 -0.01095840501617444 
0 0 0 0 
0 0 0 0 
0.005425794386948108 -0.001024462833247355 -0.002707732926843977 -0.02085202361041578 
0.005425794386948108 -0.001024462833247355 -0.002707732926843977 -0.02085202361041578 
0.2447689084977586 0.1615264763805299 -0.08847747521838742 -0.0563525936650013 
-0.3340086528369805 0.3795709415803045 -0.05440992597840195 -0.03365373787972346 
0 0 0 0 
-0.5467950641369106 -0.1732258703071418 0.394136531085629 0.2329480781829095 
0.1532226537248134 -0.1517506109586448 -0.01645047875864665 -0.008669575013090371 
0 0 0 0 
0.6230431298864947 -0.7024535039509646 -0.3784869080625409 0.3785359545661282 
0.1331866878764084 -0.1539503519123058 -0.03625926971351667 -0.003174638144877437 
0.1331866878764084 -0.1539503519123058 -0.03625926971351667 -0.003174638144877437 
0.290979876497568 -0.21350389574189 -0.1715837910796827 -0.02687223845357329 
0.1363893466797394 -0.1550529691622473 -0.04163157782250981 -0.009462617154478981 
0.1331866878764084 -0.1539503519123058 -0.03625926971351667 -0.003174638144877437 
0.1331866878764084 -0.1539503519123058 -0.03625926971351667 -0.003174638144877437 
-0.3010944179423592 0.1313639004907209 -0.06085994207989597 -0.08656174112519313 
0 0 0 0 
-0.003837663018489518 -0.1525830924683431 -0.002058238140913352 0.07198114403186531 
0.03657105432606555 -0.04616418930514997 -0.005431673365304421 -0.001667055170832602 
0.3637010858558907 -0.1274874434092478 -0.1728466218668409 -0.3923299983304113 
0.9523214228295129 -0.6007675588457286 -0.09623446572637602 -0.06069335188335408 
0 0 0 0 
0.1498632035517583 -0.03416644014334858 -0.04988361561694523 -0.06811762682955254 
-0.07243699006964438 0.1948684868678424 -0.1194158885697331 -0.04020315091786025 
-0.0334883302845004 0.03208011099883254 -0.003779622609250969 -0.005872348199900753 
-0.0334883302845004 0.03208011099883254 -0.003779622609250969 -0.005872348199900753 
-0.02906724913532655 0.03062733851242906 -0.006042402962327068 -0.01560119975925181 
0.3081072330263588 -0.2204221737219898 -0.0585665757020959 -0.03193861099691914 
-0.0669766605690008 0.06416022199766508 -0.007559245218501937 -0.01174469639980151 
-0.0334883302845004 0.03208011099883254 -0.003779622609250969 -0.005872348199900753 
-0.0334883302845004 0.03208011099883254 -0.003779622609250969 -0.005872348199900753 
-0.04838536897906101 0.5258158900607256 -0.5004779479723006 -0.5082220243885607 
0 0 0 0 
0 0 0 0 
0 0 0 0 
0 0 0 0 
0 0 0 0 
0 0 0 0 
0 0 0 0 
0.2151597103446849 -0.09798787289957589 -0.1027768256685222 -0.04303765067981383 
0 0 0 0 
0.03315566857883097 -0.0005646364244050149 -0.004439649954757173 -0.06172019404069193 
0.4808569197780669 -0.3083127271255703 -0.5490112263234669 0.07298279000703127 
-0.2129454330116451 0.3389489952995186 -0.06466504719197999 -0.06799311541326471 
-0.03504258885504719 0.3977115520924411 -0.8603327693937322 0.3232133149821026 
0.2346256538456725 -0.04937270660457557 -0.07361920644820373 -0.1993946585398331 
-0.3943617573262593 -0.07080150414544358 0.3996037876552496 0.1435722645463091 
0.06926439296407494 -0.009597057357567714 -0.00651942691226846 -0.03978065286387334 
0.09006717407517137 -0.1713979097399771 0.04646202430795139 -0.240409700412742 
-0.355657647417327 0.6275925927963826 -0.1412064815155054 -0.0616605269564271 
0 0 0 0 
0 0 0 0 
0 0 0 0 
0 0 0 0 
0 0 0 0 
0.7868186997001566 -0.2732039934516922 -0.2990749663963431 -0.1410845756158742 
0 0 0 0 
0 0 0 0 
0 0 0 0 
-0.1714075019462224 -0.2506151304491352 0.184658961344884 0.352282576449619 
0.01079964005515915 -0.001895737994275499 -0.002622278510644119 -0.02817317602749658 
0 0 0 0 
-0.2745418650409094 -0.2253069800755205 0.1460508872689152 0.2490496413985276 
0 0 0 0 
-1.129650631526294 1.263082185023706 -0.01485108324157427 -0.03418508587281251 
-0.06394632935204127 -0.04689266548134109 -0.03088593639047833 0.1160821214094009 
-0.5448870552586218 -0.007626541732989622 -0.002006377946747601 0.3773569946303876 
-0.5448870552586218 -0.007626541732989622 -0.002006377946747601 0.3773569946303876 
0 0 0 0 
-0.304422497873922 0.1957688125890335 0.1176876137488212 -0.07894527507347567 
0 0 0 0 
0 0 0 0 
0 0 0 0 
0 0 0 0 
0.04449695897528084 0.03538045215826464 -0.02897958358975483 0.1427818518171103 
0 0 0 0 
0 0 0 0 
0 0 0 0 
0.05206493698763454 -0.008709221162963132 -0.006240636584406857 -0.07980943924073421 
-0.01798447386578758 -0.2983473273611011 -0.02565105679652076 0.3808305566167409 
-0.09591336979896312 0.1928291449143717 -0.0726894321134746 -0.08899318346244774 
-0.4375113192847931 0.7234314984591248 -0.2963297573775709 -0.3247634279246732 
0 0 0 0 
0 0 0 0 
0 0 0 0 
-0.2097231356849791 -0.7122295244788821 0.8585412392304996 -0.1325522003086843 
-0.4266031770553722 0.1293419602878125 0.2279247461726864 0.2518328879816775 
0 0 0 0 
0 0 0 0 
0.04247375812732306 -0.03566111596500035 -0.002167642569388628 -0.01402238708709468 
0.330640571524857 0.03254880971273393 -0.3827094141163696 -0.2146136054232513 
-0.06869724227286973 -0.01926906682514754 -0.0006762759157437465 0.1317606636729835 
0 0 0 0 
-0.0468061897966786 0.1533083596597488 0.405231005238423 -0.388987308196419 
-0.7055502016137372 -0.001433889818490334 -0.0006131405549215186 0.6661387967677402 
0.2256646323481704 -0.07828479891539045 -0.1183913524707708 -0.01926940218630379 
-0.3880114026807189 -0.04065294416966998 -0.08457559303242625 0.924121789625316 
0.4228383423162686 -0.6037763547944673 0.4159110743602068 -0.1832577327119388 
-0.3053984720866541 0.332243921104382 -0.0166373863513834 -0.01836153345815233 
0.4288772347768918 -0.3021617302252617 -0.1143612432711362 -0.0946981682961809 
0.1054867154259943 -0.06789919722511703 -0.01071092817574401 -0.03963067585078867 
0 0 0 0 
0 0 0 0 
0 0 0 0 
0 0 0 0 
0 0 0 0 
0 0 0 0 
0.05705448264709677 -0.05714092167159183 -0.01055259589189546 -0.0192366096624679 
-0.2018459317473504 -0.06387588036903478 0.2140152818092901 -0.06862459651873393 
0.1443038882856553 -0.06056928714492882 -0.04154128997797792 -0.08488949310777558 
0 0 0 0 
0 0 0 0 
-0.02844327282299693 0.1275802538055553 -0.003302361780568593 -0.1133976657761998 
0 0 0 0 
0.007501987843028128 0.0588592136528571 -0.05446424049972037 -0.07006289630902747 
0 0 0 0 
0 0 0 0 
-0.1263940123849225 -0.1138283884805529 -0.08428398262698678 0.3523949074434184 
0 0 0 0 
-0.01675169861482092 0.1922362728230179 -0.2037244822293648 -0.04620096262942996 
-0.5582871602515879 0.8001604810629944 -0.3449391636085192 -0.06199383264136381 
-0.08635364342691394 0.3393347922722879 -0.08389121073225164 -0.1109864078049076 
-0.2436478666243425 -0.1275243881326201 0.2003489448989454 -0.02552706830298429 
-0.02256656384244068 -0.05936689723199298 0.1309866643856779 -0.1354028691659281 
-0.1782638077555298 -0.0613952212309621 -0.03877869783635145 0.4547605226695862 
-0.1782638077555298 -0.0613952212309621 -0.03877869783635145 0.4547605226695862 
-0.1641129498364005 0.1287557970832873 -0.1476601072863585 0.321674661198133 
-0.3375319402720801 -1.270568108714526 1.46234088484485 -0.2177014828506122 
0 0 0 0 
-0.04381925012633019 -0.09770165140901234 -0.04338680146929975 0.1250166119039082 
-0.03792950304706308 -0.1143805803400033 -0.1126297347408164 0.4102066780479899 
-0.1932200281908968 -0.3074767311040901 0.350671378501388 -0.1801779576545726 
0.0758257577048906 -0.1055315354298557 -0.01329749664763401 -0.01886433989013723 
0 0 0 0 
0.1720060319147713 -0.05026810230408882 -0.063757781024966 -0.1004341266267313 
0.008950460386295961 -0.003306986165570947 -0.01608068591304943 -0.01145730470849588 
-0.1891672131201511 -0.1199451094712986 -0.02718887988890994 0.5437247960487499 
-0.217610485943148 0.007635144334256654 -0.03049124166947853 0.43032713027255 
-0.1891672131201511 -0.1199451094712986 -0.02718887988890994 0.5437247960487499 
0 0 0 0 
0 0 0 0 
0 0 0 0 
0 0 0 0 
0 0 0 0 
-0.4761007746321317 0.544543295037331 -0.3497074813667586 -0.2532159050087041 
-0.4889640825882239 0.3226829589077549 -0.2779447524197711 -0.1641464323646155 
0.094615133421259 -0.06995460506229555 -0.01617269953348591 -0.05365644717232896 
-0.2215004108333122 0.2264012206141786 -0.00439323836215179 -0.09354824378437535 
-0.0434029314184621 0.1319993507421011 -0.002448184281772639 -0.0002035961230122554 
-0.07670819532368015 -0.0788978920138266 -0.3445348469212646 0.3959912307278964 
-0.3261211303235551 -0.3819755063280427 0.4754477954419156 0.3165353218936432 
-0.3116835619029469 0.2108835760262497 -0.1084402086810176 -0.03322212688925361 
0.1586370404870236 -0.08857299063119389 -0.04610486581008062 -0.05866172281119438 
0.8958718674579663 -0.5424334695272254 -0.2721684821202017 -0.1118163547502847 
0.234189991705512 -0.1004623150700428 -0.03499994242546562 -0.03764735972052467 
0.234189991705512 -0.1004623150700428 -0.03499994242546562 -0.03764735972052467 
0.234189991705512 -0.1004623150700428 -0.03499994242546562 -0.03764735972052467 
0 0 0 0 
0 0 0 0 
0.4228186515157866 -0.2078289730709541 -0.2228560059118037 -0.3432907210800419 
0.1635698762454833 -0.06993329426210068 -0.02037294917513164 -0.03736850819465155 
0 0 0 0 
0 0 0 0 
0.02416609469661412 -0.006192597792405419 -0.004774759432153088 -0.0179628415431718 
0.02416609469661412 -0.006192597792405419 -0.004774759432153088 -0.0179628415431718 
-0.1385343356279796 0.1540363553450952 -0.0004834856485395068 -5.552047586712488e-05 
0 0 0 0 
0 0 0 0 
0 0 0 0 
0.4600350254531748 -0.1983053097373807 -0.2085527233370991 -0.04512270694902958 
-0.2057384540563958 -0.7098278787004173 0.4037510834019113 0.7716409823866651 
-0.1515045575022022 0.1775580494021779 -0.09472859903575796 -0.03202948551136945 
0 0 0 0 
0 0 0 0 
0 0 0 0 
-0.121368232408961 -0.494411442951094 0.3396442765883129 -0.06060752549760249 
-0.111221346542794 0.02066709004619548 0.1299016278089363 0.06219584899000523 
-0.2337495718145548 -0.08912743432773573 0.4067628494853989 -0.01012606790690626 
-0.2247770229507513 -0.09139282680374924 0.4051638236311543 -0.02068934946171775 
-0.2337495718145548 -0.08912743432773573 0.4067628494853989 -0.01012606790690626 
0.475243602394777 -0.1849807997543692 -0.1403699548176083 -0.2375755201335678 
0.01602662875812188 -0.008497330661043719 -0.02668773331901203 -0.01564554736280843 
0.1626055403178469 -0.092626502658576 -0.07476741393311831 -0.07594697054531985 
0.01162701343318423 -0.002892861326117995 -0.003713847092172674 -0.01548772205333632 
0.01162701343318423 -0.002892861326117995 -0.003713847092172674 -0.01548772205333632 
-0.178950209992304 0.2642355298122667 -0.01817515196740875 -0.04089481282795216 
-0.2630922151129986 0.2503425547308486 -0.004407962376345985 -0.001718084154410099 
0 0 0 0 
0 0 0 0 
-0.100496668787003 0.1508788054985278 -0.08032475758472438 -0.003479603193657826 
0 0 0 0 
0.03863496797499994 -0.03141722418118983 -0.003554337804504221 -0.01559625176060007 
0.004200986344425508 -0.001351443857371996 -0.0007210875909591305 -0.01664799194896446 
0 0 0 0 
0 0 0 0 
0 0 0 0 
0 0 0 0 
0 0 0 0 
0 0 0 0 
-0.1684705687985519 0.2439346087970909 -0.01190182557096009 -0.012389647212229 
0.1397166000001799 0.1412917646541944 -0.3209341896713636 -0.01775054070051298 
0.1630040572876108 -0.06125615738900014 -0.09289167807280457 -0.01377985651006975 
-0.007897687714269618 0.2870026317525555 -0.1872968467810498 -0.139633416310412 
0.1326482235594071 -0.07146632292525854 -0.04059133917683093 -0.05782853069069178 
0.03226267392285768 -0.01150035939522111 -0.003267881583903907 -0.03406268533092689 
0.03226267392285768 -0.01150035939522111 -0.003267881583903907 -0.03406268533092689 
-0.005970991753655841 0.05472107550494922 -0.008707009184308622 -0.05481079946192851 
0 0 0 0 
0.09478766985609591 -0.01226594717694108 -0.02097882776735264 -0.03978119385206567 
0.1711445123365442 -0.05640305411169898 -0.004194037658170338 -0.00423919432866472 
-0.2411297911257759 0.5089567898671136 -0.05569650151818391 -0.1168454402830032 
0.3520041117140061 -0.1563696044272429 -0.0825985791504846 -0.06694125253330617 
0.04810586508664819 -0.008534110422673064 -0.001193844542415793 -0.0009244491520553635 
-0.1531412373473023 0.2697077365566978 -0.1018070155937963 -0.009550713626050058 
0.1172597017074561 -0.06469337597014471 -0.01779139544665704 -0.02427200847425607 
0.04810586508664819 -0.008534110422673064 -0.001193844542415793 -0.0009244491520553635 
0.04810586508664819 -0.008534110422673064 -0.001193844542415793 -0.0009244491520553635 
-0.1657523212556092 -0.01540736788315486 0.5112613553412387 -0.3239548406301153 
0.04810586508664819 -0.008534110422673064 -0.001193844542415793 -0.0009244491520553635 
0.618264948632361 -0.1678115235839286 -0.275963874964858 -0.1456162264589609 
0.3126528007185435 -0.1733662413805884 -0.1391575962456515 -0.02116619969787279 
-0.2464223154571038 0.03790626020019584 -0.01190110546626639 0.364429570920604 
0.04846495499914565 -0.2252936241932906 -0.07183549277665482 0.2970890195920406 
-0.03964149418258327 0.2276976864161777 -0.1732081787031046 -0.1501191479775157 
0.3152803715063591 -0.2269179107866504 -0.02646684255542007 -0.08512641550173901 
0 0 0 0 
0 0 0 0 
0.1045349940839387 -0.06278344006170597 -0.03829371512690176 -0.004780730608628589 
0.0293282935008774 -0.01691307222324605 -0.009201548853524822 -0.008203262737206582 
-0.2126135096791462 -0.0269181416700901 -0.01058661806975423 0.1848150999124616 
0.003177766440580505 -0.001868450858903998 -6.456043272187449e-05 -0.002469825205886734 
0.2387328580923159 -0.09155824629836005 -0.1105269944126946 -0.08049154934432289 
0.2156770238747887 -0.1159087716001841 -0.1032208546191934 -0.05014800213356453 
0.1704695960051311 -0.06573481608617412 -0.09887892852070908 -0.02367825923136637 
0.1704695960051311 -0.06573481608617412 -0.09887892852070908 -0.02367825923136637 
0 0 0 0 
0.2855384597081019 -0.1836466835024162 -0.1123812788882548 -0.03220211430800374 
-0.04640785990906723 0.1893313672544891 -0.2921841899925494 -0.2922986328411232 
-0.4727031414509237 0.3358821867392955 0.07276445831120859 -0.09070337340947182 
0 0 0 0 
0 0 0 0 
0.05097742373892124 -0.01498893943037078 -0.00842805088327191 -0.01768485740108494 
0.05846152411188499 -0.09738497944768629 -0.0220456026575727 0.03878942495864983 
0.01425901769171814 -0.01617560600914033 -0.01112047737447057 -0.007613641547576642 
0.01311121018563277 -0.0160353709294201 -0.009842668364676791 -0.005841847022673336 
0 0 0 0 
0.02207185406703468 -0.3018419946187424 -0.177788626493879 -0.2453567668130891 
-0.1654341849850053 0.1694679794350526 -0.1799596907381174 -0.3218226597847278 
-0.4700307795793636 0.7848500204520891 -0.4846054745514853 -0.3426201992153432 
-0.2990135892462401 -0.2088681361243318 0.343758942508389 -0.04107723665980936 
0.01851085806923249 -0.007939913268214256 -0.02205412811191338 -0.0303484423413011 
-0.1340423216051388 0.5074958851997522 -0.05005573436493392 -0.09370705199117288 
-0.234188731143895 -0.1105859192670317 0.4108698643807777 -0.09775356570499832 
0.1287733682857221 -0.08059919680243359 -0.04476352533837705 -0.06757612730501744 
0.1287733682857221 -0.08059919680243359 -0.04476352533837705 -0.06757612730501744 
0 0 0 0 
0 0 0 0 
-0.09435493384638249 -0.2586333325402778 0.1827372508369382 0.3322254101025223 
0 0 0 0 
0.03258408457886938 -0.02719494057691619 -0.01885353762695332 -0.03295310231044297 
0.01398985576063458 -0.007707322741948032 -0.001760860761987309 -0.02801156644953552 
0.2857390228459242 -0.2699205120795746 -0.03118047493886721 -0.1934348073959645 
0 0 0 0 
0.2334605586257348 -0.1700722723456828 -0.05997309204501008 -0.03388080399453128 
0.1027502720152661 -0.04210204472859679 -0.04889579108276856 -0.0177371032910792 
-0.3824253614509098 0.6897788907818511 -0.2369804814226544 -0.1187883795813922 
0.1027502720152661 -0.04210204472859679 -0.04889579108276856 -0.0177371032910792 
0.1664462785899677 -0.07580031524892017 -0.0716406003960556 -0.02067161057750962 
0.1774336634033562 -0.07089609753320689 -0.08366585456702799 -0.03977616446652193 
0.1027502720152661 -0.04210204472859679 -0.04889579108276856 -0.0177371032910792 
-0.005970991753655841 0.05472107550494922 -0.008707009184308622 -0.05481079946192851 
0 0 0 0 
0.08247943129354622 -0.03008542688526186 -0.02838224649912529 -0.03662130582613938 
0.01193525995128871 -0.08635064116060191 -0.02600829251355993 0.01858013012945549 
0 0 0 0 
0 0 0 0 
0.1314962913676982 0.0104936018392232 -0.07931966103303766 -0.05250113138618754 
0.1210914760547882 -0.0508927584272584 -0.01280796487473727 -0.005017949109095112 
0.01541369455744108 -0.009565693998555978 -0.01596101555547128 -0.005590435578982886 
0.2579554856826812 -0.1618002848152715 -0.0227676888358142 -0.1066408554943512 
-0.5788192919859306 -0.009960808548818062 0.2773448041364249 0.2904783862906042 
0 0 0 0 
0 0 0 0 
0 0 0 0 
0 0 0 0 
0 0 0 0 
0.04009494204907717 -0.02453660193557712 -0.01630634119533381 -0.005024536584156671 
0 0 0 0 
0 0 0 0 
-0.1073691192005299 -0.2757857349833677 0.3447535412587072 -0.04038769342737202 
0 0 0 0 
0 0 0 0 
0 0 0 0 
0 0 0 0 
0 0 0 0 
0 0 0 0 
-0.0004455782710855814 -0.1205971264211998 -0.1767037130491839 0.3496017674171913 
0 0 0 0 
0 0 0 0 
0 0 0 0 
0.04577688235948224 0.04705194160102805 -0.002428639796751115 -0.01636218759292844 
0 0 0 0 
0.2206574369525114 -0.1871494346197892 -0.002116013695058171 -0.01005455976618354 
0 0 0 0 
0 0 0 0 
0.1838456968984309 0.1533107326982945 -0.4083669240755434 -0.2959648352109146 
0.2515516771551959 -0.09068741121161369 -0.05991650357141399 -0.02056245848487784 
0 0 0 0 
0 0 0 0 
0.02117371016942656 -0.00902008196535657 -0.003692165115379443 -0.02521002783359386 
0 0 0 0 
-0.1303672467851396 -0.1033921499895126 0.6037495487419022 -0.008237216530756672 
0.00307050985937631 -0.000486542264328939 -0.000316701337875869 -0.003838316564860116 
0 0 0 0 
-0.07020946043774542 0.1588631285683733 -0.0002613588694347511 -0.004493808141861417 
-0.1462705088826172 0.160659745797827 -0.0003664559328013274 -0.001558386545381267 
0.07662179806464771 -0.031631253493401 -0.08806741338863221 -0.02758234020967661 
-0.1541155953640942 0.468479042028147 -0.0508064517985721 -0.0879964482033844 
0 0 0 0 
0 0 0 0 
0.005147860257610257 -0.004197543071284011 -0.007019134479009517 -0.002951049445431826 
0.111465164056109 -0.1381965926676742 -0.05587405436364432 -0.004407320515690725 
0.111465164056109 -0.1381965926676742 -0.05587405436364432 -0.004407320515690725 
0.138537754777556 -0.153134046246074 -0.07433726279702131 -0.03320309542684335 
-0.1978741797656225 -0.1723003005375222 0.4723377949847613 -0.03395701231310246 
-0.1651359304060411 0.4428743041526306 -0.1555399544405164 -0.06642932227834829 
-0.1651359304060411 0.4428743041526306 -0.1555399544405164 -0.06642932227834829 
-0.1020560041007408 0.2243148585902023 -0.009209553294162067 -0.02378333889775491 
0.09869915425511885 0.122310979263109 -0.2340575431662322 0.01317117300135886 
0.03877071406148747 -0.005780651208558798 -0.01608881990903551 -0.01571706614413685 
0.03877071406148747 -0.005780651208558798 -0.01608881990903551 -0.01571706614413685 
0.01059077460972083 0.3468171892536556 -0.3333479133393615 0.07269653919416975 
-0.3378952604909546 0.2543008692166251 0.05185326395214901 -0.1162941130213736 
0 0 0 0 
0 0 0 0 
-0.1191195831110047 -0.1412419640212865 0.1634390011722205 -0.02476812503915483 
0 0 0 0 
0 0 0 0 
0.2206574369525114 -0.1871494346197892 -0.002116013695058171 -0.01005455976618354 
0 0 0 0 
0 0 0 0 
0.07960079736725237 -0.05505978321287765 -0.03675331939835316 -0.04553637966025105 
0.04887727745509323 -0.04200144191161251 -0.01168614546334224 -0.02199229184033379 
0.07910629983980572 -0.3053380812400892 0.326470424219771 -0.1883813159225899 
0 0 0 0 
0 0 0 0 
0 0 0 0 
0.04641484611766124 -0.003598854463774859 -0.002921317229117175 -0.01535804214220523 
0.01842131500347808 -0.005370409125752216 -0.002894333057857023 -0.0166062487331026 
0 0 0 0 
0 0 0 0 
0 0 0 0 
0.7555488179358671 -0.5053293280421047 -0.2698331418354641 -0.08823612571001631 
-0.1782303113411215 0.2854356231703287 -0.1956589208814863 -0.128388635324923 
-0.5619818053370216 -0.0435344074442168 0.6058722832163393 0.6049187568234411 
0.09170042786809918 -0.03503650900493771 -0.02404294091092717 -0.06037372746876606 
0 0 0 0 
0 0 0 0 
0.3231660253621073 -0.1698933088476214 -0.05864574535180508 -0.02824321000691175 
